~o
<STREAMINFO> 1 25
<VECSIZE> 25<NULLD><MFCC_D_N_Z_0><DIAGC>
~h "b"
<BEGINHMM>
<NUMSTATES> 5
<STATE> 2
<MEAN> 25
 1.052352e+01 -7.895204e+00 -7.184592e+00 -6.447189e+00 -1.839195e+00 -4.947510e-02 -6.898185e+00 5.408777e+00 -3.601126e+00 6.885648e+00 -1.149445e+01 -5.450432e+00 -1.610712e-01 -2.210851e-01 2.412129e-01 3.203856e-01 1.719823e-01 -2.685430e-01 3.384857e-01 4.226412e-01 -6.586469e-02 -2.677902e-01 -4.502099e-01 3.713994e-01 -2.876084e-02
<VARIANCE> 25
 3.180123e+00 7.401121e+00 7.460216e+00 1.420470e+01 2.658863e+01 2.062985e+01 1.439555e+01 1.668312e+02 1.430780e+01 1.920324e+01 2.120386e+01 2.769868e+01 1.199011e-01 4.304119e-01 6.460324e-01 5.405725e-01 1.039265e+00 1.021898e+00 1.031132e+00 1.553072e+00 7.916442e-01 1.023239e+00 1.756030e+00 6.411682e-01 2.828706e-01
<GCONST> 7.501131e+01
<STATE> 3
<MEAN> 25
 8.049762e+00 -6.739438e+00 3.486628e+00 -1.628030e+00 -7.271728e+00 -5.174293e+00 -1.910368e+00 1.109033e+01 -4.890131e+00 5.910371e+00 -3.163723e+00 -3.890409e+00 -4.586855e-01 4.568151e-01 1.586160e+00 2.995014e-01 -1.014649e+00 -3.095269e-01 4.859903e-01 -1.168778e+00 -5.518016e-01 3.306649e-01 1.961813e+00 3.185277e-01 -5.360115e-01
<VARIANCE> 25
 4.203000e+00 4.759768e+00 3.316686e+01 7.603682e+00 2.277349e+01 1.181963e+01 8.793777e+00 5.233844e+01 1.157073e+01 1.348298e+01 5.125190e+01 1.259781e+01 1.181713e-01 3.927951e-01 7.467234e-01 9.809245e-01 9.302752e-01 1.083605e+00 9.734393e-01 2.188812e+00 1.040352e+00 8.044927e-01 1.140097e+00 6.557646e-01 1.364564e-01
<GCONST> 7.264291e+01
<STATE> 4
<MEAN> 25
 2.438693e+00 1.175012e+00 1.361198e+01 -7.217944e-02 -9.831156e+00 -9.939526e-01 1.454917e+00 -2.233136e+00 -2.245383e+00 6.836157e+00 5.022502e+00 -5.533993e-01 -5.364507e-01 6.106871e-01 -2.999224e-02 2.792991e-01 4.379852e-01 6.560847e-01 4.950949e-01 -6.964653e-01 8.382044e-01 -2.856099e-01 -1.748292e-01 2.885706e-01 -1.164493e+00
<VARIANCE> 25
 1.019765e+01 1.098930e+01 2.526407e+01 1.194258e+01 1.902571e+01 2.315238e+01 3.576598e+01 3.200481e+01 3.409809e+01 1.465676e+01 1.704376e+01 1.074382e+01 3.711488e-01 5.578559e-01 1.605422e+00 1.012946e+00 1.029605e+00 1.307291e+00 1.976083e+00 1.371277e+00 1.190826e+00 1.261783e+00 1.387732e+00 7.750400e-01 2.968503e-01
<GCONST> 8.040144e+01
<TRANSP> 5
 0.000000e+00 1.000000e+00 0.000000e+00 0.000000e+00 0.000000e+00
 0.000000e+00 9.100644e-01 8.993559e-02 0.000000e+00 0.000000e+00
 0.000000e+00 0.000000e+00 8.645447e-01 1.354553e-01 0.000000e+00
 0.000000e+00 0.000000e+00 0.000000e+00 8.966584e-01 1.033416e-01
 0.000000e+00 0.000000e+00 0.000000e+00 0.000000e+00 0.000000e+00
<ENDHMM>
~h "d"
<BEGINHMM>
<NUMSTATES> 5
<STATE> 2
<MEAN> 25
 4.150498e+00 5.070276e+00 6.786366e+00 4.411419e+00 -3.790642e-01 -2.880964e+00 -3.891284e+00 -2.490906e+00 -1.131996e+00 -3.298324e+00 -1.220893e+00 -1.388759e+00 6.570108e-01 -6.767672e-02 5.057315e-02 1.494508e-01 1.063563e-01 -6.318481e-01 -6.559167e-01 -6.719339e-01 -2.677724e-01 -6.379128e-02 -5.519158e-02 -2.652325e-01 7.323365e-01
<VARIANCE> 25
 1.803617e+01 3.887916e+01 4.500017e+01 4.670427e+01 5.290313e+01 3.751625e+01 4.184371e+01 3.979892e+01 3.034137e+01 2.178286e+01 1.580933e+01 9.962214e+00 2.915051e+00 4.571348e+00 4.923782e+00 4.535519e+00 6.141336e+00 5.627886e+00 5.644160e+00 4.645392e+00 4.472521e+00 3.619787e+00 2.415096e+00 1.369678e+00 5.090642e+00
<GCONST> 1.048274e+02
<STATE> 3
<MEAN> 25
 6.986573e+00 1.264843e+00 8.954742e-01 1.848242e+00 7.164769e-01 -2.690782e+00 -6.271564e+00 -2.260114e+00 -1.488604e+00 1.217238e+00 -9.507346e-01 -2.986703e+00 8.764759e-01 -1.784403e+00 -1.016937e+00 -1.721171e+00 -1.289164e+00 -3.450809e-01 -1.284335e+00 1.864439e+00 -8.033279e-01 2.191528e+00 -5.559338e-02 -9.434627e-01 2.252763e+00
<VARIANCE> 25
 2.457640e+01 3.457768e+01 4.236239e+01 5.171072e+01 3.658901e+01 2.230746e+01 3.703169e+01 5.242991e+01 2.791829e+01 4.948546e+01 1.637167e+01 1.672960e+01 1.913538e+00 4.541145e+00 2.902142e+00 3.867633e+00 3.118252e+00 2.402915e+00 4.505428e+00 9.931294e+00 2.678638e+00 5.597717e+00 3.566106e+00 1.761918e+00 4.249522e+00
<GCONST> 1.038910e+02
<STATE> 4
<MEAN> 25
 4.721128e+00 -7.750940e-01 8.669234e+00 -3.237681e+00 -8.566370e+00 -4.261332e+00 -7.418168e+00 4.612928e+00 -6.860425e+00 4.179484e+00 1.440478e-01 -1.783962e+00 -1.590556e-01 1.224551e-01 3.056501e-01 9.838426e-02 -3.347795e-01 -3.167336e-02 4.997209e-02 -9.106985e-02 -9.218816e-02 7.197690e-02 2.701344e-02 1.627122e-01 -9.586719e-02
<VARIANCE> 25
 1.371480e+01 3.607626e+01 6.307429e+01 2.128596e+01 4.808086e+01 1.798136e+01 3.321775e+01 6.527914e+01 3.076388e+01 3.230297e+01 3.364180e+01 1.520518e+01 5.239856e-01 1.898053e+00 1.982024e+00 1.862402e+00 3.246061e+00 1.393882e+00 3.226922e+00 3.625887e+00 1.649834e+00 2.556067e+00 2.224723e+00 1.061815e+00 2.964460e+00
<GCONST> 9.559141e+01
<TRANSP> 5
 0.000000e+00 1.000000e+00 0.000000e+00 0.000000e+00 0.000000e+00
 0.000000e+00 7.170362e-01 2.829638e-01 0.000000e+00 0.000000e+00
 0.000000e+00 0.000000e+00 5.505283e-01 4.494717e-01 0.000000e+00
 0.000000e+00 0.000000e+00 0.000000e+00 8.619514e-01 1.380486e-01
 0.000000e+00 0.000000e+00 0.000000e+00 0.000000e+00 0.000000e+00
<ENDHMM>
~h "f"
<BEGINHMM>
<NUMSTATES> 5
<STATE> 2
<MEAN> 25
 4.342144e-01 3.211982e+00 1.173891e+00 3.153315e+00 4.563359e+00 1.840181e+00 3.873449e-01 -1.574460e+00 -2.585667e-01 -2.606806e+00 -4.075579e-01 -1.523670e+00 -1.402264e+00 -9.771655e-01 -1.143130e+00 -6.579449e-01 -7.520976e-01 5.817814e-02 9.808578e-01 3.971471e-02 1.037540e+00 4.569732e-01 9.973876e-02 6.102059e-01 -1.696480e-01
<VARIANCE> 25
 2.206714e+01 1.867606e+01 2.698926e+01 2.152735e+01 3.140912e+01 2.437798e+01 2.819430e+01 3.272168e+01 2.807138e+01 1.933275e+01 1.302616e+01 1.380915e+01 2.377122e+00 1.210996e+00 2.240256e+00 2.502506e+00 2.487062e+00 1.522961e+00 3.574834e+00 1.960251e+00 3.821928e+00 1.718881e+00 1.732409e+00 2.782440e+00 1.500935e+00
<GCONST> 9.321111e+01
<STATE> 3
<MEAN> 25
 -4.110905e+00 1.785094e-01 -1.210844e+00 -5.613303e-02 2.641242e+00 1.758978e+00 1.691588e+00 -6.550267e-01 8.055712e-01 -1.801860e+00 -5.079820e-01 -6.683811e-01 -7.443607e-01 -5.907461e-01 -4.123475e-01 -2.980352e-01 -7.861662e-02 8.883119e-02 2.437419e-01 2.915671e-01 2.078173e-01 1.153269e-01 1.603465e-01 2.026118e-01 1.783092e-01
<VARIANCE> 25
 2.319996e+01 1.283531e+01 1.497790e+01 1.986767e+01 1.886534e+01 1.497550e+01 2.084454e+01 2.144845e+01 2.741135e+01 2.266217e+01 1.564697e+01 1.213111e+01 1.768958e+00 1.171695e+00 8.444499e-01 1.596245e+00 1.368607e+00 1.287248e+00 1.484834e+00 1.395964e+00 1.646673e+00 1.042479e+00 1.163356e+00 1.160025e+00 7.749899e-01
<GCONST> 8.367097e+01
<STATE> 4
<MEAN> 25
 1.520627e+00 -3.308234e+00 -4.981766e+00 -2.361578e+00 1.357191e-01 -1.029317e+00 -1.075082e-01 3.849683e+00 1.867321e-01 1.200614e+00 -1.268152e+00 -5.919658e-01 4.026554e-01 -9.515791e-02 -1.164568e-01 -2.744652e-02 -8.030776e-02 -1.556365e-01 -2.251730e-01 8.402713e-03 -3.834396e-01 8.601004e-02 -1.377688e-02 6.458329e-02 4.812776e-01
<VARIANCE> 25
 1.084342e+02 2.555829e+01 3.703963e+01 3.566064e+01 3.859507e+01 6.888528e+01 1.841003e+01 3.394308e+01 3.283758e+01 2.306982e+01 2.439272e+01 1.464778e+01 2.892542e+00 2.020212e+00 1.222979e+00 1.741450e+00 2.020928e+00 2.169103e+00 1.681410e+00 2.255168e+00 1.632696e+00 1.270967e+00 1.177799e+00 1.061599e+00 7.072772e-01
<GCONST> 9.383107e+01
<TRANSP> 5
 0.000000e+00 1.000000e+00 0.000000e+00 0.000000e+00 0.000000e+00
 0.000000e+00 5.594967e-01 4.405033e-01 0.000000e+00 0.000000e+00
 0.000000e+00 0.000000e+00 7.529041e-01 2.470959e-01 0.000000e+00
 0.000000e+00 0.000000e+00 0.000000e+00 8.876614e-01 1.123386e-01
 0.000000e+00 0.000000e+00 0.000000e+00 0.000000e+00 0.000000e+00
<ENDHMM>
~h "k"
<BEGINHMM>
<NUMSTATES> 5
<STATE> 2
<MEAN> 25
 -4.053692e+00 1.650429e+00 -2.867363e+00 3.763468e-01 5.451266e-01 2.135474e+00 4.290310e+00 1.788408e+00 4.086782e+00 8.867750e-01 2.432321e+00 7.248993e-01 4.319258e-02 1.678606e-01 -1.233430e-01 -9.666935e-02 -3.979735e-02 -1.673782e-01 -1.604810e-01 -1.258155e-02 6.077729e-03 -2.748008e-02 3.733082e-02 -3.550781e-02 -8.391231e-02
<VARIANCE> 25
 2.710809e+01 1.507862e+01 1.294914e+01 1.448474e+01 1.910451e+01 1.394249e+01 1.769543e+01 2.247829e+01 1.315110e+01 2.606799e+01 1.309237e+01 1.330792e+01 1.995306e-01 3.431645e-01 5.469609e-01 4.490467e-01 9.030207e-01 6.182864e-01 8.445418e-01 1.204851e+00 1.504306e+00 1.279701e+00 9.312952e-01 1.157289e+00 1.240316e-01
<GCONST> 7.375436e+01
<STATE> 3
<MEAN> 25
 -7.633980e+00 -4.459201e-01 -3.040072e+00 1.007118e+00 3.609891e+00 7.359921e-01 6.435856e+00 4.401222e-01 4.923836e+00 -9.312986e-01 1.750570e+00 2.587039e+00 5.747205e-01 -4.630078e-01 1.082952e-01 -1.632331e-01 -8.456087e-01 -5.221127e-01 -1.482571e-02 3.765898e-01 -5.988408e-01 2.328593e-01 -1.243207e-01 -3.779933e-02 1.489043e-01
<VARIANCE> 25
 2.157854e+01 1.773332e+01 1.085032e+01 8.049559e+00 1.246379e+01 1.381048e+01 1.826861e+01 1.454369e+01 1.401563e+01 1.803753e+01 1.427065e+01 1.591802e+01 5.351862e-01 1.258374e+00 1.184847e+00 1.626586e+00 2.610784e+00 2.469819e+00 1.377226e+00 1.808474e+00 2.334785e+00 2.814148e+00 1.508918e+00 1.814029e+00 4.325554e+00
<GCONST> 8.544395e+01
<STATE> 4
<MEAN> 25
 -2.079937e+00 -6.036186e+00 -2.127866e+00 -9.252566e-01 -2.893366e+00 -5.119033e+00 4.299214e+00 3.709466e+00 -1.474985e+00 -1.609964e+00 8.356102e-01 -7.298253e-01 1.557254e+00 -4.273245e-01 -1.465709e-01 -1.209925e-01 -2.243929e-01 -9.636016e-01 -3.667980e-01 5.014900e-01 -4.981056e-01 -2.825723e-01 -6.429728e-01 -3.606367e-01 1.901701e+00
<VARIANCE> 25
 3.430846e+01 2.524888e+01 1.884519e+01 4.026963e+01 3.393419e+01 4.238890e+01 2.411080e+01 4.589069e+01 3.006140e+01 3.839657e+01 1.954211e+01 1.982468e+01 3.001674e+00 2.142241e+00 2.211497e+00 3.285792e+00 6.578980e+00 4.685925e+00 2.888282e+00 6.010492e+00 3.344782e+00 6.229063e+00 3.082204e+00 1.809781e+00 5.067084e+00
<GCONST> 1.031391e+02
<TRANSP> 5
 0.000000e+00 1.000000e+00 0.000000e+00 0.000000e+00 0.000000e+00
 0.000000e+00 7.132120e-01 2.867880e-01 0.000000e+00 0.000000e+00
 0.000000e+00 0.000000e+00 4.265683e-01 5.734317e-01 0.000000e+00
 0.000000e+00 0.000000e+00 0.000000e+00 8.384755e-01 1.615246e-01
 0.000000e+00 0.000000e+00 0.000000e+00 0.000000e+00 0.000000e+00
<ENDHMM>
~h "l"
<BEGINHMM>
<NUMSTATES> 5
<STATE> 2
<MEAN> 25
 -3.063565e+00 8.889389e-02 -4.847035e-01 4.700090e+00 1.004837e+00 2.108514e+00 2.967190e+00 1.031016e+00 2.358895e+00 -2.420916e+00 -4.834603e-01 8.905177e-01 -1.427039e-02 6.677528e-02 -7.936942e-02 -6.294192e-01 -4.523622e-01 3.263324e-01 4.583478e-02 3.442097e-01 3.054017e-01 -1.586269e-01 8.465338e-02 2.327527e-01 6.933860e-03
<VARIANCE> 25
 1.851507e+00 4.865180e+00 3.899173e+00 1.353742e+01 1.388026e+01 8.511638e+00 2.309437e+01 2.665952e+01 1.095737e+01 6.539016e+00 1.830494e+01 8.607671e+00 7.210005e-02 3.096991e-01 3.071950e-01 4.186439e-01 3.082815e-01 1.394988e+00 3.746645e+00 1.084100e+00 8.983332e-01 8.313386e-01 4.976771e-01 6.713664e-01 1.830588e-01
<GCONST> 6.425628e+01
<STATE> 3
<MEAN> 25
 -4.340766e+00 -3.557980e-01 3.849187e-01 3.705516e+00 1.685035e+00 2.264674e+00 5.231472e+00 2.040995e+00 2.532540e+00 -1.656597e+00 1.607519e+00 6.734221e-01 -1.415683e-01 5.327928e-02 4.653445e-02 -2.340586e-01 1.446868e-01 1.050815e-01 3.561645e-01 -7.205111e-02 -1.685576e-01 1.928912e-01 1.169398e-01 6.367804e-02 -2.126908e-02
<VARIANCE> 25
 6.133911e+00 8.497626e+00 9.009809e+00 6.122857e+00 1.135739e+01 1.671512e+01 1.486061e+01 1.508541e+01 8.434262e+00 9.250377e+00 1.231204e+01 9.384764e+00 3.908510e-01 6.534637e-01 9.442738e-01 6.004382e-01 5.385958e-01 2.735468e+00 1.395124e+00 5.368015e-01 8.464741e-01 9.391912e-01 5.893600e-01 1.267562e+00 2.985010e-01
<GCONST> 7.011216e+01
<STATE> 4
<MEAN> 25
 -3.036458e+00 1.963149e+00 -1.342283e+00 -4.304153e-02 -9.959754e-01 4.292023e+00 3.556474e+00 6.030445e-01 2.284673e+00 1.709177e+00 -2.888647e-01 5.639267e-01 -1.757956e-02 1.520846e-02 4.002143e-03 -1.011203e-02 -8.939112e-03 -2.531845e-02 -2.468278e-02 1.199814e-02 5.363916e-02 1.209260e-01 1.379503e-01 6.616820e-02 -1.569980e-02
<VARIANCE> 25
 1.340448e+00 5.260132e+00 2.728572e+00 5.543464e+00 1.007760e+01 7.358283e+00 9.111352e+00 2.882074e+01 7.392869e+00 1.179240e+01 1.114495e+01 8.918924e+00 1.116758e-01 1.954908e-01 1.947692e-01 3.636897e-01 4.375966e-01 6.240995e-01 8.971862e-01 1.156161e+00 8.685387e-01 8.948309e-01 7.173561e-01 7.289075e-01 5.555476e-02
<GCONST> 5.803645e+01
<TRANSP> 5
 0.000000e+00 1.000000e+00 0.000000e+00 0.000000e+00 0.000000e+00
 0.000000e+00 5.470645e-01 4.529355e-01 0.000000e+00 0.000000e+00
 0.000000e+00 0.000000e+00 7.465010e-01 2.534990e-01 0.000000e+00
 0.000000e+00 0.000000e+00 0.000000e+00 9.581385e-01 4.186154e-02
 0.000000e+00 0.000000e+00 0.000000e+00 0.000000e+00 0.000000e+00
<ENDHMM>
~h "m"
<BEGINHMM>
<NUMSTATES> 5
<STATE> 2
<MEAN> 25
 4.806632e+00 -6.383647e+00 -6.938894e+00 -2.155511e+00 2.877629e-02 1.861544e-01 2.835039e+00 2.565595e+00 -2.737747e-01 -8.101978e-01 -2.963637e+00 2.909879e+00 1.874869e-01 -9.358753e-02 -2.551465e-01 -4.718524e-01 -7.292489e-02 1.120969e-02 2.274037e-01 2.078687e-01 5.281672e-02 5.319405e-01 -4.373083e-01 -5.395278e-02 1.488924e-01
<VARIANCE> 25
 3.224806e+01 7.656899e+01 2.911851e+01 3.343409e+01 4.919509e+01 4.586450e+01 6.030551e+01 3.800736e+01 3.205467e+01 1.590308e+01 4.013808e+01 2.377572e+01 1.248762e+00 1.492695e+00 1.287002e+00 8.670720e-01 1.571939e+00 1.313605e+00 1.521545e+00 1.661973e+00 1.892792e+00 1.816037e+00 2.196229e+00 1.152538e+00 5.574011e-01
<GCONST> 9.315733e+01
<STATE> 3
<MEAN> 25
 9.391066e+00 -6.760558e+00 -6.593289e+00 -5.942817e+00 1.913093e+00 2.182624e+00 -1.917672e+00 2.332321e+00 -3.431370e+00 1.891703e+00 -7.199153e+00 -5.050266e-02 2.097798e-01 5.040283e-02 1.741813e-01 -7.706203e-02 -1.942309e-01 -2.680868e-01 -2.286372e-02 -1.076895e-01 -3.243758e-01 2.812389e-01 -2.800017e-01 -1.174647e-01 1.478425e-01
<VARIANCE> 25
 2.643725e+01 2.752814e+01 2.443204e+01 2.946924e+01 5.292537e+01 6.417421e+01 6.303904e+01 3.313304e+01 3.943407e+01 1.804424e+01 3.724580e+01 1.721875e+01 7.707900e-01 1.556138e+00 8.726444e-01 9.897719e-01 1.655828e+00 1.436733e+00 1.041651e+00 2.165998e+00 1.720338e+00 1.381272e+00 1.473214e+00 9.563693e-01 3.261259e-01
<GCONST> 8.972552e+01
<STATE> 4
<MEAN> 25
 8.773295e+00 -4.941798e+00 -3.807848e+00 -3.157203e+00 -2.468407e+00 -3.494102e+00 -2.146642e+00 -3.657810e+00 -5.495660e+00 4.034442e+00 -3.958841e+00 6.681586e-02 -1.606276e-01 5.692884e-01 6.683438e-01 3.357557e-01 5.440126e-02 -1.062882e-02 -2.791864e-01 -3.832158e-01 -3.420264e-01 2.495559e-01 2.806647e-01 -1.657357e-01 -4.015948e-01
<VARIANCE> 25
 1.382514e+01 2.661606e+01 7.911719e+01 4.160166e+01 1.085231e+02 4.134426e+01 6.920582e+01 9.626866e+01 2.819750e+01 3.813969e+01 3.134846e+01 2.110037e+01 4.403707e-01 9.329485e-01 1.629231e+00 1.432759e+00 3.573139e+00 2.480211e+00 3.235729e+00 2.180822e+00 1.616458e+00 1.817111e+00 1.496601e+00 1.425434e+00 5.233815e-01
<GCONST> 9.592370e+01
<TRANSP> 5
 0.000000e+00 1.000000e+00 0.000000e+00 0.000000e+00 0.000000e+00
 0.000000e+00 4.781570e-01 5.218431e-01 0.000000e+00 0.000000e+00
 0.000000e+00 0.000000e+00 6.998295e-01 3.001705e-01 0.000000e+00
 0.000000e+00 0.000000e+00 0.000000e+00 7.894987e-01 2.105013e-01
 0.000000e+00 0.000000e+00 0.000000e+00 0.000000e+00 0.000000e+00
<ENDHMM>
~h "n"
<BEGINHMM>
<NUMSTATES> 5
<STATE> 2
<MEAN> 25
 9.733463e+00 2.676720e+00 -2.327034e+00 -4.104610e+00 -6.399508e-01 1.051815e+00 -2.773791e+00 -2.820979e+00 -3.006654e+00 -1.495087e+00 -2.595005e+00 -1.487116e+00 8.530002e-01 -8.735564e-01 -2.023087e-01 -9.744320e-01 -3.110720e-01 3.286120e-01 -8.783481e-01 9.962437e-02 -6.947367e-01 1.187539e-01 -6.468109e-01 -2.356144e-01 1.435210e+00
<VARIANCE> 25
 3.314779e+01 5.712850e+01 2.806886e+01 6.824375e+01 5.548520e+01 4.918546e+01 3.100809e+01 4.049188e+01 4.079252e+01 2.565685e+01 2.974406e+01 1.796225e+01 3.680448e+00 3.935163e+00 2.498397e+00 3.610828e+00 3.771057e+00 6.005025e+00 4.207192e+00 4.734832e+00 3.270052e+00 2.154104e+00 2.443960e+00 1.701153e+00 2.275830e+00
<GCONST> 1.045159e+02
<STATE> 3
<MEAN> 25
 9.550371e+00 -4.542032e+00 1.287029e+00 -8.035593e+00 -3.821544e+00 2.459064e+00 -6.284631e+00 5.084698e-01 -6.964254e+00 2.477587e+00 -4.848545e+00 -2.253297e+00 -2.550722e-01 1.557830e-01 6.068148e-01 7.486662e-01 -7.817889e-02 -3.739130e-01 -3.588823e-01 -2.345788e-01 4.036736e-01 -2.121183e-01 2.326568e-01 7.903874e-02 -3.685695e-01
<VARIANCE> 25
 1.319923e+01 3.790791e+01 7.587437e+01 5.422359e+01 6.496471e+01 5.249995e+01 4.693147e+01 7.160337e+01 3.673893e+01 3.459761e+01 3.448032e+01 1.327171e+01 5.390067e-01 1.723259e+00 1.695602e+00 2.456312e+00 3.507974e+00 2.228011e+00 2.484436e+00 3.726583e+00 3.084444e+00 2.183980e+00 2.345358e+00 1.103078e+00 1.165573e+00
<GCONST> 9.865842e+01
<STATE> 4
<MEAN> 25
 4.392848e+00 2.306739e+00 1.049742e+00 1.314292e+00 1.662901e+00 1.620069e-01 -4.041788e+00 -1.567268e+00 1.276983e-01 -2.472198e+00 -1.725204e+00 -8.653252e-01 -1.082258e-01 2.407899e-01 1.234252e-01 4.166879e-01 1.631136e-01 -7.804016e-02 1.604873e-01 -5.299386e-02 6.068873e-02 -1.634355e-01 4.139347e-02 1.514725e-01 -3.385818e-01
<VARIANCE> 25
 3.094884e+01 2.278745e+01 3.977008e+01 3.686642e+01 3.579311e+01 3.784139e+01 5.905449e+01 6.539653e+01 3.863503e+01 2.860305e+01 2.606371e+01 2.784488e+01 8.530654e-01 1.216402e+00 1.095860e+00 1.459804e+00 1.397362e+00 1.837724e+00 1.859876e+00 2.394383e+00 1.973500e+00 1.869397e+00 1.672322e+00 1.536254e+00 8.858300e-01
<GCONST> 9.393216e+01
<TRANSP> 5
 0.000000e+00 1.000000e+00 0.000000e+00 0.000000e+00 0.000000e+00
 0.000000e+00 7.863588e-01 2.136412e-01 0.000000e+00 0.000000e+00
 0.000000e+00 0.000000e+00 8.524857e-01 1.475143e-01 0.000000e+00
 0.000000e+00 0.000000e+00 0.000000e+00 9.115248e-01 8.847522e-02
 0.000000e+00 0.000000e+00 0.000000e+00 0.000000e+00 0.000000e+00
<ENDHMM>
~h "p"
<BEGINHMM>
<NUMSTATES> 5
<STATE> 2
<MEAN> 25
 7.917136e+00 2.806628e+00 3.713261e-01 7.052267e+00 4.777772e-01 -3.371866e+00 -8.174270e+00 -5.777709e+00 5.299055e+00 -2.355572e+00 -4.296049e+00 1.946264e+00 -6.230278e-01 9.456610e-02 -3.478564e-01 -1.421332e-01 -4.239532e-02 2.286397e-01 4.751577e-01 -2.131855e-01 -1.573988e-01 -3.213139e-01 1.194032e-01 -3.137373e-01 -6.719224e-01
<VARIANCE> 25
 3.372749e+01 6.577528e+00 2.006321e+00 9.007109e+00 5.050177e+00 9.176975e+00 2.997797e+01 2.009502e+01 2.125761e+01 8.299345e+00 2.827098e+00 1.988114e+01 2.866966e-01 8.717347e-01 8.539094e-01 1.817313e+00 1.298997e+00 8.823243e-01 1.287873e+00 1.648356e+00 1.469741e+00 1.699090e+00 4.894135e-01 1.030232e+00 1.237209e-01
<GCONST> 7.176487e+01
<STATE> 3
<MEAN> 25
 1.246053e+00 3.589064e+00 1.248550e+00 6.890344e+00 1.945563e+00 2.030253e+00 1.836743e+00 -2.640490e+00 -7.239887e-01 -5.025574e+00 -3.192753e+00 -2.334805e+00 -1.275554e+00 -5.074921e-01 -3.526067e-01 -7.876176e-01 -5.211703e-03 6.810948e-01 1.527460e+00 1.082714e+00 1.136023e-01 3.534434e-01 3.048427e-01 1.809651e-01 -9.424044e-01
<VARIANCE> 25
 1.050983e+01 1.328407e+01 1.038325e+01 1.540930e+01 5.265626e+00 1.179575e+01 2.578659e+01 1.553200e+01 9.223790e+00 1.960471e+01 4.815950e+00 5.893992e+00 4.901396e-01 1.460078e+00 7.134479e-01 8.496489e-01 1.129744e+00 5.467183e-01 1.541859e+00 1.239499e+00 2.627371e+00 1.897905e+00 5.727215e-01 7.892202e-01 1.932434e-01
<GCONST> 7.312565e+01
<STATE> 4
<MEAN> 25
 -2.739888e+00 5.545590e-01 2.673757e-01 6.938797e+00 3.030361e+00 1.673635e+00 2.166687e+00 -5.320436e-01 8.313676e-01 -1.871617e+00 5.143623e-01 -8.437574e-01 -4.566646e-01 -1.145464e-01 -2.808124e-01 -5.831666e-01 -4.518638e-01 -1.897229e-02 -3.707230e-03 2.738280e-01 1.906177e-01 6.683494e-02 3.544771e-01 3.194467e-01 -2.279636e-01
<VARIANCE> 25
 1.442656e+00 1.905643e+00 4.688439e+00 2.441819e+01 1.547701e+01 5.914260e+00 1.360909e+01 1.915467e+01 1.578386e+01 1.481499e+01 1.118816e+01 8.616171e+00 1.649142e-01 4.792854e-01 1.368553e-01 1.087985e+00 4.202787e-01 9.945125e-01 2.168225e+00 7.728080e-01 1.545683e+00 8.390568e-01 5.878195e-01 9.702776e-01 6.278354e-02
<GCONST> 6.393377e+01
<TRANSP> 5
 0.000000e+00 1.000000e+00 0.000000e+00 0.000000e+00 0.000000e+00
 0.000000e+00 5.942646e-01 4.057354e-01 0.000000e+00 0.000000e+00
 0.000000e+00 0.000000e+00 4.954851e-01 5.045149e-01 0.000000e+00
 0.000000e+00 0.000000e+00 0.000000e+00 4.634542e-01 5.365459e-01
 0.000000e+00 0.000000e+00 0.000000e+00 0.000000e+00 0.000000e+00
<ENDHMM>
~h "r"
<BEGINHMM>
<NUMSTATES> 5
<STATE> 2
<MEAN> 25
 1.301720e+00 -2.085134e-01 4.228487e+00 3.718920e+00 -3.035280e+00 -4.220283e+00 -4.892991e-01 -3.957705e+00 -1.763481e+00 -1.994030e+00 -9.169736e-01 4.428836e-01 2.022309e+00 -7.087043e-01 1.168298e+00 5.750073e-01 -1.922292e-01 -1.348919e+00 -1.454775e+00 -7.932627e-02 -1.598016e+00 -5.870698e-01 3.299997e-01 4.702887e-02 7.622628e-01
<VARIANCE> 25
 6.179093e+01 5.402311e+01 9.721119e+01 5.127036e+01 4.174129e+01 4.002148e+01 8.309440e+01 7.529762e+01 8.023702e+01 2.920417e+01 3.166096e+01 1.803766e+01 6.498628e+00 3.774463e+00 5.019183e+00 6.413702e+00 3.222594e+00 5.160153e+00 7.044271e+00 8.203626e+00 6.620405e+00 2.970888e+00 4.521300e+00 2.364477e+00 1.558546e+00
<GCONST> 1.121749e+02
<STATE> 3
<MEAN> 25
 1.019080e+01 -4.564331e+00 2.522467e+00 4.490874e+00 -2.546375e+00 -8.448521e+00 -9.909756e+00 -1.156402e+00 -5.120692e+00 -6.220511e+00 1.750563e+00 1.960522e+00 8.357062e-01 -5.629439e-01 -4.813002e-01 5.178079e-01 7.333061e-01 -6.129341e-01 -1.571169e+00 4.653374e-01 -4.249827e-01 -5.373615e-01 9.975724e-01 1.712444e-01 8.343019e-02
<VARIANCE> 25
 4.197762e+01 3.300607e+01 1.007669e+02 9.081261e+01 9.251086e+01 6.182335e+01 6.177040e+01 8.043477e+01 8.116650e+01 2.341289e+01 4.217836e+01 2.189278e+01 2.677891e+00 1.327281e+00 3.930643e+00 2.493973e+00 4.164366e+00 2.997590e+00 3.096853e+00 4.116727e+00 3.773149e+00 2.231996e+00 2.691156e+00 1.733253e+00 4.576817e-01
<GCONST> 1.053526e+02
<STATE> 4
<MEAN> 25
 1.155888e+01 -3.745092e+00 -2.876583e+00 1.834056e+00 -2.167381e+00 -7.225222e+00 -1.272356e+01 6.071716e+00 -5.596707e+00 -3.462012e+00 3.759922e+00 1.035626e+00 -4.252993e-01 7.216607e-02 6.247208e-01 3.890814e-01 1.653407e-01 -7.490296e-02 1.247371e-01 -3.066425e-01 -1.921253e-01 3.837250e-01 2.656210e-01 -3.549172e-01 -4.200283e-01
<VARIANCE> 25
 2.923745e+01 3.393435e+01 8.442824e+01 7.803328e+01 6.040949e+01 6.845954e+01 6.818122e+01 8.425237e+01 6.552678e+01 3.782915e+01 3.843969e+01 1.791884e+01 8.480073e-01 7.334117e-01 2.096922e+00 1.806003e+00 2.615165e+00 2.137969e+00 3.059671e+00 2.082950e+00 3.676421e+00 2.091633e+00 2.118789e+00 1.828018e+00 7.013640e-01
<GCONST> 1.004429e+02
<TRANSP> 5
 0.000000e+00 1.000000e+00 0.000000e+00 0.000000e+00 0.000000e+00
 0.000000e+00 7.210832e-01 2.789169e-01 0.000000e+00 0.000000e+00
 0.000000e+00 0.000000e+00 5.718589e-01 4.281411e-01 0.000000e+00
 0.000000e+00 0.000000e+00 0.000000e+00 8.064533e-01 1.935468e-01
 0.000000e+00 0.000000e+00 0.000000e+00 0.000000e+00 0.000000e+00
<ENDHMM>
~h "s"
<BEGINHMM>
<NUMSTATES> 5
<STATE> 2
<MEAN> 25
 -1.229603e+01 3.985293e+00 -3.617555e+00 1.737705e+00 4.552053e+00 -2.083244e+00 5.488279e+00 -2.208129e-01 5.176483e+00 7.286300e-01 2.015474e+00 1.751486e+00 -7.390163e-01 3.023442e-01 -8.693497e-01 2.324457e-02 -5.940350e-02 -5.162393e-02 -2.098954e-01 -6.668805e-02 8.210372e-02 -1.581305e-01 2.897853e-01 7.046907e-02 -3.328227e-02
<VARIANCE> 25
 4.551888e+01 3.901925e+01 6.103618e+01 2.054925e+01 4.003768e+01 2.621864e+01 3.743800e+01 2.374918e+01 3.082304e+01 2.219799e+01 1.849880e+01 1.924997e+01 2.334173e+00 1.387749e+00 2.130944e+00 2.260196e+00 2.439732e+00 2.215248e+00 2.980645e+00 2.431748e+00 2.037827e+00 1.972002e+00 1.722005e+00 1.708999e+00 8.038365e-01
<GCONST> 9.538073e+01
<STATE> 3
<MEAN> 25
 -1.620627e+01 7.115545e+00 -7.747733e+00 1.107097e+00 7.287133e+00 -3.466062e+00 6.242812e+00 -1.293838e+00 6.173496e+00 -1.091993e-01 1.436873e+00 2.456111e+00 4.205132e-01 -2.449933e-01 2.138182e-01 -4.856271e-02 -2.799056e-02 1.034139e-01 2.285479e-03 1.314284e-01 -1.087358e-02 4.040811e-02 -1.125160e-02 1.445122e-01 -4.143761e-01
<VARIANCE> 25
 1.613870e+01 1.490918e+01 2.140112e+01 1.395642e+01 1.977467e+01 1.734374e+01 1.854060e+01 1.793505e+01 1.765808e+01 1.760142e+01 1.719536e+01 1.320816e+01 9.785305e-01 6.773237e-01 1.227313e+00 8.361095e-01 1.250026e+00 1.504867e+00 1.829829e+00 1.932357e+00 1.908196e+00 1.740135e+00 1.637135e+00 1.328957e+00 4.145265e-01
<GCONST> 8.254472e+01
<STATE> 4
<MEAN> 25
 -6.360046e+00 -2.235671e+00 2.587028e+00 -8.940407e-01 -3.976431e-01 1.095641e+00 3.627608e+00 1.207300e+00 2.431824e+00 4.262457e-01 3.297828e+00 3.013549e+00 5.013860e-01 8.563206e-03 -6.852578e-02 2.859971e-01 -1.974809e-01 1.480004e-01 -9.052143e-02 6.705540e-02 -8.021953e-02 -6.509625e-02 -4.201410e-02 3.084282e-02 -2.208328e-01
<VARIANCE> 25
 3.921866e+01 2.718965e+01 4.639280e+01 2.302946e+01 3.253630e+01 1.369421e+01 2.663581e+01 2.313813e+01 1.719722e+01 2.145247e+01 1.797162e+01 1.361077e+01 1.546859e+00 1.426414e+00 2.143126e+00 1.099484e+00 1.288926e+00 1.296601e+00 1.733415e+00 2.025392e+00 1.481033e+00 1.316950e+00 1.486680e+00 1.243662e+00 9.690250e-01
<GCONST> 8.849527e+01
<TRANSP> 5
 0.000000e+00 1.000000e+00 0.000000e+00 0.000000e+00 0.000000e+00
 0.000000e+00 5.755135e-01 4.244866e-01 0.000000e+00 0.000000e+00
 0.000000e+00 0.000000e+00 9.060246e-01 9.397537e-02 0.000000e+00
 0.000000e+00 0.000000e+00 0.000000e+00 8.251252e-01 1.748748e-01
 0.000000e+00 0.000000e+00 0.000000e+00 0.000000e+00 0.000000e+00
<ENDHMM>
~h "t"
<BEGINHMM>
<NUMSTATES> 5
<STATE> 2
<MEAN> 25
 4.080316e+00 2.936680e+00 3.611682e+00 3.810750e+00 -3.887017e-01 -3.548408e+00 -5.190429e+00 -6.285660e+00 4.145151e-01 -4.682507e+00 -2.075460e+00 -1.564184e+00 -6.723351e-01 -2.296181e-01 -4.833103e-01 5.642360e-01 9.103489e-01 6.255627e-01 9.728279e-01 2.110321e-01 2.769443e-01 -1.957756e-01 6.738967e-02 2.121534e-01 -8.820611e-01
<VARIANCE> 25
 2.800732e+01 4.231967e+01 2.327473e+01 2.051977e+01 4.530939e+01 2.901607e+01 6.781902e+01 3.949517e+01 2.304809e+01 2.643725e+01 2.158101e+01 1.682339e+01 1.111010e+00 2.071990e+00 2.850868e+00 1.572886e+00 3.896054e+00 2.652037e+00 2.683081e+00 2.828616e+00 2.395484e+00 1.675281e+00 1.483018e+00 1.921309e+00 2.348497e+00
<GCONST> 9.656152e+01
<STATE> 3
<MEAN> 25
 1.744143e+00 4.339357e+00 3.063116e+00 5.359696e+00 2.408925e+00 -3.165986e-01 -9.506480e-01 -4.216044e+00 1.025623e-01 -5.466547e+00 -1.952682e+00 -1.517168e+00 -1.101683e+00 -4.444483e-01 -4.693474e-01 1.960371e-01 8.460091e-01 7.501431e-01 1.237737e+00 9.105015e-01 2.647236e-01 3.094953e-01 4.403718e-01 3.825913e-01 -7.629782e-01
<VARIANCE> 25
 2.538734e+01 3.065646e+01 1.352884e+01 1.654553e+01 2.756052e+01 2.427787e+01 3.039939e+01 3.298470e+01 1.721630e+01 3.123803e+01 2.378798e+01 1.978015e+01 1.733528e+00 1.922518e+00 1.738300e+00 1.526632e+00 2.481876e+00 1.902632e+00 3.150145e+00 2.971905e+00 2.339675e+00 1.894236e+00 2.203895e+00 2.346883e+00 1.276492e+00
<GCONST> 9.321765e+01
<STATE> 4
<MEAN> 25
 -3.425641e+00 1.102887e+00 -1.159099e+00 3.445477e+00 3.643602e+00 2.651448e+00 4.574637e+00 2.082059e+00 4.002796e+00 -1.580594e+00 2.091177e+00 2.652977e+00 -1.459371e-01 -1.716009e-01 -1.888224e-01 -9.014763e-02 -5.302199e-02 -1.273964e-01 -1.401883e-02 6.192627e-02 8.627616e-02 1.320542e-01 9.750178e-02 8.011427e-02 1.859745e-01
<VARIANCE> 25
 1.123317e+01 1.618823e+01 1.261386e+01 1.564702e+01 2.090137e+01 2.210777e+01 2.311891e+01 3.055481e+01 1.940378e+01 1.739806e+01 1.749598e+01 1.559786e+01 1.139867e+00 1.356674e+00 1.099712e+00 1.849386e+00 1.980891e+00 2.349149e+00 2.479407e+00 2.565790e+00 1.925871e+00 1.858815e+00 1.753347e+00 1.560465e+00 1.909365e+00
<GCONST> 8.802435e+01
<TRANSP> 5
 0.000000e+00 1.000000e+00 0.000000e+00 0.000000e+00 0.000000e+00
 0.000000e+00 5.383899e-01 4.616101e-01 0.000000e+00 0.000000e+00
 0.000000e+00 0.000000e+00 6.120735e-01 3.879265e-01 0.000000e+00
 0.000000e+00 0.000000e+00 0.000000e+00 9.199781e-01 8.002187e-02
 0.000000e+00 0.000000e+00 0.000000e+00 0.000000e+00 0.000000e+00
<ENDHMM>
~h "v"
<BEGINHMM>
<NUMSTATES> 5
<STATE> 2
<MEAN> 25
 3.641248e-01 4.920019e-01 1.220713e+00 1.513334e+00 -1.601379e+00 -2.193474e+00 -1.652452e+00 -1.002737e+00 -1.064124e+00 -2.483935e-01 5.913825e-01 -1.042766e+00 2.041340e+00 1.569245e-01 2.720219e-01 -5.487261e-01 -9.401332e-01 -1.271609e+00 -7.418156e-01 1.002046e-02 -9.401734e-01 3.736642e-02 -3.084535e-01 -6.356796e-01 1.098771e+00
<VARIANCE> 25
 4.873679e+01 3.879261e+01 7.609471e+01 4.862138e+01 5.344344e+01 5.942874e+01 3.538055e+01 2.734973e+01 4.205360e+01 1.906237e+01 2.313858e+01 1.452479e+01 7.341741e+00 3.657623e+00 3.530379e+00 6.270442e+00 7.839730e+00 6.476673e+00 5.392406e+00 5.078281e+00 7.443096e+00 3.125499e+00 3.204286e+00 1.830021e+00 3.420422e+00
<GCONST> 1.089204e+02
<STATE> 3
<MEAN> 25
 6.682710e+00 1.264895e+00 4.544941e-01 7.465703e-01 -2.796764e+00 -5.462582e+00 -3.676321e+00 1.251210e+00 -2.391460e+00 4.030266e-01 -1.327224e+00 -2.617245e+00 8.921090e-01 -6.493968e-01 -7.778956e-01 -7.722733e-01 2.685256e-02 2.445204e-01 -2.155120e-01 5.337272e-01 -2.690546e-01 5.426099e-01 -6.371568e-01 -2.827003e-01 6.948985e-01
<VARIANCE> 25
 4.342424e+01 2.638124e+01 6.585539e+01 9.393414e+01 5.898825e+01 6.193747e+01 2.575776e+01 5.443747e+01 4.526392e+01 4.673897e+01 2.873396e+01 1.495767e+01 4.293919e+00 2.135521e+00 2.888375e+00 5.452754e+00 6.203042e+00 3.617728e+00 3.000045e+00 4.603070e+00 5.689338e+00 3.615181e+00 2.733223e+00 1.851442e+00 2.078074e+00
<GCONST> 1.069759e+02
<STATE> 4
<MEAN> 25
 8.664139e+00 -4.962736e+00 -1.354691e+00 -2.072228e+00 -1.008219e+00 -4.486957e+00 -6.179609e+00 -1.525704e+00 -7.651614e+00 3.777438e+00 -4.706458e+00 -1.835578e+00 -3.209633e-01 1.772820e-02 5.026529e-01 4.258757e-01 7.839866e-02 -6.263658e-03 -6.081234e-02 -1.040650e-01 -5.463476e-02 -1.228599e-01 -5.806230e-03 1.866396e-01 -2.254192e-01
<VARIANCE> 25
 1.464381e+01 2.928009e+01 4.039044e+01 7.226178e+01 8.996028e+01 4.981139e+01 5.013330e+01 1.293888e+02 3.638332e+01 4.538739e+01 4.067381e+01 1.912859e+01 5.698724e-01 1.670307e+00 1.523571e+00 1.428575e+00 3.157844e+00 2.138551e+00 3.153306e+00 2.921275e+00 1.974052e+00 1.695487e+00 2.272118e+00 1.204628e+00 9.371328e-01
<GCONST> 9.824687e+01
<TRANSP> 5
 0.000000e+00 1.000000e+00 0.000000e+00 0.000000e+00 0.000000e+00
 0.000000e+00 7.147247e-01 2.852754e-01 0.000000e+00 0.000000e+00
 0.000000e+00 0.000000e+00 6.206686e-01 3.793314e-01 0.000000e+00
 0.000000e+00 0.000000e+00 0.000000e+00 8.774899e-01 1.225101e-01
 0.000000e+00 0.000000e+00 0.000000e+00 0.000000e+00 0.000000e+00
<ENDHMM>
~h "w"
<BEGINHMM>
<NUMSTATES> 5
<STATE> 2
<MEAN> 25
 2.373539e+00 -1.322505e+00 7.919349e+00 1.591533e+00 -6.360622e+00 -6.849845e+00 -4.305871e+00 3.142838e+00 -6.024642e+00 3.863338e+00 7.097532e-01 -9.025040e-01 -1.071708e-01 2.579907e-01 1.042594e-01 1.203377e+00 1.049877e-01 -3.886645e-01 4.494880e-01 -9.574926e-01 8.494624e-01 -3.267998e-01 3.610848e-01 7.628821e-01 -9.945658e-01
<VARIANCE> 25
 3.803451e+01 2.475951e+01 3.874688e+01 2.018816e+01 8.131918e+01 9.479742e+01 3.859869e+01 1.582703e+01 8.383164e+01 4.603839e+01 1.871901e+01 3.247624e+01 5.805730e-01 1.024135e+00 2.776354e+00 2.044280e+00 2.595042e+00 3.445902e+00 3.846769e+00 3.885933e+00 3.001266e+00 2.483611e+00 2.541820e+00 1.499520e+00 1.698041e+00
<GCONST> 9.947810e+01
<STATE> 3
<MEAN> 25
 1.007505e+00 2.200141e+00 5.606517e+00 6.690378e+00 -2.165157e+00 -4.407285e+00 -3.424299e+00 -8.863030e-01 1.249601e+00 -1.406999e+00 -8.890835e-01 5.993506e-01 -6.716368e-01 6.142055e-01 -1.262940e+00 1.270813e+00 1.102117e+00 9.187027e-01 1.288442e+00 -1.130647e+00 1.909840e+00 -3.231815e-01 -6.192871e-01 4.758701e-01 -1.693817e+00
<VARIANCE> 25
 2.793569e+01 1.858227e+01 2.918207e+01 2.272250e+01 3.321661e+01 9.860994e+01 3.551358e+01 2.993401e+01 4.197491e+01 2.614920e+01 1.154819e+01 2.442788e+01 1.021595e+00 2.169499e+00 2.442208e+00 2.131021e+00 4.812122e+00 5.550102e+00 2.781451e+00 5.083097e+00 4.042714e+00 3.016131e+00 3.526865e+00 2.039023e+00 1.073962e+00
<GCONST> 9.932656e+01
<STATE> 4
<MEAN> 25
 2.995601e-01 1.621922e+00 1.776374e+00 8.673600e+00 9.513320e-01 -5.323034e-01 -2.623595e+00 -3.434988e+00 4.653513e+00 -1.656482e+00 -3.223355e+00 -2.307519e+00 -4.443908e-01 -6.624813e-02 -6.388137e-01 1.878555e-02 7.648548e-01 5.334117e-01 9.795322e-01 2.385397e-01 -1.259322e-01 5.996172e-02 4.282058e-01 1.777924e-01 -8.067302e-01
<VARIANCE> 25
 2.033196e+01 2.070001e+01 1.502430e+01 1.109481e+01 2.076639e+01 1.833241e+01 5.367879e+01 4.993542e+01 3.797199e+01 2.199925e+01 1.105660e+01 4.035476e+01 1.614351e+00 2.205943e+00 1.041693e+00 8.056732e-01 1.820062e+00 2.963684e+00 4.534154e+00 2.900266e+00 3.238955e+00 2.414450e+00 8.112324e-01 3.644079e+00 3.941427e-01
<GCONST> 9.133594e+01
<TRANSP> 5
 0.000000e+00 1.000000e+00 0.000000e+00 0.000000e+00 0.000000e+00
 0.000000e+00 4.356078e-01 5.643923e-01 0.000000e+00 0.000000e+00
 0.000000e+00 0.000000e+00 4.832323e-01 5.167677e-01 0.000000e+00
 0.000000e+00 0.000000e+00 0.000000e+00 7.686177e-01 2.313823e-01
 0.000000e+00 0.000000e+00 0.000000e+00 0.000000e+00 0.000000e+00
<ENDHMM>
~h "z"
<BEGINHMM>
<NUMSTATES> 5
<STATE> 2
<MEAN> 25
 1.339418e+00 3.937076e+00 5.991277e+00 5.914220e+00 2.299498e-02 -3.210047e+00 8.378594e-01 -6.671125e-01 -7.577918e-01 7.834998e-01 -2.799548e-02 -1.547871e+00 -1.132352e+00 3.612018e-01 -1.144033e-01 1.294425e-01 3.259113e-01 7.359323e-02 7.575238e-01 1.438711e-01 2.200139e-01 2.269799e-01 -1.329882e-02 2.453753e-01 -9.998269e-02
<VARIANCE> 25
 9.643715e+01 6.420271e+01 5.029403e+01 3.432824e+01 4.440047e+01 5.226157e+01 6.603809e+01 4.150817e+01 2.473482e+01 4.187170e+01 2.587329e+01 1.547901e+01 2.741312e+00 3.443094e+00 3.623754e+00 4.056940e+00 2.417268e+00 4.843592e+00 3.499969e+00 3.392933e+00 2.188184e+00 2.899822e+00 2.422172e+00 1.604154e+00 1.424258e+00
<GCONST> 1.041590e+02
<STATE> 3
<MEAN> 25
 -9.109632e+00 2.371340e+00 4.317162e+00 3.789294e+00 2.918087e+00 6.481733e-01 6.786831e+00 -1.068501e+00 1.376367e+00 2.203670e+00 -8.030614e-01 6.468545e-01 -5.397314e-01 -6.321951e-01 6.361997e-02 -5.667965e-01 -3.497838e-01 -8.686659e-02 1.309681e-01 -5.900667e-02 8.512110e-03 -4.895962e-01 5.092785e-01 3.250878e-01 1.666031e-01
<VARIANCE> 25
 5.879610e+01 9.092665e+01 5.482654e+01 2.577877e+01 2.438370e+01 2.820242e+01 3.420172e+01 3.240982e+01 1.549753e+01 2.854187e+01 1.685554e+01 1.220531e+01 1.985883e+00 1.952954e+00 3.800426e+00 1.143930e+00 1.569165e+00 2.625835e+00 2.349172e+00 1.710744e+00 1.836945e+00 1.710969e+00 1.202710e+00 1.211432e+00 1.261109e+00
<GCONST> 9.413290e+01
<STATE> 4
<MEAN> 25
 -1.030551e+01 2.540955e+00 -1.311274e+00 4.513824e-02 3.216570e+00 1.034831e+00 4.006335e+00 9.054548e-02 3.704552e+00 -1.450203e+00 2.582194e+00 2.160668e+00 3.178830e-01 -1.247755e-01 6.915171e-02 1.044114e-01 -1.501894e-01 9.750123e-02 -3.714841e-04 6.894692e-02 3.440473e-02 5.701101e-02 1.400869e-01 8.503731e-02 -3.570400e-01
<VARIANCE> 25
 4.540784e+01 6.053937e+01 5.457249e+01 1.607581e+01 2.696148e+01 2.021364e+01 1.315828e+01 2.780809e+01 1.401272e+01 1.664714e+01 1.283371e+01 1.026841e+01 5.315695e-01 7.486849e-01 1.018440e+00 7.884834e-01 1.056438e+00 1.195461e+00 1.235602e+00 1.097284e+00 1.442335e+00 1.160729e+00 1.276181e+00 1.041683e+00 1.967558e-01
<GCONST> 8.175059e+01
<TRANSP> 5
 0.000000e+00 1.000000e+00 0.000000e+00 0.000000e+00 0.000000e+00
 0.000000e+00 8.999408e-01 1.000591e-01 0.000000e+00 0.000000e+00
 0.000000e+00 0.000000e+00 8.288140e-01 1.711861e-01 0.000000e+00
 0.000000e+00 0.000000e+00 0.000000e+00 9.238626e-01 7.613742e-02
 0.000000e+00 0.000000e+00 0.000000e+00 0.000000e+00 0.000000e+00
<ENDHMM>
~h "ah"
<BEGINHMM>
<NUMSTATES> 5
<STATE> 2
<MEAN> 25
 5.424022e+00 5.777125e-01 2.405498e+00 -1.182589e+00 -2.284905e+00 -2.967352e+00 -7.235824e-01 -3.118701e-01 -3.666114e+00 -4.700258e-01 -2.841660e+00 2.675601e+00 -1.110155e+00 -2.273319e-01 6.730444e-01 -5.969521e-02 1.168561e-01 8.064648e-02 1.058007e+00 -3.142065e-01 3.163515e-01 -9.638827e-02 -1.991987e-04 2.286213e-01 3.048652e-01
<VARIANCE> 25
 5.087244e+01 3.261965e+01 5.225150e+01 6.399152e+01 5.711948e+01 6.080229e+01 4.734958e+01 5.216116e+01 3.563088e+01 6.426770e+01 4.154994e+01 2.457474e+01 5.601158e+00 3.490685e+00 5.726972e+00 3.587107e+00 4.213254e+00 3.661384e+00 4.706958e+00 3.226686e+00 3.547173e+00 3.650331e+00 2.866780e+00 1.985373e+00 2.066623e+00
<GCONST> 1.085836e+02
<STATE> 3
<MEAN> 25
 -7.496872e+00 2.733504e+00 3.702820e+00 2.235426e+00 5.052535e+00 -9.878336e-01 5.745915e+00 -1.291268e+00 2.435695e+00 -1.142077e+00 8.032774e-01 3.112143e+00 -3.400072e+00 -1.966884e-01 -1.324871e+00 -1.273882e+00 6.884385e-01 3.926165e-01 1.105366e+00 -2.809529e-01 9.029063e-01 1.937631e-01 8.853458e-01 -3.731834e-01 5.535144e-01
<VARIANCE> 25
 4.928385e+01 4.851437e+01 6.391180e+01 3.473950e+01 4.013780e+01 2.390493e+01 3.615548e+01 1.903630e+01 3.224112e+01 3.275805e+01 2.793294e+01 1.426051e+01 4.117230e+00 1.975999e+00 5.271910e+00 1.414155e+00 3.916980e+00 2.492887e+00 2.346072e+00 1.772971e+00 3.008045e+00 2.016402e+00 2.036900e+00 1.919931e+00 9.517160e-01
<GCONST> 9.870822e+01
<STATE> 4
<MEAN> 25
 -1.138475e+01 -4.097312e+00 9.371429e+00 -2.372263e+00 -1.699997e+00 2.285749e+00 9.088104e+00 -9.939224e-01 1.323959e+00 2.324546e+00 1.522220e+00 3.123883e+00 7.404405e-02 7.553594e-03 -2.022009e-01 9.085205e-02 -7.845221e-02 -9.586218e-03 1.771001e-02 1.760613e-01 3.005289e-02 4.038325e-02 1.022216e-01 -1.205292e-01 -1.421454e-01
<VARIANCE> 25
 4.581104e+01 2.979023e+01 1.421040e+02 2.706804e+01 4.691191e+01 1.586938e+01 5.533863e+01 2.771090e+01 2.093094e+01 4.863026e+01 2.452630e+01 1.325310e+01 7.729488e-01 3.737137e-01 1.014207e+00 7.273498e-01 7.037612e-01 9.500348e-01 9.747267e-01 1.376653e+00 1.196911e+00 1.261214e+00 1.076801e+00 9.970670e-01 2.299513e-01
<GCONST> 8.543638e+01
<TRANSP> 5
 0.000000e+00 1.000000e+00 0.000000e+00 0.000000e+00 0.000000e+00
 0.000000e+00 8.009236e-01 1.990763e-01 0.000000e+00 0.000000e+00
 0.000000e+00 0.000000e+00 6.063812e-01 3.936188e-01 0.000000e+00
 0.000000e+00 0.000000e+00 0.000000e+00 9.029406e-01 9.705935e-02
 0.000000e+00 0.000000e+00 0.000000e+00 0.000000e+00 0.000000e+00
<ENDHMM>
~h "ao"
<BEGINHMM>
<NUMSTATES> 5
<STATE> 2
<MEAN> 25
 -7.779006e+00 -5.710211e-01 -5.445891e+00 6.553701e+00 -2.248233e+00 2.060091e+00 -1.815629e+00 7.937130e-01 1.695781e+00 -8.108604e-02 7.447160e-01 -6.057868e-01 2.606563e-01 5.111457e-01 -5.265120e-01 1.813651e-01 -1.323579e+00 -3.118601e-02 -1.423865e+00 -2.571540e-01 -1.235527e-01 -4.616755e-02 -5.517364e-03 3.862109e-01 3.050127e-01
<VARIANCE> 25
 5.394237e+01 2.062667e+01 3.727077e+01 5.029343e+01 4.799792e+01 3.799857e+01 4.181133e+01 1.295662e+01 1.233603e+01 1.639046e+01 1.391895e+01 1.057888e+01 7.666802e-01 6.776129e-01 3.046467e-01 1.655955e+00 1.348793e+00 2.357572e+00 1.567729e+00 1.778565e+00 3.389104e-01 7.845426e-01 3.973519e-01 1.056922e+00 2.526981e-01
<GCONST> 8.187772e+01
<STATE> 3
<MEAN> 25
 -8.484410e+00 -3.770345e-01 -8.382706e+00 7.605332e+00 -5.925853e+00 4.661729e+00 -5.469387e+00 -7.844008e-01 1.283742e+00 -4.900744e-01 -2.741344e-01 -1.719381e+00 3.808738e-01 -1.866359e-01 -3.092062e-02 -6.157155e-01 -1.454483e-01 1.269553e-01 -1.418463e-01 -5.612568e-01 -1.513525e-01 3.335208e-03 2.231625e-01 7.009238e-03 9.811090e-01
<VARIANCE> 25
 3.542429e+01 1.202864e+01 4.002364e+01 3.610197e+01 3.782026e+01 3.595466e+01 2.655350e+01 1.794019e+01 8.175136e+00 2.258047e+01 1.085405e+01 1.677945e+01 7.157732e-01 5.434218e-01 7.829508e-01 7.011234e-01 1.193256e+00 1.366604e+00 1.270629e+00 2.174020e+00 6.475634e-01 1.392502e+00 5.854752e-01 1.182804e+00 9.947019e-01
<GCONST> 8.256652e+01
<STATE> 4
<MEAN> 25
 2.930709e+00 2.154957e+00 -1.258884e+00 -4.049553e+00 -4.282060e+00 -5.667583e+00 -5.260112e+00 -3.403926e-01 1.864073e-01 5.199190e-01 -9.113784e-02 3.153698e-01 2.295986e-01 -1.595154e-02 -8.027467e-02 -1.492486e-01 -1.249118e-01 -1.184512e-02 -2.758323e-02 -7.645082e-03 -3.926028e-04 -3.272934e-02 -1.251072e-01 -7.570270e-02 -5.173437e-03
<VARIANCE> 25
 7.344521e+01 2.048610e+01 1.762650e+01 1.986847e+01 4.123205e+01 1.140011e+02 6.295157e+01 5.338162e+01 1.498392e+01 2.071203e+01 1.211735e+01 1.530710e+01 1.802095e+00 1.194597e+00 7.005325e-01 6.733495e-01 1.590593e+00 2.312170e+00 1.935817e+00 1.382658e+00 1.284548e+00 1.167030e+00 1.044436e+00 1.034601e+00 3.742546e-01
<GCONST> 8.845938e+01
<TRANSP> 5
 0.000000e+00 1.000000e+00 0.000000e+00 0.000000e+00 0.000000e+00
 0.000000e+00 4.645398e-01 5.354603e-01 0.000000e+00 0.000000e+00
 0.000000e+00 0.000000e+00 6.781321e-01 3.218679e-01 0.000000e+00
 0.000000e+00 0.000000e+00 0.000000e+00 9.613273e-01 3.867269e-02
 0.000000e+00 0.000000e+00 0.000000e+00 0.000000e+00 0.000000e+00
<ENDHMM>
~h "aw"
<BEGINHMM>
<NUMSTATES> 5
<STATE> 2
<MEAN> 25
 -1.295985e+00 -9.444086e+00 -7.048743e+00 -2.371597e+00 2.148308e+00 -1.997275e+00 6.240733e+00 3.762511e+00 1.056374e+00 -3.045329e+00 -1.077461e+00 9.964940e-01 5.350466e-01 -1.271031e+00 -9.484522e-01 -3.968454e-01 3.267013e-01 -6.713438e-02 -2.823084e-01 -1.281794e-01 -3.105695e-01 1.302190e-01 -7.108580e-01 -1.139262e-01 1.061869e+00
<VARIANCE> 25
 5.715427e+01 3.550666e+01 9.995777e+00 2.602428e+01 3.491789e+01 2.737946e+01 2.451366e+01 3.602291e+01 1.731614e+01 3.509325e+01 2.346772e+01 1.884385e+01 8.477533e-01 2.122536e+00 1.383529e+00 1.268532e+00 1.989868e+00 1.978961e+00 1.360203e+00 2.344769e+00 1.792557e+00 2.062627e+00 1.674796e+00 1.111887e+00 6.115601e-01
<GCONST> 9.038925e+01
<STATE> 3
<MEAN> 25
 3.135477e+00 -1.004999e+01 -9.974479e+00 -1.662124e+00 5.744656e+00 -5.823972e-01 4.452855e+00 1.294125e+00 5.078733e-02 -2.552040e+00 -4.581356e+00 -4.269705e-01 1.053112e+00 4.311624e-01 -5.212530e-01 -7.410749e-01 1.028534e-01 7.366061e-01 -1.436895e-01 -8.466486e-01 -4.406580e-01 6.553357e-01 -4.623797e-01 -1.699751e-01 4.671552e-01
<VARIANCE> 25
 4.228244e+01 2.805950e+01 1.632970e+01 2.429080e+01 4.217559e+01 2.607527e+01 1.586539e+01 3.153171e+01 1.695408e+01 1.673711e+01 2.362895e+01 1.655582e+01 1.100871e+00 2.082623e+00 1.461788e+00 2.579334e+00 2.196199e+00 2.011956e+00 1.398309e+00 1.717676e+00 1.681170e+00 1.261254e+00 1.727536e+00 1.094391e+00 4.207408e-01
<GCONST> 8.888577e+01
<STATE> 4
<MEAN> 25
 1.056641e+01 -2.332387e+00 -7.572436e+00 -1.020209e+01 -2.139533e+00 -2.942123e+00 8.016233e-01 1.416962e-01 -2.846991e+00 1.814139e+00 -3.782835e+00 -3.277377e+00 7.601224e-02 4.269065e-01 2.045561e-01 -3.495226e-01 -7.531347e-02 -2.388407e-02 -3.499389e-01 1.001969e-02 -1.507138e-01 5.311848e-02 5.333952e-02 -4.277718e-02 -1.946262e-01
<VARIANCE> 25
 1.115759e+01 2.763141e+01 2.795405e+01 3.200708e+01 6.471654e+01 1.018911e+02 2.811207e+01 6.617446e+01 2.180596e+01 2.514216e+01 2.191953e+01 1.187956e+01 2.622825e-01 4.263691e-01 6.535159e-01 1.061213e+00 1.017273e+00 1.284883e+00 1.049962e+00 1.075111e+00 9.462330e-01 1.262308e+00 8.724804e-01 5.892538e-01 2.131646e-01
<GCONST> 8.246473e+01
<TRANSP> 5
 0.000000e+00 1.000000e+00 0.000000e+00 0.000000e+00 0.000000e+00
 0.000000e+00 5.386943e-01 4.613057e-01 0.000000e+00 0.000000e+00
 0.000000e+00 0.000000e+00 7.415739e-01 2.584261e-01 0.000000e+00
 0.000000e+00 0.000000e+00 0.000000e+00 8.870913e-01 1.129087e-01
 0.000000e+00 0.000000e+00 0.000000e+00 0.000000e+00 0.000000e+00
<ENDHMM>
~h "ay"
<BEGINHMM>
<NUMSTATES> 5
<STATE> 2
<MEAN> 25
 3.709194e+00 -2.217472e+00 3.065441e+00 3.017389e+00 1.978445e-01 -3.828848e+00 -6.328717e+00 -2.914341e+00 -3.350196e+00 1.024300e+00 -1.118820e+00 -9.530621e-01 -5.574457e-01 3.883506e-01 1.925213e-01 7.213443e-01 3.357229e-01 2.597496e-01 3.269467e-01 -2.215253e-01 5.186741e-01 -3.153264e-01 9.279470e-02 -1.027653e-01 -8.666238e-01
<VARIANCE> 25
 2.519679e+01 2.877825e+01 3.802434e+01 4.185324e+01 7.738023e+01 4.798727e+01 7.985194e+01 8.942223e+01 4.422515e+01 5.111165e+01 3.728615e+01 2.612616e+01 7.983538e-01 1.416578e+00 2.688943e+00 2.397165e+00 3.111681e+00 3.149273e+00 4.010203e+00 4.399500e+00 2.642762e+00 2.501687e+00 2.720224e+00 2.009792e+00 1.327670e+00
<GCONST> 1.026138e+02
<STATE> 3
<MEAN> 25
 -4.007595e-01 2.240372e+00 2.218757e+00 5.910986e+00 1.859594e+00 4.535950e-01 6.743643e-01 -3.015589e+00 2.206505e+00 -1.600800e+00 -1.191231e+00 3.370378e-01 -9.503692e-01 -6.689712e-03 -7.981110e-01 -6.467809e-02 5.153974e-01 6.067345e-01 9.993987e-01 5.857751e-01 7.642570e-01 -2.948806e-02 1.585126e-01 4.411816e-01 -8.157144e-01
<VARIANCE> 25
 2.496240e+01 2.041768e+01 2.158029e+01 2.349310e+01 3.042136e+01 2.153402e+01 4.443045e+01 3.600957e+01 2.745821e+01 2.324619e+01 2.245066e+01 1.643499e+01 1.223419e+00 1.600327e+00 2.054585e+00 1.711594e+00 2.617786e+00 2.376196e+00 2.687011e+00 2.868554e+00 2.568315e+00 1.849383e+00 2.056069e+00 1.530740e+00 7.415129e-01
<GCONST> 9.284623e+01
<STATE> 4
<MEAN> 25
 -4.220554e+00 7.491527e-01 -1.663314e+00 2.774435e+00 2.336680e+00 3.366419e+00 4.268428e+00 1.513313e+00 4.088435e+00 -2.458939e-01 1.312986e+00 2.414502e+00 7.145317e-02 2.235115e-02 -6.226807e-02 -3.602551e-02 2.146325e-02 3.271020e-02 -1.610030e-02 5.453712e-02 -5.712569e-03 -5.669128e-04 -2.352505e-02 -3.701426e-02 7.493631e-02
<VARIANCE> 25
 1.537749e+01 1.070927e+01 1.265934e+01 1.632465e+01 2.150794e+01 1.490614e+01 1.975686e+01 2.749936e+01 1.686031e+01 1.691994e+01 1.545052e+01 1.328454e+01 1.067695e+00 7.748013e-01 8.511314e-01 9.635691e-01 1.130276e+00 1.290982e+00 1.414499e+00 1.568007e+00 1.488726e+00 1.419325e+00 1.541216e+00 1.212482e+00 9.182241e-01
<GCONST> 8.150209e+01
<TRANSP> 5
 0.000000e+00 1.000000e+00 0.000000e+00 0.000000e+00 0.000000e+00
 0.000000e+00 6.509374e-01 3.490626e-01 0.000000e+00 0.000000e+00
 0.000000e+00 0.000000e+00 6.115568e-01 3.884433e-01 0.000000e+00
 0.000000e+00 0.000000e+00 0.000000e+00 9.459515e-01 5.404858e-02
 0.000000e+00 0.000000e+00 0.000000e+00 0.000000e+00 0.000000e+00
<ENDHMM>
~h "eh"
<BEGINHMM>
<NUMSTATES> 5
<STATE> 2
<MEAN> 25
 9.957716e+00 -3.130602e+00 -8.286633e+00 -1.118299e+01 -7.971929e+00 -2.118938e+00 1.955361e+00 1.167276e+00 -9.628391e+00 7.257798e+00 -9.170634e+00 -1.129736e+00 1.929200e-01 4.337799e-01 1.880392e-02 -2.699775e-01 -5.843419e-01 -3.491166e-01 -3.773453e-01 4.891109e-01 -4.911656e-01 -9.670421e-03 2.464241e-01 -2.426134e-01 -2.799507e-01
<VARIANCE> 25
 8.704662e+00 1.826103e+01 3.894515e+01 1.690819e+01 9.576244e+01 5.412103e+01 3.793826e+01 7.734397e+01 3.781064e+01 2.341066e+01 2.544010e+01 1.601741e+01 1.361825e-01 5.507169e-01 5.227081e-01 6.314992e-01 9.495187e-01 1.040084e+00 7.548167e-01 1.046949e+00 1.123104e+00 1.203201e+00 1.146817e+00 6.253831e-01 2.087990e-01
<GCONST> 8.129433e+01
<STATE> 3
<MEAN> 25
 1.122962e+01 4.744338e+00 -5.362507e+00 -9.714106e+00 -1.139587e+01 -8.049244e+00 -4.202256e+00 5.025496e+00 -9.255571e+00 -1.084905e-01 -2.711267e+00 -5.084704e+00 -4.097227e-02 6.008695e-01 3.905143e-01 4.676882e-01 3.685706e-01 5.986178e-02 -3.777293e-01 -5.810071e-01 5.373607e-01 -8.587309e-01 2.261939e-01 -2.791740e-02 -7.958196e-01
<VARIANCE> 25
 7.024196e+00 1.589280e+01 8.936331e+01 4.248667e+01 3.716180e+01 8.520247e+01 1.491854e+01 6.415737e+01 5.868208e+01 2.092235e+01 2.870110e+01 1.300705e+01 1.465272e-01 3.301910e-01 8.649343e-01 8.876734e-01 1.251188e+00 9.142343e-01 1.195364e+00 1.445066e+00 1.637842e+00 9.980068e-01 1.485191e+00 9.828460e-01 2.843264e-01
<GCONST> 8.386382e+01
<STATE> 4
<MEAN> 25
 9.035317e+00 6.104801e+00 8.215504e-01 -2.647669e+00 -4.531334e+00 -4.715507e+00 -7.462765e+00 -2.568411e-01 -1.201684e+00 -5.238848e-01 -6.477032e-01 -3.707195e+00 -5.158623e-01 3.835516e-01 1.694213e-01 7.096231e-01 1.004292e+00 7.535547e-01 4.768717e-01 -2.511485e-01 7.035747e-01 -1.327504e-01 4.996159e-02 1.492253e-01 -8.241360e-01
<VARIANCE> 25
 8.048013e+00 2.399932e+01 3.566738e+01 5.750377e+01 5.451408e+01 2.926769e+01 2.450269e+01 5.141870e+01 4.197315e+01 1.713564e+01 4.375184e+01 1.138941e+01 4.262441e-01 1.023698e+00 8.312279e-01 1.727266e+00 1.480564e+00 1.537601e+00 1.727071e+00 4.341812e+00 2.090592e+00 8.995563e-01 1.973186e+00 8.891681e-01 8.668591e-01
<GCONST> 8.956024e+01
<TRANSP> 5
 0.000000e+00 1.000000e+00 0.000000e+00 0.000000e+00 0.000000e+00
 0.000000e+00 9.144943e-01 8.550570e-02 0.000000e+00 0.000000e+00
 0.000000e+00 0.000000e+00 8.570554e-01 1.429447e-01 0.000000e+00
 0.000000e+00 0.000000e+00 0.000000e+00 8.201261e-01 1.798739e-01
 0.000000e+00 0.000000e+00 0.000000e+00 0.000000e+00 0.000000e+00
<ENDHMM>
~h "ey"
<BEGINHMM>
<NUMSTATES> 5
<STATE> 2
<MEAN> 25
 -3.849422e+00 2.248710e-01 -1.983886e+00 4.614336e+00 4.838740e+00 2.205979e+00 6.254854e+00 9.333875e-01 4.420214e+00 -2.505010e+00 -1.862228e-01 2.080620e+00 -1.776327e-01 -6.796246e-01 2.158617e-01 -4.772255e-01 -4.574900e-01 -2.446706e-01 4.785228e-02 2.950120e-01 -3.083234e-01 3.949906e-01 -1.288230e-01 2.944042e-02 5.835950e-01
<VARIANCE> 25
 1.593354e+01 1.374742e+01 1.155035e+01 1.727576e+01 2.536030e+01 2.586166e+01 4.421892e+01 2.808116e+01 2.316797e+01 1.667080e+01 1.673592e+01 2.529208e+01 2.136437e+00 3.169870e+00 2.198997e+00 3.645051e+00 4.636291e+00 4.035716e+00 5.316932e+00 3.552959e+00 4.094678e+00 2.269682e+00 2.203204e+00 2.392434e+00 4.185237e+00
<GCONST> 9.743201e+01
<STATE> 3
<MEAN> 25
 1.187512e+00 -9.235281e+00 6.832611e+00 -6.072020e+00 -1.059746e+01 -3.095854e+00 1.070158e+00 7.431142e+00 -4.744133e+00 6.197680e+00 -3.906931e+00 -6.229671e-01 2.049664e+00 -3.370302e-01 1.608622e+00 -1.337741e+00 -3.326415e+00 -4.079483e-01 -1.346010e+00 5.339797e-01 -1.308999e+00 1.156762e+00 -3.497833e-01 -2.956029e-01 3.844236e+00
<VARIANCE> 25
 3.492203e+01 4.376886e+01 2.046649e+01 5.005470e+01 7.050381e+01 1.520449e+01 3.214131e+01 3.127724e+01 2.328596e+01 2.003448e+01 1.790210e+01 1.318396e+01 2.943645e+00 7.333123e+00 2.144035e+00 5.288583e+00 5.757074e+00 3.169786e+00 3.230559e+00 3.007942e+00 3.753252e+00 1.715577e+00 2.272033e+00 1.512617e+00 9.823926e+00
<GCONST> 1.017704e+02
<STATE> 4
<MEAN> 25
 4.166604e+00 2.390625e+00 1.726215e+01 -4.856348e+00 -1.660857e+01 -3.217251e+00 -1.173062e+01 -4.918014e-01 -9.051100e+00 6.343843e+00 1.530802e+00 -3.708701e+00 -1.550641e-01 4.943150e-01 -3.653523e-02 3.912135e-01 3.954387e-01 -6.435348e-02 -8.794457e-03 -5.334036e-01 1.575276e-01 -3.536622e-01 1.723968e-01 -3.471417e-02 -7.312468e-01
<VARIANCE> 25
 5.410286e+00 2.345203e+01 2.386251e+01 1.935534e+01 2.574835e+01 1.200857e+01 4.422419e+01 2.202535e+01 1.405555e+01 1.810680e+01 1.151446e+01 1.289651e+01 2.661270e-01 1.129215e+00 1.851354e+00 1.081527e+00 2.465979e+00 1.111215e+00 3.596237e+00 1.034261e+00 1.434616e+00 1.047493e+00 8.213215e-01 8.900926e-01 1.715028e+00
<GCONST> 8.252789e+01
<TRANSP> 5
 0.000000e+00 1.000000e+00 0.000000e+00 0.000000e+00 0.000000e+00
 0.000000e+00 8.761278e-01 1.238722e-01 0.000000e+00 0.000000e+00
 0.000000e+00 0.000000e+00 7.391030e-01 2.608970e-01 0.000000e+00
 0.000000e+00 0.000000e+00 0.000000e+00 9.475161e-01 5.248389e-02
 0.000000e+00 0.000000e+00 0.000000e+00 0.000000e+00 0.000000e+00
<ENDHMM>
~h "hh"
<BEGINHMM>
<NUMSTATES> 5
<STATE> 2
<MEAN> 25
 -1.570334e+00 4.698842e+00 -2.272594e+00 2.323142e+00 2.819643e+00 1.740745e+00 2.756383e+00 8.541459e+00 3.975912e+00 -2.038785e+00 4.318572e+00 2.631659e+00 8.410583e-04 -2.515988e-03 -5.296613e-03 -7.385952e-03 6.588152e-03 1.643554e-02 1.285493e-02 -1.189032e-03 -2.073241e-02 -3.136308e-02 -4.646947e-04 1.622134e-02 -3.718944e-04
<VARIANCE> 25
 2.901094e+00 3.716170e+00 2.996722e+00 4.347844e+00 6.067378e+00 4.855366e+00 9.624605e+00 1.063989e+01 7.561224e+00 1.042428e+01 7.607586e+00 7.511849e+00 5.894987e-02 1.342358e-01 2.086137e-01 3.121265e-01 4.313724e-01 4.523404e-01 6.193798e-01 7.599384e-01 8.162341e-01 8.055618e-01 7.012342e-01 6.121479e-01 2.054388e-02
<GCONST> 5.220800e+01
<STATE> 3
<MEAN> 25
 -7.353283e+00 -3.193807e+00 -4.910323e+00 2.158446e-01 4.291229e+00 1.055263e+00 7.136652e+00 3.729928e-01 5.513938e+00 -2.477368e+00 1.072511e+00 4.032349e+00 2.239005e-01 -3.858314e-01 -3.899391e-01 -2.110943e-01 -8.471744e-02 1.427579e-01 4.082654e-01 2.102506e-01 -1.852058e-01 -5.918305e-03 7.029995e-04 3.049751e-01 2.296874e-01
<VARIANCE> 25
 1.431195e+01 1.767226e+01 6.969725e+00 6.704465e+00 1.469843e+01 1.145580e+01 1.745828e+01 2.134470e+01 1.288918e+01 1.810303e+01 9.169293e+00 1.350719e+01 1.628682e-01 2.481743e-01 4.998285e-01 4.930601e-01 5.462348e-01 6.706136e-01 1.551551e+00 6.767105e-01 1.107874e+00 1.814603e+00 6.468447e-01 1.128733e+00 6.492054e-02
<GCONST> 6.872737e+01
<STATE> 4
<MEAN> 25
 -3.421535e+00 -6.375532e+00 -5.416115e+00 -4.024602e-02 1.537511e+00 1.715681e+00 7.847983e+00 4.005201e+00 2.082552e+00 -3.509742e+00 2.393328e+00 3.450269e+00 1.266849e-01 -1.198357e+00 -4.861471e-01 -3.881184e-01 -2.162056e-01 -7.959335e-02 2.599718e-01 3.538527e-01 -2.468318e-01 -1.206425e-01 1.201817e-01 -9.044354e-02 7.189851e-01
<VARIANCE> 25
 1.844870e+01 4.084843e+01 6.056801e+00 1.082371e+01 2.350468e+01 1.321158e+01 1.224655e+01 3.152116e+01 2.791816e+01 1.421684e+01 2.135091e+01 6.152345e+00 4.250522e-01 1.257885e+00 6.913323e-01 6.875295e-01 1.206228e+00 1.478823e+00 1.186067e+00 1.029306e+00 1.717087e+00 1.097960e+00 1.123866e+00 9.409586e-01 3.026170e-01
<GCONST> 7.821362e+01
<TRANSP> 5
 0.000000e+00 1.000000e+00 0.000000e+00 0.000000e+00 0.000000e+00
 0.000000e+00 9.617023e-01 3.829771e-02 0.000000e+00 0.000000e+00
 0.000000e+00 0.000000e+00 5.167788e-01 4.832212e-01 0.000000e+00
 0.000000e+00 0.000000e+00 0.000000e+00 7.715202e-01 2.284798e-01
 0.000000e+00 0.000000e+00 0.000000e+00 0.000000e+00 0.000000e+00
<ENDHMM>
~h "ih"
<BEGINHMM>
<NUMSTATES> 5
<STATE> 2
<MEAN> 25
 3.594943e+00 1.458019e+00 9.904484e+00 3.230585e+00 -6.873847e+00 -5.666738e+00 -8.118431e+00 -3.880824e+00 -4.550829e+00 8.928910e-01 9.771881e-01 -1.267836e+00 4.032000e-01 1.763349e-01 -1.553233e-01 4.080077e-01 5.471649e-01 3.927290e-02 1.642650e-01 -5.542251e-01 8.009784e-02 -2.478729e-01 -2.186362e-01 -1.754612e-01 -8.158948e-01
<VARIANCE> 25
 2.490214e+01 3.844355e+01 5.148541e+01 3.395682e+01 1.306339e+02 2.418458e+01 8.653281e+01 3.999342e+01 3.249998e+01 3.145023e+01 1.311011e+01 2.072058e+01 4.511088e+00 1.686025e+00 5.079671e+00 2.347151e+00 7.603464e+00 2.267832e+00 8.745995e+00 2.716748e+00 3.642174e+00 2.313864e+00 1.416090e+00 1.891183e+00 3.649971e+00
<GCONST> 1.039531e+02
<STATE> 3
<MEAN> 25
 -7.835717e-01 1.263538e+00 1.157645e+00 5.876063e+00 1.697821e+00 -1.782947e+00 6.244063e-01 -3.996052e+00 3.504405e-01 -8.613484e-01 1.652488e-01 1.422518e+00 -8.191383e-01 -3.789561e-01 -1.011716e+00 -5.044119e-02 6.326679e-01 5.162724e-01 8.482473e-01 3.090993e-01 4.592585e-01 -2.595156e-01 -1.197747e-01 4.473656e-01 -3.907893e-01
<VARIANCE> 25
 1.701660e+01 2.946922e+01 2.165895e+01 1.555051e+01 4.702636e+01 2.409605e+01 5.861011e+01 4.332752e+01 3.101216e+01 1.885840e+01 1.603239e+01 2.302390e+01 1.174919e+00 2.199217e+00 2.241241e+00 2.005016e+00 3.610858e+00 3.034338e+00 4.823668e+00 4.286535e+00 3.083592e+00 1.845125e+00 1.611908e+00 1.843340e+00 3.592626e+00
<GCONST> 9.712038e+01
<STATE> 4
<MEAN> 25
 -7.538230e+00 -4.493897e-01 7.658607e-01 2.406878e+00 3.368956e+00 1.510157e+00 5.739157e+00 -1.541865e+00 2.865247e+00 3.468608e-01 5.620520e-01 3.639254e+00 1.519033e-01 2.770726e-01 6.765421e-02 -1.424295e-01 -8.078022e-02 1.878398e-02 -1.908262e-02 -1.684012e-03 1.518953e-02 1.552835e-02 -3.487177e-02 -1.973274e-01 1.834297e-01
<VARIANCE> 25
 5.032425e+01 2.341278e+01 7.416913e+01 3.564939e+01 4.403304e+01 1.764771e+01 6.089674e+01 3.737011e+01 4.231488e+01 3.151823e+01 1.853056e+01 2.008437e+01 3.820683e+00 1.966577e+00 2.403332e+00 1.708466e+00 2.348477e+00 2.064740e+00 3.589889e+00 3.561268e+00 3.003562e+00 2.203760e+00 1.902632e+00 1.945548e+00 2.068562e+00
<GCONST> 9.988123e+01
<TRANSP> 5
 0.000000e+00 1.000000e+00 0.000000e+00 0.000000e+00 0.000000e+00
 0.000000e+00 8.012251e-01 1.987749e-01 0.000000e+00 0.000000e+00
 0.000000e+00 0.000000e+00 7.519901e-01 2.480098e-01 0.000000e+00
 0.000000e+00 0.000000e+00 0.000000e+00 9.126272e-01 8.737286e-02
 0.000000e+00 0.000000e+00 0.000000e+00 0.000000e+00 0.000000e+00
<ENDHMM>
~h "iy"
<BEGINHMM>
<NUMSTATES> 5
<STATE> 2
<MEAN> 25
 7.023147e+00 2.081908e+00 8.236641e+00 3.545557e+00 -4.488532e+00 -2.712529e+00 -6.017169e+00 -5.340604e+00 -6.266339e+00 3.177228e-01 3.871189e+00 -4.882532e+00 1.416501e-01 -1.859047e-01 1.068998e+00 -8.064370e-01 -6.548084e-01 1.540128e-01 -1.072973e+00 -3.276887e-01 -5.938173e-01 6.982694e-01 4.444233e-01 -5.095148e-01 9.677483e-01
<VARIANCE> 25
 1.818327e+01 3.044719e+01 9.376341e+01 4.983501e+01 1.231744e+02 5.520236e+01 4.414660e+01 4.746337e+01 3.581234e+01 2.813436e+01 2.634151e+01 1.580255e+01 2.706416e+00 3.318625e+00 4.089453e+00 4.745197e+00 4.982631e+00 6.944740e+00 3.357733e+00 4.544420e+00 3.390167e+00 3.335182e+00 3.253133e+00 2.592328e+00 2.456821e+00
<GCONST> 1.070179e+02
<STATE> 3
<MEAN> 25
 3.433189e+00 8.349470e+00 1.603957e+01 -5.408130e+00 -9.362787e+00 -2.693080e-01 -1.192801e+01 -3.021165e+00 -7.777668e+00 2.678188e+00 6.286777e+00 -1.004464e+01 -1.044445e-01 2.353502e-01 -2.712340e-01 1.474205e-01 3.551106e-01 -1.028711e-01 9.353447e-02 -8.704966e-02 1.983193e-01 -9.245707e-02 -3.401288e-01 -1.777598e-02 -3.551627e-01
<VARIANCE> 25
 1.108440e+01 2.060464e+01 3.464946e+01 3.339919e+01 4.402760e+01 2.807015e+01 2.978382e+01 3.395831e+01 1.716509e+01 1.466321e+01 3.467200e+01 2.185773e+01 5.894525e-01 7.262629e-01 1.595503e+00 2.299631e+00 1.410453e+00 1.949016e+00 2.083156e+00 1.540255e+00 1.588725e+00 1.119016e+00 2.339267e+00 1.172274e+00 8.677032e-01
<GCONST> 8.869997e+01
<STATE> 4
<MEAN> 25
 3.797087e+00 -4.004411e+00 7.592557e+00 9.387239e+00 6.493169e+00 -7.699770e+00 -1.595303e+01 -6.172386e+00 -4.103616e-01 8.760685e-01 -3.571086e+00 -8.777231e+00 -2.428610e-01 1.065003e-01 4.141405e-03 1.415816e-01 -9.479702e-02 2.708828e-01 6.210220e-01 3.371419e-01 3.842913e-01 -1.005552e-01 -1.721034e-01 1.287905e-01 -4.065607e-01
<VARIANCE> 25
 7.857266e+00 3.822837e+01 2.741718e+01 5.105190e+01 3.671162e+01 4.369353e+01 4.941228e+01 4.420521e+01 3.288821e+01 4.527568e+01 4.706665e+01 2.083723e+01 2.176426e-01 1.820942e+00 1.348157e+00 1.323680e+00 9.757251e-01 2.660073e+00 2.142887e+00 1.567699e+00 1.452241e+00 1.709117e+00 1.756809e+00 1.066408e+00 9.281635e-01
<GCONST> 9.144096e+01
<TRANSP> 5
 0.000000e+00 1.000000e+00 0.000000e+00 0.000000e+00 0.000000e+00
 0.000000e+00 8.537540e-01 1.462460e-01 0.000000e+00 0.000000e+00
 0.000000e+00 0.000000e+00 9.228408e-01 7.715917e-02 0.000000e+00
 0.000000e+00 0.000000e+00 0.000000e+00 9.169742e-01 8.302572e-02
 0.000000e+00 0.000000e+00 0.000000e+00 0.000000e+00 0.000000e+00
<ENDHMM>
~h "ow"
<BEGINHMM>
<NUMSTATES> 5
<STATE> 2
<MEAN> 25
 -1.312700e+00 -6.994376e+00 1.112924e+01 5.441310e+00 2.371776e+00 -3.986976e+00 -4.777160e+00 -1.508643e+01 -1.139866e+01 1.806514e+00 8.067477e-01 -2.201683e+00 8.622456e-01 7.351401e-02 -1.336039e+00 -2.616062e-01 3.342926e-01 8.680961e-01 -1.175904e+00 -3.676422e-01 1.210648e-01 1.190390e-01 -1.307443e-03 -2.217458e-01 5.715050e-03
<VARIANCE> 25
 1.630809e+02 1.365384e+01 1.234838e+02 2.726750e+01 4.215632e+01 2.872448e+01 2.397952e+02 9.449150e+01 7.787703e+01 9.014541e+00 2.133278e+01 2.649603e+01 2.382381e+00 4.611434e-01 2.020761e+00 2.190607e+00 1.573273e+00 1.003241e+00 4.640275e+00 3.737045e+00 2.959247e+00 1.174657e+00 1.096800e+00 9.820731e-01 2.633881e-01
<GCONST> 9.667289e+01
<STATE> 3
<MEAN> 25
 1.485333e+01 -1.930393e+00 -8.939301e+00 -2.063776e+00 -1.441566e+00 -1.159755e+00 -1.581140e+01 4.457090e+00 -8.819074e+00 5.942655e-01 1.033492e+01 -7.510220e-01 5.511582e-03 2.129837e-01 -2.895778e-01 -5.397218e-01 -4.725086e-02 2.465722e-01 6.858358e-01 3.316612e-01 -4.288900e-01 -2.806405e-01 3.650848e-02 -1.025695e-01 -1.401646e-01
<VARIANCE> 25
 7.591206e+00 4.401275e+00 1.464024e+01 4.413174e+01 2.298503e+01 2.842314e+01 3.486222e+01 5.022312e+01 2.680910e+01 8.896838e+00 1.316649e+01 7.259630e+00 6.920050e-02 3.265263e-01 6.185260e-01 7.061276e-01 5.288926e-01 6.509969e-01 8.283243e-01 1.310937e+00 8.358535e-01 4.819327e-01 6.551852e-01 5.401356e-01 2.299779e-01
<GCONST> 7.089114e+01
<STATE> 4
<MEAN> 25
 9.129241e+00 6.008149e-01 -6.656411e+00 -6.980477e+00 -1.389580e+00 -1.727473e+00 -6.261576e+00 -8.174877e+00 -7.440720e+00 -3.419305e+00 -5.846212e+00 -3.028996e+00 -4.371969e-01 4.924515e-01 1.957020e-01 7.767013e-02 -1.961014e-01 6.994097e-02 9.581264e-01 3.216323e-01 8.454084e-01 -2.012373e-01 -4.663653e-01 1.751113e-02 -7.613143e-01
<VARIANCE> 25
 9.355666e+00 1.489778e+01 1.790729e+01 4.064547e+01 7.271503e+01 3.790450e+01 3.513747e+01 5.766697e+01 2.860970e+01 2.198835e+01 7.568488e+01 2.417470e+01 1.006014e+00 3.949600e-01 1.493941e+00 2.123939e+00 2.492664e+00 2.030537e+00 2.471876e+00 3.835357e+00 2.087310e+00 2.056413e+00 2.015502e+00 2.381604e+00 7.121222e-01
<GCONST> 9.375451e+01
<TRANSP> 5
 0.000000e+00 1.000000e+00 0.000000e+00 0.000000e+00 0.000000e+00
 0.000000e+00 8.747801e-01 1.252200e-01 0.000000e+00 0.000000e+00
 0.000000e+00 0.000000e+00 9.264134e-01 7.358667e-02 0.000000e+00
 0.000000e+00 0.000000e+00 0.000000e+00 9.038995e-01 9.610051e-02
 0.000000e+00 0.000000e+00 0.000000e+00 0.000000e+00 0.000000e+00
<ENDHMM>
~h "th"
<BEGINHMM>
<NUMSTATES> 5
<STATE> 2
<MEAN> 25
 6.911537e-02 -8.722902e-01 -1.287088e+00 2.503739e+00 8.090469e-01 8.706475e-01 1.586519e-01 -1.531302e+00 -1.740280e+00 -5.243626e+00 -2.099347e+00 -3.924305e-01 3.300906e-01 9.158079e-02 -1.165866e+00 3.112024e-02 2.228412e-01 3.874738e-01 6.355026e-02 -7.833537e-02 1.035544e-01 -2.303862e-01 -4.755759e-01 7.663640e-02 8.637205e-02
<VARIANCE> 25
 3.484975e+01 2.230829e+01 3.212642e+01 1.878858e+01 3.739312e+01 1.474804e+01 6.197301e+01 2.763701e+01 3.103949e+01 2.740453e+01 3.273773e+01 3.776708e+01 2.975142e+00 4.127219e+00 2.317708e+00 1.519937e+00 3.882644e+00 2.679103e+00 4.693491e+00 3.557268e+00 3.798238e+00 2.713663e+00 3.905037e+00 5.059625e+00 3.435470e+00
<GCONST> 1.021051e+02
<STATE> 3
<MEAN> 25
 -4.675457e+00 -2.555972e+00 -7.240771e+00 4.395030e+00 -3.285775e-01 1.593358e+00 3.120724e+00 -1.081230e+00 4.923088e+00 -2.671859e+00 -1.064246e+00 2.756667e+00 6.455290e-02 -3.173532e-01 -8.268590e-02 -2.153877e-01 -1.703920e-01 -2.856858e-01 -8.314964e-02 1.173172e-02 1.588921e-01 1.043601e-01 -2.021393e-01 1.649863e-01 1.275946e+00
<VARIANCE> 25
 3.257169e+01 1.425764e+01 2.611967e+01 1.897532e+01 2.488258e+01 1.296326e+01 3.333102e+01 1.382261e+01 4.074215e+01 2.521046e+01 2.090013e+01 1.908233e+01 1.915275e+00 1.123705e+00 2.493636e+00 1.387379e+00 2.331983e+00 1.763076e+00 2.230515e+00 1.245290e+00 2.665447e+00 2.425486e+00 1.249593e+00 1.503490e+00 2.492427e+00
<GCONST> 9.097890e+01
<STATE> 4
<MEAN> 25
 -1.884300e+00 -3.931300e+00 -4.832000e+00 3.123452e+00 2.363210e-01 -2.177285e-01 -3.364935e-01 -1.025425e+00 1.204549e+00 -5.399217e+00 -1.457768e+00 1.967642e+00 1.059600e+00 -3.685538e-01 9.931532e-01 -1.154657e-02 3.225832e-01 -1.101642e+00 -9.742726e-01 7.050503e-02 -5.267099e-01 -1.269586e-01 -1.103683e-01 -2.978820e-01 9.011315e-01
<VARIANCE> 25
 7.333234e+01 1.704601e+01 5.170427e+01 4.288447e+01 5.377594e+01 2.471230e+01 6.080881e+01 1.773978e+01 7.826366e+01 4.241604e+01 3.558241e+01 3.688412e+01 2.655908e+00 1.904799e+00 2.621814e+00 2.747472e+00 2.095751e+00 2.660776e+00 2.930618e+00 2.653205e+00 2.398272e+00 2.422765e+00 3.067146e+00 1.801114e+00 2.115778e+00
<GCONST> 1.018283e+02
<TRANSP> 5
 0.000000e+00 1.000000e+00 0.000000e+00 0.000000e+00 0.000000e+00
 0.000000e+00 6.943482e-01 3.056518e-01 0.000000e+00 0.000000e+00
 0.000000e+00 0.000000e+00 8.011419e-01 1.988580e-01 0.000000e+00
 0.000000e+00 0.000000e+00 0.000000e+00 2.781260e-01 7.218740e-01
 0.000000e+00 0.000000e+00 0.000000e+00 0.000000e+00 0.000000e+00
<ENDHMM>
~h "uw"
<BEGINHMM>
<NUMSTATES> 5
<STATE> 2
<MEAN> 25
 7.003405e+00 3.161148e+00 7.405664e+00 6.863970e+00 -5.348206e-01 -6.296917e+00 -1.492266e+01 1.807749e-01 -6.402005e+00 -3.546027e+00 3.312881e+00 -7.183777e+00 8.496712e-01 4.839111e-01 -5.577785e-01 3.473881e-01 5.815709e-01 6.722063e-01 -2.303463e+00 -1.402320e+00 -3.271307e-01 6.389282e-01 8.325964e-03 -8.933026e-01 1.232966e-01
<VARIANCE> 25
 1.132044e+01 3.482641e+01 3.425121e+01 2.133763e+01 2.442392e+01 1.761759e+01 4.797093e+01 1.221831e+02 1.580891e+01 3.192174e+01 1.539285e+01 1.892390e+01 1.517880e+00 8.148495e-01 7.783682e-01 9.036601e-01 1.677277e+00 1.364049e+00 5.154302e+00 2.638757e+00 1.985139e+00 4.211060e+00 3.923553e+00 2.031512e+00 4.962528e-01
<GCONST> 9.195386e+01
<STATE> 3
<MEAN> 25
 9.877699e+00 6.010253e+00 -3.091572e+00 4.228134e+00 5.098630e-01 -1.347532e+00 -1.967776e+01 -4.397556e+00 -8.835783e+00 1.875119e+00 1.139118e+01 -9.464837e+00 1.023339e-01 2.373610e-01 -3.634364e-01 -3.824199e-01 2.778053e-02 3.019188e-01 4.520108e-01 -4.107820e-01 8.835291e-02 -3.924990e-02 1.135538e-02 5.584361e-01 -3.150361e-01
<VARIANCE> 25
 5.939639e+00 1.345353e+01 1.472749e+01 1.531751e+01 1.209767e+01 1.096500e+01 3.128537e+01 2.641834e+01 1.491999e+01 2.306311e+01 2.248887e+01 2.488289e+01 1.222681e-01 3.937188e-01 5.568461e-01 7.308667e-01 7.977394e-01 7.306994e-01 1.370885e+00 9.111570e-01 7.767358e-01 9.485244e-01 1.184919e+00 9.597028e-01 2.062824e-01
<GCONST> 7.351418e+01
<STATE> 4
<MEAN> 25
 2.719457e+00 4.850852e-01 -2.051579e+00 1.038232e+00 6.972848e+00 1.159433e+00 -7.317688e+00 -8.022864e+00 -5.706571e+00 -5.249826e+00 -1.435404e+00 1.254167e+00 -1.955037e-01 5.024060e-02 2.213450e-02 -1.775401e-02 -3.427349e-03 7.585300e-02 4.393853e-01 4.994547e-01 2.004162e-01 6.211860e-02 -6.498994e-02 7.041319e-02 -2.953573e-01
<VARIANCE> 25
 1.786495e+01 3.589820e+01 1.127635e+01 1.934986e+01 2.857161e+01 1.214481e+01 1.203288e+02 1.805187e+02 8.340924e+01 1.671551e+01 2.180568e+01 1.295298e+01 3.090872e-01 5.679601e-01 3.965942e-01 7.010525e-01 7.779437e-01 6.349119e-01 1.905211e+00 1.618497e+00 1.471375e+00 8.784254e-01 8.694353e-01 6.829907e-01 4.469339e-01
<GCONST> 8.284573e+01
<TRANSP> 5
 0.000000e+00 1.000000e+00 0.000000e+00 0.000000e+00 0.000000e+00
 0.000000e+00 7.709505e-01 2.290495e-01 0.000000e+00 0.000000e+00
 0.000000e+00 0.000000e+00 8.963603e-01 1.036398e-01 0.000000e+00
 0.000000e+00 0.000000e+00 0.000000e+00 9.524804e-01 4.751960e-02
 0.000000e+00 0.000000e+00 0.000000e+00 0.000000e+00 0.000000e+00
<ENDHMM>
~h "sil"
<BEGINHMM>
<NUMSTATES> 5
<STATE> 2
<MEAN> 25
 -1.894736e+00 7.640135e-02 -6.034544e-01 1.193505e+00 1.309298e+00 -6.242775e-01 2.252520e+00 7.304506e-01 1.791430e+00 -1.994488e-01 1.041533e+00 1.547049e+00 1.916545e-02 1.239568e-02 -9.603932e-02 -1.403140e-02 3.075360e-02 1.330548e-02 -6.941747e-02 3.938648e-02 7.592347e-03 -5.145996e-02 -3.415316e-02 8.427091e-03 -9.438404e-02
<VARIANCE> 25
 3.636192e+01 1.407574e+01 2.996633e+01 3.851859e+01 4.254660e+01 7.883038e+01 6.160796e+01 3.273441e+01 3.828296e+01 1.798248e+01 1.712739e+01 2.499304e+01 5.521518e-01 8.470817e-01 8.407514e-01 8.867710e-01 1.207022e+00 1.834298e+00 1.787938e+00 1.812464e+00 1.556812e+00 1.210989e+00 1.437262e+00 1.092987e+00 3.701810e-01
<GCONST> 8.856591e+01
<STATE> 3
<MEAN> 25
 -7.674397e+00 -3.290665e+00 -3.975442e+00 6.767775e-01 4.246202e+00 5.562050e-01 6.028548e+00 -1.213297e+00 5.021360e+00 -3.320273e+00 1.383896e+00 2.034140e+00 -1.896036e-02 -5.044265e-03 -3.125654e-02 -3.358827e-02 -4.715728e-02 -1.726251e-02 -3.715131e-02 -2.889577e-02 -5.590282e-02 -7.654648e-02 -5.042180e-02 -5.187828e-02 -1.878889e-02
<VARIANCE> 25
 4.880056e+00 6.895709e+00 6.255592e+00 8.613849e+00 1.043961e+01 1.136906e+01 1.273177e+01 1.539454e+01 1.345589e+01 1.439509e+01 1.268439e+01 1.349839e+01 1.217594e-01 2.731402e-01 4.511817e-01 5.763561e-01 9.317528e-01 1.084449e+00 1.202544e+00 1.475404e+00 1.421103e+00 1.458235e+00 1.374429e+00 1.267290e+00 3.967379e-02
<GCONST> 6.780357e+01
<STATE> 4
<MEAN> 25
 -2.778468e+00 1.095017e+00 -2.016511e+00 1.205738e-01 -2.217820e-01 4.477208e+00 3.665585e+00 1.562484e+00 2.568222e+00 6.735158e-01 7.088556e-01 1.811661e+00 8.946938e-03 -2.250416e-03 -1.828092e-02 -1.379415e-02 6.526487e-03 8.674692e-03 -1.058256e-02 -9.201664e-03 3.109401e-03 -1.114898e-02 -1.701581e-02 6.409276e-04 7.568335e-03
<VARIANCE> 25
 2.900784e+00 7.081460e+00 5.182048e+00 1.100993e+01 1.248240e+01 8.986772e+00 9.438174e+00 3.018453e+01 1.135244e+01 1.537885e+01 1.363400e+01 9.438469e+00 8.739965e-02 2.873538e-01 2.777542e-01 4.629184e-01 5.804789e-01 6.318008e-01 7.458577e-01 8.253744e-01 8.385130e-01 1.002466e+00 8.483331e-01 7.791650e-01 9.843171e-02
<GCONST> 6.327552e+01
<TRANSP> 5
 0.000000e+00 1.000000e+00 0.000000e+00 0.000000e+00 0.000000e+00
 0.000000e+00 8.813278e-01 1.186722e-01 0.000000e+00 0.000000e+00
 0.000000e+00 0.000000e+00 9.395475e-01 6.045255e-02 0.000000e+00
 0.000000e+00 0.000000e+00 0.000000e+00 9.613389e-01 3.866106e-02
 0.000000e+00 0.000000e+00 0.000000e+00 0.000000e+00 0.000000e+00
<ENDHMM>