~o
<STREAMINFO> 1 25
<VECSIZE> 25<NULLD><MFCC_D_N_Z_0><DIAGC>
~h "b"
<BEGINHMM>
<NUMSTATES> 5
<STATE> 2
<MEAN> 25
 3.068766e+00 4.724679e+00 2.072095e+00 3.892710e+00 3.131945e+00 2.114628e+00 -1.276882e+00 -1.199785e+00 6.654838e-01 7.095419e-01 -1.494014e+00 -4.846063e-02 4.722804e-01 6.619800e-01 2.105883e-01 2.709558e-01 -2.756300e-02 -3.512007e-01 -1.592284e-01 -2.869910e-01 -3.008829e-01 -3.652233e-01 -3.064500e-01 -1.799303e-01 3.374584e-02
<VARIANCE> 25
 2.916345e+01 2.747520e+01 2.670687e+01 2.908577e+01 3.431081e+01 5.654321e+01 4.695832e+01 5.034299e+01 4.464828e+01 4.205178e+01 3.089232e+01 1.826094e+01 2.466422e+00 2.040299e+00 1.914096e+00 3.743132e+00 4.620880e+00 4.889860e+00 4.562390e+00 4.449299e+00 3.678120e+00 2.826185e+00 2.883082e+00 2.176312e+00 2.477113e+00
<GCONST> 1.032982e+02
<STATE> 3
<MEAN> 25
 4.732885e+00 4.612020e+00 1.677599e+00 2.916181e+00 1.033720e+00 -3.867159e-01 -2.685799e+00 -1.696430e+00 6.312011e-01 9.328966e-02 -1.163580e+00 -6.360326e-01 -1.451921e-01 -3.277730e-01 -1.347267e-01 -8.372650e-02 -1.999226e-01 -2.125109e-01 3.369581e-01 3.040678e-01 3.824316e-02 -1.069459e-01 3.432209e-01 -9.857033e-02 3.215788e-01
<VARIANCE> 25
 2.701586e+01 3.389790e+01 2.541196e+01 3.475467e+01 5.660087e+01 5.178926e+01 5.180725e+01 5.858294e+01 4.618686e+01 4.143754e+01 3.301290e+01 2.516130e+01 1.440417e+00 2.855657e+00 2.071707e+00 3.120841e+00 3.814545e+00 3.663760e+00 3.817171e+00 5.935990e+00 4.489736e+00 3.425045e+00 2.632864e+00 2.471795e+00 3.407264e+00
<GCONST> 1.047009e+02
<STATE> 4
<MEAN> 25
 7.259425e-01 3.505383e+00 8.362800e-01 4.437138e+00 3.433549e+00 2.965076e+00 1.032320e+00 2.101950e+00 1.208943e+00 5.196213e-01 -1.082090e+00 9.309939e-01 -3.396568e-02 4.706937e-02 3.380473e-02 4.084464e-02 7.514044e-02 1.164957e-01 6.669402e-02 -3.091315e-04 -6.518953e-02 3.797166e-03 9.128004e-04 -1.448776e-02 -5.735631e-02
<VARIANCE> 25
 1.912776e+01 2.058477e+01 1.744961e+01 1.918081e+01 6.391477e+01 6.851628e+01 2.712687e+01 6.182876e+01 4.281632e+01 3.064141e+01 1.930344e+01 2.303083e+01 4.901255e-01 8.146070e-01 7.848198e-01 9.693487e-01 1.518193e+00 1.736641e+00 1.707208e+00 1.915333e+00 1.669614e+00 1.792865e+00 1.589518e+00 1.346961e+00 4.957765e-01
<GCONST> 8.894047e+01
<TRANSP> 5
 0.000000e+00 1.000000e+00 0.000000e+00 0.000000e+00 0.000000e+00
 0.000000e+00 5.597703e-01 4.402297e-01 0.000000e+00 0.000000e+00
 0.000000e+00 0.000000e+00 4.477146e-01 5.522854e-01 0.000000e+00
 0.000000e+00 0.000000e+00 0.000000e+00 9.162601e-01 8.373991e-02
 0.000000e+00 0.000000e+00 0.000000e+00 0.000000e+00 0.000000e+00
<ENDHMM>
~h "d"
<BEGINHMM>
<NUMSTATES> 5
<STATE> 2
<MEAN> 25
 2.620128e+00 2.119216e+00 2.952614e+00 1.789536e+00 -1.175444e+00 -2.779429e+00 -2.582866e+00 2.172995e-01 -1.105255e-01 -3.045542e-01 -1.704428e-01 1.359894e+00 -4.440396e-01 3.108292e-01 -1.803105e-01 4.565737e-01 9.395964e-01 8.364953e-01 9.117242e-01 1.176777e-01 2.442042e-01 -6.497638e-02 -1.274127e-01 4.331352e-01 -1.077410e+00
<VARIANCE> 25
 2.784654e+01 2.891298e+01 4.740334e+01 2.608011e+01 5.043243e+01 4.213131e+01 4.306459e+01 4.762205e+01 4.478112e+01 2.676268e+01 3.001127e+01 2.311128e+01 1.180802e+00 2.079690e+00 2.655426e+00 2.356981e+00 3.379715e+00 3.346317e+00 4.075821e+00 2.954138e+00 2.928470e+00 2.874464e+00 2.525092e+00 1.782580e+00 1.753736e+00
<GCONST> 1.005187e+02
<STATE> 3
<MEAN> 25
 6.439918e-01 2.019035e+00 1.535486e+00 2.137865e+00 1.845671e+00 9.291561e-01 1.042816e-01 1.218544e+00 5.767553e-01 -3.642004e-02 -8.413814e-01 2.007426e+00 -4.145943e-01 -3.662587e-02 -2.679817e-01 1.259763e-01 4.717218e-01 6.444964e-01 6.540316e-01 3.601639e-01 2.182886e-01 7.986505e-02 -9.025272e-03 9.498693e-02 -5.327896e-01
<VARIANCE> 25
 2.889807e+01 2.614953e+01 3.209200e+01 3.093674e+01 3.667126e+01 4.175344e+01 3.485264e+01 4.451908e+01 4.059222e+01 2.594810e+01 2.476380e+01 1.891628e+01 1.096713e+00 2.059289e+00 1.752675e+00 2.786195e+00 2.520683e+00 3.088469e+00 2.997356e+00 2.759279e+00 2.393993e+00 2.285668e+00 2.153953e+00 1.671245e+00 1.517511e+00
<GCONST> 9.722796e+01
<STATE> 4
<MEAN> 25
 -2.352727e+00 1.857411e+00 -6.384438e-01 4.726862e+00 5.216184e+00 4.889301e+00 2.901047e+00 2.575033e+00 2.478698e+00 9.999275e-01 -4.451860e-01 2.906776e+00 -8.486953e-02 2.286495e-02 -1.580054e-02 4.805293e-02 1.435506e-01 1.807726e-01 1.274009e-01 7.952532e-03 -7.715104e-04 3.200035e-02 -2.077907e-02 -3.582430e-02 -9.724657e-02
<VARIANCE> 25
 1.275584e+01 1.447780e+01 1.989057e+01 1.681162e+01 2.325063e+01 4.382403e+01 2.348350e+01 3.037656e+01 3.202912e+01 2.247102e+01 2.128229e+01 1.595072e+01 3.740965e-01 6.365225e-01 6.991764e-01 1.083734e+00 1.291710e+00 1.633874e+00 1.630313e+00 1.648771e+00 1.627315e+00 1.583885e+00 1.529696e+00 1.361259e+00 3.155290e-01
<GCONST> 8.343068e+01
<TRANSP> 5
 0.000000e+00 1.000000e+00 0.000000e+00 0.000000e+00 0.000000e+00
 0.000000e+00 5.408199e-01 4.591801e-01 0.000000e+00 0.000000e+00
 0.000000e+00 0.000000e+00 5.185816e-01 4.814184e-01 0.000000e+00
 0.000000e+00 0.000000e+00 0.000000e+00 9.193512e-01 8.064884e-02
 0.000000e+00 0.000000e+00 0.000000e+00 0.000000e+00 0.000000e+00
<ENDHMM>
~h "f"
<BEGINHMM>
<NUMSTATES> 5
<STATE> 2
<MEAN> 25
 -5.155538e-01 6.754448e-01 -7.167370e-01 2.728025e+00 1.818720e+00 7.799178e-01 1.841623e-01 2.971281e+00 1.797659e+00 2.962767e+00 1.097857e+00 4.990281e-01 -1.412815e+00 1.672685e-01 -1.696090e-01 5.995585e-01 7.883145e-01 5.361543e-01 7.584168e-01 5.449651e-01 5.249131e-01 -4.509804e-02 -2.481264e-01 1.004272e-01 -6.236082e-01
<VARIANCE> 25
 3.029202e+01 1.774270e+01 2.621833e+01 2.825576e+01 3.462153e+01 4.440400e+01 2.988946e+01 3.449379e+01 3.057103e+01 3.231074e+01 2.489940e+01 2.595666e+01 2.104625e+00 1.353976e+00 1.547153e+00 1.847141e+00 2.465574e+00 2.414026e+00 3.084809e+00 3.210571e+00 2.019666e+00 1.933892e+00 2.030135e+00 1.652483e+00 6.682673e-01
<GCONST> 9.482805e+01
<STATE> 3
<MEAN> 25
 -4.737225e+00 2.595036e-01 -2.750281e+00 3.849665e+00 3.572188e+00 3.522075e+00 1.587126e+00 3.566247e+00 1.951144e+00 1.610036e+00 -3.013061e-01 9.976742e-01 -2.893236e-01 -6.339509e-02 -1.814703e-01 1.996279e-01 1.696914e-01 1.554394e-01 2.479501e-01 7.774772e-02 5.743648e-02 -2.286854e-02 -4.309327e-02 2.383416e-02 -1.199680e-01
<VARIANCE> 25
 2.397684e+01 1.641785e+01 2.589426e+01 2.220378e+01 2.143005e+01 3.244717e+01 2.192849e+01 2.608480e+01 2.991837e+01 2.201529e+01 1.775060e+01 1.746672e+01 9.737194e-01 6.930007e-01 8.909115e-01 1.020343e+00 1.339527e+00 1.624166e+00 1.788374e+00 1.706424e+00 1.606148e+00 1.608547e+00 1.427394e+00 1.440555e+00 4.454955e-01
<GCONST> 8.566292e+01
<STATE> 4
<MEAN> 25
 -7.879520e+00 -1.455589e+00 -1.860959e+00 6.942042e+00 7.569161e+00 3.210815e+00 5.590412e+00 3.789272e+00 4.388062e+00 2.396489e+00 3.923557e-01 4.610147e-01 1.628154e-01 -1.864489e-01 -2.737115e-02 -2.266313e-01 -1.262385e-01 -3.091732e-01 -1.601732e-02 -2.778070e-01 -1.456323e-01 -4.091671e-02 5.017225e-02 -7.722241e-02 3.115117e-01
<VARIANCE> 25
 2.572403e+01 2.100389e+01 1.653080e+01 2.537107e+01 2.869514e+01 2.700299e+01 2.883565e+01 2.876143e+01 2.870292e+01 2.528847e+01 2.879218e+01 1.803785e+01 2.238120e+00 1.041622e+00 9.736155e-01 2.051404e+00 2.213615e+00 1.753499e+00 1.953193e+00 2.245602e+00 2.097353e+00 1.821095e+00 1.538315e+00 1.371047e+00 6.799132e-01
<GCONST> 9.056460e+01
<TRANSP> 5
 0.000000e+00 1.000000e+00 0.000000e+00 0.000000e+00 0.000000e+00
 0.000000e+00 7.534238e-01 2.465762e-01 0.000000e+00 0.000000e+00
 0.000000e+00 0.000000e+00 8.416555e-01 1.583445e-01 0.000000e+00
 0.000000e+00 0.000000e+00 0.000000e+00 9.025853e-01 9.741472e-02
 0.000000e+00 0.000000e+00 0.000000e+00 0.000000e+00 0.000000e+00
<ENDHMM>
~h "g"
<BEGINHMM>
<NUMSTATES> 5
<STATE> 2
<MEAN> 25
 3.569551e-01 2.909184e+00 2.876065e+00 2.563963e+00 1.752174e+00 -4.848212e-02 1.116245e+00 8.207864e-02 -1.487390e+00 3.531710e+00 -1.264504e+00 3.524225e-01 -1.608974e-01 -9.625149e-01 -5.828700e-01 -6.867790e-01 1.561830e-01 -1.206715e+00 -7.052567e-01 3.928742e-01 -4.598147e-01 9.307964e-01 -4.443608e-02 -7.951289e-02 1.388182e+00
<VARIANCE> 25
 8.554145e+01 5.510590e+01 5.927979e+01 4.686732e+01 6.993359e+01 7.149818e+01 7.800996e+01 4.688366e+01 5.254956e+01 6.954490e+01 2.184780e+01 2.821812e+01 3.817162e+00 6.020713e+00 5.868722e+00 5.252983e+00 9.923429e+00 8.950088e+00 8.520992e+00 5.328788e+00 6.371468e+00 7.690685e+00 4.580472e+00 2.815341e+00 5.306543e+00
<GCONST> 1.166673e+02
<STATE> 3
<MEAN> 25
 1.898403e+00 2.296600e-01 1.238117e+00 4.205769e-01 8.535618e-01 -4.528629e+00 -3.026499e+00 6.406138e-01 -3.863909e+00 5.323646e+00 -1.283823e-01 -2.009895e-01 7.464991e-01 9.496114e-02 4.698398e-01 -3.273007e-01 -1.324823e+00 -1.235473e+00 -9.905205e-01 -2.117455e-01 -1.595095e-01 -4.824907e-01 1.019739e+00 -2.736150e-01 1.078484e+00
<VARIANCE> 25
 4.468503e+01 3.536316e+01 9.493346e+01 4.464939e+01 9.716208e+01 8.301926e+01 8.163988e+01 6.788494e+01 5.699007e+01 1.063412e+02 4.337385e+01 3.655134e+01 3.029204e+00 3.599434e+00 5.331045e+00 4.663110e+00 7.678585e+00 6.244906e+00 6.775337e+00 5.941874e+00 4.639819e+00 4.363338e+00 5.912326e+00 4.824096e+00 2.989828e+00
<GCONST> 1.159796e+02
<STATE> 4
<MEAN> 25
 4.575057e+00 -2.601381e-01 -5.984170e-01 -3.354257e-01 8.281916e-01 -2.831043e+00 -3.031589e+00 1.936453e+00 -1.357731e+00 1.674151e+00 1.107412e+00 -2.366242e+00 1.988138e-01 -7.550994e-02 -1.023909e-01 -1.424223e-01 -1.300963e-01 4.187075e-01 -3.247597e-01 -1.248792e-01 1.834089e-01 -2.230360e-01 4.473645e-01 -1.675286e-01 -3.970887e-02
<VARIANCE> 25
 3.131715e+01 2.013147e+01 1.248283e+02 4.549800e+01 9.525642e+01 7.868315e+01 6.883794e+01 7.483311e+01 7.093452e+01 8.311909e+01 9.997205e+01 5.815073e+01 1.054476e+00 1.561242e+00 2.469031e+00 3.494543e+00 5.041166e+00 5.220352e+00 3.367581e+00 3.682061e+00 3.799993e+00 3.468188e+00 4.420771e+00 2.291521e+00 2.505626e+00
<GCONST> 1.101111e+02
<TRANSP> 5
 0.000000e+00 1.000000e+00 0.000000e+00 0.000000e+00 0.000000e+00
 0.000000e+00 7.291049e-01 2.708952e-01 0.000000e+00 0.000000e+00
 0.000000e+00 0.000000e+00 5.779082e-01 4.220918e-01 0.000000e+00
 0.000000e+00 0.000000e+00 0.000000e+00 7.308608e-01 2.691392e-01
 0.000000e+00 0.000000e+00 0.000000e+00 0.000000e+00 0.000000e+00
<ENDHMM>
~h "k"
<BEGINHMM>
<NUMSTATES> 5
<STATE> 2
<MEAN> 25
 -1.672673e+00 5.959606e-01 -1.382428e+00 1.374298e+00 3.700759e+00 1.037088e-01 2.422843e+00 1.224042e+00 1.636461e+00 2.760372e+00 -2.916825e-01 1.017485e+00 -3.512522e-01 -7.131205e-01 -4.665456e-01 -7.838539e-01 -8.049384e-03 -7.389201e-01 2.480510e-01 6.150746e-01 -3.006001e-01 5.436499e-01 2.190859e-01 -1.767655e-01 8.033612e-01
<VARIANCE> 25
 6.669451e+01 6.162825e+01 5.304128e+01 5.792662e+01 7.732958e+01 7.116872e+01 6.115650e+01 5.303934e+01 4.818020e+01 4.304652e+01 2.968681e+01 3.033154e+01 3.518529e+00 5.693062e+00 5.180499e+00 6.042486e+00 6.698013e+00 7.774853e+00 8.164264e+00 5.603718e+00 5.227834e+00 5.244877e+00 3.902222e+00 3.683826e+00 6.813340e+00
<GCONST> 1.155487e+02
<STATE> 3
<MEAN> 25
 -1.725076e-01 -2.218279e+00 -3.850260e+00 -2.848583e+00 1.910353e+00 -2.269634e+00 6.863542e-01 3.205649e+00 1.301864e-01 4.756240e+00 1.329037e+00 -8.782461e-01 1.003334e-01 -2.000311e-01 3.471429e-02 -3.393121e-01 -2.656032e-01 -5.296312e-02 -2.979079e-02 2.154902e-01 -2.266780e-01 -1.181324e-01 2.404466e-01 -3.251973e-01 6.080159e-01
<VARIANCE> 25
 7.257088e+01 5.423198e+01 1.069787e+02 1.106886e+02 1.034046e+02 7.632820e+01 8.593990e+01 7.437732e+01 5.205606e+01 5.947425e+01 4.247889e+01 3.535489e+01 6.385166e+00 5.043936e+00 8.739703e+00 9.840534e+00 8.860663e+00 7.248123e+00 7.292945e+00 7.382605e+00 5.995744e+00 7.399956e+00 4.151830e+00 4.237264e+00 5.528162e+00
<GCONST> 1.211377e+02
<STATE> 4
<MEAN> 25
 -1.059377e+00 -3.059327e+00 -2.106257e+00 -1.778333e+00 9.864361e-01 -1.117828e+00 2.366137e+00 4.079255e+00 -7.161320e-01 2.072196e+00 1.290893e+00 -2.717638e-01 3.091736e-01 2.060488e-01 6.027989e-02 1.057199e-01 3.080650e-02 1.676302e-01 -1.348774e-01 -2.432928e-01 -5.557874e-02 -4.508440e-01 -1.255303e-01 -2.664074e-01 3.408298e-03
<VARIANCE> 25
 3.578290e+01 3.818777e+01 6.278874e+01 7.287885e+01 5.699587e+01 8.058381e+01 5.898163e+01 6.932652e+01 4.934074e+01 3.624337e+01 4.380777e+01 3.335446e+01 3.372468e+00 2.269310e+00 4.064651e+00 4.650130e+00 4.440209e+00 3.822960e+00 3.428534e+00 4.573708e+00 4.329335e+00 2.883401e+00 3.125874e+00 2.471486e+00 2.846801e+00
<GCONST> 1.092935e+02
<TRANSP> 5
 0.000000e+00 1.000000e+00 0.000000e+00 0.000000e+00 0.000000e+00
 0.000000e+00 6.288385e-01 3.711615e-01 0.000000e+00 0.000000e+00
 0.000000e+00 0.000000e+00 6.643584e-01 3.356416e-01 0.000000e+00
 0.000000e+00 0.000000e+00 0.000000e+00 6.948005e-01 3.051995e-01
 0.000000e+00 0.000000e+00 0.000000e+00 0.000000e+00 0.000000e+00
<ENDHMM>
~h "l"
<BEGINHMM>
<NUMSTATES> 5
<STATE> 2
<MEAN> 25
 6.453866e+00 8.022047e-01 -2.344311e+00 -6.324369e+00 -1.251286e+00 1.719069e-02 -4.963978e+00 -3.426677e+00 4.529829e-01 3.081177e+00 5.391480e-01 -2.022083e+00 6.778485e-01 -5.970999e-02 -5.918515e-01 -1.217330e+00 4.774241e-02 3.060457e-01 -8.027825e-01 -9.197675e-01 9.977638e-02 4.932866e-01 -5.285057e-02 -1.983254e-01 5.101230e-01
<VARIANCE> 25
 2.965143e+01 4.389173e+01 3.938932e+01 7.897823e+01 4.478831e+01 7.281438e+01 8.460410e+01 8.753625e+01 4.514753e+01 3.911611e+01 3.580449e+01 3.911471e+01 2.230240e+00 2.054012e+00 2.166694e+00 3.970623e+00 3.468172e+00 4.392421e+00 3.995008e+00 5.392953e+00 3.491621e+00 3.056806e+00 2.683015e+00 2.892255e+00 1.829422e+00
<GCONST> 1.073701e+02
<STATE> 3
<MEAN> 25
 7.767197e+00 -1.978408e-01 -2.641521e+00 -9.736228e+00 -3.853494e-01 8.991747e-01 -8.050421e+00 -4.536017e+00 6.057425e-01 5.402649e+00 1.117162e+00 -3.565414e+00 -3.155299e-02 3.150431e-02 -1.584162e-01 -1.738224e-02 2.682413e-01 3.746017e-02 1.097409e-01 -1.205271e-01 5.936950e-03 -1.987651e-01 -2.397473e-01 1.797055e-01 -1.231573e-01
<VARIANCE> 25
 1.958286e+01 3.136538e+01 4.323532e+01 7.527398e+01 4.189670e+01 9.216964e+01 9.981828e+01 9.200097e+01 4.731239e+01 5.254753e+01 3.315454e+01 4.352877e+01 5.650246e-01 1.292273e+00 1.226084e+00 3.078742e+00 1.794946e+00 2.327321e+00 2.386809e+00 3.239803e+00 2.073533e+00 2.191617e+00 2.030841e+00 2.452496e+00 7.748562e-01
<GCONST> 1.002856e+02
<STATE> 4
<MEAN> 25
 6.039926e+00 2.121011e+00 -5.124630e+00 -1.003479e+01 1.001596e+00 2.470127e+00 -2.331277e+00 -1.740270e+00 -8.612536e-01 2.089432e+00 -1.680907e+00 -5.154771e-02 -2.272461e-01 -2.892542e-02 1.677115e-01 6.061593e-01 9.867746e-02 -1.271194e-01 1.891674e-01 2.399962e-01 1.313015e-01 -1.619732e-01 -7.615977e-02 1.662647e-02 -2.930114e-01
<VARIANCE> 25
 2.249635e+01 4.584138e+01 3.043728e+01 1.240332e+02 4.568479e+01 6.515352e+01 4.989932e+01 6.783372e+01 4.971949e+01 3.261380e+01 3.390064e+01 3.274581e+01 3.763768e-01 1.011121e+00 8.577232e-01 2.193103e+00 1.396438e+00 1.772806e+00 1.845494e+00 2.198736e+00 1.913769e+00 1.657580e+00 1.594481e+00 1.575195e+00 5.647159e-01
<GCONST> 9.512737e+01
<TRANSP> 5
 0.000000e+00 1.000000e+00 0.000000e+00 0.000000e+00 0.000000e+00
 0.000000e+00 6.080530e-01 3.919470e-01 0.000000e+00 0.000000e+00
 0.000000e+00 0.000000e+00 6.252435e-01 3.747564e-01 0.000000e+00
 0.000000e+00 0.000000e+00 0.000000e+00 8.728935e-01 1.271065e-01
 0.000000e+00 0.000000e+00 0.000000e+00 0.000000e+00 0.000000e+00
<ENDHMM>
~h "m"
<BEGINHMM>
<NUMSTATES> 5
<STATE> 2
<MEAN> 25
 6.052961e+00 9.932657e-01 1.661455e-01 1.623769e+00 -2.232147e+00 2.143344e-01 -1.925229e+00 -5.887952e+00 -5.199179e+00 2.659097e-01 -4.570162e-02 -5.334485e-01 -1.955317e-01 5.338983e-01 1.743776e-01 7.107242e-01 6.833677e-01 4.604121e-01 2.848206e-01 -5.212592e-01 -4.138617e-01 -1.931225e-01 -8.810692e-02 1.965033e-01 -6.367102e-01
<VARIANCE> 25
 2.443126e+01 3.558278e+01 3.391868e+01 4.121891e+01 4.534040e+01 2.742089e+01 3.705421e+01 7.142386e+01 5.752984e+01 4.216542e+01 2.739791e+01 1.951917e+01 4.205076e-01 8.763822e-01 1.261707e+00 1.591638e+00 1.950390e+00 1.354627e+00 2.163930e+00 2.548284e+00 2.704508e+00 2.498926e+00 1.805904e+00 1.449698e+00 4.125250e-01
<GCONST> 9.340543e+01
<STATE> 3
<MEAN> 25
 3.723108e+00 2.225494e+00 6.884308e-01 3.588739e+00 1.835287e+00 2.565877e+00 -4.930270e-01 -4.136063e+00 -3.536223e+00 -1.495165e+00 -6.062040e-01 5.361615e-01 -2.165065e-01 1.329500e-01 1.271520e-01 2.388026e-01 2.265348e-01 1.876207e-01 1.634578e-01 1.752970e-02 -5.680503e-02 -8.560023e-02 -3.750766e-02 9.177528e-02 -3.091702e-01
<VARIANCE> 25
 2.646102e+01 1.960788e+01 3.098417e+01 3.366002e+01 3.487399e+01 2.755766e+01 2.431983e+01 4.814862e+01 4.160943e+01 2.451336e+01 1.502128e+01 1.731433e+01 4.148193e-01 6.462316e-01 1.120344e+00 1.373247e+00 1.182047e+00 1.233819e+00 1.436230e+00 1.992759e+00 1.853538e+00 1.292009e+00 1.264331e+00 1.203287e+00 3.221323e-01
<GCONST> 8.627377e+01
<STATE> 4
<MEAN> 25
 9.600461e-01 1.786793e+00 5.574752e-01 4.967917e+00 3.258892e+00 4.698495e+00 2.886941e-01 -3.139630e+00 -2.798569e+00 1.045112e+00 -7.483301e-02 8.221444e-01 6.603034e-02 -1.779163e-01 -1.604910e-01 -2.755880e-01 -2.342746e-01 -6.443110e-02 1.720310e-02 4.339240e-02 -8.162294e-02 -6.333333e-03 1.243513e-02 -1.214683e-01 1.602568e-01
<VARIANCE> 25
 3.367430e+01 1.514641e+01 1.892881e+01 2.436788e+01 3.904081e+01 4.054860e+01 2.931948e+01 6.497642e+01 9.254542e+01 2.619893e+01 1.720215e+01 2.340917e+01 9.889705e-01 8.426452e-01 1.316708e+00 1.477772e+00 1.564234e+00 1.765031e+00 1.692188e+00 2.653091e+00 3.185355e+00 1.706657e+00 1.569500e+00 1.455506e+00 6.086234e-01
<GCONST> 9.204966e+01
<TRANSP> 5
 0.000000e+00 1.000000e+00 0.000000e+00 0.000000e+00 0.000000e+00
 0.000000e+00 7.179749e-01 2.820251e-01 0.000000e+00 0.000000e+00
 0.000000e+00 0.000000e+00 7.791273e-01 2.208727e-01 0.000000e+00
 0.000000e+00 0.000000e+00 0.000000e+00 8.721636e-01 1.278365e-01
 0.000000e+00 0.000000e+00 0.000000e+00 0.000000e+00 0.000000e+00
<ENDHMM>
~h "n"
<BEGINHMM>
<NUMSTATES> 5
<STATE> 2
<MEAN> 25
 5.231416e+00 -1.464469e+00 1.423678e+00 8.986998e-01 -3.422303e+00 -2.075483e+00 -2.011759e+00 3.675377e-02 -2.211920e+00 -1.409287e+00 -3.729557e+00 -1.253918e+00 4.391153e-01 1.264892e+00 3.297342e-01 9.827305e-01 -4.990773e-02 1.608141e-01 1.447061e-01 -1.710910e+00 -7.033741e-01 -6.878433e-02 -1.963982e-01 3.267879e-01 -8.011637e-01
<VARIANCE> 25
 2.231712e+01 4.588960e+01 3.590011e+01 4.459152e+01 6.960522e+01 5.808746e+01 6.371293e+01 7.494759e+01 5.075524e+01 3.944323e+01 3.425338e+01 2.720810e+01 1.353193e+00 2.407800e+00 2.444444e+00 3.075471e+00 3.841887e+00 4.095902e+00 4.158067e+00 5.042300e+00 4.054570e+00 2.858001e+00 2.886112e+00 2.132029e+00 1.894435e+00
<GCONST> 1.053751e+02
<STATE> 3
<MEAN> 25
 6.451808e+00 2.276047e+00 2.306000e+00 2.500936e+00 -4.000996e+00 -7.299899e-01 -1.921081e+00 -4.852076e+00 -4.230320e+00 -7.357627e-01 -3.908839e+00 -5.387517e-01 2.643543e-01 7.453377e-01 2.900577e-01 4.208669e-01 -2.164268e-01 3.765281e-01 1.727488e-01 -1.205335e+00 -4.356018e-01 8.439104e-02 1.082367e-02 2.323894e-01 -4.820960e-01
<VARIANCE> 25
 1.686299e+01 3.728003e+01 2.795332e+01 3.828568e+01 5.911458e+01 3.958565e+01 4.555403e+01 6.698293e+01 4.521851e+01 3.580768e+01 2.865832e+01 2.332555e+01 1.508053e+00 2.704293e+00 2.029207e+00 2.757093e+00 4.395558e+00 2.981254e+00 3.912013e+00 5.466061e+00 3.666016e+00 3.002998e+00 2.328727e+00 1.764450e+00 2.058916e+00
<GCONST> 1.023391e+02
<STATE> 4
<MEAN> 25
 3.556505e+00 3.092655e+00 3.094347e+00 3.836633e+00 -1.374611e+00 2.199203e+00 -6.303539e-01 -4.590409e+00 -2.633584e+00 -4.633192e-01 -2.156341e+00 7.054812e-01 -2.349597e-01 1.509288e-01 -6.460232e-02 1.012392e-01 4.144763e-01 2.148872e-01 8.402399e-02 1.429375e-01 2.506647e-01 4.284843e-02 6.789468e-02 1.079398e-01 -3.647209e-01
<VARIANCE> 25
 2.295491e+01 2.238148e+01 2.701847e+01 2.503720e+01 6.910873e+01 4.770778e+01 3.008386e+01 6.375570e+01 4.551646e+01 2.831921e+01 2.487457e+01 2.019119e+01 4.522374e-01 9.552707e-01 8.455886e-01 1.101779e+00 1.807172e+00 1.681237e+00 1.804537e+00 2.540897e+00 1.821119e+00 1.637914e+00 1.408985e+00 1.270096e+00 5.248086e-01
<GCONST> 9.050024e+01
<TRANSP> 5
 0.000000e+00 1.000000e+00 0.000000e+00 0.000000e+00 0.000000e+00
 0.000000e+00 5.198399e-01 4.801600e-01 0.000000e+00 0.000000e+00
 0.000000e+00 0.000000e+00 4.587609e-01 5.412391e-01 0.000000e+00
 0.000000e+00 0.000000e+00 0.000000e+00 8.871759e-01 1.128242e-01
 0.000000e+00 0.000000e+00 0.000000e+00 0.000000e+00 0.000000e+00
<ENDHMM>
~h "p"
<BEGINHMM>
<NUMSTATES> 5
<STATE> 2
<MEAN> 25
 -1.762882e+00 9.748895e-01 -7.176030e-02 3.242773e+00 3.921870e+00 1.516406e+00 2.252172e+00 8.108951e-01 1.502012e+00 5.353708e-01 -6.309580e-01 1.833268e+00 9.946452e-02 -5.063689e-01 -3.609815e-01 -3.769003e-01 -1.602029e-01 -5.101841e-01 -7.213879e-02 -1.036732e-01 4.197683e-01 1.807158e-01 2.761078e-01 -2.689328e-01 8.135689e-01
<VARIANCE> 25
 2.860087e+01 2.407182e+01 3.210347e+01 3.002609e+01 3.086676e+01 3.948542e+01 3.759821e+01 3.600028e+01 3.508519e+01 3.426423e+01 2.371312e+01 2.010138e+01 3.189953e+00 3.191144e+00 3.013388e+00 3.951156e+00 3.717592e+00 6.987486e+00 4.614879e+00 3.546110e+00 4.574526e+00 4.092098e+00 3.283005e+00 2.475655e+00 4.377467e+00
<GCONST> 1.042783e+02
<STATE> 3
<MEAN> 25
 1.657856e+00 -7.655787e-02 -1.856896e+00 -1.051155e+00 2.069428e+00 -6.149153e-01 5.810779e-01 -1.661677e+00 2.657804e+00 3.581140e+00 9.347671e-01 3.224502e-01 1.302288e+00 -8.161660e-01 -5.183138e-01 -1.625870e+00 -8.042428e-01 -7.966876e-03 -5.764347e-01 -3.661879e-01 -5.959977e-02 5.062994e-01 4.115105e-01 -7.581733e-01 2.106666e+00
<VARIANCE> 25
 5.383085e+01 4.639120e+01 3.535035e+01 6.524368e+01 4.319670e+01 6.443443e+01 5.676470e+01 5.066923e+01 4.140556e+01 5.473875e+01 4.140588e+01 3.123904e+01 7.322608e+00 4.862652e+00 5.357806e+00 9.688525e+00 5.497621e+00 1.138669e+01 7.173481e+00 6.902926e+00 6.860030e+00 7.373608e+00 5.048142e+00 4.128356e+00 6.530926e+00
<GCONST> 1.166982e+02
<STATE> 4
<MEAN> 25
 8.036817e-01 -1.424659e+00 -2.272566e+00 -1.610915e+00 2.078096e+00 5.295205e+00 -3.022721e-01 -7.812509e-01 4.186679e+00 2.400828e+00 7.880579e-01 -4.666184e-01 2.446721e-01 -2.557249e-01 1.280202e-02 -1.060245e-01 -2.994734e-01 -1.862032e-01 -2.051367e-01 -3.456129e-02 -1.848324e-01 -1.584566e-01 -6.509326e-02 -3.141677e-01 5.423537e-01
<VARIANCE> 25
 4.530340e+01 3.189483e+01 3.447031e+01 6.809849e+01 3.143959e+01 6.316799e+01 6.156187e+01 6.022708e+01 4.040046e+01 3.423597e+01 3.480114e+01 2.808336e+01 2.206588e+00 1.766636e+00 2.458223e+00 4.201118e+00 3.537289e+00 4.594718e+00 3.545997e+00 3.174479e+00 3.381481e+00 3.253853e+00 2.077427e+00 2.500641e+00 3.192057e+00
<GCONST> 1.050238e+02
<TRANSP> 5
 0.000000e+00 1.000000e+00 0.000000e+00 0.000000e+00 0.000000e+00
 0.000000e+00 4.909263e-01 5.090738e-01 0.000000e+00 0.000000e+00
 0.000000e+00 0.000000e+00 5.560209e-01 4.439791e-01 0.000000e+00
 0.000000e+00 0.000000e+00 0.000000e+00 6.534911e-01 3.465089e-01
 0.000000e+00 0.000000e+00 0.000000e+00 0.000000e+00 0.000000e+00
<ENDHMM>
~h "r"
<BEGINHMM>
<NUMSTATES> 5
<STATE> 2
<MEAN> 25
 -6.049247e-01 -3.977618e+00 -3.219797e+00 4.390600e-01 1.136378e+00 -9.419494e-01 -1.461406e+00 2.378423e-01 3.583021e+00 1.015470e+00 2.913951e+00 1.972051e-01 6.143299e-01 -3.460775e-01 -2.624822e-01 5.901044e-01 -1.528236e-01 -1.752640e+00 -8.609284e-01 -1.955163e-01 4.433660e-01 -4.666806e-01 -2.326812e-01 3.676778e-01 6.743370e-01
<VARIANCE> 25
 1.229731e+02 3.790977e+01 6.695415e+01 5.997361e+01 5.731464e+01 6.072407e+01 6.096690e+01 4.810093e+01 6.311964e+01 4.191192e+01 3.850490e+01 2.743799e+01 5.820414e+00 2.770484e+00 4.321335e+00 6.418846e+00 4.185499e+00 4.725035e+00 5.179786e+00 4.566589e+00 4.558464e+00 3.793405e+00 3.368012e+00 2.745475e+00 4.480155e+00
<GCONST> 1.124993e+02
<STATE> 3
<MEAN> 25
 7.012787e+00 -4.607552e+00 -5.550782e+00 2.049821e+00 -2.940579e-01 -6.069444e+00 -7.179131e+00 -1.865746e+00 3.142275e+00 -8.116519e-01 7.242806e-01 1.031112e+00 1.708785e+00 -4.899453e-01 -5.407112e-01 1.613272e-01 -8.032733e-01 -1.369020e+00 -8.970404e-01 -1.794202e-01 -5.693868e-02 -4.497105e-01 -2.640058e-01 4.620790e-01 5.114242e-01
<VARIANCE> 25
 8.353544e+01 3.604293e+01 1.141031e+02 5.835258e+01 5.335880e+01 5.081926e+01 7.442946e+01 5.551654e+01 6.426860e+01 4.727498e+01 3.222519e+01 2.983396e+01 6.652721e+00 3.566727e+00 7.401690e+00 4.868399e+00 5.720149e+00 5.185468e+00 6.070961e+00 5.684748e+00 6.249730e+00 3.430753e+00 3.583516e+00 2.961404e+00 2.223342e+00
<GCONST> 1.137884e+02
<STATE> 4
<MEAN> 25
 9.380416e+00 -6.907795e+00 -6.254717e+00 2.863343e+00 -3.508415e+00 -9.458130e+00 -5.943037e+00 1.212824e+00 2.269407e+00 -2.526530e+00 9.426624e-02 2.135048e+00 -2.739857e-01 5.445495e-02 5.988252e-01 2.899732e-03 -1.364453e-01 2.244080e-01 4.742996e-01 3.440337e-01 -2.843019e-01 6.973176e-02 -4.811251e-02 -6.921263e-02 -2.379809e-01
<VARIANCE> 25
 3.882138e+01 4.826856e+01 1.191416e+02 5.449883e+01 7.727634e+01 5.755214e+01 7.391027e+01 6.272124e+01 6.160075e+01 3.570427e+01 4.268170e+01 2.545192e+01 8.973307e-01 1.693461e+00 2.909578e+00 2.051216e+00 3.216193e+00 3.228760e+00 3.110266e+00 3.010005e+00 3.736054e+00 2.263927e+00 2.330762e+00 1.828705e+00 7.534071e-01
<GCONST> 1.038729e+02
<TRANSP> 5
 0.000000e+00 1.000000e+00 0.000000e+00 0.000000e+00 0.000000e+00
 0.000000e+00 5.938182e-01 4.061817e-01 0.000000e+00 0.000000e+00
 0.000000e+00 0.000000e+00 5.951352e-01 4.048648e-01 0.000000e+00
 0.000000e+00 0.000000e+00 0.000000e+00 8.325514e-01 1.674486e-01
 0.000000e+00 0.000000e+00 0.000000e+00 0.000000e+00 0.000000e+00
<ENDHMM>
~h "s"
<BEGINHMM>
<NUMSTATES> 5
<STATE> 2
<MEAN> 25
 -5.344995e+00 5.288334e+00 1.909255e+00 1.707781e+00 5.901895e+00 -3.845546e+00 1.508072e+00 1.677913e+00 2.757653e+00 -1.853544e-01 -9.482056e-01 -3.406591e-01 -3.005560e+00 1.715312e+00 -8.281419e-01 -3.890736e-01 1.818866e+00 -6.943575e-01 1.326601e+00 2.846276e-01 5.881395e-01 -5.160031e-01 6.136096e-01 -1.401458e-01 5.568539e-01
<VARIANCE> 25
 8.129377e+01 5.430286e+01 5.416240e+01 4.702605e+01 8.071723e+01 8.484536e+01 7.634155e+01 5.556850e+01 5.661353e+01 4.024383e+01 3.668928e+01 3.115700e+01 6.784642e+00 4.962314e+00 3.610786e+00 4.354767e+00 6.271548e+00 6.832342e+00 5.716309e+00 4.578820e+00 5.316364e+00 4.750766e+00 4.111078e+00 2.872082e+00 2.648949e+00
<GCONST> 1.141058e+02
<STATE> 3
<MEAN> 25
 -1.447917e+01 8.400558e+00 -2.731162e+00 -6.685895e-01 8.773570e+00 -4.381092e+00 4.482204e+00 2.261360e+00 3.938530e+00 -1.194517e+00 1.816802e+00 -1.481171e-01 -1.042551e+00 3.089763e-01 -1.014231e+00 -2.787027e-01 1.894886e-01 1.866182e-01 3.508941e-01 -4.003161e-02 9.553379e-02 1.829015e-01 3.229209e-01 3.873119e-02 1.827276e-01
<VARIANCE> 25
 5.173733e+01 5.639724e+01 3.959727e+01 4.472852e+01 5.336220e+01 4.911506e+01 6.487460e+01 4.600805e+01 3.895150e+01 4.153862e+01 2.998128e+01 2.364829e+01 6.546943e+00 3.462610e+00 2.760365e+00 2.612074e+00 3.267432e+00 3.175172e+00 4.084882e+00 3.496044e+00 3.574794e+00 3.595163e+00 2.116665e+00 1.915136e+00 1.788556e+00
<GCONST> 1.058596e+02
<STATE> 4
<MEAN> 25
 -1.569047e+01 8.772002e+00 -4.392311e+00 6.801912e-01 1.044751e+01 -3.547951e+00 7.216807e+00 1.174929e+00 3.980775e+00 -3.781313e-01 1.914135e+00 9.463468e-01 6.848513e-01 -5.394868e-01 1.284160e-01 6.070553e-02 -3.275258e-01 1.862827e-01 -3.040284e-01 -1.883095e-01 -1.328558e-02 1.008539e-01 -2.050915e-01 -2.360143e-02 -2.682990e-01
<VARIANCE> 25
 4.696959e+01 5.012632e+01 2.718372e+01 4.004348e+01 5.480357e+01 3.342765e+01 4.321329e+01 3.246810e+01 2.757653e+01 2.627011e+01 2.971555e+01 1.995943e+01 2.828393e+00 1.791809e+00 1.358253e+00 1.533665e+00 2.666394e+00 2.140589e+00 2.501570e+00 2.467862e+00 1.884778e+00 1.726601e+00 2.078604e+00 1.683802e+00 1.056741e+00
<GCONST> 9.684065e+01
<TRANSP> 5
 0.000000e+00 1.000000e+00 0.000000e+00 0.000000e+00 0.000000e+00
 0.000000e+00 7.567722e-01 2.432279e-01 0.000000e+00 0.000000e+00
 0.000000e+00 0.000000e+00 5.914081e-01 4.085919e-01 0.000000e+00
 0.000000e+00 0.000000e+00 0.000000e+00 9.168949e-01 8.310511e-02
 0.000000e+00 0.000000e+00 0.000000e+00 0.000000e+00 0.000000e+00
<ENDHMM>
~h "t"
<BEGINHMM>
<NUMSTATES> 5
<STATE> 2
<MEAN> 25
 1.408358e+00 1.661688e+00 1.067508e+00 1.463171e+00 1.230919e+00 -3.796889e-01 1.866428e-01 3.741205e-01 1.685905e+00 1.030915e+00 -8.471439e-01 9.115118e-02 -6.382393e-01 -1.082346e-01 -3.459354e-01 5.175074e-01 9.445958e-01 6.212957e-01 8.010003e-01 5.294919e-02 4.827840e-01 -6.866491e-02 8.793705e-02 3.271900e-01 -1.074433e+00
<VARIANCE> 25
 3.474353e+01 3.678044e+01 3.662152e+01 3.451751e+01 4.708639e+01 4.901418e+01 3.862597e+01 4.085309e+01 4.497266e+01 3.209955e+01 3.400582e+01 2.429751e+01 2.114499e+00 3.435301e+00 2.461972e+00 2.870931e+00 3.414350e+00 4.885144e+00 3.563236e+00 3.310737e+00 4.191975e+00 2.702969e+00 3.210507e+00 2.275872e+00 2.968688e+00
<GCONST> 1.040668e+02
<STATE> 3
<MEAN> 25
 -2.111231e+00 5.634803e-01 -1.326532e+00 7.664936e-01 3.409580e+00 -1.532400e-02 2.446353e+00 7.992428e-01 2.934611e+00 1.368353e+00 -2.747352e-01 8.006635e-01 -6.171381e-01 -4.268283e-01 -3.134150e-01 -1.933380e-01 2.572567e-01 1.603346e-02 3.302175e-01 1.378066e-01 3.012868e-01 2.012503e-01 1.418788e-01 2.104879e-01 3.769859e-02
<VARIANCE> 25
 4.037296e+01 2.999133e+01 3.429647e+01 3.539105e+01 3.622049e+01 5.613533e+01 3.967325e+01 3.657389e+01 3.892297e+01 3.087520e+01 2.829033e+01 2.188147e+01 3.158402e+00 2.574065e+00 2.476134e+00 3.272138e+00 3.163344e+00 6.751222e+00 3.753615e+00 3.036318e+00 3.598546e+00 2.581234e+00 2.839312e+00 2.077675e+00 5.078127e+00
<GCONST> 1.038756e+02
<STATE> 4
<MEAN> 25
 -3.201271e+00 4.769538e-01 -1.776658e+00 3.537998e+00 5.260822e+00 4.318759e+00 3.059110e+00 2.093466e+00 3.612364e+00 1.513366e+00 -2.614764e-01 2.818262e+00 -7.103546e-02 -3.578874e-02 -5.653319e-03 -6.693095e-03 3.136788e-02 5.825900e-02 5.338181e-03 -2.036393e-02 -6.226861e-02 -5.403309e-02 -3.891421e-03 4.757142e-02 -2.636963e-02
<VARIANCE> 25
 1.339393e+01 1.828182e+01 1.698820e+01 2.233880e+01 2.128644e+01 3.841666e+01 2.611862e+01 2.730494e+01 3.111860e+01 2.202526e+01 2.056924e+01 1.635649e+01 5.947618e-01 7.462631e-01 9.725031e-01 1.403391e+00 1.397068e+00 2.203497e+00 1.848660e+00 1.760050e+00 1.833744e+00 1.703581e+00 1.565387e+00 1.415797e+00 8.625444e-01
<GCONST> 8.660120e+01
<TRANSP> 5
 0.000000e+00 1.000000e+00 0.000000e+00 0.000000e+00 0.000000e+00
 0.000000e+00 4.955577e-01 5.044423e-01 0.000000e+00 0.000000e+00
 0.000000e+00 0.000000e+00 4.553230e-01 5.446770e-01 0.000000e+00
 0.000000e+00 0.000000e+00 0.000000e+00 9.098380e-01 9.016196e-02
 0.000000e+00 0.000000e+00 0.000000e+00 0.000000e+00 0.000000e+00
<ENDHMM>
~h "v"
<BEGINHMM>
<NUMSTATES> 5
<STATE> 2
<MEAN> 25
 -5.890450e-01 2.636316e-01 -3.391527e+00 2.654378e+00 3.178679e+00 1.809047e+00 3.160663e+00 1.597031e-01 1.978256e+00 2.084226e-01 -1.159486e+00 7.491971e-01 -4.296484e-01 2.673558e-01 -6.298582e-02 1.765285e-01 4.787229e-01 4.932246e-01 2.536585e-01 1.015221e-01 2.409154e-02 -3.011372e-02 -3.627635e-02 -1.302033e-02 -3.599528e-01
<VARIANCE> 25
 4.147100e+01 2.158031e+01 3.294423e+01 7.143056e+01 3.302189e+01 4.871521e+01 3.046471e+01 3.232615e+01 3.754179e+01 2.020630e+01 2.122981e+01 2.791330e+01 1.986802e+00 9.767290e-01 1.238126e+00 1.660196e+00 1.625945e+00 2.186245e+00 2.030244e+00 2.193937e+00 2.381280e+00 1.600623e+00 1.570627e+00 1.899537e+00 7.543665e-01
<GCONST> 9.409370e+01
<STATE> 3
<MEAN> 25
 3.047619e+00 4.707687e-01 -4.476222e+00 -8.655409e+00 2.611396e-01 5.731231e+00 1.748091e+00 2.000403e+00 -9.310971e-01 -3.861572e-01 -3.164718e-01 -1.651490e+00 -3.634584e-01 -4.297749e-02 -1.170971e-01 -1.904368e-01 2.871228e-03 2.307678e-01 -1.036465e-03 1.301412e-01 2.018376e-01 6.470327e-02 1.804113e-01 -4.765373e-02 1.275691e-01
<VARIANCE> 25
 5.912032e+01 2.957322e+01 2.510855e+01 2.548707e+02 4.063966e+01 5.028911e+01 3.095405e+01 4.721978e+01 3.398563e+01 2.494144e+01 2.583887e+01 2.129035e+01 3.268819e+00 1.619022e+00 1.480453e+00 9.879049e+00 2.214450e+00 3.066943e+00 2.701251e+00 2.316971e+00 2.133693e+00 1.794744e+00 1.780625e+00 1.602968e+00 2.046824e+00
<GCONST> 1.013463e+02
<STATE> 4
<MEAN> 25
 -2.422635e+00 2.397490e-01 -3.050579e+00 3.531599e-02 3.584507e+00 5.551859e+00 2.137471e+00 1.541955e+00 3.804479e+00 1.490599e+00 -1.901407e-01 3.796588e-01 -1.879194e-01 7.176561e-02 1.403072e-01 4.074770e-01 1.913016e-01 -1.937261e-01 -4.295912e-02 4.500785e-02 9.257137e-02 5.520146e-02 3.881368e-02 1.368274e-01 -2.451094e-01
<VARIANCE> 25
 4.241664e+01 1.823714e+01 2.588113e+01 1.136379e+02 3.895414e+01 5.149420e+01 3.300583e+01 3.924236e+01 3.213634e+01 2.472631e+01 2.218732e+01 2.598498e+01 1.142253e+00 8.278074e-01 8.762006e-01 2.435440e+00 1.562345e+00 2.289645e+00 2.299378e+00 2.216055e+00 1.978397e+00 1.792313e+00 1.550377e+00 1.368575e+00 5.563604e-01
<GCONST> 9.342632e+01
<TRANSP> 5
 0.000000e+00 1.000000e+00 0.000000e+00 0.000000e+00 0.000000e+00
 0.000000e+00 7.653002e-01 2.346998e-01 0.000000e+00 0.000000e+00
 0.000000e+00 0.000000e+00 7.326554e-01 2.673446e-01 0.000000e+00
 0.000000e+00 0.000000e+00 0.000000e+00 9.032094e-01 9.679063e-02
 0.000000e+00 0.000000e+00 0.000000e+00 0.000000e+00 0.000000e+00
<ENDHMM>
~h "w"
<BEGINHMM>
<NUMSTATES> 5
<STATE> 2
<MEAN> 25
 -4.207721e-01 2.673784e+00 -5.853071e-01 4.055367e+00 3.941604e+00 5.568942e+00 1.800315e+00 9.409625e-01 2.001091e+00 8.088170e-01 -1.730557e-01 2.714231e+00 3.277068e-01 3.489321e-01 -6.571834e-02 -2.251439e-01 -2.600582e-01 -7.345810e-02 -1.238683e-02 -1.018226e-01 -1.766944e-01 -1.733953e-01 -6.946790e-02 -7.162321e-03 2.195960e-02
<VARIANCE> 25
 2.778593e+01 1.858128e+01 2.146658e+01 2.936403e+01 3.813583e+01 4.883724e+01 2.838360e+01 2.966334e+01 4.239749e+01 2.248285e+01 1.960177e+01 1.954791e+01 1.116369e+00 1.343796e+00 1.424868e+00 1.739456e+00 2.176915e+00 2.211235e+00 2.051348e+00 1.868684e+00 2.127388e+00 1.896813e+00 1.699329e+00 1.736699e+00 4.889400e-01
<GCONST> 9.170379e+01
<STATE> 3
<MEAN> 25
 8.390104e+00 8.471863e+00 -6.778209e-01 -4.197484e+00 -5.483732e+00 4.193032e-01 -6.288458e-01 -1.066816e+00 -3.064088e+00 -2.731219e+00 -1.052459e+00 1.242428e+00 1.517899e+00 5.366834e-01 -6.241993e-01 -1.977974e+00 -1.509591e+00 -3.824419e-01 -3.281081e-01 -1.775146e-01 -8.192812e-01 -5.049335e-01 1.753431e-01 -1.266743e-01 1.057028e+00
<VARIANCE> 25
 2.855668e+01 2.150406e+01 1.930448e+01 4.705745e+01 4.183511e+01 3.905163e+01 3.002857e+01 2.540868e+01 2.908383e+01 2.571964e+01 2.290705e+01 1.946162e+01 2.747128e+00 2.057008e+00 2.140701e+00 3.811448e+00 4.776136e+00 4.762481e+00 2.618359e+00 2.982376e+00 3.589956e+00 2.970309e+00 2.333728e+00 2.133617e+00 1.046668e+00
<GCONST> 9.896028e+01
<STATE> 4
<MEAN> 25
 1.132373e+01 3.499988e+00 -5.925050e+00 -1.132940e+01 -7.356488e+00 2.144924e+00 -3.478755e+00 -2.670058e+00 -6.673135e+00 -1.041578e+00 3.037883e+00 -1.725196e+00 -1.074259e-01 -1.527578e+00 -3.868279e-01 3.743183e-02 4.842874e-01 -1.719954e-01 -5.954489e-01 5.532809e-02 3.540234e-01 7.643827e-01 5.160764e-01 -5.699714e-01 9.335558e-01
<VARIANCE> 25
 1.281428e+01 5.246077e+01 3.161432e+01 6.119234e+01 4.318303e+01 7.038070e+01 6.265331e+01 5.971917e+01 8.677734e+01 7.558193e+01 4.919877e+01 3.911061e+01 7.523882e-01 1.865274e+00 1.844497e+00 3.681603e+00 2.972971e+00 5.042089e+00 3.323853e+00 4.642996e+00 4.844762e+00 4.544377e+00 4.497125e+00 2.845602e+00 6.876779e-01
<GCONST> 1.055875e+02
<TRANSP> 5
 0.000000e+00 1.000000e+00 0.000000e+00 0.000000e+00 0.000000e+00
 0.000000e+00 8.492448e-01 1.507552e-01 0.000000e+00 0.000000e+00
 0.000000e+00 0.000000e+00 7.722301e-01 2.277699e-01 0.000000e+00
 0.000000e+00 0.000000e+00 0.000000e+00 8.376557e-01 1.623443e-01
 0.000000e+00 0.000000e+00 0.000000e+00 0.000000e+00 0.000000e+00
<ENDHMM>
~h "y"
<BEGINHMM>
<NUMSTATES> 5
<STATE> 2
<MEAN> 25
 -3.430648e+00 3.743584e+00 7.141781e+00 3.193113e+00 2.041235e+00 1.817574e+00 1.170629e+00 -1.945121e+00 -2.441503e+00 -1.040861e+00 1.024482e+00 -3.438610e+00 1.405930e+00 9.888730e-01 3.069852e+00 -7.247530e-01 -2.409347e+00 -9.968957e-01 -1.459039e+00 -7.409682e-01 -2.486665e+00 -1.615380e-01 6.168155e-01 -1.679766e+00 1.371990e+00
<VARIANCE> 25
 4.408962e+01 3.974552e+01 6.945480e+01 3.796852e+01 6.510106e+01 4.229410e+01 4.952562e+01 3.369255e+01 5.073161e+01 4.287067e+01 3.364284e+01 2.443790e+01 4.543468e+00 4.114691e+00 7.267994e+00 4.187729e+00 6.795615e+00 4.359814e+00 4.287161e+00 4.313929e+00 5.867965e+00 4.885787e+00 3.585274e+00 2.837834e+00 1.667721e+00
<GCONST> 1.098674e+02
<STATE> 3
<MEAN> 25
 3.328493e+00 4.055023e+00 1.609139e+01 -5.358521e-01 -1.007925e+01 -4.494886e+00 -3.572398e+00 -2.168561e+00 -1.055769e+01 -1.350733e+00 6.111470e+00 -5.455833e+00 9.505299e-02 -8.084883e-02 7.050639e-01 -2.889134e-02 -1.963961e+00 -9.117380e-01 -2.324686e-01 2.525267e-01 -9.790955e-01 1.997126e-02 8.124090e-01 -4.707962e-02 9.307882e-01
<VARIANCE> 25
 3.303238e+01 3.500608e+01 8.593452e+01 4.768871e+01 8.129629e+01 3.921624e+01 5.964560e+01 4.795640e+01 6.414934e+01 5.114478e+01 2.963816e+01 3.746676e+01 3.060749e+00 3.851936e+00 6.105061e+00 5.923870e+00 1.096147e+01 4.121422e+00 5.234972e+00 5.540399e+00 6.774776e+00 4.810034e+00 5.318763e+00 2.537572e+00 2.253721e+00
<GCONST> 1.125848e+02
<STATE> 4
<MEAN> 25
 2.774032e+00 9.877950e-01 1.140725e+01 1.027960e+00 -1.411779e+01 -8.911851e+00 -6.543414e+00 -2.146661e+00 -1.212666e+01 -3.048742e+00 5.123550e+00 -5.186594e+00 3.205059e-01 -3.286710e-01 -9.013894e-01 4.063226e-02 5.128677e-01 -2.219801e-01 -3.608313e-01 2.525117e-01 4.300412e-01 2.021697e-01 -3.446070e-01 3.457201e-01 8.930352e-02
<VARIANCE> 25
 1.168164e+01 3.669174e+01 9.283415e+01 6.466800e+01 5.654272e+01 5.999696e+01 4.389186e+01 4.087801e+01 5.771367e+01 7.560943e+01 5.226944e+01 3.254338e+01 5.551770e-01 1.103806e+00 2.688757e+00 2.433478e+00 2.909913e+00 4.076606e+00 2.693999e+00 3.569147e+00 3.769039e+00 3.114150e+00 2.729930e+00 1.523381e+00 4.765471e-01
<GCONST> 1.014215e+02
<TRANSP> 5
 0.000000e+00 1.000000e+00 0.000000e+00 0.000000e+00 0.000000e+00
 0.000000e+00 6.916827e-01 3.083173e-01 0.000000e+00 0.000000e+00
 0.000000e+00 0.000000e+00 7.409215e-01 2.590785e-01 0.000000e+00
 0.000000e+00 0.000000e+00 0.000000e+00 9.082430e-01 9.175706e-02
 0.000000e+00 0.000000e+00 0.000000e+00 0.000000e+00 0.000000e+00
<ENDHMM>
~h "z"
<BEGINHMM>
<NUMSTATES> 5
<STATE> 2
<MEAN> 25
 -2.431618e+00 4.004541e+00 5.289005e+00 1.788832e+00 -5.212582e-01 -7.662162e+00 -1.476295e+00 1.473541e+00 -8.276512e-01 1.458118e-01 -1.155879e+00 -1.249298e+00 -2.333919e+00 1.532373e+00 -6.661391e-01 -1.943939e-02 1.850298e+00 -3.446786e-01 1.262512e+00 -6.838158e-02 8.042192e-01 -4.775020e-01 4.660494e-01 1.121843e-02 2.495658e-01
<VARIANCE> 25
 1.032150e+02 6.796700e+01 7.665544e+01 6.024630e+01 1.173651e+02 1.196526e+02 6.649731e+01 7.074448e+01 6.428087e+01 5.462319e+01 4.335532e+01 3.330944e+01 9.673112e+00 6.574282e+00 5.574471e+00 5.508669e+00 1.024297e+01 6.203817e+00 7.190268e+00 6.727789e+00 6.538495e+00 5.978677e+00 5.442235e+00 3.100401e+00 2.942083e+00
<GCONST> 1.198641e+02
<STATE> 3
<MEAN> 25
 -1.001308e+01 6.818588e+00 -6.671540e-01 -1.505154e+00 5.193117e+00 -6.316109e+00 1.988337e+00 5.089410e-01 2.898063e+00 -3.069755e-01 6.593199e-01 -2.714832e-01 -1.120323e+00 7.839543e-01 -1.252496e+00 -1.453142e-01 7.944454e-01 5.962418e-01 4.946275e-01 -1.120387e-01 5.774858e-01 7.734387e-02 3.270920e-01 1.055885e-01 -6.598505e-02
<VARIANCE> 25
 1.238958e+02 7.202409e+01 5.041149e+01 4.023121e+01 6.383921e+01 1.091805e+02 6.502208e+01 8.344460e+01 5.418147e+01 5.531110e+01 3.691642e+01 2.758531e+01 1.061773e+01 7.092436e+00 3.550470e+00 4.582661e+00 6.561698e+00 6.559762e+00 5.243160e+00 5.943075e+00 5.605154e+00 4.733698e+00 4.146418e+00 2.466787e+00 2.051953e+00
<GCONST> 1.156724e+02
<STATE> 4
<MEAN> 25
 -1.266987e+01 7.976106e+00 -3.248557e+00 1.378976e+00 9.778242e+00 -2.007165e+00 6.250416e+00 1.242226e+00 4.100059e+00 -1.618198e-02 1.351092e+00 1.355434e+00 3.210037e-01 -3.432471e-01 7.297596e-02 1.361368e-01 -3.771615e-02 4.733486e-01 -8.131416e-02 1.432476e-02 3.266321e-03 7.248952e-02 -8.066424e-02 1.365886e-01 -5.403802e-01
<VARIANCE> 25
 5.448431e+01 5.424109e+01 2.279050e+01 4.295197e+01 5.727391e+01 6.701294e+01 4.022741e+01 3.644765e+01 3.334555e+01 2.787204e+01 3.021523e+01 2.228518e+01 1.507998e+00 1.439884e+00 1.173414e+00 1.332046e+00 1.820238e+00 2.011773e+00 2.043162e+00 2.116467e+00 1.900467e+00 1.650290e+00 1.576084e+00 1.611557e+00 5.301154e-01
<GCONST> 9.513943e+01
<TRANSP> 5
 0.000000e+00 1.000000e+00 0.000000e+00 0.000000e+00 0.000000e+00
 0.000000e+00 7.708232e-01 2.291768e-01 0.000000e+00 0.000000e+00
 0.000000e+00 0.000000e+00 7.078635e-01 2.921365e-01 0.000000e+00
 0.000000e+00 0.000000e+00 0.000000e+00 9.426950e-01 5.730503e-02
 0.000000e+00 0.000000e+00 0.000000e+00 0.000000e+00 0.000000e+00
<ENDHMM>
~h "aa"
<BEGINHMM>
<NUMSTATES> 5
<STATE> 2
<MEAN> 25
 4.185765e+00 1.484300e+00 -1.979314e+00 -2.901316e+00 -1.423909e-01 1.090723e+00 -2.660851e+00 -1.238735e+00 4.344999e-01 9.755570e-01 -7.113951e-01 -7.133188e-01 6.765155e-01 -1.195254e+00 -8.631757e-01 -1.943951e+00 -1.638346e-01 2.942672e-01 -6.283866e-01 -2.846105e-01 4.225632e-01 5.569775e-01 -1.613928e-01 -5.788047e-01 1.690444e+00
<VARIANCE> 25
 7.503250e+01 5.469791e+01 4.890553e+01 1.038251e+02 8.050414e+01 9.012449e+01 6.981596e+01 6.233068e+01 6.518822e+01 3.886480e+01 4.953002e+01 3.821363e+01 5.113315e+00 4.658092e+00 3.902154e+00 9.622794e+00 7.378306e+00 7.810886e+00 7.438331e+00 8.218030e+00 6.339052e+00 6.665068e+00 5.774348e+00 4.793309e+00 4.056372e+00
<GCONST> 1.188779e+02
<STATE> 3
<MEAN> 25
 7.714405e+00 -2.629774e+00 -5.782542e+00 -9.578014e+00 -3.261521e-01 3.932032e+00 -1.558349e+00 -3.977497e+00 5.293395e-01 3.464900e+00 5.050264e-02 -2.068497e+00 6.114837e-01 -9.154341e-01 -3.506742e-01 -7.100459e-01 1.254363e-01 9.167432e-01 -3.990929e-02 1.859477e-02 -2.129230e-01 1.584633e-01 4.120352e-02 -6.791707e-01 8.901681e-01
<VARIANCE> 25
 4.419636e+01 4.229772e+01 4.580965e+01 8.556912e+01 6.460145e+01 6.903944e+01 1.150749e+02 7.630991e+01 7.717531e+01 6.174023e+01 6.668899e+01 4.065970e+01 4.411810e+00 3.555441e+00 3.451703e+00 9.107836e+00 4.525931e+00 5.514041e+00 6.110712e+00 5.721942e+00 5.654143e+00 5.842732e+00 5.392250e+00 3.606122e+00 3.101835e+00
<GCONST> 1.161811e+02
<STATE> 4
<MEAN> 25
 8.213749e+00 -6.665204e+00 -7.350559e+00 -1.183204e+01 -1.129360e+00 4.719580e+00 -3.657377e+00 -1.497638e+00 -5.193085e-01 2.206088e+00 -9.821650e-02 -5.153143e+00 -1.752994e-01 9.928150e-02 2.057827e-01 7.107843e-01 1.622021e-01 -4.569839e-01 -9.085429e-02 1.823640e-01 1.792316e-01 3.872290e-04 -2.710835e-01 -9.619817e-04 -3.218780e-01
<VARIANCE> 25
 1.338261e+01 3.471500e+01 2.864669e+01 9.504871e+01 5.766195e+01 9.593822e+01 5.757377e+01 8.202537e+01 6.621793e+01 5.541955e+01 5.436388e+01 3.415500e+01 5.427200e-01 1.427512e+00 1.146813e+00 2.325979e+00 1.648313e+00 2.834993e+00 2.395473e+00 2.476650e+00 2.960574e+00 2.367899e+00 2.288445e+00 2.043706e+00 9.560202e-01
<GCONST> 1.003036e+02
<TRANSP> 5
 0.000000e+00 1.000000e+00 0.000000e+00 0.000000e+00 0.000000e+00
 0.000000e+00 6.379437e-01 3.620563e-01 0.000000e+00 0.000000e+00
 0.000000e+00 0.000000e+00 5.498205e-01 4.501795e-01 0.000000e+00
 0.000000e+00 0.000000e+00 0.000000e+00 9.062201e-01 9.377989e-02
 0.000000e+00 0.000000e+00 0.000000e+00 0.000000e+00 0.000000e+00
<ENDHMM>
~h "ae"
<BEGINHMM>
<NUMSTATES> 5
<STATE> 2
<MEAN> 25
 -1.396897e+00 -1.076614e+00 -6.001797e-01 2.754743e+00 2.165419e+00 3.551847e+00 2.190668e+00 3.306485e+00 3.615108e+00 -9.816867e-02 -2.626566e-01 1.766985e+00 1.177406e-01 -7.349095e-01 -1.017360e-01 -3.250763e-01 -3.011062e-01 -2.472847e-01 4.478156e-01 7.089698e-01 -4.852302e-02 -2.712210e-01 -4.536508e-01 -1.149136e-01 5.678623e-01
<VARIANCE> 25
 2.888516e+01 3.885786e+01 2.252838e+01 3.258054e+01 4.893315e+01 6.585611e+01 4.083037e+01 4.876506e+01 3.656467e+01 2.625028e+01 2.399233e+01 2.773353e+01 1.437737e+00 2.412468e+00 1.461694e+00 1.763723e+00 2.959883e+00 3.542769e+00 2.986147e+00 3.298537e+00 2.492570e+00 2.128971e+00 2.318702e+00 1.834740e+00 1.933369e+00
<GCONST> 9.921455e+01
<STATE> 3
<MEAN> 25
 4.721138e-01 -9.178169e+00 -1.424688e+00 -1.728854e+00 -9.983000e-01 -1.431320e+00 6.894194e+00 6.304654e+00 1.369799e+00 -1.924241e+00 -3.006369e+00 -9.862578e-01 4.684691e-01 -1.023420e+00 -1.475259e-01 -7.005730e-01 -4.758986e-01 -8.280965e-01 3.135518e-01 1.146891e-01 -3.401794e-01 -7.014746e-01 -5.878175e-01 -2.925928e-01 1.524977e+00
<VARIANCE> 25
 4.481076e+01 6.019501e+01 3.110799e+01 3.204081e+01 5.332666e+01 6.325458e+01 6.510423e+01 6.079479e+01 4.182728e+01 3.817917e+01 3.384407e+01 2.792986e+01 1.978324e+00 4.069281e+00 1.851634e+00 2.709894e+00 2.528895e+00 4.259020e+00 3.198147e+00 4.070865e+00 3.108726e+00 2.744534e+00 2.794405e+00 1.964529e+00 4.327886e+00
<GCONST> 1.053396e+02
<STATE> 4
<MEAN> 25
 3.100354e+00 -1.003799e+01 -3.389891e+00 -4.556342e+00 -3.526568e+00 -5.359657e+00 5.298930e+00 6.342788e+00 -2.783978e-02 -4.268671e+00 -5.676399e+00 -1.639617e+00 1.800767e-02 4.350564e-01 6.059849e-02 1.639598e-01 6.453931e-02 7.851304e-03 -2.212676e-01 -1.048468e-01 4.681555e-02 2.512028e-01 2.688691e-02 7.477678e-02 -4.053196e-01
<VARIANCE> 25
 2.350723e+01 4.727525e+01 2.747859e+01 3.289144e+01 3.476359e+01 5.270550e+01 5.178658e+01 6.087005e+01 5.595430e+01 4.017733e+01 3.985785e+01 2.743826e+01 4.530578e-01 8.789560e-01 8.577513e-01 1.239376e+00 1.271381e+00 1.724745e+00 1.735861e+00 1.934686e+00 2.145952e+00 1.685204e+00 1.484569e+00 1.200581e+00 9.124765e-01
<GCONST> 9.295996e+01
<TRANSP> 5
 0.000000e+00 1.000000e+00 0.000000e+00 0.000000e+00 0.000000e+00
 0.000000e+00 7.704931e-01 2.295069e-01 0.000000e+00 0.000000e+00
 0.000000e+00 0.000000e+00 6.845700e-01 3.154300e-01 0.000000e+00
 0.000000e+00 0.000000e+00 0.000000e+00 9.247669e-01 7.523311e-02
 0.000000e+00 0.000000e+00 0.000000e+00 0.000000e+00 0.000000e+00
<ENDHMM>
~h "ah"
<BEGINHMM>
<NUMSTATES> 5
<STATE> 2
<MEAN> 25
 1.100496e+00 2.071203e+00 8.022231e-01 1.714248e+00 2.106035e+00 1.220617e-01 -3.727041e-01 1.812409e-01 1.870811e+00 6.597936e-01 -2.038164e+00 -1.603827e-01 7.558915e-01 -1.008845e+00 -9.515604e-02 -1.225731e+00 -9.249145e-01 -7.606708e-01 -7.573305e-01 1.728573e-01 4.932703e-02 2.730624e-01 -9.398729e-02 -6.337877e-01 1.777053e+00
<VARIANCE> 25
 4.653237e+01 5.028161e+01 4.831253e+01 5.950220e+01 6.480049e+01 8.142505e+01 6.214951e+01 5.009362e+01 5.249528e+01 4.411898e+01 3.672919e+01 2.831518e+01 5.110766e+00 5.742516e+00 4.872544e+00 7.332548e+00 7.114951e+00 8.683382e+00 8.050486e+00 6.996317e+00 5.992974e+00 5.690033e+00 5.255698e+00 3.384318e+00 5.109870e+00
<GCONST> 1.161263e+02
<STATE> 3
<MEAN> 25
 5.186686e+00 -2.884793e+00 2.115503e-01 -3.179653e+00 -2.706520e+00 -2.437772e+00 -4.111320e+00 2.988427e-01 1.595793e+00 2.295830e+00 -1.779886e+00 -3.003131e+00 6.461676e-01 -1.190599e+00 -2.787294e-01 -1.254469e+00 -6.475828e-01 -3.704059e-01 -7.052729e-01 4.728385e-01 -1.420017e-01 2.034869e-01 -4.772551e-02 -6.179702e-01 1.547565e+00
<VARIANCE> 25
 2.671719e+01 5.558693e+01 8.313889e+01 8.122653e+01 7.067217e+01 9.620222e+01 1.045647e+02 7.807186e+01 7.411037e+01 6.569905e+01 5.453681e+01 3.732887e+01 2.626403e+00 4.648565e+00 3.941955e+00 7.121665e+00 5.861218e+00 6.510900e+00 6.912258e+00 7.054101e+00 5.757277e+00 6.106822e+00 5.404591e+00 3.849503e+00 4.872570e+00
<GCONST> 1.175536e+02
<STATE> 4
<MEAN> 25
 5.406670e+00 -6.476331e+00 -2.047806e+00 -6.095558e+00 -3.997813e+00 -3.132659e+00 -4.687075e+00 2.114511e+00 3.581418e-01 1.402203e+00 -2.834597e+00 -4.379354e+00 -1.640110e-02 3.488843e-01 4.310513e-02 3.220484e-01 2.098323e-01 2.030611e-01 1.142382e-01 -1.666750e-02 6.521994e-02 1.933037e-02 -6.683929e-02 2.375045e-01 -4.634332e-01
<VARIANCE> 25
 1.496527e+01 4.220095e+01 4.368533e+01 6.481490e+01 7.536294e+01 9.326549e+01 8.246938e+01 6.230344e+01 8.718259e+01 5.663106e+01 7.057262e+01 4.147045e+01 4.876774e-01 1.216895e+00 9.879206e-01 1.966742e+00 1.813295e+00 2.021145e+00 2.405993e+00 2.424076e+00 2.476197e+00 2.083790e+00 1.870728e+00 1.564351e+00 9.359101e-01
<GCONST> 1.000852e+02
<TRANSP> 5
 0.000000e+00 1.000000e+00 0.000000e+00 0.000000e+00 0.000000e+00
 0.000000e+00 6.766917e-01 3.233083e-01 0.000000e+00 0.000000e+00
 0.000000e+00 0.000000e+00 5.891234e-01 4.108767e-01 0.000000e+00
 0.000000e+00 0.000000e+00 0.000000e+00 8.800373e-01 1.199627e-01
 0.000000e+00 0.000000e+00 0.000000e+00 0.000000e+00 0.000000e+00
<ENDHMM>
~h "ao"
<BEGINHMM>
<NUMSTATES> 5
<STATE> 2
<MEAN> 25
 6.221622e+00 -2.274507e+00 -5.775173e+00 -1.093891e+01 -2.775172e+00 4.297980e+00 1.730244e+00 -1.119509e+00 -8.384631e-01 6.002436e-01 -4.034354e-01 -2.068542e+00 1.049958e+00 -5.000173e-01 -5.782523e-01 -2.053681e+00 -7.815030e-01 9.000014e-01 8.095916e-02 -7.100327e-02 -5.143244e-01 -1.066942e-01 1.329358e-01 -2.936797e-01 8.395823e-01
<VARIANCE> 25
 5.039901e+01 5.657822e+01 4.743500e+01 9.238780e+01 6.781162e+01 6.764342e+01 6.617577e+01 6.517071e+01 6.501244e+01 5.091431e+01 3.423152e+01 3.637971e+01 3.596843e+00 3.390459e+00 1.954306e+00 8.079895e+00 5.363026e+00 3.755090e+00 4.065490e+00 3.939008e+00 4.416549e+00 2.788250e+00 2.416439e+00 2.031429e+00 2.557645e+00
<GCONST> 1.103975e+02
<STATE> 3
<MEAN> 25
 9.876413e+00 -4.033158e+00 -9.315364e+00 -1.599634e+01 -4.545257e+00 6.546825e+00 2.804038e+00 -2.854771e+00 -3.965788e+00 6.682094e-01 8.157843e-01 -2.639865e+00 1.633690e-01 -1.334104e-01 -7.393145e-02 1.339473e-02 -4.302993e-02 4.817698e-01 -3.323537e-01 -3.460899e-02 -1.727797e-01 1.507410e-01 1.341083e-01 8.423989e-02 1.086639e-02
<VARIANCE> 25
 1.944179e+01 5.038262e+01 3.152263e+01 7.737408e+01 6.969586e+01 3.833696e+01 5.542520e+01 8.565619e+01 6.615575e+01 5.001513e+01 3.658332e+01 2.479736e+01 6.038167e-01 1.083550e+00 8.157010e-01 2.369654e+00 1.583338e+00 1.692956e+00 2.229566e+00 2.011466e+00 1.726992e+00 1.820561e+00 1.323710e+00 1.111951e+00 8.370169e-01
<GCONST> 9.597961e+01
<STATE> 4
<MEAN> 25
 5.457132e+00 -5.803872e-01 -5.940736e+00 -1.116062e+01 -1.039495e+00 7.739159e+00 -3.037955e-01 1.625561e-01 2.682782e-01 2.781898e-02 1.282932e+00 -1.043281e-01 -2.115862e-01 1.239959e-01 1.145666e-01 7.606926e-01 2.852644e-01 -2.698263e-01 -1.820634e-01 1.197839e-01 1.924562e-01 1.284883e-01 5.871425e-03 1.177527e-01 -3.590904e-01
<VARIANCE> 25
 3.758177e+01 3.026189e+01 2.724578e+01 1.934878e+02 4.449269e+01 3.677522e+01 4.098167e+01 4.354865e+01 6.677499e+01 4.927852e+01 3.265129e+01 2.566187e+01 4.514050e-01 9.682819e-01 8.118114e-01 2.004787e+00 1.258626e+00 1.811964e+00 1.966317e+00 1.644546e+00 2.020738e+00 1.855483e+00 1.549317e+00 1.406626e+00 4.515134e-01
<GCONST> 9.423328e+01
<TRANSP> 5
 0.000000e+00 1.000000e+00 0.000000e+00 0.000000e+00 0.000000e+00
 0.000000e+00 7.408539e-01 2.591461e-01 0.000000e+00 0.000000e+00
 0.000000e+00 0.000000e+00 7.031381e-01 2.968619e-01 0.000000e+00
 0.000000e+00 0.000000e+00 0.000000e+00 9.047565e-01 9.524348e-02
 0.000000e+00 0.000000e+00 0.000000e+00 0.000000e+00 0.000000e+00
<ENDHMM>
~h "aw"
<BEGINHMM>
<NUMSTATES> 5
<STATE> 2
<MEAN> 25
 7.376568e+00 -4.057775e+00 -8.244395e+00 -8.308105e+00 3.795588e+00 5.468224e+00 -1.218852e-01 -3.760061e-02 2.697707e-01 1.537559e+00 -2.156082e+00 -2.122241e+00 1.492247e+00 -1.164280e+00 -1.012509e+00 -2.496776e+00 -6.527731e-01 7.357219e-01 -8.250835e-01 -4.091995e-01 -1.119244e-02 -1.651348e-01 1.396019e-01 -7.681810e-01 2.063038e+00
<VARIANCE> 25
 4.505720e+01 4.298345e+01 4.736009e+01 1.592977e+02 3.799746e+01 1.005541e+02 6.416744e+01 6.786352e+01 4.046753e+01 2.357866e+01 3.795937e+01 2.753323e+01 2.714885e+00 3.108696e+00 3.668906e+00 6.581243e+00 2.763973e+00 6.860270e+00 4.364918e+00 7.673672e+00 2.986019e+00 2.724343e+00 2.504545e+00 2.250009e+00 4.033563e+00
<GCONST> 1.098749e+02
<STATE> 3
<MEAN> 25
 9.640036e+00 -5.034731e+00 -1.210967e+01 -1.233450e+01 3.381805e-01 5.110162e+00 -2.759646e+00 -3.994673e+00 1.635374e+00 7.605085e-02 5.225207e-01 -2.525529e+00 -2.601255e-01 -1.511586e-01 1.014896e-01 -1.036655e-01 -1.150634e-01 1.101656e-01 1.952472e-02 -2.180769e-01 -4.034559e-02 2.251010e-02 -6.941892e-04 -1.338328e-01 9.413797e-02
<VARIANCE> 25
 1.693745e+01 4.649436e+01 9.241591e+01 1.160673e+02 3.188232e+01 1.448853e+02 5.653780e+01 9.298459e+01 7.815757e+01 4.657488e+01 4.459196e+01 3.390007e+01 4.764203e-01 2.155867e+00 2.017914e+00 3.119392e+00 2.236878e+00 3.924117e+00 4.058193e+00 2.544667e+00 4.215987e+00 2.881664e+00 2.396873e+00 2.142536e+00 1.467069e+00
<GCONST> 1.053124e+02
<STATE> 4
<MEAN> 25
 7.645056e+00 -5.220562e+00 -6.637971e+00 -1.137676e+01 -5.919269e-01 4.709211e+00 -4.330054e+00 -5.763885e+00 -1.254370e-01 -1.276051e+00 -1.188096e+00 -4.162302e+00 3.812406e-02 4.597404e-01 3.111907e-01 3.948419e-01 -2.315967e-01 -1.132452e-01 -3.754323e-01 -1.960889e-01 -8.666822e-02 7.139630e-02 1.158873e-01 2.340353e-01 -4.716495e-01
<VARIANCE> 25
 1.206130e+01 5.795461e+01 1.821604e+01 6.074998e+01 3.048920e+01 4.277000e+01 5.338850e+01 7.378052e+01 5.380058e+01 3.574676e+01 2.544673e+01 3.713527e+01 2.945892e-01 5.361920e-01 7.518983e-01 1.593383e+00 1.270056e+00 1.723446e+00 2.023609e+00 1.672336e+00 1.442834e+00 1.431946e+00 1.463660e+00 1.289793e+00 2.562729e-01
<GCONST> 8.970776e+01
<TRANSP> 5
 0.000000e+00 1.000000e+00 0.000000e+00 0.000000e+00 0.000000e+00
 0.000000e+00 7.543563e-01 2.456437e-01 0.000000e+00 0.000000e+00
 0.000000e+00 0.000000e+00 8.539352e-01 1.460648e-01 0.000000e+00
 0.000000e+00 0.000000e+00 0.000000e+00 9.366313e-01 6.336867e-02
 0.000000e+00 0.000000e+00 0.000000e+00 0.000000e+00 0.000000e+00
<ENDHMM>
~h "ay"
<BEGINHMM>
<NUMSTATES> 5
<STATE> 2
<MEAN> 25
 3.837016e+00 -5.755109e+00 -7.498049e+00 -7.240387e+00 3.710702e+00 3.271279e+00 2.395409e+00 -4.739594e-01 1.969986e-01 8.952367e-02 -2.512161e+00 -3.391237e+00 2.572197e-01 -1.342867e+00 -2.971129e-01 -6.049288e-01 4.773179e-01 3.973080e-01 1.175118e-01 -1.312738e-01 -1.544652e-01 -1.459399e-01 -4.845999e-01 -6.868095e-01 9.588858e-01
<VARIANCE> 25
 4.216278e+01 5.904278e+01 2.685899e+01 1.026580e+02 3.968333e+01 6.123475e+01 3.969069e+01 6.575895e+01 5.081799e+01 3.260264e+01 2.866274e+01 4.908374e+01 1.361608e+00 3.037944e+00 1.777384e+00 4.458835e+00 2.036771e+00 3.293631e+00 2.521336e+00 3.948185e+00 2.855795e+00 1.960744e+00 2.347811e+00 2.340558e+00 2.849559e+00
<GCONST> 1.041782e+02
<STATE> 3
<MEAN> 25
 4.693954e+00 -1.109651e+01 -8.614078e+00 -9.431308e+00 5.268338e+00 2.106696e+00 2.537127e+00 -2.972193e+00 1.384688e+00 -1.353614e+00 -4.219773e+00 -6.039848e+00 -2.228827e-02 -3.100592e-01 3.905180e-01 3.139569e-01 -3.113360e-01 -5.600258e-01 -1.182122e-01 5.284553e-01 3.220910e-01 -3.410218e-01 -4.963444e-01 8.390666e-02 1.074571e-01
<VARIANCE> 25
 2.623653e+01 4.768740e+01 1.904728e+01 7.425993e+01 2.573860e+01 3.710345e+01 4.078104e+01 9.900883e+01 5.437484e+01 3.251880e+01 2.965866e+01 4.488379e+01 3.850009e-01 6.706050e-01 8.104476e-01 1.447139e+00 1.313488e+00 2.162338e+00 1.331845e+00 2.209073e+00 1.552799e+00 1.225361e+00 1.276422e+00 1.366338e+00 3.943241e-01
<GCONST> 9.136720e+01
<STATE> 4
<MEAN> 25
 3.679432e+00 -7.459031e+00 2.947060e+00 -4.268192e+00 -6.963501e+00 -4.751321e+00 7.111493e-01 3.014464e+00 -1.600561e+00 -1.880448e+00 -2.673163e+00 -2.811701e+00 -2.012591e-01 7.741990e-01 9.646252e-01 5.306016e-01 -7.730722e-01 -3.559620e-01 -1.297865e-01 4.485899e-02 -3.933864e-01 1.261718e-01 5.755858e-01 4.085121e-01 -5.682080e-01
<VARIANCE> 25
 1.416912e+01 6.618591e+01 6.230095e+01 5.094052e+01 9.346803e+01 5.020221e+01 3.436764e+01 6.360814e+01 7.586037e+01 3.500507e+01 3.953627e+01 3.442150e+01 2.965886e-01 1.150097e+00 2.197707e+00 1.134422e+00 4.167883e+00 2.281587e+00 2.001562e+00 3.706769e+00 2.408587e+00 1.573728e+00 2.632103e+00 1.781934e+00 4.288926e-01
<GCONST> 9.822269e+01
<TRANSP> 5
 0.000000e+00 1.000000e+00 0.000000e+00 0.000000e+00 0.000000e+00
 0.000000e+00 7.306800e-01 2.693200e-01 0.000000e+00 0.000000e+00
 0.000000e+00 0.000000e+00 8.050563e-01 1.949437e-01 0.000000e+00
 0.000000e+00 0.000000e+00 0.000000e+00 9.066253e-01 9.337469e-02
 0.000000e+00 0.000000e+00 0.000000e+00 0.000000e+00 0.000000e+00
<ENDHMM>
~h "ch"
<BEGINHMM>
<NUMSTATES> 5
<STATE> 2
<MEAN> 25
 1.434564e+00 9.221902e-01 3.121216e+00 1.669663e+00 -7.224787e-01 -1.062476e+00 -1.624319e+00 -4.638826e-01 -1.973778e+00 9.654455e-01 2.340816e+00 1.019939e+00 -1.009244e+00 5.788539e-02 -1.010355e-01 -1.946189e-01 2.892571e-01 4.170320e-01 1.451965e-01 1.271645e-01 3.572145e-01 -1.971660e-01 2.202062e-01 -5.989947e-02 -2.727401e-02
<VARIANCE> 25
 3.488894e+01 2.068719e+01 5.544782e+01 4.637674e+01 3.131401e+01 2.520061e+01 6.841195e+01 3.625119e+01 6.215076e+01 2.700981e+01 4.514087e+01 2.431034e+01 3.109215e+00 4.011434e+00 3.227080e+00 3.657954e+00 3.784030e+00 3.188655e+00 4.947752e+00 3.091358e+00 4.718521e+00 2.870145e+00 3.070679e+00 1.888410e+00 2.774021e+00
<GCONST> 1.048880e+02
<STATE> 3
<MEAN> 25
 -9.760990e+00 1.094527e-01 3.199847e+00 -1.666616e+00 2.676887e+00 1.500016e+00 6.587812e-01 -6.302451e-01 2.200735e+00 -8.303365e-01 1.216686e+00 1.161220e+00 -1.757247e+00 -2.937214e-01 4.771159e-01 -3.243400e-01 -2.856593e-01 -2.193494e-01 4.318881e-01 -3.574368e-01 4.912603e-01 1.317215e-01 1.914497e-01 -1.792986e-01 1.036429e+00
<VARIANCE> 25
 7.159012e+01 3.348393e+01 6.558471e+01 2.934605e+01 4.559530e+01 3.628379e+01 4.634005e+01 3.666957e+01 3.416922e+01 2.689844e+01 2.363818e+01 1.819465e+01 9.665638e+00 3.624449e+00 4.436054e+00 3.477255e+00 4.935324e+00 4.526861e+00 5.182662e+00 3.607266e+00 3.337654e+00 3.131762e+00 2.389045e+00 2.257843e+00 3.666083e+00
<GCONST> 1.066863e+02
<STATE> 4
<MEAN> 25
 -1.029068e+01 -6.457300e-01 3.398543e+00 -5.131339e-01 1.685586e+00 1.424863e+00 4.744392e+00 -2.124059e+00 4.984351e+00 3.537936e-01 8.202467e-01 2.193558e+00 6.535259e-01 -9.339285e-02 -5.268439e-02 2.723706e-01 -1.591665e-01 -6.517801e-02 3.448746e-02 1.472862e-02 4.609425e-03 1.906415e-01 -2.325470e-01 -3.859042e-02 -1.347138e-01
<VARIANCE> 25
 1.220887e+02 1.335225e+01 4.864679e+01 4.526489e+01 2.818628e+01 2.591020e+01 8.129144e+01 2.646765e+01 1.925104e+01 3.521645e+01 2.343261e+01 1.345184e+01 2.324334e+00 9.662365e-01 1.292705e+00 1.132072e+00 2.106867e+00 2.037549e+00 2.800441e+00 1.940537e+00 1.687269e+00 1.943169e+00 1.397073e+00 1.256541e+00 1.341720e+00
<GCONST> 9.396393e+01
<TRANSP> 5
 0.000000e+00 1.000000e+00 0.000000e+00 0.000000e+00 0.000000e+00
 0.000000e+00 7.266915e-01 2.733084e-01 0.000000e+00 0.000000e+00
 0.000000e+00 0.000000e+00 7.449976e-01 2.550024e-01 0.000000e+00
 0.000000e+00 0.000000e+00 0.000000e+00 8.935199e-01 1.064801e-01
 0.000000e+00 0.000000e+00 0.000000e+00 0.000000e+00 0.000000e+00
<ENDHMM>
~h "dh"
<BEGINHMM>
<NUMSTATES> 5
<STATE> 2
<MEAN> 25
 -2.843315e+00 1.631742e+00 -1.095306e+00 4.913570e+00 5.519268e+00 4.882757e+00 2.653788e+00 2.442694e+00 2.671168e+00 1.173345e+00 -1.087385e-01 2.706436e+00 -1.008753e-01 3.706045e-03 -1.564381e-02 9.314717e-02 1.737508e-01 2.326700e-01 1.131187e-01 9.340625e-03 1.065803e-02 5.197913e-03 -8.058249e-02 -3.504734e-04 -1.730121e-01
<VARIANCE> 25
 1.066847e+01 1.267087e+01 1.768886e+01 1.320058e+01 1.893604e+01 3.619903e+01 2.876251e+01 3.049493e+01 3.109149e+01 2.207375e+01 2.125693e+01 1.619599e+01 3.275246e-01 6.022550e-01 7.381246e-01 9.050363e-01 1.201981e+00 1.749068e+00 1.718598e+00 1.713755e+00 1.685013e+00 1.534470e+00 1.460888e+00 1.287001e+00 2.360218e-01
<GCONST> 8.192027e+01
<STATE> 3
<MEAN> 25
 4.552414e-01 4.926295e+00 1.816872e+00 4.977883e+00 4.047499e+00 1.775203e+00 9.355174e-01 -1.314599e+00 4.825493e-01 -1.233011e+00 -3.230879e+00 6.737797e-01 8.988565e-01 7.664506e-01 4.618382e-01 -2.675465e-01 -9.709861e-01 -1.324082e+00 -7.363735e-01 -1.744413e-01 -4.684535e-02 -3.391263e-01 -2.918219e-01 -3.632551e-01 8.729089e-01
<VARIANCE> 25
 2.646453e+01 3.194752e+01 1.962012e+01 2.469171e+01 3.048634e+01 4.380390e+01 3.825449e+01 2.493494e+01 2.579411e+01 1.897157e+01 2.383452e+01 1.774307e+01 2.472434e+00 2.369759e+00 2.149685e+00 2.034878e+00 3.471925e+00 4.082282e+00 3.750899e+00 3.163863e+00 2.192458e+00 2.093421e+00 2.671601e+00 1.928881e+00 1.243477e+00
<GCONST> 9.691785e+01
<STATE> 4
<MEAN> 25
 1.981315e+00 -1.346061e-01 2.209368e+00 2.163958e+00 -3.693067e+00 -4.504897e+00 -3.582730e+00 1.298543e+00 1.875101e+00 -9.632592e-01 -2.026490e-01 2.967691e-01 -3.834163e-02 -1.345028e-01 -4.205799e-02 -1.437062e-02 -1.396734e-02 6.128030e-02 -5.108481e-03 1.046174e-01 1.142369e-01 4.483076e-02 5.956054e-02 3.233989e-02 1.224869e-02
<VARIANCE> 25
 1.869697e+01 5.092418e+01 2.659282e+01 3.304885e+01 1.026483e+02 1.089334e+02 4.728482e+01 5.337423e+01 6.136795e+01 4.531886e+01 3.184855e+01 2.449124e+01 6.409715e-01 1.599296e+00 1.228626e+00 1.571544e+00 2.945513e+00 3.168206e+00 2.151110e+00 2.343460e+00 2.244024e+00 2.015955e+00 1.653721e+00 1.447494e+00 1.661368e+00
<GCONST> 9.875342e+01
<TRANSP> 5
 0.000000e+00 1.000000e+00 0.000000e+00 0.000000e+00 0.000000e+00
 0.000000e+00 9.275258e-01 7.247415e-02 0.000000e+00 0.000000e+00
 0.000000e+00 0.000000e+00 6.927837e-01 3.072163e-01 0.000000e+00
 0.000000e+00 0.000000e+00 0.000000e+00 9.152616e-01 8.473837e-02
 0.000000e+00 0.000000e+00 0.000000e+00 0.000000e+00 0.000000e+00
<ENDHMM>
~h "eh"
<BEGINHMM>
<NUMSTATES> 5
<STATE> 2
<MEAN> 25
 2.216494e+00 -2.195112e+00 -1.013639e+00 1.240639e+00 -6.139133e-01 -2.020784e+00 1.151049e+00 1.015163e+00 1.144865e+00 2.418111e+00 -1.524226e+00 -1.271991e+00 4.825330e-01 -1.286883e+00 3.574743e-01 -3.063047e-01 -9.446301e-01 -8.919717e-01 1.322262e-02 1.197791e+00 -2.132616e-02 -7.945054e-01 -4.296113e-01 -1.765139e-01 1.498737e+00
<VARIANCE> 25
 3.881601e+01 5.947874e+01 4.243850e+01 5.141682e+01 6.379263e+01 6.897251e+01 6.955052e+01 5.521968e+01 6.159422e+01 4.689977e+01 3.430182e+01 2.916323e+01 4.307948e+00 4.597332e+00 3.432760e+00 4.671551e+00 4.939553e+00 5.036809e+00 5.966164e+00 7.153243e+00 4.617812e+00 4.745701e+00 4.125138e+00 3.182320e+00 4.081751e+00
<GCONST> 1.126957e+02
<STATE> 3
<MEAN> 25
 2.907806e+00 -7.237891e+00 2.353524e+00 -1.052985e+00 -5.942500e+00 -5.372993e+00 -1.762037e-01 4.533116e+00 -2.192056e-02 -1.263167e+00 -1.916093e+00 -2.568781e+00 4.691911e-01 -1.125576e+00 4.981759e-01 -6.733023e-01 -1.474054e+00 -8.530576e-01 -1.949700e-01 1.036327e+00 -2.463512e-01 -7.156772e-01 -9.434932e-02 -2.619184e-01 1.580976e+00
<VARIANCE> 25
 2.464168e+01 6.147929e+01 4.883818e+01 5.818344e+01 7.392793e+01 6.608748e+01 8.670760e+01 8.187611e+01 5.027195e+01 4.807357e+01 4.321580e+01 3.028416e+01 2.756877e+00 4.937562e+00 3.348517e+00 4.940516e+00 6.821467e+00 5.589216e+00 5.606788e+00 6.980187e+00 4.420473e+00 4.330507e+00 3.555701e+00 2.672895e+00 4.980885e+00
<GCONST> 1.130852e+02
<STATE> 4
<MEAN> 25
 4.459470e+00 -9.258389e+00 7.463002e-02 -2.470212e+00 -8.227236e+00 -7.572623e+00 9.401526e-01 6.739474e+00 1.514373e-01 -2.555894e+00 -3.299524e+00 -1.461059e+00 6.340452e-02 3.623959e-01 -3.567901e-02 2.406026e-01 2.903429e-01 1.817067e-01 -1.414922e-01 -2.983315e-01 3.925248e-02 7.929395e-02 -5.136060e-02 8.996259e-02 -4.433541e-01
<VARIANCE> 25
 1.767611e+01 5.110191e+01 3.915839e+01 3.455649e+01 6.810553e+01 4.649446e+01 5.965543e+01 6.503550e+01 6.336660e+01 4.308943e+01 3.921269e+01 2.793458e+01 4.268714e-01 1.125271e+00 9.670635e-01 1.132712e+00 1.497202e+00 1.581021e+00 1.792267e+00 2.272697e+00 1.838271e+00 1.507056e+00 1.456726e+00 1.283076e+00 6.917143e-01
<GCONST> 9.409800e+01
<TRANSP> 5
 0.000000e+00 1.000000e+00 0.000000e+00 0.000000e+00 0.000000e+00
 0.000000e+00 5.466673e-01 4.533327e-01 0.000000e+00 0.000000e+00
 0.000000e+00 0.000000e+00 6.554297e-01 3.445703e-01 0.000000e+00
 0.000000e+00 0.000000e+00 0.000000e+00 8.985081e-01 1.014919e-01
 0.000000e+00 0.000000e+00 0.000000e+00 0.000000e+00 0.000000e+00
<ENDHMM>
~h "er"
<BEGINHMM>
<NUMSTATES> 5
<STATE> 2
<MEAN> 25
 7.783284e+00 -9.137372e+00 -3.211526e+00 -1.193845e+00 -5.781678e+00 -7.258816e+00 -8.777698e+00 1.355906e-01 6.883361e-01 1.494519e+00 -2.817515e-01 -1.280101e+00 9.596525e-01 -8.547083e-01 -7.364264e-01 7.943689e-01 -3.681315e-01 -1.147846e+00 -9.032384e-01 5.385441e-01 4.481799e-01 -2.071418e-01 -1.782699e-01 4.819227e-01 3.319660e-01
<VARIANCE> 25
 2.610969e+01 5.376825e+01 6.592900e+01 5.059519e+01 7.351158e+01 6.869250e+01 7.702759e+01 5.356028e+01 5.944315e+01 4.420392e+01 4.654261e+01 2.711642e+01 2.227006e+00 2.772668e+00 2.475454e+00 2.923453e+00 3.905732e+00 3.895761e+00 3.889024e+00 3.552475e+00 3.344182e+00 2.663386e+00 2.819794e+00 2.410282e+00 1.386662e+00
<GCONST> 1.067507e+02
<STATE> 3
<MEAN> 25
 1.060568e+01 -9.862314e+00 -6.973615e+00 4.573911e+00 -5.155683e+00 -1.408551e+01 -1.114834e+01 1.504563e+00 3.235701e+00 -1.492372e+00 -1.136807e+00 2.618576e+00 -9.538805e-02 4.133136e-01 1.672369e-01 5.777237e-01 1.075133e-01 -2.689367e-01 2.140527e-01 2.148021e-01 -9.014051e-02 -4.170408e-01 -3.727119e-02 3.283597e-01 -4.344628e-01
<VARIANCE> 25
 1.426279e+01 3.895744e+01 4.891342e+01 2.496580e+01 7.248131e+01 5.411853e+01 5.422490e+01 4.646707e+01 5.050266e+01 4.619092e+01 3.863859e+01 2.212668e+01 8.404211e-01 1.387388e+00 1.892419e+00 1.869866e+00 2.391384e+00 2.379494e+00 2.149082e+00 2.513370e+00 2.376644e+00 2.591227e+00 1.631811e+00 1.607919e+00 7.289037e-01
<GCONST> 9.729581e+01
<STATE> 4
<MEAN> 25
 5.563784e+00 -3.163148e+00 -2.750515e+00 6.448677e+00 -2.685366e+00 -8.335725e+00 -4.856152e+00 5.316727e+00 2.513826e+00 -2.206027e+00 -7.580127e-01 4.376391e+00 -4.776072e-01 4.389938e-01 3.367305e-01 -4.797131e-03 3.723804e-01 6.539468e-01 4.411751e-01 -1.103530e-01 -5.096090e-02 1.990978e-01 3.542369e-02 -4.026251e-02 -5.842983e-01
<VARIANCE> 25
 3.312699e+01 3.274210e+01 2.635241e+01 1.948679e+01 5.657948e+01 1.056669e+02 5.484444e+01 3.442352e+01 3.641605e+01 3.579659e+01 2.419936e+01 2.169304e+01 5.397996e-01 8.156912e-01 8.542001e-01 1.076778e+00 1.429644e+00 2.197133e+00 1.666457e+00 1.734194e+00 1.828954e+00 1.751616e+00 1.448210e+00 1.254323e+00 4.015197e-01
<GCONST> 9.100323e+01
<TRANSP> 5
 0.000000e+00 1.000000e+00 0.000000e+00 0.000000e+00 0.000000e+00
 0.000000e+00 7.960989e-01 2.039011e-01 0.000000e+00 0.000000e+00
 0.000000e+00 0.000000e+00 7.763326e-01 2.236674e-01 0.000000e+00
 0.000000e+00 0.000000e+00 0.000000e+00 9.055653e-01 9.443476e-02
 0.000000e+00 0.000000e+00 0.000000e+00 0.000000e+00 0.000000e+00
<ENDHMM>
~h "ey"
<BEGINHMM>
<NUMSTATES> 5
<STATE> 2
<MEAN> 25
 4.688711e+00 2.358698e+00 2.344455e+00 2.523491e+00 -4.029754e+00 -1.343230e+00 -2.151918e+00 -2.135139e+00 -7.271576e-02 -1.036776e+00 -2.947693e+00 -2.259741e+00 1.545021e-01 -4.572043e-01 1.034354e+00 -5.186616e-01 -1.354694e+00 -8.886606e-01 -2.668516e-01 8.286393e-01 -6.398648e-03 -1.688614e-01 2.109731e-01 -3.097748e-01 1.091242e+00
<VARIANCE> 25
 3.237805e+01 6.091475e+01 4.433303e+01 2.311588e+01 5.053360e+01 5.674442e+01 4.904516e+01 7.236602e+01 5.673491e+01 3.950343e+01 4.476678e+01 2.872008e+01 3.225053e+00 4.204320e+00 4.913222e+00 2.941704e+00 6.793093e+00 3.828908e+00 5.868993e+00 6.919511e+00 3.946557e+00 4.188287e+00 3.486307e+00 2.675685e+00 2.176811e+00
<GCONST> 1.095322e+02
<STATE> 3
<MEAN> 25
 3.473243e+00 -4.957497e+00 7.853820e+00 -1.300612e+00 -9.533339e+00 -7.431262e+00 -3.708490e+00 3.193523e+00 -1.890074e+00 -9.381261e-01 1.772288e+00 -1.387075e+00 -4.885607e-01 -1.120035e+00 1.706397e+00 -1.085779e+00 -2.550789e+00 -1.265376e+00 -4.602894e-02 1.292154e+00 -1.084247e+00 6.296290e-02 1.335620e+00 -9.461773e-02 1.995778e+00
<VARIANCE> 25
 1.567780e+01 5.423100e+01 5.462115e+01 3.526972e+01 6.514081e+01 7.371236e+01 8.133207e+01 6.848946e+01 5.353290e+01 4.314713e+01 6.202018e+01 2.922288e+01 1.610720e+00 5.806936e+00 5.215680e+00 3.967505e+00 7.539169e+00 5.470148e+00 7.530192e+00 6.520779e+00 5.081843e+00 4.605906e+00 4.977700e+00 2.905535e+00 4.168685e+00
<GCONST> 1.127362e+02
<STATE> 4
<MEAN> 25
 1.433180e+00 -8.492776e-01 1.056161e+01 -1.870805e+00 -1.372398e+01 -5.291072e+00 -1.376562e+00 -3.108369e-01 -5.742751e+00 -3.091548e-01 4.633669e+00 -2.976172e+00 -1.147207e-01 3.427459e-01 -9.998374e-02 2.032769e-01 4.365214e-01 4.100584e-01 6.780034e-02 -3.472567e-01 2.565762e-02 6.610253e-02 -9.424936e-02 4.096198e-03 -4.784061e-01
<VARIANCE> 25
 1.081804e+01 4.343603e+01 5.246727e+01 3.740511e+01 9.349008e+01 5.390138e+01 4.613244e+01 6.207515e+01 4.884695e+01 4.606190e+01 4.049579e+01 2.842657e+01 3.418737e-01 9.811144e-01 1.634508e+00 1.353930e+00 2.393067e+00 1.827670e+00 1.875530e+00 1.962906e+00 2.018995e+00 1.711960e+00 1.517044e+00 1.421174e+00 6.140000e-01
<GCONST> 9.493513e+01
<TRANSP> 5
 0.000000e+00 1.000000e+00 0.000000e+00 0.000000e+00 0.000000e+00
 0.000000e+00 6.538178e-01 3.461822e-01 0.000000e+00 0.000000e+00
 0.000000e+00 0.000000e+00 6.362005e-01 3.637995e-01 0.000000e+00
 0.000000e+00 0.000000e+00 0.000000e+00 9.422008e-01 5.779925e-02
 0.000000e+00 0.000000e+00 0.000000e+00 0.000000e+00 0.000000e+00
<ENDHMM>
~h "hh"
<BEGINHMM>
<NUMSTATES> 5
<STATE> 2
<MEAN> 25
 -2.241059e+00 1.585465e+00 -8.301856e-02 4.729652e+00 5.895472e+00 6.732870e+00 1.974577e+00 3.730248e+00 2.068491e+00 2.110393e+00 -1.110573e+00 2.147480e+00 -1.138739e-01 -6.660955e-02 3.371724e-02 -1.988571e-03 1.453434e-01 2.125461e-01 1.657318e-01 1.327026e-01 5.869953e-02 7.410775e-02 -3.845564e-03 4.616778e-03 -1.210704e-01
<VARIANCE> 25
 1.000409e+01 1.163211e+01 1.625646e+01 1.636014e+01 1.930604e+01 2.980728e+01 2.201031e+01 2.879390e+01 3.601336e+01 2.182482e+01 1.762128e+01 1.566466e+01 3.050944e-01 5.028775e-01 8.190429e-01 9.695125e-01 1.216506e+00 1.488933e+00 1.614091e+00 1.646168e+00 1.864040e+00 1.543854e+00 1.471564e+00 1.314559e+00 2.285053e-01
<GCONST> 8.108813e+01
<STATE> 3
<MEAN> 25
 -4.181283e+00 -1.330014e+00 2.544511e+00 -2.744240e-01 4.477281e+00 5.395645e+00 5.052915e+00 2.490767e+00 2.617702e+00 2.834147e+00 -6.931108e-01 2.104104e+00 -5.868277e-01 -3.526335e-01 8.815348e-01 -1.027717e+00 -5.599700e-01 -7.638312e-01 4.057384e-01 -3.268875e-01 8.918308e-03 -1.470944e-02 2.850221e-01 -1.324917e-02 8.502666e-01
<VARIANCE> 25
 2.371158e+01 2.523033e+01 4.009082e+01 3.427885e+01 4.317946e+01 3.678959e+01 2.834262e+01 4.129764e+01 3.118189e+01 2.974216e+01 2.739534e+01 2.125775e+01 9.813299e-01 1.171195e+00 1.988584e+00 2.459286e+00 2.146077e+00 2.661872e+00 2.690845e+00 2.805141e+00 2.645874e+00 2.226630e+00 1.878540e+00 1.667815e+00 6.894161e-01
<GCONST> 9.523589e+01
<STATE> 4
<MEAN> 25
 -4.047591e+00 -3.854081e-01 3.486340e+00 -2.821965e+00 -1.051655e+00 2.756870e-01 3.545113e-01 -1.785348e+00 -7.653326e-02 8.883733e-02 2.042780e+00 -2.650613e-01 3.340074e-02 -3.905206e-02 6.683728e-02 9.353809e-03 -2.350240e-01 -7.249461e-02 -3.678781e-02 -1.397944e-01 -1.694881e-01 -1.460470e-01 6.235078e-02 -7.389152e-02 1.243626e-01
<VARIANCE> 25
 5.552476e+01 4.466925e+01 7.519672e+01 8.483576e+01 9.828542e+01 5.869960e+01 7.529745e+01 5.554647e+01 7.903106e+01 4.035802e+01 3.717634e+01 3.696295e+01 1.039297e+00 1.259574e+00 1.371537e+00 2.441627e+00 2.448170e+00 2.388878e+00 2.381202e+00 2.388978e+00 2.889065e+00 2.221852e+00 2.113671e+00 1.596789e+00 9.842004e-01
<GCONST> 1.028584e+02
<TRANSP> 5
 0.000000e+00 1.000000e+00 0.000000e+00 0.000000e+00 0.000000e+00
 0.000000e+00 9.148204e-01 8.517955e-02 0.000000e+00 0.000000e+00
 0.000000e+00 0.000000e+00 6.674891e-01 3.325109e-01 0.000000e+00
 0.000000e+00 0.000000e+00 0.000000e+00 8.821954e-01 1.178047e-01
 0.000000e+00 0.000000e+00 0.000000e+00 0.000000e+00 0.000000e+00
<ENDHMM>
~h "ih"
<BEGINHMM>
<NUMSTATES> 5
<STATE> 2
<MEAN> 25
 4.003321e-01 9.777269e-02 5.522335e+00 1.658433e+00 -4.057196e+00 -3.027709e+00 -7.178193e-01 -1.478961e+00 -2.550381e+00 -5.042881e-03 1.570449e+00 -1.159070e+00 5.413929e-01 -1.296801e-01 2.622931e+00 -8.012893e-01 -3.171966e+00 -1.715274e+00 -1.089962e+00 -2.376470e-01 -1.854131e+00 -2.207936e-01 1.066116e+00 -9.917578e-01 1.827492e+00
<VARIANCE> 25
 3.726307e+01 4.913604e+01 7.237242e+01 3.948983e+01 9.055470e+01 8.761696e+01 6.436901e+01 5.326905e+01 6.580329e+01 4.165266e+01 3.805805e+01 2.524573e+01 3.626160e+00 4.449331e+00 6.342208e+00 4.509081e+00 7.788974e+00 7.887719e+00 6.393903e+00 6.445752e+00 7.259173e+00 4.706114e+00 4.038436e+00 2.867725e+00 2.881617e+00
<GCONST> 1.143300e+02
<STATE> 3
<MEAN> 25
 2.000206e+00 1.194715e-02 1.352094e+01 -1.541418e+00 -1.433746e+01 -6.593964e+00 -4.116023e+00 -1.196587e+00 -9.073400e+00 -3.373178e-01 5.433362e+00 -4.250101e+00 8.451639e-02 1.347970e-01 1.045701e+00 -7.176889e-01 -1.496656e+00 -3.270625e-01 -3.528813e-01 4.709870e-02 -1.052260e+00 -1.825275e-01 6.235616e-01 -5.861382e-01 8.509244e-01
<VARIANCE> 25
 1.617746e+01 4.932144e+01 8.064778e+01 3.578877e+01 6.549182e+01 8.097862e+01 4.263733e+01 6.188512e+01 7.094920e+01 6.449609e+01 3.279303e+01 2.639524e+01 1.705857e+00 2.072305e+00 4.471629e+00 3.617862e+00 7.065449e+00 4.689726e+00 4.860906e+00 4.326528e+00 4.694687e+00 4.437365e+00 2.919902e+00 2.331300e+00 2.753356e+00
<GCONST> 1.088029e+02
<STATE> 4
<MEAN> 25
 1.819570e+00 1.135001e-01 1.195923e+01 -2.824275e+00 -1.442412e+01 -7.862089e+00 -4.166447e+00 -2.483718e+00 -9.141024e+00 -1.406068e+00 4.877883e+00 -4.843935e+00 5.460137e-02 1.823192e-01 -6.252310e-01 1.934710e-01 6.572091e-01 2.617911e-01 3.011415e-01 -1.350382e-01 3.420046e-01 1.052884e-01 -4.091315e-01 2.575567e-01 -4.495170e-01
<VARIANCE> 25
 8.001617e+00 4.036503e+01 4.920984e+01 3.650083e+01 5.206559e+01 6.774213e+01 4.229690e+01 4.958936e+01 5.639034e+01 4.823826e+01 3.524449e+01 2.895929e+01 5.129735e-01 9.370893e-01 1.747797e+00 1.670814e+00 2.734247e+00 2.278533e+00 2.116813e+00 2.553462e+00 2.538500e+00 1.994045e+00 1.903809e+00 1.518377e+00 9.283243e-01
<GCONST> 9.633608e+01
<TRANSP> 5
 0.000000e+00 1.000000e+00 0.000000e+00 0.000000e+00 0.000000e+00
 0.000000e+00 7.005997e-01 2.994002e-01 0.000000e+00 0.000000e+00
 0.000000e+00 0.000000e+00 5.512828e-01 4.487172e-01 0.000000e+00
 0.000000e+00 0.000000e+00 0.000000e+00 8.858950e-01 1.141050e-01
 0.000000e+00 0.000000e+00 0.000000e+00 0.000000e+00 0.000000e+00
<ENDHMM>
~h "iy"
<BEGINHMM>
<NUMSTATES> 5
<STATE> 2
<MEAN> 25
 -2.725081e-01 3.866252e-01 9.438529e+00 2.138491e+00 -8.100123e+00 -6.926660e+00 -2.107706e+00 -3.880791e+00 -3.269459e+00 -1.467392e+00 1.826906e+00 -8.413163e-01 2.772741e-01 3.951044e-01 2.379476e+00 -3.132775e-01 -2.395185e+00 -7.813857e-01 -7.127872e-01 -4.679182e-01 -1.562390e+00 -5.119866e-01 1.038692e+00 -7.947941e-01 1.231515e+00
<VARIANCE> 25
 5.001443e+01 5.762988e+01 5.748719e+01 5.234039e+01 8.416793e+01 8.942639e+01 7.822634e+01 4.514509e+01 6.063776e+01 4.801860e+01 3.601409e+01 2.980254e+01 3.570893e+00 4.439048e+00 4.325552e+00 4.557493e+00 6.633584e+00 5.543306e+00 6.595953e+00 5.600720e+00 5.065544e+00 4.589661e+00 3.749620e+00 3.115630e+00 2.079988e+00
<GCONST> 1.132687e+02
<STATE> 3
<MEAN> 25
 1.087804e+00 2.054182e+00 1.589584e+01 4.298180e-01 -1.543375e+01 -7.452055e+00 -4.785408e+00 -4.869893e+00 -8.376663e+00 -1.958901e+00 6.190014e+00 -3.792091e+00 1.102930e-02 4.155246e-01 5.127932e-01 -5.016716e-01 -7.419395e-01 2.187650e-01 -4.627268e-01 -3.266495e-01 -4.891976e-01 -1.547520e-02 4.801244e-01 -4.623562e-01 9.305064e-02
<VARIANCE> 25
 1.219913e+01 3.508955e+01 5.031442e+01 3.267091e+01 6.478707e+01 6.993826e+01 5.172203e+01 7.029675e+01 5.636046e+01 6.839957e+01 3.041898e+01 3.268668e+01 1.010978e+00 1.758080e+00 2.738923e+00 2.626317e+00 4.481786e+00 3.654319e+00 3.522151e+00 3.370081e+00 3.708924e+00 3.228351e+00 2.578187e+00 2.137460e+00 1.683971e+00
<GCONST> 1.037163e+02
<STATE> 4
<MEAN> 25
 -3.133444e-01 4.571440e+00 1.264194e+01 -5.467097e-01 -1.019364e+01 -3.250899e+00 -4.863408e+00 -6.825467e+00 -5.741719e+00 -1.251379e+00 3.282098e+00 -3.469333e+00 -4.216000e-03 2.769140e-02 -5.421372e-01 2.080468e-01 6.404367e-01 3.569515e-01 2.545391e-01 2.414873e-01 2.677703e-01 1.674514e-01 -2.500748e-01 2.523740e-01 -4.913970e-01
<VARIANCE> 25
 8.808481e+00 1.995704e+01 6.064503e+01 3.761716e+01 1.156023e+02 5.869580e+01 3.998756e+01 7.279987e+01 5.850522e+01 4.377178e+01 3.614844e+01 3.925235e+01 3.258234e-01 7.012230e-01 1.265660e+00 1.200952e+00 2.225564e+00 1.686370e+00 1.667445e+00 1.945099e+00 1.805273e+00 1.573576e+00 1.456183e+00 1.378914e+00 4.919685e-01
<GCONST> 9.322669e+01
<TRANSP> 5
 0.000000e+00 1.000000e+00 0.000000e+00 0.000000e+00 0.000000e+00
 0.000000e+00 7.168401e-01 2.831599e-01 0.000000e+00 0.000000e+00
 0.000000e+00 0.000000e+00 6.555248e-01 3.444751e-01 0.000000e+00
 0.000000e+00 0.000000e+00 0.000000e+00 9.408968e-01 5.910314e-02
 0.000000e+00 0.000000e+00 0.000000e+00 0.000000e+00 0.000000e+00
<ENDHMM>
~h "jh"
<BEGINHMM>
<NUMSTATES> 5
<STATE> 2
<MEAN> 25
 -2.934188e+00 3.579538e+00 3.816885e+00 2.162961e-01 4.013463e+00 3.830157e+00 1.237219e+00 2.807740e-01 -1.093826e+00 -1.492696e-01 6.330725e-01 8.596366e-01 -1.166473e+00 -1.538793e-01 -7.818136e-02 -8.072268e-01 2.206996e-01 -7.025337e-02 3.436106e-01 -2.422467e-02 5.449196e-01 -3.348274e-02 1.299445e-01 -3.434332e-02 6.131013e-01
<VARIANCE> 25
 4.677661e+01 2.739199e+01 3.436582e+01 5.594496e+01 4.869090e+01 4.589984e+01 2.880425e+01 3.589878e+01 4.626247e+01 2.839176e+01 2.541854e+01 1.870497e+01 3.871831e+00 2.272358e+00 2.533894e+00 4.318902e+00 3.373502e+00 3.640823e+00 3.366994e+00 2.870293e+00 3.154390e+00 2.585382e+00 2.273629e+00 1.601345e+00 1.761227e+00
<GCONST> 1.019627e+02
<STATE> 3
<MEAN> 25
 -1.116860e+01 1.631940e+00 6.247873e+00 -3.359391e+00 6.968939e-02 6.434587e-01 3.864917e+00 -3.488566e+00 2.246626e+00 -2.365406e-01 1.795986e+00 7.644695e-01 -2.193846e-01 -1.090717e-01 8.834901e-01 4.032374e-01 -7.393698e-01 -6.841602e-01 -3.023591e-02 -7.819889e-01 3.359894e-02 2.057584e-01 -2.252671e-02 2.208601e-01 3.659837e-01
<VARIANCE> 25
 6.447215e+01 5.943669e+01 6.628470e+01 2.176105e+01 6.286197e+01 3.999759e+01 4.101674e+01 3.630024e+01 3.784048e+01 3.226059e+01 1.820632e+01 1.384578e+01 5.783159e+00 1.904849e+00 3.251328e+00 2.088975e+00 3.126730e+00 3.672676e+00 4.428442e+00 3.024722e+00 3.145153e+00 2.224939e+00 1.618043e+00 1.321930e+00 2.382324e+00
<GCONST> 1.021695e+02
<STATE> 4
<MEAN> 25
 -5.823613e+00 -8.037564e-01 7.202766e+00 -3.241262e-01 -2.467816e+00 -1.457724e+00 9.185888e-01 -4.714271e+00 2.153373e+00 -7.430362e-01 9.520707e-01 2.148655e+00 1.019209e+00 -5.453777e-01 -4.851650e-01 3.584085e-01 -3.397065e-01 -3.375710e-01 -3.869219e-01 4.082198e-01 9.923224e-02 -1.234610e-01 4.388924e-02 -6.420350e-02 -1.690778e-01
<VARIANCE> 25
 5.132566e+01 4.672432e+01 5.191593e+01 2.444879e+01 8.633913e+01 1.084002e+02 3.358242e+01 5.404831e+01 4.005849e+01 4.243119e+01 2.709038e+01 1.503505e+01 2.081145e+00 1.761066e+00 2.036061e+00 1.400467e+00 4.806335e+00 3.546182e+00 2.190053e+00 3.007807e+00 2.632657e+00 1.865698e+00 1.554544e+00 1.151205e+00 9.209591e-01
<GCONST> 1.001302e+02
<TRANSP> 5
 0.000000e+00 1.000000e+00 0.000000e+00 0.000000e+00 0.000000e+00
 0.000000e+00 8.322880e-01 1.677120e-01 0.000000e+00 0.000000e+00
 0.000000e+00 0.000000e+00 7.443111e-01 2.556888e-01 0.000000e+00
 0.000000e+00 0.000000e+00 0.000000e+00 8.419108e-01 1.580892e-01
 0.000000e+00 0.000000e+00 0.000000e+00 0.000000e+00 0.000000e+00
<ENDHMM>
~h "ng"
<BEGINHMM>
<NUMSTATES> 5
<STATE> 2
<MEAN> 25
 4.401237e+00 2.059940e+00 6.721724e+00 -4.325985e+00 -1.232262e+01 1.190616e+00 1.353315e+00 -8.346301e+00 -1.209665e+01 2.404619e+00 2.235626e+00 -6.083905e+00 7.516016e-01 3.830166e-01 -1.496243e+00 1.206028e+00 1.272921e+00 4.452651e-01 2.193623e-02 -9.810374e-01 3.605375e-01 4.125849e-01 -7.960426e-01 5.795839e-01 -9.229596e-01
<VARIANCE> 25
 1.060408e+01 3.205881e+01 4.629795e+01 4.306149e+01 3.728518e+01 3.623501e+01 3.186601e+01 6.411969e+01 4.862372e+01 3.316723e+01 4.889953e+01 2.048214e+01 6.231719e-01 7.632101e-01 2.003373e+00 2.949070e+00 3.410075e+00 3.606573e+00 2.989578e+00 2.331704e+00 2.846286e+00 3.492470e+00 1.671253e+00 1.919893e+00 2.800315e-01
<GCONST> 9.617338e+01
<STATE> 3
<MEAN> 25
 7.179346e+00 5.317818e+00 3.228503e+00 1.352223e+00 -7.637855e+00 2.183022e+00 6.974917e-01 -9.843845e+00 -8.237332e+00 1.012873e+00 -7.850506e-01 -2.506860e+00 -6.236831e-02 2.618965e-01 -7.539412e-02 6.150328e-01 1.015817e+00 2.307991e-01 1.235047e-01 1.029516e-01 5.314544e-01 -2.820617e-01 -2.562753e-01 5.454758e-01 -7.010009e-01
<VARIANCE> 25
 1.099241e+01 2.763640e+01 2.902235e+01 2.414574e+01 3.891063e+01 1.891340e+01 2.278707e+01 3.028269e+01 3.151636e+01 1.987476e+01 2.663297e+01 1.779733e+01 9.004070e-01 9.077901e-01 1.529845e+00 1.313279e+00 2.870539e+00 1.847577e+00 1.953358e+00 2.018556e+00 1.872931e+00 1.674762e+00 1.422320e+00 1.571516e+00 3.030637e-01
<GCONST> 8.824454e+01
<STATE> 4
<MEAN> 25
 5.459255e-01 3.661887e+00 1.409967e+00 5.263389e+00 3.738718e+00 5.171983e+00 1.959777e+00 -1.784703e+00 -3.584342e-01 3.970291e-01 -9.368837e-01 1.825827e+00 -3.518673e-01 -9.798766e-02 -1.514498e-01 2.225984e-01 4.787939e-01 7.372682e-02 6.322752e-02 4.679681e-01 4.289154e-01 -4.925969e-02 -4.038263e-03 1.415770e-01 -3.365827e-01
<VARIANCE> 25
 1.988029e+01 1.582314e+01 2.171050e+01 1.546976e+01 3.217500e+01 3.067713e+01 2.507749e+01 4.562394e+01 3.612868e+01 2.106687e+01 2.029235e+01 1.825278e+01 5.728218e-01 6.713081e-01 8.062307e-01 1.163247e+00 1.769125e+00 1.756592e+00 1.653391e+00 1.809933e+00 1.765219e+00 1.442858e+00 1.467416e+00 1.391802e+00 3.656860e-01
<GCONST> 8.585441e+01
<TRANSP> 5
 0.000000e+00 1.000000e+00 0.000000e+00 0.000000e+00 0.000000e+00
 0.000000e+00 7.647121e-01 2.352878e-01 0.000000e+00 0.000000e+00
 0.000000e+00 0.000000e+00 8.155933e-01 1.844067e-01 0.000000e+00
 0.000000e+00 0.000000e+00 0.000000e+00 9.269757e-01 7.302421e-02
 0.000000e+00 0.000000e+00 0.000000e+00 0.000000e+00 0.000000e+00
<ENDHMM>
~h "ow"
<BEGINHMM>
<NUMSTATES> 5
<STATE> 2
<MEAN> 25
 8.442566e+00 -2.971735e+00 -6.505421e+00 -8.597227e+00 -4.048725e+00 4.481152e+00 -5.822766e+00 -5.960619e+00 2.387052e-01 1.601655e+00 5.059029e+00 -3.190114e+00 7.854685e-01 9.831868e-02 -4.073121e-01 -1.594234e+00 -9.541708e-01 1.119575e+00 1.700576e-01 -4.374889e-01 -8.910511e-01 -1.300763e-01 8.709774e-01 1.371439e-01 3.284271e-01
<VARIANCE> 25
 2.515245e+01 3.338174e+01 2.869965e+01 6.094027e+01 4.974022e+01 6.226849e+01 6.333847e+01 9.528947e+01 6.184455e+01 4.015457e+01 6.244605e+01 3.566758e+01 1.645869e+00 1.762828e+00 1.930737e+00 4.400201e+00 4.369786e+00 2.940312e+00 3.696133e+00 3.958959e+00 2.454655e+00 2.634195e+00 2.989748e+00 2.735962e+00 1.563141e+00
<GCONST> 1.052724e+02
<STATE> 3
<MEAN> 25
 1.040736e+01 -1.224532e+00 -6.623211e+00 -1.338089e+01 -6.615833e+00 7.949158e+00 -4.464346e+00 -6.021316e+00 -5.081886e+00 3.778273e-01 6.391644e+00 -5.054424e-01 -1.588760e-02 5.043693e-01 7.789848e-02 -7.111201e-02 7.973182e-02 1.870587e-01 1.129316e-01 3.300251e-02 -3.795869e-01 -2.567543e-01 -1.679382e-01 2.337800e-01 -4.116308e-01
<VARIANCE> 25
 1.637145e+01 3.480059e+01 2.286347e+01 7.700780e+01 4.379388e+01 4.109953e+01 5.378239e+01 9.091374e+01 3.813318e+01 4.741621e+01 3.930970e+01 2.848304e+01 3.925963e-01 1.182008e+00 7.141249e-01 3.067683e+00 1.817366e+00 2.120937e+00 1.953655e+00 2.788653e+00 2.455751e+00 2.871725e+00 1.914946e+00 1.969748e+00 6.878357e-01
<GCONST> 9.624443e+01
<STATE> 4
<MEAN> 25
 6.479623e+00 3.055030e+00 -3.436692e+00 -9.027514e+00 -2.255118e+00 6.214108e+00 -3.447310e+00 6.003463e-02 -3.693285e+00 -2.745899e-01 2.411161e+00 1.782371e+00 -3.112351e-01 5.245255e-02 2.520287e-01 7.715111e-01 4.155515e-01 -2.977861e-01 1.651157e-01 1.160357e-01 4.025569e-01 1.313602e-01 -2.424235e-01 5.077488e-02 -4.351562e-01
<VARIANCE> 25
 3.420844e+01 2.508132e+01 1.832957e+01 1.425483e+02 4.761169e+01 3.091785e+01 4.128630e+01 4.628302e+01 5.951272e+01 3.762532e+01 2.570624e+01 2.688928e+01 3.834332e-01 7.546273e-01 7.330945e-01 1.771289e+00 1.398613e+00 1.637572e+00 1.567284e+00 2.226978e+00 2.279280e+00 1.448924e+00 1.510935e+00 1.228498e+00 4.815286e-01
<GCONST> 9.185397e+01
<TRANSP> 5
 0.000000e+00 1.000000e+00 0.000000e+00 0.000000e+00 0.000000e+00
 0.000000e+00 7.439219e-01 2.560782e-01 0.000000e+00 0.000000e+00
 0.000000e+00 0.000000e+00 7.334178e-01 2.665822e-01 0.000000e+00
 0.000000e+00 0.000000e+00 0.000000e+00 9.130403e-01 8.695979e-02
 0.000000e+00 0.000000e+00 0.000000e+00 0.000000e+00 0.000000e+00
<ENDHMM>
~h "oy"
<BEGINHMM>
<NUMSTATES> 5
<STATE> 2
<MEAN> 25
 6.023575e+00 -9.222549e-01 3.082583e-01 -6.484298e+00 -2.762722e+00 -5.014780e-01 4.505616e+00 -2.833510e+00 -1.399238e+01 -1.193230e+00 -1.817817e+00 9.594030e-01 3.804889e-01 -3.671307e-01 1.853004e-01 -1.528218e+00 -4.865542e-01 -3.358594e-01 -1.477183e-01 -3.252900e-01 -1.148960e+00 -1.436228e-01 3.322375e-01 -5.063421e-01 9.875565e-01
<VARIANCE> 25
 2.234164e+01 3.882938e+01 2.945041e+01 1.282373e+02 3.423053e+01 6.884942e+01 7.158538e+01 5.459927e+01 1.078108e+02 2.975872e+01 2.391166e+01 2.026011e+01 2.979822e+00 2.672215e+00 3.707263e+00 1.104421e+01 8.520963e+00 1.059767e+01 3.963099e+00 2.935844e+00 1.139757e+01 3.645941e+00 3.614162e+00 2.555864e+00 3.154430e+00
<GCONST> 1.110849e+02
<STATE> 3
<MEAN> 25
 6.643013e+00 1.263146e+00 2.214227e+00 -8.513288e+00 -1.663564e+00 7.348999e-01 1.738002e-01 -5.061071e+00 -5.649878e-01 4.464835e+00 2.645882e+00 -5.751602e-01 6.234323e-01 -1.406515e+00 -1.069751e-01 -4.635263e-01 -4.400176e-01 -4.029875e-01 -8.956538e-01 -3.564818e-01 2.196426e-01 1.326230e+00 -1.200423e-01 3.336467e-02 7.867724e-01
<VARIANCE> 25
 8.630914e+01 5.185829e+01 1.293375e+02 8.905356e+01 8.731883e+01 1.179219e+02 8.292545e+01 7.447864e+01 5.707238e+01 8.598190e+01 3.376633e+01 3.715034e+01 7.353859e+00 1.615889e+00 1.152558e+01 1.245382e+01 1.335179e+01 1.165262e+01 5.251853e+00 7.744292e+00 8.000699e+00 4.212009e+00 4.205726e+00 3.564157e+00 1.091395e+00
<GCONST> 1.198127e+02
<STATE> 4
<MEAN> 25
 7.779375e+00 -5.497737e+00 2.070537e+00 -4.810835e+00 -8.291517e+00 -1.973669e+00 -5.267045e+00 6.757805e-01 -3.793228e+00 8.391661e+00 2.078626e+00 -4.228815e+00 -4.220013e-01 5.142560e-01 8.055084e-01 7.951427e-01 -4.324357e-01 -4.041919e-01 4.038565e-01 2.837255e-01 -4.289952e-01 -9.232064e-02 1.335896e-01 1.290104e-01 -3.334204e-01
<VARIANCE> 25
 2.628713e+01 4.038449e+01 9.928542e+01 1.478340e+02 1.137257e+02 9.422631e+01 3.375379e+01 8.061598e+01 1.641401e+02 5.519726e+01 4.033741e+01 4.659219e+01 9.945973e-01 1.299160e+00 2.923962e+00 3.344983e+00 3.699832e+00 4.918187e+00 2.797757e+00 4.727577e+00 3.287656e+00 2.571208e+00 2.980921e+00 2.940467e+00 4.430676e-01
<GCONST> 1.078586e+02
<TRANSP> 5
 0.000000e+00 1.000000e+00 0.000000e+00 0.000000e+00 0.000000e+00
 0.000000e+00 8.234363e-01 1.765638e-01 0.000000e+00 0.000000e+00
 0.000000e+00 0.000000e+00 8.496821e-01 1.503179e-01 0.000000e+00
 0.000000e+00 0.000000e+00 0.000000e+00 9.269328e-01 7.306723e-02
 0.000000e+00 0.000000e+00 0.000000e+00 0.000000e+00 0.000000e+00
<ENDHMM>
~h "sh"
<BEGINHMM>
<NUMSTATES> 5
<STATE> 2
<MEAN> 25
 -4.127100e+00 2.378865e+00 5.396634e+00 1.160922e+00 -6.334237e-01 -4.751786e+00 -3.892460e-01 -2.999943e-02 2.284217e-02 -1.095079e+00 2.825477e+00 5.589489e-01 -2.902673e+00 6.689131e-01 1.885809e-01 8.014681e-02 1.421392e+00 6.001667e-01 9.903974e-01 2.228674e-02 1.267261e+00 -8.406900e-01 7.463642e-01 -1.594879e-01 2.243946e-01
<VARIANCE> 25
 5.552120e+01 3.923386e+01 5.036008e+01 3.302735e+01 4.117118e+01 6.035666e+01 6.633487e+01 3.338588e+01 3.244537e+01 3.446026e+01 3.785134e+01 2.277451e+01 3.552133e+00 2.500945e+00 5.008576e+00 3.651206e+00 3.803067e+00 3.338844e+00 3.138103e+00 3.436277e+00 4.692956e+00 3.258614e+00 4.059958e+00 2.618077e+00 8.988825e-01
<GCONST> 1.053436e+02
<STATE> 3
<MEAN> 25
 -1.504538e+01 2.037228e+00 7.081345e+00 -2.470470e+00 2.298286e+00 7.409442e-01 2.369935e+00 -7.992604e-02 3.685124e+00 -2.280507e+00 5.058112e+00 -3.890897e-01 -2.167969e+00 -1.563115e-01 3.843973e-01 -6.107284e-01 2.070040e-03 9.231377e-01 8.449599e-01 -3.141350e-02 5.064444e-01 1.144670e-01 2.994401e-01 -1.182706e-01 7.129432e-01
<VARIANCE> 25
 2.893186e+01 2.668722e+01 4.865794e+01 3.399448e+01 2.776477e+01 3.874540e+01 7.253935e+01 3.444705e+01 2.629586e+01 3.413444e+01 3.364649e+01 3.057965e+01 4.134716e+00 1.696004e+00 2.623727e+00 1.733590e+00 1.836841e+00 2.403634e+00 2.104908e+00 2.663763e+00 2.410186e+00 2.417939e+00 2.189748e+00 1.561422e+00 1.259006e+00
<GCONST> 9.844120e+01
<STATE> 4
<MEAN> 25
 -1.749087e+01 -4.751990e-01 8.145670e+00 -1.674807e+00 4.624584e-01 1.921196e+00 6.463145e+00 -1.776367e+00 5.171841e+00 -7.913977e-02 3.022743e+00 2.147632e-01 9.663455e-01 -9.262572e-02 1.997169e-01 2.425157e-01 -5.225083e-01 -3.478439e-01 -3.497998e-01 -1.052052e-01 -2.875160e-01 -2.800641e-02 -3.249241e-01 9.658799e-02 -1.940557e-01
<VARIANCE> 25
 4.897712e+01 3.839497e+01 5.993259e+01 2.535369e+01 5.141760e+01 3.558222e+01 4.420279e+01 2.858678e+01 2.508480e+01 2.562090e+01 3.538028e+01 2.014346e+01 3.846224e+00 1.521241e+00 1.733480e+00 1.351120e+00 1.741070e+00 2.539258e+00 2.677435e+00 1.996938e+00 2.240408e+00 1.757868e+00 1.867750e+00 1.401685e+00 7.330461e-01
<GCONST> 9.630375e+01
<TRANSP> 5
 0.000000e+00 1.000000e+00 0.000000e+00 0.000000e+00 0.000000e+00
 0.000000e+00 7.064291e-01 2.935710e-01 0.000000e+00 0.000000e+00
 0.000000e+00 0.000000e+00 6.882533e-01 3.117467e-01 0.000000e+00
 0.000000e+00 0.000000e+00 0.000000e+00 9.117619e-01 8.823807e-02
 0.000000e+00 0.000000e+00 0.000000e+00 0.000000e+00 0.000000e+00
<ENDHMM>
~h "th"
<BEGINHMM>
<NUMSTATES> 5
<STATE> 2
<MEAN> 25
 -3.598429e+00 1.004051e+00 -2.023206e+00 4.993321e+00 5.282624e+00 5.665160e+00 3.503107e+00 2.752809e+00 4.712325e+00 9.172404e-02 -5.774521e-01 2.839153e+00 -3.153432e-01 -2.879861e-02 -3.686603e-03 1.337022e-01 3.630635e-02 2.158045e-01 1.565769e-01 5.791082e-02 1.242830e-01 1.433263e-01 6.958033e-02 1.391210e-01 -1.898150e-01
<VARIANCE> 25
 1.213513e+01 1.167715e+01 1.925820e+01 2.027429e+01 2.262445e+01 3.965863e+01 2.003051e+01 3.389231e+01 2.295151e+01 2.398810e+01 1.970203e+01 1.826667e+01 4.873706e-01 8.660786e-01 1.004654e+00 1.269979e+00 1.177360e+00 1.610550e+00 2.020018e+00 1.932005e+00 1.689116e+00 1.571727e+00 1.398554e+00 1.715697e+00 3.719597e-01
<GCONST> 8.462981e+01
<STATE> 3
<MEAN> 25
 -6.579385e+00 6.731279e-01 -1.465801e+00 4.162568e+00 4.614681e+00 3.728252e+00 3.986783e+00 1.801713e+00 3.216573e+00 1.913916e+00 6.664066e-01 2.715400e+00 1.064974e-01 -1.829279e-01 -1.276382e-01 -7.251604e-01 -6.316699e-01 -1.013825e+00 -2.580526e-01 -2.343108e-02 -7.872536e-02 -1.473540e-01 1.283086e-01 -2.698448e-01 8.459343e-01
<VARIANCE> 25
 1.515026e+01 1.089170e+01 1.997279e+01 2.512626e+01 2.572632e+01 3.112831e+01 2.508913e+01 3.260740e+01 3.028931e+01 2.474712e+01 1.636288e+01 1.929398e+01 2.140808e+00 2.057125e+00 2.068462e+00 4.090925e+00 2.849286e+00 3.460839e+00 2.790833e+00 4.281642e+00 2.473954e+00 3.392204e+00 2.473112e+00 1.900049e+00 3.590737e+00
<GCONST> 9.637847e+01
<STATE> 4
<MEAN> 25
 -2.128912e-01 -2.108035e+00 8.654369e-01 -3.213335e+00 -9.437059e-01 -3.210203e+00 1.425749e+00 2.700253e+00 1.664918e+00 -1.072747e+00 -2.801315e+00 -2.094477e+00 2.442818e-01 -2.394579e-01 -1.766738e-01 -3.574678e-01 -1.627247e-01 -3.588944e-01 -2.138056e-02 -2.100776e-01 -1.160697e-01 -1.251953e-01 -3.970914e-02 -2.348531e-01 5.786150e-01
<VARIANCE> 25
 5.081239e+01 7.399794e+01 4.439926e+01 4.959211e+01 1.146426e+02 6.765188e+01 4.776396e+01 4.477203e+01 4.655252e+01 4.249636e+01 6.730531e+01 2.998201e+01 3.024506e+00 3.444960e+00 2.458879e+00 4.213118e+00 3.831095e+00 6.102909e+00 3.100434e+00 4.387402e+00 3.591895e+00 3.011135e+00 4.623240e+00 2.594536e+00 4.102830e+00
<GCONST> 1.104210e+02
<TRANSP> 5
 0.000000e+00 1.000000e+00 0.000000e+00 0.000000e+00 0.000000e+00
 0.000000e+00 9.291781e-01 7.082187e-02 0.000000e+00 0.000000e+00
 0.000000e+00 0.000000e+00 6.092486e-01 3.907514e-01 0.000000e+00
 0.000000e+00 0.000000e+00 0.000000e+00 8.948194e-01 1.051806e-01
 0.000000e+00 0.000000e+00 0.000000e+00 0.000000e+00 0.000000e+00
<ENDHMM>
~h "uh"
<BEGINHMM>
<NUMSTATES> 5
<STATE> 2
<MEAN> 25
 4.091454e+00 2.409973e+00 1.454338e+00 -1.188722e+00 -5.499582e+00 -5.825890e+00 -7.465162e+00 -4.144855e+00 -3.502157e+00 -5.492361e+00 1.298157e+00 -2.836824e+00 1.462148e+00 1.793422e-01 -4.972371e-01 -1.321420e+00 -1.998455e+00 -4.066696e-01 -1.913725e+00 -1.125296e+00 2.632310e-02 -5.060101e-01 1.244612e+00 -1.455395e-01 9.187815e-01
<VARIANCE> 25
 3.123310e+01 3.857677e+01 8.015348e+01 9.046587e+01 1.071306e+02 1.251219e+02 8.352012e+01 6.072950e+01 6.272664e+01 5.550290e+01 5.545722e+01 4.195042e+01 2.670616e+00 1.971288e+00 1.871725e+00 2.752158e+00 8.102070e+00 5.031905e+00 5.852304e+00 4.336032e+00 3.909234e+00 5.990467e+00 1.842777e+00 2.857321e+00 2.007639e+00
<GCONST> 1.116257e+02
<STATE> 3
<MEAN> 25
 6.042652e+00 -2.509754e+00 -1.874855e+00 -2.628486e+00 -1.097366e+01 -6.621205e+00 -9.979367e+00 -5.851309e+00 -3.401303e-02 -6.994935e+00 5.807755e+00 -1.798348e+00 1.316550e-01 -2.475763e-01 -5.761655e-02 -4.030101e-01 -4.906976e-03 6.184584e-01 -5.585157e-01 -1.772830e-01 1.933374e-01 4.483876e-01 2.089532e-01 1.902663e-01 -9.056489e-02
<VARIANCE> 25
 1.578314e+01 4.768958e+01 4.959269e+01 7.635872e+01 6.149229e+01 1.171246e+02 1.013086e+02 4.203473e+01 8.284225e+01 5.722303e+01 3.765807e+01 1.883395e+01 2.367927e-01 6.493758e-01 1.310970e+00 1.490694e+00 1.852983e+00 2.432063e+00 2.014040e+00 1.257114e+00 2.071505e+00 1.557501e+00 1.735708e+00 1.525602e+00 6.301518e-01
<GCONST> 9.599234e+01
<STATE> 4
<MEAN> 25
 6.635109e+00 2.470591e+00 -3.493557e+00 -9.848745e+00 -2.958660e+00 2.055576e+00 -1.242048e+01 -8.715324e+00 -2.523814e+00 -2.366638e-01 5.299638e+00 -1.037143e+00 -2.464549e-01 1.186580e-01 1.657385e-01 5.486760e-01 2.611030e-01 4.756426e-02 3.719373e-01 3.070422e-01 3.116329e-01 8.352036e-02 -1.703221e-01 2.432904e-01 -5.748354e-01
<VARIANCE> 25
 1.080954e+01 3.077587e+01 2.660212e+01 1.210126e+02 4.482382e+01 7.591512e+01 5.008160e+01 6.503603e+01 8.642810e+01 4.467685e+01 4.020277e+01 3.506698e+01 2.901934e-01 1.096055e+00 1.020179e+00 2.219094e+00 1.650680e+00 2.388344e+00 2.380288e+00 2.452906e+00 3.340300e+00 1.955353e+00 2.134416e+00 1.664773e+00 8.913572e-01
<GCONST> 9.739925e+01
<TRANSP> 5
 0.000000e+00 1.000000e+00 0.000000e+00 0.000000e+00 0.000000e+00
 0.000000e+00 6.256497e-01 3.743503e-01 0.000000e+00 0.000000e+00
 0.000000e+00 0.000000e+00 7.764359e-01 2.235641e-01 0.000000e+00
 0.000000e+00 0.000000e+00 0.000000e+00 9.113157e-01 8.868425e-02
 0.000000e+00 0.000000e+00 0.000000e+00 0.000000e+00 0.000000e+00
<ENDHMM>
~h "uw"
<BEGINHMM>
<NUMSTATES> 5
<STATE> 2
<MEAN> 25
 3.063374e-01 1.247491e+00 3.093248e+00 1.162238e-02 7.084709e-01 -3.269848e+00 -5.300339e+00 -2.140807e+00 2.001145e-01 4.635713e-01 1.157435e+00 -6.590375e-01 1.580041e+00 1.959356e-01 6.835369e-01 -5.320222e-01 -1.451833e+00 -3.784819e-01 -2.460801e+00 -1.309448e+00 -8.320387e-01 -1.399022e-02 7.938672e-01 -6.758600e-01 1.416975e+00
<VARIANCE> 25
 6.980415e+01 2.910233e+01 4.531491e+01 5.590349e+01 6.094722e+01 7.885491e+01 9.985886e+01 7.137384e+01 5.841043e+01 5.150004e+01 4.259140e+01 3.510270e+01 5.989164e+00 3.550151e+00 5.479898e+00 6.535647e+00 6.123770e+00 8.849409e+00 8.750232e+00 7.529442e+00 6.009549e+00 6.473219e+00 4.696117e+00 3.911224e+00 5.123300e+00
<GCONST> 1.170902e+02
<STATE> 3
<MEAN> 25
 6.864819e+00 2.192701e+00 2.867073e+00 -1.908412e+00 -4.775171e+00 -6.647083e-01 -1.298137e+01 -5.338983e+00 -4.590011e+00 -1.016731e-01 4.593158e+00 -3.072506e+00 3.841530e-01 1.553655e-01 -3.698384e-01 -1.696291e-02 8.794138e-02 3.505351e-01 1.023062e-01 -9.605567e-02 -4.294321e-01 -2.320391e-01 1.396183e-01 6.910264e-03 -3.437257e-01
<VARIANCE> 25
 1.465861e+01 2.944435e+01 3.830832e+01 7.400742e+01 6.203378e+01 8.311033e+01 6.449747e+01 5.872295e+01 8.107941e+01 5.905562e+01 6.616441e+01 4.266269e+01 8.721292e-01 1.752665e+00 1.936355e+00 4.740565e+00 3.528870e+00 3.989059e+00 4.923500e+00 3.330081e+00 3.927470e+00 3.952879e+00 2.975772e+00 2.884439e+00 1.216199e+00
<GCONST> 1.063418e+02
<STATE> 4
<MEAN> 25
 4.547862e+00 4.152878e+00 -3.974857e-01 -1.363073e-01 -1.614428e+00 1.150001e+00 -6.748113e+00 -4.673043e+00 -4.245528e+00 -1.825483e+00 2.623211e+00 4.251304e-01 -2.346019e-01 2.486368e-02 -7.623488e-02 2.507872e-01 3.341321e-01 1.530744e-01 4.007418e-01 2.153646e-01 3.918919e-01 3.300084e-02 -2.595675e-01 2.168149e-01 -4.189454e-01
<VARIANCE> 25
 3.091011e+01 2.560350e+01 3.374789e+01 6.743449e+01 5.630422e+01 6.553722e+01 5.547312e+01 5.094942e+01 7.875632e+01 3.549395e+01 3.318586e+01 2.808885e+01 4.706497e-01 6.946494e-01 8.133553e-01 1.465420e+00 1.375525e+00 1.490305e+00 1.816964e+00 1.729169e+00 1.761146e+00 1.512405e+00 1.408628e+00 1.359474e+00 2.814375e-01
<GCONST> 9.256585e+01
<TRANSP> 5
 0.000000e+00 1.000000e+00 0.000000e+00 0.000000e+00 0.000000e+00
 0.000000e+00 7.519700e-01 2.480301e-01 0.000000e+00 0.000000e+00
 0.000000e+00 0.000000e+00 6.941870e-01 3.058130e-01 0.000000e+00
 0.000000e+00 0.000000e+00 0.000000e+00 9.346664e-01 6.533361e-02
 0.000000e+00 0.000000e+00 0.000000e+00 0.000000e+00 0.000000e+00
<ENDHMM>
~h "zh"
<BEGINHMM>
<NUMSTATES> 5
<STATE> 2
<MEAN> 25
 -1.376902e+01 -2.716539e+00 1.152930e+01 -4.670122e+00 -5.985231e+00 -9.974590e+00 5.272937e+00 -5.935268e+00 1.351988e+00 -4.716303e+00 6.564191e+00 -2.918124e+00 -9.530630e-01 3.337370e-01 5.612797e-01 -1.021257e-01 6.612530e-02 -1.812170e-01 6.690944e-01 -2.650047e-01 6.707740e-01 -4.092010e-01 -1.419479e-01 2.950486e-01 9.794152e-02
<VARIANCE> 25
 8.654733e+01 1.725100e+01 2.607967e+01 1.243908e+01 2.435064e+01 3.267515e+01 5.471613e+01 3.458667e+01 8.075977e+01 1.750165e+01 2.867673e+01 1.167280e+01 1.067119e+01 1.868632e+00 2.123351e+00 1.023157e+00 3.099708e+00 3.704416e+00 7.408199e+00 2.174516e+00 8.724692e+00 2.478282e+00 3.451228e+00 2.079842e+00 7.260389e-01
<GCONST> 1.000429e+02
<STATE> 3
<MEAN> 25
 -7.035155e+00 -4.911946e+00 9.425256e+00 -2.148925e+00 -1.194695e+01 -1.206602e+01 1.076219e+00 -5.354230e+00 6.047578e-01 -2.587181e+00 3.313717e+00 -1.156830e+00 1.544356e+00 -1.333465e+00 -1.462705e+00 5.540775e-02 -5.453660e-02 -5.316790e-01 -4.171286e-01 1.057483e+00 1.571266e-01 -1.217058e-01 1.490925e-01 -3.429775e-01 2.344744e-01
<VARIANCE> 25
 1.436167e+02 3.729557e+01 3.825489e+01 1.483001e+01 2.709894e+01 1.006688e+02 5.598872e+01 5.054450e+01 6.291435e+01 5.178335e+01 3.231554e+01 2.006046e+01 3.091137e+00 1.325012e+00 1.864339e+00 1.021846e+00 2.209779e+00 5.010175e+00 6.152237e+00 1.965233e+00 2.891314e+00 4.132147e+00 2.869290e+00 1.250914e+00 7.260364e-01
<GCONST> 1.016859e+02
<STATE> 4
<MEAN> 25
 6.963980e+00 -9.174784e+00 -2.978012e+00 -3.077454e+00 -8.468948e+00 -9.122111e+00 -4.129332e-01 -6.009048e+00 -2.215178e+00 -2.511755e+00 -1.706057e+00 -4.372240e+00 1.041515e-01 4.221878e-01 -1.751813e-01 1.659834e-01 4.252354e-01 9.027025e-01 2.357111e-02 -6.863718e-01 3.850654e-02 3.205539e-01 -4.292980e-01 -3.912170e-01 -5.408965e-01
<VARIANCE> 25
 9.476886e+00 3.950240e+01 1.453596e+01 1.240462e+01 9.987064e+00 1.109102e+02 8.561556e+00 1.059492e+02 3.509067e+02 9.029570e+01 2.454024e+01 6.137891e+01 2.516415e-01 6.527229e-01 6.896716e-01 6.636083e-01 6.091782e-01 2.102507e+00 7.118698e-01 3.387660e+00 2.089710e+00 1.200590e+00 1.043656e+00 1.276943e+00 2.454115e-01
<GCONST> 8.691012e+01
<TRANSP> 5
 0.000000e+00 1.000000e+00 0.000000e+00 0.000000e+00 0.000000e+00
 0.000000e+00 9.283296e-01 7.167034e-02 0.000000e+00 0.000000e+00
 0.000000e+00 0.000000e+00 8.952673e-01 1.047327e-01 0.000000e+00
 0.000000e+00 0.000000e+00 0.000000e+00 9.240050e-01 7.599495e-02
 0.000000e+00 0.000000e+00 0.000000e+00 0.000000e+00 0.000000e+00
<ENDHMM>
~h "sil"
<BEGINHMM>
<NUMSTATES> 5
<STATE> 2
<MEAN> 25
 -2.720382e+00 2.278726e+00 8.715248e-02 4.898716e+00 7.094999e+00 8.300103e+00 2.807747e+00 4.038630e+00 2.067073e+00 2.491854e+00 -9.141496e-02 2.974880e+00 -2.343401e-02 -3.383178e-02 -3.448962e-02 -4.796524e-03 -1.640826e-02 2.780272e-02 -2.287677e-02 -2.485685e-03 -1.122936e-02 -3.310326e-02 -4.017325e-02 4.197471e-03 -4.513679e-02
<VARIANCE> 25
