~o
<STREAMINFO> 1 25
<VECSIZE> 25<NULLD><MFCC_D_N_Z_0><DIAGC>
~h "b"
<BEGINHMM>
<NUMSTATES> 5
<STATE> 2
<MEAN> 25
 3.073130e+00 -1.601313e+00 1.030416e+00 3.770958e-01 -9.742527e-01 -2.038900e-01 -5.718828e-01 2.379065e+00 -3.151211e-01 3.439487e+00 -1.750030e+00 -1.339176e+00 -7.842021e-02 2.243927e-02 1.237210e-01 1.037606e-02 -8.370344e-02 3.249424e-02 1.166598e-01 1.552211e-02 3.349883e-02 2.231975e-02 8.624277e-02 3.329988e-02 -7.943623e-02
<VARIANCE> 25
 4.539625e+01 3.216501e+01 6.352190e+01 2.928446e+01 5.513102e+01 2.542796e+01 5.018032e+01 8.897025e+01 3.831939e+01 3.621778e+01 5.131342e+01 2.950728e+01 1.104489e+00 1.755246e+00 1.776582e+00 1.457912e+00 1.668960e+00 1.605461e+00 2.142836e+00 3.364739e+00 1.730903e+00 2.142108e+00 2.231442e+00 1.421821e+00 1.924664e+00
<GCONST> 9.866382e+01
<STATE> 3
<MEAN> 25
 2.642201e+00 -1.462193e+00 1.582859e+00 4.533199e-01 -1.321253e+00 -3.249281e-02 1.288763e-02 2.425816e+00 -1.165532e-01 3.498265e+00 -1.323923e+00 -1.150899e+00 -1.406882e-01 5.173018e-02 9.696876e-02 3.265643e-02 -4.136392e-02 5.557459e-02 1.612619e-01 -2.349483e-02 7.378691e-02 -1.980629e-02 1.041692e-01 7.054285e-02 -1.755429e-01
<VARIANCE> 25
 4.495308e+01 2.998162e+01 6.528078e+01 2.687209e+01 5.478239e+01 2.538698e+01 5.061815e+01 8.504794e+01 3.844321e+01 3.485109e+01 5.026189e+01 2.870331e+01 9.742070e-01 1.546586e+00 1.783459e+00 1.349296e+00 1.639140e+00 1.554460e+00 2.063177e+00 3.161818e+00 1.674704e+00 2.041653e+00 2.185703e+00 1.342147e+00 1.698217e+00
<GCONST> 9.763651e+01
<STATE> 4
<MEAN> 25
 1.779463e+00 -1.154084e+00 1.890609e+00 6.739813e-01 -1.333764e+00 2.380227e-01 7.974737e-01 2.158958e+00 3.579399e-01 3.237365e+00 -7.758150e-01 -7.313036e-01 -2.013150e-01 7.442890e-02 3.626590e-02 5.371829e-02 2.016689e-02 8.161634e-02 1.995153e-01 -4.673714e-02 1.172891e-01 -7.184266e-02 1.069793e-01 1.044866e-01 -2.704445e-01
<VARIANCE> 25
 4.494379e+01 2.703951e+01 6.401672e+01 2.468232e+01 5.390809e+01 2.563407e+01 5.117671e+01 8.023820e+01 3.874942e+01 3.408824e+01 4.683865e+01 2.755188e+01 8.074217e-01 1.274491e+00 1.724741e+00 1.212679e+00 1.599909e+00 1.460689e+00 1.976686e+00 2.891590e+00 1.607618e+00 1.915673e+00 2.052935e+00 1.230775e+00 1.368197e+00
<GCONST> 9.603906e+01
<TRANSP> 5
 0.000000e+00 1.000000e+00 0.000000e+00 0.000000e+00 0.000000e+00
 0.000000e+00 7.833399e-01 2.166602e-01 0.000000e+00 0.000000e+00
 0.000000e+00 0.000000e+00 7.833399e-01 2.166601e-01 0.000000e+00
 0.000000e+00 0.000000e+00 0.000000e+00 9.137380e-01 8.626201e-02
 0.000000e+00 0.000000e+00 0.000000e+00 0.000000e+00 0.000000e+00
<ENDHMM>
~h "d"
<BEGINHMM>
<NUMSTATES> 5
<STATE> 2
<MEAN> 25
 1.565148e+00 9.003526e-02 1.542360e+00 1.008634e+00 -5.342626e-01 -5.652990e-01 -1.851480e+00 4.319554e-01 -8.329427e-01 7.197766e-01 -6.639279e-01 -9.078485e-02 1.923336e-02 -1.350582e-02 -1.183404e-02 1.738367e-03 5.886857e-03 8.961739e-03 1.228101e-02 1.675509e-02 1.054832e-02 2.546862e-02 -1.498934e-02 -1.434126e-02 5.303524e-03
<VARIANCE> 25
 4.522315e+01 3.604969e+01 6.159172e+01 4.376840e+01 6.550838e+01 3.587232e+01 7.071751e+01 7.071297e+01 4.851039e+01 3.519149e+01 3.640114e+01 2.560618e+01 1.566295e+00 1.977347e+00 1.946253e+00 2.109126e+00 3.054260e+00 2.213073e+00 3.030754e+00 3.266789e+00 2.289280e+00 2.252662e+00 1.986483e+00 1.451769e+00 2.464288e+00
<GCONST> 1.021499e+02
<STATE> 3
<MEAN> 25
 1.645170e+00 3.177460e-02 1.496443e+00 1.021629e+00 -5.093576e-01 -5.260240e-01 -1.787422e+00 5.079141e-01 -7.815603e-01 8.387814e-01 -7.280923e-01 -1.538684e-01 1.202440e-02 -1.114146e-02 -3.214538e-03 5.303357e-03 1.967476e-03 8.989268e-03 2.128078e-02 1.684045e-02 1.376136e-02 2.639366e-02 -1.001779e-02 -1.156979e-02 -2.541527e-03
<VARIANCE> 25
 4.523211e+01 3.600372e+01 6.094439e+01 4.289120e+01 6.505724e+01 3.516642e+01 6.966903e+01 7.186429e+01 4.787223e+01 3.566065e+01 3.750915e+01 2.599750e+01 1.541635e+00 1.968790e+00 1.941656e+00 2.066642e+00 2.976986e+00 2.184950e+00 2.988123e+00 3.278129e+00 2.259698e+00 2.236204e+00 1.996546e+00 1.458502e+00 2.433372e+00
<GCONST> 1.020223e+02
<STATE> 4
<MEAN> 25
 1.670317e+00 -6.121895e-02 1.397949e+00 1.070319e+00 -4.011667e-01 -4.807577e-01 -1.644504e+00 4.638173e-01 -6.902997e-01 9.613997e-01 -8.296952e-01 -2.037662e-01 -3.975630e-05 -7.260107e-03 3.987320e-03 8.962142e-03 -5.629240e-04 9.536918e-03 3.345643e-02 1.446024e-02 1.911479e-02 2.588367e-02 -2.992831e-03 -6.734640e-03 -1.579568e-02
<VARIANCE> 25
 4.484236e+01 3.556060e+01 5.949955e+01 4.211803e+01 6.471701e+01 3.422724e+01 6.839375e+01 7.470398e+01 4.726966e+01 3.643819e+01 3.826377e+01 2.592842e+01 1.490775e+00 1.917796e+00 1.918843e+00 1.999206e+00 2.844247e+00 2.137296e+00 2.945424e+00 3.298342e+00 2.225315e+00 2.192933e+00 1.978953e+00 1.454225e+00 2.317403e+00
<GCONST> 1.016970e+02
<TRANSP> 5
 0.000000e+00 1.000000e+00 0.000000e+00 0.000000e+00 0.000000e+00
 0.000000e+00 7.833900e-01 2.166100e-01 0.000000e+00 0.000000e+00
 0.000000e+00 0.000000e+00 7.833896e-01 2.166105e-01 0.000000e+00
 0.000000e+00 0.000000e+00 0.000000e+00 9.138670e-01 8.613298e-02
 0.000000e+00 0.000000e+00 0.000000e+00 0.000000e+00 0.000000e+00
<ENDHMM>
~h "f"
<BEGINHMM>
<NUMSTATES> 5
<STATE> 2
<MEAN> 25
 2.032180e+00 3.482726e-01 1.172968e-01 -4.050030e-01 -8.250936e-01 -1.254068e+00 -2.842652e+00 5.312564e-02 -1.355091e+00 1.462339e-01 2.228478e-01 -1.383588e+00 -1.975109e-02 -3.220456e-02 -5.001916e-02 -8.896477e-03 -1.707181e-02 2.832144e-02 3.276836e-02 1.333143e-02 -3.616483e-03 1.113428e-02 -1.644300e-02 1.627114e-02 -6.794452e-03
<VARIANCE> 25
 6.442162e+01 3.147614e+01 6.311732e+01 5.432684e+01 5.873757e+01 5.825406e+01 6.456358e+01 4.635481e+01 4.462688e+01 2.982922e+01 3.573261e+01 2.723267e+01 1.920910e+00 1.316823e+00 1.398112e+00 1.916129e+00 2.233170e+00 2.361001e+00 2.384432e+00 2.113190e+00 2.074719e+00 1.519547e+00 1.728533e+00 1.355989e+00 1.240403e+00
<GCONST> 9.932639e+01
<STATE> 3
<MEAN> 25
 1.931814e+00 1.959356e-01 -1.257025e-01 -4.447804e-01 -9.016255e-01 -1.127867e+00 -2.669984e+00 1.297851e-01 -1.368287e+00 1.976850e-01 1.447732e-01 -1.287366e+00 -2.057550e-02 -3.289139e-02 -4.953650e-02 -4.792766e-03 -1.337050e-02 2.438035e-02 3.750121e-02 2.017733e-02 -2.220814e-03 1.072249e-02 -1.886501e-02 1.923768e-02 -5.168594e-03
<VARIANCE> 25
 6.536890e+01 3.116213e+01 6.093042e+01 5.254541e+01 5.774459e+01 5.867699e+01 6.272660e+01 4.629601e+01 4.499731e+01 2.998663e+01 3.509547e+01 2.684850e+01 1.955286e+00 1.303543e+00 1.377123e+00 1.916806e+00 2.227154e+00 2.352757e+00 2.360487e+00 2.082094e+00 2.106152e+00 1.528863e+00 1.713895e+00 1.353605e+00 1.195517e+00
<GCONST> 9.913949e+01
<STATE> 4
<MEAN> 25
 1.701382e+00 -7.132644e-03 -5.296905e-01 -4.789515e-01 -8.599362e-01 -1.166168e+00 -2.303344e+00 2.443167e-01 -1.307458e+00 1.678269e-01 -2.929018e-02 -9.747047e-01 -1.904976e-02 -2.904611e-02 -3.859207e-02 1.103862e-04 -8.368189e-03 1.778408e-02 3.767405e-02 1.955594e-02 -4.181211e-03 1.152312e-02 -1.786893e-02 2.302374e-02 -1.611186e-03
<VARIANCE> 25
 6.734979e+01 2.885792e+01 5.216373e+01 4.837206e+01 5.559361e+01 6.188602e+01 5.888379e+01 4.696037e+01 4.420248e+01 2.977739e+01 3.215351e+01 2.505253e+01 1.965508e+00 1.252057e+00 1.315190e+00 1.838843e+00 2.192552e+00 2.348460e+00 2.341606e+00 1.997370e+00 2.120766e+00 1.537889e+00 1.647465e+00 1.323155e+00 1.066839e+00
<GCONST> 9.828609e+01
<TRANSP> 5
 0.000000e+00 1.000000e+00 0.000000e+00 0.000000e+00 0.000000e+00
 0.000000e+00 7.959221e-01 2.040779e-01 0.000000e+00 0.000000e+00
 0.000000e+00 0.000000e+00 7.959221e-01 2.040778e-01 0.000000e+00
 0.000000e+00 0.000000e+00 0.000000e+00 9.289772e-01 7.102277e-02
 0.000000e+00 0.000000e+00 0.000000e+00 0.000000e+00 0.000000e+00
<ENDHMM>
~h "k"
<BEGINHMM>
<NUMSTATES> 5
<STATE> 2
<MEAN> 25
 -5.230982e+00 -2.169511e+00 -1.970433e+00 2.457407e-01 1.782881e+00 7.915419e-01 3.655333e+00 -3.891589e-01 3.011928e+00 -1.413792e+00 1.426825e+00 8.692706e-01 4.090399e-02 -1.912965e-03 -1.133822e-02 -1.036761e-03 -7.426527e-03 -7.429505e-03 1.115089e-02 4.593963e-02 3.940613e-03 1.922504e-02 -1.020541e-02 -5.117507e-03 4.137926e-02
<VARIANCE> 25
 3.232668e+01 1.697573e+01 3.215773e+01 1.758611e+01 3.306955e+01 2.028116e+01 3.568943e+01 2.962076e+01 2.431497e+01 2.434618e+01 1.489609e+01 1.381450e+01 8.244479e-01 6.023589e-01 1.049755e+00 9.037312e-01 1.542433e+00 1.230633e+00 1.743049e+00 1.615161e+00 1.534785e+00 1.484625e+00 1.239316e+00 1.177320e+00 7.194263e-01
<GCONST> 8.556967e+01
<STATE> 3
<MEAN> 25
 -4.927845e+00 -2.189221e+00 -2.039761e+00 2.200854e-01 1.719751e+00 7.022687e-01 3.658228e+00 -1.606443e-01 2.965546e+00 -1.305184e+00 1.336014e+00 8.203918e-01 7.409532e-02 -5.689092e-03 -1.700129e-02 -8.159237e-03 -1.519616e-02 -2.037325e-02 -3.555973e-03 4.809641e-02 -1.731687e-02 2.321633e-02 -2.296627e-02 -1.313362e-02 6.535527e-02
<VARIANCE> 25
 3.562441e+01 1.786339e+01 3.208166e+01 1.931591e+01 3.307450e+01 2.198548e+01 3.512443e+01 3.024962e+01 2.534264e+01 2.467932e+01 1.571479e+01 1.421373e+01 8.617187e-01 6.407071e-01 1.057988e+00 9.600652e-01 1.653325e+00 1.306236e+00 1.736583e+00 1.659814e+00 1.603294e+00 1.572770e+00 1.268368e+00 1.187133e+00 8.354213e-01
<GCONST> 8.664124e+01
<STATE> 4
<MEAN> 25
 -3.061903e+00 -1.979510e+00 -2.179255e+00 -2.870162e-01 1.217508e+00 3.532788e-01 3.087590e+00 3.896228e-01 2.216540e+00 -8.741597e-01 7.578245e-01 4.878821e-01 1.566795e-01 2.261065e-03 -3.088214e-02 -4.715061e-02 -3.284013e-02 -3.800718e-02 -3.695489e-02 4.002870e-02 -6.213063e-02 2.595977e-02 -5.606023e-02 -3.422012e-02 1.061583e-01
<VARIANCE> 25
 5.245587e+01 2.121141e+01 3.417217e+01 2.920157e+01 3.412201e+01 3.263072e+01 3.669905e+01 3.602229e+01 2.857349e+01 2.778806e+01 1.991777e+01 1.575982e+01 1.022309e+00 7.514590e-01 1.129883e+00 1.195549e+00 1.862422e+00 1.638098e+00 1.779902e+00 1.895188e+00 1.720451e+00 1.865630e+00 1.376988e+00 1.198525e+00 1.159659e+00
<GCONST> 9.067896e+01
<TRANSP> 5
 0.000000e+00 1.000000e+00 0.000000e+00 0.000000e+00 0.000000e+00
 0.000000e+00 7.901371e-01 2.098630e-01 0.000000e+00 0.000000e+00
 0.000000e+00 0.000000e+00 7.901365e-01 2.098635e-01 0.000000e+00
 0.000000e+00 0.000000e+00 0.000000e+00 9.226211e-01 7.737888e-02
 0.000000e+00 0.000000e+00 0.000000e+00 0.000000e+00 0.000000e+00
<ENDHMM>
~h "l"
<BEGINHMM>
<NUMSTATES> 5
<STATE> 2
<MEAN> 25
 -2.604547e+00 -1.540356e+00 1.160668e+00 -1.538641e+00 -4.393462e-02 1.063523e+00 8.660084e-01 -1.042691e-01 6.205571e-01 -5.052040e-01 -3.863707e-02 1.674450e+00 -4.331831e-02 3.546147e-02 -4.702366e-02 -4.322598e-02 -5.092105e-02 5.316346e-02 8.051804e-02 -2.752222e-02 3.240161e-02 9.378382e-02 -1.530910e-02 7.422962e-03 -2.022101e-02
<VARIANCE> 25
 6.824444e+01 3.401625e+01 2.860940e+01 3.826525e+01 3.522273e+01 3.164993e+01 5.261613e+01 4.042728e+01 2.459455e+01 3.589773e+01 3.449229e+01 1.296840e+01 1.323249e+00 1.134025e+00 8.745184e-01 1.410106e+00 1.016097e+00 1.477234e+00 2.017066e+00 1.866286e+00 1.374678e+00 1.427640e+00 1.580351e+00 1.156494e+00 8.203044e-01
<GCONST> 9.168693e+01
<STATE> 3
<MEAN> 25
 -2.822320e+00 -1.343572e+00 9.141298e-01 -1.752207e+00 -3.234940e-01 1.341176e+00 1.285818e+00 -2.608327e-01 7.828515e-01 -1.580311e-02 -1.190775e-01 1.710020e+00 -5.197109e-02 4.313680e-02 -4.498119e-02 -3.455891e-02 -4.684922e-02 4.557007e-02 7.954112e-02 -3.515085e-02 2.960896e-02 8.774175e-02 -1.332814e-02 6.245985e-03 -2.302203e-02
<VARIANCE> 25
 6.792474e+01 3.299120e+01 2.945871e+01 3.651691e+01 3.814970e+01 3.014097e+01 4.827234e+01 3.844378e+01 2.284587e+01 3.480058e+01 3.438203e+01 1.291418e+01 1.284237e+00 1.077686e+00 8.878103e-01 1.366741e+00 1.016784e+00 1.383674e+00 1.956237e+00 1.769729e+00 1.324008e+00 1.410088e+00 1.606917e+00 1.161847e+00 7.557778e-01
<GCONST> 9.106036e+01
<STATE> 4
<MEAN> 25
 -3.194630e+00 -1.104662e+00 6.958541e-01 -1.945075e+00 -9.524606e-01 1.727735e+00 1.943967e+00 -5.635113e-01 9.582277e-01 5.967631e-01 -1.161829e-01 1.788964e+00 -5.847947e-02 4.664318e-02 -3.256602e-02 -2.376628e-02 -4.808334e-02 3.807826e-02 7.918800e-02 -4.510209e-02 1.935793e-02 7.963933e-02 -1.011067e-02 8.199539e-03 -2.837118e-02
<VARIANCE> 25
 6.355141e+01 3.100698e+01 3.151476e+01 3.207959e+01 4.380219e+01 2.742896e+01 4.317174e+01 3.707139e+01 1.992280e+01 3.132203e+01 3.172615e+01 1.301715e+01 1.158605e+00 9.751168e-01 9.308577e-01 1.208135e+00 1.031617e+00 1.221017e+00 1.845743e+00 1.656697e+00 1.238491e+00 1.353488e+00 1.577703e+00 1.160761e+00 6.382872e-01
<GCONST> 8.964120e+01
<TRANSP> 5
 0.000000e+00 1.000000e+00 0.000000e+00 0.000000e+00 0.000000e+00
 0.000000e+00 8.078824e-01 1.921175e-01 0.000000e+00 0.000000e+00
 0.000000e+00 0.000000e+00 8.078825e-01 1.921174e-01 0.000000e+00
 0.000000e+00 0.000000e+00 0.000000e+00 9.408588e-01 5.914117e-02
 0.000000e+00 0.000000e+00 0.000000e+00 0.000000e+00 0.000000e+00
<ENDHMM>
~h "m"
<BEGINHMM>
<NUMSTATES> 5
<STATE> 2
<MEAN> 25
 1.625153e+00 -6.403039e-01 -1.785353e+00 -6.883009e-01 -3.833526e-02 6.012112e-02 4.356235e-01 8.957461e-01 -1.076311e+00 2.707198e-01 -6.634849e-01 2.693315e-01 6.063766e-02 3.791082e-02 -2.191383e-03 -2.541013e-02 -3.021106e-02 -8.245184e-03 -8.108241e-03 -1.856680e-03 -6.257945e-02 1.648731e-02 -2.159491e-02 -2.543123e-02 -7.689428e-04
<VARIANCE> 25
 6.446109e+01 4.550831e+01 6.655137e+01 4.495824e+01 5.766733e+01 4.787368e+01 6.049555e+01 5.272001e+01 5.168188e+01 2.955402e+01 3.599919e+01 2.151610e+01 1.264588e+00 1.451166e+00 1.409798e+00 1.488045e+00 1.774794e+00 1.865800e+00 2.000232e+00 2.067229e+00 1.994518e+00 1.614068e+00 1.627771e+00 1.198152e+00 1.107503e+00
<GCONST> 9.781316e+01
<STATE> 3
<MEAN> 25
 1.873684e+00 -4.429827e-01 -1.745635e+00 -7.882455e-01 -2.027728e-01 1.972909e-02 3.993135e-01 8.565755e-01 -1.353245e+00 3.352638e-01 -7.351742e-01 1.499627e-01 5.289936e-02 4.286966e-02 1.144667e-02 -2.349157e-02 -3.631838e-02 -7.127659e-03 -9.815248e-03 -7.206180e-03 -5.695363e-02 1.200785e-02 -1.428529e-02 -2.528173e-02 -8.116710e-03
<VARIANCE> 25
 6.484974e+01 4.564803e+01 6.752944e+01 4.677344e+01 5.900127e+01 4.844219e+01 5.913417e+01 5.309903e+01 5.300473e+01 2.966378e+01 3.613176e+01 2.186077e+01 1.292658e+00 1.483540e+00 1.431606e+00 1.523911e+00 1.813228e+00 1.894145e+00 2.007227e+00 2.098596e+00 2.042496e+00 1.631823e+00 1.650051e+00 1.205215e+00 1.118870e+00
<GCONST> 9.814668e+01
<STATE> 4
<MEAN> 25
 2.023238e+00 -4.913632e-02 -1.224636e+00 -7.299256e-01 -6.961488e-01 -1.387004e-01 2.918423e-01 5.129551e-01 -1.665995e+00 3.523901e-01 -6.356099e-01 -9.692327e-02 2.207902e-02 3.571427e-02 3.870745e-02 -6.429028e-03 -3.150420e-02 1.378058e-03 -1.164377e-02 -2.660831e-02 -3.013497e-02 8.529203e-04 4.083151e-03 -2.379832e-02 -1.692333e-02
<VARIANCE> 25
 6.294008e+01 4.507740e+01 6.579086e+01 4.974994e+01 6.367515e+01 4.934904e+01 6.056858e+01 5.487870e+01 5.278455e+01 2.986879e+01 3.600167e+01 2.350119e+01 1.265861e+00 1.506531e+00 1.437140e+00 1.561076e+00 1.854336e+00 1.944925e+00 2.027064e+00 2.112914e+00 2.058996e+00 1.651177e+00 1.680264e+00 1.219809e+00 1.105367e+00
<GCONST> 9.848877e+01
<TRANSP> 5
 0.000000e+00 1.000000e+00 0.000000e+00 0.000000e+00 0.000000e+00
 0.000000e+00 7.959728e-01 2.040273e-01 0.000000e+00 0.000000e+00
 0.000000e+00 0.000000e+00 7.959726e-01 2.040274e-01 0.000000e+00
 0.000000e+00 0.000000e+00 0.000000e+00 9.292892e-01 7.071084e-02
 0.000000e+00 0.000000e+00 0.000000e+00 0.000000e+00 0.000000e+00
<ENDHMM>
~h "n"
<BEGINHMM>
<NUMSTATES> 5
<STATE> 2
<MEAN> 25
 3.057388e+00 -4.878562e-02 2.543775e-01 -1.472755e+00 -7.987524e-01 -8.685748e-02 -1.144478e+00 -4.055742e-01 -1.244099e+00 -5.325373e-02 -8.443429e-01 -9.806709e-01 1.153481e-02 4.915995e-02 4.809045e-02 -2.590521e-03 -6.013529e-04 -5.463082e-03 -4.189945e-02 -2.968164e-02 3.855931e-03 4.091275e-03 -1.909863e-03 -1.088377e-02 1.184760e-03
<VARIANCE> 25
 6.090211e+01 4.149370e+01 6.799624e+01 6.290479e+01 6.226414e+01 4.664996e+01 6.570395e+01 5.296417e+01 4.730151e+01 3.134426e+01 3.591452e+01 2.679772e+01 1.500654e+00 1.543909e+00 1.675800e+00 2.011451e+00 2.294012e+00 2.356047e+00 2.210098e+00 2.596452e+00 2.224338e+00 1.898891e+00 1.867793e+00 1.297576e+00 1.533128e+00
<GCONST> 1.006858e+02
<STATE> 3
<MEAN> 25
 3.037071e+00 1.884718e-01 4.948983e-01 -1.449980e+00 -7.783855e-01 -1.103358e-01 -1.337067e+00 -5.475206e-01 -1.194040e+00 -4.355875e-02 -8.338894e-01 -1.020896e+00 -2.041133e-02 5.555578e-02 4.331774e-02 9.355660e-03 1.068739e-02 -4.603931e-03 -3.399178e-02 -3.120507e-02 1.843641e-02 1.224777e-03 5.947703e-03 -4.703909e-03 -2.163433e-02
<VARIANCE> 25
 6.300644e+01 4.182247e+01 6.899192e+01 6.422659e+01 6.299826e+01 4.665730e+01 6.722021e+01 5.294388e+01 4.658939e+01 3.143196e+01 3.615192e+01 2.733672e+01 1.539621e+00 1.552092e+00 1.709579e+00 2.047994e+00 2.299204e+00 2.357642e+00 2.257496e+00 2.608381e+00 2.218740e+00 1.886378e+00 1.875842e+00 1.300011e+00 1.535553e+00
<GCONST> 1.009077e+02
<STATE> 4
<MEAN> 25
 2.664479e+00 5.468183e-01 9.917711e-01 -1.112596e+00 -6.380396e-01 -2.822354e-01 -1.729679e+00 -7.628393e-01 -9.770870e-01 -6.827272e-02 -7.091626e-01 -1.100266e+00 -6.797929e-02 4.814805e-02 3.290926e-02 2.879947e-02 2.512519e-02 -3.128052e-03 -1.380601e-02 -2.257066e-02 3.529036e-02 -3.014595e-03 1.707063e-02 5.018998e-03 -4.818739e-02
<VARIANCE> 25
 6.485703e+01 4.137407e+01 6.755415e+01 6.398235e+01 6.411259e+01 4.665902e+01 7.267013e+01 5.371325e+01 4.455750e+01 3.222718e+01 3.628453e+01 2.920854e+01 1.530089e+00 1.544978e+00 1.693915e+00 1.993229e+00 2.208099e+00 2.300566e+00 2.342329e+00 2.521915e+00 2.153657e+00 1.839283e+00 1.855921e+00 1.303737e+00 1.469604e+00
<GCONST> 1.008456e+02
<TRANSP> 5
 0.000000e+00 1.000000e+00 0.000000e+00 0.000000e+00 0.000000e+00
 0.000000e+00 7.913920e-01 2.086080e-01 0.000000e+00 0.000000e+00
 0.000000e+00 0.000000e+00 7.913917e-01 2.086083e-01 0.000000e+00
 0.000000e+00 0.000000e+00 0.000000e+00 9.242561e-01 7.574396e-02
 0.000000e+00 0.000000e+00 0.000000e+00 0.000000e+00 0.000000e+00
<ENDHMM>
~h "p"
<BEGINHMM>
<NUMSTATES> 5
<STATE> 2
<MEAN> 25
 -1.244517e+00 -1.537544e+00 1.746689e+00 -1.551057e-01 1.262731e+00 -3.350921e-01 -1.405823e+00 -1.235560e-01 -4.232683e-01 -2.648901e+00 -4.620521e-02 1.128429e+00 -6.961594e-02 -2.351625e-02 2.537497e-03 -5.152280e-02 -2.965587e-02 3.315646e-02 7.873197e-02 1.535354e-02 4.074530e-02 5.319023e-02 1.276828e-02 3.194624e-02 -8.158064e-03
<VARIANCE> 25
 7.318855e+01 3.661108e+01 2.667253e+01 4.212660e+01 2.895696e+01 4.252761e+01 7.363615e+01 5.241299e+01 3.772511e+01 3.632362e+01 3.011716e+01 1.532645e+01 1.506527e+00 1.264410e+00 8.698999e-01 1.474297e+00 1.045883e+00 2.018464e+00 2.392076e+00 2.318452e+00 1.631372e+00 1.599114e+00 1.357145e+00 1.099804e+00 1.057024e+00
<GCONST> 9.436467e+01
<STATE> 3
<MEAN> 25
 -1.589560e+00 -1.646328e+00 1.742419e+00 -4.244566e-01 1.087496e+00 -1.415852e-01 -9.907733e-01 -5.096522e-02 -2.110387e-01 -2.347216e+00 1.378851e-02 1.283237e+00 -6.109486e-02 -1.301771e-02 -9.736300e-03 -5.372617e-02 -3.607542e-02 4.203022e-02 8.062088e-02 8.681473e-03 3.975416e-02 6.656222e-02 5.743057e-03 2.640447e-02 -9.802369e-03
<VARIANCE> 25
 7.270074e+01 3.654403e+01 2.704308e+01 4.172004e+01 2.897558e+01 4.035873e+01 7.066715e+01 5.011301e+01 3.514566e+01 3.676794e+01 3.115363e+01 1.468374e+01 1.486380e+00 1.254534e+00 8.669664e-01 1.480152e+00 1.029328e+00 1.921802e+00 2.326752e+00 2.243439e+00 1.587718e+00 1.564150e+00 1.398904e+00 1.112290e+00 1.025748e+00
<GCONST> 9.397086e+01
<STATE> 4
<MEAN> 25
 -2.197774e+00 -1.808286e+00 1.727594e+00 -8.027054e-01 7.231752e-01 1.791144e-01 -3.278573e-01 5.686841e-03 1.281337e-01 -1.888635e+00 1.522951e-01 1.496024e+00 -4.600030e-02 5.722957e-03 -2.753441e-02 -5.102435e-02 -5.115759e-02 5.501355e-02 8.446091e-02 -2.967305e-03 3.784749e-02 8.461256e-02 -3.076566e-03 1.743874e-02 -1.968795e-02
<VARIANCE> 25
 6.837279e+01 3.637823e+01 2.775397e+01 3.886286e+01 3.095622e+01 3.646072e+01 6.714561e+01 4.840635e+01 3.072141e+01 3.647218e+01 3.144444e+01 1.370485e+01 1.386811e+00 1.208862e+00 8.706487e-01 1.416951e+00 1.016667e+00 1.712258e+00 2.221499e+00 2.145813e+00 1.497037e+00 1.492390e+00 1.449799e+00 1.123443e+00 9.382092e-01
<GCONST> 9.302270e+01
<TRANSP> 5
 0.000000e+00 1.000000e+00 0.000000e+00 0.000000e+00 0.000000e+00
 0.000000e+00 8.078932e-01 1.921069e-01 0.000000e+00 0.000000e+00
 0.000000e+00 0.000000e+00 8.078930e-01 1.921070e-01 0.000000e+00
 0.000000e+00 0.000000e+00 0.000000e+00 9.408898e-01 5.911020e-02
 0.000000e+00 0.000000e+00 0.000000e+00 0.000000e+00 0.000000e+00
<ENDHMM>
~h "r"
<BEGINHMM>
<NUMSTATES> 5
<STATE> 2
<MEAN> 25
 1.728570e+00 5.887174e-01 1.807159e+00 1.019230e+00 -1.245492e+00 -1.493450e+00 -3.812647e+00 -8.755982e-01 -1.596569e+00 -8.655802e-01 9.455927e-01 -9.299251e-01 2.821656e-02 -3.512321e-02 -2.469710e-02 -1.204395e-02 -1.515465e-02 -8.758183e-03 -3.119302e-02 2.296987e-02 -2.779636e-02 5.650382e-03 1.675690e-02 1.932164e-02 1.412421e-02
<VARIANCE> 25
 6.581412e+01 3.633665e+01 9.382260e+01 5.435752e+01 6.378775e+01 5.692380e+01 9.926656e+01 5.918542e+01 5.293925e+01 2.790231e+01 3.428584e+01 2.954120e+01 1.743843e+00 1.380723e+00 2.026517e+00 1.881281e+00 1.919032e+00 2.482828e+00 2.897791e+00 2.427355e+00 2.366926e+00 1.708648e+00 1.772919e+00 1.523386e+00 1.185908e+00
<GCONST> 1.016480e+02
<STATE> 3
<MEAN> 25
 1.853755e+00 4.313753e-01 1.693422e+00 9.447476e-01 -1.315493e+00 -1.519010e+00 -3.931327e+00 -7.855783e-01 -1.719419e+00 -8.254088e-01 1.001507e+00 -8.442900e-01 2.735400e-02 -3.276975e-02 -2.635066e-02 -1.944297e-02 -1.280238e-02 -1.372913e-03 -2.143383e-02 2.104995e-02 -2.443137e-02 8.925620e-03 9.648481e-03 1.845539e-02 5.747095e-03
<VARIANCE> 25
 6.705927e+01 3.569513e+01 9.558937e+01 5.358530e+01 6.353970e+01 5.664001e+01 1.004062e+02 5.986618e+01 5.382077e+01 2.771140e+01 3.473391e+01 2.927422e+01 1.741757e+00 1.353370e+00 2.014457e+00 1.863249e+00 1.904212e+00 2.458972e+00 2.888434e+00 2.421136e+00 2.367548e+00 1.697118e+00 1.753855e+00 1.520070e+00 1.159451e+00
<GCONST> 1.015787e+02
<STATE> 4
<MEAN> 25
 1.828621e+00 1.237745e-01 1.446400e+00 7.704048e-01 -1.127128e+00 -1.472928e+00 -3.811508e+00 -7.778166e-01 -1.788926e+00 -7.563857e-01 8.233309e-01 -7.199761e-01 1.149659e-02 -2.275146e-02 -2.204270e-02 -2.498096e-02 -7.401636e-03 1.248108e-02 8.143286e-03 1.192391e-02 -9.273896e-03 1.473743e-02 -3.748646e-03 1.811682e-02 -1.073892e-02
<VARIANCE> 25
 6.620871e+01 3.373285e+01 9.245305e+01 5.205484e+01 6.349990e+01 5.664003e+01 9.858974e+01 6.055367e+01 5.397396e+01 2.818361e+01 3.442988e+01 2.922348e+01 1.677180e+00 1.296491e+00 1.892193e+00 1.771428e+00 1.876398e+00 2.425666e+00 2.814722e+00 2.385035e+00 2.324638e+00 1.684962e+00 1.696795e+00 1.532179e+00 1.115011e+00
<GCONST> 1.010960e+02
<TRANSP> 5
 0.000000e+00 1.000000e+00 0.000000e+00 0.000000e+00 0.000000e+00
 0.000000e+00 7.926702e-01 2.073298e-01 0.000000e+00 0.000000e+00
 0.000000e+00 0.000000e+00 7.926710e-01 2.073291e-01 0.000000e+00
 0.000000e+00 0.000000e+00 0.000000e+00 9.253596e-01 7.464041e-02
 0.000000e+00 0.000000e+00 0.000000e+00 0.000000e+00 0.000000e+00
<ENDHMM>
~h "s"
<BEGINHMM>
<NUMSTATES> 5
<STATE> 2
<MEAN> 25
 -4.813190e+00 1.497203e+00 -5.059518e-01 4.902925e-01 9.333889e-01 -1.942528e-01 2.538861e+00 -6.201791e-01 1.802056e+00 1.119111e+00 4.346092e-01 1.445814e+00 -1.763756e-02 -2.872340e-02 -1.982713e-02 5.083044e-02 2.397911e-02 4.486677e-02 3.228603e-02 3.788341e-02 3.991063e-02 -4.451969e-03 2.171124e-02 1.876448e-02 -1.555122e-01
<VARIANCE> 25
 9.592284e+01 3.366455e+01 7.798570e+01 3.173700e+01 6.087030e+01 3.506573e+01 7.647230e+01 4.270565e+01 3.623979e+01 2.484679e+01 2.419278e+01 2.248111e+01 1.836069e+00 1.136223e+00 1.798065e+00 1.329099e+00 1.836804e+00 1.632424e+00 2.430656e+00 2.066279e+00 1.914871e+00 1.649208e+00 1.538286e+00 1.333408e+00 1.089980e+00
<GCONST> 9.697283e+01
<STATE> 3
<MEAN> 25
 -4.839716e+00 1.349118e+00 -5.839060e-01 7.239429e-01 1.026656e+00 2.599516e-02 2.671887e+00 -4.333323e-01 1.969168e+00 1.087559e+00 5.277945e-01 1.519768e+00 3.012020e-02 -4.756202e-02 -4.039084e-03 5.201023e-02 5.423240e-03 5.190521e-02 1.147295e-02 4.262096e-02 2.347475e-02 -1.355060e-02 1.519850e-02 1.129703e-02 -1.529222e-01
<VARIANCE> 25
 8.836021e+01 3.154046e+01 7.434012e+01 3.013793e+01 5.787813e+01 3.445645e+01 7.509259e+01 4.193499e+01 3.503613e+01 2.424949e+01 2.369624e+01 2.219919e+01 1.731013e+00 1.093096e+00 1.719742e+00 1.288985e+00 1.766833e+00 1.603048e+00 2.396124e+00 2.036925e+00 1.898705e+00 1.623120e+00 1.533417e+00 1.320786e+00 1.062319e+00
<GCONST> 9.620893e+01
<STATE> 4
<MEAN> 25
 -4.477487e+00 8.805650e-01 -2.537233e-01 8.484127e-01 7.930596e-01 5.193436e-01 2.760396e+00 -2.932044e-01 1.931401e+00 1.155231e+00 5.714071e-01 1.537907e+00 6.312422e-02 -4.717727e-02 -3.105073e-03 4.984717e-02 -3.287686e-03 4.892236e-02 -7.466689e-03 4.134522e-02 1.058102e-02 -2.669206e-02 7.539112e-03 6.127660e-04 -1.288645e-01
<VARIANCE> 25
 7.617407e+01 2.864015e+01 7.198394e+01 2.897943e+01 5.293470e+01 3.335152e+01 7.544018e+01 4.227972e+01 3.305638e+01 2.421739e+01 2.325874e+01 2.241043e+01 1.527492e+00 1.025789e+00 1.612154e+00 1.226007e+00 1.624945e+00 1.512464e+00 2.344835e+00 1.973058e+00 1.824203e+00 1.586023e+00 1.509809e+00 1.293348e+00 9.689192e-01
<GCONST> 9.502454e+01
<TRANSP> 5
 0.000000e+00 1.000000e+00 0.000000e+00 0.000000e+00 0.000000e+00
 0.000000e+00 7.933655e-01 2.066345e-01 0.000000e+00 0.000000e+00
 0.000000e+00 0.000000e+00 7.933652e-01 2.066348e-01 0.000000e+00
 0.000000e+00 0.000000e+00 0.000000e+00 9.263853e-01 7.361468e-02
 0.000000e+00 0.000000e+00 0.000000e+00 0.000000e+00 0.000000e+00
<ENDHMM>
~h "t"
<BEGINHMM>
<NUMSTATES> 5
<STATE> 2
<MEAN> 25
 2.190401e+00 2.679246e-01 8.931767e-01 -1.034491e+00 -7.299943e-01 -3.932802e-01 -1.845413e+00 -3.149250e-01 -8.623548e-01 -1.040718e-01 -4.951426e-01 -7.653508e-01 -2.355264e-02 2.318465e-02 4.202111e-02 4.081079e-02 -8.188812e-03 4.493365e-03 -2.849560e-02 -1.049364e-02 2.278411e-03 -1.118754e-04 1.086148e-02 1.377769e-02 -5.806415e-02
<VARIANCE> 25
 5.581842e+01 3.401165e+01 6.762727e+01 5.686699e+01 6.761987e+01 4.526764e+01 7.916676e+01 5.123395e+01 4.492509e+01 3.572332e+01 3.226874e+01 2.725917e+01 1.383776e+00 1.485162e+00 1.486123e+00 2.004671e+00 2.454145e+00 2.152398e+00 2.658915e+00 2.339187e+00 2.020261e+00 1.820963e+00 1.742853e+00 1.307490e+00 2.106705e+00
<GCONST> 1.004206e+02
<STATE> 3
<MEAN> 25
 2.036938e+00 3.509264e-01 1.075843e+00 -8.185868e-01 -7.575657e-01 -3.727522e-01 -1.947411e+00 -3.588782e-01 -8.441169e-01 -1.141220e-01 -4.272067e-01 -6.959159e-01 -3.400812e-02 1.892485e-02 3.890280e-02 4.841438e-02 -7.644051e-03 2.440313e-03 -2.129970e-02 -7.657099e-03 3.108792e-03 -3.182562e-05 1.608181e-02 1.343893e-02 -5.328526e-02
<VARIANCE> 25
 5.594126e+01 3.403208e+01 6.783946e+01 5.516620e+01 6.910188e+01 4.440551e+01 8.049581e+01 5.080129e+01 4.531225e+01 3.572157e+01 3.225768e+01 2.724285e+01 1.419158e+00 1.514512e+00 1.513610e+00 1.991987e+00 2.484643e+00 2.148633e+00 2.706496e+00 2.338969e+00 2.026999e+00 1.805442e+00 1.743822e+00 1.325799e+00 2.130233e+00
<GCONST> 1.005198e+02
<STATE> 4
<MEAN> 25
 1.598286e+00 3.561825e-01 1.348783e+00 -2.851391e-01 -6.666847e-01 -4.371459e-01 -2.091554e+00 -4.365065e-01 -8.282121e-01 -2.036775e-01 -1.983413e-01 -5.815539e-01 -3.625800e-02 6.822159e-03 2.300678e-02 4.182513e-02 -6.421552e-03 2.387949e-03 -7.002988e-03 -4.048672e-03 -1.598092e-03 1.813651e-03 1.868578e-02 1.264471e-02 -2.833831e-02
<VARIANCE> 25
 5.507795e+01 3.411946e+01 6.676386e+01 4.905977e+01 7.158147e+01 4.333171e+01 8.318193e+01 5.253825e+01 4.563868e+01 3.528736e+01 3.152213e+01 2.723608e+01 1.440627e+00 1.526662e+00 1.524671e+00 1.887795e+00 2.462058e+00 2.111696e+00 2.734067e+00 2.313757e+00 1.983894e+00 1.751313e+00 1.704783e+00 1.328918e+00 2.057235e+00
<GCONST> 1.002646e+02
<TRANSP> 5
 0.000000e+00 1.000000e+00 0.000000e+00 0.000000e+00 0.000000e+00
 0.000000e+00 7.947204e-01 2.052797e-01 0.000000e+00 0.000000e+00
 0.000000e+00 0.000000e+00 7.947206e-01 2.052794e-01 0.000000e+00
 0.000000e+00 0.000000e+00 0.000000e+00 9.280683e-01 7.193170e-02
 0.000000e+00 0.000000e+00 0.000000e+00 0.000000e+00 0.000000e+00
<ENDHMM>
~h "v"
<BEGINHMM>
<NUMSTATES> 5
<STATE> 2
<MEAN> 25
 1.150486e+00 -5.502556e-01 8.262931e-01 1.000548e+00 -4.028803e-01 -8.530006e-01 -1.719625e+00 -2.538325e-01 -1.282516e+00 7.774427e-01 -1.018073e+00 -2.939737e-01 -7.214950e-03 -4.968326e-03 4.331639e-02 4.257506e-03 -6.523425e-03 -1.466416e-02 1.246876e-02 4.145512e-03 -1.500546e-02 1.014778e-02 -6.640402e-03 5.888330e-03 8.202311e-03
<VARIANCE> 25
 6.201347e+01 3.185625e+01 5.494174e+01 4.848214e+01 5.967017e+01 4.657002e+01 6.908542e+01 6.157562e+01 5.019564e+01 3.439649e+01 3.433003e+01 2.456038e+01 2.105790e+00 1.596554e+00 2.035302e+00 2.125731e+00 2.866729e+00 2.563423e+00 2.927854e+00 2.787053e+00 2.595370e+00 1.963266e+00 1.977642e+00 1.443810e+00 1.672284e+00
<GCONST> 1.018622e+02
<STATE> 3
<MEAN> 25
 1.115831e+00 -5.710426e-01 1.020669e+00 1.015134e+00 -4.322896e-01 -9.139299e-01 -1.666221e+00 -2.404920e-01 -1.354488e+00 8.174784e-01 -1.036127e+00 -2.644975e-01 -5.015410e-03 -1.850224e-03 4.412515e-02 5.900166e-04 -9.148844e-03 -1.290597e-02 7.091076e-03 3.854116e-03 -1.605290e-02 6.918993e-03 -4.714676e-04 5.192538e-03 7.945839e-03
<VARIANCE> 25
 6.140331e+01 3.159809e+01 5.527737e+01 4.861848e+01 6.006878e+01 4.588465e+01 6.815723e+01 6.235661e+01 4.975702e+01 3.467648e+01 3.401916e+01 2.414524e+01 2.095642e+00 1.607985e+00 2.063210e+00 2.136242e+00 2.903894e+00 2.565213e+00 2.960572e+00 2.817119e+00 2.602988e+00 2.001362e+00 2.009117e+00 1.440313e+00 1.719914e+00
<GCONST> 1.019370e+02
<STATE> 4
<MEAN> 25
 9.325544e-01 -6.342871e-01 1.193847e+00 9.681451e-01 -3.212214e-01 -9.642193e-01 -1.545437e+00 -5.417641e-01 -1.483759e+00 7.942219e-01 -9.620213e-01 -2.223473e-01 -2.078332e-03 2.258755e-03 3.728481e-02 -2.771440e-03 -9.033674e-03 -5.996312e-03 6.387602e-04 3.050623e-03 -1.422483e-02 -9.626569e-04 8.193024e-03 5.249362e-03 4.812652e-03
<VARIANCE> 25
 6.181154e+01 3.070670e+01 5.463953e+01 4.926987e+01 6.034642e+01 4.508318e+01 6.751968e+01 6.390270e+01 4.825408e+01 3.559706e+01 3.296023e+01 2.375910e+01 2.070318e+00 1.583378e+00 2.012868e+00 2.066482e+00 2.828107e+00 2.494789e+00 3.015579e+00 2.793973e+00 2.527554e+00 2.023411e+00 1.986529e+00 1.422922e+00 1.696105e+00
<GCONST> 1.016812e+02
<TRANSP> 5
 0.000000e+00 1.000000e+00 0.000000e+00 0.000000e+00 0.000000e+00
 0.000000e+00 7.904336e-01 2.095664e-01 0.000000e+00 0.000000e+00
 0.000000e+00 0.000000e+00 7.904335e-01 2.095665e-01 0.000000e+00
 0.000000e+00 0.000000e+00 0.000000e+00 9.229526e-01 7.704745e-02
 0.000000e+00 0.000000e+00 0.000000e+00 0.000000e+00 0.000000e+00
<ENDHMM>
~h "w"
<BEGINHMM>
<NUMSTATES> 5
<STATE> 2
<MEAN> 25
 2.050794e+00 1.326638e+00 2.515004e+00 -5.937204e-01 -2.268872e+00 3.811043e-01 -3.128637e+00 1.834316e-01 -1.265087e+00 1.018850e+00 2.784405e-01 -1.748746e+00 1.182588e-02 1.488398e-04 -3.058896e-02 -3.993621e-03 4.121762e-02 2.456010e-02 -5.956765e-03 -7.198069e-04 4.684177e-02 -1.563442e-02 -3.239860e-02 1.584167e-02 -1.971066e-02
<VARIANCE> 25
 5.131407e+01 3.637074e+01 7.540659e+01 6.340142e+01 7.375442e+01 5.216969e+01 9.573982e+01 4.181526e+01 5.708427e+01 3.469930e+01 3.618064e+01 3.876040e+01 1.526630e+00 1.715446e+00 1.698973e+00 1.910964e+00 2.616180e+00 3.017943e+00 2.703144e+00 2.617005e+00 2.685868e+00 1.893345e+00 1.764730e+00 1.637824e+00 2.063876e+00
<GCONST> 1.029138e+02
<STATE> 3
<MEAN> 25
 2.128107e+00 1.320198e+00 2.330984e+00 -6.095775e-01 -2.053980e+00 4.976284e-01 -3.158488e+00 1.745389e-01 -1.035679e+00 9.371065e-01 1.219606e-01 -1.666921e+00 1.918255e-02 -3.445470e-03 -4.233088e-02 -3.016381e-03 4.933668e-02 2.804640e-02 -5.302121e-03 -1.921542e-03 4.987158e-02 -2.008732e-02 -3.533617e-02 2.004625e-02 -1.659033e-02
<VARIANCE> 25
 5.240461e+01 3.709970e+01 7.190279e+01 6.389315e+01 7.077040e+01 5.404840e+01 9.576480e+01 4.116065e+01 5.523575e+01 3.386157e+01 3.550222e+01 3.871698e+01 1.529065e+00 1.745220e+00 1.667121e+00 1.864385e+00 2.577772e+00 3.085241e+00 2.697386e+00 2.634031e+00 2.627025e+00 1.887031e+00 1.739485e+00 1.630143e+00 2.030687e+00
<GCONST> 1.027419e+02
<STATE> 4
<MEAN> 25
 2.421010e+00 1.138146e+00 1.809383e+00 -4.835622e-01 -1.430495e+00 5.905420e-01 -3.264769e+00 1.518234e-01 -5.172704e-01 7.289132e-01 -3.719748e-01 -1.579217e+00 3.191991e-02 -7.926586e-03 -5.198832e-02 -2.610327e-03 5.070301e-02 3.061770e-02 -8.576322e-03 -4.282608e-03 4.493171e-02 -2.336412e-02 -3.558845e-02 2.476568e-02 -4.703877e-03
<VARIANCE> 25
 5.358616e+01 3.852245e+01 6.416968e+01 6.510914e+01 6.483378e+01 5.943457e+01 9.748448e+01 4.109003e+01 5.085088e+01 3.340051e+01 3.405029e+01 3.801749e+01 1.467776e+00 1.778334e+00 1.578845e+00 1.748960e+00 2.408483e+00 3.207563e+00 2.680030e+00 2.640308e+00 2.484561e+00 1.914635e+00 1.670021e+00 1.610443e+00 1.867075e+00
<GCONST> 1.022223e+02
<TRANSP> 5
 0.000000e+00 1.000000e+00 0.000000e+00 0.000000e+00 0.000000e+00
 0.000000e+00 7.859061e-01 2.140939e-01 0.000000e+00 0.000000e+00
 0.000000e+00 0.000000e+00 7.859065e-01 2.140935e-01 0.000000e+00
 0.000000e+00 0.000000e+00 0.000000e+00 9.178162e-01 8.218378e-02
 0.000000e+00 0.000000e+00 0.000000e+00 0.000000e+00 0.000000e+00
<ENDHMM>
~h "z"
<BEGINHMM>
<NUMSTATES> 5
<STATE> 2
<MEAN> 25
 -1.686781e+00 2.169627e+00 1.081647e+00 1.923184e-01 -1.486468e-01 2.213195e-01 5.151992e-01 -4.914930e-01 3.810663e-01 3.601436e-01 -4.281541e-01 -6.262640e-01 -6.060788e-02 6.352700e-02 -3.581204e-02 5.659997e-02 5.140309e-02 7.322430e-03 2.498864e-02 -1.823348e-02 4.081631e-02 -4.470520e-02 3.776218e-02 2.319512e-02 -1.034937e-01
<VARIANCE> 25
 7.647517e+01 4.339922e+01 7.021432e+01 4.287741e+01 5.152467e+01 4.307945e+01 7.388171e+01 4.719122e+01 3.458435e+01 2.477207e+01 2.551039e+01 2.139815e+01 1.389083e+00 1.264324e+00 1.611698e+00 1.642524e+00 1.549906e+00 1.945066e+00 2.437163e+00 2.047122e+00 1.698867e+00 1.509680e+00 1.508655e+00 1.148423e+00 1.011782e+00
<GCONST> 9.673215e+01
<STATE> 3
<MEAN> 25
 -1.941520e+00 2.430184e+00 8.722575e-01 4.330552e-01 9.225306e-02 2.757311e-01 6.463627e-01 -5.575234e-01 5.622199e-01 1.402319e-01 -2.454306e-01 -5.131462e-01 -3.132131e-02 3.485991e-02 -2.986027e-02 5.807055e-02 3.974353e-02 7.131469e-03 1.854622e-02 -1.551687e-02 2.763724e-02 -4.366537e-02 3.706357e-02 2.536919e-02 -9.458048e-02
<VARIANCE> 25
 7.210518e+01 4.174583e+01 6.823859e+01 4.023355e+01 4.976480e+01 4.278648e+01 7.334617e+01 4.932585e+01 3.519882e+01 2.364949e+01 2.518273e+01 2.149766e+01 1.342881e+00 1.229953e+00 1.583619e+00 1.565183e+00 1.501957e+00 1.891599e+00 2.378293e+00 2.025917e+00 1.698068e+00 1.462521e+00 1.476862e+00 1.155714e+00 9.622377e-01
<GCONST> 9.618189e+01
<STATE> 4
<MEAN> 25
 -2.288547e+00 2.330557e+00 3.464959e-01 6.821547e-01 4.311696e-01 7.022557e-01 1.090318e+00 -5.120926e-01 6.714291e-01 -1.235538e-01 -2.171725e-02 -2.930288e-01 1.318228e-02 -2.713188e-03 -3.001208e-02 3.921833e-02 1.878074e-02 1.248851e-02 4.525787e-03 -7.400098e-03 3.161968e-03 -3.569470e-02 2.865949e-02 2.121483e-02 -7.347910e-02
<VARIANCE> 25
 6.355864e+01 3.729203e+01 6.269558e+01 3.380629e+01 4.376875e+01 4.258852e+01 6.974808e+01 5.165234e+01 3.553829e+01 2.164348e+01 2.437241e+01 2.119219e+01 1.170192e+00 1.073888e+00 1.472657e+00 1.406180e+00 1.360038e+00 1.735167e+00 2.147293e+00 1.915504e+00 1.644105e+00 1.357991e+00 1.404652e+00 1.112382e+00 7.791434e-01
<GCONST> 9.421807e+01
<TRANSP> 5
 0.000000e+00 1.000000e+00 0.000000e+00 0.000000e+00 0.000000e+00
 0.000000e+00 7.954398e-01 2.045602e-01 0.000000e+00 0.000000e+00
 0.000000e+00 0.000000e+00 7.954396e-01 2.045603e-01 0.000000e+00
 0.000000e+00 0.000000e+00 0.000000e+00 9.287131e-01 7.128679e-02
 0.000000e+00 0.000000e+00 0.000000e+00 0.000000e+00 0.000000e+00
<ENDHMM>
~h "ah"
<BEGINHMM>
<NUMSTATES> 5
<STATE> 2
<MEAN> 25
 -1.561269e+00 1.064065e+00 1.034623e+00 -5.510144e-01 -1.624517e-01 -2.087701e-02 6.449580e-01 -8.210701e-01 1.779005e-01 1.041123e+00 -3.600313e-01 7.246729e-01 -1.717745e-01 6.747375e-02 -9.781413e-02 2.129239e-02 8.206178e-02 1.657321e-03 9.375180e-02 -1.846770e-02 9.157152e-02 -3.482890e-04 2.067524e-02 3.682194e-02 -7.714309e-02
<VARIANCE> 25
 1.043359e+02 4.149154e+01 7.773363e+01 3.807074e+01 5.803150e+01 3.664068e+01 7.674177e+01 4.730769e+01 4.402995e+01 2.759938e+01 2.835594e+01 2.588506e+01 2.007880e+00 1.591364e+00 1.949072e+00 1.598087e+00 2.115623e+00 2.030734e+00 2.379263e+00 2.491285e+00 2.147153e+00 1.779354e+00 1.738913e+00 1.346053e+00 1.247710e+00
<GCONST> 9.982051e+01
<STATE> 3
<MEAN> 25
 -2.343729e+00 1.367553e+00 5.917206e-01 -4.463389e-01 2.113511e-01 8.376051e-03 1.086775e+00 -8.964295e-01 5.969720e-01 1.040172e+00 -2.628243e-01 8.994390e-01 -1.497394e-01 5.070541e-02 -9.257920e-02 2.414693e-02 7.889245e-02 1.548142e-02 8.839806e-02 -1.133255e-02 8.617593e-02 -3.875254e-03 2.188914e-02 3.627276e-02 -9.971436e-02
<VARIANCE> 25
 1.066815e+02 4.074302e+01 7.775400e+01 3.724075e+01 5.730580e+01 3.650245e+01 7.614116e+01 4.603449e+01 4.269289e+01 2.715842e+01 2.747693e+01 2.518900e+01 1.939388e+00 1.496694e+00 1.863657e+00 1.499951e+00 2.006887e+00 1.961571e+00 2.326231e+00 2.406562e+00 2.077182e+00 1.750393e+00 1.693322e+00 1.320620e+00 1.169890e+00
<GCONST> 9.913718e+01
<STATE> 4
<MEAN> 25
 -3.063839e+00 1.370667e+00 2.461587e-01 -3.959778e-01 3.938780e-01 3.522985e-01 1.772565e+00 -1.060026e+00 9.838380e-01 1.140225e+00 -1.581635e-01 1.165255e+00 -9.952855e-02 2.607073e-02 -6.175452e-02 2.938514e-02 5.983901e-02 3.256034e-02 7.329105e-02 5.512967e-03 6.656813e-02 -8.900307e-03 2.003811e-02 3.186224e-02 -1.165993e-01
<VARIANCE> 25
 1.006352e+02 3.834438e+01 7.734618e+01 3.616641e+01 5.510073e+01 3.551497e+01 7.515696e+01 4.575888e+01 3.918002e+01 2.724530e+01 2.613992e+01 2.413713e+01 1.716573e+00 1.328399e+00 1.716752e+00 1.325068e+00 1.777186e+00 1.802621e+00 2.237140e+00 2.219557e+00 1.934028e+00 1.693340e+00 1.610264e+00 1.270195e+00 1.003054e+00
<GCONST> 9.760172e+01
<TRANSP> 5
 0.000000e+00 1.000000e+00 0.000000e+00 0.000000e+00 0.000000e+00
 0.000000e+00 7.926493e-01 2.073508e-01 0.000000e+00 0.000000e+00
 0.000000e+00 0.000000e+00 7.926494e-01 2.073506e-01 0.000000e+00
 0.000000e+00 0.000000e+00 0.000000e+00 9.257822e-01 7.421775e-02
 0.000000e+00 0.000000e+00 0.000000e+00 0.000000e+00 0.000000e+00
<ENDHMM>
~h "ao"
<BEGINHMM>
<NUMSTATES> 5
<STATE> 2
<MEAN> 25
 1.509975e+00 1.256759e+00 -5.165603e-01 -1.239389e+00 -1.403941e+00 -1.538974e+00 -2.812162e+00 1.096362e+00 -8.535146e-01 -7.602112e-01 1.028635e+00 -1.293890e+00 -1.856261e-02 1.826360e-03 -7.880044e-02 -1.696980e-02 -3.516624e-02 6.858943e-03 1.355377e-03 5.649073e-02 2.072878e-02 5.389731e-03 1.035754e-02 3.452791e-02 -1.526259e-02
<VARIANCE> 25
 6.696252e+01 2.596933e+01 6.069865e+01 5.158860e+01 4.971754e+01 8.225422e+01 6.544548e+01 4.734633e+01 3.708475e+01 2.592566e+01 2.802861e+01 2.781234e+01 1.757868e+00 1.180460e+00 1.131143e+00 1.791278e+00 1.814379e+00 2.392946e+00 2.144461e+00 2.060186e+00 2.113913e+00 1.511154e+00 1.497071e+00 1.234275e+00 8.176808e-01
<GCONST> 9.730347e+01
<STATE> 3
<MEAN> 25
 1.453065e+00 1.244620e+00 -8.855892e-01 -1.328522e+00 -1.578790e+00 -1.506843e+00 -2.812334e+00 1.354555e+00 -7.779641e-01 -7.219222e-01 1.078967e+00 -1.124384e+00 -8.421798e-03 -6.912745e-03 -7.782755e-02 -1.467326e-02 -3.228226e-02 3.754064e-03 -3.828135e-03 5.453897e-02 1.427991e-02 7.722037e-03 9.366201e-03 3.679195e-02 -2.012314e-03
<VARIANCE> 25
 6.973994e+01 2.530719e+01 5.832699e+01 4.834749e+01 4.735465e+01 8.313971e+01 6.612099e+01 4.821748e+01 3.812150e+01 2.568642e+01 2.672836e+01 2.703140e+01 1.820767e+00 1.169384e+00 1.112981e+00 1.748315e+00 1.811905e+00 2.374222e+00 2.141166e+00 2.053099e+00 2.155137e+00 1.527451e+00 1.442353e+00 1.220465e+00 7.971988e-01
<GCONST> 9.707362e+01
<STATE> 4
<MEAN> 25
 1.532552e+00 1.078786e+00 -1.407350e+00 -1.607810e+00 -1.820831e+00 -1.661997e+00 -2.806514e+00 1.649604e+00 -7.007210e-01 -7.045090e-01 1.043556e+00 -6.309990e-01 1.122987e-02 -1.678655e-02 -5.467945e-02 -1.432628e-02 -2.734723e-02 2.246928e-03 -7.478616e-03 3.079138e-02 3.310008e-03 1.051801e-02 6.476678e-03 3.214671e-02 1.636657e-02
<VARIANCE> 25
 7.313508e+01 2.395478e+01 5.243849e+01 4.053207e+01 4.253682e+01 8.609532e+01 6.465234e+01 4.911558e+01 3.802190e+01 2.562211e+01 2.313979e+01 2.458211e+01 1.869644e+00 1.153782e+00 1.113024e+00 1.576252e+00 1.824031e+00 2.383010e+00 2.066090e+00 2.005162e+00 2.143992e+00 1.559953e+00 1.322864e+00 1.210567e+00 7.625545e-01
<GCONST> 9.620019e+01
<TRANSP> 5
 0.000000e+00 1.000000e+00 0.000000e+00 0.000000e+00 0.000000e+00
 0.000000e+00 7.973940e-01 2.026060e-01 0.000000e+00 0.000000e+00
 0.000000e+00 0.000000e+00 7.973940e-01 2.026060e-01 0.000000e+00
 0.000000e+00 0.000000e+00 0.000000e+00 9.305475e-01 6.945251e-02
 0.000000e+00 0.000000e+00 0.000000e+00 0.000000e+00 0.000000e+00
<ENDHMM>
~h "aw"
<BEGINHMM>
<NUMSTATES> 5
<STATE> 2
<MEAN> 25
 -1.945165e+00 -2.225220e+00 -4.088918e+00 -1.157674e+00 1.987194e+00 3.113691e-01 3.813379e+00 1.696070e+00 2.256532e+00 -1.312380e+00 2.251246e-01 7.480978e-01 2.141106e-01 -3.601459e-03 -4.045015e-02 -7.587772e-02 -4.692479e-02 -4.837591e-02 -7.372935e-02 3.843220e-02 -1.211609e-01 4.079919e-02 -8.098800e-02 -5.453866e-02 1.593083e-01
<VARIANCE> 25
 4.888547e+01 3.130959e+01 2.096501e+01 2.875820e+01 2.896823e+01 3.695710e+01 2.280423e+01 3.819922e+01 3.051656e+01 2.594292e+01 2.412069e+01 1.457775e+01 6.326694e-01 7.465094e-01 7.341132e-01 1.020523e+00 1.457776e+00 1.489191e+00 1.209921e+00 1.563771e+00 1.475849e+00 1.667150e+00 1.343904e+00 1.020731e+00 7.423413e-01
<GCONST> 8.725692e+01
<STATE> 3
<MEAN> 25
 -8.312917e-01 -2.190956e+00 -4.275525e+00 -1.579805e+00 1.735648e+00 5.738282e-02 3.396665e+00 1.863675e+00 1.625000e+00 -1.097228e+00 -1.923214e-01 4.696481e-01 2.413512e-01 1.196679e-02 -4.079474e-02 -9.270448e-02 -5.384731e-02 -4.684486e-02 -9.156814e-02 3.103016e-02 -1.365275e-01 4.774679e-02 -9.046619e-02 -5.996244e-02 1.589538e-01
<VARIANCE> 25
 5.472128e+01 3.419992e+01 2.475484e+01 3.493887e+01 3.249045e+01 4.228216e+01 2.556273e+01 4.043093e+01 3.417458e+01 2.774882e+01 2.663809e+01 1.534962e+01 7.313147e-01 8.438655e-01 8.157550e-01 1.155057e+00 1.567939e+00 1.610734e+00 1.269444e+00 1.667303e+00 1.534052e+00 1.737772e+00 1.401463e+00 1.027885e+00 8.572881e-01
<GCONST> 8.960379e+01
<STATE> 4
<MEAN> 25
 1.839775e+00 -1.357362e+00 -4.023476e+00 -2.383832e+00 7.013009e-01 -7.095368e-01 2.006292e+00 2.343508e+00 1.689741e-01 -5.235888e-01 -9.270480e-01 -1.178794e-01 2.111358e-01 4.758887e-02 6.993543e-04 -7.813857e-02 -6.397183e-02 -4.263026e-02 -1.080160e-01 5.527679e-04 -1.243911e-01 4.059036e-02 -7.314368e-02 -5.355178e-02 9.262472e-02
<VARIANCE> 25
 5.937466e+01 3.959034e+01 3.449242e+01 4.810806e+01 4.333152e+01 5.835086e+01 3.437576e+01 4.697245e+01 4.245542e+01 3.160006e+01 3.229575e+01 1.742597e+01 9.140279e-01 1.023129e+00 9.536174e-01 1.384941e+00 1.681083e+00 1.838494e+00 1.430496e+00 1.816795e+00 1.649793e+00 1.785777e+00 1.496916e+00 1.042105e+00 1.036472e+00
<GCONST> 9.373595e+01
<TRANSP> 5
 0.000000e+00 1.000000e+00 0.000000e+00 0.000000e+00 0.000000e+00
 0.000000e+00 7.932956e-01 2.067045e-01 0.000000e+00 0.000000e+00
 0.000000e+00 0.000000e+00 7.932955e-01 2.067045e-01 0.000000e+00
 0.000000e+00 0.000000e+00 0.000000e+00 9.264053e-01 7.359472e-02
 0.000000e+00 0.000000e+00 0.000000e+00 0.000000e+00 0.000000e+00
<ENDHMM>
~h "ay"
<BEGINHMM>
<NUMSTATES> 5
<STATE> 2
<MEAN> 25
 1.372977e+00 -5.170380e-01 1.285994e+00 2.729339e-01 -8.324500e-01 3.738109e-01 -5.968193e-01 4.685206e-02 -8.790392e-01 8.027592e-01 -4.535093e-01 1.139424e-01 -4.515802e-02 -2.920027e-04 -6.750209e-04 1.109599e-03 1.632961e-02 1.366200e-02 5.512490e-02 5.905828e-04 1.156900e-02 -1.815504e-02 -3.506552e-03 3.190918e-02 -3.792753e-02
<VARIANCE> 25
 5.826033e+01 3.326481e+01 6.130310e+01 3.991619e+01 5.890526e+01 3.775215e+01 6.177980e+01 5.565970e+01 4.734303e+01 3.171018e+01 3.335667e+01 2.266254e+01 1.564075e+00 1.542816e+00 1.856161e+00 1.867460e+00 2.526378e+00 2.206843e+00 2.581389e+00 2.648847e+00 2.237816e+00 1.905404e+00 1.917209e+00 1.290606e+00 1.617077e+00
<GCONST> 9.971238e+01
<STATE> 3
<MEAN> 25
 1.154372e+00 -5.120171e-01 1.280493e+00 2.798242e-01 -7.552182e-01 4.340714e-01 -3.396352e-01 5.606835e-02 -8.212886e-01 7.204913e-01 -4.668214e-01 2.628351e-01 -5.493649e-02 4.687564e-03 -1.099581e-02 4.268144e-03 2.522961e-02 7.076621e-03 5.347203e-02 3.646695e-03 1.564322e-02 -2.163696e-02 -3.668271e-03 3.239383e-02 -4.055446e-02
<VARIANCE> 25
 5.978956e+01 3.302473e+01 6.068434e+01 3.930892e+01 5.833870e+01 3.754839e+01 6.140394e+01 5.413398e+01 4.746835e+01 3.115401e+01 3.215207e+01 2.207983e+01 1.557314e+00 1.538419e+00 1.852639e+00 1.867209e+00 2.542711e+00 2.200104e+00 2.556750e+00 2.630796e+00 2.219804e+00 1.910685e+00 1.899658e+00 1.272418e+00 1.586173e+00
<GCONST> 9.950845e+01
<STATE> 4
<MEAN> 25
 7.089368e-01 -5.323193e-01 1.044050e+00 2.487515e-01 -5.483223e-01 4.387177e-01 4.876463e-02 -6.658164e-02 -7.275949e-01 6.007091e-01 -4.840274e-01 4.597357e-01 -6.431886e-02 1.305438e-02 -1.750057e-02 8.128280e-03 2.894163e-02 6.972075e-04 5.051602e-02 6.042923e-03 2.160660e-02 -1.835864e-02 1.519134e-03 2.853283e-02 -4.112391e-02
<VARIANCE> 25
 6.201181e+01 3.236759e+01 5.798242e+01 3.854865e+01 5.669865e+01 3.744231e+01 6.069221e+01 5.316516e+01 4.649743e+01 3.081185e+01 3.014873e+01 2.122008e+01 1.522250e+00 1.493739e+00 1.776264e+00 1.814994e+00 2.464361e+00 2.144117e+00 2.507366e+00 2.542461e+00 2.131844e+00 1.898309e+00 1.821161e+00 1.240155e+00 1.470947e+00
<GCONST> 9.883929e+01
<TRANSP> 5
 0.000000e+00 1.000000e+00 0.000000e+00 0.000000e+00 0.000000e+00
 0.000000e+00 7.905830e-01 2.094170e-01 0.000000e+00 0.000000e+00
 0.000000e+00 0.000000e+00 7.905819e-01 2.094181e-01 0.000000e+00
 0.000000e+00 0.000000e+00 0.000000e+00 9.230914e-01 7.690863e-02
 0.000000e+00 0.000000e+00 0.000000e+00 0.000000e+00 0.000000e+00
<ENDHMM>
~h "eh"
<BEGINHMM>
<NUMSTATES> 5
<STATE> 2
<MEAN> 25
 4.292955e+00 2.847111e-01 -2.430063e+00 -1.716387e+00 -1.489261e+00 -2.020555e+00 -1.021166e+00 1.214341e+00 -2.773748e+00 6.497966e-01 -1.235639e+00 -1.542976e+00 3.587407e-02 6.177367e-02 1.369778e-01 4.014676e-02 -6.665036e-02 -7.209615e-03 -7.992072e-02 -8.465716e-02 -3.223692e-02 7.710329e-03 2.740236e-02 -5.456264e-02 -4.336695e-02
<VARIANCE> 25
 4.823199e+01 4.882296e+01 7.596115e+01 6.743235e+01 7.505332e+01 5.844291e+01 7.057420e+01 5.984181e+01 6.285139e+01 3.278563e+01 4.616306e+01 3.076796e+01 1.309108e+00 1.526022e+00 1.360458e+00 1.627659e+00 1.897644e+00 2.034973e+00 1.852693e+00 2.168315e+00 2.229339e+00 1.682537e+00 1.825855e+00 1.362811e+00 1.064901e+00
<GCONST> 1.004017e+02
<STATE> 3
<MEAN> 25
 4.370450e+00 5.378292e-01 -1.712530e+00 -1.464256e+00 -1.750973e+00 -2.015915e+00 -1.394149e+00 7.430654e-01 -2.850293e+00 6.575909e-01 -1.062909e+00 -1.805797e+00 1.151955e-02 5.531652e-02 1.567782e-01 5.390618e-02 -5.560294e-02 2.479588e-03 -7.691481e-02 -9.623639e-02 -1.101270e-02 2.999941e-04 4.242622e-02 -5.392437e-02 -5.048791e-02
<VARIANCE> 25
 4.679372e+01 4.768033e+01 7.954889e+01 7.032324e+01 7.750932e+01 5.638683e+01 7.349461e+01 6.054192e+01 6.223527e+01 3.243543e+01 4.691559e+01 3.219665e+01 1.334199e+00 1.544353e+00 1.440372e+00 1.722857e+00 1.974123e+00 2.125578e+00 1.940145e+00 2.255759e+00 2.288071e+00 1.710201e+00 1.893220e+00 1.404891e+00 1.130013e+00
<GCONST> 1.010072e+02
<STATE> 4
<MEAN> 25
 4.099924e+00 7.809705e-01 2.294611e-01 -5.879349e-01 -1.915932e+00 -1.963860e+00 -2.360198e+00 -4.374895e-01 -2.534623e+00 5.436369e-01 -5.019703e-01 -2.391101e+00 -2.165771e-02 3.508143e-02 1.550529e-01 5.755129e-02 -1.883840e-02 1.569653e-02 -7.834470e-02 -9.458940e-02 1.525789e-02 -4.504083e-03 4.923316e-02 -5.232312e-02 -3.542041e-02
<VARIANCE> 25
 4.349442e+01 4.706788e+01 8.002836e+01 7.503674e+01 8.538569e+01 5.214837e+01 8.390871e+01 6.018187e+01 5.619139e+01 3.143181e+01 4.790799e+01 3.532844e+01 1.303946e+00 1.587144e+00 1.565552e+00 1.800083e+00 1.982033e+00 2.262796e+00 2.135329e+00 2.274742e+00 2.285875e+00 1.716156e+00 2.008039e+00 1.435490e+00 1.186185e+00
<GCONST> 1.015513e+02
<TRANSP> 5
 0.000000e+00 1.000000e+00 0.000000e+00 0.000000e+00 0.000000e+00
 0.000000e+00 7.964586e-01 2.035414e-01 0.000000e+00 0.000000e+00
 0.000000e+00 0.000000e+00 7.964585e-01 2.035416e-01 0.000000e+00
 0.000000e+00 0.000000e+00 0.000000e+00 9.299667e-01 7.003327e-02
 0.000000e+00 0.000000e+00 0.000000e+00 0.000000e+00 0.000000e+00
<ENDHMM>
~h "ey"
<BEGINHMM>
<NUMSTATES> 5
<STATE> 2
<MEAN> 25
 1.636281e+00 1.260680e+00 2.978587e+00 -1.516704e-01 -1.750789e+00 -1.560117e-01 -3.137064e+00 -6.136484e-01 -2.128428e+00 8.470140e-02 7.490818e-01 -1.185946e+00 -4.758367e-02 -1.132228e-02 7.042813e-02 1.565812e-02 -5.480251e-02 -1.906612e-02 9.498458e-03 4.272028e-02 8.575957e-03 2.078705e-02 1.291396e-02 3.091373e-02 -2.363373e-02
<VARIANCE> 25
 4.047046e+01 3.435415e+01 8.366028e+01 5.365695e+01 9.044899e+01 3.578678e+01 9.393410e+01 5.276192e+01 5.555494e+01 3.577867e+01 3.235334e+01 3.578065e+01 1.365702e+00 1.653126e+00 1.575337e+00 2.277876e+00 2.923990e+00 2.036825e+00 2.950178e+00 2.328157e+00 2.275240e+00 1.670151e+00 1.760761e+00 1.439746e+00 2.656060e+00
<GCONST> 1.018786e+02
<STATE> 3
<MEAN> 25
 1.423390e+00 1.191093e+00 3.287176e+00 -9.339261e-02 -2.005607e+00 -2.476345e-01 -3.078533e+00 -4.207496e-01 -2.081110e+00 1.845904e-01 7.930066e-01 -1.035567e+00 -4.385610e-02 -1.660277e-02 6.389610e-02 1.176979e-02 -5.329188e-02 -1.802318e-02 1.129841e-02 3.709491e-02 9.318054e-03 2.316064e-02 8.375367e-03 3.106392e-02 -1.197920e-02
<VARIANCE> 25
 3.899498e+01 3.420555e+01 8.497987e+01 5.115586e+01 9.387650e+01 3.526152e+01 9.571400e+01 5.148600e+01 5.563609e+01 3.606329e+01 3.069991e+01 3.500928e+01 1.351568e+00 1.692745e+00 1.591320e+00 2.219445e+00 2.959777e+00 2.011804e+00 2.978065e+00 2.304241e+00 2.257748e+00 1.667185e+00 1.719017e+00 1.434354e+00 2.747085e+00
<GCONST> 1.017496e+02
<STATE> 4
<MEAN> 25
 1.084573e+00 9.837531e-01 3.517647e+00 1.098583e-01 -2.177349e+00 -4.460567e-01 -2.950319e+00 -2.755629e-01 -1.954738e+00 2.311546e-01 7.882367e-01 -7.803342e-01 -3.364156e-02 -2.012848e-02 4.015135e-02 9.740720e-03 -3.709612e-02 -1.201490e-02 1.460150e-02 2.297192e-02 1.726580e-02 1.425750e-02 2.573896e-04 2.939385e-02 -3.477465e-04
<VARIANCE> 25
 3.651434e+01 3.330072e+01 8.392480e+01 4.731947e+01 9.780244e+01 3.578076e+01 9.930547e+01 5.048522e+01 5.535514e+01 3.625328e+01 2.752547e+01 3.276096e+01 1.299955e+00 1.687458e+00 1.565765e+00 2.071325e+00 2.936264e+00 1.980834e+00 3.048369e+00 2.268244e+00 2.173285e+00 1.649705e+00 1.606153e+00 1.413816e+00 2.731485e+00
<GCONST> 1.011841e+02
<TRANSP> 5
 0.000000e+00 1.000000e+00 0.000000e+00 0.000000e+00 0.000000e+00
 0.000000e+00 7.961147e-01 2.038852e-01 0.000000e+00 0.000000e+00
 0.000000e+00 0.000000e+00 7.961151e-01 2.038849e-01 0.000000e+00
 0.000000e+00 0.000000e+00 0.000000e+00 9.291360e-01 7.086391e-02
 0.000000e+00 0.000000e+00 0.000000e+00 0.000000e+00 0.000000e+00
<ENDHMM>
~h "hh"
<BEGINHMM>
<NUMSTATES> 5
<STATE> 2
<MEAN> 25
 -5.084981e+00 -1.230078e+00 -4.111409e+00 -1.366979e-01 2.734566e+00 1.533608e+00 5.302733e+00 1.611651e+00 4.276724e+00 -1.746451e+00 1.201982e+00 2.549339e+00 3.500330e-02 -5.673123e-03 -1.212217e-02 -6.080927e-03 5.132978e-03 5.870413e-03 3.511727e-03 4.353727e-02 7.600731e-03 1.822480e-02 6.934208e-03 -1.625832e-02 3.683287e-02
<VARIANCE> 25
 1.880145e+01 2.637131e+01 8.573141e+00 1.040892e+01 1.799168e+01 1.855071e+01 1.328011e+01 3.619276e+01 1.573145e+01 1.739990e+01 1.592727e+01 1.009989e+01 1.666071e-01 3.424249e-01 3.791207e-01 4.940447e-01 7.000650e-01 9.453992e-01 8.906940e-01 1.162303e+00 1.107544e+00 1.136090e+00 1.067014e+00 8.954209e-01 8.332132e-02
<GCONST> 7.210484e+01
<STATE> 3
<MEAN> 25
 -4.832459e+00 -1.295171e+00 -4.198835e+00 -1.889628e-01 2.732416e+00 1.514332e+00 5.305351e+00 1.841870e+00 4.257188e+00 -1.626013e+00 1.203413e+00 2.465804e+00 5.748843e-02 -1.616593e-02 -2.092184e-02 -1.147449e-02 -3.208772e-04 -4.493775e-03 -1.330413e-03 4.694074e-02 -1.073701e-02 2.487607e-02 -2.675855e-03 -1.800434e-02 6.059649e-02
<VARIANCE> 25
 2.111948e+01 2.896496e+01 1.010556e+01 1.176519e+01 1.953964e+01 1.996630e+01 1.387999e+01 3.606246e+01 1.732542e+01 1.858031e+01 1.708186e+01 1.045522e+01 2.074984e-01 4.094471e-01 4.148366e-01 5.307606e-01 6.997053e-01 9.579348e-01 9.040909e-01 1.130931e+00 1.149637e+00 1.161582e+00 1.096555e+00 9.035940e-01 1.132028e-01
<GCONST> 7.402773e+01
<STATE> 4
<MEAN> 25
 -2.929087e+00 -1.078650e+00 -4.376900e+00 -6.714554e-01 2.046295e+00 9.570935e-01 4.589750e+00 2.908327e+00 3.224635e+00 -1.047297e+00 8.316461e-01 1.950950e+00 1.278420e-01 -2.575879e-02 -4.062591e-02 -4.189059e-02 -2.510697e-02 -4.898483e-02 -4.341420e-02 4.710574e-02 -8.823854e-02 2.937076e-02 -4.363257e-02 -3.810907e-02 1.130968e-01
<VARIANCE> 25
 3.310962e+01 3.805017e+01 1.801629e+01 1.900852e+01 2.880344e+01 3.413789e+01 1.833566e+01 3.909052e+01 2.789988e+01 2.282197e+01 2.253104e+01 1.243102e+01 3.796031e-01 6.784547e-01 5.403916e-01 6.642327e-01 8.302330e-01 1.039623e+00 9.277871e-01 1.132537e+00 1.229630e+00 1.187293e+00 1.135614e+00 9.261585e-01 2.274733e-01
<GCONST> 8.094817e+01
<TRANSP> 5
 0.000000e+00 1.000000e+00 0.000000e+00 0.000000e+00 0.000000e+00
 0.000000e+00 7.974018e-01 2.025983e-01 0.000000e+00 0.000000e+00
 0.000000e+00 0.000000e+00 7.974016e-01 2.025984e-01 0.000000e+00
 0.000000e+00 0.000000e+00 0.000000e+00 9.308797e-01 6.912036e-02
 0.000000e+00 0.000000e+00 0.000000e+00 0.000000e+00 0.000000e+00
<ENDHMM>
~h "ih"
<BEGINHMM>
<NUMSTATES> 5
<STATE> 2
<MEAN> 25
 1.260762e-01 4.582740e-01 2.061024e+00 1.574948e+00 -4.992669e-01 -5.512055e-01 -1.451954e+00 -3.331645e-01 -4.243166e-01 3.723829e-01 -1.150828e-01 3.322924e-01 -1.844369e-02 -1.077626e-02 -3.235771e-02 1.510521e-02 1.747526e-02 -1.502995e-03 3.499817e-02 2.697455e-03 2.732264e-02 2.214005e-02 -1.651587e-02 -2.535527e-03 -1.180213e-02
<VARIANCE> 25
 5.663282e+01 3.393695e+01 6.575626e+01 4.461057e+01 7.372810e+01 3.642234e+01 8.285822e+01 6.169976e+01 4.871023e+01 3.272021e+01 3.149157e+01 2.453179e+01 1.991672e+00 1.874561e+00 2.356904e+00 2.121279e+00 3.299545e+00 2.289638e+00 3.492825e+00 3.096329e+00 2.421120e+00 2.127928e+00 1.875210e+00 1.529428e+00 2.379572e+00
<GCONST> 1.028402e+02
<STATE> 3
<MEAN> 25
 6.603853e-02 3.970142e-01 1.903743e+00 1.623710e+00 -4.269078e-01 -5.559468e-01 -1.298946e+00 -3.146567e-01 -3.112637e-01 4.866792e-01 -2.025083e-01 3.120954e-01 -3.165616e-03 -1.879998e-02 -3.079915e-02 5.047288e-03 9.878690e-03 -4.426561e-03 2.669498e-02 1.179285e-02 1.718064e-02 3.052995e-02 -2.365253e-02 -1.021124e-02 8.970434e-03
<VARIANCE> 25
 5.777636e+01 3.405122e+01 6.562485e+01 4.390027e+01 7.295827e+01 3.552457e+01 8.171666e+01 6.249253e+01 4.824156e+01 3.318570e+01 3.206394e+01 2.506443e+01 2.021054e+00 1.911125e+00 2.391257e+00 2.117399e+00 3.266148e+00 2.289567e+00 3.494289e+00 3.167195e+00 2.443635e+00 2.156001e+00 1.892221e+00 1.558435e+00 2.390207e+00
<GCONST> 1.029670e+02
<STATE> 4
<MEAN> 25
 -3.026215e-02 1.428237e-01 1.689048e+00 1.540149e+00 -3.318459e-01 -5.442008e-01 -1.101531e+00 -3.886501e-01 -2.541683e-01 7.207934e-01 -3.585736e-01 2.589709e-01 1.698587e-02 -2.563047e-02 -2.511437e-02 -9.419230e-03 -2.469454e-03 -7.406667e-03 1.420176e-02 2.310822e-02 2.479553e-03 4.092856e-02 -2.782823e-02 -1.800660e-02 3.220465e-02
<VARIANCE> 25
 6.007369e+01 3.423005e+01 6.559303e+01 4.434591e+01 7.113974e+01 3.453703e+01 8.107153e+01 6.581211e+01 4.759106e+01 3.454114e+01 3.280433e+01 2.547009e+01 2.022368e+00 1.920985e+00 2.376715e+00 2.124401e+00 3.156516e+00 2.263015e+00 3.505003e+00 3.303411e+00 2.455114e+00 2.195732e+00 1.900748e+00 1.582036e+00 2.335342e+00
<GCONST> 1.030982e+02
<TRANSP> 5
 0.000000e+00 1.000000e+00 0.000000e+00 0.000000e+00 0.000000e+00
 0.000000e+00 7.849388e-01 2.150612e-01 0.000000e+00 0.000000e+00
 0.000000e+00 0.000000e+00 7.849379e-01 2.150621e-01 0.000000e+00
 0.000000e+00 0.000000e+00 0.000000e+00 9.159412e-01 8.405880e-02
 0.000000e+00 0.000000e+00 0.000000e+00 0.000000e+00 0.000000e+00
<ENDHMM>
~h "iy"
<BEGINHMM>
<NUMSTATES> 5
<STATE> 2
<MEAN> 25
 2.246220e+00 1.517343e+00 4.176953e+00 8.049699e-01 -1.884752e+00 -1.454944e+00 -4.391197e+00 -1.882638e+00 -1.895641e+00 -1.172435e-01 8.550425e-01 -2.866702e+00 -3.578398e-02 7.381653e-04 4.648285e-02 8.983358e-03 1.001482e-02 9.679290e-03 -2.969054e-02 -1.343871e-02 8.141901e-03 8.121159e-03 2.801367e-02 -4.073636e-03 -1.085040e-02
<VARIANCE> 25
 4.455062e+01 4.558057e+01 8.794347e+01 6.596770e+01 8.230251e+01 4.863320e+01 9.482242e+01 5.297709e+01 5.038297e+01 2.855157e+01 4.136277e+01 4.003797e+01 1.397043e+00 1.481303e+00 2.028234e+00 2.078602e+00 1.982208e+00 2.550102e+00 2.664868e+00 2.406681e+00 2.267463e+00 1.711865e+00 2.011255e+00 1.573802e+00 1.329966e+00
<GCONST> 1.021676e+02
<STATE> 3
<MEAN> 25
 2.074183e+00 1.495764e+00 4.322489e+00 8.113600e-01 -1.816725e+00 -1.398610e+00 -4.498084e+00 -1.920897e+00 -1.855500e+00 -7.086142e-02 9.521247e-01 -2.863159e+00 -3.283609e-02 -7.765722e-03 2.233266e-02 -1.035776e-03 1.577650e-02 1.362512e-02 -1.935030e-02 -4.417767e-03 7.478806e-03 9.358159e-03 1.946567e-02 4.064075e-03 -1.156590e-02
<VARIANCE> 25
 4.553289e+01 4.575815e+01 8.723743e+01 6.403996e+01 8.000563e+01 4.878229e+01 9.641223e+01 5.386511e+01 4.994559e+01 2.828876e+01 4.131038e+01 4.092187e+01 1.399001e+00 1.469135e+00 2.044864e+00 2.065258e+00 1.958222e+00 2.529676e+00 2.691195e+00 2.420338e+00 2.262938e+00 1.697682e+00 2.006698e+00 1.566037e+00 1.316192e+00
<GCONST> 1.021284e+02
<STATE> 4
<MEAN> 25
 1.663509e+00 1.075149e+00 4.011937e+00 8.232827e-01 -1.221871e+00 -1.358725e+00 -4.560456e+00 -1.865021e+00 -1.592216e+00 -1.936616e-02 7.499728e-01 -2.726571e+00 -2.963070e-02 -2.284200e-02 -1.904578e-02 -1.295754e-02 2.232865e-02 1.731265e-02 8.548222e-03 5.397981e-03 8.427180e-03 1.024494e-02 -2.181432e-04 2.200804e-02 -1.590061e-02
<VARIANCE> 25
 4.685355e+01 4.505976e+01 8.149400e+01 5.967856e+01 7.346375e+01 5.063954e+01 1.004240e+02 5.716272e+01 4.880631e+01 2.894407e+01 4.014359e+01 4.226038e+01 1.360346e+00 1.448792e+00 1.923367e+00 1.929367e+00 1.837696e+00 2.446155e+00 2.707812e+00 2.402334e+00 2.198671e+00 1.696212e+00 1.926772e+00 1.534070e+00 1.254685e+00
<GCONST> 1.016500e+02
<TRANSP> 5
 0.000000e+00 1.000000e+00 0.000000e+00 0.000000e+00 0.000000e+00
 0.000000e+00 7.945433e-01 2.054567e-01 0.000000e+00 0.000000e+00
 0.000000e+00 0.000000e+00 7.945434e-01 2.054566e-01 0.000000e+00
 0.000000e+00 0.000000e+00 0.000000e+00 9.276641e-01 7.233582e-02
 0.000000e+00 0.000000e+00 0.000000e+00 0.000000e+00 0.000000e+00
<ENDHMM>
~h "ow"
<BEGINHMM>
<NUMSTATES> 5
<STATE> 2
<MEAN> 25
 3.762487e+00 1.103539e-01 -7.295141e-01 5.837355e-01 -5.776920e-01 -1.380585e+00 -4.190050e+00 -2.100345e+00 -3.770798e+00 -5.356526e-01 2.029430e+00 -4.440951e-01 2.066824e-02 -4.134773e-02 -1.161868e-01 -5.544882e-02 3.473395e-02 7.771111e-02 4.913263e-02 5.288428e-02 1.714191e-02 -4.059609e-03 -1.843317e-02 1.517429e-02 -8.870984e-02
<VARIANCE> 25
 8.659053e+01 3.207996e+01 9.009231e+01 5.273301e+01 4.099345e+01 4.459261e+01 1.197199e+02 8.845006e+01 6.034676e+01 1.838338e+01 5.203782e+01 1.929889e+01 1.719084e+00 1.116567e+00 2.051265e+00 1.919693e+00 1.896323e+00 2.433954e+00 3.479947e+00 3.127939e+00 2.417104e+00 1.261652e+00 1.744049e+00 1.265436e+00 1.090012e+00
<GCONST> 1.009769e+02
<STATE> 3
<MEAN> 25
 3.801573e+00 -4.990017e-02 -1.219480e+00 3.629219e-01 -4.091545e-01 -1.033498e+00 -3.930346e+00 -1.866724e+00 -3.633184e+00 -5.524862e-01 1.901770e+00 -3.745113e-01 -2.527618e-03 -3.376165e-02 -9.575255e-02 -4.738271e-02 3.820975e-02 7.898019e-02 6.732113e-02 4.924072e-02 3.606892e-02 -2.733066e-03 -3.939974e-02 1.426248e-02 -9.409445e-02
<VARIANCE> 25
 8.448246e+01 3.007617e+01 8.270836e+01 5.166322e+01 3.997564e+01 4.398671e+01 1.156352e+02 8.703195e+01 5.914897e+01 1.852575e+01 5.242736e+01 1.905174e+01 1.712947e+00 1.099473e+00 1.886474e+00 1.884383e+00 1.873478e+00 2.408190e+00 3.448571e+00 3.078290e+00 2.367328e+00 1.282271e+00 1.724193e+00 1.252958e+00 1.124096e+00
<GCONST> 1.005100e+02
<STATE> 4
<MEAN> 25
 3.362196e+00 -3.191488e-01 -1.593700e+00 2.162280e-01 2.273434e-02 -7.056586e-01 -3.287175e+00 -1.764183e+00 -3.161681e+00 -4.979670e-01 1.223650e+00 -3.890404e-01 -2.425031e-02 -2.354826e-02 -5.420355e-02 -2.734725e-02 3.686524e-02 6.438161e-02 6.691498e-02 4.701799e-02 5.982684e-02 -1.254557e-04 -5.853941e-02 1.340272e-02 -7.183628e-02
<VARIANCE> 25
 7.765933e+01 2.801615e+01 6.778243e+01 5.067942e+01 4.054366e+01 4.461103e+01 1.054934e+02 8.625357e+01 5.752343e+01 1.940862e+01 5.189563e+01 1.975375e+01 1.685649e+00 1.115081e+00 1.592725e+00 1.813621e+00 1.899864e+00 2.477306e+00 3.492339e+00 3.088315e+00 2.276059e+00 1.352063e+00 1.695287e+00 1.287579e+00 1.231734e+00
<GCONST> 1.000728e+02
<TRANSP> 5
 0.000000e+00 1.000000e+00 0.000000e+00 0.000000e+00 0.000000e+00
 0.000000e+00 7.853812e-01 2.146188e-01 0.000000e+00 0.000000e+00
 0.000000e+00 0.000000e+00 7.853811e-01 2.146189e-01 0.000000e+00
 0.000000e+00 0.000000e+00 0.000000e+00 9.171788e-01 8.282128e-02
 0.000000e+00 0.000000e+00 0.000000e+00 0.000000e+00 0.000000e+00
<ENDHMM>
~h "th"
<BEGINHMM>
<NUMSTATES> 5
<STATE> 2
<MEAN> 25
 1.599438e+00 5.147695e-01 2.557942e+00 1.383176e+00 -7.250125e-01 -1.045964e-01 -3.131984e+00 -1.423973e+00 -8.977287e-01 -1.038109e+00 3.413190e-01 -1.458318e+00 -2.165573e-02 -1.650492e-02 4.955468e-02 4.295340e-02 -1.103702e-03 -2.838766e-02 -4.193601e-02 1.655245e-02 4.719169e-03 -2.223965e-02 1.741769e-02 1.713762e-02 -1.624636e-02
<VARIANCE> 25
 4.796841e+01 3.398256e+01 8.709161e+01 6.093944e+01 7.867772e+01 4.327331e+01 8.828974e+01 4.204724e+01 4.460411e+01 3.467590e+01 3.149526e+01 3.286160e+01 1.484766e+00 1.492629e+00 1.991869e+00 1.954382e+00 2.036159e+00 2.333622e+00 2.860330e+00 2.116933e+00 2.255398e+00 2.074163e+00 1.993173e+00 1.646865e+00 1.547355e+00
<GCONST> 1.012408e+02
<STATE> 3
<MEAN> 25
 1.506796e+00 4.232180e-01 2.782901e+00 1.584494e+00 -7.272172e-01 -2.663353e-01 -3.336177e+00 -1.345312e+00 -9.015435e-01 -1.136546e+00 4.113133e-01 -1.382373e+00 -1.602668e-02 -2.040137e-02 4.943332e-02 3.820504e-02 -6.058145e-03 -3.640155e-02 -4.410241e-02 1.746943e-02 -2.973318e-03 -1.832402e-02 1.361646e-02 1.525698e-02 -5.212789e-03
<VARIANCE> 25
 4.724211e+01 3.464621e+01 8.929348e+01 5.914451e+01 7.868498e+01 4.478313e+01 9.096056e+01 4.146767e+01 4.558792e+01 3.440265e+01 3.153249e+01 3.364121e+01 1.508717e+00 1.495981e+00 2.029355e+00 1.938535e+00 1.996600e+00 2.380217e+00 2.880019e+00 2.088322e+00 2.254934e+00 2.069970e+00 1.986960e+00 1.679296e+00 1.521435e+00
<GCONST> 1.013483e+02
<STATE> 4
<MEAN> 25
 1.345804e+00 1.392127e-01 2.947616e+00 2.081482e+00 -2.933802e-01 -6.672406e-01 -3.766519e+00 -1.264461e+00 -1.015783e+00 -1.355162e+00 3.714298e-01 -1.281800e+00 -9.799152e-03 -2.155434e-02 4.361315e-02 2.288920e-02 -1.205755e-02 -3.765541e-02 -3.921553e-02 1.283959e-02 -1.295661e-02 -5.355742e-03 3.611742e-03 9.781285e-03 8.476872e-03
<VARIANCE> 25
 4.514956e+01 3.493042e+01 9.011276e+01 5.714075e+01 8.078757e+01 4.783666e+01 9.663391e+01 4.221613e+01 4.751809e+01 3.459798e+01 3.202104e+01 3.507085e+01 1.507520e+00 1.500969e+00 2.000170e+00 1.859589e+00 1.927015e+00 2.457383e+00 2.885127e+00 2.060455e+00 2.247892e+00 2.034679e+00 1.944066e+00 1.733748e+00 1.442593e+00
<GCONST> 1.014284e+02
<TRANSP> 5
 0.000000e+00 1.000000e+00 0.000000e+00 0.000000e+00 0.000000e+00
 0.000000e+00 7.943521e-01 2.056479e-01 0.000000e+00 0.000000e+00
 0.000000e+00 0.000000e+00 7.943521e-01 2.056478e-01 0.000000e+00
 0.000000e+00 0.000000e+00 0.000000e+00 9.268531e-01 7.314692e-02
 0.000000e+00 0.000000e+00 0.000000e+00 0.000000e+00 0.000000e+00
<ENDHMM>
~h "uw"
<BEGINHMM>
<NUMSTATES> 5
<STATE> 2
<MEAN> 25
 1.229984e+00 5.994557e-01 6.166034e-01 1.329326e+00 1.363682e+00 -6.135800e-01 -4.561248e+00 -2.241245e+00 -1.601087e+00 -8.132815e-01 1.266376e+00 -1.585955e+00 2.299068e-02 1.089303e-02 -3.681859e-02 2.170564e-02 3.743595e-02 3.110945e-02 -2.526477e-02 -2.846546e-02 -3.958352e-02 -1.533553e-02 2.653044e-02 1.128628e-02 -8.640908e-03
<VARIANCE> 25
 4.662697e+01 3.732797e+01 4.325032e+01 3.145796e+01 4.124566e+01 3.815034e+01 1.230861e+02 8.389622e+01 5.362189e+01 3.062766e+01 3.610372e+01 4.290631e+01 1.229075e+00 1.323501e+00 1.305211e+00 1.634685e+00 1.604717e+00 1.798303e+00 2.947870e+00 2.391850e+00 1.728729e+00 1.709639e+00 1.554127e+00 1.378162e+00 1.675532e+00
<GCONST> 9.859608e+01
<STATE> 3
<MEAN> 25
 1.320397e+00 6.385609e-01 4.305402e-01 1.417970e+00 1.535644e+00 -4.527097e-01 -4.629065e+00 -2.381329e+00 -1.786751e+00 -9.078835e-01 1.368660e+00 -1.495219e+00 1.977604e-02 6.951653e-03 -3.550219e-02 1.529982e-02 3.008392e-02 3.311943e-02 -1.171027e-02 -2.725120e-02 -3.413789e-02 -1.612879e-02 1.696205e-02 1.737884e-02 -6.997197e-03
<VARIANCE> 25
 4.720294e+01 3.742892e+01 4.195005e+01 3.050461e+01 4.106197e+01 3.650092e+01 1.233263e+02 8.569399e+01 5.470991e+01 3.011261e+01 3.653558e+01 4.186448e+01 1.245178e+00 1.311729e+00 1.285883e+00 1.628430e+00 1.640986e+00 1.754954e+00 2.974738e+00 2.428575e+00 1.736272e+00 1.678151e+00 1.528143e+00 1.372780e+00 1.665310e+00
<GCONST> 9.848116e+01
<STATE> 4
<MEAN> 25
 1.244863e+00 3.884589e-01 2.096605e-02 1.375822e+00 2.045313e+00 -1.365881e-01 -4.365838e+00 -2.957930e+00 -2.094107e+00 -1.306388e+00 1.061572e+00 -1.068079e+00 3.233346e-03 -3.023199e-03 -2.771212e-02 3.079994e-03 1.597815e-02 3.298317e-02 1.796941e-02 -1.925980e-02 -2.262918e-02 -2.114154e-02 -4.500402e-04 3.053245e-02 -5.388692e-03
<VARIANCE> 25
 4.560960e+01 3.826645e+01 3.870982e+01 2.818705e+01 4.275767e+01 3.331400e+01 1.163946e+02 1.005049e+02 5.770783e+01 3.014635e+01 3.483698e+01 3.673006e+01 1.238819e+00 1.260262e+00 1.190563e+00 1.486098e+00 1.673256e+00 1.641816e+00 2.870050e+00 2.650634e+00 1.721031e+00 1.618617e+00 1.431701e+00 1.288389e+00 1.577152e+00
<GCONST> 9.779916e+01
<TRANSP> 5
 0.000000e+00 1.000000e+00 0.000000e+00 0.000000e+00 0.000000e+00
 0.000000e+00 7.971825e-01 2.028175e-01 0.000000e+00 0.000000e+00
 0.000000e+00 0.000000e+00 7.971819e-01 2.028181e-01 0.000000e+00
 0.000000e+00 0.000000e+00 0.000000e+00 9.319927e-01 6.800726e-02
 0.000000e+00 0.000000e+00 0.000000e+00 0.000000e+00 0.000000e+00
<ENDHMM>
~h "sil"
<BEGINHMM>
<NUMSTATES> 5
<STATE> 2
<MEAN> 25
 -5.482418e+00 -3.379329e-01 -2.510971e+00 1.158714e+00 2.824822e+00 2.256758e+00 5.345953e+00 7.775049e-01 4.000227e+00 -8.580810e-01 1.479946e+00 2.457434e+00 -1.358675e-02 -2.799026e-02 -7.575551e-02 -8.441292e-02 -8.334430e-02 -6.883571e-02 -9.831110e-02 -5.925001e-02 -4.637554e-02 -9.757549e-02 -4.658695e-02 -6.536872e-02 -1.109855e-01
<VARIANCE> 25
 1.842491e+01 1.604772e+01 1.943903e+01 1.138838e+01 2.194250e+01 1.494671e+01 1.914280e+01 2.930036e+01 1.892736e+01 1.734141e+01 1.513696e+01 1.199644e+01 3.036251e-01 4.961012e-01 5.847918e-01 6.663238e-01 9.525589e-01 1.039642e+00 1.287301e+00 1.510122e+00 1.339736e+00 1.336072e+00 1.224643e+00 1.005769e+00 1.733394e-01
<GCONST> 7.701167e+01
<STATE> 3
<MEAN> 25
 -5.450007e+00 -4.964586e-01 -2.797974e+00 1.024948e+00 2.592549e+00 2.105958e+00 5.054807e+00 6.051951e-01 3.776502e+00 -1.337118e+00 1.287079e+00 2.259663e+00 5.947833e-03 -3.820290e-02 -6.108391e-02 -2.767491e-02 -4.335996e-02 -2.983835e-02 -6.166429e-02 -4.256829e-02 -5.994815e-02 -1.030448e-01 -4.728491e-02 -3.557826e-02 -6.134196e-02
<VARIANCE> 25
 1.609431e+01 1.551348e+01 1.555535e+01 1.077733e+01 1.840050e+01 1.490812e+01 1.725119e+01 3.013505e+01 1.611875e+01 1.774539e+01 1.482528e+01 1.244300e+01 2.618615e-01 4.418701e-01 5.462644e-01 6.214783e-01 9.194539e-01 9.968120e-01 1.255902e+00 1.477764e+00 1.267213e+00 1.320958e+00 1.250491e+00 1.088376e+00 1.568923e-01
<GCONST> 7.559583e+01
<STATE> 4
<MEAN> 25
 -4.865460e+00 -4.370531e-01 -2.930089e+00 9.910650e-01 2.338354e+00 2.323328e+00 4.756836e+00 9.662142e-01 3.558526e+00 -1.470397e+00 1.130952e+00 2.085698e+00 3.711626e-02 -3.978703e-02 -4.598372e-02 -2.469386e-02 3.998360e-03 3.139930e-03 -3.347526e-02 1.510607e-03 -3.237059e-02 -5.760179e-02 -3.462688e-02 -1.231738e-03 5.837835e-03
<VARIANCE> 25
 1.524449e+01 1.555614e+01 1.307698e+01 1.172076e+01 1.716554e+01 1.512274e+01 1.562200e+01 3.114262e+01 1.523021e+01 1.861953e+01 1.518979e+01 1.242483e+01 2.513511e-01 4.699336e-01 5.125016e-01 6.460324e-01 8.880655e-01 9.525782e-01 1.111510e+00 1.324527e+00 1.220335e+00 1.386633e+00 1.223601e+00 1.117743e+00 2.330211e-01
<GCONST> 7.544253e+01
<TRANSP> 5
 0.000000e+00 1.000000e+00 0.000000e+00 0.000000e+00 0.000000e+00
 0.000000e+00 7.932273e-01 2.067727e-01 0.000000e+00 0.000000e+00
 0.000000e+00 0.000000e+00 7.932277e-01 2.067723e-01 0.000000e+00
 0.000000e+00 0.000000e+00 0.000000e+00 9.261889e-01 7.381112e-02
 0.000000e+00 0.000000e+00 0.000000e+00 0.000000e+00 0.000000e+00
<ENDHMM>
