~o
<STREAMINFO> 1 25
<VECSIZE> 25<NULLD><MFCC_D_N_Z_0><DIAGC>
~s "silst"
<MEAN> 25
 -4.001415e+00 -1.302600e+00 -3.419743e+00 3.184139e+00 4.559461e+00 2.584807e+00 3.607799e+00 1.923499e-02 2.080044e+00 -4.637329e-01 -1.115585e+00 2.697420e+00 -3.942850e-02 -8.917183e-03 -3.062162e-02 2.484153e-02 4.311246e-02 5.610656e-02 1.758504e-02 -1.264573e-02 -1.867983e-02 -1.485817e-02 -2.319869e-02 1.353676e-02 -5.807507e-02
<VARIANCE> 25
 7.101003e+00 2.001698e+01 1.333307e+01 2.185682e+01 1.834828e+01 2.972883e+01 2.138056e+01 2.247094e+01 2.727982e+01 2.152645e+01 1.788799e+01 1.453456e+01 1.372381e-01 3.140378e-01 5.086462e-01 7.023355e-01 9.152507e-01 1.136234e+00 1.340158e+00 1.363981e+00 1.398959e+00 1.404507e+00 1.320796e+00 1.242666e+00 6.818662e-02
<GCONST> 7.594508e+01
~h "b"
<BEGINHMM>
<NUMSTATES> 5
<STATE> 2
<MEAN> 25
 3.095379e+00 3.398840e+00 7.034326e-01 2.138859e+00 4.895225e+00 4.111399e+00 -1.182094e+00 -2.534228e+00 5.335233e-02 8.069161e-01 -4.839709e-01 5.724267e-01 5.431880e-01 1.556600e+00 8.911102e-01 1.096282e+00 7.776615e-01 -7.650553e-02 5.260251e-01 -4.377755e-01 -3.775895e-01 -8.887585e-01 -6.069881e-01 -2.368921e-01 -5.511686e-01
<VARIANCE> 25
 4.891641e+01 2.604877e+01 2.456259e+01 5.485855e+01 3.298847e+01 3.142317e+01 4.795087e+01 3.827406e+01 4.602591e+01 3.219794e+01 3.056238e+01 2.382088e+01 2.737029e+00 2.323630e+00 2.060785e+00 3.651784e+00 4.461071e+00 4.681569e+00 4.949265e+00 4.551598e+00 3.170550e+00 2.545656e+00 2.876845e+00 2.338882e+00 2.696759e+00
<GCONST> 1.036618e+02
<STATE> 3
<MEAN> 25
 5.394444e+00 7.250327e+00 2.344799e+00 1.837990e+00 1.617596e+00 4.789315e-01 -1.754516e+00 -2.125344e+00 -5.574325e-01 -6.282163e-01 -3.630293e+00 -2.006714e+00 2.908815e-01 2.065720e-02 -1.968981e-01 -1.750869e-01 1.326517e-01 -3.289148e-02 1.942902e-01 3.804191e-01 4.195005e-01 1.698856e-01 9.360559e-02 2.335308e-02 4.267725e-02
<VARIANCE> 25
 3.121451e+01 3.318043e+01 1.995735e+01 3.666707e+01 4.143332e+01 2.859332e+01 3.649181e+01 3.414783e+01 4.176233e+01 3.255426e+01 2.341591e+01 2.477290e+01 2.138847e+00 2.096779e+00 1.676313e+00 3.032264e+00 2.674417e+00 3.076927e+00 2.445318e+00 3.312372e+00 3.519670e+00 3.745636e+00 2.105679e+00 2.011567e+00 1.847324e+00
<GCONST> 9.923069e+01
<STATE> 4
<MEAN> 25
 7.326489e-01 4.793815e+00 1.542937e+00 5.273204e+00 6.235153e+00 5.639704e+00 1.439281e+00 2.254294e+00 1.009577e+00 1.702536e+00 -1.197297e+00 1.266174e+00 2.402341e-02 5.917224e-02 2.709751e-02 7.656012e-02 1.673360e-02 5.016362e-02 2.158215e-02 5.532350e-03 -7.741358e-03 -4.019241e-02 -1.573612e-02 -5.312835e-02 -1.336270e-02
<VARIANCE> 25
 1.846571e+01 1.651827e+01 1.277872e+01 1.602859e+01 2.341463e+01 3.190318e+01 2.893910e+01 3.990892e+01 3.041838e+01 2.372863e+01 1.867529e+01 1.940537e+01 4.312594e-01 6.129299e-01 6.092888e-01 9.344178e-01 1.402865e+00 1.531099e+00 1.875069e+00 1.669487e+00 1.691569e+00 1.612708e+00 1.600393e+00 1.305956e+00 2.340855e-01
<GCONST> 8.343233e+01
<TRANSP> 5
 0.000000e+00 1.000000e+00 0.000000e+00 0.000000e+00 0.000000e+00
 0.000000e+00 5.870522e-01 4.129477e-01 0.000000e+00 0.000000e+00
 0.000000e+00 0.000000e+00 5.083303e-01 4.916697e-01 0.000000e+00
 0.000000e+00 0.000000e+00 0.000000e+00 8.844710e-01 1.155290e-01
 0.000000e+00 0.000000e+00 0.000000e+00 0.000000e+00 0.000000e+00
<ENDHMM>
~h "d"
<BEGINHMM>
<NUMSTATES> 5
<STATE> 2
<MEAN> 25
 3.820709e+00 1.683247e+00 4.045403e+00 1.651117e+00 -3.241625e+00 -5.163470e+00 -4.972783e+00 -2.760107e-01 -5.860018e-01 2.264924e-01 4.716125e-01 4.304693e-01 -3.742108e-01 7.507219e-01 -2.222580e-01 8.759716e-01 1.370021e+00 9.374627e-01 1.230129e+00 -1.911590e-01 1.910933e-01 -2.597775e-01 -4.203073e-01 5.105450e-01 -1.631930e+00
<VARIANCE> 25
 2.376564e+01 2.746509e+01 5.133960e+01 2.708568e+01 6.097907e+01 4.165392e+01 4.903909e+01 4.912671e+01 4.560032e+01 3.237895e+01 3.228775e+01 2.511840e+01 1.212430e+00 1.989811e+00 3.462192e+00 2.255090e+00 3.883965e+00 3.302014e+00 3.785385e+00 3.196670e+00 3.514260e+00 4.017296e+00 2.570830e+00 1.930164e+00 1.731966e+00
<GCONST> 1.020671e+02
<STATE> 3
<MEAN> 25
 3.281746e-01 1.825302e+00 7.232861e-01 2.931971e+00 2.696639e+00 1.361794e+00 5.188204e-01 1.231537e+00 1.546628e+00 3.270613e-01 -5.095487e-01 2.694724e+00 -3.821847e-01 4.723131e-02 -1.272021e-01 2.043735e-01 5.881343e-01 8.024411e-01 6.804807e-01 2.418146e-01 1.370896e-01 1.044446e-01 8.980333e-03 2.027979e-01 -5.716207e-01
<VARIANCE> 25
 2.337535e+01 2.559650e+01 2.702986e+01 2.638174e+01 3.056202e+01 3.542253e+01 3.057204e+01 4.299578e+01 4.504473e+01 2.379972e+01 2.655245e+01 2.058999e+01 1.185096e+00 1.901974e+00 1.764199e+00 2.119391e+00 2.166553e+00 2.783647e+00 2.612527e+00 2.758188e+00 2.689376e+00 2.482022e+00 2.396342e+00 1.667635e+00 1.014270e+00
<GCONST> 9.556146e+01
<STATE> 4
<MEAN> 25
 -1.870664e+00 2.830044e+00 6.034350e-01 5.033397e+00 5.884557e+00 7.412516e+00 2.678707e+00 3.820936e+00 2.198307e+00 2.097100e+00 1.479868e-01 2.983095e+00 -1.441902e-01 -2.877594e-04 -2.418406e-02 5.252258e-02 1.616941e-01 2.074843e-01 1.524554e-01 3.946319e-02 1.727913e-02 2.981119e-02 -3.157234e-02 -7.167419e-02 -1.195067e-01
<VARIANCE> 25
 1.097520e+01 1.082644e+01 1.424925e+01 1.509066e+01 1.949443e+01 3.305603e+01 2.076830e+01 3.011553e+01 3.808733e+01 2.226765e+01 1.990104e+01 1.613828e+01 3.076344e-01 5.227852e-01 6.768097e-01 1.020754e+00 1.231825e+00 1.542287e+00 1.668663e+00 1.686389e+00 1.617869e+00 1.511642e+00 1.558314e+00 1.313148e+00 1.859354e-01
<GCONST> 8.092423e+01
<TRANSP> 5
 0.000000e+00 1.000000e+00 0.000000e+00 0.000000e+00 0.000000e+00
 0.000000e+00 6.212321e-01 3.787679e-01 0.000000e+00 0.000000e+00
 0.000000e+00 0.000000e+00 6.525576e-01 3.474424e-01 0.000000e+00
 0.000000e+00 0.000000e+00 0.000000e+00 8.711089e-01 1.288911e-01
 0.000000e+00 0.000000e+00 0.000000e+00 0.000000e+00 0.000000e+00
<ENDHMM>
~h "f"
<BEGINHMM>
<NUMSTATES> 5
<STATE> 2
<MEAN> 25
 1.316741e+00 3.107923e-01 -1.437519e-01 3.701508e+00 1.631523e+00 -4.224413e-01 -1.086707e+00 1.404827e+00 9.405941e-01 2.647850e+00 8.939665e-01 -1.396200e+00 -1.655095e+00 4.728968e-01 -2.755764e-01 6.778486e-01 9.662275e-01 8.108333e-01 6.558971e-01 5.828905e-01 3.506951e-01 -1.385477e-01 -3.888109e-01 7.146328e-02 -8.977801e-01
<VARIANCE> 25
 4.322218e+01 2.294043e+01 3.217601e+01 6.518762e+01 4.911933e+01 5.369566e+01 4.254374e+01 4.288228e+01 3.783068e+01 3.470322e+01 2.962295e+01 3.628066e+01 2.328664e+00 2.099019e+00 2.416919e+00 2.708731e+00 3.793544e+00 3.377524e+00 4.092333e+00 3.967346e+00 3.399246e+00 2.913332e+00 2.519248e+00 2.428569e+00 1.022595e+00
<GCONST> 1.029709e+02
<STATE> 3
<MEAN> 25
 -3.287256e+00 1.718504e+00 -1.780502e+00 4.491213e+00 4.146381e+00 6.448678e+00 1.521605e+00 4.992250e+00 2.771061e+00 2.488020e+00 -6.671038e-03 1.596815e+00 -3.035823e-01 -4.322538e-02 -1.264284e-01 2.231409e-01 2.179724e-01 1.636650e-01 2.458301e-01 2.402528e-02 4.740009e-02 -1.303180e-02 4.335501e-02 -2.969338e-02 -1.937815e-02
<VARIANCE> 25
 2.039276e+01 1.358276e+01 2.242939e+01 1.615892e+01 2.063279e+01 2.917349e+01 2.242158e+01 2.687902e+01 3.275885e+01 2.160746e+01 1.866133e+01 1.388177e+01 3.397704e-01 4.933596e-01 5.821765e-01 8.695374e-01 1.166577e+00 1.421104e+00 1.470588e+00 1.884807e+00 1.574604e+00 1.733887e+00 1.418305e+00 1.238498e+00 2.811636e-01
<GCONST> 8.174163e+01
<STATE> 4
<MEAN> 25
 -1.021049e+01 -2.821073e+00 -1.847819e+00 7.453116e+00 7.994162e+00 1.465814e+00 6.048205e+00 3.322148e+00 4.874658e+00 2.594078e+00 1.215549e+00 -6.302677e-01 2.694625e-03 -3.430718e-01 -6.273676e-02 -1.717566e-01 5.440582e-02 -4.545833e-01 1.367870e-01 -2.403971e-01 -2.675452e-02 3.320566e-02 5.075568e-02 -1.105637e-02 3.510039e-01
<VARIANCE> 25
 1.757828e+01 1.888513e+01 2.088025e+01 2.983053e+01 3.046850e+01 1.878759e+01 3.166559e+01 2.651341e+01 2.912017e+01 2.800844e+01 3.515708e+01 1.918472e+01 1.976473e+00 1.143725e+00 1.247326e+00 1.743665e+00 1.750830e+00 1.977320e+00 2.016419e+00 2.353894e+00 2.215686e+00 1.650378e+00 1.383332e+00 1.741192e+00 9.357479e-01
<GCONST> 9.098800e+01
<TRANSP> 5
 0.000000e+00 1.000000e+00 0.000000e+00 0.000000e+00 0.000000e+00
 0.000000e+00 7.861986e-01 2.138015e-01 0.000000e+00 0.000000e+00
 0.000000e+00 0.000000e+00 8.870189e-01 1.129811e-01 0.000000e+00
 0.000000e+00 0.000000e+00 0.000000e+00 8.618996e-01 1.381005e-01
 0.000000e+00 0.000000e+00 0.000000e+00 0.000000e+00 0.000000e+00
<ENDHMM>
~h "g"
<BEGINHMM>
<NUMSTATES> 5
<STATE> 2
<MEAN> 25
 -6.090956e-01 2.064827e+00 2.937892e+00 3.210663e+00 4.605536e+00 1.745378e+00 3.572163e+00 4.230642e-01 -9.420590e-01 1.990842e+00 -1.477502e+00 1.144180e+00 -3.846188e-01 -8.624194e-01 -7.050760e-01 -1.668524e-01 8.284452e-01 -7.109191e-01 -1.773461e-01 4.551083e-01 1.540180e-03 5.404115e-01 -3.448599e-01 2.306277e-01 6.292392e-01
<VARIANCE> 25
 6.891164e+01 4.134886e+01 5.097756e+01 4.039926e+01 6.590372e+01 5.796044e+01 3.660088e+01 4.618121e+01 3.277427e+01 4.420832e+01 2.254117e+01 3.044499e+01 2.765024e+00 4.991574e+00 5.008800e+00 4.752823e+00 7.078571e+00 8.097026e+00 6.682477e+00 5.061694e+00 5.264689e+00 7.266111e+00 3.824675e+00 2.157835e+00 5.027933e+00
<GCONST> 1.117568e+02
<STATE> 3
<MEAN> 25
 9.258867e-01 -1.964074e-01 1.202554e-01 2.032847e+00 3.173424e+00 -5.419685e+00 -4.257868e+00 2.736395e+00 -3.846425e+00 6.053312e+00 -1.702979e+00 -1.240380e-01 1.506834e+00 8.797007e-01 1.101463e+00 -2.352188e-01 -2.020197e+00 -1.677070e+00 -2.094993e+00 -3.244616e-01 -3.365049e-01 -8.861928e-02 5.021938e-01 -9.176599e-01 1.531940e+00
<VARIANCE> 25
 3.997317e+01 5.003450e+01 7.835851e+01 4.207148e+01 8.509098e+01 9.402422e+01 9.000183e+01 5.917120e+01 5.697280e+01 8.254951e+01 3.902251e+01 2.908236e+01 3.874559e+00 3.420893e+00 4.229488e+00 5.107604e+00 4.984197e+00 5.430048e+00 5.561821e+00 4.360121e+00 3.797835e+00 7.165174e+00 5.589885e+00 4.748505e+00 2.113363e+00
<GCONST> 1.141808e+02
<STATE> 4
<MEAN> 25
 6.986875e+00 2.169013e+00 1.997856e-01 -1.183726e+00 -1.832761e-01 -2.538101e+00 -7.709917e+00 1.082375e+00 -2.270559e+00 2.663469e+00 8.980006e-01 -5.096115e+00 2.570638e-01 -3.714473e-01 -3.030155e-01 -4.915473e-01 -4.206906e-01 5.155527e-01 -1.024862e-02 -4.476008e-01 -2.114740e-01 -3.729977e-01 1.166768e+00 -2.739965e-01 5.170939e-01
<VARIANCE> 25
 1.823758e+01 4.033490e+01 4.521180e+01 4.229296e+01 5.762446e+01 6.002567e+01 5.282058e+01 5.318314e+01 6.432799e+01 1.207130e+02 1.113828e+02 4.224138e+01 1.136173e+00 2.243678e+00 3.297818e+00 4.540972e+00 7.049630e+00 5.044045e+00 4.124629e+00 3.849710e+00 4.713446e+00 3.160089e+00 5.166792e+00 2.801993e+00 2.860822e+00
<GCONST> 1.100098e+02
<TRANSP> 5
 0.000000e+00 1.000000e+00 0.000000e+00 0.000000e+00 0.000000e+00
 0.000000e+00 7.622486e-01 2.377514e-01 0.000000e+00 0.000000e+00
 0.000000e+00 0.000000e+00 5.774090e-01 4.225910e-01 0.000000e+00
 0.000000e+00 0.000000e+00 0.000000e+00 7.129724e-01 2.870276e-01
 0.000000e+00 0.000000e+00 0.000000e+00 0.000000e+00 0.000000e+00
<ENDHMM>
~h "k"
<BEGINHMM>
<NUMSTATES> 5
<STATE> 2
<MEAN> 25
 -9.463478e-01 7.457511e-01 6.586111e-01 3.518269e+00 1.985497e+00 2.115273e+00 2.051839e+00 5.018810e-01 7.241480e-01 1.725603e+00 1.398455e-01 1.490372e+00 -4.404615e-01 -8.247608e-01 -9.123567e-01 -3.901774e-01 4.798382e-01 -5.455877e-01 5.385475e-01 3.926843e-01 -1.551912e-01 4.224856e-01 -3.586571e-02 5.577692e-02 4.455642e-01
<VARIANCE> 25
 3.360290e+01 3.386164e+01 4.199802e+01 4.375144e+01 4.822812e+01 4.575885e+01 4.244710e+01 4.833869e+01 4.178129e+01 2.553115e+01 2.683219e+01 2.347667e+01 1.745218e+00 4.498409e+00 4.049049e+00 4.693558e+00 5.832030e+00 6.964847e+00 5.487496e+00 4.855549e+00 4.618327e+00 3.758401e+00 3.724420e+00 3.095745e+00 5.972252e+00
<GCONST> 1.083219e+02
<STATE> 3
<MEAN> 25
 -1.169913e+00 -2.552236e+00 -6.750644e+00 -5.582047e+00 3.592420e+00 -4.791633e-02 8.386472e-01 2.979439e+00 -3.748274e-01 4.994174e+00 2.910183e+00 -7.612291e-01 -5.603175e-01 -4.525917e-01 -5.571356e-01 -7.154533e-01 1.722758e-01 -7.582130e-01 -7.716513e-02 3.527679e-01 -1.395917e-01 2.831545e-01 3.398001e-01 -1.458443e-01 1.036326e+00
<VARIANCE> 25
 7.499963e+01 5.152818e+01 9.970148e+01 1.148935e+02 1.072518e+02 8.742187e+01 7.513258e+01 6.526436e+01 4.993941e+01 6.066875e+01 4.804793e+01 3.700251e+01 6.073691e+00 5.698115e+00 9.763514e+00 1.100215e+01 8.697351e+00 8.108371e+00 7.724726e+00 7.053792e+00 6.682139e+00 8.146152e+00 4.791269e+00 3.885658e+00 7.170841e+00
<GCONST> 1.220616e+02
<STATE> 4
<MEAN> 25
 -3.839111e+00 -3.099684e+00 -2.503786e+00 -1.037382e+00 1.212739e+00 -3.173548e+00 3.689413e+00 3.521584e+00 5.378196e-01 2.398854e+00 5.588292e-01 1.330948e+00 1.026576e-01 2.165388e-01 2.118811e-01 4.210693e-01 1.433642e-01 1.968620e-01 4.540358e-02 8.376319e-02 9.245320e-02 -4.559118e-01 -1.536977e-01 -1.764485e-01 -3.530207e-01
<VARIANCE> 25
 2.874501e+01 4.135457e+01 3.884341e+01 3.990044e+01 5.331862e+01 5.774379e+01 3.997980e+01 4.992293e+01 3.799690e+01 4.071318e+01 3.400632e+01 2.489704e+01 2.744505e+00 1.709503e+00 2.728757e+00 2.814636e+00 3.118221e+00 3.418387e+00 2.362900e+00 3.544803e+00 3.001920e+00 2.545814e+00 2.517068e+00 2.504603e+00 2.086472e+00
<GCONST> 1.027767e+02
<TRANSP> 5
 0.000000e+00 1.000000e+00 0.000000e+00 0.000000e+00 0.000000e+00
 0.000000e+00 5.819270e-01 4.180730e-01 0.000000e+00 0.000000e+00
 0.000000e+00 0.000000e+00 6.064121e-01 3.935879e-01 0.000000e+00
 0.000000e+00 0.000000e+00 0.000000e+00 7.331132e-01 2.668869e-01
 0.000000e+00 0.000000e+00 0.000000e+00 0.000000e+00 0.000000e+00
<ENDHMM>
~h "l"
<BEGINHMM>
<NUMSTATES> 5
<STATE> 2
<MEAN> 25
 4.389656e+00 4.953068e-01 -2.364512e+00 -3.301419e+00 1.067846e-01 -1.360470e+00 -2.409406e+00 -3.636846e+00 6.725212e-01 2.554716e+00 -5.199023e-01 -1.296241e+00 1.131908e+00 8.577598e-02 -4.562014e-01 -1.097408e+00 -3.579850e-01 -4.083754e-02 -1.083143e+00 -1.557394e+00 -6.797595e-02 6.732804e-01 -1.568803e-01 -5.654908e-01 8.119764e-01
<VARIANCE> 25
 4.783572e+01 5.027682e+01 3.376268e+01 7.758175e+01 5.109129e+01 8.066633e+01 8.910448e+01 6.876504e+01 4.254014e+01 4.086313e+01 4.075638e+01 3.248439e+01 3.582316e+00 2.291328e+00 3.210399e+00 5.153145e+00 5.253242e+00 6.362411e+00 6.212524e+00 5.380991e+00 4.429851e+00 4.074715e+00 4.017271e+00 2.511525e+00 2.636971e+00
<GCONST> 1.114005e+02
<STATE> 3
<MEAN> 25
 8.440178e+00 -1.340046e+00 -2.528131e+00 -9.236747e+00 -1.770152e-01 7.720590e-01 -7.110653e+00 -5.420276e+00 1.313335e+00 6.268772e+00 1.364280e+00 -4.522061e+00 -2.237456e-02 2.796769e-01 -9.920663e-02 3.936075e-03 1.855767e-01 1.333548e-01 3.088005e-01 -2.816700e-01 1.322583e-02 -2.293710e-01 -1.222192e-01 4.270622e-01 -2.470102e-01
<VARIANCE> 25
 2.082074e+01 2.842652e+01 4.836535e+01 7.070330e+01 4.813808e+01 9.554514e+01 1.335730e+02 9.221777e+01 4.278963e+01 5.831559e+01 3.675648e+01 4.078782e+01 5.598822e-01 1.121084e+00 1.273798e+00 2.886741e+00 2.018342e+00 2.158998e+00 2.548698e+00 2.888991e+00 1.985792e+00 2.244100e+00 2.024152e+00 2.251771e+00 6.696733e-01
<GCONST> 1.003699e+02
<STATE> 4
<MEAN> 25
 7.064947e+00 4.445676e+00 -5.449245e+00 -1.150209e+01 -6.258222e-02 1.743967e+00 -2.436423e+00 -2.130018e+00 -2.392561e+00 1.927218e+00 -2.119626e+00 1.009573e+00 -2.162262e-01 3.187668e-02 2.159231e-01 6.003630e-01 4.685017e-02 -1.365773e-01 1.591803e-01 2.385153e-01 1.365551e-01 -1.249965e-01 -3.000383e-02 1.819611e-02 -3.003950e-01
<VARIANCE> 25
 1.231231e+01 3.364064e+01 2.841674e+01 1.029710e+02 4.445652e+01 5.578458e+01 3.931376e+01 6.430994e+01 4.966506e+01 3.122816e+01 3.305526e+01 2.552356e+01 3.643619e-01 9.624218e-01 8.346825e-01 2.047732e+00 1.209421e+00 1.574035e+00 1.638290e+00 2.124414e+00 1.804583e+00 1.487431e+00 1.471257e+00 1.330087e+00 5.454895e-01
<GCONST> 9.212213e+01
<TRANSP> 5
 0.000000e+00 1.000000e+00 0.000000e+00 0.000000e+00 0.000000e+00
 0.000000e+00 6.653889e-01 3.346111e-01 0.000000e+00 0.000000e+00
 0.000000e+00 0.000000e+00 7.411689e-01 2.588311e-01 0.000000e+00
 0.000000e+00 0.000000e+00 0.000000e+00 8.369964e-01 1.630036e-01
 0.000000e+00 0.000000e+00 0.000000e+00 0.000000e+00 0.000000e+00
<ENDHMM>
~h "m"
<BEGINHMM>
<NUMSTATES> 5
<STATE> 2
<MEAN> 25
 7.241240e+00 3.103628e-01 3.669686e-01 1.863134e+00 -3.777680e+00 -3.535003e-01 -3.910407e+00 -8.000716e+00 -7.009135e+00 1.057449e+00 4.740049e-01 -1.877501e+00 6.540088e-02 9.005858e-01 1.526923e-01 1.122969e+00 9.331170e-01 2.796587e-01 3.213198e-01 -1.118780e+00 -6.485491e-01 -1.790208e-01 -3.941916e-02 2.544246e-01 -9.153253e-01
<VARIANCE> 25
 1.603929e+01 3.988850e+01 2.850893e+01 4.034145e+01 5.164976e+01 2.737851e+01 4.656400e+01 6.301217e+01 7.031913e+01 5.504954e+01 2.942568e+01 2.577802e+01 6.412055e-01 1.046478e+00 1.852680e+00 2.074586e+00 2.618919e+00 1.562965e+00 3.220302e+00 3.807045e+00 3.481334e+00 3.845145e+00 2.668846e+00 1.878707e+00 6.161540e-01
<GCONST> 9.817200e+01
<STATE> 3
<MEAN> 25
 5.352695e+00 4.248042e+00 3.269341e+00 6.003918e+00 2.517959e+00 2.989347e+00 -9.696060e-01 -5.477413e+00 -4.412183e+00 -1.775824e+00 -3.737458e-01 5.710602e-03 -2.337907e-01 1.622688e-01 1.561986e-01 2.685654e-01 2.989692e-01 3.489321e-01 2.005855e-01 1.240062e-01 5.287736e-02 -1.536286e-01 -2.767120e-02 1.299990e-01 -3.326373e-01
<VARIANCE> 25
 1.806467e+01 1.884497e+01 2.880649e+01 2.627569e+01 3.991670e+01 2.801427e+01 2.221823e+01 4.244593e+01 3.427362e+01 1.972835e+01 1.692992e+01 1.505413e+01 4.367188e-01 5.968160e-01 8.775979e-01 1.014147e+00 1.326392e+00 1.212915e+00 1.213394e+00 1.967833e+00 2.049496e+00 1.163120e+00 1.367391e+00 1.261924e+00 3.706237e-01
<GCONST> 8.463857e+01
<STATE> 4
<MEAN> 25
 2.344252e+00 2.007880e+00 1.284515e+00 5.498247e+00 2.716407e+00 3.789842e+00 -4.253429e-01 -5.138796e+00 -4.186439e+00 8.992390e-01 -7.693084e-02 1.662578e-01 1.793022e-01 -3.384508e-01 -3.021531e-01 -4.749371e-01 -4.391057e-01 -1.698982e-01 6.927766e-02 -6.844688e-02 -2.919580e-01 -5.998183e-02 -6.244067e-02 -1.641261e-01 3.258271e-01
<VARIANCE> 25
 3.362829e+01 1.717169e+01 1.810004e+01 2.464700e+01 4.373184e+01 4.898130e+01 3.742371e+01 6.497921e+01 9.825491e+01 3.484006e+01 1.884515e+01 2.992886e+01 1.677003e+00 1.242471e+00 1.997508e+00 2.198924e+00 1.898977e+00 2.395497e+00 2.101736e+00 3.338982e+00 4.155932e+00 1.999118e+00 1.721295e+00 1.648735e+00 9.497697e-01
<GCONST> 9.713153e+01
<TRANSP> 5
 0.000000e+00 1.000000e+00 0.000000e+00 0.000000e+00 0.000000e+00
 0.000000e+00 7.699996e-01 2.300004e-01 0.000000e+00 0.000000e+00
 0.000000e+00 0.000000e+00 7.477111e-01 2.522889e-01 0.000000e+00
 0.000000e+00 0.000000e+00 0.000000e+00 7.988658e-01 2.011342e-01
 0.000000e+00 0.000000e+00 0.000000e+00 0.000000e+00 0.000000e+00
<ENDHMM>
~h "n"
<BEGINHMM>
<NUMSTATES> 5
<STATE> 2
<MEAN> 25
 6.050869e+00 -2.213728e+00 1.100394e+00 -8.672586e-02 -3.600802e+00 -2.514341e+00 -3.318040e+00 1.467482e+00 -1.396542e+00 -1.133657e+00 -3.851342e+00 -1.748697e+00 4.891080e-01 1.674899e+00 1.213083e-01 1.631183e+00 3.928156e-01 6.340021e-02 7.030179e-02 -1.845198e+00 -6.859610e-01 -3.349702e-01 -2.718804e-01 5.401167e-01 -1.348125e+00
<VARIANCE> 25
 1.647856e+01 4.519110e+01 4.397980e+01 5.957700e+01 8.205450e+01 6.257226e+01 7.302756e+01 6.350490e+01 6.765943e+01 4.604836e+01 4.247964e+01 3.142568e+01 1.034521e+00 1.883435e+00 2.865752e+00 2.316215e+00 3.559062e+00 3.776856e+00 4.201133e+00 4.459133e+00 4.349197e+00 3.513004e+00 3.016649e+00 2.168423e+00 9.691665e-01
<GCONST> 1.053192e+02
<STATE> 3
<MEAN> 25
 6.758400e+00 2.763813e+00 1.930389e+00 2.709589e+00 -5.145859e+00 -7.852000e-01 -2.161369e+00 -6.595082e+00 -6.017537e+00 -9.091318e-01 -4.319964e+00 -8.704829e-01 4.383067e-01 8.013064e-01 2.813076e-01 5.262008e-01 -2.953570e-01 4.563335e-01 2.261566e-01 -1.349901e+00 -6.236968e-01 2.236902e-01 -7.629822e-02 2.756312e-01 -4.977065e-01
<VARIANCE> 25
 1.258017e+01 3.519865e+01 2.456545e+01 3.716035e+01 5.551947e+01 3.274257e+01 3.435090e+01 6.109881e+01 4.718664e+01 3.424502e+01 2.493247e+01 2.529960e+01 1.688476e+00 1.830738e+00 2.055591e+00 2.677767e+00 4.471292e+00 2.863703e+00 3.579622e+00 5.618613e+00 3.624000e+00 2.783456e+00 2.578167e+00 1.944398e+00 1.832824e+00
<GCONST> 1.007602e+02
<STATE> 4
<MEAN> 25
 5.330300e+00 3.800106e+00 3.840048e+00 4.220085e+00 -2.211840e+00 1.696999e+00 -1.311784e+00 -6.390601e+00 -3.725219e+00 -9.012498e-01 -2.581058e+00 2.048297e-01 -3.074889e-01 1.803796e-01 -5.151066e-02 1.777636e-01 5.768634e-01 2.694924e-01 1.484236e-01 1.517043e-01 3.033972e-01 3.022884e-02 7.256763e-02 1.312321e-01 -4.958682e-01
<VARIANCE> 25
 1.155324e+01 1.969309e+01 1.853118e+01 2.029176e+01 4.400988e+01 2.565794e+01 2.620981e+01 3.853319e+01 3.440624e+01 2.343440e+01 2.260082e+01 1.810862e+01 4.172608e-01 8.665267e-01 7.701259e-01 1.018391e+00 1.487683e+00 1.449461e+00 1.648019e+00 2.294342e+00 1.713885e+00 1.508725e+00 1.340788e+00 1.206886e+00 3.862995e-01
<GCONST> 8.527589e+01
<TRANSP> 5
 0.000000e+00 1.000000e+00 0.000000e+00 0.000000e+00 0.000000e+00
 0.000000e+00 5.884354e-01 4.115647e-01 0.000000e+00 0.000000e+00
 0.000000e+00 0.000000e+00 5.093606e-01 4.906394e-01 0.000000e+00
 0.000000e+00 0.000000e+00 0.000000e+00 8.530198e-01 1.469803e-01
 0.000000e+00 0.000000e+00 0.000000e+00 0.000000e+00 0.000000e+00
<ENDHMM>
~h "p"
<BEGINHMM>
<NUMSTATES> 5
<STATE> 2
<MEAN> 25
 -3.016008e+00 -9.621834e-01 -9.775215e-01 2.689361e+00 3.823271e+00 1.854593e+00 3.176372e+00 -3.513946e-01 2.038142e+00 9.393334e-03 -3.078797e-02 3.025524e+00 -1.547850e-01 -3.374474e-01 -3.060101e-01 -6.127097e-04 1.301278e-01 1.339288e-01 2.207605e-01 -7.555991e-02 2.724226e-01 1.816383e-01 2.938375e-02 1.270756e-01 -1.776109e-01
<VARIANCE> 25
 1.952597e+01 2.202973e+01 2.265465e+01 2.041512e+01 1.988929e+01 2.998274e+01 3.120590e+01 2.560864e+01 2.679552e+01 2.854575e+01 1.778612e+01 1.893336e+01 1.375661e+00 1.273420e+00 1.737245e+00 1.450699e+00 2.045291e+00 2.822942e+00 2.615864e+00 2.093200e+00 1.866069e+00 1.997084e+00 1.926333e+00 1.599969e+00 1.833839e+00
<GCONST> 9.166725e+01
<STATE> 3
<MEAN> 25
 -9.514329e-02 4.899468e-01 -1.677583e+00 8.564920e-01 2.429136e+00 -1.132913e+00 1.346356e+00 -2.155006e+00 3.175998e+00 2.867305e+00 -5.301057e-01 1.606262e+00 8.678222e-01 -3.420838e-01 -3.492157e-01 -1.036075e+00 -8.134908e-01 -4.017443e-01 -8.486018e-01 -3.773252e-01 2.836799e-01 6.611539e-01 7.278839e-01 -6.085432e-01 2.139910e+00
<VARIANCE> 25
 5.363508e+01 4.199174e+01 3.456872e+01 6.438886e+01 4.863422e+01 6.279337e+01 4.884139e+01 4.283240e+01 4.448173e+01 4.951098e+01 4.437854e+01 2.819727e+01 7.573864e+00 5.645085e+00 5.183433e+00 9.747809e+00 5.776510e+00 1.121285e+01 6.917494e+00 6.348066e+00 7.350530e+00 6.469886e+00 5.654189e+00 4.176044e+00 4.795128e+00
<GCONST> 1.160962e+02
<STATE> 4
<MEAN> 25
 1.754642e+00 -1.040186e+00 -2.608766e+00 -2.625667e+00 2.052830e+00 2.887451e+00 -8.904458e-01 -1.274517e+00 2.272966e+00 1.760530e+00 8.646778e-01 -8.667306e-01 6.369929e-01 -2.650144e-01 -5.929232e-03 -3.753010e-01 -3.195149e-01 -5.829698e-02 -5.155969e-01 2.165862e-01 -7.505320e-01 -4.742469e-01 1.869465e-01 -7.275732e-01 1.097856e+00
<VARIANCE> 25
 7.470016e+01 4.286029e+01 4.463271e+01 7.406687e+01 3.757061e+01 6.478191e+01 6.660184e+01 6.566389e+01 4.255823e+01 3.749354e+01 4.625562e+01 3.221929e+01 3.891269e+00 3.287041e+00 4.425417e+00 6.789922e+00 4.479664e+00 6.799053e+00 4.665721e+00 4.049613e+00 3.995690e+00 3.848264e+00 2.520269e+00 3.343091e+00 5.213548e+00
<GCONST> 1.118062e+02
<TRANSP> 5
 0.000000e+00 1.000000e+00 0.000000e+00 0.000000e+00 0.000000e+00
 0.000000e+00 7.685304e-01 2.314696e-01 0.000000e+00 0.000000e+00
 0.000000e+00 0.000000e+00 5.710952e-01 4.289048e-01 0.000000e+00
 0.000000e+00 0.000000e+00 0.000000e+00 4.421069e-01 5.578930e-01
 0.000000e+00 0.000000e+00 0.000000e+00 0.000000e+00 0.000000e+00
<ENDHMM>
~h "r"
<BEGINHMM>
<NUMSTATES> 5
<STATE> 2
<MEAN> 25
 -1.916519e+00 -4.869688e+00 -2.054103e+00 5.789723e-01 4.776933e-01 -1.394716e+00 -1.033751e+00 1.207456e+00 5.193501e+00 1.593370e+00 2.282046e+00 -4.027288e-01 2.159904e-01 -2.381793e-01 -1.524838e-01 6.149257e-01 8.509307e-02 -1.197509e+00 -4.249862e-01 -2.999140e-01 4.977522e-01 -4.977989e-01 -2.500851e-01 2.706517e-01 2.837642e-01
<VARIANCE> 25
 1.060998e+02 3.365905e+01 5.782517e+01 6.621489e+01 5.627712e+01 5.099274e+01 5.990989e+01 4.724828e+01 6.067338e+01 4.595464e+01 4.022599e+01 2.748722e+01 6.054173e+00 2.897786e+00 3.767243e+00 6.355564e+00 3.465631e+00 4.770408e+00 5.293385e+00 4.672592e+00 4.433219e+00 3.423391e+00 3.254868e+00 3.024270e+00 4.737576e+00
<GCONST> 1.118455e+02
<STATE> 3
<MEAN> 25
 8.742846e+00 -3.912409e+00 -7.463934e+00 1.623705e+00 -7.327783e-02 -5.683840e+00 -7.473037e+00 -3.421237e+00 2.198388e+00 -1.654533e+00 4.325916e-01 1.855049e+00 1.956203e+00 -6.145145e-01 -1.027780e+00 2.815850e-02 -6.401103e-01 -1.675303e+00 -1.108748e+00 -2.307455e-01 1.416816e-01 -4.931304e-01 -3.990684e-01 7.577784e-01 6.223564e-01
<VARIANCE> 25
 4.560810e+01 3.957207e+01 9.764407e+01 5.156887e+01 4.168015e+01 5.088594e+01 6.429144e+01 5.252998e+01 6.567799e+01 4.070517e+01 3.182996e+01 2.581978e+01 5.315314e+00 2.659884e+00 5.131267e+00 3.957211e+00 4.613208e+00 4.171390e+00 5.736291e+00 5.329529e+00 6.200836e+00 3.391484e+00 3.356076e+00 2.523025e+00 1.939553e+00
<GCONST> 1.102381e+02
<STATE> 4
<MEAN> 25
 1.084084e+01 -6.781680e+00 -8.498732e+00 4.172372e+00 -2.061034e+00 -9.395922e+00 -6.315400e+00 2.451915e+00 3.013016e+00 -2.105035e+00 -1.138742e+00 2.669050e+00 -2.958764e-01 1.676088e-01 6.115431e-01 1.557498e-01 -4.875934e-02 2.368667e-01 4.308497e-01 2.776228e-01 -1.882742e-01 1.140056e-01 -3.200285e-02 -2.445509e-02 -3.683750e-01
<VARIANCE> 25
 2.473507e+01 4.141648e+01 6.915355e+01 4.130695e+01 6.219820e+01 5.118433e+01 7.519611e+01 5.998874e+01 5.340258e+01 3.121664e+01 3.534146e+01 2.194452e+01 6.527145e-01 1.604980e+00 2.257556e+00 1.773570e+00 3.003759e+00 3.146610e+00 3.027429e+00 2.744127e+00 3.389436e+00 2.216898e+00 2.102260e+00 1.479751e+00 6.960943e-01
<GCONST> 9.997512e+01
<TRANSP> 5
 0.000000e+00 1.000000e+00 0.000000e+00 0.000000e+00 0.000000e+00
 0.000000e+00 6.636322e-01 3.363678e-01 0.000000e+00 0.000000e+00
 0.000000e+00 0.000000e+00 5.611175e-01 4.388825e-01 0.000000e+00
 0.000000e+00 0.000000e+00 0.000000e+00 8.378575e-01 1.621425e-01
 0.000000e+00 0.000000e+00 0.000000e+00 0.000000e+00 0.000000e+00
<ENDHMM>
~h "s"
<BEGINHMM>
<NUMSTATES> 5
<STATE> 2
<MEAN> 25
 -3.361846e+00 4.384141e+00 1.821515e+00 1.754135e+00 4.571437e+00 -4.382614e+00 1.484752e+00 9.434116e-01 2.182387e+00 6.206075e-03 -8.129834e-01 6.937655e-02 -3.567380e+00 2.062092e+00 -9.185642e-01 -3.959472e-01 2.258829e+00 -9.436321e-01 1.660709e+00 2.674550e-01 7.313589e-01 -7.366939e-01 7.042899e-01 -1.578037e-01 6.548553e-01
<VARIANCE> 25
 6.061153e+01 4.760746e+01 5.127333e+01 4.472232e+01 7.734863e+01 8.634933e+01 7.345288e+01 5.504745e+01 5.745628e+01 3.685944e+01 3.724459e+01 2.975971e+01 4.729875e+00 4.433974e+00 3.674654e+00 4.332289e+00 5.518135e+00 6.259379e+00 4.944782e+00 4.992807e+00 4.717325e+00 4.733714e+00 4.191464e+00 2.888529e+00 2.362133e+00
<GCONST> 1.124509e+02
<STATE> 3
<MEAN> 25
 -1.848646e+01 1.134795e+01 -6.760051e-01 -2.849248e+00 1.242635e+01 -4.598773e+00 3.863277e+00 4.794855e+00 2.815757e+00 -1.205917e+00 9.740967e-01 -1.389975e-01 -1.413556e+00 4.227944e-01 -8.809999e-01 -2.459385e-01 3.322150e-01 3.223720e-01 3.879524e-01 2.391081e-01 2.106851e-02 -1.623161e-02 4.370267e-01 1.128982e-01 4.672157e-02
<VARIANCE> 25
 3.778680e+01 5.177293e+01 3.499113e+01 5.098203e+01 6.551023e+01 3.789909e+01 7.183539e+01 4.995626e+01 4.147837e+01 3.653367e+01 2.972012e+01 2.591205e+01 3.078766e+00 2.661148e+00 2.250778e+00 2.227294e+00 2.854658e+00 2.362624e+00 2.848014e+00 2.691003e+00 2.981014e+00 2.409134e+00 1.859813e+00 1.790963e+00 1.135529e+00
<GCONST> 1.019474e+02
<STATE> 4
<MEAN> 25
 -1.645553e+01 8.992694e+00 -5.170938e+00 1.246594e+00 1.003872e+01 -3.711856e+00 7.842354e+00 8.718946e-01 4.279041e+00 -8.314911e-01 2.669870e+00 9.478267e-01 4.579924e-01 -4.618411e-01 1.684037e-01 1.557508e-01 -1.338827e-01 2.422598e-01 -1.715058e-01 -8.207690e-02 3.109385e-02 8.086729e-02 -1.192931e-01 5.967457e-02 -4.153412e-01
<VARIANCE> 25
 2.996846e+01 4.683442e+01 2.285009e+01 3.313907e+01 5.558522e+01 2.759990e+01 3.774232e+01 2.818278e+01 2.641009e+01 2.503518e+01 2.737418e+01 1.805775e+01 1.600322e+00 1.284040e+00 1.072981e+00 1.249024e+00 1.724541e+00 1.824477e+00 1.959165e+00 1.981262e+00 1.785363e+00 1.617063e+00 1.634346e+00 1.489478e+00 6.692998e-01
<GCONST> 9.188969e+01
<TRANSP> 5
 0.000000e+00 1.000000e+00 0.000000e+00 0.000000e+00 0.000000e+00
 0.000000e+00 7.181144e-01 2.818856e-01 0.000000e+00 0.000000e+00
 0.000000e+00 0.000000e+00 7.137614e-01 2.862386e-01 0.000000e+00
 0.000000e+00 0.000000e+00 0.000000e+00 8.997656e-01 1.002344e-01
 0.000000e+00 0.000000e+00 0.000000e+00 0.000000e+00 0.000000e+00
<ENDHMM>
~h "t"
<BEGINHMM>
<NUMSTATES> 5
<STATE> 2
<MEAN> 25
 2.640803e+00 1.062530e+00 1.139846e+00 -1.197761e-02 -8.478374e-01 -2.199288e+00 -8.877795e-01 1.242729e+00 1.782163e+00 1.404009e+00 -1.557414e+00 -7.315785e-01 -5.318840e-01 4.192064e-01 -3.362192e-01 8.233230e-01 1.248649e+00 9.718853e-01 9.308569e-01 -4.861350e-02 3.838376e-01 -1.857914e-01 1.041539e-02 4.220114e-01 -1.774553e+00
<VARIANCE> 25
 3.044697e+01 3.504873e+01 4.639396e+01 3.860260e+01 5.709499e+01 4.631898e+01 4.079945e+01 5.375445e+01 5.583755e+01 3.201789e+01 3.893598e+01 2.449541e+01 1.539590e+00 3.003076e+00 2.389260e+00 2.513617e+00 3.221750e+00 3.809250e+00 3.350333e+00 3.910631e+00 4.425548e+00 3.052841e+00 2.937526e+00 2.139301e+00 1.599357e+00
<GCONST> 1.036478e+02
<STATE> 3
<MEAN> 25
 -2.770020e+00 8.745218e-01 -1.616060e+00 3.348072e-01 3.954105e+00 4.118724e-01 2.900749e+00 1.375980e+00 3.054502e+00 1.301632e+00 -3.719302e-02 1.033968e+00 -5.610107e-01 -4.576097e-01 -2.282984e-01 -1.096393e-01 1.854253e-01 -1.354142e-01 2.564463e-01 2.510495e-01 2.152766e-01 1.408307e-01 1.767363e-01 2.087475e-01 6.956197e-03
<VARIANCE> 25
 3.985082e+01 3.379813e+01 3.659245e+01 3.538216e+01 3.696762e+01 5.677520e+01 3.895609e+01 4.040968e+01 4.089912e+01 3.375904e+01 2.857011e+01 2.183602e+01 3.373540e+00 3.047290e+00 2.784067e+00 3.212037e+00 3.962022e+00 6.310209e+00 3.430033e+00 3.197778e+00 3.882284e+00 2.768826e+00 2.787077e+00 2.266060e+00 4.522104e+00
<GCONST> 1.048573e+02
<STATE> 4
<MEAN> 25
 -2.640749e+00 1.369992e+00 -6.440166e-01 3.791902e+00 5.284936e+00 6.114192e+00 2.106257e+00 3.214117e+00 4.082607e+00 2.453492e+00 4.252883e-01 2.786530e+00 -1.751288e-01 -5.849163e-02 -1.706807e-04 8.461377e-02 9.942799e-02 1.744490e-01 6.320441e-02 -2.848258e-02 -2.976611e-02 -8.961089e-03 3.196462e-02 1.096066e-01 -1.840012e-01
<VARIANCE> 25
 1.364386e+01 1.698119e+01 1.522797e+01 2.001660e+01 2.319817e+01 3.494201e+01 2.661758e+01 3.044991e+01 3.323256e+01 2.282465e+01 2.127719e+01 1.765914e+01 4.249291e-01 6.815845e-01 8.505882e-01 1.241169e+00 1.336789e+00 1.779701e+00 1.707815e+00 1.857479e+00 1.795276e+00 1.553514e+00 1.525971e+00 1.344974e+00 3.839855e-01
<GCONST> 8.469144e+01
<TRANSP> 5
 0.000000e+00 1.000000e+00 0.000000e+00 0.000000e+00 0.000000e+00
 0.000000e+00 6.407357e-01 3.592643e-01 0.000000e+00 0.000000e+00
 0.000000e+00 0.000000e+00 5.081121e-01 4.918879e-01 0.000000e+00
 0.000000e+00 0.000000e+00 0.000000e+00 8.580857e-01 1.419143e-01
 0.000000e+00 0.000000e+00 0.000000e+00 0.000000e+00 0.000000e+00
<ENDHMM>
~h "v"
<BEGINHMM>
<NUMSTATES> 5
<STATE> 2
<MEAN> 25
 3.235252e+00 -1.357086e+00 5.258872e-01 2.502700e+00 -1.338143e+00 -2.757871e+00 -2.858379e-01 -4.350731e-01 -2.375405e-01 4.712746e-01 -7.023439e-01 -8.686588e-01 -1.336289e+00 7.910032e-01 -2.398345e-01 5.588942e-01 1.346208e+00 7.523121e-01 8.129686e-01 8.103051e-02 8.718914e-01 -2.080130e-01 -1.787375e-01 2.643894e-02 -8.540224e-01
<VARIANCE> 25
 3.680718e+01 2.777116e+01 5.008558e+01 9.112592e+01 2.803301e+01 6.288334e+01 3.498494e+01 4.983228e+01 2.744538e+01 2.762868e+01 2.178580e+01 3.726374e+01 1.888113e+00 1.679660e+00 1.978341e+00 1.873842e+00 2.531413e+00 3.270473e+00 3.789961e+00 3.653711e+00 4.476725e+00 2.307656e+00 2.576311e+00 2.405615e+00 7.695376e-01
<GCONST> 1.006747e+02
<STATE> 3
<MEAN> 25
 3.412024e+00 6.293687e-01 -5.933389e+00 -1.138595e+01 2.596915e-01 5.467661e+00 2.361797e+00 6.956186e-01 1.699382e-01 -3.878415e-01 -5.608699e-01 -2.341579e+00 -1.133958e+00 1.237847e-01 3.241134e-02 1.244703e+00 3.096572e-01 -6.462569e-01 3.255831e-01 3.671550e-01 4.417076e-01 -7.296031e-02 1.740588e-01 -5.418305e-02 -2.024310e-01
<VARIANCE> 25
 5.174443e+01 2.327383e+01 2.443968e+01 2.133623e+02 2.656908e+01 5.554012e+01 3.142482e+01 6.153893e+01 3.365535e+01 2.647232e+01 2.605795e+01 1.907789e+01 3.772694e+00 1.335405e+00 1.685271e+00 7.741942e+00 1.890574e+00 3.260611e+00 3.729724e+00 3.027392e+00 2.233642e+00 1.981902e+00 1.894032e+00 1.824325e+00 1.813861e+00
<GCONST> 1.012165e+02
<STATE> 4
<MEAN> 25
 -6.912121e+00 -1.793126e-01 -2.081264e+00 4.353774e+00 4.971054e+00 2.943282e+00 3.315955e+00 2.710055e+00 4.979907e+00 1.168661e+00 1.157329e+00 3.666504e-02 9.377411e-03 3.521104e-02 6.919216e-02 1.772356e-01 2.424377e-01 3.016816e-01 -2.577563e-01 3.318950e-02 -1.662043e-02 8.945668e-02 -4.140200e-02 1.938709e-01 -4.906472e-01
<VARIANCE> 25
 2.395485e+01 1.698999e+01 2.169451e+01 1.710217e+01 3.173646e+01 4.102166e+01 3.976566e+01 2.453621e+01 2.964397e+01 2.543605e+01 2.501259e+01 2.458895e+01 1.022508e+00 7.137442e-01 9.283606e-01 1.357387e+00 1.692619e+00 2.117658e+00 1.862070e+00 1.881882e+00 2.011226e+00 1.863456e+00 1.614477e+00 1.403059e+00 6.929709e-01
<GCONST> 8.919269e+01
<TRANSP> 5
 0.000000e+00 1.000000e+00 0.000000e+00 0.000000e+00 0.000000e+00
 0.000000e+00 6.935266e-01 3.064734e-01 0.000000e+00 0.000000e+00
 0.000000e+00 0.000000e+00 7.642401e-01 2.357599e-01 0.000000e+00
 0.000000e+00 0.000000e+00 0.000000e+00 8.916863e-01 1.083138e-01
 0.000000e+00 0.000000e+00 0.000000e+00 0.000000e+00 0.000000e+00
<ENDHMM>
~h "w"
<BEGINHMM>
<NUMSTATES> 5
<STATE> 2
<MEAN> 25
 -2.075700e+00 2.023491e+00 -5.695435e-01 5.553859e+00 6.265568e+00 8.421597e+00 1.849627e+00 3.126514e+00 3.445847e+00 1.454934e+00 5.464085e-02 2.876184e+00 2.253938e-01 2.325652e-01 -3.338725e-02 -9.545132e-02 -8.557338e-02 1.396467e-01 -7.024370e-02 -1.164336e-01 -1.745474e-01 -1.649662e-01 -1.417205e-01 -9.767221e-03 -2.539066e-02
<VARIANCE> 25
 1.379997e+01 1.615696e+01 1.734121e+01 2.343152e+01 2.455338e+01 4.339453e+01 2.814429e+01 2.914896e+01 4.993482e+01 2.205310e+01 2.094942e+01 2.005694e+01 7.634113e-01 1.355749e+00 1.232042e+00 1.514017e+00 1.946801e+00 2.252530e+00 2.077657e+00 1.838823e+00 2.357407e+00 1.997743e+00 1.661428e+00 1.821808e+00 3.396932e-01
<GCONST> 8.914073e+01
<STATE> 3
<MEAN> 25
 8.406476e+00 8.867954e+00 1.577653e-01 -3.950671e+00 -5.799715e+00 -9.055395e-01 -1.615756e+00 -1.089489e+00 -2.999818e+00 -2.772683e+00 -1.548846e+00 6.103317e-01 1.574430e+00 7.842463e-01 -4.068544e-01 -1.893536e+00 -1.573277e+00 -3.761805e-01 -3.404651e-01 -1.775601e-01 -7.469998e-01 -6.012123e-01 1.542796e-01 -7.646365e-02 9.812807e-01
<VARIANCE> 25
 2.404416e+01 2.240014e+01 1.695697e+01 4.395336e+01 4.331824e+01 3.096204e+01 2.747288e+01 2.717768e+01 3.144398e+01 2.436820e+01 2.065252e+01 2.054955e+01 2.683386e+00 1.912524e+00 2.386429e+00 3.469247e+00 4.040741e+00 4.301910e+00 2.893443e+00 2.999569e+00 3.321593e+00 2.641523e+00 2.093041e+00 2.145244e+00 9.602777e-01
<GCONST> 9.775757e+01
<STATE> 4
<MEAN> 25
 1.223104e+01 4.410398e+00 -6.213798e+00 -1.293027e+01 -7.368314e+00 4.081556e+00 -2.530994e+00 -4.121292e+00 -7.145758e+00 -1.577754e+00 4.350810e+00 5.296008e-01 -1.116390e-01 -1.814282e+00 -7.040997e-01 -6.205896e-02 9.440136e-01 3.551080e-01 -6.656879e-01 -4.827787e-01 3.144554e-01 1.453826e+00 9.833145e-01 -7.422680e-01 1.055500e+00
<VARIANCE> 25
 1.067080e+01 3.568652e+01 2.561508e+01 5.622363e+01 3.925702e+01 4.483564e+01 5.533508e+01 6.125592e+01 7.152309e+01 6.809594e+01 4.894455e+01 3.360349e+01 6.131921e-01 1.734444e+00 1.596386e+00 3.084370e+00 2.122669e+00 4.634527e+00 3.924353e+00 4.637383e+00 4.957095e+00 4.232507e+00 4.384203e+00 2.969382e+00 6.511165e-01
<GCONST> 1.026838e+02
<TRANSP> 5
 0.000000e+00 1.000000e+00 0.000000e+00 0.000000e+00 0.000000e+00
 0.000000e+00 8.551952e-01 1.448049e-01 0.000000e+00 0.000000e+00
 0.000000e+00 0.000000e+00 8.323570e-01 1.676430e-01 0.000000e+00
 0.000000e+00 0.000000e+00 0.000000e+00 8.171800e-01 1.828201e-01
 0.000000e+00 0.000000e+00 0.000000e+00 0.000000e+00 0.000000e+00
<ENDHMM>
~h "y"
<BEGINHMM>
<NUMSTATES> 5
<STATE> 2
<MEAN> 25
 -4.401017e+00 3.277982e+00 6.568917e+00 3.520173e+00 2.609597e+00 1.817633e+00 1.423900e+00 -1.375694e+00 -1.903895e+00 -9.579093e-01 1.029073e+00 -3.109533e+00 1.293349e+00 1.008146e+00 3.043387e+00 -7.498826e-01 -2.131310e+00 -1.009149e+00 -1.433422e+00 -6.286762e-01 -2.375706e+00 -2.697257e-01 6.975093e-01 -1.619554e+00 1.273620e+00
<VARIANCE> 25
 3.632955e+01 3.712276e+01 6.664813e+01 3.874965e+01 6.405882e+01 4.007165e+01 4.872317e+01 3.448746e+01 4.483319e+01 4.424588e+01 2.954111e+01 2.522435e+01 4.609679e+00 4.045280e+00 6.588755e+00 4.198959e+00 6.869505e+00 4.159546e+00 4.870913e+00 4.212092e+00 5.916999e+00 4.375030e+00 3.088484e+00 3.080004e+00 1.437973e+00
<GCONST> 1.089831e+02
<STATE> 3
<MEAN> 25
 6.175902e-01 5.353698e+00 1.762378e+01 -2.456172e+00 -1.095635e+01 -3.402884e+00 -2.585053e+00 -1.987756e+00 -1.052861e+01 -2.494531e+00 6.255831e+00 -7.383508e+00 1.349799e-01 -4.192271e-01 1.362711e+00 -4.807726e-01 -2.674699e+00 -7.860389e-01 3.141026e-02 4.212267e-01 -1.314116e+00 -2.654247e-01 1.116905e+00 2.629476e-02 1.416323e+00
<VARIANCE> 25
 1.567684e+01 2.914271e+01 6.570453e+01 3.105587e+01 6.639758e+01 4.455888e+01 3.225393e+01 3.403976e+01 6.277866e+01 5.560615e+01 2.647574e+01 2.460434e+01 2.586265e+00 2.389254e+00 4.374500e+00 4.835680e+00 7.872606e+00 4.110393e+00 3.090918e+00 4.513823e+00 5.808762e+00 4.767548e+00 4.546177e+00 2.139282e+00 9.991986e-01
<GCONST> 1.059037e+02
<STATE> 4
<MEAN> 25
 1.798718e+00 1.466420e+00 1.542702e+01 2.201504e+00 -1.628207e+01 -8.457874e+00 -4.675084e+00 -1.448868e+00 -1.363227e+01 -3.699530e+00 6.845417e+00 -5.063827e+00 4.896320e-01 -8.107954e-01 -1.398500e+00 6.272452e-01 4.113723e-01 -1.126848e+00 -7.860782e-01 7.037452e-01 8.129545e-01 2.264519e-02 -5.089873e-01 5.437707e-01 3.432427e-01
<VARIANCE> 25
 7.315112e+00 2.961284e+01 5.693943e+01 6.360620e+01 4.893720e+01 5.439476e+01 3.212823e+01 4.113685e+01 5.250632e+01 6.518741e+01 3.865891e+01 3.530621e+01 4.227736e-01 8.579102e-01 2.359361e+00 2.381178e+00 2.829532e+00 2.942595e+00 2.743077e+00 2.772572e+00 3.896970e+00 2.045430e+00 2.572916e+00 1.489194e+00 3.134305e-01
<GCONST> 9.706921e+01
<TRANSP> 5
 0.000000e+00 1.000000e+00 0.000000e+00 0.000000e+00 0.000000e+00
 0.000000e+00 6.825512e-01 3.174488e-01 0.000000e+00 0.000000e+00
 0.000000e+00 0.000000e+00 6.833257e-01 3.166742e-01 0.000000e+00
 0.000000e+00 0.000000e+00 0.000000e+00 8.401212e-01 1.598788e-01
 0.000000e+00 0.000000e+00 0.000000e+00 0.000000e+00 0.000000e+00
<ENDHMM>
~h "z"
<BEGINHMM>
<NUMSTATES> 5
<STATE> 2
<MEAN> 25
 9.723659e-01 2.600469e+00 5.171190e+00 1.109769e+00 -2.094464e+00 -1.080814e+01 -7.418706e-01 -6.431535e-01 -1.650907e+00 4.413307e-01 -9.057730e-01 -1.361532e+00 -3.398938e+00 2.699831e+00 -1.132664e+00 5.841931e-01 3.103516e+00 -5.795953e-01 2.167928e+00 -3.781644e-01 1.345034e+00 -9.616954e-01 7.329543e-01 1.169439e-01 -4.185702e-02
<VARIANCE> 25
 3.699980e+01 5.295635e+01 6.896687e+01 5.352347e+01 9.155540e+01 1.376190e+02 6.897031e+01 7.082651e+01 6.310525e+01 3.770570e+01 5.013284e+01 3.219667e+01 4.060493e+00 3.845876e+00 4.963486e+00 5.356452e+00 4.550674e+00 5.170779e+00 5.710494e+00 5.952140e+00 6.107579e+00 4.508848e+00 6.486822e+00 3.193740e+00 1.379460e+00
<GCONST> 1.142188e+02
<STATE> 3
<MEAN> 25
 -1.484940e+01 9.415579e+00 4.567627e-01 -1.213180e+00 7.486885e+00 -5.153310e+00 1.464882e+00 3.167409e+00 1.396282e+00 -3.446237e+00 1.249196e+00 -1.957616e-02 -1.638820e+00 6.119964e-01 -1.326443e+00 -2.958588e-01 7.031708e-01 5.658858e-01 4.778627e-01 1.370252e-01 3.730728e-01 -7.221749e-02 2.531149e-01 9.500127e-02 -2.631915e-01
<VARIANCE> 25
 5.787088e+01 4.707749e+01 4.619208e+01 5.338651e+01 4.084663e+01 8.856233e+01 5.575888e+01 6.147979e+01 3.892911e+01 2.600307e+01 3.206356e+01 2.571592e+01 6.558517e+00 4.114811e+00 2.513921e+00 3.857241e+00 4.384361e+00 4.309313e+00 2.916897e+00 3.670579e+00 3.031470e+00 2.745064e+00 2.469398e+00 1.992569e+00 1.591351e+00
<GCONST> 1.066890e+02
<STATE> 4
<MEAN> 25
 -1.470579e+01 9.564034e+00 -4.111148e+00 1.168816e+00 1.052339e+01 -4.365989e+00 7.630562e+00 6.033194e-01 4.239679e+00 -2.899430e-01 1.986239e+00 6.414689e-01 4.557735e-01 -5.014273e-01 1.540926e-01 1.545313e-01 -2.278886e-02 5.533781e-01 -6.744634e-02 5.054744e-02 4.585660e-02 8.225213e-02 -1.632528e-01 2.048470e-01 -6.968164e-01
<VARIANCE> 25
 3.715493e+01 4.978882e+01 2.145811e+01 3.848658e+01 6.301204e+01 3.927492e+01 3.363391e+01 3.395874e+01 3.326547e+01 2.981688e+01 3.104883e+01 2.324804e+01 1.437060e+00 1.417835e+00 1.149628e+00 1.305976e+00 1.848238e+00 1.958786e+00 1.987822e+00 2.225149e+00 1.973678e+00 1.709550e+00 1.583362e+00 1.702369e+00 4.983874e-01
<GCONST> 9.392505e+01
<TRANSP> 5
 0.000000e+00 1.000000e+00 0.000000e+00 0.000000e+00 0.000000e+00
 0.000000e+00 6.745574e-01 3.254426e-01 0.000000e+00 0.000000e+00
 0.000000e+00 0.000000e+00 7.487674e-01 2.512325e-01 0.000000e+00
 0.000000e+00 0.000000e+00 0.000000e+00 9.217022e-01 7.829781e-02
 0.000000e+00 0.000000e+00 0.000000e+00 0.000000e+00 0.000000e+00
<ENDHMM>
~h "aa"
<BEGINHMM>
<NUMSTATES> 5
<STATE> 2
<MEAN> 25
 2.690665e+00 1.444311e-01 -1.926890e+00 -2.520842e+00 1.485217e+00 5.926979e-01 -2.287492e+00 -1.668024e+00 1.528258e+00 1.535843e+00 -5.656534e-01 -1.432787e+00 8.903246e-01 -1.471004e+00 -1.022987e+00 -2.312836e+00 -5.056081e-01 2.038340e-01 -6.662970e-01 -1.431943e-01 5.308027e-01 6.496941e-01 -3.370519e-01 -7.969214e-01 1.867709e+00
<VARIANCE> 25
 7.265499e+01 5.001975e+01 4.726974e+01 9.756739e+01 7.272978e+01 9.214397e+01 7.221434e+01 7.161324e+01 5.430389e+01 4.272514e+01 4.276775e+01 3.487863e+01 5.595430e+00 3.699804e+00 4.238462e+00 8.776271e+00 6.759089e+00 7.648869e+00 6.792957e+00 9.162477e+00 5.289950e+00 6.048113e+00 5.107974e+00 4.692575e+00 3.624687e+00
<GCONST> 1.176526e+02
<STATE> 3
<MEAN> 25
 8.172141e+00 -4.442114e+00 -7.444676e+00 -1.149022e+01 2.177065e-01 6.169568e+00 -1.862290e+00 -4.425871e+00 1.499530e+00 3.121413e+00 -9.655788e-01 -2.496100e+00 5.189090e-01 -8.736938e-01 -4.693561e-01 -9.346203e-01 1.780506e-01 9.475490e-01 1.569944e-01 5.626882e-01 -2.143072e-01 -2.514697e-01 -1.461826e-01 -6.179680e-01 7.020127e-01
<VARIANCE> 25
 2.543787e+01 4.219608e+01 3.819418e+01 7.086639e+01 5.545017e+01 7.550318e+01 9.458930e+01 8.297099e+01 6.626825e+01 6.751431e+01 5.578479e+01 5.040306e+01 2.352365e+00 1.803777e+00 2.660480e+00 6.205557e+00 3.280409e+00 4.490720e+00 2.781015e+00 4.528538e+00 4.296629e+00 3.686816e+00 3.875781e+00 3.281000e+00 2.038830e+00
<GCONST> 1.099746e+02
<STATE> 4
<MEAN> 25
 8.377265e+00 -6.832824e+00 -7.385478e+00 -1.251618e+01 -1.617488e+00 4.484113e+00 -3.700450e+00 -2.513422e-01 -1.544758e+00 1.406505e+00 -6.377628e-01 -5.658061e+00 -8.612400e-02 1.527230e-01 2.393976e-01 6.249345e-01 3.659657e-02 -5.768730e-01 -2.177479e-01 2.636047e-01 1.067384e-01 7.300472e-02 -2.518640e-01 3.681356e-02 -2.219443e-01
<VARIANCE> 25
 7.240006e+00 3.361164e+01 2.689688e+01 8.541541e+01 4.409358e+01 9.993983e+01 4.723556e+01 8.344988e+01 5.870485e+01 4.993254e+01 4.921875e+01 3.069308e+01 2.937830e-01 8.736608e-01 8.702224e-01 1.721872e+00 1.140761e+00 2.100660e+00 1.806713e+00 1.944259e+00 2.151453e+00 1.896662e+00 1.879922e+00 1.457280e+00 4.743375e-01
<GCONST> 9.399772e+01
<TRANSP> 5
 0.000000e+00 1.000000e+00 0.000000e+00 0.000000e+00 0.000000e+00
 0.000000e+00 6.355367e-01 3.644634e-01 0.000000e+00 0.000000e+00
 0.000000e+00 0.000000e+00 6.049424e-01 3.950576e-01 0.000000e+00
 0.000000e+00 0.000000e+00 0.000000e+00 8.904740e-01 1.095259e-01
 0.000000e+00 0.000000e+00 0.000000e+00 0.000000e+00 0.000000e+00
<ENDHMM>
~h "ae"
<BEGINHMM>
<NUMSTATES> 5
<STATE> 2
<MEAN> 25
 -8.976569e-01 -3.192756e+00 -2.251383e-01 8.474538e-01 2.419222e+00 2.333563e+00 2.314934e+00 1.065778e+00 5.996592e-01 -2.812437e-01 -6.907336e-01 6.146443e-02 4.214221e-01 -6.385075e-01 -2.138878e-01 -2.087432e-01 -2.953966e-01 -4.490074e-01 4.822398e-01 5.678756e-01 -1.684735e-01 -3.622926e-01 -5.561373e-01 -2.665703e-01 7.365950e-01
<VARIANCE> 25
 4.310089e+01 7.393114e+01 2.882836e+01 4.565991e+01 5.011885e+01 4.298666e+01 4.667266e+01 6.101400e+01 3.806442e+01 3.038371e+01 3.013435e+01 2.667501e+01 2.265872e+00 2.695133e+00 2.574961e+00 2.134153e+00 3.421878e+00 3.768509e+00 3.512332e+00 3.111964e+00 2.773259e+00 2.898225e+00 2.834413e+00 2.109030e+00 1.471877e+00
<GCONST> 1.032887e+02
<STATE> 3
<MEAN> 25
 2.803633e+00 -7.754805e+00 -1.714227e+00 -1.847907e+00 -2.256433e+00 -3.534251e+00 4.190950e+00 2.868308e+00 1.821136e+00 -2.317748e+00 -2.911541e+00 -1.436591e+00 7.393115e-01 -1.858909e+00 -1.766791e-01 -1.328091e+00 -1.296026e+00 -1.457400e+00 -6.830837e-02 9.348037e-01 -1.192323e-01 -6.484990e-01 -6.899781e-01 -3.464801e-01 2.563547e+00
<VARIANCE> 25
 3.327065e+01 7.693584e+01 3.628185e+01 4.445106e+01 6.192619e+01 7.892477e+01 1.077206e+02 7.132499e+01 5.616333e+01 4.220533e+01 4.579275e+01 3.183219e+01 3.614948e+00 6.721407e+00 3.008729e+00 4.427036e+00 5.107310e+00 6.855244e+00 6.218089e+00 7.511393e+00 5.999870e+00 4.288357e+00 5.243709e+00 2.942707e+00 4.414284e+00
<GCONST> 1.143250e+02
<STATE> 4
<MEAN> 25
 4.550963e+00 -1.094434e+01 -2.427740e+00 -5.659748e+00 -5.389145e+00 -7.077897e+00 4.338742e+00 7.969731e+00 -1.116432e+00 -4.968710e+00 -6.036350e+00 -2.272218e+00 3.798801e-02 3.548581e-01 4.570885e-02 8.339554e-02 -1.180731e-04 -9.614587e-02 -2.123910e-01 -3.330559e-02 1.382403e-02 2.683873e-01 -2.755259e-02 -8.626636e-03 -3.104237e-01
<VARIANCE> 25
 1.363399e+01 4.308708e+01 3.684982e+01 3.097790e+01 4.192590e+01 4.399810e+01 4.824749e+01 6.362035e+01 5.536586e+01 3.889872e+01 4.523105e+01 2.568400e+01 2.459632e-01 7.543016e-01 7.883148e-01 1.005788e+00 1.083024e+00 1.317306e+00 1.360581e+00 1.581764e+00 1.654571e+00 1.304356e+00 1.291765e+00 1.086961e+00 5.223923e-01
<GCONST> 8.930923e+01
<TRANSP> 5
 0.000000e+00 1.000000e+00 0.000000e+00 0.000000e+00 0.000000e+00
 0.000000e+00 4.859380e-01 5.140620e-01 0.000000e+00 0.000000e+00
 0.000000e+00 0.000000e+00 7.506185e-01 2.493814e-01 0.000000e+00
 0.000000e+00 0.000000e+00 0.000000e+00 9.151769e-01 8.482302e-02
 0.000000e+00 0.000000e+00 0.000000e+00 0.000000e+00 0.000000e+00
<ENDHMM>
~h "ah"
<BEGINHMM>
<NUMSTATES> 5
<STATE> 2
<MEAN> 25
 -6.106631e-02 2.535146e+00 1.731166e+00 1.639662e+00 2.105691e+00 -2.476198e+00 -2.086105e-01 4.403019e-01 1.798033e+00 1.792882e-01 -1.546156e+00 -1.931923e-02 8.516281e-01 -1.492186e+00 2.189346e-02 -1.349334e+00 -1.215160e+00 -1.272026e+00 -8.928410e-01 -5.064836e-02 3.975849e-02 2.413975e-01 1.467070e-01 -4.080139e-01 2.068533e+00
<VARIANCE> 25
 5.529842e+01 5.060937e+01 5.402646e+01 5.265841e+01 6.298746e+01 9.176582e+01 6.370158e+01 4.875235e+01 5.038338e+01 4.232300e+01 3.603533e+01 2.658061e+01 6.133485e+00 6.045543e+00 5.307547e+00 7.382383e+00 8.071910e+00 1.018537e+01 9.319690e+00 7.087354e+00 6.781976e+00 6.021641e+00 5.733083e+00 3.702508e+00 5.645167e+00
<GCONST> 1.174467e+02
<STATE> 3
<MEAN> 25
 5.496541e+00 -4.645194e+00 -6.335279e-01 -5.284432e+00 -3.549891e+00 -3.054455e+00 -4.618394e+00 1.201437e-01 3.810319e-01 2.439154e+00 -1.377926e+00 -3.548675e+00 7.705100e-01 -1.261179e+00 -4.687571e-01 -1.306160e+00 -6.507356e-01 -4.370555e-02 -7.793540e-01 5.997261e-01 -1.670116e-01 2.109894e-01 -1.464784e-01 -6.972486e-01 1.427996e+00
<VARIANCE> 25
 1.963306e+01 3.897484e+01 8.934452e+01 7.303509e+01 7.568529e+01 1.109121e+02 1.057769e+02 8.321851e+01 8.280741e+01 6.617481e+01 5.773522e+01 3.941926e+01 2.172362e+00 3.093562e+00 3.572280e+00 6.649588e+00 5.402304e+00 5.170167e+00 6.183408e+00 6.567207e+00 5.390177e+00 5.742476e+00 4.757623e+00 3.383535e+00 3.813890e+00
<GCONST> 1.154839e+02
<STATE> 4
<MEAN> 25
 5.332182e+00 -6.588138e+00 -8.247334e-01 -5.447979e+00 -6.448246e+00 -5.724985e+00 -5.273840e+00 1.918422e+00 3.077744e-01 3.622065e-02 -1.768065e+00 -3.698394e+00 -1.547876e-02 3.008648e-01 -1.912316e-02 2.123951e-01 2.490886e-01 2.707400e-01 6.183040e-02 9.110348e-02 1.126630e-01 1.861878e-01 -1.101458e-01 1.397319e-01 -4.867603e-01
<VARIANCE> 25
 1.052064e+01 3.491557e+01 4.876314e+01 6.377083e+01 7.630829e+01 1.005164e+02 7.702448e+01 5.895785e+01 9.090767e+01 6.396576e+01 7.042847e+01 4.007422e+01 3.333146e-01 8.807581e-01 9.422351e-01 1.344233e+00 1.491768e+00 1.567329e+00 1.655234e+00 1.744549e+00 1.943745e+00 1.736934e+00 1.491497e+00 1.346629e+00 5.403171e-01
<GCONST> 9.609402e+01
<TRANSP> 5
 0.000000e+00 1.000000e+00 0.000000e+00 0.000000e+00 0.000000e+00
 0.000000e+00 6.804335e-01 3.195666e-01 0.000000e+00 0.000000e+00
 0.000000e+00 0.000000e+00 6.170118e-01 3.829882e-01 0.000000e+00
 0.000000e+00 0.000000e+00 0.000000e+00 8.907230e-01 1.092770e-01
 0.000000e+00 0.000000e+00 0.000000e+00 0.000000e+00 0.000000e+00
<ENDHMM>
~h "ao"
<BEGINHMM>
<NUMSTATES> 5
<STATE> 2
<MEAN> 25
 4.049488e+00 -5.737678e-01 -4.693422e+00 -7.038548e+00 -1.348699e+00 3.064649e+00 9.652792e-01 -1.811761e+00 2.265151e-01 1.263434e+00 -5.531173e-01 -2.278356e+00 1.994889e+00 -6.861618e-01 -9.412590e-01 -2.387211e+00 -1.305639e+00 4.963597e-01 -3.395847e-01 -4.613421e-01 -4.834644e-01 -3.092623e-01 -1.041314e-01 -6.559996e-01 1.555336e+00
<VARIANCE> 25
 6.813534e+01 4.316694e+01 4.872980e+01 9.700479e+01 7.326933e+01 8.955526e+01 7.143837e+01 5.780758e+01 6.999845e+01 5.053150e+01 3.657908e+01 3.870506e+01 5.221458e+00 4.210739e+00 3.287899e+00 8.844439e+00 7.081658e+00 6.854865e+00 6.261364e+00 6.239527e+00 6.973460e+00 4.112237e+00 4.049683e+00 3.230562e+00 3.120550e+00
<GCONST> 1.160096e+02
<STATE> 3
<MEAN> 25
 8.670880e+00 -5.663597e+00 -9.920019e+00 -1.907724e+01 -5.516632e+00 8.013175e+00 2.656249e+00 -5.299949e+00 -2.124095e+00 -2.122919e+00 3.822847e-01 -3.762486e+00 1.766412e-01 -1.211955e-02 -1.088605e-01 -6.853940e-02 -3.439836e-03 4.405100e-01 -1.045610e-01 -2.329056e-03 -2.528806e-01 2.383969e-01 1.669205e-01 2.398038e-01 -1.707932e-01
<VARIANCE> 25
 1.550185e+01 3.782034e+01 2.318908e+01 6.953024e+01 6.453597e+01 4.193570e+01 4.216290e+01 6.532343e+01 8.537299e+01 5.587883e+01 4.225584e+01 2.354212e+01 3.006195e-01 1.137484e+00 6.521950e-01 1.951447e+00 1.417105e+00 1.931155e+00 1.939756e+00 1.708994e+00 1.601309e+00 1.666681e+00 1.421398e+00 9.477174e-01 5.406509e-01
<GCONST> 9.294106e+01
<STATE> 4
<MEAN> 25
 9.128665e+00 9.911012e-01 -5.850531e+00 -1.344863e+01 -3.537017e+00 6.972337e+00 -3.729698e+00 1.492649e+00 -2.638366e+00 1.522838e+00 3.726767e+00 -1.311421e+00 -2.444374e-01 -3.934537e-02 6.383443e-02 1.091078e+00 4.860434e-01 -4.509057e-01 -3.276877e-01 1.973726e-01 5.068305e-01 1.725711e-01 -5.102193e-02 3.116872e-02 -2.971445e-01
<VARIANCE> 25
 1.439497e+01 2.673531e+01 3.574971e+01 1.168710e+02 2.966092e+01 3.481494e+01 5.983548e+01 3.376632e+01 4.719334e+01 5.815660e+01 3.384146e+01 3.257040e+01 3.165326e-01 9.838436e-01 9.928924e-01 2.165544e+00 1.266866e+00 1.989961e+00 2.428644e+00 1.812923e+00 2.162727e+00 1.879381e+00 1.447381e+00 1.577895e+00 4.108232e-01
<GCONST> 9.305527e+01
<TRANSP> 5
 0.000000e+00 1.000000e+00 0.000000e+00 0.000000e+00 0.000000e+00
 0.000000e+00 7.773347e-01 2.226653e-01 0.000000e+00 0.000000e+00
 0.000000e+00 0.000000e+00 8.475968e-01 1.524033e-01 0.000000e+00
 0.000000e+00 0.000000e+00 0.000000e+00 8.347337e-01 1.652663e-01
 0.000000e+00 0.000000e+00 0.000000e+00 0.000000e+00 0.000000e+00
<ENDHMM>
~h "aw"
<BEGINHMM>
<NUMSTATES> 5
<STATE> 2
<MEAN> 25
 1.874813e+00 -1.612797e+00 -6.189856e+00 -3.553346e+00 4.795593e+00 1.397502e+00 -3.493336e-01 -7.233357e-01 2.647468e+00 2.188944e+00 -1.592867e+00 -1.728231e+00 2.322999e+00 -1.272171e+00 -1.304672e+00 -2.574184e+00 -7.615423e-01 3.677771e-01 -8.730959e-01 -3.820191e-01 2.049379e-01 3.115041e-01 9.226258e-02 -9.154736e-01 2.371375e+00
<VARIANCE> 25
 6.294174e+01 5.630769e+01 5.488493e+01 6.998956e+01 5.294269e+01 8.301242e+01 7.255376e+01 6.448350e+01 4.316700e+01 2.961035e+01 3.525395e+01 2.870834e+01 3.913645e+00 4.036832e+00 4.316586e+00 7.915754e+00 4.362522e+00 1.024833e+01 7.695773e+00 1.042135e+01 4.840637e+00 5.305812e+00 3.641637e+00 3.838223e+00 3.607554e+00
<GCONST> 1.149277e+02
<STATE> 3
<MEAN> 25
 1.179036e+01 -6.304938e+00 -1.554447e+01 -8.572722e+00 1.525265e+00 3.313553e+00 -6.808058e-01 -7.088890e+00 4.142636e+00 3.020896e-01 8.382583e-02 -1.700173e+00 -2.497431e-01 -4.854990e-01 1.865351e-01 -4.650060e-01 -1.084320e-01 6.078702e-01 -1.431071e-01 -2.029887e-01 1.673759e-01 1.621221e-01 -1.442990e-01 -2.705384e-01 3.431762e-01
<VARIANCE> 25
 2.465253e+01 4.315376e+01 7.133466e+01 7.845603e+01 4.080037e+01 1.448416e+02 7.993033e+01 7.232654e+01 7.723957e+01 6.149275e+01 3.997425e+01 3.214119e+01 4.653789e-01 1.709205e+00 2.485566e+00 2.773083e+00 2.395599e+00 4.219967e+00 4.738073e+00 2.839578e+00 4.362241e+00 3.540267e+00 2.753314e+00 1.589289e+00 6.319192e-01
<GCONST> 1.048860e+02
<STATE> 4
<MEAN> 25
 7.657001e+00 -5.545989e+00 -6.672038e+00 -1.411694e+01 -1.450650e-02 6.103426e+00 -3.895923e+00 -3.433889e+00 -3.909948e-01 -1.197068e+00 -1.262378e+00 -4.555087e+00 7.989597e-02 4.325953e-01 2.562550e-01 2.943313e-01 -2.513148e-01 -1.045926e-01 -4.067611e-01 -2.710499e-01 -4.548337e-02 1.007960e-01 1.598977e-01 2.650691e-01 -4.054292e-01
<VARIANCE> 25
 1.067639e+01 5.650267e+01 1.392102e+01 8.293933e+01 2.785080e+01 5.395819e+01 4.565820e+01 9.227486e+01 5.254333e+01 3.681278e+01 3.137591e+01 3.554059e+01 2.478740e-01 5.290693e-01 6.361516e-01 1.585919e+00 1.174202e+00 1.592144e+00 1.752226e+00 1.605845e+00 1.382339e+00 1.267527e+00 1.377791e+00 1.278886e+00 1.391444e-01
<GCONST> 8.843864e+01
<TRANSP> 5
 0.000000e+00 1.000000e+00 0.000000e+00 0.000000e+00 0.000000e+00
 0.000000e+00 7.747052e-01 2.252949e-01 0.000000e+00 0.000000e+00
 0.000000e+00 0.000000e+00 8.403927e-01 1.596073e-01 0.000000e+00
 0.000000e+00 0.000000e+00 0.000000e+00 9.355603e-01 6.443965e-02
 0.000000e+00 0.000000e+00 0.000000e+00 0.000000e+00 0.000000e+00
<ENDHMM>
~h "ay"
<BEGINHMM>
<NUMSTATES> 5
<STATE> 2
<MEAN> 25
 4.195052e+00 -4.572820e+00 -6.923692e+00 -8.823983e+00 3.537672e+00 2.840788e+00 8.505449e-01 -2.211814e+00 1.006898e+00 9.403604e-01 -1.499241e+00 -3.832654e+00 1.309045e+00 -2.238240e+00 -7.577177e-01 -2.177242e+00 2.080917e-03 6.596398e-01 -1.833496e-01 1.241926e-01 -3.549795e-01 1.055873e-01 -7.301404e-01 -1.379541e+00 2.084605e+00
<VARIANCE> 25
 4.743876e+01 5.760456e+01 3.084319e+01 9.329237e+01 5.685502e+01 8.221450e+01 4.961615e+01 5.948284e+01 6.146901e+01 3.652431e+01 3.939091e+01 3.894481e+01 5.003053e+00 3.399914e+00 2.845629e+00 5.742300e+00 4.595508e+00 6.723068e+00 5.009359e+00 5.994684e+00 4.776062e+00 4.420956e+00 3.797167e+00 2.842657e+00 3.050735e+00
<GCONST> 1.123212e+02
<STATE> 3
<MEAN> 25
 6.276346e+00 -1.219942e+01 -8.547086e+00 -1.191558e+01 4.527473e+00 2.750573e+00 1.320052e+00 -1.440113e+00 7.249913e-01 -1.207828e+00 -5.312216e+00 -6.856311e+00 -1.337918e-01 -3.216877e-01 5.812781e-01 5.703076e-01 -4.887377e-01 -8.137601e-01 -1.339462e-02 8.029239e-01 3.405458e-01 -4.001695e-01 -5.764167e-01 1.831201e-01 3.448613e-02
<VARIANCE> 25
 1.480959e+01 3.397018e+01 1.928092e+01 5.458105e+01 2.478117e+01 5.633631e+01 3.405589e+01 9.587595e+01 6.299789e+01 3.378991e+01 3.101336e+01 3.158194e+01 1.803124e-01 5.241510e-01 8.254722e-01 9.592052e-01 1.729539e+00 2.011919e+00 1.284036e+00 2.179298e+00 1.367195e+00 1.187288e+00 1.225919e+00 1.149087e+00 1.419182e-01
<GCONST> 8.756728e+01
<STATE> 4
<MEAN> 25
 4.046080e+00 -6.368249e+00 6.782948e+00 -3.899655e+00 -1.105945e+01 -6.663563e+00 2.893330e-01 3.341434e+00 -3.308449e+00 -7.545993e-01 -7.855917e-01 -2.733878e+00 -2.366831e-01 1.154376e+00 1.082617e+00 6.278143e-01 -7.634357e-01 -1.828965e-01 -1.167789e-01 -4.305345e-01 -6.471743e-01 3.669664e-01 9.943746e-01 3.710342e-01 -8.028444e-01
<VARIANCE> 25
 9.398326e+00 5.765094e+01 4.704545e+01 3.681700e+01 6.299952e+01 4.105777e+01 4.195520e+01 7.173875e+01 7.983212e+01 4.004457e+01 4.334366e+01 2.508360e+01 3.457227e-01 1.087299e+00 2.566365e+00 1.383250e+00 5.051503e+00 2.277753e+00 2.634250e+00 3.631517e+00 3.302938e+00 1.858468e+00 2.768239e+00 1.947475e+00 4.014781e-01
<GCONST> 9.820429e+01
<TRANSP> 5
 0.000000e+00 1.000000e+00 0.000000e+00 0.000000e+00 0.000000e+00
 0.000000e+00 7.384452e-01 2.615548e-01 0.000000e+00 0.000000e+00
 0.000000e+00 0.000000e+00 8.818619e-01 1.181381e-01 0.000000e+00
 0.000000e+00 0.000000e+00 0.000000e+00 8.955706e-01 1.044294e-01
 0.000000e+00 0.000000e+00 0.000000e+00 0.000000e+00 0.000000e+00
<ENDHMM>
~h "ch"
<BEGINHMM>
<NUMSTATES> 5
<STATE> 2
<MEAN> 25
 4.435208e-01 2.288963e+00 2.324101e+00 1.538491e+00 -2.626202e-01 -2.027527e+00 2.061002e-01 -9.532774e-01 -3.302098e+00 -1.340905e+00 5.690976e-01 2.162336e+00 -1.050910e+00 4.683658e-01 -2.234170e-01 4.236782e-02 7.040225e-01 4.064937e-01 3.010775e-01 1.497829e-01 7.092425e-02 -2.700256e-01 1.870724e-01 2.199278e-01 -5.120916e-01
<VARIANCE> 25
 2.755499e+01 2.435973e+01 5.825999e+01 3.797593e+01 3.583568e+01 2.526746e+01 4.086185e+01 4.195454e+01 5.983104e+01 2.669655e+01 3.167259e+01 2.945849e+01 1.836759e+00 3.918799e+00 3.810234e+00 4.232607e+00 4.638377e+00 4.170683e+00 4.588631e+00 3.277626e+00 3.248938e+00 2.153853e+00 3.625885e+00 2.296696e+00 2.984125e+00
<GCONST> 1.042136e+02
<STATE> 3
<MEAN> 25
 -8.557810e+00 1.443197e+00 6.766212e+00 -2.052131e+00 1.268850e+00 3.725159e+00 1.303776e+00 4.622264e-01 1.548714e+00 -5.385225e-01 1.361750e+00 1.571721e+00 -2.037106e+00 -7.052442e-01 1.029390e+00 -6.169533e-01 -1.205396e+00 -3.397378e-02 -3.314983e-01 -3.467857e-01 9.041004e-01 2.172286e-01 4.539844e-01 -5.470422e-01 1.798639e+00
<VARIANCE> 25
 8.802522e+01 5.114124e+01 5.070798e+01 4.722523e+01 8.957030e+01 5.110195e+01 2.992943e+01 3.810744e+01 3.631560e+01 2.873918e+01 3.135587e+01 1.988379e+01 1.178421e+01 3.409870e+00 4.082135e+00 6.669327e+00 9.792475e+00 8.166564e+00 5.760874e+00 5.578762e+00 3.769800e+00 4.095079e+00 3.320377e+00 2.507292e+00 4.476592e+00
<GCONST> 1.121983e+02
<STATE> 4
<MEAN> 25
 -1.539062e+01 -1.672974e+00 6.763124e+00 -3.443305e+00 2.802032e-02 2.763084e+00 5.981209e+00 -2.345709e+00 5.338826e+00 1.990617e-01 2.256330e+00 1.458225e+00 7.404572e-01 -1.188043e-01 1.500823e-01 4.369605e-01 -3.597134e-01 -1.015899e-01 8.901633e-02 2.676235e-02 -8.071648e-02 2.366311e-01 -2.324968e-01 -5.651895e-02 -1.294035e-01
<VARIANCE> 25
 7.032883e+01 1.403913e+01 3.303239e+01 2.724542e+01 3.233378e+01 2.951577e+01 6.121819e+01 3.007146e+01 1.908820e+01 3.280211e+01 1.801245e+01 1.672570e+01 3.391150e+00 9.102229e-01 1.591584e+00 1.070829e+00 1.712355e+00 2.250543e+00 2.692544e+00 2.321053e+00 1.870760e+00 1.891635e+00 1.469862e+00 1.556255e+00 1.699351e+00
<GCONST> 9.363427e+01
<TRANSP> 5
 0.000000e+00 1.000000e+00 0.000000e+00 0.000000e+00 0.000000e+00
 0.000000e+00 7.641156e-01 2.358845e-01 0.000000e+00 0.000000e+00
 0.000000e+00 0.000000e+00 7.495800e-01 2.504200e-01 0.000000e+00
 0.000000e+00 0.000000e+00 0.000000e+00 8.630457e-01 1.369543e-01
 0.000000e+00 0.000000e+00 0.000000e+00 0.000000e+00 0.000000e+00
<ENDHMM>
~h "dh"
<BEGINHMM>
<NUMSTATES> 5
<STATE> 2
<MEAN> 25
 -2.552857e+00 2.680635e+00 3.041373e-01 5.329820e+00 6.082402e+00 7.282620e+00 1.550189e+00 3.545862e+00 2.311180e+00 2.226269e+00 2.257145e-01 2.736996e+00 -6.169929e-02 4.498751e-02 4.041580e-02 9.891870e-02 1.570921e-01 2.389957e-01 8.264883e-02 -1.272285e-02 -5.949007e-02 -3.705047e-02 -1.030490e-01 -6.573856e-02 -9.618042e-02
<VARIANCE> 25
 8.828275e+00 8.808642e+00 1.166875e+01 1.219435e+01 1.957799e+01 2.859633e+01 2.649853e+01 3.092481e+01 3.705973e+01 2.025429e+01 2.060560e+01 1.578794e+01 2.424775e-01 5.384191e-01 6.741124e-01 8.673905e-01 1.143264e+00 1.618083e+00 1.662333e+00 1.722635e+00 1.856623e+00 1.716293e+00 1.474865e+00 1.327445e+00 1.455974e-01
<GCONST> 7.969901e+01
<STATE> 3
<MEAN> 25
 9.374079e-01 5.752058e+00 2.041933e+00 5.368929e+00 3.587023e+00 1.763125e+00 2.923380e-01 -1.642050e+00 -3.972704e-01 -1.344398e+00 -3.204931e+00 1.872912e-01 1.465994e+00 1.307737e+00 6.067839e-01 -2.117918e-01 -1.512711e+00 -1.664989e+00 -1.139744e+00 -4.271329e-01 -1.377096e-01 -5.503263e-01 -6.290265e-01 -6.149496e-01 1.001912e+00
<VARIANCE> 25
 2.369208e+01 2.761656e+01 1.902326e+01 2.742231e+01 4.185731e+01 4.708969e+01 4.250657e+01 2.798673e+01 2.916148e+01 2.195801e+01 2.232544e+01 1.838084e+01 2.196800e+00 2.485406e+00 2.232731e+00 2.949450e+00 4.086426e+00 4.473409e+00 3.771350e+00 4.280365e+00 2.597180e+00 2.363428e+00 2.851959e+00 2.130404e+00 1.507595e+00
<GCONST> 9.913319e+01
<STATE> 4
<MEAN> 25
 3.960683e+00 7.405093e+00 4.680178e+00 2.705009e+00 -4.723681e+00 -3.250274e+00 -3.101121e+00 -2.332908e+00 1.301096e+00 -3.282036e+00 -3.908225e+00 -1.400456e+00 -7.868456e-03 -2.116867e-01 9.646259e-02 -1.796244e-01 9.200249e-02 1.293918e-01 7.987405e-02 4.976796e-01 2.946596e-01 1.265426e-01 1.890682e-01 7.043563e-02 1.580359e-01
<VARIANCE> 25
 2.292005e+01 2.441896e+01 3.350349e+01 3.111133e+01 7.712171e+01 4.588162e+01 3.253294e+01 6.496883e+01 2.967431e+01 2.375572e+01 4.118377e+01 2.342881e+01 5.970253e-01 1.144159e+00 1.382398e+00 1.549084e+00 2.696425e+00 1.929763e+00 2.086980e+00 2.452940e+00 1.687353e+00 1.319410e+00 1.596678e+00 1.113452e+00 1.008395e+00
<GCONST> 9.352802e+01
<TRANSP> 5
 0.000000e+00 1.000000e+00 0.000000e+00 0.000000e+00 0.000000e+00
 0.000000e+00 8.890507e-01 1.109493e-01 0.000000e+00 0.000000e+00
 0.000000e+00 0.000000e+00 6.857001e-01 3.142999e-01 0.000000e+00
 0.000000e+00 0.000000e+00 0.000000e+00 7.512628e-01 2.487373e-01
 0.000000e+00 0.000000e+00 0.000000e+00 0.000000e+00 0.000000e+00
<ENDHMM>
~h "eh"
<BEGINHMM>
<NUMSTATES> 5
<STATE> 2
<MEAN> 25
 4.229320e-01 -1.398263e+00 -5.102591e-01 6.529845e-01 8.554919e-01 -2.870717e+00 1.102303e+00 4.399035e-02 1.852495e+00 2.191831e+00 -1.474846e+00 -1.164722e+00 1.146263e+00 -1.932647e+00 9.620610e-01 -7.853510e-01 -2.174314e+00 -2.232666e+00 -6.057447e-01 1.057318e+00 1.116186e-01 -6.043320e-01 -6.649613e-01 -5.814139e-01 2.584694e+00
<VARIANCE> 25
 6.346983e+01 5.442325e+01 4.695615e+01 4.879925e+01 6.438333e+01 7.528805e+01 6.489153e+01 5.426193e+01 5.654515e+01 5.243090e+01 3.220723e+01 2.912706e+01 7.010896e+00 4.506184e+00 4.467999e+00 5.496710e+00 6.736844e+00 6.526174e+00 7.905312e+00 8.192471e+00 7.063800e+00 5.117144e+00 4.766510e+00 3.982243e+00 3.985725e+00
<GCONST> 1.158442e+02
<STATE> 3
<MEAN> 25
 4.244806e+00 -7.340537e+00 4.604939e+00 -8.317518e-01 -9.702467e+00 -7.651766e+00 -2.550504e+00 4.437485e+00 -1.602734e+00 -5.065961e-01 -4.098653e-01 -2.694817e+00 3.030663e-01 -1.303371e+00 5.269942e-01 -6.501329e-01 -1.681363e+00 -5.688177e-01 5.184688e-02 1.809539e+00 -3.120017e-01 -8.699255e-01 9.740482e-02 -2.477342e-01 1.423824e+00
<VARIANCE> 25
 1.541374e+01 4.900527e+01 8.110415e+01 4.390272e+01 5.868475e+01 5.661144e+01 9.928586e+01 7.879503e+01 7.738425e+01 5.441848e+01 4.995339e+01 3.165358e+01 2.508193e+00 2.923618e+00 3.974179e+00 4.381500e+00 5.914847e+00 3.999945e+00 5.132144e+00 5.642658e+00 5.164755e+00 4.876622e+00 4.063606e+00 2.863062e+00 1.975484e+00
<GCONST> 1.112768e+02
<STATE> 4
<MEAN> 25
 4.633727e+00 -1.042226e+01 2.916460e+00 -3.939464e+00 -1.158473e+01 -9.012225e+00 5.372882e-01 7.127915e+00 -1.300227e+00 -3.313133e+00 -1.710291e+00 -2.266611e+00 9.910711e-02 2.208410e-01 -7.817443e-02 1.719586e-01 1.641271e-01 1.152782e-01 -1.572060e-01 -2.010218e-01 2.886313e-02 2.195541e-02 -1.408769e-01 5.487088e-02 -2.817751e-01
<VARIANCE> 25
 1.095041e+01 4.445372e+01 6.134089e+01 2.956901e+01 5.003045e+01 3.842437e+01 6.601009e+01 7.470076e+01 6.980054e+01 4.854401e+01 5.448444e+01 2.763823e+01 2.777713e-01 9.123800e-01 1.028829e+00 1.030296e+00 1.283550e+00 1.300339e+00 1.640244e+00 1.858925e+00 1.601759e+00 1.509021e+00 1.320334e+00 1.021436e+00 3.688803e-01
<GCONST> 9.164484e+01
<TRANSP> 5
 0.000000e+00 1.000000e+00 0.000000e+00 0.000000e+00 0.000000e+00
 0.000000e+00 6.053354e-01 3.946647e-01 0.000000e+00 0.000000e+00
 0.000000e+00 0.000000e+00 6.032559e-01 3.967441e-01 0.000000e+00
 0.000000e+00 0.000000e+00 0.000000e+00 8.808613e-01 1.191388e-01
 0.000000e+00 0.000000e+00 0.000000e+00 0.000000e+00 0.000000e+00
<ENDHMM>
~h "er"
<BEGINHMM>
<NUMSTATES> 5
<STATE> 2
<MEAN> 25
 6.138997e+00 -5.841475e+00 -1.487970e+00 -2.917002e+00 -4.137950e+00 -3.258651e+00 -7.488712e+00 -5.588064e-01 9.558277e-01 2.601816e+00 5.548953e-01 -2.722900e+00 1.078969e+00 -1.058440e+00 -5.995567e-01 2.998228e-01 -6.354664e-01 -1.093328e+00 -1.105151e+00 3.585583e-01 4.540549e-01 5.036969e-02 -1.504000e-01 2.580192e-01 6.311706e-01
<VARIANCE> 25
 3.474665e+01 5.696302e+01 6.823363e+01 6.691022e+01 6.589803e+01 7.436014e+01 8.933838e+01 7.232665e+01 6.988335e+01 5.593220e+01 5.056082e+01 3.346847e+01 3.096855e+00 3.357683e+00 2.699417e+00 4.623113e+00 4.820688e+00 5.098530e+00 5.207005e+00 4.739851e+00 4.135350e+00 3.346307e+00 3.546842e+00 2.983445e+00 2.450179e+00
<GCONST> 1.120955e+02
<STATE> 3
<MEAN> 25
 1.089058e+01 -1.166024e+01 -6.883521e+00 4.857276e+00 -8.060610e+00 -1.607063e+01 -1.157516e+01 1.942139e+00 1.859781e+00 -2.814662e+00 -2.516999e+00 3.885957e+00 5.853364e-02 3.227378e-01 -3.373450e-02 6.633012e-01 1.014865e-01 -4.180792e-01 2.022609e-02 3.208439e-01 1.106308e-01 -3.711899e-01 -1.359170e-01 3.878763e-01 -4.231945e-01
<VARIANCE> 25
 7.044204e+00 2.892578e+01 3.801522e+01 2.496654e+01 5.485808e+01 5.011400e+01 4.417585e+01 3.941177e+01 4.991261e+01 4.920088e+01 3.516714e+01 2.356978e+01 3.755709e-01 8.930125e-01 1.386025e+00 1.301794e+00 1.621695e+00 1.883852e+00 1.494165e+00 1.486387e+00 1.987089e+00 1.909103e+00 1.437973e+00 1.417763e+00 3.630023e-01
<GCONST> 9.047164e+01
<STATE> 4
<MEAN> 25
 5.980311e+00 -1.749407e+00 -1.554918e+00 6.118988e+00 -2.613264e+00 -8.473090e+00 -5.507664e+00 6.148151e+00 3.660996e+00 -1.464376e+00 4.339736e-01 3.761583e+00 -7.457992e-01 4.879488e-01 3.941368e-01 -1.517570e-01 5.817318e-01 9.763799e-01 6.590877e-01 -2.048480e-01 -1.440314e-02 3.560289e-01 8.429588e-02 -9.438165e-02 -7.456223e-01
<VARIANCE> 25
 2.127162e+01 1.569188e+01 3.077069e+01 2.416930e+01 3.976387e+01 4.543250e+01 3.842206e+01 3.900002e+01 3.403378e+01 2.851407e+01 2.324221e+01 2.283770e+01 8.135940e-01 1.041438e+00 1.188104e+00 1.355466e+00 1.728287e+00 2.468165e+00 2.099386e+00 2.220461e+00 2.209788e+00 1.991412e+00 1.631840e+00 1.474991e+00 5.111002e-01
<GCONST> 9.132228e+01
<TRANSP> 5
 0.000000e+00 1.000000e+00 0.000000e+00 0.000000e+00 0.000000e+00
 0.000000e+00 8.336964e-01 1.663036e-01 0.000000e+00 0.000000e+00
 0.000000e+00 0.000000e+00 8.597139e-01 1.402860e-01 0.000000e+00
 0.000000e+00 0.000000e+00 0.000000e+00 8.640020e-01 1.359980e-01
 0.000000e+00 0.000000e+00 0.000000e+00 0.000000e+00 0.000000e+00
<ENDHMM>
~h "ey"
<BEGINHMM>
<NUMSTATES> 5
<STATE> 2
<MEAN> 25
 6.468623e+00 -5.067179e-02 1.812093e-01 3.024292e+00 -3.499804e+00 -1.690142e+00 -1.696489e+00 1.760331e-01 2.312347e+00 1.747006e+00 -3.407506e+00 -2.469558e+00 -3.312134e-01 -7.803513e-01 1.297151e+00 -3.856499e-01 -1.269126e+00 -8.878644e-01 4.462225e-01 1.088875e+00 7.863699e-02 -3.744303e-01 2.840505e-02 -2.111716e-01 1.113866e+00
<VARIANCE> 25
 3.583134e+01 7.346037e+01 3.838793e+01 2.682741e+01 5.440746e+01 5.751847e+01 5.832722e+01 6.524069e+01 8.876675e+01 6.837008e+01 4.353613e+01 3.295866e+01 2.841589e+00 4.599410e+00 3.525665e+00 3.600015e+00 6.010118e+00 3.346252e+00 7.675963e+00 7.623235e+00 4.960860e+00 3.953595e+00 3.964424e+00 2.560313e+00 2.720298e+00
<GCONST> 1.115085e+02
<STATE> 3
<MEAN> 25
 3.045787e+00 -4.786693e+00 8.302515e+00 -1.417834e+00 -1.096936e+01 -9.399527e+00 -3.221769e+00 3.095483e+00 -1.940789e+00 -1.332329e+00 2.680862e+00 -1.045501e+00 -5.050575e-01 -1.153940e+00 1.815511e+00 -1.222061e+00 -3.035299e+00 -1.364666e+00 4.924187e-03 1.355241e+00 -1.265193e+00 9.847860e-02 1.388749e+00 -1.076120e-01 1.934848e+00
<VARIANCE> 25
 1.218384e+01 6.274855e+01 5.194473e+01 3.343095e+01 7.535638e+01 6.901757e+01 8.633128e+01 6.989965e+01 5.099175e+01 5.468753e+01 5.809287e+01 3.119876e+01 1.460932e+00 5.118887e+00 4.348847e+00 3.540212e+00 5.984363e+00 5.965102e+00 7.244659e+00 6.279301e+00 4.338533e+00 4.330961e+00 4.468258e+00 2.569701e+00 3.983710e+00
<GCONST> 1.116384e+02
<STATE> 4
<MEAN> 25
 1.583001e+00 -1.090615e+00 1.216452e+01 -2.196990e+00 -1.644568e+01 -6.068310e+00 -1.381588e+00 -4.554820e-01 -6.798583e+00 7.961880e-03 5.317256e+00 -3.201016e+00 -9.918805e-02 3.612986e-01 -1.614055e-02 1.980499e-01 3.645463e-01 4.433140e-01 5.538698e-02 -4.241499e-01 -2.761337e-02 8.287297e-02 -1.021644e-01 3.515758e-03 -5.012021e-01
<VARIANCE> 25
 9.502273e+00 4.556954e+01 4.389261e+01 4.007727e+01 6.449130e+01 5.290620e+01 4.578023e+01 6.828836e+01 4.992577e+01 4.746889e+01 3.619143e+01 2.551134e+01 2.820443e-01 8.885509e-01 1.354508e+00 1.205799e+00 1.836673e+00 1.825295e+00 1.707009e+00 1.910537e+00 1.898472e+00 1.523046e+00 1.326177e+00 1.257135e+00 3.557274e-01
<GCONST> 9.230930e+01
<TRANSP> 5
 0.000000e+00 1.000000e+00 0.000000e+00 0.000000e+00 0.000000e+00
 0.000000e+00 6.575131e-01 3.424868e-01 0.000000e+00 0.000000e+00
 0.000000e+00 0.000000e+00 6.612732e-01 3.387267e-01 0.000000e+00
 0.000000e+00 0.000000e+00 0.000000e+00 9.320456e-01 6.795442e-02
 0.000000e+00 0.000000e+00 0.000000e+00 0.000000e+00 0.000000e+00
<ENDHMM>
~h "hh"
<BEGINHMM>
<NUMSTATES> 5
<STATE> 2
<MEAN> 25
 -1.970916e+00 2.546145e+00 4.639357e-01 4.993933e+00 6.282077e+00 8.257095e+00 1.445218e+00 4.193024e+00 1.780192e+00 2.507357e+00 -5.855129e-01 2.292458e+00 -9.060574e-02 -6.851002e-02 2.960769e-02 -2.619262e-02 1.122298e-01 1.399165e-01 1.568665e-01 1.339643e-01 8.302606e-02 9.733151e-02 3.053985e-02 -3.068344e-02 -4.288966e-02
<VARIANCE> 25
 1.008988e+01 8.697198e+00 1.142294e+01 1.311528e+01 1.833178e+01 1.903339e+01 2.101612e+01 2.604124e+01 3.461334e+01 1.874577e+01 1.710588e+01 1.498609e+01 2.175134e-01 4.483501e-01 7.483823e-01 7.718520e-01 1.169440e+00 1.420763e+00 1.576491e+00 1.663513e+00 1.718629e+00 1.425601e+00 1.457607e+00 1.302230e+00 1.456023e-01
<GCONST> 7.781791e+01
<STATE> 3
<MEAN> 25
 -4.461165e+00 -2.997275e+00 2.231650e+00 -6.032650e-01 4.049498e+00 5.087164e+00 6.871100e+00 3.407269e+00 2.582497e+00 3.497473e+00 1.594239e-01 1.107978e+00 -7.874427e-01 -9.917418e-01 6.819651e-01 -1.228782e+00 -5.625390e-01 -9.154317e-01 7.202684e-01 -1.403069e-01 1.660981e-01 8.055215e-02 3.834294e-01 -7.395551e-02 1.218546e+00
<VARIANCE> 25
 2.331353e+01 4.267884e+01 4.352871e+01 3.055062e+01 5.944090e+01 4.170901e+01 4.438744e+01 5.363926e+01 3.293120e+01 3.016110e+01 2.780054e+01 2.246105e+01 1.027602e+00 1.838590e+00 2.228748e+00 2.101001e+00 2.708722e+00 2.884135e+00 3.210511e+00 3.298941e+00 2.933022e+00 2.813685e+00 2.178746e+00 1.849597e+00 7.585218e-01
<GCONST> 9.879491e+01
<STATE> 4
<MEAN> 25
 -9.503053e+00 -4.816210e+00 5.899699e+00 -4.817171e+00 -5.917014e-01 6.902841e-02 7.145446e+00 -2.130030e-01 2.223495e+00 2.358600e+00 2.900908e+00 1.471821e+00 2.396013e-01 8.095212e-02 2.377997e-01 3.953587e-01 -4.503897e-01 2.614952e-02 -3.171878e-01 -4.910161e-01 -6.224471e-01 -3.994758e-01 -1.015417e-01 -2.701348e-01 2.659311e-01
<VARIANCE> 25
 3.244558e+01 6.770103e+01 4.104939e+01 3.507151e+01 8.377052e+01 4.520128e+01 5.099930e+01 5.455636e+01 3.878695e+01 3.257663e+01 2.535422e+01 3.125913e+01 7.003779e-01 1.346836e+00 1.362164e+00 1.509765e+00 2.080054e+00 2.273673e+00 2.220001e+00 2.534617e+00 2.553746e+00 2.171247e+00 1.839501e+00 1.784322e+00 5.522990e-01
<GCONST> 9.715268e+01
<TRANSP> 5
 0.000000e+00 1.000000e+00 0.000000e+00 0.000000e+00 0.000000e+00
 0.000000e+00 8.887908e-01 1.112091e-01 0.000000e+00 0.000000e+00
 0.000000e+00 0.000000e+00 7.766831e-01 2.233169e-01 0.000000e+00
 0.000000e+00 0.000000e+00 0.000000e+00 7.851407e-01 2.148594e-01
 0.000000e+00 0.000000e+00 0.000000e+00 0.000000e+00 0.000000e+00
<ENDHMM>
~h "ih"
<BEGINHMM>
<NUMSTATES> 5
<STATE> 2
<MEAN> 25
 -1.847626e-01 4.452852e-01 4.721440e+00 1.979339e+00 -2.354861e+00 -2.490233e+00 4.351034e-02 -1.160774e+00 -2.103396e+00 3.262902e-01 7.164097e-01 -7.197475e-01 6.896937e-01 -1.322911e-01 2.639105e+00 -7.630444e-01 -3.305428e+00 -1.992388e+00 -1.020303e+00 -4.369387e-01 -1.919885e+00 -1.245369e-01 8.863201e-01 -9.609678e-01 2.020340e+00
<VARIANCE> 25
 3.959491e+01 4.662529e+01 6.121286e+01 3.871291e+01 7.303139e+01 8.756522e+01 7.139983e+01 5.920183e+01 6.348700e+01 3.906581e+01 3.578979e+01 2.474402e+01 3.716984e+00 4.850978e+00 6.197642e+00 4.765585e+00 7.367924e+00 8.673759e+00 6.793238e+00 7.210840e+00 7.172514e+00 4.688215e+00 4.097902e+00 3.000174e+00 2.777446e+00
<GCONST> 1.143257e+02
<STATE> 3
<MEAN> 25
 2.055544e+00 -7.697061e-01 1.371430e+01 -1.167902e+00 -1.549300e+01 -7.836211e+00 -4.364125e+00 -1.153618e+00 -9.128352e+00 -7.657174e-01 5.481825e+00 -4.539872e+00 -4.034991e-02 2.439372e-03 1.589310e+00 -9.528794e-01 -2.073977e+00 -1.886666e-01 -3.823975e-01 2.611193e-01 -1.232339e+00 -2.016167e-01 9.837299e-01 -7.982308e-01 1.177747e+00
<VARIANCE> 25
 1.435721e+01 5.087304e+01 6.544613e+01 3.659834e+01 6.027692e+01 8.003498e+01 4.159669e+01 6.318559e+01 7.095780e+01 6.832396e+01 3.256718e+01 2.418673e+01 1.625659e+00 1.828536e+00 3.720974e+00 3.239336e+00 5.783218e+00 3.910143e+00 5.144011e+00 4.358733e+00 4.165321e+00 4.404191e+00 2.595570e+00 2.323225e+00 1.929472e+00
<GCONST> 1.070034e+02
<STATE> 4
<MEAN> 25
 1.474964e+00 1.171239e-01 1.307789e+01 -3.737822e+00 -1.561242e+01 -7.503035e+00 -4.118159e+00 -2.282357e+00 -9.322948e+00 -9.910592e-01 5.472216e+00 -5.280365e+00 6.671667e-02 1.484859e-01 -4.862175e-01 5.218160e-02 4.645891e-01 1.979596e-01 2.246275e-01 3.328580e-02 2.454921e-01 1.315747e-01 -3.116598e-01 1.910753e-01 -3.029974e-01
<VARIANCE> 25
 6.528290e+00 4.017665e+01 4.663484e+01 3.229042e+01 4.448447e+01 6.137640e+01 4.433899e+01 4.970935e+01 6.042608e+01 5.038692e+01 3.345188e+01 2.755835e+01 3.725743e-01 7.415283e-01 1.332649e+00 1.350873e+00 2.008672e+00 2.025894e+00 1.816206e+00 2.140901e+00 2.090035e+00 1.740883e+00 1.618412e+00 1.281841e+00 6.063274e-01
<GCONST> 9.287526e+01
<TRANSP> 5
 0.000000e+00 1.000000e+00 0.000000e+00 0.000000e+00 0.000000e+00
 0.000000e+00 6.758317e-01 3.241684e-01 0.000000e+00 0.000000e+00
 0.000000e+00 0.000000e+00 5.639023e-01 4.360977e-01 0.000000e+00
 0.000000e+00 0.000000e+00 0.000000e+00 8.584682e-01 1.415318e-01
 0.000000e+00 0.000000e+00 0.000000e+00 0.000000e+00 0.000000e+00
<ENDHMM>
~h "iy"
<BEGINHMM>
<NUMSTATES> 5
<STATE> 2
<MEAN> 25
 4.095780e-01 2.203837e+00 9.625993e+00 2.968873e+00 -6.958184e+00 -5.919756e+00 -2.491079e+00 -4.589327e+00 -3.143014e+00 -8.076343e-01 8.859817e-01 -1.507785e+00 5.405950e-01 2.107375e-01 2.584792e+00 -2.023170e-01 -2.737262e+00 -1.277186e+00 -9.661360e-01 -2.995023e-01 -1.622354e+00 -6.960335e-01 9.889922e-01 -6.767219e-01 1.474341e+00
<VARIANCE> 25
 5.291488e+01 5.311832e+01 6.617053e+01 4.973288e+01 8.146730e+01 8.591743e+01 6.759330e+01 5.346578e+01 6.508422e+01 4.281633e+01 3.451657e+01 2.865780e+01 4.467495e+00 4.937016e+00 4.491945e+00 4.967979e+00 7.443366e+00 6.708918e+00 6.893378e+00 6.908564e+00 5.612190e+00 4.624969e+00 3.844543e+00 3.237189e+00 2.243751e+00
<GCONST> 1.144215e+02
<STATE> 3
<MEAN> 25
 1.510859e+00 4.304361e-01 1.678480e+01 3.158911e-02 -1.677687e+01 -8.563266e+00 -6.330270e+00 -3.623547e+00 -9.547840e+00 -2.600134e+00 6.720080e+00 -4.477121e+00 -1.793678e-01 4.148125e-01 4.570657e-01 -5.302866e-01 -4.304388e-01 3.964774e-01 -1.537799e-01 -2.592300e-01 -4.022685e-01 1.042181e-01 4.044354e-01 -4.267854e-01 -5.088159e-02
<VARIANCE> 25
 8.908523e+00 3.799604e+01 4.982189e+01 2.917512e+01 4.990371e+01 7.369144e+01 4.592427e+01 6.670389e+01 5.882521e+01 6.495829e+01 2.776902e+01 3.208737e+01 6.880910e-01 1.406354e+00 2.258066e+00 2.184907e+00 3.554732e+00 2.591023e+00 2.654376e+00 2.955920e+00 3.251549e+00 2.521695e+00 2.229576e+00 1.784561e+00 1.110386e+00
<GCONST> 9.976447e+01
<STATE> 4
<MEAN> 25
 -3.332270e-01 5.373676e+00 1.422695e+01 -1.617568e+00 -1.208251e+01 -4.649453e+00 -5.909093e+00 -9.265629e+00 -6.434155e+00 -2.113907e+00 3.456206e+00 -4.568826e+00 9.764204e-03 3.622212e-02 -5.925210e-01 2.696089e-01 6.732323e-01 3.849909e-01 2.736696e-01 2.613813e-01 3.044391e-01 2.025973e-01 -2.624700e-01 3.176129e-01 -5.743180e-01
<VARIANCE> 25
 8.196633e+00 1.908996e+01 3.712533e+01 3.716795e+01 8.310142e+01 4.599192e+01 3.090033e+01 5.160502e+01 5.346988e+01 4.138826e+01 3.503791e+01 3.638490e+01 3.493089e-01 7.355233e-01 1.295600e+00 1.297556e+00 2.353852e+00 1.726696e+00 1.628507e+00 1.879667e+00 1.843118e+00 1.566270e+00 1.440875e+00 1.380306e+00 4.604869e-01
<GCONST> 9.135892e+01
<TRANSP> 5
 0.000000e+00 1.000000e+00 0.000000e+00 0.000000e+00 0.000000e+00
 0.000000e+00 7.171061e-01 2.828939e-01 0.000000e+00 0.000000e+00
 0.000000e+00 0.000000e+00 7.675386e-01 2.324613e-01 0.000000e+00
 0.000000e+00 0.000000e+00 0.000000e+00 9.272047e-01 7.279538e-02
 0.000000e+00 0.000000e+00 0.000000e+00 0.000000e+00 0.000000e+00
<ENDHMM>
~h "jh"
<BEGINHMM>
<NUMSTATES> 5
<STATE> 2
<MEAN> 25
 -1.207294e+00 4.419784e+00 4.044863e+00 1.552085e+00 4.565250e+00 3.363261e+00 1.911590e+00 -5.818039e-01 -1.155175e+00 -2.887791e-01 9.284914e-04 7.426494e-01 -1.160525e+00 -6.041148e-02 -2.353458e-01 -9.785951e-01 7.133321e-01 1.610819e-02 2.126264e-01 1.142511e-01 6.830152e-01 -8.007143e-02 1.579817e-01 -3.372914e-02 6.131311e-01
<VARIANCE> 25
 2.749615e+01 2.651487e+01 2.888192e+01 5.463670e+01 4.225803e+01 4.730374e+01 2.880289e+01 3.278426e+01 4.361266e+01 2.825856e+01 2.498261e+01 1.687721e+01 4.546018e+00 2.704540e+00 2.743077e+00 4.768440e+00 3.451071e+00 4.079158e+00 3.680615e+00 3.062433e+00 3.461694e+00 2.717371e+00 2.644992e+00 1.759703e+00 2.290809e+00
<GCONST> 1.022696e+02
<STATE> 3
<MEAN> 25
 -1.387843e+01 1.857223e-01 3.045503e+00 -5.224833e+00 1.813856e+00 2.041047e+00 4.388040e+00 -3.528855e+00 4.740046e+00 -5.861809e-01 1.029655e+00 1.488406e+00 -1.023704e-01 -1.490577e-01 1.025793e+00 5.559570e-01 -8.521217e-01 -4.258265e-01 -2.253220e-02 -8.741864e-01 -4.396136e-02 1.444332e-01 -2.701880e-01 1.443782e-01 2.171917e-01
<VARIANCE> 25
 3.985493e+01 5.082817e+01 5.337802e+01 2.740736e+01 3.856592e+01 2.833118e+01 3.177452e+01 2.934771e+01 2.612846e+01 2.897476e+01 1.305978e+01 1.423909e+01 4.664194e+00 1.241657e+00 2.122991e+00 1.998520e+00 2.190278e+00 3.023195e+00 3.811933e+00 2.555150e+00 2.265465e+00 2.060991e+00 1.201888e+00 1.430036e+00 1.773957e+00
<GCONST> 9.656196e+01
<STATE> 4
<MEAN> 25
 -5.030046e+00 -2.052071e-01 9.927148e+00 6.802486e-01 -4.390252e+00 -2.747878e+00 3.546318e-01 -7.688334e+00 5.397862e-01 -7.149539e-01 -8.523291e-02 1.929284e+00 1.287937e+00 -8.176712e-01 -3.155950e-01 6.811193e-01 -7.088535e-01 -4.862364e-01 -7.674539e-01 2.333921e-01 -4.501040e-02 -2.636625e-01 3.475213e-01 -1.169753e-01 -1.651231e-01
<VARIANCE> 25
 2.489254e+01 6.312582e+01 3.753960e+01 1.330532e+01 7.173540e+01 1.162117e+02 2.746222e+01 2.900352e+01 3.960814e+01 4.696041e+01 2.205712e+01 1.021187e+01 2.454810e+00 2.489085e+00 2.312682e+00 8.790445e-01 6.285690e+00 5.046110e+00 2.916338e+00 1.865258e+00 2.462512e+00 2.292390e+00 1.566826e+00 1.118912e+00 1.320271e+00
<GCONST> 9.841443e+01
<TRANSP> 5
 0.000000e+00 1.000000e+00 0.000000e+00 0.000000e+00 0.000000e+00
 0.000000e+00 8.294773e-01 1.705228e-01 0.000000e+00 0.000000e+00
 0.000000e+00 0.000000e+00 8.135385e-01 1.864615e-01 0.000000e+00
 0.000000e+00 0.000000e+00 0.000000e+00 7.552558e-01 2.447443e-01
 0.000000e+00 0.000000e+00 0.000000e+00 0.000000e+00 0.000000e+00
<ENDHMM>
~h "ng"
<BEGINHMM>
<NUMSTATES> 5
<STATE> 2
<MEAN> 25
 4.042581e+00 2.686398e+00 8.323320e+00 -4.575291e+00 -1.226386e+01 2.286642e+00 1.898062e+00 -7.938241e+00 -1.199435e+01 2.803286e+00 2.013023e+00 -6.232621e+00 9.305947e-01 3.145059e-01 -1.923623e+00 1.283951e+00 1.660713e+00 3.734618e-01 -7.423703e-03 -9.687155e-01 5.210196e-01 2.695967e-01 -8.926821e-01 6.175354e-01 -1.016706e+00
<VARIANCE> 25
 9.725257e+00 2.990861e+01 5.216312e+01 4.313403e+01 3.563335e+01 4.536371e+01 3.405005e+01 6.194916e+01 4.624521e+01 3.313855e+01 4.951065e+01 2.008772e+01 5.249763e-01 9.692649e-01 1.505602e+00 3.012668e+00 3.467165e+00 4.345905e+00 3.433166e+00 2.381334e+00 2.921597e+00 3.816794e+00 1.831465e+00 2.226807e+00 3.005548e-01
<GCONST> 9.688280e+01
<STATE> 3
<MEAN> 25
 6.992239e+00 5.135507e+00 3.000081e+00 2.167753e+00 -6.104285e+00 2.684082e+00 5.047687e-01 -9.950650e+00 -7.297271e+00 3.681518e-01 -8.563317e-01 -1.779244e+00 -1.485129e-01 2.559240e-01 -1.013156e-02 5.797585e-01 8.838876e-01 3.578169e-01 1.207831e-01 2.711900e-01 5.241853e-01 -2.477798e-01 -1.913275e-01 4.514533e-01 -7.028280e-01
<VARIANCE> 25
 1.095906e+01 2.530484e+01 2.411011e+01 2.121294e+01 4.101266e+01 1.692841e+01 1.922081e+01 2.825948e+01 3.303642e+01 2.091721e+01 2.490378e+01 2.138297e+01 6.345694e-01 7.739463e-01 1.017921e+00 8.756017e-01 2.221987e+00 1.291342e+00 1.311506e+00 1.792814e+00 1.586892e+00 1.403799e+00 1.264892e+00 1.334157e+00 3.235496e-01
<GCONST> 8.474416e+01
<STATE> 4
<MEAN> 25
 2.396465e-01 4.341651e+00 1.971664e+00 6.196754e+00 5.057909e+00 6.372320e+00 2.341838e+00 -3.957903e-01 -3.190558e-01 1.332313e-01 -8.809277e-01 1.730718e+00 -4.644156e-01 -2.487602e-01 -3.021233e-01 6.438495e-02 4.550709e-01 -8.692103e-02 2.345149e-02 5.676549e-01 4.302452e-01 3.620706e-02 4.567787e-02 6.737781e-02 -3.135141e-01
<VARIANCE> 25
 1.237736e+01 9.394758e+00 1.320209e+01 1.260212e+01 2.175318e+01 2.875922e+01 2.371288e+01 3.661039e+01 3.447566e+01 2.017780e+01 2.026547e+01 1.819573e+01 6.533700e-01 6.626217e-01 1.040207e+00 1.286779e+00 1.933545e+00 2.182329e+00 1.891852e+00 1.926686e+00 1.832723e+00 1.614897e+00 1.716884e+00 1.430609e+00 3.473596e-01
<GCONST> 8.459100e+01
<TRANSP> 5
 0.000000e+00 1.000000e+00 0.000000e+00 0.000000e+00 0.000000e+00
 0.000000e+00 7.690203e-01 2.309797e-01 0.000000e+00 0.000000e+00
 0.000000e+00 0.000000e+00 8.817988e-01 1.182012e-01 0.000000e+00
 0.000000e+00 0.000000e+00 0.000000e+00 8.780620e-01 1.219380e-01
 0.000000e+00 0.000000e+00 0.000000e+00 0.000000e+00 0.000000e+00
<ENDHMM>
~h "ow"
<BEGINHMM>
<NUMSTATES> 5
<STATE> 2
<MEAN> 25
 6.492046e+00 -1.514906e+00 -5.516993e+00 -6.763348e+00 -1.484699e+00 2.441444e+00 -4.367727e+00 -3.936182e+00 1.332615e+00 2.557735e+00 1.147841e+00 -2.125532e+00 1.406936e+00 -6.673592e-01 -5.961993e-01 -2.071569e+00 -1.416052e+00 1.425586e+00 -6.744994e-01 -4.945834e-01 -1.055843e-02 2.098393e-01 6.869368e-01 -6.570258e-01 1.264819e+00
<VARIANCE> 25
 5.616667e+01 4.353769e+01 4.620740e+01 7.140573e+01 6.386525e+01 9.404391e+01 8.971261e+01 7.897909e+01 7.560713e+01 4.851759e+01 5.829335e+01 3.523786e+01 4.757230e+00 3.467117e+00 3.716337e+00 5.807636e+00 6.408935e+00 6.226348e+00 7.608286e+00 7.389147e+00 6.656396e+00 4.729904e+00 4.168927e+00 3.282165e+00 2.758300e+00
<GCONST> 1.159227e+02
<STATE> 3
<MEAN> 25
 1.013004e+01 -1.937104e+00 -6.952772e+00 -1.669435e+01 -7.965907e+00 7.744907e+00 -6.709433e+00 -5.124259e+00 -5.050307e+00 -7.915019e-01 6.162457e+00 -2.393092e+00 8.522382e-02 5.139558e-01 -3.189498e-02 -2.254604e-01 9.213448e-02 4.849965e-02 2.280286e-02 1.800271e-01 -3.914617e-01 -1.262189e-01 -2.914664e-01 2.365500e-01 -4.070957e-01
<VARIANCE> 25
 7.589708e+00 3.249678e+01 1.449933e+01 7.603941e+01 3.059215e+01 3.732828e+01 3.998651e+01 9.120253e+01 5.951938e+01 4.432158e+01 4.599218e+01 3.040054e+01 2.446793e-01 8.778748e-01 5.546298e-01 1.914566e+00 1.385849e+00 1.889433e+00 1.451517e+00 1.919502e+00 1.949129e+00 1.834535e+00 1.919659e+00 1.786679e+00 4.429207e-01
<GCONST> 9.102461e+01
<STATE> 4
<MEAN> 25
 8.418809e+00 4.605515e+00 -3.746594e+00 -9.487288e+00 -2.952020e+00 5.017306e+00 -3.710630e+00 -4.209936e-01 -5.156080e+00 -3.655933e-01 1.790400e+00 1.976022e+00 -5.123667e-01 -1.191696e-01 4.278371e-01 1.216724e+00 5.740218e-01 -2.669393e-01 2.564266e-01 -1.335554e-02 6.171592e-01 2.147314e-01 -1.897566e-01 1.514550e-01 -5.930798e-01
<VARIANCE> 25
 1.103585e+01 2.260568e+01 1.950775e+01 9.675618e+01 3.252556e+01 3.196795e+01 3.257179e+01 3.611974e+01 3.833529e+01 3.613623e+01 2.505238e+01 2.393780e+01 4.519871e-01 7.623991e-01 8.715493e-01 2.013564e+00 1.616543e+00 1.746606e+00 1.966247e+00 2.304770e+00 2.470916e+00 1.596598e+00 1.543539e+00 1.414303e+00 3.276024e-01
<GCONST> 8.973975e+01
<TRANSP> 5
 0.000000e+00 1.000000e+00 0.000000e+00 0.000000e+00 0.000000e+00
 0.000000e+00 7.618785e-01 2.381216e-01 0.000000e+00 0.000000e+00
 0.000000e+00 0.000000e+00 8.667197e-01 1.332804e-01 0.000000e+00
 0.000000e+00 0.000000e+00 0.000000e+00 8.596777e-01 1.403223e-01
 0.000000e+00 0.000000e+00 0.000000e+00 0.000000e+00 0.000000e+00
<ENDHMM>
~h "oy"
<BEGINHMM>
<NUMSTATES> 5
<STATE> 2
<MEAN> 25
 8.284389e+00 3.563619e+00 -2.583572e+00 -1.124575e+01 -5.049850e+00 3.827736e+00 -8.894962e-02 -1.428247e+00 -6.847085e+00 -3.108134e+00 1.033589e+00 -7.258841e-01 6.961819e-01 -3.282382e-01 -3.040365e-01 -3.109614e+00 -8.653208e-01 5.792058e-01 -5.029970e-01 1.422599e-01 -6.688550e-01 2.133688e-01 1.052821e+00 -4.889477e-01 1.100416e+00
<VARIANCE> 25
 2.129512e+01 3.035501e+01 9.694523e+00 2.320749e+02 3.726708e+01 3.407821e+01 4.251694e+01 6.082803e+01 7.111361e+01 2.158699e+01 2.419274e+01 2.352339e+01 3.159022e+00 3.192538e+00 1.289631e+00 1.099977e+01 7.589263e+00 2.433601e+00 1.577386e+00 2.098130e+00 4.935807e+00 4.132346e+00 2.553819e+00 2.216432e+00 1.274663e+00
<GCONST> 1.028899e+02
<STATE> 3
<MEAN> 25
 6.582840e+00 2.090668e+00 1.445964e+00 -9.471912e+00 -2.238090e+00 2.066922e+00 -2.367765e-01 -4.627996e+00 -6.251646e-01 3.277723e+00 3.275471e+00 -8.290253e-01 5.656062e-01 -1.484959e+00 -3.539923e-01 -7.588603e-01 1.747091e-01 -3.573891e-01 -8.500739e-01 -4.214048e-01 4.356788e-01 1.689875e+00 -3.403871e-01 -1.407983e-01 8.542594e-01
<VARIANCE> 25
 8.230125e+01 5.345411e+01 1.293647e+02 1.041531e+02 7.756925e+01 1.013426e+02 8.630717e+01 7.516243e+01 5.312544e+01 8.015118e+01 3.135351e+01 3.598074e+01 7.664019e+00 1.373816e+00 1.056303e+01 1.263639e+01 1.441619e+01 1.162553e+01 4.931598e+00 6.766882e+00 7.100529e+00 3.091710e+00 3.507878e+00 3.835579e+00 1.026834e+00
<GCONST> 1.185688e+02
<STATE> 4
<MEAN> 25
 8.736971e+00 -7.304330e+00 1.776558e-01 -6.617304e+00 -6.409362e+00 -2.510636e+00 -5.792490e+00 1.193032e+00 -2.539053e+00 8.966836e+00 1.142983e+00 -4.716749e+00 -5.093093e-01 3.414125e-01 1.315802e+00 8.931244e-01 -8.905822e-01 -7.152238e-01 2.369573e-01 7.022135e-01 -6.197428e-01 -2.944232e-01 4.008923e-01 1.193862e-01 -1.982899e-01
<VARIANCE> 25
 2.268212e+01 1.816228e+01 8.105923e+01 1.205536e+02 1.184687e+02 9.826189e+01 2.933810e+01 8.422907e+01 1.706967e+02 6.089967e+01 3.786427e+01 4.969096e+01 4.830757e-01 1.034168e+00 2.835342e+00 2.920433e+00 2.850320e+00 4.677435e+00 2.475245e+00 4.791629e+00 3.877223e+00 2.458274e+00 2.797276e+00 3.454048e+00 2.582468e-01
<GCONST> 1.047710e+02
<TRANSP> 5
 0.000000e+00 1.000000e+00 0.000000e+00 0.000000e+00 0.000000e+00
 0.000000e+00 8.040629e-01 1.959370e-01 0.000000e+00 0.000000e+00
 0.000000e+00 0.000000e+00 8.552744e-01 1.447257e-01 0.000000e+00
 0.000000e+00 0.000000e+00 0.000000e+00 9.171525e-01 8.284757e-02
 0.000000e+00 0.000000e+00 0.000000e+00 0.000000e+00 0.000000e+00
<ENDHMM>
~h "sh"
<BEGINHMM>
<NUMSTATES> 5
<STATE> 2
<MEAN> 25
 -9.315296e-01 2.450063e-01 6.241083e+00 -1.164775e-01 -2.643148e+00 -6.615791e+00 -2.401015e-02 2.962754e-01 -1.173728e+00 5.466104e-01 4.228464e-01 2.260304e-01 -2.763938e+00 1.256504e+00 7.941090e-01 4.046698e-01 1.207824e+00 4.590331e-01 8.926624e-01 -2.476720e-01 1.264174e+00 -7.941654e-01 6.996465e-01 -1.810237e-02 2.000008e-01
<VARIANCE> 25
 5.053920e+01 4.464294e+01 5.929461e+01 3.292806e+01 6.145620e+01 7.010639e+01 6.216834e+01 4.198796e+01 7.292855e+01 3.078100e+01 5.233158e+01 2.711953e+01 5.772151e+00 2.187611e+00 4.427867e+00 4.278850e+00 4.936946e+00 4.220245e+00 4.196078e+00 4.982665e+00 7.198461e+00 3.361848e+00 5.065644e+00 3.059345e+00 1.535652e+00
<GCONST> 1.103652e+02
<STATE> 3
<MEAN> 25
 -1.581992e+01 3.638182e+00 7.814699e+00 -2.821843e+00 3.108784e+00 8.015252e-01 9.729158e-01 6.768764e-01 3.509612e+00 -3.390647e+00 5.827415e+00 -1.606145e+00 -1.990092e+00 -2.931841e-01 5.489997e-02 -5.026695e-01 1.735196e-01 9.572746e-01 7.863428e-01 1.385372e-01 4.555459e-01 4.008310e-02 3.464616e-01 1.068020e-01 4.472193e-01
<VARIANCE> 25
 2.187831e+01 3.258239e+01 4.721369e+01 3.155381e+01 3.778316e+01 3.787725e+01 9.468390e+01 3.533819e+01 2.707333e+01 3.139685e+01 3.183254e+01 3.305526e+01 3.009751e+00 1.224762e+00 2.165519e+00 1.356998e+00 1.602086e+00 2.237968e+00 1.703095e+00 2.327635e+00 2.055559e+00 2.193399e+00 1.799638e+00 1.425638e+00 1.061025e+00
<GCONST> 9.645238e+01
<STATE> 4
<MEAN> 25
 -1.872387e+01 -1.359375e+00 7.783344e+00 -1.759680e+00 -3.636998e-02 2.103254e+00 7.461483e+00 -1.646302e+00 5.425442e+00 7.164647e-01 2.987212e+00 5.549251e-01 6.527942e-01 -2.646324e-01 5.769642e-02 3.020544e-01 -3.919096e-01 -2.571633e-01 -1.670325e-01 -1.284117e-01 -2.622963e-01 -4.172385e-02 -3.633679e-01 5.658183e-02 -3.010514e-01
<VARIANCE> 25
 3.674598e+01 3.279144e+01 5.733049e+01 2.583397e+01 4.651282e+01 3.113439e+01 3.184849e+01 2.807152e+01 2.374974e+01 2.261198e+01 3.362892e+01 1.607426e+01 2.165509e+00 1.131033e+00 1.433028e+00 1.346191e+00 1.300183e+00 1.764840e+00 2.074850e+00 1.826349e+00 1.932355e+00 1.783712e+00 1.647204e+00 1.266150e+00 6.701749e-01
<GCONST> 9.228199e+01
<TRANSP> 5
 0.000000e+00 1.000000e+00 0.000000e+00 0.000000e+00 0.000000e+00
 0.000000e+00 7.595239e-01 2.404761e-01 0.000000e+00 0.000000e+00
 0.000000e+00 0.000000e+00 7.550279e-01 2.449720e-01 0.000000e+00
 0.000000e+00 0.000000e+00 0.000000e+00 8.988047e-01 1.011954e-01
 0.000000e+00 0.000000e+00 0.000000e+00 0.000000e+00 0.000000e+00
<ENDHMM>
~h "sp"
<BEGINHMM>
<NUMSTATES> 3
<STATE> 2
~s "silst"
<TRANSP> 3
 0.000000e+00 4.066843e-01 5.933157e-01
 0.000000e+00 9.390590e-01 6.094107e-02
 0.000000e+00 0.000000e+00 0.000000e+00
<ENDHMM>
~h "th"
<BEGINHMM>
<NUMSTATES> 5
<STATE> 2
<MEAN> 25
 -4.074371e+00 1.520332e+00 -1.018786e+00 4.880070e+00 6.548115e+00 6.648986e+00 3.651117e+00 2.708520e+00 4.522619e+00 5.289171e-01 -7.063036e-02 2.040684e+00 -4.519472e-01 -6.094830e-02 2.988078e-02 2.091436e-01 4.468141e-02 1.469589e-01 1.908478e-01 9.957798e-02 2.041458e-01 1.787152e-01 1.980535e-01 1.563742e-01 -2.023380e-01
<VARIANCE> 25
 1.456099e+01 1.335303e+01 1.978691e+01 2.513441e+01 2.056973e+01 3.499313e+01 2.232527e+01 3.616139e+01 2.385184e+01 2.668103e+01 2.211629e+01 2.801049e+01 6.753812e-01 9.897040e-01 9.854704e-01 1.450715e+00 1.134209e+00 1.581285e+00 1.764969e+00 2.183874e+00 1.768844e+00 1.699247e+00 1.931327e+00 1.933023e+00 3.866140e-01
<GCONST> 8.693913e+01
<STATE> 3
<MEAN> 25
 -5.709014e+00 -3.370533e-01 -1.162418e+00 2.938193e+00 3.587365e+00 3.423380e+00 4.296079e+00 1.523097e+00 4.021589e+00 1.885017e+00 1.266007e+00 2.041004e+00 -2.382280e-01 -1.044626e+00 -3.682585e-01 -1.392563e+00 -1.285907e+00 -2.224183e+00 -4.806427e-01 2.482920e-01 -1.414928e-02 -9.607323e-02 7.975796e-01 2.845425e-02 1.708700e+00
<VARIANCE> 25
 1.779878e+01 1.379632e+01 2.218165e+01 2.614402e+01 2.300724e+01 3.177806e+01 2.805839e+01 3.986981e+01 3.573499e+01 2.316271e+01 1.323652e+01 1.863142e+01 3.403339e+00 2.431746e+00 2.447513e+00 4.715559e+00 3.255017e+00 6.401062e+00 3.675661e+00 6.452936e+00 3.685117e+00 5.490450e+00 2.442059e+00 2.338142e+00 5.665905e+00
<GCONST> 1.009006e+02
<STATE> 4
<MEAN> 25
 -1.847624e+00 -8.230982e-01 4.113360e+00 -2.701434e+00 -4.055806e+00 -6.016254e+00 6.296843e-01 1.508956e+00 5.436504e-01 -5.964319e-02 2.104884e+00 -3.530359e-01 4.798506e-01 9.210226e-02 1.157655e-01 -1.336872e-01 -1.512862e-01 -1.408198e-01 -5.175399e-02 -2.329178e-01 -5.304931e-01 -2.885842e-01 -2.358523e-01 -3.317929e-01 3.743257e-01
<VARIANCE> 25
 3.054772e+01 3.977724e+01 6.758026e+01 3.786362e+01 1.393477e+02 7.375370e+01 5.049623e+01 4.963852e+01 4.437678e+01 4.789114e+01 4.192640e+01 3.922574e+01 4.015069e+00 2.611948e+00 3.501681e+00 3.429652e+00 5.642713e+00 8.279028e+00 4.303288e+00 5.046326e+00 3.844857e+00 3.554421e+00 4.307610e+00 3.415516e+00 5.593400e+00
<GCONST> 1.118113e+02
<TRANSP> 5
 0.000000e+00 1.000000e+00 0.000000e+00 0.000000e+00 0.000000e+00
 0.000000e+00 9.109808e-01 8.901917e-02 0.000000e+00 0.000000e+00
 0.000000e+00 0.000000e+00 5.673701e-01 4.326300e-01 0.000000e+00
 0.000000e+00 0.000000e+00 0.000000e+00 8.052153e-01 1.947846e-01
 0.000000e+00 0.000000e+00 0.000000e+00 0.000000e+00 0.000000e+00
<ENDHMM>
~h "uh"
<BEGINHMM>
<NUMSTATES> 5
<STATE> 2
<MEAN> 25
 3.597738e+00 2.858621e+00 9.276584e-01 -4.854026e-01 -1.244167e+00 -4.273400e+00 -8.903131e+00 -4.727033e+00 -5.095837e+00 -1.817620e+00 3.488519e-01 -2.676056e+00 1.654524e+00 3.535136e-01 4.687399e-01 -1.238299e+00 -2.301339e+00 -6.272683e-01 -2.636027e+00 -9.059212e-01 -4.542158e-01 -8.408535e-01 1.000351e+00 -5.920644e-01 1.171024e+00
<VARIANCE> 25
 4.075441e+01 2.630070e+01 9.666236e+01 9.998462e+01 9.366889e+01 9.601075e+01 1.021593e+02 6.882272e+01 6.571275e+01 6.586469e+01 6.212695e+01 4.387854e+01 4.001994e+00 3.144319e+00 3.335204e+00 3.680581e+00 6.399858e+00 6.435464e+00 4.288755e+00 3.805518e+00 5.014016e+00 6.583744e+00 2.191722e+00 3.408289e+00 1.521199e+00
<GCONST> 1.138239e+02
<STATE> 3
<MEAN> 25
 5.291768e+00 -3.746876e-01 -1.567486e+00 -2.160443e+00 -1.070351e+01 -6.546663e+00 -1.189983e+01 -9.091809e+00 2.473502e+00 -6.100284e+00 4.140586e+00 -1.177242e+00 2.338190e-02 -2.609188e-01 -1.758063e-01 -6.157109e-01 5.062676e-02 7.889298e-01 -3.771363e-01 -2.505951e-01 3.705342e-01 1.259811e-01 4.371911e-01 -9.799946e-03 3.610467e-02
<VARIANCE> 25
 1.258624e+01 3.177490e+01 3.482014e+01 8.329052e+01 5.787047e+01 1.272689e+02 5.642397e+01 8.010861e+01 5.290639e+01 7.924017e+01 3.076000e+01 2.111349e+01 2.159922e-01 5.182138e-01 1.210787e+00 9.528887e-01 1.598730e+00 1.511159e+00 1.394041e+00 1.316154e+00 2.025487e+00 1.460077e+00 1.404328e+00 1.717900e+00 2.294480e-01
<GCONST> 9.198368e+01
<STATE> 4
<MEAN> 25
 7.197333e+00 3.116305e+00 -4.325019e+00 -1.362590e+01 -1.868027e+00 3.882061e+00 -1.326596e+01 -8.845069e+00 -5.112113e+00 -2.099962e-02 6.182720e+00 -1.430922e+00 -1.645939e-01 1.196949e-01 1.395605e-01 6.772677e-01 1.972480e-01 -1.039004e-01 2.765639e-01 3.830227e-01 3.067728e-01 1.483829e-01 -6.910143e-02 1.584650e-01 -5.778819e-01
<VARIANCE> 25
 7.133924e+00 2.704140e+01 1.824931e+01 1.182377e+02 3.624518e+01 6.191676e+01 4.315901e+01 6.124010e+01 1.001000e+02 4.970981e+01 3.781808e+01 3.241741e+01 2.876523e-01 1.009775e+00 1.030940e+00 3.049909e+00 1.336323e+00 2.758169e+00 2.539166e+00 2.756985e+00 3.471534e+00 2.217854e+00 2.152412e+00 1.528302e+00 9.593307e-01
<GCONST> 9.645577e+01
<TRANSP> 5
 0.000000e+00 1.000000e+00 0.000000e+00 0.000000e+00 0.000000e+00
 0.000000e+00 6.683978e-01 3.316022e-01 0.000000e+00 0.000000e+00
 0.000000e+00 0.000000e+00 8.168751e-01 1.831249e-01 0.000000e+00
 0.000000e+00 0.000000e+00 0.000000e+00 9.022897e-01 9.771022e-02
 0.000000e+00 0.000000e+00 0.000000e+00 0.000000e+00 0.000000e+00
<ENDHMM>
~h "uw"
<BEGINHMM>
<NUMSTATES> 5
<STATE> 2
<MEAN> 25
 -1.487436e+00 9.894919e-01 3.449798e+00 7.726104e-01 1.002620e+00 -4.563500e+00 -3.804410e+00 -6.619883e-01 1.222605e+00 3.783825e-01 5.247951e-01 -3.003105e-01 1.510984e+00 -1.448604e-02 7.020120e-01 -3.730326e-01 -1.517965e+00 -8.115180e-01 -2.492542e+00 -1.186579e+00 -4.417248e-01 3.022934e-02 5.939965e-01 -7.009293e-01 1.631228e+00
<VARIANCE> 25
 6.947038e+01 3.061521e+01 4.398674e+01 5.112006e+01 6.427618e+01 7.707185e+01 9.281762e+01 6.475299e+01 5.300681e+01 5.086747e+01 3.511060e+01 3.161674e+01 7.030416e+00 3.725960e+00 5.303388e+00 6.157619e+00 6.180325e+00 9.111672e+00 8.718571e+00 7.905719e+00 6.155680e+00 6.734702e+00 4.892731e+00 3.810047e+00 5.468084e+00
<GCONST> 1.168129e+02
<STATE> 3
<MEAN> 25
 6.144205e+00 2.455864e-01 3.699065e+00 2.193156e-01 -8.334980e+00 -5.257661e+00 -1.409635e+01 -5.617274e+00 -5.727834e+00 -1.374523e+00 6.107897e+00 -3.124908e+00 3.581296e-01 3.711006e-01 -5.682896e-01 -2.934770e-01 3.681252e-01 7.389739e-01 1.816002e-01 -4.822972e-02 -4.508717e-01 -4.622124e-03 4.100645e-03 1.359842e-01 -4.791319e-01
<VARIANCE> 25
 1.078649e+01 3.393904e+01 3.940118e+01 7.094873e+01 6.524278e+01 1.122920e+02 4.850894e+01 5.746811e+01 7.304116e+01 6.354142e+01 4.295163e+01 4.043812e+01 4.588971e-01 1.075791e+00 1.275998e+00 3.223643e+00 2.587204e+00 3.026190e+00 3.189251e+00 2.612040e+00 3.402924e+00 2.955076e+00 2.249002e+00 1.768660e+00 6.614830e-01
<GCONST> 1.006821e+02
<STATE> 4
<MEAN> 25
 7.293171e+00 6.250861e+00 -1.058531e+00 -2.893930e+00 -2.816324e+00 1.587717e+00 -7.405115e+00 -6.942011e+00 -7.329842e+00 -3.046501e+00 2.248467e+00 7.115704e-02 -2.887178e-01 4.615754e-02 6.351016e-03 3.204611e-01 4.003797e-01 1.784559e-01 4.188863e-01 1.739840e-01 5.471219e-01 8.943938e-02 -2.777956e-01 2.834471e-01 -5.154467e-01
<VARIANCE> 25
 1.398715e+01 1.642490e+01 3.381793e+01 6.944055e+01 2.917107e+01 3.354113e+01 3.638089e+01 3.901816e+01 6.322065e+01 3.125409e+01 3.432965e+01 2.770023e+01 4.833113e-01 7.295887e-01 8.314671e-01 1.609045e+00 1.376499e+00 1.627566e+00 1.680176e+00 1.617788e+00 1.587681e+00 1.534735e+00 1.429648e+00 1.371225e+00 2.594391e-01
<GCONST> 8.900539e+01
<TRANSP> 5
 0.000000e+00 1.000000e+00 0.000000e+00 0.000000e+00 0.000000e+00
 0.000000e+00 7.785283e-01 2.214718e-01 0.000000e+00 0.000000e+00
 0.000000e+00 0.000000e+00 8.218203e-01 1.781796e-01 0.000000e+00
 0.000000e+00 0.000000e+00 0.000000e+00 8.951693e-01 1.048307e-01
 0.000000e+00 0.000000e+00 0.000000e+00 0.000000e+00 0.000000e+00
<ENDHMM>
~h "zh"
<BEGINHMM>
<NUMSTATES> 5
<STATE> 2
<MEAN> 25
 -1.606305e+01 -2.206820e+00 1.197579e+01 -3.982252e+00 -5.559334e+00 -8.679648e+00 5.921888e+00 -6.730937e+00 2.936795e+00 -3.768543e+00 6.780581e+00 -2.245877e+00 -1.381895e+00 2.450010e-01 7.395546e-01 -4.455232e-02 6.639848e-02 2.074425e-01 9.982527e-01 -3.125291e-01 9.756621e-01 -1.509104e-01 -2.157548e-02 2.242717e-01 -1.888648e-02
<VARIANCE> 25
 7.115599e+01 1.782206e+01 2.168477e+01 1.271945e+01 1.971510e+01 2.775504e+01 4.619047e+01 3.701836e+01 6.750282e+01 1.779818e+01 2.350877e+01 1.353570e+01 7.215403e+00 1.680104e+00 1.211741e+00 9.104582e-01 2.987691e+00 1.936447e+00 6.038577e+00 1.940117e+00 6.515064e+00 2.593449e+00 3.321004e+00 1.911940e+00 5.206472e-01
<GCONST> 9.614732e+01
<STATE> 3
<MEAN> 25
 -4.505508e+00 -5.204414e+00 9.573042e+00 -2.977656e+00 -1.325169e+01 -1.323091e+01 4.271247e-01 -4.809339e+00 -7.227314e-01 -4.505025e+00 3.538388e+00 -2.001996e+00 2.467996e+00 -1.317910e+00 -1.879425e+00 -1.455908e-01 -1.491572e-01 -1.284813e+00 -1.078948e+00 1.202431e+00 -4.241878e-01 -5.776052e-01 4.058609e-02 -2.384001e-01 4.987517e-01
<VARIANCE> 25
 9.897247e+01 3.082554e+01 3.691768e+01 1.862958e+01 2.261573e+01 9.336337e+01 5.749829e+01 3.992785e+01 6.270131e+01 5.639938e+01 3.414513e+01 2.018767e+01 3.711037e+00 1.616205e+00 1.619067e+00 1.111155e+00 2.490332e+00 6.801233e+00 6.954756e+00 2.214981e+00 5.343394e+00 3.951406e+00 3.182216e+00 1.575001e+00 9.269881e-01
<GCONST> 1.031328e+02
<STATE> 4
<MEAN> 25
 6.848069e+00 -9.268289e+00 -2.821604e+00 -3.038711e+00 -8.334094e+00 -9.406722e+00 -3.778330e-01 -5.708079e+00 -2.164707e+00 -2.671339e+00 -1.655923e+00 -4.374111e+00 1.419900e-01 3.903741e-01 -2.205287e-01 2.009897e-01 4.773075e-01 9.295760e-01 2.807447e-02 -5.875899e-01 -5.087089e-02 3.542764e-01 -4.891894e-01 -3.707246e-01 -5.590459e-01
<VARIANCE> 25
 9.125354e+00 3.725813e+01 1.436859e+01 1.198185e+01 1.070266e+01 1.131190e+02 9.078984e+00 1.051179e+02 3.419449e+02 8.731454e+01 2.305301e+01 6.055487e+01 2.748476e-01 8.279940e-01 7.629594e-01 6.667475e-01 5.685319e-01 2.023569e+00 6.603127e-01 3.530460e+00 2.268597e+00 1.200516e+00 1.132668e+00 1.412576e+00 3.015547e-01
<GCONST> 8.753324e+01
<TRANSP> 5
 0.000000e+00 1.000000e+00 0.000000e+00 0.000000e+00 0.000000e+00
 0.000000e+00 9.291112e-01 7.088882e-02 0.000000e+00 0.000000e+00
