~h "ah"
<BEGINHMM>
<NUMSTATES> 5
<STATE> 2
<MEAN> 25
 -3.295108e-08 -6.550857e-08 6.901765e-08 5.613159e-08 -7.279007e-08 4.960402e-08 6.058586e-08 -1.522269e-08 -1.756208e-08 -2.574165e-08 2.562800e-08 -3.359414e-08 6.193205e-04 1.874210e-03 -5.517203e-04 -1.244464e-04 -2.749996e-03 -5.981003e-04 -1.650482e-03 -1.460791e-03 -2.565482e-03 -2.399795e-03 -1.015267e-03 -1.649139e-03 -1.416997e-03
<VARIANCE> 25
 5.964943e+01 5.299704e+01 6.121924e+01 6.583541e+01 8.814134e+01 7.694161e+01 6.081390e+01 5.828838e+01 5.956340e+01 3.868868e+01 3.684652e+01 3.130931e+01 1.720003e+00 1.818751e+00 1.942652e+00 2.478552e+00 3.023078e+00 2.990276e+00 2.869987e+00 2.888806e+00 2.786867e+00 2.366959e+00 2.191838e+00 1.830008e+00 1.549957e+00
<GCONST> 1.048385e+02
<STATE> 3
<MEAN> 25
 -3.295108e-08 -6.550857e-08 6.901765e-08 5.613159e-08 -7.279007e-08 4.960402e-08 6.058586e-08 -1.522269e-08 -1.756208e-08 -2.574165e-08 2.562800e-08 -3.359414e-08 6.193205e-04 1.874210e-03 -5.517203e-04 -1.244464e-04 -2.749996e-03 -5.981003e-04 -1.650482e-03 -1.460791e-03 -2.565482e-03 -2.399795e-03 -1.015267e-03 -1.649139e-03 -1.416997e-03
<VARIANCE> 25
 5.964943e+01 5.299704e+01 6.121924e+01 6.583541e+01 8.814134e+01 7.694161e+01 6.081390e+01 5.828838e+01 5.956340e+01 3.868868e+01 3.684652e+01 3.130931e+01 1.720003e+00 1.818751e+00 1.942652e+00 2.478552e+00 3.023078e+00 2.990276e+00 2.869987e+00 2.888806e+00 2.786867e+00 2.366959e+00 2.191838e+00 1.830008e+00 1.549957e+00
<GCONST> 1.048385e+02
<STATE> 4
<MEAN> 25
 -3.295108e-08 -6.550857e-08 6.901765e-08 5.613159e-08 -7.279007e-08 4.960402e-08 6.058586e-08 -1.522269e-08 -1.756208e-08 -2.574165e-08 2.562800e-08 -3.359414e-08 6.193205e-04 1.874210e-03 -5.517203e-04 -1.244464e-04 -2.749996e-03 -5.981003e-04 -1.650482e-03 -1.460791e-03 -2.565482e-03 -2.399795e-03 -1.015267e-03 -1.649139e-03 -1.416997e-03
<VARIANCE> 25
 5.964943e+01 5.299704e+01 6.121924e+01 6.583541e+01 8.814134e+01 7.694161e+01 6.081390e+01 5.828838e+01 5.956340e+01 3.868868e+01 3.684652e+01 3.130931e+01 1.720003e+00 1.818751e+00 1.942652e+00 2.478552e+00 3.023078e+00 2.990276e+00 2.869987e+00 2.888806e+00 2.786867e+00 2.366959e+00 2.191838e+00 1.830008e+00 1.549957e+00
<GCONST> 1.048385e+02
<TRANSP> 5
 0.000000e+00 1.000000e+00 0.000000e+00 0.000000e+00 0.000000e+00
 0.000000e+00 6.000000e-01 4.000000e-01 0.000000e+00 0.000000e+00
 0.000000e+00 0.000000e+00 6.000000e-01 4.000000e-01 0.000000e+00
 0.000000e+00 0.000000e+00 0.000000e+00 7.000000e-01 3.000000e-01
 0.000000e+00 0.000000e+00 0.000000e+00 0.000000e+00 0.000000e+00
<ENDHMM>
~h "b"
<BEGINHMM>
<NUMSTATES> 5
<STATE> 2
<MEAN> 25
 -3.295108e-08 -6.550857e-08 6.901765e-08 5.613159e-08 -7.279007e-08 4.960402e-08 6.058586e-08 -1.522269e-08 -1.756208e-08 -2.574165e-08 2.562800e-08 -3.359414e-08 6.193205e-04 1.874210e-03 -5.517203e-04 -1.244464e-04 -2.749996e-03 -5.981003e-04 -1.650482e-03 -1.460791e-03 -2.565482e-03 -2.399795e-03 -1.015267e-03 -1.649139e-03 -1.416997e-03
<VARIANCE> 25
 5.964943e+01 5.299704e+01 6.121924e+01 6.583541e+01 8.814134e+01 7.694161e+01 6.081390e+01 5.828838e+01 5.956340e+01 3.868868e+01 3.684652e+01 3.130931e+01 1.720003e+00 1.818751e+00 1.942652e+00 2.478552e+00 3.023078e+00 2.990276e+00 2.869987e+00 2.888806e+00 2.786867e+00 2.366959e+00 2.191838e+00 1.830008e+00 1.549957e+00
<GCONST> 1.048385e+02
<STATE> 3
<MEAN> 25
 -3.295108e-08 -6.550857e-08 6.901765e-08 5.613159e-08 -7.279007e-08 4.960402e-08 6.058586e-08 -1.522269e-08 -1.756208e-08 -2.574165e-08 2.562800e-08 -3.359414e-08 6.193205e-04 1.874210e-03 -5.517203e-04 -1.244464e-04 -2.749996e-03 -5.981003e-04 -1.650482e-03 -1.460791e-03 -2.565482e-03 -2.399795e-03 -1.015267e-03 -1.649139e-03 -1.416997e-03
<VARIANCE> 25
 5.964943e+01 5.299704e+01 6.121924e+01 6.583541e+01 8.814134e+01 7.694161e+01 6.081390e+01 5.828838e+01 5.956340e+01 3.868868e+01 3.684652e+01 3.130931e+01 1.720003e+00 1.818751e+00 1.942652e+00 2.478552e+00 3.023078e+00 2.990276e+00 2.869987e+00 2.888806e+00 2.786867e+00 2.366959e+00 2.191838e+00 1.830008e+00 1.549957e+00
<GCONST> 1.048385e+02
<STATE> 4
<MEAN> 25
 -3.295108e-08 -6.550857e-08 6.901765e-08 5.613159e-08 -7.279007e-08 4.960402e-08 6.058586e-08 -1.522269e-08 -1.756208e-08 -2.574165e-08 2.562800e-08 -3.359414e-08 6.193205e-04 1.874210e-03 -5.517203e-04 -1.244464e-04 -2.749996e-03 -5.981003e-04 -1.650482e-03 -1.460791e-03 -2.565482e-03 -2.399795e-03 -1.015267e-03 -1.649139e-03 -1.416997e-03
<VARIANCE> 25
 5.964943e+01 5.299704e+01 6.121924e+01 6.583541e+01 8.814134e+01 7.694161e+01 6.081390e+01 5.828838e+01 5.956340e+01 3.868868e+01 3.684652e+01 3.130931e+01 1.720003e+00 1.818751e+00 1.942652e+00 2.478552e+00 3.023078e+00 2.990276e+00 2.869987e+00 2.888806e+00 2.786867e+00 2.366959e+00 2.191838e+00 1.830008e+00 1.549957e+00
<GCONST> 1.048385e+02
<TRANSP> 5
 0.000000e+00 1.000000e+00 0.000000e+00 0.000000e+00 0.000000e+00
 0.000000e+00 6.000000e-01 4.000000e-01 0.000000e+00 0.000000e+00
 0.000000e+00 0.000000e+00 6.000000e-01 4.000000e-01 0.000000e+00
 0.000000e+00 0.000000e+00 0.000000e+00 7.000000e-01 3.000000e-01
 0.000000e+00 0.000000e+00 0.000000e+00 0.000000e+00 0.000000e+00
<ENDHMM>
~h "ae"
<BEGINHMM>
<NUMSTATES> 5
<STATE> 2
<MEAN> 25
 -3.295108e-08 -6.550857e-08 6.901765e-08 5.613159e-08 -7.279007e-08 4.960402e-08 6.058586e-08 -1.522269e-08 -1.756208e-08 -2.574165e-08 2.562800e-08 -3.359414e-08 6.193205e-04 1.874210e-03 -5.517203e-04 -1.244464e-04 -2.749996e-03 -5.981003e-04 -1.650482e-03 -1.460791e-03 -2.565482e-03 -2.399795e-03 -1.015267e-03 -1.649139e-03 -1.416997e-03
<VARIANCE> 25
 5.964943e+01 5.299704e+01 6.121924e+01 6.583541e+01 8.814134e+01 7.694161e+01 6.081390e+01 5.828838e+01 5.956340e+01 3.868868e+01 3.684652e+01 3.130931e+01 1.720003e+00 1.818751e+00 1.942652e+00 2.478552e+00 3.023078e+00 2.990276e+00 2.869987e+00 2.888806e+00 2.786867e+00 2.366959e+00 2.191838e+00 1.830008e+00 1.549957e+00
<GCONST> 1.048385e+02
<STATE> 3
<MEAN> 25
 -3.295108e-08 -6.550857e-08 6.901765e-08 5.613159e-08 -7.279007e-08 4.960402e-08 6.058586e-08 -1.522269e-08 -1.756208e-08 -2.574165e-08 2.562800e-08 -3.359414e-08 6.193205e-04 1.874210e-03 -5.517203e-04 -1.244464e-04 -2.749996e-03 -5.981003e-04 -1.650482e-03 -1.460791e-03 -2.565482e-03 -2.399795e-03 -1.015267e-03 -1.649139e-03 -1.416997e-03
<VARIANCE> 25
 5.964943e+01 5.299704e+01 6.121924e+01 6.583541e+01 8.814134e+01 7.694161e+01 6.081390e+01 5.828838e+01 5.956340e+01 3.868868e+01 3.684652e+01 3.130931e+01 1.720003e+00 1.818751e+00 1.942652e+00 2.478552e+00 3.023078e+00 2.990276e+00 2.869987e+00 2.888806e+00 2.786867e+00 2.366959e+00 2.191838e+00 1.830008e+00 1.549957e+00
<GCONST> 1.048385e+02
<STATE> 4
<MEAN> 25
 -3.295108e-08 -6.550857e-08 6.901765e-08 5.613159e-08 -7.279007e-08 4.960402e-08 6.058586e-08 -1.522269e-08 -1.756208e-08 -2.574165e-08 2.562800e-08 -3.359414e-08 6.193205e-04 1.874210e-03 -5.517203e-04 -1.244464e-04 -2.749996e-03 -5.981003e-04 -1.650482e-03 -1.460791e-03 -2.565482e-03 -2.399795e-03 -1.015267e-03 -1.649139e-03 -1.416997e-03
<VARIANCE> 25
 5.964943e+01 5.299704e+01 6.121924e+01 6.583541e+01 8.814134e+01 7.694161e+01 6.081390e+01 5.828838e+01 5.956340e+01 3.868868e+01 3.684652e+01 3.130931e+01 1.720003e+00 1.818751e+00 1.942652e+00 2.478552e+00 3.023078e+00 2.990276e+00 2.869987e+00 2.888806e+00 2.786867e+00 2.366959e+00 2.191838e+00 1.830008e+00 1.549957e+00
<GCONST> 1.048385e+02
<TRANSP> 5
 0.000000e+00 1.000000e+00 0.000000e+00 0.000000e+00 0.000000e+00
 0.000000e+00 6.000000e-01 4.000000e-01 0.000000e+00 0.000000e+00
 0.000000e+00 0.000000e+00 6.000000e-01 4.000000e-01 0.000000e+00
 0.000000e+00 0.000000e+00 0.000000e+00 7.000000e-01 3.000000e-01
 0.000000e+00 0.000000e+00 0.000000e+00 0.000000e+00 0.000000e+00
<ENDHMM>
~h "n"
<BEGINHMM>
<NUMSTATES> 5
<STATE> 2
<MEAN> 25
 -3.295108e-08 -6.550857e-08 6.901765e-08 5.613159e-08 -7.279007e-08 4.960402e-08 6.058586e-08 -1.522269e-08 -1.756208e-08 -2.574165e-08 2.562800e-08 -3.359414e-08 6.193205e-04 1.874210e-03 -5.517203e-04 -1.244464e-04 -2.749996e-03 -5.981003e-04 -1.650482e-03 -1.460791e-03 -2.565482e-03 -2.399795e-03 -1.015267e-03 -1.649139e-03 -1.416997e-03
<VARIANCE> 25
 5.964943e+01 5.299704e+01 6.121924e+01 6.583541e+01 8.814134e+01 7.694161e+01 6.081390e+01 5.828838e+01 5.956340e+01 3.868868e+01 3.684652e+01 3.130931e+01 1.720003e+00 1.818751e+00 1.942652e+00 2.478552e+00 3.023078e+00 2.990276e+00 2.869987e+00 2.888806e+00 2.786867e+00 2.366959e+00 2.191838e+00 1.830008e+00 1.549957e+00
<GCONST> 1.048385e+02
<STATE> 3
<MEAN> 25
 -3.295108e-08 -6.550857e-08 6.901765e-08 5.613159e-08 -7.279007e-08 4.960402e-08 6.058586e-08 -1.522269e-08 -1.756208e-08 -2.574165e-08 2.562800e-08 -3.359414e-08 6.193205e-04 1.874210e-03 -5.517203e-04 -1.244464e-04 -2.749996e-03 -5.981003e-04 -1.650482e-03 -1.460791e-03 -2.565482e-03 -2.399795e-03 -1.015267e-03 -1.649139e-03 -1.416997e-03
<VARIANCE> 25
 5.964943e+01 5.299704e+01 6.121924e+01 6.583541e+01 8.814134e+01 7.694161e+01 6.081390e+01 5.828838e+01 5.956340e+01 3.868868e+01 3.684652e+01 3.130931e+01 1.720003e+00 1.818751e+00 1.942652e+00 2.478552e+00 3.023078e+00 2.990276e+00 2.869987e+00 2.888806e+00 2.786867e+00 2.366959e+00 2.191838e+00 1.830008e+00 1.549957e+00
<GCONST> 1.048385e+02
<STATE> 4
<MEAN> 25
 -3.295108e-08 -6.550857e-08 6.901765e-08 5.613159e-08 -7.279007e-08 4.960402e-08 6.058586e-08 -1.522269e-08 -1.756208e-08 -2.574165e-08 2.562800e-08 -3.359414e-08 6.193205e-04 1.874210e-03 -5.517203e-04 -1.244464e-04 -2.749996e-03 -5.981003e-04 -1.650482e-03 -1.460791e-03 -2.565482e-03 -2.399795e-03 -1.015267e-03 -1.649139e-03 -1.416997e-03
<VARIANCE> 25
 5.964943e+01 5.299704e+01 6.121924e+01 6.583541e+01 8.814134e+01 7.694161e+01 6.081390e+01 5.828838e+01 5.956340e+01 3.868868e+01 3.684652e+01 3.130931e+01 1.720003e+00 1.818751e+00 1.942652e+00 2.478552e+00 3.023078e+00 2.990276e+00 2.869987e+00 2.888806e+00 2.786867e+00 2.366959e+00 2.191838e+00 1.830008e+00 1.549957e+00
<GCONST> 1.048385e+02
<TRANSP> 5
 0.000000e+00 1.000000e+00 0.000000e+00 0.000000e+00 0.000000e+00
 0.000000e+00 6.000000e-01 4.000000e-01 0.000000e+00 0.000000e+00
 0.000000e+00 0.000000e+00 6.000000e-01 4.000000e-01 0.000000e+00
 0.000000e+00 0.000000e+00 0.000000e+00 7.000000e-01 3.000000e-01
 0.000000e+00 0.000000e+00 0.000000e+00 0.000000e+00 0.000000e+00
<ENDHMM>
~h "d"
<BEGINHMM>
<NUMSTATES> 5
<STATE> 2
<MEAN> 25
 -3.295108e-08 -6.550857e-08 6.901765e-08 5.613159e-08 -7.279007e-08 4.960402e-08 6.058586e-08 -1.522269e-08 -1.756208e-08 -2.574165e-08 2.562800e-08 -3.359414e-08 6.193205e-04 1.874210e-03 -5.517203e-04 -1.244464e-04 -2.749996e-03 -5.981003e-04 -1.650482e-03 -1.460791e-03 -2.565482e-03 -2.399795e-03 -1.015267e-03 -1.649139e-03 -1.416997e-03
<VARIANCE> 25
 5.964943e+01 5.299704e+01 6.121924e+01 6.583541e+01 8.814134e+01 7.694161e+01 6.081390e+01 5.828838e+01 5.956340e+01 3.868868e+01 3.684652e+01 3.130931e+01 1.720003e+00 1.818751e+00 1.942652e+00 2.478552e+00 3.023078e+00 2.990276e+00 2.869987e+00 2.888806e+00 2.786867e+00 2.366959e+00 2.191838e+00 1.830008e+00 1.549957e+00
<GCONST> 1.048385e+02
<STATE> 3
<MEAN> 25
 -3.295108e-08 -6.550857e-08 6.901765e-08 5.613159e-08 -7.279007e-08 4.960402e-08 6.058586e-08 -1.522269e-08 -1.756208e-08 -2.574165e-08 2.562800e-08 -3.359414e-08 6.193205e-04 1.874210e-03 -5.517203e-04 -1.244464e-04 -2.749996e-03 -5.981003e-04 -1.650482e-03 -1.460791e-03 -2.565482e-03 -2.399795e-03 -1.015267e-03 -1.649139e-03 -1.416997e-03
<VARIANCE> 25
 5.964943e+01 5.299704e+01 6.121924e+01 6.583541e+01 8.814134e+01 7.694161e+01 6.081390e+01 5.828838e+01 5.956340e+01 3.868868e+01 3.684652e+01 3.130931e+01 1.720003e+00 1.818751e+00 1.942652e+00 2.478552e+00 3.023078e+00 2.990276e+00 2.869987e+00 2.888806e+00 2.786867e+00 2.366959e+00 2.191838e+00 1.830008e+00 1.549957e+00
<GCONST> 1.048385e+02
<STATE> 4
<MEAN> 25
 -3.295108e-08 -6.550857e-08 6.901765e-08 5.613159e-08 -7.279007e-08 4.960402e-08 6.058586e-08 -1.522269e-08 -1.756208e-08 -2.574165e-08 2.562800e-08 -3.359414e-08 6.193205e-04 1.874210e-03 -5.517203e-04 -1.244464e-04 -2.749996e-03 -5.981003e-04 -1.650482e-03 -1.460791e-03 -2.565482e-03 -2.399795e-03 -1.015267e-03 -1.649139e-03 -1.416997e-03
<VARIANCE> 25
 5.964943e+01 5.299704e+01 6.121924e+01 6.583541e+01 8.814134e+01 7.694161e+01 6.081390e+01 5.828838e+01 5.956340e+01 3.868868e+01 3.684652e+01 3.130931e+01 1.720003e+00 1.818751e+00 1.942652e+00 2.478552e+00 3.023078e+00 2.990276e+00 2.869987e+00 2.888806e+00 2.786867e+00 2.366959e+00 2.191838e+00 1.830008e+00 1.549957e+00
<GCONST> 1.048385e+02
<TRANSP> 5
 0.000000e+00 1.000000e+00 0.000000e+00 0.000000e+00 0.000000e+00
 0.000000e+00 6.000000e-01 4.000000e-01 0.000000e+00 0.000000e+00
 0.000000e+00 0.000000e+00 6.000000e-01 4.000000e-01 0.000000e+00
 0.000000e+00 0.000000e+00 0.000000e+00 7.000000e-01 3.000000e-01
 0.000000e+00 0.000000e+00 0.000000e+00 0.000000e+00 0.000000e+00
<ENDHMM>
~h "ey"
<BEGINHMM>
<NUMSTATES> 5
<STATE> 2
<MEAN> 25
 -3.295108e-08 -6.550857e-08 6.901765e-08 5.613159e-08 -7.279007e-08 4.960402e-08 6.058586e-08 -1.522269e-08 -1.756208e-08 -2.574165e-08 2.562800e-08 -3.359414e-08 6.193205e-04 1.874210e-03 -5.517203e-04 -1.244464e-04 -2.749996e-03 -5.981003e-04 -1.650482e-03 -1.460791e-03 -2.565482e-03 -2.399795e-03 -1.015267e-03 -1.649139e-03 -1.416997e-03
<VARIANCE> 25
 5.964943e+01 5.299704e+01 6.121924e+01 6.583541e+01 8.814134e+01 7.694161e+01 6.081390e+01 5.828838e+01 5.956340e+01 3.868868e+01 3.684652e+01 3.130931e+01 1.720003e+00 1.818751e+00 1.942652e+00 2.478552e+00 3.023078e+00 2.990276e+00 2.869987e+00 2.888806e+00 2.786867e+00 2.366959e+00 2.191838e+00 1.830008e+00 1.549957e+00
<GCONST> 1.048385e+02
<STATE> 3
<MEAN> 25
 -3.295108e-08 -6.550857e-08 6.901765e-08 5.613159e-08 -7.279007e-08 4.960402e-08 6.058586e-08 -1.522269e-08 -1.756208e-08 -2.574165e-08 2.562800e-08 -3.359414e-08 6.193205e-04 1.874210e-03 -5.517203e-04 -1.244464e-04 -2.749996e-03 -5.981003e-04 -1.650482e-03 -1.460791e-03 -2.565482e-03 -2.399795e-03 -1.015267e-03 -1.649139e-03 -1.416997e-03
<VARIANCE> 25
 5.964943e+01 5.299704e+01 6.121924e+01 6.583541e+01 8.814134e+01 7.694161e+01 6.081390e+01 5.828838e+01 5.956340e+01 3.868868e+01 3.684652e+01 3.130931e+01 1.720003e+00 1.818751e+00 1.942652e+00 2.478552e+00 3.023078e+00 2.990276e+00 2.869987e+00 2.888806e+00 2.786867e+00 2.366959e+00 2.191838e+00 1.830008e+00 1.549957e+00
<GCONST> 1.048385e+02
<STATE> 4
<MEAN> 25
 -3.295108e-08 -6.550857e-08 6.901765e-08 5.613159e-08 -7.279007e-08 4.960402e-08 6.058586e-08 -1.522269e-08 -1.756208e-08 -2.574165e-08 2.562800e-08 -3.359414e-08 6.193205e-04 1.874210e-03 -5.517203e-04 -1.244464e-04 -2.749996e-03 -5.981003e-04 -1.650482e-03 -1.460791e-03 -2.565482e-03 -2.399795e-03 -1.015267e-03 -1.649139e-03 -1.416997e-03
<VARIANCE> 25
 5.964943e+01 5.299704e+01 6.121924e+01 6.583541e+01 8.814134e+01 7.694161e+01 6.081390e+01 5.828838e+01 5.956340e+01 3.868868e+01 3.684652e+01 3.130931e+01 1.720003e+00 1.818751e+00 1.942652e+00 2.478552e+00 3.023078e+00 2.990276e+00 2.869987e+00 2.888806e+00 2.786867e+00 2.366959e+00 2.191838e+00 1.830008e+00 1.549957e+00
<GCONST> 1.048385e+02
<TRANSP> 5
 0.000000e+00 1.000000e+00 0.000000e+00 0.000000e+00 0.000000e+00
 0.000000e+00 6.000000e-01 4.000000e-01 0.000000e+00 0.000000e+00
 0.000000e+00 0.000000e+00 6.000000e-01 4.000000e-01 0.000000e+00
 0.000000e+00 0.000000e+00 0.000000e+00 7.000000e-01 3.000000e-01
 0.000000e+00 0.000000e+00 0.000000e+00 0.000000e+00 0.000000e+00
<ENDHMM>
~h "l"
<BEGINHMM>
<NUMSTATES> 5
<STATE> 2
<MEAN> 25
 -3.295108e-08 -6.550857e-08 6.901765e-08 5.613159e-08 -7.279007e-08 4.960402e-08 6.058586e-08 -1.522269e-08 -1.756208e-08 -2.574165e-08 2.562800e-08 -3.359414e-08 6.193205e-04 1.874210e-03 -5.517203e-04 -1.244464e-04 -2.749996e-03 -5.981003e-04 -1.650482e-03 -1.460791e-03 -2.565482e-03 -2.399795e-03 -1.015267e-03 -1.649139e-03 -1.416997e-03
<VARIANCE> 25
 5.964943e+01 5.299704e+01 6.121924e+01 6.583541e+01 8.814134e+01 7.694161e+01 6.081390e+01 5.828838e+01 5.956340e+01 3.868868e+01 3.684652e+01 3.130931e+01 1.720003e+00 1.818751e+00 1.942652e+00 2.478552e+00 3.023078e+00 2.990276e+00 2.869987e+00 2.888806e+00 2.786867e+00 2.366959e+00 2.191838e+00 1.830008e+00 1.549957e+00
<GCONST> 1.048385e+02
<STATE> 3
<MEAN> 25
 -3.295108e-08 -6.550857e-08 6.901765e-08 5.613159e-08 -7.279007e-08 4.960402e-08 6.058586e-08 -1.522269e-08 -1.756208e-08 -2.574165e-08 2.562800e-08 -3.359414e-08 6.193205e-04 1.874210e-03 -5.517203e-04 -1.244464e-04 -2.749996e-03 -5.981003e-04 -1.650482e-03 -1.460791e-03 -2.565482e-03 -2.399795e-03 -1.015267e-03 -1.649139e-03 -1.416997e-03
<VARIANCE> 25
 5.964943e+01 5.299704e+01 6.121924e+01 6.583541e+01 8.814134e+01 7.694161e+01 6.081390e+01 5.828838e+01 5.956340e+01 3.868868e+01 3.684652e+01 3.130931e+01 1.720003e+00 1.818751e+00 1.942652e+00 2.478552e+00 3.023078e+00 2.990276e+00 2.869987e+00 2.888806e+00 2.786867e+00 2.366959e+00 2.191838e+00 1.830008e+00 1.549957e+00
<GCONST> 1.048385e+02
<STATE> 4
<MEAN> 25
 -3.295108e-08 -6.550857e-08 6.901765e-08 5.613159e-08 -7.279007e-08 4.960402e-08 6.058586e-08 -1.522269e-08 -1.756208e-08 -2.574165e-08 2.562800e-08 -3.359414e-08 6.193205e-04 1.874210e-03 -5.517203e-04 -1.244464e-04 -2.749996e-03 -5.981003e-04 -1.650482e-03 -1.460791e-03 -2.565482e-03 -2.399795e-03 -1.015267e-03 -1.649139e-03 -1.416997e-03
<VARIANCE> 25
 5.964943e+01 5.299704e+01 6.121924e+01 6.583541e+01 8.814134e+01 7.694161e+01 6.081390e+01 5.828838e+01 5.956340e+01 3.868868e+01 3.684652e+01 3.130931e+01 1.720003e+00 1.818751e+00 1.942652e+00 2.478552e+00 3.023078e+00 2.990276e+00 2.869987e+00 2.888806e+00 2.786867e+00 2.366959e+00 2.191838e+00 1.830008e+00 1.549957e+00
<GCONST> 1.048385e+02
<TRANSP> 5
 0.000000e+00 1.000000e+00 0.000000e+00 0.000000e+00 0.000000e+00
 0.000000e+00 6.000000e-01 4.000000e-01 0.000000e+00 0.000000e+00
 0.000000e+00 0.000000e+00 6.000000e-01 4.000000e-01 0.000000e+00
 0.000000e+00 0.000000e+00 0.000000e+00 7.000000e-01 3.000000e-01
 0.000000e+00 0.000000e+00 0.000000e+00 0.000000e+00 0.000000e+00
<ENDHMM>
~h "aw"
<BEGINHMM>
<NUMSTATES> 5
<STATE> 2
<MEAN> 25
 -3.295108e-08 -6.550857e-08 6.901765e-08 5.613159e-08 -7.279007e-08 4.960402e-08 6.058586e-08 -1.522269e-08 -1.756208e-08 -2.574165e-08 2.562800e-08 -3.359414e-08 6.193205e-04 1.874210e-03 -5.517203e-04 -1.244464e-04 -2.749996e-03 -5.981003e-04 -1.650482e-03 -1.460791e-03 -2.565482e-03 -2.399795e-03 -1.015267e-03 -1.649139e-03 -1.416997e-03
<VARIANCE> 25
 5.964943e+01 5.299704e+01 6.121924e+01 6.583541e+01 8.814134e+01 7.694161e+01 6.081390e+01 5.828838e+01 5.956340e+01 3.868868e+01 3.684652e+01 3.130931e+01 1.720003e+00 1.818751e+00 1.942652e+00 2.478552e+00 3.023078e+00 2.990276e+00 2.869987e+00 2.888806e+00 2.786867e+00 2.366959e+00 2.191838e+00 1.830008e+00 1.549957e+00
<GCONST> 1.048385e+02
<STATE> 3
<MEAN> 25
 -3.295108e-08 -6.550857e-08 6.901765e-08 5.613159e-08 -7.279007e-08 4.960402e-08 6.058586e-08 -1.522269e-08 -1.756208e-08 -2.574165e-08 2.562800e-08 -3.359414e-08 6.193205e-04 1.874210e-03 -5.517203e-04 -1.244464e-04 -2.749996e-03 -5.981003e-04 -1.650482e-03 -1.460791e-03 -2.565482e-03 -2.399795e-03 -1.015267e-03 -1.649139e-03 -1.416997e-03
<VARIANCE> 25
 5.964943e+01 5.299704e+01 6.121924e+01 6.583541e+01 8.814134e+01 7.694161e+01 6.081390e+01 5.828838e+01 5.956340e+01 3.868868e+01 3.684652e+01 3.130931e+01 1.720003e+00 1.818751e+00 1.942652e+00 2.478552e+00 3.023078e+00 2.990276e+00 2.869987e+00 2.888806e+00 2.786867e+00 2.366959e+00 2.191838e+00 1.830008e+00 1.549957e+00
<GCONST> 1.048385e+02
<STATE> 4
<MEAN> 25
 -3.295108e-08 -6.550857e-08 6.901765e-08 5.613159e-08 -7.279007e-08 4.960402e-08 6.058586e-08 -1.522269e-08 -1.756208e-08 -2.574165e-08 2.562800e-08 -3.359414e-08 6.193205e-04 1.874210e-03 -5.517203e-04 -1.244464e-04 -2.749996e-03 -5.981003e-04 -1.650482e-03 -1.460791e-03 -2.565482e-03 -2.399795e-03 -1.015267e-03 -1.649139e-03 -1.416997e-03
<VARIANCE> 25
 5.964943e+01 5.299704e+01 6.121924e+01 6.583541e+01 8.814134e+01 7.694161e+01 6.081390e+01 5.828838e+01 5.956340e+01 3.868868e+01 3.684652e+01 3.130931e+01 1.720003e+00 1.818751e+00 1.942652e+00 2.478552e+00 3.023078e+00 2.990276e+00 2.869987e+00 2.888806e+00 2.786867e+00 2.366959e+00 2.191838e+00 1.830008e+00 1.549957e+00
<GCONST> 1.048385e+02
<TRANSP> 5
 0.000000e+00 1.000000e+00 0.000000e+00 0.000000e+00 0.000000e+00
 0.000000e+00 6.000000e-01 4.000000e-01 0.000000e+00 0.000000e+00
 0.000000e+00 0.000000e+00 6.000000e-01 4.000000e-01 0.000000e+00
 0.000000e+00 0.000000e+00 0.000000e+00 7.000000e-01 3.000000e-01
 0.000000e+00 0.000000e+00 0.000000e+00 0.000000e+00 0.000000e+00
<ENDHMM>
~h "t"
<BEGINHMM>
<NUMSTATES> 5
<STATE> 2
<MEAN> 25
 -3.295108e-08 -6.550857e-08 6.901765e-08 5.613159e-08 -7.279007e-08 4.960402e-08 6.058586e-08 -1.522269e-08 -1.756208e-08 -2.574165e-08 2.562800e-08 -3.359414e-08 6.193205e-04 1.874210e-03 -5.517203e-04 -1.244464e-04 -2.749996e-03 -5.981003e-04 -1.650482e-03 -1.460791e-03 -2.565482e-03 -2.399795e-03 -1.015267e-03 -1.649139e-03 -1.416997e-03
<VARIANCE> 25
 5.964943e+01 5.299704e+01 6.121924e+01 6.583541e+01 8.814134e+01 7.694161e+01 6.081390e+01 5.828838e+01 5.956340e+01 3.868868e+01 3.684652e+01 3.130931e+01 1.720003e+00 1.818751e+00 1.942652e+00 2.478552e+00 3.023078e+00 2.990276e+00 2.869987e+00 2.888806e+00 2.786867e+00 2.366959e+00 2.191838e+00 1.830008e+00 1.549957e+00
<GCONST> 1.048385e+02
<STATE> 3
<MEAN> 25
 -3.295108e-08 -6.550857e-08 6.901765e-08 5.613159e-08 -7.279007e-08 4.960402e-08 6.058586e-08 -1.522269e-08 -1.756208e-08 -2.574165e-08 2.562800e-08 -3.359414e-08 6.193205e-04 1.874210e-03 -5.517203e-04 -1.244464e-04 -2.749996e-03 -5.981003e-04 -1.650482e-03 -1.460791e-03 -2.565482e-03 -2.399795e-03 -1.015267e-03 -1.649139e-03 -1.416997e-03
<VARIANCE> 25
 5.964943e+01 5.299704e+01 6.121924e+01 6.583541e+01 8.814134e+01 7.694161e+01 6.081390e+01 5.828838e+01 5.956340e+01 3.868868e+01 3.684652e+01 3.130931e+01 1.720003e+00 1.818751e+00 1.942652e+00 2.478552e+00 3.023078e+00 2.990276e+00 2.869987e+00 2.888806e+00 2.786867e+00 2.366959e+00 2.191838e+00 1.830008e+00 1.549957e+00
<GCONST> 1.048385e+02
<STATE> 4
<MEAN> 25
 -3.295108e-08 -6.550857e-08 6.901765e-08 5.613159e-08 -7.279007e-08 4.960402e-08 6.058586e-08 -1.522269e-08 -1.756208e-08 -2.574165e-08 2.562800e-08 -3.359414e-08 6.193205e-04 1.874210e-03 -5.517203e-04 -1.244464e-04 -2.749996e-03 -5.981003e-04 -1.650482e-03 -1.460791e-03 -2.565482e-03 -2.399795e-03 -1.015267e-03 -1.649139e-03 -1.416997e-03
<VARIANCE> 25
 5.964943e+01 5.299704e+01 6.121924e+01 6.583541e+01 8.814134e+01 7.694161e+01 6.081390e+01 5.828838e+01 5.956340e+01 3.868868e+01 3.684652e+01 3.130931e+01 1.720003e+00 1.818751e+00 1.942652e+00 2.478552e+00 3.023078e+00 2.990276e+00 2.869987e+00 2.888806e+00 2.786867e+00 2.366959e+00 2.191838e+00 1.830008e+00 1.549957e+00
<GCONST> 1.048385e+02
<TRANSP> 5
 0.000000e+00 1.000000e+00 0.000000e+00 0.000000e+00 0.000000e+00
 0.000000e+00 6.000000e-01 4.000000e-01 0.000000e+00 0.000000e+00
 0.000000e+00 0.000000e+00 6.000000e-01 4.000000e-01 0.000000e+00
 0.000000e+00 0.000000e+00 0.000000e+00 7.000000e-01 3.000000e-01
 0.000000e+00 0.000000e+00 0.000000e+00 0.000000e+00 0.000000e+00
<ENDHMM>
~h "k"
<BEGINHMM>
<NUMSTATES> 5
<STATE> 2
<MEAN> 25
 -3.295108e-08 -6.550857e-08 6.901765e-08 5.613159e-08 -7.279007e-08 4.960402e-08 6.058586e-08 -1.522269e-08 -1.756208e-08 -2.574165e-08 2.562800e-08 -3.359414e-08 6.193205e-04 1.874210e-03 -5.517203e-04 -1.244464e-04 -2.749996e-03 -5.981003e-04 -1.650482e-03 -1.460791e-03 -2.565482e-03 -2.399795e-03 -1.015267e-03 -1.649139e-03 -1.416997e-03
<VARIANCE> 25
 5.964943e+01 5.299704e+01 6.121924e+01 6.583541e+01 8.814134e+01 7.694161e+01 6.081390e+01 5.828838e+01 5.956340e+01 3.868868e+01 3.684652e+01 3.130931e+01 1.720003e+00 1.818751e+00 1.942652e+00 2.478552e+00 3.023078e+00 2.990276e+00 2.869987e+00 2.888806e+00 2.786867e+00 2.366959e+00 2.191838e+00 1.830008e+00 1.549957e+00
<GCONST> 1.048385e+02
<STATE> 3
<MEAN> 25
 -3.295108e-08 -6.550857e-08 6.901765e-08 5.613159e-08 -7.279007e-08 4.960402e-08 6.058586e-08 -1.522269e-08 -1.756208e-08 -2.574165e-08 2.562800e-08 -3.359414e-08 6.193205e-04 1.874210e-03 -5.517203e-04 -1.244464e-04 -2.749996e-03 -5.981003e-04 -1.650482e-03 -1.460791e-03 -2.565482e-03 -2.399795e-03 -1.015267e-03 -1.649139e-03 -1.416997e-03
<VARIANCE> 25
 5.964943e+01 5.299704e+01 6.121924e+01 6.583541e+01 8.814134e+01 7.694161e+01 6.081390e+01 5.828838e+01 5.956340e+01 3.868868e+01 3.684652e+01 3.130931e+01 1.720003e+00 1.818751e+00 1.942652e+00 2.478552e+00 3.023078e+00 2.990276e+00 2.869987e+00 2.888806e+00 2.786867e+00 2.366959e+00 2.191838e+00 1.830008e+00 1.549957e+00
<GCONST> 1.048385e+02
<STATE> 4
<MEAN> 25
 -3.295108e-08 -6.550857e-08 6.901765e-08 5.613159e-08 -7.279007e-08 4.960402e-08 6.058586e-08 -1.522269e-08 -1.756208e-08 -2.574165e-08 2.562800e-08 -3.359414e-08 6.193205e-04 1.874210e-03 -5.517203e-04 -1.244464e-04 -2.749996e-03 -5.981003e-04 -1.650482e-03 -1.460791e-03 -2.565482e-03 -2.399795e-03 -1.015267e-03 -1.649139e-03 -1.416997e-03
<VARIANCE> 25
 5.964943e+01 5.299704e+01 6.121924e+01 6.583541e+01 8.814134e+01 7.694161e+01 6.081390e+01 5.828838e+01 5.956340e+01 3.868868e+01 3.684652e+01 3.130931e+01 1.720003e+00 1.818751e+00 1.942652e+00 2.478552e+00 3.023078e+00 2.990276e+00 2.869987e+00 2.888806e+00 2.786867e+00 2.366959e+00 2.191838e+00 1.830008e+00 1.549957e+00
<GCONST> 1.048385e+02
<TRANSP> 5
 0.000000e+00 1.000000e+00 0.000000e+00 0.000000e+00 0.000000e+00
 0.000000e+00 6.000000e-01 4.000000e-01 0.000000e+00 0.000000e+00
 0.000000e+00 0.000000e+00 6.000000e-01 4.000000e-01 0.000000e+00
 0.000000e+00 0.000000e+00 0.000000e+00 7.000000e-01 3.000000e-01
 0.000000e+00 0.000000e+00 0.000000e+00 0.000000e+00 0.000000e+00
<ENDHMM>
~h "s"
<BEGINHMM>
<NUMSTATES> 5
<STATE> 2
<MEAN> 25
 -3.295108e-08 -6.550857e-08 6.901765e-08 5.613159e-08 -7.279007e-08 4.960402e-08 6.058586e-08 -1.522269e-08 -1.756208e-08 -2.574165e-08 2.562800e-08 -3.359414e-08 6.193205e-04 1.874210e-03 -5.517203e-04 -1.244464e-04 -2.749996e-03 -5.981003e-04 -1.650482e-03 -1.460791e-03 -2.565482e-03 -2.399795e-03 -1.015267e-03 -1.649139e-03 -1.416997e-03
<VARIANCE> 25
 5.964943e+01 5.299704e+01 6.121924e+01 6.583541e+01 8.814134e+01 7.694161e+01 6.081390e+01 5.828838e+01 5.956340e+01 3.868868e+01 3.684652e+01 3.130931e+01 1.720003e+00 1.818751e+00 1.942652e+00 2.478552e+00 3.023078e+00 2.990276e+00 2.869987e+00 2.888806e+00 2.786867e+00 2.366959e+00 2.191838e+00 1.830008e+00 1.549957e+00
<GCONST> 1.048385e+02
<STATE> 3
<MEAN> 25
 -3.295108e-08 -6.550857e-08 6.901765e-08 5.613159e-08 -7.279007e-08 4.960402e-08 6.058586e-08 -1.522269e-08 -1.756208e-08 -2.574165e-08 2.562800e-08 -3.359414e-08 6.193205e-04 1.874210e-03 -5.517203e-04 -1.244464e-04 -2.749996e-03 -5.981003e-04 -1.650482e-03 -1.460791e-03 -2.565482e-03 -2.399795e-03 -1.015267e-03 -1.649139e-03 -1.416997e-03
<VARIANCE> 25
 5.964943e+01 5.299704e+01 6.121924e+01 6.583541e+01 8.814134e+01 7.694161e+01 6.081390e+01 5.828838e+01 5.956340e+01 3.868868e+01 3.684652e+01 3.130931e+01 1.720003e+00 1.818751e+00 1.942652e+00 2.478552e+00 3.023078e+00 2.990276e+00 2.869987e+00 2.888806e+00 2.786867e+00 2.366959e+00 2.191838e+00 1.830008e+00 1.549957e+00
<GCONST> 1.048385e+02
<STATE> 4
<MEAN> 25
 -3.295108e-08 -6.550857e-08 6.901765e-08 5.613159e-08 -7.279007e-08 4.960402e-08 6.058586e-08 -1.522269e-08 -1.756208e-08 -2.574165e-08 2.562800e-08 -3.359414e-08 6.193205e-04 1.874210e-03 -5.517203e-04 -1.244464e-04 -2.749996e-03 -5.981003e-04 -1.650482e-03 -1.460791e-03 -2.565482e-03 -2.399795e-03 -1.015267e-03 -1.649139e-03 -1.416997e-03
<VARIANCE> 25
 5.964943e+01 5.299704e+01 6.121924e+01 6.583541e+01 8.814134e+01 7.694161e+01 6.081390e+01 5.828838e+01 5.956340e+01 3.868868e+01 3.684652e+01 3.130931e+01 1.720003e+00 1.818751e+00 1.942652e+00 2.478552e+00 3.023078e+00 2.990276e+00 2.869987e+00 2.888806e+00 2.786867e+00 2.366959e+00 2.191838e+00 1.830008e+00 1.549957e+00
<GCONST> 1.048385e+02
<TRANSP> 5
 0.000000e+00 1.000000e+00 0.000000e+00 0.000000e+00 0.000000e+00
 0.000000e+00 6.000000e-01 4.000000e-01 0.000000e+00 0.000000e+00
 0.000000e+00 0.000000e+00 6.000000e-01 4.000000e-01 0.000000e+00
 0.000000e+00 0.000000e+00 0.000000e+00 7.000000e-01 3.000000e-01
 0.000000e+00 0.000000e+00 0.000000e+00 0.000000e+00 0.000000e+00
<ENDHMM>
~h "eh"
<BEGINHMM>
<NUMSTATES> 5
<STATE> 2
<MEAN> 25
 -3.295108e-08 -6.550857e-08 6.901765e-08 5.613159e-08 -7.279007e-08 4.960402e-08 6.058586e-08 -1.522269e-08 -1.756208e-08 -2.574165e-08 2.562800e-08 -3.359414e-08 6.193205e-04 1.874210e-03 -5.517203e-04 -1.244464e-04 -2.749996e-03 -5.981003e-04 -1.650482e-03 -1.460791e-03 -2.565482e-03 -2.399795e-03 -1.015267e-03 -1.649139e-03 -1.416997e-03
<VARIANCE> 25
 5.964943e+01 5.299704e+01 6.121924e+01 6.583541e+01 8.814134e+01 7.694161e+01 6.081390e+01 5.828838e+01 5.956340e+01 3.868868e+01 3.684652e+01 3.130931e+01 1.720003e+00 1.818751e+00 1.942652e+00 2.478552e+00 3.023078e+00 2.990276e+00 2.869987e+00 2.888806e+00 2.786867e+00 2.366959e+00 2.191838e+00 1.830008e+00 1.549957e+00
<GCONST> 1.048385e+02
<STATE> 3
<MEAN> 25
 -3.295108e-08 -6.550857e-08 6.901765e-08 5.613159e-08 -7.279007e-08 4.960402e-08 6.058586e-08 -1.522269e-08 -1.756208e-08 -2.574165e-08 2.562800e-08 -3.359414e-08 6.193205e-04 1.874210e-03 -5.517203e-04 -1.244464e-04 -2.749996e-03 -5.981003e-04 -1.650482e-03 -1.460791e-03 -2.565482e-03 -2.399795e-03 -1.015267e-03 -1.649139e-03 -1.416997e-03
<VARIANCE> 25
 5.964943e+01 5.299704e+01 6.121924e+01 6.583541e+01 8.814134e+01 7.694161e+01 6.081390e+01 5.828838e+01 5.956340e+01 3.868868e+01 3.684652e+01 3.130931e+01 1.720003e+00 1.818751e+00 1.942652e+00 2.478552e+00 3.023078e+00 2.990276e+00 2.869987e+00 2.888806e+00 2.786867e+00 2.366959e+00 2.191838e+00 1.830008e+00 1.549957e+00
<GCONST> 1.048385e+02
<STATE> 4
<MEAN> 25
 -3.295108e-08 -6.550857e-08 6.901765e-08 5.613159e-08 -7.279007e-08 4.960402e-08 6.058586e-08 -1.522269e-08 -1.756208e-08 -2.574165e-08 2.562800e-08 -3.359414e-08 6.193205e-04 1.874210e-03 -5.517203e-04 -1.244464e-04 -2.749996e-03 -5.981003e-04 -1.650482e-03 -1.460791e-03 -2.565482e-03 -2.399795e-03 -1.015267e-03 -1.649139e-03 -1.416997e-03
<VARIANCE> 25
 5.964943e+01 5.299704e+01 6.121924e+01 6.583541e+01 8.814134e+01 7.694161e+01 6.081390e+01 5.828838e+01 5.956340e+01 3.868868e+01 3.684652e+01 3.130931e+01 1.720003e+00 1.818751e+00 1.942652e+00 2.478552e+00 3.023078e+00 2.990276e+00 2.869987e+00 2.888806e+00 2.786867e+00 2.366959e+00 2.191838e+00 1.830008e+00 1.549957e+00
<GCONST> 1.048385e+02
<TRANSP> 5
 0.000000e+00 1.000000e+00 0.000000e+00 0.000000e+00 0.000000e+00
 0.000000e+00 6.000000e-01 4.000000e-01 0.000000e+00 0.000000e+00
 0.000000e+00 0.000000e+00 6.000000e-01 4.000000e-01 0.000000e+00
 0.000000e+00 0.000000e+00 0.000000e+00 7.000000e-01 3.000000e-01
 0.000000e+00 0.000000e+00 0.000000e+00 0.000000e+00 0.000000e+00
<ENDHMM>
~h "p"
<BEGINHMM>
<NUMSTATES> 5
<STATE> 2
<MEAN> 25
 -3.295108e-08 -6.550857e-08 6.901765e-08 5.613159e-08 -7.279007e-08 4.960402e-08 6.058586e-08 -1.522269e-08 -1.756208e-08 -2.574165e-08 2.562800e-08 -3.359414e-08 6.193205e-04 1.874210e-03 -5.517203e-04 -1.244464e-04 -2.749996e-03 -5.981003e-04 -1.650482e-03 -1.460791e-03 -2.565482e-03 -2.399795e-03 -1.015267e-03 -1.649139e-03 -1.416997e-03
<VARIANCE> 25
 5.964943e+01 5.299704e+01 6.121924e+01 6.583541e+01 8.814134e+01 7.694161e+01 6.081390e+01 5.828838e+01 5.956340e+01 3.868868e+01 3.684652e+01 3.130931e+01 1.720003e+00 1.818751e+00 1.942652e+00 2.478552e+00 3.023078e+00 2.990276e+00 2.869987e+00 2.888806e+00 2.786867e+00 2.366959e+00 2.191838e+00 1.830008e+00 1.549957e+00
<GCONST> 1.048385e+02
<STATE> 3
<MEAN> 25
 -3.295108e-08 -6.550857e-08 6.901765e-08 5.613159e-08 -7.279007e-08 4.960402e-08 6.058586e-08 -1.522269e-08 -1.756208e-08 -2.574165e-08 2.562800e-08 -3.359414e-08 6.193205e-04 1.874210e-03 -5.517203e-04 -1.244464e-04 -2.749996e-03 -5.981003e-04 -1.650482e-03 -1.460791e-03 -2.565482e-03 -2.399795e-03 -1.015267e-03 -1.649139e-03 -1.416997e-03
<VARIANCE> 25
 5.964943e+01 5.299704e+01 6.121924e+01 6.583541e+01 8.814134e+01 7.694161e+01 6.081390e+01 5.828838e+01 5.956340e+01 3.868868e+01 3.684652e+01 3.130931e+01 1.720003e+00 1.818751e+00 1.942652e+00 2.478552e+00 3.023078e+00 2.990276e+00 2.869987e+00 2.888806e+00 2.786867e+00 2.366959e+00 2.191838e+00 1.830008e+00 1.549957e+00
<GCONST> 1.048385e+02
<STATE> 4
<MEAN> 25
 -3.295108e-08 -6.550857e-08 6.901765e-08 5.613159e-08 -7.279007e-08 4.960402e-08 6.058586e-08 -1.522269e-08 -1.756208e-08 -2.574165e-08 2.562800e-08 -3.359414e-08 6.193205e-04 1.874210e-03 -5.517203e-04 -1.244464e-04 -2.749996e-03 -5.981003e-04 -1.650482e-03 -1.460791e-03 -2.565482e-03 -2.399795e-03 -1.015267e-03 -1.649139e-03 -1.416997e-03
<VARIANCE> 25
 5.964943e+01 5.299704e+01 6.121924e+01 6.583541e+01 8.814134e+01 7.694161e+01 6.081390e+01 5.828838e+01 5.956340e+01 3.868868e+01 3.684652e+01 3.130931e+01 1.720003e+00 1.818751e+00 1.942652e+00 2.478552e+00 3.023078e+00 2.990276e+00 2.869987e+00 2.888806e+00 2.786867e+00 2.366959e+00 2.191838e+00 1.830008e+00 1.549957e+00
<GCONST> 1.048385e+02
<TRANSP> 5
 0.000000e+00 1.000000e+00 0.000000e+00 0.000000e+00 0.000000e+00
 0.000000e+00 6.000000e-01 4.000000e-01 0.000000e+00 0.000000e+00
 0.000000e+00 0.000000e+00 6.000000e-01 4.000000e-01 0.000000e+00
 0.000000e+00 0.000000e+00 0.000000e+00 7.000000e-01 3.000000e-01
 0.000000e+00 0.000000e+00 0.000000e+00 0.000000e+00 0.000000e+00
<ENDHMM>
~h "w"
<BEGINHMM>
<NUMSTATES> 5
<STATE> 2
<MEAN> 25
 -3.295108e-08 -6.550857e-08 6.901765e-08 5.613159e-08 -7.279007e-08 4.960402e-08 6.058586e-08 -1.522269e-08 -1.756208e-08 -2.574165e-08 2.562800e-08 -3.359414e-08 6.193205e-04 1.874210e-03 -5.517203e-04 -1.244464e-04 -2.749996e-03 -5.981003e-04 -1.650482e-03 -1.460791e-03 -2.565482e-03 -2.399795e-03 -1.015267e-03 -1.649139e-03 -1.416997e-03
<VARIANCE> 25
 5.964943e+01 5.299704e+01 6.121924e+01 6.583541e+01 8.814134e+01 7.694161e+01 6.081390e+01 5.828838e+01 5.956340e+01 3.868868e+01 3.684652e+01 3.130931e+01 1.720003e+00 1.818751e+00 1.942652e+00 2.478552e+00 3.023078e+00 2.990276e+00 2.869987e+00 2.888806e+00 2.786867e+00 2.366959e+00 2.191838e+00 1.830008e+00 1.549957e+00
<GCONST> 1.048385e+02
<STATE> 3
<MEAN> 25
 -3.295108e-08 -6.550857e-08 6.901765e-08 5.613159e-08 -7.279007e-08 4.960402e-08 6.058586e-08 -1.522269e-08 -1.756208e-08 -2.574165e-08 2.562800e-08 -3.359414e-08 6.193205e-04 1.874210e-03 -5.517203e-04 -1.244464e-04 -2.749996e-03 -5.981003e-04 -1.650482e-03 -1.460791e-03 -2.565482e-03 -2.399795e-03 -1.015267e-03 -1.649139e-03 -1.416997e-03
<VARIANCE> 25
 5.964943e+01 5.299704e+01 6.121924e+01 6.583541e+01 8.814134e+01 7.694161e+01 6.081390e+01 5.828838e+01 5.956340e+01 3.868868e+01 3.684652e+01 3.130931e+01 1.720003e+00 1.818751e+00 1.942652e+00 2.478552e+00 3.023078e+00 2.990276e+00 2.869987e+00 2.888806e+00 2.786867e+00 2.366959e+00 2.191838e+00 1.830008e+00 1.549957e+00
<GCONST> 1.048385e+02
<STATE> 4
<MEAN> 25
 -3.295108e-08 -6.550857e-08 6.901765e-08 5.613159e-08 -7.279007e-08 4.960402e-08 6.058586e-08 -1.522269e-08 -1.756208e-08 -2.574165e-08 2.562800e-08 -3.359414e-08 6.193205e-04 1.874210e-03 -5.517203e-04 -1.244464e-04 -2.749996e-03 -5.981003e-04 -1.650482e-03 -1.460791e-03 -2.565482e-03 -2.399795e-03 -1.015267e-03 -1.649139e-03 -1.416997e-03
<VARIANCE> 25
 5.964943e+01 5.299704e+01 6.121924e+01 6.583541e+01 8.814134e+01 7.694161e+01 6.081390e+01 5.828838e+01 5.956340e+01 3.868868e+01 3.684652e+01 3.130931e+01 1.720003e+00 1.818751e+00 1.942652e+00 2.478552e+00 3.023078e+00 2.990276e+00 2.869987e+00 2.888806e+00 2.786867e+00 2.366959e+00 2.191838e+00 1.830008e+00 1.549957e+00
<GCONST> 1.048385e+02
<TRANSP> 5
 0.000000e+00 1.000000e+00 0.000000e+00 0.000000e+00 0.000000e+00
 0.000000e+00 6.000000e-01 4.000000e-01 0.000000e+00 0.000000e+00
 0.000000e+00 0.000000e+00 6.000000e-01 4.000000e-01 0.000000e+00
 0.000000e+00 0.000000e+00 0.000000e+00 7.000000e-01 3.000000e-01
 0.000000e+00 0.000000e+00 0.000000e+00 0.000000e+00 0.000000e+00
<ENDHMM>
~h "ay"
<BEGINHMM>
<NUMSTATES> 5
<STATE> 2
<MEAN> 25
 -3.295108e-08 -6.550857e-08 6.901765e-08 5.613159e-08 -7.279007e-08 4.960402e-08 6.058586e-08 -1.522269e-08 -1.756208e-08 -2.574165e-08 2.562800e-08 -3.359414e-08 6.193205e-04 1.874210e-03 -5.517203e-04 -1.244464e-04 -2.749996e-03 -5.981003e-04 -1.650482e-03 -1.460791e-03 -2.565482e-03 -2.399795e-03 -1.015267e-03 -1.649139e-03 -1.416997e-03
<VARIANCE> 25
 5.964943e+01 5.299704e+01 6.121924e+01 6.583541e+01 8.814134e+01 7.694161e+01 6.081390e+01 5.828838e+01 5.956340e+01 3.868868e+01 3.684652e+01 3.130931e+01 1.720003e+00 1.818751e+00 1.942652e+00 2.478552e+00 3.023078e+00 2.990276e+00 2.869987e+00 2.888806e+00 2.786867e+00 2.366959e+00 2.191838e+00 1.830008e+00 1.549957e+00
<GCONST> 1.048385e+02
<STATE> 3
<MEAN> 25
 -3.295108e-08 -6.550857e-08 6.901765e-08 5.613159e-08 -7.279007e-08 4.960402e-08 6.058586e-08 -1.522269e-08 -1.756208e-08 -2.574165e-08 2.562800e-08 -3.359414e-08 6.193205e-04 1.874210e-03 -5.517203e-04 -1.244464e-04 -2.749996e-03 -5.981003e-04 -1.650482e-03 -1.460791e-03 -2.565482e-03 -2.399795e-03 -1.015267e-03 -1.649139e-03 -1.416997e-03
<VARIANCE> 25
 5.964943e+01 5.299704e+01 6.121924e+01 6.583541e+01 8.814134e+01 7.694161e+01 6.081390e+01 5.828838e+01 5.956340e+01 3.868868e+01 3.684652e+01 3.130931e+01 1.720003e+00 1.818751e+00 1.942652e+00 2.478552e+00 3.023078e+00 2.990276e+00 2.869987e+00 2.888806e+00 2.786867e+00 2.366959e+00 2.191838e+00 1.830008e+00 1.549957e+00
<GCONST> 1.048385e+02
<STATE> 4
<MEAN> 25
 -3.295108e-08 -6.550857e-08 6.901765e-08 5.613159e-08 -7.279007e-08 4.960402e-08 6.058586e-08 -1.522269e-08 -1.756208e-08 -2.574165e-08 2.562800e-08 -3.359414e-08 6.193205e-04 1.874210e-03 -5.517203e-04 -1.244464e-04 -2.749996e-03 -5.981003e-04 -1.650482e-03 -1.460791e-03 -2.565482e-03 -2.399795e-03 -1.015267e-03 -1.649139e-03 -1.416997e-03
<VARIANCE> 25
 5.964943e+01 5.299704e+01 6.121924e+01 6.583541e+01 8.814134e+01 7.694161e+01 6.081390e+01 5.828838e+01 5.956340e+01 3.868868e+01 3.684652e+01 3.130931e+01 1.720003e+00 1.818751e+00 1.942652e+00 2.478552e+00 3.023078e+00 2.990276e+00 2.869987e+00 2.888806e+00 2.786867e+00 2.366959e+00 2.191838e+00 1.830008e+00 1.549957e+00
<GCONST> 1.048385e+02
<TRANSP> 5
 0.000000e+00 1.000000e+00 0.000000e+00 0.000000e+00 0.000000e+00
 0.000000e+00 6.000000e-01 4.000000e-01 0.000000e+00 0.000000e+00
 0.000000e+00 0.000000e+00 6.000000e-01 4.000000e-01 0.000000e+00
 0.000000e+00 0.000000e+00 0.000000e+00 7.000000e-01 3.000000e-01
 0.000000e+00 0.000000e+00 0.000000e+00 0.000000e+00 0.000000e+00
<ENDHMM>
~h "er"
<BEGINHMM>
<NUMSTATES> 5
<STATE> 2
<MEAN> 25
 -3.295108e-08 -6.550857e-08 6.901765e-08 5.613159e-08 -7.279007e-08 4.960402e-08 6.058586e-08 -1.522269e-08 -1.756208e-08 -2.574165e-08 2.562800e-08 -3.359414e-08 6.193205e-04 1.874210e-03 -5.517203e-04 -1.244464e-04 -2.749996e-03 -5.981003e-04 -1.650482e-03 -1.460791e-03 -2.565482e-03 -2.399795e-03 -1.015267e-03 -1.649139e-03 -1.416997e-03
<VARIANCE> 25
 5.964943e+01 5.299704e+01 6.121924e+01 6.583541e+01 8.814134e+01 7.694161e+01 6.081390e+01 5.828838e+01 5.956340e+01 3.868868e+01 3.684652e+01 3.130931e+01 1.720003e+00 1.818751e+00 1.942652e+00 2.478552e+00 3.023078e+00 2.990276e+00 2.869987e+00 2.888806e+00 2.786867e+00 2.366959e+00 2.191838e+00 1.830008e+00 1.549957e+00
<GCONST> 1.048385e+02
<STATE> 3
<MEAN> 25
 -3.295108e-08 -6.550857e-08 6.901765e-08 5.613159e-08 -7.279007e-08 4.960402e-08 6.058586e-08 -1.522269e-08 -1.756208e-08 -2.574165e-08 2.562800e-08 -3.359414e-08 6.193205e-04 1.874210e-03 -5.517203e-04 -1.244464e-04 -2.749996e-03 -5.981003e-04 -1.650482e-03 -1.460791e-03 -2.565482e-03 -2.399795e-03 -1.015267e-03 -1.649139e-03 -1.416997e-03
<VARIANCE> 25
 5.964943e+01 5.299704e+01 6.121924e+01 6.583541e+01 8.814134e+01 7.694161e+01 6.081390e+01 5.828838e+01 5.956340e+01 3.868868e+01 3.684652e+01 3.130931e+01 1.720003e+00 1.818751e+00 1.942652e+00 2.478552e+00 3.023078e+00 2.990276e+00 2.869987e+00 2.888806e+00 2.786867e+00 2.366959e+00 2.191838e+00 1.830008e+00 1.549957e+00
<GCONST> 1.048385e+02
<STATE> 4
<MEAN> 25
 -3.295108e-08 -6.550857e-08 6.901765e-08 5.613159e-08 -7.279007e-08 4.960402e-08 6.058586e-08 -1.522269e-08 -1.756208e-08 -2.574165e-08 2.562800e-08 -3.359414e-08 6.193205e-04 1.874210e-03 -5.517203e-04 -1.244464e-04 -2.749996e-03 -5.981003e-04 -1.650482e-03 -1.460791e-03 -2.565482e-03 -2.399795e-03 -1.015267e-03 -1.649139e-03 -1.416997e-03
<VARIANCE> 25
 5.964943e+01 5.299704e+01 6.121924e+01 6.583541e+01 8.814134e+01 7.694161e+01 6.081390e+01 5.828838e+01 5.956340e+01 3.868868e+01 3.684652e+01 3.130931e+01 1.720003e+00 1.818751e+00 1.942652e+00 2.478552e+00 3.023078e+00 2.990276e+00 2.869987e+00 2.888806e+00 2.786867e+00 2.366959e+00 2.191838e+00 1.830008e+00 1.549957e+00
<GCONST> 1.048385e+02
<TRANSP> 5
 0.000000e+00 1.000000e+00 0.000000e+00 0.000000e+00 0.000000e+00
 0.000000e+00 6.000000e-01 4.000000e-01 0.000000e+00 0.000000e+00
 0.000000e+00 0.000000e+00 6.000000e-01 4.000000e-01 0.000000e+00
 0.000000e+00 0.000000e+00 0.000000e+00 7.000000e-01 3.000000e-01
 0.000000e+00 0.000000e+00 0.000000e+00 0.000000e+00 0.000000e+00
<ENDHMM>
~h "r"
<BEGINHMM>
<NUMSTATES> 5
<STATE> 2
<MEAN> 25
 -3.295108e-08 -6.550857e-08 6.901765e-08 5.613159e-08 -7.279007e-08 4.960402e-08 6.058586e-08 -1.522269e-08 -1.756208e-08 -2.574165e-08 2.562800e-08 -3.359414e-08 6.193205e-04 1.874210e-03 -5.517203e-04 -1.244464e-04 -2.749996e-03 -5.981003e-04 -1.650482e-03 -1.460791e-03 -2.565482e-03 -2.399795e-03 -1.015267e-03 -1.649139e-03 -1.416997e-03
<VARIANCE> 25
 5.964943e+01 5.299704e+01 6.121924e+01 6.583541e+01 8.814134e+01 7.694161e+01 6.081390e+01 5.828838e+01 5.956340e+01 3.868868e+01 3.684652e+01 3.130931e+01 1.720003e+00 1.818751e+00 1.942652e+00 2.478552e+00 3.023078e+00 2.990276e+00 2.869987e+00 2.888806e+00 2.786867e+00 2.366959e+00 2.191838e+00 1.830008e+00 1.549957e+00
<GCONST> 1.048385e+02
<STATE> 3
<MEAN> 25
 -3.295108e-08 -6.550857e-08 6.901765e-08 5.613159e-08 -7.279007e-08 4.960402e-08 6.058586e-08 -1.522269e-08 -1.756208e-08 -2.574165e-08 2.562800e-08 -3.359414e-08 6.193205e-04 1.874210e-03 -5.517203e-04 -1.244464e-04 -2.749996e-03 -5.981003e-04 -1.650482e-03 -1.460791e-03 -2.565482e-03 -2.399795e-03 -1.015267e-03 -1.649139e-03 -1.416997e-03
<VARIANCE> 25
 5.964943e+01 5.299704e+01 6.121924e+01 6.583541e+01 8.814134e+01 7.694161e+01 6.081390e+01 5.828838e+01 5.956340e+01 3.868868e+01 3.684652e+01 3.130931e+01 1.720003e+00 1.818751e+00 1.942652e+00 2.478552e+00 3.023078e+00 2.990276e+00 2.869987e+00 2.888806e+00 2.786867e+00 2.366959e+00 2.191838e+00 1.830008e+00 1.549957e+00
<GCONST> 1.048385e+02
<STATE> 4
<MEAN> 25
 -3.295108e-08 -6.550857e-08 6.901765e-08 5.613159e-08 -7.279007e-08 4.960402e-08 6.058586e-08 -1.522269e-08 -1.756208e-08 -2.574165e-08 2.562800e-08 -3.359414e-08 6.193205e-04 1.874210e-03 -5.517203e-04 -1.244464e-04 -2.749996e-03 -5.981003e-04 -1.650482e-03 -1.460791e-03 -2.565482e-03 -2.399795e-03 -1.015267e-03 -1.649139e-03 -1.416997e-03
<VARIANCE> 25
 5.964943e+01 5.299704e+01 6.121924e+01 6.583541e+01 8.814134e+01 7.694161e+01 6.081390e+01 5.828838e+01 5.956340e+01 3.868868e+01 3.684652e+01 3.130931e+01 1.720003e+00 1.818751e+00 1.942652e+00 2.478552e+00 3.023078e+00 2.990276e+00 2.869987e+00 2.888806e+00 2.786867e+00 2.366959e+00 2.191838e+00 1.830008e+00 1.549957e+00
<GCONST> 1.048385e+02
<TRANSP> 5
 0.000000e+00 1.000000e+00 0.000000e+00 0.000000e+00 0.000000e+00
 0.000000e+00 6.000000e-01 4.000000e-01 0.000000e+00 0.000000e+00
 0.000000e+00 0.000000e+00 6.000000e-01 4.000000e-01 0.000000e+00
 0.000000e+00 0.000000e+00 0.000000e+00 7.000000e-01 3.000000e-01
 0.000000e+00 0.000000e+00 0.000000e+00 0.000000e+00 0.000000e+00
<ENDHMM>
~h "ao"
<BEGINHMM>
<NUMSTATES> 5
<STATE> 2
<MEAN> 25
 -3.295108e-08 -6.550857e-08 6.901765e-08 5.613159e-08 -7.279007e-08 4.960402e-08 6.058586e-08 -1.522269e-08 -1.756208e-08 -2.574165e-08 2.562800e-08 -3.359414e-08 6.193205e-04 1.874210e-03 -5.517203e-04 -1.244464e-04 -2.749996e-03 -5.981003e-04 -1.650482e-03 -1.460791e-03 -2.565482e-03 -2.399795e-03 -1.015267e-03 -1.649139e-03 -1.416997e-03
<VARIANCE> 25
 5.964943e+01 5.299704e+01 6.121924e+01 6.583541e+01 8.814134e+01 7.694161e+01 6.081390e+01 5.828838e+01 5.956340e+01 3.868868e+01 3.684652e+01 3.130931e+01 1.720003e+00 1.818751e+00 1.942652e+00 2.478552e+00 3.023078e+00 2.990276e+00 2.869987e+00 2.888806e+00 2.786867e+00 2.366959e+00 2.191838e+00 1.830008e+00 1.549957e+00
<GCONST> 1.048385e+02
<STATE> 3
<MEAN> 25
 -3.295108e-08 -6.550857e-08 6.901765e-08 5.613159e-08 -7.279007e-08 4.960402e-08 6.058586e-08 -1.522269e-08 -1.756208e-08 -2.574165e-08 2.562800e-08 -3.359414e-08 6.193205e-04 1.874210e-03 -5.517203e-04 -1.244464e-04 -2.749996e-03 -5.981003e-04 -1.650482e-03 -1.460791e-03 -2.565482e-03 -2.399795e-03 -1.015267e-03 -1.649139e-03 -1.416997e-03
<VARIANCE> 25
 5.964943e+01 5.299704e+01 6.121924e+01 6.583541e+01 8.814134e+01 7.694161e+01 6.081390e+01 5.828838e+01 5.956340e+01 3.868868e+01 3.684652e+01 3.130931e+01 1.720003e+00 1.818751e+00 1.942652e+00 2.478552e+00 3.023078e+00 2.990276e+00 2.869987e+00 2.888806e+00 2.786867e+00 2.366959e+00 2.191838e+00 1.830008e+00 1.549957e+00
<GCONST> 1.048385e+02
<STATE> 4
<MEAN> 25
 -3.295108e-08 -6.550857e-08 6.901765e-08 5.613159e-08 -7.279007e-08 4.960402e-08 6.058586e-08 -1.522269e-08 -1.756208e-08 -2.574165e-08 2.562800e-08 -3.359414e-08 6.193205e-04 1.874210e-03 -5.517203e-04 -1.244464e-04 -2.749996e-03 -5.981003e-04 -1.650482e-03 -1.460791e-03 -2.565482e-03 -2.399795e-03 -1.015267e-03 -1.649139e-03 -1.416997e-03
<VARIANCE> 25
 5.964943e+01 5.299704e+01 6.121924e+01 6.583541e+01 8.814134e+01 7.694161e+01 6.081390e+01 5.828838e+01 5.956340e+01 3.868868e+01 3.684652e+01 3.130931e+01 1.720003e+00 1.818751e+00 1.942652e+00 2.478552e+00 3.023078e+00 2.990276e+00 2.869987e+00 2.888806e+00 2.786867e+00 2.366959e+00 2.191838e+00 1.830008e+00 1.549957e+00
<GCONST> 1.048385e+02
<TRANSP> 5
 0.000000e+00 1.000000e+00 0.000000e+00 0.000000e+00 0.000000e+00
 0.000000e+00 6.000000e-01 4.000000e-01 0.000000e+00 0.000000e+00
 0.000000e+00 0.000000e+00 6.000000e-01 4.000000e-01 0.000000e+00
 0.000000e+00 0.000000e+00 0.000000e+00 7.000000e-01 3.000000e-01
 0.000000e+00 0.000000e+00 0.000000e+00 0.000000e+00 0.000000e+00
<ENDHMM>
~h "ch"
<BEGINHMM>
<NUMSTATES> 5
<STATE> 2
<MEAN> 25
 -3.295108e-08 -6.550857e-08 6.901765e-08 5.613159e-08 -7.279007e-08 4.960402e-08 6.058586e-08 -1.522269e-08 -1.756208e-08 -2.574165e-08 2.562800e-08 -3.359414e-08 6.193205e-04 1.874210e-03 -5.517203e-04 -1.244464e-04 -2.749996e-03 -5.981003e-04 -1.650482e-03 -1.460791e-03 -2.565482e-03 -2.399795e-03 -1.015267e-03 -1.649139e-03 -1.416997e-03
<VARIANCE> 25
 5.964943e+01 5.299704e+01 6.121924e+01 6.583541e+01 8.814134e+01 7.694161e+01 6.081390e+01 5.828838e+01 5.956340e+01 3.868868e+01 3.684652e+01 3.130931e+01 1.720003e+00 1.818751e+00 1.942652e+00 2.478552e+00 3.023078e+00 2.990276e+00 2.869987e+00 2.888806e+00 2.786867e+00 2.366959e+00 2.191838e+00 1.830008e+00 1.549957e+00
<GCONST> 1.048385e+02
<STATE> 3
<MEAN> 25
 -3.295108e-08 -6.550857e-08 6.901765e-08 5.613159e-08 -7.279007e-08 4.960402e-08 6.058586e-08 -1.522269e-08 -1.756208e-08 -2.574165e-08 2.562800e-08 -3.359414e-08 6.193205e-04 1.874210e-03 -5.517203e-04 -1.244464e-04 -2.749996e-03 -5.981003e-04 -1.650482e-03 -1.460791e-03 -2.565482e-03 -2.399795e-03 -1.015267e-03 -1.649139e-03 -1.416997e-03
<VARIANCE> 25
 5.964943e+01 5.299704e+01 6.121924e+01 6.583541e+01 8.814134e+01 7.694161e+01 6.081390e+01 5.828838e+01 5.956340e+01 3.868868e+01 3.684652e+01 3.130931e+01 1.720003e+00 1.818751e+00 1.942652e+00 2.478552e+00 3.023078e+00 2.990276e+00 2.869987e+00 2.888806e+00 2.786867e+00 2.366959e+00 2.191838e+00 1.830008e+00 1.549957e+00
<GCONST> 1.048385e+02
<STATE> 4
<MEAN> 25
 -3.295108e-08 -6.550857e-08 6.901765e-08 5.613159e-08 -7.279007e-08 4.960402e-08 6.058586e-08 -1.522269e-08 -1.756208e-08 -2.574165e-08 2.562800e-08 -3.359414e-08 6.193205e-04 1.874210e-03 -5.517203e-04 -1.244464e-04 -2.749996e-03 -5.981003e-04 -1.650482e-03 -1.460791e-03 -2.565482e-03 -2.399795e-03 -1.015267e-03 -1.649139e-03 -1.416997e-03
<VARIANCE> 25
 5.964943e+01 5.299704e+01 6.121924e+01 6.583541e+01 8.814134e+01 7.694161e+01 6.081390e+01 5.828838e+01 5.956340e+01 3.868868e+01 3.684652e+01 3.130931e+01 1.720003e+00 1.818751e+00 1.942652e+00 2.478552e+00 3.023078e+00 2.990276e+00 2.869987e+00 2.888806e+00 2.786867e+00 2.366959e+00 2.191838e+00 1.830008e+00 1.549957e+00
<GCONST> 1.048385e+02
<TRANSP> 5
 0.000000e+00 1.000000e+00 0.000000e+00 0.000000e+00 0.000000e+00
 0.000000e+00 6.000000e-01 4.000000e-01 0.000000e+00 0.000000e+00
 0.000000e+00 0.000000e+00 6.000000e-01 4.000000e-01 0.000000e+00
 0.000000e+00 0.000000e+00 0.000000e+00 7.000000e-01 3.000000e-01
 0.000000e+00 0.000000e+00 0.000000e+00 0.000000e+00 0.000000e+00
<ENDHMM>
~h "uw"
<BEGINHMM>
<NUMSTATES> 5
<STATE> 2
<MEAN> 25
 -3.295108e-08 -6.550857e-08 6.901765e-08 5.613159e-08 -7.279007e-08 4.960402e-08 6.058586e-08 -1.522269e-08 -1.756208e-08 -2.574165e-08 2.562800e-08 -3.359414e-08 6.193205e-04 1.874210e-03 -5.517203e-04 -1.244464e-04 -2.749996e-03 -5.981003e-04 -1.650482e-03 -1.460791e-03 -2.565482e-03 -2.399795e-03 -1.015267e-03 -1.649139e-03 -1.416997e-03
<VARIANCE> 25
 5.964943e+01 5.299704e+01 6.121924e+01 6.583541e+01 8.814134e+01 7.694161e+01 6.081390e+01 5.828838e+01 5.956340e+01 3.868868e+01 3.684652e+01 3.130931e+01 1.720003e+00 1.818751e+00 1.942652e+00 2.478552e+00 3.023078e+00 2.990276e+00 2.869987e+00 2.888806e+00 2.786867e+00 2.366959e+00 2.191838e+00 1.830008e+00 1.549957e+00
<GCONST> 1.048385e+02
<STATE> 3
<MEAN> 25
 -3.295108e-08 -6.550857e-08 6.901765e-08 5.613159e-08 -7.279007e-08 4.960402e-08 6.058586e-08 -1.522269e-08 -1.756208e-08 -2.574165e-08 2.562800e-08 -3.359414e-08 6.193205e-04 1.874210e-03 -5.517203e-04 -1.244464e-04 -2.749996e-03 -5.981003e-04 -1.650482e-03 -1.460791e-03 -2.565482e-03 -2.399795e-03 -1.015267e-03 -1.649139e-03 -1.416997e-03
<VARIANCE> 25
 5.964943e+01 5.299704e+01 6.121924e+01 6.583541e+01 8.814134e+01 7.694161e+01 6.081390e+01 5.828838e+01 5.956340e+01 3.868868e+01 3.684652e+01 3.130931e+01 1.720003e+00 1.818751e+00 1.942652e+00 2.478552e+00 3.023078e+00 2.990276e+00 2.869987e+00 2.888806e+00 2.786867e+00 2.366959e+00 2.191838e+00 1.830008e+00 1.549957e+00
<GCONST> 1.048385e+02
<STATE> 4
<MEAN> 25
 -3.295108e-08 -6.550857e-08 6.901765e-08 5.613159e-08 -7.279007e-08 4.960402e-08 6.058586e-08 -1.522269e-08 -1.756208e-08 -2.574165e-08 2.562800e-08 -3.359414e-08 6.193205e-04 1.874210e-03 -5.517203e-04 -1.244464e-04 -2.749996e-03 -5.981003e-04 -1.650482e-03 -1.460791e-03 -2.565482e-03 -2.399795e-03 -1.015267e-03 -1.649139e-03 -1.416997e-03
<VARIANCE> 25
 5.964943e+01 5.299704e+01 6.121924e+01 6.583541e+01 8.814134e+01 7.694161e+01 6.081390e+01 5.828838e+01 5.956340e+01 3.868868e+01 3.684652e+01 3.130931e+01 1.720003e+00 1.818751e+00 1.942652e+00 2.478552e+00 3.023078e+00 2.990276e+00 2.869987e+00 2.888806e+00 2.786867e+00 2.366959e+00 2.191838e+00 1.830008e+00 1.549957e+00
<GCONST> 1.048385e+02
<TRANSP> 5
 0.000000e+00 1.000000e+00 0.000000e+00 0.000000e+00 0.000000e+00
 0.000000e+00 6.000000e-01 4.000000e-01 0.000000e+00 0.000000e+00
 0.000000e+00 0.000000e+00 6.000000e-01 4.000000e-01 0.000000e+00
 0.000000e+00 0.000000e+00 0.000000e+00 7.000000e-01 3.000000e-01
 0.000000e+00 0.000000e+00 0.000000e+00 0.000000e+00 0.000000e+00
<ENDHMM>
~h "iy"
<BEGINHMM>
<NUMSTATES> 5
<STATE> 2
<MEAN> 25
 -3.295108e-08 -6.550857e-08 6.901765e-08 5.613159e-08 -7.279007e-08 4.960402e-08 6.058586e-08 -1.522269e-08 -1.756208e-08 -2.574165e-08 2.562800e-08 -3.359414e-08 6.193205e-04 1.874210e-03 -5.517203e-04 -1.244464e-04 -2.749996e-03 -5.981003e-04 -1.650482e-03 -1.460791e-03 -2.565482e-03 -2.399795e-03 -1.015267e-03 -1.649139e-03 -1.416997e-03
<VARIANCE> 25
 5.964943e+01 5.299704e+01 6.121924e+01 6.583541e+01 8.814134e+01 7.694161e+01 6.081390e+01 5.828838e+01 5.956340e+01 3.868868e+01 3.684652e+01 3.130931e+01 1.720003e+00 1.818751e+00 1.942652e+00 2.478552e+00 3.023078e+00 2.990276e+00 2.869987e+00 2.888806e+00 2.786867e+00 2.366959e+00 2.191838e+00 1.830008e+00 1.549957e+00
<GCONST> 1.048385e+02
<STATE> 3
<MEAN> 25
 -3.295108e-08 -6.550857e-08 6.901765e-08 5.613159e-08 -7.279007e-08 4.960402e-08 6.058586e-08 -1.522269e-08 -1.756208e-08 -2.574165e-08 2.562800e-08 -3.359414e-08 6.193205e-04 1.874210e-03 -5.517203e-04 -1.244464e-04 -2.749996e-03 -5.981003e-04 -1.650482e-03 -1.460791e-03 -2.565482e-03 -2.399795e-03 -1.015267e-03 -1.649139e-03 -1.416997e-03
<VARIANCE> 25
 5.964943e+01 5.299704e+01 6.121924e+01 6.583541e+01 8.814134e+01 7.694161e+01 6.081390e+01 5.828838e+01 5.956340e+01 3.868868e+01 3.684652e+01 3.130931e+01 1.720003e+00 1.818751e+00 1.942652e+00 2.478552e+00 3.023078e+00 2.990276e+00 2.869987e+00 2.888806e+00 2.786867e+00 2.366959e+00 2.191838e+00 1.830008e+00 1.549957e+00
<GCONST> 1.048385e+02
<STATE> 4
<MEAN> 25
 -3.295108e-08 -6.550857e-08 6.901765e-08 5.613159e-08 -7.279007e-08 4.960402e-08 6.058586e-08 -1.522269e-08 -1.756208e-08 -2.574165e-08 2.562800e-08 -3.359414e-08 6.193205e-04 1.874210e-03 -5.517203e-04 -1.244464e-04 -2.749996e-03 -5.981003e-04 -1.650482e-03 -1.460791e-03 -2.565482e-03 -2.399795e-03 -1.015267e-03 -1.649139e-03 -1.416997e-03
<VARIANCE> 25
 5.964943e+01 5.299704e+01 6.121924e+01 6.583541e+01 8.814134e+01 7.694161e+01 6.081390e+01 5.828838e+01 5.956340e+01 3.868868e+01 3.684652e+01 3.130931e+01 1.720003e+00 1.818751e+00 1.942652e+00 2.478552e+00 3.023078e+00 2.990276e+00 2.869987e+00 2.888806e+00 2.786867e+00 2.366959e+00 2.191838e+00 1.830008e+00 1.549957e+00
<GCONST> 1.048385e+02
<TRANSP> 5
 0.000000e+00 1.000000e+00 0.000000e+00 0.000000e+00 0.000000e+00
 0.000000e+00 6.000000e-01 4.000000e-01 0.000000e+00 0.000000e+00
 0.000000e+00 0.000000e+00 6.000000e-01 4.000000e-01 0.000000e+00
 0.000000e+00 0.000000e+00 0.000000e+00 7.000000e-01 3.000000e-01
 0.000000e+00 0.000000e+00 0.000000e+00 0.000000e+00 0.000000e+00
<ENDHMM>
~h "v"
<BEGINHMM>
<NUMSTATES> 5
<STATE> 2
<MEAN> 25
 -3.295108e-08 -6.550857e-08 6.901765e-08 5.613159e-08 -7.279007e-08 4.960402e-08 6.058586e-08 -1.522269e-08 -1.756208e-08 -2.574165e-08 2.562800e-08 -3.359414e-08 6.193205e-04 1.874210e-03 -5.517203e-04 -1.244464e-04 -2.749996e-03 -5.981003e-04 -1.650482e-03 -1.460791e-03 -2.565482e-03 -2.399795e-03 -1.015267e-03 -1.649139e-03 -1.416997e-03
<VARIANCE> 25
 5.964943e+01 5.299704e+01 6.121924e+01 6.583541e+01 8.814134e+01 7.694161e+01 6.081390e+01 5.828838e+01 5.956340e+01 3.868868e+01 3.684652e+01 3.130931e+01 1.720003e+00 1.818751e+00 1.942652e+00 2.478552e+00 3.023078e+00 2.990276e+00 2.869987e+00 2.888806e+00 2.786867e+00 2.366959e+00 2.191838e+00 1.830008e+00 1.549957e+00
<GCONST> 1.048385e+02
<STATE> 3
<MEAN> 25
 -3.295108e-08 -6.550857e-08 6.901765e-08 5.613159e-08 -7.279007e-08 4.960402e-08 6.058586e-08 -1.522269e-08 -1.756208e-08 -2.574165e-08 2.562800e-08 -3.359414e-08 6.193205e-04 1.874210e-03 -5.517203e-04 -1.244464e-04 -2.749996e-03 -5.981003e-04 -1.650482e-03 -1.460791e-03 -2.565482e-03 -2.399795e-03 -1.015267e-03 -1.649139e-03 -1.416997e-03
<VARIANCE> 25
 5.964943e+01 5.299704e+01 6.121924e+01 6.583541e+01 8.814134e+01 7.694161e+01 6.081390e+01 5.828838e+01 5.956340e+01 3.868868e+01 3.684652e+01 3.130931e+01 1.720003e+00 1.818751e+00 1.942652e+00 2.478552e+00 3.023078e+00 2.990276e+00 2.869987e+00 2.888806e+00 2.786867e+00 2.366959e+00 2.191838e+00 1.830008e+00 1.549957e+00
<GCONST> 1.048385e+02
<STATE> 4
<MEAN> 25
 -3.295108e-08 -6.550857e-08 6.901765e-08 5.613159e-08 -7.279007e-08 4.960402e-08 6.058586e-08 -1.522269e-08 -1.756208e-08 -2.574165e-08 2.562800e-08 -3.359414e-08 6.193205e-04 1.874210e-03 -5.517203e-04 -1.244464e-04 -2.749996e-03 -5.981003e-04 -1.650482e-03 -1.460791e-03 -2.565482e-03 -2.399795e-03 -1.015267e-03 -1.649139e-03 -1.416997e-03
<VARIANCE> 25
 5.964943e+01 5.299704e+01 6.121924e+01 6.583541e+01 8.814134e+01 7.694161e+01 6.081390e+01 5.828838e+01 5.956340e+01 3.868868e+01 3.684652e+01 3.130931e+01 1.720003e+00 1.818751e+00 1.942652e+00 2.478552e+00 3.023078e+00 2.990276e+00 2.869987e+00 2.888806e+00 2.786867e+00 2.366959e+00 2.191838e+00 1.830008e+00 1.549957e+00
<GCONST> 1.048385e+02
<TRANSP> 5
 0.000000e+00 1.000000e+00 0.000000e+00 0.000000e+00 0.000000e+00
 0.000000e+00 6.000000e-01 4.000000e-01 0.000000e+00 0.000000e+00
 0.000000e+00 0.000000e+00 6.000000e-01 4.000000e-01 0.000000e+00
 0.000000e+00 0.000000e+00 0.000000e+00 7.000000e-01 3.000000e-01
 0.000000e+00 0.000000e+00 0.000000e+00 0.000000e+00 0.000000e+00
<ENDHMM>
~h "z"
<BEGINHMM>
<NUMSTATES> 5
<STATE> 2
<MEAN> 25
 -3.295108e-08 -6.550857e-08 6.901765e-08 5.613159e-08 -7.279007e-08 4.960402e-08 6.058586e-08 -1.522269e-08 -1.756208e-08 -2.574165e-08 2.562800e-08 -3.359414e-08 6.193205e-04 1.874210e-03 -5.517203e-04 -1.244464e-04 -2.749996e-03 -5.981003e-04 -1.650482e-03 -1.460791e-03 -2.565482e-03 -2.399795e-03 -1.015267e-03 -1.649139e-03 -1.416997e-03
<VARIANCE> 25
 5.964943e+01 5.299704e+01 6.121924e+01 6.583541e+01 8.814134e+01 7.694161e+01 6.081390e+01 5.828838e+01 5.956340e+01 3.868868e+01 3.684652e+01 3.130931e+01 1.720003e+00 1.818751e+00 1.942652e+00 2.478552e+00 3.023078e+00 2.990276e+00 2.869987e+00 2.888806e+00 2.786867e+00 2.366959e+00 2.191838e+00 1.830008e+00 1.549957e+00
<GCONST> 1.048385e+02
<STATE> 3
<MEAN> 25
 -3.295108e-08 -6.550857e-08 6.901765e-08 5.613159e-08 -7.279007e-08 4.960402e-08 6.058586e-08 -1.522269e-08 -1.756208e-08 -2.574165e-08 2.562800e-08 -3.359414e-08 6.193205e-04 1.874210e-03 -5.517203e-04 -1.244464e-04 -2.749996e-03 -5.981003e-04 -1.650482e-03 -1.460791e-03 -2.565482e-03 -2.399795e-03 -1.015267e-03 -1.649139e-03 -1.416997e-03
<VARIANCE> 25
 5.964943e+01 5.299704e+01 6.121924e+01 6.583541e+01 8.814134e+01 7.694161e+01 6.081390e+01 5.828838e+01 5.956340e+01 3.868868e+01 3.684652e+01 3.130931e+01 1.720003e+00 1.818751e+00 1.942652e+00 2.478552e+00 3.023078e+00 2.990276e+00 2.869987e+00 2.888806e+00 2.786867e+00 2.366959e+00 2.191838e+00 1.830008e+00 1.549957e+00
<GCONST> 1.048385e+02
<STATE> 4
<MEAN> 25
 -3.295108e-08 -6.550857e-08 6.901765e-08 5.613159e-08 -7.279007e-08 4.960402e-08 6.058586e-08 -1.522269e-08 -1.756208e-08 -2.574165e-08 2.562800e-08 -3.359414e-08 6.193205e-04 1.874210e-03 -5.517203e-04 -1.244464e-04 -2.749996e-03 -5.981003e-04 -1.650482e-03 -1.460791e-03 -2.565482e-03 -2.399795e-03 -1.015267e-03 -1.649139e-03 -1.416997e-03
<VARIANCE> 25
 5.964943e+01 5.299704e+01 6.121924e+01 6.583541e+01 8.814134e+01 7.694161e+01 6.081390e+01 5.828838e+01 5.956340e+01 3.868868e+01 3.684652e+01 3.130931e+01 1.720003e+00 1.818751e+00 1.942652e+00 2.478552e+00 3.023078e+00 2.990276e+00 2.869987e+00 2.888806e+00 2.786867e+00 2.366959e+00 2.191838e+00 1.830008e+00 1.549957e+00
<GCONST> 1.048385e+02
<TRANSP> 5
 0.000000e+00 1.000000e+00 0.000000e+00 0.000000e+00 0.000000e+00
 0.000000e+00 6.000000e-01 4.000000e-01 0.000000e+00 0.000000e+00
 0.000000e+00 0.000000e+00 6.000000e-01 4.000000e-01 0.000000e+00
 0.000000e+00 0.000000e+00 0.000000e+00 7.000000e-01 3.000000e-01
 0.000000e+00 0.000000e+00 0.000000e+00 0.000000e+00 0.000000e+00
<ENDHMM>
~h "f"
<BEGINHMM>
<NUMSTATES> 5
<STATE> 2
<MEAN> 25
 -3.295108e-08 -6.550857e-08 6.901765e-08 5.613159e-08 -7.279007e-08 4.960402e-08 6.058586e-08 -1.522269e-08 -1.756208e-08 -2.574165e-08 2.562800e-08 -3.359414e-08 6.193205e-04 1.874210e-03 -5.517203e-04 -1.244464e-04 -2.749996e-03 -5.981003e-04 -1.650482e-03 -1.460791e-03 -2.565482e-03 -2.399795e-03 -1.015267e-03 -1.649139e-03 -1.416997e-03
<VARIANCE> 25
 5.964943e+01 5.299704e+01 6.121924e+01 6.583541e+01 8.814134e+01 7.694161e+01 6.081390e+01 5.828838e+01 5.956340e+01 3.868868e+01 3.684652e+01 3.130931e+01 1.720003e+00 1.818751e+00 1.942652e+00 2.478552e+00 3.023078e+00 2.990276e+00 2.869987e+00 2.888806e+00 2.786867e+00 2.366959e+00 2.191838e+00 1.830008e+00 1.549957e+00
<GCONST> 1.048385e+02
<STATE> 3
<MEAN> 25
 -3.295108e-08 -6.550857e-08 6.901765e-08 5.613159e-08 -7.279007e-08 4.960402e-08 6.058586e-08 -1.522269e-08 -1.756208e-08 -2.574165e-08 2.562800e-08 -3.359414e-08 6.193205e-04 1.874210e-03 -5.517203e-04 -1.244464e-04 -2.749996e-03 -5.981003e-04 -1.650482e-03 -1.460791e-03 -2.565482e-03 -2.399795e-03 -1.015267e-03 -1.649139e-03 -1.416997e-03
<VARIANCE> 25
 5.964943e+01 5.299704e+01 6.121924e+01 6.583541e+01 8.814134e+01 7.694161e+01 6.081390e+01 5.828838e+01 5.956340e+01 3.868868e+01 3.684652e+01 3.130931e+01 1.720003e+00 1.818751e+00 1.942652e+00 2.478552e+00 3.023078e+00 2.990276e+00 2.869987e+00 2.888806e+00 2.786867e+00 2.366959e+00 2.191838e+00 1.830008e+00 1.549957e+00
<GCONST> 1.048385e+02
<STATE> 4
<MEAN> 25
 -3.295108e-08 -6.550857e-08 6.901765e-08 5.613159e-08 -7.279007e-08 4.960402e-08 6.058586e-08 -1.522269e-08 -1.756208e-08 -2.574165e-08 2.562800e-08 -3.359414e-08 6.193205e-04 1.874210e-03 -5.517203e-04 -1.244464e-04 -2.749996e-03 -5.981003e-04 -1.650482e-03 -1.460791e-03 -2.565482e-03 -2.399795e-03 -1.015267e-03 -1.649139e-03 -1.416997e-03
<VARIANCE> 25
 5.964943e+01 5.299704e+01 6.121924e+01 6.583541e+01 8.814134e+01 7.694161e+01 6.081390e+01 5.828838e+01 5.956340e+01 3.868868e+01 3.684652e+01 3.130931e+01 1.720003e+00 1.818751e+00 1.942652e+00 2.478552e+00 3.023078e+00 2.990276e+00 2.869987e+00 2.888806e+00 2.786867e+00 2.366959e+00 2.191838e+00 1.830008e+00 1.549957e+00
<GCONST> 1.048385e+02
<TRANSP> 5
 0.000000e+00 1.000000e+00 0.000000e+00 0.000000e+00 0.000000e+00
 0.000000e+00 6.000000e-01 4.000000e-01 0.000000e+00 0.000000e+00
 0.000000e+00 0.000000e+00 6.000000e-01 4.000000e-01 0.000000e+00
 0.000000e+00 0.000000e+00 0.000000e+00 7.000000e-01 3.000000e-01
 0.000000e+00 0.000000e+00 0.000000e+00 0.000000e+00 0.000000e+00
<ENDHMM>
~h "ih"
<BEGINHMM>
<NUMSTATES> 5
<STATE> 2
<MEAN> 25
 -3.295108e-08 -6.550857e-08 6.901765e-08 5.613159e-08 -7.279007e-08 4.960402e-08 6.058586e-08 -1.522269e-08 -1.756208e-08 -2.574165e-08 2.562800e-08 -3.359414e-08 6.193205e-04 1.874210e-03 -5.517203e-04 -1.244464e-04 -2.749996e-03 -5.981003e-04 -1.650482e-03 -1.460791e-03 -2.565482e-03 -2.399795e-03 -1.015267e-03 -1.649139e-03 -1.416997e-03
<VARIANCE> 25
 5.964943e+01 5.299704e+01 6.121924e+01 6.583541e+01 8.814134e+01 7.694161e+01 6.081390e+01 5.828838e+01 5.956340e+01 3.868868e+01 3.684652e+01 3.130931e+01 1.720003e+00 1.818751e+00 1.942652e+00 2.478552e+00 3.023078e+00 2.990276e+00 2.869987e+00 2.888806e+00 2.786867e+00 2.366959e+00 2.191838e+00 1.830008e+00 1.549957e+00
<GCONST> 1.048385e+02
<STATE> 3
<MEAN> 25
 -3.295108e-08 -6.550857e-08 6.901765e-08 5.613159e-08 -7.279007e-08 4.960402e-08 6.058586e-08 -1.522269e-08 -1.756208e-08 -2.574165e-08 2.562800e-08 -3.359414e-08 6.193205e-04 1.874210e-03 -5.517203e-04 -1.244464e-04 -2.749996e-03 -5.981003e-04 -1.650482e-03 -1.460791e-03 -2.565482e-03 -2.399795e-03 -1.015267e-03 -1.649139e-03 -1.416997e-03
<VARIANCE> 25
 5.964943e+01 5.299704e+01 6.121924e+01 6.583541e+01 8.814134e+01 7.694161e+01 6.081390e+01 5.828838e+01 5.956340e+01 3.868868e+01 3.684652e+01 3.130931e+01 1.720003e+00 1.818751e+00 1.942652e+00 2.478552e+00 3.023078e+00 2.990276e+00 2.869987e+00 2.888806e+00 2.786867e+00 2.366959e+00 2.191838e+00 1.830008e+00 1.549957e+00
<GCONST> 1.048385e+02
<STATE> 4
<MEAN> 25
 -3.295108e-08 -6.550857e-08 6.901765e-08 5.613159e-08 -7.279007e-08 4.960402e-08 6.058586e-08 -1.522269e-08 -1.756208e-08 -2.574165e-08 2.562800e-08 -3.359414e-08 6.193205e-04 1.874210e-03 -5.517203e-04 -1.244464e-04 -2.749996e-03 -5.981003e-04 -1.650482e-03 -1.460791e-03 -2.565482e-03 -2.399795e-03 -1.015267e-03 -1.649139e-03 -1.416997e-03
<VARIANCE> 25
 5.964943e+01 5.299704e+01 6.121924e+01 6.583541e+01 8.814134e+01 7.694161e+01 6.081390e+01 5.828838e+01 5.956340e+01 3.868868e+01 3.684652e+01 3.130931e+01 1.720003e+00 1.818751e+00 1.942652e+00 2.478552e+00 3.023078e+00 2.990276e+00 2.869987e+00 2.888806e+00 2.786867e+00 2.366959e+00 2.191838e+00 1.830008e+00 1.549957e+00
<GCONST> 1.048385e+02
<TRANSP> 5
 0.000000e+00 1.000000e+00 0.000000e+00 0.000000e+00 0.000000e+00
 0.000000e+00 6.000000e-01 4.000000e-01 0.000000e+00 0.000000e+00
 0.000000e+00 0.000000e+00 6.000000e-01 4.000000e-01 0.000000e+00
 0.000000e+00 0.000000e+00 0.000000e+00 7.000000e-01 3.000000e-01
 0.000000e+00 0.000000e+00 0.000000e+00 0.000000e+00 0.000000e+00
<ENDHMM>
~h "aa"
<BEGINHMM>
<NUMSTATES> 5
<STATE> 2
<MEAN> 25
 -3.295108e-08 -6.550857e-08 6.901765e-08 5.613159e-08 -7.279007e-08 4.960402e-08 6.058586e-08 -1.522269e-08 -1.756208e-08 -2.574165e-08 2.562800e-08 -3.359414e-08 6.193205e-04 1.874210e-03 -5.517203e-04 -1.244464e-04 -2.749996e-03 -5.981003e-04 -1.650482e-03 -1.460791e-03 -2.565482e-03 -2.399795e-03 -1.015267e-03 -1.649139e-03 -1.416997e-03
<VARIANCE> 25
 5.964943e+01 5.299704e+01 6.121924e+01 6.583541e+01 8.814134e+01 7.694161e+01 6.081390e+01 5.828838e+01 5.956340e+01 3.868868e+01 3.684652e+01 3.130931e+01 1.720003e+00 1.818751e+00 1.942652e+00 2.478552e+00 3.023078e+00 2.990276e+00 2.869987e+00 2.888806e+00 2.786867e+00 2.366959e+00 2.191838e+00 1.830008e+00 1.549957e+00
<GCONST> 1.048385e+02
<STATE> 3
<MEAN> 25
 -3.295108e-08 -6.550857e-08 6.901765e-08 5.613159e-08 -7.279007e-08 4.960402e-08 6.058586e-08 -1.522269e-08 -1.756208e-08 -2.574165e-08 2.562800e-08 -3.359414e-08 6.193205e-04 1.874210e-03 -5.517203e-04 -1.244464e-04 -2.749996e-03 -5.981003e-04 -1.650482e-03 -1.460791e-03 -2.565482e-03 -2.399795e-03 -1.015267e-03 -1.649139e-03 -1.416997e-03
<VARIANCE> 25
 5.964943e+01 5.299704e+01 6.121924e+01 6.583541e+01 8.814134e+01 7.694161e+01 6.081390e+01 5.828838e+01 5.956340e+01 3.868868e+01 3.684652e+01 3.130931e+01 1.720003e+00 1.818751e+00 1.942652e+00 2.478552e+00 3.023078e+00 2.990276e+00 2.869987e+00 2.888806e+00 2.786867e+00 2.366959e+00 2.191838e+00 1.830008e+00 1.549957e+00
<GCONST> 1.048385e+02
<STATE> 4
<MEAN> 25
 -3.295108e-08 -6.550857e-08 6.901765e-08 5.613159e-08 -7.279007e-08 4.960402e-08 6.058586e-08 -1.522269e-08 -1.756208e-08 -2.574165e-08 2.562800e-08 -3.359414e-08 6.193205e-04 1.874210e-03 -5.517203e-04 -1.244464e-04 -2.749996e-03 -5.981003e-04 -1.650482e-03 -1.460791e-03 -2.565482e-03 -2.399795e-03 -1.015267e-03 -1.649139e-03 -1.416997e-03
<VARIANCE> 25
 5.964943e+01 5.299704e+01 6.121924e+01 6.583541e+01 8.814134e+01 7.694161e+01 6.081390e+01 5.828838e+01 5.956340e+01 3.868868e+01 3.684652e+01 3.130931e+01 1.720003e+00 1.818751e+00 1.942652e+00 2.478552e+00 3.023078e+00 2.990276e+00 2.869987e+00 2.888806e+00 2.786867e+00 2.366959e+00 2.191838e+00 1.830008e+00 1.549957e+00
<GCONST> 1.048385e+02
<TRANSP> 5
 0.000000e+00 1.000000e+00 0.000000e+00 0.000000e+00 0.000000e+00
 0.000000e+00 6.000000e-01 4.000000e-01 0.000000e+00 0.000000e+00
 0.000000e+00 0.000000e+00 6.000000e-01 4.000000e-01 0.000000e+00
 0.000000e+00 0.000000e+00 0.000000e+00 7.000000e-01 3.000000e-01
 0.000000e+00 0.000000e+00 0.000000e+00 0.000000e+00 0.000000e+00
<ENDHMM>
~h "g"
<BEGINHMM>
<NUMSTATES> 5
<STATE> 2
<MEAN> 25
 -3.295108e-08 -6.550857e-08 6.901765e-08 5.613159e-08 -7.279007e-08 4.960402e-08 6.058586e-08 -1.522269e-08 -1.756208e-08 -2.574165e-08 2.562800e-08 -3.359414e-08 6.193205e-04 1.874210e-03 -5.517203e-04 -1.244464e-04 -2.749996e-03 -5.981003e-04 -1.650482e-03 -1.460791e-03 -2.565482e-03 -2.399795e-03 -1.015267e-03 -1.649139e-03 -1.416997e-03
<VARIANCE> 25
 5.964943e+01 5.299704e+01 6.121924e+01 6.583541e+01 8.814134e+01 7.694161e+01 6.081390e+01 5.828838e+01 5.956340e+01 3.868868e+01 3.684652e+01 3.130931e+01 1.720003e+00 1.818751e+00 1.942652e+00 2.478552e+00 3.023078e+00 2.990276e+00 2.869987e+00 2.888806e+00 2.786867e+00 2.366959e+00 2.191838e+00 1.830008e+00 1.549957e+00
<GCONST> 1.048385e+02
<STATE> 3
<MEAN> 25
 -3.295108e-08 -6.550857e-08 6.901765e-08 5.613159e-08 -7.279007e-08 4.960402e-08 6.058586e-08 -1.522269e-08 -1.756208e-08 -2.574165e-08 2.562800e-08 -3.359414e-08 6.193205e-04 1.874210e-03 -5.517203e-04 -1.244464e-04 -2.749996e-03 -5.981003e-04 -1.650482e-03 -1.460791e-03 -2.565482e-03 -2.399795e-03 -1.015267e-03 -1.649139e-03 -1.416997e-03
<VARIANCE> 25
 5.964943e+01 5.299704e+01 6.121924e+01 6.583541e+01 8.814134e+01 7.694161e+01 6.081390e+01 5.828838e+01 5.956340e+01 3.868868e+01 3.684652e+01 3.130931e+01 1.720003e+00 1.818751e+00 1.942652e+00 2.478552e+00 3.023078e+00 2.990276e+00 2.869987e+00 2.888806e+00 2.786867e+00 2.366959e+00 2.191838e+00 1.830008e+00 1.549957e+00
<GCONST> 1.048385e+02
<STATE> 4
<MEAN> 25
 -3.295108e-08 -6.550857e-08 6.901765e-08 5.613159e-08 -7.279007e-08 4.960402e-08 6.058586e-08 -1.522269e-08 -1.756208e-08 -2.574165e-08 2.562800e-08 -3.359414e-08 6.193205e-04 1.874210e-03 -5.517203e-04 -1.244464e-04 -2.749996e-03 -5.981003e-04 -1.650482e-03 -1.460791e-03 -2.565482e-03 -2.399795e-03 -1.015267e-03 -1.649139e-03 -1.416997e-03
<VARIANCE> 25
 5.964943e+01 5.299704e+01 6.121924e+01 6.583541e+01 8.814134e+01 7.694161e+01 6.081390e+01 5.828838e+01 5.956340e+01 3.868868e+01 3.684652e+01 3.130931e+01 1.720003e+00 1.818751e+00 1.942652e+00 2.478552e+00 3.023078e+00 2.990276e+00 2.869987e+00 2.888806e+00 2.786867e+00 2.366959e+00 2.191838e+00 1.830008e+00 1.549957e+00
<GCONST> 1.048385e+02
<TRANSP> 5
 0.000000e+00 1.000000e+00 0.000000e+00 0.000000e+00 0.000000e+00
 0.000000e+00 6.000000e-01 4.000000e-01 0.000000e+00 0.000000e+00
 0.000000e+00 0.000000e+00 6.000000e-01 4.000000e-01 0.000000e+00
 0.000000e+00 0.000000e+00 0.000000e+00 7.000000e-01 3.000000e-01
 0.000000e+00 0.000000e+00 0.000000e+00 0.000000e+00 0.000000e+00
<ENDHMM>
~h "hh"
<BEGINHMM>
<NUMSTATES> 5
<STATE> 2
<MEAN> 25
 -3.295108e-08 -6.550857e-08 6.901765e-08 5.613159e-08 -7.279007e-08 4.960402e-08 6.058586e-08 -1.522269e-08 -1.756208e-08 -2.574165e-08 2.562800e-08 -3.359414e-08 6.193205e-04 1.874210e-03 -5.517203e-04 -1.244464e-04 -2.749996e-03 -5.981003e-04 -1.650482e-03 -1.460791e-03 -2.565482e-03 -2.399795e-03 -1.015267e-03 -1.649139e-03 -1.416997e-03
<VARIANCE> 25
 5.964943e+01 5.299704e+01 6.121924e+01 6.583541e+01 8.814134e+01 7.694161e+01 6.081390e+01 5.828838e+01 5.956340e+01 3.868868e+01 3.684652e+01 3.130931e+01 1.720003e+00 1.818751e+00 1.942652e+00 2.478552e+00 3.023078e+00 2.990276e+00 2.869987e+00 2.888806e+00 2.786867e+00 2.366959e+00 2.191838e+00 1.830008e+00 1.549957e+00
<GCONST> 1.048385e+02
<STATE> 3
<MEAN> 25
 -3.295108e-08 -6.550857e-08 6.901765e-08 5.613159e-08 -7.279007e-08 4.960402e-08 6.058586e-08 -1.522269e-08 -1.756208e-08 -2.574165e-08 2.562800e-08 -3.359414e-08 6.193205e-04 1.874210e-03 -5.517203e-04 -1.244464e-04 -2.749996e-03 -5.981003e-04 -1.650482e-03 -1.460791e-03 -2.565482e-03 -2.399795e-03 -1.015267e-03 -1.649139e-03 -1.416997e-03
<VARIANCE> 25
 5.964943e+01 5.299704e+01 6.121924e+01 6.583541e+01 8.814134e+01 7.694161e+01 6.081390e+01 5.828838e+01 5.956340e+01 3.868868e+01 3.684652e+01 3.130931e+01 1.720003e+00 1.818751e+00 1.942652e+00 2.478552e+00 3.023078e+00 2.990276e+00 2.869987e+00 2.888806e+00 2.786867e+00 2.366959e+00 2.191838e+00 1.830008e+00 1.549957e+00
<GCONST> 1.048385e+02
<STATE> 4
<MEAN> 25
 -3.295108e-08 -6.550857e-08 6.901765e-08 5.613159e-08 -7.279007e-08 4.960402e-08 6.058586e-08 -1.522269e-08 -1.756208e-08 -2.574165e-08 2.562800e-08 -3.359414e-08 6.193205e-04 1.874210e-03 -5.517203e-04 -1.244464e-04 -2.749996e-03 -5.981003e-04 -1.650482e-03 -1.460791e-03 -2.565482e-03 -2.399795e-03 -1.015267e-03 -1.649139e-03 -1.416997e-03
<VARIANCE> 25
 5.964943e+01 5.299704e+01 6.121924e+01 6.583541e+01 8.814134e+01 7.694161e+01 6.081390e+01 5.828838e+01 5.956340e+01 3.868868e+01 3.684652e+01 3.130931e+01 1.720003e+00 1.818751e+00 1.942652e+00 2.478552e+00 3.023078e+00 2.990276e+00 2.869987e+00 2.888806e+00 2.786867e+00 2.366959e+00 2.191838e+00 1.830008e+00 1.549957e+00
<GCONST> 1.048385e+02
<TRANSP> 5
 0.000000e+00 1.000000e+00 0.000000e+00 0.000000e+00 0.000000e+00
 0.000000e+00 6.000000e-01 4.000000e-01 0.000000e+00 0.000000e+00
 0.000000e+00 0.000000e+00 6.000000e-01 4.000000e-01 0.000000e+00
 0.000000e+00 0.000000e+00 0.000000e+00 7.000000e-01 3.000000e-01
 0.000000e+00 0.000000e+00 0.000000e+00 0.000000e+00 0.000000e+00
<ENDHMM>
~h "m"
<BEGINHMM>
<NUMSTATES> 5
<STATE> 2
<MEAN> 25
 -3.295108e-08 -6.550857e-08 6.901765e-08 5.613159e-08 -7.279007e-08 4.960402e-08 6.058586e-08 -1.522269e-08 -1.756208e-08 -2.574165e-08 2.562800e-08 -3.359414e-08 6.193205e-04 1.874210e-03 -5.517203e-04 -1.244464e-04 -2.749996e-03 -5.981003e-04 -1.650482e-03 -1.460791e-03 -2.565482e-03 -2.399795e-03 -1.015267e-03 -1.649139e-03 -1.416997e-03
<VARIANCE> 25
 5.964943e+01 5.299704e+01 6.121924e+01 6.583541e+01 8.814134e+01 7.694161e+01 6.081390e+01 5.828838e+01 5.956340e+01 3.868868e+01 3.684652e+01 3.130931e+01 1.720003e+00 1.818751e+00 1.942652e+00 2.478552e+00 3.023078e+00 2.990276e+00 2.869987e+00 2.888806e+00 2.786867e+00 2.366959e+00 2.191838e+00 1.830008e+00 1.549957e+00
<GCONST> 1.048385e+02
<STATE> 3
<MEAN> 25
 -3.295108e-08 -6.550857e-08 6.901765e-08 5.613159e-08 -7.279007e-08 4.960402e-08 6.058586e-08 -1.522269e-08 -1.756208e-08 -2.574165e-08 2.562800e-08 -3.359414e-08 6.193205e-04 1.874210e-03 -5.517203e-04 -1.244464e-04 -2.749996e-03 -5.981003e-04 -1.650482e-03 -1.460791e-03 -2.565482e-03 -2.399795e-03 -1.015267e-03 -1.649139e-03 -1.416997e-03
<VARIANCE> 25
 5.964943e+01 5.299704e+01 6.121924e+01 6.583541e+01 8.814134e+01 7.694161e+01 6.081390e+01 5.828838e+01 5.956340e+01 3.868868e+01 3.684652e+01 3.130931e+01 1.720003e+00 1.818751e+00 1.942652e+00 2.478552e+00 3.023078e+00 2.990276e+00 2.869987e+00 2.888806e+00 2.786867e+00 2.366959e+00 2.191838e+00 1.830008e+00 1.549957e+00
<GCONST> 1.048385e+02
<STATE> 4
<MEAN> 25
 -3.295108e-08 -6.550857e-08 6.901765e-08 5.613159e-08 -7.279007e-08 4.960402e-08 6.058586e-08 -1.522269e-08 -1.756208e-08 -2.574165e-08 2.562800e-08 -3.359414e-08 6.193205e-04 1.874210e-03 -5.517203e-04 -1.244464e-04 -2.749996e-03 -5.981003e-04 -1.650482e-03 -1.460791e-03 -2.565482e-03 -2.399795e-03 -1.015267e-03 -1.649139e-03 -1.416997e-03
<VARIANCE> 25
 5.964943e+01 5.299704e+01 6.121924e+01 6.583541e+01 8.814134e+01 7.694161e+01 6.081390e+01 5.828838e+01 5.956340e+01 3.868868e+01 3.684652e+01 3.130931e+01 1.720003e+00 1.818751e+00 1.942652e+00 2.478552e+00 3.023078e+00 2.990276e+00 2.869987e+00 2.888806e+00 2.786867e+00 2.366959e+00 2.191838e+00 1.830008e+00 1.549957e+00
<GCONST> 1.048385e+02
<TRANSP> 5
 0.000000e+00 1.000000e+00 0.000000e+00 0.000000e+00 0.000000e+00
 0.000000e+00 6.000000e-01 4.000000e-01 0.000000e+00 0.000000e+00
 0.000000e+00 0.000000e+00 6.000000e-01 4.000000e-01 0.000000e+00
 0.000000e+00 0.000000e+00 0.000000e+00 7.000000e-01 3.000000e-01
 0.000000e+00 0.000000e+00 0.000000e+00 0.000000e+00 0.000000e+00
<ENDHMM>
~h "y"
<BEGINHMM>
<NUMSTATES> 5
<STATE> 2
<MEAN> 25
 -3.295108e-08 -6.550857e-08 6.901765e-08 5.613159e-08 -7.279007e-08 4.960402e-08 6.058586e-08 -1.522269e-08 -1.756208e-08 -2.574165e-08 2.562800e-08 -3.359414e-08 6.193205e-04 1.874210e-03 -5.517203e-04 -1.244464e-04 -2.749996e-03 -5.981003e-04 -1.650482e-03 -1.460791e-03 -2.565482e-03 -2.399795e-03 -1.015267e-03 -1.649139e-03 -1.416997e-03
<VARIANCE> 25
 5.964943e+01 5.299704e+01 6.121924e+01 6.583541e+01 8.814134e+01 7.694161e+01 6.081390e+01 5.828838e+01 5.956340e+01 3.868868e+01 3.684652e+01 3.130931e+01 1.720003e+00 1.818751e+00 1.942652e+00 2.478552e+00 3.023078e+00 2.990276e+00 2.869987e+00 2.888806e+00 2.786867e+00 2.366959e+00 2.191838e+00 1.830008e+00 1.549957e+00
<GCONST> 1.048385e+02
<STATE> 3
<MEAN> 25
 -3.295108e-08 -6.550857e-08 6.901765e-08 5.613159e-08 -7.279007e-08 4.960402e-08 6.058586e-08 -1.522269e-08 -1.756208e-08 -2.574165e-08 2.562800e-08 -3.359414e-08 6.193205e-04 1.874210e-03 -5.517203e-04 -1.244464e-04 -2.749996e-03 -5.981003e-04 -1.650482e-03 -1.460791e-03 -2.565482e-03 -2.399795e-03 -1.015267e-03 -1.649139e-03 -1.416997e-03
<VARIANCE> 25
 5.964943e+01 5.299704e+01 6.121924e+01 6.583541e+01 8.814134e+01 7.694161e+01 6.081390e+01 5.828838e+01 5.956340e+01 3.868868e+01 3.684652e+01 3.130931e+01 1.720003e+00 1.818751e+00 1.942652e+00 2.478552e+00 3.023078e+00 2.990276e+00 2.869987e+00 2.888806e+00 2.786867e+00 2.366959e+00 2.191838e+00 1.830008e+00 1.549957e+00
<GCONST> 1.048385e+02
<STATE> 4
<MEAN> 25
 -3.295108e-08 -6.550857e-08 6.901765e-08 5.613159e-08 -7.279007e-08 4.960402e-08 6.058586e-08 -1.522269e-08 -1.756208e-08 -2.574165e-08 2.562800e-08 -3.359414e-08 6.193205e-04 1.874210e-03 -5.517203e-04 -1.244464e-04 -2.749996e-03 -5.981003e-04 -1.650482e-03 -1.460791e-03 -2.565482e-03 -2.399795e-03 -1.015267e-03 -1.649139e-03 -1.416997e-03
<VARIANCE> 25
 5.964943e+01 5.299704e+01 6.121924e+01 6.583541e+01 8.814134e+01 7.694161e+01 6.081390e+01 5.828838e+01 5.956340e+01 3.868868e+01 3.684652e+01 3.130931e+01 1.720003e+00 1.818751e+00 1.942652e+00 2.478552e+00 3.023078e+00 2.990276e+00 2.869987e+00 2.888806e+00 2.786867e+00 2.366959e+00 2.191838e+00 1.830008e+00 1.549957e+00
<GCONST> 1.048385e+02
<TRANSP> 5
 0.000000e+00 1.000000e+00 0.000000e+00 0.000000e+00 0.000000e+00
 0.000000e+00 6.000000e-01 4.000000e-01 0.000000e+00 0.000000e+00
 0.000000e+00 0.000000e+00 6.000000e-01 4.000000e-01 0.000000e+00
 0.000000e+00 0.000000e+00 0.000000e+00 7.000000e-01 3.000000e-01
 0.000000e+00 0.000000e+00 0.000000e+00 0.000000e+00 0.000000e+00
<ENDHMM>
~h "ng"
<BEGINHMM>
<NUMSTATES> 5
<STATE> 2
<MEAN> 25
 -3.295108e-08 -6.550857e-08 6.901765e-08 5.613159e-08 -7.279007e-08 4.960402e-08 6.058586e-08 -1.522269e-08 -1.756208e-08 -2.574165e-08 2.562800e-08 -3.359414e-08 6.193205e-04 1.874210e-03 -5.517203e-04 -1.244464e-04 -2.749996e-03 -5.981003e-04 -1.650482e-03 -1.460791e-03 -2.565482e-03 -2.399795e-03 -1.015267e-03 -1.649139e-03 -1.416997e-03
<VARIANCE> 25
 5.964943e+01 5.299704e+01 6.121924e+01 6.583541e+01 8.814134e+01 7.694161e+01 6.081390e+01 5.828838e+01 5.956340e+01 3.868868e+01 3.684652e+01 3.130931e+01 1.720003e+00 1.818751e+00 1.942652e+00 2.478552e+00 3.023078e+00 2.990276e+00 2.869987e+00 2.888806e+00 2.786867e+00 2.366959e+00 2.191838e+00 1.830008e+00 1.549957e+00
<GCONST> 1.048385e+02
<STATE> 3
<MEAN> 25
 -3.295108e-08 -6.550857e-08 6.901765e-08 5.613159e-08 -7.279007e-08 4.960402e-08 6.058586e-08 -1.522269e-08 -1.756208e-08 -2.574165e-08 2.562800e-08 -3.359414e-08 6.193205e-04 1.874210e-03 -5.517203e-04 -1.244464e-04 -2.749996e-03 -5.981003e-04 -1.650482e-03 -1.460791e-03 -2.565482e-03 -2.399795e-03 -1.015267e-03 -1.649139e-03 -1.416997e-03
<VARIANCE> 25
 5.964943e+01 5.299704e+01 6.121924e+01 6.583541e+01 8.814134e+01 7.694161e+01 6.081390e+01 5.828838e+01 5.956340e+01 3.868868e+01 3.684652e+01 3.130931e+01 1.720003e+00 1.818751e+00 1.942652e+00 2.478552e+00 3.023078e+00 2.990276e+00 2.869987e+00 2.888806e+00 2.786867e+00 2.366959e+00 2.191838e+00 1.830008e+00 1.549957e+00
<GCONST> 1.048385e+02
<STATE> 4
<MEAN> 25
 -3.295108e-08 -6.550857e-08 6.901765e-08 5.613159e-08 -7.279007e-08 4.960402e-08 6.058586e-08 -1.522269e-08 -1.756208e-08 -2.574165e-08 2.562800e-08 -3.359414e-08 6.193205e-04 1.874210e-03 -5.517203e-04 -1.244464e-04 -2.749996e-03 -5.981003e-04 -1.650482e-03 -1.460791e-03 -2.565482e-03 -2.399795e-03 -1.015267e-03 -1.649139e-03 -1.416997e-03
<VARIANCE> 25
 5.964943e+01 5.299704e+01 6.121924e+01 6.583541e+01 8.814134e+01 7.694161e+01 6.081390e+01 5.828838e+01 5.956340e+01 3.868868e+01 3.684652e+01 3.130931e+01 1.720003e+00 1.818751e+00 1.942652e+00 2.478552e+00 3.023078e+00 2.990276e+00 2.869987e+00 2.888806e+00 2.786867e+00 2.366959e+00 2.191838e+00 1.830008e+00 1.549957e+00
<GCONST> 1.048385e+02
<TRANSP> 5
 0.000000e+00 1.000000e+00 0.000000e+00 0.000000e+00 0.000000e+00
 0.000000e+00 6.000000e-01 4.000000e-01 0.000000e+00 0.000000e+00
 0.000000e+00 0.000000e+00 6.000000e-01 4.000000e-01 0.000000e+00
 0.000000e+00 0.000000e+00 0.000000e+00 7.000000e-01 3.000000e-01
 0.000000e+00 0.000000e+00 0.000000e+00 0.000000e+00 0.000000e+00
<ENDHMM>
~h "zh"
<BEGINHMM>
<NUMSTATES> 5
<STATE> 2
<MEAN> 25
 -3.295108e-08 -6.550857e-08 6.901765e-08 5.613159e-08 -7.279007e-08 4.960402e-08 6.058586e-08 -1.522269e-08 -1.756208e-08 -2.574165e-08 2.562800e-08 -3.359414e-08 6.193205e-04 1.874210e-03 -5.517203e-04 -1.244464e-04 -2.749996e-03 -5.981003e-04 -1.650482e-03 -1.460791e-03 -2.565482e-03 -2.399795e-03 -1.015267e-03 -1.649139e-03 -1.416997e-03
<VARIANCE> 25
 5.964943e+01 5.299704e+01 6.121924e+01 6.583541e+01 8.814134e+01 7.694161e+01 6.081390e+01 5.828838e+01 5.956340e+01 3.868868e+01 3.684652e+01 3.130931e+01 1.720003e+00 1.818751e+00 1.942652e+00 2.478552e+00 3.023078e+00 2.990276e+00 2.869987e+00 2.888806e+00 2.786867e+00 2.366959e+00 2.191838e+00 1.830008e+00 1.549957e+00
<GCONST> 1.048385e+02
<STATE> 3
<MEAN> 25
 -3.295108e-08 -6.550857e-08 6.901765e-08 5.613159e-08 -7.279007e-08 4.960402e-08 6.058586e-08 -1.522269e-08 -1.756208e-08 -2.574165e-08 2.562800e-08 -3.359414e-08 6.193205e-04 1.874210e-03 -5.517203e-04 -1.244464e-04 -2.749996e-03 -5.981003e-04 -1.650482e-03 -1.460791e-03 -2.565482e-03 -2.399795e-03 -1.015267e-03 -1.649139e-03 -1.416997e-03
<VARIANCE> 25
 5.964943e+01 5.299704e+01 6.121924e+01 6.583541e+01 8.814134e+01 7.694161e+01 6.081390e+01 5.828838e+01 5.956340e+01 3.868868e+01 3.684652e+01 3.130931e+01 1.720003e+00 1.818751e+00 1.942652e+00 2.478552e+00 3.023078e+00 2.990276e+00 2.869987e+00 2.888806e+00 2.786867e+00 2.366959e+00 2.191838e+00 1.830008e+00 1.549957e+00
<GCONST> 1.048385e+02
<STATE> 4
<MEAN> 25
 -3.295108e-08 -6.550857e-08 6.901765e-08 5.613159e-08 -7.279007e-08 4.960402e-08 6.058586e-08 -1.522269e-08 -1.756208e-08 -2.574165e-08 2.562800e-08 -3.359414e-08 6.193205e-04 1.874210e-03 -5.517203e-04 -1.244464e-04 -2.749996e-03 -5.981003e-04 -1.650482e-03 -1.460791e-03 -2.565482e-03 -2.399795e-03 -1.015267e-03 -1.649139e-03 -1.416997e-03
<VARIANCE> 25
 5.964943e+01 5.299704e+01 6.121924e+01 6.583541e+01 8.814134e+01 7.694161e+01 6.081390e+01 5.828838e+01 5.956340e+01 3.868868e+01 3.684652e+01 3.130931e+01 1.720003e+00 1.818751e+00 1.942652e+00 2.478552e+00 3.023078e+00 2.990276e+00 2.869987e+00 2.888806e+00 2.786867e+00 2.366959e+00 2.191838e+00 1.830008e+00 1.549957e+00
<GCONST> 1.048385e+02
<TRANSP> 5
 0.000000e+00 1.000000e+00 0.000000e+00 0.000000e+00 0.000000e+00
 0.000000e+00 6.000000e-01 4.000000e-01 0.000000e+00 0.000000e+00
 0.000000e+00 0.000000e+00 6.000000e-01 4.000000e-01 0.000000e+00
 0.000000e+00 0.000000e+00 0.000000e+00 7.000000e-01 3.000000e-01
 0.000000e+00 0.000000e+00 0.000000e+00 0.000000e+00 0.000000e+00
<ENDHMM>
~h "jh"
<BEGINHMM>
<NUMSTATES> 5
<STATE> 2
<MEAN> 25
 -3.295108e-08 -6.550857e-08 6.901765e-08 5.613159e-08 -7.279007e-08 4.960402e-08 6.058586e-08 -1.522269e-08 -1.756208e-08 -2.574165e-08 2.562800e-08 -3.359414e-08 6.193205e-04 1.874210e-03 -5.517203e-04 -1.244464e-04 -2.749996e-03 -5.981003e-04 -1.650482e-03 -1.460791e-03 -2.565482e-03 -2.399795e-03 -1.015267e-03 -1.649139e-03 -1.416997e-03
<VARIANCE> 25
 5.964943e+01 5.299704e+01 6.121924e+01 6.583541e+01 8.814134e+01 7.694161e+01 6.081390e+01 5.828838e+01 5.956340e+01 3.868868e+01 3.684652e+01 3.130931e+01 1.720003e+00 1.818751e+00 1.942652e+00 2.478552e+00 3.023078e+00 2.990276e+00 2.869987e+00 2.888806e+00 2.786867e+00 2.366959e+00 2.191838e+00 1.830008e+00 1.549957e+00
<GCONST> 1.048385e+02
<STATE> 3
<MEAN> 25
 -3.295108e-08 -6.550857e-08 6.901765e-08 5.613159e-08 -7.279007e-08 4.960402e-08 6.058586e-08 -1.522269e-08 -1.756208e-08 -2.574165e-08 2.562800e-08 -3.359414e-08 6.193205e-04 1.874210e-03 -5.517203e-04 -1.244464e-04 -2.749996e-03 -5.981003e-04 -1.650482e-03 -1.460791e-03 -2.565482e-03 -2.399795e-03 -1.015267e-03 -1.649139e-03 -1.416997e-03
<VARIANCE> 25
 5.964943e+01 5.299704e+01 6.121924e+01 6.583541e+01 8.814134e+01 7.694161e+01 6.081390e+01 5.828838e+01 5.956340e+01 3.868868e+01 3.684652e+01 3.130931e+01 1.720003e+00 1.818751e+00 1.942652e+00 2.478552e+00 3.023078e+00 2.990276e+00 2.869987e+00 2.888806e+00 2.786867e+00 2.366959e+00 2.191838e+00 1.830008e+00 1.549957e+00
<GCONST> 1.048385e+02
<STATE> 4
<MEAN> 25
 -3.295108e-08 -6.550857e-08 6.901765e-08 5.613159e-08 -7.279007e-08 4.960402e-08 6.058586e-08 -1.522269e-08 -1.756208e-08 -2.574165e-08 2.562800e-08 -3.359414e-08 6.193205e-04 1.874210e-03 -5.517203e-04 -1.244464e-04 -2.749996e-03 -5.981003e-04 -1.650482e-03 -1.460791e-03 -2.565482e-03 -2.399795e-03 -1.015267e-03 -1.649139e-03 -1.416997e-03
<VARIANCE> 25
 5.964943e+01 5.299704e+01 6.121924e+01 6.583541e+01 8.814134e+01 7.694161e+01 6.081390e+01 5.828838e+01 5.956340e+01 3.868868e+01 3.684652e+01 3.130931e+01 1.720003e+00 1.818751e+00 1.942652e+00 2.478552e+00 3.023078e+00 2.990276e+00 2.869987e+00 2.888806e+00 2.786867e+00 2.366959e+00 2.191838e+00 1.830008e+00 1.549957e+00
<GCONST> 1.048385e+02
<TRANSP> 5
 0.000000e+00 1.000000e+00 0.000000e+00 0.000000e+00 0.000000e+00
 0.000000e+00 6.000000e-01 4.000000e-01 0.000000e+00 0.000000e+00
 0.000000e+00 0.000000e+00 6.000000e-01 4.000000e-01 0.000000e+00
 0.000000e+00 0.000000e+00 0.000000e+00 7.000000e-01 3.000000e-01
 0.000000e+00 0.000000e+00 0.000000e+00 0.000000e+00 0.000000e+00
<ENDHMM>
~h "th"
<BEGINHMM>
<NUMSTATES> 5
<STATE> 2
<MEAN> 25
 -3.295108e-08 -6.550857e-08 6.901765e-08 5.613159e-08 -7.279007e-08 4.960402e-08 6.058586e-08 -1.522269e-08 -1.756208e-08 -2.574165e-08 2.562800e-08 -3.359414e-08 6.193205e-04 1.874210e-03 -5.517203e-04 -1.244464e-04 -2.749996e-03 -5.981003e-04 -1.650482e-03 -1.460791e-03 -2.565482e-03 -2.399795e-03 -1.015267e-03 -1.649139e-03 -1.416997e-03
<VARIANCE> 25
 5.964943e+01 5.299704e+01 6.121924e+01 6.583541e+01 8.814134e+01 7.694161e+01 6.081390e+01 5.828838e+01 5.956340e+01 3.868868e+01 3.684652e+01 3.130931e+01 1.720003e+00 1.818751e+00 1.942652e+00 2.478552e+00 3.023078e+00 2.990276e+00 2.869987e+00 2.888806e+00 2.786867e+00 2.366959e+00 2.191838e+00 1.830008e+00 1.549957e+00
<GCONST> 1.048385e+02
<STATE> 3
<MEAN> 25
 -3.295108e-08 -6.550857e-08 6.901765e-08 5.613159e-08 -7.279007e-08 4.960402e-08 6.058586e-08 -1.522269e-08 -1.756208e-08 -2.574165e-08 2.562800e-08 -3.359414e-08 6.193205e-04 1.874210e-03 -5.517203e-04 -1.244464e-04 -2.749996e-03 -5.981003e-04 -1.650482e-03 -1.460791e-03 -2.565482e-03 -2.399795e-03 -1.015267e-03 -1.649139e-03 -1.416997e-03
<VARIANCE> 25
 5.964943e+01 5.299704e+01 6.121924e+01 6.583541e+01 8.814134e+01 7.694161e+01 6.081390e+01 5.828838e+01 5.956340e+01 3.868868e+01 3.684652e+01 3.130931e+01 1.720003e+00 1.818751e+00 1.942652e+00 2.478552e+00 3.023078e+00 2.990276e+00 2.869987e+00 2.888806e+00 2.786867e+00 2.366959e+00 2.191838e+00 1.830008e+00 1.549957e+00
<GCONST> 1.048385e+02
<STATE> 4
<MEAN> 25
 -3.295108e-08 -6.550857e-08 6.901765e-08 5.613159e-08 -7.279007e-08 4.960402e-08 6.058586e-08 -1.522269e-08 -1.756208e-08 -2.574165e-08 2.562800e-08 -3.359414e-08 6.193205e-04 1.874210e-03 -5.517203e-04 -1.244464e-04 -2.749996e-03 -5.981003e-04 -1.650482e-03 -1.460791e-03 -2.565482e-03 -2.399795e-03 -1.015267e-03 -1.649139e-03 -1.416997e-03
<VARIANCE> 25
 5.964943e+01 5.299704e+01 6.121924e+01 6.583541e+01 8.814134e+01 7.694161e+01 6.081390e+01 5.828838e+01 5.956340e+01 3.868868e+01 3.684652e+01 3.130931e+01 1.720003e+00 1.818751e+00 1.942652e+00 2.478552e+00 3.023078e+00 2.990276e+00 2.869987e+00 2.888806e+00 2.786867e+00 2.366959e+00 2.191838e+00 1.830008e+00 1.549957e+00
<GCONST> 1.048385e+02
<TRANSP> 5
 0.000000e+00 1.000000e+00 0.000000e+00 0.000000e+00 0.000000e+00
 0.000000e+00 6.000000e-01 4.000000e-01 0.000000e+00 0.000000e+00
 0.000000e+00 0.000000e+00 6.000000e-01 4.000000e-01 0.000000e+00
 0.000000e+00 0.000000e+00 0.000000e+00 7.000000e-01 3.000000e-01
 0.000000e+00 0.000000e+00 0.000000e+00 0.000000e+00 0.000000e+00
<ENDHMM>
~h "oy"
<BEGINHMM>
<NUMSTATES> 5
<STATE> 2
<MEAN> 25
 -3.295108e-08 -6.550857e-08 6.901765e-08 5.613159e-08 -7.279007e-08 4.960402e-08 6.058586e-08 -1.522269e-08 -1.756208e-08 -2.574165e-08 2.562800e-08 -3.359414e-08 6.193205e-04 1.874210e-03 -5.517203e-04 -1.244464e-04 -2.749996e-03 -5.981003e-04 -1.650482e-03 -1.460791e-03 -2.565482e-03 -2.399795e-03 -1.015267e-03 -1.649139e-03 -1.416997e-03
<VARIANCE> 25
 5.964943e+01 5.299704e+01 6.121924e+01 6.583541e+01 8.814134e+01 7.694161e+01 6.081390e+01 5.828838e+01 5.956340e+01 3.868868e+01 3.684652e+01 3.130931e+01 1.720003e+00 1.818751e+00 1.942652e+00 2.478552e+00 3.023078e+00 2.990276e+00 2.869987e+00 2.888806e+00 2.786867e+00 2.366959e+00 2.191838e+00 1.830008e+00 1.549957e+00
<GCONST> 1.048385e+02
<STATE> 3
<MEAN> 25
 -3.295108e-08 -6.550857e-08 6.901765e-08 5.613159e-08 -7.279007e-08 4.960402e-08 6.058586e-08 -1.522269e-08 -1.756208e-08 -2.574165e-08 2.562800e-08 -3.359414e-08 6.193205e-04 1.874210e-03 -5.517203e-04 -1.244464e-04 -2.749996e-03 -5.981003e-04 -1.650482e-03 -1.460791e-03 -2.565482e-03 -2.399795e-03 -1.015267e-03 -1.649139e-03 -1.416997e-03
<VARIANCE> 25
 5.964943e+01 5.299704e+01 6.121924e+01 6.583541e+01 8.814134e+01 7.694161e+01 6.081390e+01 5.828838e+01 5.956340e+01 3.868868e+01 3.684652e+01 3.130931e+01 1.720003e+00 1.818751e+00 1.942652e+00 2.478552e+00 3.023078e+00 2.990276e+00 2.869987e+00 2.888806e+00 2.786867e+00 2.366959e+00 2.191838e+00 1.830008e+00 1.549957e+00
<GCONST> 1.048385e+02
<STATE> 4
<MEAN> 25
 -3.295108e-08 -6.550857e-08 6.901765e-08 5.613159e-08 -7.279007e-08 4.960402e-08 6.058586e-08 -1.522269e-08 -1.756208e-08 -2.574165e-08 2.562800e-08 -3.359414e-08 6.193205e-04 1.874210e-03 -5.517203e-04 -1.244464e-04 -2.749996e-03 -5.981003e-04 -1.650482e-03 -1.460791e-03 -2.565482e-03 -2.399795e-03 -1.015267e-03 -1.649139e-03 -1.416997e-03
<VARIANCE> 25
 5.964943e+01 5.299704e+01 6.121924e+01 6.583541e+01 8.814134e+01 7.694161e+01 6.081390e+01 5.828838e+01 5.956340e+01 3.868868e+01 3.684652e+01 3.130931e+01 1.720003e+00 1.818751e+00 1.942652e+00 2.478552e+00 3.023078e+00 2.990276e+00 2.869987e+00 2.888806e+00 2.786867e+00 2.366959e+00 2.191838e+00 1.830008e+00 1.549957e+00
<GCONST> 1.048385e+02
<TRANSP> 5
 0.000000e+00 1.000000e+00 0.000000e+00 0.000000e+00 0.000000e+00
 0.000000e+00 6.000000e-01 4.000000e-01 0.000000e+00 0.000000e+00
 0.000000e+00 0.000000e+00 6.000000e-01 4.000000e-01 0.000000e+00
 0.000000e+00 0.000000e+00 0.000000e+00 7.000000e-01 3.000000e-01
 0.000000e+00 0.000000e+00 0.000000e+00 0.000000e+00 0.000000e+00
<ENDHMM>
~h "ow"
<BEGINHMM>
<NUMSTATES> 5
<STATE> 2
<MEAN> 25
 -3.295108e-08 -6.550857e-08 6.901765e-08 5.613159e-08 -7.279007e-08 4.960402e-08 6.058586e-08 -1.522269e-08 -1.756208e-08 -2.574165e-08 2.562800e-08 -3.359414e-08 6.193205e-04 1.874210e-03 -5.517203e-04 -1.244464e-04 -2.749996e-03 -5.981003e-04 -1.650482e-03 -1.460791e-03 -2.565482e-03 -2.399795e-03 -1.015267e-03 -1.649139e-03 -1.416997e-03
<VARIANCE> 25
 5.964943e+01 5.299704e+01 6.121924e+01 6.583541e+01 8.814134e+01 7.694161e+01 6.081390e+01 5.828838e+01 5.956340e+01 3.868868e+01 3.684652e+01 3.130931e+01 1.720003e+00 1.818751e+00 1.942652e+00 2.478552e+00 3.023078e+00 2.990276e+00 2.869987e+00 2.888806e+00 2.786867e+00 2.366959e+00 2.191838e+00 1.830008e+00 1.549957e+00
<GCONST> 1.048385e+02
<STATE> 3
<MEAN> 25
 -3.295108e-08 -6.550857e-08 6.901765e-08 5.613159e-08 -7.279007e-08 4.960402e-08 6.058586e-08 -1.522269e-08 -1.756208e-08 -2.574165e-08 2.562800e-08 -3.359414e-08 6.193205e-04 1.874210e-03 -5.517203e-04 -1.244464e-04 -2.749996e-03 -5.981003e-04 -1.650482e-03 -1.460791e-03 -2.565482e-03 -2.399795e-03 -1.015267e-03 -1.649139e-03 -1.416997e-03
<VARIANCE> 25
 5.964943e+01 5.299704e+01 6.121924e+01 6.583541e+01 8.814134e+01 7.694161e+01 6.081390e+01 5.828838e+01 5.956340e+01 3.868868e+01 3.684652e+01 3.130931e+01 1.720003e+00 1.818751e+00 1.942652e+00 2.478552e+00 3.023078e+00 2.990276e+00 2.869987e+00 2.888806e+00 2.786867e+00 2.366959e+00 2.191838e+00 1.830008e+00 1.549957e+00
<GCONST> 1.048385e+02
<STATE> 4
<MEAN> 25
 -3.295108e-08 -6.550857e-08 6.901765e-08 5.613159e-08 -7.279007e-08 4.960402e-08 6.058586e-08 -1.522269e-08 -1.756208e-08 -2.574165e-08 2.562800e-08 -3.359414e-08 6.193205e-04 1.874210e-03 -5.517203e-04 -1.244464e-04 -2.749996e-03 -5.981003e-04 -1.650482e-03 -1.460791e-03 -2.565482e-03 -2.399795e-03 -1.015267e-03 -1.649139e-03 -1.416997e-03
<VARIANCE> 25
 5.964943e+01 5.299704e+01 6.121924e+01 6.583541e+01 8.814134e+01 7.694161e+01 6.081390e+01 5.828838e+01 5.956340e+01 3.868868e+01 3.684652e+01 3.130931e+01 1.720003e+00 1.818751e+00 1.942652e+00 2.478552e+00 3.023078e+00 2.990276e+00 2.869987e+00 2.888806e+00 2.786867e+00 2.366959e+00 2.191838e+00 1.830008e+00 1.549957e+00
<GCONST> 1.048385e+02
<TRANSP> 5
 0.000000e+00 1.000000e+00 0.000000e+00 0.000000e+00 0.000000e+00
 0.000000e+00 6.000000e-01 4.000000e-01 0.000000e+00 0.000000e+00
 0.000000e+00 0.000000e+00 6.000000e-01 4.000000e-01 0.000000e+00
 0.000000e+00 0.000000e+00 0.000000e+00 7.000000e-01 3.000000e-01
 0.000000e+00 0.000000e+00 0.000000e+00 0.000000e+00 0.000000e+00
<ENDHMM>
~h "sh"
<BEGINHMM>
<NUMSTATES> 5
<STATE> 2
<MEAN> 25
 -3.295108e-08 -6.550857e-08 6.901765e-08 5.613159e-08 -7.279007e-08 4.960402e-08 6.058586e-08 -1.522269e-08 -1.756208e-08 -2.574165e-08 2.562800e-08 -3.359414e-08 6.193205e-04 1.874210e-03 -5.517203e-04 -1.244464e-04 -2.749996e-03 -5.981003e-04 -1.650482e-03 -1.460791e-03 -2.565482e-03 -2.399795e-03 -1.015267e-03 -1.649139e-03 -1.416997e-03
<VARIANCE> 25
 5.964943e+01 5.299704e+01 6.121924e+01 6.583541e+01 8.814134e+01 7.694161e+01 6.081390e+01 5.828838e+01 5.956340e+01 3.868868e+01 3.684652e+01 3.130931e+01 1.720003e+00 1.818751e+00 1.942652e+00 2.478552e+00 3.023078e+00 2.990276e+00 2.869987e+00 2.888806e+00 2.786867e+00 2.366959e+00 2.191838e+00 1.830008e+00 1.549957e+00
<GCONST> 1.048385e+02
<STATE> 3
<MEAN> 25
 -3.295108e-08 -6.550857e-08 6.901765e-08 5.613159e-08 -7.279007e-08 4.960402e-08 6.058586e-08 -1.522269e-08 -1.756208e-08 -2.574165e-08 2.562800e-08 -3.359414e-08 6.193205e-04 1.874210e-03 -5.517203e-04 -1.244464e-04 -2.749996e-03 -5.981003e-04 -1.650482e-03 -1.460791e-03 -2.565482e-03 -2.399795e-03 -1.015267e-03 -1.649139e-03 -1.416997e-03
<VARIANCE> 25
 5.964943e+01 5.299704e+01 6.121924e+01 6.583541e+01 8.814134e+01 7.694161e+01 6.081390e+01 5.828838e+01 5.956340e+01 3.868868e+01 3.684652e+01 3.130931e+01 1.720003e+00 1.818751e+00 1.942652e+00 2.478552e+00 3.023078e+00 2.990276e+00 2.869987e+00 2.888806e+00 2.786867e+00 2.366959e+00 2.191838e+00 1.830008e+00 1.549957e+00
<GCONST> 1.048385e+02
<STATE> 4
<MEAN> 25
 -3.295108e-08 -6.550857e-08 6.901765e-08 5.613159e-08 -7.279007e-08 4.960402e-08 6.058586e-08 -1.522269e-08 -1.756208e-08 -2.574165e-08 2.562800e-08 -3.359414e-08 6.193205e-04 1.874210e-03 -5.517203e-04 -1.244464e-04 -2.749996e-03 -5.981003e-04 -1.650482e-03 -1.460791e-03 -2.565482e-03 -2.399795e-03 -1.015267e-03 -1.649139e-03 -1.416997e-03
<VARIANCE> 25
 5.964943e+01 5.299704e+01 6.121924e+01 6.583541e+01 8.814134e+01 7.694161e+01 6.081390e+01 5.828838e+01 5.956340e+01 3.868868e+01 3.684652e+01 3.130931e+01 1.720003e+00 1.818751e+00 1.942652e+00 2.478552e+00 3.023078e+00 2.990276e+00 2.869987e+00 2.888806e+00 2.786867e+00 2.366959e+00 2.191838e+00 1.830008e+00 1.549957e+00
<GCONST> 1.048385e+02
<TRANSP> 5
 0.000000e+00 1.000000e+00 0.000000e+00 0.000000e+00 0.000000e+00
 0.000000e+00 6.000000e-01 4.000000e-01 0.000000e+00 0.000000e+00
 0.000000e+00 0.000000e+00 6.000000e-01 4.000000e-01 0.000000e+00
 0.000000e+00 0.000000e+00 0.000000e+00 7.000000e-01 3.000000e-01
 0.000000e+00 0.000000e+00 0.000000e+00 0.000000e+00 0.000000e+00
<ENDHMM>
~h "uh"
<BEGINHMM>
<NUMSTATES> 5
<STATE> 2
<MEAN> 25
 -3.295108e-08 -6.550857e-08 6.901765e-08 5.613159e-08 -7.279007e-08 4.960402e-08 6.058586e-08 -1.522269e-08 -1.756208e-08 -2.574165e-08 2.562800e-08 -3.359414e-08 6.193205e-04 1.874210e-03 -5.517203e-04 -1.244464e-04 -2.749996e-03 -5.981003e-04 -1.650482e-03 -1.460791e-03 -2.565482e-03 -2.399795e-03 -1.015267e-03 -1.649139e-03 -1.416997e-03
<VARIANCE> 25
 5.964943e+01 5.299704e+01 6.121924e+01 6.583541e+01 8.814134e+01 7.694161e+01 6.081390e+01 5.828838e+01 5.956340e+01 3.868868e+01 3.684652e+01 3.130931e+01 1.720003e+00 1.818751e+00 1.942652e+00 2.478552e+00 3.023078e+00 2.990276e+00 2.869987e+00 2.888806e+00 2.786867e+00 2.366959e+00 2.191838e+00 1.830008e+00 1.549957e+00
<GCONST> 1.048385e+02
<STATE> 3
<MEAN> 25
 -3.295108e-08 -6.550857e-08 6.901765e-08 5.613159e-08 -7.279007e-08 4.960402e-08 6.058586e-08 -1.522269e-08 -1.756208e-08 -2.574165e-08 2.562800e-08 -3.359414e-08 6.193205e-04 1.874210e-03 -5.517203e-04 -1.244464e-04 -2.749996e-03 -5.981003e-04 -1.650482e-03 -1.460791e-03 -2.565482e-03 -2.399795e-03 -1.015267e-03 -1.649139e-03 -1.416997e-03
<VARIANCE> 25
 5.964943e+01 5.299704e+01 6.121924e+01 6.583541e+01 8.814134e+01 7.694161e+01 6.081390e+01 5.828838e+01 5.956340e+01 3.868868e+01 3.684652e+01 3.130931e+01 1.720003e+00 1.818751e+00 1.942652e+00 2.478552e+00 3.023078e+00 2.990276e+00 2.869987e+00 2.888806e+00 2.786867e+00 2.366959e+00 2.191838e+00 1.830008e+00 1.549957e+00
<GCONST> 1.048385e+02
<STATE> 4
<MEAN> 25
 -3.295108e-08 -6.550857e-08 6.901765e-08 5.613159e-08 -7.279007e-08 4.960402e-08 6.058586e-08 -1.522269e-08 -1.756208e-08 -2.574165e-08 2.562800e-08 -3.359414e-08 6.193205e-04 1.874210e-03 -5.517203e-04 -1.244464e-04 -2.749996e-03 -5.981003e-04 -1.650482e-03 -1.460791e-03 -2.565482e-03 -2.399795e-03 -1.015267e-03 -1.649139e-03 -1.416997e-03
<VARIANCE> 25
 5.964943e+01 5.299704e+01 6.121924e+01 6.583541e+01 8.814134e+01 7.694161e+01 6.081390e+01 5.828838e+01 5.956340e+01 3.868868e+01 3.684652e+01 3.130931e+01 1.720003e+00 1.818751e+00 1.942652e+00 2.478552e+00 3.023078e+00 2.990276e+00 2.869987e+00 2.888806e+00 2.786867e+00 2.366959e+00 2.191838e+00 1.830008e+00 1.549957e+00
<GCONST> 1.048385e+02
<TRANSP> 5
 0.000000e+00 1.000000e+00 0.000000e+00 0.000000e+00 0.000000e+00
 0.000000e+00 6.000000e-01 4.000000e-01 0.000000e+00 0.000000e+00
 0.000000e+00 0.000000e+00 6.000000e-01 4.000000e-01 0.000000e+00
 0.000000e+00 0.000000e+00 0.000000e+00 7.000000e-01 3.000000e-01
 0.000000e+00 0.000000e+00 0.000000e+00 0.000000e+00 0.000000e+00
<ENDHMM>
~h "dh"
<BEGINHMM>
<NUMSTATES> 5
<STATE> 2
<MEAN> 25
 -3.295108e-08 -6.550857e-08 6.901765e-08 5.613159e-08 -7.279007e-08 4.960402e-08 6.058586e-08 -1.522269e-08 -1.756208e-08 -2.574165e-08 2.562800e-08 -3.359414e-08 6.193205e-04 1.874210e-03 -5.517203e-04 -1.244464e-04 -2.749996e-03 -5.981003e-04 -1.650482e-03 -1.460791e-03 -2.565482e-03 -2.399795e-03 -1.015267e-03 -1.649139e-03 -1.416997e-03
<VARIANCE> 25
 5.964943e+01 5.299704e+01 6.121924e+01 6.583541e+01 8.814134e+01 7.694161e+01 6.081390e+01 5.828838e+01 5.956340e+01 3.868868e+01 3.684652e+01 3.130931e+01 1.720003e+00 1.818751e+00 1.942652e+00 2.478552e+00 3.023078e+00 2.990276e+00 2.869987e+00 2.888806e+00 2.786867e+00 2.366959e+00 2.191838e+00 1.830008e+00 1.549957e+00
<GCONST> 1.048385e+02
<STATE> 3
<MEAN> 25
 -3.295108e-08 -6.550857e-08 6.901765e-08 5.613159e-08 -7.279007e-08 4.960402e-08 6.058586e-08 -1.522269e-08 -1.756208e-08 -2.574165e-08 2.562800e-08 -3.359414e-08 6.193205e-04 1.874210e-03 -5.517203e-04 -1.244464e-04 -2.749996e-03 -5.981003e-04 -1.650482e-03 -1.460791e-03 -2.565482e-03 -2.399795e-03 -1.015267e-03 -1.649139e-03 -1.416997e-03
<VARIANCE> 25
 5.964943e+01 5.299704e+01 6.121924e+01 6.583541e+01 8.814134e+01 7.694161e+01 6.081390e+01 5.828838e+01 5.956340e+01 3.868868e+01 3.684652e+01 3.130931e+01 1.720003e+00 1.818751e+00 1.942652e+00 2.478552e+00 3.023078e+00 2.990276e+00 2.869987e+00 2.888806e+00 2.786867e+00 2.366959e+00 2.191838e+00 1.830008e+00 1.549957e+00
<GCONST> 1.048385e+02
<STATE> 4
<MEAN> 25
 -3.295108e-08 -6.550857e-08 6.901765e-08 5.613159e-08 -7.279007e-08 4.960402e-08 6.058586e-08 -1.522269e-08 -1.756208e-08 -2.574165e-08 2.562800e-08 -3.359414e-08 6.193205e-04 1.874210e-03 -5.517203e-04 -1.244464e-04 -2.749996e-03 -5.981003e-04 -1.650482e-03 -1.460791e-03 -2.565482e-03 -2.399795e-03 -1.015267e-03 -1.649139e-03 -1.416997e-03
<VARIANCE> 25
 5.964943e+01 5.299704e+01 6.121924e+01 6.583541e+01 8.814134e+01 7.694161e+01 6.081390e+01 5.828838e+01 5.956340e+01 3.868868e+01 3.684652e+01 3.130931e+01 1.720003e+00 1.818751e+00 1.942652e+00 2.478552e+00 3.023078e+00 2.990276e+00 2.869987e+00 2.888806e+00 2.786867e+00 2.366959e+00 2.191838e+00 1.830008e+00 1.549957e+00
<GCONST> 1.048385e+02
<TRANSP> 5
 0.000000e+00 1.000000e+00 0.000000e+00 0.000000e+00 0.000000e+00
 0.000000e+00 6.000000e-01 4.000000e-01 0.000000e+00 0.000000e+00
 0.000000e+00 0.000000e+00 6.000000e-01 4.000000e-01 0.000000e+00
 0.000000e+00 0.000000e+00 0.000000e+00 7.000000e-01 3.000000e-01
 0.000000e+00 0.000000e+00 0.000000e+00 0.000000e+00 0.000000e+00
<ENDHMM>
~h "sil"
<BEGINHMM>
<NUMSTATES> 5
<STATE> 2
<MEAN> 25
