~o
<STREAMINFO> 1 25
<VECSIZE> 25<NULLD><MFCC_D_N_Z_0><DIAGC>
~h "b"
<BEGINHMM>
<NUMSTATES> 5
<STATE> 2
<MEAN> 25
 -3.091877e-01 5.126355e+00 2.145893e+00 2.428674e+00 5.375871e+00 6.694136e-01 3.325400e+00 8.440015e-01 1.928502e+00 -1.664788e+00 4.734228e-01 1.487374e-01 5.007143e-01 7.408170e-01 5.382856e-01 2.391205e-01 1.469114e-01 1.184461e-01 -1.701669e-02 -1.404482e-01 -7.527357e-02 -2.920366e-01 -2.835245e-01 -9.020887e-02 -8.109523e-02
<VARIANCE> 25
 5.095831e+01 2.836174e+01 1.549513e+01 1.712702e+01 1.745586e+01 2.631645e+01 2.877371e+01 2.798563e+01 2.364985e+01 1.921697e+01 2.042356e+01 2.143424e+01 2.538371e+00 1.750606e+00 1.443601e+00 1.365672e+00 1.906181e+00 1.900242e+00 2.167283e+00 2.152211e+00 2.004206e+00 2.112300e+00 1.909619e+00 1.702348e+00 1.382378e+00
<GCONST> 9.176907e+01
<STATE> 3
<MEAN> 25
 4.873698e+00 1.055540e+01 5.236951e+00 3.228097e+00 5.220551e+00 -6.162548e-01 1.625687e+00 -9.655259e-01 4.450859e-01 -3.763085e+00 -2.220869e+00 -1.614976e+00 -1.673875e-01 -1.189676e-01 2.957013e-01 6.283496e-01 1.782392e-01 3.019812e-01 -2.289298e-01 -3.333576e-01 1.356944e-01 -3.927016e-02 -5.319182e-02 -1.664775e-01 2.370688e-01
<VARIANCE> 25
 2.605149e+01 1.362305e+01 1.379366e+01 1.465562e+01 1.904986e+01 1.719638e+01 1.590996e+01 1.782843e+01 1.587068e+01 1.551968e+01 1.570626e+01 1.462794e+01 1.909678e+00 1.691504e+00 1.070009e+00 1.428383e+00 1.763447e+00 1.731721e+00 1.472603e+00 1.772537e+00 1.706379e+00 1.267004e+00 1.800796e+00 1.386952e+00 8.979001e-01
<GCONST> 8.476214e+01
<STATE> 4
<MEAN> 25
 3.932389e+00 3.790560e+00 3.588738e+00 6.539616e+00 2.755510e+00 2.413418e-01 -1.140689e+00 -3.929131e+00 1.055927e+00 -8.941215e-01 7.053006e-02 -3.189427e+00 4.274082e-01 -3.027390e+00 -1.360380e+00 -4.984598e-01 -2.397404e+00 -2.031436e-01 -1.885468e+00 -6.639490e-01 -5.995264e-01 1.998232e+00 1.479503e+00 -2.644183e-01 3.002239e+00
<VARIANCE> 25
 2.533930e+01 4.994324e+01 2.327340e+01 2.959079e+01 3.842794e+01 2.892979e+01 4.921373e+01 3.331934e+01 1.974939e+01 4.033317e+01 2.401826e+01 1.439871e+01 2.724605e+00 4.653333e+00 4.256405e+00 4.082650e+00 4.359254e+00 3.693822e+00 4.749209e+00 5.144217e+00 2.760568e+00 4.087945e+00 3.748694e+00 2.114943e+00 2.684340e+00
<GCONST> 1.034184e+02
<TRANSP> 5
 0.000000e+00 1.000000e+00 0.000000e+00 0.000000e+00 0.000000e+00
 0.000000e+00 8.545591e-01 1.454409e-01 0.000000e+00 0.000000e+00
 0.000000e+00 0.000000e+00 7.316288e-01 2.683711e-01 0.000000e+00
 0.000000e+00 0.000000e+00 0.000000e+00 6.765361e-01 3.234639e-01
 0.000000e+00 0.000000e+00 0.000000e+00 0.000000e+00 0.000000e+00
<ENDHMM>
~h "d"
<BEGINHMM>
<NUMSTATES> 5
<STATE> 2
<MEAN> 25
 -3.939941e+00 1.888858e+00 1.214412e+00 3.094193e+00 6.811739e+00 2.409595e+00 5.096258e+00 4.528265e+00 5.070764e+00 -4.920611e-01 1.416910e+00 2.381184e+00 -1.406808e-01 7.233448e-02 1.065552e-01 3.165035e-02 2.129932e-01 3.234532e-01 3.046727e-01 3.065021e-01 2.970273e-01 1.839517e-01 1.658616e-01 -2.561149e-02 -2.375900e-01
<VARIANCE> 25
 1.910436e+01 1.253992e+01 1.241651e+01 1.147487e+01 2.433261e+01 3.070527e+01 2.854311e+01 1.972664e+01 2.140181e+01 2.279178e+01 2.002404e+01 1.639243e+01 1.190889e+00 9.850185e-01 1.013294e+00 1.276844e+00 1.419509e+00 1.854671e+00 1.832886e+00 1.723606e+00 2.121477e+00 1.950667e+00 1.748917e+00 1.575053e+00 6.188315e-01
<GCONST> 8.580740e+01
<STATE> 3
<MEAN> 25
 -2.001580e+00 4.180394e+00 2.484951e+00 2.515899e+00 5.091321e+00 9.521548e-01 4.425148e+00 4.282573e+00 4.653748e+00 -1.326201e+00 2.273496e-01 7.399552e-01 1.637968e-01 1.524695e-01 2.032219e-01 -1.925535e-02 -1.783812e-01 -1.816618e-02 -2.133924e-01 -1.543537e-01 -3.004330e-02 9.718910e-04 1.663400e-02 -1.652658e-01 6.834696e-02
<VARIANCE> 25
 3.642101e+01 2.007381e+01 1.247470e+01 1.061755e+01 2.993537e+01 3.364466e+01 3.119057e+01 2.448210e+01 1.973969e+01 2.302585e+01 2.391405e+01 1.774383e+01 1.083189e+00 1.228220e+00 7.775448e-01 9.542465e-01 1.455118e+00 1.773249e+00 1.922375e+00 1.511740e+00 1.456055e+00 1.463894e+00 1.792319e+00 1.323315e+00 6.247708e-01
<GCONST> 8.630228e+01
<STATE> 4
<MEAN> 25
 3.875140e+00 5.454386e+00 4.207946e+00 1.820012e-01 9.505701e-02 -2.887711e+00 -2.066797e-01 1.417574e+00 2.692857e+00 -2.784242e+00 -2.236357e+00 -7.848194e-01 4.057279e-01 -1.057128e+00 -9.433717e-02 -3.994828e-01 -1.131691e+00 -4.348850e-01 -1.051423e+00 -4.724360e-01 -2.947721e-01 5.918797e-01 6.570508e-02 1.295120e-01 1.729574e+00
<VARIANCE> 25
 3.090761e+01 5.581554e+01 1.937289e+01 2.123088e+01 3.394685e+01 3.002478e+01 4.169212e+01 2.619166e+01 2.108213e+01 2.507170e+01 2.393001e+01 1.454831e+01 4.015206e+00 6.987241e+00 2.568423e+00 2.266880e+00 3.304311e+00 3.330015e+00 3.949558e+00 4.325570e+00 2.499444e+00 3.479302e+00 4.017799e+00 1.518625e+00 2.911202e+00
<GCONST> 1.008369e+02
<TRANSP> 5
 0.000000e+00 1.000000e+00 0.000000e+00 0.000000e+00 0.000000e+00
 0.000000e+00 8.600769e-01 1.399231e-01 0.000000e+00 0.000000e+00
 0.000000e+00 0.000000e+00 7.030549e-01 2.969451e-01 0.000000e+00
 0.000000e+00 0.000000e+00 0.000000e+00 8.022767e-01 1.977233e-01
 0.000000e+00 0.000000e+00 0.000000e+00 0.000000e+00 0.000000e+00
<ENDHMM>
~h "f"
<BEGINHMM>
<NUMSTATES> 5
<STATE> 2
<MEAN> 25
 -3.393750e+00 -9.855845e-01 -8.298240e-01 5.593865e+00 3.191859e+00 7.598996e-01 2.889996e+00 1.747710e+00 4.637570e+00 -2.683308e+00 -1.817906e+00 6.644741e-01 -8.340486e-01 -2.228487e-01 -4.158575e-01 2.350359e-01 1.661440e-01 1.012664e+00 3.573135e-01 2.232703e-01 6.471177e-01 3.375441e-01 1.828708e-01 -1.440494e-01 -3.033583e-01
<VARIANCE> 25
 1.907124e+01 1.536363e+01 2.826691e+01 1.749489e+01 4.615303e+01 3.782755e+01 2.512931e+01 2.706063e+01 1.667567e+01 1.741895e+01 1.617577e+01 1.649840e+01 1.604993e+00 1.671186e+00 1.577917e+00 1.748668e+00 1.867978e+00 2.571898e+00 1.866878e+00 2.316114e+00 2.205156e+00 1.712548e+00 1.688592e+00 1.410923e+00 1.033349e+00
<GCONST> 9.034112e+01
<STATE> 3
<MEAN> 25
 -7.566111e+00 -2.587725e+00 -3.429570e+00 6.829797e+00 -2.624896e-01 4.516978e+00 2.230028e+00 -1.228499e+00 4.927755e+00 -5.672342e-02 9.044514e-01 -2.748713e-01 -2.246313e-01 -7.731664e-02 -2.867815e-01 2.170393e-01 -2.338662e-01 1.852383e-01 -3.698077e-01 -4.645742e-01 -1.640804e-01 4.176203e-02 2.249896e-01 -7.687970e-02 3.193308e-01
<VARIANCE> 25
 6.539916e+00 1.147818e+01 1.292416e+01 1.818194e+01 1.837903e+01 1.767538e+01 2.524156e+01 2.577011e+01 2.018839e+01 1.492203e+01 1.434510e+01 1.643076e+01 6.498776e-01 8.737140e-01 6.758127e-01 1.079069e+00 1.337415e+00 1.660990e+00 2.051408e+00 1.773086e+00 1.728676e+00 1.593582e+00 1.501161e+00 1.676403e+00 5.523698e-01
<GCONST> 8.170682e+01
<STATE> 4
<MEAN> 25
 -2.571625e+00 -4.137774e+00 -5.585762e+00 4.365040e+00 -9.314685e-01 3.639037e+00 -9.576213e-02 -3.825608e+00 3.156712e+00 1.272630e+00 1.448998e+00 -2.581068e+00 2.294851e+00 2.703535e-01 -2.592210e-01 -1.635751e+00 -7.818915e-02 -2.209615e-01 2.117928e-01 1.976719e-02 -1.361028e+00 5.968124e-01 1.744565e-01 -2.966634e-01 8.714761e-01
<VARIANCE> 25
 6.362135e+01 1.758674e+01 1.072668e+01 3.577942e+01 1.224453e+01 1.439388e+01 1.678168e+01 1.789432e+01 3.741140e+01 1.654311e+01 1.922737e+01 1.706164e+01 3.937213e+00 2.373981e+00 9.539715e-01 2.684119e+00 1.748419e+00 1.671899e+00 1.921467e+00 1.829960e+00 5.970561e+00 1.955010e+00 1.485379e+00 1.545036e+00 7.218110e-01
<GCONST> 9.048219e+01
<TRANSP> 5
 0.000000e+00 1.000000e+00 0.000000e+00 0.000000e+00 0.000000e+00
 0.000000e+00 8.261108e-01 1.738892e-01 0.000000e+00 0.000000e+00
 0.000000e+00 0.000000e+00 8.804770e-01 1.195230e-01 0.000000e+00
 0.000000e+00 0.000000e+00 0.000000e+00 8.114220e-01 1.885780e-01
 0.000000e+00 0.000000e+00 0.000000e+00 0.000000e+00 0.000000e+00
<ENDHMM>
~h "g"
<BEGINHMM>
<NUMSTATES> 5
<STATE> 2
<MEAN> 25
 -4.148446e-01 3.376174e+00 2.763649e+00 7.867530e-02 -7.180663e-01 -2.365542e+00 1.542069e+00 1.177883e+00 3.939708e-01 -6.564717e-01 -1.720099e+00 -1.661847e+00 1.675348e+00 1.254045e+00 8.031201e-01 -6.161932e-01 -1.611790e+00 -1.259986e+00 -6.457376e-01 -8.901818e-01 -1.055971e+00 -1.503184e-01 -6.645031e-01 -9.075230e-01 4.029136e-01
<VARIANCE> 25
 3.624054e+01 5.718075e+01 2.374401e+01 1.708069e+01 8.201820e+01 4.922169e+01 3.521570e+01 2.373590e+01 4.932887e+01 3.805685e+01 1.683048e+01 2.256619e+01 2.895755e+00 3.936727e+00 2.141746e+00 1.968707e+00 5.911351e+00 3.888769e+00 2.910753e+00 3.410809e+00 4.428905e+00 3.598531e+00 1.256494e+00 2.973010e+00 5.881019e+00
<GCONST> 1.032588e+02
<STATE> 3
<MEAN> 25
 3.194558e+00 7.189059e+00 5.776994e+00 7.283715e-01 -8.236775e-01 -1.454039e+00 7.645038e-01 -3.041143e+00 4.073846e-02 -1.167029e+00 -2.032608e+00 -2.183455e+00 -4.490825e-01 -5.067398e-01 4.701606e-01 2.132728e-01 -2.372792e-01 4.887041e-01 -6.230062e-01 -5.150378e-01 3.375441e-02 3.263972e-01 6.982015e-01 7.322919e-02 9.062154e-01
<VARIANCE> 25
 4.282240e+01 6.475350e+01 1.606409e+01 1.582455e+01 4.058778e+01 4.168978e+01 3.249754e+01 3.634361e+01 3.361065e+01 1.923226e+01 1.882027e+01 1.486754e+01 4.519859e+00 7.572631e+00 2.220287e+00 2.414232e+00 6.891718e+00 2.663994e+00 3.972704e+00 3.191214e+00 4.152976e+00 2.773464e+00 1.775675e+00 2.317856e+00 5.124991e+00
<GCONST> 1.021811e+02
<STATE> 4
<MEAN> 25
 3.521460e+00 -6.672798e-01 4.821435e+00 2.178233e+00 -1.135020e+01 -4.577305e+00 -7.416842e+00 -2.920645e+00 -6.315843e+00 5.886661e+00 3.256694e+00 -4.168467e+00 3.119946e-01 -3.347576e-01 -4.034939e-01 -1.466118e-01 -3.991878e-01 -1.607919e-01 -1.315084e-01 3.694044e-01 -3.115008e-01 3.693775e-01 5.553725e-02 -3.598086e-02 2.484220e-01
<VARIANCE> 25
 9.567943e+00 1.548447e+01 6.289917e+01 3.818108e+01 5.564703e+01 3.176413e+01 3.470820e+01 1.401380e+01 3.261924e+01 3.116211e+01 3.884079e+01 3.000170e+01 8.186404e-01 1.995195e+00 2.381416e+00 7.738485e-01 4.868930e+00 2.176628e+00 3.013918e+00 1.842776e+00 3.634115e+00 3.291688e+00 3.082294e+00 3.731578e+00 1.615328e+00
<GCONST> 9.695919e+01
<TRANSP> 5
 0.000000e+00 1.000000e+00 0.000000e+00 0.000000e+00 0.000000e+00
 0.000000e+00 7.883439e-01 2.116561e-01 0.000000e+00 0.000000e+00
 0.000000e+00 0.000000e+00 8.844883e-01 1.155117e-01 0.000000e+00
 0.000000e+00 0.000000e+00 0.000000e+00 8.956781e-01 1.043219e-01
 0.000000e+00 0.000000e+00 0.000000e+00 0.000000e+00 0.000000e+00
<ENDHMM>
~h "k"
<BEGINHMM>
<NUMSTATES> 5
<STATE> 2
<MEAN> 25
 -4.752179e+00 2.498340e+00 1.603052e+00 3.454457e+00 6.471246e+00 2.380350e+00 5.736454e+00 4.429538e+00 5.340807e+00 8.611798e-03 1.944578e+00 2.784831e+00 -1.991033e-01 -1.755563e-01 -1.100145e-01 1.090408e-01 2.925792e-01 2.503929e-01 2.372633e-01 3.291042e-01 3.975175e-01 2.150193e-01 1.365638e-01 1.103636e-01 -2.664121e-01
<VARIANCE> 25
 9.259677e+00 9.751412e+00 1.176836e+01 1.810201e+01 1.835407e+01 2.023866e+01 2.291123e+01 1.977716e+01 2.342393e+01 1.980171e+01 1.779472e+01 1.618066e+01 6.202961e-01 8.954684e-01 1.346577e+00 1.369370e+00 1.819539e+00 2.007201e+00 2.135930e+00 2.247652e+00 2.070168e+00 2.063076e+00 1.958340e+00 1.675765e+00 5.804331e-01
<GCONST> 8.463155e+01
<STATE> 3
<MEAN> 25
 -5.038252e+00 5.820866e-01 8.221214e-01 3.241118e+00 6.758825e+00 2.653062e+00 5.976863e+00 4.263197e+00 6.119710e+00 7.658671e-01 2.348522e+00 3.165360e+00 3.137877e-01 -6.645635e-01 -5.933977e-01 -2.593034e-01 -5.249514e-01 -4.075221e-01 -9.336169e-01 -7.295300e-01 -1.566767e-01 3.680317e-01 2.801297e-01 2.489354e-02 8.939746e-01
<VARIANCE> 25
 8.064949e+00 1.247913e+01 1.336549e+01 1.531564e+01 2.316117e+01 2.829700e+01 2.237702e+01 2.391559e+01 2.281987e+01 1.754309e+01 1.627306e+01 2.036296e+01 1.048252e+00 2.193208e+00 2.752976e+00 1.962804e+00 2.595697e+00 3.282416e+00 3.825552e+00 3.479231e+00 2.372020e+00 2.592186e+00 2.331261e+00 2.029931e+00 2.618438e+00
<GCONST> 9.202712e+01
<STATE> 4
<MEAN> 25
 -6.053723e-01 -4.276809e+00 -2.315415e+00 1.492101e+00 1.743953e+00 -3.163356e-01 -1.186563e-01 -1.568572e+00 3.045066e-01 2.778595e+00 1.984848e+00 6.723636e-01 7.878668e-01 -4.739179e-01 -3.682198e-01 -6.374227e-02 -6.048489e-01 -2.171955e-01 -6.051629e-01 -6.907612e-01 -8.238680e-01 1.338343e-01 -1.879222e-01 -6.571617e-01 1.635788e+00
<VARIANCE> 25
 3.838835e+01 4.516729e+01 6.526350e+01 3.346971e+01 6.320518e+01 4.547021e+01 4.516606e+01 4.657336e+01 4.585700e+01 3.769410e+01 2.647986e+01 2.972346e+01 2.603451e+00 4.620484e+00 5.650868e+00 3.284507e+00 5.059436e+00 3.803479e+00 4.927557e+00 4.367791e+00 5.747849e+00 4.255768e+00 2.784071e+00 3.008692e+00 7.773185e+00
<GCONST> 1.096401e+02
<TRANSP> 5
 0.000000e+00 1.000000e+00 0.000000e+00 0.000000e+00 0.000000e+00
 0.000000e+00 8.932955e-01 1.067045e-01 0.000000e+00 0.000000e+00
 0.000000e+00 0.000000e+00 6.102054e-01 3.897947e-01 0.000000e+00
 0.000000e+00 0.000000e+00 0.000000e+00 8.071697e-01 1.928303e-01
 0.000000e+00 0.000000e+00 0.000000e+00 0.000000e+00 0.000000e+00
<ENDHMM>
~h "l"
<BEGINHMM>
<NUMSTATES> 5
<STATE> 2
<MEAN> 25
 7.223627e+00 -2.002423e+00 -6.784977e+00 -7.281809e+00 4.506405e-01 4.411931e+00 -8.977341e+00 -4.425325e+00 -1.050699e-02 7.046600e+00 -3.596540e+00 -1.422899e+00 6.082338e-01 6.684898e-01 -5.619070e-01 -1.773124e+00 2.429049e-01 8.035576e-01 -2.155278e-01 -9.141960e-01 -7.683874e-01 4.914041e-01 1.743204e-01 7.554586e-01 -6.178956e-02
<VARIANCE> 25
 1.011485e+01 3.139887e+01 1.687805e+01 4.224096e+01 3.096100e+01 2.954092e+01 6.387838e+01 3.257965e+01 3.268724e+01 3.816493e+01 3.503082e+01 2.755185e+01 1.010343e+00 1.243069e+00 1.181251e+00 2.860953e+00 2.299135e+00 2.464631e+00 3.174713e+00 2.599570e+00 2.328647e+00 2.121421e+00 1.868618e+00 1.705592e+00 1.221440e+00
<GCONST> 9.498473e+01
<STATE> 3
<MEAN> 25
 9.085886e+00 3.766832e+00 -7.490277e+00 -1.512085e+01 -4.249721e-01 5.392397e+00 -7.092015e+00 -6.040173e+00 -5.049191e+00 6.501869e+00 -3.601387e+00 4.432477e+00 1.225537e-02 3.137304e-01 6.292613e-02 -1.168109e-01 -1.416890e-02 -3.007615e-01 3.234002e-02 -7.171451e-02 -1.082538e-01 -1.617656e-01 -9.135617e-02 1.850636e-01 -3.110133e-01
<VARIANCE> 25
 5.348632e+00 1.929216e+01 1.251594e+01 2.531234e+01 2.372837e+01 2.910395e+01 3.200663e+01 2.415515e+01 1.770202e+01 2.724073e+01 2.334830e+01 1.540556e+01 2.073202e-01 1.082458e+00 5.505150e-01 1.243045e+00 9.148839e-01 1.486566e+00 1.922779e+00 1.518000e+00 1.257035e+00 1.564960e+00 9.686084e-01 1.308864e+00 4.930022e-01
<GCONST> 8.130511e+01
<STATE> 4
<MEAN> 25
 5.904452e+00 3.591750e+00 -4.446563e+00 -7.903757e+00 9.747154e-02 8.699957e-01 -4.543356e+00 -5.020312e+00 -1.966029e+00 2.008848e+00 -2.604968e+00 1.881629e+00 -8.821230e-01 -4.825402e-01 6.292700e-01 1.601873e+00 3.325646e-02 -5.369611e-01 6.363295e-01 8.504947e-01 6.959586e-01 -6.952962e-01 1.476060e-01 -3.875358e-01 -5.327789e-01
<VARIANCE> 25
 1.583058e+01 2.720137e+01 1.749219e+01 4.249228e+01 3.667882e+01 3.496000e+01 5.853288e+01 3.269357e+01 2.509929e+01 4.855674e+01 2.477638e+01 2.385409e+01 7.660574e-01 1.345336e+00 1.223353e+00 2.384989e+00 2.401221e+00 2.911426e+00 2.415096e+00 3.064208e+00 2.315176e+00 2.896799e+00 1.862841e+00 1.823210e+00 1.151518e+00
<GCONST> 9.513777e+01
<TRANSP> 5
 0.000000e+00 1.000000e+00 0.000000e+00 0.000000e+00 0.000000e+00
 0.000000e+00 7.773021e-01 2.226978e-01 0.000000e+00 0.000000e+00
 0.000000e+00 0.000000e+00 8.837292e-01 1.162707e-01 0.000000e+00
 0.000000e+00 0.000000e+00 0.000000e+00 8.321010e-01 1.678991e-01
 0.000000e+00 0.000000e+00 0.000000e+00 0.000000e+00 0.000000e+00
<ENDHMM>
~h "m"
<BEGINHMM>
<NUMSTATES> 5
<STATE> 2
<MEAN> 25
 2.754127e+00 2.465207e+00 -2.876744e+00 3.748530e-01 4.021479e+00 -1.480307e+00 -9.382220e-02 -1.655272e+00 -3.225111e-01 -2.484178e+00 -1.344245e+00 -2.877111e+00 -5.349048e-02 2.477076e-01 1.162803e-02 -1.019835e-03 5.245477e-03 -1.318157e-03 1.548767e-01 4.324267e-02 9.971529e-02 -1.731126e-01 -2.266651e-02 -1.548408e-01 -2.743466e-01
<VARIANCE> 25
 3.877365e+01 1.703514e+01 1.735383e+01 1.145397e+01 3.786876e+01 3.576249e+01 1.753765e+01 1.770754e+01 2.620123e+01 1.392794e+01 1.403320e+01 2.562098e+01 6.219416e-01 1.110108e+00 1.024828e+00 7.787235e-01 1.525660e+00 1.889251e+00 1.604650e+00 1.605519e+00 1.414073e+00 1.308185e+00 1.029423e+00 1.330591e+00 5.537793e-01
<GCONST> 8.421367e+01
<STATE> 3
<MEAN> 25
 4.864902e+00 4.053253e+00 -2.681915e+00 -6.980511e-01 4.355701e-01 -3.740323e+00 -4.201902e-01 -1.435772e+00 -1.655024e+00 -3.645213e+00 -1.020721e+00 -3.064134e+00 2.054760e-01 -1.058330e-01 2.726905e-01 4.795926e-02 -6.513498e-01 -3.146175e-01 -3.350636e-02 8.020392e-02 -1.583755e-01 8.288826e-02 2.061670e-01 1.923948e-01 1.509250e-01
<VARIANCE> 25
 3.673878e+01 2.523794e+01 1.725990e+01 1.608597e+01 3.412929e+01 4.480072e+01 2.244769e+01 2.214725e+01 2.977429e+01 1.793778e+01 1.838756e+01 1.870538e+01 9.835756e-01 2.342347e+00 1.750724e+00 1.091497e+00 2.322995e+00 1.944301e+00 2.147322e+00 1.795467e+00 1.376779e+00 1.637112e+00 1.238859e+00 1.160773e+00 1.496492e+00
<GCONST> 8.998624e+01
<STATE> 4
<MEAN> 25
 6.288928e+00 3.971142e+00 -5.726513e-01 -2.088376e+00 -3.086988e+00 -4.831377e+00 -2.051727e+00 -1.927654e+00 -3.990007e+00 -2.820120e+00 -1.139631e+00 -2.585128e+00 -3.903323e-01 -4.684986e-01 6.699018e-01 4.373955e-01 -3.033050e-01 1.443192e-01 -2.154207e-02 2.119453e-01 -2.207579e-01 9.991636e-02 1.229076e-01 3.561933e-01 2.930119e-01
<VARIANCE> 25
 2.503684e+01 3.639796e+01 2.843423e+01 2.889576e+01 5.475840e+01 3.438065e+01 2.532783e+01 2.124046e+01 3.330534e+01 1.488668e+01 1.750650e+01 1.548647e+01 6.748314e-01 3.236659e+00 2.442406e+00 1.609980e+00 3.179510e+00 1.798265e+00 1.657520e+00 1.789885e+00 2.250169e+00 1.458954e+00 1.475412e+00 1.333088e+00 1.696886e+00
<GCONST> 9.248547e+01
<TRANSP> 5
 0.000000e+00 1.000000e+00 0.000000e+00 0.000000e+00 0.000000e+00
 0.000000e+00 8.662348e-01 1.337652e-01 0.000000e+00 0.000000e+00
 0.000000e+00 0.000000e+00 5.877593e-01 4.122407e-01 0.000000e+00
 0.000000e+00 0.000000e+00 0.000000e+00 6.635848e-01 3.364151e-01
 0.000000e+00 0.000000e+00 0.000000e+00 0.000000e+00 0.000000e+00
<ENDHMM>
~h "n"
<BEGINHMM>
<NUMSTATES> 5
<STATE> 2
<MEAN> 25
 7.134079e+00 2.798799e+00 -9.717271e-01 -2.016018e+00 -7.534180e-01 1.166389e+00 -8.882523e-03 -3.993550e+00 -2.152683e+00 -4.911074e+00 -5.080546e+00 -1.674808e+00 1.160590e-01 7.019587e-01 -9.831784e-02 2.175914e-01 2.946450e-01 5.482900e-02 5.813205e-01 -2.173083e-01 2.792386e-01 -4.151370e-01 -4.254562e-02 -1.443024e-01 -6.390582e-01
<VARIANCE> 25
 4.469506e+00 1.713478e+01 1.464190e+01 1.024112e+01 1.897548e+01 2.138632e+01 2.687119e+01 2.394011e+01 2.339380e+01 1.356125e+01 1.288852e+01 1.003353e+01 4.675920e-01 1.124768e+00 9.936225e-01 6.986580e-01 1.280572e+00 1.620468e+00 1.892592e+00 1.413656e+00 1.614423e+00 1.210831e+00 1.210128e+00 8.981348e-01 7.682161e-01
<GCONST> 7.958652e+01
<STATE> 3
<MEAN> 25
 5.520666e+00 5.665458e+00 8.497812e-01 2.309808e-02 1.247123e+00 -1.937573e-01 1.355069e+00 -2.859088e+00 -1.079672e+00 -6.462059e+00 -4.963069e+00 -1.876786e+00 -5.986575e-01 1.736555e-01 4.401942e-01 4.827720e-01 3.795961e-01 -2.420843e-01 -1.655627e-01 9.178282e-02 2.176804e-02 -8.806138e-02 1.482916e-01 3.526271e-02 -4.561214e-01
<VARIANCE> 25
 8.461570e+00 1.167115e+01 1.020228e+01 1.153980e+01 2.274720e+01 2.105890e+01 1.902019e+01 2.426155e+01 1.197546e+01 1.379859e+01 1.148408e+01 9.762924e+00 5.620995e-01 1.083535e+00 8.359634e-01 8.894886e-01 1.309506e+00 1.613628e+00 1.739423e+00 1.569779e+00 1.329685e+00 1.184983e+00 1.423071e+00 8.488193e-01 6.935380e-01
<GCONST> 7.867927e+01
<STATE> 4
<MEAN> 25
 -2.057974e+00 2.676422e+00 1.495713e+00 3.102467e+00 5.448313e+00 1.204565e+00 3.513097e+00 1.112994e+00 2.094111e+00 -2.874542e+00 -1.420373e+00 3.409674e-01 -4.542767e-01 -4.153005e-01 -1.032744e-01 5.957609e-02 9.117448e-02 1.698324e-01 9.950575e-02 3.257536e-01 2.431901e-01 4.334101e-01 3.532841e-01 2.143477e-01 -1.117326e-02
<VARIANCE> 25
 2.511637e+01 1.992752e+01 1.623105e+01 1.783625e+01 2.857767e+01 2.293912e+01 2.475564e+01 2.863345e+01 2.343542e+01 2.826149e+01 2.177011e+01 1.734552e+01 1.503860e+00 1.349389e+00 1.314997e+00 1.810567e+00 2.232074e+00 1.708423e+00 2.025787e+00 2.303826e+00 1.894277e+00 1.968708e+00 1.709535e+00 1.449336e+00 1.391575e+00
<GCONST> 9.031760e+01
<TRANSP> 5
 0.000000e+00 1.000000e+00 0.000000e+00 0.000000e+00 0.000000e+00
 0.000000e+00 8.592128e-01 1.407871e-01 0.000000e+00 0.000000e+00
 0.000000e+00 0.000000e+00 7.505287e-01 2.494713e-01 0.000000e+00
 0.000000e+00 0.000000e+00 0.000000e+00 8.587789e-01 1.412211e-01
 0.000000e+00 0.000000e+00 0.000000e+00 0.000000e+00 0.000000e+00
<ENDHMM>
~h "p"
<BEGINHMM>
<NUMSTATES> 5
<STATE> 2
<MEAN> 25
 -6.376551e-01 3.163801e+00 1.411009e-02 7.716566e-01 3.207839e+00 -1.708789e+00 1.263486e+00 1.365957e-01 3.887005e-01 -3.156977e+00 1.386133e+00 1.785131e+00 -7.670834e-01 -2.059587e-01 5.348616e-01 8.517676e-01 5.934039e-01 7.306908e-01 3.728918e-01 9.761536e-02 4.211348e-01 -3.677741e-03 2.232702e-01 6.489439e-02 -2.467100e-01
<VARIANCE> 25
 1.653236e+01 2.009886e+01 1.279814e+01 2.386306e+01 2.364501e+01 3.503870e+01 2.175973e+01 2.774364e+01 2.424318e+01 2.186971e+01 2.539668e+01 1.494632e+01 1.141023e+00 1.722467e+00 1.418991e+00 1.888178e+00 1.928965e+00 3.362884e+00 2.249496e+00 3.175710e+00 1.929865e+00 2.560974e+00 2.205690e+00 1.852198e+00 1.720595e+00
<GCONST> 9.185471e+01
<STATE> 3
<MEAN> 25
 -2.873627e+00 2.491928e+00 1.365138e+00 3.272844e+00 4.743514e+00 1.353374e+00 2.054589e+00 -2.220456e-01 1.962680e+00 -2.565554e+00 1.292539e+00 1.461583e+00 3.969484e-01 -3.132334e-01 8.220091e-03 6.285161e-01 -5.620966e-01 -1.296851e-02 -3.133347e-01 -5.476662e-01 -1.210001e-01 3.366916e-01 -3.938369e-02 -2.069997e-01 9.389420e-01
<VARIANCE> 25
 1.242115e+01 1.547019e+01 1.414535e+01 1.877449e+01 3.006291e+01 2.305280e+01 2.589066e+01 3.962090e+01 2.659627e+01 2.939763e+01 2.960198e+01 2.083609e+01 2.690481e+00 1.769990e+00 3.055932e+00 2.297776e+00 2.828589e+00 3.795479e+00 3.885772e+00 4.417706e+00 3.657244e+00 4.565093e+00 3.302754e+00 2.142069e+00 2.690187e+00
<GCONST> 9.783521e+01
<STATE> 4
<MEAN> 25
 -2.784115e+00 3.944711e-01 -7.315830e-01 4.310533e+00 5.992251e+00 2.605606e+00 2.621746e+00 7.468300e-01 4.053005e+00 -8.507410e-01 1.629530e+00 1.891500e+00 9.480267e-01 2.187009e-01 -1.675662e-01 -4.269356e-01 -6.413877e-01 -2.327043e-01 -7.546049e-01 -6.964980e-01 -3.961867e-01 2.152609e-01 3.409754e-03 2.019814e-02 7.390789e-01
<VARIANCE> 25
 2.382557e+01 1.870158e+01 2.363877e+01 1.669188e+01 3.428176e+01 2.846878e+01 3.196174e+01 4.232098e+01 2.515175e+01 1.672251e+01 1.513346e+01 1.820963e+01 2.701910e+00 2.323684e+00 2.894109e+00 3.307117e+00 2.900048e+00 2.921217e+00 3.455818e+00 3.168838e+00 1.938563e+00 2.358251e+00 2.000661e+00 2.014658e+00 2.393610e+00
<GCONST> 9.619050e+01
<TRANSP> 5
 0.000000e+00 1.000000e+00 0.000000e+00 0.000000e+00 0.000000e+00
 0.000000e+00 7.097397e-01 2.902603e-01 0.000000e+00 0.000000e+00
 0.000000e+00 0.000000e+00 6.971782e-01 3.028217e-01 0.000000e+00
 0.000000e+00 0.000000e+00 0.000000e+00 7.829456e-01 2.170545e-01
 0.000000e+00 0.000000e+00 0.000000e+00 0.000000e+00 0.000000e+00
<ENDHMM>
~h "r"
<BEGINHMM>
<NUMSTATES> 5
<STATE> 2
<MEAN> 25
 4.480939e+00 -3.618825e+00 -3.206342e+00 5.895210e+00 -5.754949e-01 -1.585121e+00 -5.950945e+00 -3.005097e+00 2.414355e+00 5.753323e-01 2.663580e+00 7.821922e-01 1.591572e+00 -3.184800e-01 -2.764181e-01 2.551026e-01 -3.291886e-01 -1.624455e+00 -1.605510e+00 -1.005583e-01 -1.161192e-01 -3.207835e-01 -1.863975e-01 6.716318e-01 2.643850e-01
<VARIANCE> 25
 4.818534e+01 3.442451e+01 8.780542e+01 2.280906e+01 4.379381e+01 4.768192e+01 7.772247e+01 4.579189e+01 4.141381e+01 2.750866e+01 2.215711e+01 1.797928e+01 2.598459e+00 1.755143e+00 5.916839e+00 2.671748e+00 2.734200e+00 3.061664e+00 4.093248e+00 2.635839e+00 3.845467e+00 2.634918e+00 1.996022e+00 1.627478e+00 8.962928e-01
<GCONST> 1.019756e+02
<STATE> 3
<MEAN> 25
 1.025604e+01 -5.756370e+00 -6.207392e+00 7.034532e+00 -2.144869e+00 -7.875113e+00 -1.242078e+01 -8.850151e-01 9.074593e-01 -8.153614e-01 2.318510e+00 2.664917e+00 3.298465e-01 -4.204199e-01 1.825837e-01 1.969925e-01 -4.934758e-01 -9.176964e-01 -3.187895e-02 4.474670e-01 -4.114842e-02 -3.738130e-01 -5.465896e-02 4.421283e-01 6.115583e-02
<VARIANCE> 25
 1.097215e+01 1.750968e+01 6.676477e+01 1.661498e+01 3.040843e+01 2.789261e+01 3.737415e+01 4.987638e+01 1.946118e+01 1.790258e+01 1.252870e+01 1.450641e+01 8.227031e-01 1.362547e+00 3.564594e+00 8.812907e-01 2.945182e+00 2.798353e+00 3.070704e+00 2.957751e+00 2.131742e+00 2.139289e+00 1.432032e+00 1.473636e+00 4.402393e-01
<GCONST> 9.056433e+01
<STATE> 4
<MEAN> 25
 8.812396e+00 -6.867556e+00 2.679374e-01 3.482089e+00 -6.846425e+00 -8.963923e+00 -8.209139e+00 1.199261e+00 -2.646320e+00 -6.467782e-01 2.807804e+00 1.185148e+00 -3.173808e-01 4.976438e-02 7.265396e-01 -4.808564e-01 -2.287703e-01 2.685157e-01 6.712646e-01 -1.068861e-01 -5.119700e-01 2.542096e-02 -4.642669e-02 -3.836883e-01 -1.530860e-01
<VARIANCE> 25
 1.288067e+01 2.418663e+01 1.021524e+02 3.286242e+01 5.915267e+01 2.347966e+01 2.980440e+01 3.055463e+01 3.911556e+01 2.692275e+01 1.653600e+01 1.401369e+01 3.962039e-01 1.124529e+00 2.855482e+00 1.268740e+00 2.682717e+00 1.908057e+00 2.661156e+00 1.960472e+00 1.855143e+00 1.421958e+00 1.351856e+00 1.209942e+00 5.883877e-01
<GCONST> 9.095808e+01
<TRANSP> 5
 0.000000e+00 1.000000e+00 0.000000e+00 0.000000e+00 0.000000e+00
 0.000000e+00 6.736907e-01 3.263093e-01 0.000000e+00 0.000000e+00
 0.000000e+00 0.000000e+00 6.921997e-01 3.078003e-01 0.000000e+00
 0.000000e+00 0.000000e+00 0.000000e+00 8.219953e-01 1.780047e-01
 0.000000e+00 0.000000e+00 0.000000e+00 0.000000e+00 0.000000e+00
<ENDHMM>
~h "s"
<BEGINHMM>
<NUMSTATES> 5
<STATE> 2
<MEAN> 25
 -6.296276e+00 4.301678e+00 -8.658594e-01 5.473240e+00 5.385501e+00 1.122443e+00 6.080940e+00 1.928242e-01 5.993704e+00 -9.858800e-01 1.969328e+00 2.207687e+00 -2.132973e+00 1.081238e+00 -5.246646e-01 1.115671e+00 9.514992e-01 5.932955e-01 1.255939e+00 1.805300e-02 8.703063e-01 1.144051e-01 7.033426e-01 1.937404e-01 7.045971e-01
<VARIANCE> 25
 3.523318e+01 2.836440e+01 2.571127e+01 3.803148e+01 4.236047e+01 4.358924e+01 3.666678e+01 5.100253e+01 3.056561e+01 2.821506e+01 2.281805e+01 1.386191e+01 3.755274e+00 2.512274e+00 2.210239e+00 2.648725e+00 3.154115e+00 3.076492e+00 3.367076e+00 3.910065e+00 2.600463e+00 3.536514e+00 2.474468e+00 1.632441e+00 1.415354e+00
<GCONST> 1.001345e+02
<STATE> 3
<MEAN> 25
 -1.545277e+01 8.212631e+00 -5.996810e+00 8.557355e+00 5.037737e+00 4.407883e-01 8.251940e+00 -1.095494e+00 7.083820e+00 6.754974e-01 3.085344e+00 1.999363e+00 -4.596113e-01 5.106789e-02 -4.295714e-01 -3.736089e-02 -1.790138e-01 -1.470683e-01 4.190896e-02 -1.512584e-01 -1.268964e-01 6.739969e-02 -7.611452e-02 -4.578782e-02 1.866999e-02
<VARIANCE> 25
 2.115941e+01 2.217377e+01 2.392343e+01 2.194751e+01 2.601829e+01 2.701824e+01 2.350491e+01 3.429977e+01 2.192120e+01 1.918040e+01 1.822821e+01 1.478171e+01 1.305646e+00 1.164148e+00 1.614358e+00 1.363358e+00 1.802034e+00 2.028801e+00 1.925868e+00 1.731682e+00 2.044366e+00 2.019383e+00 1.667709e+00 1.417900e+00 5.777792e-01
<GCONST> 8.868516e+01
<STATE> 4
<MEAN> 25
 -1.194381e+01 5.555367e+00 -3.661862e+00 5.898386e+00 4.068879e+00 -8.224608e-01 7.166176e+00 -2.235767e+00 6.304527e+00 -2.580696e-02 1.036397e+00 2.519193e+00 1.587535e+00 -7.963889e-01 9.462917e-01 -8.070695e-01 -3.277468e-01 -3.753008e-01 -5.573808e-01 1.854251e-01 -3.422476e-01 -1.191523e-01 -4.555598e-01 1.321359e-01 -3.793852e-01
<VARIANCE> 25
 3.628472e+01 2.125140e+01 2.535076e+01 2.325975e+01 3.701317e+01 3.011190e+01 2.338630e+01 3.670168e+01 1.973320e+01 1.860640e+01 1.911887e+01 1.323747e+01 3.133717e+00 2.265198e+00 1.953147e+00 2.686597e+00 3.293128e+00 3.247989e+00 2.901686e+00 3.051849e+00 2.914937e+00 1.907002e+00 2.021694e+00 1.508509e+00 2.336193e+00
<GCONST> 9.603246e+01
<TRANSP> 5
 0.000000e+00 1.000000e+00 0.000000e+00 0.000000e+00 0.000000e+00
 0.000000e+00 7.908086e-01 2.091914e-01 0.000000e+00 0.000000e+00
 0.000000e+00 0.000000e+00 8.884038e-01 1.115961e-01 0.000000e+00
 0.000000e+00 0.000000e+00 0.000000e+00 8.563238e-01 1.436762e-01
 0.000000e+00 0.000000e+00 0.000000e+00 0.000000e+00 0.000000e+00
<ENDHMM>
~h "t"
<BEGINHMM>
<NUMSTATES> 5
<STATE> 2
<MEAN> 25
 4.258937e-01 4.719145e+00 4.350198e+00 1.855737e+00 -1.295201e+00 -4.510234e+00 -4.991066e-02 -3.920602e-01 2.786093e-01 -1.927566e+00 -7.830885e-01 9.682734e-01 -6.222662e-01 2.494652e-01 -1.516277e-01 4.356782e-01 1.466442e+00 3.927467e-01 1.128566e+00 5.023136e-01 1.033902e+00 -5.311100e-01 4.586559e-01 5.771205e-01 -1.361920e+00
<VARIANCE> 25
 2.708336e+01 2.118118e+01 2.645374e+01 1.786689e+01 5.947993e+01 2.872529e+01 3.142593e+01 2.470895e+01 3.365950e+01 2.595051e+01 2.194999e+01 2.154146e+01 1.360077e+00 2.641165e+00 1.916448e+00 1.432436e+00 3.689917e+00 1.826730e+00 2.595906e+00 2.372090e+00 2.390141e+00 3.213761e+00 2.174454e+00 1.849005e+00 1.708948e+00
<GCONST> 9.546731e+01
<STATE> 3
<MEAN> 25
 -2.788894e+00 3.183556e+00 1.980159e+00 2.922756e+00 2.464417e+00 -1.520319e+00 3.126071e+00 9.843435e-01 3.576716e+00 -1.349707e+00 1.428684e+00 2.536633e+00 -6.321167e-01 -7.122533e-01 -4.333041e-01 1.831415e-01 4.227310e-01 9.645495e-01 5.242270e-01 2.797588e-01 6.135590e-01 5.446708e-01 6.558264e-01 2.835753e-01 8.403249e-03
<VARIANCE> 25
 2.505036e+01 1.830263e+01 2.065873e+01 1.356464e+01 3.584840e+01 2.296676e+01 2.811347e+01 3.040808e+01 2.234981e+01 1.756433e+01 2.423458e+01 1.789189e+01 1.672268e+00 1.327986e+00 1.817632e+00 1.284422e+00 2.675138e+00 2.103716e+00 2.584023e+00 2.854429e+00 2.939105e+00 2.280678e+00 2.190372e+00 1.452388e+00 2.773404e+00
<GCONST> 9.267113e+01
<STATE> 4
<MEAN> 25
 -5.622337e+00 9.592348e-01 1.232254e+00 3.536999e+00 5.944043e+00 2.804982e+00 6.527650e+00 3.685029e+00 5.441327e+00 4.520184e-02 2.511177e+00 3.072976e+00 1.878271e-01 -2.569341e-01 -7.077480e-02 -7.036760e-02 -3.089359e-01 3.388025e-02 -2.172834e-01 -2.284921e-01 -1.734573e-01 4.116450e-02 -1.129083e-01 -1.623726e-01 4.445551e-01
<VARIANCE> 25
 1.362999e+01 1.447110e+01 1.459811e+01 1.799769e+01 2.716331e+01 2.119538e+01 2.469858e+01 2.941538e+01 2.046477e+01 1.751704e+01 1.803116e+01 1.463309e+01 1.695564e+00 1.712443e+00 1.509433e+00 1.963694e+00 2.519542e+00 1.954547e+00 2.361398e+00 2.974384e+00 2.556182e+00 2.022485e+00 2.176504e+00 1.572259e+00 2.309581e+00
<GCONST> 9.060984e+01
<TRANSP> 5
 0.000000e+00 1.000000e+00 0.000000e+00 0.000000e+00 0.000000e+00
 0.000000e+00 6.249228e-01 3.750772e-01 0.000000e+00 0.000000e+00
 0.000000e+00 0.000000e+00 5.006588e-01 4.993412e-01 0.000000e+00
 0.000000e+00 0.000000e+00 0.000000e+00 9.015959e-01 9.840414e-02
 0.000000e+00 0.000000e+00 0.000000e+00 0.000000e+00 0.000000e+00
<ENDHMM>
~h "v"
<BEGINHMM>
<NUMSTATES> 5
<STATE> 2
<MEAN> 25
 4.712199e+00 -4.919009e-01 4.810362e+00 4.052743e+00 -5.275995e+00 -7.817887e+00 -2.413966e+00 -5.058777e-01 -2.940552e+00 9.426047e-01 -9.274991e-01 -1.691658e+00 -9.567134e-01 8.870286e-01 -8.120002e-02 6.763902e-01 9.790367e-01 1.149320e+00 8.402272e-01 -5.008936e-01 1.238966e+00 -1.116821e+00 -2.570908e-01 -4.237429e-02 -1.034002e+00
<VARIANCE> 25
 1.548569e+01 1.738001e+01 3.076314e+01 3.808088e+01 4.362684e+01 2.697063e+01 3.926432e+01 2.541264e+01 2.385333e+01 2.757624e+01 1.309294e+01 1.407161e+01 1.409660e+00 1.481448e+00 1.493150e+00 1.907058e+00 2.833166e+00 2.825837e+00 2.455965e+00 2.795174e+00 2.372885e+00 2.289151e+00 2.009220e+00 1.421031e+00 5.177093e-01
<GCONST> 9.216179e+01
<STATE> 3
<MEAN> 25
 4.381956e-01 1.868404e+00 3.605944e+00 8.114628e+00 -1.349340e+00 -1.267012e+00 1.629301e+00 -8.890320e-01 1.640921e+00 -3.351553e+00 -9.441984e-01 -2.088120e+00 -1.056908e+00 6.025601e-03 -3.193919e-01 3.433267e-01 4.292411e-01 1.200776e+00 4.078993e-01 -1.372982e-01 5.972937e-01 -2.464244e-01 4.298314e-04 -1.201473e-01 -2.972870e-01
<VARIANCE> 25
 1.952248e+01 2.274488e+01 1.742293e+01 2.568127e+01 3.235397e+01 2.184509e+01 2.900588e+01 1.808215e+01 1.841401e+01 2.237758e+01 1.129016e+01 1.744071e+01 1.234613e+00 8.212819e-01 1.145496e+00 1.335316e+00 1.238092e+00 1.760109e+00 1.625725e+00 2.023474e+00 1.824385e+00 1.986673e+00 1.272671e+00 1.131424e+00 3.415607e-01
<GCONST> 8.526010e+01
<STATE> 4
<MEAN> 25
 -3.181487e+00 -7.883515e-01 6.373511e-01 5.138664e+00 1.142135e+00 1.566905e-01 1.960549e+00 -7.096987e-01 2.941271e+00 -2.063913e+00 -4.053569e-01 -5.156720e-01 4.985166e-02 -2.614760e-01 -2.398474e-01 -4.437607e-01 2.663601e-01 5.715467e-02 -1.414078e-01 -1.534994e-01 -1.393263e-01 3.343072e-01 1.291903e-01 5.592743e-02 -1.896456e-01
<VARIANCE> 25
 1.979012e+01 1.606150e+01 1.113508e+01 2.072142e+01 3.738729e+01 1.955653e+01 3.058735e+01 2.987167e+01 1.752645e+01 1.816465e+01 1.816195e+01 1.662748e+01 9.586846e-01 9.436563e-01 9.279758e-01 1.259892e+00 1.683919e+00 1.648703e+00 1.462029e+00 2.222808e+00 1.605515e+00 1.380430e+00 1.650814e+00 1.371271e+00 7.682004e-01
<GCONST> 8.564046e+01
<TRANSP> 5
 0.000000e+00 1.000000e+00 0.000000e+00 0.000000e+00 0.000000e+00
 0.000000e+00 7.396197e-01 2.603803e-01 0.000000e+00 0.000000e+00
 0.000000e+00 0.000000e+00 6.099950e-01 3.900050e-01 0.000000e+00
 0.000000e+00 0.000000e+00 0.000000e+00 8.413728e-01 1.586272e-01
 0.000000e+00 0.000000e+00 0.000000e+00 0.000000e+00 0.000000e+00
<ENDHMM>
~h "w"
<BEGINHMM>
<NUMSTATES> 5
<STATE> 2
<MEAN> 25
 5.061251e+00 5.639191e+00 -3.653400e+00 -3.427929e+00 7.169459e-01 3.909610e-01 -2.044270e+00 -3.409321e+00 -3.289115e+00 3.747680e-01 2.489218e+00 1.135550e+00 1.644406e+00 5.974475e-01 -9.344921e-01 -8.852357e-01 -9.661151e-01 -1.101044e-01 -9.579360e-01 -5.956233e-01 -1.211541e+00 6.100730e-01 2.120784e-01 -2.199432e-01 9.038172e-01
<VARIANCE> 25
 5.104158e+01 2.524917e+01 2.285250e+01 3.638966e+01 3.947854e+01 3.319733e+01 4.957428e+01 4.977750e+01 6.916725e+01 2.648404e+01 2.290076e+01 2.241966e+01 3.473823e+00 3.407147e+00 1.079413e+00 3.306655e+00 3.240649e+00 2.837663e+00 2.990873e+00 4.162371e+00 4.568071e+00 3.791417e+00 3.016229e+00 3.304994e+00 1.875916e+00
<GCONST> 1.028394e+02
<STATE> 3
<MEAN> 25
 1.076877e+01 2.185119e+00 -6.686512e+00 -5.692726e+00 -5.260278e+00 -8.639713e-01 -6.422913e+00 -2.278791e+00 -8.194468e+00 4.228406e+00 2.526311e+00 -1.907362e+00 -1.654535e-01 -1.196598e+00 2.308069e-01 4.151717e-01 -1.671893e-01 -1.567153e-01 2.629429e-01 1.120986e+00 -1.531017e-01 9.606014e-02 -5.867867e-01 -2.223424e-01 7.352716e-01
<VARIANCE> 25
 5.057305e+00 5.483536e+01 2.605360e+01 5.539891e+01 2.091720e+01 3.414786e+01 5.047100e+01 5.962771e+01 2.667825e+01 2.420399e+01 2.442840e+01 2.164195e+01 4.185691e-01 1.209855e+00 2.019747e+00 1.131815e+00 1.672366e+00 2.930264e+00 2.378611e+00 2.984709e+00 2.462081e+00 2.383523e+00 1.746324e+00 1.655289e+00 3.953839e-01
<GCONST> 9.176727e+01
<STATE> 4
<MEAN> 25
 8.744763e+00 -4.848145e+00 -4.247466e+00 -6.240158e+00 -8.316671e-01 5.549994e+00 -6.518448e+00 2.628372e+00 -6.525077e+00 4.430756e+00 -5.978669e+00 -5.417744e-01 -3.640575e-01 -6.904961e-01 2.922370e-01 5.043676e-01 3.124364e-01 2.088603e-02 -3.195696e-01 3.313545e-01 2.096624e-01 -1.254278e-01 -4.782245e-01 7.539423e-03 3.332977e-01
<VARIANCE> 25
 6.185267e+00 5.729906e+01 1.651144e+01 3.441922e+01 2.910202e+01 4.828809e+01 3.117673e+01 2.892713e+01 1.638549e+01 1.804803e+01 3.161607e+01 1.400441e+01 1.572110e-01 9.613496e-01 6.867414e-01 8.150080e-01 1.459041e+00 1.607474e+00 1.400119e+00 8.913888e-01 9.123295e-01 1.058948e+00 8.866035e-01 7.380018e-01 4.144663e-01
<GCONST> 8.125964e+01
<TRANSP> 5
 0.000000e+00 1.000000e+00 0.000000e+00 0.000000e+00 0.000000e+00
 0.000000e+00 8.436915e-01 1.563085e-01 0.000000e+00 0.000000e+00
 0.000000e+00 0.000000e+00 8.175907e-01 1.824093e-01 0.000000e+00
 0.000000e+00 0.000000e+00 0.000000e+00 8.556755e-01 1.443245e-01
 0.000000e+00 0.000000e+00 0.000000e+00 0.000000e+00 0.000000e+00
<ENDHMM>
~h "y"
<BEGINHMM>
<NUMSTATES> 5
<STATE> 2
<MEAN> 25
 1.095112e+00 5.330342e+00 8.806880e+00 -4.799184e-01 -1.113962e+01 -4.332882e+00 -3.091345e+00 -3.292063e+00 -3.448372e+00 -2.170007e+00 1.042782e+00 -5.626235e+00 9.414445e-02 -3.617531e-02 8.815258e-01 -3.957399e-01 -1.698340e+00 -2.067631e-01 -3.583261e-01 1.786940e-01 -1.186512e+00 6.993933e-02 5.858176e-01 -8.216279e-01 4.485028e-01
<VARIANCE> 25
 1.504846e+01 3.354705e+01 3.684848e+01 2.952346e+01 6.448476e+01 3.249385e+01 3.254253e+01 2.662317e+01 3.821434e+01 2.387840e+01 2.462883e+01 2.490901e+01 1.333211e+00 2.993019e+00 2.496557e+00 2.743211e+00 5.870577e+00 2.929146e+00 3.821610e+00 3.534327e+00 3.371999e+00 3.483679e+00 2.192116e+00 2.564895e+00 1.256343e+00
<GCONST> 9.998466e+01
<STATE> 3
<MEAN> 25
 1.459637e+00 3.484769e+00 1.108459e+01 -2.958090e+00 -1.607322e+01 -2.675339e+00 -5.115855e+00 -3.171149e+00 -8.203909e+00 1.969842e-01 3.709252e+00 -8.369894e+00 9.251869e-02 -5.396881e-01 -4.483422e-01 5.257636e-01 -4.585413e-01 -5.896741e-01 8.054788e-02 3.556193e-01 -7.006935e-01 1.897585e-01 2.876090e-01 -1.194032e-01 2.498746e-01
<VARIANCE> 25
 7.278164e+00 1.879361e+01 1.991943e+01 3.390762e+01 5.422671e+01 3.612322e+01 2.844769e+01 2.088064e+01 3.301431e+01 3.917611e+01 1.979361e+01 3.311831e+01 4.882095e-01 2.435164e+00 1.484660e+00 2.072234e+00 3.869189e+00 2.811835e+00 2.604890e+00 2.983200e+00 2.179581e+00 2.373102e+00 2.144830e+00 2.610558e+00 1.347396e+00
<GCONST> 9.439632e+01
<STATE> 4
<MEAN> 25
 5.102674e+00 -1.840850e+00 2.854059e+00 2.110854e+00 -1.120097e+01 -6.675648e+00 -1.006387e+01 1.818916e-01 -8.440680e+00 -1.534481e-01 3.376921e+00 -8.764985e+00 4.887592e-01 -5.308681e-01 -1.356159e+00 1.092937e-01 1.504371e+00 3.879227e-02 -8.339562e-01 1.585082e-01 5.271686e-01 3.023967e-01 -5.040146e-01 4.226845e-01 1.477322e-02
<VARIANCE> 25
 8.882230e+00 3.165740e+01 4.610939e+01 3.172103e+01 6.932161e+01 4.164848e+01 4.906131e+01 2.932892e+01 3.073479e+01 3.521314e+01 2.913644e+01 2.834597e+01 4.482084e-01 1.272095e+00 1.930252e+00 1.956604e+00 4.106993e+00 3.003141e+00 3.996710e+00 4.006715e+00 2.512784e+00 2.719124e+00 2.556076e+00 2.654282e+00 9.295429e-01
<GCONST> 9.763301e+01
<TRANSP> 5
 0.000000e+00 1.000000e+00 0.000000e+00 0.000000e+00 0.000000e+00
 0.000000e+00 8.527634e-01 1.472366e-01 0.000000e+00 0.000000e+00
 0.000000e+00 0.000000e+00 5.726141e-01 4.273859e-01 0.000000e+00
 0.000000e+00 0.000000e+00 0.000000e+00 8.668912e-01 1.331088e-01
 0.000000e+00 0.000000e+00 0.000000e+00 0.000000e+00 0.000000e+00
<ENDHMM>
~h "z"
<BEGINHMM>
<NUMSTATES> 5
<STATE> 2
<MEAN> 25
 -1.331959e-01 7.623800e+00 1.681084e+00 2.677400e+00 -8.401836e-01 -3.891292e+00 -4.541265e-01 -4.657299e+00 2.911696e+00 -2.160304e+00 -1.782016e+00 8.025379e-01 -2.521419e+00 2.084515e+00 -1.268314e+00 1.521968e+00 1.196786e+00 2.983645e-02 1.852639e+00 -6.447096e-01 1.238963e+00 -1.035604e+00 5.722719e-01 -8.219005e-01 3.362715e-01
<VARIANCE> 25
 3.375475e+01 2.608853e+01 3.118333e+01 2.693999e+01 4.356886e+01 3.139405e+01 5.211869e+01 4.235037e+01 2.593360e+01 2.288807e+01 2.093879e+01 2.437286e+01 5.059209e+00 2.177214e+00 3.066960e+00 3.740334e+00 4.604435e+00 3.170277e+00 5.395905e+00 3.707867e+00 3.700936e+00 2.711752e+00 3.076885e+00 3.346534e+00 1.158569e+00
<GCONST> 1.023040e+02
<STATE> 3
<MEAN> 25
 -1.253184e+01 1.455468e+01 -4.828389e+00 8.840629e+00 3.597676e+00 -1.632947e+00 8.133009e+00 -4.530818e+00 6.996703e+00 -2.415611e+00 7.971156e-01 -3.148688e-01 -2.043482e+00 4.625721e-01 -6.887520e-01 1.382822e+00 7.678478e-01 9.885705e-01 1.130049e+00 4.470885e-01 3.645481e-01 5.516063e-01 3.986099e-01 9.072670e-02 5.242846e-02
<VARIANCE> 25
 2.596576e+01 1.619558e+01 2.063503e+01 3.054711e+01 1.647664e+01 2.671986e+01 2.143307e+01 2.325797e+01 2.005236e+01 9.054576e+00 2.305031e+01 1.775784e+01 1.747610e+00 1.916348e+00 1.848260e+00 1.421973e+00 2.343039e+00 2.504095e+00 1.451602e+00 2.258239e+00 1.746439e+00 1.036166e+00 2.478170e+00 2.210914e+00 3.640203e-01
<GCONST> 8.836482e+01
<STATE> 4
<MEAN> 25
 -1.272319e+01 8.175926e+00 -3.815263e+00 6.918986e+00 5.824924e+00 7.449664e-01 9.354237e+00 -1.404285e+00 6.306121e+00 -8.973799e-01 2.690151e+00 1.257856e+00 5.640382e-01 -5.734798e-01 5.321590e-01 -4.296605e-01 -1.334997e-01 -5.955186e-02 -3.628067e-02 1.763850e-01 -9.634110e-02 9.511561e-02 -2.629725e-02 1.266883e-01 -4.520674e-01
<VARIANCE> 25
 2.679015e+01 2.920755e+01 2.303143e+01 2.909168e+01 2.794915e+01 3.135625e+01 2.041577e+01 2.850616e+01 1.607561e+01 1.520490e+01 1.687468e+01 1.505019e+01 1.362260e+00 1.086806e+00 1.666345e+00 1.505075e+00 2.745922e+00 2.132906e+00 1.876073e+00 2.056475e+00 2.030191e+00 1.742732e+00 1.465038e+00 1.541910e+00 7.057703e-01
<GCONST> 8.945472e+01
<TRANSP> 5
 0.000000e+00 1.000000e+00 0.000000e+00 0.000000e+00 0.000000e+00
 0.000000e+00 7.505041e-01 2.494959e-01 0.000000e+00 0.000000e+00
 0.000000e+00 0.000000e+00 6.961870e-01 3.038130e-01 0.000000e+00
 0.000000e+00 0.000000e+00 0.000000e+00 9.218702e-01 7.812975e-02
 0.000000e+00 0.000000e+00 0.000000e+00 0.000000e+00 0.000000e+00
<ENDHMM>
~h "aa"
<BEGINHMM>
<NUMSTATES> 5
<STATE> 2
<MEAN> 25
 2.516583e+00 -3.980961e+00 -5.644775e+00 -2.390988e+00 4.073072e+00 4.183953e+00 4.586023e-01 -4.128864e+00 -6.603374e-01 2.264761e+00 -1.910891e+00 2.373508e-01 1.942601e+00 -1.344212e+00 -1.296122e+00 -1.800884e+00 -9.166318e-01 5.002683e-01 -1.077102e+00 -8.237429e-01 -1.371503e+00 9.198918e-01 -1.087757e+00 -3.493108e-01 2.117069e+00
<VARIANCE> 25
 4.122572e+01 6.644597e+01 2.880038e+01 2.934575e+01 3.956083e+01 1.958307e+01 5.380806e+01 5.864758e+01 3.292538e+01 5.750593e+01 4.377623e+01 1.841208e+01 3.495808e+00 6.578510e+00 3.208801e+00 3.412727e+00 2.843658e+00 2.387271e+00 4.076968e+00 3.862391e+00 3.022059e+00 6.112206e+00 4.244603e+00 1.383257e+00 5.685861e+00
<GCONST> 1.061746e+02
<STATE> 3
<MEAN> 25
 9.270220e+00 -6.831293e+00 -9.399512e+00 -6.310321e+00 7.256020e-01 7.010181e+00 -2.280625e+00 -5.187618e+00 -6.317842e+00 6.595159e+00 -5.726819e+00 -2.168455e+00 2.986716e-01 2.483093e-01 -2.858017e-02 -1.220287e-01 -3.600839e-01 2.520985e-01 1.182641e-01 3.404183e-01 -2.233061e-01 8.516461e-03 -4.386955e-02 -2.584839e-01 -6.542489e-02
<VARIANCE> 25
 1.441670e+01 3.550394e+01 2.211225e+01 2.054433e+01 2.016029e+01 3.009028e+01 2.623746e+01 2.876731e+01 2.899981e+01 3.878040e+01 4.831673e+01 1.877863e+01 7.430362e-01 1.299331e+00 1.190798e+00 1.602201e+00 1.561291e+00 1.738644e+00 1.577748e+00 1.520177e+00 1.412143e+00 2.449134e+00 1.430624e+00 1.119763e+00 9.036325e-01
<GCONST> 8.926873e+01
<STATE> 4
<MEAN> 25
 6.656140e+00 -1.080170e+00 -6.430672e+00 -5.579389e+00 1.496787e+00 5.031765e+00 3.745896e-01 -2.202517e+00 -4.190936e+00 2.468111e+00 -1.826292e+00 -2.702378e+00 -5.107476e-01 4.034839e-01 2.430246e-01 4.470477e-01 6.100839e-02 -4.581246e-01 -4.500621e-01 5.164850e-01 5.601325e-01 -3.112094e-01 2.078501e-01 2.541555e-01 -5.085422e-01
<VARIANCE> 25
 2.364366e+01 2.550081e+01 2.750643e+01 4.224667e+01 2.637205e+01 2.931726e+01 4.104755e+01 2.873593e+01 2.108845e+01 4.526649e+01 3.321755e+01 2.396451e+01 1.777050e+00 1.903519e+00 2.283881e+00 3.644053e+00 2.334747e+00 2.309606e+00 2.835541e+00 2.555818e+00 2.689725e+00 3.517009e+00 2.492428e+00 2.433053e+00 1.742286e+00
<GCONST> 9.827884e+01
<TRANSP> 5
 0.000000e+00 1.000000e+00 0.000000e+00 0.000000e+00 0.000000e+00
 0.000000e+00 7.153561e-01 2.846440e-01 0.000000e+00 0.000000e+00
 0.000000e+00 0.000000e+00 8.415784e-01 1.584216e-01 0.000000e+00
 0.000000e+00 0.000000e+00 0.000000e+00 7.191775e-01 2.808225e-01
 0.000000e+00 0.000000e+00 0.000000e+00 0.000000e+00 0.000000e+00
<ENDHMM>
~h "ae"
<BEGINHMM>
<NUMSTATES> 5
<STATE> 2
<MEAN> 25
 -1.174678e+00 -4.149264e+00 -5.382488e-01 2.068552e+00 3.554564e+00 -1.066396e-01 1.777174e+00 1.508183e+00 1.762261e+00 -3.045395e-01 -1.325625e+00 -1.316044e+00 9.280431e-01 -3.315556e+00 -5.384260e-01 -1.016020e+00 -1.239231e+00 -7.858727e-01 -2.826364e-01 6.028650e-01 -1.072774e+00 3.891548e-02 -7.566089e-01 1.552638e-01 2.590590e+00
<VARIANCE> 25
 3.245282e+01 4.227040e+01 2.136025e+01 2.875314e+01 4.918185e+01 2.781856e+01 5.114756e+01 3.390552e+01 2.758013e+01 3.109745e+01 2.595683e+01 1.643673e+01 2.535008e+00 4.277064e+00 1.646050e+00 2.255525e+00 2.847713e+00 3.066972e+00 4.566700e+00 3.642116e+00 2.338721e+00 4.409762e+00 3.342106e+00 1.578160e+00 4.534371e+00
<GCONST> 1.012625e+02
<STATE> 3
<MEAN> 25
 2.012560e+00 -1.376878e+01 -1.363418e+00 -1.375287e+00 -4.525070e-01 -1.850655e+00 2.431474e+00 3.459251e+00 -1.632268e+00 -1.191264e-02 -3.475465e+00 -4.056697e-01 1.605179e+00 -2.113290e+00 -3.013538e-01 -8.092130e-01 -1.191110e+00 -5.836850e-01 5.478038e-02 3.410907e-01 -1.368686e+00 -2.410639e-01 -1.271830e+00 2.894732e-01 3.004540e+00
<VARIANCE> 25
 2.512967e+01 5.178842e+01 1.457433e+01 1.796500e+01 4.390768e+01 2.884423e+01 6.250123e+01 2.369979e+01 2.388348e+01 2.542252e+01 2.150620e+01 1.270866e+01 2.672051e+00 5.466580e+00 1.850863e+00 1.743979e+00 2.023132e+00 1.564343e+00 3.013995e+00 3.511852e+00 1.490598e+00 1.747758e+00 1.385597e+00 1.265056e+00 6.374369e+00
<GCONST> 9.588581e+01
<STATE> 4
<MEAN> 25
 6.251780e+00 -1.122889e+01 -1.146320e+00 -1.866865e+00 -3.191958e+00 -3.199832e+00 1.046507e+00 4.011683e+00 -4.603684e+00 1.065255e+00 -7.888405e+00 2.907770e-01 9.169187e-02 8.684230e-01 -8.303762e-02 1.214438e-01 7.381760e-02 -6.897289e-02 2.601755e-02 -2.158078e-02 1.293986e-01 -1.654373e-01 -1.050915e-01 -3.665060e-03 -7.026101e-01
<VARIANCE> 25
 7.207370e+00 3.161220e+01 2.067887e+01 1.252709e+01 2.691810e+01 2.009112e+01 3.363259e+01 1.762717e+01 2.066765e+01 3.290107e+01 1.989583e+01 1.295399e+01 8.600380e-01 1.754861e+00 8.443868e-01 8.632060e-01 1.693449e+00 1.629725e+00 2.348237e+00 1.822751e+00 1.598075e+00 2.758225e+00 1.449493e+00 9.367538e-01 1.814839e+00
<GCONST> 8.663440e+01
<TRANSP> 5
 0.000000e+00 1.000000e+00 0.000000e+00 0.000000e+00 0.000000e+00
 0.000000e+00 4.956017e-01 5.043982e-01 0.000000e+00 0.000000e+00
 0.000000e+00 0.000000e+00 5.118799e-01 4.881201e-01 0.000000e+00
 0.000000e+00 0.000000e+00 0.000000e+00 9.183527e-01 8.164733e-02
 0.000000e+00 0.000000e+00 0.000000e+00 0.000000e+00 0.000000e+00
<ENDHMM>
~h "ah"
<BEGINHMM>
<NUMSTATES> 5
<STATE> 2
<MEAN> 25
 4.389742e+00 -5.927455e+00 1.307661e+00 -9.156010e-01 -4.119845e+00 -3.272288e+00 -6.850585e+00 9.850059e-01 -3.724482e+00 3.752974e+00 -2.010538e+00 -2.053162e+00 6.104259e-01 -7.833601e-01 -5.267723e-01 -3.539482e-01 1.664695e-02 8.566514e-03 -5.585207e-01 2.172703e-01 4.191440e-02 3.711215e-01 -1.058593e+00 1.362519e-02 8.249367e-01
<VARIANCE> 25
 1.918969e+01 3.942515e+01 3.777071e+01 2.605521e+01 7.208938e+01 3.615136e+01 6.261669e+01 3.362448e+01 3.744936e+01 3.027095e+01 3.156985e+01 2.283860e+01 1.894066e+00 3.382080e+00 2.115555e+00 2.690665e+00 4.186584e+00 2.054496e+00 3.470668e+00 3.023594e+00 3.477911e+00 3.547316e+00 2.620614e+00 1.864915e+00 3.830809e+00
<GCONST> 1.021405e+02
<STATE> 3
<MEAN> 25
 6.301039e+00 -7.165753e+00 -1.748184e+00 -2.365947e+00 -1.662808e+00 -1.231476e+00 -6.990971e+00 5.013141e-01 -2.860990e+00 3.303380e+00 -5.456122e+00 -1.359485e+00 2.192662e-01 6.497426e-01 -4.181537e-01 -1.555575e-01 4.754918e-01 3.386177e-01 1.569681e-01 -4.202821e-01 4.134793e-01 -5.115147e-01 -2.738442e-01 1.777084e-01 -5.203750e-01
<VARIANCE> 25
 1.110110e+01 3.554556e+01 2.606791e+01 2.219609e+01 4.835227e+01 4.515655e+01 5.082692e+01 3.535862e+01 2.886334e+01 3.213311e+01 3.498571e+01 2.056010e+01 7.467074e-01 1.853080e+00 1.628158e+00 1.482774e+00 2.055127e+00 2.007649e+00 2.462455e+00 2.062175e+00 2.130383e+00 2.322642e+00 1.964683e+00 1.563384e+00 1.627212e+00
<GCONST> 9.433520e+01
<STATE> 4
<MEAN> 25
 3.521326e+00 -3.516917e+00 -2.833600e+00 1.457339e-01 3.852654e+00 1.740042e+00 1.058209e-01 1.672575e+00 -4.007591e-01 -4.001853e-01 -4.440255e+00 7.169567e-01 -2.122960e-01 7.385274e-01 6.557204e-02 1.549397e-01 2.724768e-01 1.267684e-01 4.683198e-01 -1.162420e-01 3.243454e-01 -3.563625e-01 2.809580e-01 8.113956e-02 -7.596253e-01
<VARIANCE> 25
 3.079329e+01 3.705556e+01 2.220460e+01 3.156666e+01 4.529070e+01 3.952401e+01 6.437189e+01 3.652291e+01 3.714663e+01 3.657362e+01 5.201198e+01 1.770452e+01 8.076564e-01 2.011886e+00 1.280971e+00 1.807374e+00 1.923644e+00 2.497067e+00 2.582925e+00 2.527091e+00 2.214812e+00 2.792785e+00 1.781689e+00 1.421001e+00 1.230007e+00
<GCONST> 9.655960e+01
<TRANSP> 5
 0.000000e+00 1.000000e+00 0.000000e+00 0.000000e+00 0.000000e+00
 0.000000e+00 6.517132e-01 3.482868e-01 0.000000e+00 0.000000e+00
 0.000000e+00 0.000000e+00 5.686511e-01 4.313489e-01 0.000000e+00
 0.000000e+00 0.000000e+00 0.000000e+00 7.668201e-01 2.331800e-01
 0.000000e+00 0.000000e+00 0.000000e+00 0.000000e+00 0.000000e+00
<ENDHMM>
~h "ao"
<BEGINHMM>
<NUMSTATES> 5
<STATE> 2
<MEAN> 25
 5.583814e+00 -1.010110e+00 -8.865238e+00 -3.548024e+00 -6.581068e-02 4.746494e+00 2.244914e+00 -1.444501e+00 -7.449612e+00 1.392241e+00 3.241585e+00 6.815827e-01 2.606833e+00 6.239642e-01 -1.379680e+00 -2.133807e+00 -1.238731e+00 1.386627e-01 -6.749073e-02 5.809485e-01 -2.515501e+00 -3.045073e-01 5.941290e-01 1.093730e+00 1.132002e+00
<VARIANCE> 25
 3.303948e+01 2.167678e+01 3.023874e+01 2.575213e+01 3.132572e+01 2.041263e+01 1.969652e+01 3.227224e+01 4.133691e+01 3.487194e+01 3.184441e+01 1.787665e+01 3.014149e+00 2.994775e+00 4.948301e+00 4.528211e+00 2.797594e+00 4.109897e+00 1.945580e+00 4.952677e+00 5.624402e+00 4.547441e+00 4.215203e+00 3.101840e+00 2.914601e+00
<GCONST> 1.026109e+02
<STATE> 3
<MEAN> 25
 1.194653e+01 1.283788e+00 -1.041479e+01 -6.904544e+00 -5.542840e+00 2.508503e+00 9.575237e-01 1.517833e+00 -1.228587e+01 -2.198169e+00 4.744983e+00 3.855388e+00 8.799971e-01 9.975819e-02 -6.860055e-01 -9.585600e-01 -9.158745e-01 -2.238552e-01 -6.743057e-01 6.357657e-01 -1.039709e+00 -5.118610e-02 3.238150e-01 2.941580e-01 5.845498e-01
<VARIANCE> 25
 8.340934e+00 2.600721e+01 1.082230e+01 1.630025e+01 2.174107e+01 2.186563e+01 1.413203e+01 3.506009e+01 2.846945e+01 2.853033e+01 4.077680e+01 1.837310e+01 1.091674e+00 1.021703e+00 1.379881e+00 1.660270e+00 2.565783e+00 1.402810e+00 1.362833e+00 1.437638e+00 1.388176e+00 1.817465e+00 2.427065e+00 1.043508e+00 5.365820e-01
<GCONST> 8.631131e+01
<STATE> 4
<MEAN> 25
 1.209405e+01 4.305748e-01 -1.271287e+01 -4.924657e+00 -4.873762e+00 2.408093e+00 -5.820505e+00 5.093029e-01 -1.152136e+01 9.301879e-01 7.607175e+00 1.856693e+00 -1.417317e-01 -2.418210e-01 -8.560827e-02 4.501652e-01 2.272879e-01 -1.866983e-01 -8.927338e-01 -3.949893e-02 6.629933e-01 4.591916e-01 -2.669972e-01 -1.324056e-01 1.268563e-01
<VARIANCE> 25
 2.965166e+00 1.478530e+01 1.712024e+01 3.658569e+01 1.574726e+01 2.281069e+01 4.363625e+01 2.711223e+01 2.921940e+01 2.360152e+01 4.143187e+01 1.565369e+01 1.078267e-01 7.543205e-01 4.885330e-01 1.046531e+00 6.824691e-01 9.391623e-01 1.204296e+00 1.185564e+00 1.954543e+00 8.299940e-01 1.402421e+00 6.293091e-01 1.810132e-01
<GCONST> 7.751907e+01
<TRANSP> 5
 0.000000e+00 1.000000e+00 0.000000e+00 0.000000e+00 0.000000e+00
 0.000000e+00 7.078567e-01 2.921433e-01 0.000000e+00 0.000000e+00
 0.000000e+00 0.000000e+00 4.843451e-01 5.156549e-01 0.000000e+00
 0.000000e+00 0.000000e+00 0.000000e+00 9.014561e-01 9.854399e-02
 0.000000e+00 0.000000e+00 0.000000e+00 0.000000e+00 0.000000e+00
<ENDHMM>
~h "aw"
<BEGINHMM>
<NUMSTATES> 5
<STATE> 2
<MEAN> 25
 7.841997e+00 -1.118122e+01 -6.524772e+00 -2.406400e+00 1.369127e+00 2.163882e+00 -4.941660e+00 2.925986e+00 -6.363877e+00 8.386880e+00 -8.457976e+00 -4.004423e+00 2.067513e-01 -1.428850e-01 -3.942600e-01 -4.203343e-01 3.547095e-01 6.198344e-01 2.117261e-01 -1.224058e-01 -7.844675e-01 1.759086e-01 -5.362191e-01 -1.086626e-01 -5.711025e-02
<VARIANCE> 25
 3.145207e+00 2.200520e+01 6.292335e+00 1.788288e+01 2.386380e+01 2.004491e+01 2.224061e+01 3.785630e+01 1.949573e+01 2.531127e+01 2.142538e+01 1.346753e+01 4.517989e-01 1.214724e+00 6.998655e-01 8.597592e-01 1.479811e+00 1.015610e+00 1.255625e+00 1.940222e+00 1.899551e+00 1.551065e+00 3.191333e+00 1.144158e+00 3.060800e-01
<GCONST> 8.106124e+01
<STATE> 3
<MEAN> 25
 8.809775e+00 -5.381072e+00 -8.462543e+00 -8.737719e+00 -2.155474e-01 8.071177e+00 -3.294900e+00 -4.675676e+00 -8.748501e+00 1.070401e+01 -3.593382e+00 -3.450186e+00 9.277356e-02 5.350295e-01 -6.686687e-03 2.868010e-01 -3.347358e-01 -3.967233e-01 -5.203884e-02 -2.987084e-01 3.732070e-02 -2.566712e-01 7.374061e-01 -2.499790e-02 -5.508108e-01
<VARIANCE> 25
 5.290917e+00 1.449419e+01 8.818329e+00 3.433040e+01 1.831271e+01 3.423333e+01 2.100994e+01 2.470486e+01 1.862909e+01 1.773020e+01 2.799459e+01 1.429439e+01 1.939359e-01 7.027687e-01 5.402987e-01 1.749334e+00 1.444941e+00 2.194366e+00 2.011908e+00 1.743880e+00 1.763138e+00 1.686965e+00 1.464436e+00 1.076758e+00 2.239431e-01
<GCONST> 8.089307e+01
<STATE> 4
<MEAN> 25
 8.923718e+00 -5.757152e-01 -5.702514e+00 -2.279179e+00 -3.126665e+00 3.825701e-01 -6.241459e+00 -5.372755e+00 -3.657250e+00 1.715020e+00 -1.614760e+00 -2.194411e+00 -2.761377e-01 8.098563e-01 1.232922e+00 8.065805e-01 -1.291801e-01 -1.029625e+00 -1.137832e-01 2.354193e-01 1.206554e+00 -1.558887e+00 -8.593532e-01 5.650067e-01 -6.938399e-01
<VARIANCE> 25
 7.156603e+00 1.934437e+01 2.347312e+01 4.252923e+01 2.423440e+01 4.987667e+01 4.806617e+01 2.711060e+01 3.505944e+01 3.152899e+01 3.247090e+01 1.852467e+01 2.830222e-01 1.457018e+00 1.109162e+00 1.523776e+00 2.132023e+00 1.591328e+00 3.468266e+00 2.638083e+00 2.830763e+00 1.365175e+00 2.081097e+00 1.601646e+00 6.093814e-01
<GCONST> 9.059539e+01
<TRANSP> 5
 0.000000e+00 1.000000e+00 0.000000e+00 0.000000e+00 0.000000e+00
 0.000000e+00 8.817120e-01 1.182880e-01 0.000000e+00 0.000000e+00
 0.000000e+00 0.000000e+00 8.985201e-01 1.014799e-01 0.000000e+00
 0.000000e+00 0.000000e+00 0.000000e+00 8.408732e-01 1.591268e-01
 0.000000e+00 0.000000e+00 0.000000e+00 0.000000e+00 0.000000e+00
<ENDHMM>
~h "ay"
<BEGINHMM>
<NUMSTATES> 5
<STATE> 2
<MEAN> 25
 9.886891e+00 -1.070328e+01 -8.571475e+00 -4.139553e+00 4.062127e+00 4.387044e+00 -4.116468e+00 -6.988232e-01 -3.110816e+00 2.750799e+00 -5.219244e+00 -1.702116e+00 -8.980053e-02 -6.971080e-01 5.686399e-02 1.540434e-01 4.490946e-01 2.923142e-01 1.667850e-01 7.014537e-01 -2.650921e-01 -1.341344e-02 -6.480725e-01 -2.781167e-01 2.123729e-01
<VARIANCE> 25
 7.691225e+00 1.650375e+01 1.985903e+01 9.516043e+00 2.240768e+01 3.112686e+01 4.313725e+01 3.607550e+01 4.096580e+01 3.510379e+01 3.859239e+01 2.020188e+01 1.931609e-01 4.584658e-01 1.046606e+00 7.893108e-01 9.787265e-01 1.302834e+00 1.418876e+00 1.187916e+00 1.367758e+00 8.536038e-01 1.284398e+00 8.692756e-01 2.118408e-01
<GCONST> 8.072272e+01
<STATE> 3
<MEAN> 25
 8.701396e+00 -1.296613e+01 -5.747099e+00 -2.325240e+00 3.268890e+00 1.407419e+00 -4.757365e+00 4.530354e+00 -1.901290e+00 1.377783e+00 -7.341115e+00 -3.142957e+00 -2.957234e-01 -3.115251e-01 1.007817e+00 3.231794e-01 -8.302035e-01 -8.269607e-01 5.995724e-02 1.208551e+00 -3.778706e-01 -1.969971e-01 -2.844327e-01 8.780563e-02 7.401286e-02
<VARIANCE> 25
 5.991670e+00 1.834281e+01 1.861024e+01 5.144809e+00 1.887084e+01 2.320431e+01 3.708705e+01 3.744624e+01 2.941179e+01 3.362253e+01 1.349688e+01 1.807108e+01 2.743742e-01 3.612766e-01 1.559289e+00 6.278525e-01 1.867789e+00 1.308910e+00 9.451577e-01 1.569340e+00 9.469133e-01 9.635827e-01 9.269621e-01 6.551993e-01 9.128404e-02
<GCONST> 7.689126e+01
<STATE> 4
<MEAN> 25
 4.863651e+00 -7.279168e+00 6.655097e+00 -4.285885e+00 -8.346462e+00 -2.610792e+00 -5.174553e+00 5.698476e+00 -7.599125e+00 4.755492e+00 -3.307571e+00 -9.569112e-01 -3.833124e-01 1.019201e+00 1.140048e+00 -1.604019e-01 -1.119560e+00 -4.098771e-01 -7.208353e-02 -5.531806e-01 -5.826961e-01 3.136301e-01 6.967351e-01 8.307011e-02 -4.100887e-01
<VARIANCE> 25
 6.853925e+00 2.530913e+01 4.689219e+01 1.544927e+01 3.252354e+01 3.249992e+01 2.572678e+01 5.692154e+01 2.999575e+01 2.823126e+01 3.193728e+01 1.616227e+01 3.753123e-01 1.043241e+00 2.757234e+00 1.354168e+00 2.202882e+00 1.514127e+00 1.604657e+00 2.114970e+00 1.519810e+00 2.052303e+00 1.767147e+00 1.018679e+00 2.145855e-01
<GCONST> 8.792136e+01
<TRANSP> 5
 0.000000e+00 1.000000e+00 0.000000e+00 0.000000e+00 0.000000e+00
 0.000000e+00 8.054022e-01 1.945979e-01 0.000000e+00 0.000000e+00
 0.000000e+00 0.000000e+00 7.170753e-01 2.829247e-01 0.000000e+00
 0.000000e+00 0.000000e+00 0.000000e+00 9.011360e-01 9.886395e-02
 0.000000e+00 0.000000e+00 0.000000e+00 0.000000e+00 0.000000e+00
<ENDHMM>
~h "ch"
<BEGINHMM>
<NUMSTATES> 5
<STATE> 2
<MEAN> 25
 -3.544075e-01 5.795666e+00 2.216834e+00 3.579057e+00 4.308497e+00 1.061945e+00 7.341373e+00 4.193398e+00 4.176630e+00 -4.184465e+00 3.720554e-01 2.567278e+00 -5.655805e-01 3.181508e-01 4.271988e-01 8.515790e-02 8.872271e-01 3.899308e-01 3.861729e-02 8.765976e-02 -2.876133e-02 -1.517927e-01 3.479868e-01 -8.255038e-01 -1.022420e+00
<VARIANCE> 25
 2.736158e+01 1.454337e+01 8.962118e+00 1.613586e+01 2.838500e+01 4.142281e+01 4.422748e+01 3.341443e+01 5.451262e+01 1.255462e+01 1.020455e+01 1.840878e+01 2.377197e+00 2.096043e+00 9.999558e-01 1.095930e+00 1.507394e+00 1.268137e+00 3.091122e+00 2.494296e+00 2.860164e+00 8.499636e-01 7.910697e-01 1.942752e+00 4.811049e-01
<GCONST> 8.801386e+01
<STATE> 3
<MEAN> 25
 -6.570451e+00 3.167300e+00 3.881951e+00 1.740804e+00 4.663222e+00 4.057546e+00 2.906486e+00 1.764255e+00 4.414462e+00 -1.143913e+00 4.321884e+00 -6.165187e-01 -1.828619e+00 -1.244701e+00 4.798215e-01 -3.599108e-01 -1.979623e-01 1.272259e+00 -9.244976e-01 -9.387200e-01 5.353844e-01 5.740539e-01 8.545983e-01 4.402295e-03 9.959936e-01
<VARIANCE> 25
 2.679528e+01 1.569425e+01 7.903768e+00 1.851423e+01 2.365428e+01 3.500023e+01 4.536304e+01 5.009789e+01 6.876144e+01 3.838424e+01 1.663821e+01 2.254080e+01 2.033892e+00 1.322142e+00 5.334847e-01 8.771929e-01 2.103870e+00 2.411394e+00 3.843885e+00 3.096128e+00 3.356864e+00 3.174745e+00 1.963522e+00 1.911619e+00 1.278836e+00
<GCONST> 9.349256e+01
<STATE> 4
<MEAN> 25
 -1.143667e+01 -3.955783e+00 7.248687e+00 2.148755e+00 -5.639920e+00 1.746899e+00 8.317508e-01 -5.294162e+00 6.319321e+00 -1.251394e+00 2.871516e+00 5.248884e-02 1.445399e+00 -9.719035e-02 -1.485558e-01 9.732172e-02 -8.105810e-01 -1.510477e+00 -9.275925e-02 -2.845775e-01 -3.266051e-01 -4.690749e-02 -3.195284e-01 -3.836414e-03 5.013766e-01
<VARIANCE> 25
 4.882341e+01 1.127334e+01 6.009778e+00 3.958108e+01 2.786991e+01 5.447710e+01 1.589666e+01 2.451983e+01 3.851401e+01 1.401442e+01 1.396166e+01 9.023454e+00 7.639808e+00 2.017917e+00 1.821457e+00 2.105579e+00 3.607977e+00 2.391291e+00 2.470673e+00 3.916749e+00 4.532949e+00 2.120331e+00 1.527642e+00 1.352918e+00 1.739919e+00
<GCONST> 9.419466e+01
<TRANSP> 5
 0.000000e+00 1.000000e+00 0.000000e+00 0.000000e+00 0.000000e+00
 0.000000e+00 7.977062e-01 2.022939e-01 0.000000e+00 0.000000e+00
 0.000000e+00 0.000000e+00 8.309308e-01 1.690692e-01 0.000000e+00
 0.000000e+00 0.000000e+00 0.000000e+00 9.025372e-01 9.746277e-02
 0.000000e+00 0.000000e+00 0.000000e+00 0.000000e+00 0.000000e+00
<ENDHMM>
~h "dh"
<BEGINHMM>
<NUMSTATES> 5
<STATE> 2
<MEAN> 25
 8.310089e+00 -5.207960e+00 1.873109e+00 4.321373e+00 -9.745409e+00 -8.497917e+00 -5.124631e+00 2.358175e+00 2.289190e+00 -9.195675e-01 2.075056e-01 2.250909e+00 -1.390926e-01 1.820412e-01 2.242621e-01 1.408609e-01 1.831408e-01 -2.391436e-01 1.881960e-01 -4.918598e-03 -1.465553e-01 -4.259833e-01 2.663068e-01 8.844924e-02 -4.247194e-01
<VARIANCE> 25
 1.320587e+01 1.969244e+01 1.030102e+01 1.798629e+01 3.470964e+01 2.872796e+01 2.836843e+01 2.385911e+01 2.049906e+01 2.236272e+01 2.742267e+01 1.160835e+01 5.489539e-01 8.253426e-01 6.743179e-01 1.020621e+00 2.689734e+00 1.674687e+00 1.809842e+00 2.073556e+00 1.046368e+00 2.032052e+00 1.356810e+00 9.035122e-01 4.914950e-01
<GCONST> 8.395285e+01
<STATE> 3
<MEAN> 25
 3.441415e+00 -8.246155e-01 3.220519e+00 4.619013e+00 -4.048740e+00 -5.509364e+00 1.623325e+00 -1.503616e+00 -2.806539e+00 -4.629972e+00 6.635505e-02 -3.405595e-02 -1.090256e+00 3.950664e-01 -3.034644e-01 -5.998190e-02 1.181092e+00 1.013233e+00 9.355177e-01 8.961454e-02 4.365080e-02 -3.226395e-01 1.400954e-02 1.074834e-01 -9.859104e-01
<VARIANCE> 25
 2.084280e+01 1.097902e+01 1.349707e+01 1.559589e+01 1.769881e+01 2.513672e+01 2.332519e+01 3.192982e+01 2.911845e+01 1.443765e+01 1.528880e+01 1.611608e+01 5.821487e-01 6.211882e-01 6.440907e-01 1.164730e+00 1.428265e+00 1.411273e+00 1.824147e+00 2.771483e+00 2.734402e+00 1.711349e+00 1.830313e+00 4.435392e-01 3.595276e-01
<GCONST> 8.231707e+01
<STATE> 4
<MEAN> 25
 -5.976123e+00 1.085142e+00 4.581475e-01 3.187218e+00 7.214795e+00 3.201646e+00 4.844124e+00 3.203016e+00 5.049745e+00 -1.370598e+00 1.611638e+00 2.425469e+00 -1.158041e-01 5.494093e-02 -9.157857e-02 -7.637256e-02 3.121546e-01 2.217097e-01 -4.447159e-02 7.189624e-02 2.406886e-01 2.414249e-01 1.097732e-01 1.374990e-01 -1.303515e-01
<VARIANCE> 25
 9.526034e+00 5.601567e+00 1.836675e+01 1.073272e+01 2.691161e+01 1.485415e+01 1.790650e+01 2.152828e+01 2.358319e+01 1.958766e+01 1.138788e+01 2.090726e+01 6.732634e-01 5.919126e-01 1.066518e+00 1.265991e+00 1.458542e+00 1.575235e+00 1.483954e+00 1.475613e+00 1.619332e+00 1.625347e+00 1.407025e+00 1.205165e+00 3.059935e-01
<GCONST> 8.006879e+01
<TRANSP> 5
 0.000000e+00 1.000000e+00 0.000000e+00 0.000000e+00 0.000000e+00
 0.000000e+00 9.280798e-01 7.192018e-02 0.000000e+00 0.000000e+00
 0.000000e+00 0.000000e+00 7.797962e-01 2.202037e-01 0.000000e+00
 0.000000e+00 0.000000e+00 0.000000e+00 9.510577e-01 4.894229e-02
 0.000000e+00 0.000000e+00 0.000000e+00 0.000000e+00 0.000000e+00
<ENDHMM>
~h "eh"
<BEGINHMM>
<NUMSTATES> 5
<STATE> 2
<MEAN> 25
 5.379727e+00 -6.646073e+00 3.073058e+00 -2.132746e+00 -8.106705e+00 -4.996474e+00 -1.504001e+00 1.401389e+00 -5.156584e+00 4.606003e+00 -4.606071e+00 4.893805e-01 2.211317e-01 1.516399e-02 8.159658e-02 -7.484068e-02 -6.290162e-02 -9.826824e-02 4.632220e-03 3.048290e-01 -2.133251e-01 -6.410759e-02 -1.710742e-01 5.326489e-02 -9.982467e-02
<VARIANCE> 25
 6.956536e+00 2.964625e+01 2.824028e+01 1.734901e+01 3.590798e+01 2.182255e+01 2.866137e+01 2.950515e+01 2.314456e+01 2.160312e+01 3.161909e+01 2.012601e+01 7.335370e-01 2.184875e+00 1.498853e+00 1.090578e+00 2.423441e+00 1.490900e+00 1.736656e+00 1.852879e+00 2.000023e+00 1.737129e+00 1.758616e+00 1.294764e+00 1.842117e+00
<GCONST> 8.964014e+01
<STATE> 3
<MEAN> 25
 5.831933e+00 -3.736385e+00 1.791901e+00 5.174769e-02 -6.034029e+00 -4.643733e+00 -1.297208e+00 2.098393e+00 -3.039907e+00 1.360431e+00 -4.385015e+00 -6.181083e-01 2.580709e-02 6.493158e-01 -2.130837e-01 2.067443e-01 5.605217e-01 2.241263e-01 -9.386609e-02 -2.754306e-01 4.571662e-01 -5.108210e-01 3.547731e-01 -1.478077e-01 -8.346281e-01
<VARIANCE> 25
 9.632843e+00 5.196765e+01 1.889386e+01 1.908343e+01 3.107571e+01 2.761761e+01 3.448458e+01 2.642155e+01 2.430697e+01 3.811477e+01 2.692538e+01 1.984799e+01 9.576067e-01 2.174289e+00 1.734666e+00 1.736495e+00 2.737907e+00 2.159112e+00 2.344586e+00 1.497545e+00 1.798941e+00 3.184263e+00 1.564932e+00 1.570255e+00 1.453781e+00
<GCONST> 9.262006e+01
<STATE> 4
<MEAN> 25
 2.355480e+00 -4.379988e-02 9.855998e-01 1.612708e+00 -6.961803e-01 -2.326183e+00 1.306932e+00 2.390929e+00 1.459666e+00 -6.304520e-01 -1.837624e+00 9.036270e-01 -4.052711e-01 5.041244e-01 -1.560433e-01 -4.345401e-02 5.246408e-01 8.544536e-01 1.014655e-01 -2.983600e-01 4.860603e-01 -6.756935e-02 3.651164e-01 -1.830950e-01 -6.218853e-01
<VARIANCE> 25
 3.185425e+01 3.467572e+01 1.510028e+01 1.988039e+01 5.079949e+01 3.981971e+01 5.312722e+01 2.699671e+01 4.175412e+01 3.004698e+01 2.739471e+01 1.856484e+01 1.207983e+00 1.737288e+00 1.265991e+00 1.804162e+00 2.619941e+00 2.520279e+00 2.586620e+00 1.916034e+00 1.934634e+00 2.632978e+00 1.509639e+00 1.533247e+00 1.081167e+00
<GCONST> 9.450612e+01
<TRANSP> 5
 0.000000e+00 1.000000e+00 0.000000e+00 0.000000e+00 0.000000e+00
 0.000000e+00 8.608229e-01 1.391771e-01 0.000000e+00 0.000000e+00
 0.000000e+00 0.000000e+00 6.533993e-01 3.466007e-01 0.000000e+00
 0.000000e+00 0.000000e+00 0.000000e+00 5.961852e-01 4.038149e-01
 0.000000e+00 0.000000e+00 0.000000e+00 0.000000e+00 0.000000e+00
<ENDHMM>
~h "er"
<BEGINHMM>
<NUMSTATES> 5
<STATE> 2
<MEAN> 25
 1.012268e+01 -9.040806e+00 -3.616923e+00 5.088148e+00 -7.984411e+00 -8.962826e+00 -8.911390e+00 2.688667e+00 -3.980693e-01 -9.786670e-01 2.756248e+00 2.927948e+00 1.050837e-01 -2.283225e-01 8.543744e-02 1.675467e-01 -1.283804e-01 -4.654296e-01 6.049028e-02 2.806767e-01 9.910110e-02 -2.346065e-01 6.181611e-02 2.269802e-01 -1.094429e-01
<VARIANCE> 25
 8.732768e+00 1.276673e+01 3.360887e+01 1.736464e+01 4.266924e+01 2.637742e+01 2.940882e+01 2.585576e+01 1.807181e+01 1.719953e+01 1.395795e+01 1.437440e+01 2.678011e-01 5.951230e-01 1.126438e+00 7.522134e-01 1.412211e+00 1.221177e+00 1.602572e+00 1.361937e+00 9.629552e-01 8.204671e-01 7.132352e-01 8.656172e-01 1.920388e-01
<GCONST> 7.868600e+01
<STATE> 3
<MEAN> 25
 8.669964e+00 -6.797468e+00 1.045538e-01 4.796233e+00 -8.846527e+00 -1.094205e+01 -4.425898e+00 1.600847e+00 -1.069480e+00 -2.167057e+00 3.564930e+00 3.625612e+00 -5.671797e-01 9.150680e-01 8.509161e-01 -2.724658e-01 1.987559e-02 4.349673e-01 6.050306e-01 -3.790964e-01 -1.473294e-01 -6.316760e-02 -3.047655e-01 -1.095330e-01 -7.086554e-01
<VARIANCE> 25
 1.296278e+01 1.824207e+01 2.622710e+01 9.893181e+00 4.308507e+01 2.960146e+01 3.235890e+01 2.269011e+01 1.469592e+01 1.463461e+01 1.395527e+01 1.112939e+01 3.565481e-01 7.718276e-01 1.119738e+00 8.035566e-01 2.034872e+00 1.805835e+00 1.454447e+00 2.016304e+00 1.273572e+00 9.348665e-01 1.145651e+00 7.644899e-01 3.889328e-01
<GCONST> 8.121661e+01
<STATE> 4
<MEAN> 25
 -1.753471e+00 7.139671e-01 2.215367e+00 3.664000e+00 2.894067e+00 -1.752420e+00 3.680508e+00 5.395606e+00 3.800344e+00 -1.248964e+00 1.229057e+00 3.377695e+00 -6.766710e-01 3.357942e-01 1.344970e-02 -1.904443e-01 8.157408e-01 7.934408e-01 4.657187e-01 1.625574e-01 3.493639e-01 2.162688e-01 -9.486763e-02 -1.396425e-01 -5.778615e-01
<VARIANCE> 25
 2.471986e+01 1.105128e+01 1.536903e+01 1.066672e+01 4.616853e+01 5.155876e+01 2.815431e+01 2.040599e+01 2.549719e+01 2.126236e+01 1.580902e+01 1.354867e+01 8.023534e-01 1.006531e+00 1.099254e+00 1.176077e+00 1.973597e+00 2.310905e+00 2.248607e+00 2.379829e+00 2.590389e+00 1.778496e+00 1.579003e+00 1.350502e+00 6.037964e-01
<GCONST> 8.746577e+01
<TRANSP> 5
 0.000000e+00 1.000000e+00 0.000000e+00 0.000000e+00 0.000000e+00
 0.000000e+00 9.036734e-01 9.632663e-02 0.000000e+00 0.000000e+00
 0.000000e+00 0.000000e+00 7.285740e-01 2.714261e-01 0.000000e+00
 0.000000e+00 0.000000e+00 0.000000e+00 8.836597e-01 1.163404e-01
 0.000000e+00 0.000000e+00 0.000000e+00 0.000000e+00 0.000000e+00
<ENDHMM>
~h "ey"
<BEGINHMM>
<NUMSTATES> 5
<STATE> 2
<MEAN> 25
 2.873734e+00 -7.477864e+00 6.963352e+00 -2.402903e+00 -1.177106e+01 -3.489769e+00 -2.016431e+00 2.258579e+00 -5.661644e+00 4.613250e+00 2.812103e-01 -1.208200e+00 3.916028e-02 -9.737837e-02 1.504833e+00 -1.044614e+00 -1.915600e+00 3.233985e-01 -6.358545e-01 -3.101906e-01 -1.211277e+00 7.185292e-01 4.469293e-01 -1.906768e-01 9.650209e-01
<VARIANCE> 25
 1.019956e+01 3.659540e+01 2.145735e+01 2.617444e+01 3.980669e+01 2.407079e+01 4.108548e+01 3.334115e+01 2.642956e+01 2.285133e+01 3.642237e+01 1.358211e+01 1.324284e+00 3.777849e+00 1.670314e+00 2.528358e+00 4.075246e+00 2.525595e+00 3.362815e+00 2.491037e+00 2.407425e+00 1.787552e+00 1.643053e+00 9.793778e-01 3.678584e+00
<GCONST> 9.564008e+01
<STATE> 3
<MEAN> 25
 2.015183e+00 -2.665747e-01 1.272589e+01 -6.137091e+00 -1.580140e+01 5.373333e-01 -7.898314e+00 -2.652838e+00 -8.003153e+00 3.747757e+00 3.509278e+00 -4.974210e+00 -5.732159e-02 6.792729e-01 7.005273e-02 -1.506492e-01 7.572569e-02 1.844606e-01 -3.576049e-02 -1.022462e-01 1.964216e-02 -3.478324e-01 -6.720459e-02 -3.802745e-01 -4.093006e-01
<VARIANCE> 25
 3.054633e+00 2.521462e+01 1.345433e+01 1.475044e+01 1.647710e+01 2.167037e+01 1.937364e+01 1.792187e+01 1.377575e+01 2.065817e+01 1.993834e+01 1.932498e+01 2.003500e-01 8.848391e-01 5.708353e-01 8.085884e-01 9.109145e-01 9.429364e-01 1.216968e+00 9.866681e-01 7.932791e-01 8.742296e-01 7.051315e-01 7.478607e-01 2.917486e-01
<GCONST> 7.420446e+01
<STATE> 4
<MEAN> 25
 2.257401e+00 3.950001e+00 8.410578e+00 -3.073535e+00 -1.017775e+01 -8.831931e-01 -2.963414e+00 -2.035167e+00 -5.267905e+00 -8.552085e-01 9.703575e-01 -5.529161e+00 -1.241021e-01 3.977516e-01 -1.136333e+00 1.015353e+00 2.382096e+00 -5.627484e-01 7.179368e-01 1.747620e-01 1.436259e+00 -9.714752e-01 -5.184771e-01 9.281454e-01 -1.167098e+00
<VARIANCE> 25
 8.589166e+00 3.592733e+01 2.140464e+01 2.064723e+01 5.297292e+01 2.871936e+01 2.608286e+01 2.622693e+01 2.153579e+01 2.144262e+01 2.836233e+01 2.740939e+01 1.123167e+00 1.974252e+00 9.773040e-01 1.535870e+00 3.355148e+00 1.970050e+00 2.845811e+00 2.215643e+00 2.646632e+00 1.657374e+00 1.752888e+00 1.865433e+00 1.407331e+00
<GCONST> 9.235398e+01
<TRANSP> 5
 0.000000e+00 1.000000e+00 0.000000e+00 0.000000e+00 0.000000e+00
 0.000000e+00 7.913228e-01 2.086772e-01 0.000000e+00 0.000000e+00
 0.000000e+00 0.000000e+00 9.074871e-01 9.251288e-02 0.000000e+00
 0.000000e+00 0.000000e+00 0.000000e+00 7.630307e-01 2.369693e-01
 0.000000e+00 0.000000e+00 0.000000e+00 0.000000e+00 0.000000e+00
<ENDHMM>
~h "hh"
<BEGINHMM>
<NUMSTATES> 5
<STATE> 2
<MEAN> 25
 -2.377218e+00 -1.173029e+01 9.517707e-01 1.250496e+00 6.946829e-01 4.246258e+00 7.114493e+00 1.127533e+00 -1.585624e+00 -9.461848e-01 4.428414e-01 -3.440048e-01 3.684912e-02 -1.038880e+00 -2.620223e-01 -2.728540e-01 -1.133789e-01 3.164321e-01 4.412279e-01 8.660913e-03 -5.397409e-01 6.909123e-02 -1.158176e-02 4.100081e-02 9.150313e-01
<VARIANCE> 25
 1.462044e+01 4.064037e+01 1.803238e+01 1.549722e+01 3.216367e+01 1.680256e+01 2.732339e+01 2.818902e+01 3.063184e+01 1.900744e+01 1.453564e+01 1.264987e+01 5.711561e-01 1.817447e+00 9.974004e-01 1.903399e+00 1.863793e+00 2.046268e+00 2.739246e+00 2.792450e+00 2.394141e+00 1.792816e+00 1.869602e+00 1.292586e+00 9.907167e-01
<GCONST> 8.886858e+01
<STATE> 3
<MEAN> 25
 8.531784e-01 -1.221725e+01 -2.004555e-01 4.426678e-01 4.233247e-01 2.599536e+00 5.543835e+00 8.802156e-01 -3.425845e+00 -3.037136e-01 -3.316393e+00 6.574016e-01 9.702365e-01 5.992600e-01 4.005262e-02 -8.077254e-02 -2.557202e-01 -7.004092e-01 -7.400054e-01 -2.557257e-01 -2.066829e-01 2.180745e-01 -1.075194e+00 2.446049e-01 5.886024e-01
<VARIANCE> 25
 2.297681e+01 3.283848e+01 2.062483e+01 2.724674e+01 4.510395e+01 2.585113e+01 2.263768e+01 2.240780e+01 2.867892e+01 1.808785e+01 1.943802e+01 1.090253e+01 9.751860e-01 1.591780e+00 1.222640e+00 2.420380e+00 2.296137e+00 2.258868e+00 2.160931e+00 1.714540e+00 1.862803e+00 1.510774e+00 1.406021e+00 1.015448e+00 2.516934e-01
<GCONST> 8.829412e+01
<STATE> 4
<MEAN> 25
 5.615988e+00 -1.101443e+01 -1.832084e+00 -3.918496e+00 -2.094913e+00 1.430017e+00 -1.398639e+00 -1.159882e-01 -5.937012e+00 4.138759e+00 -9.183181e+00 -4.422487e-01 2.207771e-01 3.814718e-01 -3.033749e-02 -1.506822e-02 -1.871648e-01 -1.978101e-01 -2.498016e-01 8.591580e-02 1.405231e-01 1.670756e-01 -2.130434e-01 -1.488810e-01 -1.151197e-02
<VARIANCE> 25
 1.028272e+01 2.223358e+01 2.424786e+01 2.246966e+01 6.814986e+01 2.100612e+01 4.595379e+01 2.002957e+01 1.671384e+01 1.521964e+01 1.198711e+01 1.021502e+01 9.851360e-01 7.717815e-01 6.874239e-01 1.342969e+00 1.642984e+00 1.004317e+00 1.668883e+00 1.136519e+00 1.075153e+00 9.479000e-01 6.945680e-01 7.060766e-01 4.691854e-01
<GCONST> 8.145408e+01
<TRANSP> 5
 0.000000e+00 1.000000e+00 0.000000e+00 0.000000e+00 0.000000e+00
 0.000000e+00 8.478107e-01 1.521892e-01 0.000000e+00 0.000000e+00
 0.000000e+00 0.000000e+00 7.333258e-01 2.666741e-01 0.000000e+00
 0.000000e+00 0.000000e+00 0.000000e+00 8.647698e-01 1.352302e-01
 0.000000e+00 0.000000e+00 0.000000e+00 0.000000e+00 0.000000e+00
<ENDHMM>
~h "ih"
<BEGINHMM>
<NUMSTATES> 5
<STATE> 2
<MEAN> 25
 2.353911e+00 -9.546933e-01 7.430948e+00 3.874418e-01 -9.569906e+00 -5.950933e+00 -4.629573e+00 -3.372195e+00 -3.759304e+00 2.380526e-01 1.687015e+00 -7.809098e-01 2.934256e-01 -7.680938e-01 2.008315e+00 -1.319651e+00 -2.848115e+00 2.710730e-02 -1.200983e+00 4.846764e-01 -1.787610e+00 5.238072e-01 4.584665e-01 -7.146388e-01 1.058550e+00
<VARIANCE> 25
 2.045081e+01 3.495567e+01 4.046217e+01 3.040033e+01 6.723512e+01 4.132648e+01 4.557126e+01 3.425781e+01 3.388598e+01 2.611685e+01 2.344143e+01 2.344341e+01 3.089954e+00 2.271412e+00 2.090728e+00 2.482618e+00 4.114832e+00 4.140330e+00 4.462775e+00 3.720575e+00 3.012054e+00 3.461519e+00 2.638732e+00 1.961532e+00 1.989974e+00
<GCONST> 1.019283e+02
<STATE> 3
<MEAN> 25
 1.904878e+00 -9.859784e-01 1.368470e+01 -4.993105e+00 -1.665769e+01 -2.718583e+00 -8.818102e+00 -2.329689e+00 -8.636054e+00 1.670194e+00 3.151645e+00 -4.570838e+00 -1.024730e-01 1.847401e-01 -5.255193e-03 -2.597677e-01 -3.492633e-01 2.856630e-01 3.442798e-02 -4.160814e-02 -2.694642e-01 2.009164e-01 -8.550881e-02 -3.432111e-01 -7.665494e-02
<VARIANCE> 25
 6.020270e+00 1.573620e+01 1.587081e+01 2.070876e+01 3.006510e+01 2.019161e+01 1.961702e+01 1.676739e+01 1.943493e+01 3.838113e+01 1.850064e+01 2.197638e+01 2.652091e-01 1.248785e+00 1.119177e+00 1.291662e+00 1.441277e+00 1.510768e+00 1.647101e+00 1.429694e+00 9.314914e-01 1.248791e+00 1.066420e+00 1.104126e+00 5.032874e-01
<GCONST> 8.164599e+01
<STATE> 4
<MEAN> 25
 2.080863e+00 1.611411e+00 8.301250e+00 -9.395188e-01 -1.084697e+01 -4.366890e+00 -2.720570e+00 -3.097951e+00 -4.945267e+00 5.204450e-01 7.625942e-01 -2.868729e+00 -7.210686e-02 4.436517e-01 -1.101198e+00 7.878926e-01 1.758500e+00 -2.869007e-02 8.974531e-01 -7.661679e-02 1.038243e+00 -4.781677e-01 -3.315751e-01 6.439679e-01 -1.058095e+00
<VARIANCE> 25
 1.677386e+01 2.279587e+01 2.993351e+01 3.644226e+01 4.885365e+01 3.490253e+01 3.105033e+01 2.568618e+01 3.384647e+01 2.853823e+01 1.492239e+01 2.457549e+01 1.742669e+00 2.035387e+00 1.974457e+00 1.912377e+00 3.965881e+00 2.253680e+00 3.122136e+00 1.873439e+00 2.524577e+00 2.594197e+00 1.524696e+00 2.100233e+00 2.071730e+00
<GCONST> 9.611159e+01
<TRANSP> 5
 0.000000e+00 1.000000e+00 0.000000e+00 0.000000e+00 0.000000e+00
 0.000000e+00 6.905614e-01 3.094386e-01 0.000000e+00 0.000000e+00
 0.000000e+00 0.000000e+00 8.078117e-01 1.921883e-01 0.000000e+00
 0.000000e+00 0.000000e+00 0.000000e+00 8.077226e-01 1.922774e-01
 0.000000e+00 0.000000e+00 0.000000e+00 0.000000e+00 0.000000e+00
<ENDHMM>
~h "iy"
<BEGINHMM>
<NUMSTATES> 5
<STATE> 2
<MEAN> 25
 8.926479e-01 2.038907e+00 8.637749e+00 2.060421e+00 -1.205766e+01 -3.795379e+00 8.942411e-01 -6.509966e+00 -3.527472e+00 -1.294337e+00 2.034491e+00 -2.832067e+00 9.059783e-01 1.385375e-01 2.652374e+00 -1.414257e+00 -2.582854e+00 1.650268e-01 -1.438062e+00 -7.826622e-01 -2.113367e+00 6.851187e-02 3.620149e-01 -2.028006e+00 7.238081e-01
<VARIANCE> 25
 3.234899e+01 4.055773e+01 5.217957e+01 2.606315e+01 4.928524e+01 3.770944e+01 4.610484e+01 3.309535e+01 4.393008e+01 1.921602e+01 2.480110e+01 2.896580e+01 3.080464e+00 2.483375e+00 2.960162e+00 3.383694e+00 3.349203e+00 4.327944e+00 5.791897e+00 2.594153e+00 3.532233e+00 2.457437e+00 3.180471e+00 2.421396e+00 1.119123e+00
<GCONST> 1.025521e+02
<STATE> 3
<MEAN> 25
 2.613316e+00 1.603523e+00 1.376578e+01 -1.243967e+00 -1.637525e+01 -4.158722e+00 -5.462283e+00 -5.423761e+00 -7.178393e+00 -1.745316e+00 4.038896e+00 -7.609924e+00 -1.388764e-02 1.824290e-01 4.827016e-01 -7.169322e-01 -1.160317e-01 4.389018e-01 -1.007703e+00 4.516128e-01 -2.844624e-01 -2.294981e-02 2.827368e-01 -6.571910e-01 5.163191e-02
<VARIANCE> 25
 9.148943e+00 2.941363e+01 3.551898e+01 2.713826e+01 3.105991e+01 3.352962e+01 1.777073e+01 2.511419e+01 3.344485e+01 3.136003e+01 2.736786e+01 3.232808e+01 1.001884e+00 1.956396e+00 1.795258e+00 2.609576e+00 2.893768e+00 2.910931e+00 2.183715e+00 2.446279e+00 2.581844e+00 2.181044e+00 2.591757e+00 1.651556e+00 2.868162e-01
<GCONST> 9.316051e+01
<STATE> 4
<MEAN> 25
 2.289202e+00 4.154401e+00 1.390026e+01 -2.886988e+00 -1.483868e+01 -3.310537e+00 -7.160965e+00 -2.673538e+00 -7.251626e+00 7.751778e-02 2.811966e+00 -7.961254e+00 1.018827e-01 -1.623198e-01 -6.741097e-01 4.319307e-01 7.130188e-01 -3.942386e-01 2.653498e-01 2.947144e-01 2.955281e-01 -1.569717e-02 -2.946642e-01 4.198829e-01 -2.630938e-01
<VARIANCE> 25
 5.863751e+00 3.196357e+01 2.403075e+01 4.081247e+01 3.837325e+01 2.327236e+01 1.838554e+01 2.462785e+01 1.763399e+01 2.922624e+01 2.013245e+01 2.302896e+01 4.344049e-01 1.238090e+00 9.748686e-01 1.275131e+00 2.649835e+00 1.418254e+00 1.545113e+00 1.843324e+00 1.469901e+00 1.346277e+00 1.179899e+00 1.061243e+00 5.603705e-01
<GCONST> 8.565891e+01
<TRANSP> 5
 0.000000e+00 1.000000e+00 0.000000e+00 0.000000e+00 0.000000e+00
 0.000000e+00 6.465291e-01 3.534709e-01 0.000000e+00 0.000000e+00
 0.000000e+00 0.000000e+00 7.346845e-01 2.653155e-01 0.000000e+00
 0.000000e+00 0.000000e+00 0.000000e+00 9.194279e-01 8.057213e-02
 0.000000e+00 0.000000e+00 0.000000e+00 0.000000e+00 0.000000e+00
<ENDHMM>
~h "jh"
<BEGINHMM>
<NUMSTATES> 5
<STATE> 2
<MEAN> 25
 1.388446e+00 6.294848e+00 7.302811e+00 2.220525e+00 -2.751986e+00 -4.689609e+00 -2.590099e+00 -3.208626e+00 -2.003456e+00 -5.146835e+00 2.389447e+00 1.555952e+00 -1.451070e+00 8.555645e-02 -4.188865e-02 2.041143e-01 2.094370e+00 1.385905e+00 8.483244e-01 1.386286e-01 5.953223e-01 -1.602418e-01 -8.716233e-03 -3.020809e-01 -6.010666e-01
<VARIANCE> 25
 4.103608e+01 2.918097e+01 9.810053e+00 1.740679e+01 6.283274e+01 3.500234e+01 1.659790e+01 2.902199e+01 1.427435e+01 1.444312e+01 1.278241e+01 3.130046e+01 5.789914e+00 6.231516e+00 1.398713e+00 2.862712e+00 4.465448e+00 1.367182e+00 1.506528e+00 6.495250e+00 1.462053e+00 2.165458e+00 1.424641e+00 1.839598e+00 4.514503e+00
<GCONST> 9.605508e+01
<STATE> 3
<MEAN> 25
 -1.110124e+01 -5.649729e-01 9.181454e+00 1.508612e+00 -5.938804e-01 2.612777e+00 2.085826e+00 -2.816487e+00 5.370067e+00 -3.459730e+00 1.080725e+00 7.341845e-01 3.033666e-01 -3.671185e-01 1.880378e-01 -2.473952e-01 -6.581032e-01 -3.691103e-01 2.340292e-02 -2.389599e-01 -5.445937e-02 1.724017e-01 -2.235371e-01 1.688369e-01 1.712552e-01
<VARIANCE> 25
 4.380054e+01 1.918669e+01 1.725167e+01 1.188085e+01 3.001530e+01 2.076583e+01 2.583008e+01 3.057467e+01 2.008977e+01 9.772038e+00 1.249521e+01 1.725891e+01 6.275541e+00 1.645980e+00 2.044328e+00 1.259531e+00 4.223135e+00 2.843302e+00 1.963680e+00 2.409909e+00 1.861276e+00 9.554383e-01 1.253996e+00 1.264299e+00 1.939327e+00
<GCONST> 9.078339e+01
<STATE> 4
<MEAN> 25
 3.102484e+00 -6.869867e+00 8.327049e+00 -2.710740e+00 -1.012628e+01 -6.308707e+00 -3.247117e+00 -3.914483e+00 -5.445234e+00 6.709595e-01 1.445802e+00 6.510931e-01 1.133318e+00 -1.409809e+00 -9.726377e-01 -3.746333e-01 -4.905923e-01 -4.651651e-01 -8.874197e-01 4.835626e-01 -1.032625e+00 1.101115e+00 2.606036e-02 1.556889e-01 8.056319e-02
<VARIANCE> 25
 2.217881e+01 2.050182e+01 1.869406e+01 7.266794e+00 6.362050e+01 2.590436e+01 2.263168e+01 1.655317e+01 2.458108e+01 1.325438e+01 5.682600e+00 8.462023e+00 1.525682e+00 1.347302e+00 1.498380e+00 6.830575e-01 1.371684e+00 1.129927e+00 7.997279e-01 2.744618e+00 1.113768e+00 8.134497e-01 8.148085e-01 1.108255e+00 2.361181e-01
<GCONST> 8.029462e+01
<TRANSP> 5
 0.000000e+00 1.000000e+00 0.000000e+00 0.000000e+00 0.000000e+00
 0.000000e+00 8.685352e-01 1.314647e-01 0.000000e+00 0.000000e+00
 0.000000e+00 0.000000e+00 9.077215e-01 9.227849e-02 0.000000e+00
 0.000000e+00 0.000000e+00 0.000000e+00 8.190297e-01 1.809703e-01
 0.000000e+00 0.000000e+00 0.000000e+00 0.000000e+00 0.000000e+00
<ENDHMM>
~h "ng"
<BEGINHMM>
<NUMSTATES> 5
<STATE> 2
<MEAN> 25
 7.043261e+00 2.977018e+00 -1.805745e+00 -2.106998e+00 4.483395e+00 4.316816e+00 3.156040e+00 -2.317003e+00 -5.425567e+00 -6.333466e+00 -2.079969e+00 -1.345963e+00 -3.088487e-01 4.838929e-01 2.869847e-01 1.006681e+00 2.827744e-01 -5.772160e-01 6.187971e-01 1.916270e-01 4.411060e-01 -2.593141e-01 -7.796118e-01 -1.577403e-02 -6.583587e-01
<VARIANCE> 25
 9.528065e+00 6.650121e+00 1.082212e+01 1.624523e+01 3.648641e+01 1.666190e+01 1.755227e+01 9.918781e+00 1.894241e+01 2.301252e+01 1.218934e+01 2.730238e+01 2.206230e-01 2.923750e-01 1.168744e+00 7.357063e-01 1.253880e+00 1.260098e+00 1.361546e+00 9.139569e-01 8.316423e-01 8.758013e-01 1.588439e+00 8.469304e-01 7.651126e-02
<GCONST> 7.391326e+01
<STATE> 3
<MEAN> 25
 2.754454e+00 4.401356e+00 1.847238e+00 2.870399e+00 6.871587e+00 2.586840e+00 3.260597e+00 -1.293245e+00 -2.160066e+00 -6.304718e+00 -4.959253e+00 -4.199374e-01 -9.043298e-01 -2.295528e-01 3.112306e-01 4.654212e-01 3.936502e-01 3.459318e-02 1.196189e-01 4.920200e-01 6.122894e-01 1.961563e-01 1.239817e-01 1.359321e-01 -6.363803e-01
<VARIANCE> 25
 1.028377e+01 7.420552e+00 6.912456e+00 1.041817e+01 1.822787e+01 1.301608e+01 1.750015e+01 1.491060e+01 1.684115e+01 1.561516e+01 1.367046e+01 1.796926e+01 3.010199e-01 3.755154e-01 5.428683e-01 7.363455e-01 9.105424e-01 1.067578e+00 1.541116e+00 2.665690e+00 1.893192e+00 1.793947e+00 1.300233e+00 9.749674e-01 7.959214e-02
<GCONST> 7.388473e+01
<STATE> 4
<MEAN> 25
 -4.179172e+00 8.926998e-01 1.910160e+00 3.966467e+00 7.884831e+00 3.017524e+00 7.575147e+00 6.251837e+00 5.553173e+00 -1.774403e+00 2.799397e-01 2.231262e+00 -2.712002e-01 -2.190721e-01 -2.189854e-01 -1.369762e-01 -9.586176e-02 -2.852553e-02 1.826175e-01 4.197364e-01 4.338244e-01 4.255619e-01 3.061410e-01 1.324340e-01 -1.467417e-01
<VARIANCE> 25
 4.140508e+00 4.990057e+00 6.088098e+00 6.650377e+00 1.080250e+01 1.214318e+01 1.431759e+01 1.444803e+01 1.453385e+01 2.116191e+01 2.481201e+01 1.477172e+01 2.506273e-01 4.063880e-01 7.932236e-01 8.076102e-01 1.001529e+00 1.206328e+00 1.227698e+00 1.649546e+00 1.343577e+00 1.328394e+00 1.563779e+00 1.401446e+00 7.991270e-02
<GCONST> 7.151980e+01
<TRANSP> 5
 0.000000e+00 1.000000e+00 0.000000e+00 0.000000e+00 0.000000e+00
 0.000000e+00 8.332376e-01 1.667623e-01 0.000000e+00 0.000000e+00
 0.000000e+00 0.000000e+00 8.225276e-01 1.774723e-01 0.000000e+00
 0.000000e+00 0.000000e+00 0.000000e+00 9.008700e-01 9.913001e-02
 0.000000e+00 0.000000e+00 0.000000e+00 0.000000e+00 0.000000e+00
<ENDHMM>
~h "ow"
<BEGINHMM>
<NUMSTATES> 5
<STATE> 2
<MEAN> 25
 1.058604e+01 1.849648e+00 -9.604060e+00 -8.561246e+00 -4.930115e+00 5.953761e+00 -8.847435e+00 -3.466633e+00 -8.599134e+00 5.567180e+00 3.626818e+00 1.254389e+00 1.694044e-01 2.682800e-01 -2.627657e-01 -4.779137e-01 -4.856169e-01 4.322833e-01 -2.927110e-02 2.410973e-01 -8.549532e-01 -6.670976e-02 4.219728e-01 -1.504877e-01 1.349446e-01
<VARIANCE> 25
 7.004797e+00 2.737311e+01 7.599242e+00 6.719931e+01 2.850288e+01 3.814818e+01 6.648623e+01 3.063021e+01 2.188425e+01 2.141327e+01 3.824985e+01 1.486801e+01 6.004363e-01 6.557429e-01 5.543844e-01 1.288123e+00 1.035011e+00 7.174198e-01 1.265152e+00 1.120584e+00 1.052079e+00 1.253938e+00 9.839951e-01 5.430166e-01 7.081091e-01
<GCONST> 8.263010e+01
<STATE> 3
<MEAN> 25
 1.022070e+01 5.691547e+00 -8.613191e+00 -9.123965e+00 -7.175185e+00 4.565065e+00 -5.244478e+00 -3.026875e+00 -1.147536e+01 1.469923e+00 3.802648e+00 4.968178e-02 -1.331136e-01 2.220347e-01 3.236672e-01 3.750116e-01 3.084548e-01 -3.029040e-01 5.306235e-02 -2.125298e-01 2.781439e-01 -3.317966e-01 -4.492420e-02 -3.228219e-02 -4.109270e-01
<VARIANCE> 25
 4.855750e+00 1.755303e+01 1.281072e+01 2.659979e+01 2.681385e+01 2.282480e+01 3.675213e+01 1.673378e+01 1.970202e+01 2.591618e+01 3.222808e+01 1.629814e+01 1.299044e-01 4.520979e-01 4.247358e-01 6.841757e-01 7.699948e-01 9.094777e-01 1.080081e+00 7.936319e-01 1.075672e+00 7.283781e-01 9.419756e-01 7.406632e-01 1.185400e-01
<GCONST> 7.424390e+01
<STATE> 4
<MEAN> 25
 9.737742e-01 3.687757e+00 -6.056025e-01 -8.004727e-01 3.719445e+00 2.705191e+00 2.029268e+00 3.178960e-02 1.846242e-01 -1.167077e+00 2.112367e+00 1.483132e+00 -6.968706e-01 -4.089013e-01 4.157341e-01 5.237155e-01 5.423111e-01 -4.588788e-02 3.034998e-01 4.331282e-01 7.991560e-01 4.119025e-02 -2.642057e-01 -2.830729e-02 -4.511757e-01
<VARIANCE> 25
 3.800085e+01 1.935242e+01 1.948539e+01 1.690651e+01 2.467404e+01 2.520613e+01 6.552202e+01 3.941417e+01 4.319839e+01 2.578474e+01 1.900714e+01 1.615293e+01 6.718175e-01 5.722046e-01 1.200388e+00 1.100041e+00 1.174027e+00 1.858742e+00 2.194938e+00 2.249043e+00 2.115259e+00 2.076478e+00 1.916895e+00 1.227027e+00 4.833223e-01
<GCONST> 8.868362e+01
<TRANSP> 5
 0.000000e+00 1.000000e+00 0.000000e+00 0.000000e+00 0.000000e+00
 0.000000e+00 8.704610e-01 1.295390e-01 0.000000e+00 0.000000e+00
 0.000000e+00 0.000000e+00 9.235974e-01 7.640254e-02 0.000000e+00
 0.000000e+00 0.000000e+00 0.000000e+00 9.044783e-01 9.552171e-02
 0.000000e+00 0.000000e+00 0.000000e+00 0.000000e+00 0.000000e+00
<ENDHMM>
~h "oy"
<BEGINHMM>
<NUMSTATES> 5
<STATE> 2
<MEAN> 25
 1.352588e+01 -3.881867e+00 -8.044584e+00 -6.917919e+00 -7.596216e+00 8.755497e+00 -4.205235e+00 -4.253015e+00 -9.753971e+00 5.261025e+00 2.649356e+00 -9.419254e-01 4.577781e-01 -8.126885e-01 -1.201817e-01 -1.062579e-01 -4.693761e-01 1.203248e-02 -9.976649e-01 2.407539e-01 -4.814230e-01 9.208326e-01 1.156004e-02 -4.245574e-01 7.497048e-01
<VARIANCE> 25
 1.698746e+01 3.897988e+01 2.697096e+01 1.916652e+01 5.443711e+01 4.454288e+01 4.826170e+01 3.331644e+01 2.149749e+01 3.267429e+01 1.912455e+01 1.045055e+01 2.485543e+00 1.447900e+00 4.005928e+00 3.794391e+00 2.737101e+00 4.196795e+00 3.618689e+00 1.794568e+00 3.943022e+00 2.200617e+00 2.520597e+00 1.909793e+00 1.416028e+00
<GCONST> 9.811275e+01
<STATE> 3
<MEAN> 25
 8.045403e+00 -1.023564e+01 8.017511e+00 -1.366989e+00 -1.221433e+01 -6.296673e+00 -1.317375e+01 2.810462e+00 -1.014835e+01 3.947781e+00 8.028599e-01 -4.178526e+00 -6.477139e-01 7.184510e-01 1.363930e+00 1.430014e-01 -2.934775e-01 -7.843471e-01 6.892121e-01 -1.957341e-01 1.464332e-01 -1.411646e+00 -3.464150e-01 3.029749e-01 -3.845002e-01
<VARIANCE> 25
 5.594521e+00 1.796097e+01 6.485093e+01 2.843577e+01 1.706863e+01 3.373406e+01 3.470942e+01 4.081475e+01 1.842891e+01 3.929415e+01 2.426462e+01 1.434414e+01 5.511619e-01 1.656468e+00 3.396589e+00 3.083426e+00 2.630744e+00 6.661343e+00 2.178201e+00 4.689486e+00 2.885006e+00 1.595803e+00 2.097034e+00 1.035236e+00 3.178693e-01
<GCONST> 9.272693e+01
<STATE> 4
<MEAN> 25
 3.572941e+00 -3.662797e+00 5.641042e+00 4.333348e-01 -7.681788e+00 -7.777994e+00 -6.713067e+00 -6.505089e+00 -1.416153e+00 -3.648639e-01 -2.841212e+00 -4.112533e+00 -1.400641e+00 1.501920e+00 -2.290486e+00 2.018481e-01 2.551673e+00 8.460816e-01 1.847662e+00 -2.042815e+00 1.693007e+00 9.023899e-01 -5.471557e-01 1.115495e+00 -2.468619e-01
<VARIANCE> 25
 3.175583e+01 7.140192e+01 5.281929e+01 3.599869e+01 1.230953e+01 3.433509e+01 2.715246e+01 6.309891e+01 7.665318e+01 3.127840e+01 9.928519e+00 4.527518e+01 5.614489e+00 1.129790e+00 1.992645e+00 9.071634e+00 3.536097e-01 4.970227e+00 6.912164e+00 7.024156e+00 7.410610e+00 1.145623e+00 1.960104e+00 1.196377e+00 2.245842e-01
<GCONST> 9.929298e+01
<TRANSP> 5
 0.000000e+00 1.000000e+00 0.000000e+00 0.000000e+00 0.000000e+00
 0.000000e+00 9.365115e-01 6.348853e-02 0.000000e+00 0.000000e+00
 0.000000e+00 0.000000e+00 9.176499e-01 8.235009e-02 0.000000e+00
 0.000000e+00 0.000000e+00 0.000000e+00 6.244754e-01 3.755246e-01
 0.000000e+00 0.000000e+00 0.000000e+00 0.000000e+00 0.000000e+00
<ENDHMM>
~h "sh"
<BEGINHMM>
<NUMSTATES> 5
<STATE> 2
<MEAN> 25
 -1.136517e+01 -3.986750e-01 1.073695e+01 1.556900e+00 -3.116689e+00 3.369489e+00 1.126246e+00 -3.236366e+00 7.054415e+00 -4.354976e+00 3.162103e+00 7.711338e-01 -2.194047e+00 -1.211365e+00 -2.509435e-01 4.306391e-01 5.727777e-01 9.202883e-01 5.660295e-01 -3.235423e-01 1.420877e+00 3.508224e-01 -9.441185e-02 2.988809e-01 6.464047e-01
<VARIANCE> 25
 4.744451e+01 2.293631e+01 1.628651e+01 2.042684e+01 2.915797e+01 3.186876e+01 2.316469e+01 1.796494e+01 2.798857e+01 1.874245e+01 2.178524e+01 1.005719e+01 3.312739e+00 1.702977e+00 1.530874e+00 3.184324e+00 4.576303e+00 4.225836e+00 2.670457e+00 2.914586e+00 4.029792e+00 1.981980e+00 2.149143e+00 1.078050e+00 4.881768e-01
<GCONST> 9.379318e+01
<STATE> 3
<MEAN> 25
 -1.287006e+01 -5.497430e+00 1.007313e+01 2.296115e+00 -6.902090e+00 2.444710e+00 3.149529e+00 -7.576573e+00 6.516984e+00 -1.036509e+00 1.511289e+00 -4.188174e-02 1.473721e+00 1.178350e-01 -1.023525e-02 -3.450504e-01 -6.315545e-01 -9.068365e-01 -5.584587e-02 -2.112707e-01 -1.331508e+00 1.594410e-01 3.210628e-02 -1.606296e-01 -3.613127e-01
<VARIANCE> 25
 3.882718e+01 1.597314e+01 1.371084e+01 1.933206e+01 2.146715e+01 1.639743e+01 1.907252e+01 1.905243e+01 3.457087e+01 1.403320e+01 1.462722e+01 1.174442e+01 4.209445e+00 1.332346e+00 6.823660e-01 2.507867e+00 1.942952e+00 1.632587e+00 2.039027e+00 2.076721e+00 4.178868e+00 1.475506e+00 1.467142e+00 9.522817e-01 4.483159e-01
<GCONST> 8.725706e+01
<STATE> 4
<MEAN> 25
 -4.633207e+00 -2.808852e+00 5.303390e+00 2.740017e-01 -1.753120e+00 -1.442299e+00 2.449373e+00 -2.689509e+00 1.065492e+00 -7.223511e-02 2.351998e+00 1.977662e+00 1.118210e+00 -1.719457e-01 -2.938824e-01 -6.759734e-01 7.070448e-02 -2.930132e-01 -5.357720e-01 5.385419e-01 -7.962824e-01 1.984390e-01 -2.788279e-01 1.812205e-01 1.523449e-01
<VARIANCE> 25
 5.032020e+01 2.040703e+01 3.757125e+01 4.707081e+01 6.841247e+01 3.064391e+01 3.765751e+01 4.622571e+01 5.539192e+01 1.378219e+01 1.862024e+01 1.908232e+01 3.956608e+00 2.651851e+00 2.442149e+00 3.235624e+00 3.056415e+00 3.997217e+00 3.736038e+00 4.925824e+00 3.666411e+00 1.470576e+00 2.078212e+00 1.988460e+00 2.771693e+00
<GCONST> 1.019363e+02
<TRANSP> 5
 0.000000e+00 1.000000e+00 0.000000e+00 0.000000e+00 0.000000e+00
 0.000000e+00 8.349971e-01 1.650030e-01 0.000000e+00 0.000000e+00
 0.000000e+00 0.000000e+00 8.691440e-01 1.308560e-01 0.000000e+00
 0.000000e+00 0.000000e+00 0.000000e+00 7.623836e-01 2.376164e-01
 0.000000e+00 0.000000e+00 0.000000e+00 0.000000e+00 0.000000e+00
<ENDHMM>
~h "th"
<BEGINHMM>
<NUMSTATES> 5
<STATE> 2
<MEAN> 25
 -1.769056e+00 3.667799e+00 -1.129999e+00 4.081824e+00 -3.103420e+00 -8.553867e-01 -2.284631e+00 -5.371741e+00 2.560389e+00 -3.258853e+00 -1.506329e-01 1.209329e+00 -3.932148e-01 3.363242e-01 -2.080038e-01 -1.065304e-01 3.459267e-01 3.252285e-01 3.550988e-02 9.462914e-02 2.760733e-01 1.734026e-02 3.498071e-01 3.696358e-01 -5.043908e-01
<VARIANCE> 25
 7.465476e+00 1.858339e+01 1.408287e+01 1.539865e+01 2.980279e+01 1.373839e+01 4.921901e+01 2.462535e+01 1.776673e+01 1.125037e+01 2.384972e+01 1.024462e+01 8.888751e-01 1.689713e+00 1.286915e+00 1.303278e+00 1.887947e+00 1.516630e+00 3.977561e+00 2.393212e+00 2.217038e+00 1.437054e+00 2.581154e+00 1.554242e+00 8.407645e-01
<GCONST> 8.677354e+01
<STATE> 3
<MEAN> 25
 -3.701706e+00 5.453148e-01 -1.449947e+00 2.243664e+00 1.841795e+00 1.617727e+00 1.536069e+00 -2.567422e-01 3.350926e+00 -1.489392e+00 1.151080e+00 1.053631e+00 -2.097996e-01 6.129366e-02 -3.195271e-02 -1.345145e-02 1.310113e-01 7.173084e-02 2.125619e-01 1.818691e-01 8.955276e-02 4.779526e-02 9.647794e-02 -4.518841e-03 -3.519115e-01
<VARIANCE> 25
 9.697950e+00 1.829655e+01 8.616130e+00 1.304299e+01 2.310834e+01 1.125503e+01 2.112993e+01 2.587636e+01 1.464555e+01 1.320586e+01 1.856434e+01 1.261368e+01 8.311486e-01 1.023237e+00 1.066249e+00 1.484881e+00 2.230039e+00 1.181995e+00 2.257238e+00 2.997183e+00 1.193609e+00 1.213569e+00 1.292748e+00 1.228400e+00 1.740504e+00
<GCONST> 8.299903e+01
<STATE> 4
<MEAN> 25
 -6.696458e+00 9.390598e-01 -2.260982e+00 4.417460e+00 1.217199e+00 1.909835e+00 2.863415e+00 -2.108932e+00 6.027271e+00 -1.351422e+00 1.642197e+00 1.527501e+00 -9.455778e-02 4.400186e-03 -1.423241e-01 9.348711e-02 -1.950911e-01 7.111333e-03 1.199744e-01 -2.274135e-01 2.551741e-01 1.159685e-01 4.971307e-02 8.605918e-02 4.048417e-01
<VARIANCE> 25
 1.024504e+01 1.140100e+01 9.601509e+00 1.550244e+01 2.522640e+01 1.083679e+01 1.555101e+01 3.047977e+01 1.749669e+01 1.372857e+01 2.199570e+01 1.607689e+01 7.586410e-01 9.286621e-01 9.384216e-01 1.142591e+00 1.198550e+00 1.152914e+00 1.680179e+00 1.671360e+00 1.698240e+00 1.685709e+00 1.916563e+00 1.613216e+00 6.495280e-01
<GCONST> 8.165656e+01
<TRANSP> 5
 0.000000e+00 1.000000e+00 0.000000e+00 0.000000e+00 0.000000e+00
 0.000000e+00 8.265086e-01 1.734914e-01 0.000000e+00 0.000000e+00
 0.000000e+00 0.000000e+00 8.225192e-01 1.774807e-01 0.000000e+00
 0.000000e+00 0.000000e+00 0.000000e+00 9.134846e-01 8.651543e-02
 0.000000e+00 0.000000e+00 0.000000e+00 0.000000e+00 0.000000e+00
<ENDHMM>
~h "uh"
<BEGINHMM>
<NUMSTATES> 5
<STATE> 2
<MEAN> 25
 -1.692350e+00 2.020411e+00 -3.014555e-01 4.400484e+00 3.690956e+00 -5.545877e-01 1.012677e+00 2.947599e+00 4.600061e+00 -1.213837e+00 8.409971e-01 2.687496e+00 4.334491e-01 3.390197e-02 -2.906574e-01 1.349274e-01 -1.030605e-01 8.213133e-03 -5.641833e-01 -5.289977e-01 -4.025385e-01 3.168571e-02 -2.241427e-01 -1.620276e-01 2.862210e-01
<VARIANCE> 25
 3.264944e+01 1.364389e+01 1.063525e+01 1.669109e+01 1.207792e+01 2.977900e+01 9.187296e+01 5.303252e+01 4.218853e+01 2.118309e+01 1.466941e+01 2.808174e+01 3.893864e-01 9.612786e-01 8.906371e-01 1.030605e+00 1.027499e+00 2.315904e+00 1.321466e+00 1.412480e+00 1.743881e+00 2.781007e+00 1.230673e+00 1.340074e+00 3.276973e-01
<GCONST> 8.580404e+01
<STATE> 3
<MEAN> 25
 7.379627e+00 4.348087e+00 -5.255607e+00 1.228206e-01 -4.650287e+00 -4.549044e+00 -1.235922e+01 -9.704430e+00 -5.986601e+00 -1.143086e+00 1.184165e+00 -2.505012e+00 -4.406968e-02 -1.187384e-01 -1.902313e-01 -5.407210e-01 -7.113070e-01 3.820509e-02 -2.882545e-01 -1.615249e-01 -2.384690e-01 2.916987e-01 3.300349e-01 -4.945121e-01 1.009409e-01
<VARIANCE> 25
 7.757766e+00 1.888295e+01 6.961171e+00 3.453756e+01 3.544394e+01 5.520380e+01 7.005090e+01 2.238427e+01 2.857168e+01 5.418705e+01 1.076832e+01 3.929516e+01 2.246766e-01 5.289821e-01 5.447198e-01 9.422910e-01 1.156431e+00 1.403078e+00 2.211442e+00 2.254905e+00 1.074841e+00 1.817460e+00 9.647228e-01 1.156768e+00 2.061103e-01
<GCONST> 8.323935e+01
<STATE> 4
<MEAN> 25
 6.782588e+00 1.689469e+00 -2.885992e+00 -9.446090e-02 -7.035134e+00 -6.414291e+00 -1.307712e+01 -5.769933e+00 -5.897274e+00 8.188139e-01 3.403163e+00 -3.524781e+00 -2.139124e-02 1.191649e-01 4.596786e-01 3.130739e-01 6.965477e-01 -1.901232e-01 7.970598e-01 5.597975e-01 4.959796e-01 -6.281653e-01 -2.397761e-01 7.256014e-01 -1.044172e+00
<VARIANCE> 25
 1.149013e+01 1.344150e+01 2.725040e+01 1.588710e+01 4.018821e+01 6.022392e+01 5.978480e+01 3.675943e+01 5.443014e+01 3.806359e+01 2.005246e+01 4.715303e+01 6.207643e-01 1.951436e+00 1.254024e+00 7.542386e-01 3.850317e+00 3.777606e+00 5.490150e+00 3.215911e+00 2.992381e+00 1.059286e+00 3.766776e+00 4.807260e+00 1.820715e+00
<GCONST> 9.736568e+01
<TRANSP> 5
 0.000000e+00 1.000000e+00 0.000000e+00 0.000000e+00 0.000000e+00
 0.000000e+00 8.291431e-01 1.708569e-01 0.000000e+00 0.000000e+00
 0.000000e+00 0.000000e+00 8.916363e-01 1.083638e-01 0.000000e+00
 0.000000e+00 0.000000e+00 0.000000e+00 8.665011e-01 1.334989e-01
 0.000000e+00 0.000000e+00 0.000000e+00 0.000000e+00 0.000000e+00
<ENDHMM>
~h "uw"
<BEGINHMM>
<NUMSTATES> 5
<STATE> 2
<MEAN> 25
 -3.556394e+00 6.899340e-01 1.582700e+00 4.320092e+00 5.096703e+00 9.731557e-01 4.924710e+00 3.884048e+00 3.066839e+00 -1.034838e+00 1.745404e+00 2.317392e+00 -1.322809e-01 -6.856923e-02 -1.346440e-01 5.150755e-02 2.240592e-01 2.569799e-01 2.307911e-01 3.840481e-01 1.059283e-01 1.271498e-01 7.779203e-02 4.366947e-02 -2.635033e-01
<VARIANCE> 25
 2.757912e+01 1.269353e+01 1.513985e+01 1.331791e+01 4.535348e+01 3.741722e+01 6.840906e+01 3.762496e+01 3.816391e+01 2.287583e+01 1.723835e+01 3.129000e+01 9.822049e-01 1.338258e+00 1.374099e+00 9.821122e-01 1.434833e+00 2.042927e+00 2.103813e+00 2.470284e+00 1.894400e+00 2.286756e+00 2.010107e+00 2.114662e+00 3.735965e-01
<GCONST> 9.068893e+01
<STATE> 3
<MEAN> 25
 -5.477450e+00 -1.093308e+00 3.558175e+00 2.917244e+00 -5.168395e-01 5.101686e-01 2.556087e+00 -1.997925e+00 3.120908e+00 -1.135890e-01 1.557174e+00 8.493716e-01 6.927960e-01 1.443389e-01 -1.771706e-02 -1.798687e-01 -5.585451e-01 -3.029406e-01 -7.827495e-01 -1.063740e+00 -7.095786e-01 -6.658083e-02 2.004918e-02 -4.524942e-01 7.786611e-01
<VARIANCE> 25
 6.849361e+01 2.744900e+01 3.342428e+01 2.472339e+01 5.277201e+01 3.591905e+01 7.560386e+01 5.245266e+01 6.003690e+01 2.145938e+01 2.219570e+01 2.516291e+01 3.498498e+00 2.025061e+00 1.647344e+00 2.232032e+00 2.869542e+00 2.466731e+00 5.247116e+00 6.447399e+00 3.855536e+00 2.340749e+00 2.602926e+00 2.262732e+00 3.603954e+00
<GCONST> 1.035157e+02
<STATE> 4
<MEAN> 25
 7.473257e+00 4.598175e+00 -3.780240e+00 -1.190907e-01 -3.006764e+00 -7.316465e-01 -8.809549e+00 -5.925139e+00 -8.296699e+00 1.167100e+00 4.762248e+00 -5.070502e+00 4.424671e-02 5.055376e-02 -1.044205e-01 -1.237017e-02 1.575189e-01 2.213874e-02 1.210193e-01 1.030501e-01 2.541049e-01 -9.161182e-02 -2.294937e-01 1.701247e-01 -2.555807e-01
<VARIANCE> 25
 1.452817e+01 3.015204e+01 2.856467e+01 3.399673e+01 5.429957e+01 4.987299e+01 3.824268e+01 2.800485e+01 3.581764e+01 2.855405e+01 3.991141e+01 3.104858e+01 8.445969e-01 1.267365e+00 1.556363e+00 2.292050e+00 2.097822e+00 2.749227e+00 3.710624e+00 2.159129e+00 2.714071e+00 1.804792e+00 2.340893e+00 1.729230e+00 5.128011e-01
<GCONST> 9.533268e+01
<TRANSP> 5
 0.000000e+00 1.000000e+00 0.000000e+00 0.000000e+00 0.000000e+00
 0.000000e+00 7.590141e-01 2.409859e-01 0.000000e+00 0.000000e+00
 0.000000e+00 0.000000e+00 7.377379e-01 2.622621e-01 0.000000e+00
 0.000000e+00 0.000000e+00 0.000000e+00 9.200301e-01 7.996987e-02
 0.000000e+00 0.000000e+00 0.000000e+00 0.000000e+00 0.000000e+00
<ENDHMM>
~h "zh"
<BEGINHMM>
<NUMSTATES> 5
<STATE> 2
<MEAN> 25
 -7.048327e-01 7.779738e+00 7.108322e+00 -3.728707e+00 -1.055037e+01 7.414632e-01 -4.568199e+00 -5.242314e+00 -2.764305e+00 -4.784876e+00 3.134119e+00 -7.367353e+00 -5.325261e-01 4.069111e-01 4.299716e-02 1.783219e-01 6.415305e-01 1.469654e-01 2.855183e-01 -4.216871e-02 3.658701e-01 -1.163405e-01 -2.305218e-01 1.466678e-01 -1.235463e-01
<VARIANCE> 25
 1.060238e+01 2.637506e+01 4.210445e+00 1.100105e+01 1.765841e+01 2.319683e+01 2.959303e+01 1.915952e+01 2.832122e+01 1.741997e+01 1.857504e+01 4.234113e+01 9.732096e-01 7.802605e-01 7.184365e-01 1.015278e+00 1.894144e+00 1.579236e+00 1.315786e+00 1.429957e+00 1.708704e+00 1.320698e+00 8.641477e-01 2.079209e+00 3.487213e-01
<GCONST> 8.212373e+01
<STATE> 3
<MEAN> 25
 -4.719973e+00 3.505276e+00 7.085662e+00 1.337061e-01 -3.940419e+00 2.242365e+00 9.647158e-01 -6.868363e+00 1.562819e+00 -1.930378e-01 1.123840e-01 6.178825e-01 6.038553e-01 -6.994653e-01 -1.374151e-01 -3.959937e-02 -2.293715e-01 -3.232416e-01 3.597748e-03 2.563668e-01 -2.692370e-01 2.591991e-01 1.328344e-01 5.306739e-02 3.403553e-02
<VARIANCE> 25
 6.861849e+01 4.031225e+01 1.796951e+01 3.375316e+01 4.207351e+01 4.150305e+01 2.125647e+01 2.127797e+01 7.283341e+01 2.036381e+01 1.437300e+01 1.406156e+01 3.868817e+00 1.772170e+00 1.277295e+00 2.373533e+00 3.542956e+00 3.129187e+00 1.590378e+00 2.403079e+00 4.047137e+00 1.978925e+00 1.539075e+00 1.109718e+00 2.759946e-01
<GCONST> 9.457935e+01
<STATE> 4
<MEAN> 25
 7.864432e+00 -6.978192e+00 -2.661751e-01 -1.348955e+00 -7.353747e+00 -5.319342e+00 -1.342436e-01 1.482453e+00 -4.260230e+00 4.821148e+00 -2.913014e+00 9.964247e-01 3.797014e-01 -7.074911e-01 -9.556926e-01 3.353149e-01 1.148418e+00 1.660004e-01 -5.908798e-02 9.669950e-01 -2.363420e-01 1.799478e-02 -4.529445e-01 5.818879e-02 -5.376343e-02
<VARIANCE> 25
 4.582975e+00 3.805268e+01 1.539960e+01 9.555185e+00 2.274627e+01 9.957293e+00 9.849004e+00 1.402648e+01 1.501009e+01 2.933856e+01 3.408346e+01 1.069511e+01 8.348638e-01 6.537239e-01 5.562439e-01 7.976112e-01 1.575876e+00 6.512595e-01 9.018289e-01 2.323472e+00 1.244959e+00 9.056008e-01 1.589148e+00 1.033321e+00 3.975323e-01
<GCONST> 7.747781e+01
<TRANSP> 5
 0.000000e+00 1.000000e+00 0.000000e+00 0.000000e+00 0.000000e+00
 0.000000e+00 9.049662e-01 9.503383e-02 0.000000e+00 0.000000e+00
 0.000000e+00 0.000000e+00 9.328904e-01 6.710958e-02 0.000000e+00
 0.000000e+00 0.000000e+00 0.000000e+00 7.587320e-01 2.412679e-01
 0.000000e+00 0.000000e+00 0.000000e+00 0.000000e+00 0.000000e+00
<ENDHMM>
~h "sil"
<BEGINHMM>
<NUMSTATES> 5
<STATE> 2
<MEAN> 25
 -6.756547e+00 5.871594e-02 -1.764897e-01 1.977932e+00 6.286077e+00 1.815950e+00 5.432215e+00 4.369448e+00 4.787257e+00 -9.066185e-01 8.659016e-01 1.677114e+00 -4.113872e-02 -2.996750e-02 -2.805499e-02 -2.707811e-02 -1.305339e-02 -3.971026e-02 -4.150805e-02 -3.904154e-02 -1.919913e-02 -5.957647e-03 -1.459289e-02 -2.756380e-02 -2.953086e-02
<VARIANCE> 25
