~o
<STREAMINFO> 1 25
<VECSIZE> 25<NULLD><MFCC_D_N_Z_0><DIAGC>
~s "silst"
<MEAN> 25
 -7.021306e+00 -2.542701e+00 -3.802758e+00 6.062644e-01 3.495219e+00 1.365293e+00 5.886229e+00 -8.661888e-01 4.969427e+00 -2.355800e+00 1.243900e+00 2.382504e+00 -2.222287e-02 -2.057960e-02 -2.501865e-02 -2.376842e-02 -3.435415e-02 -5.432573e-03 -1.884909e-02 -1.120896e-02 -5.146507e-02 -5.133412e-02 -3.344847e-02 -3.825539e-02 -2.192218e-02
<VARIANCE> 25
 5.935362e+00 8.308105e+00 6.010896e+00 9.918203e+00 1.572363e+01 1.337117e+01 1.247805e+01 1.669917e+01 1.282497e+01 1.720689e+01 1.262574e+01 1.297650e+01 1.110214e-01 2.397237e-01 4.223546e-01 5.539598e-01 8.770599e-01 1.023267e+00 1.115407e+00 1.409099e+00 1.339787e+00 1.319297e+00 1.303893e+00 1.183218e+00 3.869066e-02
<GCONST> 6.813239e+01
~h "b"
<BEGINHMM>
<NUMSTATES> 5
<STATE> 2
<MEAN> 25
 1.066520e+01 -7.997053e+00 -7.023057e+00 -6.500350e+00 -1.721910e+00 1.572100e-01 -6.528628e+00 6.597672e+00 -3.634921e+00 6.696271e+00 -1.197560e+01 -5.645925e+00 -1.263030e-01 -1.547315e-01 2.358298e-01 3.322650e-01 1.478069e-01 -3.514752e-01 4.129813e-01 3.027291e-01 -5.807141e-02 -3.178952e-01 -2.494906e-01 4.327425e-01 -1.197239e-01
<VARIANCE> 25
 2.809629e+00 7.731398e+00 7.690126e+00 1.437180e+01 2.352415e+01 1.952116e+01 1.377873e+01 1.483260e+02 1.359201e+01 1.879291e+01 1.999309e+01 2.224279e+01 8.780368e-02 3.515073e-01 6.338615e-01 5.065695e-01 9.433733e-01 7.778921e-01 9.908065e-01 1.224637e+00 7.959939e-01 9.649633e-01 1.263167e+00 5.503165e-01 1.450594e-01
<GCONST> 7.183456e+01
<STATE> 3
<MEAN> 25
 7.955345e+00 -6.711493e+00 3.613291e+00 -1.670451e+00 -7.405446e+00 -4.981856e+00 -1.633493e+00 1.139236e+01 -4.869405e+00 6.003321e+00 -3.385650e+00 -3.746667e+00 -4.628144e-01 4.555996e-01 1.621653e+00 2.658785e-01 -1.070471e+00 -3.267782e-01 5.447271e-01 -1.180013e+00 -5.201716e-01 3.476200e-01 2.016565e+00 3.126043e-01 -5.343490e-01
<VARIANCE> 25
 4.136355e+00 4.278431e+00 3.147896e+01 7.562726e+00 2.040449e+01 1.137042e+01 8.827377e+00 4.494213e+01 1.222246e+01 1.219008e+01 4.821446e+01 1.176405e+01 1.300010e-01 3.589378e-01 7.747635e-01 9.038384e-01 9.430120e-01 1.098335e+00 9.000536e-01 2.217821e+00 1.072385e+00 8.930103e-01 9.802425e-01 6.827284e-01 1.281330e-01
<GCONST> 7.187312e+01
<STATE> 4
<MEAN> 25
 2.292374e+00 1.355323e+00 1.344452e+01 -1.586560e-02 -9.670911e+00 -6.366673e-01 1.812485e+00 -2.491076e+00 -1.875911e+00 6.794829e+00 5.014247e+00 -5.468228e-01 -5.442126e-01 5.650469e-01 -1.574073e-01 2.687225e-01 5.433455e-01 6.383439e-01 5.108194e-01 -6.732339e-01 8.051729e-01 -3.046040e-01 -2.588643e-01 3.327153e-01 -1.172081e+00
<VARIANCE> 25
 1.110518e+01 1.011366e+01 2.657020e+01 1.207174e+01 1.819488e+01 2.558489e+01 3.754914e+01 2.832923e+01 3.508527e+01 1.461937e+01 1.590201e+01 1.263814e+01 3.589387e-01 6.225976e-01 1.741177e+00 1.044836e+00 1.054684e+00 1.412234e+00 2.005078e+00 1.294403e+00 1.270864e+00 1.207434e+00 1.363951e+00 7.667021e-01 3.176102e-01
<GCONST> 8.087299e+01
<TRANSP> 5
 0.000000e+00 1.000000e+00 0.000000e+00 0.000000e+00 0.000000e+00
 0.000000e+00 8.987540e-01 1.012460e-01 0.000000e+00 0.000000e+00
 0.000000e+00 0.000000e+00 8.631453e-01 1.368547e-01 0.000000e+00
 0.000000e+00 0.000000e+00 0.000000e+00 9.025381e-01 9.746196e-02
 0.000000e+00 0.000000e+00 0.000000e+00 0.000000e+00 0.000000e+00
<ENDHMM>
~h "d"
<BEGINHMM>
<NUMSTATES> 5
<STATE> 2
<MEAN> 25
 2.950802e+00 5.902300e+00 4.112345e+00 6.432997e+00 2.319459e+00 -1.018559e+00 -4.921396e-01 -2.490900e+00 2.775482e-01 -3.467475e+00 -1.779618e+00 -1.422843e+00 1.209589e+00 -7.807432e-02 3.184268e-01 8.105620e-02 -2.100030e-01 -8.741885e-01 -1.055649e+00 -6.132590e-01 -8.472974e-01 -1.859158e-01 -3.708038e-01 -6.918041e-01 1.525264e+00
<VARIANCE> 25
 2.649143e+01 3.838284e+01 4.096250e+01 2.923295e+01 4.380534e+01 4.069650e+01 3.201871e+01 3.499681e+01 2.401507e+01 1.718178e+01 1.856301e+01 1.311607e+01 4.049603e+00 4.211571e+00 4.081400e+00 3.806432e+00 4.815926e+00 4.973246e+00 3.288691e+00 4.357566e+00 3.866597e+00 2.217888e+00 2.034103e+00 2.292473e+00 2.095256e+00
<GCONST> 1.018306e+02
<STATE> 3
<MEAN> 25
 8.394973e+00 -1.102509e+00 -2.429285e+00 7.140161e-01 3.711127e-01 -2.994976e+00 -6.380982e+00 1.587464e-01 -2.100194e+00 3.354333e+00 -2.085027e+00 -4.561962e+00 1.391580e+00 -2.161723e+00 -1.298491e+00 -2.523901e+00 -1.198756e+00 -2.368187e-01 -1.647750e+00 2.649039e+00 -1.036995e+00 2.558673e+00 -7.566379e-01 -1.411355e+00 2.728679e+00
<VARIANCE> 25
 2.472256e+01 3.452523e+01 2.145110e+01 4.545289e+01 2.499246e+01 2.134405e+01 3.075674e+01 7.368688e+01 2.468979e+01 5.853752e+01 1.688660e+01 1.824734e+01 2.138473e+00 3.545979e+00 2.221491e+00 3.102442e+00 2.387107e+00 3.510938e+00 3.730476e+00 9.387905e+00 2.653900e+00 5.355152e+00 3.252792e+00 1.351708e+00 2.646765e+00
<GCONST> 1.013372e+02
<STATE> 4
<MEAN> 25
 4.987600e+00 -1.218024e+00 8.955766e+00 -3.970223e+00 -8.362254e+00 -4.175863e+00 -7.690444e+00 5.064808e+00 -7.040030e+00 3.990864e+00 -8.718836e-01 -2.183749e+00 -2.434388e-01 3.143344e-01 5.626823e-01 1.983970e-01 -3.460821e-01 -9.798308e-02 1.356051e-02 -3.158171e-01 -1.277315e-01 -1.022615e-01 1.588590e-01 2.451970e-01 -2.032646e-01
<VARIANCE> 25
 1.037097e+01 4.068744e+01 5.903046e+01 2.137537e+01 5.040843e+01 1.858718e+01 2.927310e+01 7.018949e+01 1.737358e+01 3.026149e+01 3.886798e+01 1.238290e+01 4.038157e-01 1.859124e+00 2.193487e+00 1.946934e+00 4.182849e+00 1.382364e+00 3.839401e+00 2.786813e+00 1.403885e+00 2.115371e+00 2.865753e+00 8.638119e-01 2.770718e+00
<GCONST> 9.434802e+01
<TRANSP> 5
 0.000000e+00 1.000000e+00 0.000000e+00 0.000000e+00 0.000000e+00
 0.000000e+00 7.165042e-01 2.834958e-01 0.000000e+00 0.000000e+00
 0.000000e+00 0.000000e+00 6.118009e-01 3.881991e-01 0.000000e+00
 0.000000e+00 0.000000e+00 0.000000e+00 8.854045e-01 1.145954e-01
 0.000000e+00 0.000000e+00 0.000000e+00 0.000000e+00 0.000000e+00
<ENDHMM>
~h "f"
<BEGINHMM>
<NUMSTATES> 5
<STATE> 2
<MEAN> 25
 -3.264684e-01 3.326367e+00 1.198981e+00 2.694210e+00 4.388973e+00 2.015502e+00 5.666214e-01 -1.945310e+00 -4.532095e-01 -2.690876e+00 1.847086e-01 -5.816543e-01 -1.461431e+00 -9.606308e-01 -9.181008e-01 -3.928736e-01 -3.579532e-01 1.446818e-01 1.377035e+00 1.073039e-01 1.212915e+00 4.301070e-01 1.318163e-01 9.855834e-01 -5.806760e-01
<VARIANCE> 25
 2.635960e+01 1.912356e+01 3.005735e+01 2.641778e+01 2.957210e+01 1.452968e+01 2.273376e+01 4.106456e+01 4.010038e+01 2.090710e+01 1.373954e+01 2.170935e+01 1.956148e+00 8.487306e-01 2.647506e+00 2.201828e+00 2.977309e+00 2.460343e+00 3.836257e+00 2.144979e+00 4.264855e+00 2.233272e+00 1.388934e+00 1.687467e+00 1.684081e+00
<GCONST> 9.417401e+01
<STATE> 3
<MEAN> 25
 -5.597951e+00 -9.216995e-01 -1.586623e+00 -1.341817e+00 2.509026e+00 2.455534e+00 2.946394e+00 -4.098079e-01 1.770762e+00 -1.436982e-01 4.482695e-01 1.064709e+00 -2.748590e-01 -1.374961e-01 -8.670191e-02 -1.988706e-01 1.026383e-01 -8.618991e-02 2.718796e-02 1.413891e-01 4.245234e-02 -1.196312e-02 3.673941e-02 -1.170145e-03 1.284094e-01
<VARIANCE> 25
 1.896562e+01 7.720388e+00 7.122961e+00 2.056293e+01 2.005655e+01 1.546710e+01 1.775951e+01 1.588069e+01 1.553191e+01 2.053800e+01 1.335181e+01 1.201523e+01 5.167397e-01 4.184409e-01 5.163519e-01 8.185832e-01 1.027798e+00 9.388546e-01 1.204130e+00 1.454107e+00 1.188954e+00 1.011299e+00 1.148841e+00 9.640471e-01 3.467512e-01
<GCONST> 7.550173e+01
<STATE> 4
<MEAN> 25
 4.178059e-02 -1.400555e+00 -3.175976e+00 -1.812802e+00 -4.496782e-01 -3.756801e+00 1.551243e-01 3.790725e+00 1.527474e+00 4.104447e-01 6.341993e-01 3.305625e-01 6.327388e-01 2.026752e-01 -2.001734e-01 5.151188e-01 -4.805793e-01 -2.476558e-01 -7.172452e-01 -3.770539e-01 -6.701353e-01 1.916483e-01 2.378388e-02 6.486373e-02 4.631910e-01
<VARIANCE> 25
 1.006666e+02 3.063960e+01 4.007067e+01 2.732879e+01 4.217469e+01 5.673454e+01 2.403670e+01 2.777886e+01 2.813610e+01 1.596667e+01 1.237849e+01 1.642853e+01 3.888141e+00 3.854058e+00 1.925003e+00 1.657504e+00 3.375004e+00 3.631523e+00 2.261926e+00 2.415032e+00 1.518278e+00 1.180157e+00 1.200528e+00 1.454320e+00 1.024766e+00
<GCONST> 9.592248e+01
<TRANSP> 5
 0.000000e+00 1.000000e+00 0.000000e+00 0.000000e+00 0.000000e+00
 0.000000e+00 6.430745e-01 3.569255e-01 0.000000e+00 0.000000e+00
 0.000000e+00 0.000000e+00 9.128564e-01 8.714359e-02 0.000000e+00
 0.000000e+00 0.000000e+00 0.000000e+00 8.312431e-01 1.687569e-01
 0.000000e+00 0.000000e+00 0.000000e+00 0.000000e+00 0.000000e+00
<ENDHMM>
~h "k"
<BEGINHMM>
<NUMSTATES> 5
<STATE> 2
<MEAN> 25
 -1.608703e+00 3.011118e+00 -9.811416e-01 2.737873e+00 2.708239e+00 2.551082e+00 1.505980e+00 6.644347e+00 4.252039e+00 -1.787403e+00 3.701580e+00 1.451141e+00 1.763168e-03 2.958179e-02 -5.554905e-03 3.316008e-02 -4.476583e-02 -2.805127e-02 2.518821e-02 1.585195e-02 -1.014164e-02 1.255785e-02 -6.611234e-03 -5.070787e-02 -1.566139e-02
<VARIANCE> 25
 5.057356e+00 6.833141e+00 7.028317e+00 1.439100e+01 1.195165e+01 6.683820e+00 8.515874e+00 2.269472e+01 1.123427e+01 1.333613e+01 8.528195e+00 7.720074e+00 8.164755e-02 1.915123e-01 2.650493e-01 3.393753e-01 5.354556e-01 6.108796e-01 7.343651e-01 8.676115e-01 9.755044e-01 9.178165e-01 8.389745e-01 6.815286e-01 7.394590e-02
<GCONST> 6.153852e+01
<STATE> 3
<MEAN> 25
 -5.812982e+00 -2.201838e+00 -2.575901e+00 7.802022e-01 2.418676e+00 9.851535e-01 5.810803e+00 6.826495e-02 4.033298e+00 -1.736037e+00 1.499061e+00 1.030819e+00 6.129703e-01 -1.057033e+00 -2.511223e-01 -3.502074e-01 -1.867622e+00 -1.581801e+00 -1.123883e-01 7.470835e-01 -1.224055e+00 3.340788e-01 -4.886515e-01 1.462668e-03 1.879554e+00
<VARIANCE> 25
 1.134881e+01 1.828198e+01 9.928748e+00 1.099039e+01 2.224114e+01 1.580656e+01 1.893187e+01 1.615019e+01 1.494454e+01 1.753804e+01 1.151077e+01 1.066540e+01 7.284129e-01 2.252102e+00 1.863922e+00 2.373318e+00 4.157167e+00 3.401368e+00 2.575208e+00 2.861820e+00 3.139977e+00 4.495380e+00 2.258382e+00 2.099244e+00 6.581908e+00
<GCONST> 9.065473e+01
<STATE> 4
<MEAN> 25
 -2.402158e+00 -6.395046e+00 -1.962356e+00 -1.574373e+00 -4.661411e+00 -5.479264e+00 4.535618e+00 3.420114e+00 -2.761805e+00 -1.235558e+00 1.045884e+00 -2.861423e-01 1.292154e+00 -3.232563e-01 1.545522e-01 -2.133375e-02 -1.971244e-02 -8.499618e-01 -1.073373e-02 6.549051e-01 -3.392456e-01 -4.137426e-01 -3.354891e-01 -2.803110e-01 1.880826e+00
<VARIANCE> 25
 2.381569e+01 2.323551e+01 2.324868e+01 5.053915e+01 3.147037e+01 4.063104e+01 2.511355e+01 5.125251e+01 3.142489e+01 4.146428e+01 2.072598e+01 2.122272e+01 4.237585e+00 2.240282e+00 2.517755e+00 3.811624e+00 6.146172e+00 4.385837e+00 3.280843e+00 6.495531e+00 4.447243e+00 6.805853e+00 2.755959e+00 1.921079e+00 5.197226e+00
<GCONST> 1.044949e+02
<TRANSP> 5
 0.000000e+00 1.000000e+00 0.000000e+00 0.000000e+00 0.000000e+00
 0.000000e+00 8.723076e-01 1.276924e-01 0.000000e+00 0.000000e+00
 0.000000e+00 0.000000e+00 4.954566e-01 5.045434e-01 0.000000e+00
 0.000000e+00 0.000000e+00 0.000000e+00 7.987955e-01 2.012045e-01
 0.000000e+00 0.000000e+00 0.000000e+00 0.000000e+00 0.000000e+00
<ENDHMM>
~h "l"
<BEGINHMM>
<NUMSTATES> 5
<STATE> 2
<MEAN> 25
 -3.153021e+00 -1.517063e-01 1.010420e-01 5.475221e+00 1.830249e+00 3.073408e+00 3.495039e+00 6.737880e-01 2.392227e+00 -2.683344e+00 -7.506471e-01 8.117558e-01 3.742675e-02 -2.955733e-03 -6.735310e-03 -6.381842e-01 -5.386451e-01 2.733824e-01 -1.274674e-01 4.273291e-01 4.665010e-01 -2.670743e-01 -1.807715e-01 2.715104e-01 9.302524e-02
<VARIANCE> 25
 1.984454e+00 3.239336e+00 2.616162e+00 1.128783e+01 1.321166e+01 5.112109e+00 2.584300e+01 2.079407e+01 9.194547e+00 5.733832e+00 1.880421e+01 7.175687e+00 5.237235e-02 3.136537e-01 3.285565e-01 5.313550e-01 1.601971e-01 1.268635e+00 4.011683e+00 1.280724e+00 1.225979e+00 6.858438e-01 2.596188e-01 3.432032e-01 1.833960e-01
<GCONST> 6.046384e+01
<STATE> 3
<MEAN> 25
 -4.539226e+00 -7.623947e-01 3.503840e-01 3.858658e+00 1.683020e+00 2.230234e+00 5.177137e+00 1.656623e+00 2.566971e+00 -1.762088e+00 1.733612e+00 8.140369e-01 -1.156945e-01 7.836762e-02 -2.991653e-02 -1.823089e-01 2.348986e-01 2.501159e-01 4.641964e-01 4.876679e-02 -1.244247e-01 2.650742e-01 6.647813e-02 -5.969484e-02 -6.327295e-02
<VARIANCE> 25
 5.690226e+00 7.056167e+00 8.864548e+00 5.728272e+00 1.170425e+01 1.723138e+01 1.568006e+01 1.594088e+01 9.712401e+00 9.029463e+00 1.078957e+01 8.784977e+00 4.054857e-01 6.685141e-01 1.002600e+00 6.315327e-01 5.642307e-01 3.066526e+00 1.736157e+00 6.604060e-01 9.018813e-01 8.795559e-01 5.327432e-01 1.315338e+00 3.201471e-01
<GCONST> 7.061698e+01
<STATE> 4
<MEAN> 25
 -3.010436e+00 2.023712e+00 -1.352191e+00 -2.770057e-02 -9.547427e-01 4.272847e+00 3.592324e+00 7.798927e-01 2.344008e+00 1.698199e+00 -2.630828e-01 5.635762e-01 -2.488112e-02 1.870397e-02 3.287611e-03 -3.227729e-02 -1.607443e-02 -2.754232e-02 -2.219350e-02 8.658029e-03 5.945538e-02 1.349953e-01 1.586938e-01 8.031390e-02 -2.438636e-02
<VARIANCE> 25
 1.308257e+00 5.174974e+00 2.682471e+00 5.543077e+00 1.005660e+01 7.418053e+00 8.948202e+00 2.899555e+01 7.149282e+00 1.160785e+01 1.112415e+01 9.016068e+00 1.009421e-01 1.949750e-01 1.880562e-01 3.681844e-01 3.928665e-01 5.628940e-01 8.704404e-01 1.136084e+00 8.486318e-01 8.896919e-01 7.441487e-01 7.413461e-01 3.483647e-02
<GCONST> 5.710500e+01
<TRANSP> 5
 0.000000e+00 1.000000e+00 0.000000e+00 0.000000e+00 0.000000e+00
 0.000000e+00 4.992871e-01 5.007129e-01 0.000000e+00 0.000000e+00
 0.000000e+00 0.000000e+00 7.500796e-01 2.499204e-01 0.000000e+00
 0.000000e+00 0.000000e+00 0.000000e+00 9.579777e-01 4.202233e-02
 0.000000e+00 0.000000e+00 0.000000e+00 0.000000e+00 0.000000e+00
<ENDHMM>
~h "m"
<BEGINHMM>
<NUMSTATES> 5
<STATE> 2
<MEAN> 25
 4.177852e+00 -2.022492e+00 -3.314514e+00 -3.046818e+00 -3.080841e+00 -2.929987e+00 1.222858e+00 1.333260e+00 1.276234e+00 6.437168e-01 -2.534154e+00 6.978790e-01 1.556723e+00 1.312973e-01 -1.806265e-01 -4.635494e-01 -5.516774e-01 -1.042249e+00 -6.248553e-01 -7.054280e-02 -8.221289e-01 2.358759e-01 -8.831376e-01 -1.322839e-01 1.559161e+00
<VARIANCE> 25
 3.227861e+01 3.759572e+01 3.197103e+01 3.865537e+01 5.644661e+01 6.541585e+01 5.715366e+01 7.133483e+01 4.377957e+01 2.074682e+01 3.743581e+01 1.934178e+01 2.718964e+00 3.914050e+00 2.887747e+00 2.291668e+00 3.342017e+00 5.399626e+00 4.617337e+00 7.314925e+00 3.486261e+00 2.776577e+00 3.659733e+00 1.429734e+00 4.466234e+00
<GCONST> 1.061801e+02
<STATE> 3
<MEAN> 25
 1.108557e+01 -6.245606e+00 -5.740993e+00 -7.015626e+00 1.606585e+00 1.434785e+00 -3.402978e+00 2.598687e+00 -4.766386e+00 2.708063e+00 -8.285736e+00 -5.216101e-01 6.058088e-02 -3.550469e-01 4.493063e-04 -1.802043e-01 -2.545350e-01 -3.188409e-01 8.041997e-02 3.316561e-01 -4.168681e-01 2.707002e-01 -4.972302e-02 8.217105e-02 7.476395e-02
<VARIANCE> 25
 1.260997e+01 2.590042e+01 2.374641e+01 3.056811e+01 5.808480e+01 8.421938e+01 5.147051e+01 4.788434e+01 3.167495e+01 2.149902e+01 3.760513e+01 1.169054e+01 3.807456e-01 3.584322e-01 8.970364e-01 9.179287e-01 1.661330e+00 1.521689e+00 1.137514e+00 1.738895e+00 1.835512e+00 1.578064e+00 1.183839e+00 8.011639e-01 3.736606e-01
<GCONST> 8.668745e+01
<STATE> 4
<MEAN> 25
 9.231667e+00 -4.429314e+00 -4.147732e+00 -3.510224e+00 -2.684027e+00 -4.318482e+00 -2.065500e+00 -3.382696e+00 -6.192560e+00 3.928986e+00 -3.028087e+00 7.428859e-01 -2.441276e-01 5.392911e-01 6.032480e-01 3.889512e-01 3.449820e-01 2.070788e-03 -3.601530e-01 -3.719196e-01 -3.699532e-01 1.831315e-01 4.605171e-01 -2.692506e-02 -5.217803e-01
<VARIANCE> 25
 1.114741e+01 2.804973e+01 9.568118e+01 3.865440e+01 1.005569e+02 4.296104e+01 6.469703e+01 1.009559e+02 2.425043e+01 4.044448e+01 2.743027e+01 2.257178e+01 2.563860e-01 8.565000e-01 1.820207e+00 1.500575e+00 3.340917e+00 2.231203e+00 3.579949e+00 1.941166e+00 1.325736e+00 1.892312e+00 1.420529e+00 1.571740e+00 3.541213e-01
<GCONST> 9.450104e+01
<TRANSP> 5
 0.000000e+00 1.000000e+00 0.000000e+00 0.000000e+00 0.000000e+00
 0.000000e+00 6.587999e-01 3.412001e-01 0.000000e+00 0.000000e+00
 0.000000e+00 0.000000e+00 6.831331e-01 3.168670e-01 0.000000e+00
 0.000000e+00 0.000000e+00 0.000000e+00 7.608217e-01 2.391783e-01
 0.000000e+00 0.000000e+00 0.000000e+00 0.000000e+00 0.000000e+00
<ENDHMM>
~h "n"
<BEGINHMM>
<NUMSTATES> 5
<STATE> 2
<MEAN> 25
 8.459919e+00 3.803377e+00 -1.186815e+00 -1.558794e+00 -3.788783e-01 1.973202e-01 -2.857855e+00 -2.768010e+00 -1.960678e+00 -1.820559e+00 -1.301808e+00 -1.948414e+00 9.967889e-01 -8.369022e-01 -2.636793e-01 -9.017475e-01 -2.907278e-01 3.727758e-01 -8.912248e-01 -2.877473e-02 -6.570920e-01 6.598288e-02 -6.001288e-01 -3.752021e-01 1.519092e+00
<VARIANCE> 25
 3.848180e+01 3.517075e+01 3.078899e+01 9.005062e+01 6.260579e+01 5.276874e+01 3.904614e+01 4.035086e+01 4.181364e+01 2.125072e+01 2.166016e+01 2.285443e+01 3.309607e+00 4.030369e+00 2.238780e+00 3.454666e+00 3.443670e+00 5.045947e+00 3.913975e+00 4.502419e+00 3.311511e+00 2.361001e+00 2.175362e+00 1.647856e+00 1.968814e+00
<GCONST> 1.039154e+02
<STATE> 3
<MEAN> 25
 9.259999e+00 -4.869044e+00 1.424844e+00 -6.859607e+00 -3.164970e+00 2.155839e+00 -7.469099e+00 7.854879e-03 -6.047822e+00 1.628395e+00 -4.773498e+00 -1.930020e+00 -2.345875e-01 3.844804e-01 6.075763e-01 8.348708e-01 -1.119893e-01 -4.299777e-01 -1.580972e-01 -3.673573e-01 3.740892e-01 -3.046649e-01 1.472645e-01 1.602198e-01 -5.665501e-01
<VARIANCE> 25
 1.158987e+01 3.331895e+01 7.229949e+01 4.387236e+01 6.065411e+01 5.985433e+01 5.103563e+01 8.333966e+01 3.662276e+01 3.335305e+01 3.406826e+01 1.526328e+01 4.364974e-01 1.752247e+00 1.544320e+00 1.827348e+00 3.029052e+00 2.040715e+00 2.513646e+00 4.004158e+00 2.838658e+00 2.178225e+00 2.360507e+00 1.168272e+00 1.117710e+00
<GCONST> 9.772701e+01
<STATE> 4
<MEAN> 25
 3.262770e+00 3.637969e+00 -4.867539e-01 1.767345e+00 1.503372e+00 9.757409e-01 -2.087282e+00 -2.449937e+00 1.855477e+00 -2.844770e+00 -1.151849e+00 -4.106964e-01 -2.169215e-01 1.210517e-01 1.057471e-01 2.830710e-01 2.301927e-01 6.375425e-02 1.198955e-01 8.616636e-03 2.922141e-02 -6.191135e-02 9.642117e-02 6.636167e-02 -3.284399e-01
<VARIANCE> 25
 3.443232e+01 1.168407e+01 2.451565e+01 2.134828e+01 2.411283e+01 2.664248e+01 5.053732e+01 6.074052e+01 3.304995e+01 2.486473e+01 2.353235e+01 2.528987e+01 1.047007e+00 7.693371e-01 9.439434e-01 1.007343e+00 1.168934e+00 1.320818e+00 1.484247e+00 1.852153e+00 1.800428e+00 1.547261e+00 1.549670e+00 1.562116e+00 5.678678e-01
<GCONST> 8.832092e+01
<TRANSP> 5
 0.000000e+00 1.000000e+00 0.000000e+00 0.000000e+00 0.000000e+00
 0.000000e+00 7.964184e-01 2.035816e-01 0.000000e+00 0.000000e+00
 0.000000e+00 0.000000e+00 8.838547e-01 1.161452e-01 0.000000e+00
 0.000000e+00 0.000000e+00 0.000000e+00 8.776919e-01 1.223081e-01
 0.000000e+00 0.000000e+00 0.000000e+00 0.000000e+00 0.000000e+00
<ENDHMM>
~h "p"
<BEGINHMM>
<NUMSTATES> 5
<STATE> 2
<MEAN> 25
 7.257195e+00 2.543484e+00 9.271576e-01 8.166283e+00 2.614133e+00 -2.720202e+00 -7.939024e+00 -5.007525e+00 4.529958e+00 -2.049668e+00 -3.562268e+00 1.466202e+00 -7.048406e-01 5.177751e-02 -6.303303e-01 -1.357191e-01 -4.843578e-01 1.766090e-01 9.057326e-01 -2.664654e-01 -1.112847e-01 -4.819946e-01 -2.417649e-01 -5.595917e-02 -7.724198e-01
<VARIANCE> 25
 3.381358e+01 5.825599e+00 4.822553e+00 1.173219e+01 1.592485e+01 1.198949e+01 3.173885e+01 2.708955e+01 3.503693e+01 8.712490e+00 4.803537e+00 2.014854e+01 2.349662e-01 1.140001e+00 1.469010e+00 1.218650e+00 2.102089e+00 2.964568e+00 2.804502e+00 1.422188e+00 2.155545e+00 1.239516e+00 1.065578e+00 1.374317e+00 2.165627e-01
<GCONST> 7.988043e+01
<STATE> 3
<MEAN> 25
 1.556676e+00 3.983749e+00 1.941211e+00 6.657193e+00 2.264800e+00 2.489550e+00 9.899729e-01 -3.996328e+00 -1.562853e+00 -4.794740e+00 -3.442484e+00 -2.545519e+00 -1.363825e+00 -4.828143e-01 -4.539086e-01 -1.092845e+00 -7.538149e-01 7.736240e-01 1.586408e+00 1.054591e+00 5.626577e-01 5.447349e-01 5.647412e-02 1.294680e-01 -1.061571e+00
<VARIANCE> 25
 9.319968e+00 1.202130e+01 1.017812e+01 1.601208e+01 9.374463e+00 9.666140e+00 2.275710e+01 1.783687e+01 1.311509e+01 1.752302e+01 3.824893e+00 4.576922e+00 3.588998e-01 1.319290e+00 6.727897e-01 1.170592e+00 3.030148e+00 7.230514e-01 1.690144e+00 9.233140e-01 2.712076e+00 1.756731e+00 8.408401e-01 4.882763e-01 2.134161e-01
<GCONST> 7.394130e+01
<STATE> 4
<MEAN> 25
 -2.852858e+00 6.487746e-01 2.330886e-01 6.882894e+00 2.156784e+00 7.322907e-01 1.367670e+00 -1.032172e+00 1.644558e-01 -1.925750e+00 4.079780e-01 -7.898937e-01 -4.034841e-01 2.904815e-02 -1.943587e-01 -4.541210e-01 -5.196019e-01 -1.202328e-01 -2.125781e-01 -5.196716e-02 -1.097204e-01 -6.392813e-02 5.421156e-01 3.459787e-01 -2.134788e-01
<VARIANCE> 25
 9.128135e-01 1.833980e+00 6.340002e+00 2.979894e+01 2.219965e+01 6.029663e+00 1.039033e+01 2.201639e+01 1.757124e+01 1.520953e+01 1.488871e+01 8.199749e+00 9.167310e-02 4.112404e-01 7.657028e-02 1.073629e+00 2.904913e-01 9.177321e-01 1.453646e+00 3.744078e-01 1.300273e+00 1.020233e+00 5.293235e-01 1.205420e+00 1.645121e-02
<GCONST> 6.044481e+01
<TRANSP> 5
 0.000000e+00 1.000000e+00 0.000000e+00 0.000000e+00 0.000000e+00
 0.000000e+00 6.431287e-01 3.568714e-01 0.000000e+00 0.000000e+00
 0.000000e+00 0.000000e+00 6.408257e-01 3.591743e-01 0.000000e+00
 0.000000e+00 0.000000e+00 0.000000e+00 3.767036e-01 6.232964e-01
 0.000000e+00 0.000000e+00 0.000000e+00 0.000000e+00 0.000000e+00
<ENDHMM>
~h "r"
<BEGINHMM>
<NUMSTATES> 5
<STATE> 2
<MEAN> 25
 1.116259e+00 1.682864e+00 4.985348e+00 4.102177e+00 -2.980340e+00 -3.580132e+00 -5.268868e-01 -5.088706e+00 -2.319499e+00 -2.709328e+00 -1.216980e+00 -6.197276e-01 1.591429e+00 -4.438607e-01 9.140950e-01 4.027001e-01 -4.372155e-01 -7.865874e-01 -7.169673e-01 -7.180043e-01 -1.692293e+00 -6.602422e-01 1.261502e-01 -2.915350e-02 7.084704e-01
<VARIANCE> 25
 5.634462e+01 5.790593e+01 9.605622e+01 4.593721e+01 4.433939e+01 4.168427e+01 7.573573e+01 8.452918e+01 6.874155e+01 2.416629e+01 2.781263e+01 1.262247e+01 6.579421e+00 4.626099e+00 4.434040e+00 7.096628e+00 2.476799e+00 6.719600e+00 6.474236e+00 1.011311e+01 7.808253e+00 2.423944e+00 5.160383e+00 2.502134e+00 1.732598e+00
<GCONST> 1.118987e+02
<STATE> 3
<MEAN> 25
 9.960457e+00 -3.840338e+00 9.757048e-01 3.963578e+00 -8.718069e-01 -6.950403e+00 -1.010710e+01 -4.711229e+00 -4.658680e+00 -6.151046e+00 -1.211403e-01 2.036430e+00 9.603115e-01 -5.783528e-01 -8.629692e-01 4.755451e-01 1.135318e+00 -4.018954e-01 -1.676181e+00 -1.069875e-01 -5.297371e-02 -3.709905e-01 8.127843e-01 6.875966e-01 -1.580681e-01
<VARIANCE> 25
 3.264822e+01 2.477950e+01 9.185701e+01 7.929967e+01 9.865576e+01 5.765041e+01 6.163813e+01 7.012991e+01 6.856841e+01 3.297147e+01 3.963076e+01 2.098860e+01 3.788229e+00 1.557944e+00 3.284485e+00 3.117474e+00 3.162892e+00 4.939093e+00 3.363637e+00 4.626209e+00 3.421030e+00 2.994171e+00 2.705417e+00 2.077693e+00 6.496804e-01
<GCONST> 1.062177e+02
<STATE> 4
<MEAN> 25
 1.123076e+01 -4.074136e+00 -3.018985e+00 7.100389e-01 -3.205430e+00 -5.968150e+00 -1.194570e+01 6.559389e+00 -5.215256e+00 -3.573506e+00 4.017745e+00 2.093643e+00 -4.555593e-01 4.306971e-02 7.352293e-01 3.190624e-01 -2.487779e-01 -1.335717e-01 2.341203e-01 4.156348e-02 -3.124230e-01 2.897305e-01 2.787207e-01 -3.204109e-01 -3.203868e-01
<VARIANCE> 25
 3.584089e+01 3.699141e+01 7.988216e+01 7.259057e+01 4.837428e+01 7.917171e+01 7.622143e+01 6.524075e+01 5.951800e+01 4.059221e+01 3.578259e+01 1.604220e+01 5.195283e-01 8.111412e-01 1.866913e+00 1.434165e+00 1.933978e+00 1.784142e+00 2.410450e+00 1.805781e+00 3.500844e+00 2.073426e+00 2.145942e+00 1.535148e+00 5.229590e-01
<GCONST> 9.806316e+01
<TRANSP> 5
 0.000000e+00 1.000000e+00 0.000000e+00 0.000000e+00 0.000000e+00
 0.000000e+00 6.378043e-01 3.621957e-01 0.000000e+00 0.000000e+00
 0.000000e+00 0.000000e+00 6.690941e-01 3.309060e-01 0.000000e+00
 0.000000e+00 0.000000e+00 0.000000e+00 8.160688e-01 1.839312e-01
 0.000000e+00 0.000000e+00 0.000000e+00 0.000000e+00 0.000000e+00
<ENDHMM>
~h "s"
<BEGINHMM>
<NUMSTATES> 5
<STATE> 2
<MEAN> 25
 -7.705301e+00 1.071320e+00 -1.819025e-01 3.709710e+00 3.098146e+00 -1.186045e-01 6.647828e+00 2.184014e+00 5.417866e+00 2.227424e+00 2.086221e+00 2.848434e+00 -1.061063e+00 8.284795e-01 -1.115269e+00 -1.796834e-01 1.678466e-01 -2.138281e-01 -1.182233e-01 -1.189626e-01 1.195820e-01 -8.809501e-02 3.957867e-01 2.594814e-01 8.622057e-02
<VARIANCE> 25
 4.512341e+01 2.953846e+01 5.932746e+01 3.265467e+01 6.144230e+01 3.095334e+01 4.344158e+01 2.408065e+01 4.338312e+01 2.207061e+01 1.927995e+01 2.296622e+01 3.814151e+00 2.022244e+00 3.372821e+00 3.352805e+00 3.548553e+00 3.148485e+00 3.420865e+00 2.743873e+00 3.252390e+00 2.238803e+00 1.646699e+00 1.816358e+00 2.608531e+00
<GCONST> 1.013328e+02
<STATE> 3
<MEAN> 25
 -1.676527e+01 7.535398e+00 -8.358896e+00 1.451710e+00 6.894231e+00 -3.523471e+00 6.358926e+00 -1.610081e+00 6.166446e+00 -3.580040e-01 1.432946e+00 2.231351e+00 1.522422e-01 -7.603721e-02 8.154710e-02 -7.365182e-02 3.772319e-02 3.878762e-02 8.452839e-02 5.505822e-02 -4.683791e-03 6.846756e-02 -4.532696e-02 1.365270e-01 -3.377631e-01
<VARIANCE> 25
 1.243762e+01 1.116061e+01 1.655788e+01 1.412917e+01 1.841247e+01 1.566433e+01 1.844352e+01 1.763427e+01 1.647527e+01 1.562002e+01 1.491635e+01 1.256081e+01 3.782209e-01 4.789140e-01 9.464877e-01 7.425528e-01 1.040363e+00 1.289226e+00 1.674369e+00 1.893758e+00 1.728841e+00 1.615666e+00 1.412356e+00 1.181368e+00 2.271208e-01
<GCONST> 7.801086e+01
<STATE> 4
<MEAN> 25
 -1.038284e+01 -2.130970e+00 5.163262e+00 -1.639076e+00 -1.149984e+00 2.261671e-01 7.161620e+00 -5.059016e-01 1.583178e+00 3.643514e+00 1.529113e+00 3.967311e+00 1.071216e+00 -4.740188e-01 4.589805e-01 1.451432e-01 -4.254450e-01 9.367960e-02 -3.477854e-01 -3.335606e-02 -2.913775e-01 -1.213190e-01 5.376074e-02 -1.970597e-01 -2.949684e-01
<VARIANCE> 25
 6.224263e+01 2.578241e+01 1.032281e+02 2.281017e+01 5.779150e+01 2.368677e+01 4.181971e+01 2.161257e+01 2.864069e+01 2.772337e+01 2.878723e+01 1.560025e+01 3.982752e+00 1.711811e+00 3.701656e+00 1.401221e+00 2.343411e+00 1.940613e+00 2.596024e+00 2.282937e+00 2.102356e+00 1.790583e+00 2.084715e+00 1.653710e+00 1.660778e+00
<GCONST> 9.783475e+01
<TRANSP> 5
 0.000000e+00 1.000000e+00 0.000000e+00 0.000000e+00 0.000000e+00
 0.000000e+00 6.815845e-01 3.184155e-01 0.000000e+00 0.000000e+00
 0.000000e+00 0.000000e+00 9.103076e-01 8.969241e-02 0.000000e+00
 0.000000e+00 0.000000e+00 0.000000e+00 8.098231e-01 1.901769e-01
 0.000000e+00 0.000000e+00 0.000000e+00 0.000000e+00 0.000000e+00
<ENDHMM>
~h "t"
<BEGINHMM>
<NUMSTATES> 5
<STATE> 2
<MEAN> 25
 4.851840e+00 3.743479e+00 6.817193e+00 2.649564e+00 -4.083433e+00 -5.491156e+00 -7.244178e+00 -5.854027e+00 -1.814778e+00 -3.809803e+00 -1.516150e+00 -2.441668e+00 -4.872113e-01 1.439783e-01 -1.003895e+00 1.031278e+00 1.621022e+00 1.062983e+00 1.705322e+00 -2.229501e-01 9.026216e-01 -6.290805e-01 -3.294832e-01 5.601922e-01 -1.808484e+00
<VARIANCE> 25
 1.784001e+01 3.960084e+01 3.739378e+01 1.924922e+01 7.352275e+01 3.265331e+01 6.690051e+01 4.428621e+01 3.050281e+01 2.992103e+01 2.212177e+01 1.843817e+01 7.721925e-01 2.058074e+00 2.972990e+00 1.606479e+00 3.623924e+00 2.895643e+00 2.973642e+00 2.062356e+00 2.550134e+00 1.692003e+00 1.668796e+00 1.900638e+00 2.113309e+00
<GCONST> 9.724685e+01
<STATE> 3
<MEAN> 25
 2.434944e+00 5.481990e+00 3.747259e+00 6.019952e+00 3.475050e+00 1.042795e+00 -5.776305e-01 -2.163626e+00 7.128258e-01 -4.399769e+00 -3.829005e+00 -2.470195e+00 -1.065322e+00 -5.761091e-01 -6.026996e-01 1.212535e-02 5.709758e-01 6.948472e-01 1.134133e+00 8.949095e-01 4.365718e-01 5.702361e-01 6.189439e-01 5.254249e-01 -7.077801e-01
<VARIANCE> 25
 1.780443e+01 1.425328e+01 9.799098e+00 1.298129e+01 1.797845e+01 1.579956e+01 2.365937e+01 2.888961e+01 1.242475e+01 2.782454e+01 2.418183e+01 1.805447e+01 9.383277e-01 1.217934e+00 1.414969e+00 1.392104e+00 1.846691e+00 1.348457e+00 2.398510e+00 2.290022e+00 1.726906e+00 1.630126e+00 1.689196e+00 1.890674e+00 5.104059e-01
<GCONST> 8.538098e+01
<STATE> 4
<MEAN> 25
 -3.489308e+00 9.571737e-01 -1.468366e+00 2.882161e+00 3.107207e+00 2.749594e+00 4.745675e+00 2.536569e+00 3.965197e+00 -1.249181e+00 2.330482e+00 2.914846e+00 -1.550502e-01 -2.087382e-01 -1.266448e-01 -1.425575e-01 -7.064789e-02 -1.071376e-01 -1.180530e-02 1.196669e-01 5.221042e-02 9.721661e-02 1.238128e-01 1.961691e-02 1.441632e-01
<VARIANCE> 25
 8.173425e+00 1.533715e+01 8.268994e+00 1.524926e+01 1.939676e+01 1.851275e+01 1.836102e+01 3.057602e+01 1.606802e+01 1.580236e+01 1.495665e+01 1.268926e+01 6.770558e-01 1.414750e+00 1.009538e+00 1.814383e+00 1.923829e+00 1.991143e+00 2.056186e+00 2.363700e+00 1.710442e+00 1.762968e+00 1.528513e+00 1.271932e+00 1.966303e+00
<GCONST> 8.454311e+01
<TRANSP> 5
 0.000000e+00 1.000000e+00 0.000000e+00 0.000000e+00 0.000000e+00
 0.000000e+00 6.989436e-01 3.010564e-01 0.000000e+00 0.000000e+00
 0.000000e+00 0.000000e+00 7.729202e-01 2.270798e-01 0.000000e+00
 0.000000e+00 0.000000e+00 0.000000e+00 9.071991e-01 9.280092e-02
 0.000000e+00 0.000000e+00 0.000000e+00 0.000000e+00 0.000000e+00
<ENDHMM>
~h "v"
<BEGINHMM>
<NUMSTATES> 5
<STATE> 2
<MEAN> 25
 -3.567163e+00 -3.677569e-01 -8.478464e-01 9.745443e-01 2.902542e-01 1.158750e+00 -3.492215e-01 -4.713970e-01 7.704714e-01 3.945180e-01 5.735500e-01 -2.350424e-01 2.434786e+00 4.330543e-01 1.088933e+00 -9.136826e-01 -1.427694e+00 -1.365348e+00 -1.157565e+00 -5.993521e-01 -1.065080e+00 1.410720e-01 -2.096632e-01 -6.228977e-01 1.427201e+00
<VARIANCE> 25
 4.460138e+01 3.869263e+01 7.203851e+01 3.616019e+01 3.982344e+01 4.350581e+01 4.357316e+01 2.921488e+01 2.968588e+01 1.677632e+01 2.108792e+01 1.533017e+01 6.225980e+00 3.321183e+00 3.798466e+00 4.837625e+00 6.798872e+00 4.911144e+00 4.680236e+00 4.062371e+00 5.701293e+00 2.929769e+00 2.825778e+00 1.781299e+00 2.956181e+00
<GCONST> 1.057702e+02
<STATE> 3
<MEAN> 25
 9.567474e+00 1.338179e+00 8.591667e-01 -1.835429e+00 -7.207234e+00 -8.484694e+00 -4.235706e+00 2.281323e+00 -3.086259e+00 1.831886e+00 6.892681e-02 -3.082113e+00 1.440546e+00 -6.447294e-01 -1.188498e+00 -2.518997e-01 -2.870271e-01 -2.084513e-01 2.344136e-01 7.519196e-01 -8.005650e-01 2.580611e-01 -2.223226e-01 -1.458431e-01 6.829643e-01
<VARIANCE> 25
 2.471376e+01 1.550499e+01 1.117464e+02 7.552380e+01 5.788783e+01 7.304665e+01 2.886889e+01 7.023682e+01 6.746379e+01 3.761683e+01 2.662950e+01 1.048452e+01 2.562144e+00 2.280465e+00 1.926573e+00 4.483960e+00 4.126354e+00 5.015897e+00 2.360024e+00 4.041734e+00 6.672259e+00 2.700508e+00 1.495447e+00 1.063691e+00 1.010562e+00
<GCONST> 1.029442e+02
<STATE> 4
<MEAN> 25
 9.779486e+00 -6.038798e+00 -2.517190e+00 -3.906864e+00 -3.206203e+00 -3.637816e+00 -4.221554e+00 4.081412e-01 -8.874943e+00 5.662233e+00 -4.891031e+00 -2.320791e+00 -2.738236e-01 -7.329407e-02 4.761223e-01 5.843269e-01 3.325250e-01 -2.756363e-01 -3.030199e-01 -1.244441e-01 -1.877103e-01 -8.753105e-02 2.868695e-02 1.833932e-01 -1.413077e-01
<VARIANCE> 25
 9.935301e+00 1.939985e+01 5.950948e+01 6.946769e+01 1.022469e+02 6.611903e+01 4.353553e+01 9.498712e+01 3.098608e+01 3.271033e+01 4.600838e+01 1.718967e+01 1.563256e-01 9.038555e-01 1.465455e+00 1.021434e+00 2.975408e+00 2.035156e+00 2.167827e+00 1.687411e+00 1.363130e+00 1.067823e+00 1.944350e+00 1.003325e+00 3.768275e-01
<GCONST> 9.188783e+01
<TRANSP> 5
 0.000000e+00 1.000000e+00 0.000000e+00 0.000000e+00 0.000000e+00
 0.000000e+00 7.735866e-01 2.264134e-01 0.000000e+00 0.000000e+00
 0.000000e+00 0.000000e+00 6.102485e-01 3.897515e-01 0.000000e+00
 0.000000e+00 0.000000e+00 0.000000e+00 8.783224e-01 1.216776e-01
 0.000000e+00 0.000000e+00 0.000000e+00 0.000000e+00 0.000000e+00
<ENDHMM>
~h "w"
<BEGINHMM>
<NUMSTATES> 5
<STATE> 2
<MEAN> 25
 1.721161e+00 -1.552525e+00 8.870869e+00 3.019075e+00 -4.446733e+00 -7.454586e+00 -5.164300e+00 3.001932e+00 -6.017367e+00 2.674862e+00 6.982456e-01 -1.923902e+00 3.202587e-02 4.287610e-01 -3.236329e-01 1.196372e+00 6.234829e-01 -5.111843e-03 1.763486e-01 -7.834415e-01 1.312535e+00 -2.578050e-01 4.354662e-01 5.254417e-01 -1.111577e+00
<VARIANCE> 25
 3.575247e+01 1.763420e+01 3.257266e+01 1.924036e+01 1.087965e+02 1.081800e+02 5.709932e+01 1.020170e+01 8.746158e+01 4.985873e+01 2.169515e+01 5.858474e+01 2.521017e-01 7.698179e-01 1.345250e+00 2.077909e+00 1.282235e+00 2.331427e+00 3.646379e+00 3.223755e+00 2.994543e+00 2.399689e+00 1.903287e+00 1.030325e+00 9.742931e-01
<GCONST> 9.566977e+01
<STATE> 3
<MEAN> 25
 -8.726597e-01 2.238801e+00 5.251645e+00 8.162439e+00 -3.589988e-01 -2.256830e+00 -2.739138e+00 -1.110093e+00 2.402821e+00 -1.261804e+00 -1.138148e+00 6.981572e-01 -5.307127e-01 3.994905e-01 -1.412058e+00 1.194427e+00 1.227533e+00 1.278053e+00 1.313231e+00 -9.052266e-01 1.234422e+00 -4.168992e-01 -2.986583e-01 3.143700e-01 -1.511872e+00
<VARIANCE> 25
 1.946055e+01 1.704308e+01 2.858273e+01 2.202415e+01 5.225235e+01 7.977271e+01 4.677321e+01 2.838289e+01 2.734342e+01 2.873172e+01 2.619418e+01 3.707927e+01 9.662063e-01 2.533826e+00 2.654255e+00 1.615812e+00 4.002720e+00 6.380214e+00 3.362721e+00 5.013239e+00 4.774251e+00 2.249261e+00 2.654813e+00 2.674775e+00 1.112176e+00
<GCONST> 1.001242e+02
<STATE> 4
<MEAN> 25
 -2.513763e+00 2.167180e+00 -9.589356e-02 6.561442e+00 3.957902e+00 2.213543e+00 2.654010e+00 1.294306e+00 4.844192e+00 -8.096092e-01 1.136558e+00 1.133450e+00 -1.299984e-01 1.428775e-01 -2.558068e-01 -3.016728e-01 -1.269084e-01 7.147180e-02 5.724451e-01 3.075029e-01 -3.326830e-02 9.616407e-02 3.815220e-01 3.665534e-01 -2.953165e-01
<VARIANCE> 25
 1.554544e+01 1.283366e+01 1.130755e+01 9.079392e+00 1.297186e+01 1.557191e+01 4.919501e+01 4.783781e+01 1.924531e+01 1.910365e+01 1.939561e+01 3.251185e+01 1.130617e+00 1.362475e+00 7.887884e-01 6.040577e-01 1.379730e+00 1.285532e+00 2.812470e+00 2.362015e+00 2.231762e+00 2.082765e+00 1.202622e+00 2.594002e+00 4.508853e-01
<GCONST> 8.533491e+01
<TRANSP> 5
 0.000000e+00 1.000000e+00 0.000000e+00 0.000000e+00 0.000000e+00
 0.000000e+00 3.563614e-01 6.436386e-01 0.000000e+00 0.000000e+00
 0.000000e+00 0.000000e+00 6.033170e-01 3.966830e-01 0.000000e+00
 0.000000e+00 0.000000e+00 0.000000e+00 9.112608e-01 8.873914e-02
 0.000000e+00 0.000000e+00 0.000000e+00 0.000000e+00 0.000000e+00
<ENDHMM>
~h "z"
<BEGINHMM>
<NUMSTATES> 5
<STATE> 2
<MEAN> 25
 3.211159e+00 6.125634e+00 3.763015e+00 6.462600e+00 2.173875e+00 -2.634513e+00 -1.396688e+00 -2.085888e+00 3.862219e-01 -8.083549e-01 -8.654429e-01 -2.300972e+00 -1.198672e+00 2.171772e-01 -3.811613e-02 1.376414e-01 1.816953e-01 -1.392292e-01 7.933055e-01 1.303022e-01 3.684075e-01 1.496012e-01 8.410461e-03 2.158435e-01 1.076897e-01
<VARIANCE> 25
 5.819081e+01 4.452456e+01 2.214709e+01 3.222473e+01 3.316284e+01 6.148920e+01 3.287254e+01 3.187196e+01 2.416838e+01 2.459095e+01 2.162499e+01 1.317337e+01 2.468014e+00 3.968769e+00 3.474915e+00 3.961746e+00 2.718017e+00 5.824541e+00 4.397728e+00 3.301646e+00 2.540750e+00 2.922335e+00 2.301393e+00 1.668347e+00 2.687698e+00
<GCONST> 1.016717e+02
<STATE> 3
<MEAN> 25
 -1.143858e+01 -1.063075e+00 8.465758e+00 3.341701e+00 -5.126983e-01 -2.343633e-01 9.853001e+00 3.472795e-01 -4.909778e-01 4.604268e+00 -3.346915e-01 1.489858e+00 -1.966525e-01 -2.468890e-01 1.711399e-01 -5.474380e-01 -3.973214e-01 -7.168799e-02 -2.344630e-01 -2.089923e-01 -1.482420e-01 -4.963452e-01 3.925434e-01 1.806392e-01 9.385902e-02
<VARIANCE> 25
 4.592540e+01 8.639875e+01 8.513348e+01 2.078395e+01 4.342273e+01 1.908894e+01 3.481862e+01 5.342651e+01 1.925323e+01 3.818162e+01 2.684619e+01 1.128444e+01 2.597136e+00 1.720909e+00 4.344108e+00 1.334880e+00 1.812148e+00 1.750041e+00 1.932085e+00 2.167376e+00 1.480289e+00 1.728569e+00 1.734816e+00 1.439354e+00 1.177533e+00
<GCONST> 9.613270e+01
<STATE> 4
<MEAN> 25
 -1.131949e+01 1.733640e+00 5.447455e-03 -1.852954e-01 3.809975e+00 9.555042e-01 3.620136e+00 9.091794e-01 4.006427e+00 -2.369483e+00 3.038595e+00 2.056255e+00 2.799406e-01 -4.491771e-02 7.749867e-02 2.053029e-01 2.843759e-02 1.881202e-01 1.183566e-01 1.749690e-01 1.893109e-02 3.312381e-02 1.687488e-01 6.671432e-02 -3.348209e-01
<VARIANCE> 25
 3.988129e+01 7.204853e+01 6.984238e+01 1.668166e+01 2.251929e+01 2.176810e+01 1.462974e+01 2.688832e+01 1.404074e+01 1.222506e+01 1.118050e+01 1.024156e+01 5.826823e-01 6.179171e-01 1.062093e+00 9.662231e-01 1.051787e+00 1.102733e+00 1.224294e+00 1.009606e+00 1.557764e+00 1.143080e+00 1.185492e+00 9.888684e-01 2.516376e-01
<GCONST> 8.174712e+01
<TRANSP> 5
 0.000000e+00 1.000000e+00 0.000000e+00 0.000000e+00 0.000000e+00
 0.000000e+00 9.056654e-01 9.433462e-02 0.000000e+00 0.000000e+00
 0.000000e+00 0.000000e+00 8.395069e-01 1.604931e-01 0.000000e+00
 0.000000e+00 0.000000e+00 0.000000e+00 9.185495e-01 8.145051e-02
 0.000000e+00 0.000000e+00 0.000000e+00 0.000000e+00 0.000000e+00
<ENDHMM>
~h "ah"
<BEGINHMM>
<NUMSTATES> 5
<STATE> 2
<MEAN> 25
 8.013187e+00 1.120233e+00 3.228736e+00 -7.086419e-01 -2.104540e+00 -4.057878e+00 -3.612172e+00 1.572503e+00 -4.763161e+00 -8.054566e-01 -2.531063e+00 1.949389e+00 -2.185732e-01 8.070529e-02 2.189631e-01 8.020741e-02 8.806249e-02 -2.369633e-01 4.679968e-01 1.205037e-01 7.025316e-03 -1.454254e-01 -2.769561e-01 3.979042e-01 1.057303e-01
<VARIANCE> 25
 2.416716e+01 2.452428e+01 4.215855e+01 5.769928e+01 5.136755e+01 4.456684e+01 2.614531e+01 5.059948e+01 3.455491e+01 5.372029e+01 3.739783e+01 2.077671e+01 2.675073e+00 2.742352e+00 2.043611e+00 3.449344e+00 2.526380e+00 3.006700e+00 3.054296e+00 3.968811e+00 3.389814e+00 3.069233e+00 2.592547e+00 1.519849e+00 2.006669e+00
<GCONST> 1.021119e+02
<STATE> 3
<MEAN> 25
 -5.214272e+00 1.559685e+00 5.996111e+00 1.558178e+00 2.315725e+00 -1.208410e+00 5.943274e+00 -1.935256e+00 8.934774e-01 -5.598649e-01 5.106874e-01 3.966813e+00 -3.748294e+00 -6.886438e-01 -7.420838e-02 -1.398343e+00 5.116779e-01 3.938058e-01 1.593260e+00 -5.926379e-01 9.485819e-01 3.655967e-01 5.157115e-01 -4.391918e-01 9.558713e-01
<VARIANCE> 25
 4.715630e+01 5.578090e+01 5.934238e+01 3.485870e+01 5.188079e+01 3.106058e+01 4.487764e+01 2.001934e+01 3.699060e+01 3.520679e+01 2.560456e+01 1.870318e+01 4.171010e+00 3.038810e+00 1.183617e+01 2.098781e+00 5.915600e+00 2.754445e+00 3.858138e+00 1.782459e+00 3.179033e+00 2.635749e+00 3.141758e+00 1.871676e+00 9.113181e-01
<GCONST> 1.032610e+02
<STATE> 4
<MEAN> 25
 -1.428269e+01 -7.028751e+00 1.437282e+01 -4.685902e+00 -2.672886e+00 1.035503e+00 8.966937e+00 -2.076518e+00 -5.242759e-02 1.941521e+00 1.549093e+00 2.896684e+00 1.097624e-01 5.108051e-04 -2.974598e-01 1.786990e-01 -1.043615e-01 3.778922e-02 6.587938e-02 2.408281e-01 -9.525029e-03 7.844506e-02 9.484922e-02 -1.620574e-01 -2.007710e-01
<VARIANCE> 25
 2.975182e+01 2.049240e+01 9.567672e+01 1.568635e+01 4.818456e+01 1.581151e+01 7.448379e+01 2.300173e+01 1.738228e+01 6.149647e+01 2.859809e+01 1.283527e+01 1.122616e+00 3.579528e-01 1.148669e+00 6.312799e-01 7.157927e-01 8.012258e-01 9.622157e-01 1.168608e+00 1.141158e+00 1.070856e+00 9.120398e-01 8.871199e-01 2.858274e-01
<GCONST> 8.370006e+01
<TRANSP> 5
 0.000000e+00 1.000000e+00 0.000000e+00 0.000000e+00 0.000000e+00
 0.000000e+00 8.520969e-01 1.479032e-01 0.000000e+00 0.000000e+00
 0.000000e+00 0.000000e+00 6.807768e-01 3.192231e-01 0.000000e+00
 0.000000e+00 0.000000e+00 0.000000e+00 8.752619e-01 1.247381e-01
 0.000000e+00 0.000000e+00 0.000000e+00 0.000000e+00 0.000000e+00
<ENDHMM>
~h "ao"
<BEGINHMM>
<NUMSTATES> 5
<STATE> 2
<MEAN> 25
 -3.046704e+00 2.738594e+00 -3.780874e+00 6.466527e+00 -5.215925e+00 -2.415850e+00 -4.540920e+00 1.544739e+00 -3.248776e-01 -1.512347e+00 1.071367e-01 -3.345588e-01 6.038242e-01 6.925747e-01 -6.427002e-01 8.805071e-01 -1.840481e+00 -1.062545e+00 -1.840389e+00 2.427905e-01 -8.778367e-03 -1.948512e-01 1.348339e-03 2.254416e-01 4.246750e-01
<VARIANCE> 25
 8.370856e+01 2.661145e+01 6.569689e+01 4.067041e+01 1.781377e+01 1.166659e+02 4.921757e+01 7.677313e+00 3.955243e+01 6.493708e+00 1.322511e+01 1.566898e+01 1.647493e+00 7.472441e-01 2.779681e-01 1.143541e+00 1.650951e+00 4.820253e+00 1.887348e+00 7.836789e-01 9.744004e-01 6.998970e-01 4.994714e-01 9.460674e-01 6.163809e-02
<GCONST> 8.361071e+01
<STATE> 3
<MEAN> 25
 -5.432888e+00 1.153623e+00 -7.659296e+00 8.103944e+00 -8.389762e+00 1.602425e+00 -7.862235e+00 -1.968237e-01 4.462122e-01 -3.013371e-01 -1.036700e+00 -1.877853e+00 3.810311e-01 -3.884991e-01 -1.794105e-01 -5.149766e-01 -9.918295e-02 -6.869028e-02 -2.085493e-01 -5.301983e-01 1.104639e-01 -7.503852e-05 2.715277e-01 4.943117e-02 1.081959e+00
<VARIANCE> 25
 7.015453e+01 1.910990e+01 6.225632e+01 3.728534e+01 9.810732e+00 1.214115e+02 1.774032e+01 1.756311e+01 1.548133e+01 1.438306e+01 8.467228e+00 1.456910e+01 5.553882e-01 3.956815e-01 9.085654e-01 4.975546e-01 1.274564e+00 1.371617e+00 7.219340e-01 2.138298e+00 1.197533e+00 1.293530e+00 6.050845e-01 1.252546e+00 8.726628e-01
<GCONST> 8.265062e+01
<STATE> 4
<MEAN> 25
 1.102730e+01 4.644335e+00 5.387301e-01 -5.416534e+00 -9.616116e+00 -1.787821e+01 -1.183732e+01 3.753344e+00 -1.147447e+00 1.457742e+00 -9.917024e-01 -1.376533e+00 1.428032e-01 -4.023154e-01 -5.367090e-01 -3.737908e-01 2.178576e-01 4.447344e-01 3.237804e-01 1.882471e-01 1.190208e-01 -6.511784e-02 -2.257948e-01 -1.715615e-01 1.517715e-01
<VARIANCE> 25
 1.016788e+01 1.235002e+01 1.800764e+01 2.497478e+01 1.912908e+01 6.274600e+01 2.093705e+01 9.685614e+01 8.473487e+00 8.987117e+00 1.197079e+01 1.074488e+01 2.357872e-01 2.179409e-01 3.911154e-01 2.552717e-01 7.348162e-01 1.506218e+00 7.041762e-01 1.262718e+00 6.202998e-01 8.116614e-01 5.388108e-01 6.216410e-01 5.486774e-02
<GCONST> 7.081179e+01
<TRANSP> 5
 0.000000e+00 1.000000e+00 0.000000e+00 0.000000e+00 0.000000e+00
 0.000000e+00 5.613532e-01 4.386469e-01 0.000000e+00 0.000000e+00
 0.000000e+00 0.000000e+00 6.752035e-01 3.247965e-01 0.000000e+00
 0.000000e+00 0.000000e+00 0.000000e+00 9.252989e-01 7.470107e-02
 0.000000e+00 0.000000e+00 0.000000e+00 0.000000e+00 0.000000e+00
<ENDHMM>
~h "aw"
<BEGINHMM>
<NUMSTATES> 5
<STATE> 2
<MEAN> 25
 -1.378663e+00 -1.190928e+01 -7.345393e+00 -2.052898e+00 2.146264e+00 -3.591296e+00 5.256236e+00 4.650580e+00 1.123662e+00 -2.780581e+00 -1.585451e+00 8.521331e-01 1.124552e+00 -2.585437e-01 -9.351412e-01 -7.150561e-02 6.453507e-01 -3.981869e-02 -5.179760e-01 -9.868556e-02 3.275041e-01 3.856010e-01 -1.032250e+00 -2.621863e-01 6.841820e-01
<VARIANCE> 25
 4.699740e+01 5.108694e+01 2.593502e+01 2.975396e+01 3.925286e+01 2.977588e+01 2.885793e+01 3.479319e+01 2.193199e+01 4.047508e+01 1.488479e+01 3.116976e+01 1.473441e+00 1.235893e+00 1.473536e+00 1.413097e+00 2.048136e+00 1.545457e+00 1.663395e+00 2.016577e+00 1.770705e+00 2.003361e+00 2.220020e+00 1.326796e+00 3.406978e-01
<GCONST> 9.224813e+01
<STATE> 3
<MEAN> 25
 5.998785e+00 -8.456049e+00 -9.103031e+00 -1.618964e+00 5.661645e+00 -7.543159e-01 3.443329e+00 9.793213e-01 -8.155088e-01 -1.652055e+00 -6.102252e+00 -1.092693e+00 1.068592e+00 5.113457e-01 -5.577393e-01 -1.237776e+00 1.967751e-02 9.667774e-01 -4.290063e-02 -1.076622e+00 -6.041092e-01 8.614923e-01 -6.120342e-01 -1.793182e-01 4.237507e-01
<VARIANCE> 25
 2.406365e+01 1.801550e+01 2.019269e+01 3.219524e+01 4.911134e+01 2.744034e+01 1.928997e+01 3.204193e+01 1.673324e+01 1.307155e+01 1.688069e+01 1.187385e+01 1.152419e+00 1.556957e+00 1.621046e+00 2.144386e+00 2.747318e+00 2.107386e+00 1.144726e+00 1.931191e+00 1.596428e+00 1.125881e+00 1.779411e+00 1.016054e+00 3.413737e-01
<GCONST> 8.730073e+01
<STATE> 4
<MEAN> 25
 1.050468e+01 -3.179733e+00 -9.135141e+00 -1.147936e+01 -1.678684e+00 -6.277284e-01 1.707679e+00 -1.161958e+00 -3.365679e+00 2.576485e+00 -4.698396e+00 -3.019920e+00 5.594937e-02 4.749282e-01 1.315004e-01 -3.975818e-01 -2.193105e-01 -5.364840e-02 -3.412289e-01 1.017656e-01 -6.535503e-02 7.412526e-02 1.111677e-01 -2.131494e-02 -2.435223e-01
<VARIANCE> 25
 1.203136e+01 2.119555e+01 1.544307e+01 3.054722e+01 7.125418e+01 8.001627e+01 2.129508e+01 5.644576e+01 2.611351e+01 2.806200e+01 2.281485e+01 9.483974e+00 9.452248e-02 3.858854e-01 4.634399e-01 1.000481e+00 8.892126e-01 1.088774e+00 9.089721e-01 1.019851e+00 8.145602e-01 1.177944e+00 8.131804e-01 5.347092e-01 1.378208e-01
<GCONST> 7.831493e+01
<TRANSP> 5
 0.000000e+00 1.000000e+00 0.000000e+00 0.000000e+00 0.000000e+00
 0.000000e+00 5.513414e-01 4.486586e-01 0.000000e+00 0.000000e+00
 0.000000e+00 0.000000e+00 7.771000e-01 2.229000e-01 0.000000e+00
 0.000000e+00 0.000000e+00 0.000000e+00 8.928587e-01 1.071413e-01
 0.000000e+00 0.000000e+00 0.000000e+00 0.000000e+00 0.000000e+00
<ENDHMM>
~h "ay"
<BEGINHMM>
<NUMSTATES> 5
<STATE> 2
<MEAN> 25
 4.270139e+00 -2.464546e+00 1.180298e+00 5.645703e+00 4.384252e+00 -6.145074e+00 -9.587460e+00 -7.241994e+00 -4.698404e+00 2.043669e-01 -7.506347e-02 -1.100203e+00 -4.396181e-01 3.379135e-01 -6.186353e-02 8.832937e-01 6.444589e-01 4.629208e-01 2.382097e-01 1.826120e-01 6.417782e-01 -5.183220e-01 -2.914424e-01 -2.777077e-01 -7.471662e-01
<VARIANCE> 25
 2.493444e+01 2.764582e+01 3.212835e+01 4.307844e+01 4.767076e+01 5.250872e+01 7.147647e+01 5.796392e+01 4.295863e+01 4.879996e+01 4.220967e+01 3.216548e+01 9.320748e-01 1.607481e+00 2.454510e+00 2.067034e+00 2.551922e+00 3.247201e+00 3.695981e+00 4.040482e+00 3.094045e+00 2.456967e+00 2.763443e+00 2.250431e+00 1.607871e+00
<GCONST> 1.019089e+02
<STATE> 3
<MEAN> 25
 -1.846636e+00 1.985079e+00 1.391611e+00 5.430682e+00 3.071277e+00 8.984228e-01 1.218748e+00 -2.761237e+00 2.607603e+00 -1.407939e+00 -5.057396e-01 8.366942e-01 -9.429129e-01 -1.919390e-01 -6.888300e-01 -1.571235e-01 3.679951e-01 6.180640e-01 7.774177e-01 6.052231e-01 7.281068e-01 8.217187e-02 2.034597e-01 3.815062e-01 -6.109020e-01
<VARIANCE> 25
 2.681768e+01 2.119928e+01 1.772579e+01 2.260434e+01 1.863179e+01 2.093028e+01 4.068541e+01 2.869615e+01 2.504086e+01 1.902302e+01 2.096918e+01 2.033669e+01 1.190617e+00 1.723720e+00 1.737530e+00 1.728333e+00 2.409910e+00 2.642446e+00 2.868339e+00 2.472995e+00 2.031651e+00 1.816625e+00 1.820727e+00 1.465984e+00 1.072938e+00
<GCONST> 9.152050e+01
<STATE> 4
<MEAN> 25
 -3.770402e+00 1.158470e+00 -1.715458e+00 2.718633e+00 2.077753e+00 3.625382e+00 4.088938e+00 2.463629e+00 4.377049e+00 2.716322e-01 1.632278e+00 2.198441e+00 2.286611e-02 3.020719e-02 -5.068181e-02 -3.010344e-03 2.316638e-02 7.890218e-02 3.673185e-02 6.726404e-02 1.877012e-02 1.694972e-03 -3.561001e-03 -2.461831e-02 -4.813133e-02
<VARIANCE> 25
 1.160703e+01 8.509427e+00 1.035427e+01 1.511725e+01 1.912046e+01 1.198951e+01 1.753082e+01 2.644912e+01 1.438423e+01 1.587552e+01 1.423142e+01 1.215962e+01 3.972194e-01 4.515991e-01 5.756462e-01 7.238568e-01 8.968242e-01 9.151425e-01 1.071498e+00 1.187797e+00 1.303587e+00 1.243698e+00 1.222184e+00 1.042391e+00 2.674770e-01
<GCONST> 7.460799e+01
<TRANSP> 5
 0.000000e+00 1.000000e+00 0.000000e+00 0.000000e+00 0.000000e+00
 0.000000e+00 6.865902e-01 3.134098e-01 0.000000e+00 0.000000e+00
 0.000000e+00 0.000000e+00 7.561851e-01 2.438150e-01 0.000000e+00
 0.000000e+00 0.000000e+00 0.000000e+00 9.259162e-01 7.408372e-02
 0.000000e+00 0.000000e+00 0.000000e+00 0.000000e+00 0.000000e+00
<ENDHMM>
~h "eh"
<BEGINHMM>
<NUMSTATES> 5
<STATE> 2
<MEAN> 25
 9.987298e+00 -3.086920e+00 -7.021024e+00 -1.155159e+01 -1.009019e+01 -2.267823e+00 1.984470e+00 3.195178e-01 -9.910485e+00 8.257128e+00 -9.509489e+00 -1.236843e+00 1.755602e-01 5.978502e-01 -3.205126e-02 -1.891180e-01 -4.795406e-01 -3.458312e-01 -5.223159e-01 3.869975e-01 -1.725955e-01 -1.865752e-01 4.310293e-01 -3.544001e-01 -3.669513e-01
<VARIANCE> 25
 7.674327e+00 1.446528e+01 3.655531e+01 1.659542e+01 9.159565e+01 5.005332e+01 3.948182e+01 7.282948e+01 3.257914e+01 1.646548e+01 2.590596e+01 1.864632e+01 8.473152e-02 4.619649e-01 4.055998e-01 5.331792e-01 8.440505e-01 8.813210e-01 6.463243e-01 8.677984e-01 9.896680e-01 7.712370e-01 9.399642e-01 5.552607e-01 9.787927e-02
<GCONST> 7.703368e+01
<STATE> 3
<MEAN> 25
 1.121225e+01 5.112555e+00 -3.651931e+00 -9.227023e+00 -1.108419e+01 -1.137944e+01 -4.984343e+00 6.987138e+00 -9.328783e+00 6.822682e-01 -1.199983e+00 -4.586591e+00 -1.102883e-01 6.092389e-01 4.109929e-01 3.969343e-01 2.008387e-01 -9.866951e-03 -3.498577e-01 -3.597825e-01 5.460529e-02 -8.029339e-01 3.822219e-01 -4.717185e-02 -6.520256e-01
<VARIANCE> 25
 5.000635e+00 1.167207e+01 1.000685e+02 4.327211e+01 2.858138e+01 1.103759e+02 1.496476e+01 5.743748e+01 7.211572e+01 1.800839e+01 3.211218e+01 1.171510e+01 1.178827e-01 3.613752e-01 7.141216e-01 8.684012e-01 1.355561e+00 1.139553e+00 9.534937e-01 1.309915e+00 1.509858e+00 8.473977e-01 1.230603e+00 9.262741e-01 1.994146e-01
<GCONST> 8.208780e+01
<STATE> 4
<MEAN> 25
 9.025044e+00 8.801182e+00 -4.263286e-01 -3.634365e+00 -4.948234e+00 -5.904521e+00 -5.056389e+00 9.429969e-01 -3.951812e+00 -2.694379e+00 -7.402699e-01 -3.553221e+00 -7.176372e-01 7.267662e-02 3.245357e-01 1.449661e+00 1.607153e+00 1.243493e+00 1.019973e+00 -8.786775e-01 1.442257e+00 -7.137848e-02 -8.670150e-02 2.375804e-01 -1.145364e+00
<VARIANCE> 25
 9.280129e+00 9.469972e+00 7.777790e+01 4.214584e+01 2.471955e+01 2.800855e+01 2.167728e+01 3.566544e+01 5.339816e+01 1.781581e+01 3.702705e+01 1.215227e+01 3.805494e-01 6.400502e-01 1.788925e+00 1.583453e+00 8.336632e-01 1.745586e+00 1.405180e+00 3.825757e+00 1.732208e+00 1.419475e+00 1.858191e+00 9.805266e-01 5.046965e-01
<GCONST> 8.717729e+01
<TRANSP> 5
 0.000000e+00 1.000000e+00 0.000000e+00 0.000000e+00 0.000000e+00
 0.000000e+00 8.875531e-01 1.124470e-01 0.000000e+00 0.000000e+00
 0.000000e+00 0.000000e+00 8.814032e-01 1.185968e-01 0.000000e+00
 0.000000e+00 0.000000e+00 0.000000e+00 7.701881e-01 2.298119e-01
 0.000000e+00 0.000000e+00 0.000000e+00 0.000000e+00 0.000000e+00
<ENDHMM>
~h "ey"
<BEGINHMM>
<NUMSTATES> 5
<STATE> 2
<MEAN> 25
 -3.730644e+00 6.795404e-01 -1.953673e+00 4.513633e+00 4.475447e+00 2.513374e+00 6.591523e+00 1.197292e+00 4.689056e+00 -2.494116e+00 1.557158e-01 2.520915e+00 -2.203320e-01 -6.784503e-01 2.287272e-01 -4.489774e-01 -3.934797e-01 -2.062366e-01 2.089895e-02 2.469561e-01 -1.509152e-01 3.949125e-01 -2.363126e-01 1.474232e-02 5.376845e-01
<VARIANCE> 25
 1.516493e+01 1.461824e+01 1.084799e+01 1.353281e+01 2.472503e+01 2.252855e+01 4.075589e+01 2.851278e+01 1.956709e+01 1.707711e+01 1.792703e+01 2.140162e+01 2.166129e+00 3.071026e+00 2.134531e+00 3.106164e+00 4.554234e+00 3.526015e+00 5.625564e+00 3.733375e+00 4.033658e+00 2.403595e+00 2.204176e+00 2.358243e+00 4.164753e+00
<GCONST> 9.643322e+01
<STATE> 3
<MEAN> 25
 2.051448e+00 -8.487791e+00 7.772207e+00 -6.902199e+00 -1.217339e+01 -3.084896e+00 6.052691e-01 7.476376e+00 -4.788968e+00 6.687250e+00 -3.594721e+00 -5.677929e-01 1.737223e+00 1.997280e-02 1.571393e+00 -1.034810e+00 -2.880423e+00 -2.231767e-01 -1.317549e+00 3.689476e-01 -1.127483e+00 9.954948e-01 -1.438167e-01 -2.089095e-01 3.209758e+00
<VARIANCE> 25
 3.527342e+01 4.360673e+01 2.055679e+01 3.122918e+01 5.528875e+01 1.386447e+01 3.146647e+01 2.653691e+01 2.117140e+01 1.820705e+01 1.633634e+01 1.277443e+01 2.813789e+00 6.766618e+00 1.756111e+00 4.472162e+00 5.543864e+00 2.525072e+00 2.578963e+00 2.873515e+00 3.055043e+00 1.757994e+00 2.180948e+00 1.264040e+00 9.550776e+00
<GCONST> 9.901551e+01
<STATE> 4
<MEAN> 25
 4.231697e+00 2.566300e+00 1.798754e+01 -5.736971e+00 -1.691288e+01 -3.106841e+00 -1.281504e+01 1.184190e-01 -9.383290e+00 6.732474e+00 1.772915e+00 -3.773938e+00 -1.573422e-01 4.516332e-01 2.810806e-01 2.856377e-01 5.271470e-02 -2.117883e-01 -4.904057e-01 -5.546707e-01 -1.222318e-01 -2.399625e-01 1.758454e-01 -2.488038e-01 -3.412379e-01
<VARIANCE> 25
 5.744122e+00 2.098785e+01 2.082841e+01 1.066537e+01 2.040213e+01 1.235676e+01 3.816914e+01 1.763979e+01 1.408420e+01 1.880967e+01 1.089537e+01 1.244493e+01 1.248270e-01 7.707041e-01 8.143544e-01 7.183502e-01 1.195257e+00 8.079283e-01 1.621504e+00 9.100041e-01 7.260451e-01 7.322606e-01 7.513267e-01 4.708043e-01 2.370156e-01
<GCONST> 7.303954e+01
<TRANSP> 5
 0.000000e+00 1.000000e+00 0.000000e+00 0.000000e+00 0.000000e+00
 0.000000e+00 8.880890e-01 1.119110e-01 0.000000e+00 0.000000e+00
 0.000000e+00 0.000000e+00 7.873786e-01 2.126213e-01 0.000000e+00
 0.000000e+00 0.000000e+00 0.000000e+00 9.382868e-01 6.171318e-02
 0.000000e+00 0.000000e+00 0.000000e+00 0.000000e+00 0.000000e+00
<ENDHMM>
~h "hh"
<BEGINHMM>
<NUMSTATES> 5
<STATE> 2
<MEAN> 25
 -1.552845e+00 4.725940e+00 -2.252427e+00 2.347008e+00 2.862976e+00 1.749496e+00 2.740872e+00 8.626096e+00 3.975921e+00 -2.067116e+00 4.352732e+00 2.667510e+00 2.786030e-03 -3.635964e-03 -7.863004e-03 -1.233239e-02 -5.744725e-04 1.335396e-02 1.284365e-02 3.630326e-03 -1.675539e-02 -3.219057e-02 4.140084e-05 1.944064e-02 2.114638e-03
<VARIANCE> 25
 2.677532e+00 3.227664e+00 2.947152e+00 4.397058e+00 5.997560e+00 4.631535e+00 9.573538e+00 9.096968e+00 7.596747e+00 1.033048e+01 7.400108e+00 7.653520e+00 6.028602e-02 1.369126e-01 2.144519e-01 3.145212e-01 4.310464e-01 4.573924e-01 6.196626e-01 7.470138e-01 8.145487e-01 8.065197e-01 7.011845e-01 6.078576e-01 2.162580e-02
<GCONST> 5.186175e+01
<STATE> 3
<MEAN> 25
 -7.770456e+00 -4.240266e+00 -5.104386e+00 1.280155e-01 4.354984e+00 5.864257e-01 7.714159e+00 -3.521431e-01 5.583874e+00 -2.579116e+00 6.765755e-01 3.823274e+00 2.465768e-01 -5.616981e-01 -5.019447e-01 -3.657794e-01 -2.199591e-01 1.076661e-01 2.745539e-01 1.810405e-01 -2.781900e-01 -1.068401e-01 -2.270205e-02 -1.103602e-02 3.368241e-01
<VARIANCE> 25
 1.232482e+01 1.492866e+01 6.794024e+00 8.656341e+00 1.484632e+01 1.117675e+01 1.652612e+01 1.840634e+01 1.441624e+01 1.629787e+01 9.363283e+00 1.120178e+01 1.800621e-01 3.467236e-01 4.934792e-01 6.847826e-01 7.117190e-01 7.701036e-01 1.563940e+00 1.043005e+00 1.595818e+00 1.669458e+00 7.740815e-01 1.353386e+00 1.063950e-01
<GCONST> 7.099286e+01
<STATE> 4
<MEAN> 25
 -2.657229e+00 -9.639491e+00 -6.938135e+00 -9.765294e-01 2.286740e-01 1.190569e+00 8.825259e+00 5.286499e+00 -1.406804e-02 -4.151562e+00 3.058150e+00 4.172453e+00 6.136768e-02 -1.831346e+00 -4.407850e-01 -2.676376e-01 -2.260060e-01 -4.426046e-01 1.186271e-01 2.081632e-01 -4.220110e-01 -1.598320e-01 -1.248232e-01 -6.007084e-02 1.174504e+00
<VARIANCE> 25
 2.077636e+01 5.176837e+01 8.056756e+00 8.987290e+00 2.883682e+01 1.141453e+01 1.136029e+01 2.131319e+01 2.337816e+01 1.721806e+01 1.572326e+01 1.094404e+01 4.327102e-01 1.437736e+00 8.726352e-01 5.785447e-01 1.268849e+00 1.079967e+00 1.362341e+00 1.577853e+00 1.688830e+00 1.252476e+00 1.264184e+00 1.085148e+00 3.198761e-01
<GCONST> 7.948921e+01
<TRANSP> 5
 0.000000e+00 1.000000e+00 0.000000e+00 0.000000e+00 0.000000e+00
 0.000000e+00 9.621586e-01 3.784136e-02 0.000000e+00 0.000000e+00
 0.000000e+00 0.000000e+00 6.215412e-01 3.784588e-01 0.000000e+00
 0.000000e+00 0.000000e+00 0.000000e+00 8.242322e-01 1.757678e-01
 0.000000e+00 0.000000e+00 0.000000e+00 0.000000e+00 0.000000e+00
<ENDHMM>
~h "ih"
<BEGINHMM>
<NUMSTATES> 5
<STATE> 2
<MEAN> 25
 5.074248e+00 -6.934651e-01 9.198553e+00 4.648023e+00 -4.499539e+00 -6.198354e+00 -1.154949e+01 -5.698374e+00 -6.772804e+00 1.202649e-01 -3.141842e-02 -2.595036e+00 6.805485e-02 4.942912e-01 -4.666170e-01 4.564357e-01 7.444731e-01 3.269882e-01 5.400929e-01 -5.331907e-01 3.753497e-01 -2.686049e-01 -2.608501e-01 -1.762299e-01 -1.030176e+00
<VARIANCE> 25
 9.869681e+00 3.764865e+01 4.773373e+01 4.234059e+01 1.860399e+02 2.612518e+01 7.502778e+01 6.812533e+01 1.955740e+01 3.443329e+01 1.530317e+01 1.943612e+01 3.752768e+00 1.517349e+00 3.544414e+00 2.282059e+00 6.041858e+00 2.525182e+00 1.189892e+01 3.398922e+00 3.492247e+00 3.046775e+00 1.528348e+00 1.888437e+00 3.164777e+00
<GCONST> 1.035432e+02
<STATE> 3
<MEAN> 25
 -1.179252e+00 3.522033e+00 2.010159e+00 5.985719e+00 3.007844e+00 -6.883240e-01 1.854825e+00 -4.205156e+00 1.421872e+00 -1.566520e+00 -2.790404e-01 9.324556e-01 -1.279182e+00 -4.927591e-01 -1.291374e+00 -4.496733e-01 6.662245e-01 9.114598e-01 1.169803e+00 6.014156e-01 9.184442e-01 -2.402745e-01 2.661526e-01 7.044998e-01 -1.038547e+00
<VARIANCE> 25
 1.348567e+01 1.805947e+01 1.656317e+01 1.502057e+01 3.051181e+01 1.645025e+01 2.453986e+01 2.290795e+01 1.902732e+01 1.840413e+01 1.520113e+01 1.834038e+01 1.036667e+00 1.679106e+00 1.252295e+00 2.028662e+00 4.232248e+00 1.821464e+00 2.985080e+00 3.000907e+00 2.287260e+00 1.696075e+00 1.725188e+00 1.531273e+00 1.620794e+00
<GCONST> 8.952955e+01
<STATE> 4
<MEAN> 25
 -6.847279e+00 -1.265248e-01 -2.685518e+00 3.095825e+00 4.910120e+00 2.381478e+00 5.671509e+00 5.206800e-02 4.926728e+00 -1.302738e+00 1.675208e+00 4.269778e+00 1.442084e-02 6.279556e-02 4.198249e-03 -5.093388e-02 6.883904e-02 8.672865e-02 9.760739e-02 1.552726e-01 1.096405e-01 3.777286e-02 -3.683590e-02 -5.690185e-02 -1.745959e-02
<VARIANCE> 25
 1.681855e+01 1.404458e+01 1.520899e+01 2.212495e+01 2.189420e+01 1.608661e+01 2.261390e+01 2.398452e+01 2.165598e+01 1.759643e+01 1.664924e+01 1.616679e+01 1.476647e+00 1.520124e+00 1.214891e+00 1.221571e+00 1.388784e+00 1.821843e+00 1.790143e+00 2.489154e+00 1.802698e+00 1.690331e+00 1.606366e+00 1.654567e+00 9.659927e-01
<GCONST> 8.661172e+01
<TRANSP> 5
 0.000000e+00 1.000000e+00 0.000000e+00 0.000000e+00 0.000000e+00
 0.000000e+00 7.879607e-01 2.120393e-01 0.000000e+00 0.000000e+00
 0.000000e+00 0.000000e+00 7.501608e-01 2.498393e-01 0.000000e+00
 0.000000e+00 0.000000e+00 0.000000e+00 9.068421e-01 9.315799e-02
 0.000000e+00 0.000000e+00 0.000000e+00 0.000000e+00 0.000000e+00
<ENDHMM>
~h "iy"
<BEGINHMM>
<NUMSTATES> 5
<STATE> 2
<MEAN> 25
 7.077015e+00 1.480187e+00 5.337244e+00 4.507178e+00 -1.458543e+00 -3.247361e+00 -6.061199e+00 -5.341041e+00 -5.653393e+00 -5.203702e-01 2.993215e+00 -4.776544e+00 3.592342e-01 -5.316307e-01 1.235135e+00 -7.342579e-01 -7.923443e-01 -1.098630e-01 -1.407286e+00 -3.595908e-01 -9.547729e-01 7.522966e-01 6.359707e-01 -5.692878e-01 1.410181e+00
<VARIANCE> 25
 2.032080e+01 3.127933e+01 8.943300e+01 3.755506e+01 1.226420e+02 5.236659e+01 5.463231e+01 4.816422e+01 3.864486e+01 3.595174e+01 3.164977e+01 1.762430e+01 3.229051e+00 3.708112e+00 4.287602e+00 4.888882e+00 5.033877e+00 7.575873e+00 3.719750e+00 4.921029e+00 3.223178e+00 4.115016e+00 3.407293e+00 3.271517e+00 1.888924e+00
<GCONST> 1.084301e+02
<STATE> 3
<MEAN> 25
 3.700066e+00 7.995203e+00 1.602669e+01 -5.222197e+00 -9.566728e+00 -3.702407e-02 -1.168048e+01 -3.158202e+00 -7.601663e+00 2.717693e+00 6.186412e+00 -9.687349e+00 -1.218624e-01 2.706892e-01 -2.263511e-01 8.109805e-02 3.480543e-01 -6.565762e-02 -8.253753e-05 -9.410525e-02 1.974457e-01 -8.225686e-02 -2.819575e-01 -3.388766e-02 -3.406374e-01
<VARIANCE> 25
 1.164161e+01 2.194944e+01 3.548373e+01 3.333142e+01 4.509206e+01 2.926630e+01 2.940969e+01 3.372100e+01 1.935149e+01 1.439542e+01 3.405034e+01 2.333198e+01 6.517351e-01 7.255772e-01 1.651338e+00 2.515959e+00 1.402399e+00 2.062761e+00 1.997622e+00 1.554658e+00 1.566138e+00 1.056117e+00 2.405054e+00 1.239964e+00 8.188579e-01
<GCONST> 8.922456e+01
<STATE> 4
<MEAN> 25
 4.071119e+00 -4.203400e+00 7.668545e+00 1.044418e+01 7.479977e+00 -7.817729e+00 -1.602751e+01 -5.341736e+00 -1.065931e+00 -1.298702e-01 -2.321315e+00 -8.478737e+00 -1.962998e-01 1.410317e-01 1.324630e-01 1.253789e-01 -1.269922e-01 2.201918e-01 4.347994e-01 2.545879e-01 3.138803e-01 -4.728970e-02 -2.255582e-01 -2.623077e-02 -3.252817e-01
<VARIANCE> 25
 7.641416e+00 3.100521e+01 2.914839e+01 4.878077e+01 3.558224e+01 3.948852e+01 4.176827e+01 4.584228e+01 3.381328e+01 4.633342e+01 5.238473e+01 2.019936e+01 1.504947e-01 1.660224e+00 9.422818e-01 1.271119e+00 9.145371e-01 2.590002e+00 2.116616e+00 1.384787e+00 1.416129e+00 1.617633e+00 1.807330e+00 8.278055e-01 8.026296e-01
<GCONST> 8.954373e+01
<TRANSP> 5
 0.000000e+00 1.000000e+00 0.000000e+00 0.000000e+00 0.000000e+00
 0.000000e+00 8.237541e-01 1.762459e-01 0.000000e+00 0.000000e+00
 0.000000e+00 0.000000e+00 9.286287e-01 7.137125e-02 0.000000e+00
 0.000000e+00 0.000000e+00 0.000000e+00 9.269534e-01 7.304655e-02
 0.000000e+00 0.000000e+00 0.000000e+00 0.000000e+00 0.000000e+00
<ENDHMM>
~h "ow"
<BEGINHMM>
<NUMSTATES> 5
<STATE> 2
<MEAN> 25
 -5.542070e+00 -8.183698e+00 1.462216e+01 4.502575e+00 3.099252e+00 -2.805472e+00 -2.645397e-01 -1.700074e+01 -1.460817e+01 1.233753e+00 -7.508636e-01 -3.227174e+00 8.195854e-01 -1.061199e-02 -1.142722e+00 8.270908e-04 2.832876e-01 5.804231e-01 -1.258468e+00 -5.716324e-01 3.203685e-01 2.223555e-02 -7.858245e-03 -4.117864e-01 2.750140e-02
<VARIANCE> 25
 1.359169e+02 9.579940e+00 1.131923e+02 2.778449e+01 4.914814e+01 2.180615e+01 2.275410e+02 8.801627e+01 4.847507e+01 1.186646e+01 1.314251e+01 2.556767e+01 3.006064e+00 4.616152e-01 2.226908e+00 2.199900e+00 1.638442e+00 8.855388e-01 5.513976e+00 3.432839e+00 2.896138e+00 1.137084e+00 1.060493e+00 9.037458e-01 2.372629e-01
<GCONST> 9.516631e+01
<STATE> 3
<MEAN> 25
 1.530126e+01 -1.804541e+00 -9.408475e+00 -3.184014e+00 -2.167010e+00 -2.791709e-02 -1.604128e+01 4.993875e+00 -8.411000e+00 6.815640e-01 1.036308e+01 -2.690669e-01 4.009579e-02 2.265178e-01 -4.691555e-01 -6.660314e-01 -7.275086e-02 3.195719e-01 6.865169e-01 3.905611e-01 -5.046996e-01 -2.460317e-01 9.087827e-02 -2.828719e-02 -1.005827e-01
<VARIANCE> 25
 4.877497e+00 4.718022e+00 1.021741e+01 2.511216e+01 1.690228e+01 1.112605e+01 4.046753e+01 4.503940e+01 3.115781e+01 9.976524e+00 1.372894e+01 7.145847e+00 5.977307e-02 3.229892e-01 7.039161e-01 7.386993e-01 5.483306e-01 7.291738e-01 9.969454e-01 1.612705e+00 7.155141e-01 4.701495e-01 5.698121e-01 5.006538e-01 2.751060e-01
<GCONST> 6.902300e+01
<STATE> 4
<MEAN> 25
 8.642109e+00 1.924734e+00 -5.087779e+00 -6.503346e+00 -1.148420e+00 -7.996089e-01 -5.511975e+00 -5.656753e+00 -6.529809e+00 -4.219897e+00 -4.722178e+00 -2.873640e+00 -5.377573e-01 4.212155e-01 2.741659e-01 4.900482e-02 -1.980525e-01 -7.987276e-02 8.834463e-01 6.504614e-01 7.942854e-01 -1.299857e-01 -2.167749e-01 1.021722e-01 -7.463530e-01
<VARIANCE> 25
 1.308025e+01 1.623734e+01 2.418575e+01 2.531212e+01 6.759996e+01 3.515808e+01 4.662693e+01 7.523627e+01 3.092219e+01 1.985276e+01 6.327877e+01 2.497715e+01 1.117667e+00 4.484334e-01 1.368462e+00 2.606336e+00 2.623279e+00 1.964856e+00 2.224924e+00 3.702105e+00 1.972975e+00 1.715531e+00 2.568635e+00 2.127275e+00 7.239916e-01
<GCONST> 9.436785e+01
<TRANSP> 5
 0.000000e+00 1.000000e+00 0.000000e+00 0.000000e+00 0.000000e+00
 0.000000e+00 8.488301e-01 1.511699e-01 0.000000e+00 0.000000e+00
 0.000000e+00 0.000000e+00 9.239781e-01 7.602192e-02 0.000000e+00
 0.000000e+00 0.000000e+00 0.000000e+00 9.266112e-01 7.338882e-02
 0.000000e+00 0.000000e+00 0.000000e+00 0.000000e+00 0.000000e+00
<ENDHMM>
~h "sp"
<BEGINHMM>
<NUMSTATES> 3
<STATE> 2
~s "silst"
<TRANSP> 3
 0.000000e+00 1.560751e-01 8.439249e-01
 0.000000e+00 9.342371e-01 6.576286e-02
 0.000000e+00 0.000000e+00 0.000000e+00
<ENDHMM>
~h "th"
<BEGINHMM>
<NUMSTATES> 5
<STATE> 2
<MEAN> 25
 8.974771e-01 -1.164375e-01 5.839854e-01 1.673103e+00 -4.986227e-04 1.391852e+00 2.032001e+00 2.552935e-01 -1.264920e+00 -3.913918e+00 -2.508883e+00 -8.702019e-01 1.505402e-01 -3.941563e-01 -9.490176e-01 2.972552e-01 8.051648e-01 2.812089e-02 1.568240e-01 4.626847e-01 2.446260e-01 -2.873364e-01 7.365108e-02 2.441985e-01 -1.189300e-01
<VARIANCE> 25
 2.821234e+01 2.286055e+01 1.830982e+01 7.632844e+00 3.926653e+01 1.359762e+01 5.963054e+01 2.468584e+01 2.764504e+01 2.135756e+01 3.568000e+01 4.160653e+01 1.782750e+00 3.464885e+00 3.092159e+00 1.345076e+00 4.086744e+00 2.316141e+00 5.840015e+00 2.906586e+00 3.806922e+00 3.652601e+00 3.582912e+00 6.140138e+00 2.856553e+00
<GCONST> 9.971278e+01
<STATE> 3
<MEAN> 25
 -5.275591e+00 -1.972044e+00 -6.306252e+00 4.425713e+00 -2.784317e-01 2.463525e+00 2.933011e+00 -5.434126e-01 5.444304e+00 -1.531781e+00 2.733816e-01 2.609752e+00 -7.936709e-02 -2.647032e-01 -5.068157e-01 1.324052e-02 -3.206435e-01 -2.429831e-01 -2.364268e-01 -1.998089e-01 2.099204e-01 1.427941e-03 -2.473066e-01 2.368606e-01 1.422406e+00
<VARIANCE> 25
 2.068682e+01 1.282056e+01 2.238393e+01 1.076173e+01 1.480265e+01 1.137942e+01 2.541053e+01 1.315907e+01 2.214874e+01 1.501513e+01 1.661062e+01 1.450797e+01 1.363868e+00 1.031146e+00 1.552585e+00 1.264695e+00 1.617041e+00 1.679519e+00 1.752408e+00 1.157391e+00 2.157020e+00 2.104683e+00 1.199712e+00 1.513253e+00 1.738889e+00
<GCONST> 8.462677e+01
<STATE> 4
<MEAN> 25
 -2.214410e+00 -4.450469e+00 -4.695365e+00 1.166164e-01 -1.972821e-01 -4.566534e+00 1.117726e+00 -9.468125e-01 1.799193e+00 -2.432821e+00 -8.749722e-01 5.439388e+00 1.619187e+00 -4.935533e-01 1.902721e+00 -6.398993e-01 5.146260e-01 -1.043462e+00 -1.338258e+00 -5.073794e-01 -1.380162e+00 -5.720772e-01 -5.872270e-01 -6.927130e-01 1.133007e+00
<VARIANCE> 25
 2.076183e+01 2.630595e+01 1.921540e+01 1.133023e+01 2.627247e+01 5.209761e+01 2.520132e+01 1.850047e+01 5.299688e+01 2.630870e+01 4.288480e+01 1.991969e+01 5.210185e+00 4.373036e+00 3.700316e+00 1.824145e+00 3.134229e+00 6.789130e+00 3.524550e+00 3.512363e+00 3.239562e+00 3.242406e+00 2.660682e+00 2.311205e+00 5.036748e+00
<GCONST> 1.013839e+02
<TRANSP> 5
 0.000000e+00 1.000000e+00 0.000000e+00 0.000000e+00 0.000000e+00
 0.000000e+00 5.782176e-01 4.217824e-01 0.000000e+00 0.000000e+00
 0.000000e+00 0.000000e+00 8.743324e-01 1.256676e-01 0.000000e+00
 0.000000e+00 0.000000e+00 0.000000e+00 6.811767e-01 3.188233e-01
 0.000000e+00 0.000000e+00 0.000000e+00 0.000000e+00 0.000000e+00
<ENDHMM>
~h "uw"
<BEGINHMM>
<NUMSTATES> 5
<STATE> 2
<MEAN> 25
 2.995354e+00 1.431069e+00 7.581268e+00 3.582506e+00 -1.333835e+00 -6.104826e+00 -6.871515e+00 1.098868e+00 -5.391181e+00 -5.634863e+00 1.667224e+00 -4.318927e+00 1.462372e+00 6.679797e-01 1.677966e-01 7.971705e-01 5.660796e-01 3.461710e-02 -1.996479e+00 -7.601864e-01 -4.327708e-01 -2.122301e-01 -1.964822e-01 -6.435317e-01 2.822678e-02
<VARIANCE> 25
 4.079257e+01 4.858687e+01 2.616351e+01 2.276353e+01 2.960391e+01 1.855060e+01 6.368457e+01 9.835528e+01 1.927317e+01 2.733418e+01 2.003856e+01 2.279081e+01 2.610642e+00 1.038620e+00 1.709775e+00 1.689025e+00 2.645243e+00 2.381838e+00 4.690253e+00 3.639135e+00 2.308648e+00 3.671842e+00 3.223054e+00 2.173272e+00 6.569020e-01
<GCONST> 9.776968e+01
<STATE> 3
<MEAN> 25
 9.870331e+00 5.837321e+00 -2.805144e+00 4.433160e+00 5.343131e-01 -1.742905e+00 -2.016983e+01 -4.078794e+00 -8.915491e+00 1.952844e+00 1.117104e+01 -9.727583e+00 1.149596e-01 2.389095e-01 -4.335619e-01 -3.840488e-01 5.726017e-02 2.682183e-01 2.920673e-01 -3.973276e-01 5.221279e-02 9.457581e-02 1.354160e-01 4.094911e-01 -2.905571e-01
<VARIANCE> 25
 5.449289e+00 1.313131e+01 1.407093e+01 1.604092e+01 1.223981e+01 1.036372e+01 2.936799e+01 2.761355e+01 1.276227e+01 2.220372e+01 2.181183e+01 2.475424e+01 7.343113e-02 3.661597e-01 5.724674e-01 6.543156e-01 7.234403e-01 6.931504e-01 1.285996e+00 7.965515e-01 7.155544e-01 1.083398e+00 9.877027e-01 1.191903e+00 1.919213e-01
<GCONST> 7.210976e+01
<STATE> 4
<MEAN> 25
 4.468832e+00 -7.707298e-02 -2.515836e+00 2.451140e-01 8.637367e+00 1.765086e+00 -9.879478e+00 -1.272718e+01 -9.920493e+00 -6.155836e+00 -2.708522e+00 6.226410e-01 -1.633200e-01 2.443181e-01 -3.386473e-02 -1.889675e-01 -7.194684e-02 1.410949e-01 6.291366e-01 6.079636e-01 1.442985e-01 1.199053e-01 9.880930e-03 1.586975e-01 -3.787047e-01
<VARIANCE> 25
 1.223805e+01 3.810686e+01 1.202795e+01 2.070558e+01 2.683922e+01 7.767736e+00 1.066934e+02 1.641999e+02 6.524725e+01 1.576203e+01 1.721859e+01 1.122213e+01 1.816977e-01 3.876787e-01 3.765005e-01 6.728500e-01 7.204727e-01 4.128733e-01 1.294752e+00 1.120922e+00 1.511402e+00 7.287471e-01 6.968368e-01 5.674494e-01 1.351625e-01
<GCONST> 7.722153e+01
<TRANSP> 5
 0.000000e+00 1.000000e+00 0.000000e+00 0.000000e+00 0.000000e+00
 0.000000e+00 8.921269e-01 1.078731e-01 0.000000e+00 0.000000e+00
 0.000000e+00 0.000000e+00 9.005409e-01 9.945914e-02 0.000000e+00
 0.000000e+00 0.000000e+00 0.000000e+00 9.276277e-01 7.237236e-02
 0.000000e+00 0.000000e+00 0.000000e+00 0.000000e+00 0.000000e+00
<ENDHMM>
~h "sil"
<BEGINHMM>
<NUMSTATES> 5
<STATE> 2
<MEAN> 25
 -4.499377e+00 -2.514914e-01 -2.341869e+00 2.378102e+00 2.833986e+00 2.462000e+00 5.494908e+00 9.507864e-01 3.478694e+00 -1.271715e+00 9.259583e-01 2.401641e+00 1.275752e-01 -3.225671e-02 -1.883232e-01 5.439196e-02 -8.565431e-03 4.377805e-03 -1.509214e-01 -8.702609e-02 2.736998e-02 -1.675187e-01 -1.246328e-01 3.052660e-02 -8.866923e-02
<VARIANCE> 25
 1.205006e+01 1.236225e+01 1.106742e+01 1.391617e+01 1.892142e+01 1.534544e+01 2.542941e+01 3.272850e+01 2.185533e+01 2.324566e+01 1.795336e+01 1.375196e+01 6.957852e-01 1.566930e+00 8.664525e-01 1.328717e+00 1.594774e+00 1.817336e+00 2.340449e+00 2.647418e+00 1.886094e+00 2.276874e+00 1.830437e+00 1.561654e+00 6.300026e-01
<GCONST> 8.528337e+01
<STATE> 3
~s "silst"
<STATE> 4
<MEAN> 25
 -2.955280e+00 9.182585e-01 -2.188195e+00 -4.657470e-01 -7.673130e-01 4.676422e+00 3.914561e+00 6.944914e-01 2.389924e+00 1.127145e+00 5.072036e-01 1.979840e+00 2.024476e-03 1.618288e-02 -1.043166e-02 -2.441863e-02 1.147434e-03 1.297055e-02 -1.309458e-02 4.168344e-03 2.122594e-02 1.414524e-02 -5.571720e-03 -1.570448e-03 -9.809815e-03
<VARIANCE> 25
 2.405510e+00 6.274141e+00 4.597983e+00 8.924711e+00 1.136867e+01 8.614984e+00 8.704186e+00 2.720087e+01 1.081869e+01 1.378849e+01 1.279054e+01 9.573314e+00 6.894554e-02 1.755512e-01 2.373291e-01 3.772875e-01 5.183752e-01 5.694291e-01 7.091873e-01 7.587935e-01 7.802396e-01 9.072642e-01 8.201228e-01 7.315418e-01 4.869645e-02
<GCONST> 5.969411e+01
<TRANSP> 5
 0.000000e+00 1.000000e+00 0.000000e+00 0.000000e+00 0.000000e+00
 0.000000e+00 6.783997e-01 1.322292e-01 1.893710e-01 0.000000e+00
 0.000000e+00 0.000000e+00 9.608318e-01 3.916819e-02 0.000000e+00
 0.000000e+00 2.233817e-02 0.000000e+00 9.338168e-01 4.384509e-02
 0.000000e+00 0.000000e+00 0.000000e+00 0.000000e+00 0.000000e+00
<ENDHMM>
