~o
<STREAMINFO> 1 25
<VECSIZE> 25<NULLD><MFCC_D_N_Z_0><DIAGC>
~h "b"
<BEGINHMM>
<NUMSTATES> 5
<STATE> 2
<MEAN> 25
 1.034283e+01 -7.506097e+00 -5.727884e+00 -5.365091e+00 -1.169162e+00 -7.571283e-02 -6.651785e+00 8.353516e+00 -3.574232e+00 7.528627e+00 -1.074415e+01 -6.257241e+00 -2.487164e-01 -2.087716e-01 4.360207e-01 2.418956e-01 -7.501560e-02 -1.786411e-01 4.082983e-01 5.202062e-01 -1.061672e-01 -1.979569e-01 -2.221300e-01 2.040059e-01 -4.531935e-03
<VARIANCE> 25
 6.578766e+00 9.519047e+00 1.795528e+01 1.413361e+01 2.330060e+01 2.090250e+01 1.727168e+01 1.246348e+02 1.380015e+01 2.383981e+01 2.950307e+01 1.980170e+01 1.876713e-01 6.679218e-01 1.011663e+00 6.698259e-01 1.223525e+00 1.177294e+00 1.210148e+00 2.403546e+00 9.161050e-01 1.238816e+00 2.819695e+00 8.361117e-01 5.659236e-01
<GCONST> 8.103133e+01
<STATE> 3
<MEAN> 25
 7.859009e+00 -6.187401e+00 2.032484e+00 -2.042393e+00 -5.290565e+00 -3.695766e+00 -3.170435e+00 9.422155e+00 -4.364839e+00 6.548302e+00 -4.631361e+00 -4.388569e+00 -4.227586e-01 3.847985e-01 1.297797e+00 3.287299e-01 -6.697668e-01 -2.976689e-01 4.245003e-01 -7.163881e-01 -2.591858e-01 1.096121e-01 1.337670e+00 3.267965e-01 -5.199315e-01
<VARIANCE> 25
 9.039307e+00 8.647116e+00 4.976511e+01 1.065853e+01 4.134380e+01 2.037272e+01 1.595912e+01 8.123874e+01 1.671557e+01 2.264012e+01 6.188555e+01 1.455857e+01 1.364540e-01 4.635140e-01 9.689268e-01 9.482071e-01 1.145795e+00 1.101124e+00 9.609938e-01 2.712047e+00 1.242681e+00 9.879416e-01 2.269429e+00 8.186310e-01 1.985237e-01
<GCONST> 8.077509e+01
<STATE> 4
<MEAN> 25
 1.914168e+00 4.103677e-01 9.649926e+00 9.121215e-01 -6.740371e+00 -8.799982e-01 1.542674e+00 2.141102e+00 -9.475630e-01 4.767396e+00 3.620191e+00 -9.332396e-01 -4.013466e-01 4.340906e-01 2.049013e-01 2.020586e-01 1.334064e-01 4.409364e-01 3.976964e-01 -5.776904e-01 4.767232e-01 -1.536495e-01 1.754125e-01 2.395916e-01 -7.973796e-01
<VARIANCE> 25
 1.631041e+01 1.492483e+01 4.485960e+01 1.312922e+01 4.603221e+01 1.983257e+01 3.037488e+01 5.548451e+01 3.555667e+01 2.992353e+01 2.094273e+01 1.247400e+01 2.967608e-01 5.411706e-01 1.334080e+00 8.289697e-01 1.015072e+00 1.080582e+00 1.357628e+00 1.709544e+00 1.202261e+00 1.154120e+00 1.640401e+00 7.930345e-01 4.286714e-01
<GCONST> 8.355151e+01
<TRANSP> 5
 0.000000e+00 1.000000e+00 0.000000e+00 0.000000e+00 0.000000e+00
 0.000000e+00 9.025891e-01 9.741084e-02 0.000000e+00 0.000000e+00
 0.000000e+00 0.000000e+00 8.276113e-01 1.723887e-01 0.000000e+00
 0.000000e+00 0.000000e+00 0.000000e+00 9.273607e-01 7.263935e-02
 0.000000e+00 0.000000e+00 0.000000e+00 0.000000e+00 0.000000e+00
<ENDHMM>
~h "d"
<BEGINHMM>
<NUMSTATES> 5
<STATE> 2
<MEAN> 25
 4.328940e+00 2.333026e+00 5.567336e+00 1.182659e+00 -2.192404e+00 -1.636342e+00 -4.550520e+00 -1.231187e+00 -2.437952e+00 -1.136176e+00 -1.039765e+00 -9.291087e-01 2.818245e-01 1.124916e-01 1.142606e-01 -4.336147e-02 -3.567477e-02 -2.409484e-01 -1.496177e-01 -3.037461e-01 1.355641e-02 1.724817e-02 1.414213e-02 -6.259927e-02 2.293816e-01
<VARIANCE> 25
 2.287804e+01 5.247411e+01 5.863810e+01 4.371129e+01 6.724638e+01 2.784292e+01 5.429751e+01 6.440719e+01 3.771817e+01 3.733170e+01 2.745254e+01 1.325910e+01 1.935365e+00 4.387071e+00 3.067160e+00 3.630956e+00 5.046581e+00 2.736866e+00 5.348093e+00 4.928255e+00 3.070100e+00 4.143479e+00 2.715200e+00 1.606147e+00 5.360094e+00
<GCONST> 1.058696e+02
<STATE> 3
<MEAN> 25
 4.549861e+00 1.134809e+00 4.654081e+00 4.654772e-01 -2.308265e+00 -2.237917e+00 -5.414675e+00 -6.829322e-01 -2.426544e+00 5.172415e-01 -7.982342e-01 -9.764074e-01 6.187349e-02 -4.841920e-01 -1.141324e-01 -3.678132e-01 -4.505933e-01 -1.417010e-01 -2.992395e-01 5.325588e-01 -3.273328e-02 7.383428e-01 6.819992e-02 -1.476194e-01 5.700239e-01
<VARIANCE> 25
 2.535406e+01 4.492529e+01 6.090087e+01 4.355234e+01 6.012276e+01 2.628862e+01 5.108649e+01 7.433426e+01 4.350232e+01 4.101355e+01 2.866865e+01 1.757656e+01 1.210671e+00 4.422929e+00 2.748483e+00 3.433683e+00 4.002877e+00 2.378724e+00 4.425916e+00 5.989443e+00 2.458572e+00 4.617830e+00 2.627673e+00 1.589088e+00 5.030012e+00
<GCONST> 1.051127e+02
<STATE> 4
<MEAN> 25
 3.859679e+00 -1.525668e-01 5.165000e+00 -4.984564e-01 -4.632375e+00 -2.862281e+00 -6.009436e+00 2.354162e+00 -2.955461e+00 2.839096e+00 -4.541707e-02 -4.702414e-01 -1.190900e-01 -8.440720e-03 9.155679e-03 7.057961e-03 -1.576738e-01 1.161769e-02 6.648739e-02 2.457721e-01 2.937366e-02 2.433858e-01 1.491816e-03 -2.773524e-02 -1.001917e-01
<VARIANCE> 25
 2.458682e+01 3.208779e+01 5.832178e+01 3.583602e+01 6.102938e+01 2.423199e+01 4.828427e+01 8.172679e+01 5.277454e+01 3.659320e+01 3.172366e+01 2.124359e+01 7.137395e-01 2.603812e+00 2.022074e+00 2.065233e+00 2.955801e+00 1.618964e+00 2.975259e+00 5.179165e+00 1.908179e+00 3.207089e+00 2.141738e+00 1.438607e+00 3.491967e+00
<GCONST> 1.004580e+02
<TRANSP> 5
 0.000000e+00 1.000000e+00 0.000000e+00 0.000000e+00 0.000000e+00
 0.000000e+00 7.252153e-01 2.747847e-01 0.000000e+00 0.000000e+00
 0.000000e+00 0.000000e+00 6.679601e-01 3.320399e-01 0.000000e+00
 0.000000e+00 0.000000e+00 0.000000e+00 7.925899e-01 2.074101e-01
 0.000000e+00 0.000000e+00 0.000000e+00 0.000000e+00 0.000000e+00
<ENDHMM>
~h "f"
<BEGINHMM>
<NUMSTATES> 5
<STATE> 2
<MEAN> 25
 4.936326e-01 2.039605e+00 -1.748206e-01 2.478819e+00 2.080648e+00 1.024755e+00 -8.067703e-02 -1.527434e+00 5.287169e-01 -1.676594e+00 -6.734820e-01 -1.457138e+00 -5.298314e-01 -3.869538e-01 -5.337825e-01 -3.746422e-01 -3.605516e-01 3.441243e-02 3.957854e-01 2.068662e-01 3.819944e-01 2.207822e-01 -7.534847e-02 4.046951e-02 -1.787802e-02
<VARIANCE> 25
 3.862691e+01 2.361630e+01 3.296645e+01 3.413112e+01 4.690079e+01 3.111191e+01 3.381635e+01 3.226882e+01 2.635288e+01 2.051351e+01 1.984625e+01 1.905446e+01 2.961721e+00 1.741048e+00 1.440454e+00 2.326249e+00 2.477726e+00 1.899100e+00 2.559325e+00 2.038937e+00 2.416969e+00 1.154602e+00 1.453007e+00 2.252898e+00 1.262556e+00
<GCONST> 9.479277e+01
<STATE> 3
<MEAN> 25
 -5.052507e-01 4.470472e-01 -1.698832e+00 1.095817e+00 1.273322e+00 1.213751e+00 7.195156e-01 -9.675685e-01 6.108441e-01 -1.156943e+00 -8.289074e-01 -1.044870e+00 -4.100221e-01 -5.078951e-01 -4.173564e-01 -4.178179e-01 -2.481388e-01 2.700020e-02 3.025989e-01 3.089310e-01 4.833994e-02 1.426671e-01 -4.040166e-03 2.202608e-01 1.022931e-01
<VARIANCE> 25
 5.517115e+01 2.286879e+01 2.678098e+01 3.520232e+01 3.832988e+01 3.064218e+01 2.877419e+01 3.103444e+01 3.152818e+01 2.152146e+01 1.804695e+01 1.789022e+01 3.547931e+00 1.371110e+00 1.061905e+00 2.245928e+00 2.281731e+00 1.807122e+00 1.803791e+00 1.810186e+00 2.404965e+00 9.676725e-01 1.396709e+00 1.481962e+00 9.411229e-01
<GCONST> 9.265893e+01
<STATE> 4
<MEAN> 25
 1.497806e+00 -1.698269e+00 -3.490824e+00 -7.725846e-01 5.097556e-02 -1.403986e+00 -4.199239e-01 1.905997e+00 -2.281586e-01 3.506988e-01 -1.049243e+00 -4.165273e-01 1.265846e-01 -9.852428e-02 -7.169329e-02 2.287097e-02 -8.480778e-02 -8.454546e-02 -1.071198e-01 1.042401e-01 -1.391097e-01 3.045318e-02 1.446694e-02 4.738000e-02 2.258246e-01
<VARIANCE> 25
 8.419436e+01 2.330207e+01 3.117305e+01 3.794290e+01 3.854183e+01 7.397266e+01 2.870940e+01 4.055876e+01 3.692735e+01 2.250861e+01 2.188457e+01 1.425015e+01 2.505942e+00 1.415634e+00 1.275151e+00 1.770416e+00 1.994974e+00 2.296373e+00 1.811357e+00 1.951967e+00 1.833724e+00 1.232563e+00 1.370477e+00 1.104457e+00 7.481295e-01
<GCONST> 9.389023e+01
<TRANSP> 5
 0.000000e+00 1.000000e+00 0.000000e+00 0.000000e+00 0.000000e+00
 0.000000e+00 5.834358e-01 4.165641e-01 0.000000e+00 0.000000e+00
 0.000000e+00 0.000000e+00 6.102712e-01 3.897288e-01 0.000000e+00
 0.000000e+00 0.000000e+00 0.000000e+00 9.349303e-01 6.506970e-02
 0.000000e+00 0.000000e+00 0.000000e+00 0.000000e+00 0.000000e+00
<ENDHMM>
~h "k"
<BEGINHMM>
<NUMSTATES> 5
<STATE> 2
<MEAN> 25
 -5.651874e+00 6.430864e-01 -3.775932e+00 6.913695e-02 6.999227e-01 1.420364e+00 4.291681e+00 1.845200e-01 3.896384e+00 3.158879e-02 2.530783e+00 1.674751e+00 7.283095e-03 1.047899e-01 -1.034475e-01 -7.508335e-02 -2.820671e-02 -1.241779e-01 -1.505991e-01 -2.996959e-02 -3.596339e-02 -5.115897e-02 -8.183720e-02 -7.306615e-02 -8.791384e-02
<VARIANCE> 25
 3.515858e+01 1.766042e+01 1.357001e+01 1.789447e+01 2.450112e+01 1.474683e+01 1.484608e+01 2.121900e+01 1.236508e+01 2.474924e+01 1.287124e+01 1.450338e+01 4.458391e-01 4.665594e-01 8.121861e-01 4.438139e-01 1.057042e+00 8.700151e-01 1.051021e+00 1.224943e+00 1.645046e+00 1.514038e+00 1.036475e+00 1.143552e+00 2.730949e-01
<GCONST> 7.782883e+01
<STATE> 3
<MEAN> 25
 -6.912352e+00 2.489073e-01 -3.748385e+00 7.922785e-01 2.790491e+00 9.845154e-01 4.703496e+00 5.613077e-01 4.271585e+00 -8.521974e-01 1.793368e+00 1.852679e+00 3.641247e-01 -3.824821e-01 9.609473e-02 -2.213775e-01 -6.227782e-01 -4.142410e-01 -4.171234e-02 1.932296e-01 -3.774622e-01 1.014160e-02 -1.789000e-01 -1.092689e-01 3.135563e-01
<VARIANCE> 25
 3.359041e+01 1.812796e+01 1.303623e+01 1.149167e+01 1.829815e+01 1.414715e+01 1.820788e+01 2.267891e+01 1.514664e+01 1.922737e+01 1.598257e+01 1.146160e+01 6.925442e-01 8.116928e-01 1.010277e+00 1.121060e+00 2.144836e+00 1.618478e+00 1.194967e+00 1.540122e+00 2.311911e+00 2.558307e+00 1.251271e+00 1.390317e+00 1.981071e+00
<GCONST> 8.424995e+01
<STATE> 4
<MEAN> 25
 -3.246178e+00 -5.109335e+00 -2.195685e+00 4.409664e-01 -1.471869e+00 -3.416024e+00 4.515607e+00 2.363255e+00 1.921010e-01 -1.734944e+00 3.665077e-01 -3.741785e-01 1.133096e+00 -3.432450e-01 -9.267916e-02 -6.712644e-02 -2.703224e-01 -8.908432e-01 -1.653932e-01 6.772161e-01 -5.160210e-01 -1.644017e-01 -4.200191e-01 -1.573372e-01 1.571288e+00
<VARIANCE> 25
 3.562066e+01 2.955318e+01 2.151418e+01 2.534570e+01 3.468960e+01 3.630125e+01 2.477278e+01 3.536284e+01 2.973245e+01 3.378313e+01 1.706750e+01 1.732151e+01 2.555571e+00 1.804810e+00 2.071711e+00 2.754396e+00 5.646405e+00 3.369076e+00 2.745852e+00 4.828921e+00 3.409755e+00 5.989334e+00 2.299555e+00 1.753112e+00 4.375705e+00
<GCONST> 1.004099e+02
<TRANSP> 5
 0.000000e+00 1.000000e+00 0.000000e+00 0.000000e+00 0.000000e+00
 0.000000e+00 5.582930e-01 4.417070e-01 0.000000e+00 0.000000e+00
 0.000000e+00 0.000000e+00 4.756081e-01 5.243919e-01 0.000000e+00
 0.000000e+00 0.000000e+00 0.000000e+00 7.409723e-01 2.590277e-01
 0.000000e+00 0.000000e+00 0.000000e+00 0.000000e+00 0.000000e+00
<ENDHMM>
~h "l"
<BEGINHMM>
<NUMSTATES> 5
<STATE> 2
<MEAN> 25
 -6.359777e+00 -2.093745e+00 2.245888e+00 1.233739e+00 1.667544e+00 1.009804e+00 2.200297e+00 7.437119e-01 2.712320e+00 -3.544099e+00 1.482006e+00 1.250176e+00 2.655067e-03 2.497515e-02 -1.082765e-01 -2.810072e-01 -1.012653e-01 1.792940e-01 2.062876e-01 2.900287e-01 2.284846e-01 3.005109e-01 2.297932e-01 5.294092e-02 -8.040023e-02
<VARIANCE> 25
 2.932648e+01 2.586568e+01 2.418712e+01 2.475111e+01 9.292485e+00 1.560278e+01 1.392076e+01 2.243706e+01 9.451168e+00 1.446571e+01 1.829631e+01 1.014588e+01 1.094768e-01 2.693519e-01 3.928898e-01 5.938393e-01 4.494962e-01 1.116386e+00 2.059312e+00 9.114394e-01 9.031129e-01 1.190080e+00 8.066322e-01 9.209858e-01 1.300410e-01
<GCONST> 7.253144e+01
<STATE> 3
<MEAN> 25
 -5.759875e+00 -1.644939e+00 1.798636e+00 8.939958e-01 1.455667e+00 1.593702e+00 2.795206e+00 1.510455e+00 2.899550e+00 -2.414723e+00 1.788454e+00 1.179078e+00 1.697694e-02 4.147014e-02 2.922190e-02 -1.506860e-01 -8.569464e-03 1.103473e-01 2.252580e-01 2.255423e-01 1.089525e-01 4.302860e-01 2.406852e-01 9.073159e-02 -1.214732e-01
<VARIANCE> 25
 2.357553e+01 2.902401e+01 2.382768e+01 1.698405e+01 9.033154e+00 1.594109e+01 1.384221e+01 1.891505e+01 7.627864e+00 1.705364e+01 1.581228e+01 1.052498e+01 1.684679e-01 3.147350e-01 4.158481e-01 5.285531e-01 4.880337e-01 1.146866e+00 1.585808e+00 1.035829e+00 8.609805e-01 1.144507e+00 6.843390e-01 1.016307e+00 1.568485e-01
<GCONST> 7.223214e+01
<STATE> 4
<MEAN> 25
 -4.006090e+00 6.181512e-01 -4.603538e-01 5.633094e-01 1.275038e-01 3.679437e+00 3.529197e+00 8.773742e-01 2.229604e+00 8.680884e-01 6.158927e-01 1.057848e+00 4.691083e-02 1.043557e-02 -1.679634e-02 9.202022e-03 -3.735890e-02 -9.503618e-03 -3.095011e-02 -2.118424e-02 -5.508224e-02 5.871141e-02 5.373085e-02 6.944662e-02 -3.596536e-02
<VARIANCE> 25
 6.751928e+00 1.603769e+01 1.266348e+01 8.280117e+00 1.142238e+01 1.010893e+01 1.232919e+01 3.087435e+01 7.831957e+00 1.556227e+01 1.343810e+01 1.044136e+01 1.848200e-01 2.601855e-01 3.757069e-01 4.561456e-01 5.591149e-01 8.866061e-01 1.027749e+00 1.125745e+00 9.100110e-01 1.004961e+00 6.646204e-01 8.062213e-01 1.592183e-01
<GCONST> 6.781678e+01
<TRANSP> 5
 0.000000e+00 1.000000e+00 0.000000e+00 0.000000e+00 0.000000e+00
 0.000000e+00 6.221889e-01 3.778112e-01 0.000000e+00 0.000000e+00
 0.000000e+00 0.000000e+00 6.509296e-01 3.490704e-01 0.000000e+00
 0.000000e+00 0.000000e+00 0.000000e+00 9.523595e-01 4.764056e-02
 0.000000e+00 0.000000e+00 0.000000e+00 0.000000e+00 0.000000e+00
<ENDHMM>
~h "m"
<BEGINHMM>
<NUMSTATES> 5
<STATE> 2
<MEAN> 25
 2.673555e+00 -4.124497e+00 -5.157957e+00 -1.582924e+00 1.157089e+00 2.503714e+00 2.078405e+00 2.828404e+00 -4.574513e-02 8.833797e-02 -2.408241e+00 2.150827e+00 7.109199e-02 -1.703974e-01 -4.308178e-02 -1.504406e-01 6.704686e-02 1.898057e-02 1.050388e-01 5.162139e-02 -1.858494e-01 2.107874e-01 -1.206849e-01 4.504350e-02 1.423066e-01
<VARIANCE> 25
 4.962528e+01 5.692378e+01 3.065986e+01 3.738683e+01 4.223817e+01 4.106019e+01 4.997124e+01 3.182966e+01 3.514056e+01 2.017038e+01 3.951500e+01 1.948219e+01 7.608415e-01 1.672237e+00 9.315559e-01 9.733246e-01 1.368290e+00 1.242874e+00 1.322665e+00 1.570370e+00 1.691720e+00 1.277722e+00 1.489894e+00 1.147516e+00 5.226781e-01
<GCONST> 9.104056e+01
<STATE> 3
<MEAN> 25
 5.106087e+00 -5.598381e+00 -5.300545e+00 -3.422079e+00 9.184957e-01 1.743505e+00 1.010800e+00 2.315856e+00 -2.182082e+00 1.469696e+00 -4.093268e+00 1.248153e+00 1.662730e-01 1.326220e-01 2.487783e-01 -3.299406e-03 -2.569780e-01 -2.089743e-01 -9.085002e-03 -1.017875e-01 -2.984175e-01 1.759885e-01 -1.412765e-01 -1.098768e-01 1.053716e-01
<VARIANCE> 25
 5.582772e+01 4.959217e+01 3.950974e+01 3.854584e+01 5.594579e+01 4.653356e+01 5.542792e+01 3.548074e+01 4.199003e+01 2.072632e+01 4.184676e+01 2.010180e+01 7.712402e-01 1.407570e+00 1.091833e+00 1.121453e+00 1.720993e+00 1.337957e+00 1.277120e+00 1.872939e+00 1.698781e+00 1.318700e+00 1.461222e+00 1.145856e+00 4.656079e-01
<GCONST> 9.270205e+01
<STATE> 4
<MEAN> 25
 6.552877e+00 -4.421678e+00 -2.414050e+00 -2.489418e+00 -2.230262e+00 -6.885768e-01 -3.194313e-01 -7.660710e-01 -4.095484e+00 2.807196e+00 -3.342318e+00 1.661345e-01 -2.779034e-02 4.878010e-01 4.662740e-01 2.641265e-01 -5.994338e-02 -1.755139e-01 -1.723307e-01 -2.593410e-01 -1.258374e-01 1.276934e-01 1.068651e-01 -1.375930e-01 -2.225693e-01
<VARIANCE> 25
 4.132473e+01 3.885907e+01 6.269183e+01 4.610731e+01 8.386874e+01 4.466382e+01 5.895583e+01 7.603357e+01 3.894373e+01 3.082206e+01 3.843576e+01 1.887208e+01 5.743492e-01 1.242389e+00 1.687599e+00 1.422359e+00 2.796420e+00 2.076289e+00 2.079175e+00 2.173374e+00 1.827947e+00 1.456241e+00 1.635818e+00 1.208409e+00 6.997287e-01
<GCONST> 9.671970e+01
<TRANSP> 5
 0.000000e+00 1.000000e+00 0.000000e+00 0.000000e+00 0.000000e+00
 0.000000e+00 7.742798e-01 2.257203e-01 0.000000e+00 0.000000e+00
 0.000000e+00 0.000000e+00 6.924074e-01 3.075926e-01 0.000000e+00
 0.000000e+00 0.000000e+00 0.000000e+00 7.901452e-01 2.098548e-01
 0.000000e+00 0.000000e+00 0.000000e+00 0.000000e+00 0.000000e+00
<ENDHMM>
~h "n"
<BEGINHMM>
<NUMSTATES> 5
<STATE> 2
<MEAN> 25
 8.273511e+00 -7.755945e-01 -1.897713e+00 -5.054147e+00 -7.005769e-01 9.514520e-01 -2.542786e+00 -3.356710e-02 -3.557205e+00 -2.204794e-02 -3.444726e+00 -1.736022e+00 3.312940e-01 -4.381195e-01 1.302667e-01 -3.127007e-01 -2.133270e-01 4.095563e-02 -4.589090e-01 3.853347e-02 -2.940739e-01 8.169199e-02 -2.855695e-01 -9.736054e-02 6.673234e-01
<VARIANCE> 25
 3.845459e+01 6.398036e+01 4.101940e+01 6.155219e+01 5.701275e+01 5.086304e+01 3.683568e+01 5.406432e+01 4.542570e+01 3.316644e+01 3.609317e+01 1.803507e+01 2.382321e+00 2.997450e+00 2.140839e+00 3.432155e+00 3.920534e+00 4.105445e+00 3.028185e+00 3.611136e+00 2.941549e+00 2.249975e+00 2.749861e+00 1.546153e+00 2.874584e+00
<GCONST> 1.044778e+02
<STATE> 3
<MEAN> 25
 8.303015e+00 -1.508921e+00 -1.203186e-01 -5.638106e+00 -2.264466e+00 1.641513e+00 -4.536457e+00 -1.764250e-01 -4.336067e+00 6.750371e-01 -3.264570e+00 -1.730978e+00 -1.245154e-01 -1.213113e-01 2.912742e-01 3.531451e-01 5.780036e-02 -5.985235e-02 -3.476328e-01 -1.411998e-01 1.378183e-01 -6.248500e-02 6.301635e-02 5.844286e-02 -2.987776e-02
<VARIANCE> 25
 3.132310e+01 4.959692e+01 6.147943e+01 6.112979e+01 6.023255e+01 5.942042e+01 4.814365e+01 6.335420e+01 4.950404e+01 3.527585e+01 3.608593e+01 1.820832e+01 1.179113e+00 2.418648e+00 1.804657e+00 2.880182e+00 3.330355e+00 3.268751e+00 2.619730e+00 3.778208e+00 2.995950e+00 2.294566e+00 2.442572e+00 1.299549e+00 2.004888e+00
<GCONST> 1.028402e+02
<STATE> 4
<MEAN> 25
 5.756472e+00 9.526550e-01 1.510895e+00 -6.337225e-02 3.130448e-01 -3.674504e-01 -5.026090e+00 -1.621850e+00 -1.554858e+00 -1.254047e+00 -2.143056e+00 -1.140355e+00 -9.790325e-02 1.967140e-01 1.660915e-01 4.745172e-01 1.773890e-01 -1.242380e-01 7.532015e-02 -7.894021e-02 1.247748e-01 -1.688324e-01 1.478779e-02 1.508835e-01 -2.438157e-01
<VARIANCE> 25
 3.091608e+01 3.070663e+01 4.650750e+01 5.555248e+01 4.954994e+01 5.139059e+01 5.895081e+01 6.426004e+01 4.268553e+01 3.345128e+01 2.946245e+01 2.411626e+01 1.096068e+00 1.638631e+00 1.397234e+00 1.981552e+00 1.987311e+00 2.510082e+00 2.405163e+00 3.033032e+00 2.462267e+00 2.255789e+00 1.923964e+00 1.565793e+00 1.343530e+00
<GCONST> 9.888258e+01
<TRANSP> 5
 0.000000e+00 1.000000e+00 0.000000e+00 0.000000e+00 0.000000e+00
 0.000000e+00 8.367662e-01 1.632338e-01 0.000000e+00 0.000000e+00
 0.000000e+00 0.000000e+00 8.071067e-01 1.928933e-01 0.000000e+00
 0.000000e+00 0.000000e+00 0.000000e+00 8.834532e-01 1.165468e-01
 0.000000e+00 0.000000e+00 0.000000e+00 0.000000e+00 0.000000e+00
<ENDHMM>
~h "p"
<BEGINHMM>
<NUMSTATES> 5
<STATE> 2
<MEAN> 25
 2.834358e+00 1.856807e+00 5.062530e-01 1.946329e+00 -1.216222e+00 -2.317198e+00 -1.334356e+00 1.301854e+00 -1.562422e-01 -3.732258e+00 -2.223201e+00 1.286319e+00 -1.959038e-01 -3.852368e-02 1.229679e-01 -3.210314e-02 4.767377e-02 -6.325293e-03 1.594247e-01 1.049243e-01 -1.591073e-01 -2.282984e-01 1.374561e-01 8.922347e-02 -4.692676e-02
<VARIANCE> 25
 5.063320e+01 6.044377e+00 7.489086e+00 2.701927e+01 9.834249e+00 6.620957e+01 3.911100e+01 4.061238e+01 4.492165e+01 5.726648e+01 1.158495e+01 1.073755e+01 2.104923e+00 7.091777e-01 7.299514e-01 1.602821e+00 8.147856e-01 2.773336e+00 1.609263e+00 2.748666e+00 2.188698e+00 2.257555e+00 1.130899e+00 7.308987e-01 1.044684e+00
<GCONST> 8.781649e+01
<STATE> 3
<MEAN> 25
 -1.828690e+00 3.401347e-01 3.355347e+00 4.029082e+00 1.505504e+00 -2.953715e-01 2.078619e-01 -1.066672e+00 -8.451357e-01 -5.767023e+00 -6.442637e-01 9.431955e-01 -1.372697e+00 -4.127279e-01 2.984249e-02 -8.771690e-01 1.005777e-01 5.370152e-01 5.489098e-01 1.554270e-01 5.741169e-01 2.514697e-01 3.890494e-01 -2.305114e-02 -2.365664e-01
<VARIANCE> 25
 4.305621e+01 1.877284e+01 2.961149e+01 4.156184e+01 1.100132e+01 2.606138e+01 3.090946e+01 2.715413e+01 2.487447e+01 2.792833e+01 1.193992e+01 1.351721e+01 2.584055e+00 1.378460e+00 8.565622e-01 2.713392e+00 9.532616e-01 1.254829e+00 2.098568e+00 1.823014e+00 2.130598e+00 1.372223e+00 9.799737e-01 7.321856e-01 6.745754e-01
<GCONST> 8.775737e+01
<STATE> 4
<MEAN> 25
 -7.439584e+00 -2.677069e+00 4.195078e+00 1.744872e+00 2.565260e+00 2.525229e-01 1.700214e+00 -3.539854e-01 1.848849e+00 -5.066590e+00 1.703773e+00 1.555131e+00 -2.787985e-01 -1.342615e-01 -2.826927e-01 -3.306059e-01 -4.910512e-02 1.767474e-01 2.554239e-01 2.841287e-01 5.262414e-01 2.830807e-01 1.773912e-01 2.754119e-02 -3.667767e-02
<VARIANCE> 25
 3.476167e+01 2.081348e+01 2.970272e+01 4.064426e+01 9.314484e+00 1.294294e+01 1.687558e+01 2.100373e+01 1.456950e+01 2.121368e+01 1.524705e+01 9.374738e+00 4.736092e-01 3.998865e-01 4.367182e-01 8.535689e-01 7.075254e-01 1.039539e+00 2.095130e+00 8.139017e-01 1.205081e+00 1.185785e+00 9.112006e-01 8.463757e-01 1.965883e-01
<GCONST> 7.703209e+01
<TRANSP> 5
 0.000000e+00 1.000000e+00 0.000000e+00 0.000000e+00 0.000000e+00
 0.000000e+00 9.247838e-01 7.521625e-02 0.000000e+00 0.000000e+00
 0.000000e+00 0.000000e+00 5.843080e-01 4.156920e-01 0.000000e+00
 0.000000e+00 0.000000e+00 0.000000e+00 7.011812e-01 2.988188e-01
 0.000000e+00 0.000000e+00 0.000000e+00 0.000000e+00 0.000000e+00
<ENDHMM>
~h "r"
<BEGINHMM>
<NUMSTATES> 5
<STATE> 2
<MEAN> 25
 1.841976e+00 -1.019758e+00 2.013886e+00 3.749749e+00 -3.011389e+00 -4.830228e+00 -2.702463e+00 -2.929069e+00 -1.596237e+00 -2.749326e+00 4.805739e-01 7.974216e-01 1.426251e+00 -4.751722e-01 6.892391e-01 1.756293e-01 -1.441389e-01 -9.353567e-01 -1.390321e+00 2.804526e-01 -7.006307e-01 -3.462913e-01 5.109255e-01 2.245521e-01 3.290411e-01
<VARIANCE> 25
 1.030262e+02 4.820790e+01 1.230132e+02 6.036881e+01 4.704692e+01 4.571989e+01 8.784036e+01 5.841174e+01 7.487488e+01 2.527539e+01 3.717167e+01 1.947375e+01 4.703400e+00 2.157968e+00 3.863127e+00 4.269584e+00 2.952823e+00 3.032764e+00 3.743432e+00 4.293230e+00 4.249658e+00 2.105832e+00 2.497395e+00 1.860533e+00 9.669754e-01
<GCONST> 1.075010e+02
<STATE> 3
<MEAN> 25
 6.797390e+00 -2.882341e+00 2.997535e+00 3.915647e+00 -3.752222e+00 -6.848694e+00 -7.771369e+00 -3.539203e-01 -4.376489e+00 -3.638918e+00 2.854719e+00 1.163750e+00 8.386900e-01 -4.087907e-01 2.572016e-01 3.850045e-01 1.587299e-01 -5.416642e-01 -1.133247e+00 3.488051e-01 -5.441497e-01 -1.289697e-01 5.167093e-01 3.889312e-03 6.577840e-02
<VARIANCE> 25
 9.285662e+01 4.251004e+01 1.337307e+02 7.949918e+01 6.144160e+01 6.320352e+01 8.992963e+01 7.765455e+01 8.612067e+01 2.551369e+01 3.900447e+01 2.261688e+01 3.198698e+00 1.588653e+00 3.563034e+00 2.670553e+00 3.454966e+00 2.462304e+00 3.292294e+00 3.410664e+00 3.965159e+00 2.041771e+00 2.322186e+00 1.683174e+00 6.378589e-01
<GCONST> 1.065352e+02
<STATE> 4
<MEAN> 25
 8.234108e+00 -3.277249e+00 -9.206682e-01 3.060065e+00 -1.664382e+00 -6.884009e+00 -9.481777e+00 3.308125e+00 -3.486510e+00 -2.478323e+00 2.608149e+00 1.519489e+00 -1.934839e-01 -1.334840e-02 3.790788e-01 2.253707e-01 1.916218e-01 1.375899e-02 1.511771e-01 -1.938329e-01 -6.034102e-02 1.553075e-01 3.946149e-02 -2.230248e-01 -3.394722e-01
<VARIANCE> 25
 7.181179e+01 3.005972e+01 1.022471e+02 6.455042e+01 6.079594e+01 6.448846e+01 1.078704e+02 9.014742e+01 6.773060e+01 3.611521e+01 3.229182e+01 1.959146e+01 1.285992e+00 1.100859e+00 2.317927e+00 1.583414e+00 2.518718e+00 2.512963e+00 3.218190e+00 2.263768e+00 3.309485e+00 2.065024e+00 2.212543e+00 1.717454e+00 7.799192e-01
<GCONST> 1.026149e+02
<TRANSP> 5
 0.000000e+00 1.000000e+00 0.000000e+00 0.000000e+00 0.000000e+00
 0.000000e+00 6.561220e-01 3.438779e-01 0.000000e+00 0.000000e+00
 0.000000e+00 0.000000e+00 6.498816e-01 3.501184e-01 0.000000e+00
 0.000000e+00 0.000000e+00 0.000000e+00 8.009158e-01 1.990842e-01
 0.000000e+00 0.000000e+00 0.000000e+00 0.000000e+00 0.000000e+00
<ENDHMM>
~h "s"
<BEGINHMM>
<NUMSTATES> 5
<STATE> 2
<MEAN> 25
 -1.365037e+01 4.481172e+00 -2.727970e+00 1.102850e+00 4.806463e+00 -2.016928e+00 6.670391e+00 -6.005732e-01 4.996450e+00 6.347617e-01 1.537397e+00 2.147009e+00 -2.204936e-01 5.359143e-02 -3.013562e-01 5.717248e-03 5.364231e-02 2.242063e-02 3.934301e-03 9.489901e-02 1.290756e-01 9.975062e-02 1.763081e-01 9.222919e-02 -1.725635e-01
<VARIANCE> 25
 5.237362e+01 4.200620e+01 1.062703e+02 1.911501e+01 5.067513e+01 2.579497e+01 3.503034e+01 2.117763e+01 2.705455e+01 2.720497e+01 1.648256e+01 1.509095e+01 1.482668e+00 8.746823e-01 1.755125e+00 1.384153e+00 1.678863e+00 1.645259e+00 2.016507e+00 1.688486e+00 1.836563e+00 1.830703e+00 1.495166e+00 1.410001e+00 7.044103e-01
<GCONST> 9.215885e+01
<STATE> 3
<MEAN> 25
 -1.388903e+01 5.329465e+00 -4.769831e+00 1.183675e+00 5.933018e+00 -2.068463e+00 6.533304e+00 -3.934504e-01 5.469831e+00 5.256037e-01 1.942918e+00 2.661729e+00 3.233088e-01 -1.834006e-01 2.810338e-02 -1.831457e-03 -3.472697e-03 1.054887e-01 -2.401440e-02 1.037572e-01 1.096603e-02 4.160501e-02 9.211477e-03 1.063208e-01 -2.996182e-01
<VARIANCE> 25
 3.997297e+01 3.213421e+01 6.336196e+01 1.840926e+01 3.756665e+01 2.433039e+01 2.730806e+01 2.088183e+01 2.248729e+01 2.271642e+01 1.828962e+01 1.391313e+01 1.540442e+00 9.227447e-01 1.697760e+00 1.072957e+00 1.591576e+00 1.664681e+00 1.964819e+00 1.838606e+00 1.951076e+00 1.710360e+00 1.682231e+00 1.353603e+00 8.339880e-01
<GCONST> 9.016248e+01
<STATE> 4
<MEAN> 25
 -8.329929e+00 2.615902e-01 2.905658e-01 3.971045e-01 1.503161e+00 1.082199e+00 4.941348e+00 1.053491e+00 3.699506e+00 1.070475e+00 2.668298e+00 2.631788e+00 4.537047e-01 -1.352344e-01 2.138432e-02 1.572887e-01 -1.159589e-01 1.450646e-01 -1.106873e-01 1.074892e-01 -4.950772e-02 -5.908537e-02 -1.528938e-02 5.544715e-02 -2.817508e-01
<VARIANCE> 25
 4.554778e+01 3.285948e+01 6.493295e+01 2.342676e+01 3.731260e+01 1.952808e+01 2.911831e+01 2.414608e+01 2.045951e+01 2.364298e+01 1.863644e+01 1.447140e+01 1.350733e+00 1.123596e+00 1.632957e+00 1.014482e+00 1.296421e+00 1.270547e+00 1.736868e+00 1.906688e+00 1.650602e+00 1.494393e+00 1.570153e+00 1.431837e+00 7.744495e-01
<GCONST> 8.958648e+01
<TRANSP> 5
 0.000000e+00 1.000000e+00 0.000000e+00 0.000000e+00 0.000000e+00
 0.000000e+00 8.306228e-01 1.693772e-01 0.000000e+00 0.000000e+00
 0.000000e+00 0.000000e+00 8.480039e-01 1.519961e-01 0.000000e+00
 0.000000e+00 0.000000e+00 0.000000e+00 8.825207e-01 1.174793e-01
 0.000000e+00 0.000000e+00 0.000000e+00 0.000000e+00 0.000000e+00
<ENDHMM>
~h "t"
<BEGINHMM>
<NUMSTATES> 5
<STATE> 2
<MEAN> 25
 3.525025e+00 7.404932e-01 -3.243198e-01 1.665343e+00 1.421642e-02 -1.949465e+00 -1.457546e+00 -3.297543e+00 2.706534e-01 -1.912222e+00 -1.404057e+00 -1.662493e-01 -3.694961e-01 -1.311072e-01 -1.641386e-01 2.257626e-01 2.173803e-01 9.977509e-02 4.189402e-01 1.382044e-03 9.694283e-02 -1.308285e-01 1.259040e-01 1.080202e-01 -3.090478e-01
<VARIANCE> 25
 3.755156e+01 3.203061e+01 4.296117e+01 3.953231e+01 5.200519e+01 4.536033e+01 6.009705e+01 4.557244e+01 3.375882e+01 3.499102e+01 2.584562e+01 2.171310e+01 9.799591e-01 1.745316e+00 1.586990e+00 2.029569e+00 3.078927e+00 2.601847e+00 2.805125e+00 3.462107e+00 2.110257e+00 2.065656e+00 1.742358e+00 1.483153e+00 2.459767e+00
<GCONST> 9.894461e+01
<STATE> 3
<MEAN> 25
 1.483019e+00 1.397635e+00 4.326406e-01 2.853062e+00 1.445737e+00 -6.429021e-01 -4.057045e-01 -2.467714e+00 9.245265e-01 -2.429338e+00 -6.433996e-01 -1.578996e-01 -4.871319e-01 5.851625e-03 -5.163974e-02 1.765068e-01 2.557551e-01 1.995429e-01 3.543372e-01 2.258635e-01 1.020150e-01 -9.447502e-02 2.009320e-01 7.207569e-02 -3.023020e-01
<VARIANCE> 25
 4.076669e+01 2.857009e+01 3.692524e+01 3.039585e+01 4.303345e+01 3.843404e+01 5.720323e+01 4.189429e+01 3.244896e+01 3.601397e+01 2.431864e+01 2.587027e+01 1.213609e+00 1.723999e+00 1.515810e+00 2.083696e+00 2.607517e+00 2.511576e+00 3.021339e+00 2.917188e+00 2.068502e+00 2.165831e+00 1.801562e+00 1.708017e+00 2.206496e+00
<GCONST> 9.808994e+01
<STATE> 4
<MEAN> 25
 -1.810562e+00 7.301970e-01 -2.559320e-01 3.320883e+00 3.473617e+00 1.220481e+00 1.295087e+00 -1.026434e-02 2.551651e+00 -2.777092e+00 8.121392e-01 1.006800e+00 -1.501256e-01 -3.695135e-02 -7.421601e-02 6.571090e-02 7.243383e-03 -6.173977e-02 3.183331e-02 1.537407e-01 4.885962e-02 5.872932e-02 9.362323e-02 2.275393e-02 3.409196e-02
<VARIANCE> 25
 3.105573e+01 2.443107e+01 2.828789e+01 2.425003e+01 3.328084e+01 3.075756e+01 7.026351e+01 4.090491e+01 2.751392e+01 2.579441e+01 2.317998e+01 2.465616e+01 1.347693e+00 1.621367e+00 1.263935e+00 2.106203e+00 2.133709e+00 2.349385e+00 3.216782e+00 2.571609e+00 1.824467e+00 1.968627e+00 1.851786e+00 1.631225e+00 1.922247e+00
<GCONST> 9.544051e+01
<TRANSP> 5
 0.000000e+00 1.000000e+00 0.000000e+00 0.000000e+00 0.000000e+00
 0.000000e+00 6.764343e-01 3.235656e-01 0.000000e+00 0.000000e+00
 0.000000e+00 0.000000e+00 6.623965e-01 3.376034e-01 0.000000e+00
 0.000000e+00 0.000000e+00 0.000000e+00 8.886439e-01 1.113561e-01
 0.000000e+00 0.000000e+00 0.000000e+00 0.000000e+00 0.000000e+00
<ENDHMM>
~h "v"
<BEGINHMM>
<NUMSTATES> 5
<STATE> 2
<MEAN> 25
 2.924847e+00 -1.155780e+00 1.704210e-01 1.146725e+00 -1.101573e+00 -2.385215e+00 -3.306089e+00 2.904823e-01 -3.121188e+00 1.810924e+00 -1.156317e+00 -1.605464e+00 7.741387e-01 -1.102974e-01 -1.752950e-02 -3.350693e-01 -8.934736e-02 -4.213374e-01 -1.299520e-01 -3.591193e-02 -3.538209e-01 -3.395025e-03 -2.932933e-01 -2.069814e-01 4.797860e-01
<VARIANCE> 25
 6.636376e+01 3.189219e+01 6.346472e+01 7.079161e+01 6.381322e+01 5.318402e+01 4.547903e+01 4.631868e+01 5.995789e+01 3.657110e+01 4.089091e+01 1.945690e+01 4.839270e+00 2.384575e+00 2.551888e+00 4.510396e+00 4.646005e+00 4.757368e+00 3.733143e+00 4.260747e+00 5.124903e+00 2.605000e+00 3.151672e+00 1.773316e+00 2.558275e+00
<GCONST> 1.081723e+02
<STATE> 3
<MEAN> 25
 4.888463e+00 -1.731362e+00 6.580641e-01 7.591969e-02 -1.408589e+00 -3.116559e+00 -3.491012e+00 8.389063e-01 -4.439400e+00 2.062719e+00 -2.483054e+00 -1.793565e+00 4.469371e-01 -1.774058e-01 -4.869149e-02 -3.201827e-01 -1.364116e-01 -4.531118e-02 2.905044e-02 6.073917e-02 -2.508750e-01 1.048308e-01 -4.070028e-01 -5.336104e-02 3.714398e-01
<VARIANCE> 25
 4.656460e+01 3.830207e+01 5.350623e+01 7.890006e+01 7.018903e+01 5.104569e+01 4.465515e+01 6.591156e+01 5.225175e+01 4.496142e+01 4.440661e+01 1.699549e+01 4.414395e+00 2.339382e+00 3.066732e+00 3.958218e+00 4.788243e+00 3.917560e+00 3.665637e+00 4.105937e+00 5.015959e+00 2.769706e+00 2.922420e+00 1.748239e+00 2.335779e+00
<GCONST> 1.079256e+02
<STATE> 4
<MEAN> 25
 5.719389e+00 -2.716351e+00 3.725659e-01 -5.360641e-01 -1.379608e+00 -3.613403e+00 -4.557221e+00 -1.559016e+00 -5.700737e+00 2.651703e+00 -3.741041e+00 -9.252801e-01 -9.555312e-02 6.369458e-03 1.812257e-01 -6.070692e-02 -6.553964e-02 1.056065e-01 1.373413e-01 -1.452192e-02 -1.378081e-02 4.216578e-02 -1.072708e-01 5.042390e-02 -9.162436e-02
<VARIANCE> 25
 3.463377e+01 3.569823e+01 4.022166e+01 6.244665e+01 7.481448e+01 4.080283e+01 5.477385e+01 1.159874e+02 4.061497e+01 4.647382e+01 3.373774e+01 1.941137e+01 2.455975e+00 1.958570e+00 2.542871e+00 2.762619e+00 3.564268e+00 2.575333e+00 3.623595e+00 3.847933e+00 3.259801e+00 2.310812e+00 2.394224e+00 1.391268e+00 1.734823e+00
<GCONST> 1.038491e+02
<TRANSP> 5
 0.000000e+00 1.000000e+00 0.000000e+00 0.000000e+00 0.000000e+00
 0.000000e+00 7.291853e-01 2.708147e-01 0.000000e+00 0.000000e+00
 0.000000e+00 0.000000e+00 7.406819e-01 2.593181e-01 0.000000e+00
 0.000000e+00 0.000000e+00 0.000000e+00 8.455053e-01 1.544947e-01
 0.000000e+00 0.000000e+00 0.000000e+00 0.000000e+00 0.000000e+00
<ENDHMM>
~h "w"
<BEGINHMM>
<NUMSTATES> 5
<STATE> 2
<MEAN> 25
 2.011025e+00 2.941908e-01 7.872099e+00 1.733534e+00 -4.532080e+00 -4.656150e+00 -5.235715e+00 1.501830e+00 -4.316652e+00 2.543570e+00 9.183036e-02 -1.938654e+00 -1.693560e-01 1.982318e-01 -1.028322e-01 8.781202e-01 9.867807e-02 -1.424954e-02 5.776716e-01 -6.514893e-01 9.523004e-01 -2.776895e-01 4.017114e-02 5.957434e-01 -8.325914e-01
<VARIANCE> 25
 3.227086e+01 2.724886e+01 5.310639e+01 3.427169e+01 8.856192e+01 8.014212e+01 5.633635e+01 2.481002e+01 6.906509e+01 4.512607e+01 2.281609e+01 4.181527e+01 1.237336e+00 1.892553e+00 3.025776e+00 2.396922e+00 3.973157e+00 3.677749e+00 3.754426e+00 3.770806e+00 3.062083e+00 2.302840e+00 2.784672e+00 1.707009e+00 3.126744e+00
<GCONST> 1.040645e+02
<STATE> 3
<MEAN> 25
 1.489442e+00 1.524389e+00 5.496877e+00 5.002914e+00 -2.065456e+00 -3.774651e+00 -3.819363e+00 -2.810943e-01 -1.638916e-01 -1.003746e-01 -5.795451e-01 -8.451856e-01 -3.911891e-01 2.961639e-01 -9.881364e-01 1.017174e+00 6.873617e-01 4.782804e-01 1.131557e+00 -4.964367e-01 1.508761e+00 -3.344104e-01 -2.438437e-01 6.282338e-01 -1.306747e+00
<VARIANCE> 25
 3.507056e+01 2.802352e+01 3.644253e+01 3.133505e+01 5.030800e+01 8.663819e+01 4.535433e+01 2.874565e+01 6.339473e+01 3.279865e+01 1.553963e+01 3.019234e+01 1.328831e+00 2.090215e+00 2.855930e+00 2.380038e+00 4.665590e+00 4.264232e+00 2.915503e+00 4.431399e+00 3.725433e+00 2.530187e+00 3.027365e+00 2.068825e+00 2.037427e+00
<GCONST> 1.024986e+02
<STATE> 4
<MEAN> 25
 1.967250e+00 2.568505e-01 1.168415e+00 4.822749e+00 -4.337371e-01 -2.754382e-01 -2.636644e+00 -6.014164e-01 1.869154e+00 -9.448978e-01 -3.330391e+00 -2.759138e+00 -4.010816e-01 -1.037724e-01 -6.059060e-01 1.236249e-01 6.143900e-01 6.787395e-01 7.438059e-01 -1.227063e-01 3.995242e-01 -4.624489e-02 2.258606e-01 2.499426e-01 -7.154592e-01
<VARIANCE> 25
 4.107279e+01 4.533188e+01 2.531221e+01 7.538638e+01 2.939158e+01 5.418248e+01 5.027625e+01 3.448116e+01 4.957033e+01 2.330976e+01 2.040919e+01 3.463836e+01 1.732042e+00 3.061786e+00 1.558532e+00 1.555748e+00 2.462442e+00 4.189653e+00 4.168982e+00 3.774770e+00 3.896229e+00 2.320163e+00 1.666610e+00 3.477857e+00 1.334681e+00
<GCONST> 1.013657e+02
<TRANSP> 5
 0.000000e+00 1.000000e+00 0.000000e+00 0.000000e+00 0.000000e+00
 0.000000e+00 5.268850e-01 4.731150e-01 0.000000e+00 0.000000e+00
 0.000000e+00 0.000000e+00 4.617826e-01 5.382174e-01 0.000000e+00
 0.000000e+00 0.000000e+00 0.000000e+00 7.796521e-01 2.203478e-01
 0.000000e+00 0.000000e+00 0.000000e+00 0.000000e+00 0.000000e+00
<ENDHMM>
~h "z"
<BEGINHMM>
<NUMSTATES> 5
<STATE> 2
<MEAN> 25
 1.910080e-01 3.966022e+00 6.483902e+00 4.089478e+00 2.511503e-01 -2.979972e+00 5.406687e-01 -2.425489e-02 2.116444e-01 1.327541e+00 -1.971385e-01 -1.432213e+00 -9.479448e-01 1.554824e-01 -3.188943e-01 -1.230833e-01 3.202173e-01 2.323367e-01 5.726147e-01 8.360302e-02 1.507746e-01 4.554870e-02 1.387824e-01 1.781294e-01 -1.621778e-01
<VARIANCE> 25
 1.181609e+02 6.255629e+01 4.996835e+01 4.012595e+01 4.597560e+01 4.695963e+01 6.677412e+01 3.817949e+01 1.961044e+01 3.255008e+01 1.770703e+01 1.616867e+01 2.911978e+00 1.981369e+00 2.511563e+00 2.580808e+00 1.865777e+00 3.400929e+00 2.421424e+00 2.481919e+00 1.521941e+00 1.649594e+00 1.945095e+00 1.389994e+00 1.081795e+00
<GCONST> 9.935182e+01
<STATE> 3
<MEAN> 25
 -6.100666e+00 3.650369e+00 2.512135e+00 2.440530e+00 1.970773e+00 -7.899305e-01 3.530878e+00 -5.377389e-01 1.462304e+00 4.824222e-01 4.785250e-01 1.099501e-01 -7.953212e-01 -2.830568e-01 -5.395702e-01 -2.563640e-01 5.083332e-02 3.984857e-01 3.945404e-01 1.177321e-01 2.986934e-01 -3.776405e-01 3.734776e-01 3.049581e-01 -6.823481e-02
<VARIANCE> 25
 7.785999e+01 7.411150e+01 5.662076e+01 3.088337e+01 4.194966e+01 3.406925e+01 4.854586e+01 2.847729e+01 1.851270e+01 2.504949e+01 1.764828e+01 1.481702e+01 1.902143e+00 2.130308e+00 2.412778e+00 1.452461e+00 1.306191e+00 2.621632e+00 2.166690e+00 1.768068e+00 1.615638e+00 1.721943e+00 1.353970e+00 1.218194e+00 1.187644e+00
<GCONST> 9.519905e+01
<STATE> 4
<MEAN> 25
 -8.938908e+00 3.084242e+00 -1.590429e+00 8.209347e-01 3.280899e+00 1.355279e+00 4.460727e+00 5.993248e-01 3.750819e+00 -5.265776e-01 2.454400e+00 2.088317e+00 1.745139e-01 -1.720956e-01 1.022839e-01 5.827027e-02 -4.985642e-02 7.455119e-02 2.207048e-02 -1.074204e-02 -2.141456e-02 2.292639e-02 9.011260e-02 7.887422e-02 -2.513298e-01
<VARIANCE> 25
 4.825063e+01 4.686972e+01 4.123278e+01 1.882650e+01 2.791062e+01 2.070477e+01 1.569310e+01 2.821077e+01 1.463832e+01 1.713478e+01 1.529966e+01 1.243920e+01 6.508593e-01 8.270957e-01 1.066767e+00 9.671595e-01 1.122869e+00 1.374099e+00 1.357635e+00 1.170754e+00 1.555305e+00 1.197620e+00 1.351797e+00 1.103779e+00 3.084551e-01
<GCONST> 8.370596e+01
<TRANSP> 5
 0.000000e+00 1.000000e+00 0.000000e+00 0.000000e+00 0.000000e+00
 0.000000e+00 8.729474e-01 1.270526e-01 0.000000e+00 0.000000e+00
 0.000000e+00 0.000000e+00 7.355954e-01 2.644047e-01 0.000000e+00
 0.000000e+00 0.000000e+00 0.000000e+00 9.281031e-01 7.189684e-02
 0.000000e+00 0.000000e+00 0.000000e+00 0.000000e+00 0.000000e+00
<ENDHMM>
~h "ah"
<BEGINHMM>
<NUMSTATES> 5
<STATE> 2
<MEAN> 25
 2.024946e+00 1.009051e-01 3.400673e+00 -1.853322e+00 -1.723434e+00 -2.032594e+00 7.822443e-01 -3.343192e+00 -2.501728e+00 1.203987e+00 -2.477484e+00 2.380721e+00 -1.102543e+00 1.610013e-02 2.875850e-03 -7.212210e-02 2.894255e-01 9.211244e-02 7.817295e-01 -1.830454e-01 3.892812e-01 -4.538949e-02 1.139783e-01 2.671822e-02 1.579572e-01
<VARIANCE> 25
 9.988696e+01 4.062411e+01 8.560360e+01 5.455624e+01 5.960599e+01 3.852134e+01 6.678490e+01 7.210534e+01 4.150648e+01 4.152933e+01 3.512978e+01 2.290773e+01 6.282677e+00 2.767764e+00 5.298374e+00 2.791609e+00 3.563839e+00 2.707140e+00 4.390215e+00 2.736351e+00 2.887871e+00 2.659786e+00 2.479987e+00 2.105176e+00 1.657198e+00
<GCONST> 1.075648e+02
<STATE> 3
<MEAN> 25
 -6.396068e+00 1.642239e+00 3.623639e+00 1.189571e+00 2.601004e+00 -5.072362e-01 4.571037e+00 -2.576594e+00 1.994719e+00 -2.928679e-01 1.982874e-01 2.731207e+00 -1.911777e+00 -2.233616e-02 -6.169357e-01 -5.093273e-01 3.866845e-01 2.480491e-01 7.476639e-01 7.087066e-03 4.049650e-01 2.659696e-02 4.255440e-01 -1.769202e-01 8.350947e-02
<VARIANCE> 25
 8.562489e+01 4.423491e+01 8.787022e+01 3.646996e+01 5.110438e+01 2.472834e+01 5.767251e+01 3.042931e+01 3.474602e+01 3.442942e+01 2.945040e+01 1.983022e+01 4.681127e+00 1.542918e+00 3.887073e+00 1.688537e+00 2.664654e+00 2.003357e+00 2.697913e+00 1.971753e+00 2.592111e+00 1.992332e+00 1.828810e+00 1.553908e+00 1.015981e+00
<GCONST> 1.002348e+02
<STATE> 4
<MEAN> 25
 -8.576881e+00 -8.414357e-01 4.734959e+00 -2.728184e-01 -2.242640e-02 2.431064e+00 7.601576e+00 -6.527361e-01 2.209173e+00 1.587290e+00 9.051391e-01 2.858939e+00 -3.370047e-02 2.289608e-02 -1.688854e-01 1.015307e-03 -5.973695e-02 -2.012520e-02 7.008362e-02 9.451413e-02 1.472126e-02 4.471576e-02 1.033435e-01 -5.646839e-02 -1.254593e-01
<VARIANCE> 25
 6.249856e+01 3.479038e+01 1.414211e+02 2.720004e+01 4.630579e+01 1.840173e+01 5.189640e+01 3.492532e+01 2.353279e+01 3.897734e+01 2.450324e+01 1.617628e+01 1.272542e+00 5.569477e-01 1.133135e+00 8.369927e-01 1.003546e+00 1.203015e+00 1.412870e+00 1.844581e+00 1.442520e+00 1.433100e+00 1.222159e+00 1.121595e+00 3.591253e-01
<GCONST> 8.970683e+01
<TRANSP> 5
 0.000000e+00 1.000000e+00 0.000000e+00 0.000000e+00 0.000000e+00
 0.000000e+00 8.529925e-01 1.470075e-01 0.000000e+00 0.000000e+00
 0.000000e+00 0.000000e+00 6.338883e-01 3.661117e-01 0.000000e+00
 0.000000e+00 0.000000e+00 0.000000e+00 8.997564e-01 1.002436e-01
 0.000000e+00 0.000000e+00 0.000000e+00 0.000000e+00 0.000000e+00
<ENDHMM>
~h "ao"
<BEGINHMM>
<NUMSTATES> 5
<STATE> 2
<MEAN> 25
 2.924630e+00 1.040466e+00 -4.663344e+00 -8.366445e-01 -3.749567e+00 -1.612265e+00 -3.333344e+00 -9.142435e-02 -7.213902e-01 -1.426791e+00 -4.914788e-01 -3.054481e+00 6.300578e-02 3.033726e-01 -2.399829e-02 5.110785e-02 3.987882e-02 2.640663e-01 -5.368530e-01 5.373388e-02 8.880408e-02 -1.568170e-01 6.620298e-02 1.485981e-01 -6.827323e-02
<VARIANCE> 25
 8.500304e+01 1.499750e+01 2.667773e+01 6.068518e+01 5.369580e+01 5.781021e+01 4.000342e+01 1.928687e+01 2.365947e+01 2.195183e+01 2.149635e+01 2.399409e+01 1.231642e+00 8.831245e-01 6.942448e-01 1.773237e+00 2.311348e+00 1.962642e+00 1.870199e+00 2.238040e+00 1.464237e+00 1.277027e+00 1.657043e+00 9.683392e-01 5.448388e-01
<GCONST> 9.140141e+01
<STATE> 3
<MEAN> 25
 8.023431e-01 1.657015e+00 -4.093771e+00 1.122092e+00 -2.252893e+00 1.088794e+00 -4.247952e+00 1.250522e+00 -4.006293e-01 -2.082638e+00 4.559035e-01 -1.454352e+00 1.444436e-01 1.000845e-01 2.344851e-02 -7.968279e-02 -7.988364e-02 4.446626e-02 -9.548213e-02 3.023028e-01 8.382239e-02 9.289625e-02 9.240753e-02 1.477297e-01 1.059982e-01
<VARIANCE> 25
 7.646141e+01 1.683152e+01 3.750557e+01 5.230859e+01 3.993678e+01 5.524165e+01 4.844538e+01 3.369710e+01 3.590968e+01 2.445861e+01 2.684737e+01 2.027998e+01 2.023996e+00 1.073549e+00 7.580315e-01 1.787199e+00 1.975469e+00 1.726011e+00 1.917974e+00 2.134392e+00 1.666860e+00 1.460235e+00 1.570065e+00 9.804433e-01 7.014225e-01
<GCONST> 9.354527e+01
<STATE> 4
<MEAN> 25
 1.402754e+00 1.069878e+00 -2.037894e+00 -2.818769e+00 -2.261626e+00 -2.982981e+00 -2.994868e+00 1.340087e+00 3.808966e-01 -1.284981e-01 2.376274e-01 2.847159e-02 1.185877e-01 -2.899921e-02 -7.055260e-02 -8.590998e-02 -7.380097e-02 -4.979673e-02 5.181967e-03 -6.577171e-02 -1.366973e-02 2.768852e-02 -1.386100e-02 -8.491274e-03 8.262656e-02
<VARIANCE> 25
 8.142448e+01 1.890989e+01 2.255696e+01 2.496253e+01 4.480100e+01 1.015812e+02 6.427435e+01 5.018984e+01 1.787483e+01 2.095687e+01 1.384363e+01 1.375538e+01 2.134969e+00 1.142773e+00 7.995727e-01 9.355603e-01 1.849345e+00 2.608035e+00 2.101952e+00 1.731052e+00 1.440356e+00 1.408361e+00 1.068307e+00 1.074554e+00 5.168469e-01
<GCONST> 9.094882e+01
<TRANSP> 5
 0.000000e+00 1.000000e+00 0.000000e+00 0.000000e+00 0.000000e+00
 0.000000e+00 7.739690e-01 2.260310e-01 0.000000e+00 0.000000e+00
 0.000000e+00 0.000000e+00 7.508153e-01 2.491846e-01 0.000000e+00
 0.000000e+00 0.000000e+00 0.000000e+00 9.771376e-01 2.286242e-02
 0.000000e+00 0.000000e+00 0.000000e+00 0.000000e+00 0.000000e+00
<ENDHMM>
~h "aw"
<BEGINHMM>
<NUMSTATES> 5
<STATE> 2
<MEAN> 25
 -2.424273e+00 -7.667948e+00 -6.182503e+00 -1.827410e+00 2.139565e+00 -1.414449e+00 6.085676e+00 3.079869e+00 1.765471e+00 -2.940846e+00 -8.888465e-02 1.064977e+00 3.674233e-01 -8.406193e-01 -5.331427e-01 -4.253528e-01 7.048224e-02 -1.262108e-01 -1.626546e-02 3.176001e-01 -2.968197e-01 -7.128291e-02 -2.163637e-01 -2.732571e-01 7.808084e-01
<VARIANCE> 25
 3.866170e+01 3.278458e+01 1.270041e+01 2.526511e+01 3.423995e+01 2.480033e+01 1.823168e+01 2.580260e+01 2.001412e+01 3.162531e+01 2.288253e+01 1.391765e+01 6.041549e-01 1.308079e+00 1.164348e+00 1.356128e+00 1.699696e+00 2.556014e+00 1.181919e+00 2.319676e+00 1.573816e+00 2.112311e+00 1.406315e+00 1.181304e+00 1.032876e+00
<GCONST> 8.841472e+01
<STATE> 3
<MEAN> 25
 -3.565764e-02 -8.993265e+00 -8.107059e+00 -2.550485e+00 3.285017e+00 -6.421984e-01 5.658703e+00 2.553887e+00 1.137950e+00 -2.740648e+00 -1.797995e+00 7.065523e-02 7.205838e-01 -2.203586e-01 -3.990113e-01 -3.827787e-01 4.549301e-02 1.712599e-01 -1.448999e-01 -7.528624e-02 -2.867678e-01 1.621707e-01 -3.202478e-01 -1.980567e-01 5.326442e-01
<VARIANCE> 25
 4.538935e+01 3.631488e+01 1.761486e+01 2.440684e+01 3.568769e+01 3.093175e+01 1.713890e+01 3.662590e+01 2.034826e+01 2.873036e+01 2.942710e+01 1.767018e+01 9.410076e-01 1.971900e+00 1.230702e+00 1.892154e+00 1.685884e+00 2.304555e+00 1.378287e+00 1.900350e+00 1.478090e+00 1.951926e+00 1.428050e+00 1.039010e+00 9.722601e-01
<GCONST> 9.070105e+01
<STATE> 4
<MEAN> 25
 5.390014e+00 -1.165608e+00 -3.616179e+00 -4.255760e+00 -4.074637e-01 -2.310698e+00 4.381049e-01 1.221223e+00 -1.547236e+00 5.682570e-02 -2.144632e+00 -1.709764e+00 2.205332e-01 1.804054e-01 4.639693e-03 -2.112867e-01 -3.817729e-02 5.533871e-02 -1.544933e-01 -5.952405e-02 -1.121954e-01 1.502973e-01 -6.965620e-02 -3.464856e-02 2.396911e-03
<VARIANCE> 25
 4.281998e+01 3.166552e+01 5.018486e+01 7.314613e+01 5.522120e+01 9.890656e+01 4.378926e+01 4.960459e+01 2.980736e+01 2.852977e+01 2.588438e+01 1.844145e+01 8.886692e-01 9.518080e-01 9.562126e-01 1.287239e+00 1.367495e+00 2.078608e+00 1.330305e+00 1.518596e+00 1.451162e+00 1.484379e+00 1.321708e+00 9.527989e-01 5.589541e-01
<GCONST> 9.277469e+01
<TRANSP> 5
 0.000000e+00 1.000000e+00 0.000000e+00 0.000000e+00 0.000000e+00
 0.000000e+00 5.503793e-01 4.496207e-01 0.000000e+00 0.000000e+00
 0.000000e+00 0.000000e+00 6.318410e-01 3.681590e-01 0.000000e+00
 0.000000e+00 0.000000e+00 0.000000e+00 9.530808e-01 4.691918e-02
 0.000000e+00 0.000000e+00 0.000000e+00 0.000000e+00 0.000000e+00
<ENDHMM>
~h "ay"
<BEGINHMM>
<NUMSTATES> 5
<STATE> 2
<MEAN> 25
 2.484874e+00 -1.470005e+00 1.983244e+00 5.401731e-01 -1.947936e+00 -5.144520e-01 -1.794591e+00 -1.178481e+00 -1.858712e+00 1.497620e+00 -1.618420e+00 2.756682e-02 -3.360334e-01 1.239070e-01 7.623817e-02 2.314323e-01 1.126607e-01 7.272474e-02 2.835388e-01 -1.711497e-01 2.466756e-01 1.943490e-02 1.098043e-01 9.049477e-02 -3.894698e-01
<VARIANCE> 25
 3.493197e+01 3.305368e+01 5.735456e+01 4.575997e+01 5.674369e+01 3.734132e+01 5.334364e+01 8.242218e+01 4.397012e+01 3.442905e+01 3.157304e+01 1.927641e+01 1.355160e+00 1.620783e+00 2.617413e+00 2.296116e+00 2.780683e+00 2.854883e+00 3.024276e+00 3.309700e+00 2.643191e+00 2.476404e+00 2.095572e+00 1.461438e+00 1.431420e+00
<GCONST> 1.009642e+02
<STATE> 3
<MEAN> 25
 4.541874e-02 1.255480e-01 2.064676e+00 2.815320e+00 3.642023e-02 5.550367e-01 5.580957e-01 -8.236455e-01 3.870628e-01 6.811297e-01 -3.484238e-01 6.891240e-01 -3.594985e-01 7.002398e-02 -2.517487e-01 1.190511e-01 2.207181e-01 1.527021e-01 2.532896e-01 -1.317000e-02 3.173677e-01 -6.201421e-02 8.734789e-02 1.623424e-01 -3.513283e-01
<VARIANCE> 25
 3.862384e+01 2.726275e+01 4.418167e+01 3.006989e+01 4.871880e+01 3.282692e+01 4.892812e+01 5.602818e+01 4.372206e+01 2.832491e+01 2.526541e+01 1.820039e+01 1.565991e+00 1.467022e+00 2.340491e+00 1.936934e+00 2.470712e+00 2.525836e+00 2.999898e+00 2.965756e+00 2.735813e+00 2.135756e+00 2.034630e+00 1.597637e+00 1.325795e+00
<GCONST> 9.823026e+01
<STATE> 4
<MEAN> 25
 -3.092155e+00 6.100186e-01 -1.028681e+00 2.930887e+00 2.096184e+00 2.528041e+00 3.275832e+00 5.877012e-01 3.499336e+00 4.434246e-02 9.498085e-01 2.253713e+00 1.042473e-01 2.919397e-02 -9.505631e-02 -4.130588e-02 1.656896e-02 3.210279e-02 -5.983350e-02 4.591132e-02 -2.319774e-02 -1.328064e-02 -2.354003e-02 -2.080864e-02 1.028356e-01
<VARIANCE> 25
 3.134269e+01 1.572466e+01 2.138063e+01 2.032966e+01 2.832892e+01 1.930304e+01 2.978475e+01 3.624837e+01 2.596658e+01 1.932627e+01 1.917324e+01 1.385509e+01 1.382979e+00 9.512064e-01 1.137785e+00 1.176056e+00 1.432145e+00 1.571206e+00 1.850786e+00 1.977602e+00 1.871066e+00 1.593086e+00 1.831994e+00 1.206827e+00 1.365441e+00
<GCONST> 8.818172e+01
<TRANSP> 5
 0.000000e+00 1.000000e+00 0.000000e+00 0.000000e+00 0.000000e+00
 0.000000e+00 6.945401e-01 3.054599e-01 0.000000e+00 0.000000e+00
 0.000000e+00 0.000000e+00 6.542064e-01 3.457935e-01 0.000000e+00
 0.000000e+00 0.000000e+00 0.000000e+00 9.194545e-01 8.054554e-02
 0.000000e+00 0.000000e+00 0.000000e+00 0.000000e+00 0.000000e+00
<ENDHMM>
~h "eh"
<BEGINHMM>
<NUMSTATES> 5
<STATE> 2
<MEAN> 25
 1.006994e+01 -1.672853e+00 -7.908357e+00 -1.029868e+01 -8.360433e+00 -4.043250e+00 9.065500e-01 3.164018e+00 -1.022534e+01 5.949787e+00 -7.404527e+00 -1.489650e+00 2.283184e-01 4.800153e-01 1.005977e-01 -1.780947e-01 -5.336972e-01 -2.768603e-01 -3.419490e-01 1.496713e-01 -4.793597e-01 -1.397515e-01 1.758506e-01 -2.833907e-01 -2.350349e-01
<VARIANCE> 25
 1.032298e+01 3.084303e+01 5.245295e+01 2.692466e+01 8.610115e+01 7.715797e+01 4.497318e+01 7.677371e+01 4.680655e+01 3.301731e+01 4.052608e+01 1.888951e+01 4.604480e-01 7.653300e-01 7.178907e-01 7.826332e-01 1.381410e+00 1.220298e+00 9.228120e-01 1.558518e+00 1.411488e+00 1.413890e+00 1.299080e+00 7.684444e-01 4.520994e-01
<GCONST> 8.905654e+01
<STATE> 3
<MEAN> 25
 1.035730e+01 2.536040e+00 -5.590853e+00 -9.225189e+00 -1.053019e+01 -5.464355e+00 -2.210438e+00 2.474826e+00 -9.756505e+00 1.410491e+00 -4.409614e+00 -4.182169e+00 5.841371e-02 4.930006e-01 2.610731e-01 3.548717e-01 3.482156e-01 1.358365e-01 -3.759053e-01 -4.952153e-01 4.006401e-01 -6.868982e-01 1.047973e-01 -2.266826e-01 -7.004660e-01
<VARIANCE> 25
 9.508347e+00 3.279786e+01 7.837956e+01 4.170435e+01 5.644828e+01 5.701999e+01 3.429678e+01 6.656962e+01 4.339173e+01 3.453340e+01 4.142972e+01 1.664177e+01 3.600105e-01 5.478661e-01 9.046533e-01 1.184368e+00 1.419627e+00 1.067332e+00 1.179410e+00 2.018903e+00 1.716566e+00 1.252007e+00 1.637630e+00 1.053114e+00 5.336908e-01
<GCONST> 8.985069e+01
<STATE> 4
<MEAN> 25
 8.172158e+00 2.560044e+00 7.265439e-01 -3.918313e+00 -5.793472e+00 -5.698178e+00 -7.925244e+00 -2.159428e+00 -2.101390e+00 5.689628e-01 -3.681710e+00 -5.216295e+00 -3.105311e-01 2.826864e-01 3.069024e-01 4.731363e-01 5.949113e-01 2.717383e-01 -1.677699e-03 -1.574653e-01 6.535218e-01 -1.320964e-01 7.829338e-02 1.084701e-01 -5.754457e-01
<VARIANCE> 25
 1.396360e+01 4.835976e+01 4.792984e+01 6.590794e+01 8.510940e+01 4.145622e+01 5.538454e+01 6.112798e+01 4.059428e+01 2.592584e+01 4.745677e+01 2.009565e+01 5.104367e-01 1.316953e+00 9.864947e-01 1.516438e+00 1.424623e+00 2.108522e+00 2.020303e+00 3.172284e+00 1.591074e+00 1.403959e+00 1.839763e+00 1.099692e+00 1.056844e+00
<GCONST> 9.516194e+01
<TRANSP> 5
 0.000000e+00 1.000000e+00 0.000000e+00 0.000000e+00 0.000000e+00
 0.000000e+00 9.055987e-01 9.440129e-02 0.000000e+00 0.000000e+00
 0.000000e+00 0.000000e+00 8.012140e-01 1.987860e-01 0.000000e+00
 0.000000e+00 0.000000e+00 0.000000e+00 8.671889e-01 1.328111e-01
 0.000000e+00 0.000000e+00 0.000000e+00 0.000000e+00 0.000000e+00
<ENDHMM>
~h "ey"
<BEGINHMM>
<NUMSTATES> 5
<STATE> 2
<MEAN> 25
 -6.850262e-01 -1.023893e-01 6.556480e-01 3.857032e+00 2.852335e+00 -6.595351e-01 9.100175e-01 9.986174e-02 2.838264e-01 -9.405037e-01 -6.172457e-01 -1.326025e+00 1.105434e-01 -7.884454e-01 6.134236e-01 -4.742705e-01 -8.216735e-01 -3.159569e-01 1.338355e-02 5.919144e-01 -5.305079e-01 4.513382e-01 -2.666273e-01 -1.346159e-02 1.072238e+00
<VARIANCE> 25
 3.795901e+01 4.032330e+01 2.955324e+01 7.283111e+01 6.964375e+01 4.444022e+01 8.745090e+01 4.372249e+01 4.507753e+01 2.515446e+01 2.219264e+01 3.601672e+01 2.222008e+00 4.320645e+00 2.652205e+00 6.243098e+00 7.107864e+00 3.478545e+00 4.867334e+00 2.851942e+00 4.576569e+00 2.271738e+00 2.676724e+00 2.118277e+00 8.467890e+00
<GCONST> 1.080784e+02
<STATE> 3
<MEAN> 25
 7.153165e-01 -3.472910e+00 5.218194e+00 -1.692013e+00 -5.573137e+00 -9.140314e-01 6.346958e-01 4.036551e+00 -2.484029e+00 2.997178e+00 -1.510326e+00 -4.273797e-01 6.886826e-01 -2.719626e-01 9.667420e-01 -7.481253e-01 -1.660809e+00 -1.931101e-01 -4.545340e-01 3.163603e-01 -7.639601e-01 7.197214e-01 -1.230090e-01 1.662477e-02 1.813699e+00
<VARIANCE> 25
 3.342399e+01 5.317799e+01 5.200840e+01 7.704610e+01 1.373266e+02 2.579004e+01 5.427420e+01 3.860564e+01 4.701688e+01 3.882780e+01 2.232073e+01 2.487320e+01 3.152840e+00 5.152643e+00 2.487229e+00 5.363796e+00 7.081636e+00 3.072144e+00 4.101542e+00 2.827637e+00 3.969012e+00 2.032521e+00 2.302893e+00 1.745625e+00 1.043324e+01
<GCONST> 1.081078e+02
<STATE> 4
<MEAN> 25
 2.379142e+00 1.332879e+00 1.251537e+01 -2.675961e+00 -1.164571e+01 -2.036479e+00 -6.985868e+00 6.304950e-03 -5.848087e+00 4.367588e+00 9.782874e-01 -2.060018e+00 -4.864436e-02 1.530581e-01 -7.626764e-02 1.971664e-01 1.826721e-01 -1.350905e-02 -1.203274e-02 -2.701727e-01 8.808614e-02 -1.393357e-01 1.046879e-01 3.100840e-02 -3.481189e-01
<VARIANCE> 25
 1.716898e+01 3.045488e+01 8.091206e+01 3.408281e+01 9.491582e+01 1.931376e+01 1.016474e+02 2.741891e+01 4.383233e+01 2.862201e+01 1.435371e+01 2.193637e+01 9.999437e-01 1.909203e+00 2.208390e+00 1.524313e+00 3.871989e+00 1.776732e+00 3.914221e+00 1.670658e+00 1.984113e+00 1.339209e+00 9.839464e-01 1.338126e+00 3.308169e+00
<GCONST> 9.657725e+01
<TRANSP> 5
 0.000000e+00 1.000000e+00 0.000000e+00 0.000000e+00 0.000000e+00
 0.000000e+00 6.961100e-01 3.038901e-01 0.000000e+00 0.000000e+00
 0.000000e+00 0.000000e+00 7.674702e-01 2.325298e-01 0.000000e+00
 0.000000e+00 0.000000e+00 0.000000e+00 9.608624e-01 3.913758e-02
 0.000000e+00 0.000000e+00 0.000000e+00 0.000000e+00 0.000000e+00
<ENDHMM>
~h "hh"
<BEGINHMM>
<NUMSTATES> 5
<STATE> 2
<MEAN> 25
 -4.279088e+00 7.039123e-01 -3.397028e+00 4.868200e-01 2.417280e+00 1.800628e+00 4.539144e+00 3.236284e+00 4.317562e+00 -1.665861e+00 2.156343e+00 2.599751e+00 -2.378598e-03 2.923869e-03 3.444317e-03 9.444611e-03 6.855923e-03 5.179004e-03 2.315552e-03 4.253134e-03 1.112210e-02 -2.635552e-03 -1.527634e-03 -5.192365e-03 -2.182085e-03
<VARIANCE> 25
 1.357085e+01 2.186931e+01 5.330694e+00 9.055688e+00 1.425729e+01 1.204175e+01 1.293157e+01 3.859210e+01 1.103674e+01 1.541127e+01 1.354396e+01 8.571838e+00 7.628553e-02 1.754919e-01 2.821223e-01 3.927464e-01 5.882518e-01 7.296317e-01 7.575612e-01 9.953029e-01 9.461434e-01 9.905168e-01 9.203802e-01 8.046188e-01 2.186113e-02
<GCONST> 6.493603e+01
<STATE> 3
<MEAN> 25
 -6.151071e+00 -1.868682e+00 -4.378122e+00 2.633981e-01 3.325704e+00 1.219254e+00 5.678042e+00 9.766464e-01 5.117460e+00 -2.067820e+00 1.655447e+00 3.100840e+00 1.359409e-01 -1.682969e-01 -1.457232e-01 -6.966086e-02 -4.770389e-02 3.082551e-02 1.760079e-01 1.361768e-01 -9.969226e-02 -6.341945e-02 -5.107312e-02 1.049957e-01 1.248957e-01
<VARIANCE> 25
 1.502648e+01 2.141608e+01 5.875629e+00 8.899712e+00 1.890693e+01 1.063938e+01 1.867760e+01 2.808378e+01 1.179066e+01 2.219098e+01 1.151174e+01 1.131211e+01 1.447802e-01 2.829497e-01 4.397272e-01 5.719811e-01 6.696371e-01 7.924510e-01 1.239131e+00 9.606414e-01 1.111253e+00 1.319961e+00 9.334553e-01 1.082639e+00 6.099642e-02
<GCONST> 7.024258e+01
<STATE> 4
<MEAN> 25
 -3.981005e+00 -4.541198e+00 -5.148586e+00 -1.938976e-01 1.543753e+00 1.272522e+00 6.944861e+00 3.162797e+00 3.359199e+00 -2.440453e+00 1.570597e+00 3.205695e+00 1.825415e-01 -8.383160e-01 -4.524383e-01 -3.666188e-01 -1.842415e-01 -1.585579e-01 2.554142e-01 3.882141e-01 -2.085454e-01 -8.492512e-02 6.117385e-02 -1.131974e-01 5.224721e-01
<VARIANCE> 25
 1.726379e+01 3.338457e+01 5.886237e+00 1.334426e+01 2.508830e+01 1.305388e+01 1.688516e+01 2.806551e+01 3.189183e+01 2.209674e+01 1.922575e+01 7.710291e+00 3.830466e-01 1.189686e+00 4.847009e-01 7.017399e-01 1.089356e+00 1.575689e+00 1.112409e+00 9.372459e-01 1.681612e+00 1.150762e+00 1.197978e+00 9.732911e-01 2.682775e-01
<GCONST> 7.839206e+01
<TRANSP> 5
 0.000000e+00 1.000000e+00 0.000000e+00 0.000000e+00 0.000000e+00
 0.000000e+00 9.800957e-01 1.990429e-02 0.000000e+00 0.000000e+00
 0.000000e+00 0.000000e+00 7.529262e-01 2.470739e-01 0.000000e+00
 0.000000e+00 0.000000e+00 0.000000e+00 6.909999e-01 3.090001e-01
 0.000000e+00 0.000000e+00 0.000000e+00 0.000000e+00 0.000000e+00
<ENDHMM>
~h "ih"
<BEGINHMM>
<NUMSTATES> 5
<STATE> 2
<MEAN> 25
 6.026856e-01 2.096626e+00 7.064373e+00 3.069844e+00 -3.186571e+00 -3.263415e+00 -3.475665e+00 -2.237141e+00 -1.994296e+00 7.944706e-02 1.236901e+00 5.331358e-01 1.816413e-01 -2.555389e-02 -1.082141e-01 2.291161e-01 3.199718e-01 1.302796e-02 -1.522273e-02 -2.860950e-01 -5.446433e-02 -2.250673e-01 -5.928134e-02 -9.375364e-02 -4.661140e-01
<VARIANCE> 25
 3.292326e+01 2.536091e+01 5.841383e+01 3.372448e+01 1.109610e+02 3.093520e+01 9.306254e+01 3.447239e+01 4.346351e+01 2.626444e+01 1.565591e+01 2.175258e+01 3.642848e+00 1.819665e+00 3.804166e+00 2.220601e+00 5.697796e+00 2.595197e+00 6.684215e+00 3.281811e+00 3.090701e+00 2.181484e+00 1.647605e+00 1.713675e+00 3.068104e+00
<GCONST> 1.032199e+02
<STATE> 3
<MEAN> 25
 -1.422704e+00 1.567668e+00 3.094962e+00 4.332845e+00 5.877756e-01 -1.504367e+00 -1.157811e-01 -2.480522e+00 2.525939e-01 -8.569260e-01 8.041862e-01 1.270715e+00 -1.497595e-01 -1.251805e-01 -4.097486e-01 3.312624e-02 2.877380e-01 2.733051e-02 1.795165e-01 -2.658932e-02 1.079171e-01 -7.885113e-02 -1.028328e-01 5.306200e-02 -7.562302e-02
<VARIANCE> 25
 3.381705e+01 2.741695e+01 6.261244e+01 2.790303e+01 9.105041e+01 3.332396e+01 8.677783e+01 3.763810e+01 4.444020e+01 2.437398e+01 1.594705e+01 2.538401e+01 2.665806e+00 2.090260e+00 3.673951e+00 2.123351e+00 4.734912e+00 3.200508e+00 5.619377e+00 3.516722e+00 3.267184e+00 2.103746e+00 1.699524e+00 1.987527e+00 3.105032e+00
<GCONST> 1.030969e+02
<STATE> 4
<MEAN> 25
 -4.458709e+00 3.465129e-01 8.296639e-01 3.155287e+00 2.821995e+00 2.444518e-01 2.550658e+00 -2.006572e+00 1.848018e+00 -5.202892e-01 4.548477e-01 2.093296e+00 2.247154e-01 1.817742e-01 4.688209e-03 -1.272778e-01 -1.753752e-01 -7.254805e-02 -5.199984e-02 -9.337282e-03 -1.188266e-01 7.624485e-02 -3.947567e-02 -1.541570e-01 3.516849e-01
<VARIANCE> 25
 5.537977e+01 3.017740e+01 6.424539e+01 3.943221e+01 5.138448e+01 2.801588e+01 8.324614e+01 4.520231e+01 4.840087e+01 3.026034e+01 1.975756e+01 2.565831e+01 3.894461e+00 2.343583e+00 3.028491e+00 2.406255e+00 3.381729e+00 2.823291e+00 4.525360e+00 4.329623e+00 3.580256e+00 2.514546e+00 1.995847e+00 2.100885e+00 2.793238e+00
<GCONST> 1.043153e+02
<TRANSP> 5
 0.000000e+00 1.000000e+00 0.000000e+00 0.000000e+00 0.000000e+00
 0.000000e+00 8.527398e-01 1.472602e-01 0.000000e+00 0.000000e+00
 0.000000e+00 0.000000e+00 8.139425e-01 1.860575e-01 0.000000e+00
 0.000000e+00 0.000000e+00 0.000000e+00 9.185283e-01 8.147169e-02
 0.000000e+00 0.000000e+00 0.000000e+00 0.000000e+00 0.000000e+00
<ENDHMM>
~h "iy"
<BEGINHMM>
<NUMSTATES> 5
<STATE> 2
<MEAN> 25
 5.967190e+00 3.074896e+00 1.134139e+01 2.347226e+00 -5.250350e+00 -2.278901e+00 -8.172737e+00 -3.945394e+00 -6.767250e+00 7.171292e-01 4.038584e+00 -6.135532e+00 -4.295465e-02 2.185529e-01 5.711952e-01 -3.720136e-01 -2.370231e-01 1.049451e-01 -4.835694e-01 -2.230089e-01 -2.628143e-01 2.129739e-01 9.832940e-02 -3.965955e-01 3.784164e-01
<VARIANCE> 25
 1.882935e+01 3.545947e+01 8.594356e+01 7.634382e+01 1.378014e+02 5.747235e+01 5.421399e+01 3.943053e+01 3.402657e+01 2.518622e+01 3.703363e+01 2.008429e+01 1.600431e+00 2.118193e+00 3.321343e+00 3.753099e+00 3.686687e+00 4.715774e+00 2.779229e+00 3.121024e+00 2.831891e+00 2.135989e+00 2.907488e+00 1.922482e+00 2.010947e+00
<GCONST> 1.042286e+02
<STATE> 3
<MEAN> 25
 3.823759e+00 7.101045e+00 1.349920e+01 -1.777578e+00 -5.696227e+00 -1.250373e+00 -1.116375e+01 -4.145655e+00 -6.431262e+00 1.472157e+00 5.258195e+00 -8.885065e+00 -1.777721e-01 7.309467e-02 -2.777215e-02 -2.377354e-02 1.818072e-01 -6.150771e-02 -5.201845e-02 1.888636e-02 8.566570e-02 2.900372e-02 -9.867093e-02 -8.904766e-02 -1.239839e-01
<VARIANCE> 25
 1.582130e+01 3.638811e+01 5.708807e+01 7.991254e+01 8.808344e+01 3.881324e+01 4.950187e+01 3.850654e+01 2.583585e+01 2.121028e+01 4.398609e+01 2.800473e+01 8.913116e-01 1.290417e+00 2.452483e+00 2.915143e+00 1.714391e+00 2.869781e+00 2.882063e+00 2.225406e+00 2.399665e+00 1.364807e+00 2.903436e+00 1.441640e+00 1.300111e+00
<GCONST> 9.827957e+01
<STATE> 4
<MEAN> 25
 2.586029e+00 -7.080436e-02 9.006248e+00 4.794845e+00 2.229429e+00 -5.420774e+00 -1.377060e+01 -5.260697e+00 -1.404354e+00 1.497410e+00 -1.911217e+00 -9.051436e+00 -2.522384e-01 -9.388222e-02 -2.463199e-01 1.634622e-01 7.654075e-02 2.032041e-01 6.668109e-01 1.858898e-01 3.395271e-01 -9.856704e-02 -2.322295e-01 3.062690e-01 -4.435248e-01
<VARIANCE> 25
 1.329808e+01 7.209392e+01 3.889884e+01 7.938483e+01 6.235176e+01 4.561385e+01 6.993465e+01 4.886626e+01 3.614259e+01 3.642500e+01 5.181673e+01 2.693784e+01 5.364537e-01 1.762197e+00 1.765656e+00 1.590121e+00 1.261421e+00 2.450606e+00 2.568897e+00 1.922410e+00 1.793414e+00 1.883802e+00 1.708376e+00 1.259818e+00 9.704602e-01
<GCONST> 9.701709e+01
<TRANSP> 5
 0.000000e+00 1.000000e+00 0.000000e+00 0.000000e+00 0.000000e+00
 0.000000e+00 9.027340e-01 9.726600e-02 0.000000e+00 0.000000e+00
 0.000000e+00 0.000000e+00 8.926830e-01 1.073169e-01 0.000000e+00
 0.000000e+00 0.000000e+00 0.000000e+00 9.118420e-01 8.815801e-02
 0.000000e+00 0.000000e+00 0.000000e+00 0.000000e+00 0.000000e+00
<ENDHMM>
~h "ow"
<BEGINHMM>
<NUMSTATES> 5
<STATE> 2
<MEAN> 25
 4.600829e+00 -4.947061e+00 4.262226e+00 3.986912e+00 1.150858e+00 -3.220950e+00 -9.851136e+00 -9.179431e+00 -9.757875e+00 1.583796e+00 3.758465e+00 -6.928775e-01 6.560524e-01 -1.558594e-02 -1.171072e+00 -3.866451e-01 3.713477e-01 6.642895e-01 -8.307158e-01 1.116883e-01 -2.308823e-01 -4.755589e-02 1.621482e-01 -1.824723e-01 9.568714e-02
<VARIANCE> 25
 1.510742e+02 1.514461e+01 1.470098e+02 3.333879e+01 3.279160e+01 3.003291e+01 2.020976e+02 1.427486e+02 7.124757e+01 1.015521e+01 3.585965e+01 1.826835e+01 2.498389e+00 5.349248e-01 2.514052e+00 1.960621e+00 1.541153e+00 1.297291e+00 4.257525e+00 4.643246e+00 2.881029e+00 1.065346e+00 1.046281e+00 1.111408e+00 4.500331e-01
<GCONST> 9.844676e+01
<STATE> 3
<MEAN> 25
 1.397740e+01 -2.415874e+00 -8.192194e+00 -2.037499e+00 -8.486475e-01 -3.111621e-01 -1.482371e+01 2.380071e+00 -9.734127e+00 2.210286e-01 8.875226e+00 -1.368751e+00 4.244496e-02 2.226136e-01 -2.962235e-01 -5.293247e-01 -2.164484e-02 2.393594e-01 7.233003e-01 1.652641e-01 -2.421238e-01 -3.257652e-01 -1.023858e-01 -6.054341e-02 -2.249151e-01
<VARIANCE> 25
 1.868198e+01 9.811060e+00 2.848952e+01 4.053587e+01 3.111078e+01 2.443172e+01 3.828281e+01 1.175242e+02 2.876756e+01 1.067029e+01 3.588697e+01 1.096114e+01 3.310351e-01 3.296171e-01 8.209447e-01 1.069425e+00 8.262981e-01 8.139601e-01 1.530056e+00 1.582650e+00 1.325714e+00 5.817807e-01 8.052478e-01 7.385589e-01 3.120586e-01
<GCONST> 8.115454e+01
<STATE> 4
<MEAN> 25
 9.018381e+00 1.379279e-01 -6.415302e+00 -5.589856e+00 -6.196721e-01 -9.551857e-01 -6.275781e+00 -5.367205e+00 -6.742945e+00 -2.631588e+00 -1.891142e+00 -2.275961e+00 -4.215757e-01 3.749571e-01 1.518559e-01 -5.008971e-02 -2.755013e-01 -2.804036e-02 7.232764e-01 4.705347e-02 5.585179e-01 -5.605652e-02 -4.098000e-01 5.159356e-02 -6.565411e-01
<VARIANCE> 25
 2.216990e+01 1.653706e+01 2.241896e+01 5.020805e+01 5.590206e+01 3.664984e+01 4.941150e+01 9.907632e+01 3.568473e+01 1.814826e+01 9.680444e+01 2.363514e+01 9.604497e-01 4.443399e-01 1.039547e+00 1.727775e+00 1.934393e+00 2.046219e+00 2.455981e+00 2.678616e+00 1.928624e+00 1.642941e+00 1.412287e+00 1.666450e+00 6.136415e-01
<GCONST> 9.372174e+01
<TRANSP> 5
 0.000000e+00 1.000000e+00 0.000000e+00 0.000000e+00 0.000000e+00
 0.000000e+00 8.971542e-01 1.028459e-01 0.000000e+00 0.000000e+00
 0.000000e+00 0.000000e+00 8.908666e-01 1.091334e-01 0.000000e+00
 0.000000e+00 0.000000e+00 0.000000e+00 9.228016e-01 7.719834e-02
 0.000000e+00 0.000000e+00 0.000000e+00 0.000000e+00 0.000000e+00
<ENDHMM>
~h "th"
<BEGINHMM>
<NUMSTATES> 5
<STATE> 2
<MEAN> 25
 -4.381437e-01 -9.697699e-01 -1.468285e+00 3.231686e+00 6.197646e-01 1.390146e+00 -4.038048e-02 -2.161675e+00 -6.673914e-01 -4.884958e+00 -1.575609e+00 1.139995e-01 2.684780e-01 3.889809e-02 -7.202938e-01 3.122336e-01 3.023210e-01 2.419132e-02 5.213148e-02 1.041959e-02 1.562016e-01 -1.632025e-01 -2.846286e-01 7.217322e-02 1.911971e-01
<VARIANCE> 25
 3.457217e+01 1.566710e+01 4.477842e+01 2.590823e+01 5.209927e+01 1.804472e+01 7.104566e+01 2.998875e+01 4.836584e+01 3.330904e+01 3.160886e+01 3.841900e+01 2.409654e+00 2.408611e+00 2.854775e+00 2.070841e+00 2.863883e+00 2.251527e+00 4.731082e+00 2.533513e+00 3.146954e+00 2.806657e+00 3.694811e+00 3.990958e+00 2.641562e+00
<GCONST> 1.020184e+02
<STATE> 3
<MEAN> 25
 -2.397218e-01 -1.536541e+00 -3.501492e+00 3.825337e+00 1.426451e+00 8.145124e-01 -7.354808e-02 -1.702315e+00 4.153497e-01 -4.574296e+00 -1.528249e+00 5.170963e-01 3.155002e-01 -2.129426e-01 -1.365566e-01 1.657975e-01 1.323816e-01 -3.663410e-01 -2.559353e-01 1.332213e-01 2.067271e-02 4.625639e-02 8.308738e-02 -1.146294e-02 4.307742e-01
<VARIANCE> 25
 4.698394e+01 1.331169e+01 4.051156e+01 3.139792e+01 4.477752e+01 1.697060e+01 7.317216e+01 2.679611e+01 6.056497e+01 3.760116e+01 3.508867e+01 3.834429e+01 2.567236e+00 1.595630e+00 3.079956e+00 2.031886e+00 2.852121e+00 2.385909e+00 4.150824e+00 2.042338e+00 3.265382e+00 2.694129e+00 3.049485e+00 2.825939e+00 2.310201e+00
<GCONST> 1.011478e+02
<STATE> 4
<MEAN> 25
 8.961107e-01 -3.336671e+00 -3.717628e-01 8.789198e+00 4.352282e+00 -2.114387e+00 -4.608699e+00 -1.174129e+00 -5.113010e-01 -4.890883e+00 7.396165e-01 -1.724654e+00 1.808255e-01 -2.249832e-01 2.992512e-01 2.041560e-01 -1.439517e-01 -4.203414e-01 -2.870966e-01 1.433681e-01 8.892783e-02 8.428749e-02 2.553069e-02 -9.203450e-03 3.915656e-01
<VARIANCE> 25
 5.611293e+01 1.465786e+01 7.368802e+01 7.035713e+01 5.825389e+01 2.786145e+01 1.085279e+02 1.765815e+01 7.531335e+01 4.068953e+01 3.518888e+01 4.817863e+01 2.146873e+00 1.196438e+00 2.388344e+00 2.126356e+00 1.769097e+00 2.206951e+00 3.109813e+00 1.404554e+00 2.577267e+00 2.144693e+00 2.693174e+00 1.853072e+00 1.513160e+00
<GCONST> 1.007625e+02
<TRANSP> 5
 0.000000e+00 1.000000e+00 0.000000e+00 0.000000e+00 0.000000e+00
 0.000000e+00 6.684964e-01 3.315036e-01 0.000000e+00 0.000000e+00
 0.000000e+00 0.000000e+00 6.654603e-01 3.345397e-01 0.000000e+00
 0.000000e+00 0.000000e+00 0.000000e+00 8.411358e-01 1.588642e-01
 0.000000e+00 0.000000e+00 0.000000e+00 0.000000e+00 0.000000e+00
<ENDHMM>
~h "uw"
<BEGINHMM>
<NUMSTATES> 5
<STATE> 2
<MEAN> 25
 5.443244e+00 7.063990e-01 3.062330e+00 5.613342e+00 1.839700e+00 -4.801392e+00 -1.595073e+01 -2.398868e+00 -3.884613e+00 1.617760e+00 2.612970e+00 -9.386337e+00 3.268062e-01 1.177428e-01 -3.307796e-01 4.772900e-02 1.886612e-01 2.517563e-01 -8.127792e-01 -4.426387e-01 -1.734055e-01 4.429144e-01 3.543328e-01 -4.809090e-01 -9.404059e-03
<VARIANCE> 25
 2.425875e+01 4.722750e+01 2.725981e+01 2.318818e+01 2.034252e+01 3.113802e+01 9.475150e+01 6.694721e+01 4.013911e+01 4.341767e+01 4.685463e+01 2.330585e+01 7.498364e-01 1.380421e+00 9.447682e-01 1.247677e+00 1.010377e+00 1.628134e+00 3.702848e+00 2.256828e+00 1.740602e+00 2.373567e+00 2.121102e+00 1.708748e+00 6.371041e-01
<GCONST> 9.418027e+01
<STATE> 3
<MEAN> 25
 8.328205e+00 4.717903e+00 -1.628761e+00 4.688950e+00 7.908725e-01 -1.529508e+00 -1.756193e+01 -3.170656e+00 -7.550767e+00 1.520997e+00 9.788677e+00 -9.341591e+00 1.620609e-01 2.605772e-01 -2.971582e-01 -2.527808e-01 8.312892e-02 3.609094e-01 2.896583e-01 -4.111514e-01 -1.557625e-02 -3.056084e-01 5.855488e-02 4.974529e-01 -3.222444e-01
<VARIANCE> 25
 2.164899e+01 2.002943e+01 2.943823e+01 1.521894e+01 1.527605e+01 1.436004e+01 7.065919e+01 4.377511e+01 3.219099e+01 2.796131e+01 4.147728e+01 2.718129e+01 5.963541e-01 4.675953e-01 6.621920e-01 1.004858e+00 1.002991e+00 8.532748e-01 2.919324e+00 1.760372e+00 8.563916e-01 1.367922e+00 1.539851e+00 1.000523e+00 3.089081e-01
<GCONST> 8.459430e+01
<STATE> 4
<MEAN> 25
 1.972317e+00 9.014340e-01 -1.636096e+00 1.458954e+00 5.439019e+00 9.157557e-01 -6.017021e+00 -5.814706e+00 -3.931524e+00 -4.344643e+00 2.421367e-01 6.624840e-01 -1.175845e-01 -2.153763e-02 1.727430e-02 1.143667e-02 3.950259e-02 4.785149e-02 2.410018e-01 1.409302e-01 1.533944e-01 5.114259e-03 -1.235491e-01 1.080805e-01 -1.751827e-01
<VARIANCE> 25
 2.590508e+01 4.076261e+01 1.364640e+01 1.808508e+01 2.974839e+01 1.616516e+01 1.272565e+02 1.645315e+02 7.378558e+01 2.013252e+01 3.337722e+01 1.562299e+01 7.529454e-01 8.402055e-01 5.506746e-01 8.659782e-01 1.066039e+00 9.318603e-01 2.739085e+00 2.847236e+00 1.526277e+00 1.210884e+00 1.185431e+00 8.713139e-01 1.084773e+00
<GCONST> 8.967962e+01
<TRANSP> 5
 0.000000e+00 1.000000e+00 0.000000e+00 0.000000e+00 0.000000e+00
 0.000000e+00 8.789735e-01 1.210265e-01 0.000000e+00 0.000000e+00
 0.000000e+00 0.000000e+00 8.520349e-01 1.479650e-01 0.000000e+00
 0.000000e+00 0.000000e+00 0.000000e+00 9.699718e-01 3.002815e-02
 0.000000e+00 0.000000e+00 0.000000e+00 0.000000e+00 0.000000e+00
<ENDHMM>
~h "sil"
<BEGINHMM>
<NUMSTATES> 5
<STATE> 2
<MEAN> 25
 -7.156007e+00 -1.087202e+00 -1.909252e+00 1.753198e+00 3.890893e+00 1.981197e+00 6.538420e+00 4.257579e-01 5.117978e+00 -9.935251e-01 2.086358e+00 3.469023e+00 3.160329e-02 3.636876e-02 -2.402442e-01 -7.835817e-02 -7.638318e-02 -1.882410e-02 -1.533020e-01 3.985750e-02 -3.819376e-02 -1.199144e-01 -6.774647e-02 -2.747494e-02 -2.488100e-01
<VARIANCE> 25
 1.537675e+01 1.735216e+01 1.905116e+01 1.369076e+01 1.716439e+01 1.319950e+01 2.256050e+01 2.356433e+01 1.807149e+01 1.690615e+01 1.367350e+01 1.127647e+01 4.287350e-01 6.460882e-01 6.502625e-01 7.074980e-01 1.138544e+00 1.196221e+00 1.909014e+00 2.111890e+00 1.561590e+00 1.394749e+00 1.422278e+00 1.026200e+00 2.012017e-01
<GCONST> 7.875254e+01
<STATE> 3
<MEAN> 25
 -6.974051e+00 -2.180523e+00 -3.433096e+00 8.644772e-01 3.724332e+00 1.279452e+00 5.594421e+00 -5.822797e-01 4.685630e+00 -2.846816e+00 1.613548e+00 2.082919e+00 -8.819434e-03 1.682851e-02 -4.331854e-02 -4.641046e-02 -5.935545e-02 -1.325023e-02 -5.999343e-02 -2.349282e-02 -5.831564e-02 -1.016857e-01 -4.057149e-02 -2.961855e-02 -3.770361e-02
<VARIANCE> 25
 7.113877e+00 8.699752e+00 7.041744e+00 8.474103e+00 1.253911e+01 1.147721e+01 1.350951e+01 2.004177e+01 1.340658e+01 1.599913e+01 1.284686e+01 1.377189e+01 1.267551e-01 2.678669e-01 4.455390e-01 5.634128e-01 9.204506e-01 1.032653e+00 1.274147e+00 1.504047e+00 1.325701e+00 1.286723e+00 1.370658e+00 1.172402e+00 4.698664e-02
<GCONST> 6.906078e+01
<STATE> 4
<MEAN> 25
 -3.347014e+00 5.193384e-01 -2.212098e+00 4.176027e-01 5.379603e-01 3.767499e+00 3.820044e+00 1.286386e+00 2.779785e+00 -1.291164e-01 9.486231e-01 1.813086e+00 7.465750e-03 -9.082146e-03 -2.148550e-02 -1.103410e-02 6.500440e-03 7.602246e-03 -3.624624e-03 -1.427154e-02 -8.798270e-03 -1.500519e-02 -2.372367e-02 -3.087423e-03 1.096017e-02
<VARIANCE> 25
 5.202799e+00 9.484605e+00 5.596604e+00 1.092905e+01 1.386797e+01 1.108463e+01 1.034386e+01 2.958988e+01 1.231969e+01 1.746151e+01 1.375621e+01 1.048851e+01 1.059679e-01 3.067072e-01 3.172201e-01 4.928025e-01 6.409193e-01 6.903737e-01 8.216110e-01 9.064381e-01 9.530762e-01 1.133276e+00 9.507322e-01 8.993611e-01 1.015094e-01
<GCONST> 6.630179e+01
<TRANSP> 5
 0.000000e+00 1.000000e+00 0.000000e+00 0.000000e+00 0.000000e+00
 0.000000e+00 8.164526e-01 1.835475e-01 0.000000e+00 0.000000e+00
 0.000000e+00 0.000000e+00 8.861751e-01 1.138250e-01 0.000000e+00
 0.000000e+00 0.000000e+00 0.000000e+00 9.634873e-01 3.651268e-02
 0.000000e+00 0.000000e+00 0.000000e+00 0.000000e+00 0.000000e+00
<ENDHMM>
