~o
<STREAMINFO> 1 25
<VECSIZE> 25<NULLD><MFCC_D_N_Z_0><DIAGC>
~s "silst"
<MEAN> 25
 -4.229189e+00 -1.820605e+00 -3.837202e+00 2.821360e+00 4.268369e+00 1.750178e+00 3.924454e+00 -6.291533e-01 1.673880e+00 -8.214662e-01 -1.286139e+00 2.656712e+00 -2.434888e-02 -3.869806e-03 -2.389738e-02 1.500954e-02 2.585131e-02 2.966581e-02 8.416567e-03 -1.293471e-02 -2.075660e-02 -2.256658e-02 -2.474077e-02 8.379649e-04 -4.100550e-02
<VARIANCE> 25
 7.352592e+00 2.000947e+01 1.176517e+01 2.254586e+01 1.799642e+01 2.408000e+01 2.031843e+01 1.872128e+01 2.436080e+01 2.052062e+01 1.757833e+01 1.465373e+01 1.196657e-01 2.809756e-01 4.673130e-01 6.656120e-01 8.696321e-01 1.077323e+00 1.274724e+00 1.318224e+00 1.355908e+00 1.363353e+00 1.284581e+00 1.217546e+00 5.580386e-02
<GCONST> 7.436663e+01
~h "b"
<BEGINHMM>
<NUMSTATES> 5
<STATE> 2
<MEAN> 25
 1.951713e+00 4.117615e+00 1.128149e+00 3.379243e+00 4.891658e+00 3.284923e+00 -1.507699e-01 -1.913949e+00 3.291786e-03 5.480000e-01 -1.217484e+00 4.380089e-01 6.117192e-01 1.059220e+00 6.976423e-01 6.778868e-01 5.934198e-01 -1.729773e-01 1.938504e-01 -2.743831e-01 -2.732074e-02 -4.698633e-01 -5.431448e-01 -3.358550e-01 -1.309345e-01
<VARIANCE> 25
 3.565716e+01 2.627699e+01 2.777058e+01 4.460836e+01 3.315088e+01 3.694502e+01 4.437115e+01 4.757636e+01 4.474308e+01 3.126110e+01 2.804520e+01 2.129518e+01 2.946653e+00 2.229057e+00 2.119562e+00 4.093966e+00 3.992335e+00 5.062464e+00 4.939110e+00 4.607191e+00 3.576779e+00 2.860506e+00 2.718442e+00 2.309096e+00 2.523406e+00
<GCONST> 1.035745e+02
<STATE> 3
<MEAN> 25
 4.917896e+00 4.995672e+00 2.149160e+00 2.404837e+00 2.274150e+00 -1.439023e-01 -2.067995e+00 -2.220451e+00 9.216070e-03 6.051347e-01 -2.254903e+00 -9.243452e-01 -8.849964e-03 -2.510205e-01 -1.097730e-01 -5.761278e-02 -1.287238e-01 -3.947251e-02 3.462179e-01 2.614337e-01 5.624769e-01 6.741425e-02 2.462084e-01 6.265876e-02 1.942513e-01
<VARIANCE> 25
 3.135630e+01 3.557168e+01 2.275570e+01 4.210989e+01 4.489970e+01 4.093185e+01 4.443089e+01 6.106123e+01 4.859144e+01 3.909458e+01 2.825472e+01 2.511127e+01 1.905218e+00 3.229517e+00 1.967916e+00 3.260661e+00 3.679706e+00 3.716003e+00 3.168311e+00 5.646579e+00 4.964095e+00 4.940707e+00 2.854726e+00 2.126365e+00 3.455866e+00
<GCONST> 1.047839e+02
<STATE> 4
<MEAN> 25
 4.397874e-01 4.368721e+00 1.280268e+00 5.008204e+00 5.173377e+00 5.072554e+00 1.176762e+00 2.003490e+00 1.299161e+00 1.312234e+00 -1.147324e+00 1.238452e+00 1.143047e-02 8.735354e-02 2.920240e-02 4.036978e-02 4.978419e-02 9.506946e-02 3.773583e-02 3.764022e-02 -2.628489e-02 -2.737965e-02 -1.359098e-02 -4.461190e-02 -3.022337e-02
<VARIANCE> 25
 1.828336e+01 1.658573e+01 1.303154e+01 1.643828e+01 4.274981e+01 4.242611e+01 2.700546e+01 5.244333e+01 3.328575e+01 2.336742e+01 1.933290e+01 2.091945e+01 4.490739e-01 6.300887e-01 6.232388e-01 9.234727e-01 1.410216e+00 1.539935e+00 1.747615e+00 1.765836e+00 1.650718e+00 1.683482e+00 1.584731e+00 1.283327e+00 2.756518e-01
<GCONST> 8.497709e+01
<TRANSP> 5
 0.000000e+00 1.000000e+00 0.000000e+00 0.000000e+00 0.000000e+00
 0.000000e+00 5.423666e-01 4.576335e-01 0.000000e+00 0.000000e+00
 0.000000e+00 0.000000e+00 4.110700e-01 5.889300e-01 0.000000e+00
 0.000000e+00 0.000000e+00 0.000000e+00 9.057478e-01 9.425215e-02
 0.000000e+00 0.000000e+00 0.000000e+00 0.000000e+00 0.000000e+00
<ENDHMM>
~h "d"
<BEGINHMM>
<NUMSTATES> 5
<STATE> 2
<MEAN> 25
 3.538020e+00 2.180089e+00 4.026070e+00 1.967956e+00 -2.798804e+00 -4.754234e+00 -4.310719e+00 -3.059990e-01 -1.361598e-01 2.083436e-02 4.184833e-01 9.129866e-01 -4.092868e-01 5.484636e-01 -2.496635e-01 7.109735e-01 1.244840e+00 9.658092e-01 1.170794e+00 -3.259392e-02 2.179261e-01 -1.780889e-01 -2.924780e-01 5.204517e-01 -1.414539e+00
<VARIANCE> 25
 2.267837e+01 2.639903e+01 4.599427e+01 2.511472e+01 5.360860e+01 4.194599e+01 4.415240e+01 4.881176e+01 4.039705e+01 2.762484e+01 2.767968e+01 2.359396e+01 1.419295e+00 2.141946e+00 3.059350e+00 2.315233e+00 3.779826e+00 3.335449e+00 3.910891e+00 3.098040e+00 3.117576e+00 3.504619e+00 2.347330e+00 1.824489e+00 1.757902e+00
<GCONST> 1.007947e+02
<STATE> 3
<MEAN> 25
 3.658567e-01 2.350245e+00 1.327801e+00 2.694094e+00 2.701842e+00 1.364181e+00 2.427452e-01 9.394134e-01 1.416862e+00 1.685103e-01 -3.516640e-01 2.596441e+00 -4.325189e-01 -8.280801e-02 -2.338032e-01 1.270970e-01 6.301517e-01 8.182003e-01 7.612264e-01 4.163315e-01 1.843624e-01 1.177049e-01 2.766930e-02 1.730728e-01 -6.017481e-01
<VARIANCE> 25
 2.522679e+01 2.492239e+01 2.774487e+01 2.717327e+01 3.074658e+01 3.765788e+01 3.138855e+01 4.493098e+01 4.443918e+01 2.537779e+01 2.713582e+01 2.000911e+01 1.291606e+00 2.192056e+00 1.821644e+00 2.494239e+00 2.317320e+00 3.313745e+00 2.746802e+00 3.004113e+00 2.666334e+00 2.450715e+00 2.402019e+00 1.727959e+00 1.229088e+00
<GCONST> 9.685679e+01
<STATE> 4
<MEAN> 25
 -2.327044e+00 2.259457e+00 -3.602612e-02 4.994281e+00 5.731084e+00 6.732024e+00 2.654899e+00 3.296042e+00 2.713942e+00 1.783139e+00 8.418152e-02 2.982174e+00 -1.268576e-01 3.761826e-03 -3.296070e-02 4.424176e-02 1.640679e-01 2.120574e-01 1.608508e-01 1.193823e-02 -2.841721e-03 2.179868e-02 -4.213089e-02 -5.261951e-02 -1.229490e-01
<VARIANCE> 25
 1.104596e+01 1.253614e+01 1.621646e+01 1.480406e+01 1.977261e+01 3.692628e+01 2.108681e+01 2.974738e+01 3.576002e+01 2.183943e+01 2.016373e+01 1.585039e+01 3.188598e-01 5.687859e-01 7.084552e-01 1.054048e+00 1.261179e+00 1.536960e+00 1.686341e+00 1.696566e+00 1.650661e+00 1.562487e+00 1.583488e+00 1.358110e+00 2.098658e-01
<GCONST> 8.168639e+01
<TRANSP> 5
 0.000000e+00 1.000000e+00 0.000000e+00 0.000000e+00 0.000000e+00
 0.000000e+00 6.368982e-01 3.631018e-01 0.000000e+00 0.000000e+00
 0.000000e+00 0.000000e+00 5.561724e-01 4.438276e-01 0.000000e+00
 0.000000e+00 0.000000e+00 0.000000e+00 8.992999e-01 1.007001e-01
 0.000000e+00 0.000000e+00 0.000000e+00 0.000000e+00 0.000000e+00
<ENDHMM>
~h "f"
<BEGINHMM>
<NUMSTATES> 5
<STATE> 2
<MEAN> 25
 6.261017e-01 4.778436e-01 -2.998483e-01 2.884002e+00 1.368133e+00 -4.841880e-01 -3.113463e-01 2.384243e+00 1.524393e+00 3.015056e+00 1.190919e+00 -2.828619e-01 -1.652915e+00 2.301538e-01 -2.114086e-01 6.843743e-01 9.548513e-01 6.722327e-01 7.945547e-01 6.651085e-01 6.016871e-01 -6.917840e-02 -3.543455e-01 1.200650e-01 -7.921511e-01
<VARIANCE> 25
 3.420802e+01 1.909661e+01 2.841571e+01 3.681791e+01 3.506857e+01 4.662053e+01 3.716042e+01 3.317235e+01 3.305286e+01 3.419001e+01 2.821831e+01 3.045104e+01 2.308808e+00 1.784371e+00 1.974606e+00 2.216717e+00 3.218923e+00 3.080066e+00 3.610899e+00 3.933596e+00 2.859101e+00 2.609343e+00 2.614406e+00 1.963079e+00 9.144786e-01
<GCONST> 9.907972e+01
<STATE> 3
<MEAN> 25
 -3.957154e+00 1.109011e+00 -2.061678e+00 4.497470e+00 4.042304e+00 5.642738e+00 1.509643e+00 4.812766e+00 2.775664e+00 2.238908e+00 -1.397555e-01 1.462034e+00 -2.681640e-01 -4.985549e-03 -1.594461e-01 1.825230e-01 1.859728e-01 2.015592e-01 1.986159e-01 3.692034e-02 4.582744e-02 2.081040e-02 3.047490e-02 -1.688189e-02 -8.250113e-02
<VARIANCE> 25
 2.306604e+01 1.642392e+01 2.384587e+01 1.516312e+01 2.219123e+01 3.443154e+01 2.009860e+01 2.750694e+01 3.192139e+01 2.000656e+01 1.663388e+01 1.487631e+01 4.917375e-01 5.355882e-01 6.948940e-01 9.070091e-01 1.251202e+00 1.520580e+00 1.449049e+00 1.561820e+00 1.592890e+00 1.754009e+00 1.380505e+00 1.328578e+00 3.175768e-01
<GCONST> 8.284996e+01
<STATE> 4
<MEAN> 25
 -9.461699e+00 -2.302176e+00 -1.648790e+00 7.867553e+00 8.400661e+00 2.030920e+00 6.464945e+00 3.544552e+00 4.890853e+00 2.921939e+00 1.210276e+00 -4.240001e-01 6.026945e-02 -3.220234e-01 -7.232182e-02 -1.956942e-01 -3.279396e-02 -4.493295e-01 1.785635e-02 -3.302552e-01 -9.695935e-02 1.236120e-02 6.446583e-02 -5.271240e-02 3.903120e-01
<VARIANCE> 25
 2.282068e+01 2.001428e+01 1.918357e+01 2.762771e+01 2.915468e+01 2.235803e+01 3.069181e+01 2.864489e+01 3.028828e+01 2.808134e+01 3.498467e+01 1.980405e+01 2.384260e+00 1.126372e+00 1.162761e+00 1.954354e+00 2.066384e+00 1.920771e+00 2.253991e+00 2.568691e+00 2.319757e+00 1.750189e+00 1.440211e+00 1.710700e+00 8.824446e-01
<GCONST> 9.201054e+01
<TRANSP> 5
 0.000000e+00 1.000000e+00 0.000000e+00 0.000000e+00 0.000000e+00
 0.000000e+00 7.583810e-01 2.416190e-01 0.000000e+00 0.000000e+00
 0.000000e+00 0.000000e+00 8.803168e-01 1.196832e-01 0.000000e+00
 0.000000e+00 0.000000e+00 0.000000e+00 8.639817e-01 1.360183e-01
 0.000000e+00 0.000000e+00 0.000000e+00 0.000000e+00 0.000000e+00
<ENDHMM>
~h "g"
<BEGINHMM>
<NUMSTATES> 5
<STATE> 2
<MEAN> 25
 1.110141e-01 3.265652e+00 3.099586e+00 3.136483e+00 3.126160e+00 6.775832e-01 2.303712e+00 6.351740e-01 -6.077461e-01 2.113817e+00 -1.520503e+00 9.688487e-01 -1.345203e-01 -8.371719e-01 -6.857812e-01 -3.586121e-01 4.053645e-01 -8.687278e-01 -4.514441e-01 4.206028e-01 -2.655659e-01 7.392970e-01 -2.475167e-01 4.528049e-02 1.017441e+00
<VARIANCE> 25
 7.729010e+01 4.883721e+01 4.930875e+01 4.140712e+01 7.470396e+01 6.679601e+01 5.904281e+01 4.820769e+01 4.495184e+01 5.926576e+01 2.197211e+01 3.246965e+01 3.615561e+00 5.130734e+00 5.567981e+00 4.853141e+00 1.007821e+01 8.485257e+00 7.402053e+00 4.957168e+00 5.934706e+00 7.632653e+00 3.856528e+00 2.594899e+00 4.900358e+00
<GCONST> 1.147055e+02
<STATE> 3
<MEAN> 25
 1.394358e+00 7.506718e-02 1.349471e+00 1.811275e+00 1.611586e+00 -5.894836e+00 -4.076828e+00 1.825401e+00 -4.831589e+00 6.568601e+00 -9.071577e-01 -9.530204e-02 1.103820e+00 4.116350e-01 9.174160e-01 -3.734467e-01 -1.999313e+00 -1.208672e+00 -1.631491e+00 -2.267895e-01 -2.814731e-01 -2.553600e-01 1.004825e+00 -5.767891e-01 1.369775e+00
<VARIANCE> 25
 4.068932e+01 3.909616e+01 8.804807e+01 3.681792e+01 1.192567e+02 9.260429e+01 8.944467e+01 5.630288e+01 5.704579e+01 9.970277e+01 4.403112e+01 3.595060e+01 3.567527e+00 3.617888e+00 4.766019e+00 4.765282e+00 6.928518e+00 5.588544e+00 6.132293e+00 5.322238e+00 4.463208e+00 4.815646e+00 5.823177e+00 5.354412e+00 2.065364e+00
<GCONST> 1.153051e+02
<STATE> 4
<MEAN> 25
 5.601267e+00 3.983862e-01 1.888810e+00 -9.330715e-01 -1.292704e+00 -3.442484e+00 -5.191733e+00 2.020575e+00 -2.355940e+00 3.251718e+00 8.922056e-01 -3.396324e+00 2.747667e-01 -3.027820e-01 -3.073676e-01 -3.775052e-01 -1.746939e-01 5.863010e-01 -3.021941e-01 -3.574930e-01 2.253398e-01 -4.090949e-01 8.089575e-01 -1.929584e-01 1.678365e-01
<VARIANCE> 25
 2.568425e+01 2.728767e+01 6.912746e+01 4.675366e+01 9.806632e+01 6.306354e+01 6.205705e+01 6.445477e+01 6.519022e+01 9.101524e+01 1.126610e+02 6.804114e+01 1.175729e+00 1.824384e+00 2.598257e+00 4.283054e+00 6.533571e+00 5.965117e+00 3.366157e+00 4.289243e+00 4.249644e+00 3.766197e+00 4.971851e+00 2.501464e+00 3.146963e+00
<GCONST> 1.111821e+02
<TRANSP> 5
 0.000000e+00 1.000000e+00 0.000000e+00 0.000000e+00 0.000000e+00
 0.000000e+00 7.732393e-01 2.267607e-01 0.000000e+00 0.000000e+00
 0.000000e+00 0.000000e+00 5.781873e-01 4.218128e-01 0.000000e+00
 0.000000e+00 0.000000e+00 0.000000e+00 6.859918e-01 3.140081e-01
 0.000000e+00 0.000000e+00 0.000000e+00 0.000000e+00 0.000000e+00
<ENDHMM>
~h "k"
<BEGINHMM>
<NUMSTATES> 5
<STATE> 2
<MEAN> 25
 -1.282120e+00 4.536448e-01 -2.837013e-01 2.627620e+00 2.663348e+00 1.444719e+00 2.694840e+00 9.127415e-01 8.508189e-01 1.723113e+00 -9.955882e-02 1.277229e+00 -4.805346e-01 -9.005463e-01 -8.238724e-01 -6.788169e-01 3.836724e-01 -7.449506e-01 3.001306e-01 4.154245e-01 -3.014231e-01 6.245958e-01 6.179319e-02 -1.747258e-02 8.056133e-01
<VARIANCE> 25
 4.389043e+01 3.968301e+01 4.824368e+01 5.204314e+01 5.576522e+01 5.952076e+01 4.825499e+01 4.709769e+01 4.137170e+01 3.780738e+01 2.923512e+01 2.499303e+01 2.292604e+00 4.739217e+00 4.381904e+00 5.600778e+00 6.310664e+00 8.007989e+00 6.766176e+00 5.271497e+00 4.922571e+00 4.691951e+00 4.015244e+00 3.225899e+00 6.691343e+00
<GCONST> 1.117078e+02
<STATE> 3
<MEAN> 25
 -6.101491e-01 -2.210407e+00 -5.943892e+00 -5.240123e+00 2.931628e+00 -9.210426e-01 3.974768e-01 3.213341e+00 -5.498259e-01 5.470242e+00 2.415193e+00 -9.368290e-01 -2.479085e-01 -2.561708e-01 -3.426528e-01 -5.206968e-01 -2.951738e-02 -4.803258e-01 -4.195549e-02 2.401448e-01 -2.810239e-01 9.030119e-03 3.646320e-01 -2.848115e-01 7.822856e-01
<VARIANCE> 25
 7.786788e+01 5.116808e+01 1.073709e+02 1.125043e+02 1.148295e+02 8.296147e+01 7.613097e+01 6.978936e+01 5.262691e+01 5.877528e+01 4.512235e+01 3.670704e+01 6.314137e+00 5.322485e+00 9.662653e+00 1.069772e+01 9.139494e+00 7.739885e+00 7.794400e+00 7.277684e+00 6.515767e+00 7.807756e+00 4.849880e+00 4.233141e+00 6.166046e+00
<GCONST> 1.220459e+02
<STATE> 4
<MEAN> 25
 -2.955005e+00 -2.791103e+00 -2.512457e+00 -8.202579e-01 1.660153e+00 -2.569713e+00 3.246592e+00 3.524003e+00 -1.072851e-01 2.341570e+00 7.430459e-01 7.175643e-01 1.405920e-01 1.977249e-01 1.111716e-01 3.540521e-01 9.290799e-02 2.094084e-01 -3.375763e-02 -7.392266e-02 1.352999e-01 -5.337858e-01 -1.741105e-01 -2.027631e-01 -2.646134e-01
<VARIANCE> 25
 3.290493e+01 4.103320e+01 4.900536e+01 4.925414e+01 5.184599e+01 6.594907e+01 4.312783e+01 5.905412e+01 4.300079e+01 3.903042e+01 3.841489e+01 2.939022e+01 3.026735e+00 1.885447e+00 3.527572e+00 3.516998e+00 3.575169e+00 3.671682e+00 2.643573e+00 4.002054e+00 3.629188e+00 2.550970e+00 2.582914e+00 2.529786e+00 2.404961e+00
<GCONST> 1.055518e+02
<TRANSP> 5
 0.000000e+00 1.000000e+00 0.000000e+00 0.000000e+00 0.000000e+00
 0.000000e+00 5.905644e-01 4.094356e-01 0.000000e+00 0.000000e+00
 0.000000e+00 0.000000e+00 5.885656e-01 4.114344e-01 0.000000e+00
 0.000000e+00 0.000000e+00 0.000000e+00 7.266660e-01 2.733340e-01
 0.000000e+00 0.000000e+00 0.000000e+00 0.000000e+00 0.000000e+00
<ENDHMM>
~h "l"
<BEGINHMM>
<NUMSTATES> 5
<STATE> 2
<MEAN> 25
 5.247470e+00 1.104666e+00 -2.717398e+00 -4.647704e+00 -5.203673e-01 -7.843692e-01 -3.415560e+00 -3.638608e+00 5.148041e-01 2.515465e+00 -2.409778e-01 -1.496296e+00 1.034364e+00 -4.910713e-02 -6.596650e-01 -1.370469e+00 -1.993897e-01 1.786094e-01 -1.086223e+00 -1.312202e+00 1.009189e-02 6.894417e-01 -9.696941e-02 -4.105293e-01 8.366003e-01
<VARIANCE> 25
 3.956142e+01 4.494687e+01 3.343929e+01 7.802744e+01 4.922630e+01 7.618313e+01 7.284146e+01 8.191068e+01 4.247397e+01 3.864596e+01 3.392883e+01 3.446292e+01 2.950170e+00 2.331897e+00 2.769705e+00 4.519226e+00 4.357482e+00 6.016080e+00 4.876888e+00 5.802204e+00 4.184636e+00 3.668127e+00 3.213544e+00 2.711867e+00 2.398825e+00
<GCONST> 1.095238e+02
<STATE> 3
<MEAN> 25
 8.169599e+00 -8.927594e-01 -2.577573e+00 -9.693329e+00 -7.377309e-02 5.472992e-01 -8.137924e+00 -5.664062e+00 1.141430e+00 6.498246e+00 1.626495e+00 -4.269866e+00 -2.210432e-02 1.957270e-01 -1.306496e-01 6.137840e-02 2.536947e-01 1.001071e-01 3.032115e-01 -2.109124e-01 7.957594e-03 -2.263995e-01 -1.532120e-01 3.485715e-01 -2.307758e-01
<VARIANCE> 25
 1.893062e+01 2.674447e+01 4.671591e+01 7.071806e+01 4.439129e+01 9.371169e+01 1.229449e+02 8.878008e+01 4.191428e+01 5.836894e+01 3.490771e+01 3.956126e+01 5.221705e-01 1.182013e+00 1.224904e+00 2.882700e+00 1.819378e+00 2.149476e+00 2.317607e+00 2.934058e+00 1.925029e+00 2.125056e+00 1.986904e+00 2.268771e+00 6.736251e-01
<GCONST> 9.952012e+01
<STATE> 4
<MEAN> 25
 6.937273e+00 3.668579e+00 -5.531960e+00 -1.114490e+01 2.513207e-01 2.001837e+00 -2.257305e+00 -1.659719e+00 -1.825758e+00 2.072508e+00 -2.003435e+00 6.984962e-01 -2.398149e-01 3.573266e-02 2.544895e-01 6.252604e-01 2.769972e-02 -1.473373e-01 1.706691e-01 2.294682e-01 1.601386e-01 -1.603225e-01 -4.834758e-02 2.105945e-02 -3.229958e-01
<VARIANCE> 25
 1.799409e+01 4.093206e+01 2.930036e+01 1.047253e+02 4.272888e+01 5.772974e+01 4.121730e+01 6.610652e+01 5.189027e+01 3.120286e+01 3.486193e+01 2.825772e+01 3.852060e-01 9.535973e-01 8.028814e-01 2.167817e+00 1.277997e+00 1.647647e+00 1.667914e+00 2.085333e+00 1.812161e+00 1.512566e+00 1.501417e+00 1.412896e+00 5.195714e-01
<GCONST> 9.323045e+01
<TRANSP> 5
 0.000000e+00 1.000000e+00 0.000000e+00 0.000000e+00 0.000000e+00
 0.000000e+00 6.289032e-01 3.710969e-01 0.000000e+00 0.000000e+00
 0.000000e+00 0.000000e+00 7.006682e-01 2.993318e-01 0.000000e+00
 0.000000e+00 0.000000e+00 0.000000e+00 8.454509e-01 1.545491e-01
 0.000000e+00 0.000000e+00 0.000000e+00 0.000000e+00 0.000000e+00
<ENDHMM>
~h "m"
<BEGINHMM>
<NUMSTATES> 5
<STATE> 2
<MEAN> 25
 7.057196e+00 8.437046e-01 6.588334e-01 2.067852e+00 -3.744412e+00 -1.993025e-01 -2.787493e+00 -8.628538e+00 -7.770123e+00 7.549285e-01 4.479969e-01 -1.227958e+00 -1.137525e-01 7.206361e-01 1.407419e-01 9.283161e-01 8.955573e-01 4.263484e-01 3.673242e-01 -7.226667e-01 -5.476263e-01 -1.378141e-01 -1.070907e-01 2.925442e-01 -7.674013e-01
<VARIANCE> 25
 1.690123e+01 3.564669e+01 2.922052e+01 3.587952e+01 5.095617e+01 2.384468e+01 4.226726e+01 6.416006e+01 5.962522e+01 4.702423e+01 2.833116e+01 2.138475e+01 4.857314e-01 9.095639e-01 1.383876e+00 1.803970e+00 2.368178e+00 1.355163e+00 2.535542e+00 3.174553e+00 3.192647e+00 3.206627e+00 2.122153e+00 1.566022e+00 4.726548e-01
<GCONST> 9.478358e+01
<STATE> 3
<MEAN> 25
 4.700322e+00 3.365078e+00 2.000154e+00 5.035850e+00 2.362785e+00 2.905233e+00 -6.865668e-01 -4.377769e+00 -4.117743e+00 -2.089152e+00 -7.733682e-01 4.216899e-01 -2.525808e-01 1.229303e-01 2.023347e-01 2.882100e-01 2.595016e-01 2.262591e-01 1.208006e-01 4.420228e-02 3.283730e-02 -9.273551e-02 2.635426e-02 1.049708e-01 -3.264685e-01
<VARIANCE> 25
 2.067081e+01 1.603427e+01 3.106634e+01 2.956571e+01 3.949514e+01 2.630890e+01 2.219383e+01 4.547048e+01 3.540230e+01 2.104892e+01 1.490618e+01 1.562412e+01 4.097199e-01 5.626242e-01 9.828354e-01 1.091097e+00 1.103981e+00 1.085347e+00 1.294598e+00 1.930967e+00 1.776655e+00 1.124283e+00 1.258649e+00 1.161277e+00 3.169659e-01
<GCONST> 8.412227e+01
<STATE> 4
<MEAN> 25
 8.553866e-01 2.108290e+00 1.103776e+00 5.652271e+00 3.715440e+00 5.118469e+00 7.404022e-02 -3.292835e+00 -2.270760e+00 1.091149e+00 -1.252904e-01 8.304617e-01 1.047374e-01 -2.320310e-01 -2.314551e-01 -3.624339e-01 -3.123122e-01 -7.977736e-02 1.182612e-01 -9.679981e-04 -1.640583e-01 -6.089014e-03 -5.917722e-02 -1.821015e-01 2.334478e-01
<VARIANCE> 25
 3.256667e+01 1.466131e+01 1.683036e+01 2.132779e+01 4.034659e+01 4.405084e+01 3.149051e+01 6.751982e+01 9.961252e+01 2.868420e+01 1.826550e+01 2.649859e+01 1.283408e+00 1.036851e+00 1.692219e+00 1.774369e+00 1.677787e+00 2.082072e+00 1.858404e+00 2.863888e+00 3.723949e+00 1.791093e+00 1.694700e+00 1.509143e+00 7.299427e-01
<GCONST> 9.411311e+01
<TRANSP> 5
 0.000000e+00 1.000000e+00 0.000000e+00 0.000000e+00 0.000000e+00
 0.000000e+00 7.469336e-01 2.530664e-01 0.000000e+00 0.000000e+00
 0.000000e+00 0.000000e+00 7.549070e-01 2.450931e-01 0.000000e+00
 0.000000e+00 0.000000e+00 0.000000e+00 8.353175e-01 1.646825e-01
 0.000000e+00 0.000000e+00 0.000000e+00 0.000000e+00 0.000000e+00
<ENDHMM>
~h "n"
<BEGINHMM>
<NUMSTATES> 5
<STATE> 2
<MEAN> 25
 5.551039e+00 -1.809716e+00 1.678570e+00 4.383039e-01 -3.600967e+00 -2.687525e+00 -2.539504e+00 8.031576e-01 -1.689821e+00 -1.240127e+00 -3.890734e+00 -1.350363e+00 4.962660e-01 1.544902e+00 2.731330e-01 1.363971e+00 1.642387e-01 1.696159e-01 2.489218e-01 -1.927981e+00 -8.143876e-01 -2.214143e-01 -2.693886e-01 4.868972e-01 -1.147432e+00
<VARIANCE> 25
 1.943840e+01 4.508466e+01 4.005738e+01 4.930931e+01 7.693314e+01 6.562505e+01 7.231657e+01 7.029317e+01 6.593909e+01 4.320357e+01 3.760288e+01 2.970830e+01 1.284791e+00 2.308661e+00 2.937373e+00 2.838823e+00 4.067360e+00 3.988149e+00 4.481984e+00 4.798909e+00 4.317738e+00 3.489966e+00 3.211805e+00 2.304011e+00 1.564335e+00
<GCONST> 1.065694e+02
<STATE> 3
<MEAN> 25
 6.905909e+00 3.067981e+00 2.393442e+00 2.742496e+00 -4.773726e+00 -5.906934e-01 -2.199382e+00 -5.939774e+00 -5.433200e+00 -6.649817e-01 -4.425672e+00 -7.738071e-01 3.335410e-01 7.535404e-01 3.005190e-01 4.585679e-01 -1.857446e-01 4.666835e-01 1.612329e-01 -1.257270e+00 -5.184423e-01 1.611899e-01 -1.860847e-02 2.446488e-01 -4.714274e-01
<VARIANCE> 25
 1.243415e+01 3.553730e+01 2.493288e+01 3.965617e+01 5.638478e+01 3.421457e+01 3.952780e+01 6.487498e+01 4.966687e+01 3.592073e+01 2.709706e+01 2.455334e+01 1.733256e+00 2.440068e+00 2.141227e+00 2.840723e+00 4.660711e+00 3.026742e+00 3.907892e+00 6.064243e+00 4.091753e+00 3.182106e+00 2.479450e+00 1.923931e+00 2.172973e+00
<GCONST> 1.023002e+02
<STATE> 4
<MEAN> 25
 4.563369e+00 3.675852e+00 3.582531e+00 4.233304e+00 -1.431330e+00 2.115405e+00 -9.839449e-01 -5.441025e+00 -3.104229e+00 -6.189055e-01 -2.358528e+00 5.262414e-01 -2.819552e-01 1.527300e-01 -7.015102e-02 1.258096e-01 4.888236e-01 2.509265e-01 1.352518e-01 1.301119e-01 2.870468e-01 4.219563e-02 7.083352e-02 1.245029e-01 -4.362281e-01
<VARIANCE> 25
 1.684052e+01 1.974691e+01 2.110628e+01 2.155063e+01 5.361788e+01 3.659005e+01 2.721507e+01 5.051198e+01 3.824858e+01 2.508694e+01 2.216950e+01 1.836185e+01 4.018050e-01 8.422620e-01 7.672397e-01 9.963082e-01 1.477541e+00 1.493726e+00 1.654338e+00 2.242315e+00 1.708536e+00 1.522166e+00 1.339496e+00 1.193789e+00 3.869898e-01
<GCONST> 8.678308e+01
<TRANSP> 5
 0.000000e+00 1.000000e+00 0.000000e+00 0.000000e+00 0.000000e+00
 0.000000e+00 5.563397e-01 4.436603e-01 0.000000e+00 0.000000e+00
 0.000000e+00 0.000000e+00 4.894017e-01 5.105982e-01 0.000000e+00
 0.000000e+00 0.000000e+00 0.000000e+00 8.729448e-01 1.270552e-01
 0.000000e+00 0.000000e+00 0.000000e+00 0.000000e+00 0.000000e+00
<ENDHMM>
~h "p"
<BEGINHMM>
<NUMSTATES> 5
<STATE> 2
<MEAN> 25
 -1.784771e+00 3.974419e-01 -2.404902e-01 3.131946e+00 3.617541e+00 2.160872e+00 2.753258e+00 1.173061e+00 1.476024e+00 -4.051920e-01 -6.067263e-01 1.927041e+00 -1.171752e-01 -3.564387e-01 -4.084243e-01 -1.723498e-01 -2.321251e-02 -1.730635e-01 1.366631e-01 -1.447205e-01 3.775819e-01 1.575400e-01 2.116108e-01 -1.468478e-01 3.466267e-01
<VARIANCE> 25
 2.002245e+01 1.963515e+01 2.722395e+01 2.348854e+01 2.461547e+01 2.908359e+01 3.594114e+01 4.006998e+01 3.139990e+01 3.191529e+01 1.849304e+01 1.615043e+01 2.160711e+00 2.319411e+00 2.392629e+00 2.269917e+00 2.895116e+00 5.470574e+00 4.062226e+00 2.935051e+00 3.586427e+00 3.380158e+00 2.688849e+00 1.925408e+00 3.223912e+00
<GCONST> 9.869168e+01
<STATE> 3
<MEAN> 25
 9.875125e-01 4.434268e-01 -2.164476e+00 6.922364e-03 2.040445e+00 -1.273887e+00 6.347702e-01 -2.518521e+00 3.038501e+00 3.820112e+00 3.804747e-01 7.611044e-01 1.150643e+00 -5.979645e-01 -3.271197e-01 -1.307313e+00 -7.016616e-01 8.109958e-02 -6.144904e-01 -4.454404e-01 1.139732e-01 7.051163e-01 6.602542e-01 -7.442513e-01 1.972041e+00
<VARIANCE> 25
 5.351052e+01 4.211512e+01 3.514985e+01 6.827396e+01 4.495305e+01 6.808255e+01 5.429658e+01 4.844593e+01 4.488647e+01 6.341386e+01 4.553244e+01 3.257974e+01 7.491317e+00 5.823970e+00 5.798699e+00 1.076847e+01 5.165709e+00 1.052002e+01 6.925843e+00 6.495036e+00 7.708339e+00 6.613513e+00 5.492321e+00 4.537610e+00 5.498905e+00
<GCONST> 1.171709e+02
<STATE> 4
<MEAN> 25
 3.644150e-01 -1.529863e+00 -2.017602e+00 -2.160416e+00 2.512564e+00 4.507805e+00 -2.131333e-01 -6.474303e-01 3.637848e+00 2.303944e+00 8.166643e-01 -3.557745e-01 2.370381e-01 -2.782502e-01 3.888054e-02 -5.456256e-02 -2.155448e-01 -6.357136e-02 -1.672763e-01 1.309772e-01 -3.914593e-01 -3.324496e-01 -4.424584e-02 -4.134374e-01 6.014322e-01
<VARIANCE> 25
 5.020023e+01 3.433988e+01 4.171182e+01 5.966777e+01 2.721033e+01 6.122291e+01 5.755749e+01 5.928176e+01 4.114893e+01 3.250139e+01 3.509325e+01 3.210880e+01 2.453596e+00 2.031435e+00 3.256262e+00 4.172140e+00 3.549312e+00 4.597534e+00 4.013407e+00 3.477923e+00 3.338375e+00 3.072052e+00 1.960847e+00 2.745379e+00 3.649455e+00
<GCONST> 1.059470e+02
<TRANSP> 5
 0.000000e+00 1.000000e+00 0.000000e+00 0.000000e+00 0.000000e+00
 0.000000e+00 5.751069e-01 4.248931e-01 0.000000e+00 0.000000e+00
 0.000000e+00 0.000000e+00 5.332637e-01 4.667363e-01 0.000000e+00
 0.000000e+00 0.000000e+00 0.000000e+00 5.847263e-01 4.152737e-01
 0.000000e+00 0.000000e+00 0.000000e+00 0.000000e+00 0.000000e+00
<ENDHMM>
~h "r"
<BEGINHMM>
<NUMSTATES> 5
<STATE> 2
<MEAN> 25
 -1.604588e+00 -4.279534e+00 -2.415573e+00 2.658311e-02 5.643842e-01 -8.523148e-01 -1.106324e+00 6.599420e-01 4.652106e+00 1.563857e+00 2.873667e+00 -1.831861e-01 3.443699e-01 -3.283837e-01 -1.408323e-01 6.980978e-01 2.438651e-02 -1.520004e+00 -5.945997e-01 -2.112293e-01 5.635692e-01 -4.436479e-01 -1.989646e-01 3.203472e-01 4.695496e-01
<VARIANCE> 25
 1.177622e+02 3.365323e+01 6.266135e+01 5.852411e+01 5.337607e+01 5.508118e+01 6.102100e+01 4.510767e+01 6.177537e+01 4.573974e+01 4.077354e+01 2.802448e+01 6.109076e+00 2.757403e+00 3.721464e+00 6.528096e+00 3.564728e+00 4.814275e+00 5.182553e+00 4.385185e+00 4.158834e+00 3.828742e+00 3.399372e+00 2.870993e+00 4.877059e+00
<GCONST> 1.119440e+02
<STATE> 3
<MEAN> 25
 8.028469e+00 -4.345377e+00 -6.235541e+00 2.471650e+00 -1.959376e-01 -6.390489e+00 -7.832415e+00 -2.982586e+00 2.987509e+00 -1.051130e+00 5.833127e-01 1.231927e+00 1.869063e+00 -5.528144e-01 -8.147659e-01 1.723994e-01 -7.484919e-01 -1.634004e+00 -9.618842e-01 -1.920538e-01 1.116014e-01 -5.504661e-01 -4.175712e-01 6.358011e-01 5.688341e-01
<VARIANCE> 25
 5.713895e+01 3.552089e+01 1.034745e+02 5.341634e+01 4.714980e+01 4.755866e+01 6.806626e+01 5.482682e+01 6.530054e+01 4.515926e+01 3.218859e+01 2.945601e+01 6.407014e+00 3.397682e+00 6.256296e+00 4.261924e+00 5.171310e+00 4.669376e+00 6.094508e+00 6.136134e+00 6.512174e+00 3.339252e+00 3.393997e+00 2.764342e+00 2.149163e+00
<GCONST> 1.122165e+02
<STATE> 4
<MEAN> 25
 1.030166e+01 -7.064351e+00 -7.660092e+00 4.073903e+00 -2.840740e+00 -9.736950e+00 -5.989028e+00 2.087750e+00 2.843294e+00 -2.216878e+00 -6.391118e-01 2.572892e+00 -2.962770e-01 1.193638e-01 5.882745e-01 5.482271e-02 -7.732162e-02 2.526571e-01 4.537618e-01 3.574609e-01 -2.211486e-01 1.168551e-01 -5.738296e-02 -5.263830e-02 -3.275294e-01
<VARIANCE> 25
 2.738720e+01 4.134692e+01 8.857774e+01 4.356627e+01 6.646267e+01 5.176283e+01 7.478783e+01 6.244580e+01 5.799952e+01 3.383651e+01 3.731317e+01 2.342124e+01 7.161313e-01 1.670022e+00 2.566274e+00 1.868230e+00 3.073134e+00 3.077754e+00 3.155060e+00 2.846958e+00 3.724590e+00 2.246765e+00 2.252300e+00 1.681129e+00 7.365003e-01
<GCONST> 1.015229e+02
<TRANSP> 5
 0.000000e+00 1.000000e+00 0.000000e+00 0.000000e+00 0.000000e+00
 0.000000e+00 6.318586e-01 3.681413e-01 0.000000e+00 0.000000e+00
 0.000000e+00 0.000000e+00 5.646838e-01 4.353163e-01 0.000000e+00
 0.000000e+00 0.000000e+00 0.000000e+00 8.404879e-01 1.595121e-01
 0.000000e+00 0.000000e+00 0.000000e+00 0.000000e+00 0.000000e+00
<ENDHMM>
~h "s"
<BEGINHMM>
<NUMSTATES> 5
<STATE> 2
<MEAN> 25
 -4.218864e+00 4.778212e+00 2.263460e+00 1.763806e+00 5.148528e+00 -4.184509e+00 1.424483e+00 1.125707e+00 2.117435e+00 -1.614853e-01 -1.027712e+00 9.062290e-04 -3.510924e+00 2.053955e+00 -8.805377e-01 -4.942525e-01 2.229473e+00 -8.443841e-01 1.590639e+00 2.988871e-01 7.423588e-01 -6.826895e-01 7.171850e-01 -1.758148e-01 6.745573e-01
<VARIANCE> 25
 7.075728e+01 5.257893e+01 5.178130e+01 4.663778e+01 8.370489e+01 8.720506e+01 7.506094e+01 5.512848e+01 5.703742e+01 3.879418e+01 3.733003e+01 3.029883e+01 4.768152e+00 4.561331e+00 3.647688e+00 4.390993e+00 5.817811e+00 6.617075e+00 5.091508e+00 4.837298e+00 4.673038e+00 4.704618e+00 4.189305e+00 2.870086e+00 2.356042e+00
<GCONST> 1.130563e+02
<STATE> 3
<MEAN> 25
 -1.642237e+01 9.374967e+00 -1.610189e+00 -1.577107e+00 9.861746e+00 -4.435390e+00 3.802320e+00 3.283988e+00 3.822472e+00 -1.575977e+00 1.387823e+00 -3.852173e-02 -1.536155e+00 5.045614e-01 -1.123576e+00 -3.115599e-01 2.933903e-01 2.391798e-01 4.444103e-01 1.519503e-01 1.173639e-01 6.275526e-02 4.749202e-01 7.305830e-02 9.144496e-02
<VARIANCE> 25
 3.999963e+01 5.336130e+01 3.538458e+01 4.656306e+01 5.967539e+01 4.346245e+01 7.231198e+01 4.743122e+01 3.872368e+01 3.828102e+01 2.884685e+01 2.495329e+01 4.036115e+00 2.906310e+00 2.264232e+00 2.347075e+00 3.002259e+00 2.647849e+00 3.393918e+00 3.066864e+00 3.390047e+00 3.118032e+00 1.996848e+00 1.748145e+00 1.474668e+00
<GCONST> 1.034464e+02
<STATE> 4
<MEAN> 25
 -1.656242e+01 9.190471e+00 -4.584681e+00 5.508608e-01 1.068133e+01 -3.688846e+00 7.469179e+00 1.404326e+00 3.980544e+00 -5.387821e-01 2.380658e+00 9.314279e-01 5.442494e-01 -4.717264e-01 1.438504e-01 1.427002e-01 -1.995919e-01 2.067817e-01 -2.183177e-01 -1.294188e-01 1.335354e-02 7.934581e-02 -1.588244e-01 1.742047e-02 -3.646957e-01
<VARIANCE> 25
 3.631572e+01 4.973005e+01 2.557315e+01 3.895125e+01 5.765456e+01 2.853191e+01 4.082810e+01 3.230648e+01 2.745931e+01 2.558330e+01 2.831995e+01 1.882039e+01 2.277864e+00 1.500259e+00 1.207184e+00 1.338694e+00 2.194546e+00 1.957328e+00 2.255753e+00 2.199641e+00 1.788378e+00 1.665104e+00 1.899866e+00 1.603420e+00 8.258491e-01
<GCONST> 9.455489e+01
<TRANSP> 5
 0.000000e+00 1.000000e+00 0.000000e+00 0.000000e+00 0.000000e+00
 0.000000e+00 7.186484e-01 2.813516e-01 0.000000e+00 0.000000e+00
 0.000000e+00 0.000000e+00 6.341050e-01 3.658949e-01 0.000000e+00
 0.000000e+00 0.000000e+00 0.000000e+00 9.112877e-01 8.871226e-02
 0.000000e+00 0.000000e+00 0.000000e+00 0.000000e+00 0.000000e+00
<ENDHMM>
~h "t"
<BEGINHMM>
<NUMSTATES> 5
<STATE> 2
<MEAN> 25
 2.166732e+00 1.847119e+00 1.618006e+00 1.078970e+00 1.479198e-01 -1.130679e+00 -3.558508e-01 5.930431e-01 1.591122e+00 1.106042e+00 -9.618090e-01 -4.306824e-01 -6.617966e-01 1.716534e-01 -3.959194e-01 7.148842e-01 1.169683e+00 8.317493e-01 9.859091e-01 -5.901850e-02 4.583214e-01 -1.886115e-01 5.040976e-02 2.956200e-01 -1.504046e+00
<VARIANCE> 25
 3.134114e+01 3.558519e+01 3.823582e+01 3.869375e+01 5.201265e+01 4.871491e+01 3.955091e+01 4.486630e+01 4.858674e+01 3.253782e+01 3.470862e+01 2.391036e+01 1.868159e+00 3.536461e+00 2.488301e+00 2.769428e+00 3.624182e+00 4.336740e+00 3.506721e+00 3.683397e+00 4.618951e+00 2.876206e+00 3.082224e+00 2.230696e+00 2.069446e+00
<GCONST> 1.040425e+02
<STATE> 3
<MEAN> 25
 -2.933432e+00 8.074245e-01 -1.807779e+00 2.811697e-01 4.014942e+00 -2.642328e-02 2.918753e+00 1.055713e+00 3.172721e+00 1.618826e+00 -2.308965e-02 7.235313e-01 -6.145431e-01 -4.160808e-01 -3.219780e-01 -2.170291e-01 2.138450e-01 -1.491695e-01 3.306899e-01 1.484886e-01 3.120997e-01 2.039791e-01 1.752975e-01 2.109250e-01 1.605614e-01
<VARIANCE> 25
 4.022874e+01 3.213293e+01 3.398442e+01 3.647430e+01 3.803831e+01 6.129108e+01 4.051603e+01 4.063653e+01 4.062891e+01 3.230905e+01 2.708186e+01 2.172331e+01 3.610382e+00 2.916217e+00 2.695400e+00 3.295791e+00 3.362048e+00 7.646568e+00 3.574847e+00 3.263241e+00 4.230388e+00 2.681090e+00 2.894473e+00 2.281661e+00 5.329060e+00
<GCONST> 1.051827e+02
<STATE> 4
<MEAN> 25
 -2.961992e+00 1.096051e+00 -9.493787e-01 3.776188e+00 5.385811e+00 5.565841e+00 2.382385e+00 3.158905e+00 4.238322e+00 2.180948e+00 2.710754e-01 2.802226e+00 -1.370084e-01 -7.661454e-02 4.914544e-03 6.932177e-02 7.804777e-02 1.447416e-01 3.578844e-02 -4.879879e-02 -4.816750e-02 -3.386971e-02 2.489187e-03 9.563355e-02 -1.466779e-01
<VARIANCE> 25
 1.329530e+01 1.709053e+01 1.577072e+01 2.077738e+01 2.202694e+01 3.572381e+01 2.628773e+01 2.855830e+01 3.282815e+01 2.201952e+01 2.046606e+01 1.658912e+01 4.697457e-01 7.060001e-01 8.739214e-01 1.319818e+00 1.323767e+00 1.904140e+00 1.848645e+00 1.769674e+00 1.861845e+00 1.673624e+00 1.569900e+00 1.400295e+00 5.262007e-01
<GCONST> 8.529571e+01
<TRANSP> 5
 0.000000e+00 1.000000e+00 0.000000e+00 0.000000e+00 0.000000e+00
 0.000000e+00 5.610929e-01 4.389071e-01 0.000000e+00 0.000000e+00
 0.000000e+00 0.000000e+00 4.863159e-01 5.136842e-01 0.000000e+00
 0.000000e+00 0.000000e+00 0.000000e+00 8.704183e-01 1.295817e-01
 0.000000e+00 0.000000e+00 0.000000e+00 0.000000e+00 0.000000e+00
<ENDHMM>
~h "v"
<BEGINHMM>
<NUMSTATES> 5
<STATE> 2
<MEAN> 25
 -1.345060e+00 -8.042217e-01 -9.708707e-01 3.341287e+00 2.312964e+00 3.153956e-01 2.074667e+00 1.488902e+00 1.831233e+00 1.318923e-01 -8.107272e-01 -5.324922e-01 -9.144216e-01 3.637092e-01 -7.313643e-02 2.983146e-01 7.286003e-01 6.650073e-01 5.266064e-01 1.146945e-01 3.696279e-01 -6.895289e-02 -5.134358e-02 1.030762e-01 -4.826682e-01
<VARIANCE> 25
 4.629387e+01 2.091490e+01 3.696744e+01 6.391769e+01 2.867405e+01 5.874498e+01 3.465504e+01 3.734279e+01 3.367832e+01 2.109410e+01 1.892024e+01 2.628686e+01 1.902593e+00 1.068566e+00 1.403188e+00 1.534296e+00 1.939175e+00 2.841882e+00 2.838705e+00 2.597762e+00 3.134419e+00 1.848907e+00 1.952344e+00 2.022067e+00 7.178177e-01
<GCONST> 9.593967e+01
<STATE> 3
<MEAN> 25
 3.916265e+00 4.904650e-01 -5.036872e+00 -1.208076e+01 -2.172590e-01 6.019175e+00 1.949951e+00 1.368165e+00 -8.822622e-01 -9.430935e-01 -3.567253e-01 -2.419181e+00 -7.037336e-01 7.085399e-02 -9.014824e-02 7.040257e-01 1.470037e-01 -3.695744e-01 2.014087e-01 1.145990e-01 2.611160e-01 1.651156e-02 2.408122e-01 -1.093367e-01 3.228615e-02
<VARIANCE> 25
 5.945687e+01 2.645618e+01 2.180768e+01 2.450127e+02 3.558781e+01 5.093479e+01 3.453296e+01 5.426044e+01 3.221677e+01 2.479968e+01 2.442084e+01 1.806001e+01 4.206623e+00 1.740145e+00 1.598737e+00 1.001997e+01 2.326108e+00 3.290771e+00 3.858326e+00 2.295053e+00 2.232712e+00 1.840015e+00 1.882331e+00 1.555435e+00 2.175114e+00
<GCONST> 1.019470e+02
<STATE> 4
<MEAN> 25
 -5.752190e+00 3.996849e-02 -2.765760e+00 3.264119e+00 5.025527e+00 3.869053e+00 3.163671e+00 2.325024e+00 4.977872e+00 1.992062e+00 8.319837e-01 1.982232e-01 -1.602376e-02 4.761239e-02 1.083161e-01 2.575235e-01 2.553977e-01 4.482707e-02 -2.355839e-01 2.720606e-02 1.081456e-01 1.444803e-01 -3.727490e-02 2.080604e-01 -4.305765e-01
<VARIANCE> 25
 3.030018e+01 1.565453e+01 2.541440e+01 3.763667e+01 3.356578e+01 4.433984e+01 3.760504e+01 3.251695e+01 3.104447e+01 2.480710e+01 2.370922e+01 2.538039e+01 1.023622e+00 6.855268e-01 8.686951e-01 1.555042e+00 1.600777e+00 2.053663e+00 1.916817e+00 2.107680e+00 2.028261e+00 1.821377e+00 1.569665e+00 1.253243e+00 6.130227e-01
<GCONST> 9.045970e+01
<TRANSP> 5
 0.000000e+00 1.000000e+00 0.000000e+00 0.000000e+00 0.000000e+00
 0.000000e+00 7.508626e-01 2.491374e-01 0.000000e+00 0.000000e+00
 0.000000e+00 0.000000e+00 7.423741e-01 2.576259e-01 0.000000e+00
 0.000000e+00 0.000000e+00 0.000000e+00 8.757299e-01 1.242702e-01
 0.000000e+00 0.000000e+00 0.000000e+00 0.000000e+00 0.000000e+00
<ENDHMM>
~h "w"
<BEGINHMM>
<NUMSTATES> 5
<STATE> 2
<MEAN> 25
 -1.579944e+00 2.143035e+00 -4.072754e-01 5.144117e+00 5.655964e+00 7.991864e+00 1.730200e+00 2.805398e+00 2.830864e+00 1.435882e+00 6.049381e-02 2.686213e+00 2.468025e-01 3.015641e-01 -9.571519e-03 -1.163466e-01 -1.207284e-01 1.011147e-01 -5.743789e-02 -1.278403e-01 -2.114332e-01 -1.814616e-01 -1.202862e-01 -1.834293e-02 -2.195323e-02
<VARIANCE> 25
 1.682613e+01 1.617750e+01 1.746721e+01 2.317726e+01 2.771353e+01 4.587878e+01 2.882985e+01 3.021872e+01 4.810566e+01 2.240165e+01 2.074396e+01 2.035539e+01 8.713316e-01 1.352526e+00 1.265156e+00 1.477314e+00 2.008275e+00 2.250705e+00 2.048050e+00 1.839246e+00 2.243818e+00 1.978780e+00 1.675821e+00 1.825343e+00 3.722452e-01
<GCONST> 8.974786e+01
<STATE> 3
<MEAN> 25
 8.403528e+00 8.893829e+00 4.989088e-03 -4.009781e+00 -5.792452e+00 -5.778530e-01 -1.472926e+00 -1.242664e+00 -2.904644e+00 -2.966754e+00 -1.497480e+00 9.565057e-01 1.600444e+00 7.352681e-01 -4.762852e-01 -1.968758e+00 -1.599875e+00 -3.689197e-01 -3.859199e-01 -1.474532e-01 -7.702944e-01 -5.773036e-01 1.743450e-01 -6.813329e-02 1.039414e+00
<VARIANCE> 25
 2.210950e+01 1.930935e+01 1.583281e+01 4.463945e+01 4.042738e+01 3.244485e+01 2.613205e+01 2.643426e+01 3.040339e+01 2.480847e+01 2.075030e+01 1.898728e+01 2.705161e+00 1.985707e+00 2.423544e+00 3.700150e+00 4.181322e+00 4.590821e+00 2.836320e+00 3.040655e+00 3.391018e+00 2.670139e+00 2.090082e+00 2.143020e+00 9.676808e-01
<GCONST> 9.753700e+01
<STATE> 4
<MEAN> 25
 1.196083e+01 4.003737e+00 -6.115963e+00 -1.237158e+01 -7.370615e+00 3.740345e+00 -3.413363e+00 -3.579835e+00 -6.876939e+00 -1.000356e+00 4.026802e+00 -4.161575e-01 -1.499395e-01 -1.765175e+00 -5.577030e-01 1.853959e-02 7.835987e-01 1.323747e-01 -6.223010e-01 -2.251661e-01 3.335389e-01 1.218879e+00 8.016506e-01 -6.926900e-01 1.024926e+00
<VARIANCE> 25
 1.030240e+01 4.016353e+01 2.732175e+01 6.106130e+01 4.044347e+01 5.678036e+01 6.121796e+01 5.940125e+01 7.891889e+01 7.534248e+01 4.880540e+01 3.940599e+01 6.117005e-01 1.675932e+00 1.710768e+00 3.363607e+00 2.372358e+00 5.171670e+00 3.793993e+00 4.880684e+00 4.760349e+00 4.377795e+00 4.635141e+00 2.932699e+00 6.412672e-01
<GCONST> 1.039846e+02
<TRANSP> 5
 0.000000e+00 1.000000e+00 0.000000e+00 0.000000e+00 0.000000e+00
 0.000000e+00 8.514546e-01 1.485454e-01 0.000000e+00 0.000000e+00
 0.000000e+00 0.000000e+00 8.199249e-01 1.800751e-01 0.000000e+00
 0.000000e+00 0.000000e+00 0.000000e+00 8.309857e-01 1.690143e-01
 0.000000e+00 0.000000e+00 0.000000e+00 0.000000e+00 0.000000e+00
<ENDHMM>
~h "y"
<BEGINHMM>
<NUMSTATES> 5
<STATE> 2
<MEAN> 25
 -4.326546e+00 3.469730e+00 6.728574e+00 4.422052e+00 2.566996e+00 2.326725e+00 9.536905e-01 -1.034096e+00 -2.066195e+00 -1.040100e+00 1.154318e+00 -3.209635e+00 1.087091e+00 9.785143e-01 2.954454e+00 -7.375379e-01 -2.126509e+00 -9.387083e-01 -1.339733e+00 -6.027887e-01 -2.289135e+00 -2.933958e-01 6.191856e-01 -1.584031e+00 1.238487e+00
<VARIANCE> 25
 3.655081e+01 4.073546e+01 6.345097e+01 5.363620e+01 6.020319e+01 4.224865e+01 4.982688e+01 3.523630e+01 4.505394e+01 4.567593e+01 3.093932e+01 2.523730e+01 5.325317e+00 4.338979e+00 6.768032e+00 4.083441e+00 6.836445e+00 4.599849e+00 4.753191e+00 4.268386e+00 6.330515e+00 4.998637e+00 3.455851e+00 2.995332e+00 1.587438e+00
<GCONST> 1.101583e+02
<STATE> 3
<MEAN> 25
 3.185347e+00 4.209543e+00 1.677135e+01 -1.176118e+00 -1.009878e+01 -4.035759e+00 -3.488631e+00 -2.028518e+00 -1.092143e+01 -1.685151e+00 6.431459e+00 -5.856999e+00 8.338295e-03 -1.115147e-01 9.540808e-01 -2.816052e-01 -2.124994e+00 -7.779175e-01 2.638924e-02 3.776420e-01 -9.359090e-01 -4.348907e-02 8.815435e-01 -4.354463e-02 1.042499e+00
<VARIANCE> 25
 3.327022e+01 3.787949e+01 8.687281e+01 3.890078e+01 7.858237e+01 4.139457e+01 5.727041e+01 4.413375e+01 6.138584e+01 5.446037e+01 2.774845e+01 3.535059e+01 2.936649e+00 3.992808e+00 5.290666e+00 5.343510e+00 9.871019e+00 3.953147e+00 4.754655e+00 5.257550e+00 6.789554e+00 4.914759e+00 5.060198e+00 2.498798e+00 2.159743e+00
<GCONST> 1.116382e+02
<STATE> 4
<MEAN> 25
 2.223646e+00 1.240404e+00 1.294163e+01 1.229569e+00 -1.498760e+01 -9.768592e+00 -5.460218e+00 -1.421026e+00 -1.251627e+01 -2.228427e+00 5.079838e+00 -5.134885e+00 3.716544e-01 -5.089690e-01 -1.094774e+00 2.640823e-01 5.364627e-01 -6.314676e-01 -5.223629e-01 3.681054e-01 6.380439e-01 2.467976e-01 -4.623474e-01 3.604838e-01 2.088458e-01
<VARIANCE> 25
 9.644830e+00 3.352407e+01 8.166905e+01 7.008535e+01 5.633033e+01 6.129491e+01 3.824149e+01 3.782922e+01 5.634855e+01 7.376618e+01 5.339187e+01 3.445363e+01 5.426540e-01 9.560972e-01 2.761273e+00 2.417645e+00 2.677979e+00 3.782943e+00 2.732876e+00 3.147455e+00 3.763829e+00 2.623481e+00 2.935663e+00 1.461752e+00 3.713880e-01
<GCONST> 1.001175e+02
<TRANSP> 5
 0.000000e+00 1.000000e+00 0.000000e+00 0.000000e+00 0.000000e+00
 0.000000e+00 7.052173e-01 2.947827e-01 0.000000e+00 0.000000e+00
 0.000000e+00 0.000000e+00 7.384250e-01 2.615750e-01 0.000000e+00
 0.000000e+00 0.000000e+00 0.000000e+00 8.829947e-01 1.170053e-01
 0.000000e+00 0.000000e+00 0.000000e+00 0.000000e+00 0.000000e+00
<ENDHMM>
~h "z"
<BEGINHMM>
<NUMSTATES> 5
<STATE> 2
<MEAN> 25
 1.562657e-01 2.624735e+00 5.636816e+00 1.073048e+00 -8.874253e-01 -9.155831e+00 -1.124825e+00 2.660489e-01 -1.744836e+00 1.874419e-01 -1.078474e+00 -1.319158e+00 -3.329080e+00 2.388891e+00 -9.568188e-01 2.404715e-01 2.954217e+00 -5.382509e-01 1.949576e+00 -2.353544e-01 1.091577e+00 -8.795457e-01 5.955353e-01 1.103425e-02 2.017941e-01
<VARIANCE> 25
 5.846027e+01 6.361384e+01 7.375481e+01 5.378394e+01 9.727910e+01 1.347482e+02 6.636433e+01 7.450110e+01 5.892982e+01 4.133817e+01 4.575928e+01 3.345771e+01 5.305871e+00 4.713486e+00 5.447102e+00 5.753927e+00 5.713899e+00 5.153001e+00 6.232022e+00 6.508497e+00 6.415557e+00 5.305996e+00 5.961863e+00 3.236309e+00 2.073081e+00
<GCONST> 1.165385e+02
<STATE> 3
<MEAN> 25
 -1.274681e+01 8.659542e+00 -6.124328e-01 -7.623088e-01 7.117691e+00 -6.214232e+00 1.323260e+00 1.981766e+00 2.697995e+00 -2.252677e+00 9.524331e-01 -7.776387e-01 -1.630711e+00 8.320752e-01 -1.445178e+00 -1.466669e-01 8.469748e-01 7.128037e-01 6.015019e-01 3.835857e-02 5.484406e-01 1.726325e-02 4.108096e-01 6.930424e-02 -2.562405e-01
<VARIANCE> 25
 7.721687e+01 5.421627e+01 4.916100e+01 4.242401e+01 4.359739e+01 9.522157e+01 6.832482e+01 7.196294e+01 4.566537e+01 4.610887e+01 3.437616e+01 2.734739e+01 8.120188e+00 5.652826e+00 2.941581e+00 4.322885e+00 4.918416e+00 5.106550e+00 4.700686e+00 4.522861e+00 4.282267e+00 4.000939e+00 3.509644e+00 2.151363e+00 1.592456e+00
<GCONST> 1.112370e+02
<STATE> 4
<MEAN> 25
 -1.374956e+01 8.703568e+00 -3.689259e+00 1.117153e+00 1.009860e+01 -3.028574e+00 6.765297e+00 1.274535e+00 4.081563e+00 -2.074782e-01 1.806062e+00 9.988809e-01 4.040951e-01 -4.358911e-01 1.007892e-01 1.585547e-01 -5.526584e-02 5.123714e-01 -7.059894e-02 4.134320e-02 1.879266e-02 8.247069e-02 -1.246273e-01 1.846998e-01 -6.381755e-01
<VARIANCE> 25
 4.665129e+01 5.176172e+01 2.250848e+01 4.065571e+01 5.769895e+01 5.429170e+01 3.788051e+01 3.706084e+01 3.421909e+01 2.993067e+01 2.926423e+01 2.292320e+01 1.450917e+00 1.438056e+00 1.189647e+00 1.363276e+00 1.798763e+00 1.984700e+00 1.991283e+00 2.208173e+00 1.941643e+00 1.676398e+00 1.542635e+00 1.632245e+00 5.086514e-01
<GCONST> 9.469228e+01
<TRANSP> 5
 0.000000e+00 1.000000e+00 0.000000e+00 0.000000e+00 0.000000e+00
 0.000000e+00 6.734720e-01 3.265280e-01 0.000000e+00 0.000000e+00
 0.000000e+00 0.000000e+00 7.270123e-01 2.729877e-01 0.000000e+00
 0.000000e+00 0.000000e+00 0.000000e+00 9.347069e-01 6.529301e-02
 0.000000e+00 0.000000e+00 0.000000e+00 0.000000e+00 0.000000e+00
<ENDHMM>
~h "aa"
<BEGINHMM>
<NUMSTATES> 5
<STATE> 2
<MEAN> 25
 3.531007e+00 1.630759e+00 -1.653610e+00 -1.759873e+00 7.824857e-01 3.583323e-01 -2.540833e+00 -1.288140e+00 1.328058e+00 1.154773e+00 -1.088008e+00 -6.647271e-01 8.031934e-01 -1.210822e+00 -9.344716e-01 -2.037153e+00 -3.282063e-01 1.187704e-01 -6.814892e-01 -2.445788e-01 4.979833e-01 6.120944e-01 -3.549629e-01 -6.780117e-01 1.756673e+00
<VARIANCE> 25
 7.473701e+01 5.553833e+01 4.553435e+01 9.777433e+01 7.463103e+01 9.342861e+01 6.873932e+01 6.894702e+01 6.018502e+01 3.790858e+01 4.672312e+01 3.799600e+01 5.521876e+00 4.250017e+00 4.106337e+00 9.249017e+00 7.648059e+00 8.188899e+00 7.386495e+00 8.974260e+00 5.951404e+00 6.713185e+00 5.470778e+00 4.904729e+00 3.954199e+00
<GCONST> 1.186829e+02
<STATE> 3
<MEAN> 25
 8.061537e+00 -3.304952e+00 -6.726629e+00 -9.913035e+00 -3.671294e-01 4.954136e+00 -8.774613e-01 -4.897772e+00 1.063872e+00 4.234428e+00 -8.217307e-01 -2.187541e+00 6.460788e-01 -8.729322e-01 -4.077457e-01 -9.462258e-01 7.262576e-02 1.001308e+00 8.198351e-02 3.878753e-01 -2.993193e-01 -1.090164e-01 -6.270336e-02 -7.692209e-01 8.152411e-01
<VARIANCE> 25
 3.335559e+01 4.260767e+01 4.055029e+01 7.529852e+01 6.020869e+01 6.961357e+01 1.214172e+02 8.016966e+01 6.346402e+01 6.273582e+01 6.127736e+01 4.671856e+01 3.778768e+00 2.379808e+00 3.258347e+00 8.034947e+00 4.304611e+00 4.645618e+00 4.235333e+00 5.129378e+00 4.772002e+00 4.405888e+00 4.451720e+00 3.447385e+00 2.750203e+00
<GCONST> 1.133271e+02
<STATE> 4
<MEAN> 25
 8.130787e+00 -6.765478e+00 -7.375634e+00 -1.219048e+01 -1.106923e+00 4.622368e+00 -3.794541e+00 -8.879702e-01 -8.404123e-01 1.732182e+00 -4.311689e-01 -5.522670e+00 -1.332799e-01 1.458953e-01 2.494714e-01 6.464842e-01 1.228537e-01 -4.799759e-01 -1.293606e-01 2.348746e-01 1.228751e-01 1.642014e-02 -2.799980e-01 5.016219e-02 -2.940677e-01
<VARIANCE> 25
 9.724760e+00 3.388275e+01 2.824496e+01 9.661611e+01 5.336694e+01 9.934751e+01 5.040157e+01 8.223228e+01 6.291948e+01 5.313152e+01 5.008787e+01 3.131545e+01 4.161008e-01 1.091482e+00 1.016218e+00 2.102032e+00 1.365652e+00 2.516380e+00 2.022180e+00 2.229951e+00 2.480495e+00 1.985068e+00 1.939514e+00 1.679993e+00 6.732692e-01
<GCONST> 9.712411e+01
<TRANSP> 5
 0.000000e+00 1.000000e+00 0.000000e+00 0.000000e+00 0.000000e+00
 0.000000e+00 6.387076e-01 3.612924e-01 0.000000e+00 0.000000e+00
 0.000000e+00 0.000000e+00 5.658427e-01 4.341574e-01 0.000000e+00
 0.000000e+00 0.000000e+00 0.000000e+00 8.996431e-01 1.003569e-01
 0.000000e+00 0.000000e+00 0.000000e+00 0.000000e+00 0.000000e+00
<ENDHMM>
~h "ae"
<BEGINHMM>
<NUMSTATES> 5
<STATE> 2
<MEAN> 25
 -1.254738e+00 1.816386e-01 9.363964e-01 4.203966e+00 3.671638e+00 5.112901e+00 1.721090e+00 2.852873e+00 3.532598e+00 5.147542e-01 3.826432e-01 1.787929e+00 1.163931e-01 -6.839699e-01 -1.353375e-01 -2.148970e-01 -2.319531e-01 -1.097996e-01 5.468067e-01 6.676300e-01 -4.872340e-02 -1.635070e-01 -3.747371e-01 -9.420955e-02 5.290636e-01
<VARIANCE> 25
 2.814787e+01 3.575166e+01 1.984608e+01 3.231602e+01 4.173722e+01 5.463192e+01 3.878922e+01 4.527088e+01 3.851847e+01 2.502568e+01 2.524111e+01 2.620040e+01 1.535385e+00 2.393927e+00 1.631070e+00 1.677945e+00 3.170452e+00 3.385281e+00 3.405942e+00 2.766460e+00 2.437612e+00 2.383818e+00 2.433470e+00 1.811647e+00 1.425141e+00
<GCONST> 9.841515e+01
<STATE> 3
<MEAN> 25
 1.366233e-01 -9.555631e+00 -9.923095e-01 -2.339252e+00 -2.169929e+00 -1.801736e+00 6.877158e+00 4.320892e+00 1.456799e+00 -2.053831e+00 -2.064704e+00 -1.154978e+00 5.680575e-01 -1.402036e+00 -1.874804e-01 -9.727160e-01 -9.216084e-01 -1.127820e+00 7.326472e-02 5.377750e-01 -2.258174e-01 -6.941167e-01 -6.306019e-01 -3.478264e-01 2.042476e+00
<VARIANCE> 25
 4.066319e+01 6.769206e+01 3.353653e+01 3.460466e+01 5.413599e+01 7.676649e+01 1.055289e+02 6.104239e+01 4.594513e+01 3.895540e+01 4.323395e+01 2.675519e+01 3.197437e+00 5.986888e+00 2.495197e+00 3.776917e+00 4.201468e+00 5.795198e+00 5.088928e+00 6.182993e+00 4.975796e+00 3.546114e+00 4.522085e+00 2.366899e+00 4.596383e+00
<GCONST> 1.111727e+02
<STATE> 4
<MEAN> 25
 4.339643e+00 -1.037308e+01 -2.692411e+00 -5.294475e+00 -4.954978e+00 -6.711570e+00 4.224404e+00 7.691701e+00 -7.152706e-01 -4.538711e+00 -6.046840e+00 -2.126769e+00 2.914254e-02 4.239630e-01 6.472443e-02 1.526492e-01 5.951029e-02 -3.405194e-02 -1.997461e-01 -3.374957e-02 2.272993e-02 3.116253e-01 9.804329e-03 6.006773e-02 -4.114356e-01
<VARIANCE> 25
 1.490022e+01 4.307643e+01 3.432112e+01 3.012902e+01 3.870724e+01 4.578183e+01 4.738993e+01 6.595995e+01 5.610565e+01 3.958930e+01 4.113171e+01 2.653968e+01 2.841449e-01 7.963036e-01 7.751615e-01 1.069121e+00 1.173119e+00 1.535706e+00 1.435433e+00 1.721841e+00 1.861376e+00 1.377447e+00 1.292004e+00 1.167130e+00 6.559539e-01
<GCONST> 9.033138e+01
<TRANSP> 5
 0.000000e+00 1.000000e+00 0.000000e+00 0.000000e+00 0.000000e+00
 0.000000e+00 6.751945e-01 3.248055e-01 0.000000e+00 0.000000e+00
 0.000000e+00 0.000000e+00 7.808269e-01 2.191731e-01 0.000000e+00
 0.000000e+00 0.000000e+00 0.000000e+00 9.197876e-01 8.021240e-02
 0.000000e+00 0.000000e+00 0.000000e+00 0.000000e+00 0.000000e+00
<ENDHMM>
~h "ah"
<BEGINHMM>
<NUMSTATES> 5
<STATE> 2
<MEAN> 25
 6.688856e-01 2.904212e+00 1.537606e+00 2.151993e+00 2.440051e+00 -1.522993e+00 -2.476824e-01 4.226395e-01 1.674171e+00 2.717279e-01 -1.937782e+00 -1.732604e-01 8.055802e-01 -1.205638e+00 1.589477e-03 -1.287333e+00 -1.049170e+00 -1.063323e+00 -8.472686e-01 5.667054e-02 2.567089e-02 2.094104e-01 1.025087e-01 -4.555076e-01 1.935481e+00
<VARIANCE> 25
 5.061979e+01 5.016713e+01 5.144378e+01 5.653640e+01 6.115493e+01 8.928133e+01 5.996249e+01 4.795140e+01 5.297438e+01 4.096237e+01 3.512614e+01 2.837073e+01 6.092613e+00 6.192303e+00 5.327812e+00 7.716100e+00 7.696921e+00 9.967715e+00 8.937908e+00 7.162205e+00 6.638319e+00 5.914966e+00 5.440880e+00 3.626670e+00 5.474032e+00
<GCONST> 1.171164e+02
<STATE> 3
<MEAN> 25
 5.194478e+00 -3.894480e+00 9.401887e-02 -4.175571e+00 -3.571849e+00 -3.338445e+00 -4.870364e+00 1.058154e-01 9.047377e-01 2.170551e+00 -1.219943e+00 -3.240496e+00 7.104833e-01 -1.384749e+00 -4.107827e-01 -1.330170e+00 -7.479431e-01 -2.323180e-01 -8.065920e-01 5.533416e-01 -1.132327e-01 1.914684e-01 -8.910464e-02 -6.373298e-01 1.548851e+00
<VARIANCE> 25
 2.234999e+01 4.242055e+01 9.125251e+01 7.454394e+01 7.242690e+01 1.018692e+02 1.057461e+02 8.183434e+01 8.162955e+01 6.974671e+01 5.623652e+01 3.780930e+01 2.341517e+00 3.627777e+00 3.829650e+00 6.993508e+00 5.967828e+00 5.918927e+00 6.758222e+00 7.005697e+00 5.962176e+00 6.194682e+00 5.226048e+00 3.678078e+00 4.193676e+00
<GCONST> 1.167555e+02
<STATE> 4
<MEAN> 25
 5.383338e+00 -6.795210e+00 -1.287773e+00 -5.806739e+00 -5.674310e+00 -4.746141e+00 -5.367140e+00 2.199490e+00 4.641851e-01 4.672571e-01 -2.009391e+00 -3.957143e+00 -1.322690e-02 3.274557e-01 4.477177e-03 2.749473e-01 2.336908e-01 2.509894e-01 6.769071e-02 5.160738e-02 9.525607e-02 1.411808e-01 -9.083940e-02 1.758121e-01 -5.010687e-01
<VARIANCE> 25
 1.216124e+01 3.489576e+01 4.732834e+01 6.279934e+01 7.966930e+01 9.862540e+01 7.707494e+01 5.725789e+01 9.104936e+01 6.497450e+01 7.111785e+01 3.962221e+01 3.755496e-01 9.987742e-01 9.648285e-01 1.590549e+00 1.597741e+00 1.687263e+00 1.896642e+00 1.962557e+00 2.102756e+00 1.931341e+00 1.600455e+00 1.428484e+00 6.632386e-01
<GCONST> 9.755674e+01
<TRANSP> 5
 0.000000e+00 1.000000e+00 0.000000e+00 0.000000e+00 0.000000e+00
 0.000000e+00 6.711758e-01 3.288242e-01 0.000000e+00 0.000000e+00
 0.000000e+00 0.000000e+00 6.135550e-01 3.864450e-01 0.000000e+00
 0.000000e+00 0.000000e+00 0.000000e+00 8.923411e-01 1.076589e-01
 0.000000e+00 0.000000e+00 0.000000e+00 0.000000e+00 0.000000e+00
<ENDHMM>
~h "ao"
<BEGINHMM>
<NUMSTATES> 5
<STATE> 2
<MEAN> 25
 5.056549e+00 -9.276502e-01 -5.197495e+00 -7.996086e+00 -1.943967e+00 3.851099e+00 1.571994e+00 -1.848957e+00 -9.271711e-02 6.405478e-01 -5.241033e-01 -2.351498e+00 1.763396e+00 -6.817017e-01 -9.022222e-01 -2.332471e+00 -1.208093e+00 6.352894e-01 -1.847580e-01 -3.930898e-01 -5.266267e-01 -4.491437e-01 7.034613e-02 -5.053061e-01 1.377745e+00
<VARIANCE> 25
 5.826928e+01 4.652434e+01 4.443082e+01 9.922813e+01 6.646336e+01 8.286400e+01 7.163121e+01 6.027383e+01 6.373151e+01 4.781272e+01 3.628185e+01 3.999731e+01 5.006768e+00 4.114456e+00 2.790360e+00 9.169573e+00 6.807582e+00 5.042785e+00 5.787892e+00 5.182594e+00 6.061655e+00 3.481917e+00 3.422710e+00 2.795143e+00 2.969988e+00
<GCONST> 1.141306e+02
<STATE> 3
<MEAN> 25
 9.505157e+00 -5.157982e+00 -9.929477e+00 -1.698199e+01 -5.479299e+00 7.251075e+00 2.533961e+00 -4.191342e+00 -3.724689e+00 -7.754846e-01 8.165311e-01 -3.558398e+00 1.543539e-01 -9.487835e-02 -9.862524e-02 9.442072e-03 -4.413649e-02 5.085152e-01 -1.788483e-01 -1.088034e-02 -2.267123e-01 2.250964e-01 1.676557e-01 2.291015e-01 -1.238815e-01
<VARIANCE> 25
 1.471279e+01 4.472702e+01 2.613318e+01 6.133873e+01 6.872372e+01 4.085855e+01 4.767307e+01 7.674932e+01 7.515797e+01 5.024329e+01 4.351867e+01 2.550166e+01 3.293503e-01 1.080857e+00 6.065944e-01 1.996650e+00 1.427648e+00 1.663399e+00 1.894274e+00 1.715843e+00 1.503626e+00 1.716732e+00 1.349489e+00 9.817528e-01 5.837360e-01
<GCONST> 9.310300e+01
<STATE> 4
<MEAN> 25
 7.366836e+00 3.410169e-01 -6.073926e+00 -1.433028e+01 -2.233849e+00 8.638667e+00 -2.052928e+00 5.035031e-01 -3.349638e-01 1.839526e-03 2.490652e+00 -8.597017e-01 -2.360989e-01 1.134039e-01 1.233858e-01 9.626936e-01 4.326399e-01 -4.615516e-01 -2.702455e-01 1.835615e-01 3.393425e-01 2.022953e-01 3.144791e-03 7.259499e-02 -3.590301e-01
<VARIANCE> 25
 2.375016e+01 2.687180e+01 3.119989e+01 1.672033e+02 3.700929e+01 3.150677e+01 4.973877e+01 3.879369e+01 6.153290e+01 6.183323e+01 3.514800e+01 2.734679e+01 3.182355e-01 9.722389e-01 9.014956e-01 1.934728e+00 1.155736e+00 1.889078e+00 2.083660e+00 1.663675e+00 2.012457e+00 1.775697e+00 1.529214e+00 1.405802e+00 3.975220e-01
<GCONST> 9.322734e+01
<TRANSP> 5
 0.000000e+00 1.000000e+00 0.000000e+00 0.000000e+00 0.000000e+00
 0.000000e+00 7.618141e-01 2.381860e-01 0.000000e+00 0.000000e+00
 0.000000e+00 0.000000e+00 8.336740e-01 1.663260e-01 0.000000e+00
 0.000000e+00 0.000000e+00 0.000000e+00 8.539070e-01 1.460930e-01
 0.000000e+00 0.000000e+00 0.000000e+00 0.000000e+00 0.000000e+00
<ENDHMM>
~h "aw"
<BEGINHMM>
<NUMSTATES> 5
<STATE> 2
<MEAN> 25
 4.153041e+00 -1.951626e+00 -6.042205e+00 -4.255497e+00 4.149089e+00 2.796800e+00 5.764810e-01 -1.693601e-02 1.183646e+00 1.463810e+00 -1.554048e+00 -1.390984e+00 1.992860e+00 -1.332856e+00 -1.177292e+00 -2.913708e+00 -9.536732e-01 3.983512e-01 -1.270663e+00 -2.200661e-01 6.582477e-02 1.620123e-01 7.391800e-02 -8.867140e-01 2.583442e+00
<VARIANCE> 25
 5.441201e+01 5.215376e+01 5.128211e+01 8.366675e+01 5.040496e+01 8.762087e+01 6.132270e+01 4.968393e+01 4.169407e+01 2.204858e+01 3.379852e+01 2.791301e+01 2.806605e+00 3.365564e+00 4.262059e+00 6.616823e+00 3.825848e+00 9.248151e+00 4.965554e+00 8.944666e+00 3.404368e+00 3.686571e+00 2.930281e+00 2.620964e+00 3.096196e+00
<GCONST> 1.109932e+02
<STATE> 3
<MEAN> 25
 1.068917e+01 -5.572378e+00 -1.373859e+01 -8.801420e+00 5.219325e-01 3.976264e+00 -2.081389e+00 -6.505423e+00 3.354043e+00 3.659610e-01 -3.409191e-01 -2.311854e+00 -2.796949e-01 -3.385497e-01 1.932941e-01 -2.714153e-01 -1.011635e-01 3.493768e-01 -1.061839e-01 -1.777106e-01 1.266862e-01 8.121900e-02 -8.372119e-02 -3.093300e-01 2.654344e-01
<VARIANCE> 25
 2.286025e+01 4.787472e+01 8.965981e+01 8.051965e+01 3.575910e+01 1.435407e+02 6.987729e+01 7.909142e+01 7.933855e+01 5.519196e+01 4.248774e+01 3.372137e+01 4.505820e-01 2.143478e+00 2.251399e+00 2.846354e+00 2.581011e+00 4.297117e+00 4.395301e+00 2.428593e+00 4.780700e+00 3.240176e+00 2.731802e+00 2.215829e+00 1.236202e+00
<GCONST> 1.059917e+02
<STATE> 4
<MEAN> 25
 7.809854e+00 -5.036701e+00 -6.195785e+00 -1.372717e+01 -5.759954e-01 6.081388e+00 -4.003730e+00 -3.562880e+00 -9.513963e-01 -8.597796e-01 -1.008112e+00 -4.575564e+00 8.454698e-02 4.845150e-01 2.846061e-01 3.193596e-01 -2.778514e-01 -1.748728e-01 -4.214731e-01 -3.041061e-01 -3.975993e-02 4.256925e-02 1.254656e-01 2.461092e-01 -4.415047e-01
<VARIANCE> 25
 1.113863e+01 5.614875e+01 1.664513e+01 8.378474e+01 2.792216e+01 4.958900e+01 4.988838e+01 8.839923e+01 5.335038e+01 3.588419e+01 2.845031e+01 3.523220e+01 2.769287e-01 5.100459e-01 6.834414e-01 1.618780e+00 1.076851e+00 1.648056e+00 1.717300e+00 1.613474e+00 1.322235e+00 1.328632e+00 1.386853e+00 1.207139e+00 1.859276e-01
<GCONST> 8.885082e+01
<TRANSP> 5
 0.000000e+00 1.000000e+00 0.000000e+00 0.000000e+00 0.000000e+00
 0.000000e+00 7.472218e-01 2.527781e-01 0.000000e+00 0.000000e+00
 0.000000e+00 0.000000e+00 8.463433e-01 1.536567e-01 0.000000e+00
 0.000000e+00 0.000000e+00 0.000000e+00 9.351927e-01 6.480733e-02
 0.000000e+00 0.000000e+00 0.000000e+00 0.000000e+00 0.000000e+00
<ENDHMM>
~h "ay"
<BEGINHMM>
<NUMSTATES> 5
<STATE> 2
<MEAN> 25
 4.628150e+00 -5.898056e+00 -6.811204e+00 -1.002409e+01 3.459513e+00 4.214201e+00 1.302057e+00 -1.990132e+00 4.573030e-01 9.483693e-01 -1.676181e+00 -3.981492e+00 8.256176e-01 -2.100961e+00 -6.572198e-01 -1.818833e+00 3.827946e-01 7.341198e-01 -5.827985e-02 8.679034e-02 -4.272007e-01 -1.198874e-02 -6.792178e-01 -1.204971e+00 1.791644e+00
<VARIANCE> 25
 3.866087e+01 5.705283e+01 3.022481e+01 9.998350e+01 5.094182e+01 8.086501e+01 4.552609e+01 5.802390e+01 5.969757e+01 3.363804e+01 3.438744e+01 3.874646e+01 3.302528e+00 3.276832e+00 2.498135e+00 5.767485e+00 3.853832e+00 5.276052e+00 3.815589e+00 5.565280e+00 3.917670e+00 2.892269e+00 2.944442e+00 2.641000e+00 3.079914e+00
<GCONST> 1.093824e+02
<STATE> 3
<MEAN> 25
 6.198898e+00 -1.216283e+01 -8.962189e+00 -1.187113e+01 5.099403e+00 2.791504e+00 1.475877e+00 -2.108333e+00 6.327398e-01 -9.806046e-01 -5.099763e+00 -7.040295e+00 -1.184069e-01 -3.261643e-01 4.988291e-01 5.384753e-01 -3.926983e-01 -7.705243e-01 -6.802152e-02 7.408051e-01 4.339013e-01 -4.076091e-01 -6.310178e-01 1.745299e-01 3.775182e-02
<VARIANCE> 25
 1.531986e+01 3.428042e+01 1.759515e+01 5.131623e+01 2.108307e+01 5.047190e+01 3.497646e+01 9.605585e+01 6.372270e+01 3.351414e+01 2.942824e+01 3.108879e+01 1.894804e-01 4.682235e-01 7.382370e-01 9.808872e-01 1.390374e+00 1.986939e+00 1.175734e+00 2.094793e+00 1.280304e+00 1.087351e+00 1.154807e+00 1.031267e+00 1.520546e-01
<GCONST> 8.638558e+01
<STATE> 4
<MEAN> 25
 4.104593e+00 -6.809017e+00 5.651679e+00 -3.997157e+00 -9.631475e+00 -6.160081e+00 3.247096e-01 3.736121e+00 -2.772798e+00 -1.093840e+00 -1.563864e+00 -2.654912e+00 -2.355958e-01 1.051335e+00 1.086685e+00 6.318927e-01 -8.052477e-01 -2.648208e-01 -1.128628e-01 -2.679239e-01 -6.183083e-01 2.489416e-01 9.270843e-01 4.061763e-01 -7.340944e-01
<VARIANCE> 25
 9.482117e+00 5.984935e+01 5.074029e+01 4.028228e+01 7.118935e+01 4.189593e+01 3.951540e+01 6.338718e+01 7.633092e+01 3.786309e+01 4.438243e+01 2.728523e+01 3.374614e-01 1.160085e+00 2.523070e+00 1.245638e+00 5.003997e+00 2.382737e+00 2.385657e+00 3.812308e+00 2.898841e+00 1.773034e+00 2.806458e+00 2.015909e+00 3.990933e-01
<GCONST> 9.815047e+01
<TRANSP> 5
 0.000000e+00 1.000000e+00 0.000000e+00 0.000000e+00 0.000000e+00
 0.000000e+00 7.316616e-01 2.683385e-01 0.000000e+00 0.000000e+00
 0.000000e+00 0.000000e+00 8.689150e-01 1.310850e-01 0.000000e+00
 0.000000e+00 0.000000e+00 0.000000e+00 9.008995e-01 9.910049e-02
 0.000000e+00 0.000000e+00 0.000000e+00 0.000000e+00 0.000000e+00
<ENDHMM>
~h "ch"
<BEGINHMM>
<NUMSTATES> 5
<STATE> 2
<MEAN> 25
 7.702670e-01 1.946961e+00 2.851333e+00 2.039412e+00 -6.161246e-01 -1.741998e+00 2.402866e-01 -9.446607e-01 -3.417102e+00 -8.483970e-01 1.145284e+00 1.870676e+00 -9.147443e-01 3.292400e-01 -2.405984e-01 -3.219765e-02 3.643492e-01 3.726114e-01 1.667632e-01 1.451558e-01 2.314859e-01 -1.591445e-01 1.603637e-01 6.228611e-02 -3.546299e-01
<VARIANCE> 25
 2.599708e+01 2.134115e+01 6.055558e+01 3.830467e+01 3.509470e+01 2.518198e+01 4.704948e+01 4.189648e+01 6.198130e+01 2.512293e+01 3.588376e+01 2.979160e+01 2.477672e+00 3.699982e+00 3.784220e+00 4.632731e+00 5.049721e+00 4.081197e+00 5.067686e+00 3.436054e+00 3.910863e+00 2.548132e+00 3.847368e+00 2.257942e+00 3.215906e+00
<GCONST> 1.053020e+02
<STATE> 3
<MEAN> 25
 -1.004286e+01 4.593123e-01 5.860336e+00 -2.046091e+00 3.323503e-01 3.167692e+00 1.613893e+00 -6.801236e-02 1.814655e+00 -6.234318e-01 1.375400e+00 1.553109e+00 -1.831736e+00 -5.895314e-01 9.723089e-01 -4.378938e-01 -9.822651e-01 -1.339755e-01 -8.310997e-02 -2.824169e-01 6.082660e-01 1.163242e-01 4.546910e-01 -3.888900e-01 1.634343e+00
<VARIANCE> 25
 7.752430e+01 4.826077e+01 5.267335e+01 4.185738e+01 7.397891e+01 4.909938e+01 3.384880e+01 3.493511e+01 3.445945e+01 2.494926e+01 2.918704e+01 2.005976e+01 1.115294e+01 3.461410e+00 3.953266e+00 5.501788e+00 8.407039e+00 7.218983e+00 5.305233e+00 4.927514e+00 3.301344e+00 3.497368e+00 2.771352e+00 2.561210e+00 4.160479e+00
<GCONST> 1.102087e+02
<STATE> 4
<MEAN> 25
 -1.470552e+01 -1.472420e+00 6.690639e+00 -3.235608e+00 2.686744e-01 2.702491e+00 5.858788e+00 -2.349203e+00 5.548216e+00 4.310101e-01 1.987237e+00 1.532218e+00 8.367317e-01 -1.560887e-01 5.467034e-02 3.929986e-01 -2.916678e-01 -6.603999e-02 1.286861e-03 4.912318e-02 -5.114834e-02 2.764721e-01 -2.449119e-01 -6.404340e-02 -2.202770e-01
<VARIANCE> 25
 8.404048e+01 1.294453e+01 3.389550e+01 2.875225e+01 3.116980e+01 2.916038e+01 6.341112e+01 3.098092e+01 1.797025e+01 3.412599e+01 1.843908e+01 1.762053e+01 2.987424e+00 7.737194e-01 1.343741e+00 1.063615e+00 1.751842e+00 2.436285e+00 2.794619e+00 2.329830e+00 1.724694e+00 1.879794e+00 1.427449e+00 1.489280e+00 1.483712e+00
<GCONST> 9.326305e+01
<TRANSP> 5
 0.000000e+00 1.000000e+00 0.000000e+00 0.000000e+00 0.000000e+00
 0.000000e+00 7.491011e-01 2.508989e-01 0.000000e+00 0.000000e+00
 0.000000e+00 0.000000e+00 7.870180e-01 2.129820e-01 0.000000e+00
 0.000000e+00 0.000000e+00 0.000000e+00 8.534585e-01 1.465415e-01
 0.000000e+00 0.000000e+00 0.000000e+00 0.000000e+00 0.000000e+00
<ENDHMM>
~h "dh"
<BEGINHMM>
<NUMSTATES> 5
<STATE> 2
<MEAN> 25
 -2.647811e+00 2.222659e+00 -1.630598e-01 5.057640e+00 5.835513e+00 6.671722e+00 1.879674e+00 3.369529e+00 2.625356e+00 2.204724e+00 3.149695e-01 2.774535e+00 -7.887387e-02 4.135949e-02 3.260637e-03 1.063205e-01 1.645848e-01 2.578174e-01 9.387325e-02 -3.070031e-02 -1.899381e-02 -6.172601e-04 -8.645214e-02 -4.140287e-02 -1.294398e-01
<VARIANCE> 25
 8.717946e+00 1.128431e+01 1.289476e+01 1.274471e+01 1.987400e+01 3.103602e+01 2.735735e+01 3.114627e+01 3.555267e+01 2.044217e+01 2.121913e+01 1.575632e+01 2.558837e-01 5.696073e-01 6.904153e-01 8.920963e-01 1.142085e+00 1.635033e+00 1.689366e+00 1.717639e+00 1.798293e+00 1.640646e+00 1.469616e+00 1.335662e+00 1.655322e-01
<GCONST> 8.044777e+01
<STATE> 3
<MEAN> 25
 1.022080e+00 5.926204e+00 2.013927e+00 5.234638e+00 3.557447e+00 1.523135e+00 6.381497e-01 -1.662655e+00 1.317457e-01 -1.540072e+00 -3.541339e+00 3.241603e-01 1.287034e+00 1.083015e+00 4.384957e-01 -3.515845e-01 -1.384240e+00 -1.628332e+00 -9.684247e-01 -2.564476e-01 -1.029914e-01 -5.166230e-01 -4.978729e-01 -5.504190e-01 1.004085e+00
<VARIANCE> 25
 2.488212e+01 2.979376e+01 1.904741e+01 2.663680e+01 3.759581e+01 4.579488e+01 4.036832e+01 2.614845e+01 2.501710e+01 1.989883e+01 2.276728e+01 1.772726e+01 2.260132e+00 2.642787e+00 2.261523e+00 2.309884e+00 3.780991e+00 4.349073e+00 3.518289e+00 4.100923e+00 2.482762e+00 2.148232e+00 2.859817e+00 1.904210e+00 1.446606e+00
<GCONST> 9.805583e+01
<STATE> 4
<MEAN> 25
 3.523540e+00 4.166371e+00 3.487380e+00 2.891825e+00 -5.293408e+00 -4.686051e+00 -3.863469e+00 -2.549919e-01 2.216273e+00 -2.971311e+00 -1.699014e+00 -9.552567e-01 -3.142498e-02 -1.667605e-01 9.420063e-02 -9.128428e-02 5.049108e-02 1.811075e-01 2.068134e-02 2.991210e-01 2.206717e-01 1.014255e-01 1.356486e-01 6.516634e-02 5.193605e-02
<VARIANCE> 25
 1.965658e+01 4.723242e+01 2.913759e+01 3.131470e+01 8.104555e+01 8.553922e+01 3.600929e+01 6.513310e+01 3.730641e+01 3.462807e+01 4.516347e+01 2.452852e+01 5.244019e-01 1.297728e+00 1.303843e+00 1.534324e+00 2.876208e+00 2.417820e+00 1.881178e+00 2.517717e+00 1.700996e+00 1.553559e+00 1.490061e+00 1.249611e+00 1.269843e+00
<GCONST> 9.601010e+01
<TRANSP> 5
 0.000000e+00 1.000000e+00 0.000000e+00 0.000000e+00 0.000000e+00
 0.000000e+00 9.032081e-01 9.679180e-02 0.000000e+00 0.000000e+00
 0.000000e+00 0.000000e+00 7.166912e-01 2.833088e-01 0.000000e+00
 0.000000e+00 0.000000e+00 0.000000e+00 7.978715e-01 2.021285e-01
 0.000000e+00 0.000000e+00 0.000000e+00 0.000000e+00 0.000000e+00
<ENDHMM>
~h "eh"
<BEGINHMM>
<NUMSTATES> 5
<STATE> 2
<MEAN> 25
 1.474511e+00 -1.334987e+00 -6.041482e-01 1.280875e+00 4.013388e-01 -2.651546e+00 7.432709e-01 -1.459539e-02 2.108313e+00 3.136826e+00 -1.891549e+00 -1.395334e+00 9.530124e-01 -1.593466e+00 6.447189e-01 -4.465193e-01 -1.488156e+00 -1.750916e+00 -2.380217e-01 1.233649e+00 2.195767e-01 -6.523730e-01 -6.176520e-01 -3.826004e-01 2.136890e+00
<VARIANCE> 25
 5.362577e+01 5.880592e+01 4.272685e+01 4.339436e+01 6.722366e+01 7.547022e+01 6.122089e+01 5.412097e+01 6.618330e+01 4.700406e+01 3.391388e+01 3.027480e+01 7.232114e+00 4.799537e+00 4.029836e+00 5.171188e+00 5.933924e+00 6.262260e+00 7.599903e+00 7.677279e+00 6.026674e+00 5.274683e+00 4.856287e+00 3.817170e+00 4.086968e+00
<GCONST> 1.151948e+02
<STATE> 3
<MEAN> 25
 3.558958e+00 -7.353897e+00 3.793808e+00 -9.714686e-01 -7.917882e+00 -7.197400e+00 -1.441016e+00 4.755028e+00 -2.791343e-01 -1.204479e+00 -8.983009e-01 -2.453415e+00 6.490446e-01 -1.453021e+00 6.530375e-01 -8.175379e-01 -2.066770e+00 -8.542946e-01 -2.223037e-01 1.492636e+00 -4.057792e-01 -9.404200e-01 2.631728e-02 -3.406167e-01 1.765806e+00
<VARIANCE> 25
 1.960453e+01 5.610569e+01 6.207054e+01 5.389551e+01 6.784241e+01 6.147952e+01 9.106422e+01 8.039634e+01 5.687682e+01 4.652403e+01 4.711459e+01 3.023078e+01 2.599960e+00 3.968945e+00 4.023411e+00 4.806999e+00 7.031376e+00 5.545211e+00 5.715176e+00 7.041003e+00 4.894527e+00 4.796083e+00 4.182794e+00 2.865467e+00 4.120212e+00
<GCONST> 1.131519e+02
<STATE> 4
<MEAN> 25
 4.997660e+00 -1.017910e+01 2.083858e+00 -3.843772e+00 -1.099956e+01 -8.849693e+00 6.899217e-01 7.097751e+00 -1.010262e+00 -3.034823e+00 -2.465234e+00 -2.262198e+00 9.333837e-02 3.278026e-01 -4.022885e-02 2.336574e-01 2.157865e-01 1.588476e-01 -1.711065e-01 -3.442425e-01 2.134197e-02 4.208363e-02 -9.998937e-02 6.612776e-02 -3.901926e-01
<VARIANCE> 25
 1.242179e+01 4.798744e+01 5.445197e+01 3.075024e+01 4.925271e+01 3.630197e+01 6.488891e+01 7.192665e+01 6.776221e+01 4.783807e+01 4.608338e+01 2.802441e+01 3.162664e-01 1.040027e+00 9.818084e-01 1.105783e+00 1.447931e+00 1.418775e+00 1.777986e+00 2.082081e+00 1.720422e+00 1.498442e+00 1.399683e+00 1.062752e+00 5.269176e-01
<GCONST> 9.264749e+01
<TRANSP> 5
 0.000000e+00 1.000000e+00 0.000000e+00 0.000000e+00 0.000000e+00
 0.000000e+00 5.646071e-01 4.353929e-01 0.000000e+00 0.000000e+00
 0.000000e+00 0.000000e+00 6.084762e-01 3.915238e-01 0.000000e+00
 0.000000e+00 0.000000e+00 0.000000e+00 8.867581e-01 1.132419e-01
 0.000000e+00 0.000000e+00 0.000000e+00 0.000000e+00 0.000000e+00
<ENDHMM>
~h "er"
<BEGINHMM>
<NUMSTATES> 5
<STATE> 2
<MEAN> 25
 6.766895e+00 -7.233933e+00 -2.058243e+00 -2.884674e+00 -4.621969e+00 -4.308167e+00 -7.618681e+00 -5.908454e-01 4.171499e-01 2.035018e+00 1.128154e-01 -2.534285e+00 1.114316e+00 -1.054055e+00 -7.143338e-01 4.508077e-01 -5.483402e-01 -1.124188e+00 -1.106744e+00 4.418798e-01 4.166431e-01 -2.400984e-02 -1.944581e-01 3.375912e-01 5.766804e-01
<VARIANCE> 25
 2.680679e+01 5.568520e+01 6.652699e+01 5.914217e+01 6.505798e+01 7.098193e+01 8.865858e+01 6.775482e+01 6.689374e+01 4.736860e+01 4.969837e+01 3.028970e+01 2.615506e+00 3.026387e+00 2.690551e+00 4.362624e+00 4.436744e+00 4.391864e+00 5.072619e+00 4.305100e+00 4.258472e+00 3.197756e+00 3.304601e+00 2.856600e+00 2.246303e+00
<GCONST> 1.102997e+02
<STATE> 3
<MEAN> 25
 1.082020e+01 -1.104601e+01 -7.182731e+00 4.769824e+00 -6.697529e+00 -1.544735e+01 -1.138331e+01 1.738699e+00 2.381126e+00 -2.592223e+00 -2.240851e+00 3.551775e+00 -5.942097e-02 4.464393e-01 7.391417e-02 6.233286e-01 1.747520e-01 -3.411263e-01 1.350054e-01 2.657787e-01 3.697425e-04 -3.829452e-01 -1.059826e-01 3.625927e-01 -4.870997e-01
<VARIANCE> 25
 9.926858e+00 3.231567e+01 3.993941e+01 2.260036e+01 6.616525e+01 5.101776e+01 4.860428e+01 4.005750e+01 4.887982e+01 4.985248e+01 3.843975e+01 2.277346e+01 6.346651e-01 1.126734e+00 1.564400e+00 1.508966e+00 2.030047e+00 2.219731e+00 1.847825e+00 1.968084e+00 2.237639e+00 2.223484e+00 1.538318e+00 1.522060e+00 5.423153e-01
<GCONST> 9.395797e+01
<STATE> 4
<MEAN> 25
 5.773895e+00 -1.903835e+00 -1.846265e+00 6.528563e+00 -2.638827e+00 -7.878544e+00 -4.991786e+00 6.399603e+00 3.266415e+00 -1.885919e+00 1.681670e-01 4.189932e+00 -6.546411e-01 4.169957e-01 3.810851e-01 -1.306880e-01 4.813817e-01 9.030074e-01 5.682470e-01 -2.036057e-01 1.532085e-03 3.442828e-01 7.526429e-02 -7.846148e-02 -6.684380e-01
<VARIANCE> 25
 2.490653e+01 1.745617e+01 2.606075e+01 2.151195e+01 4.214116e+01 7.078787e+01 3.963801e+01 3.474371e+01 3.675338e+01 2.844925e+01 2.206644e+01 2.198918e+01 6.200436e-01 8.414487e-01 9.347225e-01 1.137021e+00 1.465066e+00 2.317011e+00 1.855826e+00 1.885735e+00 1.932753e+00 1.720298e+00 1.478479e+00 1.349596e+00 4.237273e-01
<GCONST> 8.963496e+01
<TRANSP> 5
 0.000000e+00 1.000000e+00 0.000000e+00 0.000000e+00 0.000000e+00
 0.000000e+00 8.175088e-01 1.824912e-01 0.000000e+00 0.000000e+00
 0.000000e+00 0.000000e+00 8.577039e-01 1.422960e-01 0.000000e+00
 0.000000e+00 0.000000e+00 0.000000e+00 8.677133e-01 1.322867e-01
 0.000000e+00 0.000000e+00 0.000000e+00 0.000000e+00 0.000000e+00
<ENDHMM>
~h "ey"
<BEGINHMM>
<NUMSTATES> 5
<STATE> 2
<MEAN> 25
 5.621282e+00 1.087917e+00 9.356326e-01 2.890497e+00 -3.422710e+00 -1.737046e+00 -1.098294e+00 -6.452910e-01 1.407156e+00 8.296711e-01 -3.414358e+00 -1.777171e+00 -1.453848e-01 -5.959157e-01 1.110024e+00 -5.264868e-01 -1.237151e+00 -8.604250e-01 -6.728120e-02 8.325546e-01 -1.047215e-01 -2.952886e-01 2.580680e-01 -2.680524e-01 1.158307e+00
<VARIANCE> 25
 3.405229e+01 6.789806e+01 3.502249e+01 2.384021e+01 5.328632e+01 5.463863e+01 4.508166e+01 6.523125e+01 7.697173e+01 4.972646e+01 4.325157e+01 2.990049e+01 3.223336e+00 4.577220e+00 3.909419e+00 3.020948e+00 6.078607e+00 3.847541e+00 6.606748e+00 7.286438e+00 3.935102e+00 3.806348e+00 3.258315e+00 2.857840e+00 2.378389e+00
<GCONST> 1.097890e+02
<STATE> 3
<MEAN> 25
 3.353735e+00 -4.759738e+00 7.892962e+00 -1.513934e+00 -1.009503e+01 -9.082244e+00 -3.374884e+00 3.519338e+00 -1.935454e+00 -1.117343e+00 2.247641e+00 -1.167378e+00 -5.828148e-01 -1.291916e+00 1.768429e+00 -1.270287e+00 -2.880087e+00 -1.442433e+00 2.020967e-02 1.495963e+00 -1.343540e+00 -4.360353e-02 1.364065e+00 -6.169059e-02 2.016998e+00
<VARIANCE> 25
 1.430104e+01 5.947401e+01 5.336616e+01 3.422948e+01 7.114305e+01 6.694923e+01 8.364660e+01 6.844633e+01 5.182933e+01 5.447184e+01 6.068006e+01 2.877547e+01 1.518641e+00 5.372300e+00 4.713610e+00 3.650930e+00 6.890629e+00 5.878015e+00 7.665895e+00 7.027803e+00 4.504203e+00 4.705411e+00 4.769660e+00 2.807522e+00 4.240337e+00
<GCONST> 1.124606e+02
<STATE> 4
<MEAN> 25
 1.553949e+00 -1.000682e+00 1.189758e+01 -2.131715e+00 -1.580004e+01 -5.910604e+00 -1.519471e+00 -4.490513e-01 -6.645086e+00 -2.664747e-01 5.203394e+00 -3.134442e+00 -1.023385e-01 3.452139e-01 -7.007121e-02 2.172660e-01 4.162384e-01 4.458609e-01 7.634994e-02 -4.044584e-01 -1.041388e-02 7.266371e-02 -1.135764e-01 9.060411e-03 -5.142712e-01
<VARIANCE> 25
 9.760381e+00 4.536439e+01 4.480014e+01 3.871094e+01 6.785338e+01 5.229366e+01 4.439368e+01 6.646501e+01 4.892253e+01 4.595339e+01 3.599034e+01 2.627711e+01 3.033701e-01 9.002649e-01 1.468349e+00 1.228143e+00 2.079041e+00 1.802914e+00 1.766919e+00 1.889048e+00 1.958573e+00 1.609041e+00 1.368495e+00 1.279457e+00 4.052688e-01
<GCONST> 9.285534e+01
<TRANSP> 5
 0.000000e+00 1.000000e+00 0.000000e+00 0.000000e+00 0.000000e+00
 0.000000e+00 6.304016e-01 3.695984e-01 0.000000e+00 0.000000e+00
 0.000000e+00 0.000000e+00 6.477231e-01 3.522769e-01 0.000000e+00
 0.000000e+00 0.000000e+00 0.000000e+00 9.351580e-01 6.484199e-02
 0.000000e+00 0.000000e+00 0.000000e+00 0.000000e+00 0.000000e+00
<ENDHMM>
~h "hh"
<BEGINHMM>
<NUMSTATES> 5
<STATE> 2
<MEAN> 25
 -1.992868e+00 2.253743e+00 3.462293e-01 4.930604e+00 6.215096e+00 8.093853e+00 1.627051e+00 4.224937e+00 1.989208e+00 2.329693e+00 -8.834250e-01 2.232034e+00 -9.618507e-02 -4.714332e-02 3.040209e-02 -1.034124e-02 1.265428e-01 1.900615e-01 1.563848e-01 1.276432e-01 8.108559e-02 1.010000e-01 3.218975e-02 -2.180663e-02 -7.194306e-02
<VARIANCE> 25
 9.722698e+00 9.763412e+00 1.275459e+01 1.352144e+01 1.810747e+01 2.078554e+01 2.205569e+01 2.715074e+01 3.454999e+01 2.007840e+01 1.772247e+01 1.478577e+01 2.331284e-01 4.578920e-01 7.636554e-01 8.029156e-01 1.182643e+00 1.440012e+00 1.557001e+00 1.638186e+00 1.716627e+00 1.448226e+00 1.500147e+00 1.297103e+00 1.589564e-01
<GCONST> 7.856590e+01
<STATE> 3
<MEAN> 25
 -4.505681e+00 -1.865386e+00 3.141369e+00 -1.053176e+00 4.541375e+00 5.138445e+00 5.668810e+00 2.555128e+00 2.799208e+00 3.577724e+00 -8.697301e-02 1.595701e+00 -7.165543e-01 -6.612018e-01 8.281131e-01 -1.181279e+00 -5.967430e-01 -8.918383e-01 4.438298e-01 -2.953803e-01 4.886338e-02 -1.062356e-02 4.104075e-01 -6.339422e-02 1.075313e+00
<VARIANCE> 25
 2.395980e+01 2.996568e+01 4.311132e+01 3.202094e+01 5.068167e+01 3.708776e+01 2.999492e+01 4.942314e+01 3.026102e+01 2.707240e+01 2.876233e+01 2.282224e+01 8.996606e-01 1.360064e+00 2.080491e+00 2.216015e+00 2.341167e+00 2.612974e+00 2.780356e+00 2.845223e+00 2.776054e+00 2.571552e+00 1.953893e+00 1.803346e+00 6.110899e-01
<GCONST> 9.613098e+01
<STATE> 4
<MEAN> 25
 -6.571545e+00 -2.159539e+00 5.510775e+00 -4.061138e+00 -2.004910e+00 -6.613630e-01 3.545543e+00 -2.875766e+00 1.640074e+00 1.072889e+00 2.189028e+00 9.534591e-01 1.791071e-01 1.510826e-02 1.418076e-01 2.348486e-01 -3.522609e-01 -2.523914e-03 -1.551971e-01 -2.806751e-01 -4.166220e-01 -1.804513e-01 3.433454e-02 -1.959820e-01 1.718154e-01
<VARIANCE> 25
 5.485223e+01 5.546104e+01 6.778713e+01 4.567410e+01 1.123048e+02 5.459379e+01 5.849053e+01 7.978219e+01 4.658710e+01 3.731982e+01 3.845693e+01 3.312055e+01 8.716645e-01 1.424327e+00 1.332000e+00 1.737272e+00 2.436925e+00 2.342920e+00 2.401898e+00 3.051869e+00 2.621287e+00 2.272825e+00 2.005194e+00 1.947931e+00 8.678856e-01
<GCONST> 1.015800e+02
<TRANSP> 5
 0.000000e+00 1.000000e+00 0.000000e+00 0.000000e+00 0.000000e+00
 0.000000e+00 8.961329e-01 1.038671e-01 0.000000e+00 0.000000e+00
 0.000000e+00 0.000000e+00 7.418294e-01 2.581706e-01 0.000000e+00
 0.000000e+00 0.000000e+00 0.000000e+00 8.008249e-01 1.991751e-01
 0.000000e+00 0.000000e+00 0.000000e+00 0.000000e+00 0.000000e+00
<ENDHMM>
~h "ih"
<BEGINHMM>
<NUMSTATES> 5
<STATE> 2
<MEAN> 25
 -5.350041e-02 1.671169e-01 4.949423e+00 1.609399e+00 -2.950817e+00 -2.698607e+00 -9.061390e-02 -1.349357e+00 -2.120858e+00 4.023321e-01 9.819822e-01 -9.159104e-01 6.543602e-01 -1.455896e-01 2.587997e+00 -7.507407e-01 -3.215034e+00 -1.906110e+00 -1.032476e+00 -2.886641e-01 -1.818352e+00 -2.037968e-01 8.745737e-01 -9.186947e-01 1.940138e+00
<VARIANCE> 25
 3.986885e+01 4.993335e+01 6.498507e+01 4.069442e+01 8.309338e+01 8.858767e+01 6.763171e+01 5.812394e+01 6.694106e+01 4.186591e+01 3.732578e+01 2.466568e+01 3.792712e+00 4.716466e+00 6.419471e+00 4.704145e+00 7.563477e+00 8.428082e+00 6.644456e+00 7.083393e+00 7.331977e+00 4.718906e+00 4.132989e+00 3.044552e+00 2.933350e+00
<GCONST> 1.148181e+02
<STATE> 3
<MEAN> 25
 1.956739e+00 -7.807620e-01 1.399530e+01 -1.415784e+00 -1.552570e+01 -7.680302e+00 -4.178229e+00 -8.079222e-01 -9.123023e+00 -5.517456e-01 5.423091e+00 -4.355159e+00 -2.970025e-02 5.515215e-02 1.374041e+00 -8.523262e-01 -1.800732e+00 -2.388031e-01 -3.850780e-01 2.111445e-01 -1.192200e+00 -1.999293e-01 9.235992e-01 -7.080004e-01 1.042375e+00
<VARIANCE> 25
 1.491257e+01 5.418908e+01 6.847604e+01 3.617007e+01 5.777159e+01 7.959674e+01 4.288760e+01 6.294468e+01 7.605132e+01 6.907724e+01 3.250296e+01 2.513281e+01 1.576091e+00 1.815638e+00 3.708713e+00 3.535208e+00 5.869674e+00 4.069547e+00 4.992710e+00 4.178255e+00 4.203539e+00 4.324146e+00 2.572597e+00 2.248715e+00 2.125870e+00
<GCONST> 1.073084e+02
<STATE> 4
<MEAN> 25
 1.660712e+00 -6.454915e-02 1.254918e+01 -3.175529e+00 -1.514417e+01 -8.042485e+00 -4.351972e+00 -2.146907e+00 -9.372965e+00 -1.316681e+00 5.331460e+00 -5.087717e+00 6.021184e-02 1.807892e-01 -5.781754e-01 1.326753e-01 5.827283e-01 2.116807e-01 2.507519e-01 -5.398438e-02 2.954988e-01 1.157866e-01 -3.841878e-01 2.371782e-01 -3.992805e-01
<VARIANCE> 25
 6.685435e+00 4.078875e+01 4.658870e+01 3.492827e+01 4.635992e+01 6.506376e+01 4.361835e+01 4.774249e+01 5.622787e+01 4.891130e+01 3.464012e+01 2.919535e+01 4.443361e-01 8.410960e-01 1.524073e+00 1.541555e+00 2.380386e+00 2.077888e+00 2.008126e+00 2.397136e+00 2.271496e+00 1.856099e+00 1.775745e+00 1.444747e+00 7.816430e-01
<GCONST> 9.461623e+01
<TRANSP> 5
 0.000000e+00 1.000000e+00 0.000000e+00 0.000000e+00 0.000000e+00
 0.000000e+00 7.050843e-01 2.949157e-01 0.000000e+00 0.000000e+00
 0.000000e+00 0.000000e+00 5.459132e-01 4.540869e-01 0.000000e+00
 0.000000e+00 0.000000e+00 0.000000e+00 8.706339e-01 1.293661e-01
 0.000000e+00 0.000000e+00 0.000000e+00 0.000000e+00 0.000000e+00
<ENDHMM>
~h "iy"
<BEGINHMM>
<NUMSTATES> 5
<STATE> 2
<MEAN> 25
 1.280939e-01 1.405066e+00 9.217335e+00 2.907902e+00 -7.289843e+00 -6.139777e+00 -1.928776e+00 -4.109432e+00 -2.974970e+00 -1.009670e+00 9.505876e-01 -1.190630e+00 4.936943e-01 2.649186e-01 2.534642e+00 -2.409776e-01 -2.628842e+00 -1.152095e+00 -9.212599e-01 -3.535739e-01 -1.575472e+00 -6.403773e-01 9.973037e-01 -7.039832e-01 1.437631e+00
<VARIANCE> 25
 5.359731e+01 5.880232e+01 6.238428e+01 5.174792e+01 8.295833e+01 8.805335e+01 7.372668e+01 5.054314e+01 6.222253e+01 4.591216e+01 3.475218e+01 2.731013e+01 4.379011e+00 4.784712e+00 4.404942e+00 4.919279e+00 7.478378e+00 6.539270e+00 6.832781e+00 6.288594e+00 5.626274e+00 4.792619e+00 3.734807e+00 3.178354e+00 2.256214e+00
<GCONST> 1.143654e+02
<STATE> 3
<MEAN> 25
 1.414170e+00 1.196885e+00 1.633300e+01 2.760942e-01 -1.643690e+01 -8.525174e+00 -5.802978e+00 -4.514667e+00 -9.140604e+00 -2.615673e+00 6.403391e+00 -4.387078e+00 -8.921934e-02 4.285147e-01 4.375948e-01 -4.885972e-01 -5.073510e-01 3.990610e-01 -2.596715e-01 -2.827178e-01 -4.202351e-01 9.967594e-02 4.469724e-01 -4.349891e-01 -6.462895e-02
<VARIANCE> 25
 1.058200e+01 3.522519e+01 4.447529e+01 3.074303e+01 5.376034e+01 6.757529e+01 4.568118e+01 7.100176e+01 5.514960e+01 6.299307e+01 2.833188e+01 3.272519e+01 8.652047e-01 1.625658e+00 2.624630e+00 2.401873e+00 4.203950e+00 2.984086e+00 3.186110e+00 3.235863e+00 3.705936e+00 2.865656e+00 2.482323e+00 1.954282e+00 1.531851e+00
<GCONST> 1.017690e+02
<STATE> 4
<MEAN> 25
 -1.859228e-01 5.039794e+00 1.403842e+01 -1.324604e+00 -1.187403e+01 -4.307961e+00 -5.791502e+00 -8.540675e+00 -6.500397e+00 -1.803218e+00 3.609159e+00 -4.316978e+00 -1.001246e-02 3.702463e-02 -5.965922e-01 2.465247e-01 6.948498e-01 3.692477e-01 2.818666e-01 2.494445e-01 2.930746e-01 1.751331e-01 -2.713763e-01 3.063282e-01 -5.549573e-01
<VARIANCE> 25
 8.147241e+00 1.995449e+01 4.438886e+01 3.818009e+01 8.889210e+01 4.914748e+01 3.383698e+01 5.585167e+01 5.689645e+01 4.347094e+01 3.405922e+01 3.732940e+01 3.437945e-01 7.125132e-01 1.307594e+00 1.289029e+00 2.296449e+00 1.689722e+00 1.616938e+00 1.925411e+00 1.797167e+00 1.579304e+00 1.440094e+00 1.394691e+00 4.616098e-01
<GCONST> 9.193564e+01
<TRANSP> 5
 0.000000e+00 1.000000e+00 0.000000e+00 0.000000e+00 0.000000e+00
 0.000000e+00 7.202517e-01 2.797483e-01 0.000000e+00 0.000000e+00
 0.000000e+00 0.000000e+00 7.369766e-01 2.630234e-01 0.000000e+00
 0.000000e+00 0.000000e+00 0.000000e+00 9.311175e-01 6.888248e-02
 0.000000e+00 0.000000e+00 0.000000e+00 0.000000e+00 0.000000e+00
<ENDHMM>
~h "jh"
<BEGINHMM>
<NUMSTATES> 5
<STATE> 2
<MEAN> 25
 -1.920479e+00 3.858408e+00 3.579205e+00 6.042863e-01 4.466085e+00 3.445545e+00 1.758302e+00 -5.685499e-02 -8.915439e-01 -5.326666e-02 3.302119e-01 6.562146e-01 -1.200348e+00 -1.936333e-01 -2.705703e-01 -1.074328e+00 5.241605e-01 7.831699e-02 1.493682e-01 1.166406e-01 7.450779e-01 -1.268915e-01 1.480611e-01 -1.023492e-01 6.136928e-01
<VARIANCE> 25
 3.432425e+01 2.685682e+01 3.235061e+01 6.103176e+01 4.595870e+01 4.806124e+01 2.626876e+01 3.206191e+01 4.634428e+01 2.862969e+01 2.544555e+01 1.749080e+01 3.985997e+00 2.514302e+00 2.477630e+00 4.700188e+00 3.501881e+00 4.053202e+00 3.455717e+00 3.157681e+00 3.347364e+00 2.682446e+00 2.491513e+00 1.689068e+00 2.215191e+00
<GCONST> 1.023160e+02
<STATE> 3
<MEAN> 25
 -1.351252e+01 8.808572e-01 3.980572e+00 -5.037234e+00 9.267672e-01 1.375421e+00 4.359054e+00 -3.871809e+00 3.791064e+00 -8.389487e-01 1.020352e+00 1.046310e+00 -1.191046e-01 -1.221414e-01 1.156549e+00 6.402251e-01 -8.395565e-01 -6.827955e-01 -6.387797e-02 -9.766358e-01 -1.145625e-01 2.138620e-01 -2.289499e-01 2.167388e-01 3.044320e-01
<VARIANCE> 25
 4.819008e+01 5.625549e+01 5.953197e+01 2.105087e+01 4.800456e+01 3.402162e+01 3.421786e+01 3.183537e+01 3.150531e+01 3.084552e+01 1.488220e+01 1.473707e+01 5.587040e+00 1.558270e+00 2.428461e+00 1.851768e+00 2.486145e+00 3.357692e+00 4.604271e+00 2.356563e+00 2.535354e+00 2.217237e+00 1.355512e+00 1.454783e+00 2.044255e+00
<GCONST> 9.894100e+01
<STATE> 4
<MEAN> 25
 -5.305344e+00 -1.088878e+00 9.347136e+00 3.848083e-01 -4.048575e+00 -2.107036e+00 7.090437e-01 -6.978257e+00 1.475151e+00 -6.488143e-01 5.089454e-01 2.018343e+00 1.191082e+00 -7.375485e-01 -3.992679e-01 5.737153e-01 -5.379152e-01 -3.011226e-01 -4.701469e-01 4.268577e-01 6.808406e-02 -2.125667e-01 2.984650e-01 -1.372139e-01 -2.357889e-01
<VARIANCE> 25
 2.951233e+01 5.781085e+01 3.832037e+01 1.406144e+01 7.695163e+01 1.135890e+02 2.942046e+01 3.437553e+01 4.254431e+01 4.600411e+01 2.528336e+01 1.169539e+01 1.978778e+00 2.204260e+00 2.031662e+00 1.087988e+00 5.595058e+00 4.134401e+00 2.520464e+00 2.351610e+00 2.361419e+00 1.738201e+00 1.588704e+00 1.095324e+00 1.089752e+00
<GCONST> 9.818061e+01
<TRANSP> 5
 0.000000e+00 1.000000e+00 0.000000e+00 0.000000e+00 0.000000e+00
 0.000000e+00 8.302214e-01 1.697786e-01 0.000000e+00 0.000000e+00
 0.000000e+00 0.000000e+00 7.955813e-01 2.044188e-01 0.000000e+00
 0.000000e+00 0.000000e+00 0.000000e+00 7.745544e-01 2.254457e-01
 0.000000e+00 0.000000e+00 0.000000e+00 0.000000e+00 0.000000e+00
<ENDHMM>
~h "ng"
<BEGINHMM>
<NUMSTATES> 5
<STATE> 2
<MEAN> 25
 4.029259e+00 2.324956e+00 8.084348e+00 -4.912254e+00 -1.249938e+01 2.036058e+00 1.792097e+00 -7.956219e+00 -1.232524e+01 2.810852e+00 2.128227e+00 -6.252106e+00 8.749167e-01 3.588398e-01 -1.838750e+00 1.277736e+00 1.530423e+00 4.033091e-01 2.033447e-02 -1.036596e+00 4.514020e-01 3.771879e-01 -8.778514e-01 5.757831e-01 -9.996006e-01
<VARIANCE> 25
 9.543211e+00 2.873288e+01 5.181653e+01 4.283173e+01 3.327258e+01 4.373161e+01 3.520445e+01 6.300977e+01 4.630713e+01 3.395804e+01 4.910749e+01 2.097611e+01 5.856849e-01 8.881878e-01 1.641391e+00 3.041161e+00 3.463733e+00 4.211557e+00 3.268179e+00 2.248156e+00 2.933058e+00 3.670793e+00 1.789456e+00 2.087182e+00 2.897463e-01
<GCONST> 9.663506e+01
<STATE> 3
<MEAN> 25
 7.208111e+00 5.055144e+00 2.832844e+00 1.859917e+00 -6.974625e+00 2.524827e+00 4.639688e-01 -1.001313e+01 -7.490402e+00 7.424495e-01 -9.338443e-01 -2.084854e+00 -1.443070e-01 3.039655e-01 -5.690396e-03 6.027337e-01 9.611152e-01 3.096734e-01 1.266126e-01 2.278791e-01 5.426115e-01 -2.604394e-01 -2.055328e-01 5.287699e-01 -7.124547e-01
<VARIANCE> 25
 1.022251e+01 2.659798e+01 2.570361e+01 2.138301e+01 3.641897e+01 1.736077e+01 2.010627e+01 2.848005e+01 3.317041e+01 2.011778e+01 2.544133e+01 1.971288e+01 7.304082e-01 8.438383e-01 1.157351e+00 9.337007e-01 2.446586e+00 1.363078e+00 1.537657e+00 1.862296e+00 1.775752e+00 1.528753e+00 1.302011e+00 1.378738e+00 3.244924e-01
<GCONST> 8.569038e+01
<STATE> 4
<MEAN> 25
 1.659292e-01 4.203164e+00 1.980070e+00 6.034042e+00 5.110933e+00 6.416749e+00 2.107251e+00 -8.205477e-01 -5.973473e-02 3.889886e-01 -8.850748e-01 1.815916e+00 -3.966394e-01 -2.212384e-01 -2.538046e-01 9.840339e-02 3.955834e-01 6.840460e-03 6.292845e-02 5.084550e-01 4.156528e-01 -2.674669e-03 3.549240e-02 7.427615e-02 -3.075895e-01
<VARIANCE> 25
 1.559277e+01 9.907172e+00 1.557117e+01 1.267036e+01 2.306212e+01 2.802206e+01 2.488350e+01 3.938780e+01 3.722142e+01 2.218470e+01 1.916635e+01 1.785889e+01 5.613489e-01 5.894901e-01 8.882940e-01 1.166228e+00 1.713757e+00 1.998506e+00 1.720821e+00 1.889832e+00 1.719838e+00 1.575081e+00 1.578221e+00 1.450752e+00 3.281444e-01
<GCONST> 8.423287e+01
<TRANSP> 5
 0.000000e+00 1.000000e+00 0.000000e+00 0.000000e+00 0.000000e+00
 0.000000e+00 7.672414e-01 2.327586e-01 0.000000e+00 0.000000e+00
 0.000000e+00 0.000000e+00 8.708325e-01 1.291675e-01 0.000000e+00
 0.000000e+00 0.000000e+00 0.000000e+00 9.051458e-01 9.485414e-02
 0.000000e+00 0.000000e+00 0.000000e+00 0.000000e+00 0.000000e+00
<ENDHMM>
~h "ow"
<BEGINHMM>
<NUMSTATES> 5
<STATE> 2
<MEAN> 25
 8.092394e+00 -2.850826e+00 -6.491867e+00 -8.460496e+00 -2.628187e+00 3.893963e+00 -5.433026e+00 -5.448386e+00 1.767788e+00 2.147740e+00 3.302503e+00 -3.738434e+00 1.207546e+00 -2.732860e-01 -5.362668e-01 -1.912062e+00 -1.320773e+00 1.453770e+00 -1.510028e-01 -5.406456e-01 -7.097620e-01 3.101353e-02 9.711981e-01 -2.974157e-01 7.815018e-01
<VARIANCE> 25
 2.801670e+01 3.999688e+01 3.306711e+01 5.293944e+01 5.218490e+01 7.436626e+01 8.407151e+01 7.977366e+01 7.525214e+01 4.216865e+01 6.718936e+01 4.280221e+01 2.863719e+00 2.519097e+00 2.829828e+00 5.284385e+00 5.656974e+00 3.971483e+00 5.585867e+00 5.525658e+00 3.371321e+00 3.325359e+00 3.272242e+00 3.405304e+00 2.342182e+00
<GCONST> 1.104389e+02
<STATE> 3
<MEAN> 25
 1.072785e+01 -1.718108e+00 -7.044354e+00 -1.562248e+01 -7.972673e+00 7.902981e+00 -5.754735e+00 -6.074672e+00 -5.817609e+00 -5.636794e-01 6.670015e+00 -1.339341e+00 2.618346e-02 5.169569e-01 4.726641e-02 -7.594807e-02 1.357560e-01 4.831919e-02 2.316745e-02 1.957556e-01 -3.791297e-01 -1.460283e-01 -3.820690e-01 2.481703e-01 -4.608038e-01
<VARIANCE> 25
 8.651430e+00 3.211247e+01 1.674045e+01 6.894576e+01 3.550312e+01 3.511592e+01 4.476878e+01 8.492877e+01 4.311012e+01 4.658893e+01 4.132476e+01 2.908710e+01 2.934185e-01 1.085475e+00 6.028985e-01 2.635182e+00 1.700922e+00 2.074563e+00 1.758090e+00 2.311958e+00 2.251062e+00 2.307402e+00 1.934725e+00 2.070556e+00 5.392318e-01
<GCONST> 9.309326e+01
<STATE> 4
<MEAN> 25
 7.866337e+00 4.283013e+00 -3.876185e+00 -1.044781e+01 -2.600842e+00 5.656545e+00 -3.957744e+00 7.059634e-01 -5.073099e+00 -4.929549e-01 1.738181e+00 1.702176e+00 -4.272398e-01 -4.487339e-02 3.571221e-01 1.014003e+00 4.902117e-01 -2.699640e-01 2.029665e-01 3.474025e-02 5.505290e-01 1.725940e-01 -1.970994e-01 7.134496e-02 -5.268447e-01
<VARIANCE> 25
 1.561637e+01 2.223449e+01 1.869827e+01 1.228877e+02 3.911241e+01 3.151530e+01 3.596812e+01 4.111021e+01 4.372982e+01 3.618866e+01 2.526632e+01 2.557995e+01 4.122595e-01 6.969266e-01 7.847182e-01 1.732694e+00 1.489576e+00 1.606329e+00 1.755630e+00 2.164349e+00 2.194804e+00 1.453662e+00 1.493168e+00 1.276883e+00 3.054335e-01
<GCONST> 8.967739e+01
<TRANSP> 5
 0.000000e+00 1.000000e+00 0.000000e+00 0.000000e+00 0.000000e+00
 0.000000e+00 7.479456e-01 2.520544e-01 0.000000e+00 0.000000e+00
 0.000000e+00 0.000000e+00 8.404871e-01 1.595129e-01 0.000000e+00
 0.000000e+00 0.000000e+00 0.000000e+00 8.814890e-01 1.185110e-01
 0.000000e+00 0.000000e+00 0.000000e+00 0.000000e+00 0.000000e+00
<ENDHMM>
~h "oy"
<BEGINHMM>
<NUMSTATES> 5
<STATE> 2
<MEAN> 25
 8.180921e+00 1.586325e+00 -2.991538e+00 -5.561723e+00 -3.096586e+00 2.168195e+00 7.973349e-01 -5.483172e+00 -1.129950e+01 -3.548854e+00 -1.042031e+00 6.694809e-01 2.537394e-01 -5.998744e-01 -2.974406e-01 -2.628266e+00 -6.887053e-01 2.305588e-01 -2.682055e-01 4.338294e-02 -5.454366e-01 -1.215717e-02 9.338083e-01 -4.479759e-01 9.786723e-01
<VARIANCE> 25
 2.314590e+01 4.255280e+01 9.538519e+00 2.361293e+02 3.333461e+01 3.471265e+01 5.484627e+01 3.328546e+01 7.639457e+01 2.644091e+01 2.075968e+01 2.327530e+01 3.247085e+00 3.515856e+00 1.686435e+00 1.217269e+01 1.003475e+01 3.297064e+00 9.000717e-01 1.770949e+00 6.859301e+00 5.025386e+00 3.922106e+00 2.805163e+00 1.856783e+00
<GCONST> 1.048930e+02
<STATE> 3
<MEAN> 25
 6.595686e+00 1.939065e+00 1.511436e+00 -8.989434e+00 -2.086656e+00 1.547708e+00 -8.470106e-02 -5.243329e+00 -6.593795e-01 3.413527e+00 2.976453e+00 -7.615263e-01 5.880259e-01 -1.400199e+00 -2.950715e-01 -7.374777e-01 -4.541498e-02 -3.729219e-01 -8.938109e-01 -4.735895e-01 4.839501e-01 1.608390e+00 -2.739674e-01 -1.174632e-01 8.769073e-01
<VARIANCE> 25
 8.299235e+01 5.288865e+01 1.290318e+02 9.415382e+01 8.355183e+01 1.058147e+02 8.680855e+01 7.482573e+01 5.364951e+01 8.661579e+01 3.214384e+01 3.800340e+01 7.770409e+00 1.570256e+00 1.080256e+01 1.316536e+01 1.425710e+01 1.207140e+01 4.928929e+00 6.702085e+00 7.337807e+00 3.552704e+00 3.798379e+00 3.857306e+00 1.013717e+00
<GCONST> 1.192202e+02
<STATE> 4
<MEAN> 25
 8.034338e+00 -6.043182e+00 1.657519e+00 -4.935014e+00 -7.802051e+00 -2.292956e+00 -5.298631e+00 7.880815e-01 -3.378082e+00 8.655293e+00 1.813291e+00 -4.356571e+00 -4.268715e-01 4.422262e-01 1.085358e+00 8.652925e-01 -6.807510e-01 -4.849061e-01 3.116455e-01 4.176935e-01 -5.959136e-01 -2.109803e-01 2.664726e-01 1.884806e-01 -3.177332e-01
<VARIANCE> 25
 2.591683e+01 3.537968e+01 9.382664e+01 1.387296e+02 1.227083e+02 9.517714e+01 3.225359e+01 8.000607e+01 1.670691e+02 5.688771e+01 4.194976e+01 4.752459e+01 6.324357e-01 9.875975e-01 3.006537e+00 3.184492e+00 3.299228e+00 4.792993e+00 2.410123e+00 5.134275e+00 3.651457e+00 2.513342e+00 3.097494e+00 2.998231e+00 3.645046e-01
<GCONST> 1.067215e+02
<TRANSP> 5
 0.000000e+00 1.000000e+00 0.000000e+00 0.000000e+00 0.000000e+00
 0.000000e+00 6.507720e-01 3.492280e-01 0.000000e+00 0.000000e+00
 0.000000e+00 0.000000e+00 8.546936e-01 1.453064e-01 0.000000e+00
 0.000000e+00 0.000000e+00 0.000000e+00 9.233140e-01 7.668599e-02
 0.000000e+00 0.000000e+00 0.000000e+00 0.000000e+00 0.000000e+00
<ENDHMM>
~h "sh"
<BEGINHMM>
<NUMSTATES> 5
<STATE> 2
<MEAN> 25
 -1.941143e+00 1.390551e+00 5.667242e+00 3.995404e-01 -2.206698e+00 -6.418284e+00 -5.268384e-01 -3.122878e-01 -5.999111e-01 -1.564955e-01 1.405483e+00 6.340718e-02 -2.814265e+00 1.086743e+00 4.789680e-01 4.521756e-01 1.379226e+00 3.609489e-01 9.361187e-01 5.084376e-02 1.338100e+00 -9.098654e-01 7.545626e-01 -7.781187e-02 1.419196e-01
<VARIANCE> 25
 5.180380e+01 4.591166e+01 5.560453e+01 3.276661e+01 5.333333e+01 6.397175e+01 6.383499e+01 3.551904e+01 6.096762e+01 3.186166e+01 4.917939e+01 2.416569e+01 5.353651e+00 2.505646e+00 4.661347e+00 3.928536e+00 4.455431e+00 3.875265e+00 3.759486e+00 4.497590e+00 6.867400e+00 3.276675e+00 5.131171e+00 2.812090e+00 1.237748e+00
<GCONST> 1.089189e+02
<STATE> 3
<MEAN> 25
 -1.578747e+01 2.522874e+00 7.882058e+00 -3.247118e+00 2.697022e+00 1.213407e+00 1.366312e+00 8.429306e-01 3.878939e+00 -2.877652e+00 5.500892e+00 -8.408772e-01 -2.156991e+00 -2.179335e-01 3.150938e-01 -5.949351e-01 7.673164e-03 1.014312e+00 8.931510e-01 -3.180720e-02 3.974351e-01 1.514732e-01 3.619470e-01 1.734563e-02 6.281610e-01
<VARIANCE> 25
 2.110975e+01 2.342692e+01 4.361444e+01 3.014540e+01 3.022363e+01 3.597166e+01 8.784473e+01 3.776749e+01 2.766111e+01 3.507622e+01 3.020866e+01 3.526598e+01 3.524827e+00 1.418972e+00 2.509104e+00 1.576702e+00 1.711679e+00 2.240078e+00 1.883832e+00 2.869536e+00 2.340858e+00 2.228878e+00 1.834016e+00 1.464890e+00 1.198672e+00
<GCONST> 9.711693e+01
<STATE> 4
<MEAN> 25
 -1.838683e+01 -1.098749e+00 7.920236e+00 -1.659196e+00 2.203295e-01 2.257180e+00 7.274281e+00 -1.756757e+00 5.399632e+00 5.536849e-01 3.144279e+00 4.957121e-01 7.918783e-01 -2.012126e-01 1.309472e-01 2.895244e-01 -4.594289e-01 -2.889948e-01 -2.314956e-01 -1.441103e-01 -2.465287e-01 -2.201517e-02 -3.546009e-01 7.360828e-02 -2.719132e-01
<VARIANCE> 25
 4.031316e+01 3.625058e+01 5.768209e+01 2.610549e+01 5.154723e+01 3.375351e+01 3.392302e+01 2.812858e+01 2.418207e+01 2.251140e+01 3.441185e+01 1.740215e+01 2.834049e+00 1.309697e+00 1.540563e+00 1.306255e+00 1.476141e+00 2.062070e+00 2.179749e+00 1.880776e+00 2.081464e+00 1.769857e+00 1.746925e+00 1.303916e+00 6.884577e-01
<GCONST> 9.385699e+01
<TRANSP> 5
 0.000000e+00 1.000000e+00 0.000000e+00 0.000000e+00 0.000000e+00
 0.000000e+00 7.440028e-01 2.559972e-01 0.000000e+00 0.000000e+00
 0.000000e+00 0.000000e+00 7.289876e-01 2.710124e-01 0.000000e+00
 0.000000e+00 0.000000e+00 0.000000e+00 9.042191e-01 9.578091e-02
 0.000000e+00 0.000000e+00 0.000000e+00 0.000000e+00 0.000000e+00
<ENDHMM>
~h "sp"
<BEGINHMM>
<NUMSTATES> 3
<STATE> 2
~s "silst"
<TRANSP> 3
 0.000000e+00 3.533333e-01 6.466667e-01
 0.000000e+00 9.293646e-01 7.063544e-02
 0.000000e+00 0.000000e+00 0.000000e+00
<ENDHMM>
~h "th"
<BEGINHMM>
<NUMSTATES> 5
<STATE> 2
<MEAN> 25
 -3.802158e+00 1.298406e+00 -1.413542e+00 5.153222e+00 5.877436e+00 7.148623e+00 3.020583e+00 3.008342e+00 4.984179e+00 3.965045e-01 -2.426631e-01 2.716149e+00 -3.537352e-01 -6.275032e-02 -9.524351e-03 1.036637e-01 1.008338e-02 1.926873e-01 1.491656e-01 4.623865e-02 1.283745e-01 1.671623e-01 1.342739e-01 1.567351e-01 -1.912820e-01
<VARIANCE> 25
 1.241803e+01 1.244177e+01 1.990089e+01 1.970225e+01 2.159092e+01 3.173581e+01 1.968475e+01 3.345608e+01 2.439959e+01 2.509289e+01 2.047659e+01 1.989631e+01 4.894111e-01 8.871614e-01 1.052918e+00 1.328226e+00 1.067766e+00 1.603081e+00 2.085003e+00 1.882132e+00 1.666927e+00 1.537369e+00 1.454984e+00 1.716653e+00 3.830717e-01
<GCONST> 8.470808e+01
<STATE> 3
<MEAN> 25
 -6.301313e+00 6.074554e-01 -1.345719e+00 3.730226e+00 4.382432e+00 3.421806e+00 3.737995e+00 1.636100e+00 3.554003e+00 2.035069e+00 7.831725e-01 2.294016e+00 -7.746121e-02 -6.150888e-01 -2.323487e-01 -9.667557e-01 -9.999046e-01 -1.517699e+00 -1.571352e-01 2.444147e-01 -1.214377e-01 -9.881219e-02 4.741273e-01 -7.108325e-02 1.126622e+00
<VARIANCE> 25
 1.803893e+01 1.053723e+01 1.849735e+01 2.304635e+01 2.718130e+01 2.843466e+01 2.538907e+01 3.740559e+01 3.127225e+01 2.384813e+01 1.247263e+01 1.666896e+01 2.828543e+00 2.248442e+00 2.303460e+00 4.447659e+00 2.946954e+00 4.752836e+00 3.411645e+00 5.478213e+00 2.736250e+00 4.322522e+00 2.342475e+00 1.834233e+00 4.646287e+00
<GCONST> 9.791592e+01
<STATE> 4
<MEAN> 25
 -4.788325e-01 -1.708744e+00 1.566892e+00 -4.122409e+00 -1.986020e+00 -4.911609e+00 8.634931e-01 2.125676e+00 1.308360e+00 -1.428516e+00 -1.646163e+00 -1.991173e+00 2.340769e-01 -2.033263e-01 -5.506206e-02 -2.944038e-01 -1.481828e-01 -3.057474e-01 7.546782e-02 -9.905623e-02 -3.184208e-01 -7.567762e-02 -8.710341e-02 -2.593223e-01 5.883198e-01
<VARIANCE> 25
 4.655013e+01 6.434084e+01 6.014588e+01 4.815978e+01 1.172743e+02 6.490845e+01 5.939556e+01 4.517629e+01 4.608388e+01 4.712521e+01 7.939271e+01 3.672307e+01 3.483820e+00 3.405558e+00 2.826715e+00 4.261569e+00 4.345175e+00 6.188954e+00 3.472049e+00 4.427539e+00 4.336068e+00 3.222287e+00 5.041997e+00 2.949794e+00 4.856838e+00
<GCONST> 1.123200e+02
<TRANSP> 5
 0.000000e+00 1.000000e+00 0.000000e+00 0.000000e+00 0.000000e+00
 0.000000e+00 9.143830e-01 8.561698e-02 0.000000e+00 0.000000e+00
 0.000000e+00 0.000000e+00 5.777282e-01 4.222718e-01 0.000000e+00
 0.000000e+00 0.000000e+00 0.000000e+00 8.439940e-01 1.560061e-01
 0.000000e+00 0.000000e+00 0.000000e+00 0.000000e+00 0.000000e+00
<ENDHMM>
~h "uh"
<BEGINHMM>
<NUMSTATES> 5
<STATE> 2
<MEAN> 25
 3.410689e+00 3.185992e+00 2.119108e+00 -2.016516e-01 -2.199570e+00 -5.590352e+00 -9.158208e+00 -5.123661e+00 -3.877897e+00 -2.864138e+00 -1.731632e-01 -3.142249e+00 1.739923e+00 3.757850e-01 -1.400660e-01 -1.397640e+00 -2.207839e+00 -8.248919e-01 -2.550946e+00 -9.487190e-01 -4.213730e-01 -7.185399e-01 1.233351e+00 -4.465855e-01 1.109283e+00
<VARIANCE> 25
 3.443515e+01 2.687092e+01 8.789327e+01 9.204013e+01 9.809041e+01 9.378194e+01 9.172324e+01 6.698969e+01 7.037024e+01 5.092445e+01 6.240083e+01 4.059706e+01 3.619894e+00 2.836984e+00 2.487222e+00 3.380800e+00 6.842181e+00 6.396498e+00 5.426776e+00 4.031680e+00 4.358893e+00 7.118461e+00 1.910534e+00 3.313214e+00 2.060347e+00
<GCONST> 1.129729e+02
<STATE> 3
<MEAN> 25
 5.306086e+00 -6.930320e-01 -7.293082e-01 -1.539955e+00 -1.109514e+01 -7.767457e+00 -1.205074e+01 -7.297026e+00 9.629526e-01 -6.866811e+00 4.739579e+00 -1.627840e+00 7.785385e-02 -2.579256e-01 -1.493946e-01 -6.318037e-01 2.097153e-02 8.909637e-01 -4.606572e-01 -2.402404e-01 2.703519e-01 2.844006e-01 4.378721e-01 3.252432e-02 -2.066085e-02
<VARIANCE> 25
 1.281187e+01 3.389170e+01 3.477860e+01 8.134848e+01 5.816388e+01 1.179210e+02 5.671904e+01 6.088450e+01 8.545751e+01 6.974657e+01 3.317863e+01 1.962560e+01 2.359081e-01 5.870665e-01 1.429852e+00 9.860545e-01 1.584877e+00 1.407279e+00 1.364742e+00 1.213083e+00 2.149071e+00 1.570079e+00 1.401168e+00 1.805927e+00 4.719149e-01
<GCONST> 9.318670e+01
<STATE> 4
<MEAN> 25
 6.900091e+00 3.053454e+00 -4.053889e+00 -1.252750e+01 -2.024107e+00 3.269512e+00 -1.319907e+01 -9.344371e+00 -3.858070e+00 -1.841143e-03 5.706938e+00 -1.326340e+00 -2.041945e-01 1.026333e-01 1.484235e-01 6.340158e-01 2.735359e-01 -2.938395e-02 3.292872e-01 3.424029e-01 2.806418e-01 1.069433e-01 -1.017422e-01 1.489652e-01 -5.672178e-01
<VARIANCE> 25
 8.458961e+00 2.649668e+01 2.206250e+01 1.231205e+02 3.987819e+01 6.672079e+01 4.614568e+01 6.881453e+01 9.190536e+01 4.852858e+01 3.656646e+01 3.193355e+01 2.953014e-01 1.018010e+00 9.761028e-01 2.971543e+00 1.456912e+00 2.773916e+00 2.503647e+00 2.704418e+00 3.289579e+00 2.074808e+00 2.099299e+00 1.463845e+00 9.614567e-01
<GCONST> 9.685767e+01
<TRANSP> 5
 0.000000e+00 1.000000e+00 0.000000e+00 0.000000e+00 0.000000e+00
 0.000000e+00 6.330505e-01 3.669494e-01 0.000000e+00 0.000000e+00
 0.000000e+00 0.000000e+00 7.923066e-01 2.076934e-01 0.000000e+00
 0.000000e+00 0.000000e+00 0.000000e+00 9.131408e-01 8.685914e-02
 0.000000e+00 0.000000e+00 0.000000e+00 0.000000e+00 0.000000e+00
<ENDHMM>
~h "uw"
<BEGINHMM>
<NUMSTATES> 5
<STATE> 2
<MEAN> 25
 -1.253650e+00 9.516732e-01 3.355009e+00 6.758410e-01 9.619086e-01 -4.354474e+00 -4.040524e+00 -7.680728e-01 1.118654e+00 3.863687e-01 5.318328e-01 -4.381202e-01 1.590497e+00 4.504205e-02 7.677026e-01 -4.029809e-01 -1.529756e+00 -7.670064e-01 -2.653101e+00 -1.223004e+00 -5.050498e-01 1.689121e-01 6.618549e-01 -7.253872e-01 1.715721e+00
<VARIANCE> 25
 7.108986e+01 3.132960e+01 4.503543e+01 5.275241e+01 5.964434e+01 7.949953e+01 9.343836e+01 6.437651e+01 5.497850e+01 4.953962e+01 3.677091e+01 3.332818e+01 7.178050e+00 3.793526e+00 5.514112e+00 6.595877e+00 6.326782e+00 9.768876e+00 8.541316e+00 8.131201e+00 6.106645e+00 6.861303e+00 5.157818e+00 3.928699e+00 5.470373e+00
<GCONST> 1.173217e+02
<STATE> 3
<MEAN> 25
 6.807619e+00 1.312640e+00 3.130158e+00 -1.895077e+00 -5.723533e+00 -2.010197e+00 -1.436593e+01 -5.549235e+00 -5.418121e+00 4.332862e-01 5.734101e+00 -3.211256e+00 3.578918e-01 2.756907e-01 -4.960461e-01 -2.024740e-01 2.649362e-01 5.637082e-01 2.313883e-01 -6.794414e-02 -4.660208e-01 -1.924536e-01 1.710369e-02 1.014071e-01 -4.438855e-01
<VARIANCE> 25
 1.125591e+01 3.462134e+01 3.830832e+01 7.503960e+01 6.629016e+01 1.019385e+02 5.610994e+01 5.393047e+01 8.481782e+01 6.578215e+01 5.803736e+01 4.361869e+01 6.129855e-01 1.331173e+00 1.597308e+00 4.024715e+00 2.970835e+00 3.542253e+00 4.111117e+00 2.803185e+00 3.815593e+00 3.737295e+00 2.861118e+00 2.541856e+00 1.047442e+00
<GCONST> 1.043162e+02
<STATE> 4
<MEAN> 25
 6.373535e+00 5.390957e+00 -4.218731e-01 -1.271528e+00 -2.727921e+00 8.090156e-01 -7.381526e+00 -5.879905e+00 -6.015382e+00 -2.711558e+00 2.443540e+00 -1.019870e-01 -2.559741e-01 4.363097e-02 -3.364103e-02 2.689715e-01 3.691583e-01 2.064472e-01 4.052403e-01 2.153684e-01 4.592913e-01 7.478081e-02 -2.652709e-01 2.399482e-01 -4.844795e-01
<VARIANCE> 25
 1.939634e+01 2.204558e+01 3.634061e+01 6.909415e+01 4.440223e+01 5.207573e+01 4.180829e+01 4.964200e+01 6.900650e+01 3.289457e+01 3.173018e+01 2.678775e+01 4.755665e-01 6.550500e-01 8.058177e-01 1.396418e+00 1.351115e+00 1.458642e+00 1.644607e+00 1.719462e+00 1.645086e+00 1.422470e+00 1.328124e+00 1.324927e+00 2.461543e-01
<GCONST> 9.037337e+01
<TRANSP> 5
 0.000000e+00 1.000000e+00 0.000000e+00 0.000000e+00 0.000000e+00
 0.000000e+00 7.578722e-01 2.421279e-01 0.000000e+00 0.000000e+00
 0.000000e+00 0.000000e+00 8.032146e-01 1.967855e-01 0.000000e+00
 0.000000e+00 0.000000e+00 0.000000e+00 9.118386e-01 8.816142e-02
 0.000000e+00 0.000000e+00 0.000000e+00 0.000000e+00 0.000000e+00
<ENDHMM>
~h "zh"
<BEGINHMM>
<NUMSTATES> 5
<STATE> 2
<MEAN> 25
 -1.524138e+01 -2.456218e+00 1.196019e+01 -4.306948e+00 -5.660493e+00 -9.121065e+00 5.836820e+00 -6.436535e+00 2.359132e+00 -4.582796e+00 6.883710e+00 -2.648912e+00 -1.141846e+00 3.362652e-01 7.076393e-01 -9.100091e-02 4.691058e-02 -2.673461e-02 7.723280e-01 -3.513924e-01 7.534180e-01 -3.341084e-01 -1.610510e-01 2.188715e-01 4.251755e-02
<VARIANCE> 25
 7.056600e+01 1.742423e+01 2.331245e+01 1.226389e+01 2.073286e+01 2.696113e+01 4.854288e+01 3.579161e+01 7.016632e+01 1.455161e+01 2.334288e+01 1.197399e+01 9.505828e+00 1.624547e+00 1.443533e+00 9.802167e-01 3.131592e+00 2.802776e+00 6.918691e+00 1.952703e+00 8.022418e+00 2.554648e+00 3.490672e+00 1.959138e+00 6.098641e-01
<GCONST> 9.737292e+01
<STATE> 3
<MEAN> 25
 -5.784022e+00 -4.979858e+00 9.375771e+00 -2.553396e+00 -1.265417e+01 -1.281227e+01 6.636013e-01 -5.027833e+00 2.171218e-03 -3.154586e+00 3.352357e+00 -1.398782e+00 1.911195e+00 -1.412486e+00 -1.743471e+00 -4.272750e-02 -6.483482e-02 -7.980184e-01 -6.275905e-01 1.190004e+00 -2.846390e-02 -2.173904e-01 2.030646e-01 -2.518804e-01 3.648791e-01
<VARIANCE> 25
 1.300604e+02 3.420734e+01 3.578899e+01 1.714775e+01 2.536204e+01 9.974465e+01 5.535524e+01 4.554644e+01 6.561617e+01 5.708384e+01 3.273874e+01 2.072770e+01 3.286975e+00 1.303492e+00 1.695292e+00 1.005648e+00 2.268975e+00 6.056938e+00 6.667310e+00 2.038203e+00 3.717829e+00 4.040984e+00 2.799874e+00 1.546993e+00 8.393335e-01
<GCONST> 1.024023e+02
<STATE> 4
<MEAN> 25
 6.925265e+00 -9.210121e+00 -2.927999e+00 -3.079570e+00 -8.422979e+00 -9.271212e+00 -3.793281e-01 -5.892941e+00 -2.218279e+00 -2.560932e+00 -1.707528e+00 -4.297108e+00 1.156904e-01 4.065124e-01 -1.862998e-01 1.705199e-01 4.490881e-01 9.164888e-01 3.012998e-02 -6.760306e-01 8.100722e-03 3.364043e-01 -4.365852e-01 -3.939497e-01 -5.397725e-01
<VARIANCE> 25
 9.372410e+00 3.842813e+01 1.430661e+01 1.238116e+01 1.003569e+01 1.112364e+02 8.590450e+00 1.062811e+02 3.499593e+02 8.958204e+01 2.381522e+01 6.132522e+01 2.601339e-01 6.868424e-01 7.057136e-01 6.356089e-01 5.837317e-01 2.087098e+00 6.827728e-01 3.395304e+00 2.109056e+00 1.202039e+00 1.052279e+00 1.297114e+00 2.518981e-01
<GCONST> 8.686137e+01
<TRANSP> 5
 0.000000e+00 1.000000e+00 0.000000e+00 0.000000e+00 0.000000e+00
 0.000000e+00 9.273251e-01 7.267488e-02 0.000000e+00 0.000000e+00
