~o
<STREAMINFO> 1 25
<VECSIZE> 25<NULLD><MFCC_D_N_Z_0><DIAGC>
~s "silst"
<MEAN> 25
 -7.310747e+00 -2.788062e+00 -3.952986e+00 6.784148e-01 3.877657e+00 1.233893e+00 6.043911e+00 -1.077668e+00 5.041078e+00 -2.675336e+00 1.206389e+00 2.359947e+00 -2.436423e-02 -2.265602e-02 -2.636247e-02 -2.696452e-02 -4.079203e-02 -1.284949e-02 -3.048600e-02 -2.196788e-02 -6.026730e-02 -5.330811e-02 -3.637069e-02 -3.224948e-02 -2.366487e-02
<VARIANCE> 25
 5.067225e+00 7.442315e+00 5.775439e+00 9.667953e+00 1.378397e+01 1.308224e+01 1.223897e+01 1.494958e+01 1.283383e+01 1.614590e+01 1.245759e+01 1.320389e+01 1.202053e-01 2.471559e-01 4.318228e-01 5.592178e-01 8.836674e-01 1.036558e+00 1.144481e+00 1.440907e+00 1.379074e+00 1.386238e+00 1.319418e+00 1.202587e+00 3.947696e-02
<GCONST> 6.779284e+01
~h "b"
<BEGINHMM>
<NUMSTATES> 5
<STATE> 2
<MEAN> 25
 1.055323e+01 -7.929202e+00 -7.185160e+00 -6.605073e+00 -1.950476e+00 8.575876e-02 -6.696674e+00 5.721216e+00 -3.554163e+00 6.697872e+00 -1.163282e+01 -5.495126e+00 -1.336007e-01 -1.715615e-01 2.381023e-01 3.318281e-01 1.750571e-01 -3.265336e-01 3.693929e-01 3.374846e-01 -5.138175e-02 -2.813953e-01 -3.467090e-01 4.226059e-01 -9.665047e-02
<VARIANCE> 25
 3.070803e+00 7.436591e+00 7.386576e+00 1.415129e+01 2.680787e+01 1.942769e+01 1.412036e+01 1.592669e+02 1.383411e+01 1.995391e+01 2.084998e+01 2.514113e+01 1.066038e-01 3.793969e-01 6.232747e-01 5.151069e-01 9.695815e-01 8.685352e-01 1.023413e+00 1.299664e+00 7.741339e-01 1.035702e+00 1.471199e+00 5.670813e-01 1.702745e-01
<GCONST> 7.317776e+01
<STATE> 3
<MEAN> 25
 7.985816e+00 -6.724875e+00 3.587822e+00 -1.622924e+00 -7.323860e+00 -5.036249e+00 -1.688298e+00 1.133293e+01 -4.843319e+00 5.943613e+00 -3.334990e+00 -3.806333e+00 -4.616958e-01 4.501832e-01 1.610828e+00 2.771233e-01 -1.062964e+00 -3.157648e-01 5.244422e-01 -1.171805e+00 -5.346769e-01 3.481548e-01 1.991711e+00 3.013094e-01 -5.314915e-01
<VARIANCE> 25
 4.212148e+00 4.585388e+00 3.097294e+01 7.234893e+00 2.193102e+01 1.165585e+01 8.971691e+00 4.612056e+01 1.166465e+01 1.256794e+01 4.987052e+01 1.232807e+01 1.262702e-01 3.647677e-01 7.565156e-01 9.189106e-01 9.004025e-01 1.101494e+00 9.137732e-01 2.204882e+00 1.056751e+00 8.562614e-01 1.049796e+00 6.580216e-01 1.279991e-01
<GCONST> 7.202307e+01
<STATE> 4
<MEAN> 25
 2.387941e+00 1.298349e+00 1.357688e+01 -5.118880e-02 -9.755508e+00 -8.619294e-01 1.566463e+00 -2.392782e+00 -2.086613e+00 6.865127e+00 5.074639e+00 -5.530938e-01 -5.415208e-01 5.855989e-01 -9.397572e-02 2.761830e-01 4.984815e-01 6.614366e-01 5.175201e-01 -6.843598e-01 8.434190e-01 -2.930178e-01 -2.266525e-01 3.183184e-01 -1.179258e+00
<VARIANCE> 25
 1.056145e+01 1.050338e+01 2.588737e+01 1.216970e+01 1.799725e+01 2.421325e+01 3.654774e+01 2.982049e+01 3.509297e+01 1.464368e+01 1.617933e+01 1.168881e+01 3.672117e-01 5.982671e-01 1.637678e+00 1.052117e+00 1.005944e+00 1.355931e+00 2.006715e+00 1.322755e+00 1.233286e+00 1.225493e+00 1.369830e+00 7.833678e-01 3.113840e-01
<GCONST> 8.059587e+01
<TRANSP> 5
 0.000000e+00 1.000000e+00 0.000000e+00 0.000000e+00 0.000000e+00
 0.000000e+00 9.050772e-01 9.492284e-02 0.000000e+00 0.000000e+00
 0.000000e+00 0.000000e+00 8.649880e-01 1.350120e-01 0.000000e+00
 0.000000e+00 0.000000e+00 0.000000e+00 8.994652e-01 1.005348e-01
 0.000000e+00 0.000000e+00 0.000000e+00 0.000000e+00 0.000000e+00
<ENDHMM>
~h "d"
<BEGINHMM>
<NUMSTATES> 5
<STATE> 2
<MEAN> 25
 2.929516e+00 5.277946e+00 5.401658e+00 6.698063e+00 1.669009e+00 -1.971247e+00 -2.012129e+00 -2.383900e+00 -4.080145e-01 -3.608442e+00 -1.300899e+00 -1.436436e+00 8.659161e-01 -2.610356e-01 2.375080e-01 2.198710e-01 4.119132e-02 -7.381717e-01 -1.081275e+00 -3.977125e-01 -5.492426e-01 -1.883646e-02 -3.182564e-01 -5.043924e-01 1.322183e+00
<VARIANCE> 25
 2.404296e+01 3.641716e+01 4.674218e+01 3.450396e+01 4.289267e+01 4.120815e+01 4.201724e+01 3.237198e+01 2.933083e+01 1.762953e+01 1.492189e+01 1.052934e+01 3.596765e+00 4.237709e+00 5.255264e+00 4.321315e+00 4.716369e+00 5.922210e+00 3.934215e+00 4.061232e+00 4.425301e+00 2.814242e+00 1.896772e+00 1.993290e+00 2.507992e+00
<GCONST> 1.028247e+02
<STATE> 3
<MEAN> 25
 7.532131e+00 -3.921998e-02 -1.827907e+00 1.700792e+00 1.170922e+00 -2.670698e+00 -5.755973e+00 -5.344539e-01 -1.267480e+00 2.611970e+00 -1.684009e+00 -3.987877e+00 1.527008e+00 -1.968577e+00 -1.352101e+00 -2.448819e+00 -1.298613e+00 -3.358386e-01 -1.469849e+00 2.484471e+00 -1.055879e+00 2.551977e+00 -4.429733e-01 -1.369275e+00 2.645182e+00
<VARIANCE> 25
 2.887579e+01 3.462564e+01 2.298686e+01 4.556160e+01 2.886724e+01 1.943843e+01 3.817077e+01 6.459061e+01 2.499478e+01 5.435849e+01 1.562723e+01 1.744931e+01 2.330625e+00 3.786160e+00 2.010032e+00 2.886299e+00 2.186623e+00 2.777694e+00 3.686316e+00 9.026080e+00 2.506923e+00 5.272987e+00 3.355664e+00 1.766929e+00 2.746720e+00
<GCONST> 1.013875e+02
<STATE> 4
<MEAN> 25
 5.018596e+00 -1.429226e+00 8.678841e+00 -4.047114e+00 -8.120594e+00 -3.827838e+00 -7.741912e+00 5.390804e+00 -6.917379e+00 4.112158e+00 -9.509812e-01 -2.205659e+00 -2.153994e-01 2.924722e-01 5.401769e-01 1.227150e-01 -3.836489e-01 -5.948737e-02 6.876063e-03 -2.772076e-01 -1.305214e-01 -9.379774e-02 1.249031e-01 2.306611e-01 -1.570007e-01
<VARIANCE> 25
 1.151471e+01 4.030319e+01 6.302113e+01 2.122729e+01 5.170529e+01 1.660225e+01 3.027568e+01 6.517742e+01 1.933060e+01 3.114442e+01 3.881755e+01 1.357500e+01 5.308081e-01 1.931011e+00 2.170756e+00 1.898767e+00 3.887972e+00 1.373947e+00 3.663038e+00 3.038336e+00 1.538677e+00 2.210575e+00 2.873473e+00 9.788554e-01 2.945479e+00
<GCONST> 9.516048e+01
<TRANSP> 5
 0.000000e+00 1.000000e+00 0.000000e+00 0.000000e+00 0.000000e+00
 0.000000e+00 7.155637e-01 2.844363e-01 0.000000e+00 0.000000e+00
 0.000000e+00 0.000000e+00 5.970580e-01 4.029420e-01 0.000000e+00
 0.000000e+00 0.000000e+00 0.000000e+00 8.779573e-01 1.220427e-01
 0.000000e+00 0.000000e+00 0.000000e+00 0.000000e+00 0.000000e+00
<ENDHMM>
~h "f"
<BEGINHMM>
<NUMSTATES> 5
<STATE> 2
<MEAN> 25
 7.993306e-01 3.180577e+00 7.784421e-01 2.778186e+00 4.369484e+00 2.144131e+00 8.225752e-01 -2.098959e+00 -8.950905e-01 -2.352833e+00 -1.034709e-01 -5.985115e-01 -1.571953e+00 -8.749828e-01 -9.716643e-01 -5.006587e-01 -5.990689e-01 9.294541e-02 1.304475e+00 -8.905445e-02 1.313791e+00 5.189964e-01 1.419275e-01 9.198639e-01 -4.768611e-01
<VARIANCE> 25
 1.903532e+01 1.878572e+01 3.152123e+01 2.421250e+01 3.077007e+01 1.860900e+01 2.184063e+01 4.215680e+01 3.163379e+01 1.950751e+01 1.238269e+01 1.564222e+01 1.854398e+00 1.029435e+00 2.892588e+00 2.441848e+00 2.707748e+00 2.006644e+00 4.092571e+00 2.135351e+00 4.068354e+00 2.072529e+00 1.371284e+00 2.234293e+00 1.898916e+00
<GCONST> 9.368532e+01
<STATE> 3
<MEAN> 25
 -4.931099e+00 -7.539699e-01 -1.437267e+00 -1.797559e+00 2.380037e+00 1.875697e+00 1.961488e+00 -6.574320e-01 1.330223e+00 -8.306143e-01 3.378956e-01 5.778723e-01 -4.138223e-01 -2.527282e-01 -1.352854e-01 -3.037542e-01 1.535748e-01 -2.750598e-02 4.281668e-02 1.990437e-01 7.075405e-02 3.167957e-03 1.475117e-01 4.352960e-02 1.977101e-01
<VARIANCE> 25
 1.533475e+01 9.649188e+00 8.172160e+00 2.022978e+01 1.996583e+01 1.360986e+01 1.716681e+01 1.655571e+01 2.098769e+01 2.385768e+01 1.386089e+01 1.186724e+01 8.958846e-01 7.004238e-01 6.116547e-01 1.134894e+00 1.204581e+00 9.861947e-01 1.181461e+00 1.477186e+00 1.296679e+00 1.096270e+00 1.238941e+00 9.785772e-01 5.489938e-01
<GCONST> 7.846794e+01
<STATE> 4
<MEAN> 25
 2.034105e+00 -2.514740e+00 -4.091574e+00 -2.404672e+00 -4.864636e-02 -2.348865e+00 -4.319370e-01 3.910685e+00 -1.506299e-01 1.083474e+00 -8.439838e-01 -3.484381e-01 6.166806e-01 1.479679e-01 -3.306149e-02 2.712588e-01 -3.748587e-01 -4.232818e-01 -4.753875e-01 -2.271879e-01 -6.263025e-01 1.771585e-01 -3.666584e-02 1.111757e-01 5.431221e-01
<VARIANCE> 25
 1.131984e+02 3.328346e+01 4.138460e+01 3.357602e+01 4.150728e+01 6.924609e+01 2.010279e+01 3.330489e+01 2.969538e+01 1.823433e+01 2.353702e+01 1.450955e+01 3.550656e+00 3.139313e+00 1.714407e+00 1.880157e+00 2.523305e+00 3.439199e+00 1.866228e+00 2.372118e+00 1.692927e+00 9.496230e-01 1.253596e+00 1.108221e+00 7.758556e-01
<GCONST> 9.579545e+01
<TRANSP> 5
 0.000000e+00 1.000000e+00 0.000000e+00 0.000000e+00 0.000000e+00
 0.000000e+00 5.759634e-01 4.240366e-01 0.000000e+00 0.000000e+00
 0.000000e+00 0.000000e+00 8.844392e-01 1.155608e-01 0.000000e+00
 0.000000e+00 0.000000e+00 0.000000e+00 8.537448e-01 1.462552e-01
 0.000000e+00 0.000000e+00 0.000000e+00 0.000000e+00 0.000000e+00
<ENDHMM>
~h "k"
<BEGINHMM>
<NUMSTATES> 5
<STATE> 2
<MEAN> 25
 -3.408114e+00 2.260648e+00 -2.071490e+00 7.690843e-01 3.788298e-01 2.314861e+00 3.738342e+00 2.597479e+00 4.042030e+00 9.462355e-01 2.741838e+00 5.686277e-01 5.654778e-02 1.826005e-01 -9.789562e-02 -6.232499e-02 -9.347717e-02 -2.392235e-01 -1.945363e-01 -2.716513e-02 -6.656368e-02 -7.146211e-03 4.117852e-02 -1.140455e-01 -4.750616e-02
<VARIANCE> 25
 2.411762e+01 1.242632e+01 1.104001e+01 1.448290e+01 2.117074e+01 1.271098e+01 1.756214e+01 2.457277e+01 1.224389e+01 2.385666e+01 1.209471e+01 1.279319e+01 1.015034e-01 2.844013e-01 4.628047e-01 4.121636e-01 9.049582e-01 5.827242e-01 8.427320e-01 1.082840e+00 1.355358e+00 1.304516e+00 9.103202e-01 1.184536e+00 7.560394e-02
<GCONST> 7.123522e+01
<STATE> 3
<MEAN> 25
 -7.487657e+00 -8.998491e-01 -3.055420e+00 8.249913e-01 3.407167e+00 8.546399e-01 6.875090e+00 4.925095e-01 4.851124e+00 -1.200281e+00 1.608906e+00 2.495195e+00 6.407440e-01 -6.758205e-01 9.689879e-02 -1.228293e-01 -1.191164e+00 -7.840738e-01 -4.090504e-02 4.338019e-01 -7.836126e-01 3.914317e-01 -2.252741e-01 1.918709e-02 5.380229e-01
<VARIANCE> 25
 2.073450e+01 1.941380e+01 9.517317e+00 7.185148e+00 1.692178e+01 1.645090e+01 1.773591e+01 1.408908e+01 1.636716e+01 1.915492e+01 1.279791e+01 1.570692e+01 5.008867e-01 1.658319e+00 1.334111e+00 1.669735e+00 3.134201e+00 2.854153e+00 1.507475e+00 2.098881e+00 2.523453e+00 2.784050e+00 1.791432e+00 1.867747e+00 5.459827e+00
<GCONST> 8.718410e+01
<STATE> 4
<MEAN> 25
 -2.173323e+00 -6.167711e+00 -2.084490e+00 -1.017745e+00 -3.637219e+00 -5.453371e+00 4.200729e+00 3.806264e+00 -1.933858e+00 -1.500454e+00 1.001175e+00 -6.274270e-01 1.560176e+00 -3.541582e-01 -8.797935e-02 -6.892764e-02 -1.203201e-01 -1.017132e+00 -3.554719e-01 5.933954e-01 -4.319899e-01 -3.757927e-01 -5.024223e-01 -3.875023e-01 1.879987e+00
<VARIANCE> 25
 3.030491e+01 2.504285e+01 2.040774e+01 4.272928e+01 3.226868e+01 4.137045e+01 2.409340e+01 4.665283e+01 2.970760e+01 4.092849e+01 2.026637e+01 2.093194e+01 3.104065e+00 2.121921e+00 2.168614e+00 3.260231e+00 6.493826e+00 4.523026e+00 2.991564e+00 5.898127e+00 3.539087e+00 6.480423e+00 3.103326e+00 1.821840e+00 5.125337e+00
<GCONST> 1.033150e+02
<TRANSP> 5
 0.000000e+00 1.000000e+00 0.000000e+00 0.000000e+00 0.000000e+00
 0.000000e+00 7.209103e-01 2.790897e-01 0.000000e+00 0.000000e+00
 0.000000e+00 0.000000e+00 4.951198e-01 5.048802e-01 0.000000e+00
 0.000000e+00 0.000000e+00 0.000000e+00 8.254765e-01 1.745235e-01
 0.000000e+00 0.000000e+00 0.000000e+00 0.000000e+00 0.000000e+00
<ENDHMM>
~h "l"
<BEGINHMM>
<NUMSTATES> 5
<STATE> 2
<MEAN> 25
 -3.045677e+00 -1.019304e-01 -3.044161e-02 5.080242e+00 1.190803e+00 2.998962e+00 3.268810e+00 7.738044e-01 2.453769e+00 -2.489563e+00 -8.079231e-01 8.287105e-01 3.003190e-02 7.891435e-02 -2.740994e-03 -6.022183e-01 -4.682798e-01 3.554985e-01 -1.010414e-01 3.946507e-01 3.236854e-01 -2.222123e-01 -9.745108e-02 1.435685e-01 6.674998e-02
<VARIANCE> 25
 1.968309e+00 3.811044e+00 2.990912e+00 1.089271e+01 1.298867e+01 5.245481e+00 2.530241e+01 2.255070e+01 1.010406e+01 5.993291e+00 1.888842e+01 9.054294e+00 5.831228e-02 2.928910e-01 3.240665e-01 4.593690e-01 2.418919e-01 1.462886e+00 4.042647e+00 1.196447e+00 9.777885e-01 7.281706e-01 3.517787e-01 4.523234e-01 1.934329e-01
<GCONST> 6.200132e+01
<STATE> 3
<MEAN> 25
 -4.536945e+00 -7.111129e-01 3.952911e-01 3.859689e+00 1.802493e+00 2.258039e+00 5.288768e+00 1.658640e+00 2.501501e+00 -1.708660e+00 1.725101e+00 7.289323e-01 -1.169232e-01 6.780665e-02 -9.210050e-03 -1.817793e-01 2.075109e-01 1.814514e-01 3.862501e-01 -7.579133e-03 -1.232798e-01 2.666840e-01 7.582957e-02 9.437799e-04 -5.508658e-02
<VARIANCE> 25
 5.819692e+00 7.172843e+00 8.954499e+00 5.851760e+00 1.119801e+01 1.741328e+01 1.535458e+01 1.561440e+01 9.452440e+00 9.575714e+00 1.055794e+01 8.456260e+00 4.137356e-01 6.759246e-01 1.003659e+00 6.618606e-01 5.872931e-01 2.987528e+00 1.606128e+00 5.952409e-01 9.105774e-01 9.307829e-01 5.584906e-01 1.288086e+00 3.237664e-01
<GCONST> 7.059875e+01
<STATE> 4
<MEAN> 25
 -3.015745e+00 2.020514e+00 -1.347103e+00 -3.691692e-02 -9.578528e-01 4.289316e+00 3.583782e+00 7.650629e-01 2.343392e+00 1.700264e+00 -2.642275e-01 5.765600e-01 -2.397655e-02 1.694167e-02 3.186851e-03 -2.654032e-02 -1.353181e-02 -2.788186e-02 -2.271464e-02 9.768139e-03 5.891304e-02 1.285529e-01 1.515332e-01 7.578100e-02 -2.372000e-02
<VARIANCE> 25
 1.304241e+00 5.180487e+00 2.684095e+00 5.545994e+00 1.007807e+01 7.391054e+00 9.006109e+00 2.906558e+01 7.185909e+00 1.158204e+01 1.116321e+01 8.955702e+00 1.008904e-01 1.951342e-01 1.887714e-01 3.610677e-01 3.918338e-01 5.647132e-01 8.710597e-01 1.140990e+00 8.514953e-01 8.824447e-01 7.394658e-01 7.424738e-01 3.480713e-02
<GCONST> 5.709089e+01
<TRANSP> 5
 0.000000e+00 1.000000e+00 0.000000e+00 0.000000e+00 0.000000e+00
 0.000000e+00 5.109386e-01 4.890614e-01 0.000000e+00 0.000000e+00
 0.000000e+00 0.000000e+00 7.447101e-01 2.552899e-01 0.000000e+00
 0.000000e+00 0.000000e+00 0.000000e+00 9.578409e-01 4.215904e-02
 0.000000e+00 0.000000e+00 0.000000e+00 0.000000e+00 0.000000e+00
<ENDHMM>
~h "m"
<BEGINHMM>
<NUMSTATES> 5
<STATE> 2
<MEAN> 25
 5.795112e+00 -3.445442e+00 -5.136659e+00 -4.088984e+00 -2.139407e+00 -2.357464e+00 2.652419e+00 2.551241e+00 7.527903e-01 3.092605e-01 -3.282974e+00 1.241580e+00 1.108515e+00 5.126559e-01 -2.412463e-01 -4.110969e-01 -2.622572e-01 -3.613860e-01 1.288806e-01 5.610715e-01 -2.607962e-01 6.433063e-01 -9.063296e-01 3.039817e-02 5.374467e-01
<VARIANCE> 25
 3.012127e+01 5.000554e+01 3.672721e+01 3.564831e+01 5.660549e+01 5.056134e+01 4.834653e+01 5.747194e+01 5.042941e+01 1.838317e+01 3.045850e+01 2.045647e+01 3.468932e+00 2.659415e+00 2.689973e+00 1.275957e+00 1.844175e+00 2.654548e+00 2.332820e+00 2.684395e+00 2.609334e+00 2.230769e+00 3.420600e+00 1.346682e+00 2.218425e+00
<GCONST> 1.005609e+02
<STATE> 3
<MEAN> 25
 1.056083e+01 -6.190202e+00 -5.656661e+00 -6.743862e+00 1.753222e+00 2.180015e+00 -3.118407e+00 2.493335e+00 -3.939110e+00 2.590102e+00 -8.335485e+00 -6.259829e-01 1.443682e-01 -2.487377e-01 3.694183e-02 -1.262882e-01 -2.547959e-01 -3.465502e-01 -4.354228e-02 1.514594e-01 -4.323266e-01 2.494309e-01 -1.441018e-01 -1.052289e-02 1.364430e-01
<VARIANCE> 25
 1.777732e+01 2.579639e+01 2.348686e+01 2.962796e+01 5.374845e+01 7.378233e+01 5.260138e+01 3.637318e+01 3.576322e+01 1.846113e+01 3.656889e+01 1.228803e+01 6.687492e-01 8.974409e-01 9.621115e-01 8.845229e-01 1.699420e+00 1.872246e+00 9.632138e-01 2.298261e+00 1.898858e+00 1.525728e+00 1.470197e+00 9.653934e-01 4.169627e-01
<GCONST> 8.888202e+01
<STATE> 4
<MEAN> 25
 9.003901e+00 -4.459798e+00 -4.209632e+00 -3.220291e+00 -2.478731e+00 -3.969754e+00 -1.746361e+00 -3.523503e+00 -5.719033e+00 4.027220e+00 -3.335214e+00 6.520997e-01 -2.167547e-01 5.199705e-01 6.276676e-01 3.382473e-01 1.510057e-01 4.274953e-03 -3.188302e-01 -4.001224e-01 -4.160272e-01 2.583062e-01 4.217017e-01 -8.133307e-02 -4.367910e-01
<VARIANCE> 25
 1.208024e+01 2.802102e+01 8.646246e+01 3.951291e+01 1.033264e+02 4.342179e+01 6.424335e+01 1.001750e+02 2.734171e+01 3.861047e+01 2.815047e+01 2.118109e+01 3.480978e-01 9.214563e-01 1.802781e+00 1.425905e+00 3.770363e+00 2.613785e+00 3.638956e+00 2.142935e+00 1.551743e+00 1.887975e+00 1.425347e+00 1.572290e+00 4.843976e-01
<GCONST> 9.574473e+01
<TRANSP> 5
 0.000000e+00 1.000000e+00 0.000000e+00 0.000000e+00 0.000000e+00
 0.000000e+00 4.295833e-01 5.704167e-01 0.000000e+00 0.000000e+00
 0.000000e+00 0.000000e+00 6.732642e-01 3.267358e-01 0.000000e+00
 0.000000e+00 0.000000e+00 0.000000e+00 7.731991e-01 2.268008e-01
 0.000000e+00 0.000000e+00 0.000000e+00 0.000000e+00 0.000000e+00
<ENDHMM>
~h "n"
<BEGINHMM>
<NUMSTATES> 5
<STATE> 2
<MEAN> 25
 8.970918e+00 3.965930e+00 -1.366728e+00 -2.571593e+00 -8.113980e-01 4.694450e-01 -2.914198e+00 -3.110273e+00 -2.427325e+00 -1.935177e+00 -1.855244e+00 -1.731284e+00 9.427012e-01 -9.180350e-01 -2.863072e-01 -1.004234e+00 -2.665920e-01 3.305115e-01 -9.134525e-01 -1.872748e-03 -7.022507e-01 7.430127e-02 -6.176627e-01 -3.176531e-01 1.547726e+00
<VARIANCE> 25
 3.413641e+01 3.989783e+01 2.956438e+01 7.451449e+01 5.726143e+01 5.177670e+01 3.494349e+01 4.021980e+01 4.119601e+01 2.224875e+01 2.270231e+01 2.009083e+01 3.397712e+00 3.910331e+00 2.340726e+00 3.344209e+00 3.575369e+00 5.790911e+00 4.191514e+00 4.643623e+00 3.364754e+00 2.300423e+00 2.211477e+00 1.615597e+00 1.994280e+00
<GCONST> 1.037006e+02
<STATE> 3
<MEAN> 25
 9.508220e+00 -5.079406e+00 1.719283e+00 -7.292049e+00 -3.550336e+00 2.264449e+00 -7.001557e+00 3.280648e-01 -6.686327e+00 2.310702e+00 -4.885758e+00 -1.967533e+00 -2.475424e-01 2.987235e-01 6.192283e-01 8.204218e-01 -1.237613e-01 -4.643420e-01 -2.297314e-01 -2.385844e-01 3.722914e-01 -2.747459e-01 1.394988e-01 1.440299e-01 -4.836134e-01
<VARIANCE> 25
 1.176294e+01 3.273048e+01 7.381922e+01 4.667157e+01 6.043885e+01 5.347924e+01 4.766975e+01 8.088008e+01 3.389505e+01 3.073648e+01 3.519393e+01 1.465385e+01 4.453698e-01 1.713516e+00 1.615852e+00 2.048493e+00 3.166293e+00 2.069571e+00 2.454570e+00 3.977250e+00 2.897874e+00 2.179161e+00 2.343935e+00 1.119717e+00 1.113803e+00
<GCONST> 9.757814e+01
<STATE> 4
<MEAN> 25
 3.799784e+00 3.036175e+00 6.887228e-01 1.867513e+00 1.814093e+00 5.739856e-01 -3.163048e+00 -1.582116e+00 9.859235e-01 -2.919312e+00 -1.408517e+00 -7.909311e-01 -1.717612e-01 1.530184e-01 8.452924e-02 2.895850e-01 2.027200e-01 4.336593e-02 1.782364e-01 -1.149621e-02 3.867546e-02 -8.083647e-02 6.748447e-02 1.204845e-01 -3.193246e-01
<VARIANCE> 25
 3.315854e+01 1.694757e+01 3.532838e+01 3.369095e+01 3.230461e+01 3.317271e+01 5.522628e+01 6.008708e+01 3.520242e+01 2.342986e+01 2.390845e+01 2.759685e+01 9.066218e-01 1.031530e+00 1.008477e+00 1.332994e+00 1.230814e+00 1.510526e+00 1.640612e+00 2.192480e+00 1.860398e+00 1.557129e+00 1.591661e+00 1.494224e+00 7.251478e-01
<GCONST> 9.138924e+01
<TRANSP> 5
 0.000000e+00 1.000000e+00 0.000000e+00 0.000000e+00 0.000000e+00
 0.000000e+00 7.942070e-01 2.057930e-01 0.000000e+00 0.000000e+00
 0.000000e+00 0.000000e+00 8.753887e-01 1.246113e-01 0.000000e+00
 0.000000e+00 0.000000e+00 0.000000e+00 9.044486e-01 9.555136e-02
 0.000000e+00 0.000000e+00 0.000000e+00 0.000000e+00 0.000000e+00
<ENDHMM>
~h "p"
<BEGINHMM>
<NUMSTATES> 5
<STATE> 2
<MEAN> 25
 8.013829e+00 2.863844e+00 3.764340e-01 7.218561e+00 1.084711e+00 -3.183788e+00 -8.116426e+00 -5.600044e+00 5.578051e+00 -2.516677e+00 -4.543606e+00 1.951945e+00 -6.353781e-01 1.197762e-01 -3.389592e-01 -8.929737e-02 -2.022364e-01 1.624672e-01 5.894381e-01 -1.585265e-01 -3.126432e-02 -4.301154e-01 2.134160e-02 -3.004359e-01 -6.917738e-01
<VARIANCE> 25
 3.375554e+01 7.203717e+00 2.836120e+00 9.291861e+00 4.477121e+00 1.146578e+01 3.127501e+01 2.010565e+01 1.683667e+01 8.669542e+00 3.344047e+00 2.064115e+01 2.719292e-01 7.396958e-01 7.800292e-01 1.609000e+00 2.030450e+00 9.593765e-01 1.169457e+00 1.609998e+00 1.711498e+00 1.454789e+00 5.412084e-01 1.173484e+00 1.506322e-01
<GCONST> 7.280061e+01
<STATE> 3
<MEAN> 25
 1.224442e+00 3.602998e+00 1.465163e+00 6.389669e+00 1.582468e+00 2.245510e+00 1.376942e+00 -3.354923e+00 -1.029611e+00 -4.540389e+00 -3.071729e+00 -2.211482e+00 -1.326669e+00 -6.046064e-01 -4.209918e-01 -9.437861e-01 -2.507372e-01 6.826894e-01 1.429767e+00 1.138190e+00 2.144956e-01 5.069534e-01 2.932542e-01 1.333208e-01 -9.647397e-01
<VARIANCE> 25
 9.742249e+00 1.282394e+01 1.001683e+01 1.602825e+01 6.061248e+00 1.091153e+01 2.545333e+01 1.805437e+01 1.230480e+01 1.949197e+01 3.430219e+00 4.155433e+00 4.130776e-01 1.350393e+00 7.790411e-01 1.203358e+00 1.683366e+00 4.221146e-01 1.517816e+00 1.003896e+00 2.377359e+00 1.991518e+00 5.241252e-01 5.370518e-01 1.674031e-01
<GCONST> 7.224335e+01
<STATE> 4
<MEAN> 25
 -2.962428e+00 5.564420e-01 1.437796e-01 6.883039e+00 2.480228e+00 8.263492e-01 1.701159e+00 -8.696234e-01 3.754928e-01 -2.072613e+00 4.894134e-01 -7.598546e-01 -4.072146e-01 -4.599299e-02 -2.518788e-01 -5.532977e-01 -5.069414e-01 -3.230626e-02 -1.176793e-03 1.159201e-01 8.854251e-02 1.639615e-02 4.920494e-01 3.974016e-01 -2.141044e-01
<VARIANCE> 25
 1.102966e+00 1.845392e+00 5.907794e+00 2.852843e+01 2.164840e+01 6.110519e+00 1.128523e+01 2.030860e+01 1.651904e+01 1.414837e+01 1.420218e+01 7.835564e+00 1.038465e-01 4.420140e-01 1.077847e-01 1.104079e+00 3.019476e-01 9.371697e-01 1.809014e+00 6.089957e-01 1.639356e+00 9.936901e-01 5.164508e-01 1.143682e+00 2.149273e-02
<GCONST> 6.201645e+01
<TRANSP> 5
 0.000000e+00 1.000000e+00 0.000000e+00 0.000000e+00 0.000000e+00
 0.000000e+00 5.943127e-01 4.056873e-01 0.000000e+00 0.000000e+00
 0.000000e+00 0.000000e+00 5.757114e-01 4.242885e-01 0.000000e+00
 0.000000e+00 0.000000e+00 0.000000e+00 4.325584e-01 5.674416e-01
 0.000000e+00 0.000000e+00 0.000000e+00 0.000000e+00 0.000000e+00
<ENDHMM>
~h "r"
<BEGINHMM>
<NUMSTATES> 5
<STATE> 2
<MEAN> 25
 1.344678e+00 1.115044e+00 4.457183e+00 3.884942e+00 -2.462193e+00 -3.851901e+00 -5.167777e-01 -4.922150e+00 -2.160683e+00 -2.089974e+00 -1.185772e+00 1.044571e-01 1.877572e+00 -4.810824e-01 1.059650e+00 5.196917e-01 -2.731822e-01 -1.179166e+00 -1.250369e+00 -6.130993e-01 -1.732494e+00 -6.601531e-01 1.242687e-01 -7.810125e-02 7.897735e-01
<VARIANCE> 25
 5.357456e+01 5.609230e+01 8.956983e+01 4.389612e+01 4.300758e+01 4.084162e+01 7.592640e+01 7.877750e+01 7.290755e+01 2.803805e+01 3.182573e+01 1.388017e+01 6.729521e+00 4.540464e+00 4.721941e+00 6.960079e+00 2.648771e+00 6.842596e+00 7.673947e+00 9.242846e+00 7.176006e+00 2.613760e+00 5.382193e+00 2.576428e+00 1.886240e+00
<GCONST> 1.123793e+02
<STATE> 3
<MEAN> 25
 1.016345e+01 -4.620843e+00 1.491374e+00 4.526552e+00 -1.354995e+00 -7.939617e+00 -1.027255e+01 -3.805357e+00 -4.572330e+00 -6.655472e+00 1.079322e-01 2.440805e+00 9.036887e-01 -5.941951e-01 -6.466453e-01 5.622370e-01 8.767478e-01 -6.822085e-01 -1.692843e+00 2.254943e-01 -1.669614e-01 -4.479485e-01 9.088318e-01 4.506363e-01 -3.268096e-02
<VARIANCE> 25
 3.820830e+01 2.920973e+01 9.022626e+01 7.683261e+01 9.616586e+01 6.002150e+01 6.312678e+01 7.257568e+01 7.494654e+01 3.039605e+01 4.096679e+01 2.090354e+01 3.067330e+00 1.279282e+00 3.584115e+00 2.639246e+00 3.688458e+00 3.784461e+00 3.101770e+00 4.470952e+00 3.516290e+00 2.728933e+00 2.667567e+00 1.876518e+00 5.517915e-01
<GCONST> 1.055399e+02
<STATE> 4
<MEAN> 25
 1.133693e+01 -3.656239e+00 -3.085759e+00 1.883468e+00 -2.388526e+00 -6.989427e+00 -1.227668e+01 5.590350e+00 -5.930438e+00 -3.189448e+00 4.238817e+00 1.352640e+00 -4.592407e-01 9.582208e-02 6.535607e-01 2.835361e-01 -8.573692e-02 -2.913475e-04 2.575763e-01 -1.828549e-01 -2.311903e-01 3.796813e-01 2.636077e-01 -3.332986e-01 -3.993536e-01
<VARIANCE> 25
 2.888623e+01 3.332444e+01 7.716802e+01 7.976208e+01 5.316162e+01 7.892901e+01 6.978912e+01 7.776295e+01 5.907896e+01 3.868212e+01 4.042373e+01 1.564430e+01 6.556647e-01 7.717614e-01 1.835318e+00 1.434153e+00 2.206382e+00 1.842417e+00 2.488568e+00 1.846642e+00 3.489338e+00 2.118941e+00 2.059919e+00 1.555261e+00 5.870453e-01
<GCONST> 9.851280e+01
<TRANSP> 5
 0.000000e+00 1.000000e+00 0.000000e+00 0.000000e+00 0.000000e+00
 0.000000e+00 6.803698e-01 3.196303e-01 0.000000e+00 0.000000e+00
 0.000000e+00 0.000000e+00 6.415145e-01 3.584855e-01 0.000000e+00
 0.000000e+00 0.000000e+00 0.000000e+00 8.227805e-01 1.772194e-01
 0.000000e+00 0.000000e+00 0.000000e+00 0.000000e+00 0.000000e+00
<ENDHMM>
~h "s"
<BEGINHMM>
<NUMSTATES> 5
<STATE> 2
<MEAN> 25
 -9.689063e+00 1.804368e+00 -1.178971e+00 2.711291e+00 3.834564e+00 -8.016695e-01 6.168275e+00 1.550480e+00 5.185139e+00 2.052339e+00 2.577986e+00 2.521257e+00 -8.408232e-01 6.252416e-01 -1.214620e+00 -6.461079e-02 6.296466e-02 -1.469925e-01 -2.527595e-01 -1.086299e-01 6.293041e-02 -1.444618e-01 3.105903e-01 6.077045e-02 6.670350e-02
<VARIANCE> 25
 4.489010e+01 3.504662e+01 6.738501e+01 2.846785e+01 6.204769e+01 2.977839e+01 4.533059e+01 2.560317e+01 3.546423e+01 2.338728e+01 1.945154e+01 2.081466e+01 3.320067e+00 2.088460e+00 2.899987e+00 3.249103e+00 3.508892e+00 2.692248e+00 3.318111e+00 2.356065e+00 2.397243e+00 2.113237e+00 1.889833e+00 1.774567e+00 1.867284e+00
<GCONST> 1.001083e+02
<STATE> 3
<MEAN> 25
 -1.642052e+01 7.377638e+00 -8.059959e+00 1.168488e+00 7.267553e+00 -3.536779e+00 6.353285e+00 -1.531912e+00 6.096752e+00 -1.773145e-01 1.399400e+00 2.327135e+00 3.015488e-01 -1.778069e-01 1.865108e-01 -6.089813e-02 1.518370e-02 1.012306e-01 3.616615e-02 1.255492e-01 -1.699544e-02 2.067773e-02 -1.582322e-02 1.430746e-01 -3.816465e-01
<VARIANCE> 25
 1.381704e+01 1.254179e+01 1.756107e+01 1.380583e+01 1.816344e+01 1.616115e+01 1.912880e+01 1.781710e+01 1.713721e+01 1.601553e+01 1.628304e+01 1.339698e+01 5.641332e-01 6.011317e-01 1.035521e+00 7.850840e-01 1.081098e+00 1.432441e+00 1.796979e+00 1.969057e+00 1.827844e+00 1.685959e+00 1.548924e+00 1.256914e+00 2.929552e-01
<GCONST> 8.008251e+01
<STATE> 4
<MEAN> 25
 -7.428267e+00 -2.579756e+00 3.513065e+00 -1.305979e+00 -7.166402e-01 6.080015e-01 4.544719e+00 8.308104e-01 2.183316e+00 1.511444e+00 2.950505e+00 3.596474e+00 6.825687e-01 -2.075068e-01 1.373532e-01 3.519771e-01 -3.513806e-01 1.964348e-01 -6.420724e-03 -2.524082e-02 -1.555102e-01 -3.100188e-02 -9.544079e-02 5.265561e-02 -2.486359e-01
<VARIANCE> 25
 4.741296e+01 2.376711e+01 6.478471e+01 2.171638e+01 3.618851e+01 1.522909e+01 3.286711e+01 2.320591e+01 2.091663e+01 2.750693e+01 2.139277e+01 1.169926e+01 2.809492e+00 1.651078e+00 2.822453e+00 1.376057e+00 1.763825e+00 1.598018e+00 2.265791e+00 2.296581e+00 1.676638e+00 1.656970e+00 1.732497e+00 1.228502e+00 1.344619e+00
<GCONST> 9.269975e+01
<TRANSP> 5
 0.000000e+00 1.000000e+00 0.000000e+00 0.000000e+00 0.000000e+00
 0.000000e+00 5.822713e-01 4.177287e-01 0.000000e+00 0.000000e+00
 0.000000e+00 0.000000e+00 9.106987e-01 8.930134e-02 0.000000e+00
 0.000000e+00 0.000000e+00 0.000000e+00 8.145285e-01 1.854715e-01
 0.000000e+00 0.000000e+00 0.000000e+00 0.000000e+00 0.000000e+00
<ENDHMM>
~h "t"
<BEGINHMM>
<NUMSTATES> 5
<STATE> 2
<MEAN> 25
 4.042402e+00 3.000264e+00 4.981556e+00 3.248078e+00 -2.352360e+00 -4.950382e+00 -6.256481e+00 -6.863738e+00 -1.442114e-01 -4.757843e+00 -1.846346e+00 -1.773985e+00 -6.019002e-01 -7.739632e-02 -6.546963e-01 7.458665e-01 1.307743e+00 7.952875e-01 1.327601e+00 -7.658666e-02 5.098331e-01 -4.045058e-01 -1.592848e-01 3.288049e-01 -1.333154e+00
<VARIANCE> 25
 2.761962e+01 4.749059e+01 2.680040e+01 1.839735e+01 5.726740e+01 2.890634e+01 7.474499e+01 3.940805e+01 2.300732e+01 2.355491e+01 2.138402e+01 1.613351e+01 8.939106e-01 2.197595e+00 3.395392e+00 1.578787e+00 4.293334e+00 3.022831e+00 2.736201e+00 2.312541e+00 2.814717e+00 1.704954e+00 1.655430e+00 1.965291e+00 3.061278e+00
<GCONST> 9.749453e+01
<STATE> 3
<MEAN> 25
 1.763012e+00 4.852921e+00 3.324555e+00 5.769117e+00 2.935396e+00 4.614587e-01 -3.793181e-01 -3.407171e+00 2.816929e-01 -4.987580e+00 -2.924553e+00 -1.778253e+00 -1.145321e+00 -6.205844e-01 -6.123514e-01 -1.532227e-03 7.438985e-01 8.126342e-01 1.353786e+00 1.076708e+00 4.186831e-01 5.332443e-01 5.838386e-01 5.556318e-01 -7.951602e-01
<VARIANCE> 25
 2.029505e+01 2.488964e+01 1.098189e+01 1.415187e+01 2.050560e+01 1.895204e+01 2.364590e+01 3.110716e+01 1.503843e+01 2.900414e+01 2.499616e+01 1.789622e+01 1.231179e+00 1.526029e+00 1.717120e+00 1.426972e+00 2.211184e+00 1.572657e+00 2.681535e+00 2.449883e+00 2.050608e+00 1.927791e+00 1.991630e+00 2.182515e+00 7.553297e-01
<GCONST> 8.918136e+01
<STATE> 4
<MEAN> 25
 -3.492937e+00 8.815748e-01 -1.306513e+00 3.153242e+00 3.361581e+00 2.789379e+00 4.759770e+00 2.407566e+00 3.998230e+00 -1.342760e+00 2.210758e+00 2.833918e+00 -1.280394e-01 -1.738004e-01 -1.561605e-01 -1.282061e-01 -3.757106e-02 -1.322051e-01 -7.848884e-03 1.170341e-01 7.844051e-02 1.038349e-01 9.596014e-02 5.587141e-02 1.407535e-01
<VARIANCE> 25
 8.982196e+00 1.536432e+01 1.004364e+01 1.589324e+01 1.988369e+01 1.969582e+01 1.991742e+01 2.938873e+01 1.709557e+01 1.647989e+01 1.592347e+01 1.312992e+01 9.331548e-01 1.418519e+00 1.102717e+00 1.961281e+00 1.989068e+00 2.196165e+00 2.150827e+00 2.399793e+00 1.827977e+00 1.798815e+00 1.632838e+00 1.414687e+00 1.995831e+00
<GCONST> 8.615925e+01
<TRANSP> 5
 0.000000e+00 1.000000e+00 0.000000e+00 0.000000e+00 0.000000e+00
 0.000000e+00 6.608261e-01 3.391739e-01 0.000000e+00 0.000000e+00
 0.000000e+00 0.000000e+00 7.129596e-01 2.870403e-01 0.000000e+00
 0.000000e+00 0.000000e+00 0.000000e+00 9.083586e-01 9.164130e-02
 0.000000e+00 0.000000e+00 0.000000e+00 0.000000e+00 0.000000e+00
<ENDHMM>
~h "v"
<BEGINHMM>
<NUMSTATES> 5
<STATE> 2
<MEAN> 25
 -2.391368e+00 5.254542e-01 1.363825e+00 2.580224e-01 -6.476082e-01 -2.612885e-01 -6.404606e-01 -7.843460e-01 -4.386151e-02 1.536935e-01 7.646223e-01 -4.768956e-01 2.368564e+00 4.105040e-01 9.166421e-01 -5.632418e-01 -1.672755e+00 -1.532545e+00 -1.231903e+00 -2.289644e-01 -1.137439e+00 1.160790e-01 -1.540028e-01 -7.001284e-01 1.405124e+00
<VARIANCE> 25
 4.167782e+01 4.020546e+01 8.161230e+01 3.569767e+01 5.017516e+01 4.770912e+01 3.666376e+01 3.005091e+01 3.591011e+01 1.430987e+01 2.166944e+01 1.521954e+01 6.967135e+00 3.493607e+00 4.054894e+00 5.537435e+00 7.191463e+00 5.175460e+00 4.766017e+00 5.025826e+00 6.141155e+00 3.028697e+00 3.210434e+00 1.970541e+00 2.779872e+00
<GCONST> 1.070605e+02
<STATE> 3
<MEAN> 25
 9.189271e+00 1.584311e+00 4.418309e-01 -1.584810e+00 -6.899265e+00 -8.810702e+00 -3.970407e+00 3.432467e+00 -2.427222e+00 1.261977e+00 2.177540e-01 -2.883750e+00 1.320287e+00 -8.126822e-01 -1.337583e+00 -5.710647e-01 -1.411050e-01 -1.129986e-01 3.982879e-02 7.075852e-01 -4.335473e-01 2.418858e-01 -4.652389e-01 -1.101430e-01 7.931436e-01
<VARIANCE> 25
 2.855204e+01 1.675504e+01 8.306544e+01 8.028355e+01 4.849487e+01 7.277979e+01 2.851342e+01 6.572290e+01 6.695404e+01 4.274722e+01 2.391705e+01 1.321004e+01 2.674829e+00 2.102108e+00 1.763504e+00 3.885685e+00 5.035407e+00 3.576955e+00 2.228252e+00 4.663541e+00 6.945379e+00 3.438019e+00 1.943638e+00 1.463096e+00 1.139655e+00
<GCONST> 1.035744e+02
<STATE> 4
<MEAN> 25
 9.212953e+00 -5.075964e+00 -1.529480e+00 -3.075668e+00 -2.863582e+00 -4.318709e+00 -5.117653e+00 -1.231558e-01 -8.345980e+00 4.806202e+00 -4.582163e+00 -2.185908e+00 -2.787101e-01 -3.993347e-02 4.566786e-01 5.559804e-01 2.907932e-01 -5.431602e-02 -1.586317e-01 -2.177331e-01 -1.286327e-01 -1.081983e-01 -3.857974e-02 2.201264e-01 -2.154818e-01
<VARIANCE> 25
 1.235522e+01 2.570758e+01 5.907376e+01 7.449535e+01 1.026335e+02 5.775434e+01 4.512343e+01 1.064919e+02 3.374757e+01 4.186813e+01 4.345473e+01 1.890032e+01 2.296489e-01 1.161411e+00 1.331983e+00 1.188006e+00 3.091365e+00 2.098155e+00 2.553203e+00 1.943541e+00 1.596823e+00 1.499785e+00 1.994208e+00 1.168369e+00 5.894169e-01
<GCONST> 9.502597e+01
<TRANSP> 5
 0.000000e+00 1.000000e+00 0.000000e+00 0.000000e+00 0.000000e+00
 0.000000e+00 7.537203e-01 2.462797e-01 0.000000e+00 0.000000e+00
 0.000000e+00 0.000000e+00 5.632637e-01 4.367363e-01 0.000000e+00
 0.000000e+00 0.000000e+00 0.000000e+00 8.847986e-01 1.152014e-01
 0.000000e+00 0.000000e+00 0.000000e+00 0.000000e+00 0.000000e+00
<ENDHMM>
~h "w"
<BEGINHMM>
<NUMSTATES> 5
<STATE> 2
<MEAN> 25
 2.171622e+00 -1.737413e+00 8.068645e+00 2.178183e+00 -5.876859e+00 -7.331373e+00 -3.944369e+00 3.551157e+00 -6.357008e+00 3.576070e+00 9.476706e-01 -8.195546e-01 -6.459932e-02 2.684647e-01 7.120198e-02 1.231213e+00 2.922255e-01 -3.206326e-01 1.676287e-01 -8.691275e-01 1.043430e+00 -2.752094e-01 4.840514e-01 7.767733e-01 -9.106540e-01
<VARIANCE> 25
 3.881248e+01 2.065750e+01 3.616411e+01 1.941497e+01 9.372173e+01 1.011558e+02 4.317930e+01 1.311549e+01 8.515936e+01 5.118099e+01 1.802918e+01 3.651278e+01 3.904088e-01 8.397180e-01 2.439636e+00 1.774025e+00 1.926797e+00 2.291388e+00 3.830783e+00 3.161687e+00 2.946676e+00 2.480531e+00 2.347714e+00 1.340489e+00 1.629192e+00
<GCONST> 9.750630e+01
<STATE> 3
<MEAN> 25
 1.985130e-01 2.347865e+00 5.552921e+00 7.347874e+00 -1.299771e+00 -3.398983e+00 -3.058068e+00 -6.450875e-01 2.094746e+00 -1.645523e+00 -8.591968e-01 1.033450e+00 -6.304563e-01 5.927432e-01 -1.254921e+00 1.259560e+00 1.107966e+00 1.087606e+00 1.190868e+00 -1.171811e+00 1.794612e+00 -3.380353e-01 -4.124660e-01 4.161780e-01 -1.609384e+00
<VARIANCE> 25
 2.397805e+01 1.723947e+01 2.765266e+01 2.068652e+01 4.266772e+01 9.540841e+01 4.089351e+01 2.733312e+01 3.175333e+01 2.604125e+01 2.215922e+01 3.122444e+01 1.052780e+00 2.371439e+00 2.592797e+00 2.073309e+00 4.533192e+00 6.206182e+00 3.610311e+00 5.354689e+00 4.352051e+00 2.714345e+00 3.284376e+00 2.160684e+00 1.221017e+00
<GCONST> 1.004323e+02
<STATE> 4
<MEAN> 25
 -2.797854e-01 1.863714e+00 1.622994e+00 8.048017e+00 2.108500e+00 5.808056e-01 -1.404248e+00 -2.523795e+00 4.721010e+00 -9.314117e-01 -1.812969e+00 -1.002715e+00 -2.800889e-01 9.208483e-02 -5.130847e-01 -1.689771e-01 4.155832e-01 4.199710e-01 9.860895e-01 1.790664e-01 -1.947042e-01 1.141818e-01 4.840401e-01 3.285490e-01 -6.244996e-01
<VARIANCE> 25
 1.650711e+01 1.803656e+01 1.165892e+01 1.092501e+01 1.950855e+01 1.928061e+01 5.160997e+01 4.737117e+01 3.141451e+01 2.454393e+01 1.695800e+01 4.075737e+01 1.696176e+00 2.093178e+00 9.623646e-01 7.309749e-01 1.921504e+00 2.307545e+00 4.249103e+00 2.863504e+00 2.837726e+00 2.532309e+00 1.066630e+00 3.590866e+00 5.265397e-01
<GCONST> 9.098502e+01
<TRANSP> 5
 0.000000e+00 1.000000e+00 0.000000e+00 0.000000e+00 0.000000e+00
 0.000000e+00 4.213568e-01 5.786433e-01 0.000000e+00 0.000000e+00
 0.000000e+00 0.000000e+00 4.999911e-01 5.000089e-01 0.000000e+00
 0.000000e+00 0.000000e+00 0.000000e+00 8.208865e-01 1.791135e-01
 0.000000e+00 0.000000e+00 0.000000e+00 0.000000e+00 0.000000e+00
<ENDHMM>
~h "z"
<BEGINHMM>
<NUMSTATES> 5
<STATE> 2
<MEAN> 25
 2.892823e+00 5.499017e+00 4.649211e+00 5.966582e+00 7.506253e-01 -3.689211e+00 -7.554317e-01 -1.758472e+00 -1.876408e-01 -4.631978e-01 -4.927903e-01 -2.035472e+00 -1.298916e+00 4.264835e-01 -9.891607e-02 2.167551e-01 3.464020e-01 -1.372384e-01 7.244835e-01 4.608676e-03 3.374872e-01 3.099822e-01 -9.079339e-02 2.355261e-01 1.702065e-01
<VARIANCE> 25
 7.281583e+01 5.240783e+01 3.522951e+01 3.697329e+01 3.945291e+01 5.677016e+01 4.882216e+01 3.505256e+01 2.668917e+01 3.258595e+01 2.747237e+01 1.473858e+01 2.741481e+00 3.851860e+00 3.910023e+00 4.501987e+00 2.726229e+00 5.869622e+00 4.332559e+00 3.738235e+00 2.534843e+00 3.077490e+00 2.680506e+00 1.897229e+00 2.642181e+00
<GCONST> 1.047318e+02
<STATE> 3
<MEAN> 25
 -9.563992e+00 9.373943e-01 6.803864e+00 4.152582e+00 1.570610e+00 5.281498e-01 7.597918e+00 -3.904305e-01 5.314354e-01 3.492085e+00 -8.880989e-01 7.516478e-01 -2.629262e-01 -5.206939e-01 1.203998e-01 -5.226085e-01 -4.313573e-01 -1.161398e-01 6.536462e-02 -3.172541e-02 -4.325015e-02 -5.154876e-01 4.960775e-01 2.664237e-01 6.256885e-02
<VARIANCE> 25
 6.303678e+01 9.005332e+01 7.115066e+01 2.200042e+01 3.375192e+01 2.496947e+01 3.871855e+01 4.298789e+01 1.730535e+01 3.316922e+01 1.827728e+01 1.327896e+01 2.151887e+00 1.731403e+00 3.630212e+00 1.033719e+00 1.485696e+00 2.150668e+00 2.097597e+00 1.906227e+00 1.559824e+00 1.545592e+00 1.269324e+00 1.099730e+00 1.155087e+00
<GCONST> 9.448833e+01
<STATE> 4
<MEAN> 25
 -1.029932e+01 2.220425e+00 -1.207906e+00 -7.245069e-02 3.163293e+00 9.397266e-01 4.082586e+00 1.391477e-01 3.739204e+00 -1.564426e+00 2.837901e+00 2.205181e+00 3.568241e-01 -1.070578e-01 -4.844911e-03 1.085860e-01 -1.533765e-01 1.281566e-01 5.132288e-02 1.085298e-01 2.053727e-02 6.570975e-02 1.691606e-01 1.044053e-01 -3.977532e-01
<VARIANCE> 25
 4.363010e+01 6.117086e+01 5.530294e+01 1.524116e+01 2.707769e+01 2.058917e+01 1.316083e+01 2.578356e+01 1.429842e+01 1.711928e+01 1.201200e+01 9.527489e+00 5.458990e-01 7.540482e-01 9.673867e-01 7.767678e-01 1.051141e+00 1.142250e+00 1.116017e+00 9.646957e-01 1.512959e+00 1.125532e+00 1.288772e+00 9.805407e-01 1.903936e-01
<GCONST> 8.115508e+01
<TRANSP> 5
 0.000000e+00 1.000000e+00 0.000000e+00 0.000000e+00 0.000000e+00
 0.000000e+00 8.923621e-01 1.076379e-01 0.000000e+00 0.000000e+00
 0.000000e+00 0.000000e+00 8.564194e-01 1.435806e-01 0.000000e+00
 0.000000e+00 0.000000e+00 0.000000e+00 9.258226e-01 7.417737e-02
 0.000000e+00 0.000000e+00 0.000000e+00 0.000000e+00 0.000000e+00
<ENDHMM>
~h "ah"
<BEGINHMM>
<NUMSTATES> 5
<STATE> 2
<MEAN> 25
 6.372541e+00 8.100451e-01 2.100587e+00 -1.147195e+00 -2.491337e+00 -2.914492e+00 -1.338113e+00 3.226545e-02 -4.001709e+00 -6.315430e-01 -2.720996e+00 2.607747e+00 -6.803799e-01 -1.003052e-01 6.220390e-01 5.134539e-02 -3.976245e-02 -6.194935e-02 8.766538e-01 -3.209113e-01 2.587048e-01 -1.210184e-01 -8.870256e-02 2.447620e-01 2.187838e-01
<VARIANCE> 25
 4.060566e+01 2.916235e+01 4.741246e+01 6.205703e+01 5.309335e+01 6.227205e+01 4.497920e+01 5.449826e+01 3.645612e+01 6.427700e+01 4.349809e+01 2.400068e+01 4.731138e+00 3.508106e+00 5.089913e+00 3.530381e+00 3.939332e+00 3.598297e+00 4.445182e+00 3.795496e+00 4.010180e+00 3.955651e+00 2.975296e+00 1.960786e+00 2.212265e+00
<GCONST> 1.081254e+02
<STATE> 3
<MEAN> 25
 -6.483556e+00 2.633504e+00 4.650697e+00 2.160522e+00 4.395373e+00 -1.240829e+00 5.511221e+00 -1.506412e+00 2.429442e+00 -1.172498e+00 4.802952e-01 3.232304e+00 -3.622591e+00 -3.004990e-01 -1.161173e+00 -1.430183e+00 6.818271e-01 2.494376e-01 1.139687e+00 -5.075068e-01 9.871102e-01 2.227754e-01 8.140535e-01 -4.487276e-01 7.131891e-01
<VARIANCE> 25
 5.101070e+01 5.187623e+01 6.364214e+01 3.470264e+01 4.412579e+01 2.522068e+01 4.091752e+01 1.748932e+01 3.346696e+01 3.209079e+01 2.591173e+01 1.590902e+01 4.400739e+00 2.199483e+00 6.416800e+00 1.549857e+00 4.545366e+00 2.680903e+00 2.695712e+00 1.568683e+00 2.941748e+00 2.025748e+00 2.315140e+00 1.824870e+00 9.522675e-01
<GCONST> 9.980270e+01
<STATE> 4
<MEAN> 25
 -1.209110e+01 -4.780264e+00 1.063399e+01 -3.108062e+00 -2.185866e+00 1.862682e+00 8.921118e+00 -1.390098e+00 1.107424e+00 2.368417e+00 1.510102e+00 3.008102e+00 7.205120e-02 -1.190452e-02 -2.207529e-01 1.100998e-01 -7.477392e-02 -3.813036e-03 2.373699e-02 2.133079e-01 1.723676e-02 3.755338e-02 9.181864e-02 -1.327714e-01 -1.435500e-01
<VARIANCE> 25
 4.515420e+01 3.021288e+01 1.340065e+02 2.417603e+01 4.595982e+01 1.609461e+01 6.094591e+01 2.695703e+01 2.046672e+01 5.183535e+01 2.589265e+01 1.289135e+01 8.003855e-01 3.362213e-01 1.058664e+00 6.847814e-01 6.983826e-01 9.038135e-01 9.065086e-01 1.244260e+00 1.104851e+00 1.098208e+00 1.016140e+00 8.989266e-01 2.380687e-01
<GCONST> 8.473003e+01
<TRANSP> 5
 0.000000e+00 1.000000e+00 0.000000e+00 0.000000e+00 0.000000e+00
 0.000000e+00 8.098465e-01 1.901534e-01 0.000000e+00 0.000000e+00
 0.000000e+00 0.000000e+00 6.331134e-01 3.668866e-01 0.000000e+00
 0.000000e+00 0.000000e+00 0.000000e+00 8.975819e-01 1.024181e-01
 0.000000e+00 0.000000e+00 0.000000e+00 0.000000e+00 0.000000e+00
<ENDHMM>
~h "ao"
<BEGINHMM>
<NUMSTATES> 5
<STATE> 2
<MEAN> 25
 -8.039027e+00 9.432576e-01 -3.988080e+00 4.650589e+00 -2.041737e+00 3.937370e-01 -7.796799e-01 2.388028e+00 3.372558e-01 1.024357e+00 1.710546e+00 -1.281437e-01 2.854781e-01 5.229630e-01 -5.628195e-01 9.838690e-01 -1.340104e+00 -7.651876e-01 -1.643110e+00 1.504748e-01 -2.026899e-01 -2.272539e-01 -1.315980e-01 3.803775e-01 4.121413e-01
<VARIANCE> 25
 8.282281e+01 2.046695e+01 5.047480e+01 5.189523e+01 4.255304e+01 8.152233e+01 5.605360e+01 8.788845e+00 3.330000e+01 2.093101e+01 2.010771e+01 9.318698e+00 6.554744e-01 6.239318e-01 3.453961e-01 8.623876e-01 1.813742e+00 3.860926e+00 1.076311e+00 7.581429e-01 6.153106e-01 7.272246e-01 7.310028e-01 1.119298e+00 8.405846e-02
<GCONST> 8.354118e+01
<STATE> 3
<MEAN> 25
 -7.017440e+00 6.242679e-01 -7.686443e+00 8.309082e+00 -7.145743e+00 2.637781e+00 -6.918521e+00 -6.849408e-03 4.356977e-01 -4.372039e-02 -6.976150e-01 -1.755596e+00 3.406017e-01 -4.330636e-01 -8.146137e-02 -4.564965e-01 4.344283e-02 -8.732347e-02 -1.351243e-01 -4.827266e-01 3.602907e-03 -3.477138e-02 1.412924e-01 -4.280005e-02 1.038516e+00
<VARIANCE> 25
 6.031973e+01 1.686954e+01 6.048396e+01 2.567361e+01 2.675582e+01 1.057401e+02 2.161643e+01 1.702640e+01 1.566092e+01 1.738814e+01 9.522681e+00 1.501169e+01 4.190558e-01 4.333168e-01 9.116698e-01 5.725154e-01 1.099307e+00 1.487641e+00 8.205480e-01 2.138493e+00 1.161928e+00 1.334242e+00 6.269907e-01 1.102375e+00 9.436495e-01
<GCONST> 8.335440e+01
<STATE> 4
<MEAN> 25
 9.240160e+00 3.781546e+00 -1.316166e-01 -5.520967e+00 -7.758777e+00 -1.512537e+01 -9.890187e+00 3.372478e+00 -1.269308e+00 7.244591e-01 -6.863430e-01 -9.597889e-01 2.649083e-01 -2.429437e-01 -4.234468e-01 -3.352384e-01 -1.565631e-02 3.925076e-01 1.425488e-01 -2.852052e-03 1.492433e-01 -1.605978e-01 -1.799421e-01 -8.807850e-02 -1.183220e-02
<VARIANCE> 25
 3.790943e+01 1.744586e+01 2.073407e+01 2.351945e+01 3.665797e+01 9.458593e+01 4.373447e+01 8.241255e+01 8.981954e+00 1.477851e+01 1.206594e+01 1.500322e+01 1.741980e+00 6.450797e-01 5.496283e-01 4.696575e-01 1.431068e+00 2.575412e+00 2.009768e+00 1.768043e+00 7.803544e-01 9.452393e-01 7.314107e-01 9.624593e-01 2.729731e-01
<GCONST> 8.443983e+01
<TRANSP> 5
 0.000000e+00 1.000000e+00 0.000000e+00 0.000000e+00 0.000000e+00
 0.000000e+00 6.303796e-01 3.696205e-01 0.000000e+00 0.000000e+00
 0.000000e+00 0.000000e+00 6.835846e-01 3.164155e-01 0.000000e+00
 0.000000e+00 0.000000e+00 0.000000e+00 9.389894e-01 6.101063e-02
 0.000000e+00 0.000000e+00 0.000000e+00 0.000000e+00 0.000000e+00
<ENDHMM>
~h "aw"
<BEGINHMM>
<NUMSTATES> 5
<STATE> 2
<MEAN> 25
 -1.059035e+00 -1.090791e+01 -7.294052e+00 -2.396492e+00 1.219688e+00 -2.833133e+00 6.156306e+00 4.438310e+00 6.981691e-01 -2.805868e+00 -9.041381e-01 1.507720e+00 5.764306e-01 -1.072393e+00 -8.957322e-01 -2.951598e-01 3.610550e-01 -2.170763e-01 -4.298494e-01 -1.687483e-01 -2.341580e-02 2.155868e-01 -8.974125e-01 -1.394540e-01 1.016957e+00
<VARIANCE> 25
 5.110131e+01 4.499902e+01 1.287072e+01 2.623552e+01 3.602030e+01 2.354533e+01 2.532962e+01 3.298468e+01 2.250816e+01 3.707772e+01 1.957620e+01 2.842685e+01 1.159907e+00 2.078868e+00 1.488695e+00 1.114315e+00 1.793195e+00 1.570407e+00 1.466518e+00 2.053115e+00 1.853295e+00 2.024144e+00 1.955498e+00 1.086003e+00 5.107554e-01
<GCONST> 9.095629e+01
<STATE> 3
<MEAN> 25
 4.492904e+00 -9.347222e+00 -9.859012e+00 -1.394394e+00 6.068753e+00 -7.335695e-01 3.694032e+00 1.058497e+00 -2.414232e-01 -2.129494e+00 -5.513297e+00 -5.830773e-01 1.121328e+00 5.791636e-01 -4.744279e-01 -9.713328e-01 1.767449e-02 8.846859e-01 -3.932466e-02 -9.165103e-01 -5.216805e-01 7.978617e-01 -5.509263e-01 -1.667828e-01 4.011855e-01
<VARIANCE> 25
 3.404207e+01 2.636389e+01 1.875379e+01 2.722004e+01 4.583859e+01 2.588278e+01 2.048997e+01 2.993414e+01 1.599613e+01 1.301889e+01 1.975698e+01 1.485708e+01 1.061272e+00 1.580201e+00 1.578100e+00 2.400889e+00 2.519161e+00 2.066168e+00 1.215848e+00 2.052060e+00 1.698060e+00 1.027203e+00 1.668134e+00 1.099796e+00 3.240191e-01
<GCONST> 8.794942e+01
<STATE> 4
<MEAN> 25
 1.067574e+01 -2.728578e+00 -8.219650e+00 -1.095167e+01 -1.841238e+00 -1.734095e+00 1.250377e+00 -5.266431e-01 -3.041472e+00 2.368044e+00 -4.254175e+00 -3.168941e+00 3.868150e-02 4.606740e-01 1.776200e-01 -3.967389e-01 -1.488758e-01 -2.357000e-02 -3.313791e-01 6.559245e-02 -1.220415e-01 8.993725e-02 8.341034e-02 -3.808258e-02 -2.294084e-01
<VARIANCE> 25
 1.062435e+01 2.564520e+01 2.025111e+01 3.177061e+01 6.784862e+01 9.614673e+01 2.415891e+01 6.236019e+01 2.358002e+01 2.668756e+01 2.260951e+01 1.003323e+01 1.247259e-01 3.636378e-01 5.573978e-01 1.065031e+00 9.596248e-01 1.191761e+00 9.652533e-01 1.032923e+00 8.420068e-01 1.175442e+00 7.728302e-01 5.543053e-01 1.516090e-01
<GCONST> 7.976282e+01
<TRANSP> 5
 0.000000e+00 1.000000e+00 0.000000e+00 0.000000e+00 0.000000e+00
 0.000000e+00 5.734358e-01 4.265641e-01 0.000000e+00 0.000000e+00
 0.000000e+00 0.000000e+00 7.722355e-01 2.277646e-01 0.000000e+00
 0.000000e+00 0.000000e+00 0.000000e+00 8.900780e-01 1.099219e-01
 0.000000e+00 0.000000e+00 0.000000e+00 0.000000e+00 0.000000e+00
<ENDHMM>
~h "ay"
<BEGINHMM>
<NUMSTATES> 5
<STATE> 2
<MEAN> 25
 3.823972e+00 -2.542240e+00 2.271650e+00 4.156069e+00 2.474876e+00 -5.594019e+00 -8.530710e+00 -5.831923e+00 -4.003779e+00 7.013062e-01 -5.257499e-01 -9.338557e-01 -4.386503e-01 4.014811e-01 9.191737e-03 9.352570e-01 5.805469e-01 4.580752e-01 2.128143e-01 -9.769779e-02 5.803851e-01 -5.660436e-01 -2.159991e-01 -2.327684e-01 -8.680559e-01
<VARIANCE> 25
 2.474190e+01 2.910639e+01 3.641112e+01 3.755936e+01 6.722360e+01 4.750927e+01 7.777850e+01 7.037455e+01 4.703209e+01 5.166648e+01 3.721680e+01 3.360593e+01 8.242143e-01 1.857106e+00 2.469280e+00 2.142871e+00 2.934063e+00 3.123361e+00 4.208729e+00 4.831344e+00 2.811445e+00 2.756307e+00 2.729288e+00 2.305839e+00 1.901328e+00
<GCONST> 1.031999e+02
<STATE> 3
<MEAN> 25
 -7.989269e-01 2.803671e+00 1.800521e+00 6.020422e+00 2.437151e+00 5.119095e-01 8.104202e-01 -3.320477e+00 2.143366e+00 -1.830159e+00 -1.062432e+00 5.720474e-01 -1.050353e+00 -1.291672e-01 -8.712960e-01 -1.274378e-01 5.065665e-01 7.525940e-01 1.005735e+00 6.952084e-01 8.120995e-01 1.137344e-02 1.456246e-01 4.034672e-01 -7.755981e-01
<VARIANCE> 25
 2.284596e+01 1.852433e+01 1.826439e+01 1.977419e+01 2.309945e+01 2.011867e+01 3.893821e+01 3.086510e+01 2.420182e+01 1.855087e+01 1.811599e+01 1.803859e+01 1.123836e+00 1.690955e+00 1.796890e+00 1.657556e+00 2.538619e+00 2.368571e+00 2.491133e+00 2.549581e+00 2.301913e+00 1.784268e+00 1.945824e+00 1.482921e+00 7.905965e-01
<GCONST> 9.062692e+01
<STATE> 4
<MEAN> 25
 -4.349736e+00 7.282395e-01 -1.827470e+00 2.755528e+00 2.355977e+00 3.567209e+00 4.521568e+00 1.869409e+00 4.449749e+00 -1.299360e-01 1.473436e+00 2.632464e+00 6.737734e-02 1.806329e-02 -3.816836e-02 -2.575718e-02 3.747527e-02 3.319983e-02 -7.376673e-03 5.228047e-02 6.462391e-03 -2.993909e-02 -1.981017e-02 -4.621457e-02 3.790516e-02
<VARIANCE> 25
 1.256566e+01 9.276854e+00 1.050812e+01 1.557887e+01 2.010124e+01 1.291828e+01 1.804856e+01 2.545352e+01 1.569931e+01 1.653105e+01 1.484237e+01 1.294190e+01 7.989104e-01 6.410313e-01 6.814479e-01 8.944880e-01 1.054509e+00 1.127517e+00 1.360125e+00 1.455885e+00 1.431730e+00 1.376534e+00 1.409320e+00 1.132882e+00 7.552254e-01
<GCONST> 7.886729e+01
<TRANSP> 5
 0.000000e+00 1.000000e+00 0.000000e+00 0.000000e+00 0.000000e+00
 0.000000e+00 6.765310e-01 3.234690e-01 0.000000e+00 0.000000e+00
 0.000000e+00 0.000000e+00 7.101288e-01 2.898712e-01 0.000000e+00
 0.000000e+00 0.000000e+00 0.000000e+00 9.399101e-01 6.008989e-02
 0.000000e+00 0.000000e+00 0.000000e+00 0.000000e+00 0.000000e+00
<ENDHMM>
~h "eh"
<BEGINHMM>
<NUMSTATES> 5
<STATE> 2
<MEAN> 25
 9.837173e+00 -3.295499e+00 -7.917606e+00 -1.132792e+01 -8.875907e+00 -2.441922e+00 2.185253e+00 6.119508e-01 -9.681500e+00 7.742159e+00 -9.324142e+00 -1.173799e+00 1.844747e-01 5.054881e-01 7.771763e-03 -2.472997e-01 -5.342063e-01 -3.611836e-01 -4.409396e-01 4.436120e-01 -3.308590e-01 -1.204630e-01 3.300307e-01 -2.932476e-01 -3.185186e-01
<VARIANCE> 25
 7.773530e+00 1.505881e+01 4.098692e+01 1.570570e+01 9.584097e+01 5.414126e+01 3.668186e+01 7.352821e+01 3.205210e+01 1.835344e+01 2.601861e+01 1.704176e+01 9.741464e-02 5.039204e-01 4.431400e-01 5.727763e-01 8.609024e-01 9.095252e-01 6.930621e-01 9.282058e-01 1.044829e+00 9.108551e-01 9.993848e-01 5.938956e-01 1.437613e-01
<GCONST> 7.852101e+01
<STATE> 3
<MEAN> 25
 1.127453e+01 5.034379e+00 -3.801773e+00 -9.119883e+00 -1.124233e+01 -1.105374e+01 -4.664202e+00 6.657188e+00 -9.406727e+00 3.335581e-01 -1.490488e+00 -4.769753e+00 -8.892757e-02 6.010342e-01 4.656780e-01 4.427706e-01 2.594153e-01 1.848248e-02 -3.399025e-01 -4.526353e-01 1.903740e-01 -8.015461e-01 3.293056e-01 -1.791754e-02 -7.054642e-01
<VARIANCE> 25
 5.289491e+00 1.247877e+01 9.956454e+01 4.342207e+01 2.909519e+01 1.122207e+02 1.360755e+01 6.098529e+01 6.838956e+01 1.786090e+01 3.210611e+01 1.220326e+01 1.298661e-01 3.373234e-01 7.974797e-01 8.724195e-01 1.355099e+00 1.122830e+00 1.056916e+00 1.419898e+00 1.764269e+00 8.736972e-01 1.330129e+00 9.142389e-01 2.452132e-01
<GCONST> 8.295695e+01
<STATE> 4
<MEAN> 25
 8.699428e+00 7.752040e+00 8.042029e-01 -2.672528e+00 -3.771297e+00 -6.330760e+00 -6.292500e+00 7.029660e-01 -2.769704e+00 -1.525377e+00 8.485817e-01 -3.433625e+00 -6.624009e-01 2.552676e-01 1.895862e-01 1.179770e+00 1.292830e+00 1.056122e+00 8.147601e-01 -4.999231e-01 1.104816e+00 -7.625162e-02 -7.546224e-02 2.143999e-01 -9.617400e-01
<VARIANCE> 25
 6.543969e+00 1.647861e+01 5.280715e+01 5.070158e+01 4.959155e+01 2.261970e+01 2.246728e+01 3.761703e+01 5.089646e+01 1.671350e+01 3.662322e+01 1.046150e+01 3.807128e-01 7.764283e-01 1.283889e+00 1.543328e+00 1.223947e+00 1.704872e+00 1.544663e+00 4.131698e+00 1.822721e+00 1.119710e+00 1.920015e+00 9.362566e-01 5.470455e-01
<GCONST> 8.772748e+01
<TRANSP> 5
 0.000000e+00 1.000000e+00 0.000000e+00 0.000000e+00 0.000000e+00
 0.000000e+00 9.044058e-01 9.559424e-02 0.000000e+00 0.000000e+00
 0.000000e+00 0.000000e+00 8.845503e-01 1.154496e-01 0.000000e+00
 0.000000e+00 0.000000e+00 0.000000e+00 7.892930e-01 2.107070e-01
 0.000000e+00 0.000000e+00 0.000000e+00 0.000000e+00 0.000000e+00
<ENDHMM>
~h "ey"
<BEGINHMM>
<NUMSTATES> 5
<STATE> 2
<MEAN> 25
 -3.754592e+00 5.919361e-01 -2.015518e+00 4.666261e+00 4.563878e+00 2.564949e+00 6.644735e+00 1.113409e+00 4.656200e+00 -2.424998e+00 1.201401e-01 2.533332e+00 -2.283876e-01 -6.628330e-01 2.004541e-01 -4.039383e-01 -3.523746e-01 -1.802044e-01 2.673609e-02 2.439774e-01 -1.672029e-01 3.827603e-01 -2.154866e-01 1.235653e-02 4.955164e-01
<VARIANCE> 25
 1.437543e+01 1.375364e+01 1.021000e+01 1.371789e+01 2.397256e+01 2.137400e+01 3.796585e+01 2.729686e+01 1.951432e+01 1.678386e+01 1.817038e+01 2.159205e+01 2.176634e+00 2.999330e+00 2.090124e+00 3.517566e+00 4.588454e+00 3.771991e+00 5.854300e+00 3.751632e+00 4.103523e+00 2.281025e+00 2.143885e+00 2.356363e+00 3.926709e+00
<GCONST> 9.615771e+01
<STATE> 3
<MEAN> 25
 1.450886e+00 -8.914969e+00 6.975374e+00 -6.273646e+00 -1.116104e+01 -3.102205e+00 9.450870e-01 7.401237e+00 -4.758087e+00 6.472194e+00 -3.861948e+00 -7.793487e-01 1.922403e+00 -2.960301e-01 1.567055e+00 -1.152667e+00 -3.101623e+00 -4.076972e-01 -1.343436e+00 4.871375e-01 -1.278183e+00 1.060542e+00 -2.250985e-01 -2.888316e-01 3.672788e+00
<VARIANCE> 25
 3.714074e+01 4.108308e+01 1.997043e+01 4.220746e+01 6.583158e+01 1.375663e+01 3.263406e+01 3.145820e+01 2.261118e+01 1.803150e+01 1.642804e+01 1.212036e+01 2.875015e+00 7.134701e+00 1.975104e+00 5.310683e+00 5.977786e+00 2.924279e+00 2.837841e+00 3.098726e+00 3.400184e+00 1.903548e+00 2.337183e+00 1.356878e+00 9.321493e+00
<GCONST> 1.007217e+02
<STATE> 4
<MEAN> 25
 4.129779e+00 2.250865e+00 1.783899e+01 -5.358932e+00 -1.706279e+01 -3.080983e+00 -1.257213e+01 -2.720696e-01 -9.417968e+00 6.773534e+00 1.683593e+00 -3.774029e+00 -1.284489e-01 5.325198e-01 1.414261e-01 3.661338e-01 1.779822e-01 -1.857613e-01 -2.513484e-01 -5.876242e-01 -2.011180e-03 -3.285339e-01 1.692328e-01 -1.705950e-01 -5.246148e-01
<VARIANCE> 25
 5.332472e+00 2.177887e+01 2.168903e+01 1.477311e+01 2.188268e+01 1.132944e+01 3.915875e+01 1.923205e+01 1.271401e+01 1.580046e+01 1.132616e+01 1.263457e+01 1.856864e-01 9.104795e-01 1.271305e+00 9.317553e-01 1.632518e+00 9.563342e-01 2.718646e+00 9.746051e-01 1.042740e+00 9.580689e-01 8.055207e-01 5.828440e-01 9.171332e-01
<GCONST> 7.784309e+01
<TRANSP> 5
 0.000000e+00 1.000000e+00 0.000000e+00 0.000000e+00 0.000000e+00
 0.000000e+00 8.876082e-01 1.123918e-01 0.000000e+00 0.000000e+00
 0.000000e+00 0.000000e+00 7.660111e-01 2.339889e-01 0.000000e+00
 0.000000e+00 0.000000e+00 0.000000e+00 9.425901e-01 5.740991e-02
 0.000000e+00 0.000000e+00 0.000000e+00 0.000000e+00 0.000000e+00
<ENDHMM>
~h "hh"
<BEGINHMM>
<NUMSTATES> 5
<STATE> 2
<MEAN> 25
 -1.552926e+00 4.724667e+00 -2.254688e+00 2.348074e+00 2.861969e+00 1.745527e+00 2.735955e+00 8.622720e+00 3.976512e+00 -2.066418e+00 4.355734e+00 2.679122e+00 2.298751e-03 -2.592894e-03 -6.387649e-03 -1.193170e-02 -1.145627e-03 1.332175e-02 1.306621e-02 2.224409e-03 -1.796750e-02 -3.272468e-02 1.680230e-03 2.230559e-02 1.680650e-03
<VARIANCE> 25
 2.680107e+00 3.245006e+00 2.942791e+00 4.368353e+00 6.011721e+00 4.604637e+00 9.555581e+00 9.152529e+00 7.572978e+00 1.028986e+01 7.421780e+00 7.651111e+00 5.976210e-02 1.368508e-01 2.153773e-01 3.144744e-01 4.312406e-01 4.573794e-01 6.194280e-01 7.466721e-01 8.155252e-01 8.064929e-01 6.994988e-01 6.080313e-01 2.138864e-02
<GCONST> 5.183891e+01
<STATE> 3
<MEAN> 25
 -7.685277e+00 -3.795638e+00 -5.080799e+00 -8.248010e-02 4.236562e+00 6.499164e-01 7.443661e+00 -5.870190e-02 5.636007e+00 -2.525025e+00 8.994860e-01 3.907608e+00 2.551714e-01 -4.560837e-01 -4.675103e-01 -3.214218e-01 -2.104764e-01 8.861279e-02 3.491026e-01 1.639761e-01 -2.005774e-01 3.463534e-03 -2.198252e-02 4.196092e-02 2.744139e-01
<VARIANCE> 25
 1.357402e+01 1.483827e+01 6.979774e+00 8.262928e+00 1.475168e+01 1.148326e+01 1.686956e+01 1.833941e+01 1.538913e+01 1.778145e+01 8.433140e+00 1.232296e+01 1.773776e-01 2.780958e-01 4.989648e-01 5.479643e-01 6.693588e-01 7.200337e-01 1.667829e+00 9.540443e-01 1.436110e+00 1.734710e+00 6.621051e-01 1.314010e+00 7.748640e-02
<GCONST> 7.007378e+01
<STATE> 4
<MEAN> 25
 -2.760707e+00 -8.072067e+00 -6.031790e+00 -7.163603e-01 3.639789e-01 1.620689e+00 8.785927e+00 5.020416e+00 6.194285e-01 -3.574730e+00 3.001899e+00 3.727315e+00 1.339075e-01 -1.576460e+00 -4.818989e-01 -3.395880e-01 -2.782036e-01 -3.462299e-01 2.175945e-01 3.343400e-01 -3.528955e-01 -1.401026e-01 3.586923e-02 -1.569003e-01 9.808422e-01
<VARIANCE> 25
 1.850400e+01 5.059579e+01 6.479247e+00 1.030037e+01 2.893501e+01 1.149181e+01 1.084348e+01 2.554602e+01 2.588041e+01 1.812758e+01 1.702903e+01 7.230914e+00 3.610801e-01 9.352915e-01 7.812393e-01 6.335270e-01 1.350629e+00 1.172376e+00 1.209880e+00 1.474245e+00 1.679352e+00 1.070337e+00 1.114087e+00 1.119833e+00 1.885513e-01
<GCONST> 7.777311e+01
<TRANSP> 5
 0.000000e+00 1.000000e+00 0.000000e+00 0.000000e+00 0.000000e+00
 0.000000e+00 9.622102e-01 3.778979e-02 0.000000e+00 0.000000e+00
 0.000000e+00 0.000000e+00 5.625241e-01 4.374759e-01 0.000000e+00
 0.000000e+00 0.000000e+00 0.000000e+00 7.802005e-01 2.197995e-01
 0.000000e+00 0.000000e+00 0.000000e+00 0.000000e+00 0.000000e+00
<ENDHMM>
~h "ih"
<BEGINHMM>
<NUMSTATES> 5
<STATE> 2
<MEAN> 25
 4.505517e+00 -1.332134e-01 9.338805e+00 3.958827e+00 -5.583448e+00 -5.967637e+00 -1.026144e+01 -4.940407e+00 -5.836976e+00 2.400151e-01 3.685435e-01 -2.043423e+00 5.477713e-01 3.671357e-01 -3.137892e-01 3.960491e-01 5.978624e-01 1.146702e-01 6.149168e-02 -7.590094e-01 4.013558e-02 -3.096615e-01 -2.625658e-01 -2.941170e-01 -9.194248e-01
<VARIANCE> 25
 2.082491e+01 4.067916e+01 5.000655e+01 3.677923e+01 1.663385e+02 2.206766e+01 9.012782e+01 5.271788e+01 2.347654e+01 3.340618e+01 1.600883e+01 2.262247e+01 4.780869e+00 1.549096e+00 4.485483e+00 2.211816e+00 7.013640e+00 2.323454e+00 1.123762e+01 2.967670e+00 3.559846e+00 2.625260e+00 1.529388e+00 1.938405e+00 3.496582e+00
<GCONST> 1.046053e+02
<STATE> 3
<MEAN> 25
 -1.052596e+00 2.402219e+00 1.169796e+00 5.451838e+00 2.616048e+00 -7.431138e-01 1.013615e+00 -3.020201e+00 1.205975e+00 -1.310878e+00 4.097412e-01 1.185742e+00 -8.948035e-01 -3.829684e-01 -9.494154e-01 -2.594556e-01 4.752412e-01 5.355658e-01 1.019488e+00 3.706852e-01 5.537027e-01 -2.631181e-01 7.119352e-02 5.541241e-01 -3.554521e-01
<VARIANCE> 25
 1.323170e+01 2.152684e+01 1.379270e+01 1.491877e+01 3.367052e+01 1.774697e+01 4.108252e+01 5.427584e+01 2.939950e+01 1.777845e+01 1.995861e+01 2.299329e+01 1.225434e+00 1.932208e+00 1.481445e+00 2.617718e+00 4.098927e+00 2.426710e+00 4.420700e+00 4.511979e+00 3.253190e+00 1.723337e+00 1.698763e+00 1.636250e+00 3.399441e+00
<GCONST> 9.489333e+01
<STATE> 4
<MEAN> 25
 -8.628444e+00 -9.574415e-01 -2.476883e-01 1.937744e+00 3.017533e+00 2.437977e+00 6.572604e+00 -9.907569e-01 3.446967e+00 5.251177e-01 8.672661e-01 3.668221e+00 -2.613892e-02 2.012761e-01 6.235407e-02 -1.143355e-01 7.217944e-03 6.658855e-02 6.122186e-02 7.646037e-02 1.198804e-01 1.443446e-01 3.033087e-03 -1.239187e-01 8.191261e-02
<VARIANCE> 25
 3.912001e+01 2.144171e+01 7.439819e+01 3.820098e+01 4.687155e+01 1.970854e+01 3.447499e+01 2.690910e+01 3.727411e+01 2.937473e+01 1.823057e+01 1.876516e+01 2.947864e+00 2.045953e+00 2.030520e+00 1.468359e+00 1.715555e+00 1.806979e+00 2.003408e+00 2.987420e+00 2.489019e+00 1.992965e+00 1.725198e+00 1.665404e+00 1.479936e+00
<GCONST> 9.598484e+01
<TRANSP> 5
 0.000000e+00 1.000000e+00 0.000000e+00 0.000000e+00 0.000000e+00
 0.000000e+00 7.820932e-01 2.179068e-01 0.000000e+00 0.000000e+00
 0.000000e+00 0.000000e+00 8.204483e-01 1.795517e-01 0.000000e+00
 0.000000e+00 0.000000e+00 0.000000e+00 8.882592e-01 1.117408e-01
 0.000000e+00 0.000000e+00 0.000000e+00 0.000000e+00 0.000000e+00
<ENDHMM>
~h "iy"
<BEGINHMM>
<NUMSTATES> 5
<STATE> 2
<MEAN> 25
 7.105796e+00 1.672439e+00 6.418657e+00 3.840612e+00 -2.693584e+00 -2.971867e+00 -6.448852e+00 -5.649467e+00 -5.731102e+00 9.054826e-02 3.337701e+00 -4.769654e+00 2.532642e-01 -4.224615e-01 1.159288e+00 -7.452643e-01 -6.979018e-01 -6.674308e-02 -1.328148e+00 -3.098959e-01 -7.891147e-01 7.108722e-01 6.182312e-01 -5.300307e-01 1.241900e+00
<VARIANCE> 25
 1.908888e+01 3.024297e+01 9.525861e+01 4.208175e+01 1.248724e+02 5.344153e+01 5.115905e+01 4.654300e+01 3.694848e+01 3.504250e+01 2.919004e+01 1.733021e+01 3.072922e+00 3.565732e+00 4.254694e+00 5.013999e+00 5.037238e+00 7.500065e+00 3.624991e+00 4.782227e+00 3.384276e+00 3.883810e+00 3.522645e+00 3.148948e+00 2.172295e+00
<GCONST> 1.082719e+02
<STATE> 3
<MEAN> 25
 3.534127e+00 8.201575e+00 1.602896e+01 -5.359486e+00 -9.507258e+00 -1.115434e-01 -1.172379e+01 -3.025967e+00 -7.756052e+00 2.629193e+00 6.250392e+00 -9.845586e+00 -1.124145e-01 2.366821e-01 -2.567444e-01 1.348384e-01 3.644322e-01 -7.038662e-02 6.033653e-02 -9.031925e-02 1.951870e-01 -9.294945e-02 -3.266834e-01 -2.053682e-02 -3.581997e-01
<VARIANCE> 25
 1.139804e+01 2.121999e+01 3.572100e+01 3.231314e+01 4.313207e+01 2.821658e+01 3.027365e+01 3.292654e+01 1.782809e+01 1.448459e+01 3.430853e+01 2.312846e+01 5.984608e-01 7.094393e-01 1.555982e+00 2.384596e+00 1.416445e+00 1.935531e+00 2.075282e+00 1.472644e+00 1.538587e+00 1.075866e+00 2.346165e+00 1.187766e+00 8.106922e-01
<GCONST> 8.862471e+01
<STATE> 4
<MEAN> 25
 4.002642e+00 -4.157821e+00 7.531612e+00 1.032597e+01 7.419222e+00 -7.798763e+00 -1.588765e+01 -5.348698e+00 -9.994135e-01 -3.383064e-02 -2.469397e+00 -8.471944e+00 -2.195847e-01 1.300987e-01 8.969223e-02 1.111221e-01 -1.351976e-01 2.430065e-01 4.967106e-01 2.904096e-01 3.409833e-01 -4.098502e-02 -2.122446e-01 2.143978e-02 -3.501722e-01
<VARIANCE> 25
 7.881818e+00 3.121524e+01 2.891831e+01 4.757880e+01 3.469495e+01 3.928218e+01 4.478149e+01 4.623700e+01 3.391587e+01 4.575749e+01 5.181275e+01 2.075574e+01 1.650515e-01 1.718801e+00 1.093364e+00 1.267233e+00 9.425028e-01 2.678791e+00 2.124695e+00 1.377833e+00 1.416540e+00 1.594856e+00 1.780386e+00 9.068451e-01 8.288531e-01
<GCONST> 9.003274e+01
<TRANSP> 5
 0.000000e+00 1.000000e+00 0.000000e+00 0.000000e+00 0.000000e+00
 0.000000e+00 8.364611e-01 1.635390e-01 0.000000e+00 0.000000e+00
 0.000000e+00 0.000000e+00 9.261057e-01 7.389427e-02 0.000000e+00
 0.000000e+00 0.000000e+00 0.000000e+00 9.274515e-01 7.254851e-02
 0.000000e+00 0.000000e+00 0.000000e+00 0.000000e+00 0.000000e+00
<ENDHMM>
~h "ow"
<BEGINHMM>
<NUMSTATES> 5
<STATE> 2
<MEAN> 25
 -3.906656e+00 -7.718960e+00 1.335833e+01 4.932287e+00 2.627095e+00 -3.489147e+00 -2.001336e+00 -1.612138e+01 -1.338063e+01 1.601838e+00 -1.907563e-01 -2.890769e+00 8.411996e-01 -3.577754e-03 -1.211129e+00 -3.730536e-02 2.940636e-01 6.717001e-01 -1.244043e+00 -4.696375e-01 2.411290e-01 6.255709e-02 -3.736552e-02 -3.564821e-01 1.407105e-02
<VARIANCE> 25
 1.524990e+02 1.156525e+01 1.194628e+02 2.808901e+01 4.558868e+01 2.538934e+01 2.366648e+02 9.153859e+01 6.213798e+01 9.552996e+00 1.477595e+01 2.571200e+01 2.704143e+00 4.453067e-01 2.217591e+00 2.097862e+00 1.541883e+00 9.355748e-01 5.128400e+00 3.441303e+00 2.944183e+00 1.116941e+00 1.188711e+00 9.298853e-01 2.329614e-01
<GCONST> 9.569794e+01
<STATE> 3
<MEAN> 25
 1.528105e+01 -1.875941e+00 -9.405756e+00 -3.124227e+00 -2.247370e+00 -1.668855e-01 -1.603890e+01 5.158415e+00 -8.539373e+00 7.150130e-01 1.044604e+01 -3.514222e-01 3.537512e-02 2.114732e-01 -4.150662e-01 -6.331801e-01 -5.932478e-02 3.002687e-01 6.845872e-01 3.610559e-01 -4.755223e-01 -2.750868e-01 9.715783e-02 -5.386247e-02 -1.071122e-01
<VARIANCE> 25
 5.240266e+00 4.584911e+00 1.121847e+01 2.804910e+01 1.559169e+01 1.495387e+01 3.846572e+01 4.322723e+01 3.107189e+01 8.810097e+00 1.305112e+01 7.295686e+00 6.264917e-02 3.251784e-01 6.584982e-01 6.995748e-01 5.467111e-01 7.196472e-01 9.253598e-01 1.530256e+00 7.536169e-01 4.458923e-01 5.517496e-01 5.284672e-01 2.668090e-01
<GCONST> 6.901606e+01
<STATE> 4
<MEAN> 25
 8.921037e+00 7.520846e-01 -6.317489e+00 -6.487150e+00 -1.394262e+00 -1.574590e+00 -5.860872e+00 -8.065544e+00 -7.182866e+00 -3.460679e+00 -5.921750e+00 -3.064612e+00 -5.266800e-01 4.834459e-01 1.947169e-01 8.436513e-02 -1.512153e-01 2.060091e-01 1.052195e+00 3.601332e-01 8.952484e-01 -1.880576e-01 -4.842915e-01 6.625703e-02 -8.269303e-01
<VARIANCE> 25
 1.002533e+01 1.525514e+01 1.898775e+01 4.623540e+01 7.314328e+01 3.733272e+01 3.925726e+01 5.751672e+01 2.901745e+01 2.185638e+01 7.041373e+01 2.491919e+01 1.095662e+00 4.578960e-01 1.515177e+00 2.342568e+00 2.418242e+00 2.334883e+00 2.492622e+00 3.895024e+00 2.029961e+00 1.980381e+00 2.178741e+00 2.345555e+00 7.498102e-01
<GCONST> 9.462714e+01
<TRANSP> 5
 0.000000e+00 1.000000e+00 0.000000e+00 0.000000e+00 0.000000e+00
 0.000000e+00 8.589321e-01 1.410679e-01 0.000000e+00 0.000000e+00
 0.000000e+00 0.000000e+00 9.233701e-01 7.662994e-02 0.000000e+00
 0.000000e+00 0.000000e+00 0.000000e+00 9.079494e-01 9.205057e-02
 0.000000e+00 0.000000e+00 0.000000e+00 0.000000e+00 0.000000e+00
<ENDHMM>
~h "sp"
<BEGINHMM>
<NUMSTATES> 3
<STATE> 2
~s "silst"
<TRANSP> 3
 0.000000e+00 1.716010e-01 8.283990e-01
 0.000000e+00 9.193473e-01 8.065271e-02
 0.000000e+00 0.000000e+00 0.000000e+00
<ENDHMM>
~h "th"
<BEGINHMM>
<NUMSTATES> 5
<STATE> 2
<MEAN> 25
 5.673720e-01 3.698116e-01 3.374021e-01 2.084870e+00 4.892679e-01 1.781566e+00 1.703280e+00 -1.629303e-01 -1.563409e+00 -4.333534e+00 -2.723756e+00 -1.619766e+00 4.063636e-03 -4.812415e-01 -1.322051e+00 1.722488e-01 2.638831e-01 -1.699154e-01 1.216601e-01 1.087060e-01 3.146489e-01 3.263879e-02 9.068426e-02 3.841361e-01 -4.635403e-02
<VARIANCE> 25
 3.668805e+01 1.588876e+01 2.079978e+01 7.040321e+00 3.782501e+01 1.316703e+01 6.541733e+01 2.227884e+01 2.695631e+01 2.069725e+01 3.572032e+01 3.780431e+01 1.901435e+00 4.924841e+00 2.592064e+00 1.815274e+00 3.938709e+00 3.818330e+00 6.143562e+00 3.834270e+00 3.706700e+00 2.859829e+00 3.971975e+00 6.543552e+00 3.660544e+00
<GCONST> 1.009010e+02
<STATE> 3
<MEAN> 25
 -5.137162e+00 -2.227213e+00 -6.673681e+00 4.239416e+00 -7.421565e-01 2.203804e+00 3.060177e+00 -6.559080e-01 5.325884e+00 -1.525189e+00 -3.634751e-01 2.795086e+00 2.907477e-02 -2.930466e-01 -2.863037e-01 -1.197757e-01 -2.648575e-01 -3.244186e-01 -1.994971e-01 -1.210394e-01 1.730117e-01 2.279318e-02 -3.043028e-01 2.624232e-01 1.454123e+00
<VARIANCE> 25
 2.178022e+01 1.487546e+01 2.353613e+01 1.196673e+01 1.673618e+01 1.253641e+01 2.700789e+01 1.212116e+01 2.392851e+01 1.488882e+01 1.743433e+01 1.543713e+01 1.593475e+00 1.211710e+00 2.126863e+00 1.275924e+00 1.809411e+00 2.019415e+00 1.963160e+00 1.301460e+00 2.718719e+00 2.241515e+00 1.123131e+00 1.497767e+00 2.339266e+00
<GCONST> 8.704386e+01
<STATE> 4
<MEAN> 25
 -2.985083e+00 -5.493334e+00 -4.975584e+00 -5.476403e-02 -3.464478e-01 -4.733433e+00 5.496467e-01 -1.530527e+00 7.232810e-01 -3.969816e+00 -9.666657e-02 5.622817e+00 1.643890e+00 -2.235585e-01 1.636435e+00 -1.932312e-01 7.993572e-01 -7.737229e-01 -1.269176e+00 -2.939188e-01 -8.890442e-01 -6.046783e-01 -3.367777e-01 -6.793398e-01 8.793568e-01
<VARIANCE> 25
 2.614817e+01 2.409271e+01 1.979889e+01 1.272798e+01 3.067276e+01 6.528773e+01 3.190176e+01 1.417337e+01 5.608442e+01 2.362867e+01 4.021446e+01 2.421880e+01 4.509985e+00 2.912528e+00 3.090799e+00 2.569525e+00 3.323232e+00 6.765719e+00 2.940026e+00 3.286592e+00 2.956145e+00 2.813198e+00 2.724400e+00 2.113410e+00 3.917924e+00
<GCONST> 1.009718e+02
<TRANSP> 5
 0.000000e+00 1.000000e+00 0.000000e+00 0.000000e+00 0.000000e+00
 0.000000e+00 5.301141e-01 4.698859e-01 0.000000e+00 0.000000e+00
 0.000000e+00 0.000000e+00 8.602552e-01 1.397448e-01 0.000000e+00
 0.000000e+00 0.000000e+00 0.000000e+00 5.378902e-01 4.621098e-01
 0.000000e+00 0.000000e+00 0.000000e+00 0.000000e+00 0.000000e+00
<ENDHMM>
~h "uw"
<BEGINHMM>
<NUMSTATES> 5
<STATE> 2
<MEAN> 25
 5.908027e+00 3.619944e+00 8.436538e+00 4.521399e+00 -3.418542e-01 -6.186587e+00 -1.012736e+01 1.509841e+00 -6.080403e+00 -5.570522e+00 1.564861e+00 -5.805120e+00 1.079841e+00 6.229022e-01 -2.245284e-01 3.863902e-01 4.467865e-01 3.399840e-01 -2.070602e+00 -1.037478e+00 -3.024023e-01 2.239894e-01 -2.289379e-02 -7.214375e-01 6.594130e-02
<VARIANCE> 25
 1.371872e+01 3.808958e+01 2.626505e+01 2.126540e+01 2.061194e+01 1.664977e+01 5.185885e+01 1.027274e+02 1.485857e+01 2.866356e+01 1.948928e+01 2.126176e+01 2.281794e+00 8.981063e-01 8.938169e-01 1.041791e+00 2.195039e+00 1.770621e+00 4.893429e+00 3.378871e+00 2.072541e+00 3.520090e+00 2.983400e+00 2.259847e+00 3.638836e-01
<GCONST> 9.272465e+01
<STATE> 3
<MEAN> 25
 9.880006e+00 5.978132e+00 -3.173419e+00 4.208576e+00 5.404017e-01 -1.430996e+00 -1.995956e+01 -4.390514e+00 -8.888448e+00 1.992218e+00 1.137673e+01 -9.469409e+00 9.916797e-02 2.188598e-01 -4.053744e-01 -3.588522e-01 3.612445e-02 2.828464e-01 4.197432e-01 -4.131086e-01 7.896080e-02 1.689797e-02 8.423832e-02 5.316847e-01 -3.157337e-01
<VARIANCE> 25
 5.476274e+00 1.347246e+01 1.191232e+01 1.560696e+01 1.202410e+01 9.271968e+00 2.905422e+01 2.496831e+01 1.419855e+01 2.267571e+01 2.113810e+01 2.587699e+01 8.345541e-02 3.991005e-01 5.695773e-01 7.263399e-01 7.109571e-01 7.127652e-01 1.126101e+00 8.481330e-01 7.609056e-01 9.309623e-01 1.022439e+00 1.052621e+00 1.946794e-01
<GCONST> 7.193485e+01
<STATE> 4
<MEAN> 25
 3.134490e+00 9.403740e-01 -2.328004e+00 3.891991e-01 6.866634e+00 1.670649e+00 -7.177897e+00 -8.324350e+00 -7.057003e+00 -5.327660e+00 -1.293786e+00 1.069639e+00 -1.730030e-01 1.626714e-01 -2.193694e-02 -1.035056e-01 -6.883740e-02 1.212967e-01 5.619617e-01 5.533960e-01 1.798004e-01 1.309205e-01 -7.010326e-04 8.210725e-02 -3.365196e-01
<VARIANCE> 25
 1.569687e+01 3.293261e+01 1.000049e+01 1.816348e+01 3.222688e+01 7.499106e+00 1.067315e+02 1.932814e+02 7.866203e+01 1.605430e+01 2.118795e+01 1.029727e+01 1.826550e-01 3.784216e-01 3.797791e-01 6.600318e-01 7.270498e-01 4.855101e-01 1.350961e+00 1.297904e+00 1.475414e+00 7.291563e-01 7.082933e-01 5.917377e-01 1.581780e-01
<GCONST> 7.816957e+01
<TRANSP> 5
 0.000000e+00 1.000000e+00 0.000000e+00 0.000000e+00 0.000000e+00
 0.000000e+00 8.749688e-01 1.250312e-01 0.000000e+00 0.000000e+00
 0.000000e+00 0.000000e+00 8.976316e-01 1.023684e-01 0.000000e+00
 0.000000e+00 0.000000e+00 0.000000e+00 9.447889e-01 5.521110e-02
 0.000000e+00 0.000000e+00 0.000000e+00 0.000000e+00 0.000000e+00
<ENDHMM>
~h "sil"
<BEGINHMM>
<NUMSTATES> 5
<STATE> 2
<MEAN> 25
 -4.216720e+00 -5.822075e-01 -2.179625e+00 2.632945e+00 2.749011e+00 2.441367e+00 5.316997e+00 1.426168e+00 3.594163e+00 -1.239663e+00 1.064990e+00 2.246136e+00 7.430842e-02 2.435667e-02 -2.409910e-01 -7.749040e-02 3.494361e-02 -4.107451e-02 -1.531173e-01 -8.235803e-02 -1.793074e-03 -2.311737e-01 -1.477117e-01 -9.551140e-03 7.630259e-03
<VARIANCE> 25
 1.320665e+01 1.368934e+01 1.351717e+01 1.644668e+01 1.992157e+01 1.795119e+01 3.131681e+01 3.531538e+01 2.505624e+01 2.316855e+01 1.853169e+01 1.514733e+01 6.004491e-01 1.626225e+00 9.340717e-01 1.324328e+00 1.675188e+00 1.802073e+00 2.279295e+00 2.590103e+00 1.877986e+00 2.107085e+00 1.822158e+00 1.435468e+00 6.499199e-01
<GCONST> 8.641293e+01
<STATE> 3
~s "silst"
<STATE> 4
<MEAN> 25
 -2.822870e+00 1.116209e+00 -2.050306e+00 -5.850642e-02 -3.844332e-01 4.510922e+00 3.729316e+00 1.330805e+00 2.555470e+00 8.158348e-01 7.745009e-01 1.934855e+00 2.723484e-03 1.600815e-02 -8.789021e-03 -1.712364e-02 9.439144e-03 1.824494e-02 -1.271610e-02 9.597772e-03 2.445681e-02 1.068517e-02 -4.630368e-04 -2.820052e-03 -9.916965e-03
<VARIANCE> 25
 2.578431e+00 6.515507e+00 4.870107e+00 1.032434e+01 1.213343e+01 8.577639e+00 8.984978e+00 2.995235e+01 1.112435e+01 1.430396e+01 1.328533e+01 9.284841e+00 7.062012e-02 2.031388e-01 2.381167e-01 3.932607e-01 5.224643e-01 5.833759e-01 7.208340e-01 7.685049e-01 7.905779e-01 9.237258e-01 8.314503e-01 7.480364e-01 5.393761e-02
<GCONST> 6.071041e+01
<TRANSP> 5
 0.000000e+00 1.000000e+00 0.000000e+00 0.000000e+00 0.000000e+00
 0.000000e+00 5.586345e-01 1.818627e-01 2.595027e-01 0.000000e+00
 0.000000e+00 0.000000e+00 9.600941e-01 3.990595e-02 0.000000e+00
 0.000000e+00 1.843507e-02 0.000000e+00 9.425427e-01 3.902227e-02
 0.000000e+00 0.000000e+00 0.000000e+00 0.000000e+00 0.000000e+00
<ENDHMM>
