~o
<STREAMINFO> 1 25
<VECSIZE> 25<NULLD><MFCC_D_N_Z_0><DIAGC>
~s "silst"
<MEAN> 25
 -6.895364e+00 -2.387803e+00 -3.760802e+00 6.012181e-01 3.403042e+00 1.420108e+00 5.861801e+00 -7.314373e-01 4.941724e+00 -2.260051e+00 1.246688e+00 2.403503e+00 -2.256079e-02 -1.985503e-02 -2.383254e-02 -2.419175e-02 -3.206616e-02 -5.996152e-03 -1.562524e-02 -1.032231e-02 -4.876267e-02 -5.054027e-02 -3.492126e-02 -3.984297e-02 -2.116729e-02
<VARIANCE> 25
 6.365106e+00 9.087379e+00 6.012033e+00 1.012209e+01 1.631325e+01 1.322809e+01 1.240199e+01 1.763780e+01 1.276754e+01 1.766015e+01 1.259828e+01 1.294346e+01 1.113356e-01 2.377395e-01 4.174964e-01 5.493279e-01 8.700353e-01 1.003722e+00 1.104928e+00 1.391301e+00 1.330870e+00 1.314554e+00 1.303557e+00 1.182637e+00 3.839495e-02
<GCONST> 6.831025e+01
~h "b"
<BEGINHMM>
<NUMSTATES> 5
<STATE> 2
<MEAN> 25
 1.067688e+01 -8.040622e+00 -6.977953e+00 -6.483141e+00 -1.718957e+00 1.182058e-01 -6.514625e+00 6.760480e+00 -3.638685e+00 6.649701e+00 -1.205871e+01 -5.644820e+00 -1.205281e-01 -1.504193e-01 2.407800e-01 3.278193e-01 1.268460e-01 -3.599091e-01 4.269789e-01 2.890460e-01 -6.351925e-02 -3.141034e-01 -2.319279e-01 4.395696e-01 -1.234698e-01
<VARIANCE> 25
 2.807525e+00 7.684549e+00 7.788362e+00 1.446970e+01 2.351185e+01 1.941416e+01 1.393143e+01 1.461985e+02 1.346692e+01 1.862162e+01 1.959464e+01 2.148715e+01 8.343321e-02 3.287680e-01 6.414215e-01 5.044091e-01 9.335658e-01 7.586384e-01 9.654825e-01 1.207331e+00 7.960352e-01 9.663177e-01 1.227548e+00 5.476861e-01 1.351114e-01
<GCONST> 7.147572e+01
<STATE> 3
<MEAN> 25
 7.955692e+00 -6.705963e+00 3.648855e+00 -1.688257e+00 -7.486875e+00 -4.987599e+00 -1.634966e+00 1.129306e+01 -4.895821e+00 6.023039e+00 -3.339718e+00 -3.738329e+00 -4.636698e-01 4.616275e-01 1.622683e+00 2.667400e-01 -1.060448e+00 -3.228518e-01 5.429707e-01 -1.188068e+00 -5.177080e-01 3.511113e-01 2.020609e+00 3.114142e-01 -5.369399e-01
<VARIANCE> 25
 4.022772e+00 4.087080e+00 3.197857e+01 7.885234e+00 1.959439e+01 1.126413e+01 8.895377e+00 4.784644e+01 1.226820e+01 1.208651e+01 4.795873e+01 1.162675e+01 1.304878e-01 3.638258e-01 7.703738e-01 9.130332e-01 9.705498e-01 1.099321e+00 9.043121e-01 2.223314e+00 1.083153e+00 8.920413e-01 9.775953e-01 6.875221e-01 1.299065e-01
<GCONST> 7.194111e+01
<STATE> 4
<MEAN> 25
 2.226468e+00 1.402134e+00 1.340444e+01 1.623155e-02 -9.601071e+00 -5.472906e-01 1.922266e+00 -2.532985e+00 -1.780175e+00 6.739830e+00 4.999012e+00 -5.045664e-01 -5.471851e-01 5.493170e-01 -1.957585e-01 2.805721e-01 5.698134e-01 6.348861e-01 5.160497e-01 -6.583109e-01 8.015013e-01 -3.187423e-01 -2.681742e-01 3.328612e-01 -1.175462e+00
<VARIANCE> 25
 1.117923e+01 1.008843e+01 2.674485e+01 1.192840e+01 1.887158e+01 2.603037e+01 3.740334e+01 2.780449e+01 3.527923e+01 1.481804e+01 1.564338e+01 1.269370e+01 3.586106e-01 6.398904e-01 1.810593e+00 1.051479e+00 1.104927e+00 1.427773e+00 2.032633e+00 1.303893e+00 1.273887e+00 1.198041e+00 1.366875e+00 7.681099e-01 3.203996e-01
<GCONST> 8.106755e+01
<TRANSP> 5
 0.000000e+00 1.000000e+00 0.000000e+00 0.000000e+00 0.000000e+00
 0.000000e+00 8.979194e-01 1.020807e-01 0.000000e+00 0.000000e+00
 0.000000e+00 0.000000e+00 8.627142e-01 1.372858e-01 0.000000e+00
 0.000000e+00 0.000000e+00 0.000000e+00 9.038073e-01 9.619271e-02
 0.000000e+00 0.000000e+00 0.000000e+00 0.000000e+00 0.000000e+00
<ENDHMM>
~h "d"
<BEGINHMM>
<NUMSTATES> 5
<STATE> 2
<MEAN> 25
 2.911194e+00 5.881904e+00 2.915850e+00 6.292594e+00 3.678071e+00 1.359619e-01 2.632879e-01 -2.978534e+00 1.080142e+00 -2.852362e+00 -1.981441e+00 -1.547506e+00 1.503826e+00 1.487066e-01 5.108366e-01 -7.537142e-02 -3.944335e-01 -1.025406e+00 -1.180029e+00 -8.685446e-01 -1.051504e+00 -2.259043e-01 -3.048316e-01 -7.539077e-01 1.701841e+00
<VARIANCE> 25
 2.760645e+01 4.237874e+01 2.679528e+01 2.181764e+01 3.254404e+01 3.912717e+01 3.287301e+01 4.198988e+01 2.140582e+01 1.667665e+01 1.675531e+01 1.322614e+01 3.639210e+00 4.440689e+00 3.167788e+00 3.211130e+00 3.344151e+00 4.223729e+00 3.168823e+00 4.304298e+00 3.511103e+00 2.124496e+00 1.924872e+00 2.181396e+00 1.816911e+00
<GCONST> 9.944521e+01
<STATE> 3
<MEAN> 25
 8.708512e+00 -9.151238e-01 -2.226707e+00 2.344504e-01 -7.910189e-02 -3.108902e+00 -6.441344e+00 1.383730e-01 -2.396910e+00 3.517466e+00 -2.032292e+00 -4.729948e+00 1.236416e+00 -2.249865e+00 -1.177127e+00 -2.448317e+00 -1.215064e+00 -2.138526e-01 -1.546203e+00 2.719976e+00 -9.515487e-01 2.467838e+00 -7.532248e-01 -1.348165e+00 2.705029e+00
<VARIANCE> 25
 2.112778e+01 3.692400e+01 2.745156e+01 4.481558e+01 2.668326e+01 2.125244e+01 2.846985e+01 7.523608e+01 2.432139e+01 5.611976e+01 1.668995e+01 1.841858e+01 2.002259e+00 3.466602e+00 2.548057e+00 3.205026e+00 2.574161e+00 3.572680e+00 3.725295e+00 8.802198e+00 2.641813e+00 4.976182e+00 3.398514e+00 1.400081e+00 2.891216e+00
<GCONST> 1.016225e+02
<STATE> 4
<MEAN> 25
 4.845154e+00 -8.823659e-01 9.462038e+00 -3.866099e+00 -8.696350e+00 -4.377911e+00 -7.795108e+00 4.581479e+00 -7.232713e+00 3.976792e+00 -5.212804e-01 -2.158228e+00 -2.202881e-01 2.672473e-01 5.073102e-01 2.359051e-01 -3.446375e-01 -1.269252e-01 9.310583e-03 -2.650252e-01 -1.536827e-01 -7.102098e-02 1.569635e-01 2.515512e-01 -1.903956e-01
<VARIANCE> 25
 9.767913e+00 3.989627e+01 5.701801e+01 2.096371e+01 4.942089e+01 1.960491e+01 2.948995e+01 6.948353e+01 1.788788e+01 3.024019e+01 3.587587e+01 1.171479e+01 3.804231e-01 1.845539e+00 2.199042e+00 1.949497e+00 4.281225e+00 1.393048e+00 3.889284e+00 2.785234e+00 1.430899e+00 2.182359e+00 2.811711e+00 8.180639e-01 2.742980e+00
<GCONST> 9.408489e+01
<TRANSP> 5
 0.000000e+00 1.000000e+00 0.000000e+00 0.000000e+00 0.000000e+00
 0.000000e+00 6.913455e-01 3.086545e-01 0.000000e+00 0.000000e+00
 0.000000e+00 0.000000e+00 6.039043e-01 3.960957e-01 0.000000e+00
 0.000000e+00 0.000000e+00 0.000000e+00 8.851085e-01 1.148915e-01
 0.000000e+00 0.000000e+00 0.000000e+00 0.000000e+00 0.000000e+00
<ENDHMM>
~h "f"
<BEGINHMM>
<NUMSTATES> 5
<STATE> 2
<MEAN> 25
 -9.566896e-01 3.035841e+00 1.183333e+00 2.586799e+00 4.330361e+00 1.831117e+00 7.884536e-01 -1.535121e+00 -2.356928e-01 -2.591399e+00 4.833437e-01 -4.829036e-01 -1.414297e+00 -9.606924e-01 -8.470353e-01 -3.338379e-01 -3.607310e-01 1.761238e-01 1.325630e+00 1.682039e-01 1.221169e+00 4.985712e-01 9.576723e-02 9.344317e-01 -5.134067e-01
<VARIANCE> 25
 3.039389e+01 2.055806e+01 2.964155e+01 2.666494e+01 2.861086e+01 1.375303e+01 2.249991e+01 4.007778e+01 4.034839e+01 2.028712e+01 1.439795e+01 2.154339e+01 2.182186e+00 8.595328e-01 2.618773e+00 2.179803e+00 2.776894e+00 2.462388e+00 3.717454e+00 2.137499e+00 4.350615e+00 2.211473e+00 1.415409e+00 1.667687e+00 1.757044e+00
<GCONST> 9.433350e+01
<STATE> 3
<MEAN> 25
 -5.831705e+00 -8.709269e-01 -1.645543e+00 -9.677832e-01 2.582527e+00 2.341422e+00 3.166420e+00 -7.563299e-02 1.949998e+00 -2.370839e-01 6.393707e-01 1.244185e+00 -2.798503e-01 -1.194831e-01 -1.066075e-01 -1.845976e-01 1.134993e-01 -9.050862e-02 1.536412e-02 1.016215e-01 3.454956e-02 -4.075300e-04 2.522884e-02 -1.296568e-02 1.535449e-01
<VARIANCE> 25
 1.999883e+01 7.491174e+00 8.490756e+00 2.108209e+01 1.944757e+01 1.515392e+01 1.817551e+01 1.750832e+01 1.472579e+01 1.877928e+01 1.322224e+01 1.178155e+01 4.585319e-01 4.125384e-01 5.374852e-01 7.969798e-01 1.006434e+00 9.205828e-01 1.152030e+00 1.430931e+00 1.187948e+00 1.001299e+00 1.106055e+00 9.322580e-01 3.341730e-01
<GCONST> 7.528191e+01
<STATE> 4
<MEAN> 25
 -2.926703e-01 -1.620698e+00 -3.271384e+00 -1.635581e+00 -4.108219e-01 -3.594419e+00 3.970347e-01 3.768378e+00 1.905549e+00 5.783883e-01 6.198031e-01 3.712366e-01 6.176304e-01 1.825959e-01 -2.303482e-01 4.877052e-01 -4.551591e-01 -2.183771e-01 -7.296706e-01 -3.874165e-01 -6.400707e-01 2.267586e-01 -5.713345e-03 -9.221137e-04 4.953225e-01
<VARIANCE> 25
 9.995177e+01 3.048864e+01 3.861429e+01 2.722170e+01 4.136621e+01 5.422743e+01 2.453160e+01 2.671241e+01 2.694029e+01 1.516400e+01 1.227718e+01 1.644243e+01 3.819836e+00 3.805468e+00 1.896672e+00 1.662630e+00 3.327363e+00 3.422850e+00 2.187737e+00 2.321662e+00 1.468404e+00 1.148370e+00 1.162480e+00 1.613457e+00 1.035816e+00
<GCONST> 9.551711e+01
<TRANSP> 5
 0.000000e+00 1.000000e+00 0.000000e+00 0.000000e+00 0.000000e+00
 0.000000e+00 6.686106e-01 3.313895e-01 0.000000e+00 0.000000e+00
 0.000000e+00 0.000000e+00 9.194396e-01 8.056043e-02 0.000000e+00
 0.000000e+00 0.000000e+00 0.000000e+00 8.381041e-01 1.618959e-01
 0.000000e+00 0.000000e+00 0.000000e+00 0.000000e+00 0.000000e+00
<ENDHMM>
~h "k"
<BEGINHMM>
<NUMSTATES> 5
<STATE> 2
<MEAN> 25
 -1.811102e+00 3.213617e+00 -4.737573e-01 3.014139e+00 2.774607e+00 2.504891e+00 1.710583e+00 7.256173e+00 4.479455e+00 -1.585023e+00 3.987524e+00 1.554455e+00 4.232368e-03 1.377491e-02 -2.649146e-02 2.278979e-02 -2.667709e-02 -5.485393e-03 1.806270e-02 1.989396e-02 -3.255575e-03 -6.125015e-03 3.217355e-02 5.083233e-03 -1.511231e-02
<VARIANCE> 25
 4.377825e+00 5.829960e+00 6.298440e+00 9.709790e+00 7.468642e+00 6.470130e+00 8.315810e+00 1.700513e+01 1.015775e+01 1.130314e+01 8.738138e+00 7.025430e+00 8.007070e-02 1.634253e-01 2.614749e-01 3.171881e-01 5.306159e-01 5.967104e-01 7.255296e-01 7.960950e-01 8.630204e-01 8.887809e-01 8.239346e-01 6.255119e-01 6.324114e-02
<GCONST> 5.877633e+01
<STATE> 3
<MEAN> 25
 -5.566740e+00 -2.327087e+00 -2.516460e+00 9.526985e-01 1.981024e+00 6.779555e-01 5.571551e+00 1.190919e-01 3.718812e+00 -1.691293e+00 1.355960e+00 9.697020e-01 6.021562e-01 -1.151118e+00 -3.260832e-01 -4.582406e-01 -1.994839e+00 -1.682693e+00 -5.493579e-02 7.623022e-01 -1.237792e+00 2.243901e-01 -5.247113e-01 4.555221e-02 2.157597e+00
<VARIANCE> 25
 1.167290e+01 1.867415e+01 1.013039e+01 1.114630e+01 2.386430e+01 1.703279e+01 1.814654e+01 1.670848e+01 1.550031e+01 1.931454e+01 1.243462e+01 1.083030e+01 7.685638e-01 2.162996e+00 2.005620e+00 2.822711e+00 4.125355e+00 3.883115e+00 2.718294e+00 3.313773e+00 3.238713e+00 5.236093e+00 2.162566e+00 2.198607e+00 6.876216e+00
<GCONST> 9.191621e+01
<STATE> 4
<MEAN> 25
 -2.664065e+00 -6.573634e+00 -2.017063e+00 -2.036462e+00 -4.945196e+00 -5.421016e+00 4.514883e+00 3.267045e+00 -2.905705e+00 -9.931600e-01 1.146825e+00 -1.859156e-01 1.186986e+00 -3.115685e-01 2.966921e-01 -4.481577e-02 6.118951e-02 -7.078385e-01 1.576344e-02 6.446493e-01 -3.106176e-01 -3.817842e-01 -2.362558e-01 -2.984022e-01 1.820922e+00
<VARIANCE> 25
 2.232191e+01 2.260269e+01 2.458674e+01 5.225626e+01 3.096239e+01 4.152556e+01 2.646880e+01 5.192291e+01 3.296966e+01 3.991523e+01 2.104409e+01 2.157513e+01 4.681163e+00 2.196666e+00 2.462473e+00 4.000829e+00 5.830687e+00 4.397564e+00 3.169957e+00 6.601148e+00 4.436410e+00 6.672842e+00 2.785664e+00 1.906637e+00 4.992706e+00
<GCONST> 1.045833e+02
<TRANSP> 5
 0.000000e+00 1.000000e+00 0.000000e+00 0.000000e+00 0.000000e+00
 0.000000e+00 8.927791e-01 1.072210e-01 0.000000e+00 0.000000e+00
 0.000000e+00 0.000000e+00 5.501658e-01 4.498342e-01 0.000000e+00
 0.000000e+00 0.000000e+00 0.000000e+00 7.833519e-01 2.166481e-01
 0.000000e+00 0.000000e+00 0.000000e+00 0.000000e+00 0.000000e+00
<ENDHMM>
~h "l"
<BEGINHMM>
<NUMSTATES> 5
<STATE> 2
<MEAN> 25
 -3.156853e+00 -1.537629e-01 1.005291e-01 5.482027e+00 1.841408e+00 3.068498e+00 3.500241e+00 6.754342e-01 2.393477e+00 -2.687682e+00 -7.431973e-01 8.134512e-01 3.707755e-02 -4.670678e-03 -8.426148e-03 -6.401301e-01 -5.385249e-01 2.744494e-01 -1.231032e-01 4.302094e-01 4.708819e-01 -2.653020e-01 -1.804380e-01 2.738892e-01 9.285915e-02
<VARIANCE> 25
 1.985341e+00 3.233947e+00 2.609507e+00 1.128212e+01 1.322489e+01 5.116720e+00 2.580100e+01 2.075340e+01 9.177672e+00 5.723270e+00 1.878904e+01 7.149148e+00 5.233231e-02 3.141062e-01 3.293444e-01 5.324822e-01 1.599049e-01 1.266948e+00 4.015582e+00 1.282932e+00 1.231154e+00 6.864792e-01 2.592359e-01 3.442083e-01 1.830409e-01
<GCONST> 6.045906e+01
<STATE> 3
<MEAN> 25
 -4.539344e+00 -7.624717e-01 3.504324e-01 3.858850e+00 1.682897e+00 2.230180e+00 5.176122e+00 1.656001e+00 2.566764e+00 -1.762843e+00 1.732999e+00 8.142073e-01 -1.156785e-01 7.840469e-02 -2.991167e-02 -1.821079e-01 2.350948e-01 2.503644e-01 4.644462e-01 4.892356e-02 -1.246157e-01 2.647623e-01 6.613479e-02 -6.000739e-02 -6.330183e-02
<VARIANCE> 25
 5.689970e+00 7.056135e+00 8.864678e+00 5.728033e+00 1.170595e+01 1.723199e+01 1.568632e+01 1.594609e+01 9.713223e+00 9.024675e+00 1.079555e+01 8.784495e+00 4.054984e-01 6.685723e-01 1.002633e+00 6.311681e-01 5.639444e-01 3.066973e+00 1.736785e+00 6.605901e-01 9.018931e-01 8.788295e-01 5.322936e-01 1.315376e+00 3.201743e-01
<GCONST> 7.061617e+01
<STATE> 4
<MEAN> 25
 -3.010376e+00 2.023692e+00 -1.352257e+00 -2.755925e-02 -9.546984e-01 4.272756e+00 3.592354e+00 7.798744e-01 2.343966e+00 1.698228e+00 -2.631139e-01 5.633360e-01 -2.489560e-02 1.872139e-02 3.287717e-03 -3.234623e-02 -1.611108e-02 -2.752335e-02 -2.215801e-02 8.666300e-03 5.946747e-02 1.350733e-01 1.587458e-01 8.033480e-02 -2.439516e-02
<VARIANCE> 25
 1.308301e+00 5.174878e+00 2.682423e+00 5.543023e+00 1.005621e+01 7.417988e+00 8.947915e+00 2.899508e+01 7.149059e+00 1.160751e+01 1.112390e+01 9.017074e+00 1.009414e-01 1.949728e-01 1.880487e-01 3.682869e-01 3.928866e-01 5.628723e-01 8.704267e-01 1.136038e+00 8.486062e-01 8.898180e-01 7.441908e-01 7.413263e-01 3.483618e-02
<GCONST> 5.710524e+01
<TRANSP> 5
 0.000000e+00 1.000000e+00 0.000000e+00 0.000000e+00 0.000000e+00
 0.000000e+00 5.001399e-01 4.998601e-01 0.000000e+00 0.000000e+00
 0.000000e+00 0.000000e+00 7.500595e-01 2.499405e-01 0.000000e+00
 0.000000e+00 0.000000e+00 0.000000e+00 9.579802e-01 4.201984e-02
 0.000000e+00 0.000000e+00 0.000000e+00 0.000000e+00 0.000000e+00
<ENDHMM>
~h "m"
<BEGINHMM>
<NUMSTATES> 5
<STATE> 2
<MEAN> 25
 4.227699e+00 -1.686002e+00 -2.911976e+00 -2.643205e+00 -3.082493e+00 -2.829951e+00 8.797324e-01 9.106722e-01 1.434171e+00 5.798489e-01 -2.649682e+00 7.461160e-01 1.561354e+00 6.008944e-02 -1.838139e-01 -4.488090e-01 -5.261893e-01 -9.929528e-01 -7.305875e-01 -1.006902e-01 -8.173789e-01 2.445466e-01 -8.956969e-01 -1.433810e-01 1.608453e+00
<VARIANCE> 25
 3.251310e+01 3.756796e+01 3.318076e+01 4.146813e+01 5.517593e+01 6.237735e+01 5.849243e+01 7.018005e+01 4.214109e+01 2.077797e+01 3.779068e+01 1.901519e+01 2.635548e+00 3.902877e+00 2.890821e+00 2.555906e+00 3.448987e+00 5.718919e+00 4.698252e+00 7.058380e+00 3.399357e+00 2.728791e+00 3.522747e+00 1.375074e+00 4.280323e+00
<GCONST> 1.061708e+02
<STATE> 3
<MEAN> 25
 1.116241e+01 -6.059862e+00 -5.816546e+00 -7.091781e+00 1.402415e+00 9.762689e-01 -3.366151e+00 2.769201e+00 -4.748676e+00 2.718420e+00 -8.170925e+00 -5.150121e-01 5.937452e-02 -3.488453e-01 -2.515621e-02 -1.867225e-01 -2.328717e-01 -3.090055e-01 1.057571e-01 3.478337e-01 -4.314249e-01 2.589948e-01 -4.369067e-02 7.432315e-02 7.178245e-02
<VARIANCE> 25
 1.205929e+01 2.693830e+01 2.410666e+01 2.937184e+01 5.831820e+01 9.269492e+01 5.163870e+01 4.984400e+01 3.115241e+01 2.153313e+01 3.751462e+01 1.188949e+01 3.484629e-01 3.429616e-01 9.183597e-01 9.296657e-01 1.671236e+00 1.512096e+00 1.259998e+00 1.699180e+00 1.788587e+00 1.523939e+00 1.173888e+00 7.407759e-01 3.689670e-01
<GCONST> 8.662191e+01
<STATE> 4
<MEAN> 25
 9.239955e+00 -4.509915e+00 -4.008091e+00 -3.572603e+00 -2.812098e+00 -4.373160e+00 -2.102202e+00 -3.345924e+00 -6.276399e+00 3.997954e+00 -3.032550e+00 7.273958e-01 -2.397881e-01 5.408475e-01 5.894006e-01 4.082856e-01 3.844788e-01 -1.644865e-02 -3.862369e-01 -3.921556e-01 -3.600856e-01 1.881551e-01 4.654796e-01 -1.576391e-02 -5.349191e-01
<VARIANCE> 25
 1.113036e+01 2.711106e+01 9.830639e+01 3.870577e+01 1.003307e+02 4.300334e+01 6.460606e+01 1.016795e+02 2.384671e+01 4.053922e+01 2.776215e+01 2.277748e+01 2.549158e-01 8.682810e-01 1.855603e+00 1.537385e+00 3.301507e+00 2.236459e+00 3.554882e+00 1.912554e+00 1.305726e+00 1.895647e+00 1.445474e+00 1.572536e+00 3.546083e-01
<GCONST> 9.453083e+01
<TRANSP> 5
 0.000000e+00 1.000000e+00 0.000000e+00 0.000000e+00 0.000000e+00
 0.000000e+00 6.724413e-01 3.275587e-01 0.000000e+00 0.000000e+00
 0.000000e+00 0.000000e+00 6.967120e-01 3.032880e-01 0.000000e+00
 0.000000e+00 0.000000e+00 0.000000e+00 7.573196e-01 2.426804e-01
 0.000000e+00 0.000000e+00 0.000000e+00 0.000000e+00 0.000000e+00
<ENDHMM>
~h "n"
<BEGINHMM>
<NUMSTATES> 5
<STATE> 2
<MEAN> 25
 8.647511e+00 3.682081e+00 -1.398478e+00 -1.583185e+00 -2.494159e-01 2.722635e-01 -2.914243e+00 -2.759505e+00 -2.138233e+00 -1.675797e+00 -1.153846e+00 -1.969756e+00 1.031269e+00 -8.427037e-01 -2.718433e-01 -8.741403e-01 -2.600130e-01 3.881985e-01 -9.354211e-01 5.707178e-02 -6.357523e-01 5.129236e-02 -6.085173e-01 -3.735419e-01 1.516778e+00
<VARIANCE> 25
 3.692210e+01 3.501109e+01 3.050351e+01 9.268561e+01 6.446462e+01 5.314248e+01 3.893375e+01 4.122870e+01 4.212715e+01 2.108580e+01 2.131866e+01 2.347629e+01 3.281505e+00 4.104925e+00 2.269121e+00 3.493043e+00 3.490319e+00 5.014450e+00 3.891511e+00 4.431604e+00 3.476557e+00 2.463631e+00 2.264751e+00 1.685627e+00 1.892936e+00
<GCONST> 1.040893e+02
<STATE> 3
<MEAN> 25
 9.111246e+00 -4.934262e+00 1.247058e+00 -6.694611e+00 -3.063458e+00 2.044713e+00 -7.576578e+00 -4.913415e-02 -5.742641e+00 1.433712e+00 -4.859950e+00 -1.992649e+00 -2.355203e-01 4.209958e-01 6.276834e-01 8.508257e-01 -1.142334e-01 -4.163780e-01 -1.517890e-01 -4.478230e-01 4.138681e-01 -3.402965e-01 1.863200e-01 1.211461e-01 -6.031646e-01
<VARIANCE> 25
 1.171387e+01 3.362674e+01 7.005631e+01 4.221901e+01 6.139893e+01 6.320652e+01 5.177541e+01 8.561913e+01 3.832866e+01 3.506324e+01 3.329355e+01 1.592181e+01 4.529348e-01 1.725655e+00 1.523599e+00 1.760162e+00 3.037036e+00 1.984309e+00 2.549979e+00 4.058719e+00 2.853451e+00 2.135952e+00 2.355481e+00 1.217954e+00 1.122925e+00
<GCONST> 9.790269e+01
<STATE> 4
<MEAN> 25
 3.069287e+00 3.881817e+00 -7.338933e-01 1.790329e+00 1.438229e+00 1.160707e+00 -1.694566e+00 -2.736458e+00 2.214988e+00 -2.866364e+00 -1.078229e+00 -2.741691e-01 -2.016653e-01 1.109099e-01 1.107318e-01 2.919103e-01 2.360868e-01 3.252875e-02 9.908343e-02 2.260538e-02 2.418110e-02 -6.438969e-02 6.542210e-02 4.773950e-02 -3.374088e-01
<VARIANCE> 25
 3.420275e+01 1.085802e+01 2.057323e+01 1.883452e+01 2.109336e+01 2.291509e+01 4.720664e+01 6.271856e+01 3.236271e+01 2.421007e+01 2.350573e+01 2.403020e+01 1.025719e+00 7.264363e-01 9.132338e-01 9.224111e-01 1.157434e+00 1.260713e+00 1.430585e+00 1.827213e+00 1.726442e+00 1.554801e+00 1.480607e+00 1.501608e+00 5.469133e-01
<GCONST> 8.705405e+01
<TRANSP> 5
 0.000000e+00 1.000000e+00 0.000000e+00 0.000000e+00 0.000000e+00
 0.000000e+00 7.889993e-01 2.110007e-01 0.000000e+00 0.000000e+00
 0.000000e+00 0.000000e+00 8.832209e-01 1.167792e-01 0.000000e+00
 0.000000e+00 0.000000e+00 0.000000e+00 8.728063e-01 1.271937e-01
 0.000000e+00 0.000000e+00 0.000000e+00 0.000000e+00 0.000000e+00
<ENDHMM>
~h "p"
<BEGINHMM>
<NUMSTATES> 5
<STATE> 2
<MEAN> 25
 7.288441e+00 2.467062e+00 1.134519e+00 8.376743e+00 3.205170e+00 -2.993311e+00 -8.416130e+00 -5.157218e+00 3.611776e+00 -2.081906e+00 -3.221581e+00 1.180350e+00 -7.256297e-01 1.222050e-01 -5.937355e-01 -1.324982e-01 -4.372748e-01 3.431897e-01 1.083548e+00 -2.512663e-01 -8.705916e-02 -4.897073e-01 -3.485200e-01 -1.134586e-01 -8.112776e-01
<VARIANCE> 25
 3.239182e+01 5.636699e+00 5.587440e+00 1.220634e+01 2.271337e+01 1.325763e+01 3.468756e+01 2.674035e+01 5.278402e+01 8.300001e+00 6.754589e+00 2.130728e+01 2.329753e-01 1.213444e+00 1.446466e+00 1.156298e+00 2.021344e+00 3.489074e+00 3.390855e+00 1.369454e+00 2.083195e+00 1.195280e+00 1.274581e+00 1.392145e+00 2.414646e-01
<GCONST> 8.177303e+01
<STATE> 3
<MEAN> 25
 1.572043e+00 3.993592e+00 1.957663e+00 6.682398e+00 2.301610e+00 2.489820e+00 9.774917e-01 -4.016198e+00 -1.591222e+00 -4.809031e+00 -3.454451e+00 -2.565556e+00 -1.364796e+00 -4.747196e-01 -4.536423e-01 -1.096934e+00 -7.701206e-01 7.838892e-01 1.598292e+00 1.048744e+00 5.742748e-01 5.412633e-01 4.568210e-02 1.313084e-01 -1.065866e+00
<VARIANCE> 25
 9.317618e+00 1.199367e+01 1.017913e+01 1.603186e+01 9.581902e+00 9.620433e+00 2.265422e+01 1.781296e+01 1.321465e+01 1.747549e+01 3.827779e+00 4.623569e+00 3.571725e-01 1.324507e+00 6.708722e-01 1.167393e+00 3.064116e+00 7.437328e-01 1.710364e+00 9.260216e-01 2.731350e+00 1.749443e+00 8.587676e-01 4.865234e-01 2.159498e-01
<GCONST> 7.404704e+01
<STATE> 4
<MEAN> 25
 -2.848038e+00 6.528012e-01 2.354931e-01 6.879194e+00 2.145764e+00 7.330115e-01 1.357253e+00 -1.036687e+00 1.576758e-01 -1.920069e+00 4.032953e-01 -7.932708e-01 -4.040013e-01 3.097005e-02 -1.927881e-01 -4.509727e-01 -5.198570e-01 -1.232635e-01 -2.193816e-01 -5.710385e-02 -1.162267e-01 -6.621979e-02 5.434924e-01 3.436966e-01 -2.138535e-01
<VARIANCE> 25
 9.057695e-01 1.832877e+00 6.354516e+00 2.987320e+01 2.221084e+01 6.045421e+00 1.037558e+01 2.206665e+01 1.760082e+01 1.523759e+01 1.491466e+01 8.216572e+00 9.181418e-02 4.107692e-01 7.574778e-02 1.072719e+00 2.912412e-01 9.166714e-01 1.440012e+00 3.653638e-01 1.287359e+00 1.020943e+00 5.299928e-01 1.206463e+00 1.643918e-02
<GCONST> 6.040095e+01
<TRANSP> 5
 0.000000e+00 1.000000e+00 0.000000e+00 0.000000e+00 0.000000e+00
 0.000000e+00 6.577585e-01 3.422415e-01 0.000000e+00 0.000000e+00
 0.000000e+00 0.000000e+00 6.428942e-01 3.571058e-01 0.000000e+00
 0.000000e+00 0.000000e+00 0.000000e+00 3.750258e-01 6.249743e-01
 0.000000e+00 0.000000e+00 0.000000e+00 0.000000e+00 0.000000e+00
<ENDHMM>
~h "r"
<BEGINHMM>
<NUMSTATES> 5
<STATE> 2
<MEAN> 25
 7.655144e-01 1.596510e+00 4.819851e+00 4.330628e+00 -3.122247e+00 -3.343446e+00 -6.067100e-01 -5.000682e+00 -2.150451e+00 -2.615174e+00 -1.152773e+00 -7.131707e-01 1.642674e+00 -4.643978e-01 8.986377e-01 4.150872e-01 -4.345908e-01 -8.550505e-01 -6.994282e-01 -6.704893e-01 -1.634075e+00 -6.510482e-01 1.296501e-01 -4.353176e-02 7.298771e-01
<VARIANCE> 25
 5.575496e+01 5.812543e+01 9.810559e+01 4.490059e+01 4.449167e+01 4.533793e+01 7.474652e+01 8.462173e+01 6.693627e+01 2.388375e+01 2.732120e+01 1.256111e+01 6.324991e+00 4.557528e+00 4.336632e+00 7.013244e+00 2.465586e+00 6.227213e+00 6.248567e+00 9.890553e+00 7.911562e+00 2.388023e+00 5.002845e+00 2.370055e+00 1.632322e+00
<GCONST> 1.115311e+02
<STATE> 3
<MEAN> 25
 9.904795e+00 -3.639627e+00 6.806973e-01 3.605344e+00 -7.934606e-01 -6.761595e+00 -9.963327e+00 -4.726298e+00 -4.716081e+00 -6.050624e+00 -1.608904e-01 1.929898e+00 9.347645e-01 -5.244385e-01 -8.870916e-01 4.439033e-01 1.146318e+00 -2.767034e-01 -1.596544e+00 -2.083060e-01 -4.138878e-02 -3.760533e-01 7.660077e-01 7.509102e-01 -1.992123e-01
<VARIANCE> 25
 3.157825e+01 2.393888e+01 9.174493e+01 8.158591e+01 9.658967e+01 5.710857e+01 6.105087e+01 7.051537e+01 6.719113e+01 3.351920e+01 4.058969e+01 2.034062e+01 3.900358e+00 1.611744e+00 3.224595e+00 3.147717e+00 3.086614e+00 5.463764e+00 3.549463e+00 4.837103e+00 3.396588e+00 3.003347e+00 2.723010e+00 2.137974e+00 6.834961e-01
<GCONST> 1.064421e+02
<STATE> 4
<MEAN> 25
 1.131786e+01 -4.150724e+00 -3.028858e+00 6.957492e-01 -3.273403e+00 -5.994164e+00 -1.201491e+01 6.605461e+00 -5.189908e+00 -3.569886e+00 4.031898e+00 2.147962e+00 -4.381563e-01 3.238787e-02 7.444210e-01 3.217350e-01 -2.631585e-01 -1.759047e-01 1.843801e-01 7.600151e-02 -3.237887e-01 2.594141e-01 2.962389e-01 -3.141585e-01 -2.961777e-01
<VARIANCE> 25
 3.560138e+01 3.745266e+01 7.952415e+01 7.250291e+01 4.821853e+01 7.933181e+01 7.584889e+01 6.509039e+01 5.962790e+01 4.055564e+01 3.483765e+01 1.617306e+01 4.946801e-01 8.085398e-01 1.805617e+00 1.424793e+00 1.872515e+00 1.714687e+00 2.319428e+00 1.788381e+00 3.493378e+00 2.069412e+00 2.174629e+00 1.505874e+00 4.951114e-01
<GCONST> 9.775993e+01
<TRANSP> 5
 0.000000e+00 1.000000e+00 0.000000e+00 0.000000e+00 0.000000e+00
 0.000000e+00 6.391191e-01 3.608809e-01 0.000000e+00 0.000000e+00
 0.000000e+00 0.000000e+00 6.757830e-01 3.242170e-01 0.000000e+00
 0.000000e+00 0.000000e+00 0.000000e+00 8.147777e-01 1.852223e-01
 0.000000e+00 0.000000e+00 0.000000e+00 0.000000e+00 0.000000e+00
<ENDHMM>
~h "s"
<BEGINHMM>
<NUMSTATES> 5
<STATE> 2
<MEAN> 25
 -7.577021e+00 9.886280e-01 -1.057473e-01 3.599161e+00 3.235106e+00 -7.417889e-02 6.268391e+00 2.084971e+00 5.461345e+00 2.108332e+00 2.112333e+00 2.763879e+00 -1.095726e+00 8.027943e-01 -1.076022e+00 -1.953160e-01 2.071037e-01 -2.277766e-01 -8.295615e-02 -1.328840e-01 1.107479e-01 -1.119525e-01 4.271473e-01 2.429430e-01 1.081014e-01
<VARIANCE> 25
 4.586134e+01 2.876777e+01 5.591840e+01 3.509772e+01 5.958609e+01 3.150236e+01 4.582723e+01 2.532037e+01 4.182434e+01 2.190827e+01 1.933713e+01 2.310862e+01 3.703770e+00 2.024956e+00 3.405369e+00 3.309727e+00 3.568026e+00 3.173453e+00 3.557175e+00 2.715289e+00 3.188826e+00 2.150231e+00 1.650133e+00 1.820843e+00 2.681558e+00
<GCONST> 1.013740e+02
<STATE> 3
<MEAN> 25
 -1.682517e+01 7.545500e+00 -8.377215e+00 1.458712e+00 6.874465e+00 -3.510204e+00 6.303997e+00 -1.632331e+00 6.167648e+00 -4.014024e-01 1.465860e+00 2.184998e+00 1.315422e-01 -6.273733e-02 6.087752e-02 -6.662543e-02 3.764508e-02 4.161375e-02 9.040973e-02 4.367175e-02 1.152266e-02 6.318493e-02 -4.137591e-02 1.315920e-01 -3.287593e-01
<VARIANCE> 25
 1.203056e+01 1.141232e+01 1.678564e+01 1.414691e+01 1.800352e+01 1.551271e+01 1.837644e+01 1.766013e+01 1.643503e+01 1.547340e+01 1.471243e+01 1.227703e+01 3.466044e-01 4.603950e-01 9.223765e-01 7.291788e-01 1.035001e+00 1.278019e+00 1.662005e+00 1.877882e+00 1.669925e+00 1.585675e+00 1.393257e+00 1.180699e+00 2.202639e-01
<GCONST> 7.763326e+01
<STATE> 4
<MEAN> 25
 -1.056523e+01 -2.214159e+00 4.991784e+00 -1.966671e+00 -6.035854e-01 8.294226e-02 6.712511e+00 -8.462502e-01 1.898415e+00 3.492216e+00 1.735291e+00 4.043857e+00 1.099737e+00 -4.549871e-01 4.482604e-01 1.182025e-01 -4.171258e-01 6.827986e-02 -4.099151e-01 -3.207332e-02 -3.597458e-01 -1.297573e-01 3.002493e-02 -1.808973e-01 -3.144769e-01
<VARIANCE> 25
 5.905061e+01 2.675432e+01 9.889015e+01 2.624940e+01 5.852290e+01 2.408891e+01 4.537571e+01 2.271448e+01 3.043439e+01 2.722977e+01 2.996618e+01 1.526188e+01 3.936426e+00 1.742849e+00 3.636868e+00 1.386645e+00 2.308332e+00 1.945138e+00 2.882351e+00 2.330720e+00 2.215513e+00 1.917044e+00 2.090830e+00 1.655821e+00 1.600233e+00
<GCONST> 9.831686e+01
<TRANSP> 5
 0.000000e+00 1.000000e+00 0.000000e+00 0.000000e+00 0.000000e+00
 0.000000e+00 6.915741e-01 3.084259e-01 0.000000e+00 0.000000e+00
 0.000000e+00 0.000000e+00 9.094933e-01 9.050675e-02 0.000000e+00
 0.000000e+00 0.000000e+00 0.000000e+00 8.233819e-01 1.766180e-01
 0.000000e+00 0.000000e+00 0.000000e+00 0.000000e+00 0.000000e+00
<ENDHMM>
~h "t"
<BEGINHMM>
<NUMSTATES> 5
<STATE> 2
<MEAN> 25
 4.932675e+00 3.627865e+00 7.155835e+00 2.380342e+00 -4.314083e+00 -5.598442e+00 -7.716584e+00 -5.484344e+00 -2.089120e+00 -3.386919e+00 -1.520426e+00 -2.888854e+00 -4.530377e-01 2.302214e-01 -1.044453e+00 1.064019e+00 1.569407e+00 1.103541e+00 1.732753e+00 -2.520194e-01 9.462341e-01 -6.982795e-01 -3.646263e-01 5.820712e-01 -1.825816e+00
<VARIANCE> 25
 1.557998e+01 3.919859e+01 3.846958e+01 2.027042e+01 7.696279e+01 3.432690e+01 6.391190e+01 4.661129e+01 3.276567e+01 3.269400e+01 2.188140e+01 2.089383e+01 7.516389e-01 2.066899e+00 2.830111e+00 1.615790e+00 3.631864e+00 2.949603e+00 2.828622e+00 2.177032e+00 2.467131e+00 1.826735e+00 1.648083e+00 1.831304e+00 2.003593e+00
<GCONST> 9.745587e+01
<STATE> 3
<MEAN> 25
 2.547058e+00 5.598050e+00 3.734873e+00 5.875122e+00 3.464955e+00 1.165387e+00 -7.885149e-01 -1.903474e+00 8.876560e-01 -4.484370e+00 -3.887933e+00 -2.637050e+00 -1.060449e+00 -5.391673e-01 -5.831502e-01 4.553764e-02 5.508437e-01 6.856582e-01 1.161329e+00 8.742604e-01 4.230647e-01 5.799738e-01 6.197099e-01 5.407876e-01 -7.068674e-01
<VARIANCE> 25
 1.657590e+01 1.245174e+01 9.638391e+00 1.355190e+01 1.777069e+01 1.522840e+01 2.362390e+01 2.965315e+01 1.269812e+01 2.712925e+01 2.316796e+01 1.840607e+01 8.773729e-01 1.220525e+00 1.398283e+00 1.372259e+00 1.793971e+00 1.274019e+00 2.250079e+00 2.278926e+00 1.723899e+00 1.571087e+00 1.638642e+00 1.814149e+00 4.653367e-01
<GCONST> 8.470138e+01
<STATE> 4
<MEAN> 25
 -3.372707e+00 1.094546e+00 -1.457935e+00 2.937718e+00 3.170485e+00 2.882264e+00 4.825317e+00 2.715020e+00 4.095732e+00 -1.162596e+00 2.378824e+00 2.951180e+00 -1.832033e-01 -2.205936e-01 -1.317933e-01 -1.831548e-01 -8.125381e-02 -7.532723e-02 2.363317e-02 9.609542e-02 6.226553e-02 1.233731e-01 1.088118e-01 2.623725e-02 1.563285e-01
<VARIANCE> 25
 7.488474e+00 1.445571e+01 8.437966e+00 1.531502e+01 1.889573e+01 1.742184e+01 1.810066e+01 2.975769e+01 1.520653e+01 1.530376e+01 1.457528e+01 1.246588e+01 6.399421e-01 1.397611e+00 9.658063e-01 1.728036e+00 1.877590e+00 1.894468e+00 2.021789e+00 2.421128e+00 1.675434e+00 1.697748e+00 1.482478e+00 1.248131e+00 1.943236e+00
<GCONST> 8.381361e+01
<TRANSP> 5
 0.000000e+00 1.000000e+00 0.000000e+00 0.000000e+00 0.000000e+00
 0.000000e+00 7.108008e-01 2.891992e-01 0.000000e+00 0.000000e+00
 0.000000e+00 0.000000e+00 7.793099e-01 2.206901e-01 0.000000e+00
 0.000000e+00 0.000000e+00 0.000000e+00 9.099690e-01 9.003098e-02
 0.000000e+00 0.000000e+00 0.000000e+00 0.000000e+00 0.000000e+00
<ENDHMM>
~h "v"
<BEGINHMM>
<NUMSTATES> 5
<STATE> 2
<MEAN> 25
 -3.581172e+00 -7.522669e-02 -8.647993e-01 1.308405e+00 4.628298e-01 1.260835e+00 -3.595972e-01 -4.076127e-01 9.407317e-01 3.516439e-02 5.212939e-01 -1.999579e-01 2.294951e+00 4.127786e-01 1.084023e+00 -9.780200e-01 -1.316767e+00 -1.303226e+00 -1.131033e+00 -5.721818e-01 -1.104826e+00 8.342148e-02 -2.150140e-01 -7.108378e-01 1.458767e+00
<VARIANCE> 25
 4.780515e+01 4.174663e+01 6.734884e+01 3.602050e+01 3.951692e+01 4.419463e+01 4.245925e+01 2.654582e+01 2.923865e+01 2.052174e+01 2.064964e+01 1.614173e+01 6.446424e+00 3.281687e+00 3.819138e+00 4.667416e+00 6.429640e+00 4.715346e+00 4.510737e+00 3.863105e+00 5.205350e+00 3.190317e+00 2.722673e+00 1.776694e+00 2.790902e+00
<GCONST> 1.056532e+02
<STATE> 3
<MEAN> 25
 9.793781e+00 1.407670e+00 8.405833e-01 -1.726884e+00 -6.940309e+00 -8.593437e+00 -4.317126e+00 2.398076e+00 -2.919430e+00 1.581003e+00 3.067249e-02 -3.238842e+00 1.538264e+00 -6.397411e-01 -1.165104e+00 -1.697990e-01 -4.066505e-01 -3.183941e-01 2.628777e-01 7.914633e-01 -7.828387e-01 3.080396e-01 -2.812054e-01 -1.142727e-01 6.949805e-01
<VARIANCE> 25
 2.144860e+01 1.779494e+01 1.101203e+02 7.656524e+01 5.760891e+01 7.263795e+01 2.731700e+01 7.047858e+01 6.375025e+01 3.999023e+01 2.767126e+01 1.067587e+01 2.623830e+00 2.430133e+00 2.084148e+00 5.382683e+00 4.511298e+00 5.528409e+00 2.598536e+00 4.686607e+00 6.883415e+00 3.102308e+00 1.632526e+00 1.241847e+00 1.138086e+00
<GCONST> 1.042488e+02
<STATE> 4
<MEAN> 25
 9.907603e+00 -6.259034e+00 -2.832726e+00 -4.171413e+00 -3.073826e+00 -3.323737e+00 -4.127747e+00 8.498740e-01 -8.706110e+00 5.701251e+00 -5.358891e+00 -2.372749e+00 -2.945330e-01 -7.730027e-02 5.334630e-01 5.458512e-01 2.973728e-01 -2.768008e-01 -3.221714e-01 -1.227153e-01 -1.896083e-01 -6.287296e-02 4.566213e-02 2.001427e-01 -1.253540e-01
<VARIANCE> 25
 8.692194e+00 1.816089e+01 5.503750e+01 6.835861e+01 9.869931e+01 6.214909e+01 4.222473e+01 1.003186e+02 2.992365e+01 3.229849e+01 4.588961e+01 1.766639e+01 1.446303e-01 9.029834e-01 1.519423e+00 1.094547e+00 3.017502e+00 2.003038e+00 2.113899e+00 1.700353e+00 1.353899e+00 1.040475e+00 1.970552e+00 1.021681e+00 3.377919e-01
<GCONST> 9.139457e+01
<TRANSP> 5
 0.000000e+00 1.000000e+00 0.000000e+00 0.000000e+00 0.000000e+00
 0.000000e+00 7.908202e-01 2.091798e-01 0.000000e+00 0.000000e+00
 0.000000e+00 0.000000e+00 6.211677e-01 3.788324e-01 0.000000e+00
 0.000000e+00 0.000000e+00 0.000000e+00 8.775846e-01 1.224154e-01
 0.000000e+00 0.000000e+00 0.000000e+00 0.000000e+00 0.000000e+00
<ENDHMM>
~h "w"
<BEGINHMM>
<NUMSTATES> 5
<STATE> 2
<MEAN> 25
 1.732934e+00 -8.728809e-01 8.893789e+00 3.712935e+00 -4.063800e+00 -8.270330e+00 -4.841769e+00 1.867428e+00 -4.994993e+00 2.900432e+00 1.002424e+00 -2.239833e+00 -6.466810e-03 3.025917e-01 -4.408328e-01 1.013281e+00 8.378478e-01 1.633983e-01 1.572480e-01 -3.733216e-01 1.026983e+00 -1.942849e-01 2.142167e-01 4.307600e-01 -9.674611e-01
<VARIANCE> 25
 3.657330e+01 2.067098e+01 3.276537e+01 1.948628e+01 1.082072e+02 9.497159e+01 5.365728e+01 1.645403e+01 1.041696e+02 4.573410e+01 1.868640e+01 5.643623e+01 2.670956e-01 4.671487e-01 1.141257e+00 2.027730e+00 1.133404e+00 2.208848e+00 3.677456e+00 1.718546e+00 3.313390e+00 2.533074e+00 1.444819e+00 9.732080e-01 7.819630e-01
<GCONST> 9.422613e+01
<STATE> 3
<MEAN> 25
 -9.065823e-01 3.139411e+00 5.087333e+00 9.027508e+00 1.345257e+00 -2.344970e+00 -2.606666e+00 -1.724239e+00 2.129885e+00 -1.754874e+00 -1.074519e+00 5.734115e-01 -7.773308e-01 1.352492e-01 -1.376717e+00 8.565730e-01 1.317585e+00 1.546255e+00 1.666775e+00 1.780964e-01 4.664788e-01 -5.736657e-01 -1.950727e-01 3.606563e-01 -1.338797e+00
<VARIANCE> 25
 1.680296e+01 1.894041e+01 2.579988e+01 1.711761e+01 5.239068e+01 6.590228e+01 4.626767e+01 3.151273e+01 2.598435e+01 3.246068e+01 2.485206e+01 3.849997e+01 8.692033e-01 2.047052e+00 2.520070e+00 1.427576e+00 3.773595e+00 4.031987e+00 3.955038e+00 3.017120e+00 5.250458e+00 2.625136e+00 2.339156e+00 2.690668e+00 8.268559e-01
<GCONST> 9.816409e+01
<STATE> 4
<MEAN> 25
 -3.958606e+00 1.627524e+00 -9.471863e-01 6.240974e+00 4.577618e+00 2.838741e+00 4.584584e+00 2.637465e+00 5.047248e+00 -3.709704e-01 1.890008e+00 1.211086e+00 -7.209224e-02 1.532240e-01 -2.347715e-01 -3.859814e-01 -2.564138e-01 2.901766e-02 4.662260e-01 1.739167e-01 6.561853e-02 1.209977e-01 4.280226e-01 4.148676e-01 -2.069035e-01
<VARIANCE> 25
 1.410322e+01 1.106719e+01 9.198250e+00 8.296416e+00 1.229644e+01 1.363063e+01 3.183189e+01 2.763020e+01 2.098485e+01 1.781511e+01 2.300436e+01 3.484190e+01 1.376832e+00 1.358259e+00 9.088200e-01 6.285394e-01 1.293796e+00 1.459503e+00 2.387439e+00 2.251006e+00 2.617782e+00 1.957357e+00 1.510162e+00 2.797561e+00 5.549966e-01
<GCONST> 8.471291e+01
<TRANSP> 5
 0.000000e+00 1.000000e+00 0.000000e+00 0.000000e+00 0.000000e+00
 0.000000e+00 3.505706e-01 6.494294e-01 0.000000e+00 0.000000e+00
 0.000000e+00 0.000000e+00 6.512902e-01 3.487098e-01 0.000000e+00
 0.000000e+00 0.000000e+00 0.000000e+00 9.090760e-01 9.092394e-02
 0.000000e+00 0.000000e+00 0.000000e+00 0.000000e+00 0.000000e+00
<ENDHMM>
~h "z"
<BEGINHMM>
<NUMSTATES> 5
<STATE> 2
<MEAN> 25
 3.195909e+00 6.334837e+00 3.399966e+00 6.456841e+00 2.554336e+00 -2.269751e+00 -1.564179e+00 -2.114724e+00 6.047839e-01 -8.866585e-01 -8.443059e-01 -2.322333e+00 -1.168346e+00 1.929906e-01 -6.282409e-02 1.527371e-01 1.528577e-01 -1.640810e-01 7.671427e-01 1.771124e-01 3.658524e-01 1.057322e-01 3.816154e-02 2.043019e-01 9.449875e-02
<VARIANCE> 25
 5.731126e+01 4.142594e+01 1.892418e+01 3.161847e+01 2.973223e+01 6.197151e+01 2.838041e+01 3.058051e+01 2.321909e+01 2.153845e+01 1.845321e+01 1.284145e+01 2.384611e+00 3.955344e+00 3.229025e+00 3.464566e+00 2.658219e+00 5.513922e+00 4.338727e+00 3.175284e+00 2.488850e+00 2.786882e+00 2.199256e+00 1.600734e+00 2.651039e+00
<GCONST> 1.002183e+02
<STATE> 3
<MEAN> 25
 -1.166115e+01 -1.499242e+00 9.006122e+00 3.305237e+00 -1.048838e+00 -6.982282e-01 1.044889e+01 3.352629e-01 -9.535395e-01 4.934608e+00 -3.624426e-01 1.599272e+00 -1.948642e-01 -1.919046e-01 2.649056e-01 -6.142285e-01 -4.094516e-01 6.247811e-03 -2.260474e-01 -2.821860e-01 -1.810380e-01 -4.503747e-01 3.535528e-01 1.836525e-01 1.101539e-01
<VARIANCE> 25
 4.368056e+01 8.545438e+01 8.805794e+01 2.058582e+01 4.570349e+01 1.930340e+01 3.362331e+01 5.883035e+01 1.910582e+01 4.128057e+01 3.271534e+01 1.142922e+01 2.793007e+00 1.704087e+00 4.714769e+00 1.919190e+00 1.953911e+00 2.095299e+00 2.130713e+00 2.275088e+00 1.518550e+00 1.984817e+00 1.950818e+00 1.556355e+00 1.197303e+00
<GCONST> 9.778585e+01
<STATE> 4
<MEAN> 25
 -1.131245e+01 1.673561e+00 4.914339e-02 -1.964311e-01 3.746275e+00 9.756411e-01 3.547781e+00 9.132822e-01 4.016401e+00 -2.352804e+00 3.023702e+00 2.010454e+00 2.518536e-01 -2.560526e-02 7.154856e-02 1.965284e-01 3.493023e-02 1.955955e-01 1.274016e-01 1.901469e-01 3.814479e-02 4.153614e-02 1.717251e-01 6.690095e-02 -3.251423e-01
<VARIANCE> 25
 4.023570e+01 7.235640e+01 7.062493e+01 1.668524e+01 2.246907e+01 2.182433e+01 1.460526e+01 2.709278e+01 1.415154e+01 1.183122e+01 1.112139e+01 1.023548e+01 5.629227e-01 5.597804e-01 1.054057e+00 9.854119e-01 1.034491e+00 1.116320e+00 1.235909e+00 1.016629e+00 1.570444e+00 1.093775e+00 1.171696e+00 9.809448e-01 2.458312e-01
<GCONST> 8.155879e+01
<TRANSP> 5
 0.000000e+00 1.000000e+00 0.000000e+00 0.000000e+00 0.000000e+00
 0.000000e+00 9.079809e-01 9.201909e-02 0.000000e+00 0.000000e+00
 0.000000e+00 0.000000e+00 8.358867e-01 1.641133e-01 0.000000e+00
 0.000000e+00 0.000000e+00 0.000000e+00 9.180515e-01 8.194840e-02
 0.000000e+00 0.000000e+00 0.000000e+00 0.000000e+00 0.000000e+00
<ENDHMM>
~h "ah"
<BEGINHMM>
<NUMSTATES> 5
<STATE> 2
<MEAN> 25
 8.044367e+00 1.143345e+00 4.033079e+00 -4.818888e-01 -1.991702e+00 -4.106316e+00 -4.646053e+00 1.188540e+00 -4.762955e+00 -7.164820e-01 -2.089617e+00 1.428525e+00 -9.667207e-02 1.346177e-01 8.384113e-02 4.926109e-02 8.599238e-02 -2.929257e-01 3.323227e-01 1.983614e-01 -7.764993e-02 -8.607519e-02 -2.896003e-01 4.602559e-01 6.496790e-02
<VARIANCE> 25
 2.183401e+01 2.329295e+01 4.348116e+01 5.814685e+01 5.422417e+01 4.097733e+01 2.834482e+01 4.785893e+01 3.245875e+01 5.003440e+01 3.453711e+01 2.324939e+01 2.069850e+00 2.340654e+00 1.565477e+00 3.246277e+00 2.050510e+00 2.940515e+00 2.513523e+00 3.602297e+00 2.902595e+00 2.646292e+00 2.485597e+00 1.516338e+00 1.837760e+00
<GCONST> 1.001914e+02
<STATE> 3
<MEAN> 25
 -4.135618e+00 1.697272e+00 6.280440e+00 1.469585e+00 1.845354e+00 -1.413317e+00 5.357455e+00 -1.870987e+00 2.489383e-01 -4.854829e-01 3.637541e-01 4.130479e+00 -3.819491e+00 -7.700776e-01 1.126762e-01 -1.252080e+00 4.874499e-01 5.032901e-01 1.822609e+00 -6.555445e-01 9.777651e-01 4.048607e-01 4.859722e-01 -4.475881e-01 9.578514e-01
<VARIANCE> 25
 4.746130e+01 5.448133e+01 5.580822e+01 3.391740e+01 5.066854e+01 3.334597e+01 4.570554e+01 2.025303e+01 3.202062e+01 3.483905e+01 2.404970e+01 1.802452e+01 3.611288e+00 3.378971e+00 1.244576e+01 2.478340e+00 6.471250e+00 2.789194e+00 4.071764e+00 1.963967e+00 3.216872e+00 3.008749e+00 2.926698e+00 1.845771e+00 8.300555e-01
<GCONST> 1.033755e+02
<STATE> 4
<MEAN> 25
 -1.429944e+01 -7.088736e+00 1.451924e+01 -4.740869e+00 -2.739974e+00 1.012202e+00 8.953547e+00 -2.093125e+00 -1.187120e-01 1.935225e+00 1.519524e+00 2.880657e+00 1.013249e-01 5.941052e-03 -3.091354e-01 1.792535e-01 -1.058043e-01 4.064381e-02 7.413988e-02 2.298204e-01 -2.343840e-03 8.745702e-02 9.914301e-02 -1.550690e-01 -2.023479e-01
<VARIANCE> 25
 2.982477e+01 2.037988e+01 9.335153e+01 1.520621e+01 4.804418e+01 1.579374e+01 7.528863e+01 2.316775e+01 1.709547e+01 6.190815e+01 2.829358e+01 1.271247e+01 1.179468e+00 3.622687e-01 1.176189e+00 6.426471e-01 7.016757e-01 8.006269e-01 9.539723e-01 1.159976e+00 1.147508e+00 1.077435e+00 8.946321e-01 8.735294e-01 2.931165e-01
<GCONST> 8.369327e+01
<TRANSP> 5
 0.000000e+00 1.000000e+00 0.000000e+00 0.000000e+00 0.000000e+00
 0.000000e+00 8.759957e-01 1.240043e-01 0.000000e+00 0.000000e+00
 0.000000e+00 0.000000e+00 6.888124e-01 3.111875e-01 0.000000e+00
 0.000000e+00 0.000000e+00 0.000000e+00 8.749924e-01 1.250076e-01
 0.000000e+00 0.000000e+00 0.000000e+00 0.000000e+00 0.000000e+00
<ENDHMM>
~h "ao"
<BEGINHMM>
<NUMSTATES> 5
<STATE> 2
<MEAN> 25
 -1.821639e+00 3.455843e+00 -2.667567e+00 5.969771e+00 -5.124660e+00 -3.943358e+00 -5.485866e+00 1.576222e+00 -1.019614e+00 -1.661399e+00 9.353497e-02 -1.423753e-01 6.756005e-01 5.790089e-01 -6.499509e-01 7.738941e-01 -1.824270e+00 -1.311957e+00 -1.834328e+00 3.286512e-01 5.554621e-02 -1.515805e-01 -7.744087e-05 3.028744e-01 4.521350e-01
<VARIANCE> 25
 8.893607e+01 2.777758e+01 7.235181e+01 3.989163e+01 1.652795e+01 1.284257e+02 5.144892e+01 8.374005e+00 4.077419e+01 6.199165e+00 1.353223e+01 1.550256e+01 1.564358e+00 8.057014e-01 2.626544e-01 1.202254e+00 1.602729e+00 5.288771e+00 1.756222e+00 8.375068e-01 1.070884e+00 7.029340e-01 5.618874e-01 8.912476e-01 8.023939e-02
<GCONST> 8.443495e+01
<STATE> 3
<MEAN> 25
 -5.113714e+00 1.556931e+00 -7.503422e+00 8.275657e+00 -8.529816e+00 8.715544e-01 -8.219328e+00 2.076024e-01 4.013203e-01 -4.635134e-01 -1.196508e+00 -1.870288e+00 3.211522e-01 -3.054917e-01 -2.398027e-01 -6.088862e-01 -2.267511e-01 -6.888498e-02 -2.101591e-01 -6.192445e-01 5.125003e-02 -3.975024e-02 2.769331e-01 -7.249819e-02 1.183522e+00
<VARIANCE> 25
 7.543135e+01 1.776683e+01 6.627154e+01 4.021144e+01 9.679387e+00 1.290548e+02 1.798087e+01 1.812915e+01 1.540862e+01 1.327413e+01 8.531945e+00 1.415260e+01 5.631248e-01 3.443634e-01 8.263393e-01 4.084454e-01 1.188121e+00 1.402839e+00 7.303876e-01 2.190135e+00 1.220352e+00 1.201769e+00 5.782870e-01 1.149556e+00 7.465227e-01
<GCONST> 8.200341e+01
<STATE> 4
<MEAN> 25
 1.100939e+01 4.670812e+00 5.476351e-01 -5.535683e+00 -9.777865e+00 -1.791714e+01 -1.186212e+01 3.706316e+00 -1.101569e+00 1.547137e+00 -9.341113e-01 -1.423416e+00 9.637988e-02 -4.455955e-01 -5.315496e-01 -3.465802e-01 2.451307e-01 4.568342e-01 3.466285e-01 2.328215e-01 1.038256e-01 -1.476545e-02 -2.394584e-01 -2.028666e-01 1.548881e-01
<VARIANCE> 25
 1.120140e+01 1.155549e+01 1.681909e+01 2.241807e+01 1.812973e+01 6.410354e+01 2.079243e+01 9.798824e+01 8.308542e+00 9.120974e+00 1.187799e+01 1.090208e+01 7.514848e-02 2.119289e-01 3.692417e-01 2.707906e-01 7.482269e-01 1.273838e+00 6.961191e-01 1.099592e+00 6.008703e-01 8.027798e-01 5.417575e-01 5.777593e-01 6.107733e-02
<GCONST> 6.916747e+01
<TRANSP> 5
 0.000000e+00 1.000000e+00 0.000000e+00 0.000000e+00 0.000000e+00
 0.000000e+00 5.941339e-01 4.058661e-01 0.000000e+00 0.000000e+00
 0.000000e+00 0.000000e+00 6.486199e-01 3.513801e-01 0.000000e+00
 0.000000e+00 0.000000e+00 0.000000e+00 9.235803e-01 7.641962e-02
 0.000000e+00 0.000000e+00 0.000000e+00 0.000000e+00 0.000000e+00
<ENDHMM>
~h "aw"
<BEGINHMM>
<NUMSTATES> 5
<STATE> 2
<MEAN> 25
 -1.025184e+00 -1.153739e+01 -7.387157e+00 -1.583578e+00 2.905665e+00 -3.652831e+00 4.895659e+00 4.720263e+00 1.123697e+00 -2.674265e+00 -1.878888e+00 3.548871e-01 1.480687e+00 1.306205e-01 -9.373639e-01 8.450650e-02 8.296670e-01 5.656489e-02 -5.436986e-01 -2.901814e-01 3.383679e-01 3.791706e-01 -1.176724e+00 -3.090843e-01 5.820732e-01
<VARIANCE> 25
 4.325418e+01 5.039891e+01 3.577462e+01 3.355156e+01 4.444057e+01 3.388375e+01 2.861480e+01 3.548235e+01 2.047745e+01 4.029600e+01 1.433618e+01 2.680338e+01 1.511824e+00 1.329121e+00 1.487363e+00 1.655806e+00 2.186623e+00 1.621603e+00 1.798614e+00 2.126002e+00 1.881096e+00 2.089503e+00 2.405497e+00 1.489051e+00 2.721451e-01
<GCONST> 9.318065e+01
<STATE> 3
<MEAN> 25
 6.674183e+00 -7.913951e+00 -8.823125e+00 -1.824076e+00 5.366065e+00 -7.732715e-01 3.405044e+00 8.597781e-01 -1.023906e+00 -1.471107e+00 -6.400838e+00 -1.323299e+00 9.989676e-01 4.609019e-01 -5.777907e-01 -1.383523e+00 -4.271983e-02 9.739444e-01 -5.271417e-02 -1.100373e+00 -6.473177e-01 8.903658e-01 -5.153502e-01 -1.502127e-01 4.296864e-01
<VARIANCE> 25
 1.843106e+01 1.339720e+01 1.814083e+01 3.283553e+01 5.012042e+01 2.796242e+01 1.865445e+01 3.338180e+01 1.690303e+01 1.352272e+01 1.545539e+01 1.110272e+01 1.094841e+00 1.556104e+00 1.665803e+00 1.837219e+00 2.777139e+00 2.169579e+00 1.144541e+00 1.897182e+00 1.550510e+00 1.124789e+00 1.665801e+00 9.395346e-01 3.557825e-01
<GCONST> 8.629546e+01
<STATE> 4
<MEAN> 25
 1.052867e+01 -3.168533e+00 -9.210676e+00 -1.170548e+01 -1.688089e+00 -3.700936e-01 1.718280e+00 -1.249638e+00 -3.487231e+00 2.669637e+00 -4.746095e+00 -2.963813e+00 6.133203e-02 4.883021e-01 1.249816e-01 -3.939374e-01 -2.414180e-01 -6.960367e-02 -3.338507e-01 1.199425e-01 -5.984133e-02 7.427424e-02 1.120428e-01 -1.446454e-02 -2.562732e-01
<VARIANCE> 25
 1.212196e+01 2.064998e+01 1.468355e+01 3.181501e+01 7.111092e+01 7.860188e+01 2.102903e+01 5.513742e+01 2.691019e+01 2.844636e+01 2.285256e+01 9.430734e+00 9.387953e-02 4.105181e-01 4.445477e-01 9.869133e-01 9.077326e-01 1.070357e+00 9.056140e-01 1.015152e+00 8.182144e-01 1.163144e+00 8.131307e-01 5.383559e-01 1.466382e-01
<GCONST> 7.832601e+01
<TRANSP> 5
 0.000000e+00 1.000000e+00 0.000000e+00 0.000000e+00 0.000000e+00
 0.000000e+00 5.738973e-01 4.261027e-01 0.000000e+00 0.000000e+00
 0.000000e+00 0.000000e+00 7.677197e-01 2.322803e-01 0.000000e+00
 0.000000e+00 0.000000e+00 0.000000e+00 8.928505e-01 1.071495e-01
 0.000000e+00 0.000000e+00 0.000000e+00 0.000000e+00 0.000000e+00
<ENDHMM>
~h "ay"
<BEGINHMM>
<NUMSTATES> 5
<STATE> 2
<MEAN> 25
 4.262411e+00 -2.200774e+00 9.717390e-01 6.047731e+00 4.646122e+00 -5.965770e+00 -9.462497e+00 -7.431251e+00 -4.956625e+00 -4.949415e-02 -1.052237e-01 -7.827191e-01 -5.103137e-01 3.129032e-01 -7.752948e-02 8.506957e-01 6.657010e-01 4.511073e-01 2.178021e-01 1.960136e-01 5.938954e-01 -4.847216e-01 -3.008418e-01 -2.998133e-01 -7.060539e-01
<VARIANCE> 25
 2.761470e+01 2.758370e+01 3.419960e+01 4.268297e+01 4.581761e+01 5.072288e+01 7.226582e+01 5.911689e+01 4.194943e+01 4.817887e+01 4.316839e+01 2.750436e+01 8.874418e-01 1.485858e+00 2.657716e+00 2.249286e+00 2.616551e+00 3.083876e+00 3.755936e+00 4.163113e+00 3.046674e+00 2.447428e+00 2.822538e+00 2.047384e+00 1.510718e+00
<GCONST> 1.017485e+02
<STATE> 3
<MEAN> 25
 -3.363554e+00 8.960248e-01 5.497283e-01 4.590978e+00 3.281358e+00 1.357556e+00 1.510044e+00 -2.143870e+00 2.819883e+00 -1.043336e+00 -9.242827e-02 1.283371e+00 -7.352220e-01 -1.619625e-01 -6.132740e-01 -1.696943e-01 2.534703e-01 5.969538e-01 6.786987e-01 5.992705e-01 6.667616e-01 6.506918e-02 1.273730e-01 2.908324e-01 -6.148837e-01
<VARIANCE> 25
 3.481301e+01 2.291336e+01 2.488011e+01 2.610701e+01 2.201569e+01 2.049288e+01 3.813562e+01 2.492382e+01 2.773702e+01 1.851416e+01 2.159995e+01 2.013106e+01 1.579326e+00 1.593436e+00 1.704293e+00 1.607371e+00 2.324288e+00 2.537399e+00 2.685055e+00 2.377956e+00 2.176666e+00 1.791151e+00 1.780609e+00 1.588542e+00 1.046396e+00
<GCONST> 9.239489e+01
<STATE> 4
<MEAN> 25
 -3.218635e+00 1.497478e+00 -1.442242e+00 2.715870e+00 1.706011e+00 3.781373e+00 3.941302e+00 2.918352e+00 4.259777e+00 2.680955e-01 1.664619e+00 2.005898e+00 4.440490e-04 2.276440e-02 -4.251145e-02 6.873309e-03 2.977382e-02 7.872336e-02 2.821226e-02 5.768806e-02 9.059519e-03 3.770685e-03 1.274384e-02 -1.199476e-02 -2.206741e-02
<VARIANCE> 25
 6.914018e+00 6.853095e+00 8.390467e+00 1.453070e+01 1.654818e+01 1.106733e+01 1.578362e+01 2.900461e+01 1.229751e+01 1.618997e+01 1.441579e+01 1.100366e+01 2.769983e-01 3.935788e-01 5.354992e-01 6.998557e-01 8.562564e-01 8.440024e-01 1.028355e+00 1.088043e+00 1.178930e+00 1.197828e+00 1.147799e+00 9.766307e-01 1.696877e-01
<GCONST> 7.158102e+01
<TRANSP> 5
 0.000000e+00 1.000000e+00 0.000000e+00 0.000000e+00 0.000000e+00
 0.000000e+00 6.738353e-01 3.261647e-01 0.000000e+00 0.000000e+00
 0.000000e+00 0.000000e+00 7.708903e-01 2.291097e-01 0.000000e+00
 0.000000e+00 0.000000e+00 0.000000e+00 9.161385e-01 8.386149e-02
 0.000000e+00 0.000000e+00 0.000000e+00 0.000000e+00 0.000000e+00
<ENDHMM>
~h "eh"
<BEGINHMM>
<NUMSTATES> 5
<STATE> 2
<MEAN> 25
 9.963472e+00 -3.051874e+00 -6.967241e+00 -1.161401e+01 -1.027689e+01 -2.035286e+00 1.903506e+00 1.257910e-01 -9.964032e+00 8.285498e+00 -9.527443e+00 -1.252613e+00 1.776973e-01 6.237178e-01 -3.963377e-02 -1.766439e-01 -4.816258e-01 -3.495364e-01 -5.306981e-01 3.951727e-01 -1.577016e-01 -2.011886e-01 4.554771e-01 -3.733049e-01 -3.813978e-01
<VARIANCE> 25
 7.616187e+00 1.455939e+01 3.650009e+01 1.663245e+01 9.158407e+01 4.571334e+01 4.001310e+01 7.178434e+01 3.281112e+01 1.669120e+01 2.606730e+01 1.876200e+01 8.547759e-02 4.469690e-01 4.067364e-01 5.258417e-01 8.523173e-01 8.850483e-01 6.421062e-01 8.826387e-01 9.921197e-01 7.457957e-01 9.373913e-01 5.437685e-01 9.210481e-02
<GCONST> 7.684800e+01
<STATE> 3
<MEAN> 25
 1.116870e+01 5.131633e+00 -3.485515e+00 -9.157373e+00 -1.106441e+01 -1.152565e+01 -5.066627e+00 7.098595e+00 -9.282274e+00 7.570910e-01 -1.035616e+00 -4.542627e+00 -1.194301e-01 6.035320e-01 3.999350e-01 3.954709e-01 1.907336e-01 5.175108e-04 -3.569354e-01 -3.491400e-01 3.187262e-02 -7.994345e-01 3.864572e-01 -4.883620e-02 -6.411406e-01
<VARIANCE> 25
 4.931970e+00 1.179080e+01 1.002031e+02 4.363699e+01 2.840606e+01 1.102068e+02 1.584567e+01 5.598014e+01 7.315133e+01 1.779671e+01 3.197392e+01 1.163941e+01 1.154942e-01 3.634958e-01 7.090155e-01 8.740911e-01 1.334519e+00 1.153039e+00 9.125682e-01 1.289125e+00 1.474206e+00 8.518322e-01 1.205239e+00 9.276085e-01 1.940064e-01
<GCONST> 8.196471e+01
<STATE> 4
<MEAN> 25
 9.243093e+00 8.762171e+00 -1.116568e+00 -3.940665e+00 -4.867802e+00 -5.592858e+00 -4.605329e+00 8.851581e-01 -4.366150e+00 -3.184453e+00 -1.296913e+00 -3.725443e+00 -7.379194e-01 5.337580e-02 3.847366e-01 1.478807e+00 1.631472e+00 1.230250e+00 1.064525e+00 -9.210047e-01 1.484282e+00 -7.122241e-02 -1.293960e-01 2.320742e-01 -1.199690e+00
<VARIANCE> 25
 1.008961e+01 9.277141e+00 8.205727e+01 4.090364e+01 2.320209e+01 2.878506e+01 2.183160e+01 3.321788e+01 5.226351e+01 1.797079e+01 3.821445e+01 1.247152e+01 4.335277e-01 6.653513e-01 1.828837e+00 1.617857e+00 8.626541e-01 1.788882e+00 1.390976e+00 3.736209e+00 1.702929e+00 1.418843e+00 2.006673e+00 1.039550e+00 4.837987e-01
<GCONST> 8.752171e+01
<TRANSP> 5
 0.000000e+00 1.000000e+00 0.000000e+00 0.000000e+00 0.000000e+00
 0.000000e+00 8.848315e-01 1.151684e-01 0.000000e+00 0.000000e+00
 0.000000e+00 0.000000e+00 8.805369e-01 1.194631e-01 0.000000e+00
 0.000000e+00 0.000000e+00 0.000000e+00 7.751377e-01 2.248623e-01
 0.000000e+00 0.000000e+00 0.000000e+00 0.000000e+00 0.000000e+00
<ENDHMM>
~h "ey"
<BEGINHMM>
<NUMSTATES> 5
<STATE> 2
<MEAN> 25
 -3.711705e+00 6.650932e-01 -1.890324e+00 4.469109e+00 4.467486e+00 2.471143e+00 6.392750e+00 1.103333e+00 4.583903e+00 -2.502664e+00 1.670969e-01 2.478026e+00 -2.196408e-01 -7.158480e-01 2.302801e-01 -4.655254e-01 -4.010018e-01 -2.243000e-01 4.603051e-02 3.175772e-01 -1.797097e-01 3.582916e-01 -2.274244e-01 1.185204e-03 5.826113e-01
<VARIANCE> 25
 1.529474e+01 1.509396e+01 1.110492e+01 1.366544e+01 2.425498e+01 2.318924e+01 4.422775e+01 3.024515e+01 1.993955e+01 1.683130e+01 1.773841e+01 2.115065e+01 2.167190e+00 3.160726e+00 2.151632e+00 3.154682e+00 4.653013e+00 3.532395e+00 5.707916e+00 4.214155e+00 4.059202e+00 2.530888e+00 2.310495e+00 2.302601e+00 4.384521e+00
<GCONST> 9.698361e+01
<STATE> 3
<MEAN> 25
 2.282867e+00 -8.580554e+00 8.064640e+00 -7.115136e+00 -1.250767e+01 -3.120956e+00 3.669448e-01 7.609251e+00 -4.978055e+00 6.572194e+00 -3.483427e+00 -5.893791e-01 1.677136e+00 1.183801e-01 1.548842e+00 -9.801803e-01 -2.805713e+00 -1.848619e-01 -1.311765e+00 3.361238e-01 -1.078543e+00 9.387962e-01 -7.202891e-02 -1.977866e-01 3.054825e+00
<VARIANCE> 25
 3.406619e+01 4.156341e+01 1.901487e+01 2.925743e+01 5.467825e+01 1.330261e+01 3.046126e+01 2.701837e+01 1.917839e+01 2.181876e+01 1.799296e+01 1.254028e+01 2.855968e+00 6.398196e+00 1.782286e+00 4.246287e+00 5.425375e+00 2.465693e+00 2.473743e+00 2.763577e+00 2.983941e+00 1.639217e+00 2.179147e+00 1.189092e+00 9.446766e+00
<GCONST> 9.851212e+01
<STATE> 4
<MEAN> 25
 4.223977e+00 2.618956e+00 1.807151e+01 -5.767973e+00 -1.684788e+01 -3.114295e+00 -1.289840e+01 1.505174e-01 -9.468407e+00 6.656842e+00 1.835935e+00 -3.755325e+00 -1.648657e-01 4.350399e-01 2.901857e-01 2.623869e-01 5.772629e-02 -2.028642e-01 -5.199299e-01 -5.339062e-01 -1.318347e-01 -2.167730e-01 1.687569e-01 -2.606225e-01 -3.346160e-01
<VARIANCE> 25
 5.849443e+00 2.076037e+01 2.026947e+01 1.044142e+01 2.103566e+01 1.235417e+01 3.760082e+01 1.781030e+01 1.278795e+01 1.961567e+01 1.104670e+01 1.178438e+01 1.200941e-01 7.440851e-01 7.529834e-01 6.659362e-01 1.190227e+00 7.703791e-01 1.512344e+00 8.937420e-01 7.168293e-01 7.104716e-01 7.351878e-01 4.663185e-01 1.852621e-01
<GCONST> 7.223994e+01
<TRANSP> 5
 0.000000e+00 1.000000e+00 0.000000e+00 0.000000e+00 0.000000e+00
 0.000000e+00 8.903412e-01 1.096588e-01 0.000000e+00 0.000000e+00
 0.000000e+00 0.000000e+00 7.922551e-01 2.077449e-01 0.000000e+00
 0.000000e+00 0.000000e+00 0.000000e+00 9.367630e-01 6.323698e-02
 0.000000e+00 0.000000e+00 0.000000e+00 0.000000e+00 0.000000e+00
<ENDHMM>
~h "hh"
<BEGINHMM>
<NUMSTATES> 5
<STATE> 2
<MEAN> 25
 -1.552625e+00 4.725048e+00 -2.253007e+00 2.347089e+00 2.863304e+00 1.750396e+00 2.742093e+00 8.625226e+00 3.974761e+00 -2.065674e+00 4.353283e+00 2.667391e+00 2.901965e-03 -3.467791e-03 -7.625249e-03 -1.195045e-02 4.022021e-05 1.340803e-02 1.261756e-02 4.163264e-03 -1.757405e-02 -3.238545e-02 6.178659e-04 1.885834e-02 2.118505e-03
<VARIANCE> 25
 2.671113e+00 3.228285e+00 2.946836e+00 4.407246e+00 6.002292e+00 4.632537e+00 9.573035e+00 9.101267e+00 7.606823e+00 1.033439e+01 7.394926e+00 7.659132e+00 6.025217e-02 1.370205e-01 2.144224e-01 3.147085e-01 4.321850e-01 4.576157e-01 6.199252e-01 7.472879e-01 8.154777e-01 8.057373e-01 7.004359e-01 6.080213e-01 2.169502e-02
<GCONST> 5.187207e+01
<STATE> 3
<MEAN> 25
 -7.694886e+00 -4.326542e+00 -5.174876e+00 5.271585e-02 4.362542e+00 6.687999e-01 7.672650e+00 -3.324397e-01 5.638393e+00 -2.554676e+00 6.728822e-01 3.774046e+00 2.517683e-01 -6.036931e-01 -5.223609e-01 -3.680024e-01 -1.997138e-01 9.032609e-02 2.710721e-01 2.324357e-01 -3.108042e-01 -1.550285e-01 -1.689056e-02 -4.261338e-02 3.670638e-01
<VARIANCE> 25
 1.217091e+01 1.465029e+01 6.805255e+00 8.597993e+00 1.579140e+01 1.116458e+01 1.609559e+01 1.817588e+01 1.403161e+01 1.686850e+01 9.670730e+00 1.071175e+01 1.803678e-01 3.750112e-01 4.972188e-01 7.205259e-01 7.461882e-01 8.116310e-01 1.525093e+00 1.169192e+00 1.677335e+00 1.656171e+00 8.377442e-01 1.385498e+00 1.219754e-01
<GCONST> 7.158134e+01
<STATE> 4
<MEAN> 25
 -2.780186e+00 -1.063831e+01 -7.142625e+00 -1.049621e+00 3.273440e-01 9.707637e-01 8.775258e+00 5.188282e+00 -1.428391e-01 -4.413218e+00 2.831381e+00 4.248153e+00 3.627495e-02 -1.785145e+00 -3.921212e-01 -2.600662e-01 -1.917662e-01 -4.097673e-01 6.289238e-02 1.940024e-01 -3.568577e-01 -1.004646e-01 -2.241298e-01 -4.814304e-02 1.175886e+00
<VARIANCE> 25
 2.144501e+01 5.322750e+01 8.192460e+00 9.152335e+00 2.783154e+01 1.135476e+01 1.272624e+01 2.048306e+01 2.245117e+01 1.671523e+01 1.640062e+01 1.377219e+01 4.107348e-01 1.474664e+00 9.224898e-01 5.488798e-01 1.249603e+00 1.077275e+00 1.409388e+00 1.588789e+00 1.653584e+00 1.283655e+00 1.278191e+00 1.062557e+00 3.498388e-01
<GCONST> 7.990086e+01
<TRANSP> 5
 0.000000e+00 1.000000e+00 0.000000e+00 0.000000e+00 0.000000e+00
 0.000000e+00 9.621773e-01 3.782272e-02 0.000000e+00 0.000000e+00
 0.000000e+00 0.000000e+00 6.460677e-01 3.539324e-01 0.000000e+00
 0.000000e+00 0.000000e+00 0.000000e+00 8.381478e-01 1.618522e-01
 0.000000e+00 0.000000e+00 0.000000e+00 0.000000e+00 0.000000e+00
<ENDHMM>
~h "ih"
<BEGINHMM>
<NUMSTATES> 5
<STATE> 2
<MEAN> 25
 5.255105e+00 -7.037612e-01 9.200201e+00 4.897478e+00 -4.661308e+00 -6.707813e+00 -1.144814e+01 -5.406696e+00 -7.054726e+00 1.340378e-01 -3.334846e-02 -2.408106e+00 -4.562078e-02 4.945075e-01 -5.036979e-01 5.005623e-01 8.335409e-01 3.981198e-01 6.385974e-01 -4.730367e-01 5.329394e-01 -2.683018e-01 -2.804368e-01 -1.185524e-01 -1.086828e+00
<VARIANCE> 25
 7.356083e+00 3.494151e+01 4.555366e+01 4.146421e+01 1.841397e+02 2.845334e+01 7.297491e+01 6.915874e+01 1.898577e+01 3.411603e+01 1.511497e+01 2.048536e+01 3.399969e+00 1.487178e+00 3.303689e+00 2.226265e+00 6.026229e+00 2.666383e+00 1.108460e+01 3.387581e+00 3.552263e+00 2.821136e+00 1.603375e+00 1.887454e+00 3.120973e+00
<GCONST> 1.029079e+02
<STATE> 3
<MEAN> 25
 -8.487828e-01 3.863632e+00 2.676299e+00 7.054716e+00 3.217095e+00 -8.562560e-01 1.590750e+00 -3.903684e+00 9.201375e-01 -1.713519e+00 -9.316347e-01 5.476205e-01 -1.382114e+00 -5.778818e-01 -1.375954e+00 -4.036535e-01 8.449345e-01 1.064026e+00 1.216706e+00 6.586970e-01 1.058388e+00 -2.447992e-01 2.817919e-01 6.877695e-01 -1.233889e+00
<VARIANCE> 25
 1.129788e+01 1.503643e+01 1.596989e+01 1.758931e+01 3.005699e+01 1.585564e+01 2.563953e+01 2.293331e+01 1.548821e+01 1.958890e+01 1.696867e+01 1.440879e+01 9.629289e-01 1.554890e+00 1.267673e+00 1.654287e+00 4.204818e+00 1.646956e+00 2.712294e+00 2.859362e+00 1.857156e+00 1.792303e+00 1.820308e+00 1.507960e+00 1.260504e+00
<GCONST> 8.804919e+01
<STATE> 4
<MEAN> 25
 -6.498831e+00 2.322025e-01 -3.141059e+00 4.239184e+00 5.140638e+00 2.356775e+00 6.231302e+00 2.493228e-01 5.292903e+00 -1.558239e+00 1.506810e+00 4.507502e+00 -3.750630e-02 3.262803e-02 -5.529384e-02 -5.983861e-02 1.138497e-01 1.090992e-01 1.217090e-01 1.480549e-01 1.488412e-01 2.446470e-02 -3.049088e-02 -4.998834e-02 -6.440027e-02
<VARIANCE> 25
 1.277631e+01 1.060491e+01 9.911807e+00 1.004640e+01 2.002891e+01 1.642024e+01 1.729986e+01 2.122508e+01 2.001787e+01 1.622050e+01 1.464132e+01 1.540187e+01 1.155720e+00 1.364729e+00 1.047025e+00 1.120533e+00 1.337896e+00 1.783634e+00 1.750186e+00 2.143192e+00 1.767389e+00 1.599357e+00 1.507455e+00 1.613701e+00 7.667901e-01
<GCONST> 8.282932e+01
<TRANSP> 5
 0.000000e+00 1.000000e+00 0.000000e+00 0.000000e+00 0.000000e+00
 0.000000e+00 7.923799e-01 2.076201e-01 0.000000e+00 0.000000e+00
 0.000000e+00 0.000000e+00 7.418011e-01 2.581988e-01 0.000000e+00
 0.000000e+00 0.000000e+00 0.000000e+00 9.106146e-01 8.938532e-02
 0.000000e+00 0.000000e+00 0.000000e+00 0.000000e+00 0.000000e+00
<ENDHMM>
~h "iy"
<BEGINHMM>
<NUMSTATES> 5
<STATE> 2
<MEAN> 25
 7.304581e+00 1.231747e+00 4.604737e+00 4.967405e+00 -5.463079e-01 -3.709910e+00 -6.434947e+00 -5.208627e+00 -5.669929e+00 -5.618011e-01 2.915860e+00 -4.763710e+00 4.118069e-01 -6.361977e-01 1.323225e+00 -7.523562e-01 -9.166079e-01 -1.388119e-01 -1.476153e+00 -3.400941e-01 -1.067703e+00 8.078473e-01 6.566653e-01 -5.926852e-01 1.568044e+00
<VARIANCE> 25
 2.090733e+01 3.130064e+01 8.757168e+01 3.565227e+01 1.183150e+02 5.214696e+01 5.670129e+01 4.773258e+01 4.014095e+01 3.803464e+01 3.347714e+01 1.847227e+01 3.370804e+00 3.836983e+00 4.230169e+00 4.853289e+00 5.112556e+00 7.919192e+00 3.848063e+00 5.136778e+00 3.216741e+00 4.376549e+00 3.452329e+00 3.391811e+00 1.584757e+00
<GCONST> 1.086980e+02
<STATE> 3
<MEAN> 25
 3.731555e+00 7.859900e+00 1.593604e+01 -5.080002e+00 -9.635461e+00 3.832933e-02 -1.136945e+01 -3.241751e+00 -7.532290e+00 2.629123e+00 6.127432e+00 -9.546425e+00 -1.279034e-01 2.870196e-01 -2.053784e-01 5.374435e-02 3.541027e-01 -5.819983e-02 -2.666309e-02 -1.120252e-01 1.926757e-01 -7.517744e-02 -2.547623e-01 -4.504440e-02 -3.358209e-01
<VARIANCE> 25
 1.154243e+01 2.254879e+01 3.577217e+01 3.400243e+01 4.583830e+01 2.933042e+01 3.192091e+01 3.456664e+01 1.980556e+01 1.463511e+01 3.348155e+01 2.367849e+01 6.704916e-01 7.312155e-01 1.734295e+00 2.600607e+00 1.417973e+00 2.114501e+00 1.971325e+00 1.591944e+00 1.557940e+00 1.054967e+00 2.421986e+00 1.269264e+00 8.423507e-01
<GCONST> 8.965069e+01
<STATE> 4
<MEAN> 25
 4.083651e+00 -4.225172e+00 7.685399e+00 1.044473e+01 7.473755e+00 -7.854690e+00 -1.607132e+01 -5.364400e+00 -1.107110e+00 -1.265526e-01 -2.295516e+00 -8.481370e+00 -1.927722e-01 1.440196e-01 1.433171e-01 1.307169e-01 -1.283615e-01 2.158236e-01 4.272427e-01 2.515590e-01 3.136787e-01 -4.948631e-02 -2.294341e-01 -3.260991e-02 -3.227626e-01
<VARIANCE> 25
 7.626536e+00 3.098209e+01 2.937203e+01 4.911956e+01 3.583102e+01 3.917112e+01 4.126438e+01 4.572567e+01 3.373804e+01 4.638786e+01 5.257668e+01 2.015405e+01 1.446958e-01 1.652900e+00 9.139121e-01 1.276185e+00 9.063097e-01 2.586156e+00 2.099851e+00 1.381574e+00 1.411543e+00 1.618667e+00 1.808571e+00 8.170928e-01 8.033504e-01
<GCONST> 8.943504e+01
<TRANSP> 5
 0.000000e+00 1.000000e+00 0.000000e+00 0.000000e+00 0.000000e+00
 0.000000e+00 8.086306e-01 1.913694e-01 0.000000e+00 0.000000e+00
 0.000000e+00 0.000000e+00 9.306923e-01 6.930771e-02 0.000000e+00
 0.000000e+00 0.000000e+00 0.000000e+00 9.267251e-01 7.327488e-02
 0.000000e+00 0.000000e+00 0.000000e+00 0.000000e+00 0.000000e+00
<ENDHMM>
~h "ow"
<BEGINHMM>
<NUMSTATES> 5
<STATE> 2
<MEAN> 25
 -5.576740e+00 -8.186902e+00 1.467091e+01 4.489562e+00 3.079187e+00 -2.812860e+00 -1.902872e-01 -1.696797e+01 -1.463302e+01 1.234365e+00 -7.916595e-01 -3.206828e+00 8.056805e-01 -1.091732e-02 -1.133197e+00 -7.357372e-04 2.828810e-01 5.751387e-01 -1.260610e+00 -5.562103e-01 3.215121e-01 1.543055e-02 -4.218747e-04 -4.127577e-01 3.171016e-02
<VARIANCE> 25
 1.357672e+02 9.557983e+00 1.136201e+02 2.767008e+01 4.910506e+01 2.173950e+01 2.282033e+02 8.816955e+01 4.830663e+01 1.178752e+01 1.352808e+01 2.558570e+01 3.043561e+00 4.593672e-01 2.241256e+00 2.193801e+00 1.632999e+00 8.890972e-01 5.496632e+00 3.474046e+00 2.887387e+00 1.142433e+00 1.072953e+00 9.009342e-01 2.400582e-01
<GCONST> 9.522531e+01
<STATE> 3
<MEAN> 25
 1.529573e+01 -1.826732e+00 -9.395836e+00 -3.168057e+00 -2.151007e+00 -4.744138e-02 -1.605726e+01 4.999889e+00 -8.401739e+00 6.929888e-01 1.037213e+01 -2.708158e-01 4.181976e-02 2.243221e-01 -4.737283e-01 -6.670514e-01 -7.704249e-02 3.177973e-01 6.850058e-01 3.971204e-01 -5.118229e-01 -2.427572e-01 9.299043e-02 -2.726458e-02 -9.746321e-02
<VARIANCE> 25
 4.888877e+00 4.612098e+00 1.014799e+01 2.505095e+01 1.686045e+01 1.088515e+01 4.038009e+01 4.513579e+01 3.119199e+01 9.942339e+00 1.377463e+01 7.172242e+00 5.901149e-02 3.231963e-01 6.981902e-01 7.397795e-01 5.449735e-01 7.292603e-01 9.961348e-01 1.608000e+00 7.009364e-01 4.681708e-01 5.708404e-01 5.019575e-01 2.731971e-01
<GCONST> 6.891763e+01
<STATE> 4
<MEAN> 25
 8.631383e+00 1.958157e+00 -5.117186e+00 -6.469288e+00 -1.118079e+00 -7.184564e-01 -5.442826e+00 -5.610344e+00 -6.526683e+00 -4.224166e+00 -4.652759e+00 -2.845448e+00 -5.415557e-01 4.210968e-01 2.799737e-01 5.431647e-02 -1.867580e-01 -7.911563e-02 8.707572e-01 6.296374e-01 7.926458e-01 -1.235778e-01 -2.164660e-01 9.910219e-02 -7.482333e-01
<VARIANCE> 25
 1.356642e+01 1.624990e+01 2.421916e+01 2.534990e+01 6.750191e+01 3.551308e+01 4.763094e+01 7.476143e+01 3.081688e+01 1.973365e+01 6.340697e+01 2.482806e+01 1.110872e+00 4.454987e-01 1.359185e+00 2.592380e+00 2.623210e+00 1.950908e+00 2.232023e+00 3.699163e+00 1.964980e+00 1.726235e+00 2.547064e+00 2.110065e+00 7.174844e-01
<GCONST> 9.436515e+01
<TRANSP> 5
 0.000000e+00 1.000000e+00 0.000000e+00 0.000000e+00 0.000000e+00
 0.000000e+00 8.494175e-01 1.505825e-01 0.000000e+00 0.000000e+00
 0.000000e+00 0.000000e+00 9.236416e-01 7.635830e-02 0.000000e+00
 0.000000e+00 0.000000e+00 0.000000e+00 9.273233e-01 7.267676e-02
 0.000000e+00 0.000000e+00 0.000000e+00 0.000000e+00 0.000000e+00
<ENDHMM>
~h "sp"
<BEGINHMM>
<NUMSTATES> 3
<STATE> 2
~s "silst"
<TRANSP> 3
 0.000000e+00 1.615997e-01 8.384003e-01
 0.000000e+00 9.354423e-01 6.455769e-02
 0.000000e+00 0.000000e+00 0.000000e+00
<ENDHMM>
~h "th"
<BEGINHMM>
<NUMSTATES> 5
<STATE> 2
<MEAN> 25
 8.883549e-01 3.341109e-02 7.948985e-01 1.614682e+00 -1.413369e-02 1.362500e+00 2.242830e+00 2.339150e-01 -1.301564e+00 -3.731846e+00 -2.551731e+00 -8.831289e-01 1.380019e-01 -3.849314e-01 -9.108452e-01 3.309055e-01 8.307757e-01 9.210473e-02 2.148127e-01 5.040735e-01 2.727676e-01 -2.241115e-01 9.200296e-02 2.046403e-01 -1.349799e-01
<VARIANCE> 25
 2.661693e+01 2.230749e+01 1.782370e+01 7.561428e+00 3.890706e+01 1.417475e+01 5.947531e+01 2.440312e+01 2.741604e+01 2.223353e+01 3.465366e+01 4.081554e+01 1.777505e+00 3.355690e+00 3.042472e+00 1.348990e+00 3.965712e+00 2.156080e+00 5.640128e+00 2.770663e+00 3.654061e+00 3.564238e+00 3.493932e+00 6.059428e+00 2.795070e+00
<GCONST> 9.923724e+01
<STATE> 3
<MEAN> 25
 -5.338855e+00 -1.963519e+00 -6.236846e+00 4.441608e+00 -2.159821e-01 2.473476e+00 2.920282e+00 -4.653150e-01 5.475192e+00 -1.541804e+00 3.572299e-01 2.596550e+00 -1.394480e-01 -2.675883e-01 -5.444851e-01 3.735155e-02 -3.394831e-01 -2.006941e-01 -2.523916e-01 -2.159508e-01 2.110108e-01 -1.821363e-02 -2.146613e-01 2.324080e-01 1.390294e+00
<VARIANCE> 25
 2.035922e+01 1.267924e+01 2.205569e+01 1.092464e+01 1.460214e+01 1.126105e+01 2.533712e+01 1.321163e+01 2.168939e+01 1.496083e+01 1.666957e+01 1.427606e+01 1.238941e+00 9.700273e-01 1.467721e+00 1.267445e+00 1.574404e+00 1.629134e+00 1.648220e+00 1.129396e+00 2.054433e+00 2.066732e+00 1.207164e+00 1.481607e+00 1.678125e+00
<GCONST> 8.406823e+01
<STATE> 4
<MEAN> 25
 -2.138894e+00 -4.308120e+00 -4.743183e+00 2.598163e-01 -2.331458e-01 -4.231907e+00 1.224877e+00 -9.626693e-01 1.933413e+00 -2.227081e+00 -8.736977e-01 5.339665e+00 1.674640e+00 -5.344856e-01 1.897185e+00 -6.708249e-01 5.123471e-01 -1.099507e+00 -1.322746e+00 -5.181290e-01 -1.356507e+00 -5.441886e-01 -6.087547e-01 -6.489762e-01 1.192997e+00
<VARIANCE> 25
 2.047660e+01 2.580160e+01 1.942761e+01 1.175538e+01 2.553345e+01 5.400914e+01 2.415510e+01 1.912978e+01 5.166087e+01 2.539187e+01 4.187237e+01 1.964025e+01 5.102743e+00 4.336674e+00 3.719645e+00 1.765881e+00 3.008198e+00 6.641435e+00 3.820149e+00 3.447934e+00 3.402463e+00 3.345189e+00 2.663983e+00 2.290563e+00 5.005163e+00
<GCONST> 1.013069e+02
<TRANSP> 5
 0.000000e+00 1.000000e+00 0.000000e+00 0.000000e+00 0.000000e+00
 0.000000e+00 5.920473e-01 4.079527e-01 0.000000e+00 0.000000e+00
 0.000000e+00 0.000000e+00 8.753640e-01 1.246360e-01 0.000000e+00
 0.000000e+00 0.000000e+00 0.000000e+00 6.967475e-01 3.032525e-01
 0.000000e+00 0.000000e+00 0.000000e+00 0.000000e+00 0.000000e+00
<ENDHMM>
~h "uw"
<BEGINHMM>
<NUMSTATES> 5
<STATE> 2
<MEAN> 25
 6.853740e-01 2.979631e-01 7.144167e+00 2.800128e+00 -1.696553e+00 -5.859168e+00 -4.598124e+00 3.468509e-01 -5.030622e+00 -4.867146e+00 2.050994e+00 -3.543760e+00 1.395162e+00 5.546029e-01 2.640343e-01 9.470252e-01 4.826002e-01 -2.308873e-01 -1.756091e+00 -5.438933e-01 -5.210237e-01 -3.035676e-01 -4.115810e-02 -5.652601e-01 2.197081e-03
<VARIANCE> 25
 6.271630e+01 5.340685e+01 2.703386e+01 2.309302e+01 2.946834e+01 1.874121e+01 7.245204e+01 9.411077e+01 1.908292e+01 3.263542e+01 2.189835e+01 2.592377e+01 2.818887e+00 1.280158e+00 1.811942e+00 1.833883e+00 2.811579e+00 2.744701e+00 4.748110e+00 3.605773e+00 2.298022e+00 3.500454e+00 3.373449e+00 2.237428e+00 9.967254e-01
<GCONST> 9.988809e+01
<STATE> 3
<MEAN> 25
 9.827831e+00 5.742946e+00 -2.576776e+00 4.590898e+00 4.674507e-01 -1.879198e+00 -2.022955e+01 -3.848815e+00 -8.910293e+00 1.912395e+00 1.100008e+01 -9.808160e+00 1.285147e-01 2.418171e-01 -4.597988e-01 -3.769292e-01 7.754617e-02 2.733109e-01 2.106655e-01 -4.326402e-01 5.107983e-02 1.376484e-01 1.566932e-01 3.433544e-01 -2.751271e-01
<VARIANCE> 25
 5.330250e+00 1.286397e+01 1.570616e+01 1.636110e+01 1.234219e+01 1.038317e+01 2.899662e+01 2.879827e+01 1.247789e+01 2.199823e+01 2.235542e+01 2.347257e+01 7.145225e-02 3.728643e-01 5.798770e-01 6.493755e-01 7.399014e-01 6.944245e-01 1.430858e+00 8.334059e-01 7.227886e-01 1.205107e+00 1.011372e+00 1.272835e+00 1.934563e-01
<GCONST> 7.256221e+01
<STATE> 4
<MEAN> 25
 5.528634e+00 -1.122957e+00 -2.707432e+00 2.119245e-02 9.455264e+00 1.488652e+00 -1.261148e+01 -1.655614e+01 -1.202445e+01 -6.875625e+00 -3.454126e+00 2.767885e-01 -1.593619e-01 2.916818e-01 -6.874862e-02 -2.160612e-01 -8.612648e-02 1.932273e-01 7.005561e-01 6.928362e-01 1.339169e-01 1.244658e-01 3.845619e-02 1.804069e-01 -4.400585e-01
<VARIANCE> 25
 6.367243e+00 3.716512e+01 1.351938e+01 2.370503e+01 2.532057e+01 7.681130e+00 7.214172e+01 8.944164e+01 4.282850e+01 1.393733e+01 1.463668e+01 1.155750e+01 1.854318e-01 4.029282e-01 3.804502e-01 7.446001e-01 6.726532e-01 4.061166e-01 1.318569e+00 1.166626e+00 1.638548e+00 7.194839e-01 6.944124e-01 6.144178e-01 1.180642e-01
<GCONST> 7.520245e+01
<TRANSP> 5
 0.000000e+00 1.000000e+00 0.000000e+00 0.000000e+00 0.000000e+00
 0.000000e+00 9.039915e-01 9.600849e-02 0.000000e+00 0.000000e+00
 0.000000e+00 0.000000e+00 9.026459e-01 9.735414e-02 0.000000e+00
 0.000000e+00 0.000000e+00 0.000000e+00 9.163460e-01 8.365407e-02
 0.000000e+00 0.000000e+00 0.000000e+00 0.000000e+00 0.000000e+00
<ENDHMM>
~h "sil"
<BEGINHMM>
<NUMSTATES> 5
<STATE> 2
<MEAN> 25
 -4.523960e+00 -1.766808e-01 -2.359086e+00 2.438588e+00 2.979959e+00 2.465776e+00 5.561322e+00 1.060840e+00 3.585941e+00 -1.303979e+00 9.924493e-01 2.438852e+00 1.371859e-01 -4.180815e-02 -1.746060e-01 6.510754e-02 -1.297903e-02 8.502783e-03 -1.515715e-01 -8.832248e-02 2.545193e-02 -1.610731e-01 -1.213048e-01 2.390086e-02 -9.440828e-02
<VARIANCE> 25
 1.216845e+01 1.248152e+01 1.081266e+01 1.380066e+01 1.889365e+01 1.508821e+01 2.546362e+01 3.264618e+01 2.186635e+01 2.297386e+01 1.784864e+01 1.404484e+01 7.181311e-01 1.550217e+00 8.615861e-01 1.294297e+00 1.578166e+00 1.782182e+00 2.316815e+00 2.632464e+00 1.879432e+00 2.241983e+00 1.855784e+00 1.558944e+00 6.288987e-01
<GCONST> 8.519000e+01
<STATE> 3
~s "silst"
<STATE> 4
<MEAN> 25
 -2.934457e+00 8.010387e-01 -2.359306e+00 -7.210430e-01 -9.649555e-01 4.769043e+00 3.943974e+00 2.244991e-01 2.210209e+00 1.246664e+00 2.544309e-01 1.929837e+00 1.612458e-03 1.713173e-02 -9.484836e-03 -2.651193e-02 -1.517371e-04 1.035981e-02 -1.470661e-02 2.094651e-03 2.328425e-02 1.914893e-02 -8.353097e-03 -2.107978e-03 -9.437329e-03
<VARIANCE> 25
 2.465682e+00 6.260722e+00 4.201715e+00 8.164071e+00 1.110768e+01 8.699385e+00 8.825992e+00 2.451912e+01 1.063789e+01 1.377492e+01 1.185286e+01 9.722205e+00 6.869020e-02 1.789899e-01 2.373616e-01 3.876615e-01 5.209454e-01 5.782353e-01 7.085418e-01 7.673967e-01 7.974573e-01 9.179531e-01 8.161798e-01 7.364012e-01 5.039920e-02
<GCONST> 5.949886e+01
<TRANSP> 5
 0.000000e+00 1.000000e+00 0.000000e+00 0.000000e+00 0.000000e+00
 0.000000e+00 6.917171e-01 1.286896e-01 1.795933e-01 0.000000e+00
 0.000000e+00 0.000000e+00 9.613190e-01 3.868092e-02 0.000000e+00
 0.000000e+00 2.330690e-02 0.000000e+00 9.300328e-01 4.666035e-02
 0.000000e+00 0.000000e+00 0.000000e+00 0.000000e+00 0.000000e+00
<ENDHMM>
