~o
<STREAMINFO> 1 25
<VECSIZE> 25<NULLD><MFCC_D_N_Z_0><DIAGC>
~s "silst"
<MEAN> 25
 -8.312862e+00 -1.872006e+00 -8.201522e-01 2.145472e-01 5.630119e+00 2.423719e-01 5.064337e+00 2.865223e+00 4.710131e+00 -1.766982e+00 6.052077e-01 8.524892e-01 -2.646546e-02 -2.940609e-02 -1.988570e-02 -5.166485e-03 -2.816670e-02 -3.372722e-02 -3.936348e-02 -2.196432e-02 -2.224533e-02 -2.102594e-02 -2.548424e-02 -3.632589e-02 -1.811545e-02
<VARIANCE> 25
 3.839838e+00 6.040574e+00 7.420109e+00 9.801989e+00 1.077008e+01 1.423970e+01 1.424145e+01 1.361386e+01 1.434970e+01 1.394455e+01 1.433968e+01 1.254962e+01 1.372994e-01 2.912140e-01 4.645635e-01 6.390337e-01 9.005777e-01 1.135854e+00 1.366496e+00 1.492442e+00 1.448883e+00 1.453167e+00 1.407043e+00 1.238145e+00 3.940260e-02
<GCONST> 6.853654e+01
~h "b"
<BEGINHMM>
<NUMSTATES> 5
<STATE> 2
<MEAN> 25
 -3.117629e+00 3.609798e+00 2.590805e+00 3.194108e+00 5.888196e+00 1.599942e+00 4.891886e+00 2.041622e+00 3.048213e+00 -8.137735e-01 1.135906e+00 1.292515e+00 8.048948e-01 7.362093e-01 3.953081e-01 5.955551e-02 5.664469e-02 -6.236237e-02 -2.580342e-01 -2.755965e-01 -3.305364e-01 -4.262615e-01 -4.468826e-01 -1.985726e-01 -6.909521e-02
<VARIANCE> 25
 3.597902e+01 2.911392e+01 1.633142e+01 2.067631e+01 2.314141e+01 3.094324e+01 3.049534e+01 2.726308e+01 2.595204e+01 2.070381e+01 1.932156e+01 2.132668e+01 3.067273e+00 2.098410e+00 1.589458e+00 1.768836e+00 2.533270e+00 2.296477e+00 2.596785e+00 2.639167e+00 2.276043e+00 2.442492e+00 2.379487e+00 1.966874e+00 1.816969e+00
<GCONST> 9.476506e+01
<STATE> 3
<MEAN> 25
 5.704772e+00 1.018295e+01 4.208979e+00 2.390226e+00 4.820340e+00 -1.175588e+00 1.162768e+00 -1.344581e+00 3.352498e-02 -3.749022e+00 -2.260055e+00 -1.965525e+00 -1.643105e-01 9.797816e-02 4.217090e-01 5.795722e-01 3.548378e-01 4.388232e-01 5.936103e-02 -3.001292e-02 2.779309e-01 -5.258101e-02 -4.617536e-02 -3.193636e-02 1.495339e-03
<VARIANCE> 25
 2.293206e+01 1.166680e+01 1.318804e+01 1.489248e+01 1.471675e+01 1.721587e+01 1.501381e+01 1.713705e+01 1.464052e+01 1.480533e+01 1.563823e+01 1.582935e+01 1.191792e+00 9.874460e-01 7.218410e-01 1.105170e+00 1.031261e+00 1.239010e+00 1.079951e+00 1.198887e+00 1.281918e+00 9.514492e-01 1.284799e+00 1.216103e+00 5.228018e-01
<GCONST> 7.922833e+01
<STATE> 4
<MEAN> 25
 3.938694e+00 3.995618e+00 3.479749e+00 6.790523e+00 3.615737e+00 8.914610e-01 -8.416480e-01 -4.162819e+00 1.139267e+00 -8.254880e-01 -2.951895e-01 -2.985228e+00 2.649156e-01 -3.295942e+00 -1.402884e+00 -3.844386e-01 -2.445284e+00 1.067443e-01 -1.807353e+00 -8.921680e-01 -4.698841e-01 2.265311e+00 1.664133e+00 -2.515574e-01 3.137580e+00
<VARIANCE> 25
 2.359909e+01 4.560152e+01 2.235968e+01 3.101455e+01 3.514185e+01 2.529760e+01 3.925217e+01 3.110167e+01 1.842985e+01 4.022005e+01 2.556716e+01 1.315841e+01 2.334355e+00 3.043019e+00 4.103512e+00 4.547272e+00 3.832804e+00 3.468513e+00 4.505808e+00 3.920437e+00 3.044396e+00 3.800728e+00 3.717285e+00 2.013147e+00 1.910380e+00
<GCONST> 1.012482e+02
<TRANSP> 5
 0.000000e+00 1.000000e+00 0.000000e+00 0.000000e+00 0.000000e+00
 0.000000e+00 8.047721e-01 1.952280e-01 0.000000e+00 0.000000e+00
 0.000000e+00 0.000000e+00 8.167834e-01 1.832166e-01 0.000000e+00
 0.000000e+00 0.000000e+00 0.000000e+00 6.458191e-01 3.541810e-01
 0.000000e+00 0.000000e+00 0.000000e+00 0.000000e+00 0.000000e+00
<ENDHMM>
~h "d"
<BEGINHMM>
<NUMSTATES> 5
<STATE> 2
<MEAN> 25
 -4.436707e+00 1.766602e+00 1.215468e+00 2.882250e+00 7.021015e+00 3.091679e+00 5.708858e+00 5.252589e+00 5.348702e+00 -1.243166e-02 2.049811e+00 2.405600e+00 -9.063208e-02 8.808820e-02 2.759761e-02 -3.431674e-02 1.109464e-01 1.698669e-01 1.159120e-01 1.764314e-01 1.613425e-01 9.194609e-02 4.814770e-02 -7.487807e-02 -2.052530e-01
<VARIANCE> 25
 1.297000e+01 8.416809e+00 1.056162e+01 1.006811e+01 2.105524e+01 2.490462e+01 2.523202e+01 1.788123e+01 2.142664e+01 1.989712e+01 1.795436e+01 1.356329e+01 7.089090e-01 6.793090e-01 8.315595e-01 1.135280e+00 1.253991e+00 1.379415e+00 1.671537e+00 1.514309e+00 1.837401e+00 1.816045e+00 1.611797e+00 1.298887e+00 3.665358e-01
<GCONST> 8.085950e+01
<STATE> 3
<MEAN> 25
 4.037880e+00 8.584580e+00 3.376611e+00 8.201250e-01 1.108244e+00 -3.092694e+00 1.847768e+00 2.467159e+00 2.509583e+00 -4.551980e+00 -3.568243e+00 -1.317518e+00 1.004884e+00 9.190706e-01 5.818015e-01 -2.332209e-01 -4.310414e-01 -3.772237e-01 -3.598213e-01 -2.744154e-01 -2.463279e-01 -4.802839e-01 -2.753900e-01 -3.334861e-01 3.838087e-01
<VARIANCE> 25
 4.009652e+01 2.676894e+01 1.220121e+01 1.345796e+01 2.736308e+01 2.846088e+01 2.136518e+01 2.025668e+01 1.874754e+01 1.594502e+01 1.829603e+01 1.132139e+01 2.799311e+00 2.223908e+00 7.287331e-01 1.155859e+00 2.227328e+00 2.241785e+00 1.891832e+00 1.433613e+00 1.784846e+00 1.439088e+00 1.932370e+00 1.039586e+00 9.298190e-01
<GCONST> 8.761913e+01
<STATE> 4
<MEAN> 25
 3.634104e+00 3.427405e+00 4.605363e+00 4.313241e-01 -7.995762e-01 -3.333198e+00 -1.373038e+00 7.141016e-01 2.806233e+00 -2.703962e+00 -1.818428e+00 -7.848799e-01 -2.509490e-01 -2.068818e+00 -4.142230e-01 -2.215170e-01 -1.108335e+00 -2.000005e-01 -1.195943e+00 -4.306393e-01 -2.367228e-01 1.353280e+00 4.387369e-01 2.021990e-01 2.089032e+00
<VARIANCE> 25
 2.705365e+01 6.016742e+01 2.366529e+01 2.192311e+01 3.974118e+01 3.204496e+01 5.213879e+01 4.146019e+01 2.332698e+01 2.784389e+01 2.109497e+01 1.668629e+01 3.532697e+00 5.567584e+00 3.546168e+00 2.711326e+00 4.013087e+00 4.123174e+00 5.200284e+00 6.348763e+00 2.887540e+00 2.616999e+00 4.221243e+00 2.108504e+00 3.341473e+00
<GCONST> 1.037219e+02
<TRANSP> 5
 0.000000e+00 1.000000e+00 0.000000e+00 0.000000e+00 0.000000e+00
 0.000000e+00 8.780317e-01 1.219684e-01 0.000000e+00 0.000000e+00
 0.000000e+00 0.000000e+00 7.187610e-01 2.812391e-01 0.000000e+00
 0.000000e+00 0.000000e+00 0.000000e+00 7.481037e-01 2.518964e-01
 0.000000e+00 0.000000e+00 0.000000e+00 0.000000e+00 0.000000e+00
<ENDHMM>
~h "f"
<BEGINHMM>
<NUMSTATES> 5
<STATE> 2
<MEAN> 25
 -2.289289e+00 -6.183626e-01 -1.066705e+00 5.544793e+00 9.994095e-01 3.350435e-01 2.066013e+00 2.520404e-01 3.901522e+00 -2.561210e+00 -2.689346e+00 -8.040985e-01 -1.241721e+00 -5.671957e-01 -6.541386e-01 5.984066e-01 8.681333e-02 1.185129e+00 3.830387e-01 1.457064e-01 8.771123e-01 3.749447e-01 3.708175e-01 -2.601743e-01 -2.146883e-03
<VARIANCE> 25
 2.171956e+01 1.667153e+01 3.193108e+01 1.897801e+01 4.000426e+01 4.636882e+01 2.600424e+01 2.741769e+01 1.881417e+01 1.650746e+01 1.541629e+01 1.204668e+01 1.470092e+00 2.556480e+00 1.655007e+00 2.142811e+00 1.887953e+00 2.732566e+00 2.413509e+00 2.657330e+00 2.412745e+00 2.059148e+00 2.066860e+00 1.573205e+00 1.146052e+00
<GCONST> 9.231094e+01
<STATE> 3
<MEAN> 25
 -8.137317e+00 -3.003817e+00 -4.108177e+00 7.206151e+00 -9.058682e-01 4.544008e+00 1.463147e+00 -1.862096e+00 4.743371e+00 2.796457e-02 1.288845e+00 -5.316295e-01 -2.578835e-02 -1.902395e-01 -2.326501e-01 6.534820e-02 -1.001140e-01 6.340290e-02 -2.941211e-01 -3.636928e-01 -5.034748e-02 4.557426e-03 1.388588e-01 -1.600345e-01 4.200858e-01
<VARIANCE> 25
 3.944117e+00 1.098285e+01 9.790759e+00 1.674558e+01 1.439783e+01 1.577739e+01 2.607403e+01 2.497107e+01 2.098327e+01 1.539788e+01 1.349290e+01 1.573197e+01 5.467902e-01 8.284787e-01 6.185713e-01 1.030813e+00 1.327391e+00 1.720084e+00 2.038183e+00 1.632610e+00 1.731572e+00 1.641251e+00 1.395762e+00 1.530815e+00 5.979682e-01
<GCONST> 7.993069e+01
<STATE> 4
<MEAN> 25
 -6.578898e-02 -4.495773e+00 -5.439167e+00 2.717902e+00 2.112556e-02 3.330432e+00 9.960873e-01 -3.801191e+00 3.252557e+00 1.842087e+00 1.041534e+00 -3.132041e+00 3.573914e+00 1.028218e+00 -3.532212e-01 -2.429535e+00 -1.516202e-01 -2.493253e-01 4.801551e-01 1.044623e-01 -2.466162e+00 8.006712e-01 3.113393e-01 8.279929e-02 7.024550e-01
<VARIANCE> 25
 5.951468e+01 1.973912e+01 1.231835e+01 3.379439e+01 9.577111e+00 1.495524e+01 1.464688e+01 1.737139e+01 4.204325e+01 1.833046e+01 2.290381e+01 1.902470e+01 2.479886e+00 2.376462e+00 1.165744e+00 1.901040e+00 2.045885e+00 1.469394e+00 1.410083e+00 2.013339e+00 5.352473e+00 1.807940e+00 1.473418e+00 1.835815e+00 1.018572e+00
<GCONST> 9.027187e+01
<TRANSP> 5
 0.000000e+00 1.000000e+00 0.000000e+00 0.000000e+00 0.000000e+00
 0.000000e+00 8.025944e-01 1.974056e-01 0.000000e+00 0.000000e+00
 0.000000e+00 0.000000e+00 8.977102e-01 1.022898e-01 0.000000e+00
 0.000000e+00 0.000000e+00 0.000000e+00 6.953712e-01 3.046288e-01
 0.000000e+00 0.000000e+00 0.000000e+00 0.000000e+00 0.000000e+00
<ENDHMM>
~h "g"
<BEGINHMM>
<NUMSTATES> 5
<STATE> 2
<MEAN> 25
 8.339902e-01 4.688356e+00 2.265606e+00 7.614274e-02 -1.361885e+00 -3.599258e+00 6.270798e-02 1.291508e+00 5.404758e-01 -8.021730e-01 -2.790150e+00 -2.817392e+00 1.694213e+00 1.961557e+00 5.523844e-01 -6.092365e-01 -6.591614e-01 -1.352700e+00 -4.864289e-01 -3.487007e-01 -5.643820e-01 -9.976632e-01 -9.025536e-01 -5.911772e-01 -1.918845e-01
<VARIANCE> 25
 3.299691e+01 4.271795e+01 2.698424e+01 1.811075e+01 8.394688e+01 6.048925e+01 4.033385e+01 2.316642e+01 4.366066e+01 3.434176e+01 1.369930e+01 2.094933e+01 3.033260e+00 1.165262e+00 1.902887e+00 1.710245e+00 5.694993e+00 2.473222e+00 2.871794e+00 4.114126e+00 3.691779e+00 2.459494e+00 7.731299e-01 2.458508e+00 3.190685e+00
<GCONST> 9.930013e+01
<STATE> 3
<MEAN> 25
 3.007251e+00 7.339670e+00 5.661535e+00 1.609573e+00 8.212507e-01 -1.003314e+00 7.848768e-01 -2.532567e+00 1.034971e+00 -1.937667e+00 -2.412469e+00 -1.591485e+00 -8.054719e-01 -1.076437e+00 4.332558e-01 3.356236e-01 -3.602700e-01 7.207734e-01 -5.274132e-01 -7.290794e-01 -2.392459e-02 5.328860e-01 1.030228e+00 3.108371e-01 1.322290e+00
<VARIANCE> 25
 4.330679e+01 6.963757e+01 1.758470e+01 1.813690e+01 2.381493e+01 3.912189e+01 3.283583e+01 3.506916e+01 2.130380e+01 1.765687e+01 1.959653e+01 1.123483e+01 3.955348e+00 7.268129e+00 2.819152e+00 2.312343e+00 6.900082e+00 2.445941e+00 4.068372e+00 2.928836e+00 4.151536e+00 2.693062e+00 1.631159e+00 2.403352e+00 4.582177e+00
<GCONST> 1.007733e+02
<STATE> 4
<MEAN> 25
 3.293643e+00 -1.772178e-01 5.433873e+00 -2.557707e-01 -1.291862e+01 -2.415198e+00 -8.240272e+00 -3.653164e+00 -7.306011e+00 5.980507e+00 5.621964e+00 -4.024716e+00 5.293081e-01 -2.565558e-01 -3.115288e-01 -2.462265e-01 -7.332032e-01 -2.753829e-01 -1.189396e-02 5.001254e-01 -3.182691e-01 5.117812e-01 3.486780e-03 -2.546486e-01 2.148260e-01
<VARIANCE> 25
 1.004380e+01 1.792685e+01 7.463142e+01 4.131114e+01 4.191002e+01 2.221049e+01 3.889296e+01 9.570329e+00 2.629324e+01 2.900853e+01 2.615862e+01 2.952517e+01 4.211885e-01 1.207806e+00 1.777726e+00 7.415317e-01 3.826975e+00 1.651772e+00 2.620360e+00 1.436970e+00 3.171007e+00 2.074822e+00 2.614592e+00 3.523588e+00 7.965547e-01
<GCONST> 9.186301e+01
<TRANSP> 5
 0.000000e+00 1.000000e+00 0.000000e+00 0.000000e+00 0.000000e+00
 0.000000e+00 7.691237e-01 2.308763e-01 0.000000e+00 0.000000e+00
 0.000000e+00 0.000000e+00 8.790755e-01 1.209245e-01 0.000000e+00
 0.000000e+00 0.000000e+00 0.000000e+00 8.744197e-01 1.255803e-01
 0.000000e+00 0.000000e+00 0.000000e+00 0.000000e+00 0.000000e+00
<ENDHMM>
~h "k"
<BEGINHMM>
<NUMSTATES> 5
<STATE> 2
<MEAN> 25
 -4.848382e+00 2.573107e+00 1.562042e+00 3.323512e+00 6.721070e+00 2.604972e+00 5.795179e+00 4.759761e+00 5.442401e+00 1.954405e-01 1.676464e+00 2.581159e+00 -1.813496e-01 -1.255515e-01 -7.561991e-02 3.547572e-02 1.368801e-01 1.534803e-01 1.474504e-01 2.208586e-01 2.358927e-01 1.153084e-01 1.038977e-01 1.604198e-02 -1.763137e-01
<VARIANCE> 25
 6.854346e+00 8.311170e+00 1.003481e+01 1.328059e+01 1.542501e+01 2.098963e+01 1.926519e+01 1.669424e+01 1.946510e+01 1.980675e+01 1.831013e+01 1.605408e+01 3.926732e-01 6.818497e-01 1.100491e+00 1.096566e+00 1.268163e+00 1.779972e+00 1.807678e+00 1.884080e+00 1.775355e+00 1.957575e+00 1.884688e+00 1.866055e+00 2.202785e-01
<GCONST> 7.997351e+01
<STATE> 3
<MEAN> 25
 -5.125908e+00 1.017624e+00 1.356840e+00 2.559758e+00 4.908681e+00 1.808542e+00 5.952562e+00 3.156542e+00 6.196933e+00 8.349051e-02 2.067229e+00 3.072380e+00 3.999869e-01 -1.147210e+00 -9.407271e-01 -2.433597e-01 -6.359597e-01 -5.068758e-01 -1.324302e+00 -1.125987e+00 -1.809166e-01 6.601743e-01 2.969867e-01 1.412520e-02 1.507176e+00
<VARIANCE> 25
 1.231705e+01 9.178752e+00 1.626781e+01 1.776065e+01 2.217849e+01 2.432910e+01 2.330093e+01 2.972434e+01 2.025594e+01 1.831050e+01 1.737260e+01 1.884536e+01 1.694472e+00 3.227754e+00 4.426802e+00 2.988088e+00 4.015649e+00 4.398240e+00 5.236398e+00 5.039200e+00 3.693819e+00 3.127670e+00 2.154172e+00 2.271369e+00 5.571014e+00
<GCONST> 9.705738e+01
<STATE> 4
<MEAN> 25
 8.228652e-01 -5.160219e+00 -2.520225e+00 1.385223e+00 2.077527e-01 -9.343144e-01 -1.153757e+00 -2.688030e+00 -1.010013e+00 3.100919e+00 1.281753e+00 -5.255212e-01 7.077042e-01 -2.496019e-01 -2.149322e-01 4.157139e-02 -3.527871e-01 4.209499e-02 -2.287629e-01 -3.491259e-01 -5.679433e-01 -3.580633e-02 -1.975340e-01 -4.277550e-01 1.175069e+00
<VARIANCE> 25
 3.863948e+01 3.821863e+01 8.066373e+01 3.828313e+01 8.359702e+01 4.754591e+01 4.479645e+01 3.858765e+01 4.567942e+01 3.590388e+01 2.953922e+01 2.906280e+01 2.574527e+00 3.626906e+00 5.207849e+00 3.299429e+00 4.352952e+00 3.711065e+00 4.123608e+00 4.022596e+00 5.462563e+00 4.471071e+00 2.603112e+00 2.656323e+00 6.389003e+00
<GCONST> 1.088328e+02
<TRANSP> 5
 0.000000e+00 1.000000e+00 0.000000e+00 0.000000e+00 0.000000e+00
 0.000000e+00 8.763908e-01 1.236092e-01 0.000000e+00 0.000000e+00
 0.000000e+00 0.000000e+00 6.435508e-01 3.564493e-01 0.000000e+00
 0.000000e+00 0.000000e+00 0.000000e+00 8.214017e-01 1.785983e-01
 0.000000e+00 0.000000e+00 0.000000e+00 0.000000e+00 0.000000e+00
<ENDHMM>
~h "l"
<BEGINHMM>
<NUMSTATES> 5
<STATE> 2
<MEAN> 25
 7.277388e+00 -1.356659e+00 -6.707257e+00 -7.430517e+00 4.598657e-01 4.386535e+00 -9.777974e+00 -4.924617e+00 5.583009e-01 6.934818e+00 -2.730086e+00 -1.999308e+00 7.235754e-01 9.473423e-01 -6.068630e-01 -2.001678e+00 3.018681e-01 8.523190e-01 -2.316252e-01 -1.117026e+00 -9.719480e-01 4.275346e-01 3.151456e-01 9.781935e-01 -1.830821e-01
<VARIANCE> 25
 1.082508e+01 2.836339e+01 1.440519e+01 3.384378e+01 3.309026e+01 2.817253e+01 6.706931e+01 3.117644e+01 3.005527e+01 3.514368e+01 3.156002e+01 2.524401e+01 1.076567e+00 9.215782e-01 1.166046e+00 2.462164e+00 2.267943e+00 2.652949e+00 3.642309e+00 2.388340e+00 2.385334e+00 1.865202e+00 1.813280e+00 1.713557e+00 1.216021e+00
<GCONST> 9.381570e+01
<STATE> 3
<MEAN> 25
 9.018596e+00 4.399675e+00 -7.405139e+00 -1.566357e+01 -6.936579e-01 5.749210e+00 -6.797468e+00 -5.504774e+00 -5.528675e+00 5.973534e+00 -3.214063e+00 4.886094e+00 -1.549019e-02 3.771968e-01 7.594103e-02 -8.724742e-02 3.453919e-02 -3.329384e-01 1.021956e-01 -6.085169e-02 -1.117151e-01 -2.198912e-01 -6.339807e-02 2.101924e-01 -3.757320e-01
<VARIANCE> 25
 4.966588e+00 1.758657e+01 1.175007e+01 2.122726e+01 2.441512e+01 2.977414e+01 3.653824e+01 2.277888e+01 1.727984e+01 2.835201e+01 2.185778e+01 1.379914e+01 1.655296e-01 6.902778e-01 5.232171e-01 1.049376e+00 7.829308e-01 1.270434e+00 1.750020e+00 1.259265e+00 1.020835e+00 1.277275e+00 7.805178e-01 9.724286e-01 3.212023e-01
<GCONST> 7.802225e+01
<STATE> 4
<MEAN> 25
 5.588567e+00 3.136204e+00 -4.662706e+00 -7.019288e+00 7.528467e-01 7.732257e-01 -4.978883e+00 -5.175508e+00 -1.429953e+00 2.496519e+00 -2.586131e+00 1.335776e+00 -1.013340e+00 -7.341993e-01 6.309551e-01 1.749055e+00 -5.765385e-02 -5.250461e-01 5.189523e-01 9.799835e-01 8.826864e-01 -5.805283e-01 6.960708e-02 -5.416891e-01 -4.108523e-01
<VARIANCE> 25
 1.701517e+01 2.339668e+01 1.689892e+01 4.259217e+01 3.248365e+01 3.220454e+01 6.719970e+01 3.656569e+01 2.572402e+01 5.600462e+01 2.450213e+01 2.356283e+01 8.285398e-01 1.547410e+00 1.314396e+00 2.218699e+00 2.680606e+00 3.061821e+00 3.030493e+00 3.431978e+00 2.740900e+00 3.591710e+00 2.244718e+00 2.102736e+00 1.454656e+00
<GCONST> 9.688269e+01
<TRANSP> 5
 0.000000e+00 1.000000e+00 0.000000e+00 0.000000e+00 0.000000e+00
 0.000000e+00 7.452863e-01 2.547137e-01 0.000000e+00 0.000000e+00
 0.000000e+00 0.000000e+00 8.909326e-01 1.090675e-01 0.000000e+00
 0.000000e+00 0.000000e+00 0.000000e+00 8.313792e-01 1.686208e-01
 0.000000e+00 0.000000e+00 0.000000e+00 0.000000e+00 0.000000e+00
<ENDHMM>
~h "m"
<BEGINHMM>
<NUMSTATES> 5
<STATE> 2
<MEAN> 25
 2.448709e+00 2.192847e+00 -2.822991e+00 7.616261e-01 4.058466e+00 -1.411289e+00 -8.709928e-02 -1.496280e+00 -3.831410e-01 -1.983467e+00 -8.855656e-01 -3.146211e+00 -1.173971e-01 1.835241e-01 -1.546408e-01 2.621146e-02 3.236758e-01 2.215195e-01 1.878022e-01 4.728545e-02 2.819577e-01 -1.218489e-01 -1.328575e-01 -2.138682e-01 -2.594444e-01
<VARIANCE> 25
 3.787892e+01 1.771736e+01 1.961094e+01 1.311052e+01 4.238957e+01 3.707709e+01 1.612260e+01 1.471840e+01 2.602616e+01 1.317596e+01 1.603918e+01 2.649324e+01 5.270458e-01 9.061807e-01 1.288232e+00 7.545526e-01 1.511829e+00 1.441184e+00 1.488405e+00 1.419636e+00 1.375260e+00 1.439138e+00 1.142034e+00 1.456353e+00 4.224838e-01
<GCONST> 8.381339e+01
<STATE> 3
<MEAN> 25
 6.809314e+00 5.529102e+00 -2.334424e+00 -1.128186e+00 -3.724018e-01 -4.976685e+00 -7.138343e-01 -2.111965e+00 -2.954962e+00 -4.692961e+00 -1.722899e+00 -3.852785e+00 4.484832e-01 4.426039e-01 1.094632e-01 -6.748473e-02 -5.171855e-01 -5.424773e-01 -3.023535e-01 -3.797645e-01 -2.514564e-01 -2.295307e-01 1.355371e-01 -1.028933e-02 -1.683984e-01
<VARIANCE> 25
 2.045336e+01 1.935171e+01 1.142355e+01 1.319969e+01 2.527803e+01 2.941147e+01 1.447647e+01 1.938728e+01 2.319502e+01 1.543271e+01 1.376994e+01 1.571648e+01 1.255627e+00 1.504088e+00 7.134129e-01 1.003743e+00 1.812135e+00 2.005683e+00 1.507007e+00 1.621465e+00 1.363636e+00 1.602175e+00 1.392186e+00 1.316128e+00 1.262750e+00
<GCONST> 8.455600e+01
<STATE> 4
<MEAN> 25
 6.923959e+00 2.919913e+00 -2.147379e+00 -1.129237e+00 -1.442194e+00 -5.563838e+00 -3.291833e+00 -3.277597e+00 -2.404754e+00 -3.286810e+00 -2.376886e+00 -2.449934e+00 -5.450919e-01 -1.444615e+00 1.228460e+00 4.556264e-01 -9.216285e-01 2.397223e-01 -3.279879e-02 5.569680e-01 -3.945063e-01 1.632995e-01 -1.130736e-01 7.941161e-01 9.435360e-01
<VARIANCE> 25
 1.772637e+01 4.890153e+01 2.265301e+01 3.515906e+01 2.645574e+01 2.202028e+01 2.161046e+01 1.618898e+01 1.806681e+01 1.156557e+01 1.619716e+01 1.216075e+01 7.531915e-01 4.655497e+00 2.794659e+00 1.775306e+00 3.399751e+00 1.612131e+00 2.546078e+00 2.074641e+00 3.006064e+00 1.224082e+00 1.498585e+00 1.389878e+00 2.355378e+00
<GCONST> 9.135724e+01
<TRANSP> 5
 0.000000e+00 1.000000e+00 0.000000e+00 0.000000e+00 0.000000e+00
 0.000000e+00 8.451545e-01 1.548456e-01 0.000000e+00 0.000000e+00
 0.000000e+00 0.000000e+00 7.491794e-01 2.508206e-01 0.000000e+00
 0.000000e+00 0.000000e+00 0.000000e+00 6.078222e-01 3.921778e-01
 0.000000e+00 0.000000e+00 0.000000e+00 0.000000e+00 0.000000e+00
<ENDHMM>
~h "n"
<BEGINHMM>
<NUMSTATES> 5
<STATE> 2
<MEAN> 25
 7.677798e+00 3.268443e+00 -1.852891e+00 -2.400934e+00 -1.032237e+00 1.527699e+00 3.220169e-01 -4.262272e+00 -1.485212e+00 -4.803467e+00 -5.035967e+00 -1.951266e+00 6.552061e-02 6.122470e-01 -9.356774e-02 1.225527e-01 2.258729e-01 1.677582e-01 6.249163e-01 -2.638850e-01 2.606218e-01 -2.067419e-01 8.019780e-02 -1.608870e-01 -5.205773e-01
<VARIANCE> 25
 2.773355e+00 1.366954e+01 1.108955e+01 9.938677e+00 1.799563e+01 2.170892e+01 2.309062e+01 2.556497e+01 1.967403e+01 1.110181e+01 1.205991e+01 7.732407e+00 2.584181e-01 9.379691e-01 8.501342e-01 6.434785e-01 1.192688e+00 1.655938e+00 1.840030e+00 1.253053e+00 1.607212e+00 1.064657e+00 1.192555e+00 8.504333e-01 5.277098e-01
<GCONST> 7.596233e+01
<STATE> 3
<MEAN> 25
 4.417925e+00 6.093476e+00 2.011339e+00 1.159450e+00 2.179912e+00 -4.349842e-01 1.855554e+00 -2.590125e+00 -1.400060e+00 -6.990183e+00 -4.946476e+00 -2.190424e+00 -7.634349e-01 2.027920e-01 4.961029e-01 6.272556e-01 4.974785e-01 -1.880284e-01 -1.154931e-01 1.448717e-01 3.118546e-02 -8.872157e-02 2.002759e-01 6.766323e-02 -6.253675e-01
<VARIANCE> 25
 9.411959e+00 7.442929e+00 9.488862e+00 1.112699e+01 2.163633e+01 1.778534e+01 1.632792e+01 2.098941e+01 1.039379e+01 1.374032e+01 1.084185e+01 1.004838e+01 4.670157e-01 5.322281e-01 7.899373e-01 8.081035e-01 1.233635e+00 1.426802e+00 1.227729e+00 1.382455e+00 1.136897e+00 1.165371e+00 1.256804e+00 9.384523e-01 2.214501e-01
<GCONST> 7.449000e+01
<STATE> 4
<MEAN> 25
 -2.541863e+00 2.138587e+00 1.787324e+00 3.984316e+00 6.074773e+00 1.838456e+00 3.943566e+00 1.762095e+00 2.812378e+00 -2.000352e+00 -5.596138e-01 1.408871e+00 -4.203906e-01 -5.641506e-01 -2.444261e-01 -7.445984e-02 1.101084e-01 2.349164e-01 9.802399e-02 3.306350e-01 4.186968e-01 5.096554e-01 3.024282e-01 2.903216e-01 1.340636e-01
<VARIANCE> 25
 2.316609e+01 1.757007e+01 1.582200e+01 1.765703e+01 3.058728e+01 1.973105e+01 2.645619e+01 3.412989e+01 2.590862e+01 2.571993e+01 2.170622e+01 1.912197e+01 1.267904e+00 1.694010e+00 1.365573e+00 1.684551e+00 2.579427e+00 1.885163e+00 2.622044e+00 2.929522e+00 2.083445e+00 2.133550e+00 1.994543e+00 1.655726e+00 1.645903e+00
<GCONST> 9.172975e+01
<TRANSP> 5
 0.000000e+00 1.000000e+00 0.000000e+00 0.000000e+00 0.000000e+00
 0.000000e+00 8.268166e-01 1.731834e-01 0.000000e+00 0.000000e+00
 0.000000e+00 0.000000e+00 8.153349e-01 1.846651e-01 0.000000e+00
 0.000000e+00 0.000000e+00 0.000000e+00 8.318568e-01 1.681432e-01
 0.000000e+00 0.000000e+00 0.000000e+00 0.000000e+00 0.000000e+00
<ENDHMM>
~h "p"
<BEGINHMM>
<NUMSTATES> 5
<STATE> 2
<MEAN> 25
 -1.006370e+00 3.334461e+00 -1.221705e-01 -1.720021e-01 2.851624e+00 -1.384732e+00 1.915861e+00 1.230587e+00 8.319904e-01 -3.188314e+00 1.317155e+00 1.425559e+00 -8.277376e-01 -1.822793e-01 2.377427e-01 4.729151e-01 5.761452e-01 7.195156e-01 5.870930e-01 5.137270e-01 5.648316e-01 2.744420e-01 3.920435e-01 1.924424e-01 -5.363101e-01
<VARIANCE> 25
 1.445073e+01 1.282160e+01 1.433282e+01 2.159895e+01 2.153046e+01 3.529631e+01 2.448703e+01 2.479527e+01 2.124927e+01 1.906171e+01 2.515382e+01 1.414786e+01 6.773188e-01 7.271460e-01 9.108123e-01 1.187088e+00 1.684174e+00 2.499033e+00 1.923018e+00 2.718024e+00 1.725433e+00 1.930764e+00 1.962500e+00 1.112571e+00 5.129742e-01
<GCONST> 8.560221e+01
<STATE> 3
<MEAN> 25
 -4.038259e+00 2.574321e+00 1.117845e+00 2.632538e+00 6.162077e+00 1.551409e+00 3.107074e+00 1.708384e+00 3.607044e+00 -2.037154e+00 1.350525e+00 2.294580e+00 6.975994e-02 -5.850005e-01 1.650007e-01 9.638589e-01 -5.331500e-01 3.581086e-01 -3.377475e-01 -1.134235e+00 -1.226437e-01 1.128480e-01 1.109556e-01 -4.012421e-01 1.336388e+00
<VARIANCE> 25
 7.505353e+00 7.320065e+00 1.049634e+01 1.441140e+01 2.412458e+01 2.127856e+01 2.406481e+01 3.849906e+01 3.157215e+01 3.410833e+01 2.958171e+01 1.880348e+01 1.057710e+00 2.187335e+00 2.165337e+00 2.529833e+00 1.866377e+00 2.791541e+00 2.797065e+00 2.866111e+00 3.033555e+00 4.625353e+00 2.889787e+00 2.327272e+00 2.596911e+00
<GCONST> 9.312067e+01
<STATE> 4
<MEAN> 25
 -1.726299e+00 -1.036382e+00 -1.320914e+00 6.094536e+00 6.011693e+00 3.194228e+00 1.158017e+00 -1.063686e+00 3.144144e+00 -1.352365e+00 1.451491e+00 1.364152e+00 1.552809e+00 4.550910e-01 -1.958967e-01 -4.537527e-01 -7.325916e-01 -4.029819e-01 -1.045238e+00 -8.694963e-01 -5.785418e-01 3.100708e-01 -3.104879e-01 3.032605e-02 1.004247e+00
<VARIANCE> 25
 2.569914e+01 3.054441e+01 2.653770e+01 1.504282e+01 3.530378e+01 2.093063e+01 2.637231e+01 3.270987e+01 1.844176e+01 1.965463e+01 1.475395e+01 1.683407e+01 3.650264e+00 2.441272e+00 4.113776e+00 4.521483e+00 4.103636e+00 3.380823e+00 4.501240e+00 3.349257e+00 2.423545e+00 2.620253e+00 2.509228e+00 2.108462e+00 3.025116e+00
<GCONST> 9.845004e+01
<TRANSP> 5
 0.000000e+00 1.000000e+00 0.000000e+00 0.000000e+00 0.000000e+00
 0.000000e+00 8.132857e-01 1.867143e-01 0.000000e+00 0.000000e+00
 0.000000e+00 0.000000e+00 6.946400e-01 3.053600e-01 0.000000e+00
 0.000000e+00 0.000000e+00 0.000000e+00 7.016430e-01 2.983570e-01
 0.000000e+00 0.000000e+00 0.000000e+00 0.000000e+00 0.000000e+00
<ENDHMM>
~h "r"
<BEGINHMM>
<NUMSTATES> 5
<STATE> 2
<MEAN> 25
 3.301711e+00 -3.521399e+00 -3.812413e-01 6.063148e+00 -1.463741e+00 -2.595376e+00 -4.122785e+00 -3.102063e+00 2.007741e+00 -1.251619e-01 2.480138e+00 1.527825e+00 1.844891e+00 -4.334412e-01 -5.177056e-01 2.912678e-01 -3.774447e-01 -1.920888e+00 -1.580260e+00 -4.287372e-02 -5.004797e-01 -4.223353e-01 -5.751822e-02 7.410625e-01 2.143412e-01
<VARIANCE> 25
 6.058241e+01 3.487242e+01 7.947297e+01 2.045704e+01 5.509460e+01 5.307310e+01 6.914130e+01 4.660494e+01 4.774220e+01 2.663036e+01 2.271161e+01 1.553355e+01 2.260668e+00 1.919777e+00 5.748186e+00 2.691861e+00 3.060279e+00 2.764709e+00 4.382187e+00 2.833494e+00 3.861795e+00 2.535385e+00 1.887231e+00 1.825861e+00 8.303746e-01
<GCONST> 1.022629e+02
<STATE> 3
<MEAN> 25
 1.105504e+01 -5.588923e+00 -7.767062e+00 6.115553e+00 -1.162625e+00 -7.599208e+00 -1.364239e+01 -4.843261e-01 1.264947e+00 -2.147558e-01 2.935270e+00 2.485565e+00 1.139631e-01 -2.716096e-01 7.584533e-03 1.586313e-01 -1.109158e-01 -4.478293e-01 6.213294e-02 3.342806e-01 1.028425e-01 -2.127025e-01 -2.790488e-02 1.890641e-01 1.875382e-03
<VARIANCE> 25
 5.935048e+00 1.356178e+01 5.092808e+01 1.275816e+01 2.395468e+01 2.432608e+01 2.662831e+01 4.579566e+01 1.762925e+01 1.523374e+01 1.386581e+01 1.030212e+01 3.264877e-01 1.068226e+00 2.552060e+00 6.937256e-01 2.504054e+00 2.204283e+00 2.256950e+00 2.457693e+00 1.977454e+00 1.479469e+00 1.246726e+00 1.027951e+00 3.371206e-01
<GCONST> 8.401404e+01
<STATE> 4
<MEAN> 25
 9.371930e+00 -8.150212e+00 -3.363424e-01 5.924059e+00 -7.462625e+00 -1.016349e+01 -6.588722e+00 1.644429e+00 -3.470405e+00 -2.978644e+00 3.841812e+00 1.822334e+00 -6.260892e-01 4.555235e-02 1.718272e+00 -1.015012e+00 -8.688029e-01 7.544164e-01 1.245444e+00 -4.429425e-01 -1.113296e+00 2.701992e-01 -3.105118e-02 -9.177358e-01 -1.800125e-01
<VARIANCE> 25
 8.424516e+00 2.654967e+01 8.443018e+01 1.755981e+01 5.742926e+01 2.588269e+01 3.248183e+01 2.855459e+01 2.503564e+01 1.653378e+01 2.357236e+01 1.544912e+01 3.383408e-01 1.332008e+00 2.373862e+00 9.903833e-01 3.683059e+00 1.707334e+00 2.759648e+00 2.312049e+00 1.813920e+00 1.847101e+00 1.816105e+00 1.411769e+00 7.027646e-01
<GCONST> 9.026624e+01
<TRANSP> 5
 0.000000e+00 1.000000e+00 0.000000e+00 0.000000e+00 0.000000e+00
 0.000000e+00 6.912764e-01 3.087236e-01 0.000000e+00 0.000000e+00
 0.000000e+00 0.000000e+00 8.079217e-01 1.920783e-01 0.000000e+00
 0.000000e+00 0.000000e+00 0.000000e+00 6.972910e-01 3.027090e-01
 0.000000e+00 0.000000e+00 0.000000e+00 0.000000e+00 0.000000e+00
<ENDHMM>
~h "s"
<BEGINHMM>
<NUMSTATES> 5
<STATE> 2
<MEAN> 25
 -7.838212e+00 4.565859e+00 -4.989552e-01 6.561634e+00 6.659132e+00 2.153924e+00 7.694950e+00 1.211742e+00 6.941517e+00 -4.354761e-01 2.845373e+00 2.818888e+00 -1.861855e+00 1.001858e+00 -5.504210e-01 8.203265e-01 6.781960e-01 4.165159e-01 9.729027e-01 -2.096553e-02 5.709553e-01 2.162864e-01 4.924743e-01 2.199124e-01 6.433434e-01
<VARIANCE> 25
 3.141049e+01 3.030668e+01 2.205592e+01 3.812835e+01 3.782033e+01 4.261777e+01 3.615495e+01 4.649275e+01 2.864930e+01 2.806758e+01 2.241365e+01 1.428736e+01 3.662227e+00 2.350037e+00 2.256800e+00 2.517081e+00 3.387785e+00 3.337596e+00 3.450767e+00 3.353704e+00 2.672909e+00 3.074584e+00 2.386051e+00 1.508351e+00 1.274211e+00
<GCONST> 9.920397e+01
<STATE> 3
<MEAN> 25
 -1.723177e+01 9.175960e+00 -8.033020e+00 8.604279e+00 3.341150e+00 -9.249561e-01 7.776392e+00 -3.079045e+00 6.236350e+00 2.613994e-01 2.380919e+00 1.364039e+00 -2.120720e-01 -1.302303e-01 -2.843535e-01 -1.628745e-01 -2.688680e-01 -1.886523e-01 -7.178984e-02 -1.960724e-01 -2.072536e-01 -2.082806e-02 -1.608713e-01 -1.236675e-01 -8.301915e-02
<VARIANCE> 25
 5.236091e+00 1.418449e+01 9.205859e+00 1.645295e+01 2.139689e+01 2.171295e+01 2.235855e+01 2.789506e+01 2.189277e+01 1.723746e+01 1.720210e+01 1.320444e+01 7.544280e-01 8.088523e-01 1.475957e+00 1.209746e+00 1.408436e+00 1.720020e+00 1.717650e+00 1.710059e+00 2.011573e+00 1.907755e+00 1.527237e+00 1.296159e+00 3.795229e-01
<GCONST> 8.231760e+01
<STATE> 4
<MEAN> 25
 -1.064330e+01 4.897541e+00 -2.748478e+00 5.869753e+00 5.301820e+00 -1.432036e-01 7.340584e+00 -8.864658e-01 6.896877e+00 4.769203e-01 1.462814e+00 2.933347e+00 1.808130e+00 -8.040180e-01 1.065353e+00 -8.320627e-01 -9.736009e-02 -3.332805e-01 -5.056659e-01 4.286209e-01 -1.582377e-01 -3.889909e-02 -5.051160e-01 3.024181e-01 -5.721281e-01
<VARIANCE> 25
 3.709722e+01 1.948988e+01 2.218331e+01 2.387047e+01 3.416388e+01 2.803774e+01 2.290167e+01 3.948252e+01 1.894184e+01 1.934134e+01 2.167345e+01 1.418119e+01 2.912402e+00 2.397847e+00 1.951188e+00 2.580730e+00 3.714624e+00 3.147995e+00 2.972808e+00 2.921068e+00 2.711384e+00 1.934855e+00 1.948463e+00 1.576882e+00 2.649136e+00
<GCONST> 9.604054e+01
<TRANSP> 5
 0.000000e+00 1.000000e+00 0.000000e+00 0.000000e+00 0.000000e+00
 0.000000e+00 8.399600e-01 1.600401e-01 0.000000e+00 0.000000e+00
 0.000000e+00 0.000000e+00 8.786037e-01 1.213963e-01 0.000000e+00
 0.000000e+00 0.000000e+00 0.000000e+00 8.100690e-01 1.899310e-01
 0.000000e+00 0.000000e+00 0.000000e+00 0.000000e+00 0.000000e+00
<ENDHMM>
~h "t"
<BEGINHMM>
<NUMSTATES> 5
<STATE> 2
<MEAN> 25
 2.636429e+00 4.150115e+00 4.647197e+00 1.990235e+00 -4.297637e+00 -6.657121e+00 -1.700021e+00 -1.321181e+00 -1.023771e+00 -1.399695e+00 -1.596974e+00 4.490824e-01 -4.262799e-01 9.218804e-01 2.890244e-01 4.195194e-01 2.260603e+00 1.364281e-01 1.420034e+00 2.812548e-01 1.075055e+00 -1.262847e+00 3.541753e-02 9.503418e-01 -1.925401e+00
<VARIANCE> 25
 2.574124e+01 2.774630e+01 2.319507e+01 2.260215e+01 7.072318e+01 2.931236e+01 3.288067e+01 2.381970e+01 3.232777e+01 2.756536e+01 2.433974e+01 2.448895e+01 1.285266e+00 2.441841e+00 1.982979e+00 1.550459e+00 4.298780e+00 1.737509e+00 2.978391e+00 2.590332e+00 2.030169e+00 2.449940e+00 2.474689e+00 2.013486e+00 1.195572e+00
<GCONST> 9.597271e+01
<STATE> 3
<MEAN> 25
 -2.587656e+00 3.930485e+00 2.632102e+00 2.390763e+00 2.978084e+00 -1.411345e+00 2.837842e+00 1.347659e+00 3.060832e+00 -2.014442e+00 9.333791e-01 2.009240e+00 -7.492609e-01 -6.897953e-01 -4.914355e-01 1.982089e-01 6.297050e-01 9.948066e-01 5.552155e-01 4.062489e-01 6.829035e-01 5.336118e-01 6.643325e-01 2.324978e-01 -4.009449e-01
<VARIANCE> 25
 1.656739e+01 1.231099e+01 1.926588e+01 1.048315e+01 2.542837e+01 1.959416e+01 1.862155e+01 2.367344e+01 2.089708e+01 1.497244e+01 1.742571e+01 1.815946e+01 1.008968e+00 9.029698e-01 1.225291e+00 9.000635e-01 1.544018e+00 1.566510e+00 1.682105e+00 2.232160e+00 2.554691e+00 1.708388e+00 1.853879e+00 1.333193e+00 1.168865e+00
<GCONST> 8.512108e+01
<STATE> 4
<MEAN> 25
 -5.698311e+00 1.081964e+00 1.027141e+00 3.622220e+00 5.678674e+00 2.919383e+00 6.642333e+00 3.390938e+00 5.891014e+00 8.217449e-01 3.011333e+00 3.337227e+00 2.111842e-01 -3.757257e-01 -1.305457e-01 -7.786521e-02 -4.015400e-01 9.422567e-02 -2.923412e-01 -3.784617e-01 -1.255721e-01 5.288131e-02 -1.723334e-01 -1.062874e-01 5.664444e-01
<VARIANCE> 25
 1.916911e+01 1.444589e+01 1.695694e+01 2.011546e+01 3.192603e+01 2.489601e+01 2.743212e+01 3.584857e+01 2.257814e+01 1.786959e+01 2.032746e+01 1.493099e+01 2.049011e+00 1.767401e+00 1.886223e+00 2.093813e+00 2.667587e+00 1.981598e+00 2.320418e+00 3.250381e+00 2.584113e+00 2.156327e+00 2.677479e+00 1.668199e+00 2.639513e+00
<GCONST> 9.321847e+01
<TRANSP> 5
 0.000000e+00 1.000000e+00 0.000000e+00 0.000000e+00 0.000000e+00
 0.000000e+00 5.729207e-01 4.270792e-01 0.000000e+00 0.000000e+00
 0.000000e+00 0.000000e+00 7.427610e-01 2.572390e-01 0.000000e+00
 0.000000e+00 0.000000e+00 0.000000e+00 8.454410e-01 1.545590e-01
 0.000000e+00 0.000000e+00 0.000000e+00 0.000000e+00 0.000000e+00
<ENDHMM>
~h "v"
<BEGINHMM>
<NUMSTATES> 5
<STATE> 2
<MEAN> 25
 5.514110e+00 -8.764674e-01 5.745120e+00 4.021822e+00 -7.015519e+00 -9.237282e+00 -3.316388e+00 -3.666648e-01 -4.599801e+00 1.623538e+00 -3.089123e-01 -2.461645e+00 -6.872526e-01 8.039280e-01 -1.811153e-01 7.407591e-01 1.416700e+00 7.914426e-01 8.399149e-01 -3.976824e-01 1.295514e+00 -1.177599e+00 -5.099317e-01 2.385660e-01 -1.124438e+00
<VARIANCE> 25
 1.004435e+01 1.535335e+01 3.440120e+01 4.039782e+01 5.036704e+01 2.246741e+01 3.564703e+01 2.514231e+01 2.496594e+01 2.436396e+01 1.399408e+01 1.354201e+01 1.203072e+00 1.284670e+00 1.309637e+00 1.922039e+00 3.540989e+00 3.087959e+00 2.385126e+00 2.448970e+00 2.326852e+00 1.998270e+00 1.975043e+00 1.675799e+00 3.433147e-01
<GCONST> 9.088673e+01
<STATE> 3
<MEAN> 25
 7.909220e-01 2.358985e+00 4.353959e+00 8.690300e+00 -1.244282e+00 -1.121140e+00 1.793043e+00 -1.706128e+00 1.086441e+00 -3.838637e+00 -1.031351e+00 -1.837715e+00 -1.198589e+00 -1.088630e-01 -3.009048e-01 3.971845e-01 4.650879e-01 1.382231e+00 5.754949e-01 -8.894692e-02 6.994461e-01 -2.643687e-01 1.491141e-03 -6.688490e-02 -2.934288e-01
<VARIANCE> 25
 1.275261e+01 1.977052e+01 1.713801e+01 2.131849e+01 3.263155e+01 1.855230e+01 2.536161e+01 1.240914e+01 1.666573e+01 1.971095e+01 1.108504e+01 1.466248e+01 1.356385e+00 1.178933e+00 1.375549e+00 1.365027e+00 1.462686e+00 1.678635e+00 1.740468e+00 2.174687e+00 1.976041e+00 2.290067e+00 1.251421e+00 1.079535e+00 4.279961e-01
<GCONST> 8.471129e+01
<STATE> 4
<MEAN> 25
 -4.282337e+00 -1.595418e+00 -2.162304e-01 4.175791e+00 1.560645e+00 5.584947e-01 2.898721e+00 4.878106e-01 4.108422e+00 -1.689755e+00 -8.271989e-02 2.523061e-01 1.981411e-02 -1.638937e-01 -2.657367e-01 -3.889054e-01 2.708023e-01 -4.550699e-02 -1.042448e-01 5.295851e-02 1.113069e-02 2.700692e-01 1.276601e-01 1.036256e-01 -2.400401e-01
<VARIANCE> 25
 1.470428e+01 1.544448e+01 8.548224e+00 1.901277e+01 4.276241e+01 1.886599e+01 2.757419e+01 3.009690e+01 1.820029e+01 1.734731e+01 1.791908e+01 1.558316e+01 1.076248e+00 1.108048e+00 8.866475e-01 1.132915e+00 1.726256e+00 1.535005e+00 1.386832e+00 2.550530e+00 1.811030e+00 1.435378e+00 1.611155e+00 1.273975e+00 7.206504e-01
<GCONST> 8.502959e+01
<TRANSP> 5
 0.000000e+00 1.000000e+00 0.000000e+00 0.000000e+00 0.000000e+00
 0.000000e+00 7.229304e-01 2.770697e-01 0.000000e+00 0.000000e+00
 0.000000e+00 0.000000e+00 7.250311e-01 2.749688e-01 0.000000e+00
 0.000000e+00 0.000000e+00 0.000000e+00 8.572267e-01 1.427733e-01
 0.000000e+00 0.000000e+00 0.000000e+00 0.000000e+00 0.000000e+00
<ENDHMM>
~h "w"
<BEGINHMM>
<NUMSTATES> 5
<STATE> 2
<MEAN> 25
 4.344769e+00 6.022791e+00 -1.904734e+00 -4.287771e+00 -7.815356e-01 -1.001316e+00 -1.877532e+00 -2.781947e+00 -9.226918e-01 -4.444371e-01 1.838872e+00 8.816999e-01 2.700536e+00 1.675349e+00 -8.509514e-01 -1.811131e+00 -1.570317e+00 -1.852559e-01 -1.086780e+00 -1.268629e+00 -2.113289e+00 1.050683e-01 1.244499e-01 1.191887e-01 1.137484e+00
<VARIANCE> 25
 4.133642e+01 3.106812e+01 1.509439e+01 4.083459e+01 4.836606e+01 3.523009e+01 4.137637e+01 3.976754e+01 4.154140e+01 2.109121e+01 1.889791e+01 1.867243e+01 2.611686e+00 1.203258e+00 1.197148e+00 2.343486e+00 3.370850e+00 3.225252e+00 3.320096e+00 2.957522e+00 2.429500e+00 3.919315e+00 3.089205e+00 3.235623e+00 2.224075e+00
<GCONST> 9.921903e+01
<STATE> 3
<MEAN> 25
 1.136359e+01 4.576415e+00 -7.689701e+00 -6.871697e+00 -4.122223e+00 1.596199e+00 -5.328304e+00 -4.215210e+00 -9.221734e+00 3.952906e+00 2.220634e+00 -4.970080e-01 -3.043554e-02 -1.426555e+00 -3.844917e-01 5.345357e-01 4.180934e-02 1.479115e-01 -2.972679e-01 7.204570e-01 -2.273544e-01 5.834936e-01 -2.800049e-01 -5.742397e-01 9.279450e-01
<VARIANCE> 25
 2.034667e+00 4.325482e+01 1.645898e+01 4.861547e+01 2.567058e+01 2.811038e+01 4.476261e+01 4.568556e+01 2.399533e+01 2.924598e+01 3.274872e+01 2.478667e+01 2.921088e-01 1.212809e+00 1.758214e+00 1.067261e+00 1.687235e+00 3.102311e+00 2.314015e+00 3.254794e+00 3.099522e+00 2.643662e+00 2.114535e+00 1.706429e+00 4.088199e-01
<GCONST> 9.032482e+01
<STATE> 4
<MEAN> 25
 8.838486e+00 -7.102820e+00 -5.195031e+00 -5.217927e+00 1.290015e+00 7.575823e+00 -8.628401e+00 1.904127e+00 -6.447508e+00 4.804972e+00 -5.923584e+00 -1.563914e+00 -4.592676e-01 -7.246640e-01 6.260558e-01 7.197756e-01 2.482431e-01 -3.864443e-01 -4.578236e-01 6.572993e-01 3.605222e-01 -3.208401e-01 -5.885943e-01 -2.209043e-02 3.028133e-01
<VARIANCE> 25
 3.282561e+00 2.652672e+01 1.033261e+01 3.099338e+01 1.928206e+01 3.574837e+01 2.202801e+01 2.925854e+01 1.366555e+01 1.413606e+01 3.604518e+01 1.582142e+01 9.922224e-02 6.443994e-01 5.568732e-01 9.059119e-01 1.170766e+00 1.384207e+00 1.553098e+00 1.187764e+00 6.047915e-01 7.897536e-01 1.186098e+00 8.232072e-01 1.884678e-01
<GCONST> 7.602613e+01
<TRANSP> 5
 0.000000e+00 1.000000e+00 0.000000e+00 0.000000e+00 0.000000e+00
 0.000000e+00 7.694782e-01 2.305217e-01 0.000000e+00 0.000000e+00
 0.000000e+00 0.000000e+00 8.713903e-01 1.286097e-01 0.000000e+00
 0.000000e+00 0.000000e+00 0.000000e+00 7.939635e-01 2.060365e-01
 0.000000e+00 0.000000e+00 0.000000e+00 0.000000e+00 0.000000e+00
<ENDHMM>
~h "y"
<BEGINHMM>
<NUMSTATES> 5
<STATE> 2
<MEAN> 25
 8.786231e-01 5.246499e+00 8.601064e+00 -3.906460e-01 -7.231923e+00 -3.545470e+00 -2.318243e+00 -3.600391e+00 -1.794371e+00 -2.753329e+00 7.969034e-01 -4.040591e+00 2.145812e-01 7.976586e-01 1.672410e+00 -1.113898e+00 -1.844599e+00 7.896831e-02 -8.880303e-01 8.401454e-02 -1.381767e+00 -5.144878e-01 5.704044e-01 -1.628356e+00 4.575484e-01
<VARIANCE> 25
 2.192294e+01 2.305562e+01 2.874934e+01 2.608685e+01 5.002485e+01 3.806791e+01 3.124429e+01 3.620924e+01 3.704980e+01 1.760319e+01 1.756131e+01 2.894670e+01 1.828703e+00 1.754824e+00 2.227552e+00 2.184098e+00 6.873546e+00 2.734263e+00 4.230241e+00 4.291229e+00 3.257101e+00 3.227587e+00 2.519699e+00 3.723803e+00 2.234328e+00
<GCONST> 1.000628e+02
<STATE> 3
<MEAN> 25
 1.364574e+00 4.043028e+00 1.230671e+01 -3.074937e+00 -1.756788e+01 -1.969836e+00 -5.852333e+00 -3.296338e+00 -8.785025e+00 -2.669166e+00 4.570706e+00 -1.031906e+01 2.953537e-01 -1.311613e+00 -3.900660e-01 8.138752e-01 -1.342107e+00 -8.392811e-01 2.344885e-01 2.860258e-01 -1.230050e+00 6.971799e-01 6.183717e-01 3.019927e-02 7.621331e-01
<VARIANCE> 25
 5.779313e+00 1.953233e+01 1.157055e+01 2.742954e+01 3.987005e+01 2.060446e+01 1.780442e+01 2.160184e+01 2.168825e+01 3.885480e+01 2.244731e+01 2.344322e+01 3.127621e-01 1.510092e+00 1.412545e+00 1.874802e+00 3.192409e+00 2.307365e+00 2.084739e+00 3.699949e+00 2.100698e+00 2.563511e+00 1.811806e+00 2.128470e+00 8.192309e-01
<GCONST> 8.919664e+01
<STATE> 4
<MEAN> 25
 5.423432e+00 -2.018210e+00 1.527964e+00 4.112287e+00 -1.176347e+01 -1.002014e+01 -9.577415e+00 7.522702e-01 -9.223625e+00 -5.867173e-01 3.184697e+00 -7.565463e+00 5.753152e-01 -3.880312e-01 -1.876155e+00 6.536375e-04 2.282560e+00 8.968881e-02 -1.496579e+00 5.039585e-01 1.131767e+00 3.688492e-01 -1.030333e+00 2.038273e-01 -1.173248e-01
<VARIANCE> 25
 6.289614e+00 2.071103e+01 2.490430e+01 2.145953e+01 5.365786e+01 2.312710e+01 5.189137e+01 2.918491e+01 3.457825e+01 2.678368e+01 2.667058e+01 1.837377e+01 6.310542e-01 7.038119e-01 2.015990e+00 1.467715e+00 2.767557e+00 2.881066e+00 4.216178e+00 3.761970e+00 1.828828e+00 2.681252e+00 2.449385e+00 1.827122e+00 4.383807e-01
<GCONST> 9.194672e+01
<TRANSP> 5
 0.000000e+00 1.000000e+00 0.000000e+00 0.000000e+00 0.000000e+00
 0.000000e+00 7.437571e-01 2.562430e-01 0.000000e+00 0.000000e+00
 0.000000e+00 0.000000e+00 8.154476e-01 1.845524e-01 0.000000e+00
 0.000000e+00 0.000000e+00 0.000000e+00 7.818009e-01 2.181991e-01
 0.000000e+00 0.000000e+00 0.000000e+00 0.000000e+00 0.000000e+00
<ENDHMM>
~h "z"
<BEGINHMM>
<NUMSTATES> 5
<STATE> 2
<MEAN> 25
 1.101363e-01 8.009353e+00 1.590174e+00 3.103775e+00 -1.326774e+00 -4.890589e+00 -6.845596e-02 -4.545352e+00 3.556127e+00 -3.157995e+00 -2.388671e+00 5.956798e-01 -2.279817e+00 2.078754e+00 -1.246058e+00 1.577270e+00 1.078313e+00 -2.049585e-01 1.841410e+00 -5.309666e-01 1.232188e+00 -9.157027e-01 7.352703e-01 -7.481579e-01 5.520413e-01
<VARIANCE> 25
 2.428750e+01 2.722274e+01 2.752822e+01 2.524451e+01 4.426950e+01 3.849983e+01 3.764014e+01 4.128054e+01 2.150086e+01 1.915458e+01 2.053091e+01 2.251909e+01 5.408052e+00 2.990106e+00 2.753168e+00 3.772008e+00 5.220659e+00 3.591218e+00 5.275591e+00 3.718483e+00 3.846308e+00 2.415312e+00 2.364355e+00 3.348124e+00 1.460696e+00
<GCONST> 1.016389e+02
<STATE> 3
<MEAN> 25
 -1.334272e+01 1.467597e+01 -5.417127e+00 1.014309e+01 3.553251e+00 -1.445928e+00 8.406234e+00 -4.404490e+00 6.923925e+00 -2.344984e+00 7.568543e-01 -8.482511e-01 -1.686939e+00 1.228686e-01 -6.101675e-01 1.051883e+00 5.931071e-01 7.587337e-01 9.711640e-01 3.285914e-01 2.789536e-01 5.637485e-01 4.719447e-01 5.932818e-02 2.242102e-02
<VARIANCE> 25
 2.016034e+01 1.715612e+01 1.920352e+01 2.825767e+01 1.505745e+01 2.738185e+01 1.799575e+01 1.930569e+01 1.680691e+01 9.412609e+00 2.218856e+01 1.839692e+01 1.814010e+00 1.792434e+00 1.489859e+00 1.632746e+00 2.211484e+00 2.601462e+00 1.336441e+00 2.019485e+00 1.577317e+00 1.248919e+00 2.048485e+00 1.859645e+00 3.233427e-01
<GCONST> 8.673444e+01
<STATE> 4
<MEAN> 25
 -1.263580e+01 7.718126e+00 -3.877958e+00 6.585639e+00 6.734029e+00 9.891893e-01 9.517037e+00 -7.037466e-01 6.845064e+00 -4.999248e-01 3.089263e+00 1.949709e+00 7.036101e-01 -6.649842e-01 5.393562e-01 -5.322353e-01 -8.297775e-03 8.829534e-02 6.548967e-05 3.368537e-01 -2.719080e-02 1.023894e-01 -1.238563e-02 2.526764e-01 -6.085168e-01
<VARIANCE> 25
 2.746453e+01 2.882956e+01 2.170927e+01 2.517450e+01 2.230869e+01 3.347825e+01 2.156125e+01 2.752822e+01 1.811259e+01 1.571903e+01 1.701468e+01 1.524940e+01 1.161848e+00 1.323335e+00 1.755156e+00 1.336788e+00 2.636126e+00 2.435708e+00 1.853279e+00 2.114655e+00 2.250100e+00 1.779109e+00 1.520870e+00 1.788953e+00 7.519919e-01
<GCONST> 8.974822e+01
<TRANSP> 5
 0.000000e+00 1.000000e+00 0.000000e+00 0.000000e+00 0.000000e+00
 0.000000e+00 7.524798e-01 2.475202e-01 0.000000e+00 0.000000e+00
 0.000000e+00 0.000000e+00 8.014339e-01 1.985661e-01 0.000000e+00
 0.000000e+00 0.000000e+00 0.000000e+00 9.074978e-01 9.250221e-02
 0.000000e+00 0.000000e+00 0.000000e+00 0.000000e+00 0.000000e+00
<ENDHMM>
~h "aa"
<BEGINHMM>
<NUMSTATES> 5
<STATE> 2
<MEAN> 25
 2.514205e+00 -1.420007e+00 -4.341744e+00 -1.525564e+00 3.872174e+00 4.158337e+00 9.765983e-01 -4.604925e+00 -1.524597e+00 1.080028e+00 -1.377946e+00 5.782157e-01 1.995528e+00 -1.385730e+00 -1.316699e+00 -1.826921e+00 -1.061566e+00 3.072601e-01 -1.237268e+00 -8.107798e-01 -1.273594e+00 1.058394e+00 -1.048571e+00 -3.700679e-01 2.141690e+00
<VARIANCE> 25
 3.912259e+01 7.074062e+01 2.682510e+01 3.843517e+01 3.565765e+01 1.887157e+01 4.680453e+01 5.195293e+01 4.272472e+01 5.625605e+01 3.003608e+01 1.586269e+01 3.779710e+00 5.991415e+00 2.780891e+00 5.126866e+00 2.636470e+00 2.193086e+00 3.463531e+00 4.857395e+00 2.702489e+00 5.984140e+00 3.509845e+00 1.236179e+00 4.442176e+00
<GCONST> 1.051668e+02
<STATE> 3
<MEAN> 25
 9.462069e+00 -7.922453e+00 -9.957503e+00 -6.766617e+00 2.298198e-01 6.679116e+00 -2.918459e+00 -3.882331e+00 -6.320500e+00 7.006233e+00 -6.238478e+00 -2.548071e+00 1.108808e-01 3.141718e-02 -2.193889e-01 -2.338491e-01 -1.295842e-01 3.741788e-01 -8.198002e-02 3.327868e-01 -1.681046e-01 2.483681e-01 9.919463e-03 -2.654393e-01 -1.506767e-02
<VARIANCE> 25
 1.000464e+01 2.809801e+01 1.825148e+01 2.529124e+01 1.746237e+01 3.234395e+01 3.093933e+01 3.626175e+01 3.101086e+01 3.697946e+01 4.171096e+01 1.962143e+01 2.160638e-01 5.591211e-01 5.197570e-01 1.294158e+00 1.329507e+00 1.368998e+00 1.149410e+00 1.622605e+00 1.429922e+00 1.664428e+00 1.328632e+00 1.001850e+00 2.560504e-01
<GCONST> 8.333452e+01
<STATE> 4
<MEAN> 25
 6.978374e+00 -1.318770e+00 -6.209682e+00 -4.599778e+00 1.046209e+00 3.958818e+00 -1.110704e+00 -1.906519e+00 -3.929337e+00 3.105430e+00 -2.258067e+00 -2.967546e+00 -4.878236e-01 9.840205e-01 7.172962e-01 7.638009e-01 3.669508e-01 -8.401344e-01 1.834867e-01 4.916282e-01 7.944134e-01 -1.078786e+00 -1.117307e-01 3.208530e-01 -1.189952e+00
<VARIANCE> 25
 1.990183e+01 2.445090e+01 2.945513e+01 2.983121e+01 3.273058e+01 5.475605e+01 4.526034e+01 2.826371e+01 1.880003e+01 4.554974e+01 4.559615e+01 2.351487e+01 1.384706e+00 1.717873e+00 1.802911e+00 2.256844e+00 2.210792e+00 3.092365e+00 3.171277e+00 2.286267e+00 1.747661e+00 2.322904e+00 2.185247e+00 2.742567e+00 1.164374e+00
<GCONST> 9.680534e+01
<TRANSP> 5
 0.000000e+00 1.000000e+00 0.000000e+00 0.000000e+00 0.000000e+00
 0.000000e+00 7.832309e-01 2.167691e-01 0.000000e+00 0.000000e+00
 0.000000e+00 0.000000e+00 8.503550e-01 1.496450e-01 0.000000e+00
 0.000000e+00 0.000000e+00 0.000000e+00 7.631027e-01 2.368973e-01
 0.000000e+00 0.000000e+00 0.000000e+00 0.000000e+00 0.000000e+00
<ENDHMM>
~h "ae"
<BEGINHMM>
<NUMSTATES> 5
<STATE> 2
<MEAN> 25
 -7.079380e-01 -4.411859e+00 -2.829437e-02 2.374794e+00 2.320611e+00 -6.069587e-01 1.449970e+00 1.712663e+00 1.688966e+00 2.930380e-01 -1.084303e+00 -1.139233e+00 1.206963e+00 -3.688643e+00 -5.210261e-01 -1.364781e+00 -1.398044e+00 -8.865630e-01 -3.297898e-01 1.189359e+00 -1.173585e+00 4.360235e-01 -8.713131e-01 1.432250e-02 2.993973e+00
<VARIANCE> 25
 3.402509e+01 3.663092e+01 1.505284e+01 3.087019e+01 6.103115e+01 3.454396e+01 5.623488e+01 3.041471e+01 3.040149e+01 3.200578e+01 2.514233e+01 1.575168e+01 2.454838e+00 4.121895e+00 1.725843e+00 2.492056e+00 3.214572e+00 3.280333e+00 4.799221e+00 3.620204e+00 2.171997e+00 4.387290e+00 3.911403e+00 1.468282e+00 4.456253e+00
<GCONST> 1.016568e+02
<STATE> 3
<MEAN> 25
 2.887594e+00 -1.572444e+01 -2.319991e+00 -1.928050e+00 2.895745e-01 -1.536996e+00 4.780522e+00 2.443911e+00 -1.672927e+00 -1.682854e+00 -4.882535e+00 3.757509e-01 1.940983e+00 -1.225871e+00 -3.959940e-01 -5.247362e-01 -1.017840e+00 -6.167417e-01 -1.952802e-01 -9.142832e-02 -1.132830e+00 -4.534993e-01 -1.303326e+00 4.872314e-02 2.607394e+00
<VARIANCE> 25
 2.286792e+01 3.165030e+01 1.557187e+01 1.188296e+01 2.903216e+01 2.514144e+01 5.533296e+01 2.373289e+01 1.601699e+01 2.748364e+01 1.238163e+01 1.093029e+01 2.206656e+00 4.461117e+00 1.407301e+00 1.456876e+00 1.412274e+00 1.349889e+00 2.809225e+00 2.829867e+00 1.551170e+00 1.177983e+00 1.008774e+00 1.063809e+00 5.069675e+00
<GCONST> 9.054002e+01
<STATE> 4
<MEAN> 25
 6.307629e+00 -1.163375e+01 -1.124144e+00 -2.282589e+00 -3.449358e+00 -3.017373e+00 1.696324e-01 3.970616e+00 -5.080462e+00 1.952005e+00 -8.110875e+00 4.321627e-03 1.499646e-02 9.019461e-01 -8.143771e-02 1.326129e-01 1.077236e-01 -1.178502e-01 1.222370e-01 -4.709219e-02 1.346305e-01 -1.242737e-01 -8.065008e-02 5.565025e-02 -8.021715e-01
<VARIANCE> 25
 6.615996e+00 2.397927e+01 2.109580e+01 1.021712e+01 2.591471e+01 1.981806e+01 2.648027e+01 1.607690e+01 2.057702e+01 2.680625e+01 2.215099e+01 1.400353e+01 5.247050e-01 1.802340e+00 8.605554e-01 8.045480e-01 1.738691e+00 1.630677e+00 2.320416e+00 1.769429e+00 1.580742e+00 2.862472e+00 1.480789e+00 1.003837e+00 1.578695e+00
<GCONST> 8.512557e+01
<TRANSP> 5
 0.000000e+00 1.000000e+00 0.000000e+00 0.000000e+00 0.000000e+00
 0.000000e+00 4.848945e-01 5.151055e-01 0.000000e+00 0.000000e+00
 0.000000e+00 0.000000e+00 5.793613e-01 4.206387e-01 0.000000e+00
 0.000000e+00 0.000000e+00 0.000000e+00 9.075355e-01 9.246452e-02
 0.000000e+00 0.000000e+00 0.000000e+00 0.000000e+00 0.000000e+00
<ENDHMM>
~h "ah"
<BEGINHMM>
<NUMSTATES> 5
<STATE> 2
<MEAN> 25
 3.937926e+00 -5.165383e+00 5.025876e-02 4.289040e-02 -3.239323e+00 -2.437726e+00 -5.688107e+00 -8.154306e-01 -2.480535e+00 3.688509e+00 -1.296944e+00 -2.471404e+00 1.097477e+00 -1.270721e+00 -7.009507e-01 -9.286980e-01 -7.349367e-01 -2.276771e-01 -1.197959e+00 3.371478e-01 -5.560668e-01 1.058265e+00 -1.260794e+00 -3.283503e-01 1.642358e+00
<VARIANCE> 25
 2.342814e+01 3.751999e+01 3.754302e+01 2.688201e+01 8.055168e+01 4.045111e+01 6.196044e+01 4.332041e+01 4.145985e+01 3.214516e+01 3.509664e+01 2.357195e+01 2.395255e+00 3.342192e+00 2.422178e+00 2.848723e+00 5.020943e+00 3.372591e+00 3.552477e+00 4.168728e+00 3.890347e+00 3.579657e+00 2.911782e+00 1.939795e+00 3.744923e+00
<GCONST> 1.047617e+02
<STATE> 3
<MEAN> 25
 6.603974e+00 -8.645483e+00 -1.337717e+00 -2.506475e+00 -2.521951e+00 -1.306463e+00 -6.813957e+00 1.686944e+00 -4.246166e+00 4.102557e+00 -6.871343e+00 -1.417450e+00 1.205517e-01 3.986427e-01 -2.305646e-01 -7.813068e-02 3.894946e-01 1.837173e-01 5.436412e-02 -2.958539e-01 2.168332e-01 -4.566637e-01 -3.322183e-01 2.773752e-01 -4.296000e-01
<VARIANCE> 25
 5.535663e+00 2.124706e+01 3.149389e+01 1.447234e+01 4.448953e+01 3.684307e+01 4.691151e+01 3.335326e+01 2.119913e+01 2.180611e+01 3.070070e+01 2.366083e+01 3.219833e-01 1.185905e+00 1.206882e+00 1.204884e+00 1.929454e+00 1.707078e+00 1.699011e+00 1.700946e+00 1.490556e+00 1.481817e+00 1.598964e+00 1.270003e+00 7.867314e-01
<GCONST> 8.724384e+01
<STATE> 4
<MEAN> 25
 4.373804e+00 -2.137722e+00 -2.459750e+00 -7.522850e-02 2.617213e+00 7.981580e-01 -1.307928e+00 2.699220e-01 -8.792028e-01 -1.592209e+00 -3.378214e+00 4.255645e-01 -3.117955e-01 1.285920e+00 -7.348935e-02 1.776345e-01 6.694004e-01 1.935468e-01 9.054221e-01 -4.986971e-02 6.543751e-01 -8.209027e-01 4.858018e-01 7.678458e-02 -1.287593e+00
<VARIANCE> 25
 2.562757e+01 2.474275e+01 2.504749e+01 3.773779e+01 5.660556e+01 5.456968e+01 7.287038e+01 3.670471e+01 3.264043e+01 4.100930e+01 4.869305e+01 1.900645e+01 1.022249e+00 2.690703e+00 1.711249e+00 1.890297e+00 2.206724e+00 2.800565e+00 2.680977e+00 2.757682e+00 2.552791e+00 3.305128e+00 2.005470e+00 1.783231e+00 1.216540e+00
<GCONST> 9.881803e+01
<TRANSP> 5
 0.000000e+00 1.000000e+00 0.000000e+00 0.000000e+00 0.000000e+00
 0.000000e+00 5.734165e-01 4.265836e-01 0.000000e+00 0.000000e+00
 0.000000e+00 0.000000e+00 7.761855e-01 2.238146e-01 0.000000e+00
 0.000000e+00 0.000000e+00 0.000000e+00 6.883947e-01 3.116054e-01
 0.000000e+00 0.000000e+00 0.000000e+00 0.000000e+00 0.000000e+00
<ENDHMM>
~h "ao"
<BEGINHMM>
<NUMSTATES> 5
<STATE> 2
<MEAN> 25
 4.113917e+00 -1.621363e+00 -8.715433e+00 -3.422127e+00 1.239176e+00 4.877926e+00 2.531947e+00 -2.041910e+00 -6.739809e+00 1.793538e+00 1.966424e+00 4.090678e-01 2.624931e+00 2.739168e-01 -1.439342e+00 -2.044946e+00 -9.974346e-01 4.117036e-01 -1.597385e-01 1.153076e-01 -2.556560e+00 1.424180e-01 3.773793e-01 8.219227e-01 1.425335e+00
<VARIANCE> 25
 2.755836e+01 1.581820e+01 4.196070e+01 2.709092e+01 2.733136e+01 2.087287e+01 2.532220e+01 2.984759e+01 3.671363e+01 3.254935e+01 3.352406e+01 1.507617e+01 3.144933e+00 3.239115e+00 6.297462e+00 5.008224e+00 2.741642e+00 4.839255e+00 2.317774e+00 5.275539e+00 5.966509e+00 4.910480e+00 4.004519e+00 4.307476e+00 3.562670e+00
<GCONST> 1.037030e+02
<STATE> 3
<MEAN> 25
 1.217235e+01 1.049775e+00 -9.475994e+00 -7.026186e+00 -5.570532e+00 2.873581e+00 1.069665e+00 1.670447e+00 -1.213848e+01 -1.503339e+00 4.643112e+00 3.010999e+00 1.168440e+00 3.874995e-01 -8.074123e-01 -1.386069e+00 -1.381590e+00 -2.780648e-01 -4.818916e-01 8.499573e-01 -1.434436e+00 -3.527002e-01 4.570592e-01 4.538860e-01 5.510938e-01
<VARIANCE> 25
 5.143874e+00 2.711045e+01 7.817839e+00 1.436959e+01 1.717932e+01 2.109268e+01 1.040603e+01 3.513173e+01 2.404778e+01 2.925829e+01 3.506310e+01 2.026846e+01 1.282257e+00 9.047946e-01 1.261172e+00 1.303208e+00 2.128718e+00 1.469351e+00 1.254717e+00 1.735769e+00 2.080515e+00 2.524890e+00 2.851489e+00 1.460753e+00 4.635909e-01
<GCONST> 8.540373e+01
<STATE> 4
<MEAN> 25
 1.232919e+01 8.228394e-01 -1.330591e+01 -4.196493e+00 -4.918277e+00 1.971826e+00 -6.099400e+00 6.830832e-01 -1.182628e+01 -1.750239e-01 9.062737e+00 2.114048e+00 -1.134044e-01 -3.516891e-01 -1.584728e-01 6.123712e-01 2.972684e-01 -1.610435e-01 -1.002423e+00 -7.556354e-02 6.788098e-01 4.505209e-01 -9.966880e-02 -2.136280e-01 1.573034e-01
<VARIANCE> 25
 2.684304e+00 1.448275e+01 1.339154e+01 2.948050e+01 1.538570e+01 1.865315e+01 4.060321e+01 2.751540e+01 3.017707e+01 1.717170e+01 3.105715e+01 1.691599e+01 9.751040e-02 7.851434e-01 5.339903e-01 9.642941e-01 7.109514e-01 9.147437e-01 1.269984e+00 1.213094e+00 2.079190e+00 7.848123e-01 1.408533e+00 5.819500e-01 2.027946e-01
<GCONST> 7.624191e+01
<TRANSP> 5
 0.000000e+00 1.000000e+00 0.000000e+00 0.000000e+00 0.000000e+00
 0.000000e+00 6.412541e-01 3.587458e-01 0.000000e+00 0.000000e+00
 0.000000e+00 0.000000e+00 6.264959e-01 3.735041e-01 0.000000e+00
 0.000000e+00 0.000000e+00 0.000000e+00 8.834777e-01 1.165222e-01
 0.000000e+00 0.000000e+00 0.000000e+00 0.000000e+00 0.000000e+00
<ENDHMM>
~h "aw"
<BEGINHMM>
<NUMSTATES> 5
<STATE> 2
<MEAN> 25
 7.956013e+00 -1.179260e+01 -6.871047e+00 -2.294534e+00 1.537966e+00 2.401549e+00 -4.963733e+00 3.339570e+00 -6.634382e+00 7.690093e+00 -8.343050e+00 -4.135046e+00 1.742358e-01 -2.103006e-01 -3.597108e-01 -4.019370e-01 4.175130e-01 7.623579e-01 2.932733e-01 -3.711871e-01 -7.052613e-01 1.111126e-01 -4.193650e-01 -6.796423e-02 -8.672842e-02
<VARIANCE> 25
 3.382062e+00 1.791112e+01 6.409403e+00 1.811127e+01 2.292280e+01 1.871518e+01 2.199641e+01 3.432911e+01 1.658686e+01 2.075174e+01 2.145930e+01 1.331439e+01 3.178856e-01 8.379082e-01 6.061863e-01 7.128320e-01 1.391748e+00 8.196711e-01 9.602607e-01 1.832519e+00 1.912340e+00 1.310760e+00 2.677249e+00 1.243924e+00 1.459146e-01
<GCONST> 7.772183e+01
<STATE> 3
<MEAN> 25
 8.928577e+00 -5.650160e+00 -8.390300e+00 -1.007313e+01 -1.170469e-01 9.331172e+00 -2.994345e+00 -4.784842e+00 -9.122892e+00 1.085839e+01 -4.456426e+00 -2.622598e+00 1.477199e-01 6.803014e-01 -6.819955e-02 7.945288e-02 -3.494468e-01 -3.452378e-01 2.096069e-02 -2.190993e-01 -3.556290e-01 -2.378580e-01 9.206088e-01 3.728653e-02 -6.119446e-01
<VARIANCE> 25
 5.894805e+00 1.030767e+01 1.060860e+01 2.845705e+01 1.829380e+01 2.679903e+01 2.329364e+01 2.373706e+01 1.423028e+01 2.089854e+01 2.587226e+01 1.204454e+01 1.611590e-01 7.732471e-01 4.297115e-01 1.582278e+00 1.388892e+00 2.092605e+00 2.313906e+00 1.567236e+00 9.273051e-01 1.819544e+00 1.226797e+00 9.256043e-01 2.517299e-01
<GCONST> 7.886861e+01
<STATE> 4
<MEAN> 25
 8.922590e+00 -1.154628e+00 -7.043730e+00 -2.396395e+00 -1.676195e+00 1.466030e+00 -6.166241e+00 -5.556364e+00 -4.555602e+00 3.528904e+00 -1.220649e-02 -3.318069e+00 -3.747644e-01 3.794462e-01 1.045383e+00 1.247295e+00 -2.934544e-01 -1.169826e+00 -3.182514e-01 3.247676e-01 1.516684e+00 -1.312846e+00 -9.699619e-01 1.872827e-01 -4.592351e-01
<VARIANCE> 25
 5.225624e+00 1.154922e+01 1.018596e+01 3.011093e+01 2.387698e+01 2.911669e+01 4.207321e+01 2.578503e+01 3.683188e+01 4.119945e+01 2.629134e+01 2.153901e+01 1.844776e-01 8.399012e-01 1.044105e+00 8.922663e-01 1.954044e+00 1.425124e+00 3.064405e+00 2.576484e+00 2.669030e+00 1.317878e+00 1.955275e+00 1.543229e+00 3.623794e-01
<GCONST> 8.547233e+01
<TRANSP> 5
 0.000000e+00 1.000000e+00 0.000000e+00 0.000000e+00 0.000000e+00
 0.000000e+00 8.732063e-01 1.267937e-01 0.000000e+00 0.000000e+00
 0.000000e+00 0.000000e+00 8.870893e-01 1.129107e-01 0.000000e+00
 0.000000e+00 0.000000e+00 0.000000e+00 8.506781e-01 1.493219e-01
 0.000000e+00 0.000000e+00 0.000000e+00 0.000000e+00 0.000000e+00
<ENDHMM>
~h "ay"
<BEGINHMM>
<NUMSTATES> 5
<STATE> 2
<MEAN> 25
 9.831333e+00 -1.091605e+01 -8.358851e+00 -4.016419e+00 3.933665e+00 3.776644e+00 -4.687997e+00 9.832808e-01 -3.059127e+00 3.208747e+00 -6.013819e+00 -2.141558e+00 -4.665094e-02 -7.113012e-01 4.142882e-02 -1.042924e-02 5.881258e-01 3.149583e-01 4.944783e-03 6.638406e-01 -2.329976e-01 -1.129790e-02 -6.536743e-01 -2.451595e-01 2.101088e-01
<VARIANCE> 25
 6.873485e+00 1.558336e+01 1.864054e+01 9.509439e+00 2.173195e+01 3.062644e+01 4.148964e+01 5.464099e+01 3.791725e+01 3.270137e+01 3.865358e+01 2.088276e+01 2.080168e-01 5.574167e-01 9.377983e-01 7.663173e-01 1.048104e+00 1.322739e+00 1.403792e+00 1.257991e+00 1.269648e+00 7.037212e-01 1.179582e+00 8.854405e-01 3.327997e-01
<GCONST> 8.108276e+01
<STATE> 3
<MEAN> 25
 8.293524e+00 -1.292477e+01 -3.978131e+00 -2.200567e+00 1.446115e+00 4.497873e-01 -4.843944e+00 6.521110e+00 -3.005593e+00 1.713616e+00 -8.302408e+00 -2.434694e+00 -5.465736e-01 1.298042e-01 1.745228e+00 3.184691e-01 -1.692153e+00 -1.237828e+00 3.412604e-01 1.062081e+00 -5.321637e-01 -1.708019e-01 4.501130e-01 4.826002e-01 1.748445e-02
<VARIANCE> 25
 4.083725e+00 1.394453e+01 1.759027e+01 3.582948e+00 1.719468e+01 2.094402e+01 3.782874e+01 4.332725e+01 1.796380e+01 3.965992e+01 1.383600e+01 1.813221e+01 1.654905e-01 5.775952e-01 1.142929e+00 5.237923e-01 1.197108e+00 7.188750e-01 1.004138e+00 1.486403e+00 8.507921e-01 9.783670e-01 1.217652e+00 7.314398e-01 8.420581e-02
<GCONST> 7.413029e+01
<STATE> 4
<MEAN> 25
 3.874745e+00 -5.304012e+00 9.826579e+00 -4.882714e+00 -1.080119e+01 -3.138847e+00 -5.411388e+00 3.008852e+00 -9.137072e+00 4.368937e+00 -1.170740e+00 -4.054660e-01 -2.814417e-01 1.157041e+00 7.165102e-01 -1.028295e-01 -7.173136e-01 -2.565925e-01 -1.119830e-01 -8.721520e-01 -3.524444e-01 2.243045e-01 5.703276e-01 -7.315736e-02 -5.468526e-01
<VARIANCE> 25
 4.416610e+00 2.498138e+01 2.094800e+01 1.652437e+01 2.118651e+01 4.066077e+01 2.252095e+01 5.100170e+01 2.397527e+01 2.641876e+01 1.947495e+01 1.522888e+01 4.573585e-01 1.170093e+00 3.092973e+00 1.686442e+00 2.696608e+00 1.603221e+00 1.839465e+00 1.813812e+00 1.941463e+00 2.540736e+00 1.883304e+00 9.506730e-01 4.339966e-01
<GCONST> 8.748476e+01
<TRANSP> 5
 0.000000e+00 1.000000e+00 0.000000e+00 0.000000e+00 0.000000e+00
 0.000000e+00 8.401523e-01 1.598476e-01 0.000000e+00 0.000000e+00
 0.000000e+00 0.000000e+00 7.846053e-01 2.153947e-01 0.000000e+00
 0.000000e+00 0.000000e+00 0.000000e+00 8.867409e-01 1.132590e-01
 0.000000e+00 0.000000e+00 0.000000e+00 0.000000e+00 0.000000e+00
<ENDHMM>
~h "ch"
<BEGINHMM>
<NUMSTATES> 5
<STATE> 2
<MEAN> 25
 -8.991547e-01 5.354646e+00 1.917799e+00 3.887867e+00 5.042466e+00 1.811244e+00 8.172031e+00 5.104997e+00 4.220441e+00 -4.283726e+00 2.788148e-01 2.166754e+00 -4.346624e-01 2.897174e-01 3.438510e-01 -4.330260e-02 7.836929e-01 4.004406e-01 -7.953361e-02 2.466758e-01 -2.948705e-02 1.786420e-02 2.445724e-01 -8.367512e-01 -9.388508e-01
<VARIANCE> 25
 2.065404e+01 1.307541e+01 7.972071e+00 1.311316e+01 2.452458e+01 3.763192e+01 3.427375e+01 3.140826e+01 4.437493e+01 9.599111e+00 9.147026e+00 1.459626e+01 1.642793e+00 1.575044e+00 9.706239e-01 1.201902e+00 1.823045e+00 1.116722e+00 2.974919e+00 2.245309e+00 3.149648e+00 8.872004e-01 8.986380e-01 1.584921e+00 4.557795e-01
<GCONST> 8.526292e+01
<STATE> 3
<MEAN> 25
 -7.615201e+00 2.468215e+00 4.478909e+00 1.013812e+00 3.935688e+00 4.985727e+00 1.533885e+00 3.101085e-01 4.366945e+00 -1.272568e+00 4.719728e+00 -8.475103e-01 -1.995681e+00 -1.207306e+00 5.026267e-01 -4.094802e-01 -8.279500e-01 1.073770e+00 -7.680982e-01 -1.052351e+00 7.472678e-01 4.168229e-01 5.506708e-01 1.935354e-01 1.162528e+00
<VARIANCE> 25
 3.004254e+01 1.856894e+01 8.607631e+00 1.867867e+01 2.668192e+01 3.639355e+01 4.038930e+01 5.302064e+01 6.916190e+01 3.534173e+01 1.469160e+01 2.190549e+01 1.482275e+00 1.081317e+00 4.925307e-01 9.909488e-01 3.384913e+00 2.641922e+00 3.678507e+00 2.677709e+00 3.188968e+00 3.332396e+00 2.230216e+00 2.245004e+00 1.279341e+00
<GCONST> 9.392752e+01
<STATE> 4
<MEAN> 25
 -1.085736e+01 -4.567867e+00 7.318101e+00 2.446965e+00 -7.252427e+00 1.192564e-01 1.456453e+00 -5.344418e+00 6.101968e+00 -1.250543e+00 2.570555e+00 1.680893e-01 1.971459e+00 -7.226324e-02 -3.800063e-01 2.662930e-01 -4.119716e-01 -1.684568e+00 -1.106064e-01 -1.642281e-01 -5.560302e-01 -1.440018e-01 -2.133179e-01 -1.220354e-01 3.096984e-01
<VARIANCE> 25
 6.425185e+01 9.524684e+00 5.832877e+00 4.196530e+01 1.467939e+01 5.650099e+01 1.427205e+01 2.090241e+01 4.150493e+01 1.453943e+01 1.322492e+01 8.266982e+00 6.559316e+00 2.165314e+00 1.998201e+00 1.959754e+00 2.766676e+00 2.178804e+00 2.459943e+00 4.081064e+00 3.890816e+00 1.796363e+00 1.439008e+00 9.805291e-01 1.571792e+00
<GCONST> 9.224223e+01
<TRANSP> 5
 0.000000e+00 1.000000e+00 0.000000e+00 0.000000e+00 0.000000e+00
 0.000000e+00 7.905159e-01 2.094841e-01 0.000000e+00 0.000000e+00
 0.000000e+00 0.000000e+00 8.614146e-01 1.385855e-01 0.000000e+00
 0.000000e+00 0.000000e+00 0.000000e+00 8.877815e-01 1.122185e-01
 0.000000e+00 0.000000e+00 0.000000e+00 0.000000e+00 0.000000e+00
<ENDHMM>
~h "dh"
<BEGINHMM>
<NUMSTATES> 5
<STATE> 2
<MEAN> 25
 9.922011e+00 -7.265386e+00 2.444525e+00 4.388539e+00 -1.092281e+01 -1.002617e+01 -5.793891e+00 2.997430e+00 2.469433e+00 -9.719636e-01 2.594870e+00 2.629848e+00 -1.656452e-01 1.703564e-01 1.852871e-01 3.785537e-01 4.662450e-02 -5.577995e-01 1.818717e-01 1.054153e-01 -1.651857e-01 -5.571700e-01 3.233518e-01 2.595495e-01 -4.038405e-01
<VARIANCE> 25
 5.406219e+00 9.764375e+00 8.535292e+00 1.509667e+01 1.604866e+01 2.308991e+01 2.615264e+01 1.812300e+01 1.466763e+01 1.550735e+01 8.706188e+00 8.845469e+00 2.338015e-01 6.329117e-01 4.178963e-01 6.488816e-01 1.264274e+00 1.245669e+00 1.422969e+00 1.601840e+00 1.027341e+00 1.490170e+00 1.011547e+00 9.752960e-01 2.451401e-01
<GCONST> 7.368769e+01
<STATE> 3
<MEAN> 25
 1.904040e+00 -8.644491e-01 4.909959e+00 6.358586e+00 -4.064900e+00 -5.811775e+00 1.609713e+00 -1.441206e+00 -7.206776e-01 -5.123663e+00 -1.633756e-01 1.987286e+00 -1.451634e+00 5.632876e-01 -2.255256e-01 -2.256614e-01 1.590167e+00 1.182725e+00 8.002878e-01 -8.005264e-02 4.687715e-01 -4.314076e-01 -1.917191e-01 1.281400e-01 -1.217922e+00
<VARIANCE> 25
 1.527104e+01 1.315582e+01 8.387859e+00 1.303194e+01 1.742879e+01 3.275106e+01 2.458999e+01 3.723571e+01 2.019185e+01 1.256230e+01 1.761025e+01 4.626396e+00 2.864916e-01 5.058915e-01 7.603766e-01 1.344565e+00 1.590983e+00 1.388938e+00 1.909248e+00 2.995523e+00 3.043963e+00 2.123983e+00 2.088831e+00 4.271811e-01 4.753621e-01
<GCONST> 8.068306e+01
<STATE> 4
<MEAN> 25
 -6.658972e+00 9.475245e-01 -3.167230e-01 2.912412e+00 7.450023e+00 3.580371e+00 5.322614e+00 3.604409e+00 5.742454e+00 -1.135296e+00 2.059370e+00 3.482149e+00 -4.884963e-02 4.041332e-02 -1.762222e-01 -8.508762e-03 3.481036e-01 2.334055e-01 -2.963857e-03 7.148417e-02 1.691858e-01 1.888285e-01 1.085215e-01 5.561672e-02 -5.585338e-02
<VARIANCE> 25
 3.372933e+00 5.572007e+00 1.613742e+01 1.179979e+01 2.569437e+01 1.498576e+01 1.669481e+01 2.080093e+01 1.714329e+01 1.968859e+01 8.996680e+00 1.484356e+01 4.001515e-01 5.993177e-01 1.099983e+00 1.075326e+00 1.325301e+00 1.666717e+00 1.312303e+00 1.434341e+00 1.511047e+00 1.382889e+00 1.141854e+00 1.265322e+00 2.400866e-01
<GCONST> 7.649245e+01
<TRANSP> 5
 0.000000e+00 1.000000e+00 0.000000e+00 0.000000e+00 0.000000e+00
 0.000000e+00 9.023867e-01 9.761328e-02 0.000000e+00 0.000000e+00
 0.000000e+00 0.000000e+00 8.128451e-01 1.871549e-01 0.000000e+00
 0.000000e+00 0.000000e+00 0.000000e+00 9.364855e-01 6.351449e-02
 0.000000e+00 0.000000e+00 0.000000e+00 0.000000e+00 0.000000e+00
<ENDHMM>
~h "eh"
<BEGINHMM>
<NUMSTATES> 5
<STATE> 2
<MEAN> 25
 5.036742e+00 -8.193254e+00 4.318017e+00 -2.609641e+00 -9.717922e+00 -5.169029e+00 -2.196077e+00 2.997766e+00 -6.431654e+00 5.958057e+00 -3.846569e+00 2.308168e-03 -1.884906e-02 -8.960205e-02 5.768642e-02 -1.997143e-01 -2.084572e-01 1.052994e-01 -4.183345e-02 3.020741e-01 -3.587017e-01 1.146306e-01 -2.439292e-01 7.507975e-02 7.803285e-02
<VARIANCE> 25
 4.943164e+00 1.363389e+01 3.607563e+01 1.841627e+01 3.436323e+01 1.883437e+01 3.128480e+01 2.606276e+01 2.820139e+01 1.470055e+01 3.503973e+01 2.012249e+01 4.162726e-01 1.011716e+00 1.375848e+00 9.479446e-01 1.530018e+00 1.096739e+00 1.423076e+00 1.261926e+00 1.527945e+00 1.032263e+00 1.549091e+00 1.005929e+00 4.899038e-01
<GCONST> 8.310786e+01
<STATE> 3
<MEAN> 25
 6.225847e+00 -3.363130e+00 2.167201e+00 1.464349e-01 -7.747768e+00 -6.390040e+00 -2.139991e+00 2.349438e+00 -4.261483e+00 2.710325e+00 -4.849327e+00 -2.631850e-01 1.818110e-01 1.680249e+00 -3.843363e-02 7.397088e-01 1.288405e+00 -2.011963e-01 1.097950e-01 -5.497124e-01 7.329819e-01 -1.141588e+00 4.416245e-01 -1.785944e-01 -1.767243e+00
<VARIANCE> 25
 7.586601e+00 3.689286e+01 2.656457e+01 2.115773e+01 3.852733e+01 2.939731e+01 3.042388e+01 2.051027e+01 2.202203e+01 2.303967e+01 2.848690e+01 1.663855e+01 7.019236e-01 1.523789e+00 2.018188e+00 1.166656e+00 3.372161e+00 1.875560e+00 2.765005e+00 2.211559e+00 1.973027e+00 2.148057e+00 1.185729e+00 1.476824e+00 1.211114e+00
<GCONST> 9.054651e+01
<STATE> 4
<MEAN> 25
 3.390501e+00 1.505585e+00 1.404939e+00 2.157978e+00 -2.360143e+00 -3.451347e+00 -1.820206e+00 -6.363816e-01 1.218460e+00 -8.672156e-01 -3.422150e+00 2.077183e-01 -1.448080e-01 3.099389e-02 -3.040794e-01 -1.899919e-01 2.906628e-01 7.870041e-01 1.899513e-02 -3.629985e-02 4.463843e-01 1.116926e-01 4.092817e-01 -3.010811e-01 -3.601368e-01
<VARIANCE> 25
 2.069080e+01 3.119677e+01 1.885580e+01 2.354750e+01 3.474647e+01 2.916973e+01 3.207371e+01 2.510249e+01 3.190177e+01 4.869672e+01 2.092349e+01 1.711983e+01 2.020532e+00 2.035896e+00 1.675586e+00 2.242932e+00 3.698650e+00 3.613315e+00 2.544609e+00 2.727454e+00 2.393683e+00 4.420680e+00 1.984249e+00 1.429462e+00 1.661861e+00
<GCONST> 9.653216e+01
<TRANSP> 5
 0.000000e+00 1.000000e+00 0.000000e+00 0.000000e+00 0.000000e+00
 0.000000e+00 8.644926e-01 1.355074e-01 0.000000e+00 0.000000e+00
 0.000000e+00 0.000000e+00 6.971591e-01 3.028409e-01 0.000000e+00
 0.000000e+00 0.000000e+00 0.000000e+00 6.708378e-01 3.291622e-01
 0.000000e+00 0.000000e+00 0.000000e+00 0.000000e+00 0.000000e+00
<ENDHMM>
~h "er"
<BEGINHMM>
<NUMSTATES> 5
<STATE> 2
<MEAN> 25
 1.024191e+01 -9.181628e+00 -3.771894e+00 5.015881e+00 -7.807482e+00 -8.980317e+00 -8.935762e+00 2.771987e+00 -1.588118e-01 -1.084982e+00 2.672981e+00 3.164557e+00 9.456807e-02 -1.846999e-01 1.146097e-01 1.408875e-01 -8.610330e-02 -4.984103e-01 9.505778e-02 2.260364e-01 2.971725e-02 -2.143512e-01 7.273936e-02 1.973990e-01 -1.152376e-01
<VARIANCE> 25
 9.097531e+00 1.094022e+01 3.352670e+01 1.867282e+01 4.196281e+01 2.791068e+01 2.689025e+01 2.511672e+01 1.686322e+01 1.703051e+01 1.318961e+01 1.408427e+01 1.928077e-01 5.349906e-01 9.523277e-01 7.193125e-01 1.253402e+00 1.093135e+00 1.490163e+00 1.273331e+00 9.194137e-01 7.334298e-01 5.649262e-01 7.840024e-01 1.697931e-01
<GCONST> 7.677644e+01
<STATE> 3
<MEAN> 25
 7.873349e+00 -5.558946e+00 1.097923e+00 4.014757e+00 -8.991746e+00 -1.046002e+01 -3.679210e+00 1.543893e+00 -1.302029e+00 -2.250270e+00 2.725194e+00 2.998129e+00 -8.099114e-01 1.231815e+00 8.476562e-01 -2.420711e-01 3.298380e-01 5.378844e-01 6.822147e-01 -2.145079e-01 4.482000e-02 -5.470584e-02 -4.398243e-01 -6.123520e-03 -9.953054e-01
<VARIANCE> 25
 1.223405e+01 2.246464e+01 2.660666e+01 1.555597e+01 3.982159e+01 3.186267e+01 3.144290e+01 2.409998e+01 1.553417e+01 1.717941e+01 1.933110e+01 1.214381e+01 4.265006e-01 8.465655e-01 1.149235e+00 9.410052e-01 2.777085e+00 2.213860e+00 1.631491e+00 2.200487e+00 1.430357e+00 1.034716e+00 1.318394e+00 1.029472e+00 5.833500e-01
<GCONST> 8.472266e+01
<STATE> 4
<MEAN> 25
 -2.200547e+00 1.353814e+00 2.611180e+00 3.932061e+00 3.807879e+00 -1.345848e+00 3.911997e+00 5.968113e+00 4.472459e+00 -9.811295e-01 1.590166e+00 3.711007e+00 -7.105350e-01 1.205469e-01 -7.353154e-02 -1.824858e-01 8.328969e-01 9.876116e-01 5.023649e-01 1.102885e-01 4.187467e-01 3.889733e-01 4.193800e-02 -1.608780e-01 -5.014806e-01
<VARIANCE> 25
 1.785949e+01 9.254243e+00 1.514015e+01 1.162075e+01 3.534468e+01 4.640585e+01 2.800293e+01 1.824746e+01 2.529721e+01 2.299882e+01 1.496480e+01 1.362234e+01 7.285082e-01 7.873622e-01 1.162339e+00 1.406183e+00 1.793646e+00 2.147975e+00 2.376069e+00 2.573593e+00 2.695474e+00 1.994440e+00 1.566608e+00 1.216655e+00 4.877930e-01
<GCONST> 8.625126e+01
<TRANSP> 5
 0.000000e+00 1.000000e+00 0.000000e+00 0.000000e+00 0.000000e+00
 0.000000e+00 9.013964e-01 9.860361e-02 0.000000e+00 0.000000e+00
 0.000000e+00 0.000000e+00 7.801796e-01 2.198204e-01 0.000000e+00
 0.000000e+00 0.000000e+00 0.000000e+00 8.519653e-01 1.480346e-01
 0.000000e+00 0.000000e+00 0.000000e+00 0.000000e+00 0.000000e+00
<ENDHMM>
~h "ey"
<BEGINHMM>
<NUMSTATES> 5
<STATE> 2
<MEAN> 25
 2.695892e+00 -7.875295e+00 6.112617e+00 -2.160047e+00 -1.078534e+01 -3.632767e+00 -1.696627e+00 2.860673e+00 -5.108565e+00 4.439429e+00 -3.600283e-01 -5.184802e-01 2.462840e-02 -1.402355e-01 1.602728e+00 -1.030133e+00 -2.091734e+00 2.460676e-01 -5.566966e-01 -2.500575e-01 -1.203013e+00 7.753186e-01 5.048452e-01 -1.936090e-01 1.020985e+00
<VARIANCE> 25
 1.202770e+01 3.243370e+01 2.350827e+01 2.810714e+01 4.436774e+01 2.629195e+01 4.449654e+01 3.180312e+01 2.818700e+01 2.373286e+01 4.066161e+01 1.198327e+01 1.306980e+00 3.536748e+00 1.550990e+00 2.448250e+00 3.608463e+00 2.418824e+00 3.547164e+00 2.564712e+00 2.185839e+00 1.977925e+00 1.609133e+00 9.308296e-01 3.524649e+00
<GCONST> 9.578557e+01
<STATE> 3
<MEAN> 25
 1.956348e+00 2.117742e-03 1.273778e+01 -6.155529e+00 -1.574048e+01 8.171543e-01 -7.776832e+00 -2.943608e+00 -8.076283e+00 3.630210e+00 3.632493e+00 -5.250913e+00 -8.107360e-02 6.895905e-01 9.930878e-02 -1.702261e-01 3.819224e-02 2.138604e-01 5.094042e-04 -1.089557e-01 2.158202e-02 -3.466767e-01 -7.781984e-02 -4.315118e-01 -4.066047e-01
<VARIANCE> 25
 3.003300e+00 2.461141e+01 1.243868e+01 1.483706e+01 1.591660e+01 2.358236e+01 1.913490e+01 1.613391e+01 1.369360e+01 2.021997e+01 1.857086e+01 1.882301e+01 1.692760e-01 7.067161e-01 5.655428e-01 8.129640e-01 8.704107e-01 9.421322e-01 1.196198e+00 9.398597e-01 7.850144e-01 8.220626e-01 6.829275e-01 7.111927e-01 2.085216e-01
<GCONST> 7.289882e+01
<STATE> 4
<MEAN> 25
 2.754375e+00 2.747752e+00 8.236573e+00 -3.072666e+00 -1.160451e+01 -1.726197e+00 -3.759734e+00 -1.211475e+00 -5.654780e+00 -2.130155e-01 8.969641e-01 -5.299520e+00 1.119451e-01 4.204713e-01 -1.196655e+00 1.048373e+00 2.346260e+00 -6.878581e-01 5.812184e-01 1.811384e-01 1.478767e+00 -9.918969e-01 -5.085274e-01 1.008651e+00 -1.112572e+00
<VARIANCE> 25
 7.698933e+00 4.586629e+01 2.808661e+01 1.999198e+01 4.888123e+01 2.530994e+01 3.161879e+01 2.963318e+01 2.262989e+01 2.648153e+01 2.967514e+01 2.583836e+01 1.102641e+00 2.498157e+00 1.031061e+00 1.583418e+00 3.102927e+00 2.038520e+00 3.478492e+00 2.715807e+00 2.986980e+00 1.684210e+00 1.914689e+00 1.743647e+00 1.524887e+00
<GCONST> 9.398219e+01
<TRANSP> 5
 0.000000e+00 1.000000e+00 0.000000e+00 0.000000e+00 0.000000e+00
 0.000000e+00 7.984257e-01 2.015743e-01 0.000000e+00 0.000000e+00
 0.000000e+00 0.000000e+00 9.072106e-01 9.278943e-02 0.000000e+00
 0.000000e+00 0.000000e+00 0.000000e+00 7.473056e-01 2.526944e-01
 0.000000e+00 0.000000e+00 0.000000e+00 0.000000e+00 0.000000e+00
<ENDHMM>
~h "hh"
<BEGINHMM>
<NUMSTATES> 5
<STATE> 2
<MEAN> 25
 -3.230949e+00 -1.111385e+01 -2.213349e-01 4.613397e-01 1.996906e+00 4.489559e+00 6.630364e+00 -1.046939e-01 -6.402732e-01 6.150419e-02 6.442494e-01 -4.040281e-01 1.439531e-01 -1.157923e+00 -4.914212e-01 -1.791656e-01 8.283823e-02 4.644203e-01 4.927296e-01 -2.992454e-01 -5.711276e-01 4.479928e-02 5.313429e-02 1.334273e-04 9.660002e-01
<VARIANCE> 25
 9.086319e+00 3.898262e+01 1.693846e+01 1.839057e+01 4.291598e+01 1.370156e+01 2.255111e+01 2.492074e+01 3.090696e+01 2.417741e+01 1.285040e+01 1.353400e+01 4.913589e-01 1.786508e+00 1.179589e+00 2.010654e+00 1.613137e+00 1.491820e+00 2.289781e+00 2.776127e+00 2.412588e+00 2.048405e+00 1.752499e+00 1.510374e+00 9.240090e-01
<GCONST> 8.799458e+01
<STATE> 3
<MEAN> 25
 1.463272e+00 -1.213062e+01 -1.703683e-01 3.810184e+00 3.583411e+00 3.526399e+00 5.164135e+00 6.173538e-01 -2.998002e+00 -1.241968e+00 -3.776131e+00 1.657464e-01 1.786591e+00 1.520073e+00 4.942624e-01 1.691801e-01 -3.549951e-01 -1.313158e+00 -1.830978e+00 -4.630971e-01 -6.203592e-01 2.464435e-01 -1.423567e+00 4.111089e-02 6.541119e-01
<VARIANCE> 25
 1.497979e+01 2.996865e+01 2.788743e+01 1.876907e+01 2.744626e+01 3.038494e+01 3.285427e+01 3.181664e+01 2.581159e+01 2.285968e+01 1.890115e+01 9.877422e+00 9.118733e-01 8.981814e-01 1.197262e+00 2.182501e+00 2.281361e+00 2.164316e+00 1.178018e+00 1.818335e+00 2.068327e+00 1.263648e+00 1.091875e+00 8.018849e-01 2.111066e-01
<GCONST> 8.599405e+01
<STATE> 4
<MEAN> 25
 6.495112e+00 -1.117412e+01 -9.657603e-01 -3.772073e+00 -3.468507e+00 7.368716e-01 -1.477831e+00 3.269993e-01 -6.201604e+00 3.776983e+00 -9.323697e+00 2.022376e-01 1.012697e-01 5.837882e-02 -2.456506e-01 -4.118047e-01 -4.186563e-01 -5.879262e-02 -1.987940e-01 8.102641e-02 1.007473e-01 2.936452e-01 -2.373169e-01 -1.374852e-01 1.697000e-01
<VARIANCE> 25
 4.767741e+00 1.374780e+01 2.486517e+01 1.918262e+01 6.491184e+01 2.138672e+01 4.594444e+01 2.167603e+01 1.726959e+01 1.554676e+01 9.753077e+00 1.078504e+01 5.048321e-01 5.648028e-01 6.009589e-01 1.436746e+00 1.716990e+00 9.491226e-01 1.662637e+00 9.382085e-01 9.608669e-01 8.069981e-01 5.034834e-01 6.522695e-01 4.677930e-01
<GCONST> 7.808887e+01
<TRANSP> 5
 0.000000e+00 1.000000e+00 0.000000e+00 0.000000e+00 0.000000e+00
 0.000000e+00 8.693277e-01 1.306723e-01 0.000000e+00 0.000000e+00
 0.000000e+00 0.000000e+00 7.246880e-01 2.753119e-01 0.000000e+00
 0.000000e+00 0.000000e+00 0.000000e+00 8.609756e-01 1.390244e-01
 0.000000e+00 0.000000e+00 0.000000e+00 0.000000e+00 0.000000e+00
<ENDHMM>
~h "ih"
<BEGINHMM>
<NUMSTATES> 5
<STATE> 2
<MEAN> 25
 1.563112e+00 -1.079097e+00 6.153601e+00 9.503571e-01 -8.846681e+00 -5.258548e+00 -3.761412e+00 -3.153812e+00 -2.495976e+00 1.421671e-01 1.237142e+00 -4.009399e-01 6.451541e-01 -7.207858e-01 1.910697e+00 -1.225652e+00 -2.936418e+00 -2.035274e-01 -1.347489e+00 2.516928e-01 -1.958549e+00 2.139731e-01 5.050522e-01 -8.313331e-01 1.207430e+00
<VARIANCE> 25
 2.064732e+01 3.671086e+01 3.791770e+01 3.068260e+01 6.027997e+01 4.123636e+01 5.968868e+01 3.920878e+01 3.473504e+01 2.277391e+01 1.905438e+01 2.133049e+01 3.806918e+00 3.122231e+00 2.466807e+00 3.499335e+00 4.060220e+00 4.462088e+00 4.613542e+00 4.018453e+00 3.298028e+00 3.601988e+00 2.945655e+00 1.957697e+00 2.549845e+00
<GCONST> 1.035044e+02
<STATE> 3
<MEAN> 25
 1.863490e+00 -8.432811e-01 1.391202e+01 -5.041428e+00 -1.695366e+01 -2.470695e+00 -9.006831e+00 -2.426047e+00 -8.637855e+00 1.796546e+00 3.293415e+00 -4.782596e+00 -6.164525e-02 2.032550e-01 4.160099e-03 -2.613769e-01 -3.534866e-01 3.697600e-01 7.701638e-02 -9.013898e-02 -3.441186e-01 1.935663e-01 -1.267738e-01 -3.833025e-01 -1.338924e-01
<VARIANCE> 25
 5.714111e+00 1.469777e+01 1.231945e+01 2.019103e+01 2.258976e+01 2.056936e+01 1.852559e+01 1.592895e+01 1.787504e+01 3.739217e+01 1.595699e+01 2.101962e+01 1.882418e-01 1.176061e+00 1.091054e+00 1.165250e+00 1.203909e+00 1.420603e+00 1.440814e+00 1.299303e+00 7.457105e-01 1.123116e+00 8.179810e-01 8.176367e-01 4.464899e-01
<GCONST> 7.855280e+01
<STATE> 4
<MEAN> 25
 2.225261e+00 2.074921e+00 8.739509e+00 -8.139806e-01 -1.104942e+01 -4.469688e+00 -2.436434e+00 -3.691449e+00 -5.329573e+00 2.821088e-01 6.457278e-01 -3.323948e+00 -8.969667e-02 6.856091e-01 -1.242138e+00 1.015066e+00 2.291419e+00 -2.967992e-01 1.157992e+00 1.788241e-01 1.422094e+00 -6.108513e-01 -4.046375e-01 8.485531e-01 -1.435805e+00
<VARIANCE> 25
 1.739400e+01 2.325339e+01 2.496727e+01 3.018142e+01 4.941442e+01 3.598402e+01 3.375627e+01 2.798970e+01 2.776385e+01 2.545724e+01 1.692820e+01 2.523288e+01 1.587167e+00 1.834871e+00 2.159569e+00 1.867096e+00 3.208413e+00 2.411725e+00 3.070803e+00 2.301743e+00 2.375480e+00 2.283451e+00 1.645007e+00 2.034937e+00 1.370165e+00
<GCONST> 9.520544e+01
<TRANSP> 5
 0.000000e+00 1.000000e+00 0.000000e+00 0.000000e+00 0.000000e+00
 0.000000e+00 7.288166e-01 2.711834e-01 0.000000e+00 0.000000e+00
 0.000000e+00 0.000000e+00 8.398703e-01 1.601296e-01 0.000000e+00
 0.000000e+00 0.000000e+00 0.000000e+00 7.782645e-01 2.217355e-01
 0.000000e+00 0.000000e+00 0.000000e+00 0.000000e+00 0.000000e+00
<ENDHMM>
~h "iy"
<BEGINHMM>
<NUMSTATES> 5
<STATE> 2
<MEAN> 25
 -1.176549e+00 2.876332e+00 8.249277e+00 3.138423e+00 -1.109401e+01 -3.571068e+00 2.540908e+00 -7.054076e+00 -1.961868e+00 -1.033229e+00 1.512429e+00 -2.622786e+00 1.147966e+00 2.653119e-01 2.939124e+00 -1.545442e+00 -2.903635e+00 -5.842151e-02 -1.684037e+00 -8.915268e-01 -2.045793e+00 -1.751941e-01 1.374817e-01 -1.811861e+00 7.994184e-01
<VARIANCE> 25
 3.249293e+01 3.174941e+01 4.664509e+01 2.593347e+01 5.409390e+01 3.061217e+01 4.824719e+01 3.171096e+01 4.055522e+01 1.686559e+01 2.240200e+01 2.797415e+01 3.187783e+00 2.588893e+00 1.911396e+00 2.999965e+00 3.233134e+00 4.160927e+00 5.001790e+00 2.497328e+00 3.289500e+00 2.650894e+00 2.728140e+00 2.701780e+00 1.269529e+00
<GCONST> 1.010804e+02
<STATE> 3
<MEAN> 25
 2.760271e+00 1.385546e+00 1.623425e+01 -1.867653e+00 -1.661343e+01 -2.974724e+00 -5.575457e+00 -5.899774e+00 -8.381727e+00 -1.790432e+00 4.356890e+00 -7.138804e+00 -7.981076e-02 3.708039e-01 6.432978e-01 -1.063066e+00 5.952739e-02 5.348507e-01 -1.397069e+00 7.289883e-01 -3.334908e-01 4.023688e-02 1.868536e-01 -6.973310e-01 7.198332e-02
<VARIANCE> 25
 6.748017e+00 2.691303e+01 1.201436e+01 2.357409e+01 2.439675e+01 2.327463e+01 1.876592e+01 2.184437e+01 1.718074e+01 2.460546e+01 1.714806e+01 2.574377e+01 7.942414e-01 1.943757e+00 8.781035e-01 1.785133e+00 1.517607e+00 2.041234e+00 1.516614e+00 1.461307e+00 1.929150e+00 1.475122e+00 2.792437e+00 1.351979e+00 1.969821e-01
<GCONST> 8.484960e+01
<STATE> 4
<MEAN> 25
 1.765131e+00 5.054784e+00 1.434307e+01 -3.791439e+00 -1.503138e+01 -2.796845e+00 -7.621588e+00 -2.854619e+00 -7.315902e+00 -4.841797e-02 3.015483e+00 -8.745970e+00 1.299078e-01 -2.436753e-01 -6.161556e-01 4.724846e-01 3.936395e-01 -4.690038e-01 3.244088e-01 1.946048e-01 1.030276e-01 2.271056e-02 -1.302382e-01 3.830926e-01 -2.133393e-01
<VARIANCE> 25
 4.837243e+00 2.753771e+01 1.948258e+01 3.594888e+01 3.902790e+01 1.934355e+01 1.468945e+01 2.323416e+01 1.728227e+01 3.121228e+01 2.103990e+01 2.393054e+01 3.580783e-01 1.114445e+00 7.779607e-01 1.168194e+00 2.032977e+00 1.342965e+00 1.327871e+00 1.805772e+00 1.165369e+00 1.309541e+00 9.804341e-01 9.685571e-01 5.390112e-01
<GCONST> 8.297956e+01
<TRANSP> 5
 0.000000e+00 1.000000e+00 0.000000e+00 0.000000e+00 0.000000e+00
 0.000000e+00 6.429861e-01 3.570139e-01 0.000000e+00 0.000000e+00
 0.000000e+00 0.000000e+00 7.077850e-01 2.922150e-01 0.000000e+00
 0.000000e+00 0.000000e+00 0.000000e+00 9.061408e-01 9.385922e-02
 0.000000e+00 0.000000e+00 0.000000e+00 0.000000e+00 0.000000e+00
<ENDHMM>
~h "jh"
<BEGINHMM>
<NUMSTATES> 5
<STATE> 2
<MEAN> 25
 3.034398e+00 7.662630e+00 7.596822e+00 3.507768e+00 -1.404858e+00 -4.690868e+00 -2.414857e+00 -2.529301e+00 -1.824321e+00 -5.327274e+00 2.663497e+00 2.177291e+00 -1.505469e+00 -1.842692e-01 -4.496782e-01 2.411664e-01 2.456650e+00 1.531884e+00 8.895584e-01 3.474493e-03 4.755660e-01 1.041826e-01 3.373822e-02 -4.935574e-01 -7.270088e-01
<VARIANCE> 25
 2.131455e+01 2.208270e+01 9.247419e+00 1.698912e+01 4.728494e+01 2.389928e+01 1.917032e+01 3.657701e+01 1.264285e+01 1.481317e+01 1.218948e+01 2.910008e+01 5.969622e+00 6.470809e+00 1.598843e+00 3.079569e+00 2.860982e+00 9.004699e-01 1.412065e+00 6.839548e+00 1.394113e+00 2.320297e+00 1.530121e+00 1.540891e+00 4.478566e+00
<GCONST> 9.383790e+01
<STATE> 3
<MEAN> 25
 -1.274526e+01 -1.269200e+00 9.083330e+00 1.045172e+00 -3.555309e-01 3.509176e+00 2.017621e+00 -3.104994e+00 5.810570e+00 -3.444052e+00 1.012082e+00 6.116858e-01 1.354772e-01 -2.242051e-01 4.721527e-01 -2.330911e-01 -8.812906e-01 -3.503169e-01 2.014801e-02 -1.025254e-01 7.323162e-02 4.535836e-02 -2.410657e-01 1.932943e-01 2.987364e-01
<VARIANCE> 25
 2.360409e+01 1.455547e+01 1.887377e+01 9.162300e+00 2.483950e+01 1.561118e+01 2.590889e+01 2.339563e+01 1.842266e+01 1.019059e+01 1.320763e+01 1.828979e+01 6.548742e+00 1.500975e+00 1.658860e+00 1.275787e+00 3.616819e+00 2.965583e+00 1.929117e+00 2.179486e+00 1.822057e+00 8.156864e-01 1.273678e+00 1.177465e+00 2.146018e+00
<GCONST> 8.843793e+01
<STATE> 4
<MEAN> 25
 3.825741e+00 -6.829870e+00 9.466475e+00 -3.083875e+00 -1.110557e+01 -7.190039e+00 -3.218487e+00 -4.455166e+00 -6.163987e+00 -7.972348e-02 1.470770e+00 3.433471e-01 1.425570e+00 -1.431056e+00 -6.122448e-01 -4.142298e-01 -7.500484e-01 -6.574898e-01 -5.857364e-01 8.438962e-01 -1.229622e+00 1.118208e+00 1.029049e-01 2.012010e-01 -4.791610e-02
<VARIANCE> 25
 1.528173e+01 2.370737e+01 1.057973e+01 6.380898e+00 3.585993e+01 1.018495e+01 1.732014e+01 1.941476e+01 1.358089e+01 1.272812e+01 6.518503e+00 6.993767e+00 1.853752e+00 9.282978e-01 9.628074e-01 5.372599e-01 1.743887e+00 1.164864e+00 3.269439e-01 7.613387e-01 8.656529e-01 5.849178e-01 7.554651e-01 9.111734e-01 2.938592e-02
<GCONST> 7.136267e+01
<TRANSP> 5
 0.000000e+00 1.000000e+00 0.000000e+00 0.000000e+00 0.000000e+00
 0.000000e+00 8.547148e-01 1.452853e-01 0.000000e+00 0.000000e+00
 0.000000e+00 0.000000e+00 9.027770e-01 9.722304e-02 0.000000e+00
 0.000000e+00 0.000000e+00 0.000000e+00 8.011745e-01 1.988255e-01
 0.000000e+00 0.000000e+00 0.000000e+00 0.000000e+00 0.000000e+00
<ENDHMM>
~h "ng"
<BEGINHMM>
<NUMSTATES> 5
<STATE> 2
<MEAN> 25
 7.237321e+00 2.896208e+00 -2.152434e+00 -2.230557e+00 5.037520e+00 4.215347e+00 2.837509e+00 -2.186297e+00 -5.546478e+00 -6.661512e+00 -1.545118e+00 -6.917319e-01 -3.547834e-01 5.081728e-01 4.053363e-01 9.602829e-01 2.143754e-01 -6.305980e-01 6.891245e-01 1.555804e-01 2.799674e-01 -2.200462e-01 -8.934369e-01 3.116106e-02 -6.706899e-01
<VARIANCE> 25
 9.053750e+00 6.929064e+00 1.169825e+01 1.713089e+01 3.432373e+01 2.209518e+01 1.922045e+01 1.089103e+01 1.903074e+01 2.220198e+01 1.501978e+01 2.784838e+01 1.622295e-01 3.194838e-01 8.829849e-01 7.620232e-01 1.126343e+00 1.531338e+00 1.767377e+00 1.036978e+00 7.945361e-01 8.581755e-01 1.678781e+00 8.817217e-01 8.161029e-02
<GCONST> 7.474198e+01
<STATE> 3
<MEAN> 25
 1.649322e+00 4.106765e+00 2.268752e+00 3.402894e+00 7.528133e+00 3.065762e+00 4.038752e+00 -3.881013e-01 -1.316965e+00 -6.338149e+00 -4.907858e+00 -3.473160e-01 -9.354914e-01 -3.156326e-01 1.797791e-01 3.275397e-01 2.241369e-01 5.189259e-02 2.807556e-01 7.114920e-01 7.731883e-01 2.706890e-01 2.923219e-01 1.740039e-01 -6.129883e-01
<VARIANCE> 25
 1.018954e+01 7.095178e+00 6.595116e+00 9.291786e+00 1.674288e+01 1.172731e+01 2.046569e+01 1.660929e+01 1.527481e+01 1.618029e+01 1.323820e+01 1.694588e+01 2.843309e-01 3.680128e-01 6.170670e-01 9.038768e-01 9.670960e-01 1.101910e+00 1.546539e+00 2.506380e+00 1.882593e+00 1.755736e+00 1.512427e+00 1.127540e+00 8.043550e-02
<GCONST> 7.416125e+01
<STATE> 4
<MEAN> 25
 -4.691585e+00 -2.475664e-01 1.564826e+00 3.625974e+00 7.837089e+00 2.513990e+00 7.886810e+00 7.151340e+00 6.983749e+00 -5.434796e-01 3.405626e-01 2.753704e+00 -1.513721e-01 -1.444928e-01 -1.723058e-01 -9.995861e-02 -2.279088e-02 1.305307e-02 7.069369e-02 2.051264e-01 2.349752e-01 3.030176e-01 1.673700e-01 9.272911e-02 -8.606629e-02
<VARIANCE> 25
 2.233355e+00 5.590663e+00 4.971453e+00 6.195758e+00 1.008146e+01 1.165889e+01 1.232475e+01 1.408629e+01 1.300181e+01 1.792067e+01 2.125300e+01 1.389131e+01 1.813049e-01 3.367939e-01 6.153929e-01 6.577561e-01 1.095213e+00 1.115225e+00 1.203356e+00 1.558932e+00 1.264403e+00 1.785112e+00 1.641662e+00 1.429008e+00 5.378332e-02
<GCONST> 6.883430e+01
<TRANSP> 5
 0.000000e+00 1.000000e+00 0.000000e+00 0.000000e+00 0.000000e+00
 0.000000e+00 8.494407e-01 1.505593e-01 0.000000e+00 0.000000e+00
 0.000000e+00 0.000000e+00 8.407751e-01 1.592249e-01 0.000000e+00
 0.000000e+00 0.000000e+00 0.000000e+00 9.232546e-01 7.674539e-02
 0.000000e+00 0.000000e+00 0.000000e+00 0.000000e+00 0.000000e+00
<ENDHMM>
~h "ow"
<BEGINHMM>
<NUMSTATES> 5
<STATE> 2
<MEAN> 25
 9.712360e+00 -9.897962e-01 -8.820913e+00 -6.178797e+00 -2.885436e+00 2.668418e+00 -6.160832e+00 -3.634269e+00 -7.373297e+00 5.260558e+00 4.716333e+00 2.124379e-01 1.053777e+00 1.814351e-01 -7.022564e-01 -1.516346e+00 -9.690331e-01 1.070782e+00 -4.340390e-01 -9.906210e-02 -1.459483e+00 8.014482e-01 3.218189e-01 -2.792011e-01 9.720492e-01
<VARIANCE> 25
 2.415500e+01 2.265381e+01 1.160555e+01 6.427072e+01 2.634741e+01 4.872524e+01 6.523678e+01 3.416331e+01 3.282586e+01 2.044133e+01 4.642423e+01 1.521991e+01 2.927101e+00 1.154009e+00 1.436635e+00 3.246752e+00 2.131519e+00 1.309658e+00 2.153742e+00 2.198765e+00 2.209135e+00 2.426019e+00 1.585516e+00 9.382050e-01 3.237844e+00
<GCONST> 9.539208e+01
<STATE> 3
<MEAN> 25
 1.073690e+01 5.447207e+00 -8.159908e+00 -9.879688e+00 -7.701214e+00 4.650240e+00 -4.000075e+00 -2.910427e+00 -1.110503e+01 2.079860e+00 3.304752e+00 4.468715e-01 -1.246809e-01 3.312555e-01 2.575872e-01 3.378193e-01 1.787868e-01 -2.328721e-01 7.269618e-02 -1.117256e-01 1.882435e-01 -4.197553e-01 6.325718e-04 3.714462e-03 -3.949467e-01
<VARIANCE> 25
 4.118840e+00 1.575125e+01 1.213447e+01 2.088055e+01 1.943902e+01 2.653863e+01 3.128209e+01 1.746260e+01 1.627854e+01 3.221320e+01 3.391237e+01 1.330645e+01 1.460256e-01 4.677923e-01 4.489850e-01 6.600509e-01 8.692390e-01 8.771595e-01 1.040227e+00 8.442007e-01 9.454644e-01 7.271256e-01 9.246987e-01 6.762031e-01 1.313017e-01
<GCONST> 7.340196e+01
<STATE> 4
<MEAN> 25
 3.048538e+00 4.387552e+00 -8.539398e-01 -6.931378e-01 2.652222e+00 1.630815e+00 -4.159829e-01 -1.058773e+00 -8.286054e-01 -1.351216e+00 2.291185e+00 8.922598e-01 -9.284943e-01 -4.475672e-01 6.372474e-01 6.781564e-01 6.151420e-01 -1.482150e-01 4.682633e-01 6.401849e-01 1.109601e+00 -1.170533e-01 -4.547178e-01 -3.026010e-02 -6.472092e-01
<VARIANCE> 25
 2.961669e+01 1.782471e+01 2.362528e+01 2.116700e+01 2.297878e+01 3.039595e+01 8.042332e+01 3.208580e+01 3.686397e+01 3.246385e+01 2.467924e+01 2.010188e+01 5.343345e-01 7.416400e-01 1.101211e+00 1.192079e+00 1.193040e+00 2.028037e+00 2.373489e+00 1.895057e+00 1.825880e+00 2.426910e+00 2.256480e+00 1.492767e+00 3.136201e-01
<GCONST> 8.940657e+01
<TRANSP> 5
 0.000000e+00 1.000000e+00 0.000000e+00 0.000000e+00 0.000000e+00
 0.000000e+00 7.833303e-01 2.166696e-01 0.000000e+00 0.000000e+00
 0.000000e+00 0.000000e+00 9.333994e-01 6.660064e-02 0.000000e+00
 0.000000e+00 0.000000e+00 0.000000e+00 8.792214e-01 1.207785e-01
 0.000000e+00 0.000000e+00 0.000000e+00 0.000000e+00 0.000000e+00
<ENDHMM>
~h "oy"
<BEGINHMM>
<NUMSTATES> 5
<STATE> 2
<MEAN> 25
 1.393850e+01 -3.925501e+00 -7.540502e+00 -6.813176e+00 -8.190627e+00 8.910909e+00 -4.415534e+00 -4.489475e+00 -9.474546e+00 5.482129e+00 2.650162e+00 -8.743031e-01 3.459624e-01 -8.178766e-01 1.165459e-01 6.639230e-02 -4.255038e-01 -1.399567e-01 -1.096643e+00 3.301903e-01 -2.183126e-01 9.199290e-01 -3.784990e-02 -3.433773e-01 5.747851e-01
<VARIANCE> 25
 1.491018e+01 4.044178e+01 2.314562e+01 1.880676e+01 5.116927e+01 4.599921e+01 4.715761e+01 3.385247e+01 1.892461e+01 3.362697e+01 1.928092e+01 1.112584e+01 2.304828e+00 1.496252e+00 2.567967e+00 3.415995e+00 2.854225e+00 4.010214e+00 3.667004e+00 1.726374e+00 2.221845e+00 2.143989e+00 2.535617e+00 1.836303e+00 7.259043e-01
<GCONST> 9.585975e+01
<STATE> 3
<MEAN> 25
 8.076441e+00 -1.096574e+01 7.425191e+00 -1.201877e+00 -1.228585e+01 -6.251691e+00 -1.324228e+01 3.124062e+00 -1.023552e+01 4.685775e+00 1.106998e+00 -4.585611e+00 -6.093324e-01 5.265825e-01 1.642465e+00 -3.205113e-02 -4.126143e-01 -6.300567e-01 5.202845e-01 1.271294e-01 -1.072237e-01 -1.467160e+00 -2.645861e-01 2.987563e-01 -3.383319e-01
<VARIANCE> 25
 5.732099e+00 1.147029e+01 6.165536e+01 3.023567e+01 1.843316e+01 3.462162e+01 3.764630e+01 4.090815e+01 1.807817e+01 3.372775e+01 2.486766e+01 1.072021e+01 4.674680e-01 1.281842e+00 2.749069e+00 2.813857e+00 2.632798e+00 6.823292e+00 1.695820e+00 3.609744e+00 2.090708e+00 1.641669e+00 2.151401e+00 1.065621e+00 2.964495e-01
<GCONST> 9.054117e+01
<STATE> 4
<MEAN> 25
 4.464246e+00 -2.952713e+00 9.883788e+00 -2.483554e-01 -7.971052e+00 -7.436055e+00 -7.316966e+00 -4.183149e+00 -6.909008e+00 -3.725210e+00 -4.451068e+00 -1.513498e+00 -1.251275e+00 2.149053e+00 -2.216090e+00 1.408523e+00 1.898383e+00 -1.005115e+00 2.275508e+00 -2.542670e+00 2.407430e+00 -1.818646e-02 -1.003971e+00 7.644746e-01 -5.524601e-01
<VARIANCE> 25
 1.686625e+01 5.720038e+01 3.879118e+01 2.177251e+01 1.571990e+01 2.734591e+01 2.383131e+01 5.537534e+01 7.619628e+01 1.951866e+01 1.638128e+01 3.340384e+01 5.621765e+00 1.148900e+00 1.215010e+00 3.891075e+00 7.925363e-01 2.701553e+00 4.202614e+00 5.463235e+00 3.521510e+00 1.506559e+00 1.024639e+00 4.459432e-01 5.525398e-01
<GCONST> 9.402199e+01
<TRANSP> 5
 0.000000e+00 1.000000e+00 0.000000e+00 0.000000e+00 0.000000e+00
 0.000000e+00 9.326064e-01 6.739358e-02 0.000000e+00 0.000000e+00
 0.000000e+00 0.000000e+00 9.105497e-01 8.945026e-02 0.000000e+00
 0.000000e+00 0.000000e+00 0.000000e+00 7.416783e-01 2.583217e-01
 0.000000e+00 0.000000e+00 0.000000e+00 0.000000e+00 0.000000e+00
<ENDHMM>
~h "sh"
<BEGINHMM>
<NUMSTATES> 5
<STATE> 2
<MEAN> 25
 -1.103320e+01 7.855856e-01 9.914601e+00 6.505767e-01 -2.738661e+00 2.562677e+00 1.023033e+00 -3.088982e+00 6.595176e+00 -4.952469e+00 3.628150e+00 6.835321e-01 -2.629544e+00 -1.254089e+00 -1.281124e-01 4.794303e-01 7.943463e-01 1.254879e+00 7.300028e-01 -1.819808e-01 1.694702e+00 2.355399e-01 -7.662864e-02 3.550332e-01 8.524270e-01
<VARIANCE> 25
 4.260719e+01 2.010932e+01 2.329658e+01 2.284565e+01 2.935486e+01 3.221212e+01 2.498405e+01 1.936213e+01 2.792301e+01 1.440156e+01 2.271218e+01 1.014642e+01 2.643481e+00 1.773585e+00 1.793864e+00 3.315680e+00 4.655807e+00 3.768001e+00 2.432530e+00 2.640016e+00 3.697508e+00 1.768697e+00 2.207150e+00 1.309463e+00 5.167599e-01
<GCONST> 9.377894e+01
<STATE> 3
<MEAN> 25
 -1.598464e+01 -6.981462e+00 1.052007e+01 3.126909e+00 -6.046095e+00 4.123403e+00 3.755701e+00 -7.695896e+00 8.993993e+00 -6.654441e-01 1.510727e+00 9.224644e-01 6.839833e-01 -1.919069e-01 5.373472e-02 1.870911e-01 -5.798588e-01 -6.060148e-01 1.930084e-01 -4.706773e-01 -5.571218e-01 3.621579e-01 -1.381804e-01 -1.479924e-01 -2.996606e-01
<VARIANCE> 25
 7.240693e+00 6.913311e+00 7.115663e+00 1.256676e+01 1.577960e+01 1.033576e+01 2.149669e+01 1.776118e+01 1.583531e+01 1.553859e+01 1.310144e+01 1.363419e+01 2.341771e+00 1.104427e+00 7.645802e-01 1.466171e+00 1.166646e+00 1.651696e+00 1.743225e+00 2.074381e+00 2.154128e+00 1.539172e+00 1.261408e+00 9.893824e-01 3.399427e-01
<GCONST> 7.943056e+01
<STATE> 4
<MEAN> 25
 -2.245281e+00 -3.014911e+00 1.003068e+01 -8.168333e-01 -8.676038e+00 -4.999402e+00 1.749627e+00 -6.368705e+00 -1.999135e+00 -9.674492e-01 2.721849e+00 -7.969955e-01 3.287575e+00 -5.970894e-02 -6.155104e-01 -1.547275e+00 -2.159137e-01 -1.848138e+00 -1.209915e+00 1.132376e+00 -2.617373e+00 5.548499e-02 2.456352e-01 2.722921e-02 4.713807e-02
<VARIANCE> 25
 4.745441e+01 1.965351e+01 1.975693e+01 4.464869e+01 3.232143e+01 3.111098e+01 1.768952e+01 1.715590e+01 3.250671e+01 1.058972e+01 1.773627e+01 8.699280e+00 3.618885e+00 2.570019e+00 1.905296e+00 2.456004e+00 4.026392e+00 3.036698e+00 1.561048e+00 2.286920e+00 5.242932e+00 1.172973e+00 2.134552e+00 1.220210e+00 1.051832e+00
<GCONST> 9.344976e+01
<TRANSP> 5
 0.000000e+00 1.000000e+00 0.000000e+00 0.000000e+00 0.000000e+00
 0.000000e+00 8.121651e-01 1.878349e-01 0.000000e+00 0.000000e+00
 0.000000e+00 0.000000e+00 8.841301e-01 1.158699e-01 0.000000e+00
 0.000000e+00 0.000000e+00 0.000000e+00 7.262586e-01 2.737414e-01
 0.000000e+00 0.000000e+00 0.000000e+00 0.000000e+00 0.000000e+00
<ENDHMM>
~h "sp"
<BEGINHMM>
<NUMSTATES> 3
<STATE> 2
~s "silst"
<TRANSP> 3
 0.000000e+00 2.637226e-01 7.362773e-01
 0.000000e+00 9.014702e-01 9.852971e-02
 0.000000e+00 0.000000e+00 0.000000e+00
<ENDHMM>
~h "th"
<BEGINHMM>
<NUMSTATES> 5
<STATE> 2
<MEAN> 25
 -8.547910e-01 2.805837e+00 -8.470271e-01 4.844649e+00 -1.594254e+00 -9.570962e-01 -1.518957e+00 -4.728208e+00 1.992697e+00 -3.280262e+00 -1.677102e+00 8.717607e-01 -7.010363e-01 2.771698e-01 -3.711733e-01 -7.290933e-03 3.092963e-01 1.138497e-01 -1.168499e-01 3.595784e-02 7.025449e-01 -2.107145e-01 1.398271e-01 1.826535e-01 -3.860601e-01
<VARIANCE> 25
 8.676565e+00 2.471293e+01 2.551854e+01 2.273300e+01 4.692516e+01 1.290053e+01 5.987765e+01 2.270368e+01 2.401264e+01 1.294078e+01 2.914295e+01 1.358987e+01 1.066447e+00 2.436328e+00 1.877096e+00 2.106246e+00 1.784526e+00 1.535635e+00 5.830153e+00 2.180304e+00 3.038047e+00 1.839433e+00 3.380088e+00 1.908978e+00 9.268925e-01
<GCONST> 9.240855e+01
<STATE> 3
<MEAN> 25
 -3.240965e+00 2.151011e+00 -1.239546e+00 2.039391e+00 1.927704e+00 1.375331e+00 -4.438730e-01 -1.981336e+00 2.854298e+00 -2.011100e+00 1.267676e+00 1.051524e+00 -3.210661e-02 2.008681e-01 1.912547e-01 -1.297030e-01 -1.714456e-01 1.340106e-01 5.180055e-01 2.743407e-01 6.860521e-02 -5.836265e-03 1.584889e-01 1.669840e-01 -2.070237e-01
<VARIANCE> 25
 7.092336e+00 8.696051e+00 7.876629e+00 9.709925e+00 2.068239e+01 9.994948e+00 1.723120e+01 2.251023e+01 1.536261e+01 1.356713e+01 1.379001e+01 1.189443e+01 6.653672e-01 1.227393e+00 1.389178e+00 1.844282e+00 2.782108e+00 1.266712e+00 2.904528e+00 3.037416e+00 1.584261e+00 1.676285e+00 1.094394e+00 1.420271e+00 1.893540e+00
<GCONST> 8.236890e+01
<STATE> 4
<MEAN> 25
 -7.924929e+00 1.643844e+00 -3.212489e+00 6.301507e+00 -1.369379e+00 1.371136e+00 3.037606e+00 -5.010979e+00 7.426219e+00 -1.823599e+00 7.549070e-01 6.921537e-01 -9.907848e-02 -1.896961e-01 -2.759819e-01 1.616650e-01 -6.728480e-02 6.112321e-02 3.599277e-01 -1.408025e-01 3.819755e-01 3.293561e-01 -3.553103e-02 1.318556e-01 5.985316e-01
<VARIANCE> 25
 9.943898e+00 1.139896e+01 1.272867e+01 1.325839e+01 1.562891e+01 1.179885e+01 1.588963e+01 2.003465e+01 1.265527e+01 1.339731e+01 2.080306e+01 1.789792e+01 1.096091e+00 1.135943e+00 1.278419e+00 1.364648e+00 1.400392e+00 1.520019e+00 1.986582e+00 1.919240e+00 1.494561e+00 1.786849e+00 2.150344e+00 2.052010e+00 8.497151e-01
<GCONST> 8.301249e+01
<TRANSP> 5
 0.000000e+00 1.000000e+00 0.000000e+00 0.000000e+00 0.000000e+00
 0.000000e+00 8.412018e-01 1.587982e-01 0.000000e+00 0.000000e+00
 0.000000e+00 0.000000e+00 8.237780e-01 1.762220e-01 0.000000e+00
 0.000000e+00 0.000000e+00 0.000000e+00 8.648775e-01 1.351226e-01
 0.000000e+00 0.000000e+00 0.000000e+00 0.000000e+00 0.000000e+00
<ENDHMM>
~h "uh"
<BEGINHMM>
<NUMSTATES> 5
<STATE> 2
<MEAN> 25
 2.743082e+00 2.138192e+00 -2.108315e+00 6.402652e+00 2.139931e+00 -2.397406e+00 -4.692733e+00 -8.731232e-01 3.469373e+00 2.193570e-01 -1.176168e+00 -6.726198e-01 7.650967e-01 5.751065e-01 -3.419449e-01 8.412004e-03 -4.977399e-01 1.196993e-01 -1.105580e+00 -1.142217e+00 -8.057203e-01 4.398786e-01 -3.672125e-02 -1.334225e-01 4.523183e-01
<VARIANCE> 25
 1.892383e+01 2.020211e+01 4.064942e+00 2.474547e+01 1.298311e+01 2.288656e+01 6.092733e+01 4.822203e+01 5.475561e+01 2.353366e+01 1.563763e+01 2.991940e+01 2.555768e-01 6.062499e-01 1.047040e+00 1.833026e+00 1.261275e+00 1.824772e+00 1.100777e+00 1.774994e+00 2.020380e+00 4.723951e+00 8.774769e-01 1.707802e+00 3.920550e-01
<GCONST> 8.550807e+01
<STATE> 3
<MEAN> 25
 7.597069e+00 4.787045e+00 -5.385715e+00 -1.337150e+00 -5.780042e+00 -2.636875e+00 -1.155269e+01 -1.004934e+01 -7.169723e+00 -1.376452e+00 1.283026e+00 -2.900556e+00 -8.264057e-02 -1.218946e-01 -1.466786e-01 -4.633196e-01 -5.771834e-01 1.045465e-01 -1.423712e-01 1.071625e-01 -3.769555e-02 2.091362e-01 2.506939e-01 -4.550956e-01 9.386537e-02
<VARIANCE> 25
 6.367829e+00 2.169715e+01 5.441192e+00 3.603263e+01 3.653096e+01 6.927143e+01 8.290219e+01 1.945144e+01 2.565242e+01 5.260639e+01 8.526773e+00 4.228786e+01 2.005853e-01 5.287474e-01 4.774519e-01 9.290605e-01 1.092049e+00 1.288420e+00 1.915964e+00 2.274762e+00 1.081019e+00 1.469829e+00 9.223220e-01 1.180633e+00 1.994473e-01
<GCONST> 8.216373e+01
<STATE> 4
<MEAN> 25
 5.887930e+00 2.053409e+00 -1.967460e+00 -2.983211e-01 -5.983184e+00 -6.365469e+00 -1.085413e+01 -4.183863e+00 -5.324966e+00 -1.070684e+00 3.479965e+00 -1.951799e+00 -1.463938e-01 2.722487e-01 5.618010e-01 3.234848e-01 8.203310e-01 -1.728283e-01 9.188612e-01 6.496108e-01 4.601705e-01 -7.017864e-01 -3.013582e-01 9.181994e-01 -1.349467e+00
<VARIANCE> 25
 1.030760e+01 1.519509e+01 2.862674e+01 1.979446e+01 5.467051e+01 7.587649e+01 7.890669e+01 2.860168e+01 6.196956e+01 4.535271e+01 2.971070e+01 6.126262e+01 7.770015e-01 1.785702e+00 1.422055e+00 8.419871e-01 4.328004e+00 4.080283e+00 6.045464e+00 2.683205e+00 3.339373e+00 1.007433e+00 4.819829e+00 5.233430e+00 1.678686e+00
<GCONST> 9.996468e+01
<TRANSP> 5
 0.000000e+00 1.000000e+00 0.000000e+00 0.000000e+00 0.000000e+00
 0.000000e+00 7.014291e-01 2.985709e-01 0.000000e+00 0.000000e+00
 0.000000e+00 0.000000e+00 9.073636e-01 9.263638e-02 0.000000e+00
 0.000000e+00 0.000000e+00 0.000000e+00 8.452514e-01 1.547486e-01
 0.000000e+00 0.000000e+00 0.000000e+00 0.000000e+00 0.000000e+00
<ENDHMM>
~h "uw"
<BEGINHMM>
<NUMSTATES> 5
<STATE> 2
<MEAN> 25
 -4.779083e+00 1.966528e-01 1.762538e+00 4.233842e+00 6.738527e+00 2.374178e+00 6.308290e+00 4.912521e+00 4.711241e+00 -6.353433e-01 2.193055e+00 3.079559e+00 -1.802310e-01 -9.934849e-02 -1.294754e-01 9.190158e-03 1.055732e-01 2.084157e-01 2.209657e-01 2.568144e-01 2.369218e-01 1.790370e-01 9.450187e-02 3.067961e-02 -1.734843e-01
<VARIANCE> 25
 2.039208e+01 1.014366e+01 1.018888e+01 8.521736e+00 3.187327e+01 2.690712e+01 5.293064e+01 2.817799e+01 3.010033e+01 2.046727e+01 1.559916e+01 2.740392e+01 4.070067e-01 9.094461e-01 9.607669e-01 7.742437e-01 1.273791e+00 1.601319e+00 1.546778e+00 2.178911e+00 1.402779e+00 2.136203e+00 1.613164e+00 1.224741e+00 2.550147e-01
<GCONST> 8.333585e+01
<STATE> 3
<MEAN> 25
 -1.020748e+00 1.092433e-01 1.481950e+00 1.731834e+00 -1.923755e+00 -1.668643e+00 -8.917936e-01 -1.194679e+00 -1.908832e+00 -1.197696e+00 2.361115e+00 -8.467256e-01 1.425604e+00 4.710960e-01 -1.488219e-01 -2.080670e-01 -1.181665e+00 -9.265736e-01 -1.902690e+00 -8.945566e-01 -1.344325e+00 -2.984652e-01 -3.079260e-02 -7.182078e-01 1.360376e+00
<VARIANCE> 25
 4.577887e+01 3.094178e+01 2.876697e+01 3.122943e+01 7.286723e+01 4.929729e+01 7.496124e+01 4.414636e+01 6.170276e+01 2.755757e+01 2.704577e+01 3.094585e+01 2.967600e+00 4.146951e+00 2.061893e+00 4.705287e+00 3.151275e+00 2.893862e+00 4.605735e+00 6.469338e+00 4.667694e+00 2.993848e+00 2.906172e+00 2.546201e+00 4.004506e+00
<GCONST> 1.068761e+02
<STATE> 4
<MEAN> 25
 7.855921e+00 5.972217e+00 -5.124664e+00 -4.518735e-01 -3.294249e+00 7.111685e-01 -1.012895e+01 -6.615457e+00 -9.588922e+00 1.405318e+00 4.894944e+00 -5.920438e+00 -7.139412e-02 1.171912e-02 2.545277e-02 4.048045e-02 1.762066e-01 1.160568e-01 3.744247e-01 2.099631e-02 2.694445e-01 -5.409960e-02 -1.948112e-01 2.593667e-01 -2.672162e-01
<VARIANCE> 25
 7.735757e+00 2.092056e+01 2.640764e+01 2.959803e+01 4.857645e+01 4.066258e+01 3.104230e+01 2.767371e+01 3.092865e+01 2.703744e+01 3.422790e+01 2.639235e+01 2.325395e-01 8.790088e-01 1.131766e+00 1.753507e+00 1.667605e+00 2.377309e+00 2.531630e+00 1.977769e+00 2.136098e+00 1.489703e+00 2.227849e+00 1.504853e+00 3.647225e-01
<GCONST> 8.901878e+01
<TRANSP> 5
 0.000000e+00 1.000000e+00 0.000000e+00 0.000000e+00 0.000000e+00
 0.000000e+00 8.329443e-01 1.670557e-01 0.000000e+00 0.000000e+00
 0.000000e+00 0.000000e+00 7.538260e-01 2.461740e-01 0.000000e+00
 0.000000e+00 0.000000e+00 0.000000e+00 9.136321e-01 8.636795e-02
 0.000000e+00 0.000000e+00 0.000000e+00 0.000000e+00 0.000000e+00
<ENDHMM>
~h "zh"
<BEGINHMM>
<NUMSTATES> 5
<STATE> 2
<MEAN> 25
 4.730603e-01 7.712549e+00 7.235316e+00 -4.717806e+00 -1.194841e+01 1.349814e+00 -5.678139e+00 -4.341914e+00 -4.255191e+00 -4.996474e+00 4.507101e+00 -9.705446e+00 -2.453134e-01 5.117758e-01 -1.267244e-02 4.076277e-02 4.071693e-01 -2.265338e-01 1.463423e-01 -8.004650e-02 3.184538e-01 -1.577786e-01 -2.328832e-01 1.090267e-01 -2.427996e-01
<VARIANCE> 25
 2.030951e+00 1.713977e+01 3.867827e+00 6.711547e+00 8.415858e+00 2.097549e+01 2.827254e+01 1.830219e+01 2.062769e+01 1.884125e+01 1.208508e+01 2.687514e+01 4.339588e-01 6.355056e-01 6.483706e-01 7.915429e-01 1.535762e+00 1.068362e+00 1.310319e+00 1.461212e+00 1.498877e+00 1.105756e+00 8.342699e-01 2.130578e+00 2.020856e-01
<GCONST> 7.459245e+01
<STATE> 3
<MEAN> 25
 -5.900286e+00 4.711553e+00 7.228668e+00 5.342717e-01 -3.453208e+00 2.127069e+00 8.891772e-01 -7.158296e+00 2.360328e+00 -8.116650e-01 -1.509344e-01 4.785743e-01 2.618004e-01 -5.365311e-01 -3.928817e-02 2.834569e-03 -7.797377e-02 -1.245628e-01 9.883288e-02 9.276173e-02 -1.506917e-01 1.690924e-01 1.120342e-01 1.295279e-01 9.593375e-02
<VARIANCE> 25
 5.361118e+01 4.067591e+01 1.705921e+01 3.051492e+01 3.571737e+01 4.063919e+01 2.029828e+01 2.041167e+01 6.585872e+01 1.702853e+01 1.550165e+01 1.367738e+01 4.437693e+00 1.669789e+00 1.244463e+00 2.475840e+00 3.767293e+00 3.381414e+00 1.639915e+00 2.016495e+00 4.192588e+00 2.060938e+00 1.510654e+00 1.209946e+00 2.990051e-01
<GCONST> 9.399640e+01
<STATE> 4
<MEAN> 25
 8.076987e+00 -7.244829e+00 2.718388e-01 -2.034529e+00 -7.739613e+00 -5.008864e+00 -7.508090e-01 7.026083e-01 -5.002023e+00 4.319119e+00 -2.022852e+00 1.539727e+00 4.002657e-01 -7.809564e-01 -9.085277e-01 4.060341e-01 9.534299e-01 1.081894e-01 -1.479141e-01 1.053534e+00 -2.000684e-01 2.797115e-01 -3.459473e-01 5.727793e-02 -4.165781e-02
<VARIANCE> 25
 3.228443e+00 2.910813e+01 1.825431e+01 1.264071e+01 2.389764e+01 1.044817e+01 1.192132e+01 1.926729e+01 1.317892e+01 3.328789e+01 3.771418e+01 1.130763e+01 6.488565e-01 8.783232e-01 4.592855e-01 7.436919e-01 1.345063e+00 8.014780e-01 1.089781e+00 2.100106e+00 1.200331e+00 1.062169e+00 1.361055e+00 1.170216e+00 1.862922e-01
<GCONST> 7.732207e+01
<TRANSP> 5
 0.000000e+00 1.000000e+00 0.000000e+00 0.000000e+00 0.000000e+00
