~o
<STREAMINFO> 1 25
<VECSIZE> 25<NULLD><MFCC_D_N_Z_0><DIAGC>
~s "silst"
<MEAN> 25
 -8.948906e+00 -2.590975e+00 -1.155570e+00 -5.769882e-01 4.997264e+00 -7.244038e-01 4.549513e+00 2.217266e+00 4.367620e+00 -2.254773e+00 3.284170e-01 2.606392e-01 -1.085667e-02 -2.678333e-02 -3.896495e-02 -2.230834e-02 -4.625972e-02 -5.113612e-02 -5.009690e-02 -3.386270e-02 -3.558439e-02 -3.590043e-02 -3.590550e-02 -3.610203e-02 -4.541875e-03
<VARIANCE> 25
 2.574718e+00 4.077722e+00 6.852226e+00 7.426197e+00 9.257517e+00 1.104213e+01 1.314246e+01 1.186205e+01 1.390654e+01 1.324693e+01 1.328998e+01 1.126665e+01 1.151762e-01 2.538844e-01 4.264824e-01 6.206259e-01 8.793817e-01 1.101635e+00 1.316499e+00 1.420381e+00 1.383952e+00 1.434845e+00 1.347151e+00 1.192492e+00 2.970305e-02
<GCONST> 6.550542e+01
~h "b"
<BEGINHMM>
<NUMSTATES> 5
<STATE> 2
<MEAN> 25
 -2.508912e+00 3.845334e+00 2.104099e+00 2.931632e+00 5.831326e+00 1.306016e+00 4.670977e+00 1.985368e+00 2.787066e+00 -1.122366e+00 1.146902e+00 1.239483e+00 6.537940e-01 6.955000e-01 4.567137e-01 1.584243e-01 7.297746e-02 1.187094e-03 -1.727250e-01 -2.401176e-01 -2.589651e-01 -3.398721e-01 -3.497575e-01 -1.449874e-01 -7.481311e-02
<VARIANCE> 25
 4.000984e+01 2.504264e+01 1.497955e+01 1.978581e+01 2.073103e+01 3.003864e+01 3.034638e+01 2.870641e+01 2.704899e+01 1.897231e+01 2.012626e+01 2.095893e+01 2.902133e+00 1.896365e+00 1.541398e+00 1.542764e+00 2.284015e+00 2.123301e+00 2.408833e+00 2.294278e+00 2.126584e+00 2.325291e+00 2.379356e+00 1.926391e+00 1.540121e+00
<GCONST> 9.345023e+01
<STATE> 3
<MEAN> 25
 5.546131e+00 1.060032e+01 4.744000e+00 2.577573e+00 4.968057e+00 -9.111737e-01 1.350197e+00 -1.309552e+00 2.715063e-01 -3.778308e+00 -2.463391e+00 -2.002313e+00 -1.539544e-01 -2.031546e-02 3.401642e-01 6.134927e-01 2.829179e-01 4.261311e-01 -5.360997e-02 -1.643711e-01 2.397276e-01 -1.912138e-02 -1.804931e-02 -5.679183e-02 1.304053e-01
<VARIANCE> 25
 2.225864e+01 1.074091e+01 1.241325e+01 1.480984e+01 1.605447e+01 1.594559e+01 1.475103e+01 1.641980e+01 1.368997e+01 1.523536e+01 1.400126e+01 1.422347e+01 1.416142e+00 1.252518e+00 7.317135e-01 1.175772e+00 1.160395e+00 1.345516e+00 1.214582e+00 1.441834e+00 1.379702e+00 1.066009e+00 1.328979e+00 1.153455e+00 6.457900e-01
<GCONST> 8.011124e+01
<STATE> 4
<MEAN> 25
 3.864508e+00 3.267715e+00 3.239561e+00 6.946382e+00 3.017110e+00 6.424592e-01 -1.128905e+00 -4.193061e+00 1.150048e+00 -5.517103e-01 5.122808e-02 -3.162558e+00 3.876537e-01 -3.306188e+00 -1.425468e+00 -5.573784e-01 -2.600223e+00 -2.215046e-02 -1.900923e+00 -7.363219e-01 -5.653986e-01 2.262506e+00 1.676556e+00 -2.545691e-01 3.211819e+00
<VARIANCE> 25
 2.318360e+01 4.381979e+01 2.237848e+01 3.189841e+01 3.573265e+01 2.688972e+01 4.526107e+01 3.222913e+01 1.912565e+01 4.250920e+01 2.515079e+01 1.342745e+01 2.220343e+00 3.335147e+00 4.345902e+00 4.410100e+00 3.752804e+00 3.622803e+00 4.669946e+00 4.167895e+00 2.913745e+00 3.986783e+00 3.784529e+00 2.111537e+00 1.954331e+00
<GCONST> 1.018516e+02
<TRANSP> 5
 0.000000e+00 1.000000e+00 0.000000e+00 0.000000e+00 0.000000e+00
 0.000000e+00 8.198731e-01 1.801269e-01 0.000000e+00 0.000000e+00
 0.000000e+00 0.000000e+00 8.079684e-01 1.920315e-01 0.000000e+00
 0.000000e+00 0.000000e+00 0.000000e+00 6.347592e-01 3.652408e-01
 0.000000e+00 0.000000e+00 0.000000e+00 0.000000e+00 0.000000e+00
<ENDHMM>
~h "d"
<BEGINHMM>
<NUMSTATES> 5
<STATE> 2
<MEAN> 25
 -4.394685e+00 1.745008e+00 1.016224e+00 2.946332e+00 7.163715e+00 2.931454e+00 5.595700e+00 5.001020e+00 5.157709e+00 -1.820315e-01 1.821270e+00 2.599387e+00 -1.280056e-01 4.642484e-02 2.787847e-02 -3.801633e-02 1.457038e-01 2.398162e-01 2.184626e-01 2.430322e-01 2.193785e-01 1.346038e-01 1.014695e-01 -5.497355e-02 -2.193786e-01
<VARIANCE> 25
 1.502500e+01 9.361401e+00 1.145458e+01 1.135318e+01 1.951676e+01 2.604901e+01 2.546395e+01 1.822788e+01 2.148239e+01 2.148084e+01 1.811149e+01 1.406290e+01 8.257287e-01 6.982707e-01 8.866609e-01 1.186144e+00 1.243410e+00 1.510305e+00 1.685314e+00 1.546236e+00 1.932946e+00 1.738468e+00 1.633403e+00 1.423849e+00 4.087251e-01
<GCONST> 8.205615e+01
<STATE> 3
<MEAN> 25
 -1.552097e-01 5.007106e+00 2.657554e+00 2.234157e+00 3.430110e+00 -7.751489e-01 3.624372e+00 3.985683e+00 4.096416e+00 -2.865465e+00 -1.245653e+00 -3.817673e-01 3.065332e-01 4.608259e-01 4.289182e-01 -2.307174e-02 -2.297193e-01 -1.757503e-01 -4.381516e-01 -4.053594e-01 -1.213391e-02 -9.726327e-02 -3.977294e-02 -3.497679e-01 9.963968e-02
<VARIANCE> 25
 4.173368e+01 1.820976e+01 1.331148e+01 9.725857e+00 2.728851e+01 3.516665e+01 3.002951e+01 2.587469e+01 2.090252e+01 2.301561e+01 2.710001e+01 1.598585e+01 1.471170e+00 1.354025e+00 9.029902e-01 1.018380e+00 1.680836e+00 1.712024e+00 2.278611e+00 1.484582e+00 1.640632e+00 1.370164e+00 1.679100e+00 1.203876e+00 6.789825e-01
<GCONST> 8.722054e+01
<STATE> 4
<MEAN> 25
 4.328256e+00 5.828414e+00 4.497561e+00 2.815127e-01 -3.720473e-01 -3.315600e+00 -3.514930e-01 1.426885e+00 2.793351e+00 -3.285021e+00 -2.535828e+00 -1.057362e+00 3.684124e-01 -1.044416e+00 -7.370210e-02 -2.905339e-01 -1.032246e+00 -3.441323e-01 -9.887938e-01 -3.843407e-01 -3.184107e-01 6.735935e-01 9.316664e-02 5.338672e-02 1.657414e+00
<VARIANCE> 25
 2.877937e+01 6.016788e+01 1.880425e+01 1.962200e+01 3.245025e+01 2.870967e+01 4.002460e+01 3.224846e+01 2.153277e+01 2.386202e+01 2.088484e+01 1.336996e+01 4.113050e+00 6.939698e+00 2.741073e+00 2.216272e+00 3.516583e+00 3.593413e+00 4.181664e+00 4.830151e+00 2.468931e+00 3.247162e+00 3.845662e+00 1.651903e+00 3.013049e+00
<GCONST> 1.009194e+02
<TRANSP> 5
 0.000000e+00 1.000000e+00 0.000000e+00 0.000000e+00 0.000000e+00
 0.000000e+00 8.819755e-01 1.180245e-01 0.000000e+00 0.000000e+00
 0.000000e+00 0.000000e+00 5.262918e-01 4.737082e-01 0.000000e+00
 0.000000e+00 0.000000e+00 0.000000e+00 8.228966e-01 1.771034e-01
 0.000000e+00 0.000000e+00 0.000000e+00 0.000000e+00 0.000000e+00
<ENDHMM>
~h "f"
<BEGINHMM>
<NUMSTATES> 5
<STATE> 2
<MEAN> 25
 -2.725201e+00 -1.307097e+00 -1.353025e+00 5.525836e+00 2.669894e+00 4.148448e-01 2.440217e+00 1.142431e+00 4.278869e+00 -2.940247e+00 -2.314960e+00 3.606785e-01 -1.025816e+00 -3.255945e-01 -5.555716e-01 2.501557e-01 1.011750e-01 1.152653e+00 4.198232e-01 2.485791e-01 7.818480e-01 3.560603e-01 2.437635e-01 -2.334735e-01 -1.759888e-01
<VARIANCE> 25
 1.772553e+01 1.730268e+01 2.719748e+01 2.014315e+01 4.725338e+01 4.017266e+01 2.417817e+01 2.611218e+01 1.547213e+01 1.730382e+01 1.540302e+01 1.721959e+01 1.590669e+00 2.000013e+00 1.671545e+00 1.829060e+00 1.780171e+00 2.550979e+00 1.948678e+00 2.355489e+00 2.262612e+00 1.865793e+00 1.801611e+00 1.477250e+00 1.054651e+00
<GCONST> 9.093016e+01
<STATE> 3
<MEAN> 25
 -7.987157e+00 -2.882339e+00 -3.955944e+00 7.125088e+00 -7.722144e-01 4.633728e+00 1.743477e+00 -1.553087e+00 4.820879e+00 3.742049e-02 1.238252e+00 -4.159509e-01 -1.456337e-01 -1.276982e-01 -2.570386e-01 1.606512e-01 -1.849227e-01 7.649774e-02 -3.775460e-01 -4.145453e-01 -1.301836e-01 -8.071262e-03 1.764985e-01 -1.150435e-01 3.693872e-01
<VARIANCE> 25
 4.686064e+00 1.090399e+01 1.052767e+01 1.688714e+01 1.535816e+01 1.680921e+01 2.520197e+01 2.493534e+01 2.117166e+01 1.506391e+01 1.371055e+01 1.545796e+01 4.896156e-01 8.075261e-01 6.140775e-01 9.823882e-01 1.271218e+00 1.591328e+00 1.997187e+00 1.664988e+00 1.716605e+00 1.596610e+00 1.493825e+00 1.592112e+00 5.450652e-01
<GCONST> 7.991981e+01
<STATE> 4
<MEAN> 25
 -9.109216e-01 -4.263108e+00 -5.512059e+00 3.193460e+00 -6.616347e-01 3.179450e+00 1.924185e-01 -3.984828e+00 2.985209e+00 1.567836e+00 9.744176e-01 -3.001060e+00 3.031718e+00 6.119975e-01 -3.271323e-01 -2.205234e+00 -5.574141e-02 -1.720339e-01 4.264691e-01 7.080578e-02 -1.933166e+00 8.038512e-01 2.531264e-01 -1.602405e-01 8.465185e-01
<VARIANCE> 25
 6.488022e+01 2.022496e+01 1.196990e+01 3.666088e+01 1.132215e+01 1.402003e+01 1.671926e+01 1.846176e+01 4.147388e+01 1.823103e+01 2.100449e+01 1.804774e+01 3.221178e+00 2.647485e+00 1.078440e+00 2.149840e+00 2.082355e+00 1.744879e+00 1.680652e+00 1.938071e+00 6.253093e+00 1.946144e+00 1.491183e+00 1.694928e+00 8.764802e-01
<GCONST> 9.132556e+01
<TRANSP> 5
 0.000000e+00 1.000000e+00 0.000000e+00 0.000000e+00 0.000000e+00
 0.000000e+00 8.084879e-01 1.915121e-01 0.000000e+00 0.000000e+00
 0.000000e+00 0.000000e+00 8.937008e-01 1.062993e-01 0.000000e+00
 0.000000e+00 0.000000e+00 0.000000e+00 7.536545e-01 2.463455e-01
 0.000000e+00 0.000000e+00 0.000000e+00 0.000000e+00 0.000000e+00
<ENDHMM>
~h "g"
<BEGINHMM>
<NUMSTATES> 5
<STATE> 2
<MEAN> 25
 1.730011e-01 2.377742e+00 2.748303e+00 2.691741e-02 -1.659759e+00 -2.751299e+00 1.158279e+00 1.402030e+00 -7.901368e-01 1.187405e-01 -1.727470e+00 -2.739706e+00 1.756636e+00 1.553404e+00 6.838490e-01 -7.965917e-01 -1.534429e+00 -1.540459e+00 -6.078318e-01 -9.015636e-01 -1.160103e+00 -6.713174e-01 -8.191857e-01 -9.624088e-01 2.836846e-01
<VARIANCE> 25
 3.088541e+01 5.509179e+01 2.785842e+01 1.923683e+01 1.039119e+02 5.855130e+01 3.586629e+01 2.809496e+01 6.478970e+01 3.966506e+01 1.698157e+01 2.430989e+01 2.622858e+00 3.763860e+00 2.308876e+00 1.512322e+00 6.424359e+00 2.544047e+00 2.275585e+00 4.032420e+00 4.537258e+00 2.796383e+00 7.942783e-01 2.369470e+00 5.792269e+00
<GCONST> 1.026537e+02
<STATE> 3
<MEAN> 25
 3.301178e+00 7.479602e+00 5.774276e+00 1.249333e+00 1.379019e-01 -1.516960e+00 8.453676e-01 -2.527797e+00 5.737782e-01 -1.749727e+00 -2.329300e+00 -1.958915e+00 -6.675321e-01 -7.933147e-01 4.423485e-01 3.784007e-01 -1.662752e-01 6.468674e-01 -4.045244e-01 -5.608456e-01 9.881284e-02 4.009648e-01 9.067243e-01 3.013088e-01 1.127619e+00
<VARIANCE> 25
 4.319222e+01 6.596105e+01 1.618213e+01 1.702133e+01 2.842050e+01 4.075082e+01 3.182231e+01 3.397657e+01 2.652875e+01 1.649076e+01 1.940437e+01 1.300796e+01 4.112392e+00 7.379120e+00 2.495293e+00 2.273043e+00 6.973852e+00 2.348197e+00 4.094122e+00 3.102225e+00 4.180254e+00 2.788435e+00 1.706272e+00 2.233213e+00 4.712026e+00
<GCONST> 1.010019e+02
<STATE> 4
<MEAN> 25
 3.394056e+00 -4.445605e-01 4.768764e+00 1.335925e+00 -1.206930e+01 -3.707011e+00 -7.573479e+00 -3.092043e+00 -6.348630e+00 5.889728e+00 4.097238e+00 -3.645105e+00 4.240801e-01 -2.213623e-01 -4.544713e-01 -2.282067e-01 -4.734909e-01 -1.560470e-01 -1.398914e-01 3.223853e-01 -1.930929e-01 4.570334e-01 -1.120878e-01 -1.788630e-01 1.916153e-01
<VARIANCE> 25
 9.516074e+00 1.502357e+01 6.545640e+01 4.358960e+01 4.931554e+01 2.943649e+01 3.688013e+01 1.325819e+01 3.250438e+01 2.959481e+01 3.290458e+01 2.682617e+01 6.176388e-01 1.384949e+00 2.021322e+00 6.691399e-01 4.225863e+00 2.116799e+00 2.873290e+00 1.600751e+00 3.326569e+00 2.598327e+00 2.833457e+00 3.366790e+00 1.235435e+00
<GCONST> 9.447701e+01
<TRANSP> 5
 0.000000e+00 1.000000e+00 0.000000e+00 0.000000e+00 0.000000e+00
 0.000000e+00 7.858821e-01 2.141180e-01 0.000000e+00 0.000000e+00
 0.000000e+00 0.000000e+00 8.869602e-01 1.130398e-01 0.000000e+00
 0.000000e+00 0.000000e+00 0.000000e+00 8.945532e-01 1.054467e-01
 0.000000e+00 0.000000e+00 0.000000e+00 0.000000e+00 0.000000e+00
<ENDHMM>
~h "k"
<BEGINHMM>
<NUMSTATES> 5
<STATE> 2
<MEAN> 25
 -4.775485e+00 2.467963e+00 1.568800e+00 3.499982e+00 6.822975e+00 2.564123e+00 5.807428e+00 4.742602e+00 5.577883e+00 1.175639e-01 1.662784e+00 2.783860e+00 -1.988218e-01 -1.405321e-01 -5.653799e-02 5.814002e-02 2.115280e-01 2.381498e-01 2.107844e-01 2.889880e-01 3.197054e-01 1.612188e-01 1.123704e-01 3.180301e-02 -2.206254e-01
<VARIANCE> 25
 7.543319e+00 9.527082e+00 1.079307e+01 1.625300e+01 1.684566e+01 2.090990e+01 2.037413e+01 1.749555e+01 2.066207e+01 1.982641e+01 1.790891e+01 1.611693e+01 4.864510e-01 7.701271e-01 1.154272e+00 1.154209e+00 1.385301e+00 1.884180e+00 1.907595e+00 1.967755e+00 1.923032e+00 2.002723e+00 1.912889e+00 1.718519e+00 3.249649e-01
<GCONST> 8.181159e+01
<STATE> 3
<MEAN> 25
 -5.242729e+00 6.880270e-01 8.765426e-01 3.152195e+00 6.371154e+00 2.595815e+00 6.608005e+00 3.895417e+00 6.344242e+00 2.846254e-01 2.755027e+00 3.010324e+00 4.544911e-01 -1.016647e+00 -9.658310e-01 -3.627030e-01 -7.635337e-01 -6.870574e-01 -1.375528e+00 -1.156878e+00 -3.145064e-01 6.044413e-01 3.855599e-01 7.539649e-02 1.354432e+00
<VARIANCE> 25
 1.007342e+01 9.285331e+00 1.214503e+01 1.473012e+01 2.102383e+01 2.541634e+01 2.604802e+01 2.532988e+01 2.168764e+01 1.841568e+01 1.572838e+01 1.919725e+01 1.339743e+00 2.901981e+00 3.500821e+00 2.570347e+00 3.375881e+00 4.154500e+00 4.845862e+00 4.165695e+00 2.802545e+00 2.716668e+00 2.503307e+00 2.182553e+00 3.729375e+00
<GCONST> 9.439028e+01
<STATE> 4
<MEAN> 25
 -2.391484e-01 -4.710071e+00 -2.143268e+00 1.339728e+00 6.388748e-01 -6.599356e-01 -1.042753e+00 -2.356831e+00 -3.604147e-01 3.448578e+00 1.978914e+00 -1.072550e-01 7.776362e-01 -3.735446e-01 -2.682965e-01 4.056975e-03 -5.113432e-01 -5.207716e-02 -3.960847e-01 -5.740624e-01 -7.602522e-01 9.998593e-02 -1.479064e-01 -5.906100e-01 1.438427e+00
<VARIANCE> 25
 3.684742e+01 4.159944e+01 8.092034e+01 3.594956e+01 8.630435e+01 4.786199e+01 4.629214e+01 4.191856e+01 4.588020e+01 3.535798e+01 2.696886e+01 3.150027e+01 2.500502e+00 4.417941e+00 5.679700e+00 3.520807e+00 4.717339e+00 3.877750e+00 4.718130e+00 4.046503e+00 5.729815e+00 4.435186e+00 2.679955e+00 2.766628e+00 7.214427e+00
<GCONST> 1.097588e+02
<TRANSP> 5
 0.000000e+00 1.000000e+00 0.000000e+00 0.000000e+00 0.000000e+00
 0.000000e+00 8.952114e-01 1.047887e-01 0.000000e+00 0.000000e+00
 0.000000e+00 0.000000e+00 5.458579e-01 4.541421e-01 0.000000e+00
 0.000000e+00 0.000000e+00 0.000000e+00 8.154582e-01 1.845418e-01
 0.000000e+00 0.000000e+00 0.000000e+00 0.000000e+00 0.000000e+00
<ENDHMM>
~h "l"
<BEGINHMM>
<NUMSTATES> 5
<STATE> 2
<MEAN> 25
 7.269040e+00 -1.755159e+00 -6.864545e+00 -7.142167e+00 3.253569e-01 4.368111e+00 -1.018416e+01 -4.977709e+00 5.494209e-01 6.977010e+00 -2.904058e+00 -2.213565e+00 6.725214e-01 8.715937e-01 -6.349839e-01 -1.978580e+00 3.422215e-01 9.555547e-01 -1.827555e-01 -1.107153e+00 -9.063630e-01 5.636243e-01 3.706367e-01 9.073370e-01 -2.052728e-01
<VARIANCE> 25
 8.555786e+00 2.854736e+01 1.308777e+01 3.362856e+01 3.298877e+01 2.703195e+01 6.072015e+01 3.015904e+01 3.066465e+01 3.486137e+01 3.186432e+01 2.434014e+01 8.798142e-01 9.360154e-01 1.144338e+00 2.238100e+00 2.209972e+00 2.542351e+00 3.368562e+00 2.389903e+00 2.347060e+00 2.083756e+00 1.659405e+00 1.647829e+00 1.009290e+00
<GCONST> 9.262679e+01
<STATE> 3
<MEAN> 25
 9.018207e+00 4.255218e+00 -7.469179e+00 -1.551282e+01 -6.448545e-01 5.660663e+00 -7.072695e+00 -5.820143e+00 -5.500578e+00 6.276821e+00 -3.276928e+00 4.815673e+00 -3.695674e-05 3.476797e-01 6.113956e-02 -1.010290e-01 3.046726e-02 -3.027629e-01 6.635100e-02 -7.668282e-02 -9.849674e-02 -1.911694e-01 -7.890909e-02 2.008356e-01 -3.596863e-01
<VARIANCE> 25
 5.038672e+00 1.807189e+01 1.143888e+01 2.176003e+01 2.326233e+01 2.930861e+01 3.582259e+01 2.310529e+01 1.665551e+01 2.875522e+01 2.263589e+01 1.397779e+01 1.714181e-01 8.368939e-01 5.283471e-01 1.081228e+00 7.985562e-01 1.326377e+00 1.781482e+00 1.318532e+00 1.101125e+00 1.436325e+00 8.433000e-01 1.108086e+00 3.605212e-01
<GCONST> 7.892772e+01
<STATE> 4
<MEAN> 25
 5.605174e+00 3.045107e+00 -4.630303e+00 -6.969671e+00 5.792353e-01 7.102685e-01 -4.701148e+00 -5.157783e+00 -1.393597e+00 2.127007e+00 -2.625215e+00 1.321496e+00 -9.833537e-01 -6.555698e-01 6.291805e-01 1.717682e+00 1.171792e-02 -5.275106e-01 6.331061e-01 9.869410e-01 8.131973e-01 -6.806405e-01 9.772491e-02 -4.638431e-01 -4.589315e-01
<VARIANCE> 25
 1.627955e+01 2.546958e+01 1.633390e+01 4.057596e+01 3.457064e+01 3.241682e+01 6.094700e+01 3.305481e+01 2.484741e+01 5.292102e+01 2.548970e+01 2.322354e+01 7.654634e-01 1.465630e+00 1.301091e+00 2.418159e+00 2.523535e+00 3.165532e+00 2.619268e+00 3.035478e+00 2.501964e+00 3.245366e+00 2.030838e+00 2.018791e+00 1.381578e+00
<GCONST> 9.590654e+01
<TRANSP> 5
 0.000000e+00 1.000000e+00 0.000000e+00 0.000000e+00 0.000000e+00
 0.000000e+00 7.421639e-01 2.578361e-01 0.000000e+00 0.000000e+00
 0.000000e+00 0.000000e+00 8.924295e-01 1.075705e-01 0.000000e+00
 0.000000e+00 0.000000e+00 0.000000e+00 8.258789e-01 1.741211e-01
 0.000000e+00 0.000000e+00 0.000000e+00 0.000000e+00 0.000000e+00
<ENDHMM>
~h "m"
<BEGINHMM>
<NUMSTATES> 5
<STATE> 2
<MEAN> 25
 2.353616e+00 2.490737e+00 -3.097259e+00 4.798356e-01 4.276921e+00 -1.239887e+00 -1.748012e-02 -1.610250e+00 -4.446059e-02 -2.270600e+00 -9.931643e-01 -2.900916e+00 -1.260587e-02 2.336832e-01 -4.382256e-02 -3.922024e-02 8.136621e-02 4.738998e-02 1.995718e-01 2.122440e-02 1.246792e-01 -1.199398e-01 -3.827192e-02 -2.029841e-01 -2.266592e-01
<VARIANCE> 25
 4.094233e+01 1.744243e+01 1.638853e+01 1.180451e+01 3.967486e+01 3.699723e+01 1.797894e+01 1.728500e+01 2.426110e+01 1.368805e+01 1.558185e+01 2.616097e+01 5.233676e-01 9.605844e-01 1.240632e+00 7.855054e-01 1.308054e+00 1.664526e+00 1.512918e+00 1.570672e+00 1.331942e+00 1.367745e+00 1.011415e+00 1.405485e+00 4.269574e-01
<GCONST> 8.366003e+01
<STATE> 3
<MEAN> 25
 6.020139e+00 5.233140e+00 -2.459371e+00 -1.080250e+00 -8.439407e-02 -4.945976e+00 -3.215097e-01 -1.800011e+00 -2.298454e+00 -4.170004e+00 -1.264360e+00 -3.642631e+00 5.480042e-01 1.212754e-01 5.910560e-02 7.691660e-02 -7.075324e-01 -4.116670e-01 -3.097136e-01 -1.369302e-01 -8.893201e-02 -3.203992e-02 1.192152e-01 1.663156e-01 -4.541053e-02
<VARIANCE> 25
 2.409194e+01 2.125777e+01 1.368187e+01 1.205527e+01 2.398149e+01 3.713494e+01 2.055883e+01 2.125927e+01 2.680813e+01 1.736395e+01 1.493656e+01 1.839535e+01 1.248423e+00 2.188592e+00 8.607736e-01 1.104495e+00 1.799240e+00 2.125181e+00 1.871103e+00 1.608364e+00 9.559944e-01 1.478883e+00 1.408639e+00 1.033737e+00 1.686261e+00
<GCONST> 8.656419e+01
<STATE> 4
<MEAN> 25
 7.321593e+00 3.810756e+00 -1.342100e+00 -2.182105e+00 -2.798428e+00 -5.525633e+00 -2.919672e+00 -2.620452e+00 -3.282840e+00 -3.346050e+00 -1.846108e+00 -2.298672e+00 -4.020692e-01 -8.026038e-01 8.693349e-01 3.342142e-01 -6.846728e-01 3.270224e-02 -9.769615e-02 3.260508e-01 -3.678873e-01 1.771786e-02 1.107022e-03 5.122729e-01 5.839614e-01
<VARIANCE> 25
 1.928717e+01 4.006278e+01 2.630644e+01 3.216217e+01 3.449727e+01 2.962326e+01 2.268232e+01 2.135690e+01 2.650363e+01 1.338011e+01 1.661986e+01 1.167359e+01 8.162080e-01 3.949642e+00 2.427708e+00 1.872941e+00 3.095911e+00 1.713041e+00 2.105011e+00 2.067355e+00 2.477312e+00 1.278321e+00 1.506115e+00 1.407882e+00 2.010113e+00
<GCONST> 9.201527e+01
<TRANSP> 5
 0.000000e+00 1.000000e+00 0.000000e+00 0.000000e+00 0.000000e+00
 0.000000e+00 8.618441e-01 1.381559e-01 0.000000e+00 0.000000e+00
 0.000000e+00 0.000000e+00 5.999290e-01 4.000710e-01 0.000000e+00
 0.000000e+00 0.000000e+00 0.000000e+00 6.377290e-01 3.622710e-01
 0.000000e+00 0.000000e+00 0.000000e+00 0.000000e+00 0.000000e+00
<ENDHMM>
~h "n"
<BEGINHMM>
<NUMSTATES> 5
<STATE> 2
<MEAN> 25
 7.571216e+00 3.018328e+00 -1.517564e+00 -2.392999e+00 -1.066767e+00 1.382245e+00 3.573255e-02 -4.401138e+00 -1.869279e+00 -4.782021e+00 -5.115209e+00 -1.806849e+00 1.246694e-01 6.840196e-01 -1.639619e-01 1.598100e-01 2.645642e-01 1.467877e-01 6.669662e-01 -2.749773e-01 3.027977e-01 -3.029094e-01 5.657415e-02 -1.861006e-01 -5.770416e-01
<VARIANCE> 25
 3.205988e+00 1.407359e+01 1.325534e+01 9.940737e+00 1.802453e+01 2.200525e+01 2.472737e+01 2.436525e+01 2.161400e+01 1.174719e+01 1.230990e+01 8.767996e+00 3.248515e-01 1.060603e+00 9.289896e-01 6.608658e-01 1.233763e+00 1.692331e+00 1.866987e+00 1.307051e+00 1.646523e+00 1.144843e+00 1.173692e+00 8.884340e-01 6.590662e-01
<GCONST> 7.757359e+01
<STATE> 3
<MEAN> 25
 5.078873e+00 6.107887e+00 1.511084e+00 5.864161e-01 1.681258e+00 -4.507097e-01 1.698692e+00 -2.773152e+00 -1.315730e+00 -6.823463e+00 -4.901002e+00 -2.061989e+00 -7.179173e-01 1.968008e-01 5.194621e-01 6.186953e-01 4.484954e-01 -2.539772e-01 -1.466989e-01 8.274765e-02 -3.786253e-02 -1.327848e-01 1.629718e-01 2.738753e-02 -5.682346e-01
<VARIANCE> 25
 7.476415e+00 7.933595e+00 9.475355e+00 1.046407e+01 2.138036e+01 1.897956e+01 1.622392e+01 2.153931e+01 1.059972e+01 1.309438e+01 1.078336e+01 9.778609e+00 4.714166e-01 7.370242e-01 7.881688e-01 8.289630e-01 1.269704e+00 1.489427e+00 1.327479e+00 1.466007e+00 1.133111e+00 1.110721e+00 1.267482e+00 8.467047e-01 3.449090e-01
<GCONST> 7.513620e+01
<STATE> 4
<MEAN> 25
 -2.916665e+00 2.011698e+00 1.438953e+00 3.402668e+00 5.906623e+00 1.762206e+00 3.998642e+00 1.803028e+00 2.698261e+00 -2.310746e+00 -7.872234e-01 9.316516e-01 -3.602487e-01 -4.956537e-01 -2.142530e-01 -7.181348e-02 3.464151e-02 2.323591e-01 1.212520e-01 3.526014e-01 3.427077e-01 5.064369e-01 2.971648e-01 2.413407e-01 1.103060e-01
<VARIANCE> 25
 2.120874e+01 1.693344e+01 1.623444e+01 1.627420e+01 2.616000e+01 2.017344e+01 2.388483e+01 2.817040e+01 2.312295e+01 2.642215e+01 2.164383e+01 1.743060e+01 1.505216e+00 1.434729e+00 1.275734e+00 1.772164e+00 2.413674e+00 1.750858e+00 2.252336e+00 2.532214e+00 2.105751e+00 2.057935e+00 1.771536e+00 1.498561e+00 1.606097e+00
<GCONST> 9.021992e+01
<TRANSP> 5
 0.000000e+00 1.000000e+00 0.000000e+00 0.000000e+00 0.000000e+00
 0.000000e+00 8.320734e-01 1.679266e-01 0.000000e+00 0.000000e+00
 0.000000e+00 0.000000e+00 8.081445e-01 1.918555e-01 0.000000e+00
 0.000000e+00 0.000000e+00 0.000000e+00 8.594308e-01 1.405692e-01
 0.000000e+00 0.000000e+00 0.000000e+00 0.000000e+00 0.000000e+00
<ENDHMM>
~h "p"
<BEGINHMM>
<NUMSTATES> 5
<STATE> 2
<MEAN> 25
 -9.970040e-01 3.447210e+00 1.832443e-01 3.294929e-01 2.810650e+00 -1.791465e+00 1.358463e+00 8.478793e-01 6.898125e-01 -3.045628e+00 1.721202e+00 1.828403e+00 -8.533632e-01 -2.139856e-01 3.205156e-01 6.234155e-01 6.350943e-01 7.729558e-01 4.564825e-01 3.519023e-01 4.937984e-01 1.734312e-01 2.842596e-01 1.423374e-01 -4.132584e-01
<VARIANCE> 25
 1.464715e+01 1.498639e+01 1.336119e+01 2.041843e+01 2.057951e+01 3.425253e+01 2.330568e+01 2.536667e+01 2.101797e+01 2.041471e+01 2.454428e+01 1.474563e+01 7.878091e-01 1.076915e+00 1.114927e+00 1.458137e+00 1.833503e+00 2.758922e+00 2.009830e+00 2.969666e+00 1.738018e+00 2.053974e+00 2.095589e+00 1.325195e+00 9.125889e-01
<GCONST> 8.777193e+01
<STATE> 3
<MEAN> 25
 -3.672598e+00 2.575745e+00 1.320457e+00 2.827165e+00 5.681786e+00 1.948674e+00 2.770700e+00 5.427527e-01 2.830632e+00 -2.430034e+00 1.100741e+00 1.704839e+00 2.725700e-01 -4.285237e-01 2.528306e-01 9.580528e-01 -5.084549e-01 2.587903e-01 -1.886892e-01 -8.707966e-01 -2.076239e-02 3.045952e-01 -1.060186e-01 -3.721287e-01 1.187155e+00
<VARIANCE> 25
 8.058632e+00 1.031262e+01 1.151508e+01 1.685704e+01 2.926797e+01 2.057433e+01 2.569447e+01 3.951439e+01 2.835235e+01 3.313083e+01 3.421807e+01 1.855175e+01 1.600155e+00 2.098204e+00 2.484694e+00 2.583292e+00 2.276186e+00 3.197753e+00 3.392384e+00 3.645222e+00 3.655478e+00 5.185057e+00 3.574437e+00 2.439902e+00 2.591478e+00
<GCONST> 9.588774e+01
<STATE> 4
<MEAN> 25
 -2.965067e+00 3.742434e-01 -7.416292e-01 4.771973e+00 6.159591e+00 3.337495e+00 2.794359e+00 7.380242e-01 4.479828e+00 -5.599964e-01 1.741215e+00 1.736750e+00 1.212933e+00 2.356924e-01 -1.559280e-01 -3.580474e-01 -7.377356e-01 -3.395116e-01 -9.683748e-01 -8.300140e-01 -4.990431e-01 1.581682e-01 -1.406365e-01 -4.727917e-02 9.631721e-01
<VARIANCE> 25
 2.477664e+01 1.947828e+01 2.261897e+01 1.538687e+01 2.765142e+01 2.218254e+01 3.231934e+01 3.808525e+01 2.002588e+01 1.708829e+01 1.452611e+01 1.653840e+01 3.021549e+00 2.309086e+00 3.425631e+00 3.805458e+00 3.232313e+00 2.934798e+00 3.933852e+00 3.252306e+00 1.993874e+00 2.355455e+00 2.307825e+00 2.200400e+00 2.699151e+00
<GCONST> 9.630379e+01
<TRANSP> 5
 0.000000e+00 1.000000e+00 0.000000e+00 0.000000e+00 0.000000e+00
 0.000000e+00 7.820141e-01 2.179860e-01 0.000000e+00 0.000000e+00
 0.000000e+00 0.000000e+00 6.490149e-01 3.509851e-01 0.000000e+00
 0.000000e+00 0.000000e+00 0.000000e+00 7.668362e-01 2.331637e-01
 0.000000e+00 0.000000e+00 0.000000e+00 0.000000e+00 0.000000e+00
<ENDHMM>
~h "r"
<BEGINHMM>
<NUMSTATES> 5
<STATE> 2
<MEAN> 25
 3.013511e+00 -3.584039e+00 -1.254110e+00 6.050906e+00 -1.070490e+00 -1.769832e+00 -4.480946e+00 -3.448962e+00 2.538771e+00 4.739330e-01 2.456223e+00 1.093465e+00 1.825694e+00 -3.624536e-01 -3.711898e-01 2.442448e-01 -3.787916e-01 -1.851377e+00 -1.557154e+00 -1.441290e-01 -4.114058e-01 -4.214343e-01 -1.630341e-01 7.090911e-01 2.285510e-01
<VARIANCE> 25
 5.852950e+01 3.624664e+01 8.176227e+01 2.058154e+01 5.376094e+01 4.996425e+01 7.169368e+01 4.419136e+01 4.439079e+01 2.666626e+01 2.228630e+01 1.631199e+01 2.482679e+00 1.901043e+00 5.954601e+00 2.717692e+00 2.935865e+00 2.864350e+00 4.464664e+00 2.626737e+00 4.117597e+00 2.696215e+00 1.992189e+00 1.751757e+00 8.727154e-01
<GCONST> 1.024119e+02
<STATE> 3
<MEAN> 25
 1.093044e+01 -5.860745e+00 -7.077356e+00 6.451720e+00 -1.552029e+00 -8.019663e+00 -1.338151e+01 -6.486565e-01 1.346507e+00 -5.266435e-01 2.475815e+00 2.540909e+00 2.035493e-01 -3.782644e-01 -1.043499e-02 2.133752e-01 -2.116038e-01 -6.445630e-01 -4.864211e-02 4.541233e-01 1.537478e-01 -3.000408e-01 -7.123630e-02 3.122880e-01 5.136472e-02
<VARIANCE> 25
 7.142513e+00 1.445633e+01 5.733766e+01 1.432012e+01 2.614086e+01 2.467976e+01 2.905768e+01 4.603500e+01 1.751402e+01 1.591879e+01 1.218453e+01 1.176270e+01 4.632232e-01 1.137364e+00 3.061748e+00 7.354008e-01 2.901512e+00 2.511444e+00 2.463437e+00 2.637828e+00 1.988666e+00 1.723394e+00 1.279838e+00 1.218667e+00 3.577946e-01
<GCONST> 8.623539e+01
<STATE> 4
<MEAN> 25
 8.864923e+00 -7.196721e+00 3.706320e-01 4.702886e+00 -7.573321e+00 -9.467125e+00 -7.196086e+00 1.520447e+00 -3.609055e+00 -2.092827e+00 3.313405e+00 1.404911e+00 -4.943033e-01 1.211491e-01 1.211692e+00 -7.578840e-01 -5.029616e-01 5.273724e-01 9.716649e-01 -3.287382e-01 -8.361509e-01 1.991540e-01 -3.001029e-02 -6.906993e-01 -1.595080e-01
<VARIANCE> 25
 1.080624e+01 2.809081e+01 9.258731e+01 2.395966e+01 5.797530e+01 2.460064e+01 2.852367e+01 2.792108e+01 3.264599e+01 1.912771e+01 2.005883e+01 1.513963e+01 3.371660e-01 1.200437e+00 2.558784e+00 1.121043e+00 2.984837e+00 1.592252e+00 2.750796e+00 2.131395e+00 1.760018e+00 1.449734e+00 1.597515e+00 1.169068e+00 6.829932e-01
<GCONST> 9.011951e+01
<TRANSP> 5
 0.000000e+00 1.000000e+00 0.000000e+00 0.000000e+00 0.000000e+00
 0.000000e+00 6.669852e-01 3.330148e-01 0.000000e+00 0.000000e+00
 0.000000e+00 0.000000e+00 7.855690e-01 2.144310e-01 0.000000e+00
 0.000000e+00 0.000000e+00 0.000000e+00 7.533420e-01 2.466581e-01
 0.000000e+00 0.000000e+00 0.000000e+00 0.000000e+00 0.000000e+00
<ENDHMM>
~h "s"
<BEGINHMM>
<NUMSTATES> 5
<STATE> 2
<MEAN> 25
 -6.691073e+00 4.148875e+00 -4.288919e-01 5.987310e+00 6.152116e+00 1.723267e+00 6.903835e+00 9.496707e-01 6.447750e+00 -6.870912e-01 2.337801e+00 2.459195e+00 -1.948350e+00 1.040114e+00 -5.081728e-01 1.008842e+00 8.534315e-01 5.590062e-01 1.102881e+00 2.127379e-03 7.364579e-01 1.976719e-01 6.245146e-01 2.183338e-01 6.953741e-01
<VARIANCE> 25
 3.055318e+01 2.855616e+01 2.456316e+01 3.695326e+01 4.115725e+01 4.426960e+01 3.591063e+01 4.987114e+01 2.937082e+01 2.721842e+01 2.233520e+01 1.410253e+01 3.801189e+00 2.528017e+00 2.373052e+00 2.489680e+00 3.410951e+00 3.290922e+00 3.431528e+00 3.589921e+00 2.620692e+00 3.236345e+00 2.435494e+00 1.631000e+00 1.437556e+00
<GCONST> 9.981231e+01
<STATE> 3
<MEAN> 25
 -1.707878e+01 9.164339e+00 -7.593715e+00 8.708909e+00 3.890466e+00 -4.745483e-01 8.058595e+00 -2.499681e+00 6.562096e+00 5.252002e-01 2.676360e+00 1.593270e+00 -3.528951e-01 -7.369962e-02 -4.196755e-01 -1.483559e-01 -2.727374e-01 -2.362835e-01 -4.089660e-02 -1.973359e-01 -2.059737e-01 -1.106761e-02 -1.393845e-01 -6.916963e-02 -5.173162e-02
<VARIANCE> 25
 6.312834e+00 1.520441e+01 1.207078e+01 1.958512e+01 2.375132e+01 2.363520e+01 2.370662e+01 2.846752e+01 2.252948e+01 1.859242e+01 1.786044e+01 1.405308e+01 1.009379e+00 8.829076e-01 1.583955e+00 1.254913e+00 1.427895e+00 1.816334e+00 1.720325e+00 1.583834e+00 1.959447e+00 1.986656e+00 1.612694e+00 1.379633e+00 4.162115e-01
<GCONST> 8.419400e+01
<STATE> 4
<MEAN> 25
 -1.089592e+01 5.174479e+00 -2.985908e+00 5.875445e+00 4.968316e+00 -5.525466e-01 7.186901e+00 -1.411552e+00 6.743752e+00 2.063911e-01 1.275477e+00 2.803164e+00 1.795188e+00 -8.366822e-01 1.067051e+00 -8.407336e-01 -1.518765e-01 -3.383337e-01 -5.449313e-01 3.657742e-01 -1.931147e-01 -7.178261e-02 -5.116326e-01 2.442543e-01 -5.493724e-01
<VARIANCE> 25
 3.614249e+01 1.967633e+01 2.274948e+01 2.279190e+01 3.289561e+01 2.877530e+01 2.268390e+01 4.060915e+01 1.913862e+01 1.974761e+01 2.093518e+01 1.394341e+01 2.970640e+00 2.386006e+00 1.880888e+00 2.577302e+00 3.632012e+00 3.161588e+00 3.027047e+00 3.177824e+00 2.843018e+00 1.914836e+00 1.930823e+00 1.504346e+00 2.535107e+00
<GCONST> 9.598702e+01
<TRANSP> 5
 0.000000e+00 1.000000e+00 0.000000e+00 0.000000e+00 0.000000e+00
 0.000000e+00 8.206236e-01 1.793764e-01 0.000000e+00 0.000000e+00
 0.000000e+00 0.000000e+00 8.839667e-01 1.160334e-01 0.000000e+00
 0.000000e+00 0.000000e+00 0.000000e+00 8.172508e-01 1.827491e-01
 0.000000e+00 0.000000e+00 0.000000e+00 0.000000e+00 0.000000e+00
<ENDHMM>
~h "t"
<BEGINHMM>
<NUMSTATES> 5
<STATE> 2
<MEAN> 25
 1.654263e+00 4.884781e+00 4.749666e+00 1.750626e+00 -2.397305e+00 -5.693420e+00 -8.205189e-01 -9.510757e-01 -4.477908e-01 -2.055006e+00 -1.376204e+00 8.525549e-01 -5.920077e-01 5.600239e-01 5.414665e-02 4.593884e-01 1.982021e+00 3.548892e-01 1.267617e+00 4.744789e-01 1.074522e+00 -8.968529e-01 3.077062e-01 7.572857e-01 -1.728572e+00
<VARIANCE> 25
 2.678170e+01 2.306571e+01 2.394894e+01 1.981565e+01 5.973842e+01 2.903788e+01 3.125974e+01 2.337551e+01 3.321907e+01 2.659592e+01 2.253544e+01 2.225592e+01 1.273653e+00 2.577806e+00 1.910383e+00 1.402810e+00 3.747956e+00 1.599468e+00 2.792236e+00 2.397964e+00 1.957177e+00 2.870008e+00 2.247295e+00 1.960665e+00 1.240169e+00
<GCONST> 9.488059e+01
<STATE> 3
<MEAN> 25
 -2.682057e+00 3.628592e+00 2.120020e+00 2.626101e+00 2.824129e+00 -1.316489e+00 2.968901e+00 9.724690e-01 3.214085e+00 -1.910361e+00 1.280537e+00 2.287264e+00 -7.454640e-01 -7.554695e-01 -5.215331e-01 2.215322e-01 4.890336e-01 1.122528e+00 5.801001e-01 2.841094e-01 6.629779e-01 6.056650e-01 7.213321e-01 2.526234e-01 -7.839458e-02
<VARIANCE> 25
 2.086288e+01 1.382290e+01 2.022845e+01 1.235984e+01 2.992624e+01 1.992311e+01 2.120985e+01 2.789190e+01 2.169830e+01 1.533952e+01 2.109100e+01 1.926606e+01 1.471594e+00 1.150578e+00 1.602983e+00 1.093223e+00 2.025239e+00 1.786185e+00 1.940022e+00 2.646005e+00 2.920790e+00 1.926627e+00 1.977210e+00 1.336093e+00 2.121011e+00
<GCONST> 8.918111e+01
<STATE> 4
<MEAN> 25
 -5.848264e+00 1.079933e+00 1.087446e+00 3.703117e+00 5.997980e+00 2.949854e+00 6.760036e+00 3.760754e+00 5.728775e+00 4.765703e-01 2.726041e+00 3.141560e+00 1.791814e-01 -2.931240e-01 -7.107072e-02 -6.946029e-02 -2.896692e-01 4.996347e-02 -2.342676e-01 -2.673250e-01 -1.307200e-01 5.163967e-02 -1.411659e-01 -1.253369e-01 3.812020e-01
<VARIANCE> 25
 1.379568e+01 1.228897e+01 1.424428e+01 1.886373e+01 2.590131e+01 2.054897e+01 2.310469e+01 2.850051e+01 1.952126e+01 1.650251e+01 1.786267e+01 1.387686e+01 1.600451e+00 1.427651e+00 1.466882e+00 1.910865e+00 2.386890e+00 1.769961e+00 2.145728e+00 2.833931e+00 2.342120e+00 1.974177e+00 2.247873e+00 1.548024e+00 2.091361e+00
<GCONST> 8.934769e+01
<TRANSP> 5
 0.000000e+00 1.000000e+00 0.000000e+00 0.000000e+00 0.000000e+00
 0.000000e+00 6.026655e-01 3.973345e-01 0.000000e+00 0.000000e+00
 0.000000e+00 0.000000e+00 6.595476e-01 3.404524e-01 0.000000e+00
 0.000000e+00 0.000000e+00 0.000000e+00 8.849803e-01 1.150197e-01
 0.000000e+00 0.000000e+00 0.000000e+00 0.000000e+00 0.000000e+00
<ENDHMM>
~h "v"
<BEGINHMM>
<NUMSTATES> 5
<STATE> 2
<MEAN> 25
 5.346735e+00 -7.149420e-01 5.120783e+00 3.770329e+00 -5.964043e+00 -8.671852e+00 -2.961610e+00 -6.098527e-01 -3.847585e+00 1.344207e+00 -6.653666e-01 -1.953327e+00 -8.656617e-01 9.124952e-01 -1.052069e-01 6.826603e-01 1.215749e+00 1.039436e+00 8.852409e-01 -5.516977e-01 1.323602e+00 -1.184887e+00 -3.411449e-01 1.026147e-01 -1.127424e+00
<VARIANCE> 25
 1.156340e+01 1.531346e+01 3.253951e+01 3.846564e+01 4.510919e+01 2.391226e+01 3.892798e+01 2.454959e+01 2.179885e+01 2.448182e+01 1.266647e+01 1.326107e+01 1.269252e+00 1.464889e+00 1.552098e+00 1.969810e+00 3.469243e+00 2.806057e+00 2.415432e+00 2.732621e+00 2.401248e+00 2.125923e+00 2.096574e+00 1.604170e+00 4.281192e-01
<GCONST> 9.140056e+01
<STATE> 3
<MEAN> 25
 4.770387e-01 2.522429e+00 4.174531e+00 8.707692e+00 -1.544827e+00 -9.744366e-01 1.785395e+00 -1.182929e+00 1.490340e+00 -3.760594e+00 -9.986853e-01 -2.044153e+00 -1.187435e+00 -4.980817e-02 -3.239723e-01 3.957498e-01 4.123068e-01 1.363853e+00 5.041026e-01 -7.667366e-02 6.898820e-01 -2.694480e-01 2.621492e-02 -1.141968e-01 -2.472496e-01
<VARIANCE> 25
 1.473302e+01 2.143330e+01 1.644347e+01 2.365582e+01 3.003470e+01 1.914043e+01 2.640726e+01 1.403198e+01 1.686237e+01 2.061072e+01 1.080869e+01 1.633708e+01 1.268139e+00 9.183821e-01 1.196695e+00 1.283765e+00 1.259439e+00 1.656002e+00 1.542793e+00 2.081640e+00 1.783514e+00 2.062986e+00 1.299526e+00 1.083606e+00 3.697804e-01
<GCONST> 8.409308e+01
<STATE> 4
<MEAN> 25
 -3.943881e+00 -1.073933e+00 2.253456e-01 4.780265e+00 1.816997e+00 5.145647e-01 2.613942e+00 -2.085238e-01 3.579036e+00 -2.024009e+00 -3.025419e-02 1.620288e-01 4.617348e-02 -2.138768e-01 -2.463240e-01 -4.031872e-01 2.746017e-01 -3.174706e-02 -1.587020e-01 -1.268093e-01 -1.040656e-01 3.063204e-01 1.063062e-01 9.289610e-02 -2.198397e-01
<VARIANCE> 25
 1.590677e+01 1.471201e+01 9.356133e+00 1.829793e+01 4.385312e+01 2.000076e+01 2.749485e+01 2.962764e+01 1.855508e+01 1.742144e+01 1.851473e+01 1.600599e+01 9.267116e-01 9.928474e-01 9.222527e-01 1.195001e+00 1.746881e+00 1.567187e+00 1.333918e+00 2.210247e+00 1.749921e+00 1.354404e+00 1.618242e+00 1.323243e+00 6.800051e-01
<GCONST> 8.483541e+01
<TRANSP> 5
 0.000000e+00 1.000000e+00 0.000000e+00 0.000000e+00 0.000000e+00
 0.000000e+00 7.324905e-01 2.675095e-01 0.000000e+00 0.000000e+00
 0.000000e+00 0.000000e+00 6.837307e-01 3.162693e-01 0.000000e+00
 0.000000e+00 0.000000e+00 0.000000e+00 8.475018e-01 1.524982e-01
 0.000000e+00 0.000000e+00 0.000000e+00 0.000000e+00 0.000000e+00
<ENDHMM>
~h "w"
<BEGINHMM>
<NUMSTATES> 5
<STATE> 2
<MEAN> 25
 3.141196e+00 5.211862e+00 -1.882164e+00 -2.957605e+00 1.191100e+00 3.136177e-01 -5.262387e-01 -2.031550e+00 -8.011851e-01 -4.477534e-01 1.711975e+00 1.232358e+00 1.917989e+00 9.854251e-01 -8.699496e-01 -1.262648e+00 -1.008141e+00 8.971088e-03 -9.208167e-01 -9.788976e-01 -1.519268e+00 4.277095e-01 3.064507e-01 3.099588e-02 8.802639e-01
<VARIANCE> 25
 5.298077e+01 2.854815e+01 1.685009e+01 3.775670e+01 4.411543e+01 3.458542e+01 4.806210e+01 4.865614e+01 5.853407e+01 2.105647e+01 2.068925e+01 1.927487e+01 3.504113e+00 2.379540e+00 1.079063e+00 2.695053e+00 3.636982e+00 2.786125e+00 3.250105e+00 3.379757e+00 3.647953e+00 3.897326e+00 2.976097e+00 2.983443e+00 1.959535e+00
<GCONST> 1.013282e+02
<STATE> 3
<MEAN> 25
 1.119981e+01 3.382831e+00 -7.662738e+00 -5.881838e+00 -4.682565e+00 8.498788e-02 -6.278273e+00 -3.454581e+00 -8.515198e+00 3.952749e+00 2.843619e+00 -1.682941e+00 -9.765474e-02 -1.367934e+00 -1.163567e-01 5.285373e-01 -1.492660e-01 -9.739187e-02 -5.323341e-02 1.065584e+00 -1.816205e-01 2.788049e-01 -4.742504e-01 -4.825296e-01 8.781834e-01
<VARIANCE> 25
 2.834877e+00 5.121775e+01 1.822819e+01 5.238140e+01 2.135399e+01 3.090503e+01 4.832918e+01 5.389917e+01 2.682613e+01 2.475467e+01 2.719629e+01 2.354606e+01 3.710534e-01 1.183055e+00 2.118631e+00 1.033204e+00 1.656005e+00 3.344472e+00 2.594213e+00 3.251665e+00 3.308912e+00 2.385223e+00 2.016371e+00 1.925546e+00 3.672214e-01
<GCONST> 9.132919e+01
<STATE> 4
<MEAN> 25
 8.811248e+00 -5.721782e+00 -4.770494e+00 -6.246905e+00 2.130103e-01 7.023848e+00 -7.272225e+00 2.301654e+00 -6.727013e+00 4.935421e+00 -6.537231e+00 -6.827879e-01 -3.974119e-01 -7.110497e-01 4.068812e-01 5.301846e-01 2.908885e-01 -1.261213e-01 -4.298471e-01 4.081661e-01 2.095300e-01 -1.527219e-01 -5.158781e-01 -4.614092e-03 3.623127e-01
<VARIANCE> 25
 4.520302e+00 4.633117e+01 1.154292e+01 3.536778e+01 2.462514e+01 3.603419e+01 2.873338e+01 2.907870e+01 1.368331e+01 1.709702e+01 3.199849e+01 1.292967e+01 1.021426e-01 7.905783e-01 5.542939e-01 9.044345e-01 1.366631e+00 1.515577e+00 1.362471e+00 8.777071e-01 7.105793e-01 9.440017e-01 9.681538e-01 6.918061e-01 2.721695e-01
<GCONST> 7.789847e+01
<TRANSP> 5
 0.000000e+00 1.000000e+00 0.000000e+00 0.000000e+00 0.000000e+00
 0.000000e+00 8.339621e-01 1.660379e-01 0.000000e+00 0.000000e+00
 0.000000e+00 0.000000e+00 8.541601e-01 1.458399e-01 0.000000e+00
 0.000000e+00 0.000000e+00 0.000000e+00 8.300908e-01 1.699093e-01
 0.000000e+00 0.000000e+00 0.000000e+00 0.000000e+00 0.000000e+00
<ENDHMM>
~h "y"
<BEGINHMM>
<NUMSTATES> 5
<STATE> 2
<MEAN> 25
 5.496172e-01 5.679291e+00 8.014214e+00 5.575380e-02 -8.876410e+00 -4.386830e+00 -2.128233e+00 -3.077530e+00 -2.186501e+00 -2.651814e+00 6.262538e-01 -4.630569e+00 1.511770e-01 2.935043e-01 1.195903e+00 -7.386534e-01 -1.718979e+00 -6.369598e-02 -6.188257e-01 1.667096e-01 -1.164330e+00 -1.176547e-01 5.587430e-01 -1.095165e+00 4.687348e-01
<VARIANCE> 25
 1.905115e+01 4.091273e+01 3.564974e+01 3.407255e+01 6.065112e+01 3.521247e+01 3.403703e+01 3.195361e+01 3.902538e+01 1.931057e+01 2.513623e+01 2.803227e+01 1.687586e+00 3.043979e+00 2.598543e+00 2.607057e+00 6.989834e+00 2.983720e+00 4.099144e+00 4.160817e+00 3.704638e+00 3.361206e+00 2.321092e+00 3.601422e+00 1.538472e+00
<GCONST> 1.020483e+02
<STATE> 3
<MEAN> 25
 1.590881e+00 3.663178e+00 1.219468e+01 -3.146413e+00 -1.760279e+01 -1.967021e+00 -5.613070e+00 -3.604448e+00 -8.599618e+00 -1.355520e+00 4.119831e+00 -9.721654e+00 2.450278e-01 -1.034342e+00 -4.517160e-01 8.277669e-01 -8.987694e-01 -7.955664e-01 2.449010e-01 1.208697e-01 -9.944934e-01 5.021048e-01 5.154828e-01 9.128590e-02 4.965862e-01
<VARIANCE> 25
 4.635677e+00 1.810226e+01 1.226338e+01 2.698419e+01 3.906733e+01 2.392886e+01 1.926372e+01 1.940039e+01 2.345068e+01 4.596001e+01 2.209148e+01 2.898867e+01 3.398793e-01 2.096606e+00 1.118969e+00 1.791188e+00 3.362940e+00 2.495352e+00 2.144396e+00 2.977588e+00 1.963328e+00 2.723262e+00 1.784650e+00 1.974628e+00 1.372825e+00
<GCONST> 8.997788e+01
<STATE> 4
<MEAN> 25
 5.618146e+00 -2.136691e+00 1.426452e+00 4.071762e+00 -1.112430e+01 -9.501751e+00 -1.031899e+01 8.101453e-01 -8.949198e+00 1.324956e-01 3.432989e+00 -7.958292e+00 5.539219e-01 -4.072198e-01 -1.728228e+00 -5.315661e-03 2.054424e+00 6.661160e-02 -1.316875e+00 4.056781e-01 9.426870e-01 3.773226e-01 -8.901315e-01 3.128247e-01 -9.644342e-02
<VARIANCE> 25
 6.032035e+00 2.065333e+01 2.990749e+01 2.047202e+01 5.508008e+01 2.588041e+01 4.851467e+01 2.958844e+01 3.297688e+01 2.897509e+01 2.728708e+01 2.117262e+01 5.506877e-01 7.375187e-01 1.932793e+00 1.503995e+00 3.018486e+00 2.735622e+00 4.056032e+00 3.904709e+00 2.098604e+00 2.611314e+00 2.249527e+00 1.837867e+00 5.506187e-01
<GCONST> 9.250523e+01
<TRANSP> 5
 0.000000e+00 1.000000e+00 0.000000e+00 0.000000e+00 0.000000e+00
 0.000000e+00 8.226339e-01 1.773661e-01 0.000000e+00 0.000000e+00
 0.000000e+00 0.000000e+00 7.991239e-01 2.008761e-01 0.000000e+00
 0.000000e+00 0.000000e+00 0.000000e+00 8.066834e-01 1.933166e-01
 0.000000e+00 0.000000e+00 0.000000e+00 0.000000e+00 0.000000e+00
<ENDHMM>
~h "z"
<BEGINHMM>
<NUMSTATES> 5
<STATE> 2
<MEAN> 25
 3.442820e-01 7.516121e+00 1.949449e+00 2.485600e+00 -1.062238e+00 -4.051128e+00 -7.017674e-01 -4.671371e+00 2.859705e+00 -2.434915e+00 -2.002614e+00 9.089828e-01 -2.490277e+00 2.140361e+00 -1.311534e+00 1.545573e+00 1.192343e+00 -1.683853e-02 1.925856e+00 -6.593126e-01 1.239797e+00 -1.099393e+00 6.697131e-01 -9.105998e-01 3.792061e-01
<VARIANCE> 25
 2.679497e+01 2.351693e+01 3.021953e+01 2.582677e+01 4.255568e+01 3.185007e+01 4.352286e+01 4.182109e+01 2.400859e+01 2.043013e+01 1.998151e+01 2.297233e+01 5.277786e+00 2.246022e+00 2.887704e+00 3.819985e+00 4.830445e+00 3.051111e+00 5.573310e+00 3.739413e+00 3.739167e+00 2.626867e+00 2.693062e+00 3.238402e+00 1.233144e+00
<GCONST> 1.013565e+02
<STATE> 3
<MEAN> 25
 -1.278795e+01 1.451311e+01 -4.877831e+00 9.296937e+00 3.687465e+00 -1.355144e+00 8.402658e+00 -4.463986e+00 6.965193e+00 -2.339500e+00 8.793913e-01 -5.874697e-01 -1.961118e+00 3.349322e-01 -6.791464e-01 1.334934e+00 7.183557e-01 9.400444e-01 1.095447e+00 4.398744e-01 2.965817e-01 5.520031e-01 4.625116e-01 6.612685e-02 8.110080e-02
<VARIANCE> 25
 2.402135e+01 1.538183e+01 1.995643e+01 3.143414e+01 1.534605e+01 2.709438e+01 2.032018e+01 2.220416e+01 1.993350e+01 8.666406e+00 2.317249e+01 1.903085e+01 1.785656e+00 1.901967e+00 1.766683e+00 1.446950e+00 2.317400e+00 2.455715e+00 1.336590e+00 2.243805e+00 1.788269e+00 9.770492e-01 2.350017e+00 2.105698e+00 3.411741e-01
<GCONST> 8.776360e+01
<STATE> 4
<MEAN> 25
 -1.263870e+01 7.749482e+00 -3.958825e+00 6.627122e+00 6.308877e+00 8.731915e-01 9.233197e+00 -9.007196e-01 6.474345e+00 -8.045495e-01 2.899347e+00 1.464112e+00 5.851192e-01 -5.628928e-01 5.153092e-01 -4.245128e-01 -5.759707e-02 -2.895251e-02 7.097598e-03 2.409394e-01 -9.955637e-03 1.010143e-01 -3.662829e-02 1.829837e-01 -5.225326e-01
<VARIANCE> 25
 2.718935e+01 2.858348e+01 2.121417e+01 2.759433e+01 2.539509e+01 3.142619e+01 2.058627e+01 2.701772e+01 1.651859e+01 1.533292e+01 1.604893e+01 1.472171e+01 1.201094e+00 1.114612e+00 1.517172e+00 1.352109e+00 2.572062e+00 2.197952e+00 1.724836e+00 1.969709e+00 2.030658e+00 1.758635e+00 1.469061e+00 1.526627e+00 7.253199e-01
<GCONST> 8.870258e+01
<TRANSP> 5
 0.000000e+00 1.000000e+00 0.000000e+00 0.000000e+00 0.000000e+00
 0.000000e+00 7.312560e-01 2.687441e-01 0.000000e+00 0.000000e+00
 0.000000e+00 0.000000e+00 7.500185e-01 2.499815e-01 0.000000e+00
 0.000000e+00 0.000000e+00 0.000000e+00 9.182457e-01 8.175432e-02
 0.000000e+00 0.000000e+00 0.000000e+00 0.000000e+00 0.000000e+00
<ENDHMM>
~h "aa"
<BEGINHMM>
<NUMSTATES> 5
<STATE> 2
<MEAN> 25
 2.318993e+00 -2.487177e+00 -4.945760e+00 -1.825518e+00 4.045665e+00 4.065791e+00 9.749742e-01 -4.315842e+00 -7.683925e-01 1.453925e+00 -1.365950e+00 6.137833e-01 2.196304e+00 -1.432922e+00 -1.448072e+00 -1.955234e+00 -1.171710e+00 2.557782e-01 -1.415765e+00 -1.079384e+00 -1.444037e+00 9.892665e-01 -1.227713e+00 -4.012917e-01 2.270239e+00
<VARIANCE> 25
 4.063757e+01 7.330287e+01 2.500766e+01 3.117544e+01 3.938856e+01 1.962155e+01 4.873504e+01 5.698235e+01 3.603855e+01 4.867085e+01 3.520624e+01 1.659890e+01 3.552162e+00 6.689420e+00 3.114286e+00 3.703451e+00 2.702812e+00 2.313734e+00 3.468688e+00 4.789099e+00 2.999348e+00 6.150488e+00 3.794688e+00 1.281497e+00 5.167303e+00
<GCONST> 1.054200e+02
<STATE> 3
<MEAN> 25
 9.565294e+00 -7.372411e+00 -9.962876e+00 -6.365376e+00 4.227698e-01 7.218902e+00 -2.859564e+00 -4.647521e+00 -6.413751e+00 6.808674e+00 -5.943841e+00 -2.444837e+00 2.168974e-01 1.228959e-01 -1.586578e-01 -1.763262e-01 -2.851026e-01 3.707442e-01 2.792182e-02 3.673989e-01 -1.575957e-01 9.757342e-02 6.214965e-03 -2.367821e-01 -3.820396e-02
<VARIANCE> 25
 9.841589e+00 2.839464e+01 1.878944e+01 2.061395e+01 1.919437e+01 3.276090e+01 2.894259e+01 3.244038e+01 2.977244e+01 4.141810e+01 4.759866e+01 2.042070e+01 3.815143e-01 7.312683e-01 7.600262e-01 1.380685e+00 1.447700e+00 1.629074e+00 1.337655e+00 1.572033e+00 1.410833e+00 1.848746e+00 1.447352e+00 1.116312e+00 4.126426e-01
<GCONST> 8.575039e+01
<STATE> 4
<MEAN> 25
 6.709394e+00 -4.023733e-01 -5.675366e+00 -4.556648e+00 1.087564e+00 3.747212e+00 7.041872e-02 -2.046798e+00 -3.965949e+00 1.860683e+00 -2.228456e+00 -2.659704e+00 -6.161959e-01 6.776220e-01 5.316176e-01 7.012650e-01 2.985341e-01 -6.473811e-01 -1.307995e-01 4.346493e-01 6.808747e-01 -7.711194e-01 3.499548e-02 1.940668e-01 -8.968779e-01
<VARIANCE> 25
 2.098520e+01 2.677274e+01 2.872134e+01 4.369730e+01 3.353883e+01 4.241681e+01 4.290751e+01 2.673008e+01 1.900548e+01 4.610311e+01 3.526557e+01 2.382729e+01 1.238561e+00 2.229641e+00 1.884416e+00 2.583189e+00 2.384956e+00 2.690485e+00 2.979138e+00 2.775746e+00 2.044734e+00 2.874465e+00 2.220607e+00 2.429219e+00 1.686226e+00
<GCONST> 9.777637e+01
<TRANSP> 5
 0.000000e+00 1.000000e+00 0.000000e+00 0.000000e+00 0.000000e+00
 0.000000e+00 7.407922e-01 2.592078e-01 0.000000e+00 0.000000e+00
 0.000000e+00 0.000000e+00 8.492683e-01 1.507317e-01 0.000000e+00
 0.000000e+00 0.000000e+00 0.000000e+00 7.618209e-01 2.381791e-01
 0.000000e+00 0.000000e+00 0.000000e+00 0.000000e+00 0.000000e+00
<ENDHMM>
~h "ae"
<BEGINHMM>
<NUMSTATES> 5
<STATE> 2
<MEAN> 25
 -1.088263e+00 -4.117484e+00 -3.512576e-01 2.205059e+00 2.909584e+00 -4.021308e-01 1.555179e+00 1.307553e+00 1.729309e+00 -8.838029e-02 -1.291298e+00 -1.234399e+00 1.134485e+00 -3.621911e+00 -5.498701e-01 -1.265487e+00 -1.310091e+00 -8.976980e-01 -2.642238e-01 9.593557e-01 -1.089464e+00 3.110369e-01 -8.613317e-01 3.063482e-02 2.893512e+00
<VARIANCE> 25
 3.164670e+01 3.349224e+01 1.750804e+01 3.092978e+01 5.243970e+01 3.077915e+01 5.581467e+01 3.335286e+01 2.782538e+01 3.218612e+01 2.572382e+01 1.614169e+01 2.634615e+00 4.217578e+00 1.655198e+00 2.405746e+00 3.153879e+00 3.390938e+00 4.990540e+00 3.491555e+00 2.250066e+00 4.386256e+00 3.810949e+00 1.495445e+00 4.597072e+00
<GCONST> 1.015218e+02
<STATE> 3
<MEAN> 25
 2.521491e+00 -1.526429e+01 -2.005081e+00 -1.553601e+00 -1.358708e-01 -1.510212e+00 3.677574e+00 2.917978e+00 -1.633024e+00 -9.365326e-01 -4.072777e+00 1.683683e-01 1.952316e+00 -1.590528e+00 -3.903561e-01 -6.847720e-01 -1.180396e+00 -6.390260e-01 -9.155548e-02 1.016776e-01 -1.335606e+00 -3.840465e-01 -1.303114e+00 1.226009e-01 2.900261e+00
<VARIANCE> 25
 2.392444e+01 3.891188e+01 1.542313e+01 1.464432e+01 3.458884e+01 2.664018e+01 6.044065e+01 2.291590e+01 1.970314e+01 2.847927e+01 1.540530e+01 1.233673e+01 2.401232e+00 5.133960e+00 1.735488e+00 1.677327e+00 1.583410e+00 1.388556e+00 2.845348e+00 3.555710e+00 1.472571e+00 1.380051e+00 1.240411e+00 1.141732e+00 5.275662e+00
<GCONST> 9.324239e+01
<STATE> 4
<MEAN> 25
 6.325364e+00 -1.158395e+01 -1.026435e+00 -2.206484e+00 -3.510828e+00 -3.176367e+00 3.957875e-01 3.994540e+00 -4.920654e+00 1.713145e+00 -8.039693e+00 9.702289e-02 5.564008e-02 8.629585e-01 -7.209417e-02 1.314730e-01 1.021045e-01 -1.004485e-01 7.632251e-02 -8.374562e-03 1.196151e-01 -1.531874e-01 -1.218931e-01 4.544276e-02 -7.592717e-01
<VARIANCE> 25
 6.594968e+00 2.561412e+01 2.078736e+01 1.055017e+01 2.633601e+01 1.979759e+01 2.829336e+01 1.662898e+01 2.034440e+01 2.788155e+01 2.092616e+01 1.328376e+01 5.805129e-01 1.789247e+00 8.338532e-01 8.289145e-01 1.693258e+00 1.579492e+00 2.332328e+00 1.740562e+00 1.564023e+00 2.794369e+00 1.467807e+00 9.794558e-01 1.624523e+00
<GCONST> 8.522198e+01
<TRANSP> 5
 0.000000e+00 1.000000e+00 0.000000e+00 0.000000e+00 0.000000e+00
 0.000000e+00 4.554477e-01 5.445523e-01 0.000000e+00 0.000000e+00
 0.000000e+00 0.000000e+00 5.508148e-01 4.491852e-01 0.000000e+00
 0.000000e+00 0.000000e+00 0.000000e+00 9.126786e-01 8.732143e-02
 0.000000e+00 0.000000e+00 0.000000e+00 0.000000e+00 0.000000e+00
<ENDHMM>
~h "ah"
<BEGINHMM>
<NUMSTATES> 5
<STATE> 2
<MEAN> 25
 4.241421e+00 -5.020819e+00 1.659563e+00 -5.497541e-01 -4.867937e+00 -3.388340e+00 -7.030879e+00 5.412358e-02 -3.781835e+00 3.834394e+00 -1.013488e+00 -2.495030e+00 8.411659e-01 -1.084773e+00 -6.022243e-01 -6.112651e-01 -3.188958e-01 -2.150506e-01 -9.318855e-01 4.493268e-01 -2.830395e-01 7.349610e-01 -1.239167e+00 -1.283841e-01 1.258606e+00
<VARIANCE> 25
 1.794451e+01 3.868385e+01 4.231797e+01 2.963424e+01 8.037136e+01 3.660527e+01 6.316940e+01 3.762408e+01 4.143157e+01 3.041562e+01 3.123465e+01 2.456864e+01 2.324411e+00 3.145574e+00 2.284842e+00 3.475980e+00 5.352953e+00 2.664551e+00 3.717611e+00 3.230744e+00 4.140210e+00 3.646194e+00 2.743723e+00 2.046641e+00 3.709864e+00
<GCONST> 1.041222e+02
<STATE> 3
<MEAN> 25
 6.674706e+00 -8.433776e+00 -1.870623e+00 -2.542797e+00 -1.946974e+00 -1.025515e+00 -6.908685e+00 1.288115e+00 -3.793689e+00 3.980619e+00 -6.830680e+00 -1.489638e+00 1.655030e-01 6.415009e-01 -2.601876e-01 -1.013963e-01 4.634213e-01 2.146531e-01 1.571013e-01 -3.877199e-01 3.538505e-01 -5.864889e-01 -2.441400e-01 2.376954e-01 -5.801717e-01
<VARIANCE> 25
 6.949473e+00 2.563092e+01 2.832034e+01 1.699281e+01 4.469468e+01 4.177652e+01 4.575294e+01 3.281169e+01 2.261174e+01 2.427923e+01 3.040582e+01 2.229313e+01 4.445761e-01 1.664407e+00 1.370420e+00 1.203240e+00 1.954696e+00 1.787942e+00 1.986539e+00 1.781485e+00 1.732265e+00 1.773041e+00 1.641884e+00 1.347420e+00 1.161838e+00
<GCONST> 8.975928e+01
<STATE> 4
<MEAN> 25
 3.074409e+00 -1.821659e+00 -2.485233e+00 3.253926e-01 4.281864e+00 1.733080e+00 5.155715e-01 1.489253e+00 3.055009e-01 -1.487985e+00 -3.174463e+00 1.032496e+00 -3.001164e-01 8.252525e-01 1.843318e-02 1.685069e-01 4.186788e-01 1.931633e-01 6.231488e-01 -3.210687e-02 4.097649e-01 -4.799759e-01 3.680620e-01 1.062548e-01 -8.660395e-01
<VARIANCE> 25
 3.391256e+01 2.725491e+01 2.325440e+01 3.978877e+01 4.878650e+01 4.477721e+01 7.136424e+01 3.890010e+01 3.724830e+01 3.571886e+01 4.947406e+01 1.759742e+01 1.029888e+00 2.423020e+00 1.523748e+00 2.066010e+00 2.086116e+00 2.677921e+00 2.914386e+00 3.066097e+00 2.551418e+00 3.195592e+00 2.015474e+00 1.656350e+00 1.421553e+00
<GCONST> 9.881377e+01
<TRANSP> 5
 0.000000e+00 1.000000e+00 0.000000e+00 0.000000e+00 0.000000e+00
 0.000000e+00 6.284269e-01 3.715731e-01 0.000000e+00 0.000000e+00
 0.000000e+00 0.000000e+00 7.500467e-01 2.499533e-01 0.000000e+00
 0.000000e+00 0.000000e+00 0.000000e+00 7.242499e-01 2.757501e-01
 0.000000e+00 0.000000e+00 0.000000e+00 0.000000e+00 0.000000e+00
<ENDHMM>
~h "ao"
<BEGINHMM>
<NUMSTATES> 5
<STATE> 2
<MEAN> 25
 5.037038e+00 -1.389678e+00 -9.005669e+00 -3.578163e+00 6.402721e-01 4.885497e+00 2.410403e+00 -1.748061e+00 -7.253013e+00 1.726541e+00 2.518687e+00 5.198721e-01 2.663564e+00 4.729570e-01 -1.394054e+00 -2.091839e+00 -1.112023e+00 2.382228e-01 -1.668279e-01 4.123268e-01 -2.574373e+00 -8.355281e-02 5.328333e-01 9.418334e-01 1.284504e+00
<VARIANCE> 25
 2.672549e+01 1.797452e+01 3.510374e+01 2.615562e+01 2.795164e+01 2.143044e+01 2.305449e+01 3.173574e+01 3.597618e+01 3.271924e+01 3.426954e+01 1.566479e+01 3.048141e+00 3.206512e+00 5.807590e+00 4.715656e+00 2.783638e+00 4.656330e+00 2.139317e+00 5.206239e+00 5.920970e+00 4.984812e+00 4.290792e+00 4.086913e+00 3.299566e+00
<GCONST> 1.032960e+02
<STATE> 3
<MEAN> 25
 1.230576e+01 1.426880e+00 -9.731265e+00 -7.095782e+00 -5.968690e+00 2.707019e+00 9.511203e-01 1.683974e+00 -1.221026e+01 -2.089602e+00 4.631209e+00 3.515666e+00 1.004203e+00 2.453559e-01 -7.618041e-01 -1.182255e+00 -1.155858e+00 -2.243613e-01 -5.251526e-01 7.093487e-01 -1.309612e+00 -1.945636e-01 3.973529e-01 3.816188e-01 5.431938e-01
<VARIANCE> 25
 5.276746e+00 2.709842e+01 7.964188e+00 1.386503e+01 1.787154e+01 2.018042e+01 1.107092e+01 3.453130e+01 2.492904e+01 2.791294e+01 3.582348e+01 1.970958e+01 1.148409e+00 9.235887e-01 1.123709e+00 1.396261e+00 2.440687e+00 1.347347e+00 1.299786e+00 1.622595e+00 1.427609e+00 2.175222e+00 2.466263e+00 1.200038e+00 4.802120e-01
<GCONST> 8.448361e+01
<STATE> 4
<MEAN> 25
 1.224703e+01 5.588239e-01 -1.308350e+01 -4.416423e+00 -4.852777e+00 2.151536e+00 -6.077349e+00 5.799214e-01 -1.166709e+01 3.333861e-01 8.545478e+00 1.953735e+00 -1.292001e-01 -3.034231e-01 -1.207782e-01 5.500693e-01 2.580604e-01 -1.690765e-01 -9.544899e-01 -3.852617e-02 7.185519e-01 4.642969e-01 -2.015222e-01 -2.004890e-01 1.398133e-01
<VARIANCE> 25
 2.671272e+00 1.417475e+01 1.523011e+01 3.273363e+01 1.581908e+01 2.073820e+01 4.218545e+01 2.798594e+01 3.015998e+01 1.926402e+01 3.482885e+01 1.614943e+01 1.005232e-01 7.714984e-01 5.084836e-01 9.997206e-01 6.905154e-01 9.077248e-01 1.253104e+00 1.181991e+00 1.948476e+00 7.860733e-01 1.370493e+00 5.824180e-01 1.873743e-01
<GCONST> 7.657527e+01
<TRANSP> 5
 0.000000e+00 1.000000e+00 0.000000e+00 0.000000e+00 0.000000e+00
 0.000000e+00 6.714613e-01 3.285387e-01 0.000000e+00 0.000000e+00
 0.000000e+00 0.000000e+00 5.914164e-01 4.085837e-01 0.000000e+00
 0.000000e+00 0.000000e+00 0.000000e+00 8.907778e-01 1.092222e-01
 0.000000e+00 0.000000e+00 0.000000e+00 0.000000e+00 0.000000e+00
<ENDHMM>
~h "aw"
<BEGINHMM>
<NUMSTATES> 5
<STATE> 2
<MEAN> 25
 7.921389e+00 -1.161644e+01 -6.691566e+00 -2.311104e+00 1.555774e+00 2.274754e+00 -4.987114e+00 3.325085e+00 -6.483337e+00 7.776496e+00 -8.429557e+00 -3.968575e+00 2.099333e-01 -2.342571e-01 -3.685325e-01 -4.165675e-01 4.359321e-01 7.566389e-01 2.461479e-01 -3.435970e-01 -7.655894e-01 1.420555e-01 -5.370488e-01 -7.737996e-02 -6.136666e-02
<VARIANCE> 25
 3.272341e+00 2.022506e+01 6.333124e+00 1.886430e+01 2.387937e+01 1.971865e+01 2.248219e+01 3.556379e+01 1.900533e+01 2.203794e+01 2.154342e+01 1.362558e+01 3.870870e-01 8.631400e-01 6.369773e-01 7.697723e-01 1.391605e+00 8.840263e-01 1.060492e+00 1.811331e+00 1.866114e+00 1.357730e+00 3.161773e+00 1.216758e+00 1.620172e-01
<GCONST> 7.898851e+01
<STATE> 3
<MEAN> 25
 8.814842e+00 -5.494292e+00 -8.294857e+00 -9.386417e+00 -1.765794e-01 8.581203e+00 -3.231875e+00 -4.734117e+00 -9.046390e+00 1.094162e+01 -4.099730e+00 -3.091868e+00 1.005268e-01 6.063109e-01 -8.792865e-02 2.334141e-01 -3.135627e-01 -3.862974e-01 -4.037140e-02 -2.068632e-01 -1.353397e-01 -2.510980e-01 8.649967e-01 -6.647642e-02 -5.826781e-01
<VARIANCE> 25
 5.217438e+00 1.186371e+01 9.157342e+00 3.088522e+01 1.763259e+01 3.194805e+01 2.080305e+01 2.612955e+01 1.640183e+01 1.845508e+01 2.651965e+01 1.323248e+01 1.733165e-01 7.291829e-01 4.388324e-01 1.646476e+00 1.429345e+00 2.134847e+00 2.228682e+00 1.619616e+00 1.420166e+00 1.757443e+00 1.203677e+00 1.026427e+00 2.421259e-01
<GCONST> 7.963610e+01
<STATE> 4
<MEAN> 25
 8.859224e+00 -8.094349e-01 -6.377708e+00 -1.972229e+00 -2.289609e+00 7.009348e-01 -6.040992e+00 -5.285890e+00 -3.567248e+00 2.332996e+00 -8.337156e-01 -2.799010e+00 -3.305148e-01 6.419489e-01 1.245914e+00 9.511358e-01 -2.888284e-01 -1.059713e+00 -1.429612e-01 3.069497e-01 1.410056e+00 -1.465647e+00 -1.074883e+00 4.775403e-01 -5.741176e-01
<VARIANCE> 25
 6.565785e+00 1.573457e+01 1.772026e+01 3.538233e+01 2.746045e+01 4.002166e+01 4.554363e+01 2.308372e+01 3.353306e+01 3.497081e+01 3.102855e+01 2.006877e+01 2.396844e-01 1.322394e+00 9.343859e-01 1.383820e+00 1.962880e+00 1.445126e+00 3.099197e+00 2.654576e+00 2.807880e+00 1.279969e+00 1.913311e+00 1.485117e+00 4.793233e-01
<GCONST> 8.833291e+01
<TRANSP> 5
 0.000000e+00 1.000000e+00 0.000000e+00 0.000000e+00 0.000000e+00
 0.000000e+00 8.730422e-01 1.269578e-01 0.000000e+00 0.000000e+00
 0.000000e+00 0.000000e+00 8.976919e-01 1.023081e-01 0.000000e+00
 0.000000e+00 0.000000e+00 0.000000e+00 8.498530e-01 1.501470e-01
 0.000000e+00 0.000000e+00 0.000000e+00 0.000000e+00 0.000000e+00
<ENDHMM>
~h "ay"
<BEGINHMM>
<NUMSTATES> 5
<STATE> 2
<MEAN> 25
 9.920713e+00 -1.048379e+01 -8.676413e+00 -4.077054e+00 3.889633e+00 4.031889e+00 -4.560001e+00 -7.694739e-02 -3.183040e+00 3.224180e+00 -5.578694e+00 -1.800418e+00 -5.082474e-02 -7.178487e-01 -1.454447e-02 3.538750e-02 5.937953e-01 3.932995e-01 5.541629e-02 6.591593e-01 -2.794404e-01 -1.974663e-02 -6.203564e-01 -2.754324e-01 2.114045e-01
<VARIANCE> 25
 7.156688e+00 1.472814e+01 1.671354e+01 9.873297e+00 2.241738e+01 3.179054e+01 4.315940e+01 4.850657e+01 3.750962e+01 3.398432e+01 4.308168e+01 2.025274e+01 2.087281e-01 5.221053e-01 9.572083e-01 7.816129e-01 1.027845e+00 1.252854e+00 1.390089e+00 1.198491e+00 1.293202e+00 7.201003e-01 1.195951e+00 8.980891e-01 2.595746e-01
<GCONST> 8.075636e+01
<STATE> 3
<MEAN> 25
 8.727715e+00 -1.310076e+01 -5.126815e+00 -2.424999e+00 2.714250e+00 1.213254e+00 -5.178216e+00 5.977476e+00 -2.548253e+00 1.937170e+00 -8.228435e+00 -2.993162e+00 -4.076714e-01 -1.675074e-01 1.344250e+00 3.219768e-01 -1.205465e+00 -1.022053e+00 2.306765e-01 1.117147e+00 -3.774908e-01 -2.263566e-01 1.876822e-02 2.963287e-01 6.890832e-02
<VARIANCE> 25
 4.295607e+00 1.467722e+01 1.607778e+01 3.647882e+00 1.546295e+01 1.923057e+01 3.575644e+01 4.315488e+01 2.156089e+01 3.912320e+01 1.322134e+01 1.882962e+01 1.897623e-01 3.756940e-01 1.086956e+00 5.352237e-01 1.504045e+00 9.666696e-01 8.759397e-01 1.483607e+00 7.820168e-01 8.161447e-01 9.486921e-01 6.267342e-01 7.340198e-02
<GCONST> 7.332662e+01
<STATE> 4
<MEAN> 25
 4.243530e+00 -6.473773e+00 8.532898e+00 -4.798329e+00 -9.774605e+00 -2.714184e+00 -4.929637e+00 4.288525e+00 -8.664938e+00 4.542130e+00 -2.055304e+00 -6.176383e-01 -3.721731e-01 1.229717e+00 1.068605e+00 -1.544560e-01 -1.013638e+00 -3.886112e-01 -9.753633e-02 -8.063370e-01 -5.369009e-01 2.805742e-01 7.762791e-01 3.922589e-02 -5.300866e-01
<VARIANCE> 25
 5.458681e+00 2.617315e+01 3.111896e+01 1.685301e+01 2.401586e+01 3.670699e+01 2.365346e+01 5.380180e+01 2.669329e+01 2.697966e+01 2.261593e+01 1.557288e+01 4.234152e-01 9.184191e-01 3.054364e+00 1.629885e+00 2.597566e+00 1.605346e+00 1.809817e+00 1.835021e+00 1.724434e+00 2.387898e+00 1.881532e+00 1.084795e+00 2.643529e-01
<GCONST> 8.763248e+01
<TRANSP> 5
 0.000000e+00 1.000000e+00 0.000000e+00 0.000000e+00 0.000000e+00
 0.000000e+00 8.185085e-01 1.814915e-01 0.000000e+00 0.000000e+00
 0.000000e+00 0.000000e+00 7.818480e-01 2.181520e-01 0.000000e+00
 0.000000e+00 0.000000e+00 0.000000e+00 8.857152e-01 1.142848e-01
 0.000000e+00 0.000000e+00 0.000000e+00 0.000000e+00 0.000000e+00
<ENDHMM>
~h "ch"
<BEGINHMM>
<NUMSTATES> 5
<STATE> 2
<MEAN> 25
 -4.238894e-01 5.446705e+00 2.139352e+00 3.594599e+00 4.576093e+00 1.269920e+00 7.341561e+00 4.438124e+00 4.014611e+00 -4.315893e+00 1.699762e-01 2.299074e+00 -5.225407e-01 3.916096e-01 3.881096e-01 4.441549e-02 8.215207e-01 3.612686e-01 -9.799134e-03 2.007975e-01 -9.143520e-02 -7.460914e-02 2.413104e-01 -9.189035e-01 -9.620561e-01
<VARIANCE> 25
 2.430997e+01 1.450282e+01 8.061300e+00 1.406132e+01 2.692787e+01 4.032915e+01 4.060044e+01 3.191292e+01 4.791540e+01 1.069306e+01 9.998993e+00 1.614619e+01 1.819161e+00 1.950176e+00 9.949489e-01 1.176556e+00 1.759175e+00 1.175760e+00 3.116732e+00 2.449163e+00 3.028285e+00 9.263301e-01 8.515142e-01 1.605154e+00 4.773458e-01
<GCONST> 8.681044e+01
<STATE> 3
<MEAN> 25
 -6.802883e+00 2.992887e+00 4.180849e+00 1.456178e+00 4.674019e+00 4.337128e+00 2.115572e+00 1.017193e+00 4.093316e+00 -1.187590e+00 4.763280e+00 -8.630868e-01 -2.026224e+00 -1.301195e+00 4.789270e-01 -4.531764e-01 -3.906507e-01 1.290541e+00 -1.014664e+00 -1.184134e+00 5.695224e-01 5.295571e-01 8.793090e-01 7.058557e-02 1.136747e+00
<VARIANCE> 25
 2.810168e+01 1.840338e+01 8.379328e+00 1.839820e+01 2.545567e+01 3.741220e+01 4.437769e+01 5.420880e+01 7.563917e+01 3.957603e+01 1.562054e+01 2.375080e+01 1.674473e+00 1.134045e+00 4.820090e-01 9.180340e-01 2.462629e+00 2.402598e+00 3.837563e+00 2.764680e+00 2.937752e+00 3.260253e+00 1.876653e+00 2.075816e+00 1.265519e+00
<GCONST> 9.361853e+01
<STATE> 4
<MEAN> 25
 -1.124313e+01 -4.154484e+00 7.178926e+00 2.106433e+00 -6.395679e+00 1.213240e+00 1.131935e+00 -5.163218e+00 6.239960e+00 -1.326823e+00 2.749150e+00 1.349739e-01 1.583994e+00 -1.183679e-01 -2.529739e-01 1.936884e-01 -7.152110e-01 -1.554839e+00 -9.723216e-03 -1.827909e-01 -3.309305e-01 -1.166723e-01 -3.378662e-01 -1.088934e-02 4.314115e-01
<VARIANCE> 25
 5.519496e+01 1.046756e+01 6.232533e+00 4.049899e+01 2.003506e+01 5.800301e+01 1.448394e+01 2.277677e+01 3.913782e+01 1.400846e+01 1.300791e+01 8.458254e+00 7.321440e+00 2.029309e+00 1.970504e+00 1.933100e+00 3.481704e+00 2.326522e+00 2.315743e+00 3.860100e+00 4.411746e+00 1.989344e+00 1.435803e+00 1.244055e+00 1.656825e+00
<GCONST> 9.327667e+01
<TRANSP> 5
 0.000000e+00 1.000000e+00 0.000000e+00 0.000000e+00 0.000000e+00
 0.000000e+00 8.017002e-01 1.982998e-01 0.000000e+00 0.000000e+00
 0.000000e+00 0.000000e+00 8.359711e-01 1.640290e-01 0.000000e+00
 0.000000e+00 0.000000e+00 0.000000e+00 8.990329e-01 1.009671e-01
 0.000000e+00 0.000000e+00 0.000000e+00 0.000000e+00 0.000000e+00
<ENDHMM>
~h "dh"
<BEGINHMM>
<NUMSTATES> 5
<STATE> 2
<MEAN> 25
 9.583755e+00 -6.974123e+00 2.380381e+00 3.572681e+00 -1.036655e+01 -9.587528e+00 -6.098705e+00 2.720589e+00 2.337489e+00 -2.195090e-01 1.545376e+00 2.107635e+00 -1.408623e-01 9.794442e-02 3.136793e-01 3.090343e-01 5.653697e-02 -4.223722e-01 2.222994e-01 3.906474e-02 -2.536617e-01 -5.655192e-01 3.465182e-01 1.297436e-01 -4.350703e-01
<VARIANCE> 25
 5.715913e+00 9.010285e+00 8.549461e+00 1.921749e+01 1.601568e+01 2.585109e+01 2.548080e+01 1.831169e+01 1.645720e+01 2.143798e+01 1.710988e+01 1.146875e+01 2.956669e-01 7.446183e-01 4.890297e-01 8.215092e-01 1.152299e+00 1.293491e+00 1.283895e+00 1.623740e+00 8.673253e-01 1.367108e+00 1.050655e+00 9.840335e-01 2.819984e-01
<GCONST> 7.595305e+01
<STATE> 3
<MEAN> 25
 3.423928e+00 -1.682552e-01 3.212666e+00 4.594169e+00 -2.198357e+00 -5.060078e+00 1.584758e+00 -1.541602e+00 -3.576876e+00 -4.901486e+00 -3.181724e-01 -1.269498e+00 -1.097047e+00 5.242065e-01 -7.302144e-02 -7.672327e-02 1.245065e+00 9.789752e-01 8.405006e-01 1.458868e-01 2.295401e-01 -4.138236e-01 -1.727664e-01 4.760524e-02 -1.080921e+00
<VARIANCE> 25
 1.722645e+01 1.107097e+01 1.273230e+01 1.411811e+01 2.750480e+01 2.465856e+01 2.401274e+01 2.988558e+01 2.611237e+01 1.173567e+01 1.645585e+01 2.535074e+01 5.269225e-01 6.268594e-01 1.022873e+00 1.050236e+00 1.241932e+00 1.431868e+00 1.904375e+00 2.481029e+00 2.509268e+00 1.840648e+00 2.007529e+00 3.846266e-01 3.378863e-01
<GCONST> 8.252214e+01
<STATE> 4
<MEAN> 25
 -6.543445e+00 9.847387e-01 3.408715e-01 3.081403e+00 7.238168e+00 3.414833e+00 4.870029e+00 3.474805e+00 5.565258e+00 -1.244625e+00 1.777745e+00 2.951119e+00 -5.028173e-02 2.596380e-02 -1.708890e-01 -8.468255e-02 2.855876e-01 2.307816e-01 -2.168590e-02 6.855774e-02 2.080167e-01 2.714945e-01 1.626744e-01 1.333999e-01 -7.963605e-02
<VARIANCE> 25
 4.067096e+00 5.446685e+00 1.871418e+01 1.119814e+01 2.624576e+01 1.404101e+01 1.813094e+01 2.067229e+01 1.791455e+01 1.892726e+01 1.084875e+01 1.548012e+01 6.176310e-01 5.947082e-01 1.006302e+00 1.308951e+00 1.464131e+00 1.553499e+00 1.514850e+00 1.519218e+00 1.615847e+00 1.614107e+00 1.346952e+00 1.256665e+00 2.672466e-01
<GCONST> 7.827023e+01
<TRANSP> 5
 0.000000e+00 1.000000e+00 0.000000e+00 0.000000e+00 0.000000e+00
 0.000000e+00 9.140075e-01 8.599249e-02 0.000000e+00 0.000000e+00
 0.000000e+00 0.000000e+00 8.433229e-01 1.566771e-01 0.000000e+00
 0.000000e+00 0.000000e+00 0.000000e+00 9.471500e-01 5.284999e-02
 0.000000e+00 0.000000e+00 0.000000e+00 0.000000e+00 0.000000e+00
<ENDHMM>
~h "eh"
<BEGINHMM>
<NUMSTATES> 5
<STATE> 2
<MEAN> 25
 5.234549e+00 -7.152115e+00 3.537024e+00 -2.463531e+00 -8.822570e+00 -4.859734e+00 -1.634579e+00 1.933769e+00 -5.665788e+00 5.231930e+00 -4.212355e+00 1.101999e-01 1.446946e-01 -3.868144e-02 8.744349e-02 -1.495936e-01 -1.658892e-01 4.289895e-04 -1.078569e-01 2.680459e-01 -2.941748e-01 5.266901e-02 -1.927942e-01 9.520524e-02 -1.332452e-02
<VARIANCE> 25
 6.112976e+00 2.090585e+01 3.505425e+01 1.840800e+01 3.661046e+01 2.022339e+01 3.118715e+01 3.116924e+01 2.535843e+01 1.978674e+01 3.284201e+01 2.024022e+01 6.237881e-01 1.744382e+00 1.406345e+00 9.842405e-01 1.767561e+00 1.425491e+00 1.659979e+00 1.638703e+00 1.711567e+00 1.295795e+00 1.669306e+00 1.176869e+00 1.156719e+00
<GCONST> 8.742292e+01
<STATE> 3
<MEAN> 25
 6.336888e+00 -1.985561e+00 2.359285e+00 8.724349e-02 -7.021916e+00 -5.586990e+00 -1.389331e+00 2.425071e+00 -3.347364e+00 8.399971e-01 -4.253718e+00 -4.100896e-01 7.495429e-02 1.224037e+00 -2.242933e-01 6.012509e-01 1.135032e+00 -8.278705e-02 9.401388e-02 -2.861953e-01 6.419396e-01 -1.099805e+00 5.043814e-01 -1.659686e-01 -1.402851e+00
<VARIANCE> 25
 7.452723e+00 5.422644e+01 2.697404e+01 1.620707e+01 3.538639e+01 2.754579e+01 3.169410e+01 2.149454e+01 2.139389e+01 3.109188e+01 2.753190e+01 1.664569e+01 7.882986e-01 1.914431e+00 1.794492e+00 1.620386e+00 3.282556e+00 1.965015e+00 2.540558e+00 1.829842e+00 1.881024e+00 2.701346e+00 1.159044e+00 1.490838e+00 1.366734e+00
<GCONST> 9.142724e+01
<STATE> 4
<MEAN> 25
 2.061158e+00 9.146059e-01 8.068682e-01 2.513302e+00 -3.885978e-01 -2.239139e+00 4.351865e-01 1.253280e+00 2.216587e+00 -8.330022e-01 -2.295611e+00 1.402180e+00 -2.576165e-01 2.273421e-01 -2.593236e-01 -1.570324e-01 4.546177e-01 8.049874e-01 2.362860e-02 -1.338817e-01 6.075851e-01 2.017729e-01 3.438154e-01 -2.288368e-01 -4.722290e-01
<VARIANCE> 25
 2.897310e+01 2.805610e+01 1.614535e+01 2.242453e+01 4.303273e+01 3.867953e+01 4.822498e+01 3.154506e+01 3.713504e+01 3.949120e+01 2.678392e+01 1.812401e+01 1.798762e+00 2.047657e+00 1.387622e+00 2.204593e+00 3.497236e+00 3.286444e+00 2.419248e+00 2.582665e+00 1.911065e+00 3.773542e+00 1.728715e+00 1.588452e+00 1.488573e+00
<GCONST> 9.683915e+01
<TRANSP> 5
 0.000000e+00 1.000000e+00 0.000000e+00 0.000000e+00 0.000000e+00
 0.000000e+00 8.758229e-01 1.241771e-01 0.000000e+00 0.000000e+00
 0.000000e+00 0.000000e+00 6.429023e-01 3.570978e-01 0.000000e+00
 0.000000e+00 0.000000e+00 0.000000e+00 6.542904e-01 3.457096e-01
 0.000000e+00 0.000000e+00 0.000000e+00 0.000000e+00 0.000000e+00
<ENDHMM>
~h "er"
<BEGINHMM>
<NUMSTATES> 5
<STATE> 2
<MEAN> 25
 1.019346e+01 -9.173694e+00 -3.766237e+00 5.012100e+00 -7.794002e+00 -8.877791e+00 -9.059206e+00 2.806472e+00 -2.082352e-01 -9.820746e-01 2.573954e+00 3.048517e+00 1.190492e-01 -2.340077e-01 7.930513e-02 1.736509e-01 -9.499611e-02 -5.212878e-01 7.382737e-02 2.769658e-01 8.323354e-02 -2.340087e-01 7.039304e-02 2.286909e-01 -1.053705e-01
<VARIANCE> 25
 9.216804e+00 1.113822e+01 3.405961e+01 1.856776e+01 4.326859e+01 2.748780e+01 2.738921e+01 2.578343e+01 1.756057e+01 1.690668e+01 1.314592e+01 1.419662e+01 2.101811e-01 5.557787e-01 9.854422e-01 7.193843e-01 1.334487e+00 1.116007e+00 1.527811e+00 1.289476e+00 9.220245e-01 7.489283e-01 5.927697e-01 8.054335e-01 1.707750e-01
<GCONST> 7.729954e+01
<STATE> 3
<MEAN> 25
 8.511024e+00 -6.593516e+00 5.458878e-01 4.484518e+00 -9.363733e+00 -1.083014e+01 -4.090078e+00 1.494968e+00 -1.219106e+00 -2.184238e+00 3.325952e+00 3.259544e+00 -6.516099e-01 1.089845e+00 9.097030e-01 -3.136007e-01 7.743488e-02 5.180631e-01 6.502615e-01 -4.074614e-01 -1.334883e-01 -5.162508e-02 -4.179464e-01 -1.020382e-01 -8.089504e-01
<VARIANCE> 25
 1.137061e+01 1.836813e+01 2.608326e+01 1.212996e+01 3.964734e+01 2.849234e+01 3.078047e+01 2.333643e+01 1.531316e+01 1.497824e+01 1.683259e+01 1.131153e+01 3.390293e-01 7.548567e-01 1.039982e+00 8.570176e-01 2.333333e+00 1.933181e+00 1.553987e+00 2.060115e+00 1.263957e+00 9.494959e-01 1.231568e+00 8.498720e-01 4.561457e-01
<GCONST> 8.197172e+01
<STATE> 4
<MEAN> 25
 -2.341913e+00 1.184810e+00 2.338415e+00 3.506346e+00 3.718779e+00 -1.207617e+00 3.893800e+00 5.600249e+00 4.171511e+00 -1.086918e+00 1.291247e+00 3.489056e+00 -6.563127e-01 2.268528e-01 -4.685825e-02 -1.522564e-01 7.886333e-01 7.779460e-01 4.491800e-01 1.505337e-01 3.682876e-01 2.776523e-01 -4.519105e-03 -1.324222e-01 -5.292187e-01
<VARIANCE> 25
 2.062268e+01 9.025929e+00 1.533824e+01 1.207236e+01 3.816330e+01 4.873903e+01 2.823072e+01 1.869641e+01 2.448703e+01 2.232789e+01 1.568400e+01 1.381996e+01 7.401172e-01 9.251528e-01 1.097939e+00 1.237510e+00 1.852939e+00 2.255482e+00 2.214744e+00 2.403885e+00 2.680616e+00 1.899282e+00 1.578424e+00 1.360717e+00 5.984967e-01
<GCONST> 8.678329e+01
<TRANSP> 5
 0.000000e+00 1.000000e+00 0.000000e+00 0.000000e+00 0.000000e+00
 0.000000e+00 8.981450e-01 1.018550e-01 0.000000e+00 0.000000e+00
 0.000000e+00 0.000000e+00 7.739994e-01 2.260006e-01 0.000000e+00
 0.000000e+00 0.000000e+00 0.000000e+00 8.802965e-01 1.197035e-01
 0.000000e+00 0.000000e+00 0.000000e+00 0.000000e+00 0.000000e+00
<ENDHMM>
~h "ey"
<BEGINHMM>
<NUMSTATES> 5
<STATE> 2
<MEAN> 25
 2.712892e+00 -7.985068e+00 6.371831e+00 -2.302364e+00 -1.124201e+01 -3.640777e+00 -1.709812e+00 2.644529e+00 -5.296855e+00 4.570616e+00 -2.286731e-01 -6.345989e-01 3.868122e-02 -1.070693e-01 1.574376e+00 -1.059055e+00 -2.075467e+00 2.777756e-01 -6.130623e-01 -2.980770e-01 -1.233446e+00 7.523988e-01 4.832466e-01 -1.989048e-01 9.994384e-01
<VARIANCE> 25
 1.072945e+01 3.129158e+01 2.214170e+01 2.724120e+01 3.981599e+01 2.495382e+01 4.237465e+01 3.322362e+01 2.663564e+01 2.206362e+01 4.015241e+01 1.245134e+01 1.311253e+00 3.568356e+00 1.535842e+00 2.422179e+00 3.661381e+00 2.477780e+00 3.523937e+00 2.524833e+00 2.194018e+00 1.742268e+00 1.631306e+00 9.555432e-01 3.512082e+00
<GCONST> 9.519609e+01
<STATE> 3
<MEAN> 25
 1.965532e+00 -4.519518e-02 1.275607e+01 -6.137900e+00 -1.576690e+01 7.824678e-01 -7.807467e+00 -2.885692e+00 -8.082073e+00 3.632344e+00 3.676140e+00 -5.227743e+00 -7.313047e-02 6.788317e-01 8.647302e-02 -1.569083e-01 4.601773e-02 2.039517e-01 -5.137423e-03 -9.288055e-02 1.486894e-02 -3.403182e-01 -7.959548e-02 -4.134818e-01 -4.011213e-01
<VARIANCE> 25
 2.956294e+00 2.490897e+01 1.243755e+01 1.495967e+01 1.593611e+01 2.324091e+01 1.906596e+01 1.639763e+01 1.362887e+01 2.064193e+01 1.867564e+01 1.902218e+01 1.762230e-01 7.476459e-01 5.618996e-01 8.069724e-01 8.688848e-01 9.324856e-01 1.180104e+00 9.683701e-01 7.768833e-01 8.304581e-01 6.883264e-01 7.200983e-01 2.192497e-01
<GCONST> 7.309170e+01
<STATE> 4
<MEAN> 25
 2.663486e+00 3.329342e+00 8.371990e+00 -3.055767e+00 -1.122116e+01 -1.556614e+00 -3.506671e+00 -1.470528e+00 -5.401855e+00 -4.050769e-01 8.563616e-01 -5.204815e+00 8.490235e-04 4.607621e-01 -1.177036e+00 1.079884e+00 2.470921e+00 -6.902180e-01 6.807954e-01 1.478947e-01 1.546658e+00 -1.021872e+00 -5.357622e-01 1.053251e+00 -1.194394e+00
<VARIANCE> 25
 7.921822e+00 4.366235e+01 2.543662e+01 1.996104e+01 4.841099e+01 2.439017e+01 3.005407e+01 2.882588e+01 2.163401e+01 2.492576e+01 2.912206e+01 2.655706e+01 1.169990e+00 2.431906e+00 1.007967e+00 1.585070e+00 3.208908e+00 1.991243e+00 3.189669e+00 2.519100e+00 2.834226e+00 1.653036e+00 1.864353e+00 1.808461e+00 1.576513e+00
<GCONST> 9.346989e+01
<TRANSP> 5
 0.000000e+00 1.000000e+00 0.000000e+00 0.000000e+00 0.000000e+00
 0.000000e+00 7.928146e-01 2.071854e-01 0.000000e+00 0.000000e+00
 0.000000e+00 0.000000e+00 9.079486e-01 9.205142e-02 0.000000e+00
 0.000000e+00 0.000000e+00 0.000000e+00 7.493135e-01 2.506866e-01
 0.000000e+00 0.000000e+00 0.000000e+00 0.000000e+00 0.000000e+00
<ENDHMM>
~h "hh"
<BEGINHMM>
<NUMSTATES> 5
<STATE> 2
<MEAN> 25
 -3.207050e+00 -1.181327e+01 3.814641e-01 7.792847e-01 7.498522e-01 4.468515e+00 7.153102e+00 5.444444e-01 -8.855343e-01 -8.401567e-01 8.393125e-01 -3.636072e-01 6.841788e-03 -1.343296e+00 -4.295172e-01 -2.758936e-01 -2.708241e-03 4.714865e-01 5.993140e-01 -1.157082e-01 -5.801958e-01 -4.529037e-03 4.502111e-02 2.149133e-02 1.012359e+00
<VARIANCE> 25
 9.853156e+00 3.783511e+01 1.685323e+01 1.468957e+01 3.192897e+01 1.509834e+01 2.521937e+01 2.667198e+01 2.830621e+01 2.051622e+01 1.350336e+01 1.428312e+01 4.747404e-01 1.640033e+00 1.143784e+00 2.142236e+00 1.711469e+00 1.558049e+00 2.417150e+00 2.759968e+00 2.548116e+00 1.848948e+00 1.770839e+00 1.544131e+00 1.026318e+00
<GCONST> 8.780167e+01
<STATE> 3
<MEAN> 25
 1.081817e+00 -1.146911e+01 -6.726499e-02 1.633100e+00 2.516764e+00 2.887244e+00 5.597824e+00 1.776908e-01 -3.364400e+00 -5.635314e-01 -3.646790e+00 3.933935e-01 1.423804e+00 1.089390e+00 2.589016e-01 4.130572e-02 -4.140619e-01 -1.052718e+00 -1.208837e+00 -2.884413e-01 -5.066680e-01 2.817851e-01 -1.367036e+00 1.019416e-01 6.145980e-01
<VARIANCE> 25
 1.873006e+01 3.021686e+01 2.607566e+01 2.920821e+01 3.623595e+01 3.157516e+01 2.216796e+01 2.832209e+01 2.708737e+01 2.021604e+01 1.617854e+01 1.132561e+01 1.132702e+00 1.377437e+00 1.264764e+00 2.146961e+00 2.505345e+00 2.447376e+00 1.934617e+00 1.811446e+00 1.937107e+00 1.722996e+00 1.121349e+00 1.044717e+00 2.501481e-01
<GCONST> 8.841100e+01
<STATE> 4
<MEAN> 25
 6.321984e+00 -1.138030e+01 -1.374724e+00 -3.818599e+00 -3.145523e+00 9.857638e-01 -1.706649e+00 3.628788e-01 -6.259845e+00 4.193007e+00 -9.632843e+00 -1.395495e-01 6.108271e-02 1.761639e-01 -1.364594e-01 -1.977749e-01 -2.876930e-01 -9.280900e-02 -2.016322e-01 7.079835e-02 1.743414e-01 2.098210e-01 -2.119412e-01 -1.758102e-01 3.767233e-02
<VARIANCE> 25
 5.881281e+00 1.520839e+01 2.370939e+01 2.124914e+01 6.409856e+01 1.909951e+01 4.641852e+01 1.905646e+01 1.586458e+01 1.328723e+01 8.513487e+00 1.092564e+01 5.672806e-01 5.891470e-01 6.112161e-01 1.370796e+00 1.542163e+00 8.665085e-01 1.694483e+00 9.945133e-01 9.354683e-01 7.323093e-01 5.761971e-01 5.903818e-01 4.480481e-01
<GCONST> 7.772105e+01
<TRANSP> 5
 0.000000e+00 1.000000e+00 0.000000e+00 0.000000e+00 0.000000e+00
 0.000000e+00 8.468234e-01 1.531767e-01 0.000000e+00 0.000000e+00
 0.000000e+00 0.000000e+00 7.800103e-01 2.199897e-01 0.000000e+00
 0.000000e+00 0.000000e+00 0.000000e+00 8.650971e-01 1.349029e-01
 0.000000e+00 0.000000e+00 0.000000e+00 0.000000e+00 0.000000e+00
<ENDHMM>
~h "ih"
<BEGINHMM>
<NUMSTATES> 5
<STATE> 2
<MEAN> 25
 2.093890e+00 -8.383440e-01 6.353063e+00 8.521143e-01 -9.055825e+00 -6.047950e+00 -4.246530e+00 -3.298216e+00 -3.080320e+00 1.066229e-01 1.276825e+00 -4.779255e-01 5.227588e-01 -7.382778e-01 2.024183e+00 -1.242360e+00 -2.889591e+00 -8.729640e-02 -1.304991e+00 4.885381e-01 -1.845983e+00 4.340522e-01 4.245884e-01 -8.075799e-01 1.091824e+00
<VARIANCE> 25
 2.131035e+01 3.755460e+01 3.961978e+01 2.967868e+01 6.237181e+01 4.166319e+01 4.745780e+01 3.722171e+01 3.284182e+01 2.418422e+01 2.249689e+01 2.099296e+01 3.794353e+00 2.385036e+00 2.423863e+00 2.639863e+00 4.061157e+00 4.381215e+00 4.719550e+00 3.833318e+00 3.359718e+00 3.354590e+00 2.707359e+00 2.157845e+00 2.436286e+00
<GCONST> 1.027869e+02
<STATE> 3
<MEAN> 25
 1.873584e+00 -8.912510e-01 1.372141e+01 -5.278333e+00 -1.663382e+01 -2.533436e+00 -8.642740e+00 -2.448928e+00 -8.699665e+00 1.689370e+00 3.000426e+00 -4.710995e+00 -1.001897e-01 1.973145e-01 -2.683809e-02 -2.392235e-01 -3.052692e-01 3.463733e-01 1.037965e-01 -9.553889e-02 -2.997933e-01 1.758703e-01 -1.047895e-01 -3.320283e-01 -1.202488e-01
<VARIANCE> 25
 6.235426e+00 1.654278e+01 1.458871e+01 1.873821e+01 2.813202e+01 2.119691e+01 1.900244e+01 1.607784e+01 1.892196e+01 3.885953e+01 1.736678e+01 2.219427e+01 2.287354e-01 1.194831e+00 1.047123e+00 1.243851e+00 1.266582e+00 1.413353e+00 1.502409e+00 1.233231e+00 7.518609e-01 1.196258e+00 9.451270e-01 1.022057e+00 4.427494e-01
<GCONST> 8.007207e+01
<STATE> 4
<MEAN> 25
 2.203457e+00 2.088909e+00 8.200785e+00 -1.773466e-01 -1.046728e+01 -4.730588e+00 -2.264141e+00 -3.404565e+00 -4.842257e+00 6.917998e-02 8.979900e-01 -2.701695e+00 -1.129303e-01 5.271505e-01 -1.205696e+00 9.000702e-01 2.058854e+00 -1.864818e-01 9.935446e-01 6.961440e-02 1.303254e+00 -5.097200e-01 -3.731242e-01 8.168519e-01 -1.226581e+00
<VARIANCE> 25
 1.811701e+01 2.220200e+01 2.776926e+01 3.558458e+01 5.022771e+01 3.507718e+01 3.154471e+01 2.675454e+01 3.224844e+01 2.772467e+01 1.677841e+01 2.518059e+01 1.859643e+00 2.118466e+00 2.131846e+00 2.035768e+00 3.694811e+00 2.304818e+00 3.439233e+00 2.142762e+00 2.519858e+00 2.803288e+00 1.651100e+00 2.158045e+00 1.703411e+00
<GCONST> 9.663047e+01
<TRANSP> 5
 0.000000e+00 1.000000e+00 0.000000e+00 0.000000e+00 0.000000e+00
 0.000000e+00 7.014775e-01 2.985224e-01 0.000000e+00 0.000000e+00
 0.000000e+00 0.000000e+00 8.301988e-01 1.698012e-01 0.000000e+00
 0.000000e+00 0.000000e+00 0.000000e+00 7.775827e-01 2.224174e-01
 0.000000e+00 0.000000e+00 0.000000e+00 0.000000e+00 0.000000e+00
<ENDHMM>
~h "iy"
<BEGINHMM>
<NUMSTATES> 5
<STATE> 2
<MEAN> 25
 -4.091393e-01 2.312608e+00 8.410966e+00 2.847467e+00 -1.154459e+01 -3.951345e+00 2.056149e+00 -6.967162e+00 -2.642230e+00 -1.198507e+00 1.779967e+00 -2.717369e+00 1.075025e+00 2.566559e-01 2.929160e+00 -1.489246e+00 -2.805653e+00 7.448018e-03 -1.594712e+00 -8.233627e-01 -2.067579e+00 -1.220747e-01 2.440735e-01 -1.943478e+00 7.652581e-01
<VARIANCE> 25
 3.261516e+01 3.479255e+01 4.704559e+01 2.379448e+01 5.168751e+01 3.431806e+01 4.642318e+01 3.230835e+01 4.257817e+01 1.696415e+01 2.278965e+01 2.732959e+01 3.255509e+00 2.667494e+00 1.961896e+00 3.235984e+00 3.238422e+00 4.109988e+00 5.469779e+00 2.555541e+00 3.342641e+00 2.801371e+00 2.863967e+00 2.568793e+00 1.206889e+00
<GCONST> 1.014687e+02
<STATE> 3
<MEAN> 25
 2.679727e+00 9.362708e-01 1.580707e+01 -1.458483e+00 -1.653258e+01 -3.421951e+00 -5.045394e+00 -5.740246e+00 -8.373281e+00 -2.411370e+00 4.762299e+00 -7.248180e+00 -4.348138e-02 3.230200e-01 7.192656e-01 -1.095841e+00 8.124854e-02 6.084484e-01 -1.398623e+00 7.082536e-01 -3.446029e-01 5.971480e-03 2.585562e-01 -7.734827e-01 6.575270e-02
<VARIANCE> 25
 8.021502e+00 3.174648e+01 1.309867e+01 2.424488e+01 2.655035e+01 2.588939e+01 1.823586e+01 2.320306e+01 1.926700e+01 2.572579e+01 2.113827e+01 3.051558e+01 9.777412e-01 2.192188e+00 1.154660e+00 2.060452e+00 1.855603e+00 2.359473e+00 1.549953e+00 1.706704e+00 2.099621e+00 1.773640e+00 2.933461e+00 1.448014e+00 2.008176e-01
<GCONST> 8.773769e+01
<STATE> 4
<MEAN> 25
 1.973659e+00 4.664587e+00 1.426802e+01 -3.430563e+00 -1.502291e+01 -2.965548e+00 -7.478148e+00 -2.849581e+00 -7.351542e+00 3.914899e-02 2.960662e+00 -8.456056e+00 1.195820e-01 -1.909754e-01 -6.353467e-01 4.360732e-01 4.987268e-01 -4.402878e-01 2.712509e-01 2.538228e-01 1.701123e-01 -7.548658e-04 -1.991532e-01 3.893537e-01 -2.294100e-01
<VARIANCE> 25
 5.075958e+00 2.920825e+01 2.125705e+01 3.776794e+01 3.804516e+01 2.071197e+01 1.621100e+01 2.404753e+01 1.699772e+01 2.977135e+01 2.059795e+01 2.355958e+01 3.742204e-01 1.152154e+00 8.298177e-01 1.225726e+00 2.258823e+00 1.356274e+00 1.469401e+00 1.802731e+00 1.256611e+00 1.297269e+00 1.051513e+00 9.818047e-01 5.469603e-01
<GCONST> 8.386722e+01
<TRANSP> 5
 0.000000e+00 1.000000e+00 0.000000e+00 0.000000e+00 0.000000e+00
 0.000000e+00 6.417286e-01 3.582714e-01 0.000000e+00 0.000000e+00
 0.000000e+00 0.000000e+00 6.758670e-01 3.241329e-01 0.000000e+00
 0.000000e+00 0.000000e+00 0.000000e+00 9.137283e-01 8.627166e-02
 0.000000e+00 0.000000e+00 0.000000e+00 0.000000e+00 0.000000e+00
<ENDHMM>
~h "jh"
<BEGINHMM>
<NUMSTATES> 5
<STATE> 2
<MEAN> 25
 2.652672e+00 7.185907e+00 7.581477e+00 3.031083e+00 -2.237295e+00 -4.998179e+00 -2.450100e+00 -2.603581e+00 -1.977372e+00 -5.177944e+00 2.589242e+00 1.702606e+00 -1.494608e+00 -1.614282e-01 -3.599269e-01 2.209900e-01 2.367585e+00 1.507169e+00 8.648540e-01 -8.007082e-02 5.558045e-01 1.175264e-02 -8.872416e-03 -4.074732e-01 -6.595026e-01
<VARIANCE> 25
 2.307892e+01 2.367649e+01 9.128513e+00 1.885121e+01 5.681683e+01 2.942395e+01 1.807530e+01 3.478326e+01 1.194116e+01 1.487349e+01 1.215368e+01 3.034264e+01 5.768233e+00 6.332264e+00 1.561528e+00 2.868145e+00 3.161270e+00 9.650646e-01 1.402778e+00 6.714899e+00 1.380683e+00 2.323556e+00 1.452648e+00 1.613185e+00 4.406663e+00
<GCONST> 9.430932e+01
<STATE> 3
<MEAN> 25
 -1.250219e+01 -1.228819e+00 9.072019e+00 1.114602e+00 -1.443165e-01 3.324107e+00 2.245120e+00 -2.792514e+00 5.802901e+00 -3.423159e+00 9.705960e-01 7.740694e-01 2.538953e-01 -2.159315e-01 3.994706e-01 -2.483190e-01 -8.440107e-01 -3.782855e-01 -4.130293e-02 -1.551153e-01 -2.030200e-02 7.404035e-02 -2.241966e-01 1.637563e-01 2.402876e-01
<VARIANCE> 25
 2.507060e+01 1.396339e+01 1.832132e+01 9.217726e+00 2.730207e+01 1.583752e+01 2.664339e+01 2.573940e+01 1.754401e+01 9.501075e+00 1.257240e+01 1.792908e+01 6.133012e+00 1.392474e+00 1.773135e+00 1.249187e+00 3.654180e+00 2.852318e+00 1.961054e+00 2.217713e+00 1.790280e+00 8.711952e-01 1.256580e+00 1.207668e+00 1.984250e+00
<GCONST> 8.836900e+01
<STATE> 4
<MEAN> 25
 3.918547e+00 -7.074515e+00 9.141963e+00 -3.164158e+00 -1.150967e+01 -7.215068e+00 -3.573149e+00 -4.653114e+00 -6.195388e+00 3.334089e-01 1.544529e+00 3.451178e-01 1.318311e+00 -1.456031e+00 -7.336397e-01 -3.943776e-01 -7.279141e-01 -5.826631e-01 -7.255846e-01 7.449077e-01 -1.132086e+00 1.203137e+00 1.007562e-01 2.627015e-01 8.795112e-04
<VARIANCE> 25
 1.481461e+01 2.141670e+01 1.254489e+01 5.151511e+00 3.515998e+01 1.552902e+01 1.679991e+01 1.522697e+01 1.511503e+01 1.249496e+01 6.012456e+00 8.256637e+00 1.778562e+00 1.012984e+00 1.201526e+00 5.896346e-01 1.463708e+00 1.192853e+00 6.210572e-01 1.710183e+00 9.858840e-01 6.126499e-01 7.756649e-01 9.624702e-01 7.564205e-02
<GCONST> 7.435166e+01
<TRANSP> 5
 0.000000e+00 1.000000e+00 0.000000e+00 0.000000e+00 0.000000e+00
 0.000000e+00 8.675166e-01 1.324833e-01 0.000000e+00 0.000000e+00
 0.000000e+00 0.000000e+00 9.053510e-01 9.464899e-02 0.000000e+00
 0.000000e+00 0.000000e+00 0.000000e+00 8.084108e-01 1.915892e-01
 0.000000e+00 0.000000e+00 0.000000e+00 0.000000e+00 0.000000e+00
<ENDHMM>
~h "ng"
<BEGINHMM>
<NUMSTATES> 5
<STATE> 2
<MEAN> 25
 7.197502e+00 2.942917e+00 -2.017811e+00 -2.229542e+00 4.706216e+00 4.322640e+00 3.073158e+00 -2.174776e+00 -5.498412e+00 -6.485882e+00 -1.720428e+00 -1.113777e+00 -3.151267e-01 5.043557e-01 3.374786e-01 9.966946e-01 2.491736e-01 -6.431655e-01 6.517283e-01 1.710736e-01 3.814547e-01 -2.423256e-01 -8.489330e-01 8.012298e-03 -6.661488e-01
<VARIANCE> 25
 9.252393e+00 6.608044e+00 1.103984e+01 1.645737e+01 3.570390e+01 1.949564e+01 1.817156e+01 1.056716e+01 1.920156e+01 2.288268e+01 1.348699e+01 2.700661e+01 1.963239e-01 2.984577e-01 1.055964e+00 7.642662e-01 1.217097e+00 1.349822e+00 1.502743e+00 9.659271e-01 8.113754e-01 8.463887e-01 1.645555e+00 8.679097e-01 7.522725e-02
<GCONST> 7.425954e+01
<STATE> 3
<MEAN> 25
 2.375612e+00 4.301590e+00 2.055249e+00 3.049210e+00 7.141600e+00 2.674691e+00 3.249126e+00 -1.217214e+00 -1.889781e+00 -6.226150e+00 -5.085733e+00 -3.356974e-01 -9.422678e-01 -2.770106e-01 2.781502e-01 4.561324e-01 3.539821e-01 7.315048e-02 1.833495e-01 5.895880e-01 6.835867e-01 2.149076e-01 2.454588e-01 1.546926e-01 -6.332836e-01
<VARIANCE> 25
 9.729223e+00 7.605960e+00 6.713780e+00 9.615717e+00 1.764786e+01 1.201165e+01 1.842013e+01 1.419782e+01 1.545009e+01 1.581887e+01 1.302191e+01 1.810272e+01 2.943616e-01 3.703626e-01 5.651054e-01 7.633719e-01 9.479941e-01 1.128715e+00 1.587355e+00 2.681735e+00 1.908815e+00 1.831095e+00 1.461475e+00 1.049695e+00 8.038744e-02
<GCONST> 7.392078e+01
<STATE> 4
<MEAN> 25
 -4.419959e+00 3.634843e-01 1.746860e+00 3.938946e+00 7.740008e+00 2.611538e+00 7.743799e+00 6.662940e+00 6.064836e+00 -1.340151e+00 2.705866e-01 2.389873e+00 -2.190617e-01 -1.772610e-01 -2.092871e-01 -1.449082e-01 -4.609217e-02 8.078879e-03 1.535668e-01 3.562162e-01 3.495151e-01 4.091564e-01 2.698434e-01 1.529993e-01 -1.257318e-01
<VARIANCE> 25
 3.356940e+00 5.486239e+00 5.631614e+00 6.334497e+00 1.095459e+01 1.201130e+01 1.390540e+01 1.470705e+01 1.406512e+01 2.083862e+01 2.361254e+01 1.454808e+01 2.124906e-01 3.971337e-01 7.195676e-01 7.083766e-01 1.043577e+00 1.092240e+00 1.298508e+00 1.562227e+00 1.261272e+00 1.550413e+00 1.611933e+00 1.420687e+00 6.294030e-02
<GCONST> 7.058021e+01
<TRANSP> 5
 0.000000e+00 1.000000e+00 0.000000e+00 0.000000e+00 0.000000e+00
 0.000000e+00 8.402042e-01 1.597959e-01 0.000000e+00 0.000000e+00
 0.000000e+00 0.000000e+00 8.278438e-01 1.721562e-01 0.000000e+00
 0.000000e+00 0.000000e+00 0.000000e+00 9.161774e-01 8.382260e-02
 0.000000e+00 0.000000e+00 0.000000e+00 0.000000e+00 0.000000e+00
<ENDHMM>
~h "ow"
<BEGINHMM>
<NUMSTATES> 5
<STATE> 2
<MEAN> 25
 1.102517e+01 4.357016e-01 -9.701731e+00 -6.948717e+00 -3.833941e+00 4.855482e+00 -8.322805e+00 -3.573145e+00 -8.885046e+00 5.728915e+00 4.537484e+00 5.863242e-01 3.511227e-01 3.187731e-01 -3.127551e-01 -6.555282e-01 -7.155277e-01 5.882725e-01 -2.725027e-02 1.565963e-01 -1.085281e+00 1.313720e-01 4.995431e-01 -2.809193e-01 2.990220e-01
<VARIANCE> 25
 5.264881e+00 2.310538e+01 9.348659e+00 7.426228e+01 2.847837e+01 3.714600e+01 5.784999e+01 3.289208e+01 1.959165e+01 1.776978e+01 4.562980e+01 1.357920e+01 1.014418e+00 7.913571e-01 7.678521e-01 1.572867e+00 1.215089e+00 7.608210e-01 1.639630e+00 1.280602e+00 1.155035e+00 1.382583e+00 1.042245e+00 5.847651e-01 1.148614e+00
<GCONST> 8.483146e+01
<STATE> 3
<MEAN> 25
 1.046549e+01 5.914700e+00 -8.537187e+00 -9.338815e+00 -7.739218e+00 4.675620e+00 -4.423519e+00 -3.203833e+00 -1.157409e+01 1.672369e+00 3.319256e+00 -6.307426e-02 -1.338482e-01 2.574806e-01 3.042439e-01 3.792578e-01 2.675349e-01 -2.945500e-01 4.766551e-02 -1.773816e-01 2.641735e-01 -3.645350e-01 -1.355286e-02 -4.403165e-03 -4.043086e-01
<VARIANCE> 25
 4.578035e+00 1.586293e+01 1.311218e+01 2.266955e+01 2.220518e+01 2.271975e+01 3.148356e+01 1.706095e+01 1.822064e+01 2.919093e+01 3.230514e+01 1.507623e+01 1.384186e-01 4.517629e-01 4.543710e-01 6.419508e-01 7.930857e-01 9.105268e-01 1.018332e+00 7.677737e-01 1.008762e+00 7.327334e-01 9.710168e-01 7.106944e-01 1.256566e-01
<GCONST> 7.357812e+01
<STATE> 4
<MEAN> 25
 3.802088e-01 3.149404e+00 -2.302527e-01 -1.104286e-01 4.326098e+00 2.621541e+00 2.012710e+00 4.180969e-01 8.894796e-01 -1.051231e+00 1.914465e+00 1.460262e+00 -6.948978e-01 -3.851732e-01 4.079091e-01 4.661263e-01 4.685630e-01 -4.446799e-02 3.498759e-01 5.110353e-01 7.995797e-01 -1.673259e-02 -2.717281e-01 2.899955e-02 -4.476872e-01
<VARIANCE> 25
 3.468703e+01 1.720786e+01 1.880520e+01 1.543622e+01 2.202856e+01 2.443290e+01 6.757031e+01 3.820691e+01 3.970936e+01 2.533921e+01 1.858753e+01 1.678304e+01 6.727758e-01 6.474718e-01 1.243667e+00 1.097973e+00 1.261479e+00 1.781798e+00 2.248456e+00 2.276589e+00 2.157554e+00 2.188451e+00 2.007739e+00 1.278276e+00 4.918668e-01
<GCONST> 8.851924e+01
<TRANSP> 5
 0.000000e+00 1.000000e+00 0.000000e+00 0.000000e+00 0.000000e+00
 0.000000e+00 8.133834e-01 1.866166e-01 0.000000e+00 0.000000e+00
 0.000000e+00 0.000000e+00 9.305106e-01 6.948934e-02 0.000000e+00
 0.000000e+00 0.000000e+00 0.000000e+00 9.120765e-01 8.792352e-02
 0.000000e+00 0.000000e+00 0.000000e+00 0.000000e+00 0.000000e+00
<ENDHMM>
~h "oy"
<BEGINHMM>
<NUMSTATES> 5
<STATE> 2
<MEAN> 25
 1.368484e+01 -3.855905e+00 -7.878232e+00 -6.970250e+00 -7.864204e+00 8.871241e+00 -4.182764e+00 -4.379220e+00 -9.692920e+00 5.302220e+00 2.696159e+00 -9.264862e-01 3.949381e-01 -8.031524e-01 2.005772e-02 -1.721263e-03 -4.525532e-01 -4.332415e-02 -1.024448e+00 2.865072e-01 -3.302689e-01 9.294911e-01 6.638916e-03 -3.819106e-01 6.471150e-01
<VARIANCE> 25
 1.642181e+01 3.919144e+01 2.578542e+01 1.928338e+01 5.268427e+01 4.499553e+01 4.777875e+01 3.330465e+01 2.115558e+01 3.309323e+01 1.946031e+01 1.068954e+01 2.356190e+00 1.477383e+00 3.126371e+00 3.504181e+00 2.790754e+00 4.071043e+00 3.710715e+00 1.719840e+00 2.939712e+00 2.179927e+00 2.554987e+00 1.851160e+00 1.002418e+00
<GCONST> 9.699378e+01
<STATE> 3
<MEAN> 25
 8.043109e+00 -1.053741e+01 7.879014e+00 -1.368742e+00 -1.219408e+01 -6.164205e+00 -1.323823e+01 3.011296e+00 -1.030492e+01 4.232172e+00 8.658741e-01 -4.305473e+00 -6.087388e-01 6.383654e-01 1.476812e+00 7.648777e-02 -3.417950e-01 -7.702107e-01 6.206891e-01 -3.853928e-02 6.540258e-02 -1.450033e+00 -3.338687e-01 3.071590e-01 -3.795772e-01
<VARIANCE> 25
 5.742338e+00 1.489818e+01 6.401210e+01 2.905848e+01 1.767946e+01 3.367910e+01 3.591832e+01 4.003805e+01 1.780128e+01 3.697069e+01 2.459679e+01 1.263109e+01 4.637116e-01 1.496687e+00 3.056069e+00 2.903200e+00 2.579946e+00 6.804634e+00 1.908591e+00 4.047030e+00 2.610484e+00 1.570066e+00 2.112305e+00 1.027141e+00 3.232398e-01
<GCONST> 9.159620e+01
<STATE> 4
<MEAN> 25
 3.930903e+00 -3.067334e+00 7.616623e+00 6.177862e-01 -8.384358e+00 -8.707076e+00 -7.012864e+00 -5.842597e+00 -3.195200e+00 -2.618806e+00 -3.378654e+00 -3.448407e+00 -1.678798e+00 1.911190e+00 -2.436354e+00 1.003883e+00 2.383457e+00 -5.316418e-02 2.248747e+00 -2.843675e+00 2.294340e+00 5.538285e-01 -9.737383e-01 8.374377e-01 -2.503361e-01
<VARIANCE> 25
 2.033812e+01 6.946167e+01 4.924191e+01 2.493899e+01 1.126167e+01 2.872017e+01 2.028182e+01 5.901889e+01 7.887891e+01 2.766595e+01 9.910769e+00 4.095602e+01 5.449757e+00 1.374771e+00 1.370460e+00 7.004222e+00 3.894466e-01 3.295710e+00 5.808325e+00 5.975432e+00 4.644450e+00 1.081246e+00 1.250308e+00 6.765934e-01 2.613792e-01
<GCONST> 9.505098e+01
<TRANSP> 5
 0.000000e+00 1.000000e+00 0.000000e+00 0.000000e+00 0.000000e+00
 0.000000e+00 9.347994e-01 6.520064e-02 0.000000e+00 0.000000e+00
 0.000000e+00 0.000000e+00 9.158667e-01 8.413327e-02 0.000000e+00
 0.000000e+00 0.000000e+00 0.000000e+00 6.445758e-01 3.554242e-01
 0.000000e+00 0.000000e+00 0.000000e+00 0.000000e+00 0.000000e+00
<ENDHMM>
~h "sh"
<BEGINHMM>
<NUMSTATES> 5
<STATE> 2
<MEAN> 25
 -1.127804e+01 2.237837e-01 1.034470e+01 1.600689e+00 -2.599569e+00 3.424983e+00 1.295834e+00 -2.771663e+00 6.974471e+00 -4.794541e+00 3.420550e+00 6.554158e-01 -2.349415e+00 -1.184272e+00 -2.281744e-01 4.291619e-01 7.116697e-01 1.019266e+00 5.880606e-01 -2.179173e-01 1.510970e+00 3.217332e-01 -9.238400e-02 3.293324e-01 7.089087e-01
<VARIANCE> 25
 4.486950e+01 2.087657e+01 2.045792e+01 2.134930e+01 3.213300e+01 3.225587e+01 2.507623e+01 2.166756e+01 2.658929e+01 1.698891e+01 2.313232e+01 1.031433e+01 3.096809e+00 1.831074e+00 1.589007e+00 3.266466e+00 4.599064e+00 4.162250e+00 2.478891e+00 2.880531e+00 3.735080e+00 1.933389e+00 2.177216e+00 1.147315e+00 4.364368e-01
<GCONST> 9.406105e+01
<STATE> 3
<MEAN> 25
 -1.408147e+01 -6.037413e+00 1.027896e+01 2.792445e+00 -6.406428e+00 3.290964e+00 3.201270e+00 -7.618658e+00 7.680033e+00 -7.985320e-01 1.219560e+00 3.875196e-01 1.254120e+00 5.423921e-02 2.817084e-02 -2.054812e-01 -6.848212e-01 -8.410505e-01 3.505062e-02 -4.047423e-01 -1.108314e+00 2.054301e-01 -2.534246e-02 -1.711990e-01 -3.883439e-01
<VARIANCE> 25
 2.265533e+01 1.124029e+01 1.248935e+01 1.539376e+01 2.380165e+01 1.339515e+01 1.875228e+01 1.955816e+01 2.401530e+01 1.395953e+01 1.330722e+01 1.401759e+01 3.820342e+00 1.237784e+00 6.686881e-01 2.307443e+00 1.561764e+00 1.559130e+00 1.862481e+00 1.910576e+00 3.673208e+00 1.675793e+00 1.577728e+00 1.002425e+00 3.573627e-01
<GCONST> 8.485188e+01
<STATE> 4
<MEAN> 25
 -4.861190e+00 -2.845784e+00 6.314367e+00 -4.921670e-01 -3.514986e+00 -1.783882e+00 2.055382e+00 -4.759751e+00 2.322141e-01 -4.853450e-03 3.284549e+00 1.529863e+00 1.621980e+00 -5.793716e-02 -2.418742e-01 -1.198104e+00 -3.202072e-01 -7.998077e-01 -8.115128e-01 4.771689e-01 -1.388360e+00 1.455759e-01 -4.010132e-02 1.027992e-01 2.347375e-01
<VARIANCE> 25
 5.489445e+01 1.913667e+01 4.107680e+01 4.893152e+01 6.373175e+01 2.778165e+01 3.149203e+01 3.306202e+01 4.819567e+01 1.357875e+01 1.605187e+01 1.810178e+01 4.954765e+00 2.766790e+00 2.375653e+00 3.091936e+00 3.515024e+00 4.124272e+00 4.028358e+00 4.984398e+00 4.829807e+00 1.437152e+00 1.898030e+00 1.790832e+00 3.084165e+00
<GCONST> 1.016656e+02
<TRANSP> 5
 0.000000e+00 1.000000e+00 0.000000e+00 0.000000e+00 0.000000e+00
 0.000000e+00 8.210996e-01 1.789004e-01 0.000000e+00 0.000000e+00
 0.000000e+00 0.000000e+00 8.661574e-01 1.338426e-01 0.000000e+00
 0.000000e+00 0.000000e+00 0.000000e+00 7.332258e-01 2.667742e-01
 0.000000e+00 0.000000e+00 0.000000e+00 0.000000e+00 0.000000e+00
<ENDHMM>
~h "sp"
<BEGINHMM>
<NUMSTATES> 3
<STATE> 2
~s "silst"
<TRANSP> 3
 0.000000e+00 7.000000e-01 3.000000e-01
 0.000000e+00 9.000000e-01 9.999999e-02
 0.000000e+00 0.000000e+00 0.000000e+00
<ENDHMM>
~h "th"
<BEGINHMM>
<NUMSTATES> 5
<STATE> 2
<MEAN> 25
 -1.517787e+00 3.167082e+00 -1.203743e+00 4.475797e+00 -1.991004e+00 -8.522468e-01 -2.250881e+00 -5.234930e+00 2.419555e+00 -3.404449e+00 -1.035963e+00 1.169478e+00 -5.903397e-01 2.171967e-01 -2.756220e-01 1.032680e-02 3.776684e-01 2.026421e-01 -2.737835e-01 7.583303e-02 6.061785e-01 2.371809e-02 2.813796e-01 2.302360e-01 -4.347898e-01
<VARIANCE> 25
 8.299073e+00 2.244202e+01 1.765393e+01 2.053478e+01 4.333655e+01 1.362827e+01 5.614924e+01 2.223707e+01 2.032888e+01 1.070191e+01 2.768725e+01 1.295544e+01 1.001024e+00 2.281629e+00 1.620695e+00 2.050909e+00 1.809053e+00 1.559429e+00 4.813257e+00 2.087425e+00 2.631267e+00 1.422162e+00 2.987320e+00 1.940340e+00 8.907469e-01
<GCONST> 9.017563e+01
<STATE> 3
<MEAN> 25
 -3.721721e+00 2.386726e-01 -1.517364e+00 1.898026e+00 2.008884e+00 1.411207e+00 1.045440e+00 8.024156e-03 3.690449e+00 -1.268482e+00 1.231019e+00 7.392339e-01 -8.999746e-02 1.683196e-01 5.910209e-02 -5.164810e-02 5.571878e-02 1.077257e-01 4.901167e-01 2.916803e-01 4.008278e-02 5.185632e-02 7.933536e-02 4.890630e-02 -3.743023e-01
<VARIANCE> 25
 8.581349e+00 1.919038e+01 7.648810e+00 1.039185e+01 2.230733e+01 1.034798e+01 1.966970e+01 2.478800e+01 1.661534e+01 1.321030e+01 1.413648e+01 1.220857e+01 8.352700e-01 1.097253e+00 1.263300e+00 1.770263e+00 2.649244e+00 1.156021e+00 2.799106e+00 3.381298e+00 1.440103e+00 1.295122e+00 1.102927e+00 1.269083e+00 1.815462e+00
<GCONST> 8.324026e+01
<STATE> 4
<MEAN> 25
 -7.283760e+00 9.728075e-01 -2.709945e+00 5.181074e+00 2.834655e-01 1.628871e+00 2.968723e+00 -3.017448e+00 6.686247e+00 -1.350150e+00 1.566685e+00 1.453809e+00 -9.485907e-02 -7.383340e-02 -1.979976e-01 9.784399e-02 -2.153647e-01 -2.755550e-02 1.929130e-01 -2.204760e-01 2.697596e-01 1.782586e-01 1.358244e-02 1.005155e-01 4.771934e-01
<VARIANCE> 25
 9.671467e+00 1.153259e+01 1.039011e+01 1.476951e+01 2.309932e+01 1.036019e+01 1.485474e+01 2.945812e+01 1.546925e+01 1.366088e+01 2.452582e+01 1.813540e+01 8.275333e-01 1.033778e+00 1.056379e+00 1.180840e+00 1.254461e+00 1.258470e+00 1.736501e+00 1.657509e+00 1.583190e+00 1.747451e+00 1.970722e+00 1.783207e+00 6.978602e-01
<GCONST> 8.219820e+01
<TRANSP> 5
 0.000000e+00 1.000000e+00 0.000000e+00 0.000000e+00 0.000000e+00
 0.000000e+00 8.463025e-01 1.536975e-01 0.000000e+00 0.000000e+00
 0.000000e+00 0.000000e+00 8.307420e-01 1.692581e-01 0.000000e+00
 0.000000e+00 0.000000e+00 0.000000e+00 8.969415e-01 1.030585e-01
 0.000000e+00 0.000000e+00 0.000000e+00 0.000000e+00 0.000000e+00
<ENDHMM>
~h "uh"
<BEGINHMM>
<NUMSTATES> 5
<STATE> 2
<MEAN> 25
 -1.132182e+00 1.857647e+00 -6.537389e-01 4.977270e+00 3.338026e+00 -1.039655e+00 1.535928e-02 2.554478e+00 4.510233e+00 -7.434387e-01 6.233299e-02 1.715354e+00 5.037655e-01 2.572944e-01 -1.959496e-01 1.538688e-01 -2.131753e-01 -1.612755e-01 -8.189696e-01 -7.018231e-01 -4.586392e-01 2.579003e-01 -1.033583e-01 -2.734184e-01 3.079304e-01
<VARIANCE> 25
 3.539339e+01 1.448666e+01 8.783033e+00 2.002893e+01 1.187202e+01 2.318069e+01 7.870613e+01 4.770207e+01 4.103420e+01 2.186339e+01 1.594549e+01 3.040284e+01 4.048027e-01 7.711590e-01 9.750497e-01 1.242475e+00 1.048477e+00 2.163712e+00 9.985762e-01 1.621578e+00 1.871561e+00 3.133586e+00 1.223639e+00 1.246175e+00 3.679536e-01
<GCONST> 8.570763e+01
<STATE> 3
<MEAN> 25
 7.576797e+00 4.817294e+00 -5.362729e+00 -9.982586e-01 -5.481795e+00 -2.927495e+00 -1.155206e+01 -1.005057e+01 -6.981676e+00 -1.373723e+00 1.224328e+00 -2.645577e+00 -6.458046e-02 -1.004069e-01 -1.622323e-01 -4.947206e-01 -6.201124e-01 1.217381e-01 -2.014726e-01 -9.676784e-03 -1.067657e-01 2.672724e-01 2.811268e-01 -4.628585e-01 1.006960e-01
<VARIANCE> 25
 6.618989e+00 2.091606e+01 6.010270e+00 3.714449e+01 3.655566e+01 6.792421e+01 8.209351e+01 1.981921e+01 2.695040e+01 5.293667e+01 9.412249e+00 4.033309e+01 2.020444e-01 5.397604e-01 4.850207e-01 9.314632e-01 1.116772e+00 1.308693e+00 2.026708e+00 2.186092e+00 1.087321e+00 1.599642e+00 9.388599e-01 1.163805e+00 1.990163e-01
<GCONST> 8.258495e+01
<STATE> 4
<MEAN> 25
 6.249182e+00 1.848659e+00 -2.439174e+00 -3.626998e-01 -6.679463e+00 -6.233844e+00 -1.176199e+01 -4.719516e+00 -5.711920e+00 -1.345573e-01 3.519620e+00 -2.745440e+00 -7.028735e-02 2.621385e-01 5.617937e-01 3.333167e-01 7.602445e-01 -2.584637e-01 8.202847e-01 5.899210e-01 4.971359e-01 -7.359446e-01 -2.771905e-01 9.083582e-01 -1.251150e+00
<VARIANCE> 25
 1.059184e+01 1.423827e+01 2.756701e+01 1.766221e+01 4.970851e+01 7.093226e+01 6.803185e+01 2.985128e+01 5.929702e+01 4.234454e+01 2.586662e+01 5.680483e+01 6.811357e-01 1.711924e+00 1.346332e+00 8.400783e-01 4.245523e+00 3.988436e+00 5.837556e+00 3.051765e+00 3.173014e+00 9.598106e-01 4.247308e+00 5.027437e+00 1.701438e+00
<GCONST> 9.874845e+01
<TRANSP> 5
 0.000000e+00 1.000000e+00 0.000000e+00 0.000000e+00 0.000000e+00
 0.000000e+00 7.999780e-01 2.000220e-01 0.000000e+00 0.000000e+00
 0.000000e+00 0.000000e+00 9.049789e-01 9.502108e-02 0.000000e+00
 0.000000e+00 0.000000e+00 0.000000e+00 8.493840e-01 1.506161e-01
 0.000000e+00 0.000000e+00 0.000000e+00 0.000000e+00 0.000000e+00
<ENDHMM>
~h "uw"
<BEGINHMM>
<NUMSTATES> 5
<STATE> 2
<MEAN> 25
 -4.415995e+00 3.978094e-01 1.856746e+00 4.479401e+00 6.261060e+00 1.681718e+00 6.012226e+00 4.867690e+00 4.335716e+00 -1.130950e+00 2.094445e+00 3.045950e+00 -2.102767e-01 -5.903149e-02 -7.859579e-02 2.660228e-02 2.027858e-01 2.637264e-01 2.986051e-01 3.553949e-01 2.393502e-01 1.439499e-01 1.161788e-01 1.520837e-01 -2.178012e-01
<VARIANCE> 25
 2.236342e+01 1.169011e+01 1.247233e+01 9.221287e+00 3.584176e+01 3.100684e+01 5.544409e+01 3.151433e+01 3.137719e+01 1.901954e+01 1.575626e+01 2.850391e+01 4.994945e-01 1.062335e+00 1.197409e+00 8.084666e-01 1.386860e+00 1.834735e+00 1.728127e+00 2.317760e+00 1.474259e+00 2.166321e+00 1.805434e+00 1.554243e+00 3.323382e-01
<GCONST> 8.598289e+01
<STATE> 3
<MEAN> 25
 -5.284606e+00 -1.136391e+00 3.464326e+00 2.849232e+00 -1.130265e+00 8.056319e-02 2.592530e+00 -1.926924e+00 2.556682e+00 -7.820053e-01 1.760089e+00 8.306735e-01 9.755462e-01 1.396157e-01 -2.414990e-02 -1.397024e-01 -8.389948e-01 -6.621016e-01 -1.181197e+00 -8.674965e-01 -9.558958e-01 -1.765487e-01 -3.418111e-02 -5.379092e-01 1.134240e+00
<VARIANCE> 25
 6.097250e+01 3.076263e+01 3.509496e+01 3.006907e+01 5.967403e+01 4.138247e+01 6.502570e+01 5.288561e+01 5.760947e+01 2.410531e+01 2.327206e+01 2.382714e+01 3.802073e+00 3.198328e+00 2.052607e+00 3.570636e+00 3.081670e+00 3.078151e+00 4.898082e+00 6.576987e+00 4.522220e+00 2.642107e+00 2.635977e+00 2.276045e+00 4.068823e+00
<GCONST> 1.058419e+02
<STATE> 4
<MEAN> 25
 8.116841e+00 4.817352e+00 -4.331422e+00 -2.899296e-01 -3.095377e+00 -5.264763e-01 -9.448246e+00 -6.034953e+00 -8.733036e+00 1.379510e+00 5.175102e+00 -5.381314e+00 -1.839767e-02 9.983957e-02 -7.205083e-02 -1.486511e-02 1.985286e-01 1.168947e-01 2.627506e-01 5.800948e-02 2.382432e-01 -1.131051e-01 -2.379012e-01 2.075361e-01 -2.791355e-01
<VARIANCE> 25
 8.707926e+00 2.840061e+01 2.414942e+01 3.259779e+01 4.855030e+01 4.766917e+01 3.350605e+01 2.837511e+01 3.108566e+01 2.960798e+01 3.770840e+01 3.043681e+01 3.369954e-01 1.031342e+00 1.355879e+00 1.984629e+00 1.794554e+00 2.600957e+00 2.822135e+00 2.041739e+00 2.316915e+00 1.736786e+00 2.358150e+00 1.611767e+00 3.875192e-01
<GCONST> 9.160500e+01
<TRANSP> 5
 0.000000e+00 1.000000e+00 0.000000e+00 0.000000e+00 0.000000e+00
 0.000000e+00 8.105165e-01 1.894834e-01 0.000000e+00 0.000000e+00
 0.000000e+00 0.000000e+00 8.195250e-01 1.804750e-01 0.000000e+00
 0.000000e+00 0.000000e+00 0.000000e+00 9.158157e-01 8.418436e-02
 0.000000e+00 0.000000e+00 0.000000e+00 0.000000e+00 0.000000e+00
<ENDHMM>
~h "zh"
<BEGINHMM>
<NUMSTATES> 5
<STATE> 2
<MEAN> 25
 1.731818e-01 8.005523e+00 7.122218e+00 -4.386458e+00 -1.137302e+01 9.817808e-01 -5.164843e+00 -4.585459e+00 -3.714304e+00 -4.890281e+00 3.804218e+00 -8.786679e+00 -3.393442e-01 5.109878e-01 2.606939e-02 1.169259e-01 4.590091e-01 -9.667768e-02 2.298632e-01 -7.188304e-02 3.307900e-01 -8.163576e-02 -3.021840e-01 1.670353e-01 -1.996477e-01
<VARIANCE> 25
 2.909144e+00 1.868479e+01 3.831286e+00 8.249554e+00 1.144448e+01 2.131459e+01 2.856743e+01 1.860235e+01 2.298499e+01 1.933616e+01 1.589040e+01 3.401233e+01 5.344996e-01 6.491234e-01 6.760339e-01 8.781300e-01 1.548392e+00 1.167594e+00 1.292411e+00 1.365106e+00 1.516670e+00 1.211789e+00 8.888075e-01 2.174972e+00 2.427674e-01
<GCONST> 7.698956e+01
<STATE> 3
<MEAN> 25
 -5.796203e+00 4.228018e+00 7.258895e+00 4.347127e-01 -3.582473e+00 2.344330e+00 8.741791e-01 -7.186735e+00 2.189192e+00 -5.053424e-01 -4.086927e-03 5.605745e-01 3.624038e-01 -6.261669e-01 -6.767575e-02 -3.096689e-02 -1.503458e-01 -1.683382e-01 5.336792e-02 1.475467e-01 -1.898685e-01 1.761654e-01 1.754619e-01 7.522149e-02 7.433884e-02
<VARIANCE> 25
 5.815243e+01 3.948998e+01 1.750056e+01 3.199206e+01 3.868962e+01 4.068756e+01 2.178712e+01 2.050716e+01 6.945415e+01 1.725529e+01 1.519244e+01 1.339844e+01 4.399754e+00 1.646569e+00 1.250282e+00 2.487421e+00 3.731146e+00 3.430474e+00 1.652994e+00 2.165172e+00 4.208393e+00 2.113872e+00 1.458458e+00 1.076707e+00 3.101029e-01
<GCONST> 9.428748e+01
<STATE> 4
<MEAN> 25
 8.133185e+00 -7.606740e+00 -1.562411e-01 -1.953999e+00 -7.241642e+00 -4.974889e+00 -4.888422e-01 1.103399e+00 -5.030656e+00 4.493191e+00 -2.522735e+00 1.467713e+00 3.837996e-01 -7.290777e-01 -9.193768e-01 3.855140e-01 1.049822e+00 1.376044e-01 -1.316414e-01 9.970945e-01 -2.266719e-01 2.198941e-01 -3.544926e-01 1.300402e-02 -6.045865e-02
<VARIANCE> 25
 3.141607e+00 2.908254e+01 1.856644e+01 1.168306e+01 2.390886e+01 1.097046e+01 1.069484e+01 1.682758e+01 1.383321e+01 3.329710e+01 3.892669e+01 1.219137e+01 6.653916e-01 7.933897e-01 4.840053e-01 7.162539e-01 1.450908e+00 7.758787e-01 1.039271e+00 2.059630e+00 1.200431e+00 9.539092e-01 1.413149e+00 1.152686e+00 2.199872e-01
<GCONST> 7.718899e+01
<TRANSP> 5
 0.000000e+00 1.000000e+00 0.000000e+00 0.000000e+00 0.000000e+00
 0.000000e+00 8.919347e-01 1.080654e-01 0.000000e+00 0.000000e+00
