~o
<STREAMINFO> 1 25
<VECSIZE> 25<NULLD><MFCC_D_N_Z_0><DIAGC>
~s "silst"
<MEAN> 25
 -7.068187e+00 -2.563640e+00 -3.839843e+00 6.004949e-01 3.533056e+00 1.348911e+00 5.922600e+00 -9.243147e-01 4.971239e+00 -2.383622e+00 1.246383e+00 2.391771e+00 -2.457891e-02 -2.291311e-02 -2.804406e-02 -2.574946e-02 -3.367701e-02 -6.570341e-03 -2.009801e-02 -1.265288e-02 -5.362212e-02 -5.372306e-02 -3.382852e-02 -3.428401e-02 -2.342725e-02
<VARIANCE> 25
 5.773401e+00 8.183131e+00 5.893792e+00 9.984710e+00 1.582138e+01 1.338758e+01 1.243488e+01 1.619261e+01 1.282449e+01 1.720965e+01 1.256848e+01 1.299348e+01 1.136486e-01 2.402227e-01 4.228652e-01 5.550597e-01 8.755327e-01 1.030234e+00 1.115003e+00 1.415508e+00 1.339117e+00 1.326217e+00 1.300447e+00 1.178129e+00 3.921961e-02
<GCONST> 6.809582e+01
~h "b"
<BEGINHMM>
<NUMSTATES> 5
<STATE> 2
<MEAN> 25
 1.060424e+01 -7.972770e+00 -7.111926e+00 -6.582094e+00 -1.922857e+00 1.436883e-01 -6.547329e+00 6.161287e+00 -3.575172e+00 6.627032e+00 -1.182375e+01 -5.615068e+00 -1.218160e-01 -1.602125e-01 2.361352e-01 3.330795e-01 1.570735e-01 -3.454738e-01 4.000039e-01 3.110448e-01 -4.953264e-02 -2.957577e-01 -2.852312e-01 4.283195e-01 -1.165507e-01
<VARIANCE> 25
 2.953019e+00 7.624989e+00 7.574046e+00 1.438201e+01 2.567921e+01 1.934898e+01 1.356316e+01 1.533339e+02 1.365481e+01 1.944723e+01 2.050369e+01 2.266042e+01 9.617365e-02 3.680181e-01 6.285096e-01 5.091240e-01 9.415661e-01 7.971410e-01 9.959095e-01 1.222383e+00 7.897595e-01 1.011210e+00 1.308387e+00 5.500640e-01 1.517418e-01
<GCONST> 7.231290e+01
<STATE> 3
<MEAN> 25
 7.965298e+00 -6.717018e+00 3.594437e+00 -1.657450e+00 -7.357720e+00 -4.985261e+00 -1.639339e+00 1.142827e+01 -4.854240e+00 5.978681e+00 -3.396684e+00 -3.769174e+00 -4.620295e-01 4.540328e-01 1.615619e+00 2.661372e-01 -1.071150e+00 -3.272402e-01 5.399420e-01 -1.171931e+00 -5.222905e-01 3.464870e-01 2.007791e+00 3.127114e-01 -5.328726e-01
<VARIANCE> 25
 4.203394e+00 4.444780e+00 3.115104e+01 7.353589e+00 2.103108e+01 1.144866e+01 8.769197e+00 4.367472e+01 1.209601e+01 1.225157e+01 4.869759e+01 1.199497e+01 1.288407e-01 3.567613e-01 7.780296e-01 8.983079e-01 9.323544e-01 1.099214e+00 9.016058e-01 2.213908e+00 1.062024e+00 8.842930e-01 9.922371e-01 6.702181e-01 1.270269e-01
<GCONST> 7.185267e+01
<STATE> 4
<MEAN> 25
 2.345488e+00 1.325827e+00 1.349532e+01 -4.272179e-02 -9.721183e+00 -7.301545e-01 1.702505e+00 -2.431053e+00 -1.964130e+00 6.840641e+00 5.043207e+00 -5.633121e-01 -5.430964e-01 5.764266e-01 -1.226756e-01 2.640257e-01 5.217479e-01 6.469157e-01 5.115898e-01 -6.823324e-01 8.177713e-01 -2.949907e-01 -2.466797e-01 3.316757e-01 -1.173009e+00
<VARIANCE> 25
 1.094747e+01 1.016244e+01 2.646145e+01 1.219116e+01 1.782695e+01 2.496447e+01 3.725615e+01 2.871787e+01 3.506720e+01 1.455020e+01 1.599645e+01 1.243382e+01 3.618844e-01 6.127176e-01 1.670741e+00 1.041534e+00 1.022804e+00 1.393744e+00 1.992683e+00 1.298235e+00 1.256460e+00 1.218536e+00 1.367283e+00 7.683678e-01 3.142750e-01
<GCONST> 8.070680e+01
<TRANSP> 5
 0.000000e+00 1.000000e+00 0.000000e+00 0.000000e+00 0.000000e+00
 0.000000e+00 9.010390e-01 9.896097e-02 0.000000e+00 0.000000e+00
 0.000000e+00 0.000000e+00 8.639834e-01 1.360167e-01 0.000000e+00
 0.000000e+00 0.000000e+00 0.000000e+00 9.010771e-01 9.892292e-02
 0.000000e+00 0.000000e+00 0.000000e+00 0.000000e+00 0.000000e+00
<ENDHMM>
~h "d"
<BEGINHMM>
<NUMSTATES> 5
<STATE> 2
<MEAN> 25
 2.865512e+00 5.108039e+00 4.777491e+00 6.684077e+00 2.092630e+00 -1.562167e+00 -1.320781e+00 -2.269772e+00 -1.929136e-01 -3.493614e+00 -1.572197e+00 -1.295976e+00 9.423798e-01 -2.043874e-01 2.708479e-01 1.566832e-01 -5.343619e-02 -7.819856e-01 -1.087355e+00 -4.742334e-01 -5.800685e-01 -2.030687e-02 -3.787607e-01 -5.906218e-01 1.398765e+00
<VARIANCE> 25
 2.546563e+01 3.687351e+01 4.378416e+01 3.222801e+01 4.412529e+01 4.006889e+01 3.922783e+01 3.576075e+01 2.711596e+01 1.712471e+01 1.740656e+01 1.140198e+01 3.537975e+00 4.460216e+00 4.691999e+00 4.049113e+00 4.687833e+00 5.353617e+00 3.421213e+00 4.267840e+00 4.172583e+00 2.615465e+00 1.914169e+00 2.071559e+00 2.380040e+00
<GCONST> 1.024407e+02
<STATE> 3
<MEAN> 25
 7.843860e+00 -8.333309e-01 -2.237094e+00 1.047627e+00 7.586094e-01 -3.013303e+00 -6.151940e+00 3.696381e-01 -1.822463e+00 3.327882e+00 -1.988261e+00 -4.420822e+00 1.560072e+00 -2.047466e+00 -1.331366e+00 -2.520885e+00 -1.282803e+00 -3.629680e-01 -1.592280e+00 2.614277e+00 -1.098993e+00 2.568263e+00 -6.548880e-01 -1.432484e+00 2.727622e+00
<VARIANCE> 25
 2.752979e+01 3.369485e+01 2.128638e+01 4.722105e+01 2.639908e+01 2.101405e+01 3.607092e+01 6.925687e+01 2.452219e+01 5.718297e+01 1.670147e+01 1.810500e+01 2.273495e+00 3.609641e+00 2.138907e+00 2.878625e+00 2.235141e+00 3.311043e+00 3.881684e+00 9.728088e+00 2.572375e+00 5.251630e+00 3.436997e+00 1.540641e+00 2.448944e+00
<GCONST> 1.015130e+02
<STATE> 4
<MEAN> 25
 5.104850e+00 -1.585238e+00 8.675306e+00 -4.002656e+00 -8.216537e+00 -4.052601e+00 -7.649112e+00 5.544997e+00 -7.065925e+00 4.194152e+00 -1.034791e+00 -2.259824e+00 -2.162595e-01 3.200605e-01 5.981627e-01 1.761069e-01 -3.903103e-01 -1.136726e-01 3.558147e-03 -3.361202e-01 -1.303891e-01 -1.119401e-01 1.639600e-01 2.553602e-01 -1.893911e-01
<VARIANCE> 25
 1.040294e+01 4.001313e+01 6.141575e+01 2.191413e+01 5.100006e+01 1.803267e+01 2.957977e+01 6.706087e+01 1.857888e+01 3.034076e+01 3.945267e+01 1.298145e+01 5.152791e-01 1.850110e+00 2.164048e+00 1.911988e+00 3.943018e+00 1.394093e+00 3.745716e+00 2.793540e+00 1.499051e+00 2.160787e+00 2.898824e+00 9.193061e-01 2.829948e+00
<GCONST> 9.479304e+01
<TRANSP> 5
 0.000000e+00 1.000000e+00 0.000000e+00 0.000000e+00 0.000000e+00
 0.000000e+00 7.357268e-01 2.642733e-01 0.000000e+00 0.000000e+00
 0.000000e+00 0.000000e+00 6.009596e-01 3.990404e-01 0.000000e+00
 0.000000e+00 0.000000e+00 0.000000e+00 8.803799e-01 1.196202e-01
 0.000000e+00 0.000000e+00 0.000000e+00 0.000000e+00 0.000000e+00
<ENDHMM>
~h "f"
<BEGINHMM>
<NUMSTATES> 5
<STATE> 2
<MEAN> 25
 4.233172e-01 3.290727e+00 9.348977e-01 2.642434e+00 4.433342e+00 2.141023e+00 5.492302e-01 -2.069724e+00 -9.039800e-01 -2.484586e+00 -6.314822e-02 -6.537195e-01 -1.564920e+00 -9.042469e-01 -9.205765e-01 -4.225022e-01 -4.263425e-01 1.362075e-01 1.342297e+00 -4.314174e-02 1.302956e+00 4.207924e-01 1.721141e-01 9.967396e-01 -5.573589e-01
<VARIANCE> 25
 2.093609e+01 2.056066e+01 3.196793e+01 2.615590e+01 3.000338e+01 1.632446e+01 2.275079e+01 4.218608e+01 3.560042e+01 2.169409e+01 1.242932e+01 2.021873e+01 1.564629e+00 9.060102e-01 2.821100e+00 2.330826e+00 3.025672e+00 2.367692e+00 4.140409e+00 2.152356e+00 3.994948e+00 2.279846e+00 1.342182e+00 1.771381e+00 1.838698e+00
<GCONST> 9.405026e+01
<STATE> 3
<MEAN> 25
 -5.376569e+00 -9.293893e-01 -1.662002e+00 -1.674782e+00 2.351076e+00 2.513769e+00 2.675815e+00 -5.818609e-01 1.710047e+00 -1.966594e-01 3.881648e-01 8.615610e-01 -3.154775e-01 -1.710322e-01 -9.314377e-02 -2.109860e-01 1.187127e-01 -7.337750e-02 1.014926e-02 1.667679e-01 4.309369e-02 8.651742e-04 7.489690e-02 1.354719e-02 1.649141e-01
<VARIANCE> 25
 1.820938e+01 8.395864e+00 7.554216e+00 1.991571e+01 2.002783e+01 1.537805e+01 1.663682e+01 1.594739e+01 1.615929e+01 2.090326e+01 1.355280e+01 1.133552e+01 5.968401e-01 4.668513e-01 5.446115e-01 9.050153e-01 1.081985e+00 9.419836e-01 1.175523e+00 1.474391e+00 1.224244e+00 1.051099e+00 1.172571e+00 9.709325e-01 3.760245e-01
<GCONST> 7.614553e+01
<STATE> 4
<MEAN> 25
 1.423874e+00 -2.343510e+00 -3.925277e+00 -2.063189e+00 -3.419177e-01 -2.933791e+00 -5.052654e-01 3.517294e+00 2.638288e-01 8.659519e-01 -6.828259e-01 7.585344e-02 6.482670e-01 2.133448e-01 -5.031762e-02 3.847529e-01 -5.225722e-01 -4.020445e-01 -6.202227e-01 -3.226186e-01 -6.456536e-01 1.416514e-01 -1.235048e-02 8.289835e-02 4.599857e-01
<VARIANCE> 25
 1.095123e+02 3.480239e+01 4.257543e+01 3.159571e+01 4.161745e+01 6.793841e+01 2.187807e+01 3.024092e+01 2.881140e+01 1.708992e+01 2.303976e+01 1.455374e+01 3.901370e+00 3.653567e+00 1.953051e+00 1.740490e+00 3.216764e+00 3.657960e+00 2.339397e+00 2.424908e+00 1.509850e+00 1.052428e+00 1.420176e+00 1.283291e+00 8.524792e-01
<GCONST> 9.683836e+01
<TRANSP> 5
 0.000000e+00 1.000000e+00 0.000000e+00 0.000000e+00 0.000000e+00
 0.000000e+00 6.088117e-01 3.911883e-01 0.000000e+00 0.000000e+00
 0.000000e+00 0.000000e+00 9.077813e-01 9.221871e-02 0.000000e+00
 0.000000e+00 0.000000e+00 0.000000e+00 8.509472e-01 1.490528e-01
 0.000000e+00 0.000000e+00 0.000000e+00 0.000000e+00 0.000000e+00
<ENDHMM>
~h "k"
<BEGINHMM>
<NUMSTATES> 5
<STATE> 2
<MEAN> 25
 -2.463541e+00 2.220753e+00 -1.537241e+00 1.461843e+00 1.051904e+00 2.033612e+00 2.032112e+00 3.277455e+00 4.503936e+00 -4.238086e-01 2.873102e+00 9.251614e-01 1.047147e-02 8.168361e-02 -2.356303e-02 -3.276501e-02 -1.957664e-01 -1.865782e-01 -1.716097e-02 -6.960826e-03 -6.705057e-02 6.413575e-02 2.212849e-02 -9.163444e-02 -1.457439e-02
<VARIANCE> 25
 1.285920e+01 1.186361e+01 7.825525e+00 1.731687e+01 2.157885e+01 8.994626e+00 1.398504e+01 3.003628e+01 1.333572e+01 2.067199e+01 1.077795e+01 1.058660e+01 8.814119e-02 2.228769e-01 3.676953e-01 3.787807e-01 6.578197e-01 6.478282e-01 9.179043e-01 1.160908e+00 1.296786e+00 1.194214e+00 9.235580e-01 9.048271e-01 8.050101e-02
<GCONST> 6.859628e+01
<STATE> 3
<MEAN> 25
 -6.517643e+00 -1.776194e+00 -2.811048e+00 6.175200e-01 2.854134e+00 1.024530e+00 6.277802e+00 1.748067e-01 4.718935e+00 -1.641573e+00 1.821405e+00 1.006757e+00 5.581923e-01 -9.361675e-01 -7.671044e-02 -2.723606e-01 -1.813853e+00 -1.324395e+00 -2.942858e-02 5.458845e-01 -1.290961e+00 4.375943e-01 -3.020368e-01 5.371004e-02 1.412304e+00
<VARIANCE> 25
 1.465227e+01 1.853215e+01 1.039136e+01 8.595174e+00 1.940492e+01 1.529563e+01 1.943204e+01 1.497656e+01 1.646220e+01 1.788980e+01 1.099753e+01 1.075881e+01 5.747026e-01 2.185618e+00 1.712652e+00 2.030144e+00 3.689512e+00 2.937629e+00 2.238276e+00 2.718988e+00 2.602196e+00 3.570304e+00 2.102955e+00 2.014348e+00 6.148540e+00
<GCONST> 8.902047e+01
<STATE> 4
<MEAN> 25
 -2.366468e+00 -6.182404e+00 -1.974847e+00 -1.419690e+00 -4.283678e+00 -5.407540e+00 4.520334e+00 3.539414e+00 -2.420294e+00 -1.374675e+00 1.086630e+00 -3.810624e-01 1.401881e+00 -3.630335e-01 5.568063e-02 -1.042322e-01 -9.409723e-02 -9.404161e-01 -1.164426e-01 6.225645e-01 -4.354441e-01 -4.191771e-01 -4.520462e-01 -2.969961e-01 1.882771e+00
<VARIANCE> 25
 2.833409e+01 2.543378e+01 2.232183e+01 4.620979e+01 3.187869e+01 4.211156e+01 2.443204e+01 4.968616e+01 3.098887e+01 4.173692e+01 1.992972e+01 2.155874e+01 3.869678e+00 2.270604e+00 2.537076e+00 3.810571e+00 6.349125e+00 4.542055e+00 3.308907e+00 6.427723e+00 4.105781e+00 6.862218e+00 2.947186e+00 1.954688e+00 5.073598e+00
<GCONST> 1.045722e+02
<TRANSP> 5
 0.000000e+00 1.000000e+00 0.000000e+00 0.000000e+00 0.000000e+00
 0.000000e+00 7.043034e-01 2.956966e-01 0.000000e+00 0.000000e+00
 0.000000e+00 0.000000e+00 4.235612e-01 5.764388e-01 0.000000e+00
 0.000000e+00 0.000000e+00 0.000000e+00 8.134903e-01 1.865097e-01
 0.000000e+00 0.000000e+00 0.000000e+00 0.000000e+00 0.000000e+00
<ENDHMM>
~h "l"
<BEGINHMM>
<NUMSTATES> 5
<STATE> 2
<MEAN> 25
 -3.087951e+00 -1.165112e-01 9.713437e-02 5.354377e+00 1.632036e+00 3.142338e+00 3.400358e+00 6.385118e-01 2.372011e+00 -2.604688e+00 -8.774102e-01 7.703564e-01 4.156526e-02 2.701942e-02 1.926373e-02 -6.088502e-01 -5.379434e-01 2.624214e-01 -1.868709e-01 3.846053e-01 3.946144e-01 -2.893965e-01 -1.834865e-01 2.287735e-01 9.365826e-02
<VARIANCE> 25
 1.969335e+00 3.328787e+00 2.742468e+00 1.135175e+01 1.299738e+01 5.033082e+00 2.642254e+01 2.143828e+01 9.447555e+00 5.904489e+00 1.901981e+01 7.694255e+00 5.332052e-02 3.059978e-01 3.149654e-01 5.111446e-01 1.666502e-01 1.299788e+00 3.951621e+00 1.240770e+00 1.135456e+00 6.793694e-01 2.667516e-01 3.307241e-01 1.890848e-01
<GCONST> 6.055823e+01
<STATE> 3
<MEAN> 25
 -4.538576e+00 -7.608948e-01 3.519403e-01 3.855795e+00 1.690644e+00 2.233332e+00 5.199513e+00 1.668955e+00 2.568784e+00 -1.749616e+00 1.745932e+00 8.119279e-01 -1.157189e-01 7.727496e-02 -2.974582e-02 -1.850314e-01 2.310818e-01 2.436287e-01 4.568568e-01 4.462712e-02 -1.205603e-01 2.702725e-01 7.259409e-02 -5.275466e-02 -6.253766e-02
<VARIANCE> 25
 5.695058e+00 7.058219e+00 8.861783e+00 5.738308e+00 1.165530e+01 1.723415e+01 1.555943e+01 1.584744e+01 9.697146e+00 9.127963e+00 1.066747e+01 8.768865e+00 4.056334e-01 6.678255e-01 1.002496e+00 6.388594e-01 5.698577e-01 3.057028e+00 1.721811e+00 6.557462e-01 9.023946e-01 8.938543e-01 5.416235e-01 1.314633e+00 3.199147e-01
<GCONST> 7.063216e+01
<STATE> 4
<MEAN> 25
 -3.011669e+00 2.024235e+00 -1.351164e+00 -2.942459e-02 -9.543561e-01 4.274733e+00 3.591515e+00 7.808227e-01 2.344529e+00 1.696987e+00 -2.623480e-01 5.679597e-01 -2.459197e-02 1.837400e-02 3.301322e-03 -3.094275e-02 -1.534763e-02 -2.789410e-02 -2.281842e-02 8.489052e-03 5.919592e-02 1.334219e-01 1.576455e-01 7.989845e-02 -2.420350e-02
<VARIANCE> 25
 1.307366e+00 5.178700e+00 2.683232e+00 5.543726e+00 1.006449e+01 7.419118e+00 8.954415e+00 2.901684e+01 7.154646e+00 1.161412e+01 1.113239e+01 8.998921e+00 1.009129e-01 1.949930e-01 1.882087e-01 3.662188e-01 3.925016e-01 5.631790e-01 8.706049e-01 1.136950e+00 8.492310e-01 8.872441e-01 7.433596e-01 7.417037e-01 3.482110e-02
<GCONST> 5.710065e+01
<TRANSP> 5
 0.000000e+00 1.000000e+00 0.000000e+00 0.000000e+00 0.000000e+00
 0.000000e+00 4.876523e-01 5.123478e-01 0.000000e+00 0.000000e+00
 0.000000e+00 0.000000e+00 7.499781e-01 2.500219e-01 0.000000e+00
 0.000000e+00 0.000000e+00 0.000000e+00 9.579437e-01 4.205631e-02
 0.000000e+00 0.000000e+00 0.000000e+00 0.000000e+00 0.000000e+00
<ENDHMM>
~h "m"
<BEGINHMM>
<NUMSTATES> 5
<STATE> 2
<MEAN> 25
 4.398285e+00 -2.263384e+00 -3.808840e+00 -3.830796e+00 -3.358029e+00 -3.121323e+00 2.031315e+00 2.155774e+00 1.141016e+00 3.811998e-01 -2.540215e+00 7.302786e-01 1.469024e+00 3.197989e-01 -1.911527e-01 -5.997033e-01 -6.808590e-01 -9.423835e-01 -2.794991e-01 2.469316e-01 -6.361845e-01 3.075411e-01 -9.104633e-01 -8.766782e-02 1.367046e+00
<VARIANCE> 25
 3.155487e+01 3.827895e+01 3.342672e+01 3.154079e+01 5.332726e+01 6.685973e+01 4.693599e+01 6.670340e+01 4.616340e+01 1.939952e+01 3.520485e+01 2.028446e+01 2.985815e+00 3.458624e+00 3.031470e+00 1.540334e+00 2.870832e+00 5.048139e+00 3.382392e+00 5.983963e+00 3.411741e+00 2.438478e+00 3.638832e+00 1.465893e+00 4.507453e+00
<GCONST> 1.044563e+02
<STATE> 3
<MEAN> 25
 1.095419e+01 -6.226015e+00 -5.632483e+00 -6.982642e+00 1.670719e+00 1.839675e+00 -3.255526e+00 2.649136e+00 -4.485644e+00 2.759948e+00 -8.409676e+00 -5.738350e-01 7.095468e-02 -3.677270e-01 1.145393e-02 -1.582070e-01 -2.665617e-01 -2.925075e-01 5.336336e-02 3.200099e-01 -4.235221e-01 2.923580e-01 -7.643504e-02 8.450249e-02 7.944320e-02
<VARIANCE> 25
 1.458601e+01 2.541580e+01 2.341867e+01 3.009359e+01 5.666232e+01 7.841478e+01 4.933809e+01 4.276192e+01 3.343814e+01 2.052702e+01 3.792712e+01 1.169894e+01 4.552162e-01 4.041558e-01 9.271768e-01 8.877288e-01 1.685077e+00 1.617770e+00 1.010455e+00 1.789727e+00 1.902217e+00 1.442331e+00 1.342093e+00 8.532856e-01 3.614866e-01
<GCONST> 8.693529e+01
<STATE> 4
<MEAN> 25
 9.161141e+00 -4.351789e+00 -4.231208e+00 -3.360341e+00 -2.530885e+00 -4.093358e+00 -1.878263e+00 -3.324703e+00 -6.019537e+00 3.900423e+00 -3.074291e+00 7.976770e-01 -2.486692e-01 5.245293e-01 6.115755e-01 3.903117e-01 2.880360e-01 3.750576e-02 -3.383632e-01 -3.724671e-01 -3.590911e-01 2.133325e-01 4.497910e-01 -3.810552e-02 -5.056882e-01
<VARIANCE> 25
 1.181144e+01 2.857003e+01 9.289385e+01 3.902882e+01 1.019777e+02 4.325928e+01 6.191648e+01 9.962411e+01 2.575643e+01 3.954161e+01 2.733759e+01 2.200182e+01 2.663703e-01 8.858774e-01 1.820266e+00 1.450160e+00 3.459234e+00 2.323860e+00 3.671118e+00 1.978618e+00 1.375801e+00 1.863083e+00 1.408806e+00 1.561015e+00 3.636294e-01
<GCONST> 9.472021e+01
<TRANSP> 5
 0.000000e+00 1.000000e+00 0.000000e+00 0.000000e+00 0.000000e+00
 0.000000e+00 6.183439e-01 3.816561e-01 0.000000e+00 0.000000e+00
 0.000000e+00 0.000000e+00 6.715402e-01 3.284598e-01 0.000000e+00
 0.000000e+00 0.000000e+00 0.000000e+00 7.652651e-01 2.347349e-01
 0.000000e+00 0.000000e+00 0.000000e+00 0.000000e+00 0.000000e+00
<ENDHMM>
~h "n"
<BEGINHMM>
<NUMSTATES> 5
<STATE> 2
<MEAN> 25
 8.685852e+00 4.124152e+00 -1.320298e+00 -2.209223e+00 -7.354951e-01 4.237735e-01 -2.802317e+00 -2.967659e+00 -2.077522e+00 -2.017168e+00 -1.570616e+00 -1.778897e+00 1.002291e+00 -8.719132e-01 -2.815362e-01 -9.570184e-01 -2.987361e-01 3.653131e-01 -9.358004e-01 -5.886911e-02 -7.118804e-01 5.776040e-02 -6.299383e-01 -3.743047e-01 1.542251e+00
<VARIANCE> 25
 3.676471e+01 3.601221e+01 2.906037e+01 7.756989e+01 5.982638e+01 4.854118e+01 3.611275e+01 3.997309e+01 4.196486e+01 2.215014e+01 2.176136e+01 2.089243e+01 3.342217e+00 3.993949e+00 2.215456e+00 3.407299e+00 3.532686e+00 5.153780e+00 4.058522e+00 4.541363e+00 3.246248e+00 2.325927e+00 2.105300e+00 1.624000e+00 1.953165e+00
<GCONST> 1.034079e+02
<STATE> 3
<MEAN> 25
 9.428340e+00 -4.812958e+00 1.688633e+00 -6.899644e+00 -3.276726e+00 2.139665e+00 -7.333788e+00 1.256811e-01 -6.331722e+00 1.893233e+00 -4.722136e+00 -1.833762e+00 -2.369218e-01 3.441981e-01 5.943356e-01 8.066406e-01 -1.118468e-01 -4.713602e-01 -1.653780e-01 -2.669121e-01 3.587941e-01 -2.680853e-01 1.098918e-01 1.812983e-01 -5.185636e-01
<VARIANCE> 25
 1.125657e+01 3.340475e+01 7.319946e+01 4.499072e+01 5.914791e+01 5.646261e+01 4.866230e+01 8.149049e+01 3.562362e+01 3.155914e+01 3.428807e+01 1.534286e+01 4.341194e-01 1.762615e+00 1.566564e+00 1.950903e+00 3.012974e+00 2.007719e+00 2.466255e+00 4.081787e+00 2.833860e+00 2.212031e+00 2.326443e+00 1.152074e+00 1.134563e+00
<GCONST> 9.757195e+01
<STATE> 4
<MEAN> 25
 3.450758e+00 3.434478e+00 -1.320195e-01 2.153757e+00 1.887478e+00 6.365583e-01 -2.461835e+00 -2.123241e+00 1.463348e+00 -2.909974e+00 -1.343116e+00 -6.606088e-01 -2.204017e-01 1.393030e-01 7.978189e-02 2.924562e-01 2.398133e-01 1.151547e-01 1.534654e-01 -2.229544e-02 4.271986e-02 -6.357273e-02 9.179156e-02 7.996295e-02 -3.503169e-01
<VARIANCE> 25
 3.249503e+01 1.298719e+01 2.737855e+01 2.985135e+01 2.680833e+01 3.130321e+01 5.302737e+01 6.063945e+01 3.430738e+01 2.438572e+01 2.340417e+01 2.673012e+01 9.879032e-01 8.642489e-01 9.580362e-01 1.099126e+00 1.188255e+00 1.425893e+00 1.542294e+00 1.984689e+00 1.878167e+00 1.535503e+00 1.631568e+00 1.542680e+00 5.991670e-01
<GCONST> 8.968381e+01
<TRANSP> 5
 0.000000e+00 1.000000e+00 0.000000e+00 0.000000e+00 0.000000e+00
 0.000000e+00 7.931462e-01 2.068538e-01 0.000000e+00 0.000000e+00
 0.000000e+00 0.000000e+00 8.840334e-01 1.159666e-01 0.000000e+00
 0.000000e+00 0.000000e+00 0.000000e+00 8.880196e-01 1.119804e-01
 0.000000e+00 0.000000e+00 0.000000e+00 0.000000e+00 0.000000e+00
<ENDHMM>
~h "p"
<BEGINHMM>
<NUMSTATES> 5
<STATE> 2
<MEAN> 25
 7.540359e+00 2.599658e+00 5.556169e-01 7.926280e+00 1.833925e+00 -3.099020e+00 -7.747255e+00 -5.209336e+00 5.003334e+00 -2.451067e+00 -4.257951e+00 1.391541e+00 -6.723462e-01 1.007968e-01 -4.721505e-01 -1.290446e-01 -3.918450e-01 2.209454e-01 7.410190e-01 -3.008742e-01 -7.543544e-02 -5.424577e-01 -1.591868e-01 -1.340207e-01 -7.291223e-01
<VARIANCE> 25
 3.472796e+01 6.592924e+00 3.315703e+00 1.194557e+01 9.259383e+00 1.000004e+01 3.159784e+01 2.145925e+01 2.343895e+01 9.678749e+00 3.424586e+00 2.407465e+01 2.587966e-01 9.055625e-01 1.209157e+00 1.446833e+00 2.393098e+00 1.930767e+00 1.878788e+00 1.499755e+00 2.097571e+00 1.137552e+00 7.893462e-01 1.322891e+00 1.987049e-01
<GCONST> 7.691527e+01
<STATE> 3
<MEAN> 25
 1.352024e+00 3.822783e+00 1.695242e+00 6.341318e+00 1.751900e+00 2.444438e+00 1.133975e+00 -3.709958e+00 -1.144840e+00 -4.585036e+00 -3.283340e+00 -2.283741e+00 -1.347606e+00 -5.923536e-01 -4.608493e-01 -1.032580e+00 -5.218868e-01 6.228063e-01 1.418291e+00 1.126211e+00 3.781614e-01 5.769707e-01 2.089727e-01 1.030581e-01 -9.998659e-01
<VARIANCE> 25
 9.413336e+00 1.258571e+01 1.007353e+01 1.568089e+01 6.185162e+00 1.036584e+01 2.412604e+01 1.797617e+01 1.153647e+01 1.820596e+01 3.735755e+00 3.885328e+00 3.818344e-01 1.239196e+00 7.253226e-01 1.204536e+00 2.476700e+00 4.341664e-01 1.396836e+00 9.173688e-01 2.435841e+00 1.866352e+00 5.635347e-01 5.122961e-01 1.744406e-01
<GCONST> 7.200234e+01
<STATE> 4
<MEAN> 25
 -2.924227e+00 5.895979e-01 1.971514e-01 6.935858e+00 2.320139e+00 7.223303e-01 1.523522e+00 -9.631678e-01 2.640929e-01 -2.009512e+00 4.787034e-01 -7.380276e-01 -3.958300e-01 3.856868e-04 -2.178591e-01 -5.009204e-01 -5.157097e-01 -7.477002e-02 -1.115061e-01 2.399442e-02 -1.375157e-02 -3.080036e-02 5.210699e-01 3.798122e-01 -2.079520e-01
<VARIANCE> 25
 1.010714e+00 1.847194e+00 6.122291e+00 2.869401e+01 2.200276e+01 5.797963e+00 1.059604e+01 2.128683e+01 1.711789e+01 1.478806e+01 1.448242e+01 7.950460e+00 8.950053e-02 4.172567e-01 8.807176e-02 1.084468e+00 2.794848e-01 9.322258e-01 1.644575e+00 5.020193e-01 1.481085e+00 1.007862e+00 5.195900e-01 1.188636e+00 1.659211e-02
<GCONST> 6.093438e+01
<TRANSP> 5
 0.000000e+00 1.000000e+00 0.000000e+00 0.000000e+00 0.000000e+00
 0.000000e+00 6.149961e-01 3.850040e-01 0.000000e+00 0.000000e+00
 0.000000e+00 0.000000e+00 6.144723e-01 3.855278e-01 0.000000e+00
 0.000000e+00 0.000000e+00 0.000000e+00 4.013628e-01 5.986372e-01
 0.000000e+00 0.000000e+00 0.000000e+00 0.000000e+00 0.000000e+00
<ENDHMM>
~h "r"
<BEGINHMM>
<NUMSTATES> 5
<STATE> 2
<MEAN> 25
 1.344152e+00 1.683353e+00 5.008593e+00 4.047648e+00 -2.784082e+00 -3.741079e+00 -5.683580e-01 -5.184741e+00 -2.380454e+00 -2.639925e+00 -1.281693e+00 -4.295234e-01 1.637327e+00 -4.428137e-01 9.771343e-01 3.909254e-01 -4.312080e-01 -8.107664e-01 -8.437904e-01 -7.405289e-01 -1.702733e+00 -6.779193e-01 1.194335e-01 -2.596227e-02 6.808022e-01
<VARIANCE> 25
 5.536906e+01 5.741946e+01 9.400777e+01 4.720844e+01 4.426596e+01 3.940246e+01 7.530220e+01 8.239489e+01 7.006501e+01 2.487557e+01 2.868382e+01 1.248554e+01 6.912879e+00 4.675358e+00 4.613153e+00 7.019152e+00 2.429138e+00 6.940186e+00 6.791293e+00 1.009054e+01 7.699057e+00 2.477595e+00 5.294654e+00 2.606546e+00 1.803274e+00
<GCONST> 1.121186e+02
<STATE> 3
<MEAN> 25
 1.008805e+01 -4.129910e+00 1.218724e+00 4.220493e+00 -9.985166e-01 -7.199955e+00 -1.025562e+01 -4.488505e+00 -4.529171e+00 -6.361975e+00 -9.242446e-02 2.183866e+00 9.240906e-01 -6.198986e-01 -7.945367e-01 5.040046e-01 1.077302e+00 -4.895993e-01 -1.693958e+00 2.743986e-02 -8.596149e-02 -4.015529e-01 8.797022e-01 6.164661e-01 -1.150075e-01
<VARIANCE> 25
 3.390572e+01 2.653044e+01 9.122001e+01 7.769232e+01 9.928962e+01 5.826904e+01 6.246590e+01 7.023365e+01 7.043310e+01 3.188213e+01 3.862806e+01 2.146397e+01 3.598309e+00 1.454366e+00 3.394125e+00 3.059791e+00 3.264981e+00 4.415180e+00 3.196216e+00 4.541062e+00 3.437068e+00 2.964651e+00 2.679462e+00 2.012622e+00 6.047326e-01
<GCONST> 1.059438e+02
<STATE> 4
<MEAN> 25
 1.105612e+01 -3.924193e+00 -3.054294e+00 7.329193e-01 -3.055444e+00 -5.879595e+00 -1.176663e+01 6.450296e+00 -5.215446e+00 -3.531804e+00 3.956941e+00 2.008932e+00 -4.740890e-01 5.937061e-02 7.027749e-01 2.993186e-01 -2.217807e-01 -7.424364e-02 2.701102e-01 -3.521924e-02 -2.787831e-01 3.505806e-01 2.683848e-01 -3.120853e-01 -3.603531e-01
<VARIANCE> 25
 3.632990e+01 3.589984e+01 7.997168e+01 7.228899e+01 4.904092e+01 7.842229e+01 7.764323e+01 6.680821e+01 6.015288e+01 4.058261e+01 3.727858e+01 1.605454e+01 5.786182e-01 8.119419e-01 1.949454e+00 1.448494e+00 1.999542e+00 1.823157e+00 2.455402e+00 1.812780e+00 3.512060e+00 2.070696e+00 2.096590e+00 1.579111e+00 5.610495e-01
<GCONST> 9.845858e+01
<TRANSP> 5
 0.000000e+00 1.000000e+00 0.000000e+00 0.000000e+00 0.000000e+00
 0.000000e+00 6.423292e-01 3.576708e-01 0.000000e+00 0.000000e+00
 0.000000e+00 0.000000e+00 6.651511e-01 3.348489e-01 0.000000e+00
 0.000000e+00 0.000000e+00 0.000000e+00 8.170322e-01 1.829678e-01
 0.000000e+00 0.000000e+00 0.000000e+00 0.000000e+00 0.000000e+00
<ENDHMM>
~h "s"
<BEGINHMM>
<NUMSTATES> 5
<STATE> 2
<MEAN> 25
 -8.259115e+00 1.174191e+00 3.227103e-02 3.163241e+00 3.207669e+00 -1.016863e-01 6.708652e+00 1.929474e+00 5.140665e+00 2.299312e+00 2.357637e+00 2.750126e+00 -9.303913e-01 7.596053e-01 -1.159683e+00 -1.342221e-01 1.752952e-01 -1.974024e-01 -2.385052e-01 -1.346615e-01 5.098657e-02 -8.863873e-02 3.716070e-01 2.558677e-01 1.288336e-01
<VARIANCE> 25
 4.675750e+01 3.266509e+01 6.705396e+01 3.229516e+01 6.270249e+01 3.126421e+01 4.629982e+01 2.661558e+01 4.203108e+01 2.277571e+01 1.898097e+01 2.219988e+01 3.891287e+00 2.056670e+00 3.496398e+00 3.498033e+00 3.670975e+00 3.113552e+00 3.489903e+00 2.766351e+00 3.094930e+00 2.291091e+00 1.762465e+00 1.867400e+00 2.421946e+00
<GCONST> 1.018858e+02
<STATE> 3
<MEAN> 25
 -1.666784e+01 7.496218e+00 -8.189965e+00 1.291228e+00 7.119693e+00 -3.554052e+00 6.425794e+00 -1.605860e+00 6.085964e+00 -2.550691e-01 1.359907e+00 2.308449e+00 2.159457e-01 -1.277734e-01 1.448276e-01 -6.188035e-02 3.928082e-02 6.726515e-02 6.010064e-02 9.916380e-02 -1.120918e-02 5.630919e-02 -4.067404e-02 1.419383e-01 -3.615706e-01
<VARIANCE> 25
 1.263516e+01 1.154936e+01 1.753127e+01 1.424644e+01 1.811858e+01 1.614619e+01 1.888444e+01 1.748045e+01 1.682736e+01 1.620642e+01 1.560462e+01 1.324337e+01 4.461389e-01 5.170162e-01 9.741870e-01 7.492490e-01 1.038787e+00 1.349468e+00 1.713923e+00 1.917279e+00 1.788327e+00 1.672850e+00 1.494034e+00 1.236154e+00 2.497277e-01
<GCONST> 7.893579e+01
<STATE> 4
<MEAN> 25
 -9.635189e+00 -2.566170e+00 5.243179e+00 -1.676447e+00 -1.404922e+00 6.242651e-01 6.373435e+00 -4.993576e-02 1.579189e+00 3.128851e+00 2.066536e+00 3.819194e+00 9.319097e-01 -3.649455e-01 2.974570e-01 2.671528e-01 -4.077551e-01 1.248681e-01 -1.772135e-01 -4.370006e-02 -2.176960e-01 -8.610202e-02 -4.271477e-03 -1.181237e-01 -3.063007e-01
<VARIANCE> 25
 6.048056e+01 2.456850e+01 9.536092e+01 2.188208e+01 4.871463e+01 1.966878e+01 4.238350e+01 2.261870e+01 2.646703e+01 2.967607e+01 2.670579e+01 1.384262e+01 3.452424e+00 1.682341e+00 3.384144e+00 1.414169e+00 2.034551e+00 1.783333e+00 2.308748e+00 2.168867e+00 1.833894e+00 1.682932e+00 1.891044e+00 1.446265e+00 1.592433e+00
<GCONST> 9.602642e+01
<TRANSP> 5
 0.000000e+00 1.000000e+00 0.000000e+00 0.000000e+00 0.000000e+00
 0.000000e+00 6.519870e-01 3.480130e-01 0.000000e+00 0.000000e+00
 0.000000e+00 0.000000e+00 9.103695e-01 8.963052e-02 0.000000e+00
 0.000000e+00 0.000000e+00 0.000000e+00 8.139815e-01 1.860186e-01
 0.000000e+00 0.000000e+00 0.000000e+00 0.000000e+00 0.000000e+00
<ENDHMM>
~h "t"
<BEGINHMM>
<NUMSTATES> 5
<STATE> 2
<MEAN> 25
 4.378529e+00 3.473138e+00 6.165002e+00 2.846973e+00 -3.684083e+00 -5.303377e+00 -6.611796e+00 -6.366940e+00 -1.147615e+00 -4.214793e+00 -1.617144e+00 -2.290123e+00 -5.331034e-01 3.415602e-02 -8.725357e-01 9.213509e-01 1.454220e+00 8.898798e-01 1.553450e+00 -2.321459e-01 7.301252e-01 -5.146479e-01 -2.560053e-01 4.579846e-01 -1.594759e+00
<VARIANCE> 25
 2.510920e+01 4.299837e+01 3.351807e+01 1.940865e+01 6.816521e+01 3.037988e+01 7.229198e+01 4.086749e+01 2.640971e+01 2.686416e+01 2.139802e+01 1.729661e+01 8.573154e-01 2.188549e+00 3.175711e+00 1.594539e+00 4.136655e+00 3.106290e+00 2.926708e+00 2.209835e+00 2.775745e+00 1.729116e+00 1.652393e+00 1.966841e+00 2.845641e+00
<GCONST> 9.797872e+01
<STATE> 3
<MEAN> 25
 2.168664e+00 5.254280e+00 3.542909e+00 6.036013e+00 3.245710e+00 8.765016e-01 -4.121269e-01 -2.831488e+00 6.106110e-01 -4.509294e+00 -3.644614e+00 -2.202619e+00 -1.091977e+00 -6.017951e-01 -6.342983e-01 -1.755886e-02 6.167741e-01 7.259942e-01 1.230531e+00 9.508898e-01 4.326521e-01 5.799455e-01 6.375549e-01 5.667338e-01 -7.348897e-01
<VARIANCE> 25
 1.933323e+01 1.831971e+01 9.642906e+00 1.309156e+01 1.868927e+01 1.834769e+01 2.405966e+01 2.781539e+01 1.369201e+01 2.855739e+01 2.550763e+01 1.769490e+01 1.019975e+00 1.299532e+00 1.482368e+00 1.411886e+00 1.971999e+00 1.414947e+00 2.467233e+00 2.278122e+00 1.812177e+00 1.669136e+00 1.773595e+00 1.968543e+00 5.834953e-01
<GCONST> 8.667082e+01
<STATE> 4
<MEAN> 25
 -3.636307e+00 7.434342e-01 -1.402925e+00 3.010439e+00 3.274521e+00 2.803450e+00 4.874745e+00 2.382859e+00 3.978865e+00 -1.197142e+00 2.285224e+00 2.936256e+00 -1.104765e-01 -1.909268e-01 -1.331599e-01 -1.130150e-01 -4.720474e-02 -1.095528e-01 -2.785965e-02 1.557640e-01 6.469245e-02 7.695311e-02 1.202118e-01 3.637202e-02 1.311722e-01
<VARIANCE> 25
 8.534653e+00 1.538074e+01 8.889400e+00 1.598172e+01 2.001835e+01 2.035056e+01 1.926042e+01 2.925931e+01 1.662842e+01 1.641924e+01 1.538223e+01 1.266323e+01 8.012118e-01 1.400108e+00 1.091666e+00 1.978569e+00 1.902384e+00 2.067088e+00 2.109388e+00 2.287420e+00 1.774221e+00 1.802312e+00 1.622226e+00 1.286065e+00 1.976630e+00
<GCONST> 8.541327e+01
<TRANSP> 5
 0.000000e+00 1.000000e+00 0.000000e+00 0.000000e+00 0.000000e+00
 0.000000e+00 6.948013e-01 3.051988e-01 0.000000e+00 0.000000e+00
 0.000000e+00 0.000000e+00 7.570037e-01 2.429963e-01 0.000000e+00
 0.000000e+00 0.000000e+00 0.000000e+00 9.057609e-01 9.423909e-02
 0.000000e+00 0.000000e+00 0.000000e+00 0.000000e+00 0.000000e+00
<ENDHMM>
~h "v"
<BEGINHMM>
<NUMSTATES> 5
<STATE> 2
<MEAN> 25
 -3.121124e+00 1.109545e-01 2.532843e-01 6.519791e-01 -1.067020e-01 6.668797e-01 -7.162337e-01 -5.987957e-01 5.282320e-01 3.758094e-01 9.502500e-01 -2.668828e-01 2.475742e+00 4.894270e-01 1.063354e+00 -7.470933e-01 -1.584639e+00 -1.531876e+00 -1.274203e+00 -4.782236e-01 -1.130278e+00 1.062157e-01 -2.350583e-01 -6.776131e-01 1.441286e+00
<VARIANCE> 25
 4.117043e+01 3.990741e+01 7.845596e+01 3.529215e+01 4.446675e+01 4.737207e+01 4.064417e+01 3.176095e+01 3.260877e+01 1.547465e+01 2.194784e+01 1.552128e+01 6.345165e+00 3.169087e+00 3.873760e+00 5.178805e+00 7.329004e+00 5.175116e+00 4.773119e+00 4.361523e+00 5.915685e+00 3.001059e+00 3.065291e+00 2.030396e+00 2.894501e+00
<GCONST> 1.065872e+02
<STATE> 3
<MEAN> 25
 9.361409e+00 1.524413e+00 7.226735e-01 -1.675725e+00 -7.125393e+00 -8.633263e+00 -4.360506e+00 2.607934e+00 -2.793769e+00 1.725342e+00 4.817193e-01 -3.177535e+00 1.371400e+00 -7.662155e-01 -1.221622e+00 -4.396036e-01 -2.770618e-01 -1.807236e-01 2.399515e-01 7.717246e-01 -7.764947e-01 2.293890e-01 -2.926283e-01 -1.171923e-01 7.708518e-01
<VARIANCE> 25
 2.587403e+01 1.729889e+01 9.876403e+01 7.405652e+01 5.721495e+01 7.208047e+01 3.003945e+01 7.141759e+01 6.737029e+01 3.845184e+01 2.625418e+01 1.205320e+01 2.525532e+00 2.154488e+00 1.667318e+00 4.081417e+00 4.147582e+00 4.162861e+00 2.303974e+00 4.336427e+00 6.110961e+00 2.915743e+00 1.595233e+00 1.225784e+00 1.011139e+00
<GCONST> 1.028847e+02
<STATE> 4
<MEAN> 25
 9.487014e+00 -5.613792e+00 -1.882323e+00 -3.790091e+00 -3.588646e+00 -3.991788e+00 -4.673066e+00 1.598149e-01 -8.979251e+00 5.634585e+00 -4.492333e+00 -2.380740e+00 -2.771246e-01 -4.787767e-02 4.496671e-01 5.502226e-01 3.532985e-01 -1.484882e-01 -2.392097e-01 -1.433224e-01 -1.604696e-01 -1.392214e-01 -4.149812e-02 2.284682e-01 -1.899889e-01
<VARIANCE> 25
 1.099780e+01 2.123824e+01 6.432345e+01 7.130546e+01 1.068724e+02 6.160019e+01 4.538361e+01 9.919134e+01 3.113237e+01 3.530245e+01 4.743425e+01 1.825438e+01 1.785726e-01 9.563237e-01 1.364803e+00 1.107697e+00 2.949152e+00 1.983902e+00 2.357117e+00 1.679570e+00 1.499378e+00 1.160409e+00 1.946648e+00 1.082372e+00 4.605327e-01
<GCONST> 9.311393e+01
<TRANSP> 5
 0.000000e+00 1.000000e+00 0.000000e+00 0.000000e+00 0.000000e+00
 0.000000e+00 7.553064e-01 2.446936e-01 0.000000e+00 0.000000e+00
 0.000000e+00 0.000000e+00 5.974662e-01 4.025338e-01 0.000000e+00
 0.000000e+00 0.000000e+00 0.000000e+00 8.758671e-01 1.241329e-01
 0.000000e+00 0.000000e+00 0.000000e+00 0.000000e+00 0.000000e+00
<ENDHMM>
~h "w"
<BEGINHMM>
<NUMSTATES> 5
<STATE> 2
<MEAN> 25
 1.687841e+00 -1.797045e+00 8.769826e+00 2.794885e+00 -4.978926e+00 -7.562482e+00 -4.627165e+00 3.153261e+00 -6.253451e+00 3.032596e+00 7.441013e-01 -1.517050e+00 1.834601e-02 3.544344e-01 -1.425105e-01 1.188104e+00 4.890257e-01 -1.506897e-01 5.481026e-02 -8.136145e-01 1.208483e+00 -2.236289e-01 4.870790e-01 5.994461e-01 -9.817610e-01
<VARIANCE> 25
 3.732607e+01 1.794543e+01 3.177456e+01 2.023222e+01 1.052714e+02 1.048388e+02 5.123588e+01 1.085934e+01 8.567414e+01 5.023866e+01 2.130981e+01 5.246722e+01 2.537593e-01 8.013543e-01 1.832856e+00 1.941995e+00 1.446583e+00 2.395272e+00 3.494591e+00 3.037689e+00 3.020568e+00 2.472450e+00 1.926398e+00 1.099957e+00 1.339950e+00
<GCONST> 9.627303e+01
<STATE> 3
<MEAN> 25
 -7.957313e-01 2.226595e+00 5.283894e+00 7.998725e+00 -6.805734e-01 -2.365788e+00 -2.661557e+00 -8.515513e-01 2.126320e+00 -1.338218e+00 -8.822356e-01 1.061594e+00 -5.291733e-01 4.833554e-01 -1.366694e+00 1.225209e+00 1.223264e+00 1.377975e+00 1.231635e+00 -1.047072e+00 1.358830e+00 -4.504679e-01 -3.869405e-01 2.157228e-01 -1.530509e+00
<VARIANCE> 25
 1.980634e+01 1.803415e+01 2.980053e+01 2.373640e+01 5.227341e+01 8.724288e+01 4.636029e+01 2.546417e+01 2.646445e+01 2.877653e+01 2.612135e+01 3.513821e+01 1.006970e+00 2.523594e+00 2.762575e+00 1.692875e+00 4.265644e+00 6.627821e+00 3.565233e+00 5.256839e+00 4.951931e+00 2.368521e+00 2.704263e+00 2.498119e+00 1.205875e+00
<GCONST> 1.006505e+02
<STATE> 4
<MEAN> 25
 -1.494541e+00 2.510901e+00 7.010711e-01 6.912727e+00 3.622737e+00 1.907660e+00 1.346620e+00 4.682400e-01 4.577843e+00 -1.236684e+00 2.279222e-01 2.420168e-01 -1.771056e-01 1.120474e-01 -3.300141e-01 -2.798043e-01 3.823236e-02 2.177676e-01 7.346441e-01 2.497540e-01 -6.061338e-02 5.398421e-02 3.419855e-01 3.787915e-01 -3.863019e-01
<VARIANCE> 25
 1.329951e+01 1.317766e+01 8.609190e+00 9.254229e+00 1.502903e+01 1.647488e+01 5.130531e+01 5.239311e+01 2.101085e+01 1.902324e+01 1.802638e+01 3.297688e+01 1.274786e+00 1.544924e+00 8.256105e-01 6.339979e-01 1.452641e+00 1.281645e+00 3.136416e+00 2.277161e+00 2.202969e+00 1.982571e+00 1.157498e+00 2.927552e+00 4.512199e-01
<GCONST> 8.579459e+01
<TRANSP> 5
 0.000000e+00 1.000000e+00 0.000000e+00 0.000000e+00 0.000000e+00
 0.000000e+00 3.856389e-01 6.143612e-01 0.000000e+00 0.000000e+00
 0.000000e+00 0.000000e+00 5.644219e-01 4.355781e-01 0.000000e+00
 0.000000e+00 0.000000e+00 0.000000e+00 8.909896e-01 1.090103e-01
 0.000000e+00 0.000000e+00 0.000000e+00 0.000000e+00 0.000000e+00
<ENDHMM>
~h "z"
<BEGINHMM>
<NUMSTATES> 5
<STATE> 2
<MEAN> 25
 3.139709e+00 5.893543e+00 4.125156e+00 6.291750e+00 1.519220e+00 -3.171553e+00 -1.170118e+00 -1.902914e+00 1.587687e-01 -7.594110e-01 -6.623852e-01 -2.231980e+00 -1.246707e+00 2.940946e-01 -6.279812e-02 1.640270e-01 2.514318e-01 -1.621936e-01 7.526174e-01 3.540146e-02 3.360306e-01 2.237149e-01 -5.658313e-02 2.001718e-01 1.460859e-01
<VARIANCE> 25
 6.206411e+01 4.837731e+01 2.686899e+01 3.390972e+01 3.698370e+01 5.895907e+01 3.985769e+01 3.325067e+01 2.532005e+01 2.629218e+01 2.445676e+01 1.361807e+01 2.648593e+00 3.959684e+00 3.758577e+00 4.272158e+00 2.752031e+00 5.933274e+00 4.493537e+00 3.452385e+00 2.569578e+00 3.097106e+00 2.431454e+00 1.788229e+00 2.774757e+00
<GCONST> 1.031801e+02
<STATE> 3
<MEAN> 25
 -1.064467e+01 -3.221747e-01 7.856051e+00 3.587088e+00 3.411478e-01 2.329727e-01 8.720655e+00 5.678478e-02 3.003776e-02 4.054652e+00 -6.555400e-01 1.120676e+00 -2.184676e-01 -3.728293e-01 1.539125e-01 -5.250154e-01 -4.104659e-01 -9.735326e-02 -1.207928e-01 -5.264490e-02 -7.650068e-02 -5.303932e-01 4.795820e-01 2.356762e-01 6.120371e-02
<VARIANCE> 25
 5.326506e+01 8.760963e+01 7.823266e+01 2.225120e+01 3.857421e+01 2.170709e+01 3.860468e+01 4.879474e+01 1.866806e+01 3.816138e+01 2.185052e+01 1.272434e+01 2.317891e+00 1.746686e+00 3.878187e+00 1.166651e+00 1.660543e+00 1.796847e+00 2.035321e+00 2.132855e+00 1.536857e+00 1.495930e+00 1.517675e+00 1.268387e+00 1.132630e+00
<GCONST> 9.540591e+01
<STATE> 4
<MEAN> 25
 -1.126756e+01 1.800462e+00 -1.104286e-01 -1.486599e-01 3.843807e+00 9.296552e-01 3.721131e+00 8.576349e-01 3.955676e+00 -2.358635e+00 3.038239e+00 2.108861e+00 3.161055e-01 -6.207665e-02 6.644620e-02 2.118345e-01 1.544510e-02 1.785146e-01 1.090704e-01 1.543380e-01 1.875961e-03 3.058168e-02 1.692433e-01 8.043705e-02 -3.482612e-01
<VARIANCE> 25
 3.964730e+01 7.113593e+01 6.858559e+01 1.654506e+01 2.285064e+01 2.176577e+01 1.440331e+01 2.689930e+01 1.429047e+01 1.254305e+01 1.126468e+01 1.010218e+01 5.876178e-01 6.769750e-01 1.058063e+00 9.361906e-01 1.068871e+00 1.101014e+00 1.198753e+00 1.010384e+00 1.551544e+00 1.171890e+00 1.206388e+00 9.865220e-01 2.552957e-01
<GCONST> 8.184750e+01
<TRANSP> 5
 0.000000e+00 1.000000e+00 0.000000e+00 0.000000e+00 0.000000e+00
 0.000000e+00 9.002153e-01 9.978467e-02 0.000000e+00 0.000000e+00
 0.000000e+00 0.000000e+00 8.499134e-01 1.500866e-01 0.000000e+00
 0.000000e+00 0.000000e+00 0.000000e+00 9.192063e-01 8.079367e-02
 0.000000e+00 0.000000e+00 0.000000e+00 0.000000e+00 0.000000e+00
<ENDHMM>
~h "ah"
<BEGINHMM>
<NUMSTATES> 5
<STATE> 2
<MEAN> 25
 7.304395e+00 1.015202e+00 2.549153e+00 -1.047637e+00 -2.370302e+00 -3.254837e+00 -2.403155e+00 7.837919e-01 -4.215461e+00 -8.495380e-01 -2.623001e+00 2.410457e+00 -4.460205e-01 -6.539591e-02 4.952410e-01 9.561113e-02 -4.929803e-02 -1.478726e-01 7.481694e-01 -1.048181e-01 1.464412e-01 -8.541366e-02 -1.628497e-01 3.595283e-01 1.731282e-01
<VARIANCE> 25
 3.192305e+01 2.492567e+01 4.496509e+01 5.641898e+01 5.095676e+01 5.281077e+01 3.521334e+01 5.378624e+01 3.480038e+01 5.805120e+01 4.074995e+01 2.139995e+01 3.635360e+00 3.268496e+00 3.671229e+00 3.511502e+00 3.390621e+00 3.221464e+00 3.837510e+00 4.099952e+00 3.781039e+00 3.667079e+00 2.857204e+00 1.729657e+00 2.184060e+00
<GCONST> 1.054774e+02
<STATE> 3
<MEAN> 25
 -6.095298e+00 2.002647e+00 5.553664e+00 1.653284e+00 3.539584e+00 -1.680049e+00 5.694012e+00 -1.739517e+00 1.604072e+00 -1.055328e+00 3.924472e-01 3.700292e+00 -3.795207e+00 -4.443926e-01 -7.234349e-01 -1.470740e+00 7.507704e-01 2.501468e-01 1.326390e+00 -4.748358e-01 1.047565e+00 2.215623e-01 7.133933e-01 -4.960814e-01 8.917328e-01
<VARIANCE> 25
 4.912989e+01 5.673828e+01 6.490291e+01 3.477911e+01 4.784639e+01 2.652560e+01 4.259463e+01 1.891302e+01 3.649158e+01 3.220219e+01 2.543070e+01 1.802537e+01 4.260729e+00 2.513961e+00 9.006090e+00 1.875041e+00 4.842265e+00 2.739805e+00 3.109380e+00 1.829787e+00 2.776710e+00 2.108317e+00 2.596887e+00 1.629659e+00 8.806666e-01
<GCONST> 1.012408e+02
<STATE> 4
<MEAN> 25
 -1.405566e+01 -6.615165e+00 1.357661e+01 -4.211686e+00 -2.405042e+00 1.150588e+00 9.225303e+00 -1.866876e+00 3.653175e-01 2.180094e+00 1.703361e+00 3.049867e+00 1.113614e-01 -2.010946e-03 -2.589416e-01 1.603693e-01 -9.707947e-02 2.665938e-02 3.929285e-02 2.484197e-01 -1.503365e-02 4.752477e-02 9.189630e-02 -1.715039e-01 -1.863597e-01
<VARIANCE> 25
 3.145807e+01 2.174408e+01 1.095035e+02 1.995811e+01 4.898664e+01 1.596271e+01 6.982520e+01 2.513966e+01 1.966195e+01 5.909473e+01 2.945118e+01 1.307123e+01 9.963280e-01 3.561634e-01 1.119788e+00 6.289979e-01 7.111070e-01 9.045107e-01 9.188370e-01 1.189235e+00 1.144963e+00 1.045354e+00 9.570497e-01 9.068631e-01 2.717070e-01
<GCONST> 8.430359e+01
<TRANSP> 5
 0.000000e+00 1.000000e+00 0.000000e+00 0.000000e+00 0.000000e+00
 0.000000e+00 8.289176e-01 1.710824e-01 0.000000e+00 0.000000e+00
 0.000000e+00 0.000000e+00 6.508422e-01 3.491578e-01 0.000000e+00
 0.000000e+00 0.000000e+00 0.000000e+00 8.779370e-01 1.220630e-01
 0.000000e+00 0.000000e+00 0.000000e+00 0.000000e+00 0.000000e+00
<ENDHMM>
~h "ao"
<BEGINHMM>
<NUMSTATES> 5
<STATE> 2
<MEAN> 25
 -3.677456e+00 2.272609e+00 -4.379634e+00 6.685394e+00 -5.315053e+00 -1.695319e+00 -4.100032e+00 1.528316e+00 7.369164e-02 -1.312492e+00 7.317173e-02 -4.112209e-01 5.225152e-01 7.055264e-01 -6.374643e-01 9.429104e-01 -1.810351e+00 -8.910014e-01 -1.774122e+00 2.230442e-01 -4.336008e-02 -1.875698e-01 2.564894e-02 2.035612e-01 4.160148e-01
<VARIANCE> 25
 8.032111e+01 2.590360e+01 6.089014e+01 4.126462e+01 1.887696e+01 1.097778e+02 4.761786e+01 7.795920e+00 3.892401e+01 7.068007e+00 1.320506e+01 1.453364e+01 1.571316e+00 7.247666e-01 3.036061e-01 1.065060e+00 1.611525e+00 4.500573e+00 1.793343e+00 7.124045e-01 9.282514e-01 7.427627e-01 4.959205e-01 1.020146e+00 5.925938e-02
<GCONST> 8.319219e+01
<STATE> 3
<MEAN> 25
 -5.540551e+00 1.062628e+00 -7.693586e+00 8.016946e+00 -8.375569e+00 1.803711e+00 -7.849730e+00 -3.685000e-01 4.450994e-01 -3.822663e-01 -9.706017e-01 -1.974789e+00 3.916072e-01 -4.395680e-01 -1.378670e-01 -4.833746e-01 -6.229363e-02 -6.683150e-02 -1.931241e-01 -5.054749e-01 1.116545e-01 3.810488e-02 2.663528e-01 7.006948e-02 1.066129e+00
<VARIANCE> 25
 6.909997e+01 1.911295e+01 6.073658e+01 3.576054e+01 1.007401e+01 1.178714e+02 1.706647e+01 1.710143e+01 1.529372e+01 1.445973e+01 8.381952e+00 1.485156e+01 5.257654e-01 4.350077e-01 9.827670e-01 5.235289e-01 1.265063e+00 1.383389e+00 7.182886e-01 2.152472e+00 1.162631e+00 1.424301e+00 6.163347e-01 1.248174e+00 8.745205e-01
<GCONST> 8.275863e+01
<STATE> 4
<MEAN> 25
 1.104943e+01 4.564190e+00 4.677998e-01 -5.347348e+00 -9.466789e+00 -1.778410e+01 -1.172034e+01 3.859842e+00 -1.163496e+00 1.375928e+00 -1.013421e+00 -1.381386e+00 1.595136e-01 -3.644610e-01 -5.395887e-01 -3.985385e-01 2.156246e-01 4.736953e-01 3.284583e-01 1.458059e-01 9.295323e-02 -9.488399e-02 -2.083477e-01 -1.402284e-01 1.417976e-01
<VARIANCE> 25
 1.002701e+01 1.300831e+01 1.880035e+01 2.538005e+01 1.984937e+01 6.257987e+01 2.170795e+01 9.536172e+01 8.423408e+00 9.188387e+00 1.188043e+01 1.081649e+01 2.915902e-01 2.335712e-01 4.053739e-01 2.621270e-01 7.210250e-01 1.670852e+00 7.168949e-01 1.384788e+00 7.130901e-01 7.709478e-01 5.520325e-01 6.709607e-01 5.741225e-02
<GCONST> 7.175198e+01
<TRANSP> 5
 0.000000e+00 1.000000e+00 0.000000e+00 0.000000e+00 0.000000e+00
 0.000000e+00 5.510674e-01 4.489326e-01 0.000000e+00 0.000000e+00
 0.000000e+00 0.000000e+00 6.832290e-01 3.167711e-01 0.000000e+00
 0.000000e+00 0.000000e+00 0.000000e+00 9.266400e-01 7.336006e-02
 0.000000e+00 0.000000e+00 0.000000e+00 0.000000e+00 0.000000e+00
<ENDHMM>
~h "aw"
<BEGINHMM>
<NUMSTATES> 5
<STATE> 2
<MEAN> 25
 -1.417997e+00 -1.193289e+01 -7.221365e+00 -2.289468e+00 1.342488e+00 -3.079977e+00 5.990619e+00 4.561959e+00 8.119182e-01 -2.968175e+00 -1.101393e+00 1.480987e+00 7.308603e-01 -7.846613e-01 -8.629737e-01 -1.916557e-01 4.558066e-01 -1.953185e-01 -4.757776e-01 -1.128199e-01 1.512621e-01 2.600162e-01 -9.433873e-01 -2.110613e-01 9.123473e-01
<VARIANCE> 25
 4.779099e+01 4.878737e+01 1.726085e+01 2.723479e+01 3.670344e+01 2.561983e+01 2.609062e+01 3.289410e+01 2.273336e+01 3.825299e+01 1.715460e+01 3.126804e+01 1.402365e+00 1.884881e+00 1.466039e+00 1.184362e+00 1.942710e+00 1.460676e+00 1.588127e+00 1.905895e+00 1.869390e+00 2.035612e+00 2.107533e+00 1.179176e+00 5.094603e-01
<GCONST> 9.175482e+01
<STATE> 3
<MEAN> 25
 5.286385e+00 -8.992290e+00 -9.411552e+00 -1.480778e+00 5.793064e+00 -7.297674e-01 3.537739e+00 9.882905e-01 -6.001925e-01 -1.868292e+00 -5.807603e+00 -8.179109e-01 1.101790e+00 5.527526e-01 -5.137153e-01 -1.109708e+00 3.488570e-02 9.444497e-01 -5.115472e-02 -1.009344e+00 -5.558650e-01 8.482319e-01 -6.003167e-01 -1.600900e-01 4.051372e-01
<VARIANCE> 25
 3.000193e+01 2.226905e+01 2.044814e+01 3.010699e+01 4.859099e+01 2.690540e+01 2.105022e+01 3.060275e+01 1.624509e+01 1.293324e+01 1.815901e+01 1.339011e+01 1.135139e+00 1.556559e+00 1.552385e+00 2.311323e+00 2.694153e+00 2.113236e+00 1.186044e+00 2.018792e+00 1.661196e+00 1.075128e+00 1.703053e+00 1.061408e+00 3.295619e-01
<GCONST> 8.788034e+01
<STATE> 4
<MEAN> 25
 1.052741e+01 -3.068073e+00 -8.833399e+00 -1.128292e+01 -1.783992e+00 -9.899804e-01 1.616284e+00 -1.076730e+00 -3.208791e+00 2.499125e+00 -4.535888e+00 -3.100458e+00 4.748016e-02 4.642006e-01 1.477691e-01 -3.930643e-01 -1.877180e-01 -4.348388e-02 -3.515608e-01 7.837026e-02 -8.356014e-02 9.373972e-02 9.973404e-02 -2.698624e-02 -2.373602e-01
<VARIANCE> 25
 1.148426e+01 2.243125e+01 1.598781e+01 3.009320e+01 7.133938e+01 8.586240e+01 2.211214e+01 5.930318e+01 2.449032e+01 2.742327e+01 2.269845e+01 9.564748e+00 9.989701e-02 3.695806e-01 5.118775e-01 1.032884e+00 8.818117e-01 1.126760e+00 9.242972e-01 1.016582e+00 8.072286e-01 1.172636e+00 8.017455e-01 5.371402e-01 1.393045e-01
<GCONST> 7.859008e+01
<TRANSP> 5
 0.000000e+00 1.000000e+00 0.000000e+00 0.000000e+00 0.000000e+00
 0.000000e+00 5.763656e-01 4.236344e-01 0.000000e+00 0.000000e+00
 0.000000e+00 0.000000e+00 7.818995e-01 2.181005e-01 0.000000e+00
 0.000000e+00 0.000000e+00 0.000000e+00 8.918228e-01 1.081772e-01
 0.000000e+00 0.000000e+00 0.000000e+00 0.000000e+00 0.000000e+00
<ENDHMM>
~h "ay"
<BEGINHMM>
<NUMSTATES> 5
<STATE> 2
<MEAN> 25
 4.044243e+00 -2.550567e+00 1.375254e+00 5.258241e+00 3.960641e+00 -6.027202e+00 -9.578602e+00 -7.014872e+00 -4.436436e+00 2.784999e-01 -4.630890e-02 -9.324313e-01 -3.978055e-01 3.055915e-01 -6.974511e-02 9.111071e-01 6.657682e-01 4.279635e-01 1.607588e-01 9.076230e-03 5.453010e-01 -5.826013e-01 -3.035595e-01 -3.052451e-01 -7.262646e-01
<VARIANCE> 25
 2.562055e+01 2.856604e+01 3.370652e+01 4.107105e+01 5.258758e+01 5.105054e+01 7.328487e+01 6.020004e+01 4.579449e+01 4.922473e+01 4.187287e+01 3.325441e+01 9.309718e-01 1.894418e+00 2.385255e+00 2.082003e+00 2.648045e+00 3.315858e+00 4.409539e+00 4.703810e+00 3.026941e+00 2.780335e+00 2.747078e+00 2.329454e+00 2.004870e+00
<GCONST> 1.030788e+02
<STATE> 3
<MEAN> 25
 -1.401585e+00 2.367440e+00 1.575889e+00 5.646783e+00 2.942696e+00 8.480067e-01 1.060171e+00 -3.039127e+00 2.235451e+00 -1.566169e+00 -8.073339e-01 5.334414e-01 -1.031527e+00 -1.945743e-01 -7.475977e-01 -1.352363e-01 4.674776e-01 7.004190e-01 9.153891e-01 6.470093e-01 8.069203e-01 6.882521e-02 1.983319e-01 3.802632e-01 -6.740656e-01
<VARIANCE> 25
 2.455273e+01 2.020073e+01 1.767908e+01 2.145839e+01 1.871000e+01 2.096785e+01 3.903561e+01 2.886059e+01 2.413866e+01 1.898761e+01 1.909237e+01 1.927747e+01 1.099666e+00 1.726321e+00 1.799063e+00 1.732945e+00 2.511767e+00 2.614295e+00 2.697816e+00 2.447421e+00 2.017545e+00 1.857985e+00 1.853063e+00 1.464363e+00 9.856978e-01
<GCONST> 9.097957e+01
<STATE> 4
<MEAN> 25
 -4.063839e+00 9.474409e-01 -1.832435e+00 2.847474e+00 2.326378e+00 3.553066e+00 4.272410e+00 2.298112e+00 4.526542e+00 2.258451e-01 1.664577e+00 2.491342e+00 4.671258e-02 3.259273e-02 -4.581235e-02 -1.560895e-03 2.805926e-02 6.290273e-02 1.113109e-02 6.384767e-02 1.742759e-02 -7.450635e-03 -1.347088e-02 -3.208004e-02 -2.850944e-02
<VARIANCE> 25
 1.198667e+01 9.204350e+00 1.050866e+01 1.508962e+01 1.971888e+01 1.250128e+01 1.783533e+01 2.573931e+01 1.489136e+01 1.570756e+01 1.452213e+01 1.287232e+01 4.997304e-01 5.494170e-01 6.165884e-01 7.769752e-01 9.541835e-01 1.001236e+00 1.149267e+00 1.300615e+00 1.358476e+00 1.241598e+00 1.266969e+00 1.075622e+00 3.840347e-01
<GCONST> 7.624197e+01
<TRANSP> 5
 0.000000e+00 1.000000e+00 0.000000e+00 0.000000e+00 0.000000e+00
 0.000000e+00 6.957363e-01 3.042637e-01 0.000000e+00 0.000000e+00
 0.000000e+00 0.000000e+00 7.415488e-01 2.584512e-01 0.000000e+00
 0.000000e+00 0.000000e+00 0.000000e+00 9.335733e-01 6.642666e-02
 0.000000e+00 0.000000e+00 0.000000e+00 0.000000e+00 0.000000e+00
<ENDHMM>
~h "eh"
<BEGINHMM>
<NUMSTATES> 5
<STATE> 2
<MEAN> 25
 9.969486e+00 -3.154202e+00 -7.383765e+00 -1.147630e+01 -9.561760e+00 -2.351808e+00 2.037369e+00 5.135464e-01 -9.824147e+00 8.113571e+00 -9.447476e+00 -1.218952e+00 1.734949e-01 5.725201e-01 -1.760159e-02 -2.140617e-01 -4.933619e-01 -3.520989e-01 -4.856773e-01 3.900807e-01 -2.013941e-01 -1.641931e-01 4.097489e-01 -3.382753e-01 -3.493904e-01
<VARIANCE> 25
 7.687192e+00 1.432657e+01 3.937255e+01 1.612815e+01 9.403589e+01 5.192843e+01 3.800477e+01 7.186402e+01 3.173851e+01 1.673723e+01 2.588346e+01 1.827533e+01 8.553368e-02 4.662957e-01 4.138626e-01 5.395164e-01 8.461971e-01 9.013456e-01 6.712581e-01 8.553751e-01 1.009744e+00 8.404502e-01 9.429214e-01 5.642912e-01 1.075306e-01
<GCONST> 7.737076e+01
<STATE> 3
<MEAN> 25
 1.124773e+01 5.097955e+00 -3.838563e+00 -9.225408e+00 -1.106645e+01 -1.124324e+01 -4.860102e+00 6.928209e+00 -9.321253e+00 5.952017e-01 -1.277034e+00 -4.633677e+00 -9.534779e-02 6.075464e-01 4.371932e-01 4.045024e-01 2.194303e-01 -1.476547e-02 -3.398769e-01 -3.629531e-01 7.660297e-02 -7.909566e-01 3.702866e-01 -3.570069e-02 -6.681484e-01
<VARIANCE> 25
 5.207842e+00 1.160079e+01 1.000916e+02 4.309323e+01 2.848668e+01 1.107484e+02 1.441544e+01 5.855148e+01 7.155914e+01 1.791276e+01 3.188674e+01 1.192143e+01 1.249380e-01 3.541597e-01 7.346603e-01 8.596479e-01 1.389720e+00 1.136161e+00 1.015074e+00 1.402319e+00 1.599051e+00 8.737351e-01 1.265359e+00 9.138396e-01 2.143214e-01
<GCONST> 8.248082e+01
<STATE> 4
<MEAN> 25
 8.777246e+00 8.617388e+00 4.035625e-01 -3.039869e+00 -4.874252e+00 -6.126357e+00 -5.548389e+00 8.161086e-01 -3.323556e+00 -2.034613e+00 -2.865819e-01 -3.444454e+00 -7.104136e-01 1.214833e-01 2.267036e-01 1.399360e+00 1.514962e+00 1.242763e+00 9.351318e-01 -7.746722e-01 1.355088e+00 -8.473083e-02 -5.132597e-02 2.249167e-01 -1.084658e+00
<VARIANCE> 25
 8.035025e+00 1.048074e+01 6.827592e+01 4.638235e+01 2.888932e+01 2.563697e+01 2.118463e+01 3.783098e+01 5.101051e+01 1.793842e+01 3.494203e+01 1.134655e+01 3.449066e-01 6.849631e-01 1.658531e+00 1.481655e+00 9.185820e-01 1.701627e+00 1.443857e+00 4.051817e+00 1.721524e+00 1.369409e+00 1.789873e+00 9.466194e-01 5.429717e-01
<GCONST> 8.697979e+01
<TRANSP> 5
 0.000000e+00 1.000000e+00 0.000000e+00 0.000000e+00 0.000000e+00
 0.000000e+00 8.933220e-01 1.066780e-01 0.000000e+00 0.000000e+00
 0.000000e+00 0.000000e+00 8.838320e-01 1.161680e-01 0.000000e+00
 0.000000e+00 0.000000e+00 0.000000e+00 7.718323e-01 2.281677e-01
 0.000000e+00 0.000000e+00 0.000000e+00 0.000000e+00 0.000000e+00
<ENDHMM>
~h "ey"
<BEGINHMM>
<NUMSTATES> 5
<STATE> 2
<MEAN> 25
 -3.722986e+00 6.449283e-01 -1.989819e+00 4.547802e+00 4.482994e+00 2.501419e+00 6.624927e+00 1.229813e+00 4.688744e+00 -2.469384e+00 1.686040e-01 2.559654e+00 -2.121805e-01 -6.705490e-01 2.254932e-01 -3.793617e-01 -3.350080e-01 -2.214521e-01 -9.403406e-03 2.276312e-01 -1.813702e-01 3.788035e-01 -2.206656e-01 -7.447210e-03 5.259942e-01
<VARIANCE> 25
 1.511642e+01 1.424796e+01 1.066161e+01 1.406130e+01 2.476179e+01 2.259759e+01 3.915271e+01 2.771115e+01 1.935538e+01 1.695196e+01 1.804880e+01 2.132593e+01 2.167980e+00 3.011168e+00 2.096632e+00 3.399678e+00 4.604974e+00 3.626406e+00 5.765698e+00 3.751992e+00 4.114956e+00 2.285319e+00 2.166106e+00 2.325770e+00 3.978149e+00
<GCONST> 9.636086e+01
<STATE> 3
<MEAN> 25
 1.765491e+00 -8.760041e+00 7.288919e+00 -6.527419e+00 -1.163863e+01 -3.206023e+00 6.650531e-01 7.586782e+00 -4.891130e+00 6.527872e+00 -3.774252e+00 -7.975592e-01 1.863566e+00 -1.855864e-01 1.582561e+00 -1.081767e+00 -3.008612e+00 -3.518201e-01 -1.335711e+00 4.063609e-01 -1.227056e+00 1.018479e+00 -1.830006e-01 -2.875345e-01 3.524458e+00
<VARIANCE> 25
 3.716261e+01 4.239203e+01 1.935114e+01 3.846694e+01 6.250061e+01 1.403687e+01 3.331351e+01 2.855652e+01 2.153568e+01 1.859282e+01 1.603412e+01 1.224584e+01 2.797944e+00 6.972435e+00 1.836917e+00 5.006426e+00 5.820748e+00 2.836528e+00 2.754867e+00 3.106864e+00 3.240748e+00 1.889059e+00 2.304563e+00 1.242734e+00 9.242262e+00
<GCONST> 1.000574e+02
<STATE> 4
<MEAN> 25
 4.252327e+00 2.405272e+00 1.791578e+01 -5.629035e+00 -1.694019e+01 -3.144802e+00 -1.271246e+01 4.501870e-02 -9.380239e+00 6.699102e+00 1.721253e+00 -3.781199e+00 -1.391207e-01 4.947865e-01 2.534099e-01 3.109107e-01 6.155726e-02 -2.088784e-01 -4.272640e-01 -5.658733e-01 -9.398609e-02 -2.656606e-01 1.759274e-01 -2.231698e-01 -3.864062e-01
<VARIANCE> 25
 5.577767e+00 2.174803e+01 2.112618e+01 1.245371e+01 2.147011e+01 1.224864e+01 3.840347e+01 1.834499e+01 1.348453e+01 1.797667e+01 1.102569e+01 1.243850e+01 1.533072e-01 8.484008e-01 9.593775e-01 8.101346e-01 1.291232e+00 8.692774e-01 1.992954e+00 9.690894e-01 8.122756e-01 8.311589e-01 7.669683e-01 4.864636e-01 4.374309e-01
<GCONST> 7.513538e+01
<TRANSP> 5
 0.000000e+00 1.000000e+00 0.000000e+00 0.000000e+00 0.000000e+00
 0.000000e+00 8.875681e-01 1.124319e-01 0.000000e+00 0.000000e+00
 0.000000e+00 0.000000e+00 7.750378e-01 2.249622e-01 0.000000e+00
 0.000000e+00 0.000000e+00 0.000000e+00 9.404607e-01 5.953921e-02
 0.000000e+00 0.000000e+00 0.000000e+00 0.000000e+00 0.000000e+00
<ENDHMM>
~h "hh"
<BEGINHMM>
<NUMSTATES> 5
<STATE> 2
<MEAN> 25
 -1.552153e+00 4.726574e+00 -2.253174e+00 2.347236e+00 2.863060e+00 1.748103e+00 2.739161e+00 8.624595e+00 3.976216e+00 -2.066903e+00 4.354258e+00 2.672771e+00 2.650821e-03 -3.339507e-03 -7.356592e-03 -1.272321e-02 -1.494900e-03 1.326625e-02 1.297254e-02 2.696465e-03 -1.718522e-02 -3.294356e-02 5.673852e-04 2.103258e-02 2.028325e-03
<VARIANCE> 25
 2.681545e+00 3.228724e+00 2.946208e+00 4.388720e+00 5.997119e+00 4.624070e+00 9.572841e+00 9.100353e+00 7.586727e+00 1.031720e+01 7.409248e+00 7.662349e+00 6.018686e-02 1.370631e-01 2.151020e-01 3.144514e-01 4.307543e-01 4.573487e-01 6.192768e-01 7.466881e-01 8.145761e-01 8.076543e-01 7.014282e-01 6.081457e-01 2.155831e-02
<GCONST> 5.185933e+01
<STATE> 3
<MEAN> 25
 -7.770496e+00 -4.084152e+00 -5.063480e+00 1.109729e-01 4.275942e+00 5.508174e-01 7.695873e+00 -2.392844e-01 5.574675e+00 -2.529253e+00 7.055079e-01 3.865003e+00 2.452428e-01 -5.278213e-01 -4.882257e-01 -3.402463e-01 -2.336891e-01 1.000082e-01 3.051414e-01 1.578219e-01 -2.276182e-01 -4.933692e-02 -4.372016e-02 8.648727e-03 3.079454e-01
<VARIANCE> 25
 1.281697e+01 1.502354e+01 6.821764e+00 8.871858e+00 1.470239e+01 1.108098e+01 1.710780e+01 1.827189e+01 1.490552e+01 1.663869e+01 9.172037e+00 1.168686e+01 1.802713e-01 3.302056e-01 4.899406e-01 6.188200e-01 6.959062e-01 7.444928e-01 1.615059e+00 9.777470e-01 1.509698e+00 1.668520e+00 7.163360e-01 1.341182e+00 8.868872e-02
<GCONST> 7.058223e+01
<STATE> 4
<MEAN> 25
 -2.519412e+00 -8.366940e+00 -6.512951e+00 -8.085635e-01 3.639283e-01 1.485093e+00 8.739677e+00 5.282436e+00 3.101167e-01 -3.891079e+00 3.208154e+00 3.931058e+00 1.306787e-01 -1.719778e+00 -5.004749e-01 -3.118765e-01 -2.551733e-01 -3.936338e-01 2.148400e-01 2.741770e-01 -4.119782e-01 -1.512709e-01 -1.766124e-02 -1.132646e-01 1.061292e+00
<VARIANCE> 25
 2.017888e+01 4.890598e+01 7.564225e+00 9.049597e+00 2.896958e+01 1.159695e+01 1.079332e+01 2.390039e+01 2.498588e+01 1.794055e+01 1.629118e+01 8.515622e+00 3.637328e-01 1.046243e+00 8.533959e-01 6.105265e-01 1.305635e+00 1.117917e+00 1.257276e+00 1.577341e+00 1.727881e+00 1.148423e+00 1.184763e+00 1.109186e+00 2.000615e-01
<GCONST> 7.826939e+01
<TRANSP> 5
 0.000000e+00 1.000000e+00 0.000000e+00 0.000000e+00 0.000000e+00
 0.000000e+00 9.621873e-01 3.781267e-02 0.000000e+00 0.000000e+00
 0.000000e+00 0.000000e+00 5.988713e-01 4.011287e-01 0.000000e+00
 0.000000e+00 0.000000e+00 0.000000e+00 7.930256e-01 2.069744e-01
 0.000000e+00 0.000000e+00 0.000000e+00 0.000000e+00 0.000000e+00
<ENDHMM>
~h "ih"
<BEGINHMM>
<NUMSTATES> 5
<STATE> 2
<MEAN> 25
 4.980191e+00 -5.216445e-01 9.217590e+00 4.447835e+00 -4.819069e+00 -6.167565e+00 -1.103073e+01 -5.427378e+00 -6.316703e+00 1.677093e-01 1.160011e-02 -2.403040e+00 3.157569e-01 4.438900e-01 -3.822055e-01 3.743320e-01 6.741172e-01 2.779784e-01 3.262433e-01 -6.981602e-01 2.061014e-01 -3.206239e-01 -2.600828e-01 -2.533496e-01 -9.670929e-01
<VARIANCE> 25
 1.330473e+01 3.916793e+01 4.746863e+01 3.896284e+01 1.789801e+02 2.386190e+01 8.358507e+01 6.414272e+01 2.263427e+01 3.365607e+01 1.603858e+01 2.145607e+01 4.476484e+00 1.544726e+00 3.930880e+00 2.268232e+00 6.587584e+00 2.498279e+00 1.191520e+01 2.861483e+00 3.691527e+00 2.879015e+00 1.520361e+00 1.919477e+00 3.274365e+00
<GCONST> 1.042209e+02
<STATE> 3
<MEAN> 25
 -1.300211e+00 2.815558e+00 1.372867e+00 5.692450e+00 2.683527e+00 -8.964198e-01 2.230705e+00 -3.776256e+00 1.277653e+00 -1.339872e+00 -1.311338e-01 1.486810e+00 -1.129834e+00 -3.602552e-01 -1.166281e+00 -3.820818e-01 5.750012e-01 7.365869e-01 1.114634e+00 5.691257e-01 8.021325e-01 -3.090988e-01 1.616746e-01 6.628179e-01 -7.249543e-01
<VARIANCE> 25
 1.556251e+01 1.919021e+01 1.599658e+01 1.507235e+01 3.112962e+01 1.478538e+01 2.645729e+01 2.837522e+01 2.405315e+01 1.760721e+01 1.548999e+01 2.162126e+01 1.295610e+00 1.741016e+00 1.266122e+00 2.347275e+00 4.063329e+00 1.970153e+00 3.222858e+00 3.173383e+00 2.763694e+00 1.739329e+00 1.795453e+00 1.473760e+00 2.866708e+00
<GCONST> 9.165087e+01
<STATE> 4
<MEAN> 25
 -7.491852e+00 -1.593197e-01 -2.261337e+00 2.537780e+00 4.341745e+00 2.132968e+00 5.712490e+00 -3.211929e-01 4.672667e+00 -1.133081e+00 1.486028e+00 3.751931e+00 -2.465707e-02 1.475899e-01 5.363994e-02 -1.477955e-01 2.834506e-02 6.795509e-02 6.480219e-02 8.622759e-02 1.225509e-01 1.024432e-01 2.773850e-02 -9.204169e-02 3.929177e-02
<VARIANCE> 25
 2.683551e+01 1.770258e+01 2.496017e+01 2.756771e+01 2.786095e+01 1.800035e+01 2.622012e+01 2.533019e+01 2.691479e+01 2.128651e+01 1.762820e+01 1.729225e+01 2.145231e+00 1.837553e+00 1.446263e+00 1.324243e+00 1.519863e+00 1.792121e+00 1.885597e+00 2.696078e+00 2.057846e+00 1.871502e+00 1.626438e+00 1.611336e+00 1.229492e+00
<GCONST> 9.059895e+01
<TRANSP> 5
 0.000000e+00 1.000000e+00 0.000000e+00 0.000000e+00 0.000000e+00
 0.000000e+00 7.891563e-01 2.108437e-01 0.000000e+00 0.000000e+00
 0.000000e+00 0.000000e+00 7.745770e-01 2.254230e-01 0.000000e+00
 0.000000e+00 0.000000e+00 0.000000e+00 8.804194e-01 1.195806e-01
 0.000000e+00 0.000000e+00 0.000000e+00 0.000000e+00 0.000000e+00
<ENDHMM>
~h "iy"
<BEGINHMM>
<NUMSTATES> 5
<STATE> 2
<MEAN> 25
 7.061720e+00 1.677009e+00 6.038005e+00 4.047669e+00 -2.164537e+00 -2.906404e+00 -6.340621e+00 -5.529292e+00 -5.535062e+00 -1.414860e-01 3.074017e+00 -4.834900e+00 3.092573e-01 -4.429994e-01 1.158468e+00 -7.079786e-01 -6.927752e-01 -1.093189e-01 -1.345989e+00 -3.351938e-01 -8.447092e-01 6.877467e-01 6.072258e-01 -5.427401e-01 1.280103e+00
<VARIANCE> 25
 1.948112e+01 3.068371e+01 9.098299e+01 4.080719e+01 1.238538e+02 5.372792e+01 5.234448e+01 4.752563e+01 3.821445e+01 3.566589e+01 3.055032e+01 1.721950e+01 3.142453e+00 3.589512e+00 4.314682e+00 5.017904e+00 5.024811e+00 7.442133e+00 3.632411e+00 4.827985e+00 3.348729e+00 3.950932e+00 3.532158e+00 3.231837e+00 2.122572e+00
<GCONST> 1.084187e+02
<STATE> 3
<MEAN> 25
 3.595689e+00 8.122476e+00 1.607995e+01 -5.304692e+00 -9.513818e+00 -1.094757e-01 -1.174278e+01 -3.025128e+00 -7.731242e+00 2.645968e+00 6.269358e+00 -9.811703e+00 -1.165181e-01 2.503287e-01 -2.420277e-01 1.051414e-01 3.445984e-01 -6.426293e-02 2.477344e-02 -9.139727e-02 1.960192e-01 -8.035225e-02 -3.083938e-01 -2.792327e-02 -3.468057e-01
<VARIANCE> 25
 1.137461e+01 2.172511e+01 3.543535e+01 3.284245e+01 4.470320e+01 2.847245e+01 2.962189e+01 3.303302e+01 1.828744e+01 1.436741e+01 3.408629e+01 2.306650e+01 6.196253e-01 7.255170e-01 1.574247e+00 2.405124e+00 1.376835e+00 1.965447e+00 2.017618e+00 1.485384e+00 1.526218e+00 1.065077e+00 2.333089e+00 1.190895e+00 7.912590e-01
<GCONST> 8.868823e+01
<STATE> 4
<MEAN> 25
 4.050194e+00 -4.170033e+00 7.647191e+00 1.043303e+01 7.501710e+00 -7.760129e+00 -1.595757e+01 -5.308008e+00 -1.032924e+00 -1.355829e-01 -2.357811e+00 -8.463551e+00 -2.021072e-01 1.357645e-01 1.157134e-01 1.172472e-01 -1.291162e-01 2.235050e-01 4.456304e-01 2.568673e-01 3.140492e-01 -4.095096e-02 -2.217979e-01 -1.426082e-02 -3.301038e-01
<VARIANCE> 25
 7.659679e+00 3.098409e+01 2.900585e+01 4.836853e+01 3.525872e+01 3.993385e+01 4.264931e+01 4.604963e+01 3.385761e+01 4.626530e+01 5.205661e+01 2.037285e+01 1.585014e-01 1.675114e+00 9.856478e-01 1.258210e+00 9.283299e-01 2.613975e+00 2.141643e+00 1.386772e+00 1.422575e+00 1.607013e+00 1.792221e+00 8.487590e-01 8.037084e-01
<GCONST> 8.971046e+01
<TRANSP> 5
 0.000000e+00 1.000000e+00 0.000000e+00 0.000000e+00 0.000000e+00
 0.000000e+00 8.351971e-01 1.648030e-01 0.000000e+00 0.000000e+00
 0.000000e+00 0.000000e+00 9.265553e-01 7.344465e-02 0.000000e+00
 0.000000e+00 0.000000e+00 0.000000e+00 9.273888e-01 7.261119e-02
 0.000000e+00 0.000000e+00 0.000000e+00 0.000000e+00 0.000000e+00
<ENDHMM>
~h "ow"
<BEGINHMM>
<NUMSTATES> 5
<STATE> 2
<MEAN> 25
 -5.428502e+00 -8.149478e+00 1.451632e+01 4.521849e+00 3.102264e+00 -2.833501e+00 -4.130025e-01 -1.695335e+01 -1.449885e+01 1.253059e+00 -6.966531e-01 -3.210919e+00 8.279507e-01 -1.064878e-02 -1.152739e+00 -7.596059e-03 2.772633e-01 5.903614e-01 -1.254234e+00 -5.706740e-01 3.238618e-01 2.586856e-02 -2.104005e-02 -4.066196e-01 2.620935e-02
<VARIANCE> 25
 1.370486e+02 9.751194e+00 1.135167e+02 2.774543e+01 4.902455e+01 2.191710e+01 2.281459e+02 8.814694e+01 5.016719e+01 1.191405e+01 1.298851e+01 2.557089e+01 2.968180e+00 4.609454e-01 2.212181e+00 2.213149e+00 1.642314e+00 8.886507e-01 5.502791e+00 3.410795e+00 2.899428e+00 1.130943e+00 1.073292e+00 9.056959e-01 2.353046e-01
<GCONST> 9.521135e+01
<STATE> 3
<MEAN> 25
 1.531162e+01 -1.786658e+00 -9.426784e+00 -3.202792e+00 -2.202613e+00 1.549719e-02 -1.606042e+01 5.010458e+00 -8.419188e+00 6.592479e-01 1.035805e+01 -2.728126e-01 3.803766e-02 2.280201e-01 -4.615843e-01 -6.670299e-01 -6.771825e-02 3.210304e-01 6.875923e-01 3.856391e-01 -4.930154e-01 -2.518419e-01 8.836274e-02 -3.041376e-02 -1.037737e-01
<VARIANCE> 25
 4.878721e+00 4.806438e+00 1.034015e+01 2.512864e+01 1.692025e+01 1.157358e+01 3.992175e+01 4.477641e+01 3.108752e+01 9.998695e+00 1.367904e+01 7.120990e+00 6.097838e-02 3.224385e-01 7.100718e-01 7.341075e-01 5.521519e-01 7.285141e-01 9.928038e-01 1.607725e+00 7.350600e-01 4.735919e-01 5.697282e-01 5.002553e-01 2.763223e-01
<GCONST> 6.912554e+01
<STATE> 4
<MEAN> 25
 8.716201e+00 1.839545e+00 -5.062579e+00 -6.556527e+00 -1.159272e+00 -9.311996e-01 -5.691755e+00 -5.863422e+00 -6.638964e+00 -4.200382e+00 -4.870583e+00 -2.913740e+00 -5.178782e-01 4.255830e-01 2.596064e-01 2.836391e-02 -2.333604e-01 -9.045510e-02 9.006343e-01 6.667265e-01 7.889902e-01 -1.483038e-01 -2.339880e-01 1.030756e-01 -7.363733e-01
<VARIANCE> 25
 1.222765e+01 1.614323e+01 2.420554e+01 2.549230e+01 6.822842e+01 3.434723e+01 4.404714e+01 7.494531e+01 3.077177e+01 2.028033e+01 6.363191e+01 2.536176e+01 1.120871e+00 4.555596e-01 1.394738e+00 2.629640e+00 2.605383e+00 1.993004e+00 2.224211e+00 3.705556e+00 2.000616e+00 1.708768e+00 2.581879e+00 2.156697e+00 7.344373e-01
<GCONST> 9.436266e+01
<TRANSP> 5
 0.000000e+00 1.000000e+00 0.000000e+00 0.000000e+00 0.000000e+00
 0.000000e+00 8.491915e-01 1.508085e-01 0.000000e+00 0.000000e+00
 0.000000e+00 0.000000e+00 9.242447e-01 7.575531e-02 0.000000e+00
 0.000000e+00 0.000000e+00 0.000000e+00 9.247180e-01 7.528198e-02
 0.000000e+00 0.000000e+00 0.000000e+00 0.000000e+00 0.000000e+00
<ENDHMM>
~h "sp"
<BEGINHMM>
<NUMSTATES> 3
<STATE> 2
~s "silst"
<TRANSP> 3
 0.000000e+00 1.599768e-01 8.400233e-01
 0.000000e+00 9.327947e-01 6.720522e-02
 0.000000e+00 0.000000e+00 0.000000e+00
<ENDHMM>
~h "th"
<BEGINHMM>
<NUMSTATES> 5
<STATE> 2
<MEAN> 25
 7.541785e-01 -2.939342e-01 3.936428e-01 1.731898e+00 -7.678789e-02 1.411163e+00 1.889251e+00 2.246352e-01 -1.134305e+00 -3.972865e+00 -2.316118e+00 -9.314628e-01 1.699489e-01 -4.806127e-01 -1.003851e+00 2.935375e-01 7.344322e-01 -1.623801e-01 9.274609e-02 3.566902e-01 1.488965e-01 -3.723465e-01 8.047318e-02 3.183215e-01 1.268063e-02
<VARIANCE> 25
 3.081486e+01 2.265047e+01 1.836869e+01 7.665351e+00 3.859690e+01 1.337671e+01 5.893173e+01 2.500025e+01 2.948912e+01 2.256542e+01 3.786898e+01 4.155153e+01 1.794266e+00 3.908700e+00 3.118767e+00 1.424775e+00 4.217274e+00 2.900475e+00 5.875607e+00 3.337365e+00 4.194691e+00 3.803462e+00 3.663532e+00 6.137422e+00 3.344160e+00
<GCONST> 1.008550e+02
<STATE> 3
<MEAN> 25
 -5.136498e+00 -1.984018e+00 -6.434972e+00 4.387924e+00 -3.689030e-01 2.342669e+00 2.997571e+00 -5.706050e-01 5.383695e+00 -1.552135e+00 6.296790e-02 2.703454e+00 -2.832805e-02 -2.647302e-01 -4.459722e-01 -2.889759e-02 -3.039978e-01 -3.157146e-01 -2.166493e-01 -1.823256e-01 1.963818e-01 4.229945e-02 -2.933249e-01 2.522565e-01 1.453465e+00
<VARIANCE> 25
 2.120136e+01 1.328204e+01 2.298061e+01 1.039847e+01 1.556496e+01 1.144824e+01 2.585568e+01 1.268035e+01 2.258985e+01 1.460173e+01 1.660015e+01 1.504848e+01 1.473279e+00 1.170353e+00 1.716205e+00 1.241896e+00 1.704855e+00 1.944328e+00 1.828717e+00 1.260592e+00 2.372543e+00 2.158181e+00 1.157454e+00 1.595163e+00 1.993376e+00
<GCONST> 8.562986e+01
<STATE> 4
<MEAN> 25
 -2.560490e+00 -4.923709e+00 -4.759264e+00 -1.358878e-01 -3.484490e-01 -4.780757e+00 9.859202e-01 -1.240838e+00 1.509917e+00 -2.844085e+00 -7.461351e-01 5.555032e+00 1.592481e+00 -3.698495e-01 1.876409e+00 -5.381066e-01 6.176409e-01 -8.723471e-01 -1.331593e+00 -4.011157e-01 -1.278494e+00 -6.020474e-01 -5.489532e-01 -7.692150e-01 1.005280e+00
<VARIANCE> 25
 2.155345e+01 2.559653e+01 1.866651e+01 1.103465e+01 2.765299e+01 5.399881e+01 2.726866e+01 1.613431e+01 5.543211e+01 2.725092e+01 4.334550e+01 2.072143e+01 5.102742e+00 4.007172e+00 3.445761e+00 2.084013e+00 3.173811e+00 6.396409e+00 3.133318e+00 3.339354e+00 3.031948e+00 3.092816e+00 2.645785e+00 2.171103e+00 4.558896e+00
<GCONST> 1.009551e+02
<TRANSP> 5
 0.000000e+00 1.000000e+00 0.000000e+00 0.000000e+00 0.000000e+00
 0.000000e+00 5.740805e-01 4.259195e-01 0.000000e+00 0.000000e+00
 0.000000e+00 0.000000e+00 8.713947e-01 1.286054e-01 0.000000e+00
 0.000000e+00 0.000000e+00 0.000000e+00 6.456153e-01 3.543847e-01
 0.000000e+00 0.000000e+00 0.000000e+00 0.000000e+00 0.000000e+00
<ENDHMM>
~h "uw"
<BEGINHMM>
<NUMSTATES> 5
<STATE> 2
<MEAN> 25
 5.100577e+00 2.999141e+00 8.288481e+00 4.300009e+00 -3.722157e-01 -5.980044e+00 -8.884670e+00 1.375496e+00 -5.864556e+00 -5.869405e+00 1.315435e+00 -5.137313e+00 1.290552e+00 6.853186e-01 -5.488878e-02 5.487018e-01 5.462943e-01 2.952736e-01 -2.156956e+00 -9.695838e-01 -3.530032e-01 5.845504e-02 -1.045592e-01 -7.675505e-01 5.526197e-02
<VARIANCE> 25
 1.908445e+01 4.195769e+01 2.592207e+01 2.106306e+01 2.176502e+01 1.723048e+01 5.609637e+01 1.002721e+02 1.763661e+01 2.679087e+01 1.932591e+01 2.137663e+01 2.595234e+00 1.007872e+00 1.280171e+00 1.360849e+00 2.479630e+00 2.077244e+00 4.801982e+00 3.489575e+00 2.206088e+00 3.720444e+00 3.056463e+00 2.246372e+00 4.393623e-01
<GCONST> 9.486259e+01
<STATE> 3
<MEAN> 25
 9.903199e+00 5.890090e+00 -2.994577e+00 4.312893e+00 5.224842e-01 -1.576514e+00 -2.007250e+01 -4.216813e+00 -8.874084e+00 2.005410e+00 1.127088e+01 -9.644669e+00 1.057208e-01 2.362177e-01 -4.201782e-01 -3.780332e-01 4.775256e-02 2.724708e-01 3.752359e-01 -4.099231e-01 5.643525e-02 4.321498e-02 1.098775e-01 4.848665e-01 -3.091896e-01
<VARIANCE> 25
 5.533066e+00 1.342772e+01 1.297378e+01 1.590711e+01 1.198345e+01 9.966523e+00 2.950557e+01 2.680513e+01 1.385074e+01 2.241414e+01 2.169815e+01 2.583305e+01 8.031468e-02 3.753363e-01 5.780762e-01 6.740175e-01 7.205548e-01 7.133292e-01 1.115642e+00 8.151256e-01 7.221983e-01 9.698293e-01 9.951468e-01 1.093985e+00 1.917452e-01
<GCONST> 7.198000e+01
<STATE> 4
<MEAN> 25
 3.211259e+00 8.937379e-01 -2.342610e+00 4.172604e-01 7.006424e+00 1.612365e+00 -7.389376e+00 -8.447215e+00 -7.265226e+00 -5.458054e+00 -1.333967e+00 1.015893e+00 -1.648138e-01 1.804234e-01 -1.327445e-02 -9.783893e-02 -7.862229e-02 1.137504e-01 5.565625e-01 5.658164e-01 1.827510e-01 1.325237e-01 5.927670e-03 8.574390e-02 -3.328135e-01
<VARIANCE> 25
 1.532152e+01 3.320707e+01 9.954033e+00 1.760801e+01 3.162859e+01 7.533861e+00 1.065944e+02 1.955166e+02 7.828384e+01 1.567347e+01 2.135152e+01 1.047834e+01 1.768648e-01 3.634744e-01 3.628900e-01 6.591859e-01 6.767161e-01 4.474809e-01 1.272635e+00 1.275888e+00 1.477589e+00 7.292593e-01 6.915750e-01 5.917691e-01 1.486665e-01
<GCONST> 7.767667e+01
<TRANSP> 5
 0.000000e+00 1.000000e+00 0.000000e+00 0.000000e+00 0.000000e+00
 0.000000e+00 8.803525e-01 1.196475e-01 0.000000e+00 0.000000e+00
 0.000000e+00 0.000000e+00 8.987681e-01 1.012318e-01 0.000000e+00
 0.000000e+00 0.000000e+00 0.000000e+00 9.435754e-01 5.642464e-02
 0.000000e+00 0.000000e+00 0.000000e+00 0.000000e+00 0.000000e+00
<ENDHMM>
~h "sil"
<BEGINHMM>
<NUMSTATES> 5
<STATE> 2
<MEAN> 25
 -4.424490e+00 -2.789407e-01 -2.346701e+00 2.456102e+00 2.830024e+00 2.456568e+00 5.493050e+00 1.049435e+00 3.522272e+00 -1.299383e+00 9.266424e-01 2.358253e+00 1.028263e-01 -8.716304e-03 -2.065103e-01 7.169701e-03 -1.079611e-03 -1.940477e-02 -1.557344e-01 -8.199348e-02 2.594606e-02 -1.762235e-01 -1.287367e-01 2.647270e-02 -6.837498e-02
<VARIANCE> 25
 1.245826e+01 1.271743e+01 1.154473e+01 1.416598e+01 1.860838e+01 1.564732e+01 2.684867e+01 3.338490e+01 2.250690e+01 2.357453e+01 1.803130e+01 1.384908e+01 6.699034e-01 1.593083e+00 8.823872e-01 1.329028e+00 1.613540e+00 1.804869e+00 2.376862e+00 2.654574e+00 1.903433e+00 2.304719e+00 1.816619e+00 1.566156e+00 6.303402e-01
<GCONST> 8.557400e+01
<STATE> 3
~s "silst"
<STATE> 4
<MEAN> 25
 -2.850119e+00 1.093737e+00 -2.084369e+00 -1.669953e-01 -4.500352e-01 4.556990e+00 3.762676e+00 1.232830e+00 2.511963e+00 8.651408e-01 7.376314e-01 1.957434e+00 1.046426e-03 1.402777e-02 -7.685157e-03 -1.873756e-02 7.350349e-03 1.972260e-02 -7.603779e-03 9.410117e-03 2.497870e-02 1.558571e-02 -6.847873e-04 -4.371223e-03 -9.468717e-03
<VARIANCE> 25
 2.543550e+00 6.405038e+00 4.852000e+00 1.006557e+01 1.211837e+01 8.535071e+00 8.866301e+00 2.973710e+01 1.094498e+01 1.418971e+01 1.318589e+01 9.311536e+00 6.964015e-02 1.794039e-01 2.342242e-01 3.760948e-01 5.173853e-01 5.713723e-01 7.091453e-01 7.581228e-01 7.815786e-01 9.043772e-01 8.224992e-01 7.302039e-01 4.835881e-02
<GCONST> 6.015834e+01
<TRANSP> 5
 0.000000e+00 1.000000e+00 0.000000e+00 0.000000e+00 0.000000e+00
 0.000000e+00 6.606252e-01 1.393412e-01 2.000337e-01 0.000000e+00
 0.000000e+00 0.000000e+00 9.611573e-01 3.884272e-02 0.000000e+00
 0.000000e+00 1.960787e-02 0.000000e+00 9.399908e-01 4.040133e-02
 0.000000e+00 0.000000e+00 0.000000e+00 0.000000e+00 0.000000e+00
<ENDHMM>
