~o
<STREAMINFO> 1 25
<VECSIZE> 25<NULLD><MFCC_D_N_Z_0><DIAGC>
~h "proto"
<BEGINHMM>
<NUMSTATES> 5
<STATE> 2
<MEAN> 25
 -4.885390e-08 -3.414878e-08 1.021683e-08 -3.621773e-08 2.738577e-08 -4.001081e-08 3.021111e-08 2.823115e-08 3.959924e-09 -1.317008e-08 -5.405964e-08 2.585074e-08 2.279783e-03 4.145465e-03 -2.125270e-03 4.187458e-04 -3.806050e-03 8.724732e-04 -4.306893e-03 -7.210964e-04 -5.070484e-03 -3.774977e-03 -5.105346e-03 -2.759651e-04 -2.089314e-02
<VARIANCE> 25
 6.330982e+01 3.472429e+01 6.206932e+01 4.346036e+01 5.688357e+01 4.085717e+01 7.154282e+01 5.193732e+01 4.507888e+01 3.008672e+01 3.121082e+01 2.567931e+01 1.321039e+00 1.298584e+00 1.487661e+00 1.593955e+00 1.994757e+00 1.942390e+00 2.268388e+00 2.248173e+00 1.967672e+00 1.729237e+00 1.671344e+00 1.291191e+00 1.302364e+00
<GCONST> 9.805752e+01
<STATE> 3
<MEAN> 25
 -4.885390e-08 -3.414878e-08 1.021683e-08 -3.621773e-08 2.738577e-08 -4.001081e-08 3.021111e-08 2.823115e-08 3.959924e-09 -1.317008e-08 -5.405964e-08 2.585074e-08 2.279783e-03 4.145465e-03 -2.125270e-03 4.187458e-04 -3.806050e-03 8.724732e-04 -4.306893e-03 -7.210964e-04 -5.070484e-03 -3.774977e-03 -5.105346e-03 -2.759651e-04 -2.089314e-02
<VARIANCE> 25
 6.330982e+01 3.472429e+01 6.206932e+01 4.346036e+01 5.688357e+01 4.085717e+01 7.154282e+01 5.193732e+01 4.507888e+01 3.008672e+01 3.121082e+01 2.567931e+01 1.321039e+00 1.298584e+00 1.487661e+00 1.593955e+00 1.994757e+00 1.942390e+00 2.268388e+00 2.248173e+00 1.967672e+00 1.729237e+00 1.671344e+00 1.291191e+00 1.302364e+00
<GCONST> 9.805752e+01
<STATE> 4
<MEAN> 25
 -4.885390e-08 -3.414878e-08 1.021683e-08 -3.621773e-08 2.738577e-08 -4.001081e-08 3.021111e-08 2.823115e-08 3.959924e-09 -1.317008e-08 -5.405964e-08 2.585074e-08 2.279783e-03 4.145465e-03 -2.125270e-03 4.187458e-04 -3.806050e-03 8.724732e-04 -4.306893e-03 -7.210964e-04 -5.070484e-03 -3.774977e-03 -5.105346e-03 -2.759651e-04 -2.089314e-02
<VARIANCE> 25
 6.330982e+01 3.472429e+01 6.206932e+01 4.346036e+01 5.688357e+01 4.085717e+01 7.154282e+01 5.193732e+01 4.507888e+01 3.008672e+01 3.121082e+01 2.567931e+01 1.321039e+00 1.298584e+00 1.487661e+00 1.593955e+00 1.994757e+00 1.942390e+00 2.268388e+00 2.248173e+00 1.967672e+00 1.729237e+00 1.671344e+00 1.291191e+00 1.302364e+00
<GCONST> 9.805752e+01
<TRANSP> 5
 0.000000e+00 1.000000e+00 0.000000e+00 0.000000e+00 0.000000e+00
 0.000000e+00 6.000000e-01 4.000000e-01 0.000000e+00 0.000000e+00
 0.000000e+00 0.000000e+00 6.000000e-01 4.000000e-01 0.000000e+00
 0.000000e+00 0.000000e+00 0.000000e+00 7.000000e-01 3.000000e-01
 0.000000e+00 0.000000e+00 0.000000e+00 0.000000e+00 0.000000e+00
<ENDHMM>
