~o
<STREAMINFO> 1 25
<VECSIZE> 25<NULLD><MFCC_D_N_Z_0><DIAGC>
~h "proto"
<BEGINHMM>
<NUMSTATES> 5
<STATE> 2
<MEAN> 25
 -7.452329e-08 4.224257e-08 2.406280e-08 1.234979e-08 -3.818788e-08 7.985879e-08 -9.544076e-08 -1.640207e-09 -3.865100e-08 -1.674941e-08 -3.932638e-08 2.315586e-08 5.338754e-03 1.166238e-03 -1.238602e-03 6.643350e-04 -2.596517e-03 -4.663147e-03 -9.791491e-03 -8.512015e-03 -9.777130e-03 -7.300548e-03 -8.207212e-03 -3.362278e-03 -2.169943e-02
<VARIANCE> 25
 6.199019e+01 4.232691e+01 4.666193e+01 4.249543e+01 7.020461e+01 3.771576e+01 5.930570e+01 3.764739e+01 4.894437e+01 3.146676e+01 3.026503e+01 2.458696e+01 1.433403e+00 1.715090e+00 1.592751e+00 1.772031e+00 2.444808e+00 2.082629e+00 2.426219e+00 2.307937e+00 2.339969e+00 2.077523e+00 1.819386e+00 1.545175e+00 1.406852e+00
<GCONST> 9.919964e+01
<STATE> 3
<MEAN> 25
 -7.452329e-08 4.224257e-08 2.406280e-08 1.234979e-08 -3.818788e-08 7.985879e-08 -9.544076e-08 -1.640207e-09 -3.865100e-08 -1.674941e-08 -3.932638e-08 2.315586e-08 5.338754e-03 1.166238e-03 -1.238602e-03 6.643350e-04 -2.596517e-03 -4.663147e-03 -9.791491e-03 -8.512015e-03 -9.777130e-03 -7.300548e-03 -8.207212e-03 -3.362278e-03 -2.169943e-02
<VARIANCE> 25
 6.199019e+01 4.232691e+01 4.666193e+01 4.249543e+01 7.020461e+01 3.771576e+01 5.930570e+01 3.764739e+01 4.894437e+01 3.146676e+01 3.026503e+01 2.458696e+01 1.433403e+00 1.715090e+00 1.592751e+00 1.772031e+00 2.444808e+00 2.082629e+00 2.426219e+00 2.307937e+00 2.339969e+00 2.077523e+00 1.819386e+00 1.545175e+00 1.406852e+00
<GCONST> 9.919964e+01
<STATE> 4
<MEAN> 25
 -7.452329e-08 4.224257e-08 2.406280e-08 1.234979e-08 -3.818788e-08 7.985879e-08 -9.544076e-08 -1.640207e-09 -3.865100e-08 -1.674941e-08 -3.932638e-08 2.315586e-08 5.338754e-03 1.166238e-03 -1.238602e-03 6.643350e-04 -2.596517e-03 -4.663147e-03 -9.791491e-03 -8.512015e-03 -9.777130e-03 -7.300548e-03 -8.207212e-03 -3.362278e-03 -2.169943e-02
<VARIANCE> 25
 6.199019e+01 4.232691e+01 4.666193e+01 4.249543e+01 7.020461e+01 3.771576e+01 5.930570e+01 3.764739e+01 4.894437e+01 3.146676e+01 3.026503e+01 2.458696e+01 1.433403e+00 1.715090e+00 1.592751e+00 1.772031e+00 2.444808e+00 2.082629e+00 2.426219e+00 2.307937e+00 2.339969e+00 2.077523e+00 1.819386e+00 1.545175e+00 1.406852e+00
<GCONST> 9.919964e+01
<TRANSP> 5
 0.000000e+00 1.000000e+00 0.000000e+00 0.000000e+00 0.000000e+00
 0.000000e+00 6.000000e-01 4.000000e-01 0.000000e+00 0.000000e+00
 0.000000e+00 0.000000e+00 6.000000e-01 4.000000e-01 0.000000e+00
 0.000000e+00 0.000000e+00 0.000000e+00 7.000000e-01 3.000000e-01
 0.000000e+00 0.000000e+00 0.000000e+00 0.000000e+00 0.000000e+00
<ENDHMM>
